~o
<STREAMINFO> 1 39
<VECSIZE> 39<NULLD><MFCC_D_A_0><DIAGC>
~h "b"
<BEGINHMM>
<NUMSTATES> 5
<STATE> 2
<NUMMIXES> 2
<MIXTURE> 1 5.639497e-01
<MEAN> 39
 -1.445686e+01 2.651096e+00 -1.951150e+00 1.623983e+00 -1.149776e+00 -1.027510e+00 -3.817897e+00 -3.638763e+00 -4.333657e+00 -1.977002e+00 -1.655662e+00 -2.733713e+00 3.313964e+01 -2.040405e-01 6.305993e-02 1.406752e-01 2.173287e-01 2.121727e-01 1.901461e-01 1.102716e-01 6.466013e-02 1.581864e-01 9.227654e-02 1.418087e-02 5.624830e-02 -7.929449e-02 5.931866e-02 -3.906852e-01 -3.347143e-02 -2.527167e-01 -3.264311e-01 -2.757106e-01 -5.301308e-02 9.558656e-02 2.511360e-02 -2.919269e-02 -5.827887e-03 2.602424e-02 6.349083e-01
<VARIANCE> 39
 4.583525e+01 2.456697e+01 2.531331e+01 1.691468e+01 1.304787e+01 1.422799e+01 2.237217e+01 2.782300e+01 2.307920e+01 1.755623e+01 1.787858e+01 1.936309e+01 1.576318e+01 1.766983e+00 1.525159e+00 1.388388e+00 1.355531e+00 1.322765e+00 1.782977e+00 1.739867e+00 2.127464e+00 1.889383e+00 1.823394e+00 1.678125e+00 1.509444e+00 1.819251e+00 3.029948e-01 3.865212e-01 3.663502e-01 3.141909e-01 3.703566e-01 4.126143e-01 3.874772e-01 4.116475e-01 4.017933e-01 3.666875e-01 3.509322e-01 3.172385e-01 6.972229e-01
<GCONST> 1.050932e+02
<MIXTURE> 2 4.360486e-01
<MEAN> 39
 -6.263933e+00 3.440700e+00 -7.613984e-01 -8.093152e-01 -3.677403e+00 -4.982189e+00 -9.223656e+00 -9.055851e+00 -8.910334e+00 -4.985134e+00 -4.141341e+00 -6.271308e+00 4.048364e+01 -7.405402e-01 3.986663e-01 7.873486e-01 7.903284e-01 3.420906e-01 -1.162632e-01 2.743268e-01 6.670665e-02 4.410079e-02 -4.809588e-01 -3.791332e-01 1.319316e-02 -1.288203e-01 -1.520025e-01 -1.198833e+00 -8.845047e-02 -9.506412e-01 -8.172008e-01 -2.695687e-01 1.918054e-03 6.882343e-01 4.372998e-01 4.295631e-01 2.598454e-01 3.041157e-01 1.525423e+00
<VARIANCE> 39
 2.546099e+01 3.044561e+01 2.181411e+01 3.514313e+01 2.659381e+01 3.945001e+01 3.596457e+01 3.050915e+01 3.354281e+01 3.646751e+01 3.942105e+01 2.992102e+01 4.017870e+01 3.671759e+00 4.177544e+00 2.629736e+00 4.874198e+00 3.511741e+00 3.459675e+00 3.627774e+00 3.899743e+00 3.618469e+00 3.486451e+00 2.644543e+00 2.526840e+00 7.270826e+00 4.482315e-01 8.132813e-01 9.290450e-01 9.999014e-01 9.926234e-01 8.674123e-01 9.752606e-01 8.526561e-01 1.019173e+00 8.171266e-01 6.776575e-01 6.276846e-01 1.616362e+00
<GCONST> 1.316758e+02
<STATE> 3
<NUMMIXES> 2
<MIXTURE> 1 5.414878e-01
<MEAN> 39
 -1.323806e+01 1.296444e+00 -1.939074e+00 6.564499e-01 -7.922163e-01 -1.141376e+00 -3.962836e+00 -3.929886e+00 -4.368826e+00 -2.617854e+00 -2.224057e+00 -2.555257e+00 3.769159e+01 1.341426e-01 -2.752801e+00 -1.738599e-01 -1.568070e+00 -1.694117e+00 -1.838580e+00 -2.701557e-01 1.154852e+00 1.116851e+00 3.761839e-01 3.822603e-01 5.622534e-01 5.309450e+00 8.673767e-01 -5.518402e-01 3.884117e-01 -8.735074e-01 -1.219440e+00 -6.509233e-01 -6.452812e-01 -1.382270e-01 -3.503202e-01 -2.614829e-02 1.784590e-01 -7.644455e-02 1.585642e+00
<VARIANCE> 39
 4.062127e+01 2.694854e+01 1.925455e+01 1.952587e+01 1.434625e+01 1.694035e+01 2.064811e+01 2.739724e+01 2.238695e+01 1.872505e+01 1.667429e+01 1.466564e+01 5.622489e+01 4.224038e+00 2.492598e+00 5.096847e+00 3.371518e+00 2.912266e+00 3.850466e+00 4.875566e+00 3.678499e+00 4.169312e+00 3.811584e+00 3.080542e+00 2.664131e+00 4.399897e+00 4.764550e-01 6.388993e-01 1.290565e+00 8.210292e-01 6.931946e-01 8.082147e-01 7.262986e-01 8.815125e-01 9.262440e-01 7.934048e-01 6.941953e-01 5.017938e-01 8.772998e-01
<GCONST> 1.252073e+02
<MIXTURE> 2 4.585116e-01
<MEAN> 39
 -9.648369e+00 -4.174813e+00 -5.083444e-01 -3.146725e+00 -6.105557e+00 -7.216768e+00 -7.689464e+00 -4.413173e+00 -4.213901e+00 -3.422293e+00 -3.214895e+00 -3.446514e+00 4.993428e+01 3.214145e-01 -2.474304e+00 2.141042e+00 -1.919700e+00 -3.429612e+00 -1.633067e+00 -2.658795e-01 1.102566e+00 -6.291906e-01 -4.130810e-01 4.176009e-01 6.260040e-01 4.793867e+00 3.480169e-01 -5.793338e-03 6.554837e-01 -8.387182e-01 -9.046503e-01 2.136373e-01 -3.309481e-01 -1.782260e-01 -6.165653e-01 2.090289e-01 1.904211e-01 -1.147480e-01 2.908641e-01
<VARIANCE> 39
 3.602348e+01 2.841730e+01 3.152363e+01 5.128046e+01 3.069610e+01 3.721447e+01 4.437330e+01 4.003712e+01 4.214255e+01 3.721829e+01 2.800509e+01 2.222419e+01 4.765010e+01 3.425529e+00 3.421731e+00 6.192540e+00 6.847033e+00 4.893549e+00 5.520494e+00 5.081719e+00 5.624834e+00 4.794449e+00 5.147005e+00 2.963816e+00 2.830154e+00 7.039062e+00 5.467184e-01 8.223784e-01 7.900779e-01 1.068011e+00 8.466470e-01 8.339835e-01 9.656969e-01 9.717712e-01 1.068901e+00 1.022663e+00 8.281729e-01 5.493383e-01 1.202675e+00
<GCONST> 1.364222e+02
<STATE> 4
<NUMMIXES> 2
<MIXTURE> 1 4.519378e-01
<MEAN> 39
 -5.788715e+00 -6.544753e+00 -4.443804e+00 -9.082170e+00 -8.680228e+00 -7.928362e+00 -1.025769e+01 -2.682382e+00 -2.283239e+00 -1.307283e+00 -8.071736e-01 -1.760621e+00 5.717685e+01 1.714435e+00 -1.817549e+00 3.447551e-01 -2.212462e+00 -2.836934e+00 -1.357784e+00 -1.540555e+00 9.579209e-01 -1.082527e-01 -1.866252e-01 6.022300e-01 2.643567e-01 3.932116e+00 -7.295868e-02 5.587766e-01 3.823744e-01 2.802017e-01 1.493303e-02 5.035045e-01 1.820002e-01 -2.923532e-01 -5.632291e-01 -2.872905e-01 -5.661622e-02 -1.974252e-01 -1.050964e+00
<VARIANCE> 39
 3.253980e+01 2.477558e+01 6.884566e+01 8.882316e+01 4.039780e+01 6.697886e+01 7.700298e+01 4.901632e+01 3.589428e+01 3.958553e+01 3.652467e+01 2.709192e+01 2.528523e+01 4.563690e+00 3.933167e+00 1.224302e+01 9.120148e+00 6.458243e+00 6.947515e+00 7.989904e+00 6.953836e+00 7.858604e+00 6.612734e+00 4.923870e+00 3.725911e+00 8.086338e+00 4.734066e-01 4.532332e-01 6.155083e-01 1.073503e+00 6.694220e-01 9.135953e-01 1.156565e+00 8.291935e-01 9.625726e-01 8.071480e-01 6.559978e-01 5.631278e-01 5.985570e-01
<GCONST> 1.407396e+02
<MIXTURE> 2 5.480608e-01
<MEAN> 39
 -8.505504e+00 -7.517257e+00 1.079208e+01 -5.107229e+00 -1.768319e+01 -1.119628e+01 -8.381350e+00 -3.032282e+00 -1.134269e+01 -5.527606e+00 -3.760427e-01 -2.714681e+00 5.754658e+01 3.639101e-01 -5.958881e-01 4.035878e+00 -2.904054e+00 -4.023126e+00 1.260875e-01 -8.410277e-01 -1.001430e+00 -2.686169e+00 9.160919e-02 3.394088e-01 -3.094802e-01 2.863881e+00 -2.264596e-01 9.283493e-01 -5.215903e-01 -2.118938e-01 9.504073e-01 9.327343e-01 -2.176663e-01 -5.575482e-01 2.939377e-01 3.787960e-01 -3.173379e-01 -2.353863e-01 -1.282711e+00
<VARIANCE> 39
 1.330469e+01 2.171804e+01 3.533218e+01 5.577251e+01 3.532978e+01 3.313957e+01 3.829967e+01 4.195681e+01 4.637140e+01 4.113643e+01 3.752794e+01 2.196539e+01 2.405971e+01 2.688064e+00 3.153616e+00 2.481952e+00 5.425777e+00 4.813812e+00 4.854574e+00 5.056557e+00 5.579072e+00 4.719124e+00 6.224882e+00 4.636245e+00 2.678437e+00 5.536788e+00 2.996319e-01 3.299294e-01 5.456976e-01 6.573141e-01 6.484777e-01 5.419932e-01 6.891872e-01 7.145305e-01 7.049696e-01 6.194066e-01 4.663563e-01 3.736372e-01 5.574114e-01
<GCONST> 1.274115e+02
<TRANSP> 5
 0.000000e+00 1.000000e+00 0.000000e+00 0.000000e+00 0.000000e+00
 0.000000e+00 7.201276e-01 2.798724e-01 0.000000e+00 0.000000e+00
 0.000000e+00 0.000000e+00 4.725901e-01 5.274099e-01 0.000000e+00
 0.000000e+00 0.000000e+00 0.000000e+00 5.118671e-01 4.881329e-01
 0.000000e+00 0.000000e+00 0.000000e+00 0.000000e+00 0.000000e+00
<ENDHMM>
~h "d"
<BEGINHMM>
<NUMSTATES> 5
<STATE> 2
<NUMMIXES> 2
<MIXTURE> 1 5.625070e-01
<MEAN> 39
 -1.071028e+01 6.933457e+00 4.033246e+00 3.841137e+00 -2.870196e+00 -3.828767e+00 -5.451232e+00 -4.512052e+00 -5.524379e+00 -4.553749e+00 -5.109186e+00 -4.175216e+00 3.508298e+01 -1.169058e+00 -9.523681e-01 -8.241323e-01 -7.329808e-01 8.860357e-01 6.658000e-01 4.504853e-01 4.540349e-01 4.440576e-01 3.647444e-01 4.474367e-01 4.234477e-01 5.764086e-01 -2.297760e-01 -8.416827e-01 -1.500448e-01 -9.738725e-01 -5.962353e-01 -2.002553e-01 7.815268e-02 4.608597e-02 -1.857100e-02 1.960262e-01 2.943186e-01 1.724508e-01 1.416324e+00
<VARIANCE> 39
 1.566503e+01 8.433509e+00 1.543703e+01 1.254542e+01 1.918672e+01 1.893769e+01 1.732560e+01 1.658581e+01 1.828525e+01 1.559010e+01 1.601861e+01 1.307506e+01 6.635464e+00 2.193554e+00 4.874300e+00 2.504560e+00 6.231873e+00 3.389330e+00 2.454972e+00 2.564323e+00 2.518002e+00 2.663716e+00 2.260494e+00 2.333831e+00 1.681160e+00 9.283850e+00 2.782960e-01 4.589348e-01 3.917766e-01 6.147828e-01 7.328157e-01 5.519231e-01 4.781604e-01 4.434159e-01 5.019357e-01 3.788807e-01 3.854920e-01 3.442056e-01 1.131451e+00
<GCONST> 1.112707e+02
<MIXTURE> 2 4.374863e-01
<MEAN> 39
 -9.632904e+00 3.987004e+00 2.921816e+00 4.880065e-01 -6.699713e+00 -7.413864e+00 -7.811440e+00 -6.744349e+00 -7.317360e+00 -6.175432e+00 -7.736300e+00 -5.975275e+00 3.918591e+01 -1.206527e+00 4.657979e-01 -1.179246e-01 4.707172e-01 1.372716e+00 6.081738e-01 4.604076e-01 2.790240e-01 6.291804e-02 -1.368975e-01 2.029083e-01 -8.506879e-02 -7.318373e-01 -2.167132e-01 -9.843260e-01 -2.953719e-01 -1.151840e+00 -4.603072e-01 1.264529e-01 3.837745e-02 2.900909e-01 2.612684e-01 4.753260e-01 5.457523e-01 5.033336e-01 1.456372e+00
<VARIANCE> 39
 2.949284e+01 2.663403e+01 3.247992e+01 3.186896e+01 3.554039e+01 3.303699e+01 3.355364e+01 3.925874e+01 4.248736e+01 3.211946e+01 2.931581e+01 2.930653e+01 3.327199e+01 3.528290e+00 7.098376e+00 4.360955e+00 8.317487e+00 5.708858e+00 4.976409e+00 4.520873e+00 4.995876e+00 4.714812e+00 3.945070e+00 4.100056e+00 3.777426e+00 1.304113e+01 4.745136e-01 7.850150e-01 6.733170e-01 1.149015e+00 9.698867e-01 8.680753e-01 9.961694e-01 9.536752e-01 9.075830e-01 7.740837e-01 6.843812e-01 6.088303e-01 1.615645e+00
<GCONST> 1.363076e+02
<STATE> 3
<NUMMIXES> 2
<MIXTURE> 1 5.935079e-01
<MEAN> 39
 -2.055176e+01 -1.752123e+00 -5.929957e+00 -1.223395e+00 -3.473480e+00 -9.057481e-01 -1.551124e+00 -2.370131e-01 -1.607860e+00 -8.053580e-01 -7.528245e-01 -4.163624e-01 3.069168e+01 -1.124363e-01 -4.259849e-01 -1.836426e-01 -5.336070e-01 2.663445e-02 -1.185822e-01 -7.448533e-03 1.019038e-01 1.412775e-01 2.386991e-01 2.350814e-01 1.298788e-01 9.364676e-01 2.072379e-01 -3.327136e-02 1.637636e-01 -2.825944e-01 -1.642228e-01 -1.972427e-01 -7.860348e-02 -1.447887e-01 -1.035043e-01 -8.853915e-02 -9.235595e-02 -5.698369e-02 8.489431e-01
<VARIANCE> 39
 6.834011e+00 9.986359e+00 1.068959e+01 1.220496e+01 1.281905e+01 1.352545e+01 1.338368e+01 1.373839e+01 1.401416e+01 1.431587e+01 1.408195e+01 1.246673e+01 1.051378e+01 1.113945e+00 1.907102e+00 1.440307e+00 2.844625e+00 1.476836e+00 1.788750e+00 1.962691e+00 2.073414e+00 1.932664e+00 1.909796e+00 1.856580e+00 1.552162e+00 8.174984e+00 2.185892e-01 2.691520e-01 2.712451e-01 4.302448e-01 3.188196e-01 4.091539e-01 3.783220e-01 3.957143e-01 3.824959e-01 3.599767e-01 3.587001e-01 2.983669e-01 1.224482e+00
<GCONST> 1.000354e+02
<MIXTURE> 2 4.064844e-01
<MEAN> 39
 -1.728430e+01 -4.758729e+00 -1.554249e+00 -6.335434e+00 -2.392589e+00 -1.743896e+00 -2.694793e+00 -2.025722e+00 -3.461362e+00 -1.959615e+00 -2.023989e+00 -1.816413e+00 4.541138e+01 -8.825294e-01 -2.203439e+00 -5.199887e-01 -3.374811e+00 -1.371413e+00 -1.067522e+00 3.491276e-01 4.156758e-01 3.712508e-01 7.113934e-01 1.138357e+00 1.006139e+00 6.027120e+00 8.511791e-01 4.772236e-01 6.611253e-01 1.670053e-01 -1.160137e+00 -7.718340e-01 -5.356974e-01 -2.450768e-01 -2.603393e-01 -1.789314e-01 -1.935005e-01 -9.291101e-02 3.712279e-01
<VARIANCE> 39
 2.547840e+01 3.777663e+01 3.590950e+01 4.972403e+01 3.554705e+01 3.095379e+01 3.057555e+01 3.067762e+01 2.845955e+01 2.440046e+01 2.011110e+01 1.797098e+01 1.049714e+02 3.566189e+00 3.955332e+00 4.150816e+00 4.399340e+00 4.046120e+00 4.121838e+00 4.938199e+00 4.606235e+00 4.729355e+00 3.488144e+00 3.324953e+00 2.494868e+00 9.063511e+00 4.630479e-01 7.796136e-01 9.836560e-01 1.115030e+00 1.087783e+00 8.899938e-01 8.610122e-01 9.501652e-01 9.547834e-01 7.273771e-01 6.704090e-01 5.374461e-01 1.512295e+00
<GCONST> 1.334496e+02
<STATE> 4
<NUMMIXES> 2
<MIXTURE> 1 5.079592e-01
<MEAN> 39
 -1.384825e+01 -6.882384e+00 -2.518132e-01 -1.048269e+01 -9.546677e+00 -8.186986e+00 -4.937705e+00 -2.800871e-01 -3.095749e+00 -1.908955e+00 -6.574507e-01 1.234520e+00 5.556233e+01 1.240911e+00 -1.004833e+00 3.961766e-01 -6.748178e-01 -2.389835e+00 -1.466677e+00 -5.180758e-01 6.961361e-01 4.992875e-01 -6.866360e-02 3.129721e-01 3.543091e-01 2.631328e+00 3.688946e-01 5.226141e-01 3.063294e-02 8.748884e-01 1.767651e-02 2.737887e-01 -1.086656e-01 -2.341109e-01 1.240560e-02 -1.507771e-01 -3.686173e-01 -4.853216e-01 -1.238190e+00
<VARIANCE> 39
 3.066255e+01 2.628530e+01 4.396595e+01 3.589977e+01 4.754218e+01 4.558014e+01 5.609406e+01 3.689345e+01 4.851896e+01 3.540697e+01 2.960361e+01 2.249966e+01 5.955775e+01 4.067241e+00 4.038260e+00 4.398643e+00 6.363001e+00 7.081881e+00 6.205832e+00 6.885637e+00 5.421712e+00 5.141539e+00 4.221997e+00 4.118288e+00 3.183615e+00 1.439953e+01 6.815022e-01 6.065904e-01 8.306771e-01 8.758918e-01 1.097931e+00 1.052757e+00 9.228197e-01 7.772939e-01 9.327616e-01 9.112617e-01 7.221043e-01 5.467631e-01 7.348219e-01
<GCONST> 1.381497e+02
<MIXTURE> 2 4.920387e-01
<MEAN> 39
 -1.932484e+01 -1.470828e+00 -2.141692e+00 -1.069048e+01 -6.762291e+00 -7.682992e+00 -1.457126e+00 -5.960039e+00 -4.961607e+00 -1.126921e+00 -1.529427e+00 -9.912472e-01 5.935215e+01 1.904733e+00 4.305985e-01 3.133457e+00 -1.333143e+00 -4.000918e+00 -2.206710e+00 -1.657723e+00 -1.356201e+00 -1.613088e+00 -6.759872e-01 -3.924605e-01 -3.421108e-02 4.069267e+00 9.802775e-01 1.622384e-01 1.006355e+00 6.868969e-01 -6.711887e-01 3.175614e-01 -8.721326e-01 1.692325e-01 -3.126346e-01 -3.074177e-01 -3.058412e-01 -2.328387e-01 -1.851498e+00
<VARIANCE> 39
 1.894505e+01 3.284779e+01 4.991749e+01 2.441016e+01 2.983533e+01 3.391832e+01 2.327610e+01 3.954292e+01 3.311521e+01 2.352705e+01 2.191224e+01 1.632236e+01 1.281095e+01 3.085351e+00 3.634707e+00 4.525812e+00 6.436800e+00 3.628556e+00 3.757326e+00 4.021509e+00 5.177195e+00 3.879951e+00 4.251765e+00 3.783143e+00 2.838189e+00 9.303935e+00 4.437421e-01 7.883629e-01 9.152887e-01 8.080760e-01 8.273287e-01 8.568873e-01 6.776999e-01 9.367810e-01 9.295232e-01 7.381303e-01 7.285533e-01 4.871784e-01 3.908265e-01
<GCONST> 1.283909e+02
<TRANSP> 5
 0.000000e+00 1.000000e+00 0.000000e+00 0.000000e+00 0.000000e+00
 0.000000e+00 7.009163e-01 2.990837e-01 0.000000e+00 0.000000e+00
 0.000000e+00 0.000000e+00 6.681042e-01 3.318957e-01 0.000000e+00
 0.000000e+00 0.000000e+00 0.000000e+00 5.459219e-01 4.540782e-01
 0.000000e+00 0.000000e+00 0.000000e+00 0.000000e+00 0.000000e+00
<ENDHMM>
~h "f"
<BEGINHMM>
<NUMSTATES> 5
<STATE> 2
<NUMMIXES> 2
<MIXTURE> 1 4.575268e-01
<MEAN> 39
 -1.443141e+01 -3.184824e+00 -5.609055e+00 -3.885990e+00 -2.059927e+00 -1.970647e+00 -1.079902e+00 -5.703334e-01 -9.933789e-01 -1.451236e+00 -4.046981e+00 -2.279913e+00 5.338194e+01 -5.203669e+00 8.362339e-01 6.532871e-01 1.850379e+00 1.174242e+00 1.197463e+00 5.966405e-01 2.093695e-01 1.431169e-01 -1.509938e-01 1.183138e+00 1.459204e+00 -2.098914e+00 -2.430913e-02 -1.113105e+00 -3.820412e-01 -8.705561e-01 -7.305889e-01 -3.374280e-01 -3.022537e-01 2.543171e-01 7.719448e-02 1.146054e-01 3.163125e-03 -1.245921e-01 5.528398e-01
<VARIANCE> 39
 3.558440e+01 1.205880e+01 1.887937e+01 1.612801e+01 1.410694e+01 2.102611e+01 2.078860e+01 2.297130e+01 2.241664e+01 2.460288e+01 2.098715e+01 1.595918e+01 2.629755e+01 3.022647e+00 3.249265e+00 3.080498e+00 3.238416e+00 3.163790e+00 4.201056e+00 3.985027e+00 5.203213e+00 3.528972e+00 4.571512e+00 5.069873e+00 3.292696e+00 2.028339e+00 6.869841e-01 3.766406e-01 4.274612e-01 4.451199e-01 4.555634e-01 5.658745e-01 6.084414e-01 6.617030e-01 4.368365e-01 5.242665e-01 5.020810e-01 4.743019e-01 2.077386e-01
<GCONST> 1.174645e+02
<MIXTURE> 2 5.424712e-01
<MEAN> 39
 -2.332912e+01 -7.313318e+00 -7.304710e+00 -4.345614e+00 -2.902902e+00 -1.864115e+00 -9.901015e-01 4.948499e-01 -1.818057e-01 -8.436186e-01 -1.624615e+00 -9.388621e-02 5.038650e+01 -2.975819e+00 -1.026129e+00 -7.438591e-01 -3.571178e-01 -3.596106e-01 -2.667001e-02 -7.991137e-02 4.717446e-02 1.447925e-01 1.173348e-01 5.748066e-01 7.643829e-01 -3.215475e-01 1.128665e+00 -1.690956e-01 -1.681471e-01 -5.313736e-01 -4.545853e-01 -3.455276e-01 -2.391147e-01 -6.011369e-02 -9.805493e-02 1.302408e-01 -2.160340e-01 -3.496285e-01 3.687707e-01
<VARIANCE> 39
 1.377949e+01 1.239726e+01 1.276701e+01 1.368979e+01 1.485194e+01 1.306557e+01 1.477248e+01 1.392841e+01 1.450089e+01 1.274645e+01 1.388514e+01 1.229617e+01 3.019656e+01 3.419595e+00 1.443254e+00 1.656300e+00 1.696633e+00 1.823066e+00 1.897309e+00 1.956838e+00 2.479019e+00 2.206695e+00 2.393036e+00 2.152173e+00 1.991826e+00 3.202791e+00 5.492601e-01 4.961956e-01 4.277807e-01 5.178624e-01 4.543159e-01 4.917746e-01 4.730422e-01 6.006545e-01 4.798349e-01 4.646670e-01 5.162746e-01 4.229806e-01 4.343546e-01
<GCONST> 1.066566e+02
<STATE> 3
<NUMMIXES> 2
<MIXTURE> 1 4.997830e-01
<MEAN> 39
 -2.426656e+01 -6.638161e+00 -8.639341e+00 -5.042466e+00 -4.309987e+00 -2.590343e+00 -2.430177e+00 -3.793534e-01 -8.899377e-01 -3.615507e-01 -1.609352e+00 -3.433688e-01 4.680008e+01 -2.088055e-02 1.223770e-01 1.867807e-01 2.429013e-01 2.322920e-01 2.549793e-01 2.008556e-01 1.742990e-01 1.862058e-01 2.472321e-01 1.571160e-01 8.293797e-02 -2.430255e-04 3.318034e-01 8.965517e-03 6.313014e-02 -2.201843e-02 3.254896e-02 -1.202116e-02 3.681585e-02 1.449642e-02 1.402889e-02 -1.457583e-02 -2.588741e-02 -2.506532e-02 7.121116e-02
<VARIANCE> 39
 1.295092e+01 1.667849e+01 1.341182e+01 1.445611e+01 1.403996e+01 1.415304e+01 1.446037e+01 1.350380e+01 1.584091e+01 1.377024e+01 1.292677e+01 1.243751e+01 7.915677e+01 8.406945e-01 7.232002e-01 8.538929e-01 1.004470e+00 1.084852e+00 1.147107e+00 1.306104e+00 1.457222e+00 1.598352e+00 1.398673e+00 1.322834e+00 1.199796e+00 1.237594e+00 2.799525e-01 2.000000e-01 2.022533e-01 2.505562e-01 2.600544e-01 2.913638e-01 3.149876e-01 3.022390e-01 3.384607e-01 2.912741e-01 2.973823e-01 2.554185e-01 2.383026e-01
<GCONST> 9.228799e+01
<MIXTURE> 2 5.002143e-01
<MEAN> 39
 -2.530429e+01 -8.935955e+00 -9.483492e+00 -6.227425e+00 -4.509762e+00 -2.998470e+00 -1.782459e+00 -5.357216e-02 -8.004693e-01 -2.964788e-01 -1.272202e+00 1.759118e-01 5.092645e+01 2.015123e-01 -1.741932e-01 -3.082005e-01 -4.779223e-01 -4.112860e-01 -4.400732e-01 -3.314256e-01 -2.692512e-01 -2.574446e-01 -1.511486e-01 -1.774521e-01 -1.490483e-01 1.838993e-01 7.530271e-01 1.817208e-01 1.031724e-01 -5.435307e-02 -3.693199e-02 -5.274414e-02 -9.668233e-02 -6.214305e-02 -4.527617e-02 -2.348436e-02 -1.012424e-01 -1.679025e-01 1.375587e-02
<VARIANCE> 39
 1.192869e+01 1.174919e+01 1.197087e+01 1.269574e+01 1.373961e+01 1.290880e+01 1.535571e+01 1.500357e+01 1.481304e+01 1.386113e+01 1.210893e+01 1.172758e+01 2.474746e+01 1.849559e+00 8.555179e-01 9.771836e-01 1.123514e+00 1.229230e+00 1.189833e+00 1.520117e+00 1.467504e+00 1.506259e+00 1.454840e+00 1.403473e+00 1.279208e+00 1.582049e+00 5.001509e-01 2.000000e-01 2.491530e-01 3.285151e-01 3.039608e-01 3.055500e-01 3.812245e-01 4.120847e-01 3.727925e-01 3.803872e-01 3.406982e-01 3.107449e-01 2.382834e-01
<GCONST> 9.464845e+01
<STATE> 4
<NUMMIXES> 2
<MIXTURE> 1 4.685622e-01
<MEAN> 39
 -1.773261e+01 -6.220029e+00 -9.253037e+00 -7.842652e+00 -5.522247e+00 -2.035532e+00 -1.658753e+00 -7.222712e-01 4.232521e-02 1.006427e+00 -1.322666e+00 -1.465979e+00 4.235358e+01 5.805242e-01 4.681880e-01 3.353339e-01 2.979961e-01 1.702147e-01 2.966498e-01 1.958237e-01 2.006537e-01 9.949868e-02 1.326815e-01 9.654284e-02 -1.253533e-01 -1.320161e+00 6.165955e-02 -8.549232e-02 7.948732e-02 2.653904e-02 6.665516e-02 2.391455e-02 -7.407393e-02 -1.097699e-02 -1.638081e-01 -1.692975e-01 -7.068067e-02 -2.922231e-03 3.885632e-01
<VARIANCE> 39
 4.563203e+01 2.572402e+01 4.212384e+01 4.322472e+01 4.185231e+01 4.143507e+01 3.461935e+01 3.654975e+01 4.178455e+01 3.740346e+01 4.027518e+01 3.356232e+01 9.214062e+01 5.402332e+00 2.235180e+00 3.468572e+00 4.134907e+00 3.570280e+00 3.372390e+00 3.202307e+00 3.811401e+00 3.639286e+00 3.714080e+00 3.277904e+00 3.059823e+00 7.161557e+00 1.441904e+00 5.471560e-01 8.647664e-01 1.174156e+00 9.555259e-01 7.987522e-01 7.702926e-01 9.213060e-01 9.062189e-01 8.488285e-01 7.520791e-01 6.763197e-01 1.707518e+00
<GCONST> 1.357248e+02
<MIXTURE> 2 5.314327e-01
<MEAN> 39
 -1.700202e+01 -6.118584e+00 -8.008298e+00 -6.956735e+00 -5.063948e+00 -3.468193e+00 -2.380748e+00 -7.016106e-01 -1.590707e+00 -4.692135e-01 -1.925614e+00 -1.064942e+00 5.079858e+01 4.968421e+00 -4.767178e-01 -2.228387e-01 -2.294690e+00 -1.512825e+00 -7.070297e-01 -1.238220e+00 -5.163619e-01 -7.113257e-01 -9.956573e-02 -3.042685e-01 -7.255977e-01 1.931069e+00 3.717905e-01 -4.751293e-01 -1.140333e-01 -6.141251e-01 -4.173858e-01 2.837763e-02 -2.661795e-01 1.081743e-01 1.533617e-02 8.943866e-02 9.162100e-02 -8.543791e-02 3.540331e-01
<VARIANCE> 39
 6.967662e+01 1.985274e+01 2.650750e+01 3.050605e+01 2.586663e+01 2.883229e+01 2.706675e+01 2.063358e+01 1.960746e+01 1.702610e+01 1.682554e+01 1.549144e+01 7.411731e+01 4.788664e+00 3.709106e+00 5.762856e+00 5.521831e+00 5.091478e+00 6.215591e+00 5.771875e+00 4.746769e+00 4.074896e+00 3.473148e+00 4.440042e+00 2.640942e+00 5.943511e+00 1.387781e+00 4.659741e-01 5.387596e-01 7.340249e-01 6.939010e-01 7.020734e-01 7.706187e-01 6.252708e-01 5.825221e-01 4.686157e-01 5.592463e-01 4.067371e-01 9.791565e-01
<GCONST> 1.286072e+02
<TRANSP> 5
 0.000000e+00 1.000000e+00 0.000000e+00 0.000000e+00 0.000000e+00
 0.000000e+00 6.360379e-01 3.639621e-01 0.000000e+00 0.000000e+00
 0.000000e+00 0.000000e+00 8.722704e-01 1.277296e-01 0.000000e+00
 0.000000e+00 0.000000e+00 0.000000e+00 7.567588e-01 2.432412e-01
 0.000000e+00 0.000000e+00 0.000000e+00 0.000000e+00 0.000000e+00
<ENDHMM>
~h "g"
<BEGINHMM>
<NUMSTATES> 5
<STATE> 2
<NUMMIXES> 2
<MIXTURE> 1 5.107818e-01
<MEAN> 39
 -8.891685e+00 5.046714e+00 3.774182e+00 3.769704e+00 -5.411855e+00 -6.585246e+00 -4.482190e+00 -4.668639e+00 -1.040019e+01 -6.017702e+00 -1.938245e+00 -4.398278e+00 3.782318e+01 -8.291789e-01 -9.210675e-01 -1.414095e+00 -3.364750e-01 1.414865e+00 1.215904e+00 -2.474311e-01 4.377352e-03 9.677398e-01 7.708484e-01 -5.335836e-01 5.110581e-01 3.892255e-01 3.813838e-02 -1.474919e+00 -6.708428e-01 -1.225802e+00 -4.184842e-01 3.405142e-02 -4.443250e-01 4.459919e-01 2.973197e-01 5.624180e-01 3.238886e-01 2.217871e-01 1.796734e+00
<VARIANCE> 39
 1.477811e+01 1.361405e+01 2.856788e+01 2.656298e+01 3.094337e+01 3.114644e+01 2.920202e+01 3.459205e+01 3.138692e+01 1.752261e+01 2.703615e+01 2.022773e+01 1.283375e+01 2.277061e+00 9.959667e+00 5.554348e+00 6.111037e+00 4.889859e+00 3.726750e+00 4.496250e+00 5.477107e+00 3.919873e+00 3.603448e+00 2.806345e+00 2.331540e+00 9.914841e+00 3.942268e-01 8.297299e-01 8.299616e-01 7.976806e-01 9.364358e-01 8.624649e-01 8.376800e-01 7.527291e-01 5.302919e-01 6.157120e-01 5.570109e-01 4.745186e-01 8.214734e-01
<GCONST> 1.272899e+02
<MIXTURE> 2 4.892184e-01
<MEAN> 39
 -1.282520e+01 -2.476980e+00 -3.541216e+00 -1.953297e+00 -4.878014e+00 -4.238301e+00 -5.648929e+00 -3.207599e+00 -5.777923e+00 -1.452455e+00 -2.825047e+00 -3.473108e+00 4.107346e+01 9.843182e-02 -1.564313e+00 -1.529972e+00 -8.084233e-01 1.214907e+00 -3.091229e-01 -5.432261e-01 5.840347e-03 3.097942e-01 2.748512e-01 -2.892402e-01 3.473129e-01 2.355274e+00 3.142064e-01 -5.136232e-01 -2.445442e-01 -7.062441e-01 -3.481497e-01 -2.991351e-01 -1.739447e-01 -1.684967e-02 -4.661820e-03 2.693188e-01 1.376514e-01 1.160504e-01 1.103766e+00
<VARIANCE> 39
 5.824530e+01 5.277341e+01 4.950391e+01 4.926797e+01 4.515283e+01 5.875279e+01 4.961751e+01 5.867754e+01 4.812041e+01 5.001980e+01 4.729816e+01 3.558558e+01 9.284258e+01 4.237169e+00 1.111880e+01 5.505692e+00 8.528897e+00 8.834973e+00 6.985439e+00 6.669735e+00 5.119857e+00 4.655460e+00 7.068881e+00 4.323677e+00 4.699574e+00 1.869218e+01 4.851550e-01 1.250005e+00 6.485385e-01 9.844565e-01 9.925453e-01 1.018233e+00 8.856075e-01 9.132129e-01 6.729357e-01 1.003438e+00 5.865315e-01 8.331691e-01 1.645585e+00
<GCONST> 1.461398e+02
<STATE> 3
<NUMMIXES> 2
<MIXTURE> 1 5.276577e-01
<MEAN> 39
 -9.091413e+00 -1.073954e+01 -1.399171e+01 -7.502073e+00 -2.402355e-01 -2.569147e+00 -1.024061e+01 -9.509459e-01 -6.875845e+00 4.046296e+00 -1.738354e+00 -1.527993e+00 5.236121e+01 1.200614e+00 -8.354845e-01 -5.160859e-01 -8.693082e-01 -7.654548e-01 -3.824984e-01 -1.529428e+00 -7.961696e-02 4.928928e-01 5.824502e-01 1.005336e+00 4.714566e-01 2.949973e+00 4.308245e-01 9.945860e-01 1.202904e+00 5.434475e-01 -8.598597e-01 -4.885984e-01 9.818013e-03 -3.437903e-01 7.206555e-02 -8.747391e-01 3.663940e-01 -9.724979e-02 -5.585985e-01
<VARIANCE> 39
 2.154624e+01 3.872681e+01 6.360418e+01 5.468184e+01 6.768231e+01 9.261508e+01 4.991534e+01 6.062524e+01 4.887407e+01 4.092984e+01 3.751656e+01 3.194453e+01 3.260485e+01 2.408155e+00 8.025217e+00 1.013955e+01 7.962738e+00 5.530715e+00 6.140563e+00 6.376585e+00 4.780274e+00 4.317931e+00 6.291980e+00 3.042000e+00 3.645659e+00 6.752234e+00 4.349427e-01 1.006423e+00 1.010224e+00 1.282814e+00 1.169772e+00 1.594322e+00 1.610926e+00 1.081799e+00 1.079371e+00 9.885671e-01 7.518003e-01 8.447692e-01 1.136437e+00
<GCONST> 1.437544e+02
<MIXTURE> 2 4.723424e-01
<MEAN> 39
 -1.511786e+01 -1.189499e+01 -8.986745e+00 -8.987538e+00 -1.775264e+00 -7.415143e+00 -5.340369e+00 -2.456357e+00 -2.807282e+00 1.341095e+00 -4.427320e+00 1.682672e-02 5.438180e+01 1.455112e+00 -9.463822e-01 -3.862460e-01 -2.119296e+00 -1.203679e+00 -2.083460e+00 -1.368644e+00 -3.319325e-01 -1.357986e-01 6.554016e-01 -3.418618e-01 2.069540e-01 4.545443e+00 7.886165e-01 1.186428e+00 8.771259e-01 5.807657e-01 -9.700816e-01 -2.539181e-01 -2.498526e-01 2.266979e-03 -4.816029e-01 -3.306146e-01 2.948887e-01 -3.540018e-01 -1.026895e+00
<VARIANCE> 39
 2.816908e+01 4.229832e+01 9.460101e+01 4.983860e+01 8.123615e+01 4.295428e+01 4.647684e+01 4.245663e+01 3.157578e+01 3.926406e+01 2.826470e+01 2.338722e+01 3.088999e+01 3.165500e+00 8.054502e+00 6.203650e+00 5.445577e+00 7.785994e+00 3.780744e+00 3.316688e+00 4.465595e+00 3.686966e+00 4.120584e+00 3.424567e+00 2.684167e+00 6.901939e+00 5.943545e-01 1.023269e+00 8.317484e-01 7.927779e-01 1.172799e+00 1.017635e+00 8.586974e-01 1.100695e+00 7.472625e-01 9.461921e-01 8.128945e-01 5.507326e-01 8.348866e-01
<GCONST> 1.375936e+02
<STATE> 4
<NUMMIXES> 2
<MIXTURE> 1 4.735734e-01
<MEAN> 39
 -4.289342e+00 -6.148903e+00 -7.235754e+00 -4.613552e+00 -5.002860e+00 -7.613745e+00 -1.395815e+01 -4.947691e+00 -6.371493e+00 3.803571e-01 7.658517e-01 -1.006213e+00 5.619031e+01 2.276660e+00 3.021435e-01 5.600622e-01 -2.916932e-02 -1.884161e+00 -1.111240e+00 -1.385227e+00 2.796149e-01 3.930745e-01 -1.351094e+00 1.097966e+00 5.316913e-01 1.226123e+00 -5.486354e-02 -2.465126e-01 -3.340600e-01 -1.084308e-01 -4.578344e-03 2.757978e-01 1.779355e-01 4.483727e-01 2.709292e-01 -1.823996e-01 -7.759903e-02 -1.712562e-02 -4.308690e-01
<VARIANCE> 39
 2.920744e+01 2.218723e+01 5.100076e+01 4.086191e+01 6.956597e+01 6.474995e+01 6.065023e+01 3.958358e+01 3.708913e+01 4.154781e+01 4.435592e+01 3.019596e+01 2.171382e+01 2.238445e+00 2.863834e+00 4.299886e+00 4.878637e+00 5.385239e+00 5.755291e+00 7.683106e+00 6.331240e+00 4.149745e+00 4.736952e+00 4.016680e+00 3.326850e+00 1.650966e+00 3.299364e-01 4.246230e-01 5.734720e-01 5.267254e-01 7.411572e-01 8.099809e-01 1.162791e+00 7.206364e-01 6.787299e-01 7.116863e-01 5.708115e-01 5.622877e-01 4.557493e-01
<GCONST> 1.314001e+02
<MIXTURE> 2 5.264271e-01
<MEAN> 39
 -4.676417e+00 -6.801509e+00 -3.009925e+00 -8.195653e+00 -1.178110e+01 -1.176388e+01 -1.281691e+01 -2.511280e+00 -6.789048e+00 -1.750280e+00 6.797125e-01 -1.496946e+00 5.805714e+01 2.308330e+00 -6.138018e-01 -1.284728e-01 -9.208744e-01 -2.239003e+00 -9.527901e-01 -1.249281e+00 9.619318e-01 -8.470454e-02 -1.235873e-01 8.143994e-01 -2.820383e-01 1.664023e+00 -4.256361e-01 -6.010746e-01 -7.236966e-01 -6.807289e-02 5.928398e-01 5.525476e-01 6.099662e-01 4.119141e-01 2.888303e-01 3.712158e-01 -2.761773e-01 -7.247917e-02 -3.363144e-01
<VARIANCE> 39
 3.540254e+01 3.873083e+01 8.868603e+01 8.096247e+01 8.834342e+01 7.924105e+01 6.116667e+01 7.137766e+01 5.021495e+01 3.709892e+01 6.221581e+01 2.562841e+01 3.343772e+01 2.331572e+00 3.421030e+00 3.952519e+00 2.874724e+00 4.666029e+00 5.198693e+00 6.314058e+00 6.646348e+00 8.166396e+00 6.124146e+00 4.959000e+00 3.940456e+00 1.732064e+00 3.234835e-01 4.904881e-01 4.009525e-01 5.970681e-01 6.889051e-01 6.081102e-01 6.526769e-01 8.204215e-01 5.796099e-01 6.019903e-01 6.501046e-01 4.801050e-01 4.620404e-01
<GCONST> 1.345407e+02
<TRANSP> 5
 0.000000e+00 1.000000e+00 0.000000e+00 0.000000e+00 0.000000e+00
 0.000000e+00 6.233608e-01 3.766393e-01 0.000000e+00 0.000000e+00
 0.000000e+00 0.000000e+00 5.679938e-01 4.320062e-01 0.000000e+00
 0.000000e+00 0.000000e+00 0.000000e+00 6.079749e-01 3.920251e-01
 0.000000e+00 0.000000e+00 0.000000e+00 0.000000e+00 0.000000e+00
<ENDHMM>
~h "k"
<BEGINHMM>
<NUMSTATES> 5
<STATE> 2
<NUMMIXES> 2
<MIXTURE> 1 4.138956e-01
<MEAN> 39
 -1.905236e+01 -3.331896e+00 -3.779630e+00 -4.853839e-01 -3.114003e+00 -3.593950e+00 -2.365897e+00 -8.058121e-01 -3.745883e+00 -2.409031e-02 -1.291559e+00 -6.615937e-01 3.661618e+01 -1.965033e+00 -2.948052e-01 -1.209670e+00 6.776502e-01 1.301881e+00 1.663195e+00 2.251108e-01 3.413368e-01 1.409922e+00 3.903000e-01 1.149707e-01 4.917839e-01 -2.215798e+00 6.024052e-01 -5.276645e-01 -8.710568e-02 -8.921823e-01 -6.457790e-01 -3.254769e-01 -6.588189e-02 9.210301e-02 -6.163731e-02 -4.737699e-02 1.191798e-03 -1.288658e-01 1.618455e+00
<VARIANCE> 39
 2.376447e+01 3.208028e+01 3.578131e+01 3.396768e+01 3.813985e+01 3.929185e+01 3.620608e+01 4.618250e+01 3.943759e+01 3.447840e+01 2.880770e+01 2.037595e+01 5.297037e+01 4.283344e+00 5.568623e+00 7.781021e+00 6.507636e+00 5.765370e+00 7.191813e+00 5.555686e+00 7.746234e+00 4.995632e+00 4.901304e+00 5.357378e+00 3.136289e+00 1.689944e+01 6.542131e-01 1.074331e+00 8.339576e-01 1.053838e+00 7.745255e-01 1.104158e+00 1.040930e+00 1.109651e+00 9.615231e-01 8.240048e-01 7.686296e-01 5.610608e-01 2.231405e+00
<GCONST> 1.403754e+02
<MIXTURE> 2 5.860962e-01
<MEAN> 39
 -2.141168e+01 -1.751521e+00 -5.746262e+00 -4.791095e-01 -2.904374e+00 -6.287150e-01 -1.792187e+00 -4.504424e-01 -1.324069e+00 -1.940717e-01 -5.719316e-01 -1.330867e-01 2.954838e+01 1.927454e-01 -1.529184e+00 -4.686165e-01 -1.140306e+00 -3.744873e-01 -3.228441e-01 -1.083034e-01 -4.115779e-03 3.871937e-02 2.893862e-01 -1.635680e-01 5.932332e-02 2.427982e+00 3.987855e-01 -4.986102e-01 1.267577e-01 -6.775645e-01 -3.507304e-01 -5.278037e-01 -7.807926e-02 -5.075096e-02 -2.217604e-01 1.293550e-01 -1.436287e-01 -3.015988e-02 2.015636e+00
<VARIANCE> 39
 1.790259e+00 3.515752e+00 5.203763e+00 6.741673e+00 8.476936e+00 9.446790e+00 1.081996e+01 1.150843e+01 1.216443e+01 1.150929e+01 1.102134e+01 1.014704e+01 5.686665e+00 1.761538e+00 4.372110e+00 3.358604e+00 3.795762e+00 3.241502e+00 3.206942e+00 2.957337e+00 3.200400e+00 2.936300e+00 2.660892e+00 2.039901e+00 1.901031e+00 1.409891e+01 3.377393e-01 4.633971e-01 6.717627e-01 5.122380e-01 5.742328e-01 6.929163e-01 5.383297e-01 6.891415e-01 5.628346e-01 4.816513e-01 4.132914e-01 3.497449e-01 1.318605e+00
<GCONST> 1.051143e+02
<STATE> 3
<NUMMIXES> 2
<MIXTURE> 1 5.294583e-01
<MEAN> 39
 -2.041573e+01 -9.589557e+00 -5.887868e+00 -1.216396e+01 -6.778837e+00 -5.026168e+00 -2.468794e+00 -1.334409e+00 -8.388336e-01 3.007808e+00 -1.718077e+00 1.045563e+00 5.749121e+01 -3.460412e-01 1.416014e+00 1.088934e+00 -7.089179e-01 -2.896129e-01 -2.432828e-02 6.273900e-01 -9.849454e-02 4.767534e-01 -7.463294e-02 8.225272e-02 2.075308e-01 1.929547e+00 2.150456e-01 6.680957e-01 3.325617e-01 9.351580e-01 2.131100e-01 3.238662e-01 2.179393e-01 2.229920e-02 -2.380345e-01 -4.764772e-01 -1.855921e-02 -1.915324e-01 -1.905568e+00
<VARIANCE> 39
 1.954948e+01 2.766572e+01 4.292739e+01 3.736818e+01 3.823021e+01 3.798522e+01 3.512462e+01 4.143614e+01 4.070074e+01 3.147020e+01 2.424948e+01 2.120760e+01 1.932197e+01 2.301367e+00 3.455244e+00 2.119743e+00 4.161075e+00 2.653166e+00 2.663077e+00 2.463985e+00 2.353213e+00 2.417186e+00 2.641948e+00 2.109410e+00 1.879926e+00 1.041756e+01 4.221327e-01 8.412679e-01 4.837255e-01 5.641587e-01 5.999216e-01 6.289897e-01 6.071552e-01 7.419397e-01 7.342542e-01 6.490881e-01 5.623762e-01 4.728907e-01 8.386144e-01
<GCONST> 1.234648e+02
<MIXTURE> 2 4.705388e-01
<MEAN> 39
 -1.733819e+01 -1.268164e+01 -9.606194e+00 -6.422106e+00 -3.215878e+00 -4.901384e+00 -3.610200e+00 9.539832e-01 -2.727139e+00 1.775085e+00 -1.815755e+00 -1.965410e-01 4.990208e+01 4.439448e-01 -1.388532e+00 -6.632380e-01 -2.048942e+00 -7.264878e-01 -1.121537e+00 -2.369129e-01 2.995428e-02 3.030232e-02 5.301546e-01 -2.388035e-01 1.313656e-02 5.210461e+00 -1.152685e-01 1.058715e+00 6.250646e-01 2.348366e-01 -1.630774e-01 6.002933e-03 1.319069e-01 -2.166651e-01 -5.629418e-03 -2.000021e-01 1.220239e-01 -4.804751e-02 -6.398635e-01
<VARIANCE> 39
 2.731145e+01 4.231693e+01 7.067907e+01 5.500323e+01 4.950475e+01 5.320020e+01 5.496064e+01 4.053678e+01 4.329618e+01 3.262977e+01 2.626826e+01 2.235390e+01 6.953369e+01 3.100001e+00 4.725663e+00 4.437255e+00 5.424232e+00 4.237338e+00 4.907080e+00 4.193835e+00 3.977636e+00 4.021167e+00 3.294616e+00 2.605710e+00 2.281229e+00 1.330341e+01 8.679528e-01 1.026138e+00 9.146257e-01 9.689097e-01 7.639737e-01 1.033618e+00 8.701468e-01 7.373351e-01 9.003884e-01 7.083166e-01 5.934483e-01 4.888652e-01 1.740575e+00
<GCONST> 1.370695e+02
<STATE> 4
<NUMMIXES> 2
<MIXTURE> 1 5.980909e-01
<MEAN> 39
 -1.874712e+01 -6.669838e+00 -2.164845e+00 -8.728185e+00 -8.056108e+00 -4.930479e+00 5.787717e-01 -8.436841e-01 -2.923199e+00 9.138119e-01 -1.753289e+00 -2.171645e-01 5.390072e+01 1.320680e+00 4.150124e-01 7.750440e-01 7.631187e-01 -5.751835e-01 -2.437559e-01 4.446719e-01 3.268235e-01 -2.604510e-01 -1.032015e+00 2.002469e-01 -2.365164e-01 -1.627106e-01 4.459965e-01 -3.189272e-01 -1.884413e-01 -4.289301e-02 -1.927132e-01 -4.571011e-02 -3.938048e-01 4.258245e-02 -7.538810e-02 -1.332949e-01 5.449572e-02 -4.571605e-02 -3.580003e-03
<VARIANCE> 39
 3.478197e+01 1.973825e+01 5.107891e+01 3.632016e+01 4.873717e+01 3.901605e+01 4.764632e+01 3.073372e+01 3.072024e+01 2.573453e+01 2.098921e+01 1.943158e+01 5.210200e+01 4.886016e+00 2.963324e+00 2.665076e+00 2.224854e+00 3.649987e+00 3.789163e+00 4.282017e+00 3.648718e+00 2.862100e+00 3.048800e+00 2.625867e+00 1.920601e+00 2.930663e+00 4.904855e-01 5.440977e-01 5.237424e-01 4.955000e-01 6.269132e-01 6.129315e-01 7.193754e-01 5.109633e-01 6.065162e-01 5.610770e-01 4.622251e-01 3.859773e-01 7.673485e-01
<GCONST> 1.242053e+02
<MIXTURE> 2 4.019056e-01
<MEAN> 39
 -1.634647e+01 -5.942237e+00 -2.238594e+00 -1.187283e+01 -7.458820e+00 -1.724523e+00 1.026079e+00 -4.334337e+00 -2.921456e+00 -1.950522e+00 -5.111090e+00 -8.950362e-01 5.602972e+01 2.649502e+00 -2.044229e-01 1.292080e-01 -5.590318e-01 -1.986668e+00 -7.105060e-01 -5.817984e-01 -8.713934e-01 -1.696006e+00 -9.882821e-01 -9.642047e-01 -1.141473e+00 8.304151e-01 3.539594e-01 -4.805073e-01 -4.208151e-01 -3.339300e-01 -4.633093e-01 -3.858064e-01 -5.082693e-01 2.269714e-01 3.507812e-02 2.239860e-01 1.970810e-01 -5.065396e-02 4.801574e-01
<VARIANCE> 39
 3.054601e+01 2.536037e+01 5.025957e+01 5.318664e+01 5.670502e+01 5.850760e+01 5.884285e+01 4.198734e+01 4.121899e+01 2.977731e+01 3.961014e+01 3.133854e+01 1.892259e+01 2.573340e+00 2.727436e+00 3.113916e+00 3.260981e+00 4.763826e+00 5.414957e+00 5.604100e+00 4.547040e+00 5.548074e+00 3.720817e+00 5.441992e+00 3.224551e+00 1.941996e+00 4.743535e-01 5.708094e-01 3.700114e-01 4.812741e-01 7.382587e-01 7.279998e-01 8.117002e-01 7.704108e-01 8.832756e-01 6.127530e-01 7.235069e-01 6.258211e-01 3.046617e-01
<GCONST> 1.299103e+02
<TRANSP> 5
 0.000000e+00 1.000000e+00 0.000000e+00 0.000000e+00 0.000000e+00
 0.000000e+00 7.480920e-01 2.519080e-01 0.000000e+00 0.000000e+00
 0.000000e+00 0.000000e+00 7.038407e-01 2.961593e-01 0.000000e+00
 0.000000e+00 0.000000e+00 0.000000e+00 6.797341e-01 3.202659e-01
 0.000000e+00 0.000000e+00 0.000000e+00 0.000000e+00 0.000000e+00
<ENDHMM>
~h "l"
<BEGINHMM>
<NUMSTATES> 5
<STATE> 2
<NUMMIXES> 2
<MIXTURE> 1 6.612272e-01
<MEAN> 39
 -1.300435e+00 -5.029778e+00 -1.267112e+01 -2.552349e+01 -9.228580e+00 4.278539e+00 -5.269396e+00 -6.965138e+00 -6.032317e-01 -1.582601e+00 -1.108422e-01 -2.353706e+00 5.926344e+01 1.631032e-01 1.085479e+00 5.370821e-02 -3.413004e-01 -5.087846e-04 2.249747e-01 2.483637e-01 -1.853132e-01 -6.600989e-01 -3.470982e-01 3.178455e-01 5.105318e-01 -9.315200e-01 -1.172589e-01 -1.227039e-01 7.499027e-02 3.944158e-01 2.585840e-02 -2.339340e-01 -1.115436e-03 1.518074e-01 2.556411e-02 -4.651627e-02 -1.229356e-01 -1.847015e-02 -2.177548e-02
<VARIANCE> 39
 9.575114e+00 5.694241e+01 4.092965e+01 5.008342e+01 8.099229e+01 5.633537e+01 1.007826e+02 8.066087e+01 5.510778e+01 7.248297e+01 5.248425e+01 4.991532e+01 4.525212e+01 4.536278e-01 1.401625e+00 1.110279e+00 3.501883e+00 2.319700e+00 2.784565e+00 2.427330e+00 2.902269e+00 2.230720e+00 2.622848e+00 2.652145e+00 2.725528e+00 5.452823e-01 2.000000e-01 2.153036e-01 2.000000e-01 3.077942e-01 4.058549e-01 3.670335e-01 3.737746e-01 4.551248e-01 4.025230e-01 4.376715e-01 3.600794e-01 4.765175e-01 2.000000e-01
<GCONST> 1.161530e+02
<MIXTURE> 2 3.387713e-01
<MEAN> 39
 -4.896683e+00 4.132371e-01 -9.393190e+00 -1.632671e+01 -6.448719e+00 -1.616709e+00 -6.388788e+00 -6.180392e+00 -4.863262e+00 -2.470496e+00 -3.247511e+00 -2.283840e+00 5.255590e+01 1.685788e+00 7.120960e-01 -3.151237e-01 -1.655263e+00 -3.456522e-01 5.529957e-01 -1.260451e+00 -1.073206e+00 -9.323286e-01 -1.285590e-01 3.306297e-01 -2.885412e-01 5.774572e-01 -3.675488e-01 -4.713037e-01 -4.540379e-02 -4.085754e-02 -4.214521e-02 6.826007e-02 -1.347377e-02 2.239969e-01 8.279273e-02 1.217036e-01 2.518084e-01 1.404040e-02 2.421531e-02
<VARIANCE> 39
 2.007255e+01 4.654304e+01 4.584674e+01 5.803639e+01 5.644252e+01 5.318312e+01 9.940283e+01 5.957586e+01 4.378973e+01 5.312145e+01 4.705869e+01 2.767099e+01 6.201850e+01 6.102924e+00 2.902883e+00 3.196500e+00 8.918125e+00 6.867580e+00 5.635918e+00 5.161801e+00 4.089585e+00 4.315007e+00 4.215178e+00 4.053733e+00 3.095884e+00 5.343106e+00 4.496827e-01 4.830248e-01 4.848985e-01 7.809108e-01 6.907749e-01 6.268833e-01 7.773626e-01 6.624877e-01 7.232659e-01 6.904051e-01 6.026682e-01 4.856102e-01 3.571387e-01
<GCONST> 1.352332e+02
<STATE> 3
<NUMMIXES> 2
<MIXTURE> 1 5.630304e-01
<MEAN> 39
 -1.502100e+00 -2.110311e-01 -9.219268e+00 -2.545047e+01 -1.033728e+01 2.716605e+00 -8.648722e+00 -6.757030e+00 -5.846452e+00 -3.285602e+00 1.694832e+00 -6.877345e-01 5.784118e+01 -9.294098e-02 -1.464985e+00 -4.408668e-01 -2.663839e-01 6.553426e-01 5.209941e-01 -7.079767e-01 1.822722e-01 7.340439e-01 9.126576e-01 3.161709e-01 -5.531621e-01 1.166458e+00 -3.720123e-01 -5.404122e-01 9.652193e-03 6.695507e-01 3.297719e-01 -2.099819e-01 -5.734162e-02 2.461816e-01 5.177624e-01 3.695621e-01 -3.582583e-01 -3.769162e-01 6.485637e-02
<VARIANCE> 39
 9.654420e+00 3.895264e+01 3.594495e+01 6.426189e+01 6.147487e+01 5.532110e+01 7.193105e+01 7.803146e+01 6.303915e+01 6.206538e+01 6.051611e+01 3.896488e+01 3.133655e+01 1.042886e+00 2.547589e+00 1.555810e+00 4.250088e+00 2.885481e+00 3.630099e+00 3.682156e+00 3.107904e+00 3.778224e+00 4.682943e+00 2.886978e+00 2.997743e+00 1.639022e+00 3.617006e-01 3.599400e-01 3.449599e-01 6.643043e-01 6.990969e-01 7.324471e-01 6.766139e-01 7.837492e-01 8.291914e-01 8.429778e-01 7.087387e-01 5.117500e-01 2.451498e-01
<GCONST> 1.271827e+02
<MIXTURE> 2 4.369692e-01
<MEAN> 39
 -2.857981e+00 1.611507e+00 -1.106994e+01 -1.853175e+01 -5.328064e+00 -4.187059e+00 -1.072447e+01 -9.027813e+00 -7.263937e+00 -1.597976e+00 -1.599925e+00 -3.210696e+00 5.411758e+01 1.803741e-01 -1.065858e+00 -3.371606e-01 -4.108255e-01 5.479205e-02 -2.756594e-01 -8.219513e-01 3.096285e-01 5.070302e-01 5.732112e-01 -1.810831e-01 -5.736902e-01 1.182262e+00 -6.041339e-01 -6.344346e-01 1.347238e-01 3.654289e-01 -1.668711e-02 1.383935e-01 3.160804e-01 7.475333e-01 5.827453e-01 -2.419209e-02 -1.995081e-01 5.223449e-02 3.667935e-02
<VARIANCE> 39
 1.253869e+01 2.814189e+01 3.992241e+01 5.587543e+01 4.765480e+01 8.510583e+01 8.796658e+01 6.309958e+01 5.172284e+01 5.536555e+01 5.653970e+01 2.826418e+01 3.592793e+01 3.335780e+00 3.029549e+00 2.805583e+00 8.928691e+00 4.347765e+00 4.348855e+00 3.879430e+00 4.876385e+00 5.161092e+00 3.448195e+00 3.181168e+00 2.435954e+00 4.057338e+00 5.187240e-01 3.662624e-01 3.487882e-01 7.103245e-01 7.959611e-01 8.394643e-01 7.831141e-01 7.906685e-01 6.595668e-01 6.534171e-01 6.553775e-01 4.806153e-01 3.384107e-01
<GCONST> 1.318225e+02
<STATE> 4
<NUMMIXES> 2
<MIXTURE> 1 6.021995e-01
<MEAN> 39
 -3.117312e+00 -1.141167e+01 -8.388935e+00 -1.861086e+01 -8.425881e+00 -1.767530e+00 -1.408995e+01 -2.493650e+00 3.367890e+00 3.209819e+00 -2.909362e+00 -7.955243e+00 6.442980e+01 -3.441208e-01 -1.463418e+00 8.571904e-01 1.337185e+00 -7.887417e-01 -1.400914e+00 6.547293e-02 2.086936e+00 1.037026e+00 -7.300603e-01 -1.313853e+00 1.114697e-02 5.828507e-01 -4.565373e-02 4.500696e-01 2.785707e-01 9.827802e-02 -2.793806e-01 -1.214999e-01 4.704826e-01 -6.783769e-02 -6.831531e-01 -5.600147e-01 3.065910e-01 5.298706e-01 -3.714552e-01
<VARIANCE> 39
 8.379257e+00 4.000221e+01 5.112434e+01 5.875898e+01 5.181719e+01 8.757325e+01 7.538228e+01 9.251651e+01 4.824032e+01 5.899326e+01 7.562160e+01 4.954634e+01 2.449239e+01 4.226703e-01 2.207736e+00 2.276582e+00 2.362214e+00 3.251004e+00 3.917549e+00 4.164615e+00 3.735487e+00 4.957465e+00 4.835216e+00 4.628132e+00 4.452985e+00 1.023609e+00 2.000000e-01 2.566420e-01 2.565397e-01 3.791183e-01 4.618426e-01 6.665679e-01 5.723956e-01 7.628405e-01 6.998940e-01 7.557427e-01 8.492831e-01 4.879545e-01 2.000000e-01
<GCONST> 1.248444e+02
<MIXTURE> 2 3.978003e-01
<MEAN> 39
 -5.773584e+00 -6.655936e+00 -1.104053e+01 -1.629183e+01 -4.529438e+00 -4.556518e+00 -9.585712e+00 -9.389538e-01 -1.471059e+00 -2.770835e+00 -5.424818e+00 -3.645562e+00 5.708884e+01 -1.021975e+00 -1.331106e+00 8.174156e-01 1.200564e+00 -6.051535e-01 -6.133143e-01 8.250818e-01 1.453332e+00 6.315190e-02 -4.530309e-01 -2.203369e-01 3.001907e-01 2.039292e-01 -6.188502e-02 1.907994e-01 2.180504e-01 -8.038889e-02 -2.876244e-01 1.401410e-01 2.851476e-01 -1.635816e-01 -3.203177e-01 1.811250e-02 2.635754e-01 9.262685e-02 -1.825355e-01
<VARIANCE> 39
 1.451805e+01 4.037310e+01 6.023807e+01 5.910138e+01 7.498082e+01 8.740462e+01 8.532709e+01 7.413152e+01 5.243368e+01 6.371183e+01 6.057667e+01 5.098247e+01 8.339349e+01 2.033833e+00 3.080065e+00 3.403867e+00 5.504055e+00 6.857403e+00 4.723377e+00 4.482206e+00 5.207442e+00 6.151342e+00 4.858499e+00 4.651071e+00 3.656467e+00 3.052138e+00 2.005842e-01 4.010914e-01 3.954961e-01 5.858064e-01 6.739886e-01 6.762355e-01 6.499366e-01 1.130289e+00 7.811389e-01 8.234954e-01 6.802838e-01 6.388859e-01 2.000000e-01
<GCONST> 1.351209e+02
<TRANSP> 5
 0.000000e+00 1.000000e+00 0.000000e+00 0.000000e+00 0.000000e+00
 0.000000e+00 7.351134e-01 2.648865e-01 0.000000e+00 0.000000e+00
 0.000000e+00 0.000000e+00 7.055373e-01 2.944627e-01 0.000000e+00
 0.000000e+00 0.000000e+00 0.000000e+00 7.023764e-01 2.976235e-01
 0.000000e+00 0.000000e+00 0.000000e+00 0.000000e+00 0.000000e+00
<ENDHMM>
~h "m"
<BEGINHMM>
<NUMSTATES> 5
<STATE> 2
<NUMMIXES> 2
<MIXTURE> 1 6.095390e-01
<MEAN> 39
 -4.550508e+00 -3.961486e+00 -8.131688e-01 -6.706680e-01 -5.852070e+00 -7.182582e+00 -8.760631e+00 -9.860378e+00 -1.125177e+01 -1.988569e+00 6.928198e-01 -7.346859e+00 5.113787e+01 -2.883461e-01 6.019912e-01 3.680648e-01 5.273281e-01 2.725962e-01 -1.430048e-01 1.905623e-01 -3.479173e-01 -5.632818e-01 -1.409452e-01 -3.747844e-02 1.713974e-01 -6.675840e-01 2.765930e-02 -2.014779e-01 -2.984046e-01 -4.535102e-01 -2.039448e-01 1.805848e-01 7.444408e-03 4.792297e-01 6.467428e-01 -1.292297e-01 -3.010447e-01 1.966980e-01 2.081980e-01
<VARIANCE> 39
 5.948438e+00 2.699306e+01 2.673243e+01 4.510504e+01 4.410924e+01 7.708221e+01 5.735146e+01 6.626375e+01 5.876995e+01 4.838148e+01 5.163611e+01 4.098608e+01 2.291700e+01 3.576273e-01 9.184746e-01 1.495155e+00 1.588158e+00 1.178722e+00 1.365328e+00 1.328733e+00 2.401649e+00 3.405796e+00 1.445241e+00 1.653046e+00 1.449986e+00 7.513624e-01 2.000000e-01 2.000000e-01 3.359391e-01 3.673985e-01 3.558529e-01 3.090132e-01 3.020231e-01 4.859749e-01 6.178693e-01 3.536684e-01 4.087624e-01 3.376120e-01 2.000000e-01
<GCONST> 1.079888e+02
<MIXTURE> 2 3.904557e-01
<MEAN> 39
 -5.014100e+00 -2.461561e+00 -1.503039e+00 -2.362512e+00 -8.295916e+00 -1.250618e+01 -9.765106e+00 -8.873449e+00 -1.232933e+01 -1.216664e+00 -6.964636e+00 -8.506801e+00 4.979163e+01 6.010087e-03 4.215185e-01 4.582557e-01 5.916471e-01 -8.503246e-02 -3.920366e-01 -1.255367e-01 -7.543193e-01 -7.707028e-01 1.407678e-01 7.475656e-02 -3.986779e-01 -2.595105e-01 -2.744208e-01 -4.465423e-01 -2.988388e-01 -6.064259e-01 -2.157434e-02 4.941495e-01 1.494334e-01 6.265369e-01 6.209378e-01 -3.394712e-01 2.030149e-01 4.544861e-01 2.846455e-01
<VARIANCE> 39
 7.810333e+00 2.623093e+01 2.785759e+01 4.534005e+01 6.374063e+01 7.704653e+01 7.530577e+01 5.366584e+01 5.614868e+01 5.906725e+01 9.080146e+01 5.214700e+01 2.443508e+01 1.709721e+00 2.485408e+00 2.273818e+00 3.770418e+00 2.624625e+00 3.158960e+00 2.874871e+00 3.552769e+00 4.042387e+00 3.923006e+00 3.291811e+00 3.022639e+00 4.428094e+00 2.573656e-01 2.949284e-01 4.302999e-01 5.451290e-01 6.260449e-01 5.327306e-01 6.012213e-01 6.390936e-01 7.205492e-01 7.290496e-01 7.909994e-01 6.200342e-01 3.884424e-01
<GCONST> 1.269088e+02
<STATE> 3
<NUMMIXES> 2
<MIXTURE> 1 4.668761e-01
<MEAN> 39
 -1.222910e+01 -9.790278e-01 -4.149829e+00 -1.436362e+00 -4.595828e+00 -5.148930e+00 -3.806574e+00 -5.105196e+00 -5.566516e+00 -2.730378e+00 -2.639595e+00 -2.974557e+00 3.985175e+01 -1.079535e+00 -1.323379e-02 -1.156938e-01 -1.719036e-01 4.879071e-01 7.888868e-01 4.303945e-01 1.011830e+00 8.056968e-01 5.935242e-02 1.262277e-01 5.305310e-01 -1.065911e+00 -4.689400e-02 -3.357853e-01 -1.124901e-01 -2.597735e-01 -9.106007e-02 1.669424e-01 1.789961e-03 1.774933e-01 2.029678e-01 8.673433e-02 1.496107e-02 2.358489e-03 2.886736e-01
<VARIANCE> 39
 4.853116e+01 2.518266e+01 3.782159e+01 3.922099e+01 4.023269e+01 5.064994e+01 4.640391e+01 5.606405e+01 5.876277e+01 4.314561e+01 3.509241e+01 2.971066e+01 6.014070e+01 2.203851e+00 1.721358e+00 3.015634e+00 3.766997e+00 3.644525e+00 3.071131e+00 3.266158e+00 3.416521e+00 3.562169e+00 3.382865e+00 3.092993e+00 2.714329e+00 3.353015e+00 3.995135e-01 3.782903e-01 5.512139e-01 7.379790e-01 5.842331e-01 5.265385e-01 5.672818e-01 6.908790e-01 6.455313e-01 6.063229e-01 5.236828e-01 4.744390e-01 5.137732e-01
<GCONST> 1.269719e+02
<MIXTURE> 2 5.331246e-01
<MEAN> 39
 -7.195816e+00 -5.766897e+00 -4.749146e+00 -3.923687e+00 -3.694092e+00 -4.528954e+00 -7.249184e+00 -4.637679e+00 -8.049655e+00 -5.933057e+00 -3.233825e+00 -4.984156e+00 4.899432e+01 -3.090352e-01 -1.027430e+00 -9.110653e-01 -1.418032e+00 -6.711071e-01 4.164855e-01 2.244708e-01 1.057372e+00 1.291880e+00 -4.414428e-01 -2.104435e-01 6.736025e-01 5.909026e-01 -1.509681e-01 -1.866290e-01 -5.276725e-02 -3.745759e-01 -3.409639e-01 7.031549e-02 1.008849e-01 3.604761e-01 3.846823e-01 1.592720e-01 1.091991e-02 1.882400e-01 1.153328e-01
<VARIANCE> 39
 2.486895e+01 2.864193e+01 4.655033e+01 4.468940e+01 5.452415e+01 8.693405e+01 7.289085e+01 7.891692e+01 9.958876e+01 6.951099e+01 6.604221e+01 4.836602e+01 4.246585e+01 1.278047e+00 1.980963e+00 2.845972e+00 3.726343e+00 3.660723e+00 3.860777e+00 3.605360e+00 3.922049e+00 5.816096e+00 3.923712e+00 4.211734e+00 3.356493e+00 3.844604e+00 2.508969e-01 3.813235e-01 6.135438e-01 8.022702e-01 6.225913e-01 7.025031e-01 6.325563e-01 8.545895e-01 1.120964e+00 6.559932e-01 7.893585e-01 6.145090e-01 3.679562e-01
<GCONST> 1.328500e+02
<STATE> 4
<NUMMIXES> 2
<MIXTURE> 1 6.025763e-01
<MEAN> 39
 -6.500546e+00 -6.571898e+00 -3.394586e+00 -6.882674e+00 -9.912614e+00 -8.001417e+00 -8.007171e+00 -4.050100e+00 -6.025039e+00 -4.285200e+00 -3.117305e+00 -3.839865e+00 5.261052e+01 -8.177884e-01 -1.469227e+00 -4.413173e-01 -2.479440e+00 -1.672983e+00 1.305406e+00 9.088015e-01 2.351965e+00 2.125373e+00 -1.034266e-01 1.525779e-03 1.512334e+00 1.217888e+00 -1.477998e-01 4.767439e-02 2.163710e-01 1.466220e-02 6.245876e-02 2.864252e-01 1.824936e-01 -9.026718e-03 -3.119583e-01 2.937362e-01 7.539530e-02 -1.565870e-01 -3.502078e-02
<VARIANCE> 39
 2.381430e+01 4.374395e+01 4.380943e+01 5.946402e+01 6.802525e+01 6.689883e+01 5.352804e+01 6.396058e+01 6.752421e+01 4.114790e+01 4.554478e+01 4.198646e+01 8.015228e+01 2.709099e+00 3.145609e+00 7.166037e+00 7.519200e+00 7.957092e+00 5.402972e+00 4.737505e+00 5.369653e+00 6.436504e+00 5.471377e+00 6.339587e+00 4.782495e+00 6.786293e+00 2.000000e-01 4.819467e-01 4.721289e-01 6.715901e-01 8.052378e-01 5.860822e-01 6.111009e-01 8.839306e-01 9.340721e-01 5.838735e-01 6.411033e-01 6.368420e-01 4.455372e-01
<GCONST> 1.377719e+02
<MIXTURE> 2 3.974231e-01
<MEAN> 39
 -1.229909e+01 -5.903510e+00 -4.822303e+00 -8.119230e+00 -8.416552e+00 -4.588002e+00 -4.371204e+00 -2.849701e+00 -3.931329e+00 -1.324581e+00 -2.362510e+00 -3.321557e+00 4.669000e+01 -4.428319e-01 -7.731802e-01 -2.178190e-01 -1.684106e+00 -5.363984e-01 1.125406e+00 4.961176e-01 1.179402e+00 1.358597e+00 -5.141544e-02 -2.617503e-01 3.793808e-01 8.515198e-01 2.787731e-01 2.116674e-02 1.911471e-01 -1.203672e-01 -9.848632e-02 -1.009175e-01 -2.049091e-01 -1.931680e-01 -2.838740e-01 -2.635065e-02 -1.752308e-01 -1.533860e-01 4.698320e-01
<VARIANCE> 39
 6.447409e+01 4.869547e+01 6.062476e+01 7.713477e+01 6.565096e+01 6.042810e+01 7.529567e+01 6.184780e+01 7.261895e+01 5.954934e+01 4.999454e+01 4.045567e+01 1.381249e+02 4.372942e+00 5.856910e+00 6.409191e+00 9.095243e+00 6.787855e+00 5.862391e+00 5.691793e+00 7.561651e+00 7.801872e+00 5.355392e+00 5.580281e+00 4.196909e+00 1.246829e+01 8.608013e-01 9.651932e-01 1.126444e+00 1.758040e+00 1.207762e+00 8.542779e-01 1.056574e+00 1.073542e+00 1.094823e+00 1.006505e+00 9.853668e-01 6.892600e-01 2.222824e+00
<GCONST> 1.511513e+02
<TRANSP> 5
 0.000000e+00 1.000000e+00 0.000000e+00 0.000000e+00 0.000000e+00
 0.000000e+00 8.034068e-01 1.965932e-01 0.000000e+00 0.000000e+00
 0.000000e+00 0.000000e+00 6.273875e-01 3.726125e-01 0.000000e+00
 0.000000e+00 0.000000e+00 0.000000e+00 4.872847e-01 5.127153e-01
 0.000000e+00 0.000000e+00 0.000000e+00 0.000000e+00 0.000000e+00
<ENDHMM>
~h "n"
<BEGINHMM>
<NUMSTATES> 5
<STATE> 2
<NUMMIXES> 2
<MIXTURE> 1 5.310621e-01
<MEAN> 39
 -4.050312e+00 -2.716599e+00 -1.342514e-03 -1.238374e+00 -1.039121e+01 -7.846293e+00 -3.328916e+00 -8.401524e+00 -8.578543e+00 7.891237e-01 -5.725232e+00 -6.708882e+00 5.004327e+01 -1.809065e-01 1.201744e+00 2.913594e-01 8.845107e-01 2.485673e-01 -3.157846e-02 9.620776e-01 -1.446710e+00 -7.260677e-01 4.952299e-01 -4.390910e-01 1.750390e-01 -1.313554e+00 -1.693533e-01 -2.379963e-01 -1.032679e-01 -4.067416e-01 5.882664e-03 1.856618e-01 -2.799901e-01 7.324281e-01 4.480587e-01 -4.562338e-01 8.706529e-02 2.524465e-01 2.883507e-01
<VARIANCE> 39
 7.111162e+00 2.415712e+01 2.352176e+01 3.469960e+01 3.865346e+01 4.321366e+01 5.552699e+01 6.410353e+01 5.049333e+01 4.230017e+01 3.795601e+01 4.808644e+01 1.890062e+01 3.980375e-01 1.249086e+00 1.935810e+00 2.331256e+00 2.098658e+00 2.118278e+00 3.057402e+00 6.022500e+00 3.361328e+00 3.000269e+00 2.083287e+00 2.023614e+00 9.421285e-01 2.000000e-01 2.224267e-01 3.063109e-01 3.996714e-01 4.097903e-01 4.034191e-01 4.741759e-01 6.750101e-01 5.173293e-01 4.353264e-01 3.758801e-01 3.583520e-01 2.024612e-01
<GCONST> 1.129003e+02
<MIXTURE> 2 4.689234e-01
<MEAN> 39
 -4.851938e+00 -8.097070e-01 -1.646030e+00 -5.949914e+00 -1.356247e+01 -8.565192e+00 -3.679969e+00 -1.105490e+01 -1.093175e+01 -3.844844e+00 -7.666728e+00 -8.598760e-01 4.857638e+01 -1.045137e-01 7.097183e-01 1.677492e-01 5.149341e-01 2.037184e-01 3.017163e-01 -3.890487e-02 -5.894682e-01 -1.081338e-01 -2.479521e-01 -8.178637e-02 -1.288277e-01 -8.772150e-01 -2.270796e-01 -2.605149e-01 -2.155906e-02 -2.255122e-01 2.453934e-01 5.483687e-02 -1.224896e-01 6.779100e-01 1.586138e-01 -1.200872e-01 1.618137e-01 -1.061403e-01 1.884816e-01
<VARIANCE> 39
 8.297461e+00 2.006339e+01 2.593464e+01 4.458540e+01 4.942824e+01 4.847349e+01 4.965904e+01 6.081893e+01 5.479943e+01 5.772616e+01 5.170859e+01 4.816896e+01 2.063411e+01 5.377052e-01 1.094853e+00 1.017651e+00 1.526758e+00 1.881231e+00 1.894642e+00 1.588508e+00 3.858937e+00 2.034734e+00 1.954885e+00 1.671272e+00 1.531821e+00 1.088760e+00 2.000000e-01 2.274746e-01 2.691036e-01 4.039946e-01 3.986835e-01 4.717160e-01 4.113486e-01 6.936482e-01 5.162319e-01 4.498957e-01 4.193773e-01 3.580256e-01 2.214115e-01
<GCONST> 1.108491e+02
<STATE> 3
<NUMMIXES> 2
<MIXTURE> 1 5.456161e-01
<MEAN> 39
 -1.137125e+01 6.756170e-01 -1.473879e+00 3.836532e-02 -5.000437e+00 -4.764125e+00 -1.784766e+00 -4.318802e+00 -5.061086e+00 -2.307492e+00 -5.146887e+00 -2.050487e+00 3.924158e+01 -1.008530e+00 -4.505044e-02 -2.145730e-02 1.030084e-01 7.908943e-01 6.919932e-01 2.030775e-01 8.759303e-01 5.639312e-01 -2.120958e-01 3.771892e-01 3.275014e-01 -9.101802e-01 -1.368265e-01 -3.645884e-01 -1.759782e-01 -3.002521e-01 -1.039801e-01 5.055251e-02 -2.600773e-02 1.836293e-01 1.329907e-01 5.508680e-02 9.512156e-02 2.616105e-02 2.028297e-01
<VARIANCE> 39
 3.956182e+01 1.891500e+01 2.737709e+01 2.638441e+01 2.709345e+01 3.157351e+01 3.658036e+01 4.683137e+01 4.372486e+01 3.796755e+01 3.440685e+01 2.735630e+01 4.039171e+01 1.118757e+00 1.523479e+00 1.456149e+00 2.205896e+00 2.274350e+00 2.258505e+00 2.649328e+00 2.865957e+00 2.588895e+00 2.705568e+00 2.182331e+00 2.180605e+00 1.430489e+00 2.218412e-01 3.127782e-01 3.047613e-01 3.747583e-01 3.725283e-01 3.623933e-01 4.398420e-01 4.532944e-01 4.497549e-01 4.235167e-01 3.930963e-01 3.378299e-01 2.000000e-01
<GCONST> 1.125246e+02
<MIXTURE> 2 4.543749e-01
<MEAN> 39
 -9.899762e+00 -4.287342e+00 -4.073141e+00 -4.175854e+00 -7.201983e+00 -5.435072e+00 -3.283106e+00 -2.484110e+00 -5.480016e+00 -4.945219e+00 -6.001536e+00 -1.630775e+00 4.517105e+01 -6.829376e-01 -4.299111e-01 -4.098606e-01 -4.708532e-01 2.655101e-01 1.008828e-01 -2.937296e-01 8.248032e-01 3.842415e-01 -3.854644e-01 1.712852e-01 1.181157e-01 -3.375178e-01 -1.587457e-01 -1.224382e-01 4.101250e-02 -1.890841e-01 -7.948440e-02 6.805543e-02 -1.061559e-01 1.618196e-01 1.898483e-01 5.300666e-02 1.202135e-01 4.071588e-02 1.327502e-01
<VARIANCE> 39
 3.615971e+01 3.246509e+01 3.714620e+01 4.014989e+01 5.483265e+01 5.120395e+01 5.098664e+01 9.151157e+01 7.645509e+01 6.590869e+01 5.150686e+01 4.490688e+01 5.860295e+01 1.100986e+00 2.085582e+00 2.155956e+00 3.022343e+00 3.013426e+00 2.846600e+00 3.099516e+00 5.381478e+00 3.579704e+00 3.252727e+00 2.834079e+00 2.524143e+00 2.356644e+00 2.990150e-01 4.959762e-01 4.734216e-01 7.921175e-01 6.663119e-01 7.111008e-01 6.837459e-01 1.300649e+00 8.784080e-01 7.644751e-01 6.235601e-01 5.363830e-01 4.953049e-01
<GCONST> 1.297820e+02
<STATE> 4
<NUMMIXES> 2
<MIXTURE> 1 5.167650e-01
<MEAN> 39
 -1.218947e+01 9.260722e-02 -1.990008e+00 -2.671739e+00 -6.208543e+00 -5.195796e+00 -3.757887e+00 -4.566219e+00 -6.727212e+00 -4.026221e+00 -4.544372e+00 -2.631846e+00 4.072425e+01 -2.074088e+00 -8.333767e-01 -3.538093e-01 -5.207057e-01 9.853998e-01 1.061116e+00 2.105802e-01 1.300394e+00 1.268036e+00 2.751653e-01 8.716273e-01 4.252759e-01 -5.305209e-01 -1.019321e-01 -4.351113e-01 -9.345772e-02 -4.331555e-01 -3.081888e-01 2.471745e-02 7.382436e-02 9.083503e-02 2.597440e-01 2.586779e-01 7.506502e-02 8.581624e-02 7.788987e-01
<VARIANCE> 39
 4.664193e+01 3.149812e+01 2.861265e+01 3.463897e+01 4.301257e+01 3.656057e+01 4.124277e+01 5.711872e+01 5.660693e+01 4.855275e+01 3.682169e+01 3.077431e+01 5.324118e+01 4.003230e+00 3.756242e+00 3.872780e+00 5.350866e+00 5.686503e+00 4.191196e+00 4.736244e+00 5.476048e+00 4.791502e+00 5.080782e+00 3.731169e+00 3.412141e+00 6.406719e+00 8.262436e-01 6.692927e-01 6.008388e-01 7.790175e-01 7.989143e-01 7.034813e-01 7.705460e-01 8.704109e-01 8.826848e-01 7.849684e-01 6.082023e-01 5.266131e-01 9.821941e-01
<GCONST> 1.358315e+02
<MIXTURE> 2 4.832304e-01
<MEAN> 39
 -1.154417e+01 -6.917628e+00 -2.521188e+00 -8.422505e+00 -1.019123e+01 -5.905740e+00 -5.612738e+00 -3.038360e-01 -3.680553e+00 -3.147845e+00 -3.718564e+00 -1.452048e+00 4.928482e+01 -6.023169e-01 -1.026249e+00 -3.622378e-01 -1.344002e+00 -4.000372e-01 3.963675e-01 -3.681019e-01 1.496740e+00 1.208596e+00 -2.459967e-01 1.295731e-01 3.118896e-01 8.458917e-01 1.754934e-01 2.486724e-01 -1.709628e-02 2.092587e-01 1.586246e-02 8.100104e-02 1.368576e-01 -3.527617e-01 -1.494473e-01 4.964137e-02 -1.775321e-01 -1.307627e-01 -1.158128e-01
<VARIANCE> 39
 4.671133e+01 3.546148e+01 4.758604e+01 5.608335e+01 7.247465e+01 5.314959e+01 6.586073e+01 7.323166e+01 7.522805e+01 5.214105e+01 4.304481e+01 4.129231e+01 9.872198e+01 2.790786e+00 3.750873e+00 5.225730e+00 5.485295e+00 5.831764e+00 4.918463e+00 5.044985e+00 8.271017e+00 5.999549e+00 4.691449e+00 4.021204e+00 3.798398e+00 7.864093e+00 4.556537e-01 6.157664e-01 7.244972e-01 1.097956e+00 1.136557e+00 9.055516e-01 8.870378e-01 1.304794e+00 9.638950e-01 7.575181e-01 6.699514e-01 6.531366e-01 1.166504e+00
<GCONST> 1.426718e+02
<TRANSP> 5
 0.000000e+00 1.000000e+00 0.000000e+00 0.000000e+00 0.000000e+00
 0.000000e+00 7.961327e-01 2.038672e-01 0.000000e+00 0.000000e+00
 0.000000e+00 0.000000e+00 7.064499e-01 2.935501e-01 0.000000e+00
 0.000000e+00 0.000000e+00 0.000000e+00 5.914522e-01 4.085478e-01
 0.000000e+00 0.000000e+00 0.000000e+00 0.000000e+00 0.000000e+00
<ENDHMM>
~h "p"
<BEGINHMM>
<NUMSTATES> 5
<STATE> 2
<NUMMIXES> 2
<MIXTURE> 1 4.183633e-01
<MEAN> 39
 -1.953109e+01 -4.166616e-01 -4.407499e+00 -1.716263e-02 -2.333670e+00 -5.723903e-01 -2.249495e+00 -1.167989e+00 -2.083553e+00 -8.995616e-01 -1.287591e+00 -7.552576e-01 3.110474e+01 -1.150609e+00 -1.275107e+00 -3.805666e-01 -2.956270e-01 5.496325e-02 8.795998e-02 9.024255e-01 1.240558e+00 1.273615e+00 8.464980e-01 6.228583e-01 7.420756e-01 1.254418e+00 7.587329e-01 -5.225565e-01 1.830790e-01 -7.004296e-01 -5.805565e-01 -4.605719e-01 -1.477659e-01 -5.351552e-02 -2.258207e-01 8.496599e-03 6.236375e-02 -9.469137e-02 1.869234e+00
<VARIANCE> 39
 9.621400e+00 9.846364e+00 1.059604e+01 9.511773e+00 1.082226e+01 1.184491e+01 1.283175e+01 1.465588e+01 1.547818e+01 1.453701e+01 1.377213e+01 1.278930e+01 2.318932e+01 6.357595e+00 2.316778e+00 3.574758e+00 3.336211e+00 2.927920e+00 4.176580e+00 2.661519e+00 2.838404e+00 2.979891e+00 2.358086e+00 2.495315e+00 1.914237e+00 2.375081e+01 5.611400e-01 5.175102e-01 6.201898e-01 5.407581e-01 5.223612e-01 5.673323e-01 5.284461e-01 6.106703e-01 5.514466e-01 5.015693e-01 4.585465e-01 3.670196e-01 1.087920e+00
<GCONST> 1.133790e+02
<MIXTURE> 2 5.816286e-01
<MEAN> 39
 -2.128195e+01 -1.792030e+00 -6.304439e+00 -1.035142e+00 -3.328387e+00 -7.420417e-01 -1.694092e+00 -2.372040e-01 -9.871114e-01 -1.816835e-01 -6.035219e-01 9.085802e-03 2.927428e+01 4.306723e-02 -2.986636e-01 -5.497880e-02 -1.864330e-01 -1.053411e-01 -2.034713e-01 -4.930824e-02 8.379375e-02 6.905522e-02 -3.125983e-02 -2.861461e-02 3.098883e-02 6.639714e-01 3.499085e-01 -8.468111e-02 2.395596e-01 -1.274273e-01 -5.513310e-02 -1.796069e-01 -1.904375e-02 -3.089224e-02 -4.908128e-02 -3.984388e-02 -5.066185e-02 -5.417829e-02 1.045651e+00
<VARIANCE> 39
 1.882847e+00 3.495303e+00 4.733785e+00 6.149947e+00 8.729397e+00 1.012616e+01 1.136402e+01 1.231488e+01 1.191197e+01 1.262907e+01 1.151309e+01 1.027703e+01 9.819861e+00 5.948427e-01 7.417024e-01 8.392542e-01 1.054546e+00 1.074849e+00 1.381935e+00 1.331720e+00 1.528156e+00 1.478606e+00 1.496473e+00 1.352410e+00 1.250226e+00 5.008750e+00 2.168380e-01 2.000000e-01 2.328609e-01 2.401259e-01 2.588049e-01 3.280719e-01 3.308208e-01 3.747622e-01 3.744124e-01 3.606319e-01 3.212133e-01 2.812738e-01 1.225590e+00
<GCONST> 8.674470e+01
<STATE> 3
<NUMMIXES> 2
<MIXTURE> 1 5.123146e-01
<MEAN> 39
 -1.652891e+01 -6.770776e+00 -4.180609e+00 -3.325922e+00 -3.695524e+00 -5.328708e+00 -1.611607e+00 2.427101e+00 1.498184e+00 4.294394e-01 -7.719359e-01 5.808772e-01 5.042883e+01 1.285413e+00 -1.960384e+00 8.737868e-01 -1.065451e+00 -8.469261e-01 -1.159745e+00 5.780126e-01 6.068171e-01 -5.568993e-02 1.157089e-01 2.444994e-01 2.328022e-01 6.446383e+00 -6.490889e-02 2.131056e-01 7.331859e-02 -2.930432e-01 -3.603582e-01 2.806542e-01 -8.969973e-02 -5.321684e-01 -7.012117e-01 -1.690447e-01 -8.976068e-02 -2.373159e-01 -9.575386e-01
<VARIANCE> 39
 1.168839e+01 1.832755e+01 1.876989e+01 1.936353e+01 2.162828e+01 2.634338e+01 2.543131e+01 2.471529e+01 2.173366e+01 2.072364e+01 1.988460e+01 1.816567e+01 6.759045e+01 1.807535e+00 1.682604e+00 3.106540e+00 2.796138e+00 2.806647e+00 2.776663e+00 3.088782e+00 2.790108e+00 2.822030e+00 2.644129e+00 2.025974e+00 1.787679e+00 8.721633e+00 5.389148e-01 4.228101e-01 4.633511e-01 6.224070e-01 6.095692e-01 6.810255e-01 7.388564e-01 7.105718e-01 6.753771e-01 5.805091e-01 5.636328e-01 4.337789e-01 1.433344e+00
<GCONST> 1.186544e+02
<MIXTURE> 2 4.876816e-01
<MEAN> 39
 -1.731084e+01 -9.759374e+00 -1.478523e+00 -5.771987e+00 -7.019346e+00 -5.068861e+00 2.027674e+00 1.964225e+00 -1.763771e+00 1.055307e+00 1.253278e+00 1.161307e+00 5.667636e+01 -2.335626e-02 -9.983895e-01 6.194618e-01 -2.279680e+00 -1.284608e+00 2.637140e-01 2.351851e-01 -1.438459e+00 -1.200117e+00 1.110495e-01 -5.014075e-01 -4.983044e-01 2.723209e+00 -5.170969e-02 9.079508e-01 -1.086894e-01 -1.526033e-01 2.561232e-02 4.017169e-01 -6.973814e-01 -7.104132e-01 -2.402118e-01 -2.891070e-01 -4.973222e-01 -2.911235e-01 -1.982843e+00
<VARIANCE> 39
 1.327295e+01 1.641535e+01 3.161000e+01 2.214551e+01 2.659637e+01 2.816137e+01 2.720276e+01 2.607147e+01 2.829699e+01 2.429698e+01 1.923697e+01 1.659744e+01 1.899853e+01 2.703451e+00 2.404338e+00 3.058387e+00 3.787191e+00 3.448368e+00 2.915252e+00 3.702024e+00 3.110130e+00 3.978763e+00 2.911615e+00 2.899232e+00 2.208117e+00 1.114641e+01 3.804775e-01 3.782839e-01 5.013005e-01 5.193059e-01 5.616995e-01 6.279007e-01 7.389175e-01 6.748627e-01 6.925868e-01 6.274233e-01 6.076835e-01 4.183187e-01 8.294162e-01
<GCONST> 1.204165e+02
<STATE> 4
<NUMMIXES> 2
<MIXTURE> 1 5.848611e-01
<MEAN> 39
 -1.828477e+01 -7.676945e+00 -1.886597e+00 -1.052130e+01 -8.584459e+00 -3.701138e+00 -5.608616e-01 -2.525146e+00 -3.261334e+00 7.417355e-01 -1.999887e+00 -9.261664e-01 5.432600e+01 1.184134e+00 1.500328e+00 1.327858e+00 -3.159088e-01 -7.505962e-01 4.133107e-01 -7.526764e-01 -1.089886e+00 -7.173598e-01 -5.380663e-01 -2.522426e-01 -3.511821e-01 -3.358513e-01 6.183606e-01 3.370737e-01 4.605510e-01 4.682649e-01 -2.461919e-01 -1.493347e-01 -5.277209e-01 2.700668e-02 -7.508035e-02 -3.605196e-01 2.246218e-01 -4.842999e-02 -6.082652e-02
<VARIANCE> 39
 2.072299e+01 2.503597e+01 4.993528e+01 3.271566e+01 3.553809e+01 2.475613e+01 2.984823e+01 2.390491e+01 2.873826e+01 2.045198e+01 1.928715e+01 2.086474e+01 2.890870e+01 2.968780e+00 1.984632e+00 4.509773e+00 3.500300e+00 3.342868e+00 2.842759e+00 3.521821e+00 2.804281e+00 3.346304e+00 3.029140e+00 2.642780e+00 2.343744e+00 2.138549e+00 3.480587e-01 5.709516e-01 5.012459e-01 6.969730e-01 6.137365e-01 5.664602e-01 6.768190e-01 5.345805e-01 6.853719e-01 5.457140e-01 5.135894e-01 4.558608e-01 9.866948e-01
<GCONST> 1.212000e+02
<MIXTURE> 2 4.151360e-01
<MEAN> 39
 -1.571955e+01 -6.105135e+00 -1.072335e+00 -1.082499e+01 -6.208093e+00 -2.822473e+00 -1.876961e+00 -4.473392e+00 -2.992496e+00 -1.375260e+00 -3.170501e+00 -6.536183e-01 5.431476e+01 2.258348e+00 1.235573e+00 9.976337e-01 -1.941057e+00 -1.705160e+00 -6.777673e-01 -2.691684e+00 -2.073361e+00 -1.995587e+00 -1.607377e+00 -1.485298e+00 -9.338610e-01 9.599129e-01 2.897653e-01 1.800480e-01 2.113051e-02 -6.566456e-02 -4.591281e-01 -2.318413e-01 -5.181134e-01 2.258424e-01 -1.700002e-01 5.275033e-04 3.280102e-02 -7.398798e-02 -2.017600e-01
<VARIANCE> 39
 3.924513e+01 3.124846e+01 6.039732e+01 5.417360e+01 3.805052e+01 3.158563e+01 5.189022e+01 3.644862e+01 3.724002e+01 3.283076e+01 3.072630e+01 2.183079e+01 2.788682e+01 3.759597e+00 3.587255e+00 5.555577e+00 5.668517e+00 4.967387e+00 4.453132e+00 5.313372e+00 4.556473e+00 5.234560e+00 3.769025e+00 5.878300e+00 2.775461e+00 5.371791e+00 5.213914e-01 5.754658e-01 4.284849e-01 6.731076e-01 5.846940e-01 6.399119e-01 8.732187e-01 7.444389e-01 7.928295e-01 7.750973e-01 7.184508e-01 5.065758e-01 1.419493e+00
<GCONST> 1.332459e+02
<TRANSP> 5
 0.000000e+00 1.000000e+00 0.000000e+00 0.000000e+00 0.000000e+00
 0.000000e+00 8.278852e-01 1.721149e-01 0.000000e+00 0.000000e+00
 0.000000e+00 0.000000e+00 6.463541e-01 3.536460e-01 0.000000e+00
 0.000000e+00 0.000000e+00 0.000000e+00 6.318285e-01 3.681715e-01
 0.000000e+00 0.000000e+00 0.000000e+00 0.000000e+00 0.000000e+00
<ENDHMM>
~h "r"
<BEGINHMM>
<NUMSTATES> 5
<STATE> 2
<NUMMIXES> 2
<MIXTURE> 1 5.611462e-01
<MEAN> 39
 4.046120e+00 -1.163936e+01 -1.983303e+01 -7.115067e+00 -3.090750e+00 -8.744838e+00 -2.179378e+01 2.470831e+00 4.434710e+00 -3.062845e+00 9.557473e-02 -7.370209e-01 5.920902e+01 -1.030539e-01 -6.528699e-01 8.080465e-01 7.579508e-01 -6.671849e-01 -1.303397e+00 -6.877264e-01 1.077189e+00 4.366392e-01 -2.246828e-01 -6.910663e-02 1.260234e-01 2.065582e-01 -5.113482e-01 -7.976673e-02 7.227023e-01 6.908459e-02 -5.043526e-01 -5.371947e-02 8.784534e-01 2.724250e-01 -4.639944e-01 -1.756120e-01 1.079436e-01 -3.548889e-03 -8.308560e-02
<VARIANCE> 39
 7.193174e+00 3.728174e+01 4.876762e+01 4.322462e+01 5.536682e+01 7.373522e+01 8.530149e+01 1.229492e+02 7.753493e+01 4.788189e+01 3.885725e+01 3.668814e+01 2.401721e+01 1.615853e+00 1.976330e+00 3.847667e+00 2.265833e+00 3.215757e+00 3.829504e+00 5.930456e+00 4.757488e+00 3.566965e+00 3.192277e+00 2.300011e+00 2.079984e+00 1.705128e+00 3.060952e-01 2.049441e-01 3.176100e-01 3.496494e-01 4.032462e-01 4.787263e-01 7.148337e-01 6.913472e-01 6.054087e-01 5.088929e-01 3.877847e-01 3.680400e-01 2.000000e-01
<GCONST> 1.228139e+02
<MIXTURE> 2 4.388505e-01
<MEAN> 39
 -7.006787e-01 -1.369924e+01 -1.661168e+01 -4.951718e+00 -4.216894e+00 -1.348536e+01 -1.202087e+01 7.257086e+00 -5.641310e-01 -4.095528e+00 -4.273662e+00 -1.513057e+00 5.598175e+01 -3.006828e-01 -3.606966e-01 9.885010e-01 1.137297e-01 -1.081471e+00 -9.173635e-01 4.108273e-01 7.770767e-01 -4.875244e-01 -4.213598e-01 2.537165e-01 2.510301e-01 -2.507491e-01 -4.187865e-01 1.488169e-01 4.552753e-01 -1.604178e-01 -2.895210e-01 4.405395e-01 5.724274e-01 -2.769632e-01 -2.549884e-01 1.877690e-01 2.531969e-01 -5.736637e-02 -1.762117e-01
<VARIANCE> 39
 2.412005e+01 3.428365e+01 5.048220e+01 3.644436e+01 6.235822e+01 8.583810e+01 1.066592e+02 9.366878e+01 1.130566e+02 5.143317e+01 4.908067e+01 3.029042e+01 5.668412e+01 3.130949e+00 1.975324e+00 4.048890e+00 2.309084e+00 3.718004e+00 4.173407e+00 5.225988e+00 4.662799e+00 3.612090e+00 3.181645e+00 2.488133e+00 2.248601e+00 2.621204e+00 3.691295e-01 2.982051e-01 2.904231e-01 3.038072e-01 4.352422e-01 4.720653e-01 6.676028e-01 6.103206e-01 6.385793e-01 4.601482e-01 3.951392e-01 3.234451e-01 2.034124e-01
<GCONST> 1.268476e+02
<STATE> 3
<NUMMIXES> 2
<MIXTURE> 1 4.699205e-01
<MEAN> 39
 -6.839675e-01 -1.435994e+01 -1.086150e+01 -3.213455e+00 -1.059210e+01 -1.625929e+01 -1.511670e+01 9.591647e+00 5.778669e-01 -6.631015e+00 -9.485986e-01 4.127896e-01 5.730492e+01 -1.903257e+00 8.499536e-01 3.285589e+00 3.697106e-01 -1.858984e+00 -8.389646e-02 2.662285e+00 -1.716150e-01 -1.857869e+00 -1.680268e-01 7.768604e-01 2.976830e-01 -1.585766e+00 -4.781961e-01 5.073127e-01 1.794166e-01 -3.947119e-01 2.892149e-01 9.846113e-01 4.788744e-01 -8.437872e-01 -2.348373e-01 4.516029e-01 8.894733e-02 -3.200955e-01 -4.186270e-01
<VARIANCE> 39
 1.268186e+01 3.318147e+01 7.698197e+01 4.532825e+01 7.684787e+01 7.913353e+01 1.052954e+02 7.974688e+01 8.559145e+01 5.234589e+01 5.323383e+01 3.636517e+01 4.237833e+01 2.232172e+00 4.206261e+00 3.548633e+00 3.617630e+00 6.230055e+00 5.320888e+00 6.084440e+00 6.303332e+00 6.994461e+00 4.528484e+00 3.958686e+00 3.264543e+00 6.242722e+00 3.526303e-01 4.360922e-01 5.059000e-01 5.971170e-01 7.492487e-01 8.064916e-01 9.303442e-01 8.036594e-01 8.012450e-01 6.284592e-01 6.053194e-01 4.809255e-01 4.627783e-01
<GCONST> 1.365792e+02
<MIXTURE> 2 5.300764e-01
<MEAN> 39
 -3.861134e+00 -1.516897e+01 -7.785317e+00 -6.501161e+00 -1.291053e+01 -1.584306e+01 -5.736952e+00 9.032302e+00 -6.851013e+00 -3.862358e+00 -6.509888e-01 -1.449883e+00 5.646168e+01 -1.459167e+00 8.194709e-01 2.581429e+00 -1.043467e+00 -1.868227e+00 1.089509e+00 1.853107e+00 -1.777004e+00 -1.112701e+00 8.133636e-01 6.867110e-01 -4.655007e-01 -7.670615e-01 -9.292931e-02 4.130307e-01 -1.520326e-01 -2.194542e-01 5.015830e-01 6.189509e-01 -3.685972e-01 -5.941917e-01 4.206416e-01 2.227229e-01 -2.698136e-01 -9.994366e-02 -1.659926e-01
<VARIANCE> 39
 2.165932e+01 2.992227e+01 9.678999e+01 4.496791e+01 9.430797e+01 9.970908e+01 8.290237e+01 6.935796e+01 1.080344e+02 6.652966e+01 6.197649e+01 3.152576e+01 6.618434e+01 8.896106e-01 2.229564e+00 2.944343e+00 2.494898e+00 3.247019e+00 3.734480e+00 3.402821e+00 5.322021e+00 4.674934e+00 3.052183e+00 2.808102e+00 2.213042e+00 2.251713e+00 2.000000e-01 2.513531e-01 3.848511e-01 4.036736e-01 5.780334e-01 5.854989e-01 5.794197e-01 6.492645e-01 6.526362e-01 5.461147e-01 5.393657e-01 4.003057e-01 2.446835e-01
<GCONST> 1.274673e+02
<STATE> 4
<NUMMIXES> 2
<MIXTURE> 1 5.728911e-01
<MEAN> 39
 -1.623858e+01 -5.631741e+00 -7.740900e+00 -2.403727e+00 -4.625747e+00 -3.592651e+00 -1.911850e+00 1.296305e+00 -1.275172e+00 -2.466113e+00 -2.343435e+00 -6.542770e-01 3.640076e+01 -1.518275e+00 9.414082e-01 7.441425e-01 2.343796e-01 4.590714e-01 1.059864e+00 4.536590e-01 -6.089650e-01 8.243129e-02 5.209726e-01 3.329546e-01 8.220037e-02 -1.568182e+00 2.694262e-01 -1.871669e-01 -1.759753e-01 -9.809778e-02 1.260320e-02 -5.522307e-02 -1.491125e-01 7.955495e-02 -2.959721e-02 -2.733020e-02 -3.553744e-02 -2.341223e-02 4.151186e-01
<VARIANCE> 39
 3.458237e+01 3.105523e+01 3.548739e+01 2.795516e+01 4.270649e+01 4.353854e+01 3.105058e+01 4.026508e+01 4.622713e+01 3.789568e+01 3.283155e+01 2.710515e+01 4.307559e+01 3.742838e+00 3.124301e+00 2.906211e+00 2.296139e+00 3.640320e+00 4.612289e+00 3.705972e+00 3.609005e+00 3.819902e+00 2.878978e+00 2.612271e+00 2.399250e+00 4.324741e+00 3.909289e-01 4.709457e-01 5.312666e-01 5.416204e-01 6.266657e-01 6.605273e-01 6.082179e-01 7.149378e-01 6.850912e-01 5.932330e-01 5.366323e-01 5.150371e-01 5.450535e-01
<GCONST> 1.262604e+02
<MIXTURE> 2 4.270990e-01
<MEAN> 39
 -1.120645e+01 -9.561543e+00 -5.096895e+00 -5.869160e+00 -1.008167e+01 -6.803370e+00 -3.019251e+00 2.421937e+00 -3.653691e+00 -2.142992e+00 -5.809320e-01 -1.742518e+00 4.731453e+01 -5.604829e-01 5.015838e-01 1.505629e+00 -1.345090e+00 -6.987736e-01 1.004934e+00 3.443460e-01 -1.477819e+00 -7.119451e-01 1.928661e-01 -3.123506e-01 -4.516755e-01 3.850603e-01 3.865761e-01 1.183978e-02 -2.579104e-01 -1.741071e-01 1.468319e-01 -1.699777e-01 -4.966657e-01 2.609694e-03 1.359437e-01 -1.020952e-01 -1.855434e-01 1.110075e-02 4.346927e-01
<VARIANCE> 39
 6.702792e+01 4.903400e+01 1.014627e+02 5.526833e+01 9.799078e+01 8.475850e+01 7.642487e+01 6.375475e+01 8.116048e+01 5.465874e+01 4.635758e+01 3.144314e+01 1.454868e+02 3.052371e+00 2.589149e+00 3.656705e+00 3.427361e+00 3.100922e+00 4.590629e+00 4.078639e+00 4.228484e+00 3.823961e+00 2.880873e+00 2.795164e+00 2.511841e+00 5.056653e+00 5.156472e-01 4.889766e-01 6.229352e-01 6.560335e-01 8.792402e-01 6.530231e-01 6.704997e-01 7.270566e-01 7.262729e-01 5.359552e-01 5.062081e-01 4.074093e-01 9.913653e-01
<GCONST> 1.365760e+02
<TRANSP> 5
 0.000000e+00 1.000000e+00 0.000000e+00 0.000000e+00 0.000000e+00
 0.000000e+00 6.425034e-01 3.574966e-01 0.000000e+00 0.000000e+00
 0.000000e+00 0.000000e+00 6.043292e-01 3.956707e-01 0.000000e+00
 0.000000e+00 0.000000e+00 0.000000e+00 6.964521e-01 3.035479e-01
 0.000000e+00 0.000000e+00 0.000000e+00 0.000000e+00 0.000000e+00
<ENDHMM>
~h "s"
<BEGINHMM>
<NUMSTATES> 5
<STATE> 2
<NUMMIXES> 2
<MIXTURE> 1 4.618387e-01
<MEAN> 39
 -2.042561e+01 8.794351e-01 -4.973797e+00 -6.660389e+00 -3.507181e+00 -7.278165e+00 -2.083770e-01 -2.716621e-01 -1.899455e+00 -2.197348e+00 -3.334363e+00 -8.335553e-01 5.608255e+01 -5.044694e+00 1.605127e+00 -8.776985e-01 5.242004e-01 2.482070e+00 1.616316e+00 1.223611e+00 7.446247e-01 2.170330e-01 3.591177e-01 1.384298e+00 6.298747e-01 -1.129199e-01 1.736969e-01 -6.276129e-01 -3.122146e-01 -3.289706e-01 -4.077157e-01 5.576620e-02 -3.196470e-01 1.972130e-01 2.208289e-02 1.982648e-01 1.344302e-02 -2.240037e-02 2.267616e-01
<VARIANCE> 39
 5.378697e+01 2.321856e+01 3.796840e+01 3.008675e+01 4.359230e+01 3.912760e+01 3.288113e+01 3.694220e+01 3.613221e+01 3.102210e+01 2.422144e+01 2.022903e+01 2.535855e+01 3.607809e+00 3.078666e+00 4.335865e+00 4.593479e+00 3.610373e+00 4.275167e+00 4.521347e+00 4.654765e+00 4.883895e+00 4.769132e+00 4.205253e+00 3.051162e+00 2.459011e+00 8.427570e-01 5.623902e-01 5.465471e-01 5.978892e-01 5.734351e-01 6.645332e-01 7.249238e-01 6.421242e-01 5.493315e-01 5.389959e-01 5.342567e-01 5.055897e-01 2.988993e-01
<GCONST> 1.272953e+02
<MIXTURE> 2 5.381537e-01
<MEAN> 39
 -2.792652e+01 -4.802896e-01 -8.429720e+00 -8.045519e+00 -9.214914e-01 -5.555483e+00 1.136081e+00 1.654251e+00 -8.551667e-01 -5.742724e-01 -1.066296e+00 7.957983e-01 5.560025e+01 -2.971282e+00 6.990352e-01 -9.841961e-01 -2.717154e-01 8.681461e-01 6.741480e-01 1.319391e-01 1.358666e-01 -2.600261e-01 3.283399e-01 6.484042e-01 3.652943e-01 4.856845e-01 1.083899e+00 -1.689407e-01 1.342758e-01 8.138458e-02 -4.573500e-01 -2.461149e-01 -3.294291e-01 -1.558203e-01 -2.087112e-02 -2.103115e-02 -2.911792e-01 -2.237681e-01 -9.601530e-02
<VARIANCE> 39
 1.608444e+01 1.589836e+01 2.679286e+01 2.846673e+01 3.053756e+01 3.177148e+01 2.849777e+01 2.524564e+01 2.139598e+01 1.741817e+01 1.878674e+01 1.464795e+01 2.656330e+01 2.737428e+00 1.663640e+00 2.070525e+00 1.988159e+00 2.078947e+00 2.354465e+00 2.253666e+00 2.556690e+00 2.842342e+00 2.497462e+00 2.175203e+00 1.754655e+00 1.571224e+00 3.519903e-01 3.190026e-01 4.269207e-01 4.408749e-01 4.509175e-01 5.540732e-01 5.484955e-01 5.335590e-01 5.524953e-01 5.078474e-01 5.171545e-01 3.988519e-01 2.283277e-01
<GCONST> 1.113545e+02
<STATE> 3
<NUMMIXES> 2
<MIXTURE> 1 5.370373e-01
<MEAN> 39
 -3.127521e+01 2.492291e+00 -9.684555e+00 -6.767993e+00 2.360375e-01 -4.833424e+00 5.551375e-01 1.125948e+00 -1.249998e+00 -2.343030e-01 -8.169798e-01 7.370113e-01 5.627705e+01 -1.143314e-01 2.613009e-01 1.792285e-01 2.482123e-01 2.906038e-01 1.651322e-01 7.246221e-02 1.418373e-01 6.711686e-02 6.508907e-02 1.812413e-02 3.830625e-02 1.003726e-01 2.399443e-01 -1.296670e-01 1.328976e-01 -1.980208e-02 -7.209180e-02 -3.815751e-02 1.825822e-02 1.370286e-02 7.824083e-03 -2.650572e-02 -2.127650e-02 -2.321351e-02 -1.014872e-01
<VARIANCE> 39
 6.801561e+00 1.982827e+01 2.536143e+01 3.520910e+01 3.605079e+01 2.883920e+01 2.435206e+01 2.251952e+01 1.694586e+01 1.572141e+01 1.403020e+01 1.203145e+01 1.724571e+01 3.754636e-01 7.256194e-01 7.617047e-01 8.659539e-01 9.800922e-01 1.087647e+00 1.170019e+00 1.236211e+00 1.246767e+00 1.231175e+00 1.125462e+00 1.063796e+00 4.121698e-01 2.000000e-01 2.000000e-01 2.000000e-01 2.000000e-01 2.124104e-01 2.317617e-01 2.371431e-01 2.589578e-01 2.591346e-01 2.644174e-01 2.309056e-01 2.095594e-01 2.000000e-01
<GCONST> 8.907201e+01
<MIXTURE> 2 4.629462e-01
<MEAN> 39
 -3.094594e+01 1.335167e+00 -8.848333e+00 -7.196311e+00 1.440554e-01 -4.014845e+00 1.820582e-01 2.133128e+00 -1.500465e+00 -8.685448e-02 -6.538669e-01 4.462600e-01 5.601025e+01 1.163312e-01 -4.651763e-01 -3.861374e-02 -3.658320e-01 -4.563280e-01 -3.168889e-01 -2.793856e-01 -6.878863e-02 -7.781560e-02 -9.013178e-02 -7.308418e-02 -5.688183e-02 -1.627967e-01 5.214440e-01 -1.443551e-01 1.855120e-01 -4.852298e-02 -2.558659e-01 -2.494027e-01 -1.810822e-01 -1.629793e-01 -3.605640e-02 -8.291892e-02 -1.053445e-01 -6.110917e-02 -1.375238e-01
<VARIANCE> 39
 7.888708e+00 1.869574e+01 3.318667e+01 3.782867e+01 3.828805e+01 3.218995e+01 2.487996e+01 2.205910e+01 1.762410e+01 1.565156e+01 1.503868e+01 1.430058e+01 1.804090e+01 7.970617e-01 8.987349e-01 1.021001e+00 1.029137e+00 1.184973e+00 1.326421e+00 1.351024e+00 1.406445e+00 1.324457e+00 1.338109e+00 1.275730e+00 1.147518e+00 6.138479e-01 3.026141e-01 2.000000e-01 2.450473e-01 2.530441e-01 2.955328e-01 3.111470e-01 3.179441e-01 3.277203e-01 3.172376e-01 3.136176e-01 2.875675e-01 2.685624e-01 2.000000e-01
<GCONST> 9.567832e+01
<STATE> 4
<NUMMIXES> 2
<MIXTURE> 1 5.815124e-01
<MEAN> 39
 -2.252686e+01 -2.686284e+00 -6.722788e+00 -7.231378e+00 -2.804901e+00 -5.399186e+00 -3.138326e+00 1.048460e+00 -3.982121e-01 -5.253708e-01 -1.285498e+00 7.851975e-03 4.425844e+01 1.215066e+00 -4.050581e-01 2.004816e-01 7.310945e-01 -2.271285e-01 6.392620e-01 1.427890e-02 -9.028501e-02 1.451546e-01 6.311593e-02 3.229882e-02 -8.628297e-02 -2.584729e+00 -1.489331e-02 4.736173e-02 -2.980045e-02 1.002016e-01 -2.064812e-03 1.667521e-01 1.681304e-01 -5.239606e-02 -1.008232e-01 -3.471382e-02 -3.699036e-02 -3.273406e-02 6.789331e-02
<VARIANCE> 39
 4.989650e+01 3.021375e+01 3.749535e+01 4.124029e+01 5.359579e+01 4.923682e+01 3.705771e+01 3.423542e+01 3.154435e+01 3.091818e+01 2.711111e+01 2.536066e+01 9.953721e+01 3.420914e+00 2.314722e+00 2.666499e+00 2.803053e+00 3.639503e+00 3.887203e+00 3.324962e+00 3.164870e+00 2.869440e+00 2.942615e+00 2.524799e+00 2.281112e+00 6.331144e+00 7.767472e-01 5.123567e-01 5.337352e-01 6.302707e-01 8.059636e-01 8.983411e-01 6.895249e-01 6.815166e-01 6.175973e-01 6.222762e-01 5.304798e-01 4.799803e-01 1.342270e+00
<GCONST> 1.290740e+02
<MIXTURE> 2 4.184744e-01
<MEAN> 39
 -2.485379e+01 -2.741224e-01 -5.647745e+00 -6.979257e+00 -3.784063e+00 -7.413239e+00 -8.852112e-01 4.155692e-02 -2.120103e+00 -8.432651e-01 -1.967780e+00 -1.030954e-01 5.432821e+01 4.465289e+00 -9.523321e-01 2.085053e+00 -5.794104e-01 -2.581493e+00 -1.823309e+00 -2.005039e+00 -1.395766e+00 -9.229177e-01 -5.246749e-01 -6.031783e-01 -7.522228e-01 3.560294e-01 7.247877e-01 -3.212582e-01 3.043094e-01 -2.720096e-01 -6.248062e-01 -2.318782e-02 -5.464535e-01 -8.541648e-02 -1.656894e-01 1.348061e-02 9.622369e-02 -1.370285e-01 2.782594e-01
<VARIANCE> 39
 4.553315e+01 1.844985e+01 4.272964e+01 2.962045e+01 3.654137e+01 4.469391e+01 3.530518e+01 3.292662e+01 2.569855e+01 2.117042e+01 2.091140e+01 1.774822e+01 5.807874e+01 4.344035e+00 2.882182e+00 4.880554e+00 4.845184e+00 4.472468e+00 4.175720e+00 4.581923e+00 4.139745e+00 4.124187e+00 3.526639e+00 3.646938e+00 2.706412e+00 4.405065e+00 8.984550e-01 4.230412e-01 6.330650e-01 5.907243e-01 5.909832e-01 8.050097e-01 7.650102e-01 7.759954e-01 6.450827e-01 5.957190e-01 6.889587e-01 4.738127e-01 6.499178e-01
<GCONST> 1.285760e+02
<TRANSP> 5
 0.000000e+00 1.000000e+00 0.000000e+00 0.000000e+00 0.000000e+00
 0.000000e+00 7.030662e-01 2.969339e-01 0.000000e+00 0.000000e+00
 0.000000e+00 0.000000e+00 8.908376e-01 1.091624e-01 0.000000e+00
 0.000000e+00 0.000000e+00 0.000000e+00 7.843876e-01 2.156124e-01
 0.000000e+00 0.000000e+00 0.000000e+00 0.000000e+00 0.000000e+00
<ENDHMM>
~h "t"
<BEGINHMM>
<NUMSTATES> 5
<STATE> 2
<NUMMIXES> 2
<MIXTURE> 1 4.116311e-01
<MEAN> 39
 -2.059971e+01 -6.074461e-01 -4.399481e+00 -1.099743e+00 -2.256914e+00 -1.121817e+00 -2.124657e+00 -9.948764e-01 -2.014807e+00 -9.633439e-01 -1.423985e+00 -9.378922e-01 3.283275e+01 -1.062204e+00 -9.666977e-01 -1.152651e+00 -4.965407e-01 4.619056e-01 6.520073e-01 6.660693e-01 7.293082e-01 9.280621e-01 7.507052e-01 7.614633e-01 6.365349e-01 3.253021e-01 2.871920e-01 -1.766157e-01 2.383054e-01 -6.617684e-01 -5.975019e-01 -4.506972e-01 -9.166939e-02 -1.811488e-01 -1.918618e-01 -3.271631e-03 -2.399355e-03 -2.658705e-03 1.615236e+00
<VARIANCE> 39
 1.445442e+01 1.376043e+01 1.433633e+01 1.848102e+01 1.377977e+01 1.494055e+01 1.649765e+01 1.765468e+01 1.811203e+01 1.706595e+01 1.571145e+01 1.331935e+01 3.894749e+01 3.009141e+00 2.729429e+00 4.205408e+00 4.689275e+00 3.474196e+00 3.296154e+00 2.571939e+00 3.365658e+00 3.291992e+00 2.698486e+00 2.474959e+00 1.957319e+00 1.780384e+01 4.730559e-01 5.953622e-01 6.285341e-01 7.357556e-01 6.357972e-01 5.339733e-01 5.388713e-01 6.392761e-01 5.624558e-01 4.932751e-01 4.741917e-01 3.704619e-01 1.867845e+00
<GCONST> 1.180349e+02
<MIXTURE> 2 5.883532e-01
<MEAN> 39
 -2.136270e+01 -1.732081e+00 -6.151912e+00 -1.235777e+00 -3.278498e+00 -9.699762e-01 -1.948070e+00 -2.617329e-01 -1.188537e+00 -2.947517e-01 -3.641855e-01 -3.056139e-02 2.986194e+01 5.264729e-02 -6.648950e-01 -1.813124e-01 -8.718249e-01 -1.409146e-01 -2.896463e-01 -6.743425e-02 -1.725436e-01 -1.135386e-01 3.971171e-02 4.993944e-02 1.719705e-02 1.813736e+00 -8.470666e-02 1.012447e-02 7.623810e-02 -4.705757e-01 -5.283488e-02 -2.483614e-01 7.954818e-02 -5.694249e-02 -7.313933e-02 5.549133e-03 -1.550770e-02 -8.773590e-03 1.495037e+00
<VARIANCE> 39
 2.784027e+00 5.581053e+00 5.395842e+00 8.730566e+00 9.943405e+00 1.157423e+01 1.076745e+01 1.194032e+01 1.169950e+01 1.309199e+01 1.160488e+01 1.032263e+01 8.869119e+00 7.985555e-01 1.676237e+00 1.381139e+00 3.427601e+00 1.467935e+00 1.736811e+00 1.670610e+00 1.684424e+00 1.507905e+00 1.610055e+00 1.437277e+00 1.286892e+00 1.345574e+01 2.280395e-01 2.443084e-01 3.108220e-01 4.391119e-01 3.109639e-01 3.834109e-01 3.399931e-01 3.612665e-01 3.320066e-01 3.411617e-01 3.052027e-01 2.670991e-01 1.808804e+00
<GCONST> 9.459818e+01
<STATE> 3
<NUMMIXES> 2
<MIXTURE> 1 5.088180e-01
<MEAN> 39
 -2.403612e+01 -4.016429e+00 -8.011195e+00 -1.129313e+01 -4.060912e+00 -4.880390e+00 1.251151e-01 -1.327951e+00 -1.557811e+00 1.279197e+00 4.914135e-01 6.702670e-01 5.764308e+01 -1.162390e+00 6.562144e-01 2.589931e-01 -1.001936e+00 -6.238557e-01 -9.422296e-01 9.868832e-01 5.877279e-04 7.590731e-02 2.065172e-01 9.336324e-02 2.993365e-01 4.352167e+00 2.676516e-01 1.875163e-01 6.247938e-01 8.027564e-01 -1.362647e-01 1.662483e-01 -8.214074e-02 -3.407783e-02 -8.873697e-02 -2.277365e-01 -2.307961e-01 -9.607935e-02 -1.752695e+00
<VARIANCE> 39
 1.954951e+01 3.104923e+01 2.834654e+01 2.235121e+01 2.356203e+01 2.436400e+01 2.625351e+01 2.468244e+01 2.350047e+01 1.855631e+01 1.841510e+01 1.544224e+01 3.508133e+01 2.052621e+00 2.265148e+00 2.850149e+00 4.070075e+00 1.991347e+00 2.492007e+00 2.125125e+00 2.320509e+00 2.147254e+00 1.865000e+00 1.825896e+00 1.592268e+00 1.596724e+01 5.228993e-01 7.243721e-01 5.382880e-01 5.941494e-01 4.583323e-01 5.157835e-01 5.324327e-01 4.695799e-01 4.594097e-01 4.108485e-01 4.081977e-01 3.584861e-01 1.292015e+00
<GCONST> 1.167878e+02
<MIXTURE> 2 4.911682e-01
<MEAN> 39
 -2.525500e+01 -4.106305e+00 -3.871997e+00 -1.010073e+01 -5.655879e+00 -5.221734e+00 1.148048e+00 -7.545641e-01 -1.492931e+00 3.074765e-01 -1.864515e-01 1.065007e+00 5.747091e+01 8.808737e-01 -7.264500e-01 1.207229e+00 -1.283689e-01 -9.273618e-01 -4.599772e-01 -2.805597e-01 -4.250524e-01 -3.181534e-01 -5.164135e-01 -6.290655e-01 -1.099673e-01 5.212744e-01 8.776990e-01 2.091631e-02 2.208555e-01 2.323176e-01 -2.059805e-01 5.627661e-02 -5.022770e-01 -2.757428e-01 -2.233139e-01 -1.998981e-01 -1.838865e-01 -2.459351e-01 -8.717760e-01
<VARIANCE> 39
 2.274180e+01 2.329848e+01 1.956368e+01 1.944012e+01 2.065574e+01 2.838488e+01 2.799008e+01 3.023626e+01 2.376337e+01 2.094580e+01 1.843372e+01 1.620125e+01 4.264465e+01 2.316566e+00 1.804127e+00 2.455144e+00 3.404424e+00 2.152571e+00 2.872760e+00 2.272254e+00 2.184395e+00 2.046038e+00 1.935598e+00 1.921883e+00 1.734149e+00 1.122631e+01 5.291992e-01 5.950138e-01 4.850007e-01 6.042502e-01 5.077727e-01 6.442764e-01 6.184722e-01 5.339087e-01 5.427842e-01 4.760233e-01 4.611172e-01 3.821355e-01 1.255235e+00
<GCONST> 1.171733e+02
<STATE> 4
<NUMMIXES> 2
<MIXTURE> 1 6.241951e-01
<MEAN> 39
 -1.826510e+01 -4.955589e+00 -2.839503e-02 -7.281405e+00 -8.481413e+00 -6.759716e+00 -2.853832e-01 -1.506570e+00 -3.865453e+00 -1.080075e+00 -1.960867e+00 -3.909118e-01 5.384473e+01 3.119194e+00 -1.215409e-02 1.973456e+00 9.619136e-01 -1.912743e+00 9.496646e-02 -1.247703e+00 -8.090261e-01 -6.425519e-01 -8.323547e-01 8.869489e-02 -7.725206e-01 -4.146357e-01 1.700042e-01 -1.053159e-02 1.136888e-01 -2.318308e-01 -3.939008e-01 1.511583e-01 -5.322629e-01 -6.931531e-02 -1.251290e-01 -1.784072e-01 3.780342e-01 -1.071056e-01 2.907264e-01
<VARIANCE> 39
 3.111276e+01 1.884668e+01 3.348515e+01 2.010152e+01 2.724837e+01 2.909298e+01 3.002659e+01 3.246340e+01 2.849566e+01 2.153249e+01 1.817074e+01 1.763779e+01 5.686268e+01 4.062102e+00 2.774695e+00 4.997230e+00 2.408570e+00 5.038469e+00 4.017192e+00 4.241974e+00 3.668703e+00 3.101800e+00 3.032340e+00 2.719403e+00 2.483150e+00 4.433902e+00 6.942828e-01 4.467161e-01 5.211471e-01 4.224867e-01 7.443635e-01 6.347815e-01 6.132762e-01 5.588584e-01 5.213294e-01 4.515840e-01 4.272286e-01 4.077513e-01 7.628492e-01
<GCONST> 1.226847e+02
<MIXTURE> 2 3.758039e-01
<MEAN> 39
 -2.052060e+01 -2.398149e+00 1.596964e+00 -1.011339e+01 -8.215062e+00 -4.073563e+00 -5.102304e-01 -7.070000e+00 -2.518962e+00 -2.189587e+00 -3.630908e+00 -1.552426e-01 5.591873e+01 3.869337e+00 4.901489e-01 3.088077e+00 -1.268402e+00 -2.563494e+00 -9.923595e-01 -3.212346e+00 -1.823601e+00 -2.460386e+00 -1.547800e+00 -1.552753e+00 -1.051028e+00 -8.228576e-02 2.293105e-01 3.803883e-02 9.336282e-02 -6.025664e-01 -5.082870e-01 -2.021017e-01 -6.412461e-01 1.671869e-01 -4.045911e-01 2.128243e-01 7.988501e-02 -1.359532e-01 5.060021e-01
<VARIANCE> 39
 2.859210e+01 1.977872e+01 2.912674e+01 1.780648e+01 2.295235e+01 2.615740e+01 3.534788e+01 3.121402e+01 3.194252e+01 2.718737e+01 2.232012e+01 1.744862e+01 1.955856e+01 1.375280e+00 2.870253e+00 3.355072e+00 4.398156e+00 3.218539e+00 3.487821e+00 4.368952e+00 3.589907e+00 3.604479e+00 2.980709e+00 3.904823e+00 2.572182e+00 1.681769e+00 5.802612e-01 5.489565e-01 4.983536e-01 3.836275e-01 4.792548e-01 5.851365e-01 7.726483e-01 6.649334e-01 7.063711e-01 5.718369e-01 6.033498e-01 4.242708e-01 3.086899e-01
<GCONST> 1.196309e+02
<TRANSP> 5
 0.000000e+00 1.000000e+00 0.000000e+00 0.000000e+00 0.000000e+00
 0.000000e+00 8.038022e-01 1.961978e-01 0.000000e+00 0.000000e+00
 0.000000e+00 0.000000e+00 7.895417e-01 2.104584e-01 0.000000e+00
 0.000000e+00 0.000000e+00 0.000000e+00 5.575602e-01 4.424398e-01
 0.000000e+00 0.000000e+00 0.000000e+00 0.000000e+00 0.000000e+00
<ENDHMM>
~h "v"
<BEGINHMM>
<NUMSTATES> 5
<STATE> 2
<NUMMIXES> 2
<MIXTURE> 1 5.640082e-01
<MEAN> 39
 -1.540035e+01 -8.937247e-01 -4.020977e+00 -1.133330e+00 -3.697023e+00 -3.580383e+00 -3.659980e+00 -2.110238e+00 -3.067178e+00 -1.593861e+00 -1.790289e+00 -1.112440e+00 4.078617e+01 -1.151355e+00 5.181227e-02 2.671553e-01 6.228547e-01 5.432876e-01 3.995664e-01 3.231066e-01 3.578213e-01 2.358716e-01 6.207893e-02 -1.214882e-01 6.222992e-02 -2.435009e-01 1.143471e-01 -1.474686e-01 1.602934e-02 -2.014561e-01 -2.599840e-01 -3.924643e-02 5.853270e-02 -5.231219e-02 -5.808724e-02 -2.750370e-02 1.190215e-02 -1.966238e-02 2.885468e-01
<VARIANCE> 39
 3.875536e+01 1.120771e+01 2.234596e+01 1.961915e+01 1.474900e+01 2.643618e+01 1.855215e+01 1.792564e+01 1.595805e+01 1.628162e+01 1.368841e+01 1.072066e+01 9.402988e+01 1.926026e+00 1.295272e+00 1.252216e+00 1.872598e+00 1.867531e+00 1.991982e+00 1.954054e+00 1.458302e+00 1.778356e+00 1.890367e+00 1.690817e+00 1.186870e+00 1.073201e+00 2.262239e-01 2.410236e-01 2.297250e-01 2.996876e-01 3.642066e-01 3.925139e-01 3.260880e-01 2.323458e-01 3.537989e-01 3.263568e-01 2.836789e-01 2.150521e-01 2.210361e-01
<GCONST> 1.002310e+02
<MIXTURE> 2 4.359893e-01
<MEAN> 39
 -1.143522e+01 -1.097374e-01 -2.638863e+00 -2.589907e+00 -5.973244e+00 -6.778933e+00 -7.586929e+00 -6.838472e+00 -7.311175e+00 -4.542845e+00 -5.299184e+00 -4.739035e+00 4.548304e+01 -9.989727e-01 1.269894e-01 4.798737e-01 6.868710e-01 2.279000e-01 -2.697180e-02 2.382040e-01 1.292390e-01 -8.880389e-02 -5.561674e-01 -2.899944e-01 -1.714031e-01 1.595660e-01 3.183557e-02 -3.405820e-01 -1.435585e-01 -4.373002e-01 -2.207178e-01 7.221860e-02 1.821366e-01 2.198916e-01 1.611609e-01 2.487669e-01 1.089269e-01 2.204057e-01 3.811103e-01
<VARIANCE> 39
 3.683852e+01 1.919370e+01 2.474396e+01 2.610397e+01 2.761827e+01 3.175678e+01 2.923530e+01 2.779344e+01 2.981850e+01 3.088598e+01 3.002187e+01 2.177549e+01 5.112593e+01 4.041834e+00 1.901828e+00 1.839725e+00 2.941307e+00 2.411393e+00 2.857289e+00 2.687795e+00 2.622085e+00 2.422620e+00 2.532707e+00 1.892473e+00 1.922008e+00 2.881130e+00 6.190192e-01 4.057537e-01 3.745771e-01 5.439509e-01 4.941060e-01 5.050487e-01 4.590872e-01 4.768366e-01 5.064988e-01 5.623692e-01 4.236322e-01 3.954281e-01 5.634930e-01
<GCONST> 1.177067e+02
<STATE> 3
<NUMMIXES> 2
<MIXTURE> 1 5.844330e-01
<MEAN> 39
 -2.011238e+01 -2.959488e+00 -4.193491e+00 -1.402483e+00 -2.914201e+00 -2.091275e+00 -1.066609e+00 -8.890484e-02 -1.924300e+00 -1.542470e+00 -3.024358e+00 -9.144156e-01 4.797378e+01 -3.126877e-01 -8.413950e-01 6.516976e-02 -5.777128e-01 -9.353249e-01 -7.639782e-01 1.136955e-01 4.099168e-01 2.126705e-01 1.649587e-01 2.399269e-01 5.010768e-01 1.626051e+00 1.202374e+00 2.955306e-02 3.751160e-01 -4.890596e-01 -7.850736e-01 -5.690688e-01 -5.195789e-01 -4.850444e-01 -4.074323e-01 -1.581262e-01 2.443824e-01 -1.074181e-01 5.487419e-01
<VARIANCE> 39
 2.070427e+01 1.892969e+01 2.156972e+01 2.036184e+01 1.434497e+01 1.661541e+01 1.638495e+01 1.546767e+01 1.778975e+01 1.644316e+01 1.160579e+01 1.237824e+01 5.445989e+01 4.378332e+00 2.051544e+00 2.694246e+00 2.346808e+00 2.275182e+00 2.604454e+00 2.486418e+00 2.117399e+00 2.838176e+00 1.710089e+00 1.907526e+00 1.616408e+00 3.044695e+00 4.188741e-01 5.604916e-01 6.809402e-01 6.162712e-01 6.146561e-01 5.075623e-01 4.486458e-01 5.112208e-01 6.672986e-01 4.143286e-01 4.261678e-01 3.600363e-01 5.888735e-01
<GCONST> 1.120400e+02
<MIXTURE> 2 4.155667e-01
<MEAN> 39
 -1.689861e+01 -1.993379e+00 -2.160946e+00 -3.195765e+00 -5.702321e+00 -5.670003e+00 -4.754722e+00 -4.849232e+00 -6.692179e+00 -5.416745e+00 -5.399910e+00 -3.581264e+00 5.081239e+01 1.094928e+00 -6.916069e-01 5.309747e-01 -1.430663e+00 -1.796188e+00 -1.045433e+00 -1.075141e-01 -1.452605e-01 -1.307365e-01 4.050350e-01 3.035851e-01 4.771781e-01 2.222527e+00 1.027289e+00 -2.288340e-01 2.636641e-01 -7.519156e-01 -7.268312e-01 -3.751011e-01 -4.178434e-01 -1.750346e-01 -1.043044e-01 4.586264e-01 1.617174e-01 1.088810e-01 3.809248e-01
<VARIANCE> 39
 3.141235e+01 1.951932e+01 3.350006e+01 2.686541e+01 2.421644e+01 2.044983e+01 2.435636e+01 2.902264e+01 3.094488e+01 3.189667e+01 2.644757e+01 2.250684e+01 3.151782e+01 4.798623e+00 2.141178e+00 3.857008e+00 2.511433e+00 3.205848e+00 3.377932e+00 3.959754e+00 3.336794e+00 3.074678e+00 2.436318e+00 1.981927e+00 1.721923e+00 2.684818e+00 6.169432e-01 5.527283e-01 9.167163e-01 6.162466e-01 7.228168e-01 6.652392e-01 7.090303e-01 8.031862e-01 7.137746e-01 7.913256e-01 5.763817e-01 4.937089e-01 4.277885e-01
<GCONST> 1.225717e+02
<STATE> 4
<NUMMIXES> 2
<MIXTURE> 1 4.983990e-01
<MEAN> 39
 -9.334623e+00 -4.468596e+00 -6.375928e+00 -8.011086e+00 -7.614416e+00 -7.317888e+00 -6.395049e+00 -3.474036e+00 -2.447908e+00 -1.681946e+00 -1.369562e+00 -1.028803e+00 5.513990e+01 2.790118e+00 -1.412682e+00 -3.071861e-01 -1.887410e+00 -1.702066e+00 -1.136692e+00 -6.915157e-01 1.343837e-01 5.380153e-01 6.686711e-02 7.578667e-01 5.702408e-01 1.952799e+00 -9.526473e-02 -3.040023e-02 6.892529e-02 4.458594e-02 -2.308664e-02 1.799071e-01 1.282549e-01 4.532086e-02 -3.043959e-02 -1.001305e-01 -5.456059e-02 -5.836374e-02 -2.303563e-01
<VARIANCE> 39
 5.347908e+01 2.094531e+01 5.623011e+01 5.929036e+01 2.942874e+01 5.861169e+01 4.417175e+01 2.878142e+01 3.009254e+01 2.281682e+01 2.688988e+01 1.463968e+01 4.353067e+01 5.986512e+00 3.314584e+00 6.027969e+00 6.164904e+00 6.284671e+00 6.270141e+00 6.143795e+00 6.180467e+00 4.322304e+00 3.776807e+00 3.402294e+00 2.402729e+00 4.634798e+00 7.576240e-01 3.426614e-01 4.079511e-01 5.906433e-01 5.134616e-01 6.160832e-01 5.909871e-01 5.889723e-01 5.574494e-01 3.702282e-01 4.302668e-01 2.956518e-01 4.444581e-01
<GCONST> 1.286041e+02
<MIXTURE> 2 5.016007e-01
<MEAN> 39
 -1.265094e+01 -1.628771e+00 4.167369e+00 -3.423620e+00 -1.254804e+01 -1.104497e+01 -3.981888e+00 -5.439371e+00 -8.910015e+00 -4.608071e+00 -3.803079e+00 -1.407580e+00 5.494301e+01 2.223464e+00 -8.674635e-01 2.779638e+00 -2.128472e+00 -3.495416e+00 -1.456731e+00 -8.605046e-01 -1.475985e+00 -1.742355e+00 6.126267e-01 3.508773e-01 1.235047e-01 2.450063e+00 -1.317419e-01 -5.654006e-02 1.796971e-01 -3.573286e-01 2.970599e-02 6.006544e-01 -3.401008e-01 -1.452843e-01 3.829723e-02 1.557873e-01 -8.478316e-02 -1.997600e-01 -2.663918e-01
<VARIANCE> 39
 1.906216e+01 1.268529e+01 1.586177e+01 3.173577e+01 2.506161e+01 2.140716e+01 2.236539e+01 3.504928e+01 2.420033e+01 1.804783e+01 2.044980e+01 1.607761e+01 2.703731e+01 2.656118e+00 2.547615e+00 3.449433e+00 4.567202e+00 3.443433e+00 3.640735e+00 4.417565e+00 3.944334e+00 4.899741e+00 6.625274e+00 3.679836e+00 3.071263e+00 2.023824e+00 3.757156e-01 3.058100e-01 3.337570e-01 3.560802e-01 4.991058e-01 5.359318e-01 5.607066e-01 4.865382e-01 5.177703e-01 4.593529e-01 4.062434e-01 3.727960e-01 2.776449e-01
<GCONST> 1.166573e+02
<TRANSP> 5
 0.000000e+00 1.000000e+00 0.000000e+00 0.000000e+00 0.000000e+00
 0.000000e+00 8.044183e-01 1.955817e-01 0.000000e+00 0.000000e+00
 0.000000e+00 0.000000e+00 5.945828e-01 4.054172e-01 0.000000e+00
 0.000000e+00 0.000000e+00 0.000000e+00 4.590158e-01 5.409842e-01
 0.000000e+00 0.000000e+00 0.000000e+00 0.000000e+00 0.000000e+00
<ENDHMM>
~h "w"
<BEGINHMM>
<NUMSTATES> 5
<STATE> 2
<NUMMIXES> 2
<MIXTURE> 1 5.048310e-01
<MEAN> 39
 -1.334622e+01 -2.413018e+00 -9.207582e+00 -6.204637e+00 -5.515524e+00 -3.534615e-01 -1.324271e+00 -7.149882e-01 -2.704664e+00 -1.414195e+00 -1.368507e+00 -2.324469e+00 3.724365e+01 1.077055e+00 1.024532e+00 5.459735e-01 -2.262915e-01 -6.394500e-01 -3.883013e-01 -1.130716e-01 -1.826022e-01 -2.095550e-01 -2.138073e-01 -1.080488e-01 -1.310491e-01 1.963838e-01 3.921884e-01 1.010940e-01 3.001206e-02 -4.297031e-01 -3.713455e-01 -1.050548e-01 -1.200119e-01 -5.252296e-02 -1.397006e-01 -1.183699e-01 1.682470e-02 -6.636135e-02 4.147612e-01
<VARIANCE> 39
 3.661217e+01 4.104818e+01 3.308144e+01 3.438382e+01 2.913194e+01 2.728242e+01 2.871012e+01 2.252227e+01 2.307791e+01 2.135201e+01 1.942896e+01 1.987066e+01 3.555700e+01 4.720030e+00 2.831340e+00 2.688455e+00 3.558387e+00 3.686960e+00 2.744921e+00 2.875681e+00 2.382724e+00 2.575875e+00 2.377659e+00 2.137736e+00 1.845390e+00 2.689657e+00 4.061745e-01 5.201060e-01 4.513685e-01 7.543728e-01 6.854318e-01 5.240794e-01 5.832105e-01 4.513584e-01 4.962136e-01 4.702790e-01 4.141324e-01 3.592423e-01 2.760893e-01
<GCONST> 1.185319e+02
<MIXTURE> 2 4.951674e-01
<MEAN> 39
 -9.854755e-01 -1.245060e+00 -7.398104e+00 -1.199234e+01 -8.777183e+00 -3.950905e+00 -1.118679e+01 -7.134199e+00 -1.098565e+01 -1.829243e+00 -1.352880e+00 -2.889640e+00 5.053070e+01 1.608564e+00 1.803245e+00 -1.390949e+00 -2.003037e+00 -4.771326e-01 1.405597e+00 8.631570e-01 -6.403933e-01 -1.161914e+00 -8.097184e-01 -3.575511e-03 3.134463e-01 -5.951507e-01 -3.749843e-01 -2.069718e-01 4.854416e-01 -1.966292e-01 -8.295617e-01 -2.004011e-01 5.690876e-01 6.393509e-01 2.423753e-01 -1.680103e-01 -1.316697e-01 3.450601e-02 1.757644e-01
<VARIANCE> 39
 2.026528e+01 4.221327e+01 3.706869e+01 5.411628e+01 4.567483e+01 5.502020e+01 6.211781e+01 4.981052e+01 6.427769e+01 4.163188e+01 6.830411e+01 3.280070e+01 4.429109e+01 3.561774e+00 2.368152e+00 5.240921e+00 3.844102e+00 8.012892e+00 7.239364e+00 7.395061e+00 6.635975e+00 5.495757e+00 4.878397e+00 4.388203e+00 2.873212e+00 4.712802e+00 2.344867e-01 5.673192e-01 6.815396e-01 8.914992e-01 8.234193e-01 1.359226e+00 1.459184e+00 8.485202e-01 1.287024e+00 9.847299e-01 6.303485e-01 5.763943e-01 2.131444e-01
<GCONST> 1.372488e+02
<STATE> 3
<NUMMIXES> 2
<MIXTURE> 1 5.990776e-01
<MEAN> 39
 2.568753e+00 4.093013e+00 -7.741622e+00 -2.038132e+01 -1.889876e+01 -3.304216e+00 -3.919310e+00 -1.251747e+00 -5.471955e+00 -4.680173e+00 -1.541936e+00 -3.203572e+00 4.965856e+01 2.080144e-01 -8.512543e-01 -6.881065e-01 -1.552418e+00 -6.338115e-01 1.059284e+00 7.921035e-01 4.544897e-01 4.634244e-01 3.386367e-02 3.886888e-01 1.251372e-01 1.142331e+00 -1.463468e-01 -4.679877e-01 -2.209114e-01 8.800076e-02 4.430421e-01 4.163545e-01 4.011550e-02 -1.973217e-01 -1.658193e-01 1.666325e-01 2.074322e-01 8.070309e-02 2.593896e-01
<VARIANCE> 39
 4.968219e+00 1.922927e+01 2.408246e+01 3.664368e+01 3.400743e+01 3.360151e+01 3.404929e+01 3.437304e+01 3.894893e+01 2.560270e+01 3.289287e+01 2.698211e+01 1.627716e+01 2.786986e-01 1.531078e+00 1.452846e+00 1.961052e+00 2.440983e+00 2.935698e+00 1.882242e+00 2.199533e+00 2.385068e+00 2.132811e+00 2.031583e+00 1.638041e+00 1.099290e+00 2.000000e-01 2.000000e-01 2.000000e-01 4.070067e-01 4.681960e-01 3.473182e-01 3.630936e-01 3.909118e-01 3.786252e-01 4.006797e-01 3.734876e-01 3.126756e-01 2.000000e-01
<GCONST> 1.049792e+02
<MIXTURE> 2 4.009190e-01
<MEAN> 39
 8.265898e-01 4.446093e+00 -7.730258e+00 -1.654211e+01 -1.593925e+01 -5.679315e+00 -5.858154e+00 -3.496933e+00 -8.854316e+00 -3.841484e+00 -4.321697e+00 -4.215031e+00 4.744266e+01 1.437466e+00 -4.711262e-01 -6.602135e-01 -2.501077e+00 -1.515897e+00 4.403248e-01 -3.462726e-01 4.806048e-01 -3.352938e-01 1.569971e-01 4.547839e-01 -6.023923e-02 2.092989e+00 -7.310639e-01 -7.356439e-01 -2.229203e-01 2.384446e-01 6.390049e-01 4.317796e-01 -4.159064e-02 8.050581e-02 2.891773e-01 4.165612e-01 2.219595e-01 8.731915e-02 2.933623e-02
<VARIANCE> 39
 6.595172e+00 1.913904e+01 3.004853e+01 3.922355e+01 2.788855e+01 4.006751e+01 3.311374e+01 4.013164e+01 4.216101e+01 3.458397e+01 5.366305e+01 2.768000e+01 2.560954e+01 2.697500e+00 2.647511e+00 2.676633e+00 3.915850e+00 4.461062e+00 4.852601e+00 4.243215e+00 4.194531e+00 4.296485e+00 4.772083e+00 3.678843e+00 2.464928e+00 3.260360e+00 4.187838e-01 4.072070e-01 3.935522e-01 7.461381e-01 6.287216e-01 8.258665e-01 6.763628e-01 7.085168e-01 7.493469e-01 8.287833e-01 6.079460e-01 4.635899e-01 3.071206e-01
<GCONST> 1.249978e+02
<STATE> 4
<NUMMIXES> 2
<MIXTURE> 1 6.744605e-01
<MEAN> 39
 2.239994e+00 -6.423285e+00 -1.373229e+01 -2.663448e+01 -1.583902e+01 7.539582e+00 2.258510e-01 -8.035697e-01 -5.748965e+00 -3.671528e+00 2.169627e+00 -2.133911e+00 5.852930e+01 -3.601282e-01 -2.028975e+00 -1.034576e+00 2.081948e-01 1.993067e+00 1.562500e+00 1.000337e-01 -7.496088e-01 -1.294793e-01 6.852091e-01 4.565268e-01 -1.599486e-01 1.322858e+00 -1.116427e-01 1.001569e-01 1.791074e-01 5.382230e-01 2.753795e-01 -4.604409e-01 -3.638916e-01 -1.772903e-01 1.443278e-01 1.862229e-01 -1.726317e-01 -2.464910e-01 -2.106557e-01
<VARIANCE> 39
 7.288201e+00 3.430719e+01 3.392255e+01 3.939021e+01 5.739634e+01 5.401814e+01 6.576186e+01 6.131231e+01 4.329693e+01 4.174364e+01 4.620931e+01 3.369674e+01 1.800911e+01 2.429037e-01 1.263302e+00 9.926018e-01 1.844247e+00 2.060303e+00 2.887007e+00 2.552436e+00 2.309841e+00 2.189563e+00 2.518640e+00 2.120863e+00 2.324803e+00 7.490814e-01 2.000000e-01 2.000000e-01 2.000000e-01 3.132157e-01 4.159059e-01 3.697173e-01 3.265645e-01 3.935473e-01 3.811226e-01 4.335496e-01 2.967330e-01 3.198878e-01 2.000000e-01
<GCONST> 1.087957e+02
<MIXTURE> 2 3.255377e-01
<MEAN> 39
 2.206602e-01 -9.038833e+00 -1.317443e+01 -2.030900e+01 -9.457992e+00 3.041435e+00 -1.001399e+01 -5.244098e+00 -8.798926e+00 3.722327e+00 1.162322e+00 -4.575959e+00 6.077494e+01 -9.257706e-01 -2.574088e+00 2.809259e-01 1.737145e+00 1.323263e+00 -1.454130e+00 -1.652902e+00 5.413991e-01 1.962012e+00 1.335819e+00 -7.031930e-01 -1.173517e+00 1.837014e+00 -2.819752e-01 3.370915e-01 5.452743e-01 4.663647e-01 -4.767507e-01 -8.314383e-01 5.106681e-01 6.634884e-01 4.721450e-01 -7.890322e-01 -6.415751e-01 5.509223e-02 -4.324295e-01
<VARIANCE> 39
 7.729100e+00 3.836683e+01 4.982102e+01 6.624229e+01 6.331293e+01 7.452472e+01 1.002967e+02 7.010709e+01 7.300906e+01 7.360586e+01 1.142893e+02 4.868588e+01 2.809679e+01 5.114164e-01 1.744914e+00 3.148937e+00 2.920720e+00 5.296015e+00 7.667750e+00 5.509499e+00 6.746577e+00 5.487070e+00 6.966582e+00 5.155139e+00 3.126154e+00 1.128925e+00 2.424656e-01 4.032274e-01 3.647111e-01 8.005430e-01 8.845268e-01 1.009535e+00 1.403878e+00 1.138244e+00 1.380319e+00 1.221607e+00 9.214928e-01 7.586103e-01 2.000000e-01
<GCONST> 1.346610e+02
<TRANSP> 5
 0.000000e+00 1.000000e+00 0.000000e+00 0.000000e+00 0.000000e+00
 0.000000e+00 7.621558e-01 2.378441e-01 0.000000e+00 0.000000e+00
 0.000000e+00 0.000000e+00 8.074627e-01 1.925373e-01 0.000000e+00
 0.000000e+00 0.000000e+00 0.000000e+00 7.921892e-01 2.078107e-01
 0.000000e+00 0.000000e+00 0.000000e+00 0.000000e+00 0.000000e+00
<ENDHMM>
~h "y"
<BEGINHMM>
<NUMSTATES> 5
<STATE> 2
<NUMMIXES> 2
<MIXTURE> 1 5.438044e-01
<MEAN> 39
