~o
<STREAMINFO> 1 39
<VECSIZE> 39<NULLD><MFCC_D_A_0><DIAGC>
~h "b"
<BEGINHMM>
<NUMSTATES> 5
<STATE> 2
<NUMMIXES> 6
<MIXTURE> 1 1.799655e-01
<MEAN> 39
 -8.108266e+00 7.258503e+00 2.807371e+00 4.577708e+00 8.289995e-01 -8.987513e-01 -5.946416e+00 -6.707081e+00 -6.343022e+00 -2.031052e+00 -1.265192e+00 -4.565059e+00 3.614282e+01 5.522280e-02 1.574042e-01 2.021130e-01 3.066876e-01 3.484130e-01 1.260077e-01 4.551943e-02 3.031361e-02 1.725846e-01 4.488869e-02 -1.210009e-01 -1.425753e-02 -9.847127e-03 -2.448848e-01 -5.588286e-01 -2.561808e-01 -3.231063e-01 -3.353630e-01 -2.268521e-01 7.386664e-02 2.263635e-01 9.697091e-02 -1.066561e-01 -7.417436e-02 9.975258e-02 4.681174e-01
<VARIANCE> 39
 1.104948e+01 4.963589e+00 6.774541e+00 1.414488e+01 8.448104e+00 1.544592e+01 2.261413e+01 1.899854e+01 1.804285e+01 1.463302e+01 1.814966e+01 1.764391e+01 6.122956e+00 1.569157e+00 9.524272e-01 8.589428e-01 9.358985e-01 7.294471e-01 1.335395e+00 1.339730e+00 1.679069e+00 1.420815e+00 1.403265e+00 1.421139e+00 1.123512e+00 6.983789e-01 2.000000e-01 3.129198e-01 2.014592e-01 2.485058e-01 2.696016e-01 3.345614e-01 3.173609e-01 3.077846e-01 3.610735e-01 3.078888e-01 2.827381e-01 2.383026e-01 5.184847e-01
<GCONST> 9.005400e+01
<MIXTURE> 2 2.510996e-01
<MEAN> 39
 -2.425381e+00 2.317062e+00 -3.054717e+00 -2.666297e+00 -2.093740e+00 -3.965528e-01 -7.942172e+00 -1.006305e+01 -9.607484e+00 -3.677875e+00 -1.326772e-01 -4.128749e+00 4.288227e+01 -1.383120e+00 2.219029e+00 1.126056e+00 2.469542e+00 1.653683e+00 1.928128e-01 9.682448e-01 -1.693931e-01 -2.809698e-01 -9.426281e-01 -1.056308e+00 6.487307e-02 -2.898602e+00 -3.018914e-01 -1.325550e+00 1.833894e-01 -7.578214e-01 -1.056648e+00 -7.502463e-01 -4.520356e-01 8.345025e-01 8.018528e-01 3.713688e-01 3.636981e-02 -1.066874e-01 1.874094e+00
<VARIANCE> 39
 6.870307e+00 2.519102e+01 1.485800e+01 3.243132e+01 1.775209e+01 2.297431e+01 2.979245e+01 2.366257e+01 2.749058e+01 2.598826e+01 2.208281e+01 2.560690e+01 1.917856e+01 1.317447e+00 3.854033e+00 3.245507e+00 4.127256e+00 4.092151e+00 4.664898e+00 3.858155e+00 3.804435e+00 4.842833e+00 4.090425e+00 3.016440e+00 2.271013e+00 4.865170e+00 2.218144e-01 5.617023e-01 7.679151e-01 6.752654e-01 7.271790e-01 5.705863e-01 8.128251e-01 8.193915e-01 1.111180e+00 6.939827e-01 6.459444e-01 5.660178e-01 5.904813e-01
<GCONST> 1.219699e+02
<MIXTURE> 3 1.212949e-01
<MEAN> 39
 -2.099934e+01 -1.317619e+00 -5.655993e+00 -6.724305e-01 -2.835690e+00 -7.671838e-01 -1.422388e+00 -1.653171e-01 -1.199916e+00 -2.297391e-01 -6.070109e-01 -7.857642e-01 2.941638e+01 1.779683e-01 2.304575e-01 3.546712e-01 4.524574e-01 3.505939e-01 4.351993e-01 3.129835e-01 3.145210e-01 4.651812e-01 2.843886e-01 2.470781e-01 2.021465e-01 -2.300848e-02 3.667299e-01 -3.321071e-02 2.405669e-01 2.095622e-02 -8.852940e-02 -1.664610e-01 -1.707282e-01 -1.423911e-01 -9.002862e-02 -8.071402e-02 -9.191748e-02 -6.149765e-02 6.990074e-01
<VARIANCE> 39
 2.044848e+00 2.819408e+00 4.444068e+00 6.688650e+00 7.985213e+00 8.281406e+00 1.001097e+01 1.014783e+01 1.034533e+01 8.490962e+00 1.135488e+01 1.264678e+01 6.213294e+00 1.273390e+00 1.458290e+00 1.613850e+00 1.260915e+00 1.088561e+00 1.234586e+00 1.385984e+00 1.509477e+00 1.507395e+00 1.448123e+00 1.344659e+00 1.511935e+00 8.767510e-01 2.373157e-01 2.218794e-01 2.130370e-01 2.000000e-01 2.273443e-01 3.328933e-01 3.598531e-01 3.114123e-01 3.318725e-01 2.716976e-01 2.904324e-01 3.482175e-01 7.307171e-01
<GCONST> 8.474396e+01
<MIXTURE> 4 1.608306e-01
<MEAN> 39
 -6.283460e+00 8.636066e-01 -1.042149e+00 -2.964332e+00 -7.129638e+00 -9.014194e+00 -1.120807e+01 -7.564500e+00 -7.926590e+00 -5.257703e+00 -5.815368e+00 -7.181666e+00 4.341584e+01 -7.807104e-01 1.173780e+00 9.015151e-01 1.247726e+00 5.594919e-01 5.167001e-01 -6.763943e-02 -8.015168e-01 -4.894763e-01 -7.985806e-01 -3.633451e-02 -4.930252e-01 -1.069767e+00 -2.684267e-01 -9.253371e-01 5.218725e-02 -1.024540e+00 -6.481178e-01 1.204452e-01 4.768889e-01 5.457450e-01 8.656060e-02 3.937497e-01 1.714056e-01 5.136288e-01 1.279763e+00
<VARIANCE> 39
 2.288270e+01 4.020531e+01 2.393859e+01 3.240731e+01 2.493120e+01 3.888029e+01 3.596917e+01 3.968465e+01 4.390935e+01 3.824745e+01 4.647919e+01 3.076816e+01 5.973415e+01 4.518501e+00 6.205658e+00 4.885636e+00 9.301798e+00 6.179510e+00 4.959974e+00 3.544380e+00 5.057223e+00 5.003343e+00 4.608859e+00 3.141622e+00 3.911386e+00 1.452230e+01 4.652073e-01 1.120865e+00 9.548350e-01 1.157364e+00 8.469527e-01 7.695533e-01 9.282916e-01 1.145728e+00 9.869550e-01 7.790740e-01 7.438110e-01 6.346670e-01 2.130060e+00
<GCONST> 1.386838e+02
<MIXTURE> 5 1.558161e-01
<MEAN> 39
 -8.832479e+00 6.969979e+00 2.306316e+00 3.217857e+00 -2.210179e+00 -5.508086e+00 -8.568972e+00 -7.818918e+00 -7.851696e+00 -5.697058e+00 -6.873139e+00 -7.239821e+00 3.581173e+01 4.079426e-02 1.739498e-01 3.506294e-01 3.356478e-01 3.830816e-01 2.354179e-01 -5.222781e-02 -4.602216e-02 5.952490e-02 -5.617755e-02 -4.377688e-02 -3.087915e-02 4.487190e-02 -3.900884e-01 -9.483798e-01 -4.814478e-01 -5.982366e-01 -3.805224e-01 4.544966e-02 3.551326e-01 4.477443e-01 2.466596e-01 3.206833e-01 4.301997e-01 4.210438e-01 6.852800e-01
<VARIANCE> 39
 1.356761e+01 5.388756e+00 6.566561e+00 1.349343e+01 1.774184e+01 2.687554e+01 2.910866e+01 2.451332e+01 2.396938e+01 3.151407e+01 2.319810e+01 2.077889e+01 7.121311e+00 3.532316e+00 1.559190e+00 1.554772e+00 1.587786e+00 1.406784e+00 2.272402e+00 2.977851e+00 2.596063e+00 1.826034e+00 1.891729e+00 1.661689e+00 2.150811e+00 1.697412e+00 2.863196e-01 3.237230e-01 3.656805e-01 3.820077e-01 4.690563e-01 4.335038e-01 5.141058e-01 5.491714e-01 5.061628e-01 5.625975e-01 3.561116e-01 3.692553e-01 7.380997e-01
<GCONST> 1.060257e+02
<MIXTURE> 6 1.309904e-01
<MEAN> 39
 -2.098359e+01 -1.972528e+00 -5.933485e+00 -7.191768e-01 -3.203080e+00 -1.096572e+00 -1.978481e+00 -6.989323e-01 -1.891010e+00 -1.043870e+00 -1.033626e+00 -2.571987e-01 3.031030e+01 -1.594962e-01 1.196869e-02 -9.556022e-02 -1.048392e-01 -2.853764e-01 -3.482557e-01 -3.717281e-01 -4.421693e-01 -4.150056e-01 -2.431789e-01 -2.951111e-01 -1.827352e-01 -2.439564e-01 2.286399e-01 -6.784302e-02 1.141282e-01 -1.050395e-01 -4.197456e-02 -1.171447e-01 2.320149e-02 8.467454e-02 3.552205e-02 -2.500107e-02 -5.136269e-02 -7.196279e-02 4.322723e-01
<VARIANCE> 39
 2.940556e+00 6.829242e+00 6.901772e+00 7.836668e+00 8.797016e+00 1.403079e+01 1.443853e+01 1.330203e+01 1.447405e+01 1.542111e+01 1.349285e+01 1.216865e+01 6.111316e+00 4.529100e-01 6.854962e-01 7.453933e-01 8.090909e-01 9.154491e-01 1.149871e+00 1.418774e+00 1.396165e+00 1.723593e+00 1.647748e+00 1.456977e+00 1.389276e+00 7.415209e-01 2.000000e-01 2.000000e-01 2.105339e-01 2.222860e-01 2.268243e-01 4.016684e-01 3.204321e-01 3.052084e-01 4.128778e-01 4.027789e-01 3.731413e-01 3.043971e-01 5.107762e-01
<GCONST> 8.592740e+01
<STATE> 3
<NUMMIXES> 5
<MIXTURE> 1 1.590008e-01
<MEAN> 39
 -2.047318e+01 -8.546025e-01 -5.287230e+00 4.036777e-02 -2.217424e+00 -2.324222e-01 -1.784624e+00 -5.660655e-01 -1.864176e+00 -6.605725e-01 -1.074292e+00 -7.743934e-01 2.988992e+01 1.131935e+00 -1.463019e+00 7.219414e-01 -7.983838e-01 -1.065203e+00 -1.612996e+00 -2.261411e-01 4.543210e-01 3.781147e-01 9.143042e-02 -8.816252e-02 2.083189e-01 4.992335e+00 1.038090e+00 -2.567321e-01 9.628657e-01 -6.927387e-01 -1.012796e+00 -7.251354e-01 -5.738645e-01 -4.761499e-01 -5.925866e-01 -1.899521e-01 -1.638066e-01 -2.172489e-01 2.133215e+00
<VARIANCE> 39
 3.356599e+00 4.381128e+00 7.199283e+00 7.408144e+00 9.722458e+00 1.190935e+01 1.103182e+01 1.124671e+01 1.233946e+01 1.274958e+01 9.471339e+00 9.523850e+00 5.172809e+00 2.591846e+00 2.002303e+00 3.912641e+00 1.830052e+00 2.189999e+00 3.783588e+00 2.766881e+00 2.452715e+00 2.520159e+00 2.869646e+00 2.185189e+00 2.013223e+00 7.353192e+00 2.000000e-01 3.015000e-01 7.762344e-01 5.148813e-01 5.212440e-01 6.555970e-01 5.226646e-01 6.532654e-01 6.881003e-01 6.470103e-01 4.936439e-01 3.455664e-01 3.397351e-01
<GCONST> 1.026870e+02
<MIXTURE> 2 2.637478e-01
<MEAN> 39
 -9.891037e+00 -5.409128e+00 -1.765527e+00 -2.554219e+00 -4.779576e+00 -6.012059e+00 -7.411620e+00 -3.632578e+00 -1.906492e+00 -2.050338e+00 -2.198692e+00 -2.889857e+00 5.014840e+01 3.605611e-01 -2.677942e+00 2.005374e+00 -9.290565e-01 -3.362466e+00 -2.378005e+00 -5.742428e-01 1.592343e+00 -1.694880e-01 -1.027278e+00 4.688211e-01 5.814518e-01 4.805430e+00 4.896716e-01 9.251935e-02 7.892591e-01 -5.826010e-01 -1.073457e+00 5.173193e-02 -2.745369e-01 -2.331419e-01 -8.585486e-01 -1.289644e-01 3.585331e-01 -9.695373e-02 2.925608e-01
<VARIANCE> 39
 4.275830e+01 1.906638e+01 2.609149e+01 4.046101e+01 2.497110e+01 3.668819e+01 4.675471e+01 3.555832e+01 3.259935e+01 3.011706e+01 2.383488e+01 1.672533e+01 3.894452e+01 3.088393e+00 3.517796e+00 5.100073e+00 4.583604e+00 4.994293e+00 4.465890e+00 4.982155e+00 4.685574e+00 4.717071e+00 3.965115e+00 2.769720e+00 2.364574e+00 7.586216e+00 5.910720e-01 6.199510e-01 7.914717e-01 7.646505e-01 6.261219e-01 9.153442e-01 9.704511e-01 9.117244e-01 1.009919e+00 9.729915e-01 7.075885e-01 4.952509e-01 8.074866e-01
<GCONST> 1.312801e+02
<MIXTURE> 3 1.865445e-01
<MEAN> 39
 -8.632602e+00 6.605794e+00 1.378436e+00 3.578356e+00 1.179475e+00 -4.986574e-01 -5.086508e+00 -6.351761e+00 -6.336856e+00 -3.503780e+00 -2.757659e+00 -3.653737e+00 3.639129e+01 -1.518087e+00 -2.883758e+00 -6.649159e-01 -1.091481e+00 -1.111051e+00 -1.113253e+00 3.092925e-01 1.354402e+00 1.431125e+00 2.949963e-01 8.022659e-02 5.708909e-01 3.436541e+00 3.839994e-01 -1.179541e+00 5.473367e-02 -9.073951e-01 -1.375923e+00 -7.716422e-01 -3.894351e-01 2.314641e-01 -3.577871e-03 7.409323e-03 4.666740e-01 8.645796e-02 1.936546e+00
<VARIANCE> 39
 1.678494e+01 6.874556e+00 8.677734e+00 1.203450e+01 9.948015e+00 1.699796e+01 2.099603e+01 1.837102e+01 1.820578e+01 1.687872e+01 1.852370e+01 1.500700e+01 9.461953e+00 1.673918e+00 1.725411e+00 2.398040e+00 2.375057e+00 2.523018e+00 3.536159e+00 3.967894e+00 2.430480e+00 3.432839e+00 3.903378e+00 2.917694e+00 2.588621e+00 5.285849e+00 4.276040e-01 4.269313e-01 9.937500e-01 6.197969e-01 5.726537e-01 5.880015e-01 5.722293e-01 6.708234e-01 6.969208e-01 6.490853e-01 4.616007e-01 4.374622e-01 3.784811e-01
<GCONST> 1.117036e+02
<MIXTURE> 4 2.179436e-01
<MEAN> 39
 -1.229474e+01 -5.595085e+00 3.083647e+00 -2.830784e+00 -1.015024e+01 -1.115306e+01 -4.493639e+00 -1.169952e+00 -5.021697e+00 -4.392094e+00 -2.744975e+00 -1.426599e+00 5.497010e+01 1.443905e+00 -1.769957e+00 4.134730e+00 -3.180322e+00 -4.864550e+00 -1.613009e+00 -9.923149e-01 -8.293445e-01 -2.564978e+00 -9.868179e-02 1.381830e-01 2.104109e-02 5.634798e+00 1.291800e-01 7.493812e-01 4.663904e-01 -6.397522e-01 -1.516702e-01 8.130397e-01 -6.008697e-01 -7.761326e-01 -5.319000e-01 2.885635e-01 -1.270894e-01 -3.306686e-01 -1.108378e+00
<VARIANCE> 39
 1.752400e+01 1.462242e+01 2.549726e+01 3.738086e+01 2.485520e+01 3.248043e+01 3.951738e+01 3.415655e+01 3.936779e+01 2.665524e+01 2.199836e+01 1.914260e+01 2.591775e+01 3.069776e+00 3.479399e+00 3.041734e+00 6.437972e+00 3.826854e+00 4.924702e+00 5.022552e+00 6.433401e+00 4.360801e+00 6.264785e+00 4.310043e+00 3.283999e+00 5.117806e+00 4.323509e-01 5.338320e-01 6.275908e-01 8.076181e-01 6.571057e-01 8.605180e-01 9.743898e-01 8.466310e-01 8.440918e-01 7.838138e-01 7.228697e-01 4.510394e-01 7.837152e-01
<GCONST> 1.288976e+02
<MIXTURE> 5 1.727609e-01
<MEAN> 39
 -7.488173e+00 3.861099e+00 4.579915e-01 6.264603e-01 -2.359681e+00 -5.012515e+00 -9.914463e+00 -9.802775e+00 -9.698206e+00 -6.167520e+00 -5.427114e+00 -7.002840e+00 3.979213e+01 -1.098376e+00 -2.603286e+00 3.288401e-01 -1.696347e+00 -1.655849e+00 -8.040560e-01 8.614194e-01 1.727611e+00 8.536711e-01 2.228793e-01 6.570900e-01 1.152865e+00 3.866164e+00 4.247206e-01 -1.209415e+00 -2.221225e-02 -1.638848e+00 -1.238401e+00 -3.809384e-01 -2.676717e-01 5.925850e-01 1.777477e-01 6.878961e-01 2.236559e-01 3.629709e-01 1.927794e+00
<VARIANCE> 39
 1.676308e+01 1.599549e+01 1.295774e+01 2.198316e+01 2.240567e+01 2.508961e+01 2.126673e+01 2.070226e+01 2.279891e+01 3.028888e+01 2.820590e+01 2.053308e+01 1.873968e+01 2.236291e+00 2.418283e+00 4.882700e+00 4.494778e+00 3.916249e+00 3.815874e+00 5.330973e+00 3.741546e+00 4.635840e+00 4.542148e+00 2.929362e+00 2.247601e+00 4.231489e+00 4.879867e-01 5.262402e-01 1.255900e+00 1.010136e+00 9.732761e-01 1.014726e+00 9.585103e-01 7.745004e-01 9.161516e-01 9.214009e-01 8.423972e-01 5.788317e-01 5.190969e-01
<GCONST> 1.250425e+02
<STATE> 4
<NUMMIXES> 4
<MIXTURE> 1 2.540454e-01
<MEAN> 39
 -8.458350e+00 -4.099963e+00 -7.392950e+00 -8.319807e+00 -4.503899e+00 -3.749505e+00 -5.578289e+00 -5.029703e+00 -3.505504e+00 -1.074388e+00 -4.422454e-01 -9.891106e-01 5.354203e+01 2.471809e+00 -2.029219e+00 -2.428325e+00 -3.534134e+00 -1.429865e+00 -7.628894e-01 -1.943995e+00 1.577142e-01 1.227434e+00 1.300566e+00 1.108337e+00 2.849570e-01 4.859621e+00 6.511567e-01 1.956436e-01 -1.554527e-01 -1.729532e-01 -2.075181e-01 2.077751e-02 -5.810590e-01 -8.965875e-03 -1.593837e-01 -1.606655e-01 -1.465195e-01 -2.687043e-01 -5.026243e-01
<VARIANCE> 39
 3.465329e+01 1.833257e+01 2.519279e+01 4.021741e+01 2.005737e+01 2.762093e+01 3.042674e+01 2.785165e+01 3.299580e+01 2.589353e+01 2.211371e+01 1.524925e+01 3.425156e+01 4.283012e+00 3.614858e+00 5.294302e+00 8.862722e+00 4.293047e+00 6.885706e+00 7.316352e+00 6.116028e+00 5.517891e+00 4.535624e+00 4.574819e+00 3.882512e+00 7.239642e+00 7.521165e-01 5.268281e-01 6.913601e-01 9.863005e-01 5.832903e-01 8.974600e-01 1.036204e+00 6.749222e-01 1.115874e+00 8.049515e-01 7.391801e-01 6.583589e-01 9.634577e-01
<GCONST> 1.328903e+02
<MIXTURE> 2 3.395825e-01
<MEAN> 39
 -6.278769e+00 -9.364256e+00 1.082773e+01 -1.664372e+00 -1.796666e+01 -1.128489e+01 -1.070332e+01 -1.008571e+00 -9.328100e+00 -9.090274e+00 2.507973e+00 -1.780525e+00 5.825455e+01 7.803760e-02 -8.967431e-01 4.087742e+00 -1.455745e+00 -4.355405e+00 -2.104440e-02 -4.666432e-01 -9.975003e-02 -2.776418e+00 -1.225496e+00 1.373303e+00 -1.010760e-01 2.426921e+00 -2.714262e-01 9.589052e-01 -4.388956e-01 -3.336932e-01 8.870062e-01 1.053890e+00 9.350337e-02 -7.849925e-01 6.024363e-02 7.004244e-01 -2.367370e-01 -3.884592e-01 -1.131690e+00
<VARIANCE> 39
 8.763881e+00 2.101360e+01 2.467235e+01 3.180579e+01 3.146623e+01 3.058629e+01 3.941409e+01 3.141959e+01 3.642154e+01 2.296516e+01 2.771199e+01 1.848908e+01 2.792352e+01 2.473656e+00 2.716031e+00 2.367496e+00 2.665270e+00 4.123083e+00 3.557800e+00 4.525041e+00 5.309331e+00 4.170695e+00 4.195304e+00 3.062634e+00 2.465082e+00 3.266485e+00 2.260054e-01 2.945339e-01 3.425549e-01 4.947676e-01 5.946510e-01 3.683481e-01 5.437284e-01 4.178966e-01 5.254936e-01 3.375984e-01 3.941148e-01 2.818329e-01 6.372753e-01
<GCONST> 1.176638e+02
<MIXTURE> 3 2.641044e-01
<MEAN> 39
 -9.610308e+00 -5.523746e+00 1.344151e+01 -1.388714e+01 -2.113495e+01 -9.790483e+00 -8.994922e+00 -8.856257e+00 -1.500570e+01 6.650547e-02 -4.997277e+00 -4.475947e+00 5.852435e+01 2.262562e-01 5.033269e-01 3.069578e+00 -4.312736e+00 -2.767275e+00 9.637598e-01 -1.570984e+00 -1.879252e+00 -1.701332e+00 1.251830e+00 -1.010917e+00 -3.021509e-01 1.827639e+00 -5.014589e-01 7.628893e-01 -1.101930e+00 6.006184e-01 1.432837e+00 6.615103e-01 -3.581088e-02 2.950731e-01 9.427931e-01 -2.786857e-01 -9.782735e-02 1.326278e-01 -1.500620e+00
<VARIANCE> 39
 7.133854e+00 1.785445e+01 2.412045e+01 6.515229e+01 2.428886e+01 4.172882e+01 3.412403e+01 4.612046e+01 4.664623e+01 3.734887e+01 3.841969e+01 2.661909e+01 1.718018e+01 1.625061e+00 2.551848e+00 3.411134e+00 4.107601e+00 4.822544e+00 5.338900e+00 5.319378e+00 5.003762e+00 5.933290e+00 5.321995e+00 4.078047e+00 3.036043e+00 3.389364e+00 2.713736e-01 3.194526e-01 3.690081e-01 7.021897e-01 4.468323e-01 6.398283e-01 6.120976e-01 8.225411e-01 5.804495e-01 6.393922e-01 5.393605e-01 3.397407e-01 4.070968e-01
<GCONST> 1.238637e+02
<MIXTURE> 4 1.422678e-01
<MEAN> 39
 -2.517791e+00 -9.575009e+00 -5.602010e+00 -1.415309e+01 -1.132629e+01 -7.785844e+00 -1.209424e+01 -6.795639e-01 -1.410618e+00 1.704224e+00 -1.451248e+00 -3.237901e+00 6.087664e+01 1.382886e+00 -2.511628e+00 -2.370372e-01 -2.944967e+00 -2.593270e+00 -7.789859e-01 -1.012454e+00 2.144969e+00 1.516029e-01 4.702940e-01 -5.065216e-01 7.950258e-02 3.401052e+00 -4.504183e-01 7.841684e-01 4.513111e-01 8.502762e-01 5.586278e-01 5.322801e-01 5.315743e-01 -2.960788e-01 -6.595098e-01 -5.448792e-01 -2.425556e-01 -5.119915e-02 -1.493352e+00
<VARIANCE> 39
 1.036870e+01 3.356147e+01 5.964982e+01 7.945407e+01 4.528938e+01 1.208574e+02 8.192594e+01 5.494777e+01 4.273437e+01 3.549810e+01 5.913815e+01 3.777105e+01 2.416721e+01 2.931033e+00 4.296587e+00 7.181255e+00 9.291064e+00 6.143752e+00 9.093090e+00 8.620464e+00 6.556921e+00 6.893138e+00 7.013264e+00 5.737649e+00 4.847462e+00 6.294648e+00 2.737761e-01 3.596454e-01 4.512924e-01 5.980118e-01 5.683169e-01 9.221725e-01 7.266713e-01 6.327605e-01 8.691748e-01 4.319413e-01 6.720327e-01 4.721308e-01 4.755159e-01
<GCONST> 1.371468e+02
<TRANSP> 5
 0.000000e+00 1.000000e+00 0.000000e+00 0.000000e+00 0.000000e+00
 0.000000e+00 7.056020e-01 2.943980e-01 0.000000e+00 0.000000e+00
 0.000000e+00 0.000000e+00 6.214367e-01 3.785634e-01 0.000000e+00
 0.000000e+00 0.000000e+00 0.000000e+00 4.204067e-01 5.795933e-01
 0.000000e+00 0.000000e+00 0.000000e+00 0.000000e+00 0.000000e+00
<ENDHMM>
~h "d"
<BEGINHMM>
<NUMSTATES> 5
<STATE> 2
<NUMMIXES> 7
<MIXTURE> 1 1.519201e-01
<MEAN> 39
 -9.434445e+00 7.786606e+00 5.153208e+00 4.301497e+00 -3.275329e+00 -3.702511e+00 -5.006936e+00 -4.584731e+00 -5.216535e+00 -4.253319e+00 -4.632573e+00 -3.976971e+00 3.553783e+01 -1.157918e-01 1.594851e-01 3.545155e-02 2.427355e-01 3.098256e-01 1.490831e-01 3.604013e-02 9.986330e-02 2.292873e-01 6.657239e-02 3.292662e-03 1.477059e-01 -2.272278e-01 -3.681300e-01 -4.535499e-01 -2.341910e-01 -3.528139e-01 2.219831e-02 7.415885e-02 1.326969e-01 9.311924e-02 -1.850635e-02 7.160375e-02 4.379991e-02 -1.035756e-02 2.813446e-01
<VARIANCE> 39
 6.869988e+00 4.447008e+00 1.050830e+01 1.224109e+01 1.963497e+01 1.756600e+01 1.486153e+01 1.736834e+01 1.540345e+01 1.686429e+01 1.532531e+01 1.266941e+01 4.009051e+00 9.774481e-01 6.213790e-01 1.066916e+00 9.068711e-01 1.488461e+00 1.617726e+00 1.712250e+00 1.319559e+00 1.454129e+00 1.311402e+00 1.308214e+00 1.160733e+00 4.675010e-01 2.000000e-01 2.306622e-01 2.024199e-01 3.351931e-01 3.667696e-01 3.014201e-01 3.170743e-01 2.743156e-01 3.086112e-01 2.712997e-01 2.588458e-01 2.409243e-01 3.717078e-01
<GCONST> 8.837672e+01
<MIXTURE> 2 1.159344e-01
<MEAN> 39
 -1.580373e+01 8.213633e-01 9.076607e-02 8.254009e-02 -5.224924e+00 -2.641491e+00 -2.358685e+00 -1.686087e+00 -3.580214e+00 -2.647222e+00 -2.402531e+00 -2.309232e+00 3.532480e+01 -1.409753e-01 8.857649e-01 -5.489992e-01 1.260979e+00 1.272210e+00 2.616768e-01 1.054727e-01 3.190641e-01 6.151432e-01 3.238059e-01 -2.415668e-01 1.655675e-02 -1.802742e+00 2.934160e-02 -1.963918e-01 4.799451e-02 -4.502273e-01 -1.475285e-01 4.124833e-03 -1.592951e-01 -1.791445e-01 -1.242189e-01 8.348715e-03 3.687538e-02 7.178375e-02 7.414826e-01
<VARIANCE> 39
 3.701257e+01 1.801791e+01 4.776264e+01 1.993092e+01 3.037955e+01 2.565601e+01 2.255120e+01 1.973657e+01 2.157771e+01 1.836395e+01 1.810510e+01 1.838938e+01 3.469440e+01 3.050159e+00 3.775414e+00 4.139400e+00 3.518615e+00 4.696349e+00 2.703637e+00 2.820044e+00 3.219258e+00 2.741616e+00 2.233944e+00 2.577248e+00 2.103514e+00 5.481366e+00 2.922982e-01 3.888992e-01 3.796672e-01 5.037079e-01 4.430942e-01 4.635474e-01 5.259158e-01 4.299125e-01 4.406016e-01 3.498049e-01 3.932936e-01 3.862435e-01 8.139061e-01
<GCONST> 1.173467e+02
<MIXTURE> 3 1.414106e-01
<MEAN> 39
 -1.067963e+01 7.512512e+00 4.442058e+00 4.928171e+00 -1.231046e+00 -3.151809e+00 -5.628717e+00 -4.163585e+00 -4.566103e+00 -3.794099e+00 -4.845676e+00 -3.673750e+00 3.489592e+01 -1.899405e+00 -3.453408e+00 -1.281678e+00 -3.529457e+00 -5.166429e-02 6.278754e-01 6.955829e-01 9.184811e-01 1.460745e-01 4.691257e-01 1.204537e+00 8.307983e-01 3.904701e+00 3.454990e-02 -1.039744e+00 -2.775934e-02 -1.176940e+00 -1.198056e+00 -6.502345e-01 -1.068211e-01 7.220162e-02 -1.101431e-01 8.585852e-02 3.773222e-01 1.752767e-01 2.162979e+00
<VARIANCE> 39
 8.747849e+00 4.644956e+00 7.825038e+00 9.669105e+00 1.629300e+01 1.943418e+01 1.623250e+01 1.389421e+01 1.608174e+01 1.269936e+01 1.414063e+01 1.130532e+01 5.034015e+00 1.298078e+00 2.233501e+00 1.990877e+00 3.765115e+00 4.121909e+00 3.806741e+00 3.039797e+00 2.952145e+00 3.125587e+00 2.676507e+00 2.735155e+00 1.928425e+00 6.782327e+00 3.291316e-01 4.979620e-01 5.294378e-01 5.260559e-01 5.699655e-01 5.381431e-01 5.816761e-01 5.450791e-01 6.249848e-01 4.297499e-01 4.220931e-01 3.425506e-01 4.231137e-01
<GCONST> 1.070958e+02
<MIXTURE> 4 2.209015e-01
<MEAN> 39
 -7.331359e+00 4.429132e+00 4.192171e+00 1.707261e+00 -7.613756e+00 -8.826827e+00 -8.545402e+00 -6.511099e+00 -7.045452e+00 -6.017211e+00 -7.936173e+00 -5.881448e+00 3.958568e+01 -1.341364e+00 1.982646e+00 -1.017252e-01 1.798354e+00 2.400550e+00 8.878549e-01 5.485928e-01 -1.905978e-02 -1.580504e-01 -5.194139e-01 -3.450822e-01 -5.659263e-01 -2.887603e+00 -3.662310e-01 -1.178111e+00 -3.053000e-01 -1.445343e+00 -4.247746e-01 3.457810e-01 -6.598359e-02 3.033224e-01 1.708399e-01 4.344589e-01 6.266972e-01 4.819682e-01 1.703954e+00
<VARIANCE> 39
 1.077292e+01 1.828146e+01 2.291810e+01 2.823221e+01 3.551183e+01 2.946568e+01 2.776583e+01 3.878279e+01 4.059042e+01 2.910626e+01 2.649153e+01 2.437460e+01 1.220779e+01 2.412594e+00 5.389574e+00 4.836020e+00 7.687906e+00 4.825265e+00 5.129835e+00 4.357671e+00 5.437198e+00 4.702085e+00 3.819726e+00 3.753998e+00 3.884457e+00 7.056798e+00 2.956518e-01 7.055238e-01 5.988582e-01 8.617654e-01 8.977312e-01 7.842549e-01 9.980262e-01 1.038338e+00 9.327592e-01 8.025813e-01 6.921602e-01 6.129506e-01 1.039087e+00
<GCONST> 1.298386e+02
<MIXTURE> 5 1.799933e-01
<MEAN> 39
 -8.782270e+00 8.083880e+00 4.353389e+00 2.579651e+00 -4.855227e+00 -5.996350e+00 -7.016843e+00 -6.164790e+00 -7.219581e+00 -6.404685e+00 -7.521199e+00 -6.121073e+00 3.598370e+01 -8.295159e-01 1.614970e-01 -3.029501e-01 6.184287e-01 1.417193e+00 7.829593e-01 2.945257e-02 1.325104e-01 8.388388e-02 -7.655043e-02 8.781504e-02 1.471039e-01 -8.675162e-01 -5.593114e-01 -1.183661e+00 -2.966157e-01 -1.076935e+00 -3.528561e-01 1.793111e-01 2.637040e-01 1.529058e-01 1.995970e-01 4.227677e-01 4.889015e-01 3.952766e-01 1.313073e+00
<VARIANCE> 39
 6.149104e+00 3.640129e+00 8.879879e+00 1.639037e+01 2.452688e+01 2.079254e+01 2.163386e+01 2.474594e+01 2.471162e+01 2.008256e+01 1.894859e+01 1.858410e+01 3.523326e+00 1.898077e+00 1.554653e+00 1.731851e+00 1.629441e+00 2.845840e+00 2.171648e+00 2.095572e+00 2.065946e+00 2.143498e+00 1.713028e+00 1.784287e+00 1.525247e+00 1.705517e+00 2.122040e-01 3.910236e-01 4.187154e-01 7.617184e-01 6.628761e-01 4.896050e-01 5.229388e-01 5.839194e-01 6.484757e-01 4.617718e-01 3.951324e-01 4.521684e-01 1.080574e+00
<GCONST> 1.050618e+02
<MIXTURE> 6 1.067467e-01
<MEAN> 39
 -1.293256e+01 5.536903e+00 2.091618e+00 2.571092e+00 -2.239889e+00 -3.860003e+00 -6.627031e+00 -6.882909e+00 -9.113245e+00 -7.801219e+00 -7.592740e+00 -6.241163e+00 3.412287e+01 -2.677821e+00 -2.988718e+00 -2.153434e+00 -2.772657e+00 6.978525e-01 9.906141e-01 1.629307e+00 1.169072e+00 1.681645e+00 1.792322e+00 1.798514e+00 1.266221e+00 3.206157e+00 1.351846e-01 -6.687183e-01 -5.221604e-02 -1.407594e+00 -1.190719e+00 -7.221622e-01 1.945758e-01 8.721409e-02 3.293058e-01 6.590982e-01 4.267224e-01 5.058588e-01 2.165554e+00
<VARIANCE> 39
 1.467607e+01 6.502732e+00 1.072196e+01 9.565187e+00 1.709211e+01 2.328403e+01 2.012599e+01 2.066491e+01 2.032911e+01 1.559508e+01 1.698335e+01 1.625987e+01 8.957849e+00 1.257476e+00 1.885267e+00 1.896089e+00 4.571073e+00 3.551036e+00 3.344612e+00 2.907731e+00 3.464549e+00 3.291102e+00 2.633053e+00 2.627914e+00 2.652807e+00 9.983640e+00 3.449841e-01 6.251808e-01 5.588022e-01 7.341188e-01 5.360379e-01 5.786924e-01 7.200883e-01 7.150376e-01 6.601586e-01 5.186712e-01 5.477001e-01 4.871188e-01 7.895455e-01
<GCONST> 1.137761e+02
<MIXTURE> 7 8.308183e-02
<MEAN> 39
 -1.703907e+01 -1.882420e+00 -4.707144e-01 -3.173591e+00 -4.228626e+00 -2.698879e+00 -3.941751e+00 -3.225241e+00 -2.856219e+00 -2.918591e+00 -3.704564e+00 -2.254634e+00 4.195962e+01 -1.263468e-01 -5.654686e-01 5.770438e-01 -8.225560e-01 -4.404420e-01 -6.403140e-01 -4.845660e-01 1.942468e-01 2.226412e-02 -3.211619e-01 1.341105e-01 8.547220e-02 2.133406e+00 4.752230e-01 -1.246806e-01 -7.213691e-02 -2.678596e-01 -5.608012e-01 -3.391189e-01 -2.089242e-01 2.310683e-02 -6.578622e-02 1.009994e-01 1.726038e-01 9.502912e-02 5.734476e-01
<VARIANCE> 39
 4.686921e+01 3.841792e+01 5.553848e+01 4.638487e+01 4.321903e+01 3.728458e+01 4.072047e+01 3.307842e+01 3.137907e+01 2.916884e+01 2.830153e+01 2.354201e+01 1.050974e+02 5.098616e+00 5.114258e+00 3.926759e+00 5.866148e+00 4.259202e+00 5.058561e+00 5.243039e+00 5.593030e+00 5.794706e+00 3.379819e+00 3.713552e+00 3.235729e+00 1.516379e+01 5.541299e-01 8.450267e-01 1.044676e+00 9.811103e-01 1.034765e+00 8.779056e-01 8.584908e-01 8.651229e-01 7.928881e-01 7.399505e-01 6.721990e-01 5.819458e-01 2.017343e+00
<GCONST> 1.387223e+02
<STATE> 3
<NUMMIXES> 6
<MIXTURE> 1 1.371477e-01
<MEAN> 39
 -2.121325e+01 -1.064647e+00 -5.627267e+00 -4.279968e-01 -2.744662e+00 -6.321561e-01 -2.064182e+00 -5.445231e-01 -1.299933e+00 -4.138008e-01 -4.418169e-01 1.078431e-01 2.947299e+01 -6.242491e-02 6.885175e-02 2.996875e-02 1.384854e-01 1.514540e-01 2.222732e-01 2.763630e-01 4.001211e-01 4.220118e-01 2.422146e-01 1.950038e-01 9.833340e-02 -9.828990e-02 1.024965e-01 -1.166862e-01 4.773182e-02 -2.438753e-01 -4.534640e-02 3.832700e-03 1.840602e-03 -6.321626e-02 -5.490119e-02 -3.860039e-02 -8.463649e-02 -1.016204e-01 5.030220e-01
<VARIANCE> 39
 1.419388e+00 2.271708e+00 4.027688e+00 5.111703e+00 6.471185e+00 7.975147e+00 1.096667e+01 1.186878e+01 1.232374e+01 1.261825e+01 1.228468e+01 9.683994e+00 3.550987e+00 2.525270e-01 3.327578e-01 5.080052e-01 8.250183e-01 9.587637e-01 1.016303e+00 1.400856e+00 1.271606e+00 1.309641e+00 1.356802e+00 1.317106e+00 1.258751e+00 3.725572e-01 2.000000e-01 2.000000e-01 2.000000e-01 2.939284e-01 2.000000e-01 2.603019e-01 3.406532e-01 3.456618e-01 3.382813e-01 3.233769e-01 3.372803e-01 2.411040e-01 5.862042e-01
<GCONST> 7.667266e+01
<MIXTURE> 2 1.739867e-01
<MEAN> 39
 -1.565430e+01 -4.341747e+00 5.285029e-01 -5.311063e+00 -1.712628e+00 -1.905957e+00 -3.894039e+00 -2.482469e+00 -4.152664e+00 -2.824125e+00 -2.927341e+00 -2.643670e+00 4.533900e+01 -1.327017e+00 -2.202243e+00 -9.094292e-01 -3.120069e+00 -8.757358e-01 -4.156552e-01 5.383243e-01 5.103846e-01 5.167130e-01 7.617831e-01 1.238339e+00 1.047435e+00 5.184028e+00 6.985716e-01 2.975917e-01 2.973871e-01 1.144454e-02 -1.245537e+00 -7.637633e-01 -3.099950e-01 -1.522124e-01 -1.195571e-01 -2.112083e-02 -1.129733e-01 7.790711e-02 4.756524e-01
<VARIANCE> 39
 3.150108e+01 3.525072e+01 4.005495e+01 3.541909e+01 4.943934e+01 4.091876e+01 3.455833e+01 2.822066e+01 3.700433e+01 2.401699e+01 2.103020e+01 1.918467e+01 5.741149e+01 3.801126e+00 3.917038e+00 3.661577e+00 4.685426e+00 4.261022e+00 4.550770e+00 5.427439e+00 4.511696e+00 4.734375e+00 3.441833e+00 3.263420e+00 2.730868e+00 9.926233e+00 4.911266e-01 7.577741e-01 9.070779e-01 9.107073e-01 1.283310e+00 1.093300e+00 9.203452e-01 8.785253e-01 9.872404e-01 6.818324e-01 6.318857e-01 5.404667e-01 6.644850e-01
<GCONST> 1.333294e+02
<MIXTURE> 3 2.393230e-01
<MEAN> 39
 -2.114893e+01 -8.596763e-01 -5.399821e+00 -1.482931e-01 -2.621567e+00 -4.343673e-01 -1.945176e+00 -5.850923e-01 -1.551438e+00 -4.397664e-01 -8.632603e-01 -3.893555e-01 2.962014e+01 -8.663725e-02 -1.883897e+00 -5.583105e-01 -2.571358e+00 -2.853521e-01 -4.821987e-01 3.160337e-01 1.393736e-01 3.098478e-01 7.556008e-01 7.406589e-01 5.501978e-01 4.644436e+00 5.753221e-01 5.990858e-02 5.158652e-01 -6.521294e-01 -5.216460e-01 -7.011401e-01 -2.808250e-01 -3.768882e-01 -3.335628e-01 -2.279840e-01 -2.079868e-01 -1.478505e-01 2.160495e+00
<VARIANCE> 39
 1.783618e+00 3.627129e+00 5.724515e+00 7.327059e+00 7.432746e+00 8.450641e+00 1.060276e+01 1.189476e+01 1.164350e+01 1.181820e+01 1.026656e+01 1.070076e+01 3.312480e+00 1.957687e+00 1.868450e+00 2.862833e+00 3.669320e+00 2.178293e+00 2.710761e+00 3.093600e+00 2.843690e+00 3.083192e+00 2.599172e+00 2.415856e+00 1.914981e+00 1.382465e+01 3.017653e-01 4.242644e-01 4.376144e-01 4.546175e-01 4.172767e-01 3.953066e-01 5.281681e-01 5.084810e-01 4.609104e-01 3.880109e-01 3.939770e-01 3.767070e-01 6.729826e-01
<GCONST> 1.001055e+02
<MIXTURE> 4 1.749643e-01
<MEAN> 39
 -1.745260e+01 -9.521864e+00 -2.605256e+00 -1.274256e+01 -3.638010e+00 -3.120315e+00 -3.455837e+00 -2.725091e-01 -3.075963e+00 -8.072640e-01 2.122383e-01 3.968538e-01 5.448211e+01 -1.785916e-01 -2.218201e+00 -1.332021e-01 -3.537148e+00 -2.224721e+00 -2.118002e+00 -6.516069e-02 7.259699e-01 2.698586e-01 6.625947e-01 1.120050e+00 1.082222e+00 7.078465e+00 1.108992e+00 1.025422e+00 8.485136e-01 1.120427e+00 -1.100332e+00 -7.091651e-01 -5.429922e-01 -3.893566e-01 -1.937341e-01 -3.350128e-01 -4.997199e-01 -4.651212e-01 -7.069918e-01
<VARIANCE> 39
 1.551401e+01 1.448951e+01 2.646911e+01 1.897819e+01 2.808643e+01 2.973283e+01 3.461715e+01 2.358568e+01 2.588190e+01 2.996640e+01 1.971097e+01 1.895365e+01 2.989902e+01 3.618653e+00 3.033894e+00 2.691023e+00 2.415590e+00 3.350997e+00 2.812245e+00 4.950353e+00 3.887909e+00 4.137164e+00 2.747499e+00 2.932663e+00 1.988643e+00 3.335470e+00 3.257943e-01 4.298720e-01 9.523896e-01 6.619670e-01 8.641213e-01 8.277944e-01 9.950787e-01 7.866692e-01 1.081547e+00 9.998609e-01 7.518062e-01 5.952981e-01 4.806490e-01
<GCONST> 1.231205e+02
<MIXTURE> 5 1.386650e-01
<MEAN> 39
 -2.147753e+01 -1.730605e+00 -6.199727e+00 -1.155114e+00 -3.306457e+00 -7.368943e-01 -1.836976e+00 -6.124710e-01 -1.328071e+00 -3.982533e-01 -9.865046e-01 -5.531823e-01 2.890975e+01 -1.302055e-01 -1.493415e-01 -1.828211e-01 -6.343340e-02 -1.623585e-01 -2.392109e-01 -2.929794e-01 -1.741049e-01 -1.679582e-01 -1.285270e-01 -7.547884e-02 -7.256819e-02 -1.908130e-01 1.385443e-01 -1.944652e-02 1.080324e-01 -1.601581e-01 4.682987e-02 -2.901609e-02 -6.760234e-02 -4.186834e-02 -3.328094e-02 -2.208869e-02 3.843082e-02 2.575723e-02 5.665998e-01
<VARIANCE> 39
 1.559336e+00 2.773295e+00 4.875262e+00 6.906580e+00 7.832704e+00 1.033688e+01 1.023834e+01 1.099631e+01 1.349876e+01 1.170630e+01 1.147275e+01 1.117512e+01 5.490667e+00 3.198002e-01 4.303414e-01 5.948406e-01 9.336779e-01 9.398102e-01 1.164854e+00 1.341895e+00 1.369186e+00 1.478324e+00 1.421177e+00 1.470450e+00 1.158810e+00 3.751434e-01 2.000000e-01 2.000000e-01 2.000000e-01 3.317653e-01 2.343586e-01 2.931361e-01 3.152208e-01 3.084625e-01 3.813200e-01 3.467160e-01 3.400436e-01 2.584499e-01 6.330203e-01
<GCONST> 7.996507e+01
<MIXTURE> 6 1.359060e-01
<MEAN> 39
 -1.831290e+01 -6.373645e+00 -4.011985e+00 -1.181799e+01 -4.272201e+00 -4.600169e+00 -2.224078e+00 -4.203942e+00 -2.806246e+00 -1.254001e+00 -1.151173e+00 -1.223627e+00 5.730289e+01 5.261455e-01 -1.239149e+00 1.001687e+00 -3.253965e+00 -2.988535e+00 -2.091447e+00 -8.358219e-01 -4.629624e-01 -3.495842e-01 2.747988e-01 2.997382e-01 3.983884e-01 6.975196e+00 1.031384e+00 5.482185e-01 1.094558e+00 5.571858e-01 -1.156715e+00 -3.398394e-01 -8.612335e-01 7.105292e-02 -4.838122e-01 -1.617212e-01 -4.025193e-01 -1.930540e-01 -1.096388e+00
<VARIANCE> 39
 1.869903e+01 2.556513e+01 3.702102e+01 2.365173e+01 3.524201e+01 3.739319e+01 3.999391e+01 4.094417e+01 3.380670e+01 2.843433e+01 2.413089e+01 1.797637e+01 2.088012e+01 4.451590e+00 4.097887e+00 3.799389e+00 3.511436e+00 3.443013e+00 4.020633e+00 5.184704e+00 5.920758e+00 4.402618e+00 3.549197e+00 3.479830e+00 2.677525e+00 5.532196e+00 4.135050e-01 6.159171e-01 1.069523e+00 9.196056e-01 1.063752e+00 9.908072e-01 1.086863e+00 1.159231e+00 1.205177e+00 9.072216e-01 9.186563e-01 5.862562e-01 5.868072e-01
<GCONST> 1.312607e+02
<STATE> 4
<NUMMIXES> 6
<MIXTURE> 1 1.730042e-01
<MEAN> 39
 -1.380634e+01 -5.163579e+00 -1.407211e+00 -8.612082e+00 -8.917697e+00 -8.394640e+00 -1.629722e+00 5.083537e-01 -2.114836e+00 -7.579102e-02 -2.313603e+00 1.283402e+00 5.007478e+01 3.673251e-01 -1.443295e-01 -3.659908e-01 9.168455e-01 -4.890720e-01 1.896209e-01 1.271183e+00 5.241680e-01 6.651228e-01 -1.454875e-01 -5.676202e-01 2.355336e-01 -1.058592e+00 -1.963300e-02 1.826991e-01 -2.070192e-01 4.569787e-01 3.916723e-01 5.016186e-01 -2.046252e-01 -2.301299e-01 -1.560939e-01 -3.704242e-01 -2.047640e-01 -2.595524e-01 -8.438440e-01
<VARIANCE> 39
 4.089828e+01 2.484911e+01 3.441562e+01 3.886798e+01 5.407495e+01 4.828304e+01 4.927893e+01 5.615297e+01 5.690097e+01 4.396755e+01 3.790865e+01 3.091315e+01 5.455662e+01 3.666808e+00 3.147151e+00 2.803204e+00 3.754999e+00 5.046405e+00 5.406252e+00 4.201190e+00 4.850940e+00 3.644645e+00 4.386487e+00 3.259458e+00 2.982005e+00 3.951888e+00 7.818782e-01 6.250409e-01 5.652342e-01 9.678269e-01 1.036952e+00 1.060438e+00 9.146261e-01 9.273819e-01 7.054034e-01 9.330210e-01 7.147369e-01 5.425609e-01 8.542076e-01
<GCONST> 1.351117e+02
<MIXTURE> 2 1.248964e-01
<MEAN> 39
 -2.002255e+01 -5.061842e+00 -4.755870e+00 -1.284086e+01 -5.398697e+00 -5.910392e+00 -1.622483e+00 -4.792601e-01 -4.797600e+00 6.172155e-01 7.978074e-01 6.720790e-01 5.897355e+01 8.894758e-01 4.845481e-01 1.853072e+00 -2.913613e-01 -2.830066e+00 -2.384916e+00 -1.034826e-01 -7.171091e-01 -7.260246e-01 -4.157832e-01 2.138693e-01 3.781224e-01 4.491328e+00 1.176431e+00 8.304377e-01 1.241740e+00 1.568818e+00 -7.550498e-01 -1.847774e-02 -5.690130e-01 -6.102867e-01 -1.285299e-01 -6.774631e-01 -4.572571e-01 -4.048170e-01 -1.995234e+00
<VARIANCE> 39
 1.468455e+01 1.652817e+01 3.249447e+01 2.075570e+01 1.746389e+01 1.806884e+01 2.038003e+01 2.026095e+01 2.667254e+01 1.640765e+01 1.418992e+01 1.430335e+01 1.037837e+01 3.650116e+00 2.838952e+00 3.957271e+00 3.800775e+00 4.357546e+00 2.997036e+00 3.115814e+00 3.040830e+00 3.815144e+00 2.465588e+00 2.156166e+00 2.212585e+00 6.787073e+00 4.499300e-01 4.812886e-01 7.411657e-01 6.806480e-01 5.655184e-01 6.507999e-01 6.717754e-01 6.426264e-01 8.516072e-01 5.519623e-01 4.974146e-01 5.106991e-01 2.819509e-01
<GCONST> 1.173357e+02
<MIXTURE> 3 1.684823e-01
<MEAN> 39
 -7.762532e+00 -8.718480e+00 3.528235e+00 -9.017791e+00 -1.568978e+01 -1.091816e+01 -1.338458e+01 8.210080e-02 -1.998226e-03 -4.682540e+00 3.870705e-01 -3.595982e-02 6.251028e+01 2.447441e+00 -1.810750e+00 2.737715e-01 -7.004304e-01 -3.744434e+00 -1.920097e+00 -2.185681e+00 1.505400e+00 1.546363e+00 4.165615e-01 5.909236e-01 -3.729983e-01 2.997670e+00 -5.267073e-02 5.009810e-01 -5.153327e-01 6.326563e-01 7.573948e-01 6.618128e-01 7.230524e-01 -1.374834e-01 -1.244117e-01 3.631295e-01 -5.594891e-01 -5.638222e-01 -1.595257e+00
<VARIANCE> 39
 1.282831e+01 2.443235e+01 3.363625e+01 2.663453e+01 4.208205e+01 3.046796e+01 3.896086e+01 2.921374e+01 4.722764e+01 2.540164e+01 2.222035e+01 2.155008e+01 1.948943e+01 2.555096e+00 3.669036e+00 4.399190e+00 4.601916e+00 4.518194e+00 5.209639e+00 6.821170e+00 5.852896e+00 6.564607e+00 4.985352e+00 4.873039e+00 3.884959e+00 5.162747e+00 4.437420e-01 4.854355e-01 4.338654e-01 4.775119e-01 7.479465e-01 7.418503e-01 5.444013e-01 5.115765e-01 9.205437e-01 5.075938e-01 5.032263e-01 4.474122e-01 3.795883e-01
<GCONST> 1.266119e+02
<MIXTURE> 4 2.300132e-01
<MEAN> 39
 -2.016173e+01 2.837968e+00 -3.684189e-01 -8.642883e+00 -7.695237e+00 -8.906283e+00 -1.130312e+00 -8.400906e+00 -5.833638e+00 -2.227183e+00 -2.948619e+00 -1.381134e+00 5.885408e+01 2.566478e+00 1.186106e+00 4.117556e+00 -7.682522e-01 -4.331823e+00 -1.968370e+00 -2.243822e+00 -1.958614e+00 -1.927537e+00 -1.034863e+00 -9.272575e-01 -1.348637e-01 1.990067e+00 9.460794e-01 -3.933259e-01 7.742682e-01 2.535556e-01 -3.958578e-01 5.683454e-01 -8.575923e-01 3.748783e-01 -2.133954e-01 -1.118146e-01 -2.091595e-01 -1.203947e-01 -1.927786e+00
<VARIANCE> 39
 1.863269e+01 1.744332e+01 5.262326e+01 2.308466e+01 2.818340e+01 3.450334e+01 2.260110e+01 3.771758e+01 3.021112e+01 2.163449e+01 1.941691e+01 1.484201e+01 1.371153e+01 1.978128e+00 2.773999e+00 4.167370e+00 7.539200e+00 3.442388e+00 4.277218e+00 3.416018e+00 5.210668e+00 4.138599e+00 5.119300e+00 3.981785e+00 3.290132e+00 5.241154e+00 4.125779e-01 5.573915e-01 8.043936e-01 4.907710e-01 6.864964e-01 7.038503e-01 5.898427e-01 7.684605e-01 8.353361e-01 6.183985e-01 7.093913e-01 4.357528e-01 3.735783e-01
<GCONST> 1.242197e+02
<MIXTURE> 5 1.710118e-01
<MEAN> 39
 -1.106322e+01 -3.307178e+00 6.704206e+00 -9.356133e+00 -1.507412e+01 -1.294020e+01 -7.026210e+00 -4.391582e+00 -8.471478e+00 -3.564303e+00 -9.225470e-01 -6.452023e-01 6.073092e+01 2.533846e+00 -8.142788e-01 2.732563e+00 -3.873798e-01 -4.661292e+00 -1.345821e+00 -2.309608e+00 5.429916e-01 -1.010393e+00 -5.405940e-01 3.627392e-01 -3.312960e-01 2.038743e+00 3.119496e-02 9.913775e-02 -3.044041e-01 6.077760e-01 4.749140e-01 9.796535e-01 -1.832066e-02 2.807245e-01 3.597211e-01 -1.648854e-02 -2.632231e-01 -3.980829e-01 -1.625826e+00
<VARIANCE> 39
 9.821197e+00 1.981470e+01 4.665252e+01 3.858200e+01 2.626441e+01 2.979292e+01 2.736005e+01 3.078066e+01 4.837600e+01 3.015293e+01 2.523188e+01 2.104113e+01 1.562528e+01 2.525500e+00 3.004671e+00 5.335696e+00 6.651026e+00 4.254912e+00 5.161868e+00 6.405073e+00 6.043074e+00 7.593169e+00 6.087450e+00 5.877420e+00 4.244987e+00 4.264052e+00 2.692865e-01 4.625455e-01 3.852131e-01 4.524926e-01 6.041894e-01 5.085971e-01 5.991039e-01 5.448061e-01 5.892588e-01 4.961168e-01 4.700232e-01 4.211100e-01 4.000469e-01
<GCONST> 1.250973e+02
<MIXTURE> 6 1.325871e-01
<MEAN> 39
 -1.881703e+01 -5.673197e+00 -3.954061e+00 -1.304098e+01 -5.535367e+00 -6.388060e+00 -1.743930e+00 -3.110262e+00 -4.053035e+00 6.415485e-01 -1.447102e-01 1.989127e-02 6.028366e+01 1.623083e+00 -1.704940e-01 2.418302e+00 -1.617651e+00 -3.964930e+00 -2.527835e+00 -1.217834e+00 -1.001911e+00 -1.285673e+00 -8.879786e-01 2.158973e-01 -2.089103e-01 6.107974e+00 9.936855e-01 7.216834e-01 1.167071e+00 1.307772e+00 -9.842369e-01 1.797878e-01 -8.865277e-01 -1.077420e-01 -2.861872e-01 -7.221084e-01 -2.435437e-01 -4.914868e-01 -1.988930e+00
<VARIANCE> 39
 1.358533e+01 1.748049e+01 3.395312e+01 1.826738e+01 1.865343e+01 2.087165e+01 2.320673e+01 2.646933e+01 3.469865e+01 2.032311e+01 2.123961e+01 1.975195e+01 9.258489e+00 2.980922e+00 3.305483e+00 3.372900e+00 2.965432e+00 3.431870e+00 3.162978e+00 3.218893e+00 3.763960e+00 3.432641e+00 2.556575e+00 2.778816e+00 1.955903e+00 3.094409e+00 3.647892e-01 4.022876e-01 8.274434e-01 5.791508e-01 5.599855e-01 6.346518e-01 7.195367e-01 7.583903e-01 1.067071e+00 6.175311e-01 7.807366e-01 5.048153e-01 2.521261e-01
<GCONST> 1.182287e+02
<TRANSP> 5
 0.000000e+00 1.000000e+00 0.000000e+00 0.000000e+00 0.000000e+00
 0.000000e+00 7.362942e-01 2.637058e-01 0.000000e+00 0.000000e+00
 0.000000e+00 0.000000e+00 6.360362e-01 3.639639e-01 0.000000e+00
 0.000000e+00 0.000000e+00 0.000000e+00 5.127730e-01 4.872271e-01
 0.000000e+00 0.000000e+00 0.000000e+00 0.000000e+00 0.000000e+00
<ENDHMM>
~h "f"
<BEGINHMM>
<NUMSTATES> 5
<STATE> 2
<NUMMIXES> 5
<MIXTURE> 1 2.399734e-01
<MEAN> 39
 -7.156037e+00 -5.590237e+00 -9.009271e+00 -7.963142e+00 -3.562062e+00 -3.588347e+00 -1.136132e+00 -1.193497e+00 -7.375367e-01 -9.267123e-01 -5.904135e+00 -4.055426e+00 5.552158e+01 -4.714216e+00 2.038989e+00 1.228811e+00 2.622332e+00 1.683139e+00 1.473875e+00 6.909515e-01 9.529351e-02 1.027174e-02 -2.480112e-01 1.322966e+00 1.427742e+00 -2.543643e+00 -1.020815e+00 -8.949019e-01 -4.717395e-03 -3.396954e-01 -4.786507e-01 -8.718485e-02 -1.624518e-01 3.614299e-01 1.306513e-01 -5.039073e-03 1.977424e-01 2.055040e-01 3.279170e-01
<VARIANCE> 39
 2.087207e+01 1.663661e+01 2.469173e+01 2.448120e+01 2.020624e+01 3.512189e+01 3.513095e+01 3.751596e+01 3.359669e+01 4.766467e+01 3.653148e+01 2.660924e+01 2.006410e+01 2.786177e+00 2.785294e+00 3.155626e+00 3.318684e+00 4.004815e+00 5.072085e+00 5.070631e+00 5.886011e+00 4.102809e+00 4.994266e+00 5.712225e+00 4.248079e+00 1.869025e+00 3.998379e-01 3.568560e-01 4.390619e-01 4.386114e-01 4.453384e-01 5.394783e-01 5.546273e-01 7.255908e-01 3.948945e-01 5.801528e-01 4.545245e-01 3.988538e-01 2.000000e-01
<GCONST> 1.218554e+02
<MIXTURE> 2 2.435573e-01
<MEAN> 39
 -2.317799e+01 -5.746804e+00 -5.477067e+00 -2.923668e+00 -1.985224e+00 -7.449586e-01 -3.574708e-01 6.261526e-01 -2.933174e-01 -7.379193e-01 -1.175165e+00 1.611916e-01 5.153292e+01 -3.520103e+00 -9.898604e-01 -5.255281e-01 9.363177e-02 1.095503e-02 3.663684e-01 9.431068e-02 5.067055e-01 4.898740e-01 6.054649e-01 1.142459e+00 7.616660e-01 -9.740605e-01 1.221688e+00 -4.911241e-01 -4.915235e-01 -8.891744e-01 -6.209131e-01 -5.358931e-01 -2.183666e-01 -2.369697e-01 -1.043664e-01 1.604525e-02 -4.429420e-01 -3.680562e-01 5.423562e-01
<VARIANCE> 39
 1.464931e+01 1.450567e+01 1.363548e+01 1.126099e+01 1.330639e+01 1.330988e+01 1.481148e+01 1.606332e+01 1.774221e+01 1.713735e+01 1.459312e+01 1.276279e+01 1.884570e+01 3.843652e+00 1.355468e+00 1.839340e+00 1.854975e+00 1.906289e+00 2.144776e+00 2.125574e+00 2.805050e+00 2.585819e+00 3.099545e+00 2.623976e+00 2.063168e+00 1.346183e+00 3.509121e-01 3.870597e-01 4.071610e-01 3.740431e-01 4.418817e-01 4.930767e-01 5.128375e-01 7.086076e-01 5.090794e-01 5.389395e-01 5.513599e-01 4.820774e-01 3.085476e-01
<GCONST> 1.065299e+02
<MIXTURE> 3 1.721887e-01
<MEAN> 39
 -2.273314e+01 -8.636584e+00 -8.926657e+00 -6.658160e+00 -5.014821e+00 -3.666512e+00 -1.999354e+00 -5.418946e-01 -1.488738e+00 -1.722313e+00 -1.986736e+00 -1.467010e-01 4.656292e+01 -1.453277e+00 -7.219201e-01 -5.631675e-01 -4.388839e-01 -3.353667e-01 -8.395638e-02 -3.872894e-02 1.825325e-01 2.325504e-01 1.622764e-01 7.131986e-02 6.607214e-02 1.671798e+00 4.539304e-01 4.145119e-01 2.135838e-01 2.434627e-01 2.246376e-02 1.081086e-01 -2.385743e-02 9.771314e-02 3.999042e-02 2.127427e-01 3.211029e-02 -6.971119e-02 -2.210513e-01
<VARIANCE> 39
 1.429076e+01 1.306294e+01 1.125134e+01 1.469306e+01 2.053729e+01 1.329442e+01 1.535702e+01 1.102972e+01 1.208443e+01 1.125499e+01 1.336324e+01 1.039622e+01 3.836848e+01 1.254154e+00 1.206531e+00 1.297281e+00 1.695856e+00 1.839993e+00 1.678172e+00 1.881935e+00 2.040195e+00 1.763702e+00 2.064632e+00 1.927162e+00 1.561486e+00 3.312291e+00 5.283912e-01 2.756092e-01 3.656138e-01 4.288309e-01 3.904743e-01 3.767940e-01 3.876861e-01 3.504810e-01 3.175280e-01 3.294597e-01 3.397167e-01 2.759195e-01 5.025063e-01
<GCONST> 1.005124e+02
<MIXTURE> 4 1.913860e-01
<MEAN> 39
 -1.667125e+01 -3.050767e+00 -5.217095e+00 -2.809632e+00 -1.675653e+00 -1.507649e+00 -1.048567e+00 3.258995e-01 -6.285117e-01 -1.138916e+00 -3.465679e+00 -2.288943e+00 5.378959e+01 -5.916495e+00 6.300851e-01 4.544349e-01 1.478476e+00 8.165147e-01 1.008951e+00 7.359659e-01 -4.398071e-01 -1.406038e-01 -7.907615e-01 6.858182e-01 1.873682e+00 -2.229465e+00 3.495451e-01 -1.299368e+00 -3.893856e-01 -1.046576e+00 -8.278509e-01 -4.393018e-01 -5.360122e-01 3.339186e-01 4.838068e-02 2.296702e-01 5.246919e-02 -2.941902e-01 7.102241e-01
<VARIANCE> 39
 2.104339e+01 8.657913e+00 1.068568e+01 1.025435e+01 1.086202e+01 1.418493e+01 1.464924e+01 1.427125e+01 1.458396e+01 1.469295e+01 1.310423e+01 1.225540e+01 1.955775e+01 1.220065e+00 2.699137e+00 2.327944e+00 2.873825e+00 2.366005e+00 3.612513e+00 3.591300e+00 4.595948e+00 2.676900e+00 3.127036e+00 4.631726e+00 2.871533e+00 1.850028e+00 4.654840e-01 2.879788e-01 2.894867e-01 3.678564e-01 3.948725e-01 4.883432e-01 5.214583e-01 4.790743e-01 4.553538e-01 4.238803e-01 4.367073e-01 5.141410e-01 2.080729e-01
<GCONST> 1.067572e+02
<MIXTURE> 5 1.528928e-01
<MEAN> 39
 -2.423859e+01 -8.355419e+00 -8.820676e+00 -5.829412e+00 -3.852908e+00 -2.695332e+00 -1.545367e+00 -2.328376e-01 -7.164448e-01 -1.437274e+00 -2.525281e+00 -4.649641e-01 5.197866e+01 -2.429129e+00 -1.392620e+00 -1.195203e+00 -1.053621e+00 -1.065274e+00 -6.139307e-01 -5.712813e-01 -5.375440e-01 -3.247126e-01 -7.237991e-02 3.204046e-01 6.395417e-01 -4.067727e-01 1.464754e+00 -5.080123e-02 -4.872419e-02 -2.955791e-01 -2.286154e-01 -2.792580e-01 -1.785365e-01 2.278518e-01 9.380528e-03 2.913447e-01 -5.977045e-02 -4.199367e-01 4.419700e-01
<VARIANCE> 39
 8.365109e+00 8.675150e+00 7.394506e+00 9.212946e+00 1.297669e+01 1.227945e+01 1.055964e+01 1.186534e+01 1.383207e+01 1.005033e+01 1.256902e+01 1.014769e+01 2.105308e+01 1.657237e+00 9.848062e-01 9.670436e-01 1.378787e+00 1.284213e+00 1.391618e+00 1.556871e+00 1.508675e+00 1.688389e+00 1.493404e+00 1.504374e+00 1.857257e+00 1.250326e+00 2.401434e-01 2.330693e-01 2.673072e-01 2.768600e-01 3.417292e-01 4.342304e-01 4.115730e-01 4.854040e-01 3.379527e-01 3.391324e-01 4.189234e-01 3.601309e-01 2.272113e-01
<GCONST> 9.275829e+01
<STATE> 3
<NUMMIXES> 6
<MIXTURE> 1 2.017838e-01
<MEAN> 39
 -2.340594e+01 -5.345036e+00 -7.807196e+00 -4.894902e+00 -4.838313e+00 -3.390297e+00 -3.481580e+00 -1.163235e+00 -1.656919e+00 -8.639847e-01 -1.561698e+00 -3.654193e-01 4.616800e+01 -2.208907e-01 6.314202e-02 1.457711e-01 3.518084e-01 2.675982e-01 3.124031e-01 1.207325e-01 5.547654e-02 3.306531e-01 3.934393e-01 1.600379e-01 1.238981e-01 7.360998e-02 1.814121e-01 -1.092835e-01 -1.615202e-02 -2.989520e-02 9.422494e-02 1.028815e-01 1.894684e-01 1.356662e-01 8.940863e-02 7.191813e-03 -4.999483e-02 -3.644693e-03 6.770958e-02
<VARIANCE> 39
 1.256305e+01 1.157016e+01 1.253941e+01 1.177399e+01 1.326597e+01 1.361120e+01 1.204915e+01 1.103151e+01 1.610331e+01 1.195984e+01 1.099851e+01 1.123743e+01 7.722560e+01 8.693721e-01 7.551965e-01 8.478385e-01 1.025726e+00 1.126361e+00 1.389320e+00 1.346873e+00 1.644302e+00 1.604047e+00 1.381424e+00 1.182862e+00 1.040679e+00 1.467929e+00 2.000000e-01 2.000000e-01 2.000000e-01 2.141058e-01 2.165063e-01 3.013085e-01 2.755592e-01 2.765538e-01 3.489122e-01 2.613894e-01 2.223286e-01 2.153887e-01 2.000000e-01
<GCONST> 8.951443e+01
<MIXTURE> 2 1.159425e-01
<MEAN> 39
 -2.503007e+01 -9.099319e+00 -9.335931e+00 -6.297881e+00 -4.468325e+00 -3.200577e+00 -1.420815e+00 1.267046e+00 1.144102e+00 1.252332e+00 -9.811131e-01 -3.194012e-02 5.268227e+01 9.295584e-01 3.662511e-01 6.532829e-01 3.348889e-01 5.147234e-01 2.452630e-01 5.343269e-01 4.261405e-01 3.350786e-01 5.071926e-01 4.175440e-01 8.491892e-02 -2.801081e-02 1.094799e+00 2.448806e-01 1.849908e-01 -1.220836e-01 -1.594878e-01 -1.409665e-01 -2.474780e-01 -2.797437e-01 -3.598529e-01 -2.313446e-01 -9.899504e-02 -1.881189e-01 -6.924619e-02
<VARIANCE> 39
 1.111834e+01 1.166235e+01 1.333206e+01 1.571332e+01 1.851605e+01 1.630449e+01 2.157500e+01 1.511898e+01 1.687091e+01 1.599443e+01 1.391541e+01 1.109961e+01 1.718844e+01 3.182756e+00 1.243377e+00 1.540694e+00 1.350986e+00 1.419886e+00 1.383844e+00 1.732212e+00 1.791934e+00 1.663542e+00 1.426134e+00 1.605276e+00 1.310738e+00 2.071790e+00 5.137040e-01 2.463489e-01 3.798542e-01 4.206743e-01 4.273027e-01 4.257388e-01 6.489158e-01 4.391498e-01 3.849245e-01 4.599771e-01 4.576490e-01 3.257045e-01 3.642785e-01
<GCONST> 1.016143e+02
<MIXTURE> 3 2.427586e-01
<MEAN> 39
 -2.530831e+01 -9.879581e+00 -1.083747e+01 -7.761068e+00 -6.178343e+00 -4.264571e+00 -2.373268e+00 5.025886e-02 -4.921087e-01 3.663192e-01 -2.018251e-01 7.332457e-01 5.156134e+01 -1.647928e-02 -8.541797e-02 -2.250652e-01 -3.512768e-01 -3.748617e-01 -3.081386e-01 -3.336082e-01 -1.541786e-01 -1.794288e-01 6.959517e-02 7.453441e-02 1.034298e-02 1.151761e-01 5.219199e-01 2.380018e-01 2.909914e-01 2.573234e-01 2.987623e-01 1.748622e-01 6.481013e-02 -3.868035e-02 -4.758040e-02 -1.245444e-01 -2.386238e-01 -2.103744e-01 -4.575407e-02
<VARIANCE> 39
 8.002869e+00 1.019503e+01 9.487185e+00 9.705631e+00 1.100796e+01 9.977227e+00 1.336834e+01 1.265389e+01 1.372021e+01 1.149303e+01 9.905300e+00 1.188525e+01 1.914485e+01 8.247270e-01 6.707791e-01 7.918149e-01 9.915381e-01 1.040962e+00 1.192557e+00 1.527218e+00 1.441450e+00 1.454294e+00 1.202371e+00 1.378560e+00 1.203855e+00 1.092669e+00 2.504675e-01 2.000000e-01 2.000000e-01 2.000000e-01 2.000000e-01 2.133506e-01 2.808625e-01 3.039588e-01 3.124455e-01 2.915334e-01 2.592505e-01 3.071357e-01 2.000000e-01
<GCONST> 8.617422e+01
<MIXTURE> 4 1.555206e-01
<MEAN> 39
 -2.632014e+01 -8.577960e+00 -9.463028e+00 -5.499045e+00 -3.772967e+00 -2.054142e+00 -1.725323e+00 -5.398040e-01 -1.658163e+00 -1.481891e+00 -2.802872e+00 -1.068699e+00 5.112664e+01 1.035128e-04 9.904519e-02 1.664508e-01 1.983218e-01 2.220511e-01 1.096674e-01 1.430215e-01 1.374261e-01 1.686360e-03 -1.515189e-02 -1.006918e-01 -4.027474e-02 1.607925e-01 3.460583e-01 5.501904e-02 7.325418e-02 -1.807286e-02 -3.433518e-02 -1.045731e-01 -1.390631e-02 9.460008e-02 1.525612e-01 1.904705e-01 2.054154e-01 1.410338e-01 5.366635e-02
<VARIANCE> 39
 5.821998e+00 9.872322e+00 1.090564e+01 9.874103e+00 1.169848e+01 1.135992e+01 1.394112e+01 1.287752e+01 1.222214e+01 1.078699e+01 1.204146e+01 1.202299e+01 1.939833e+01 3.446681e-01 3.737774e-01 5.473462e-01 8.148445e-01 8.912772e-01 9.713024e-01 1.104824e+00 1.247882e+00 1.410136e+00 1.475621e+00 1.326458e+00 1.241090e+00 4.402825e-01 2.000000e-01 2.000000e-01 2.000000e-01 2.000000e-01 2.000000e-01 2.062605e-01 2.580366e-01 2.782422e-01 2.510059e-01 2.644775e-01 2.776839e-01 2.489854e-01 2.000000e-01
<GCONST> 8.178771e+01
<MIXTURE> 5 1.291485e-01
<MEAN> 39
 -2.590741e+01 -7.440776e+00 -8.777769e+00 -4.415104e+00 -3.696534e+00 -2.009448e+00 -2.052502e+00 -7.082173e-01 -2.101669e+00 -1.355307e+00 -2.148205e+00 -1.252874e-02 4.952889e+01 -2.498715e-03 -1.155047e-01 -2.083955e-01 -3.633849e-01 -2.847977e-01 -3.107771e-01 -3.468232e-01 -3.806850e-01 -5.148810e-01 -4.182116e-01 -3.142352e-01 -1.818695e-01 1.824607e-01 3.406504e-01 -1.505970e-02 -1.128539e-02 -1.779374e-01 -1.038154e-01 -1.745662e-01 -6.831535e-02 7.023469e-02 1.470193e-01 1.155997e-01 4.030735e-02 -2.986284e-02 1.039933e-01
<VARIANCE> 39
 6.770329e+00 1.042318e+01 1.196964e+01 1.028686e+01 1.183080e+01 1.188886e+01 1.368110e+01 1.655871e+01 1.157490e+01 1.088860e+01 9.084332e+00 1.096861e+01 3.076044e+01 3.226653e-01 4.691351e-01 4.805950e-01 7.907186e-01 8.309737e-01 9.215031e-01 1.176158e+00 1.235251e+00 1.209269e+00 1.243799e+00 1.138876e+00 1.097541e+00 5.510887e-01 2.000000e-01 2.000000e-01 2.000000e-01 2.000000e-01 2.000000e-01 2.127067e-01 2.511694e-01 3.389264e-01 2.506854e-01 2.845997e-01 2.379424e-01 2.281378e-01 2.000000e-01
<GCONST> 8.204533e+01
<MIXTURE> 6 1.548401e-01
<MEAN> 39
 -2.648704e+01 -8.936896e+00 -8.554521e+00 -5.408645e+00 -3.273899e+00 -1.826961e+00 -6.862236e-01 9.788467e-01 1.469520e-01 9.488960e-01 -2.611805e-01 6.152233e-01 5.165604e+01 9.600421e-01 -3.958910e-02 -1.494675e-01 -5.233372e-01 -3.597697e-01 -5.588658e-01 -2.849477e-01 -1.850020e-01 -8.728172e-02 -1.715699e-01 -3.016264e-01 -3.021870e-01 4.041011e-01 1.329891e+00 2.490349e-01 -4.966431e-03 -4.003836e-01 -4.232158e-01 -2.999231e-01 -3.914198e-01 -3.519355e-01 -3.169019e-01 -2.463760e-01 -2.668811e-01 -2.852574e-01 5.675939e-02
<VARIANCE> 39
 1.163107e+01 1.009143e+01 1.204299e+01 1.358484e+01 1.397599e+01 1.317075e+01 1.443947e+01 1.516734e+01 1.618886e+01 1.503125e+01 1.194403e+01 1.155095e+01 1.838985e+01 3.039839e+00 1.002147e+00 1.496164e+00 1.270179e+00 1.433819e+00 1.321899e+00 1.697982e+00 1.619354e+00 1.593099e+00 1.675792e+00 1.443667e+00 1.506450e+00 2.339366e+00 4.726851e-01 2.153071e-01 3.755182e-01 4.389697e-01 3.274270e-01 3.555981e-01 4.261283e-01 4.763147e-01 4.527647e-01 4.684995e-01 4.347630e-01 2.990814e-01 3.758548e-01
<GCONST> 9.909133e+01
<STATE> 4
<NUMMIXES> 5
<MIXTURE> 1 1.456462e-01
<MEAN> 39
 -1.362082e+01 -7.774816e+00 -1.172500e+01 -1.150739e+01 -8.286140e+00 -4.334605e+00 -2.218440e+00 -1.805328e+00 8.145656e-01 3.536900e+00 -1.242784e+00 -3.127956e+00 4.337382e+01 -4.333059e-01 9.710987e-01 3.835305e-01 7.876314e-01 4.032860e-01 8.016354e-01 5.979655e-01 7.576878e-01 5.946666e-01 4.192652e-01 1.794870e-01 -2.255442e-01 -3.086447e+00 -7.437119e-01 2.083660e-01 5.042718e-01 6.711370e-01 5.710216e-01 3.926605e-01 1.142222e-01 1.638153e-01 -3.456391e-01 -5.180042e-01 -8.617842e-02 1.236939e-01 1.888911e-01
<VARIANCE> 39
 3.821953e+01 2.489532e+01 6.620078e+01 4.900948e+01 5.718815e+01 6.524638e+01 5.071224e+01 6.189325e+01 7.454612e+01 6.124315e+01 6.390404e+01 5.907919e+01 5.525777e+01 4.804006e+00 2.271352e+00 3.899661e+00 4.027548e+00 4.685570e+00 3.708528e+00 3.565859e+00 4.298319e+00 4.622333e+00 4.712567e+00 4.046540e+00 4.014817e+00 5.768369e+00 1.110265e+00 5.134248e-01 8.991950e-01 1.031360e+00 1.029550e+00 1.006067e+00 7.813365e-01 1.193112e+00 1.307759e+00 1.181659e+00 1.045644e+00 1.005647e+00 1.600372e+00
<GCONST> 1.422039e+02
<MIXTURE> 2 1.757752e-01
<MEAN> 39
 -2.010390e+01 -5.969298e+00 -7.060308e+00 -4.498452e+00 -3.803963e+00 -2.899531e+00 -1.414702e+00 2.842302e-01 5.582180e-02 5.766488e-01 -1.672681e+00 -1.377470e+00 4.947660e+01 4.990674e+00 -3.842823e-01 -8.286617e-02 -1.470180e+00 -1.089134e+00 -7.394365e-01 -1.211221e+00 -2.921284e-01 -1.088493e-01 1.439950e-01 2.644035e-01 -7.408203e-01 1.836009e+00 9.184624e-01 -6.412640e-01 -2.096153e-01 -8.220187e-01 -6.598242e-01 -1.745534e-01 -5.610715e-01 2.932095e-02 -4.508538e-02 -1.154797e-01 1.662708e-01 -7.660105e-02 7.343665e-01
<VARIANCE> 39
 2.444192e+01 1.704569e+01 1.427948e+01 1.277041e+01 1.672820e+01 2.199500e+01 2.118645e+01 1.846521e+01 1.272363e+01 1.380389e+01 1.296555e+01 1.362839e+01 9.124184e+01 5.800560e+00 2.510532e+00 5.294015e+00 4.113824e+00 4.377727e+00 5.368077e+00 7.027312e+00 4.493087e+00 3.133280e+00 3.242102e+00 3.282284e+00 2.669891e+00 4.116031e+00 6.661754e-01 4.205290e-01 6.959925e-01 4.301871e-01 7.600414e-01 7.586316e-01 9.934980e-01 7.760863e-01 5.702516e-01 4.396187e-01 6.138350e-01 4.813809e-01 9.506043e-01
<GCONST> 1.219790e+02
<MIXTURE> 3 1.860201e-01
<MEAN> 39
 -4.267878e+00 -6.864464e+00 -1.187474e+01 -1.463711e+01 -9.421151e+00 -3.373029e+00 -5.364109e+00 -3.962631e+00 -4.036599e+00 2.874753e-01 -1.532321e+00 -3.509660e+00 5.551543e+01 4.950867e+00 -1.209879e+00 -1.137126e+00 -3.608586e+00 -1.963372e+00 1.857129e-01 -1.122688e+00 -1.479604e-01 -3.614882e-01 5.757673e-01 3.792696e-01 -7.299414e-01 1.527292e+00 -1.444719e+00 -4.740564e-01 1.556646e-01 3.848118e-01 3.470075e-01 2.307919e-01 2.363050e-01 5.573731e-01 4.434646e-01 5.533487e-02 7.628372e-02 1.858450e-01 -1.097790e-01
<VARIANCE> 39
 4.031186e+01 2.354980e+01 3.487722e+01 5.269051e+01 4.409303e+01 6.408250e+01 4.380131e+01 3.451071e+01 3.418753e+01 2.954120e+01 3.816888e+01 2.544750e+01 3.597351e+01 4.589051e+00 3.530654e+00 4.871258e+00 4.950181e+00 6.669278e+00 8.876288e+00 7.129763e+00 6.450180e+00 5.298633e+00 4.242147e+00 5.989962e+00 3.933574e+00 4.366196e+00 5.142361e-01 3.780801e-01 3.314798e-01 7.099193e-01 5.319828e-01 5.575654e-01 6.197690e-01 4.774545e-01 4.303575e-01 4.940817e-01 5.108363e-01 3.646208e-01 4.325319e-01
<GCONST> 1.307345e+02
<MIXTURE> 4 3.226170e-01
<MEAN> 39
 -1.981498e+01 -5.110889e+00 -7.836748e+00 -4.679240e+00 -2.472808e+00 -2.709923e-01 -1.695041e+00 -5.048910e-01 -1.015690e-01 -6.153852e-01 -1.962976e+00 -9.311930e-01 3.979893e+01 2.021556e-01 1.715284e-01 9.727377e-02 2.119175e-01 1.701927e-01 2.070590e-01 4.079705e-02 -1.179201e-01 -6.778806e-02 -1.295973e-01 -1.664580e-02 -9.686992e-02 -8.190104e-01 1.879972e-01 -2.152773e-01 -1.986166e-01 -2.587195e-01 -1.310148e-01 -9.281634e-02 -1.439139e-02 -8.266899e-02 1.629365e-02 5.178317e-02 -1.895687e-02 -5.410447e-02 3.204531e-01
<VARIANCE> 39
 1.976979e+01 2.859256e+01 2.987935e+01 2.174457e+01 1.389451e+01 1.836903e+01 1.752956e+01 2.005335e+01 1.846223e+01 2.033524e+01 2.284331e+01 1.836707e+01 9.112840e+01 1.816297e+00 1.783511e+00 2.260169e+00 2.183615e+00 1.856221e+00 2.116319e+00 1.777642e+00 2.227206e+00 2.422684e+00 2.272614e+00 2.006784e+00 1.955755e+00 3.260488e+00 4.345375e-01 3.802188e-01 4.717872e-01 5.407986e-01 3.981785e-01 3.870587e-01 3.614227e-01 4.407496e-01 4.559404e-01 4.351102e-01 4.444994e-01 3.567628e-01 9.999245e-01
<GCONST> 1.118136e+02
<MIXTURE> 5 1.699391e-01
<MEAN> 39
 -2.198511e+01 -7.406790e+00 -7.769234e+00 -6.713483e+00 -4.624044e+00 -3.777992e+00 -1.477957e+00 -4.910104e-01 -1.770717e+00 -1.259341e+00 -1.662049e+00 3.696116e-01 5.192544e+01 4.851287e+00 5.415231e-01 3.349075e-01 -1.918889e+00 -1.691600e+00 -1.043979e+00 -9.066900e-01 -1.070161e+00 -1.343430e+00 -6.601028e-01 -9.335163e-01 -7.451227e-01 1.035655e+00 9.365851e-01 -1.652848e-01 -2.071617e-02 -7.843912e-01 -6.181636e-01 2.240862e-02 -3.129904e-01 -5.643935e-02 -1.966705e-01 2.032720e-01 -8.401151e-03 -1.841137e-01 1.604615e-01
<VARIANCE> 39
 2.104699e+01 1.612785e+01 2.206533e+01 1.896651e+01 1.618276e+01 1.589013e+01 1.911104e+01 1.573816e+01 1.610410e+01 1.484494e+01 1.383466e+01 1.313834e+01 3.429701e+01 3.420330e+00 2.850319e+00 5.681665e+00 5.121602e+00 3.450398e+00 4.149301e+00 3.382663e+00 3.861881e+00 3.253179e+00 2.949179e+00 3.244478e+00 1.813199e+00 3.785527e+00 6.576909e-01 4.574935e-01 6.448770e-01 7.620893e-01 7.232646e-01 8.045259e-01 7.225358e-01 6.240187e-01 6.903228e-01 5.174128e-01 6.377856e-01 4.241090e-01 8.078808e-01
<GCONST> 1.194554e+02
<TRANSP> 5
 0.000000e+00 1.000000e+00 0.000000e+00 0.000000e+00 0.000000e+00
 0.000000e+00 7.135788e-01 2.864211e-01 0.000000e+00 0.000000e+00
 0.000000e+00 0.000000e+00 8.540353e-01 1.459648e-01 0.000000e+00
 0.000000e+00 0.000000e+00 0.000000e+00 7.746363e-01 2.253637e-01
 0.000000e+00 0.000000e+00 0.000000e+00 0.000000e+00 0.000000e+00
<ENDHMM>
~h "g"
<BEGINHMM>
<NUMSTATES> 5
<STATE> 2
<NUMMIXES> 3
<MIXTURE> 1 3.118559e-01
<MEAN> 39
 -8.430231e+00 6.015768e+00 5.696724e+00 5.034486e+00 -6.216982e+00 -7.021611e+00 -3.400507e+00 -3.507815e+00 -1.017123e+01 -5.591300e+00 -7.384336e-01 -4.981858e+00 3.730475e+01 -6.094792e-01 -1.220822e+00 -1.479718e+00 -5.440182e-01 1.323828e+00 1.062311e+00 -5.611583e-01 -3.195864e-02 8.201662e-01 9.584188e-01 -5.665171e-01 6.462913e-01 8.258278e-01 -1.295941e-01 -1.307827e+00 -6.154978e-01 -9.759136e-01 -2.176755e-01 1.289033e-02 -4.332092e-01 3.328761e-01 1.794924e-01 3.574406e-01 1.147887e-01 2.060035e-01 1.590139e+00
<VARIANCE> 39
 6.352747e+00 7.385987e+00 1.772684e+01 1.846076e+01 3.045029e+01 2.103392e+01 2.111075e+01 1.828082e+01 2.354065e+01 1.435671e+01 1.481851e+01 1.775215e+01 6.794607e+00 1.853532e+00 9.623366e+00 5.767202e+00 4.914321e+00 3.737501e+00 2.350806e+00 3.523339e+00 4.990477e+00 3.409172e+00 2.550968e+00 2.118834e+00 1.652809e+00 9.253023e+00 2.690385e-01 6.872339e-01 7.960334e-01 5.022188e-01 6.655811e-01 6.002299e-01 6.282764e-01 5.878308e-01 4.701356e-01 4.509783e-01 4.695710e-01 2.860025e-01 8.728914e-01
<GCONST> 1.157396e+02
<MIXTURE> 2 4.388979e-01
<MEAN> 39
 -1.147790e+01 -6.923729e+00 -6.451236e+00 -4.826358e+00 -2.168902e+00 -2.461900e+00 -6.701107e+00 -1.799172e+00 -6.807537e+00 -2.301384e-01 -9.369678e-01 -2.536834e+00 4.719732e+01 3.301251e-01 -1.700689e+00 -1.685094e+00 -1.321464e+00 5.897989e-01 -3.513329e-01 -7.220557e-01 5.993025e-02 3.705147e-01 7.240077e-01 -2.192735e-01 7.281317e-01 2.755097e+00 4.334066e-01 1.390539e-01 3.666549e-01 -3.339030e-01 -8.629810e-01 -4.585890e-01 -1.425342e-01 -1.985028e-01 6.597137e-02 2.083776e-02 1.268004e-01 -8.873516e-02 5.067165e-01
<VARIANCE> 39
 5.181215e+01 5.908789e+01 8.442414e+01 5.359356e+01 6.392289e+01 7.196642e+01 4.348785e+01 4.207365e+01 5.221367e+01 5.125607e+01 4.478606e+01 2.478158e+01 7.807327e+01 3.546804e+00 1.076795e+01 6.609056e+00 9.362406e+00 8.110784e+00 6.968400e+00 6.787841e+00 5.649086e+00 4.678151e+00 5.698612e+00 4.193541e+00 3.815966e+00 2.020695e+01 4.646717e-01 1.279613e+00 7.018332e-01 1.031793e+00 9.289623e-01 1.032861e+00 1.014100e+00 6.985484e-01 7.996247e-01 9.445857e-01 7.035233e-01 5.564401e-01 1.626084e+00
<GCONST> 1.458786e+02
<MIXTURE> 3 2.492456e-01
<MEAN> 39
 -8.173908e+00 4.149400e+00 4.073443e-01 1.028330e+00 -6.447439e+00 -7.645488e+00 -7.526894e+00 -8.788701e+00 -9.928804e+00 -6.974365e+00 -6.701017e+00 -5.436527e+00 3.905353e+01 -1.500852e+00 -5.208880e-01 -1.107809e+00 4.923139e-01 2.086314e+00 8.923338e-01 1.446327e-01 2.969708e-01 1.202081e+00 1.903842e-01 -3.400327e-01 -1.195689e-01 -5.011869e-01 3.007757e-02 -1.693947e+00 -8.446658e-01 -1.445259e+00 -3.475547e-01 2.023406e-01 -2.073653e-01 6.522196e-01 3.368498e-01 9.177853e-01 6.374263e-01 5.054256e-01 1.965397e+00
<VARIANCE> 39
 2.131568e+01 1.943618e+01 2.002741e+01 3.826020e+01 3.621615e+01 4.961953e+01 4.583878e+01 5.671152e+01 4.008166e+01 3.015288e+01 4.915273e+01 3.524900e+01 1.519047e+01 2.118494e+00 9.985013e+00 5.251897e+00 7.976635e+00 8.214505e+00 6.749435e+00 5.144572e+00 5.854907e+00 5.249984e+00 7.426408e+00 4.626899e+00 5.260243e+00 1.018354e+01 5.372538e-01 1.081094e+00 5.529052e-01 1.222878e+00 1.403446e+00 1.230885e+00 1.191097e+00 1.041899e+00 6.524011e-01 7.708900e-01 6.108049e-01 1.117645e+00 1.305531e+00
<GCONST> 1.393866e+02
<STATE> 3
<NUMMIXES> 3
<MIXTURE> 1 3.733661e-01
<MEAN> 39
 -8.997672e+00 -7.916643e+00 -1.128647e+01 -6.079896e+00 -3.464825e-01 -5.785444e+00 -1.040257e+01 -1.566159e+00 -4.638170e+00 3.689238e+00 -1.122359e+00 -1.457566e+00 5.214183e+01 2.018209e+00 1.595316e+00 2.017502e+00 8.652999e-01 -1.856283e+00 -1.245819e+00 -1.068128e+00 -4.843797e-01 -2.113261e-02 -1.548294e+00 9.442198e-01 -1.630672e-01 1.022231e+00 4.149946e-01 3.073260e-01 3.787007e-01 1.472734e-01 -6.096324e-01 -1.864043e-02 -3.354203e-02 -4.938017e-02 -7.328705e-02 -7.068903e-01 2.633803e-01 -1.087312e-01 -4.299035e-01
<VARIANCE> 39
 1.997473e+01 2.743192e+01 5.137360e+01 5.036010e+01 5.232663e+01 7.499490e+01 5.457145e+01 7.507001e+01 5.708173e+01 4.008046e+01 4.368842e+01 2.746174e+01 2.750371e+01 2.638219e+00 2.702303e+00 3.225354e+00 6.416031e+00 5.407373e+00 5.004856e+00 5.742270e+00 5.228349e+00 4.453863e+00 3.427493e+00 3.620334e+00 3.782496e+00 2.644598e+00 3.351045e-01 6.971442e-01 9.400287e-01 8.731263e-01 7.305931e-01 1.191117e+00 1.473514e+00 9.290419e-01 1.132240e+00 9.133842e-01 7.031364e-01 6.255676e-01 1.193741e+00
<GCONST> 1.364962e+02
<MIXTURE> 2 2.813424e-01
<MEAN> 39
 -1.650464e+01 -9.055811e+00 -1.926969e+00 -9.768554e+00 -9.816091e+00 -7.179765e+00 -3.969281e+00 -2.686438e+00 -4.204634e+00 -1.182443e+00 -2.983955e+00 -5.009612e-01 5.793178e+01 1.413992e+00 -4.309353e-01 6.546621e-01 -2.433343e+00 -2.687850e+00 -1.807290e+00 -1.486436e+00 -2.901070e-01 2.457151e-01 6.255940e-01 4.809912e-01 5.623387e-01 4.160714e+00 1.081157e+00 8.443673e-01 4.836276e-01 3.933265e-01 -3.735538e-01 -2.761817e-01 -3.269946e-01 -2.212968e-02 -3.647361e-01 -1.021546e-01 1.286883e-01 -3.990611e-01 -1.150723e+00
<VARIANCE> 39
 3.100836e+01 3.942041e+01 6.533225e+01 4.355461e+01 4.227755e+01 4.807961e+01 4.237899e+01 2.955218e+01 3.354332e+01 2.858900e+01 2.931072e+01 2.297523e+01 2.002165e+01 3.242580e+00 6.455742e+00 3.499831e+00 5.042431e+00 4.816561e+00 4.192672e+00 5.116425e+00 4.155980e+00 4.016758e+00 3.200371e+00 5.116899e+00 2.280022e+00 5.373410e+00 4.995627e-01 1.191109e+00 5.020922e-01 6.710786e-01 9.502956e-01 1.141009e+00 9.587093e-01 1.284535e+00 6.593391e-01 8.587289e-01 9.235934e-01 5.377821e-01 6.668130e-01
<GCONST> 1.335389e+02
<MIXTURE> 3 3.452918e-01
<MEAN> 39
 -9.785557e+00 -1.429631e+01 -1.781992e+01 -9.306561e+00 2.690124e+00 -4.255432e+00 -1.053305e+01 -1.330327e+00 -5.252474e+00 5.704154e+00 -4.168078e+00 -3.534248e-01 5.314416e+01 1.186241e+00 -1.591963e+00 -1.623389e+00 -1.448616e+00 -1.882200e-01 -1.175131e+00 -1.607339e+00 -2.404697e-01 1.549832e-01 1.491472e+00 2.707964e-01 4.420421e-01 3.919147e+00 3.564502e-01 1.694310e+00 1.808448e+00 1.131773e+00 -1.190022e+00 -5.202216e-01 1.551131e-01 -3.165077e-01 -2.206936e-01 -1.137558e+00 4.816197e-01 -2.237570e-01 -1.042689e+00
<VARIANCE> 39
 1.667356e+01 3.196945e+01 3.021489e+01 5.225864e+01 6.276353e+01 8.731037e+01 4.849026e+01 6.060020e+01 4.248252e+01 2.992552e+01 3.217803e+01 3.807661e+01 1.975589e+01 2.168804e+00 6.343847e+00 6.870860e+00 5.283148e+00 4.553319e+00 5.491404e+00 4.752918e+00 4.253813e+00 3.453656e+00 3.574039e+00 3.173885e+00 3.243951e+00 4.911696e+00 4.437521e-01 5.825657e-01 6.642162e-01 1.000777e+00 1.522995e+00 1.570421e+00 1.479421e+00 1.270666e+00 1.164322e+00 7.024969e-01 7.049414e-01 9.987271e-01 7.316973e-01
<GCONST> 1.369104e+02
<STATE> 4
<NUMMIXES> 3
<MIXTURE> 1 4.193724e-01
<MEAN> 39
 -1.971473e+00 -5.605050e+00 -8.813890e+00 -3.749066e+00 -3.212528e+00 -1.150741e+01 -1.466269e+01 -5.789424e+00 -6.833398e+00 -7.136210e-01 -2.233871e-01 -1.080999e+00 5.560374e+01 2.408737e+00 1.336955e-01 -4.497769e-02 -6.027513e-02 -1.510058e+00 -1.410444e+00 -1.550688e+00 8.320407e-01 -1.075418e-01 -1.343979e+00 1.010956e+00 4.732008e-01 1.209583e+00 -2.795813e-01 -6.193470e-01 -5.070312e-01 -2.815300e-01 1.118975e-01 4.120423e-01 2.978547e-02 6.699657e-01 3.723464e-01 1.441609e-01 -4.645150e-02 4.506260e-02 -1.215764e-01
<VARIANCE> 39
 1.258243e+01 1.722835e+01 2.187551e+01 3.561103e+01 3.324503e+01 6.614609e+01 4.102994e+01 4.185897e+01 3.414410e+01 3.748005e+01 3.645392e+01 2.487232e+01 1.082319e+01 2.057439e+00 1.822266e+00 3.419338e+00 2.133944e+00 4.004847e+00 4.574362e+00 6.512506e+00 5.654623e+00 5.281714e+00 4.939816e+00 2.696798e+00 3.310957e+00 1.042077e+00 2.376734e-01 3.251123e-01 4.903277e-01 5.040549e-01 5.429042e-01 5.770190e-01 6.856046e-01 6.183630e-01 4.915735e-01 5.971565e-01 4.220449e-01 4.539833e-01 2.000000e-01
<GCONST> 1.200550e+02
<MIXTURE> 2 3.702162e-01
<MEAN> 39
 -2.088786e+00 -1.247206e+01 -3.608754e+00 -6.573925e+00 -1.663268e+01 -1.100222e+01 -1.537669e+01 1.802167e+00 -5.202350e+00 -2.096987e+00 6.167659e+00 -2.293496e+00 6.246706e+01 1.271066e+00 -1.785484e+00 -9.950329e-01 -1.030789e+00 -1.667074e+00 3.303483e-02 -6.615281e-01 1.300456e+00 1.623639e+00 -5.633597e-02 9.314497e-01 -4.635168e-01 1.891594e+00 -6.168776e-01 -6.817983e-02 -5.831611e-01 -1.117245e-01 9.184524e-01 5.511782e-01 8.026339e-01 -8.739775e-03 1.898798e-01 3.805780e-01 -7.917502e-01 -1.456316e-01 -5.069267e-01
<VARIANCE> 39
 2.368449e+01 2.146148e+01 8.080314e+01 3.856974e+01 6.285417e+01 1.008687e+02 9.053086e+01 5.923561e+01 5.899633e+01 3.923381e+01 4.837710e+01 4.330096e+01 1.842278e+01 1.779315e+00 1.284797e+00 3.018197e+00 2.031896e+00 4.834251e+00 5.374578e+00 7.448833e+00 5.345073e+00 3.892347e+00 4.858067e+00 4.598413e+00 3.696085e+00 1.441442e+00 2.262583e-01 3.268337e-01 4.490033e-01 2.619766e-01 6.235719e-01 5.957386e-01 6.181934e-01 6.135431e-01 5.080255e-01 5.663213e-01 4.387841e-01 4.592912e-01 2.948650e-01
<GCONST> 1.265496e+02
<MIXTURE> 3 2.104111e-01
<MEAN> 39
 -9.742501e+00 -2.096798e+00 2.306607e+00 -1.547261e+01 -1.508142e+01 -1.007504e+01 -7.121243e+00 -6.916272e+00 -6.542024e+00 -4.896684e-01 -3.679601e+00 -8.917624e-01 5.829393e+01 2.374269e+00 2.367221e-02 6.673881e-01 -1.783641e+00 -2.560241e+00 -9.066763e-01 -2.688605e-01 2.240534e-01 -7.717379e-01 4.540810e-01 1.918024e-01 -2.219537e-01 1.095360e+00 -2.371946e-01 -6.422544e-01 -7.298157e-01 4.963217e-01 6.245542e-01 5.579507e-01 6.749064e-01 6.422768e-01 1.367450e-01 -5.696587e-02 8.897045e-02 -1.204082e-01 -6.973061e-01
<VARIANCE> 39
 2.154778e+01 3.532877e+01 7.922609e+01 1.077463e+02 5.524347e+01 6.782300e+01 5.279492e+01 5.359024e+01 5.151590e+01 3.813556e+01 5.935901e+01 1.734923e+01 3.356746e+01 2.896040e+00 4.213306e+00 3.368755e+00 5.707130e+00 6.221005e+00 5.789603e+00 6.214043e+00 6.956206e+00 6.751719e+00 5.210406e+00 6.918615e+00 4.104913e+00 2.426864e+00 3.669680e-01 6.237432e-01 3.814048e-01 7.625571e-01 5.640147e-01 7.242331e-01 7.277149e-01 8.421803e-01 7.224158e-01 6.368780e-01 5.385389e-01 4.368032e-01 6.035865e-01
<GCONST> 1.353534e+02
<TRANSP> 5
 0.000000e+00 1.000000e+00 0.000000e+00 0.000000e+00 0.000000e+00
 0.000000e+00 6.456451e-01 3.543549e-01 0.000000e+00 0.000000e+00
 0.000000e+00 0.000000e+00 5.596955e-01 4.403046e-01 0.000000e+00
 0.000000e+00 0.000000e+00 0.000000e+00 6.140916e-01 3.859084e-01
 0.000000e+00 0.000000e+00 0.000000e+00 0.000000e+00 0.000000e+00
<ENDHMM>
~h "k"
<BEGINHMM>
<NUMSTATES> 5
<STATE> 2
<NUMMIXES> 6
<MIXTURE> 1 2.168213e-01
<MEAN> 39
 -1.024949e+01 -6.099546e+00 -2.961570e+00 -6.359413e+00 -1.047947e+01 -1.107411e+01 -2.070912e+00 1.564157e+00 -8.577387e+00 -1.631760e+00 6.107828e-01 -2.074980e+00 5.024752e+01 -2.639192e+00 1.896591e+00 -2.747437e-01 2.440702e+00 2.523750e+00 1.521822e+00 1.608847e-02 -6.142660e-01 3.744944e-01 5.473502e-01 -2.824024e-01 9.359697e-01 -5.079154e+00 -5.026708e-01 -3.392326e-01 -3.021428e-01 -6.468629e-02 3.219424e-01 8.647888e-01 -6.014381e-02 -4.395004e-02 8.212399e-01 5.603790e-02 -1.926564e-01 -2.265301e-02 -3.100271e-01
<VARIANCE> 39
 3.298980e+01 5.998567e+01 8.759383e+01 5.867279e+01 7.718274e+01 8.580765e+01 7.769316e+01 1.137225e+02 6.086932e+01 5.798314e+01 7.553709e+01 3.688138e+01 7.471473e+01 3.463936e+00 4.629393e+00 5.219787e+00 6.908614e+00 5.903622e+00 7.215905e+00 7.407298e+00 7.588326e+00 7.464920e+00 5.246726e+00 6.514089e+00 3.764002e+00 1.428132e+01 4.101890e-01 1.127119e+00 8.169286e-01 8.625549e-01 8.733671e-01 1.122546e+00 1.011066e+00 1.442972e+00 1.061073e+00 9.715710e-01 1.056087e+00 7.334541e-01 1.715491e+00
<GCONST> 1.493302e+02
<MIXTURE> 2 1.413942e-01
<MEAN> 39
 -2.091242e+01 -1.148505e+00 -4.828294e+00 3.112240e-01 -2.462533e+00 -1.238009e-01 -9.620379e-01 2.383620e-01 -9.028304e-01 7.323421e-01 1.610090e-01 4.718637e-01 3.062188e+01 -9.640124e-01 -7.606583e-02 -5.329553e-01 1.650569e-02 4.763663e-01 1.000096e+00 1.361571e-01 3.506948e-02 8.428988e-01 1.120780e-01 2.847354e-01 2.173535e-01 -1.360471e+00 7.475312e-01 -7.405229e-01 -2.627015e-02 -7.216017e-01 -5.839821e-01 -7.988309e-01 -1.921081e-01 -5.198785e-02 -3.944635e-01 -9.165506e-02 -2.006853e-01 -2.477742e-01 1.991353e+00
<VARIANCE> 39
 1.693959e+00 2.570679e+00 4.372723e+00 5.710769e+00 7.925360e+00 9.542043e+00 9.195495e+00 1.047521e+01 1.316196e+01 1.147369e+01 1.139424e+01 1.017258e+01 1.478348e+00 2.174623e+00 2.176831e+00 3.703752e+00 1.816969e+00 3.615168e+00 4.054501e+00 3.400867e+00 3.566242e+00 3.151157e+00 2.456691e+00 2.413652e+00 2.276698e+00 3.835548e+00 4.262253e-01 5.546816e-01 7.989824e-01 4.735842e-01 6.751305e-01 8.641918e-01 6.210299e-01 7.578290e-01 5.864462e-01 5.434092e-01 5.164788e-01 3.568792e-01 1.313480e+00
<GCONST> 1.028889e+02
<MIXTURE> 3 1.163836e-01
<MEAN> 39
 -2.118353e+01 -1.404630e+00 -5.184863e+00 -5.252296e-03 -2.633364e+00 -5.639119e-01 -1.688792e+00 -5.488631e-01 -1.368851e+00 -4.999037e-02 -3.541609e-01 1.361327e-01 3.002171e+01 7.056138e-01 -3.467164e+00 -1.047481e+00 -2.014291e+00 -5.000727e-01 -1.138653e+00 -2.346057e-01 5.378336e-01 4.217669e-03 6.168638e-01 -2.396256e-01 3.608297e-01 5.773404e+00 4.091605e-01 -5.285515e-01 -3.788402e-02 -7.794859e-01 -3.404282e-01 -7.525226e-01 -1.166108e-01 9.494412e-02 -1.733953e-01 1.165214e-01 -1.554352e-01 1.680234e-02 2.360344e+00
<VARIANCE> 39
 2.154580e+00 3.375943e+00 5.081301e+00 7.176708e+00 7.904312e+00 9.405992e+00 1.050008e+01 1.228146e+01 1.301676e+01 1.275206e+01 1.270139e+01 1.104096e+01 3.685502e+00 2.488369e+00 3.022747e+00 4.965256e+00 3.642695e+00 4.046618e+00 4.437662e+00 4.416981e+00 3.610383e+00 3.642447e+00 3.372039e+00 2.627361e+00 2.327225e+00 5.842395e+00 3.551781e-01 4.242016e-01 5.103574e-01 6.099477e-01 4.778666e-01 6.526448e-01 5.989873e-01 6.628795e-01 6.021462e-01 4.377544e-01 4.375736e-01 4.105784e-01 7.907251e-01
<GCONST> 1.060066e+02
<MIXTURE> 4 2.528064e-01
<MEAN> 39
 -1.901968e+01 -2.362785e+00 -2.663347e+00 4.394729e-01 -2.672382e+00 -3.455744e+00 -2.896030e+00 -2.383879e+00 -4.492569e+00 -7.207158e-01 -2.402768e+00 -1.115159e+00 3.601003e+01 -2.352592e+00 -6.541712e-01 -1.574990e+00 1.148883e+00 1.521472e+00 1.847339e+00 5.565447e-01 6.842896e-01 1.724371e+00 3.495409e-01 1.142913e-01 4.579088e-01 -2.986684e+00 6.821886e-01 -6.901754e-01 -1.757536e-01 -1.158913e+00 -8.234327e-01 -3.975151e-01 -1.066515e-01 2.829728e-01 -9.653644e-02 9.257179e-02 1.616407e-01 -5.908689e-02 1.922602e+00
<VARIANCE> 39
 2.259424e+01 3.567902e+01 4.564448e+01 3.140112e+01 3.592812e+01 3.495893e+01 4.161351e+01 5.537387e+01 4.098959e+01 4.009794e+01 3.100037e+01 2.258419e+01 2.642576e+01 4.197744e+00 5.274621e+00 8.264715e+00 6.646200e+00 6.004373e+00 7.090888e+00 5.458360e+00 8.438019e+00 5.289995e+00 5.848594e+00 5.785753e+00 3.235644e+00 1.160971e+01 5.997134e-01 1.011765e+00 8.248456e-01 9.275885e-01 6.841155e-01 8.966311e-01 1.109981e+00 1.121997e+00 8.999346e-01 9.099101e-01 8.366524e-01 6.009932e-01 1.532538e+00
<GCONST> 1.397468e+02
<MIXTURE> 5 1.586785e-01
<MEAN> 39
 -2.161429e+01 -1.832964e+00 -6.167381e+00 -7.966659e-01 -3.099416e+00 -1.020097e+00 -2.174421e+00 -7.615129e-01 -1.517341e+00 -2.587529e-01 -8.108234e-01 -7.095398e-01 2.909147e+01 -2.011235e-01 -2.310127e-01 -5.678878e-01 -9.072592e-02 7.725903e-03 1.954759e-01 -2.990291e-02 1.201800e-01 2.746687e-01 -2.488538e-02 8.598713e-02 -4.503760e-02 -4.358025e-01 5.410612e-01 -6.966394e-01 2.970334e-01 -6.687631e-01 -4.306892e-01 -5.056896e-01 -2.525358e-02 -8.196887e-02 -3.291754e-01 1.503093e-01 -1.248452e-01 3.362539e-02 2.152220e+00
<VARIANCE> 39
 1.227273e+00 2.596498e+00 4.231882e+00 5.440891e+00 7.442239e+00 8.386696e+00 1.041482e+01 1.003923e+01 1.161619e+01 1.104600e+01 1.044046e+01 1.083258e+01 5.105388e+00 1.239623e+00 1.924537e+00 2.437925e+00 1.720988e+00 2.368601e+00 2.311576e+00 2.312148e+00 3.065902e+00 2.577768e+00 2.246330e+00 2.102633e+00 1.712886e+00 2.499536e+00 3.275509e-01 4.884970e-01 9.111651e-01 5.765015e-01 6.774647e-01 7.775095e-01 6.441889e-01 9.281226e-01 6.417508e-01 5.170579e-01 5.111660e-01 3.930068e-01 1.263896e+00
<GCONST> 9.977959e+01
<MIXTURE> 6 1.139104e-01
<MEAN> 39
 -2.175088e+01 -2.210093e+00 -6.251240e+00 -1.061542e+00 -3.264500e+00 -1.039884e+00 -2.183127e+00 -9.144807e-01 -1.753824e+00 -8.703581e-01 -8.659388e-01 -1.245917e-02 2.847721e+01 5.638793e-01 -2.931151e+00 1.578085e-01 -2.633804e+00 -1.134213e+00 -7.998275e-01 -2.218557e-01 -5.648109e-01 -3.801321e-01 5.246781e-01 -5.853814e-01 -3.103592e-02 6.089083e+00 1.923619e-01 -3.956442e-01 2.656666e-01 -8.386199e-01 -3.658668e-01 -3.484280e-01 -4.178328e-02 -9.377681e-02 -8.878438e-02 3.251864e-01 -1.519262e-01 -3.081894e-02 2.483803e+00
<VARIANCE> 39
 8.542703e-01 2.243644e+00 4.285836e+00 5.805009e+00 9.737714e+00 9.625352e+00 1.064025e+01 1.142826e+01 1.157848e+01 1.049239e+01 1.109751e+01 1.069527e+01 7.277884e+00 1.427958e+00 2.346444e+00 3.497787e+00 3.234789e+00 3.742184e+00 2.553421e+00 3.099695e+00 3.450339e+00 3.261259e+00 2.946696e+00 1.974176e+00 1.814082e+00 5.812841e+00 2.024317e-01 4.149712e-01 5.310841e-01 3.307568e-01 5.072296e-01 4.496325e-01 4.509518e-01 4.885574e-01 4.968444e-01 4.587569e-01 3.226243e-01 3.233365e-01 6.245856e-01
<GCONST> 9.858824e+01
<STATE> 3
<NUMMIXES> 5
<MIXTURE> 1 2.232224e-01
<MEAN> 39
 -2.203594e+01 -6.383506e+00 -2.439039e+00 -1.485664e+01 -8.792686e+00 -2.928853e+00 -8.309289e-01 -3.437563e+00 1.270234e-01 3.665034e+00 -2.065455e+00 1.740412e+00 5.782861e+01 9.258865e-02 2.513394e+00 1.195383e+00 6.477396e-03 1.117260e-01 2.543924e-01 5.636514e-01 1.578882e-01 2.124299e-01 -4.882205e-01 2.283456e-01 7.374229e-02 2.989159e-01 4.676635e-01 2.327162e-01 1.785474e-01 1.237177e+00 1.879863e-01 9.943441e-02 1.973322e-01 2.344700e-01 -4.196862e-01 -5.581053e-01 -2.002358e-03 -2.972040e-01 -2.073278e+00
<VARIANCE> 39
 9.041550e+00 1.780593e+01 1.418686e+01 1.853004e+01 2.362823e+01 1.971544e+01 2.701554e+01 2.460946e+01 3.475625e+01 2.810700e+01 2.013714e+01 1.804009e+01 1.509690e+01 1.454961e+00 2.221152e+00 1.622689e+00 2.261151e+00 2.370926e+00 2.373357e+00 2.396962e+00 2.404743e+00 2.157391e+00 2.378031e+00 1.917399e+00 1.904070e+00 3.477004e+00 2.208065e-01 5.156391e-01 3.131725e-01 3.427460e-01 4.978333e-01 4.867023e-01 5.694229e-01 5.987583e-01 6.463906e-01 6.171980e-01 5.381303e-01 4.418366e-01 5.327536e-01
<GCONST> 1.107129e+02
<MIXTURE> 2 1.357942e-01
<MEAN> 39
 -1.510478e+01 -1.345406e+01 -1.540494e+01 -8.574544e+00 -1.529497e+00 -7.858674e+00 -5.948365e+00 2.986512e+00 -3.333833e+00 3.235909e+00 -1.002216e+00 -1.382951e-01 5.651238e+01 -7.887258e-01 4.689849e-01 6.063051e-01 -4.019322e-01 -4.917130e-01 -1.067331e+00 6.444328e-01 1.947820e-01 6.823775e-01 1.985371e-01 3.183788e-01 4.111454e-01 2.973551e+00 -5.491822e-01 1.241320e+00 1.229536e+00 7.877347e-01 -9.077012e-02 5.546803e-01 5.175749e-01 -4.038832e-01 1.410591e-01 -5.680725e-01 -1.378920e-02 -4.560734e-02 -1.893986e+00
<VARIANCE> 39
 1.433784e+01 2.042838e+01 3.681255e+01 4.097787e+01 3.190643e+01 5.587711e+01 5.215254e+01 4.314809e+01 4.588782e+01 3.258559e+01 3.202312e+01 2.756671e+01 1.966557e+01 3.777231e+00 3.419018e+00 2.919791e+00 3.499792e+00 3.027243e+00 3.498280e+00 2.689294e+00 3.138974e+00 3.289457e+00 2.708562e+00 2.182661e+00 2.060487e+00 8.264714e+00 5.860840e-01 7.257015e-01 5.131915e-01 6.656504e-01 5.464917e-01 8.217681e-01 8.717465e-01 8.785137e-01 7.817761e-01 6.206526e-01 6.060086e-01 5.724667e-01 7.854007e-01
<GCONST> 1.271113e+02
<MIXTURE> 3 2.508663e-01
<MEAN> 39
 -2.146792e+01 -1.402794e+01 -3.076050e+00 -1.329860e+01 -9.713702e+00 -3.574965e+00 -1.371909e+00 -4.150515e+00 -2.205058e+00 2.899239e+00 -3.100841e+00 4.272137e-01 5.660658e+01 -2.050468e-01 -6.191149e-01 6.662573e-01 -3.338296e+00 -1.425669e+00 -5.172413e-01 2.332532e-01 -6.356863e-01 3.908405e-01 7.772875e-01 -3.417869e-01 3.046927e-01 6.747108e+00 1.031923e-01 1.522107e+00 1.732192e-01 9.646927e-01 4.878792e-01 2.006902e-01 1.294801e-01 2.963544e-01 -1.359593e-02 -3.743729e-01 1.871775e-01 -7.163583e-02 -1.904942e+00
<VARIANCE> 39
 1.054331e+01 1.866686e+01 1.463915e+01 2.210782e+01 2.281791e+01 2.131084e+01 2.843645e+01 2.742921e+01 4.405542e+01 3.263948e+01 2.100253e+01 2.263426e+01 3.152182e+01 9.012500e-01 3.249738e+00 1.834970e+00 2.300561e+00 2.220351e+00 2.050906e+00 2.082802e+00 2.012567e+00 2.427565e+00 2.411404e+00 1.680556e+00 1.785123e+00 4.551973e+00 2.626540e-01 4.496562e-01 3.883326e-01 4.955713e-01 5.096123e-01 5.156440e-01 5.473222e-01 5.442675e-01 7.277586e-01 6.755208e-01 4.788596e-01 4.694820e-01 1.105567e+00
<GCONST> 1.138822e+02
<MIXTURE> 4 2.438836e-01
<MEAN> 39
 -1.838573e+01 -8.898593e+00 -5.626135e+00 -2.447865e+00 -3.198851e+00 -3.276087e+00 -1.596735e+00 1.309182e+00 -2.549774e+00 1.098424e+00 -9.208366e-01 -2.172791e-01 4.138030e+01 6.871560e-01 -2.202626e+00 -1.214158e+00 -2.359432e+00 -6.537846e-01 -9.938378e-01 -2.166360e-01 4.090816e-01 -1.242922e-01 6.426817e-01 -8.193490e-02 6.943383e-02 5.533234e+00 1.141703e-01 6.276386e-01 2.517041e-01 -3.072038e-01 -2.606096e-01 -2.951411e-01 -1.189061e-01 -2.006034e-01 -9.283115e-02 -7.281669e-02 2.203128e-02 -2.502630e-02 6.308452e-01
<VARIANCE> 39
 2.949594e+01 4.878054e+01 4.737939e+01 4.054095e+01 4.138181e+01 4.266983e+01 3.681796e+01 3.329077e+01 3.584461e+01 2.463532e+01 1.657704e+01 1.697316e+01 4.662227e+01 3.211352e+00 4.688673e+00 5.001527e+00 5.572588e+00 4.415906e+00 5.237817e+00 4.393105e+00 4.354522e+00 4.213188e+00 3.670188e+00 3.017563e+00 2.779218e+00 1.296215e+01 8.185796e-01 9.238948e-01 7.802871e-01 8.579293e-01 6.814060e-01 1.031955e+00 6.175092e-01 7.074083e-01 7.478361e-01 5.881985e-01 4.662443e-01 4.409323e-01 1.035909e+00
<GCONST> 1.326920e+02
<MIXTURE> 5 1.462304e-01
<MEAN> 39
 -1.437667e+01 -1.446346e+01 -1.616807e+01 -7.958728e+00 -5.916376e-01 -5.839675e+00 -7.282909e+00 2.828731e+00 -3.649164e+00 1.772348e+00 -2.537567e+00 -5.176485e-01 5.448860e+01 9.920714e-01 -1.492719e+00 -1.604847e+00 -1.904087e+00 -1.692535e-01 -1.637642e+00 -7.757142e-01 5.894157e-01 -5.581627e-03 6.466345e-01 -2.332969e-01 -1.404705e-01 5.932518e+00 -5.900927e-01 1.298378e+00 1.290715e+00 6.355506e-01 -3.532130e-01 6.429639e-02 5.413865e-01 -3.919576e-01 1.760956e-01 -2.970244e-01 2.635736e-01 -1.443078e-02 -1.427538e+00
<VARIANCE> 39
 1.725376e+01 3.752921e+01 4.284939e+01 5.200095e+01 3.956327e+01 6.507163e+01 5.756728e+01 3.464310e+01 4.257273e+01 3.709295e+01 3.165652e+01 2.363320e+01 2.661753e+01 3.736075e+00 3.372292e+00 4.262812e+00 4.466318e+00 3.849650e+00 5.432073e+00 4.134652e+00 3.004596e+00 3.890970e+00 2.980765e+00 2.556594e+00 2.212195e+00 5.652926e+00 7.188691e-01 9.146734e-01 6.435388e-01 9.607778e-01 6.873182e-01 1.151158e+00 9.592010e-01 7.428024e-01 9.103424e-01 7.614753e-01 6.294407e-01 5.152864e-01 9.171453e-01
<GCONST> 1.324781e+02
<STATE> 4
<NUMMIXES> 6
<MIXTURE> 1 1.431234e-01
<MEAN> 39
 -1.934033e+01 -9.091549e+00 -8.649950e+00 -5.038035e+00 -4.324041e+00 -9.970999e+00 -2.332141e+00 3.503538e+00 -1.535974e+00 1.074726e+00 -5.887778e-01 -3.395198e-01 5.502687e+01 -9.976745e-01 1.843218e+00 1.430360e+00 2.271189e-01 1.100682e-01 -2.807751e-02 1.000057e+00 -2.803033e-02 7.069461e-01 -5.262340e-01 -3.140791e-02 9.633793e-02 2.928000e-01 1.248779e-01 4.549070e-01 2.134862e-01 2.729834e-01 1.950334e-01 6.603619e-01 6.548783e-02 -3.735720e-01 -8.978844e-02 -2.622520e-01 -1.060159e-01 -7.417706e-03 -1.310714e+00
<VARIANCE> 39
 3.280980e+01 2.011466e+01 4.042799e+01 3.169505e+01 4.788360e+01 4.320279e+01 4.626958e+01 3.068277e+01 4.148018e+01 3.031545e+01 2.546837e+01 2.137454e+01 3.898243e+01 5.822572e+00 3.806353e+00 3.575287e+00 2.739434e+00 3.737132e+00 3.690913e+00 3.361227e+00 2.951525e+00 3.234635e+00 2.578801e+00 2.789018e+00 1.990368e+00 6.087724e+00 5.113394e-01 5.338687e-01 5.987040e-01 4.609168e-01 6.492034e-01 6.877708e-01 6.177257e-01 5.596477e-01 7.993066e-01 6.051376e-01 5.667839e-01 4.867589e-01 1.008377e+00
<GCONST> 1.267981e+02
<MIXTURE> 2 2.100922e-01
<MEAN> 39
 -1.372526e+01 -6.298995e+00 1.876133e+00 -7.097157e+00 -1.297673e+01 -5.752220e+00 2.720835e+00 -7.480352e-02 -4.109278e+00 -5.020474e-01 -9.616171e-01 -1.985747e+00 5.636412e+01 3.674565e+00 -8.023291e-01 4.236801e-01 5.771543e-01 -2.355554e+00 -1.459324e+00 -1.043893e+00 9.640384e-01 -2.433485e-01 -1.401991e+00 1.019062e+00 -5.712709e-01 1.585113e+00 1.076733e-01 -6.905457e-01 -4.198717e-01 -5.463231e-01 -2.769529e-01 -1.695847e-01 -8.869003e-01 6.791849e-02 2.602887e-01 1.159753e-01 1.500905e-01 1.306729e-01 6.864077e-01
<VARIANCE> 39
 2.939631e+01 1.782749e+01 3.181607e+01 2.311559e+01 4.239219e+01 3.532949e+01 5.153820e+01 3.037949e+01 2.603145e+01 2.551296e+01 2.277449e+01 2.098636e+01 2.078876e+01 1.237709e+00 2.268329e+00 3.157660e+00 2.516325e+00 3.767107e+00 4.208474e+00 5.951581e+00 5.039840e+00 4.617851e+00 3.666517e+00 3.419351e+00 2.469442e+00 2.005475e+00 4.370804e-01 4.283358e-01 3.830955e-01 3.538065e-01 5.752063e-01 4.950749e-01 5.608694e-01 5.297621e-01 4.423785e-01 4.847875e-01 4.399496e-01 3.870895e-01 2.798058e-01
<GCONST> 1.191102e+02
<MIXTURE> 3 1.915727e-01
<MEAN> 39
 -2.283697e+01 -5.077601e+00 1.372287e-01 -1.200916e+01 -8.471499e+00 -2.722624e+00 -9.360340e-01 -3.619615e+00 -1.897574e+00 1.215958e+00 -2.675735e+00 6.035630e-01 5.729353e+01 1.064360e+00 4.155432e-01 1.121607e+00 9.808894e-01 -4.957621e-01 -2.531322e-01 9.898233e-01 3.810313e-01 -4.852602e-01 -7.131715e-01 1.892713e-01 -3.309402e-01 -5.101675e-01 6.974050e-01 -5.045324e-01 -9.527869e-02 2.901923e-01 -3.527724e-01 -2.645533e-01 -3.845741e-02 2.443526e-01 -2.093766e-01 -1.529160e-01 1.093562e-01 -1.705385e-01 -2.433817e-01
<VARIANCE> 39
 1.684187e+01 1.428852e+01 2.574229e+01 2.608613e+01 2.644287e+01 2.256971e+01 3.049755e+01 2.153140e+01 2.537945e+01 2.223850e+01 1.822169e+01 1.611131e+01 1.603071e+01 1.492142e+00 1.659638e+00 1.399769e+00 1.667728e+00 2.123479e+00 2.147981e+00 2.374547e+00 2.258165e+00 2.120555e+00 2.620160e+00 1.616866e+00 1.619010e+00 8.822880e-01 3.446622e-01 3.805192e-01 4.044820e-01 3.078448e-01 5.352197e-01 4.351666e-01 5.738993e-01 4.578236e-01 4.954196e-01 4.903139e-01 4.160925e-01 3.072378e-01 4.776179e-01
<GCONST> 1.077254e+02
<MIXTURE> 4 1.232477e-01
<MEAN> 39
 -1.286763e+01 -5.695680e+00 -2.339613e+00 -1.587227e+01 -1.120278e+01 -2.827731e+00 -6.325907e-01 -8.955196e+00 -7.563484e+00 -4.723535e+00 -1.087034e+01 -3.695199e+00 5.763215e+01 3.013751e+00 -4.282879e-01 -6.730634e-01 -1.498473e+00 -2.627462e+00 -1.734043e+00 -1.419929e+00 -7.127798e-01 -1.955156e+00 -4.718204e-01 -1.575562e+00 -1.591646e+00 1.754315e+00 -2.012880e-01 -4.163225e-01 -3.526445e-01 -9.808096e-02 8.451980e-02 -1.000741e-01 1.169935e-01 9.180719e-01 7.312564e-01 6.774082e-01 6.747203e-01 3.865882e-01 3.204988e-01
<VARIANCE> 39
 2.521585e+01 2.401425e+01 4.373962e+01 4.982823e+01 8.339951e+01 6.970545e+01 5.639867e+01 3.892698e+01 4.125472e+01 3.426269e+01 3.899366e+01 3.275668e+01 2.014382e+01 1.340515e+00 2.869518e+00 2.868860e+00 3.194294e+00 4.067050e+00 4.564560e+00 3.988190e+00 4.253809e+00 6.310445e+00 4.648621e+00 4.483289e+00 3.165681e+00 8.258901e-01 4.393943e-01 3.777361e-01 3.631758e-01 4.379531e-01 8.516573e-01 7.805003e-01 8.374441e-01 5.138510e-01 6.346099e-01 5.313343e-01 5.179425e-01 5.966553e-01 2.825836e-01
<GCONST> 1.262853e+02
<MIXTURE> 5 1.267073e-01
<MEAN> 39
 -2.178666e+01 -3.940618e+00 -1.008023e+00 -1.618475e+01 -6.861542e+00 1.548351e+00 2.219734e+00 -3.518508e+00 1.342943e+00 -6.636493e-01 -2.854577e+00 1.685830e+00 5.578040e+01 1.084548e+00 -3.794147e-01 6.392825e-01 -1.740175e-01 -1.282158e+00 3.187193e-01 9.152629e-01 -8.751312e-01 -1.801247e+00 -6.774790e-01 -1.565823e+00 -6.216457e-01 -3.375484e-01 5.733317e-01 -4.842139e-01 -2.557857e-01 -3.508144e-02 -5.779496e-01 -5.328819e-01 -4.631809e-01 -2.977535e-01 -5.829845e-01 -1.662070e-01 -3.597087e-01 -3.236920e-01 1.968751e-01
<VARIANCE> 39
 1.162254e+01 1.792519e+01 2.673507e+01 2.046903e+01 2.422623e+01 2.765769e+01 3.991927e+01 2.315145e+01 2.507285e+01 2.216011e+01 2.028694e+01 1.604587e+01 1.153096e+01 1.605361e+00 2.280649e+00 1.909625e+00 1.753952e+00 3.488034e+00 3.235609e+00 3.941179e+00 3.101934e+00 3.583120e+00 2.647572e+00 2.950538e+00 2.665100e+00 7.728823e-01 3.110032e-01 6.776730e-01 3.495654e-01 3.833189e-01 6.780925e-01 6.677747e-01 6.241339e-01 5.017418e-01 5.500954e-01 4.730372e-01 5.047739e-01 4.297225e-01 3.255416e-01
<GCONST> 1.131791e+02
<MIXTURE> 6 2.052505e-01
<MEAN> 39
 -1.576155e+01 -1.070878e+01 -1.117696e+01 -6.132160e+00 -9.945771e-01 -4.719298e+00 -3.155752e+00 -2.594680e-01 -1.197623e+00 1.280474e+00 -1.885512e+00 -2.394425e-01 5.278534e+01 1.338778e+00 6.044962e-01 6.147588e-01 5.698201e-02 -2.208617e-01 2.712437e-01 -6.946579e-02 -1.096110e+00 -4.757993e-01 -7.368166e-01 -4.037908e-01 -5.122485e-01 -9.595650e-02 7.464111e-01 8.650364e-02 -8.898541e-02 -4.078979e-01 -3.819041e-01 -1.925462e-03 -4.900978e-01 -1.075338e-01 -3.938555e-01 -1.157855e-01 1.691216e-02 -1.675596e-01 1.068984e-01
<VARIANCE> 39
 1.732677e+01 2.267979e+01 3.655217e+01 4.248368e+01 3.345257e+01 5.334116e+01 5.511732e+01 3.820757e+01 3.926691e+01 3.262380e+01 2.652867e+01 2.579463e+01 6.354976e+01 3.787723e+00 2.557613e+00 2.793550e+00 3.141597e+00 3.596130e+00 4.092797e+00 4.499067e+00 3.554118e+00 3.980512e+00 3.441958e+00 3.592934e+00 2.474955e+00 2.727684e+00 4.967470e-01 4.921162e-01 6.026382e-01 5.456671e-01 7.022007e-01 7.583483e-01 7.628639e-01 6.076019e-01 7.880564e-01 7.324123e-01 6.633349e-01 5.324281e-01 6.985529e-01
<GCONST> 1.278147e+02
<TRANSP> 5
 0.000000e+00 1.000000e+00 0.000000e+00 0.000000e+00 0.000000e+00
 0.000000e+00 7.707886e-01 2.292114e-01 0.000000e+00 0.000000e+00
 0.000000e+00 0.000000e+00 6.483114e-01 3.516886e-01 0.000000e+00
 0.000000e+00 0.000000e+00 0.000000e+00 7.396915e-01 2.603085e-01
 0.000000e+00 0.000000e+00 0.000000e+00 0.000000e+00 0.000000e+00
<ENDHMM>
~h "l"
<BEGINHMM>
<NUMSTATES> 5
<STATE> 2
<NUMMIXES> 5
<MIXTURE> 1 1.389679e-01
<MEAN> 39
 -1.634111e+00 -1.346705e+01 -1.259962e+01 -2.009292e+01 -9.633973e+00 2.644247e+00 -6.956377e+00 -7.530970e+00 5.278654e+00 3.112615e+00 8.670117e-01 -9.489779e+00 6.639121e+01 4.394657e-01 1.127468e+00 -9.819748e-02 -2.316603e+00 3.808309e-01 1.807059e+00 6.349747e-01 -1.583762e+00 -1.007268e+00 1.636410e-01 1.018213e+00 1.005277e+00 -7.022855e-01 2.557820e-02 1.949101e-01 1.919668e-01 1.878183e-01 -3.695049e-01 -3.863077e-01 1.439137e-01 3.607916e-01 -2.483390e-01 -3.792433e-01 -9.991124e-02 5.954939e-01 -1.796388e-01
<VARIANCE> 39
 8.627486e+00 3.452386e+01 3.470519e+01 4.369540e+01 6.311894e+01 6.061168e+01 1.119662e+02 7.680907e+01 4.667868e+01 3.859845e+01 5.804232e+01 4.335382e+01 1.696008e+01 4.125626e-01 1.041061e+00 1.668758e+00 1.765474e+00 2.197839e+00 2.223940e+00 3.124059e+00 2.619998e+00 1.991438e+00 2.666020e+00 2.569628e+00 3.983293e+00 3.235695e-01 2.000000e-01 2.000000e-01 2.066109e-01 2.758064e-01 3.606787e-01 3.130136e-01 3.946085e-01 4.209503e-01 3.822190e-01 3.229440e-01 4.294022e-01 5.145764e-01 2.000000e-01
<GCONST> 1.116848e+02
<MIXTURE> 2 2.478402e-01
<MEAN> 39
 -2.816828e+00 3.281134e+00 -9.025424e+00 -1.810509e+01 -9.030804e+00 -2.573686e+00 -6.633238e+00 -9.031423e+00 -7.182432e+00 -3.106395e+00 -1.275577e+00 -2.527645e+00 5.251752e+01 2.671278e+00 -7.859656e-02 -8.784409e-01 -3.243676e+00 -1.127763e+00 2.943937e-01 -1.317380e+00 -8.603392e-01 -9.388301e-01 -1.058633e-01 5.685847e-01 -1.395178e-01 2.080230e+00 -9.235249e-01 -8.978040e-01 -5.344050e-02 3.365249e-01 4.467970e-01 2.293276e-01 1.773326e-02 6.163981e-01 5.614597e-01 3.447939e-01 1.275163e-01 8.710935e-03 -3.785918e-03
<VARIANCE> 39
 1.548475e+01 2.900296e+01 3.246779e+01 4.197147e+01 4.275554e+01 5.215034e+01 6.472822e+01 5.608511e+01 3.437461e+01 4.258511e+01 4.839604e+01 2.417343e+01 3.978482e+01 3.528854e+00 2.968726e+00 2.799449e+00 4.828146e+00 5.562335e+00 4.880861e+00 4.795297e+00 4.039164e+00 4.715758e+00 4.313286e+00 3.516962e+00 2.815864e+00 3.422783e+00 4.825907e-01 3.381499e-01 3.528719e-01 6.421593e-01 6.872457e-01 5.832920e-01 8.340585e-01 6.579219e-01 6.346204e-01 6.551960e-01 5.594627e-01 4.439783e-01 4.384128e-01
<GCONST> 1.287927e+02
<MIXTURE> 3 2.812524e-01
<MEAN> 39
 3.774180e-01 -2.304976e+00 -1.144827e+01 -2.728968e+01 -1.529655e+01 4.728322e+00 1.204738e+00 -8.960414e+00 1.353058e+00 -4.213609e+00 1.068562e-01 8.805993e-01 5.799316e+01 3.786547e-02 8.526440e-01 2.332164e-01 3.772765e-01 -2.075492e-01 -3.555612e-01 -1.799593e-01 4.039246e-01 -2.808561e-01 -3.678967e-01 -2.833169e-01 3.770668e-01 -8.674017e-01 -1.597708e-01 -2.403009e-01 -1.782405e-02 3.751910e-01 3.388160e-01 -5.423965e-02 -2.189088e-01 1.216881e-01 1.046360e-03 1.894758e-01 7.824150e-02 -2.863949e-01 4.564745e-02
<VARIANCE> 39
 7.629437e+00 4.944835e+01 3.640490e+01 5.100732e+01 6.187743e+01 5.577348e+01 9.704498e+01 7.086390e+01 3.073108e+01 4.775890e+01 3.516210e+01 4.237739e+01 3.168542e+01 3.172803e-01 1.527750e+00 8.785751e-01 1.974824e+00 2.339615e+00 1.858676e+00 2.063749e+00 1.901713e+00 1.906521e+00 1.777424e+00 1.624978e+00 1.602675e+00 5.808759e-01 2.000000e-01 2.712744e-01 2.000000e-01 3.461790e-01 3.339095e-01 3.443755e-01 3.377004e-01 3.278727e-01 3.429070e-01 3.527778e-01 2.504587e-01 3.845173e-01 2.000000e-01
<GCONST> 1.084617e+02
<MIXTURE> 4 1.889941e-01
<MEAN> 39
 -1.886373e+00 -2.748020e+00 -1.805987e+01 -2.847808e+01 -1.921976e+00 3.872434e+00 -7.603700e+00 -2.705839e+00 -6.368288e+00 -2.143387e+00 -1.341682e+00 -2.693947e+00 5.732808e+01 1.117256e-01 1.035486e+00 2.286448e-01 6.136735e-02 -6.025621e-01 -4.500106e-01 4.150155e-01 -7.893706e-02 -6.386003e-01 -4.643213e-01 4.273290e-01 -4.777421e-02 -9.062298e-01 -1.309367e-01 -1.724307e-01 1.668703e-01 4.734795e-01 -2.380714e-02 -2.193604e-01 -4.786814e-03 -1.779473e-01 1.964869e-01 1.891111e-02 -2.858626e-01 -7.713324e-02 -2.053678e-02
<VARIANCE> 39
 8.433154e+00 2.554889e+01 2.880762e+01 2.816480e+01 3.586313e+01 4.313422e+01 8.451436e+01 3.280359e+01 3.816373e+01 8.207198e+01 3.545847e+01 2.006471e+01 2.871563e+01 2.453924e-01 8.571953e-01 8.951578e-01 1.990381e+00 1.599087e+00 1.507772e+00 1.595324e+00 1.661513e+00 1.157465e+00 1.754999e+00 1.271916e+00 1.480859e+00 2.900864e-01 2.000000e-01 2.000000e-01 2.000000e-01 2.588279e-01 2.775252e-01 2.216951e-01 2.544363e-01 2.619721e-01 2.180946e-01 2.000000e-01 2.000000e-01 2.000000e-01 2.000000e-01
<GCONST> 9.833514e+01
<MIXTURE> 5 1.429441e-01
<MEAN> 39
 -4.162334e+00 -9.000536e+00 -1.188696e+01 -2.243049e+01 -5.199017e+00 -5.665463e-01 -1.361249e+01 -5.369038e+00 -4.693668e-01 1.563353e+00 -5.898815e+00 -2.537765e+00 6.356965e+01 6.160803e-01 1.730502e+00 -7.420143e-01 -1.989290e+00 8.143759e-01 1.574397e+00 -4.213765e-01 -1.001232e+00 -1.060124e+00 3.489645e-01 1.099727e+00 4.958719e-01 -1.002073e+00 -6.667486e-03 7.888918e-02 2.630730e-01 2.108655e-01 -5.031312e-01 -2.619500e-01 4.004333e-01 4.044553e-01 -3.004519e-01 -4.538783e-01 2.281143e-01 1.353722e-01 -1.319027e-01
<VARIANCE> 39
 8.980807e+00 4.247614e+01 5.352873e+01 6.836550e+01 4.427452e+01 6.042733e+01 7.453834e+01 7.816753e+01 6.032946e+01 7.135994e+01 5.952732e+01 4.248828e+01 2.286733e+01 5.311671e-01 1.316354e+00 1.779832e+00 2.132756e+00 3.825497e+00 3.736195e+00 4.440460e+00 4.074677e+00 4.241442e+00 4.906962e+00 4.350716e+00 5.128709e+00 7.113239e-01 2.000000e-01 2.069555e-01 2.463421e-01 5.122026e-01 3.657009e-01 6.219379e-01 5.937421e-01 7.699604e-01 7.840527e-01 6.537951e-01 8.059527e-01 5.932439e-01 2.000000e-01
<GCONST> 1.235189e+02
<STATE> 3
<NUMMIXES> 4
<MIXTURE> 1 2.432409e-01
<MEAN> 39
 -7.347991e-01 -2.750736e+00 -7.867655e+00 -2.767850e+01 -1.558447e+01 7.059028e+00 -7.853509e+00 -6.453815e+00 -3.543927e+00 -3.844777e+00 1.241507e+00 5.461776e-01 5.976567e+01 8.683556e-02 -1.642553e+00 -6.602864e-01 -7.331018e-01 5.272612e-01 1.199167e+00 -1.113213e+00 2.349271e-01 5.439528e-01 8.032624e-01 1.050636e+00 -5.646571e-01 1.334881e+00 -6.148249e-01 -3.878661e-01 -2.152262e-02 9.711597e-01 7.178583e-01 -4.022737e-01 6.606951e-02 3.081383e-01 3.708126e-01 4.268091e-01 -2.512826e-01 -5.374407e-01 -1.172836e-01
<VARIANCE> 39
 8.166700e+00 2.906370e+01 3.857555e+01 4.980434e+01 4.560713e+01 3.141912e+01 6.699341e+01 7.720913e+01 5.213649e+01 5.234170e+01 6.199339e+01 3.788589e+01 1.978982e+01 1.435058e+00 4.011087e+00 1.954162e+00 5.600686e+00 3.982988e+00 4.635262e+00 5.882874e+00 3.442379e+00 3.824564e+00 6.334836e+00 3.012837e+00 3.140354e+00 2.684001e+00 5.346771e-01 3.204756e-01 4.718653e-01 6.757560e-01 7.142981e-01 6.441622e-01 9.045463e-01 9.178227e-01 8.994635e-01 7.374943e-01 7.731302e-01 4.896834e-01 2.617890e-01
<GCONST> 1.290822e+02
<MIXTURE> 2 2.205850e-01
<MEAN> 39
 -2.273708e+00 1.731644e+00 -1.167255e+01 -2.177336e+01 -5.958739e+00 -8.817685e+00 -7.130939e+00 -4.819000e+00 -6.842112e+00 -1.293178e+00 -6.578167e+00 3.937788e-01 5.445415e+01 -2.584033e-01 -5.910212e-01 -1.800016e-01 8.152674e-02 7.773382e-01 3.580586e-01 -1.118947e-01 6.921346e-01 2.424187e-01 8.215999e-02 -5.392793e-02 -7.972705e-02 4.615391e-01 -3.496766e-01 -5.120922e-01 1.276495e-01 4.011152e-01 5.510396e-03 6.641216e-01 -2.007478e-02 1.551363e-01 2.772206e-01 -2.250744e-01 1.903379e-01 -1.390865e-01 3.721936e-02
<VARIANCE> 39
 1.386478e+01 2.837367e+01 3.562617e+01 7.742474e+01 6.001440e+01 9.188091e+01 1.135270e+02 5.239087e+01 5.352718e+01 7.144289e+01 4.783223e+01 3.154156e+01 2.631982e+01 1.000410e+00 2.958507e+00 2.480838e+00 5.539922e+00 3.451310e+00 4.619194e+00 2.934061e+00 3.538303e+00 3.530846e+00 3.099305e+00 1.925084e+00 1.992406e+00 3.025652e+00 3.133561e-01 2.363352e-01 3.372642e-01 8.011635e-01 5.812654e-01 6.538998e-01 7.003417e-01 6.705719e-01 7.055858e-01 5.706080e-01 3.598969e-01 3.677318e-01 2.000000e-01
<GCONST> 1.252013e+02
<MIXTURE> 3 3.381032e-01
<MEAN> 39
 -2.231659e+00 1.261157e+00 -9.404127e+00 -2.266733e+01 -5.798414e+00 6.538144e-01 -1.109277e+01 -8.499187e+00 -7.329057e+00 -4.489140e+00 4.162321e+00 -2.702538e+00 5.646970e+01 -2.816255e-01 -8.929669e-01 -2.616169e-01 1.835848e-01 4.944376e-01 -1.755360e-01 -4.869645e-01 4.639047e-02 6.712343e-01 8.373982e-01 -1.396215e-01 -4.615707e-01 8.519683e-01 -1.462818e-01 -5.365181e-01 -5.207180e-02 3.561912e-01 -7.601223e-02 -1.620763e-01 -5.087749e-02 1.841870e-01 6.524903e-01 4.565007e-01 -5.535752e-01 -2.400460e-01 2.076775e-01
<VARIANCE> 39
 7.692333e+00 2.805169e+01 3.869651e+01 7.127900e+01 4.107425e+01 4.494309e+01 7.747958e+01 9.011150e+01 7.223597e+01 7.089680e+01 4.652526e+01 4.242592e+01 2.807028e+01 3.503330e-01 1.317685e+00 9.481152e-01 2.265691e+00 1.526277e+00 1.921474e+00 1.796099e+00 2.810372e+00 3.332983e+00 3.052728e+00 2.114756e+00 2.015203e+00 9.388228e-01 2.000000e-01 3.014856e-01 2.000000e-01 4.845676e-01 3.591538e-01 4.588905e-01 4.511791e-01 6.782919e-01 6.854752e-01 7.128181e-01 5.256233e-01 4.560245e-01 2.000000e-01
<GCONST> 1.153188e+02
<MIXTURE> 4 1.980699e-01
<MEAN> 39
 -3.931838e+00 -3.986623e-01 -1.184155e+01 -1.642572e+01 -2.494635e+00 -5.328769e+00 -1.515301e+01 -9.625388e+00 -4.747441e+00 9.438409e-01 -1.573031e+00 -5.913042e+00 5.703659e+01 -4.051383e-01 -2.021991e+00 1.666958e-02 5.913097e-01 -5.250517e-01 -8.703975e-01 -5.253437e-01 1.936366e+00 2.038018e+00 6.380363e-01 -1.307637e+00 -5.530664e-01 1.496512e+00 -2.075060e-01 -5.445451e-01 3.733963e-01 1.529504e-01 -6.276227e-01 -1.743454e-01 5.681824e-01 1.000982e+00 2.457412e-01 -4.776382e-01 -4.017227e-01 3.735354e-01 1.632883e-01
<VARIANCE> 39
 1.001253e+01 2.149541e+01 5.401882e+01 4.461782e+01 2.951834e+01 3.987460e+01 7.106137e+01 5.369243e+01 5.474806e+01 5.228857e+01 5.367754e+01 2.530709e+01 3.030085e+01 9.797426e-01 2.701077e+00 1.686033e+00 4.168864e+00 4.042176e+00 4.549532e+00 5.602269e+00 6.405660e+00 5.247761e+00 4.581756e+00 4.262744e+00 2.603539e+00 2.060578e+00 2.328027e-01 2.740156e-01 3.134640e-01 5.176513e-01 5.804604e-01 6.720493e-01 8.276638e-01 7.420533e-01 8.657362e-01 6.202629e-01 7.195542e-01 4.312767e-01 2.028311e-01
<GCONST> 1.250769e+02
<STATE> 4
<NUMMIXES> 5
<MIXTURE> 1 1.403591e-01
<MEAN> 39
 -9.026835e-01 -1.182685e+01 -9.224234e+00 -2.520982e+01 -1.220629e+01 8.825353e+00 -1.221530e+01 -4.961231e+00 -3.455747e-01 3.347160e+00 3.084314e+00 -6.067956e+00 6.500007e+01 -8.401953e-03 -2.317521e+00 4.151121e-02 8.898429e-01 4.132525e-01 4.030139e-03 -9.618099e-01 1.386247e+00 1.688550e+00 9.282894e-01 -8.314738e-01 -1.681740e+00 8.883391e-01 -1.977330e-01 5.158415e-01 2.222058e-01 6.993993e-01 4.995294e-02 -8.082315e-01 3.563363e-01 1.543448e-01 -6.967542e-02 -6.174005e-01 -4.555910e-01 3.290170e-01 -4.382013e-01
<VARIANCE> 39
 8.429654e+00 3.229190e+01 3.174552e+01 6.365320e+01 5.800615e+01 5.734920e+01 6.541277e+01 6.166812e+01 4.147789e+01 6.404041e+01 6.627721e+01 4.525211e+01 1.594271e+01 6.738421e-01 2.156313e+00 1.805652e+00 2.934919e+00 2.923853e+00 5.814646e+00 4.427242e+00 4.634392e+00 4.365663e+00 3.726698e+00 5.062537e+00 2.969634e+00 1.108701e+00 2.000000e-01 2.299395e-01 2.672063e-01 3.764467e-01 5.504127e-01 6.131904e-01 5.223115e-01 5.940586e-01 6.955205e-01 6.790847e-01 5.996479e-01 5.273923e-01 2.000000e-01
<GCONST> 1.223223e+02
<MIXTURE> 2 2.672181e-01
<MEAN> 39
 -6.065150e+00 -1.291722e+01 -3.385171e+00 -1.495382e+01 -1.329636e+01 -1.031052e+01 -1.027005e+01 6.323068e+00 -1.832386e+00 -4.750756e+00 -6.230594e+00 2.179276e-01 6.373418e+01 -5.414163e-01 -1.251152e-01 2.146247e+00 3.533962e-01 -2.341413e+00 -4.008256e-01 1.776641e+00 2.558275e-01 -2.279834e+00 -8.251804e-01 1.546060e+00 8.948522e-01 -1.578246e-01 4.408121e-02 4.518723e-01 -5.995023e-02 -3.151954e-01 2.576847e-01 5.135312e-01 -1.208072e-01 -9.562017e-01 -2.623763e-01 5.978976e-01 3.959953e-01 -5.316213e-01 -2.787406e-01
<VARIANCE> 39
 8.886003e+00 3.182592e+01 6.856681e+01 3.150402e+01 7.661903e+01 6.105503e+01 5.235670e+01 5.875792e+01 7.000312e+01 7.128844e+01 5.363094e+01 3.704233e+01 3.024265e+01 3.395472e-01 1.261513e+00 1.443447e+00 1.593375e+00 2.609799e+00 2.713869e+00 1.775424e+00 3.370512e+00 2.343678e+00 3.554535e+00 2.018388e+00 2.466331e+00 5.624288e-01 2.000000e-01 2.000000e-01 2.090574e-01 2.605583e-01 4.159316e-01 5.016555e-01 4.362009e-01 5.489025e-01 6.673353e-01 3.968463e-01 6.565696e-01 3.196721e-01 2.000000e-01
<GCONST> 1.142572e+02
<MIXTURE> 3 2.841817e-01
<MEAN> 39
 -4.097475e+00 -1.209866e+01 -9.561171e+00 -1.710047e+01 -6.725166e+00 -5.192596e+00 -1.424726e+01 -3.485905e-01 5.301385e+00 2.081522e+00 -7.012493e+00 -8.015448e+00 6.437547e+01 -5.294993e-01 -1.429443e+00 1.414867e+00 1.595897e+00 -1.384632e+00 -1.965686e+00 6.314871e-01 2.848600e+00 6.587937e-01 -1.902785e+00 -1.604868e+00 1.111360e+00 5.336856e-01 -1.632909e-03 5.438893e-01 4.047989e-01 -1.373049e-01 -4.681432e-01 1.146589e-01 6.027114e-01 -2.981627e-01 -1.092713e+00 -5.039829e-01 8.249266e-01 6.948088e-01 -4.023589e-01
<VARIANCE> 39
