~o
<STREAMINFO> 1 39
<VECSIZE> 39<NULLD><MFCC_D_A_0><DIAGC>
~h "b"
<BEGINHMM>
<NUMSTATES> 5
<STATE> 2
<NUMMIXES> 2
<MIXTURE> 1 3.632009e-01
<MEAN> 39
 -1.664765e+01 1.599003e+00 -2.826120e+00 7.627115e-01 -2.981653e+00 -3.240901e+00 -5.579078e+00 -4.619924e+00 -5.009721e+00 -3.995454e+00 -4.313716e+00 -3.123419e+00 3.223867e+01 -8.097298e-01 -7.196492e-01 -3.003937e-01 -2.701418e-01 1.290421e-01 4.366868e-01 7.563784e-01 7.450987e-01 5.526718e-01 4.324625e-01 5.369053e-01 5.603837e-01 3.761247e-01 2.689202e-01 -4.512627e-01 4.096045e-02 -4.665920e-01 -4.134098e-01 -3.559130e-01 3.629026e-02 1.706698e-01 -5.321886e-02 9.703276e-02 -1.278039e-02 2.310690e-02 1.046766e+00
<VARIANCE> 39
 2.963408e+01 2.637600e+01 2.316415e+01 9.136370e+00 9.735557e+00 1.865574e+01 3.259813e+01 3.653273e+01 2.562308e+01 2.439059e+01 2.081584e+01 2.414665e+01 7.498558e+00 1.724648e+00 2.137339e+00 1.512839e+00 9.470305e-01 1.237258e+00 2.198609e+00 2.650796e+00 2.666561e+00 2.627806e+00 2.403259e+00 2.075123e+00 2.275069e+00 3.508390e+00 2.793990e-01 5.124852e-01 4.485690e-01 4.836887e-01 4.484600e-01 5.050296e-01 4.344842e-01 6.402852e-01 6.040147e-01 5.549958e-01 4.072736e-01 4.252282e-01 1.153821e+00
<GCONST> 1.109814e+02
<MIXTURE> 2 6.367989e-01
<MEAN> 39
 -7.886325e+00 4.297506e+00 -3.138577e-01 -1.244390e+00 -5.876746e+00 -9.257201e+00 -1.172088e+01 -9.962545e+00 -1.018332e+01 -7.130570e+00 -8.520575e+00 -8.235733e+00 3.866782e+01 -7.882178e-01 6.528308e-01 1.077465e+00 9.048674e-01 2.588600e-01 7.903875e-02 2.257281e-01 -5.276875e-01 -4.646748e-01 -8.177041e-01 -1.509127e-01 -2.602301e-01 -3.771480e-01 -1.596833e-01 -1.114538e+00 -1.680835e-01 -1.122502e+00 -5.942118e-01 3.689122e-02 4.767309e-01 6.577960e-01 3.053418e-01 5.937564e-01 1.870394e-01 5.502938e-01 1.401629e+00
<VARIANCE> 39
 1.587474e+01 2.161186e+01 1.543657e+01 2.540667e+01 2.005985e+01 2.614452e+01 2.366281e+01 2.603668e+01 3.010364e+01 2.816068e+01 2.550890e+01 2.637488e+01 3.146058e+01 4.086457e+00 4.086529e+00 2.329846e+00 5.994663e+00 3.710218e+00 3.201178e+00 2.971843e+00 3.690429e+00 4.057127e+00 3.499107e+00 2.677236e+00 2.812708e+00 8.048090e+00 4.534585e-01 8.335549e-01 8.633422e-01 1.101051e+00 8.043721e-01 6.928924e-01 7.251297e-01 9.824178e-01 9.384384e-01 7.671534e-01 6.565601e-01 5.215158e-01 1.874205e+00
<GCONST> 1.272349e+02
<STATE> 3
<NUMMIXES> 2
<MIXTURE> 1 3.964905e-01
<MEAN> 39
 -1.448255e+01 1.541816e+00 -1.358343e+00 -8.983900e-02 -2.648539e+00 -3.823136e+00 -6.463057e+00 -6.429292e+00 -7.647038e+00 -6.210622e+00 -5.486764e+00 -4.833344e+00 3.660510e+01 -4.034564e-01 -3.046426e+00 -5.719125e-01 -2.373219e+00 -1.286442e+00 -7.580661e-01 1.731118e+00 2.150578e+00 1.486924e+00 1.150120e+00 1.171492e+00 1.624058e+00 5.524995e+00 1.118664e+00 -4.899644e-01 1.441041e-01 -1.637247e+00 -1.066667e+00 -8.820086e-01 -5.793419e-01 -2.050306e-01 -2.303474e-01 6.760308e-01 -3.367586e-01 7.715192e-02 1.810260e+00
<VARIANCE> 39
 2.824931e+01 2.413993e+01 1.713294e+01 1.582252e+01 1.165631e+01 1.876567e+01 2.836949e+01 3.509778e+01 2.859202e+01 2.720076e+01 2.550812e+01 2.340107e+01 4.515993e+01 2.987187e+00 2.171236e+00 3.797851e+00 3.901044e+00 2.589131e+00 3.199104e+00 4.151330e+00 4.244763e+00 4.166629e+00 3.612154e+00 3.447391e+00 2.847127e+00 3.383083e+00 4.754719e-01 5.590154e-01 1.459257e+00 1.226929e+00 5.433854e-01 1.002214e+00 7.413971e-01 1.001490e+00 1.074295e+00 8.284579e-01 8.141251e-01 6.590291e-01 8.070617e-01
<GCONST> 1.261155e+02
<MIXTURE> 2 6.035094e-01
<MEAN> 39
 -1.351363e+01 -5.007068e+00 -1.682706e+00 -5.773041e+00 -7.191308e+00 -7.392385e+00 -4.240428e+00 -3.040084e+00 -4.919284e+00 -3.490093e+00 -3.516107e+00 -1.900468e+00 4.945542e+01 1.281995e+00 -2.037625e+00 1.693722e+00 -3.471176e+00 -3.104811e+00 -1.597100e+00 -1.306232e-01 4.894263e-02 -1.085702e+00 1.044258e+00 -1.116217e-01 4.135412e-01 5.487967e+00 5.821888e-01 3.215938e-01 4.733070e-01 -1.032459e+00 -6.909985e-01 -1.017919e-01 -8.579857e-01 -5.384158e-01 -6.593782e-01 4.930577e-01 -5.423548e-01 -2.980125e-01 -4.880424e-02
<VARIANCE> 39
 2.785629e+01 2.090887e+01 3.021566e+01 4.289847e+01 3.493140e+01 3.490193e+01 4.458112e+01 3.762875e+01 4.686351e+01 3.371311e+01 2.209312e+01 1.829529e+01 7.161733e+01 3.807935e+00 2.740095e+00 8.253345e+00 5.310671e+00 4.424327e+00 5.114975e+00 4.931338e+00 6.517873e+00 5.565702e+00 4.377369e+00 3.195351e+00 2.797346e+00 5.614915e+00 6.006672e-01 7.924448e-01 9.413042e-01 1.328189e+00 8.066081e-01 8.845572e-01 1.035659e+00 1.205966e+00 1.293229e+00 1.038451e+00 7.477002e-01 6.049451e-01 1.504971e+00
<GCONST> 1.364807e+02
<STATE> 4
<NUMMIXES> 2
<MIXTURE> 1 3.583322e-01
<MEAN> 39
 -4.988358e+00 -4.921944e+00 -5.696922e+00 -1.831298e+01 -1.007712e+01 -9.486843e+00 -1.089753e+01 -6.080613e+00 -5.398497e+00 -2.285290e-01 -6.035522e+00 -2.184212e+00 5.684928e+01 1.409685e+00 -1.051448e+00 -8.776733e-01 -3.170783e+00 -1.395410e+00 -9.745582e-01 -7.876004e-01 9.755598e-01 2.776464e-01 8.653320e-01 -5.373539e-01 8.261059e-01 2.472774e+00 -4.086727e-01 4.606915e-01 2.511206e-01 1.033409e+00 2.245966e-01 2.487810e-01 1.631158e-01 1.017704e-02 -3.781433e-01 -4.598686e-01 -6.310211e-02 -1.802701e-01 -1.114850e+00
<VARIANCE> 39
 2.199790e+01 2.632218e+01 1.109391e+02 9.102007e+01 3.795391e+01 5.685157e+01 6.961018e+01 7.014281e+01 4.184338e+01 4.196347e+01 3.950063e+01 2.276293e+01 1.619991e+01 4.341627e+00 4.334915e+00 7.926582e+00 1.228346e+01 3.821867e+00 8.081183e+00 7.552178e+00 6.090672e+00 7.663106e+00 6.167590e+00 6.447915e+00 3.530756e+00 7.047661e+00 4.233589e-01 2.690911e-01 9.778541e-01 1.157420e+00 5.741272e-01 6.777049e-01 1.099600e+00 1.061572e+00 1.124412e+00 7.557105e-01 7.532634e-01 5.402072e-01 3.989207e-01
<GCONST> 1.393734e+02
<MIXTURE> 2 6.416671e-01
<MEAN> 39
 -9.820327e+00 -6.292481e+00 8.214232e+00 -1.129405e+01 -1.770419e+01 -1.284810e+01 -7.603274e+00 -6.517311e+00 -1.324676e+01 -7.580694e-01 -4.814277e+00 -3.399255e+00 5.656287e+01 6.109091e-01 -2.378605e-01 3.718935e+00 -4.676321e+00 -3.340655e+00 -1.847798e-01 -1.432634e+00 -1.812510e+00 -2.361822e+00 2.018413e+00 -1.290416e+00 -3.487368e-01 2.932540e+00 -2.665239e-01 8.514531e-01 -4.260201e-01 -9.121172e-02 9.098017e-01 8.120571e-01 -5.852184e-01 -2.804843e-01 4.549171e-01 -6.295037e-02 -4.312122e-01 -8.868928e-02 -1.318461e+00
<VARIANCE> 39
 1.295825e+01 1.831186e+01 3.504319e+01 5.337267e+01 3.446203e+01 2.842457e+01 3.654570e+01 4.152969e+01 5.527383e+01 3.027251e+01 2.386495e+01 2.595437e+01 1.828946e+01 2.877462e+00 3.114700e+00 2.270425e+00 5.115416e+00 4.661507e+00 5.332233e+00 6.164937e+00 5.586226e+00 5.469151e+00 4.253612e+00 4.017315e+00 2.903827e+00 6.942282e+00 3.009146e-01 3.587832e-01 5.501150e-01 8.772081e-01 6.063085e-01 6.741873e-01 6.756165e-01 8.535437e-01 8.262054e-01 7.328258e-01 4.565341e-01 4.767579e-01 6.013585e-01
<GCONST> 1.276539e+02
<TRANSP> 5
 0.000000e+00 1.000000e+00 0.000000e+00 0.000000e+00 0.000000e+00
 0.000000e+00 7.001408e-01 2.998593e-01 0.000000e+00 0.000000e+00
 0.000000e+00 0.000000e+00 4.805628e-01 5.194371e-01 0.000000e+00
 0.000000e+00 0.000000e+00 0.000000e+00 5.011790e-01 4.988210e-01
 0.000000e+00 0.000000e+00 0.000000e+00 0.000000e+00 0.000000e+00
<ENDHMM>
~h "d"
<BEGINHMM>
<NUMSTATES> 5
<STATE> 2
<NUMMIXES> 2
<MIXTURE> 1 3.924858e-01
<MEAN> 39
 -1.517500e+01 3.413630e+00 -1.476969e-01 5.465941e-01 -3.422854e+00 -4.127851e+00 -6.345572e+00 -7.163007e+00 -8.503159e+00 -6.461816e+00 -6.758159e+00 -5.451504e+00 3.447739e+01 -2.202537e+00 -2.312121e+00 -1.774748e+00 -1.732504e+00 7.973561e-01 1.063274e+00 1.668337e+00 1.205183e+00 1.786397e+00 1.718501e+00 1.640932e+00 1.094836e+00 2.533189e+00 1.893045e-01 -4.657954e-01 -1.326966e-01 -1.313720e+00 -9.516127e-01 -6.127689e-01 2.285940e-01 7.866599e-02 3.259495e-01 5.445177e-01 2.288519e-01 5.015991e-01 1.891721e+00
<VARIANCE> 39
 2.142244e+01 1.985497e+01 2.037278e+01 1.779327e+01 1.944382e+01 2.268363e+01 2.296049e+01 2.704932e+01 2.572548e+01 2.468433e+01 2.407761e+01 2.424120e+01 2.986825e+01 2.896875e+00 2.617741e+00 2.769298e+00 5.582747e+00 3.512022e+00 4.096079e+00 3.348228e+00 3.965595e+00 3.423803e+00 2.967273e+00 2.943369e+00 3.003030e+00 1.357185e+01 3.790569e-01 6.574952e-01 6.261424e-01 8.352110e-01 7.473771e-01 6.431843e-01 7.281857e-01 7.701330e-01 6.478151e-01 5.805243e-01 6.007342e-01 5.760361e-01 1.443508e+00
<GCONST> 1.244650e+02
<MIXTURE> 2 6.075140e-01
<MEAN> 39
 -8.839551e+00 6.883582e+00 3.096503e+00 -1.222116e+00 -9.045454e+00 -9.548311e+00 -9.036966e+00 -8.865534e+00 -1.017435e+01 -7.737784e+00 -9.122234e+00 -7.156782e+00 3.745228e+01 -9.463059e-01 7.450673e-01 -1.902029e-01 1.517313e+00 1.845829e+00 6.830130e-01 1.972980e-01 4.651703e-02 -2.046097e-01 -5.542826e-01 6.774660e-02 -7.955744e-01 -1.645880e+00 -5.278918e-01 -1.013269e+00 -3.473383e-01 -1.063702e+00 -5.741063e-02 4.142377e-01 2.468169e-01 2.715102e-01 4.009283e-01 6.153694e-01 3.635789e-01 5.751164e-01 1.191790e+00
<VARIANCE> 39
 1.194827e+01 9.282309e+00 1.202310e+01 1.776273e+01 2.717761e+01 2.492637e+01 1.968138e+01 2.583779e+01 2.698752e+01 2.191237e+01 2.052088e+01 2.497592e+01 1.364123e+01 3.077969e+00 3.828926e+00 3.222371e+00 6.154553e+00 4.416409e+00 4.407709e+00 2.909616e+00 3.494201e+00 3.366440e+00 2.944781e+00 2.634619e+00 2.989057e+00 5.954313e+00 2.723091e-01 5.452957e-01 5.401533e-01 1.063469e+00 6.589836e-01 5.845831e-01 7.782188e-01 7.962105e-01 6.820915e-01 6.588228e-01 5.590822e-01 5.606490e-01 1.530504e+00
<GCONST> 1.211897e+02
<STATE> 3
<NUMMIXES> 2
<MIXTURE> 1 5.554166e-01
<MEAN> 39
 -2.103156e+01 -1.908459e+00 -6.194625e+00 -1.077755e+00 -3.176846e+00 -5.261959e-01 -1.217273e+00 -4.316700e-01 -1.801700e+00 -8.238541e-01 -5.598373e-01 2.896864e-01 3.051858e+01 -1.669097e-01 -3.766103e-01 -2.407685e-01 -4.500500e-01 1.186496e-01 -7.445023e-02 1.381793e-01 1.409016e-01 3.085596e-01 3.360334e-01 2.240161e-01 8.227760e-02 9.722675e-01 1.901116e-01 4.715176e-02 1.070751e-01 -3.700177e-01 -1.682598e-01 -2.333309e-01 -6.262609e-02 -2.558616e-01 -1.417527e-01 -1.206069e-01 -1.588634e-01 -7.441249e-02 9.489072e-01
<VARIANCE> 39
 3.729033e+00 7.292270e+00 6.922088e+00 8.954145e+00 7.206295e+00 1.058894e+01 1.424910e+01 1.361746e+01 1.437775e+01 1.513460e+01 1.136601e+01 1.159722e+01 6.992420e+00 9.361954e-01 1.470195e+00 1.145568e+00 2.463706e+00 1.162164e+00 1.793328e+00 2.090358e+00 2.150211e+00 1.890374e+00 1.999475e+00 1.822121e+00 1.545083e+00 8.291240e+00 2.000000e-01 2.449443e-01 2.257143e-01 4.665826e-01 2.798843e-01 4.334661e-01 4.013692e-01 4.250171e-01 3.811613e-01 3.597555e-01 3.845544e-01 2.990207e-01 1.265818e+00
<GCONST> 9.593406e+01
<MIXTURE> 2 4.445834e-01
<MEAN> 39
 -1.946771e+01 -4.826704e+00 -4.812959e+00 -7.855620e+00 -2.854983e+00 -3.120190e+00 -1.355234e+00 -3.147836e+00 -2.443048e+00 -5.011854e-01 -1.919866e+00 -1.444079e+00 4.645147e+01 -8.654478e-01 -1.349592e+00 -7.873366e-01 -3.442544e+00 -1.071465e+00 -9.585921e-01 1.139418e+00 1.088960e-01 9.390767e-01 1.334881e+00 9.625517e-01 9.958525e-01 6.189468e+00 9.363803e-01 6.197482e-01 8.318102e-01 -2.048775e-01 -1.197109e+00 -7.876500e-01 -6.110626e-01 -4.724256e-01 -6.902608e-01 -3.354480e-01 -6.253455e-01 -3.481287e-02 5.869243e-02
<VARIANCE> 39
 2.041154e+01 2.674007e+01 2.871254e+01 4.661040e+01 3.381733e+01 3.025643e+01 2.779465e+01 3.144976e+01 2.849927e+01 2.208995e+01 2.127551e+01 1.992013e+01 1.249118e+02 3.896908e+00 3.406935e+00 4.209975e+00 4.098250e+00 3.967132e+00 4.434423e+00 4.313953e+00 5.383417e+00 4.231214e+00 3.596580e+00 3.677114e+00 2.714837e+00 9.823998e+00 5.485487e-01 6.422054e-01 9.390277e-01 8.748489e-01 1.159442e+00 8.173046e-01 9.785920e-01 1.129956e+00 8.015997e-01 6.641622e-01 7.356365e-01 6.798732e-01 1.806228e+00
<GCONST> 1.330340e+02
<STATE> 4
<NUMMIXES> 2
<MIXTURE> 1 3.914495e-01
<MEAN> 39
 -1.435584e+01 -6.119582e+00 -1.274722e+00 -1.217806e+01 -1.078995e+01 -7.899971e+00 4.466534e-01 -1.906800e+00 -6.172988e+00 -1.396478e+00 -2.400693e+00 1.210466e+00 5.147062e+01 4.275728e-01 -7.171429e-01 -4.867851e-02 -4.122763e-01 -7.394387e-01 1.654561e-01 9.590142e-01 7.160544e-01 6.654401e-02 -2.604243e-01 -1.771803e-01 7.630698e-01 -1.659130e-01 -4.713480e-02 3.093545e-01 -2.656886e-01 5.884131e-01 3.753103e-01 2.789632e-01 -2.012912e-01 -6.570482e-02 7.906157e-02 -2.301345e-01 -2.232911e-01 -1.852334e-01 -8.357751e-01
<VARIANCE> 39
 2.952546e+01 2.235285e+01 3.788213e+01 3.617805e+01 5.402034e+01 5.173317e+01 5.537739e+01 5.982552e+01 4.178667e+01 4.589354e+01 4.189490e+01 2.689530e+01 6.777915e+01 3.235629e+00 3.108366e+00 4.319064e+00 6.737470e+00 6.948164e+00 5.978612e+00 4.386985e+00 6.192502e+00 3.181025e+00 4.526465e+00 3.549953e+00 2.953068e+00 1.009706e+01 6.484174e-01 5.565305e-01 8.017186e-01 8.605449e-01 1.243377e+00 1.134393e+00 8.996105e-01 1.069929e+00 7.213505e-01 1.024154e+00 8.925686e-01 5.599477e-01 9.835798e-01
<GCONST> 1.381749e+02
<MIXTURE> 2 6.085508e-01
<MEAN> 39
 -2.049792e+01 -9.828927e-02 -5.264274e+00 -1.191110e+01 -7.404821e+00 -7.931757e+00 -1.411612e+00 -8.611465e+00 -3.439853e+00 -8.971060e-01 -2.240874e+00 -1.491351e+00 5.912067e+01 2.047628e+00 7.127146e-01 2.628960e+00 -2.933110e+00 -4.087261e+00 -2.512668e+00 -1.842826e+00 -1.931336e+00 -1.754604e+00 -9.025263e-02 -1.533476e+00 2.704578e-01 3.915496e+00 9.963734e-01 -3.224701e-02 1.043923e+00 2.555130e-01 -5.355697e-01 2.151814e-01 -9.307193e-01 3.138101e-01 -5.961239e-01 -1.289086e-01 -7.341449e-01 -2.543020e-02 -1.934953e+00
<VARIANCE> 39
 1.976864e+01 3.661149e+01 3.816766e+01 2.151438e+01 3.715954e+01 3.659380e+01 2.710623e+01 4.510273e+01 3.579812e+01 2.733162e+01 2.404084e+01 1.783657e+01 1.217278e+01 2.905911e+00 3.405715e+00 4.695700e+00 3.772557e+00 3.454599e+00 3.337969e+00 4.288485e+00 6.378578e+00 3.898813e+00 4.512316e+00 2.891272e+00 3.097895e+00 9.945524e+00 4.814251e-01 7.531396e-01 9.204260e-01 6.052466e-01 1.005124e+00 8.707893e-01 8.781028e-01 1.090988e+00 1.036990e+00 8.025640e-01 6.269731e-01 4.714065e-01 4.037511e-01
<GCONST> 1.289347e+02
<TRANSP> 5
 0.000000e+00 1.000000e+00 0.000000e+00 0.000000e+00 0.000000e+00
 0.000000e+00 7.062110e-01 2.937890e-01 0.000000e+00 0.000000e+00
 0.000000e+00 0.000000e+00 6.688481e-01 3.311519e-01 0.000000e+00
 0.000000e+00 0.000000e+00 0.000000e+00 5.901930e-01 4.098070e-01
 0.000000e+00 0.000000e+00 0.000000e+00 0.000000e+00 0.000000e+00
<ENDHMM>
~h "f"
<BEGINHMM>
<NUMSTATES> 5
<STATE> 2
<NUMMIXES> 2
<MIXTURE> 1 4.379775e-01
<MEAN> 39
 -1.651872e+01 -3.250785e+00 -3.916139e+00 -3.318579e+00 -2.351932e+00 -2.619238e+00 -1.829217e+00 -3.308190e+00 -4.879301e+00 -5.576797e+00 -5.742449e+00 -1.272380e+00 5.250010e+01 -4.819209e+00 5.545300e-01 7.897722e-01 2.077049e+00 1.182509e+00 1.389202e+00 1.874304e-01 1.501628e+00 1.183865e+00 1.723175e+00 3.147928e+00 3.113663e-01 -1.746541e+00 9.596626e-02 -1.025408e+00 -7.877077e-01 -1.012432e+00 -6.156833e-01 -2.567132e-01 1.653358e-01 3.192022e-01 1.861656e-01 2.844335e-01 -2.218552e-01 2.142207e-01 5.018317e-01
<VARIANCE> 39
 3.018580e+01 1.021230e+01 1.498799e+01 1.287072e+01 1.229881e+01 1.858830e+01 1.885653e+01 1.517709e+01 1.771822e+01 1.764413e+01 2.216896e+01 1.343538e+01 2.154235e+01 2.499439e+00 1.752575e+00 3.027033e+00 2.656881e+00 3.307577e+00 3.877401e+00 2.974874e+00 4.192472e+00 2.581370e+00 3.697105e+00 2.594167e+00 2.333641e+00 1.298788e+00 5.716038e-01 3.218616e-01 3.843520e-01 4.694413e-01 4.165656e-01 6.469658e-01 5.171067e-01 7.407863e-01 4.218704e-01 5.972615e-01 5.326453e-01 3.421151e-01 2.039224e-01
<GCONST> 1.108783e+02
<MIXTURE> 2 5.620223e-01
<MEAN> 39
 -2.367907e+01 -6.660565e+00 -6.253152e+00 -4.590272e+00 -3.186317e+00 -1.430816e+00 -5.424114e-01 2.881251e-01 -1.127433e+00 -1.664314e+00 -1.577811e+00 3.649224e-02 4.853469e+01 -2.436240e+00 -8.507922e-01 -7.932371e-01 -2.952980e-01 -2.508570e-01 1.106656e-01 2.111923e-01 6.841041e-01 1.060951e+00 1.367266e+00 1.276365e+00 3.763026e-01 -3.733175e-01 9.720560e-01 -1.119941e-01 -2.199252e-01 -5.920135e-01 -3.972687e-01 -3.764304e-01 -1.684040e-01 -4.098883e-01 -3.509921e-01 -2.589086e-01 -6.692256e-01 -5.829365e-02 2.678767e-01
<VARIANCE> 39
 1.507533e+01 1.035348e+01 1.288287e+01 1.261033e+01 1.469468e+01 1.429450e+01 1.407891e+01 1.699339e+01 1.420244e+01 1.556172e+01 1.403715e+01 1.228958e+01 3.225821e+01 2.373586e+00 1.279051e+00 1.440146e+00 1.404776e+00 1.764559e+00 2.030728e+00 2.182563e+00 2.088105e+00 1.886780e+00 2.204532e+00 2.885608e+00 1.728295e+00 3.195351e+00 5.129127e-01 3.103209e-01 3.242793e-01 4.339026e-01 3.878851e-01 4.550264e-01 4.425673e-01 5.816689e-01 4.558845e-01 4.668957e-01 4.768800e-01 3.572645e-01 3.051490e-01
<GCONST> 1.040732e+02
<STATE> 3
<NUMMIXES> 2
<MIXTURE> 1 4.921705e-01
<MEAN> 39
 -2.513972e+01 -5.683241e+00 -7.271753e+00 -5.771130e+00 -4.979449e+00 -3.059253e+00 -1.656186e+00 -9.093017e-01 -2.259809e+00 -1.064484e+00 -1.580161e+00 1.311543e-02 4.731149e+01 -1.197727e-01 6.600034e-02 9.382687e-02 1.215432e-01 2.198222e-01 2.068784e-01 1.142808e-01 4.384619e-02 -5.024005e-02 1.713174e-01 3.130665e-03 4.189290e-02 1.120330e-01 2.397578e-01 -3.921999e-02 1.956697e-02 -7.286509e-03 5.812231e-02 -1.640620e-02 5.918646e-02 1.747657e-02 3.075235e-02 -1.569959e-02 -6.504509e-02 2.978103e-02 2.117407e-01
<VARIANCE> 39
 7.357849e+00 1.141218e+01 1.196673e+01 1.149882e+01 1.388593e+01 1.084517e+01 1.282658e+01 1.328462e+01 1.677215e+01 1.289234e+01 1.594029e+01 1.155336e+01 3.167235e+01 4.987738e-01 5.680826e-01 6.833140e-01 8.972462e-01 1.041985e+00 1.184286e+00 1.146130e+00 1.433291e+00 1.786596e+00 1.447350e+00 1.416255e+00 1.258739e+00 1.182590e+00 2.000000e-01 2.000000e-01 2.000000e-01 2.000000e-01 2.546936e-01 2.787404e-01 2.614408e-01 3.076870e-01 4.049207e-01 3.018413e-01 3.317462e-01 2.687545e-01 2.000000e-01
<GCONST> 8.815276e+01
<MIXTURE> 2 5.078290e-01
<MEAN> 39
 -2.599987e+01 -8.083724e+00 -8.312009e+00 -6.338910e+00 -4.560170e+00 -2.991250e+00 -1.151527e+00 -3.941780e-01 -1.450598e+00 4.838984e-03 -6.048778e-01 6.491832e-01 5.002914e+01 2.314599e-01 -2.384457e-01 -3.604886e-01 -6.064202e-01 -5.075619e-01 -4.422134e-01 -2.174368e-01 -2.221693e-01 -1.338596e-01 -1.354184e-02 -9.354616e-02 4.076047e-03 2.919954e-01 8.757361e-01 1.523487e-01 6.255161e-02 -1.789372e-01 -1.467168e-01 -1.677318e-01 -1.105460e-01 -1.851326e-01 -2.535698e-01 -2.988711e-01 -3.916617e-01 -1.194246e-01 -5.683048e-03
<VARIANCE> 39
 1.102706e+01 9.003110e+00 9.276318e+00 1.236283e+01 1.299391e+01 1.412703e+01 1.539329e+01 1.289704e+01 1.396450e+01 1.128236e+01 1.091864e+01 1.092844e+01 1.814045e+01 2.096189e+00 8.466166e-01 1.164845e+00 1.127637e+00 1.333491e+00 1.159667e+00 1.559978e+00 1.538565e+00 1.875389e+00 1.555353e+00 1.554788e+00 1.233050e+00 2.245785e+00 4.393431e-01 2.000000e-01 2.961575e-01 3.354716e-01 3.328041e-01 3.216844e-01 3.749200e-01 3.803744e-01 4.091565e-01 3.927571e-01 3.662238e-01 2.783303e-01 2.861188e-01
<GCONST> 9.466267e+01
<STATE> 4
<NUMMIXES> 2
<MIXTURE> 1 3.609947e-01
<MEAN> 39
 -1.487479e+01 -5.965240e+00 -1.102261e+01 -1.106331e+01 -7.419915e+00 -2.423419e+00 -2.353078e-01 1.633323e-02 1.264123e-01 1.440255e+00 -4.192260e+00 -1.925292e+00 4.133254e+01 -2.975248e-01 8.329898e-01 5.522460e-01 8.583734e-01 7.733902e-01 1.092194e+00 3.226600e-01 4.622788e-01 -1.743995e-01 4.478616e-02 4.867031e-02 -3.662483e-01 -2.205731e+00 -3.992452e-01 -9.519055e-02 3.028029e-01 3.546905e-01 3.478839e-01 4.541710e-02 -1.574458e-01 -1.572277e-01 -2.792307e-01 -2.435885e-01 2.106420e-01 1.969918e-01 6.256791e-01
<VARIANCE> 39
 5.599965e+01 2.787505e+01 4.498114e+01 7.276524e+01 5.677659e+01 3.935797e+01 3.364392e+01 6.050113e+01 6.753439e+01 6.185285e+01 4.826665e+01 3.809994e+01 9.505500e+01 5.288666e+00 2.228447e+00 4.036216e+00 6.036400e+00 4.514347e+00 3.810162e+00 3.232974e+00 5.131753e+00 5.173483e+00 6.531231e+00 4.464359e+00 4.139071e+00 7.949480e+00 1.934084e+00 7.258785e-01 1.188674e+00 2.109580e+00 1.383126e+00 1.249208e+00 8.987974e-01 1.325927e+00 1.209722e+00 1.442222e+00 1.033669e+00 7.680423e-01 2.692333e+00
<GCONST> 1.459835e+02
<MIXTURE> 2 6.390049e-01
<MEAN> 39
 -1.989304e+01 -5.692581e+00 -7.276159e+00 -6.895751e+00 -4.559861e+00 -2.887379e+00 -1.353173e+00 -9.072369e-01 -2.792229e+00 -1.367603e+00 -2.411754e+00 3.240774e-01 4.766402e+01 3.940737e+00 -8.236403e-01 -6.753597e-01 -2.421485e+00 -1.157402e+00 -1.197444e+00 -7.541082e-01 -6.809304e-01 -8.934002e-01 -2.377070e-01 -1.747677e+00 -3.104133e-01 2.055923e+00 5.527952e-01 -4.062984e-01 -2.002944e-01 -7.643752e-01 -2.564235e-01 -7.687924e-02 -1.382374e-01 9.734435e-02 -1.137799e-01 2.504534e-01 -3.746693e-01 -2.166878e-01 3.270307e-01
<VARIANCE> 39
 4.361021e+01 2.130337e+01 2.401248e+01 2.977826e+01 2.506309e+01 2.143246e+01 2.052464e+01 1.430727e+01 1.964217e+01 1.598902e+01 1.967693e+01 1.385151e+01 8.216213e+01 5.877242e+00 3.827230e+00 5.299091e+00 4.975368e+00 5.211024e+00 4.326032e+00 3.894475e+00 4.156575e+00 4.604453e+00 3.841193e+00 3.577744e+00 1.787995e+00 7.879996e+00 1.056376e+00 6.270928e-01 6.443326e-01 9.002621e-01 8.013012e-01 8.931507e-01 5.216845e-01 6.147345e-01 7.851897e-01 5.488164e-01 5.434377e-01 3.319360e-01 1.676147e+00
<GCONST> 1.274302e+02
<TRANSP> 5
 0.000000e+00 1.000000e+00 0.000000e+00 0.000000e+00 0.000000e+00
 0.000000e+00 6.234636e-01 3.765364e-01 0.000000e+00 0.000000e+00
 0.000000e+00 0.000000e+00 8.537083e-01 1.462917e-01 0.000000e+00
 0.000000e+00 0.000000e+00 0.000000e+00 7.498425e-01 2.501575e-01
 0.000000e+00 0.000000e+00 0.000000e+00 0.000000e+00 0.000000e+00
<ENDHMM>
~h "g"
<BEGINHMM>
<NUMSTATES> 5
<STATE> 2
<MEAN> 39
 -1.410271e+01 1.663911e+00 -1.012005e+00 -1.743731e+00 -6.555891e+00 -6.328614e+00 -6.689248e+00 -7.360705e+00 -5.247908e+00 -3.522210e+00 -7.296977e+00 -4.862312e+00 3.818615e+01 -5.945092e-01 -1.788090e+00 -1.356691e+00 -6.294381e-01 1.914227e+00 8.437072e-02 -6.749356e-02 7.213436e-01 9.712460e-01 -2.674986e-01 2.857020e-01 2.783331e-01 1.591655e+00 2.147851e-01 -8.868507e-01 -5.051367e-01 -1.074604e+00 -2.845775e-01 -3.791968e-01 1.687936e-01 7.913800e-02 8.261509e-02 4.248148e-01 1.746031e-01 4.511561e-01 1.425007e+00
<VARIANCE> 39
 3.901027e+01 3.942958e+01 4.214022e+01 3.322945e+01 4.229958e+01 5.167097e+01 4.898666e+01 5.146338e+01 3.236067e+01 4.129534e+01 4.399851e+01 3.826117e+01 5.621386e+01 4.480012e+00 9.576428e+00 3.967736e+00 7.669985e+00 9.083437e+00 6.578643e+00 5.191183e+00 3.941879e+00 3.873631e+00 6.052342e+00 4.059092e+00 5.372220e+00 1.567147e+01 7.032393e-01 1.344687e+00 5.470388e-01 1.116804e+00 1.265095e+00 9.069152e-01 8.645376e-01 8.156018e-01 5.736651e-01 9.258214e-01 7.125255e-01 9.924365e-01 1.957293e+00
<GCONST> 1.426412e+02
<STATE> 3
<MEAN> 39
 -1.467257e+01 -1.189632e+01 -1.232283e+01 -1.119153e+01 5.874066e-02 -7.892970e+00 -4.568974e+00 -4.414117e+00 -1.214777e+00 2.457689e-01 -4.708278e+00 9.449857e-01 5.329762e+01 1.497128e+00 -3.930018e-01 -6.757905e-01 -2.294971e+00 -1.088240e+00 -1.692655e+00 -6.698471e-01 -3.571044e-01 4.847711e-02 5.954426e-02 -9.129834e-02 3.789006e-01 3.631414e+00 7.277525e-01 1.255855e+00 9.018749e-01 3.425267e-01 -1.183464e+00 -3.249507e-01 -3.389882e-01 -2.311996e-01 -7.601829e-01 -6.695651e-02 -7.783674e-02 -5.551783e-01 -8.730599e-01
<VARIANCE> 39
 2.916754e+01 4.953153e+01 8.243398e+01 5.456841e+01 8.475932e+01 5.975357e+01 3.545641e+01 4.773661e+01 3.511474e+01 4.778817e+01 2.973797e+01 2.877923e+01 3.183634e+01 3.298099e+00 8.614839e+00 7.600856e+00 8.073101e+00 8.108966e+00 5.179590e+00 3.545330e+00 5.377055e+00 4.962373e+00 4.126794e+00 4.620876e+00 4.100232e+00 8.422451e+00 5.237485e-01 1.158630e+00 7.118956e-01 1.126788e+00 1.317427e+00 1.191250e+00 6.663968e-01 1.039330e+00 6.854522e-01 1.115921e+00 7.785165e-01 7.399021e-01 9.540864e-01
<GCONST> 1.417043e+02
<STATE> 4
<MEAN> 39
 -7.566957e+00 -4.565073e+00 -5.175096e+00 -1.371169e+01 -1.012094e+01 -1.427495e+01 -9.913557e+00 -7.407000e+00 -6.339248e+00 -5.363399e-01 -5.288029e+00 -1.976030e+00 5.632775e+01 2.754755e+00 4.277517e-01 4.429881e-01 -1.382554e+00 -2.231905e+00 -1.809538e+00 -6.602603e-01 3.845134e-01 -1.751525e+00 8.941892e-01 -1.054364e-01 -5.369711e-01 1.336954e+00 -3.355138e-01 -7.343551e-01 -5.039335e-01 2.652748e-01 6.055734e-01 5.486747e-01 6.403805e-01 7.048973e-01 1.615105e-01 2.171383e-01 1.226688e-02 8.005083e-02 -4.062226e-01
<VARIANCE> 39
 3.360292e+01 4.296876e+01 8.348232e+01 8.569664e+01 7.618767e+01 7.310667e+01 3.963557e+01 5.261037e+01 4.692885e+01 4.657755e+01 4.842223e+01 2.640129e+01 3.447354e+01 1.798454e+00 3.964300e+00 3.340312e+00 4.493336e+00 4.643817e+00 4.458155e+00 3.720139e+00 6.979735e+00 6.351769e+00 4.719472e+00 5.056958e+00 4.779138e+00 1.500022e+00 4.000902e-01 5.238762e-01 4.936749e-01 6.697742e-01 6.751608e-01 6.523305e-01 5.350205e-01 7.498242e-01 7.441018e-01 6.910334e-01 5.590364e-01 7.006901e-01 5.727444e-01
<GCONST> 1.338674e+02
<TRANSP> 5
 0.000000e+00 1.000000e+00 0.000000e+00 0.000000e+00 0.000000e+00
 0.000000e+00 6.086107e-01 3.913892e-01 0.000000e+00 0.000000e+00
 0.000000e+00 0.000000e+00 5.949126e-01 4.050874e-01 0.000000e+00
 0.000000e+00 0.000000e+00 0.000000e+00 5.211413e-01 4.788587e-01
 0.000000e+00 0.000000e+00 0.000000e+00 0.000000e+00 0.000000e+00
<ENDHMM>
~h "k"
<BEGINHMM>
<NUMSTATES> 5
<STATE> 2
<NUMMIXES> 2
<MIXTURE> 1 3.725778e-01
<MEAN> 39
 -1.931751e+01 -3.037764e+00 -4.567095e+00 -1.185599e+00 -3.304974e+00 -3.870795e+00 -2.038327e+00 -3.252503e+00 -2.774898e+00 -3.289271e-01 -2.015116e+00 -9.093737e-02 3.578136e+01 -1.775845e+00 -8.170811e-01 -1.026436e+00 1.027570e+00 1.337215e+00 1.560377e+00 1.641325e-01 1.673108e+00 1.437841e+00 -1.758148e-02 1.568579e+00 4.660521e-01 -1.247899e+00 4.778553e-01 -4.215617e-01 -1.320517e-01 -1.153312e+00 -5.664824e-01 -2.542340e-01 6.056156e-03 -1.052618e-01 -1.006649e-01 5.889509e-02 -4.306001e-01 3.599438e-02 1.683568e+00
<VARIANCE> 39
 1.720081e+01 3.914278e+01 2.311556e+01 3.679795e+01 4.094378e+01 2.998634e+01 3.821478e+01 3.583971e+01 3.997374e+01 3.428797e+01 1.986790e+01 2.217113e+01 4.328000e+01 3.858391e+00 5.902535e+00 5.825427e+00 9.975866e+00 6.351299e+00 6.586496e+00 6.974569e+00 6.285225e+00 4.048574e+00 5.174937e+00 4.595795e+00 3.264467e+00 2.072305e+01 5.430303e-01 1.272987e+00 7.567046e-01 1.410343e+00 7.764532e-01 9.853207e-01 8.147172e-01 9.068568e-01 8.959281e-01 1.001153e+00 4.996555e-01 6.045951e-01 2.202706e+00
<GCONST> 1.384423e+02
<MIXTURE> 2 6.274223e-01
<MEAN> 39
 -2.138665e+01 -1.618834e+00 -5.471912e+00 -5.653461e-01 -2.997556e+00 -7.830232e-01 -1.909761e+00 -6.834666e-01 -1.060247e+00 -1.965717e-01 -5.802824e-01 -1.362921e-01 2.964897e+01 -8.357538e-02 -1.671584e+00 -3.751182e-01 -1.085472e+00 -8.408506e-02 -8.165356e-02 2.427811e-01 -1.676850e-02 5.117317e-01 -8.303263e-02 4.864850e-02 3.191916e-01 2.352931e+00 4.481533e-01 -4.787438e-01 -3.612828e-02 -9.186373e-01 -4.356205e-01 -6.473008e-01 1.025926e-01 -3.455636e-01 -3.701934e-02 -9.980240e-04 -4.178627e-01 1.458720e-01 2.163922e+00
<VARIANCE> 39
 1.452413e+00 2.306814e+00 3.974943e+00 5.930289e+00 7.578178e+00 9.284015e+00 1.036013e+01 1.131932e+01 1.081337e+01 1.149300e+01 1.112848e+01 1.067824e+01 5.008684e+00 1.849770e+00 4.096337e+00 3.085299e+00 5.061541e+00 3.276933e+00 3.993749e+00 2.876916e+00 3.852250e+00 3.287009e+00 2.509046e+00 2.194080e+00 1.757004e+00 1.468029e+01 3.432178e-01 4.751388e-01 6.193696e-01 6.467224e-01 5.552297e-01 7.046670e-01 5.754673e-01 7.165230e-01 5.080504e-01 5.144211e-01 3.824701e-01 3.427334e-01 1.091846e+00
<GCONST> 1.043334e+02
<STATE> 3
<NUMMIXES> 2
<MIXTURE> 1 5.135770e-01
<MEAN> 39
 -2.127715e+01 -9.329989e+00 -6.067607e+00 -1.318321e+01 -6.357148e+00 -4.900747e+00 -7.584082e-01 -2.190408e+00 2.925045e+00 3.086480e-02 -1.378094e+00 2.331659e+00 5.697584e+01 -1.114940e-01 1.174405e+00 7.685207e-01 -1.459733e+00 -3.565449e-01 3.254674e-01 7.701429e-01 2.160776e-01 5.055565e-01 2.157568e-01 1.551241e-01 1.263518e-01 2.635218e+00 1.140829e-01 7.895421e-01 3.754256e-01 8.756652e-01 2.758093e-01 4.960120e-01 1.390076e-01 -7.483592e-02 -5.974408e-01 -1.786795e-01 -1.896476e-01 -2.506526e-01 -1.918136e+00
<VARIANCE> 39
 1.520951e+01 3.677725e+01 3.200692e+01 4.674370e+01 2.565299e+01 4.078762e+01 3.184488e+01 3.566027e+01 2.433202e+01 2.611566e+01 2.042173e+01 1.552655e+01 1.510486e+01 1.395028e+00 4.666633e+00 2.209986e+00 5.405249e+00 2.671831e+00 2.806258e+00 2.172308e+00 2.528581e+00 2.206441e+00 2.285410e+00 2.070588e+00 2.017752e+00 1.383097e+01 2.365511e-01 1.087537e+00 5.147377e-01 5.588583e-01 5.249434e-01 6.578900e-01 5.005224e-01 7.409349e-01 4.805253e-01 5.769226e-01 5.810364e-01 4.444092e-01 8.467467e-01
<GCONST> 1.205155e+02
<MIXTURE> 2 4.864236e-01
<MEAN> 39
 -1.897230e+01 -9.234597e+00 -9.630890e+00 -7.670921e+00 -1.689610e+00 -4.208626e+00 -9.176918e-01 -9.403712e-01 2.599192e-01 -1.641245e-01 -1.529814e+00 1.879859e+00 5.131123e+01 3.784911e-01 -6.245460e-01 -2.385005e-01 -9.193460e-01 -4.933817e-01 -4.662051e-01 2.074298e-01 -1.872648e-01 -3.569740e-02 -3.696527e-01 -4.354250e-01 1.380575e-01 2.535818e+00 2.197693e-01 4.803717e-01 3.132040e-01 4.429348e-03 -3.517736e-01 -9.560585e-02 -2.059308e-01 -3.992229e-01 -4.019731e-01 -1.444607e-01 -2.553776e-01 -2.546188e-01 -4.837336e-01
<VARIANCE> 39
 3.877813e+01 4.634188e+01 7.718092e+01 7.254925e+01 3.943675e+01 4.943614e+01 4.187317e+01 3.375227e+01 4.052633e+01 3.262825e+01 2.230749e+01 1.772860e+01 5.318582e+01 2.160480e+00 4.648486e+00 4.897302e+00 5.147973e+00 3.296970e+00 4.297675e+00 3.121141e+00 3.867301e+00 3.424150e+00 2.804921e+00 2.327893e+00 2.093450e+00 1.432493e+01 7.693462e-01 1.091467e+00 8.854550e-01 8.303648e-01 6.028851e-01 7.376435e-01 6.222340e-01 7.401575e-01 8.260810e-01 6.263055e-01 6.536995e-01 4.303480e-01 9.353590e-01
<GCONST> 1.328937e+02
<STATE> 4
<NUMMIXES> 2
<MIXTURE> 1 3.313073e-01
<MEAN> 39
 -1.679619e+01 -5.351480e+00 -4.324656e+00 -1.011566e+01 -9.186851e+00 -4.740081e+00 1.340268e+00 -5.525597e+00 -3.064124e+00 -2.286168e+00 -4.618291e+00 -7.478025e-01 5.121667e+01 5.118471e-01 3.793154e-01 -1.427865e-01 -1.367527e-02 -2.448766e-01 1.514050e-01 1.633062e-01 -1.020672e-01 -5.411735e-01 -4.621809e-01 -2.122831e-01 -3.541620e-01 -2.653816e-01 -2.086674e-01 -2.326160e-01 -1.311428e-01 1.029703e-01 3.074549e-01 2.023455e-01 1.160488e-01 3.083460e-01 2.087867e-01 1.965850e-01 1.411510e-01 1.871742e-01 -1.969847e-01
<VARIANCE> 39
 3.574054e+01 2.292620e+01 3.720463e+01 5.817987e+01 7.403513e+01 6.169709e+01 5.490391e+01 5.480687e+01 3.380512e+01 3.146260e+01 3.446369e+01 3.056466e+01 9.762263e+01 3.368819e+00 2.936813e+00 2.709616e+00 3.668477e+00 4.827573e+00 6.310827e+00 4.313865e+00 3.110592e+00 3.227037e+00 2.739054e+00 2.369432e+00 1.990969e+00 5.212597e+00 3.405725e-01 5.922216e-01 4.825636e-01 4.901235e-01 7.205585e-01 7.560756e-01 7.718481e-01 7.879130e-01 5.817269e-01 4.721341e-01 5.545590e-01 5.776200e-01 6.041090e-01
<GCONST> 1.299133e+02
<MIXTURE> 2 6.686922e-01
<MEAN> 39
 -1.790544e+01 -5.965050e+00 -1.787270e+00 -1.428493e+01 -6.710586e+00 -3.137091e-01 2.635937e+00 -5.894155e+00 -2.959211e+00 -2.592134e+00 -6.899286e+00 3.836649e-01 5.539447e+01 2.322949e+00 -2.243359e-01 -4.153457e-02 -9.006376e-01 -1.840101e+00 -8.027241e-01 -8.622442e-01 -1.555526e+00 -2.642630e+00 -1.026238e+00 -2.454628e+00 -1.379382e+00 6.560444e-01 4.264432e-01 -3.355548e-01 -5.001525e-01 -3.114577e-01 -4.980250e-01 -5.954544e-01 -5.585811e-01 2.577593e-01 -1.373792e-02 2.218943e-01 -1.272234e-02 -2.098622e-01 4.916371e-01
<VARIANCE> 39
 2.202036e+01 2.587704e+01 4.076068e+01 4.789652e+01 5.042192e+01 5.891746e+01 5.141167e+01 3.609370e+01 4.502575e+01 2.852809e+01 3.803684e+01 2.878271e+01 1.521009e+01 2.253641e+00 2.716883e+00 2.825908e+00 2.543741e+00 5.039196e+00 4.967812e+00 5.236823e+00 3.145553e+00 3.920209e+00 3.411899e+00 2.665363e+00 3.093700e+00 1.457584e+00 3.676578e-01 6.080725e-01 3.598922e-01 4.611773e-01 7.127466e-01 7.266824e-01 6.832020e-01 7.488337e-01 9.250792e-01 6.886641e-01 7.252670e-01 5.779551e-01 2.563696e-01
<GCONST> 1.255830e+02
<TRANSP> 5
 0.000000e+00 1.000000e+00 0.000000e+00 0.000000e+00 0.000000e+00
 0.000000e+00 7.257537e-01 2.742463e-01 0.000000e+00 0.000000e+00
 0.000000e+00 0.000000e+00 7.589812e-01 2.410188e-01 0.000000e+00
 0.000000e+00 0.000000e+00 0.000000e+00 6.915076e-01 3.084924e-01
 0.000000e+00 0.000000e+00 0.000000e+00 0.000000e+00 0.000000e+00
<ENDHMM>
~h "l"
<BEGINHMM>
<NUMSTATES> 5
<STATE> 2
<NUMMIXES> 2
<MIXTURE> 1 5.451374e-01
<MEAN> 39
 -3.035162e+00 -5.785998e+00 -1.628291e+01 -2.522885e+01 -3.369519e+00 5.393962e-01 -1.320390e+01 -4.530630e+00 -3.330441e+00 -1.020090e+00 -6.442616e+00 -1.635972e+00 5.888285e+01 4.188228e-01 1.346362e+00 -3.103985e-01 -9.767011e-01 1.518377e-01 8.280334e-01 -2.975324e-01 -5.355238e-01 -7.337734e-01 -3.756565e-02 1.250842e+00 -1.083966e-01 -9.086189e-01 -7.997143e-02 -3.906222e-02 2.267127e-01 2.956479e-01 -2.668371e-01 -3.139799e-01 3.346264e-01 2.480578e-01 -1.906447e-01 -2.063036e-01 -6.614283e-03 7.114272e-02 -5.734697e-02
<VARIANCE> 39
 9.911355e+00 5.213499e+01 3.466364e+01 3.776814e+01 3.902738e+01 4.249836e+01 6.791978e+01 6.656786e+01 4.691035e+01 6.746177e+01 5.237512e+01 2.398592e+01 3.254730e+01 3.217158e-01 1.253905e+00 1.060486e+00 2.280359e+00 2.531579e+00 2.812326e+00 1.941542e+00 3.020075e+00 2.804650e+00 2.624823e+00 2.223720e+00 2.351124e+00 4.804717e-01 2.000000e-01 2.000000e-01 2.000000e-01 3.611085e-01 3.131184e-01 3.577566e-01 3.132556e-01 5.136091e-01 5.064613e-01 4.208579e-01 6.645443e-01 3.377265e-01 2.000000e-01
<GCONST> 1.117224e+02
<MIXTURE> 2 4.548633e-01
<MEAN> 39
 -4.184363e+00 2.741142e-01 -1.415706e+01 -1.974979e+01 -4.416880e+00 -3.713751e+00 -8.914818e+00 -6.703696e+00 -7.754039e+00 -6.124755e+00 -4.342501e+00 -3.284285e+00 5.241658e+01 9.369259e-01 7.033809e-01 -1.944349e-01 -3.675004e-01 -1.470524e-01 -5.504892e-01 -7.537850e-01 -9.809601e-01 -6.552480e-01 -2.048959e-02 -4.874017e-01 -4.198745e-01 -8.605767e-02 -3.099526e-01 -3.546403e-01 4.064941e-02 1.709484e-01 1.089863e-01 1.200902e-01 5.191743e-02 2.144665e-01 2.205437e-01 3.132035e-01 2.351824e-02 9.314660e-02 -3.681823e-02
<VARIANCE> 39
 1.687942e+01 3.191185e+01 5.113499e+01 7.422659e+01 4.280171e+01 5.426600e+01 7.381004e+01 5.948402e+01 4.452512e+01 4.383741e+01 4.507495e+01 2.476525e+01 4.345520e+01 4.104159e+00 1.698779e+00 2.432599e+00 7.775600e+00 5.280822e+00 3.685234e+00 5.153457e+00 3.544442e+00 3.095686e+00 3.042470e+00 3.093784e+00 1.902485e+00 3.950250e+00 2.769769e-01 2.892521e-01 3.111385e-01 7.591615e-01 5.366383e-01 3.997785e-01 5.640963e-01 8.808019e-01 5.408400e-01 4.240989e-01 6.283861e-01 3.477241e-01 2.563823e-01
<GCONST> 1.262954e+02
<STATE> 3
<NUMMIXES> 2
<MIXTURE> 1 4.646080e-01
<MEAN> 39
 -3.213546e+00 9.774118e-01 -1.315571e+01 -2.283989e+01 -4.437082e+00 -8.081711e+00 -1.371383e+01 -7.503730e+00 -6.682056e+00 -1.542037e+00 -5.736860e+00 3.008137e-01 5.622118e+01 7.907991e-02 -1.063077e+00 -6.700908e-01 -8.272687e-01 1.009280e+00 3.849246e-01 -8.113381e-04 1.108543e+00 6.427416e-01 8.190851e-01 -3.174103e-01 1.656008e-02 1.065351e+00 -3.289019e-01 -6.059655e-01 7.861962e-02 4.120005e-01 4.128862e-03 2.740840e-01 1.162452e-01 5.086847e-01 2.592992e-01 -1.365863e-01 -2.256717e-01 -1.611454e-01 2.619203e-01
<VARIANCE> 39
 1.039199e+01 2.605079e+01 3.549303e+01 6.541921e+01 4.117791e+01 1.003639e+02 6.920966e+01 6.002254e+01 6.132735e+01 5.385753e+01 3.177143e+01 2.700271e+01 1.862188e+01 1.006815e+00 2.172649e+00 1.641914e+00 3.298636e+00 2.788904e+00 3.153871e+00 2.351166e+00 3.363443e+00 3.289561e+00 3.215149e+00 1.860095e+00 2.024230e+00 1.119613e+00 2.534095e-01 3.049596e-01 3.155642e-01 8.031812e-01 6.800940e-01 7.541342e-01 6.667528e-01 8.029633e-01 7.193732e-01 8.137385e-01 4.279904e-01 4.387556e-01 2.000000e-01
<GCONST> 1.209373e+02
<MIXTURE> 2 5.353924e-01
<MEAN> 39
 -2.998245e+00 1.456550e+00 -1.425866e+01 -1.954063e+01 -5.936001e+00 -5.379547e+00 -1.386108e+01 -9.241583e+00 -7.719594e+00 -5.108723e+00 -4.001202e+00 -4.081146e+00 5.267899e+01 -1.004331e-01 -7.708206e-01 -1.305349e-01 1.526071e-01 -6.459190e-02 -4.190014e-01 -6.980496e-01 4.315875e-01 5.853861e-01 2.726891e-01 -6.521916e-01 -3.693118e-01 7.156750e-01 -5.608781e-01 -5.908584e-01 1.157805e-01 2.948634e-01 1.820056e-01 5.920738e-02 4.394718e-01 6.925118e-01 4.760684e-01 1.110497e-01 -1.735261e-01 2.238590e-01 9.044279e-02
<VARIANCE> 39
 1.079125e+01 2.342332e+01 3.042044e+01 5.748345e+01 4.946010e+01 6.254661e+01 6.783488e+01 5.011465e+01 5.423784e+01 5.759039e+01 4.846280e+01 2.937923e+01 3.192929e+01 3.171845e+00 2.360111e+00 3.395099e+00 7.276131e+00 2.933063e+00 4.072968e+00 3.810690e+00 4.944877e+00 3.412115e+00 3.716491e+00 3.300730e+00 2.292053e+00 3.669460e+00 4.532769e-01 2.986445e-01 3.344125e-01 6.763704e-01 7.479604e-01 7.923319e-01 7.452309e-01 7.939944e-01 6.417146e-01 8.139004e-01 7.163288e-01 5.025418e-01 3.404725e-01
<GCONST> 1.288337e+02
<STATE> 4
<NUMMIXES> 2
<MIXTURE> 1 3.889669e-01
<MEAN> 39
 -4.586991e+00 -6.431138e+00 -1.522687e+01 -2.108214e+01 -1.291726e+00 -7.780588e+00 -1.485506e+01 -1.729235e+00 -1.315266e+00 1.543722e-01 -9.937820e+00 -2.596731e+00 6.103766e+01 -6.287122e-01 -2.505289e+00 7.403561e-01 9.762866e-01 -3.231604e-01 -4.890870e-01 1.075561e+00 2.848220e+00 9.549357e-01 -1.082976e+00 -1.460485e+00 7.123070e-01 1.412986e+00 -8.711980e-02 1.352576e-01 5.252842e-01 1.934898e-01 -6.293219e-01 -5.110888e-02 7.037077e-01 -2.145370e-02 -6.356126e-01 -5.055017e-01 4.546384e-01 4.630885e-01 -3.038864e-01
<VARIANCE> 39
 7.484635e+00 3.201482e+01 3.543327e+01 3.957598e+01 4.002542e+01 7.480446e+01 7.119233e+01 5.960265e+01 4.458099e+01 6.044528e+01 3.385746e+01 3.044666e+01 1.824709e+01 1.014445e+00 2.053281e+00 2.540377e+00 3.287349e+00 5.264512e+00 5.487404e+00 4.098247e+00 4.486019e+00 4.681454e+00 4.625724e+00 3.874568e+00 3.613405e+00 1.147203e+00 2.000000e-01 3.710854e-01 3.644822e-01 5.894104e-01 6.009874e-01 6.064965e-01 6.813167e-01 7.534989e-01 7.279112e-01 7.416311e-01 5.243352e-01 4.859347e-01 2.000000e-01
<GCONST> 1.240757e+02
<MIXTURE> 2 6.110324e-01
<MEAN> 39
 -6.805227e+00 -9.471759e+00 -1.110456e+01 -1.624811e+01 -6.882977e+00 -8.223172e+00 -9.743587e+00 2.291743e+00 -4.030343e+00 -7.188661e+00 -9.288306e+00 -3.474715e-02 5.925326e+01 -8.348563e-01 -7.140000e-01 1.442698e+00 4.223366e-01 -1.604791e+00 -1.771575e-01 1.617307e+00 6.792911e-01 -1.173706e+00 -6.221012e-01 6.586964e-01 6.867558e-01 -5.815105e-03 1.658836e-02 4.527089e-01 1.264584e-01 -1.895065e-01 1.174088e-02 1.961759e-01 -5.209057e-02 -6.610029e-01 -2.449546e-01 4.554350e-01 3.470942e-01 -2.327262e-01 -3.008820e-01
<VARIANCE> 39
 1.348115e+01 3.000264e+01 5.082123e+01 3.737714e+01 1.020298e+02 7.746700e+01 7.503789e+01 6.790415e+01 5.220502e+01 6.234977e+01 3.459918e+01 4.210456e+01 5.861141e+01 8.487713e-01 2.167179e+00 2.668018e+00 4.040948e+00 4.863096e+00 3.919188e+00 2.988286e+00 5.667212e+00 4.191206e+00 4.606685e+00 2.819475e+00 2.520477e+00 1.688005e+00 2.000000e-01 2.870300e-01 2.858795e-01 3.091761e-01 6.946334e-01 5.971487e-01 5.623366e-01 9.247255e-01 7.376044e-01 6.518841e-01 6.076486e-01 5.740775e-01 2.000000e-01
<GCONST> 1.261802e+02
<TRANSP> 5
 0.000000e+00 1.000000e+00 0.000000e+00 0.000000e+00 0.000000e+00
 0.000000e+00 7.210103e-01 2.789897e-01 0.000000e+00 0.000000e+00
 0.000000e+00 0.000000e+00 7.133152e-01 2.866847e-01 0.000000e+00
 0.000000e+00 0.000000e+00 0.000000e+00 7.185169e-01 2.814831e-01
 0.000000e+00 0.000000e+00 0.000000e+00 0.000000e+00 0.000000e+00
<ENDHMM>
~h "m"
<BEGINHMM>
<NUMSTATES> 5
<STATE> 2
<NUMMIXES> 2
<MIXTURE> 1 4.417907e-01
<MEAN> 39
 -5.316521e+00 -1.330292e+00 -2.690770e+00 -3.600919e+00 -8.057949e+00 -1.581342e+01 -1.081750e+01 -9.873332e+00 -1.105038e+01 -2.257180e+00 -9.033747e+00 -5.839183e+00 4.762593e+01 -1.668684e-01 2.627569e-01 2.044952e-01 1.919038e-01 8.773369e-02 1.854192e-01 4.318253e-02 -1.723155e-02 -3.104470e-02 -2.732405e-01 3.258084e-01 1.397430e-01 -3.119506e-01 -8.727029e-02 -2.623661e-01 -2.097501e-01 -4.494739e-01 8.259566e-02 4.527092e-01 1.530942e-01 5.247455e-01 2.801263e-01 -3.990006e-01 1.265315e-01 1.236550e-01 2.003026e-01
<VARIANCE> 39
 4.546226e+00 2.001865e+01 1.958334e+01 2.635535e+01 5.777308e+01 5.411563e+01 6.341109e+01 3.642413e+01 7.218279e+01 4.250304e+01 5.625444e+01 4.415691e+01 1.527678e+01 2.000000e-01 6.932328e-01 7.069440e-01 1.048355e+00 8.800786e-01 1.522547e+00 1.244914e+00 1.541537e+00 1.623578e+00 1.735487e+00 1.239642e+00 1.033605e+00 6.257443e-01 2.000000e-01 2.000000e-01 3.056002e-01 3.919838e-01 3.514598e-01 4.437065e-01 4.081144e-01 6.131828e-01 5.082675e-01 4.876370e-01 4.576373e-01 4.463965e-01 2.146207e-01
<GCONST> 1.031774e+02
<MIXTURE> 2 5.582087e-01
<MEAN> 39
 -5.238229e+00 -3.212182e+00 -3.451983e+00 -5.615135e+00 -9.858891e+00 -1.543678e+01 -1.254576e+01 -8.322822e+00 -1.291434e+01 -2.651027e+00 -1.192619e+01 -7.705745e+00 4.998069e+01 -1.034959e-01 8.387409e-01 6.553142e-01 8.901635e-01 -1.481006e-01 -6.208476e-01 -2.964322e-01 -1.166112e+00 -6.084056e-01 5.475776e-01 -3.784068e-01 -5.521297e-01 -8.372708e-01 -2.325561e-01 -3.723230e-01 -2.191600e-01 -4.703539e-01 7.814475e-02 4.670294e-01 3.088877e-01 4.723246e-01 3.390887e-01 -3.351921e-01 3.988478e-01 3.444847e-01 3.010563e-01
<VARIANCE> 39
 6.649802e+00 2.206601e+01 2.747534e+01 3.043321e+01 6.117950e+01 6.291694e+01 6.556021e+01 4.484599e+01 4.989039e+01 5.284612e+01 5.537443e+01 5.074436e+01 2.144322e+01 1.057826e+00 2.036816e+00 2.505565e+00 3.152651e+00 2.488843e+00 3.121774e+00 2.474793e+00 3.662775e+00 2.832558e+00 4.302188e+00 3.504985e+00 2.987544e+00 2.865287e+00 2.113487e-01 2.271216e-01 4.027982e-01 3.732189e-01 4.412678e-01 4.824192e-01 4.331388e-01 5.338905e-01 4.827839e-01 7.070128e-01 7.130268e-01 5.297847e-01 2.586492e-01
<GCONST> 1.201672e+02
<STATE> 3
<NUMMIXES> 2
<MIXTURE> 1 3.769181e-01
<MEAN> 39
 -1.436482e+01 -2.941599e+00 -4.970073e+00 -3.036677e+00 -4.181357e+00 -6.382236e+00 -5.476047e+00 -3.586612e+00 -7.614278e+00 -7.262442e+00 -4.094760e+00 -2.153634e+00 3.822533e+01 -1.333797e+00 9.189117e-02 3.146416e-02 2.967212e-01 8.234177e-01 1.053420e+00 9.543485e-01 6.530710e-01 6.218101e-01 4.587018e-01 7.490445e-01 4.794094e-01 -1.510766e+00 -3.141013e-02 -1.571450e-01 -1.574398e-01 -1.535716e-01 -1.015310e-01 1.064590e-01 6.365671e-02 1.741524e-01 2.107685e-01 2.669089e-01 3.005373e-02 7.718590e-02 1.888529e-01
<VARIANCE> 39
 3.789308e+01 3.392452e+01 3.701589e+01 4.091155e+01 4.951814e+01 6.247282e+01 6.740714e+01 5.179447e+01 5.118436e+01 6.128938e+01 4.227991e+01 2.812384e+01 4.549916e+01 2.067360e+00 2.327946e+00 2.331811e+00 2.978580e+00 3.807626e+00 2.649244e+00 3.968111e+00 2.439931e+00 2.385853e+00 3.928923e+00 2.963037e+00 2.642314e+00 2.396539e+00 4.082752e-01 4.663812e-01 5.134485e-01 6.677682e-01 6.237861e-01 4.870749e-01 8.001320e-01 5.173756e-01 5.080807e-01 7.851740e-01 5.456622e-01 5.430695e-01 4.700556e-01
<GCONST> 1.268720e+02
<MIXTURE> 2 6.230816e-01
<MEAN> 39
 -7.374840e+00 -5.515863e+00 -4.314723e+00 -7.504656e+00 -6.032474e+00 -1.065640e+01 -1.007081e+01 -5.253189e+00 -1.158906e+01 -7.598273e+00 -8.964831e+00 -6.138036e+00 4.931375e+01 -5.475330e-01 -1.325395e+00 -8.532133e-01 -1.451576e+00 6.366067e-02 1.258985e+00 1.119189e+00 1.342284e+00 7.032462e-01 -9.072915e-01 9.811274e-01 6.738476e-01 6.554996e-01 -2.355955e-01 -2.158024e-01 -8.482301e-02 -3.579844e-01 -3.005733e-02 2.667852e-01 2.552956e-01 2.425118e-01 3.001447e-01 2.260128e-01 2.415933e-01 2.702063e-01 4.043126e-02
<VARIANCE> 39
 1.708693e+01 3.132130e+01 3.254980e+01 3.091844e+01 6.729115e+01 7.142380e+01 7.885880e+01 7.426682e+01 6.223900e+01 8.037971e+01 5.996526e+01 3.990310e+01 3.047871e+01 1.109836e+00 1.755952e+00 3.096136e+00 3.717667e+00 3.803784e+00 3.847614e+00 3.697263e+00 4.481833e+00 5.657652e+00 5.507751e+00 4.889915e+00 4.350088e+00 3.424958e+00 2.221936e-01 3.780533e-01 5.746751e-01 8.242443e-01 5.435753e-01 6.767212e-01 6.856053e-01 7.986981e-01 8.518412e-01 8.158801e-01 8.311533e-01 6.706131e-01 4.419222e-01
<GCONST> 1.314796e+02
<STATE> 4
<NUMMIXES> 2
<MIXTURE> 1 4.174207e-01
<MEAN> 39
 -1.171860e+01 -3.736936e+00 -6.125008e+00 -9.077109e+00 -8.222924e+00 -7.482416e+00 -6.455422e+00 -5.628506e+00 -7.935210e+00 -3.765851e+00 -4.386444e+00 -4.322133e+00 4.272879e+01 -2.218182e+00 1.056257e-02 -2.807221e-01 6.041477e-01 1.325421e+00 2.066582e+00 1.381003e+00 1.458587e+00 2.090492e+00 1.315798e+00 1.353870e+00 9.897779e-01 -1.944351e+00 -6.173363e-02 -5.800186e-02 2.066343e-01 2.167172e-01 1.262670e-01 -5.780273e-02 -4.461092e-02 1.093656e-01 3.257898e-02 7.723047e-02 -2.830320e-01 6.899866e-02 4.380564e-01
<VARIANCE> 39
 3.240035e+01 6.064593e+01 7.574428e+01 7.717319e+01 9.808683e+01 5.185173e+01 6.567194e+01 5.184208e+01 5.600022e+01 7.072987e+01 5.194888e+01 4.628080e+01 7.062659e+01 2.842759e+00 4.550524e+00 5.097733e+00 8.546906e+00 6.170223e+00 2.778800e+00 4.300959e+00 4.879513e+00 4.699238e+00 5.672797e+00 4.852558e+00 5.255837e+00 7.301619e+00 5.603557e-01 1.110025e+00 1.135327e+00 1.557742e+00 1.375090e+00 7.235650e-01 9.080373e-01 9.253830e-01 1.023711e+00 1.166751e+00 9.803231e-01 9.772863e-01 1.590594e+00
<GCONST> 1.461728e+02
<MIXTURE> 2 5.825797e-01
<MEAN> 39
 -1.140473e+01 -6.502779e+00 -4.269162e+00 -1.256481e+01 -9.017718e+00 -8.930961e+00 -3.691738e+00 -3.159999e+00 -6.196636e+00 -4.176111e+00 -5.483162e+00 -3.314636e+00 4.985856e+01 -2.561231e-01 -1.218723e+00 -8.421198e-02 -3.027299e+00 -8.028188e-01 1.493585e+00 8.926923e-01 9.455141e-01 7.600138e-01 -2.342026e-01 3.762587e-01 6.675884e-01 1.938498e+00 2.485978e-01 6.492664e-02 1.597065e-01 -3.422236e-01 -5.137513e-03 -8.158512e-03 -2.766564e-01 -4.484892e-01 -3.556752e-01 2.140646e-01 -4.662674e-01 -1.329675e-01 2.712181e-01
<VARIANCE> 39
 5.363095e+01 4.032251e+01 4.363294e+01 1.022984e+02 5.960833e+01 6.187687e+01 6.487514e+01 5.795807e+01 4.391473e+01 3.961393e+01 3.660784e+01 2.951643e+01 1.383076e+02 3.058156e+00 4.917262e+00 7.362987e+00 7.027863e+00 4.779901e+00 5.893641e+00 6.590668e+00 8.034492e+00 4.365850e+00 5.439509e+00 5.640485e+00 4.354012e+00 7.441530e+00 6.507697e-01 7.963111e-01 9.001192e-01 1.426636e+00 8.636072e-01 6.657249e-01 9.289010e-01 8.378369e-01 6.340457e-01 7.856951e-01 4.426759e-01 5.578973e-01 1.896782e+00
<GCONST> 1.432549e+02
<TRANSP> 5
 0.000000e+00 1.000000e+00 0.000000e+00 0.000000e+00 0.000000e+00
 0.000000e+00 8.210619e-01 1.789382e-01 0.000000e+00 0.000000e+00
 0.000000e+00 0.000000e+00 6.727015e-01 3.272986e-01 0.000000e+00
 0.000000e+00 0.000000e+00 0.000000e+00 5.747412e-01 4.252588e-01
 0.000000e+00 0.000000e+00 0.000000e+00 0.000000e+00 0.000000e+00
<ENDHMM>
~h "n"
<BEGINHMM>
<NUMSTATES> 5
<STATE> 2
<NUMMIXES> 2
<MIXTURE> 1 2.931046e-01
<MEAN> 39
 -4.687218e+00 -5.976720e-01 -2.387626e+00 -8.805328e+00 -1.418453e+01 -1.075560e+01 -4.850078e+00 -1.104763e+01 -1.376937e+01 -5.577244e+00 -7.690300e+00 1.251505e+00 4.786375e+01 1.229486e-01 1.330200e+00 5.304588e-01 1.383638e+00 -2.142008e-01 4.312040e-01 -3.965208e-02 -2.295051e+00 -1.147676e-01 1.852009e-01 6.891770e-02 9.104230e-02 -1.631530e+00 -4.143995e-01 -4.839837e-01 -5.283780e-02 -4.305576e-01 2.813821e-01 2.133912e-01 7.606928e-02 7.428418e-01 2.152231e-01 -7.343079e-02 1.024608e-01 -1.791903e-01 4.711338e-01
<VARIANCE> 39
 6.317754e+00 1.811066e+01 1.572608e+01 2.209661e+01 3.529617e+01 3.680672e+01 4.653355e+01 6.611327e+01 3.970627e+01 5.081877e+01 4.567127e+01 5.047445e+01 1.625181e+01 8.663187e-01 1.457323e+00 1.909196e+00 2.585361e+00 3.719788e+00 3.996472e+00 2.705769e+00 7.088411e+00 3.264394e+00 4.043063e+00 3.313351e+00 2.562488e+00 1.777343e+00 2.000000e-01 2.379896e-01 2.473627e-01 4.212455e-01 4.140750e-01 5.748562e-01 4.473667e-01 9.045686e-01 4.990905e-01 6.049500e-01 4.916538e-01 4.600588e-01 2.846645e-01
<GCONST> 1.167996e+02
<MIXTURE> 2 7.068908e-01
<MEAN> 39
 -5.265624e+00 -4.969114e-01 -2.767387e+00 -8.336555e+00 -1.532389e+01 -9.695210e+00 -4.725374e+00 -1.096184e+01 -1.248083e+01 -5.739117e+00 -8.301105e+00 4.396109e-01 4.732788e+01 -1.086028e-01 6.162884e-01 1.767356e-01 4.813228e-01 1.704024e-01 2.070016e-01 -7.886711e-02 -5.304847e-01 -9.015547e-02 -3.030070e-01 -1.463415e-01 -3.004818e-01 -7.393898e-01 -1.698473e-01 -1.875573e-01 -3.029867e-02 -1.367633e-01 2.566270e-01 2.219410e-02 -5.877384e-02 5.736091e-01 -3.791818e-02 -1.528212e-01 1.383230e-01 -1.238083e-01 1.594281e-01
<VARIANCE> 39
 6.369291e+00 1.482921e+01 2.520417e+01 2.820705e+01 4.235679e+01 3.797192e+01 4.481789e+01 5.726184e+01 5.085431e+01 4.940457e+01 5.476851e+01 4.599425e+01 1.597252e+01 3.034547e-01 6.394640e-01 7.602499e-01 9.461597e-01 1.154873e+00 1.342127e+00 1.319982e+00 2.774703e+00 1.650921e+00 1.624593e+00 1.278763e+00 1.272313e+00 4.436539e-01 2.000000e-01 2.000000e-01 2.000000e-01 2.968208e-01 2.797669e-01 3.650412e-01 3.102764e-01 5.094939e-01 4.090820e-01 3.791468e-01 3.629678e-01 2.973702e-01 2.000000e-01
<GCONST> 1.010161e+02
<STATE> 3
<NUMMIXES> 2
<MIXTURE> 1 4.809076e-01
<MEAN> 39
 -1.575089e+01 -2.179669e+00 -3.823007e+00 -3.108395e+00 -5.187145e+00 -2.834142e+00 -2.356287e+00 -3.896464e+00 -7.492312e+00 -6.034996e+00 -3.470546e+00 -9.765770e-01 3.580655e+01 -9.043750e-01 -2.998284e-01 -3.383115e-01 2.665507e-01 6.269767e-01 4.563357e-01 4.592057e-01 6.006629e-01 8.142222e-01 6.864993e-01 5.876237e-01 3.570655e-01 -7.668186e-01 1.392201e-02 -1.039732e-01 -1.405845e-01 -2.677429e-01 -1.164295e-01 -1.658653e-02 2.768664e-02 8.593834e-02 8.474719e-02 1.611681e-01 1.107350e-01 8.723608e-02 1.373654e-01
<VARIANCE> 39
 2.603203e+01 2.612424e+01 3.015923e+01 2.082236e+01 2.746571e+01 2.757773e+01 3.128340e+01 4.269817e+01 5.132897e+01 5.145900e+01 3.413414e+01 2.194760e+01 3.253825e+01 1.207600e+00 1.080085e+00 1.404307e+00 1.845800e+00 2.071718e+00 2.009301e+00 2.710676e+00 2.387375e+00 2.795150e+00 2.622554e+00 2.495902e+00 2.147244e+00 1.173235e+00 2.000000e-01 2.000000e-01 2.627150e-01 3.338324e-01 2.898124e-01 3.185047e-01 4.805466e-01 4.376873e-01 5.595844e-01 5.616564e-01 4.415651e-01 3.695615e-01 2.000000e-01
<GCONST> 1.106177e+02
<MIXTURE> 2 5.190924e-01
<MEAN> 39
 -7.939179e+00 -1.708375e+00 -2.727033e+00 -7.624123e+00 -1.092840e+01 -8.838760e+00 -5.422752e+00 -7.611047e+00 -1.291467e+01 -8.240142e+00 -8.140168e+00 -2.096196e+00 4.654799e+01 -9.701071e-01 -7.449017e-01 1.371217e-02 -1.156197e-01 1.038079e+00 5.694111e-01 -1.027107e-01 1.306397e+00 1.764582e-01 -7.629810e-01 5.667537e-01 -4.291959e-01 -8.331075e-02 -3.736975e-01 -3.827409e-01 -1.237655e-01 -2.210433e-01 1.582373e-01 2.281684e-01 1.480460e-01 4.531367e-01 4.131446e-01 2.178992e-01 2.135193e-01 1.618732e-01 1.624309e-01
<VARIANCE> 39
 1.913680e+01 3.241097e+01 2.355345e+01 3.434743e+01 6.324251e+01 4.894771e+01 5.354589e+01 8.262951e+01 4.611071e+01 7.088103e+01 5.763446e+01 4.361070e+01 2.867261e+01 9.929641e-01 2.153784e+00 1.848953e+00 3.934371e+00 3.483710e+00 3.383916e+00 3.351526e+00 5.367184e+00 4.202715e+00 4.095767e+00 3.749763e+00 3.076207e+00 3.016252e+00 3.606009e-01 4.869000e-01 4.200055e-01 8.862000e-01 6.636475e-01 6.879728e-01 7.385310e-01 1.232738e+00 7.427718e-01 9.013435e-01 7.034351e-01 5.433769e-01 6.490193e-01
<GCONST> 1.296086e+02
<STATE> 4
<NUMMIXES> 2
<MIXTURE> 1 4.517109e-01
<MEAN> 39
 -1.278754e+01 -1.065053e+00 -3.366202e+00 -4.579040e+00 -6.714841e+00 -6.411386e+00 -4.882126e+00 -5.010195e+00 -9.649887e+00 -7.905041e+00 -5.448997e+00 -1.439150e+00 4.053038e+01 -2.647186e+00 -1.023462e+00 -9.769860e-01 1.791050e-01 1.880581e+00 1.396202e+00 1.224392e+00 2.059703e+00 2.125108e+00 1.566968e+00 1.467924e+00 1.118935e-02 -9.618319e-01 -1.293013e-01 -1.646482e-01 -1.701910e-01 -3.161170e-01 -2.878633e-01 4.419118e-02 1.441200e-01 2.216680e-03 2.975380e-01 4.146444e-01 3.700928e-03 2.208063e-01 5.584732e-01
<VARIANCE> 39
 3.271830e+01 4.784434e+01 2.918665e+01 3.556520e+01 4.853379e+01 3.403467e+01 4.499862e+01 7.822977e+01 5.662013e+01 4.262486e+01 4.111179e+01 3.471788e+01 3.928479e+01 2.986933e+00 4.215021e+00 3.126385e+00 5.052494e+00 4.705339e+00 4.119093e+00 3.972301e+00 5.501177e+00 4.320047e+00 4.690109e+00 4.179028e+00 3.948650e+00 6.725338e+00 8.112462e-01 7.102721e-01 5.582390e-01 8.648829e-01 7.802770e-01 7.117008e-01 8.184245e-01 9.931824e-01 1.067617e+00 7.768477e-01 7.191550e-01 7.186145e-01 1.033909e+00
<GCONST> 1.364480e+02
<MIXTURE> 2 5.482894e-01
<MEAN> 39
 -1.253998e+01 -6.483950e+00 -3.359962e+00 -1.174960e+01 -1.141203e+01 -7.011367e+00 -4.227414e+00 -1.104347e+00 -7.837515e+00 -3.338126e+00 -3.904510e+00 -8.487394e-02 4.915666e+01 -6.046875e-01 -1.193355e+00 -1.254086e-01 -1.725221e+00 2.056041e-01 7.936824e-01 4.318667e-03 1.690879e+00 6.682494e-01 9.145685e-03 1.653561e-01 1.222325e-01 1.191908e+00 2.478147e-01 1.571200e-01 -5.044486e-02 -1.304764e-02 -2.978580e-03 7.936830e-03 1.260392e-02 -4.333494e-01 -1.617507e-01 -3.017252e-02 -3.954371e-01 -7.599625e-02 3.863874e-02
<VARIANCE> 39
 4.459228e+01 3.707135e+01 3.247513e+01 6.538836e+01 7.163785e+01 5.334089e+01 6.560710e+01 7.479821e+01 6.247527e+01 5.228923e+01 3.664323e+01 3.331348e+01 1.198565e+02 2.256395e+00 3.931433e+00 4.455719e+00 6.339338e+00 5.093666e+00 4.346077e+00 5.007194e+00 9.110245e+00 4.463249e+00 5.382616e+00 4.045553e+00 3.421633e+00 7.459562e+00 4.564667e-01 7.906266e-01 6.822828e-01 1.596973e+00 1.053129e+00 8.817964e-01 8.024488e-01 1.253852e+00 7.389480e-01 8.423858e-01 6.240379e-01 5.134652e-01 1.718937e+00
<GCONST> 1.416661e+02
<TRANSP> 5
 0.000000e+00 1.000000e+00 0.000000e+00 0.000000e+00 0.000000e+00
 0.000000e+00 8.231055e-01 1.768945e-01 0.000000e+00 0.000000e+00
 0.000000e+00 0.000000e+00 7.116582e-01 2.883418e-01 0.000000e+00
 0.000000e+00 0.000000e+00 0.000000e+00 5.847679e-01 4.152321e-01
 0.000000e+00 0.000000e+00 0.000000e+00 0.000000e+00 0.000000e+00
<ENDHMM>
~h "p"
<BEGINHMM>
<NUMSTATES> 5
<STATE> 2
<NUMMIXES> 2
<MIXTURE> 1 4.288683e-01
<MEAN> 39
 -2.020579e+01 -6.846572e-01 -4.943366e+00 -4.433448e-01 -2.849845e+00 -8.971892e-01 -2.455686e+00 -1.004780e+00 -2.222650e+00 -1.117490e+00 -1.564666e+00 -7.032231e-01 3.071012e+01 -8.677445e-01 -1.361150e+00 -1.098260e-01 -3.702361e-01 4.489478e-02 5.229151e-01 1.542037e+00 1.776379e+00 1.492550e+00 1.156320e+00 1.303596e+00 1.060979e+00 1.676242e+00 7.665924e-01 -3.746509e-01 1.511165e-01 -8.194520e-01 -5.050431e-01 -5.446925e-01 -8.522619e-02 -2.615045e-01 -2.882745e-01 6.024063e-04 -1.560917e-01 -3.028548e-02 1.868861e+00
<VARIANCE> 39
 4.940097e+00 5.203469e+00 7.424831e+00 6.837150e+00 9.343557e+00 1.045288e+01 1.200266e+01 1.392484e+01 1.544005e+01 1.628149e+01 1.495381e+01 1.269971e+01 1.112973e+01 5.258308e+00 1.686452e+00 3.429010e+00 2.639145e+00 2.600240e+00 3.940664e+00 2.513956e+00 2.863420e+00 3.654881e+00 2.334664e+00 2.340296e+00 1.839816e+00 2.176233e+01 4.958238e-01 4.164633e-01 6.806713e-01 4.445470e-01 4.691136e-01 5.078914e-01 5.491817e-01 5.646323e-01 5.119033e-01 5.617230e-01 4.430963e-01 3.517221e-01 9.069661e-01
<GCONST> 1.085236e+02
<MIXTURE> 2 5.711313e-01
<MEAN> 39
 -2.122745e+01 -1.740340e+00 -6.138932e+00 -8.239245e-01 -3.475988e+00 -1.110186e+00 -1.686322e+00 -1.766190e-01 -8.858562e-01 -2.850633e-01 -7.593422e-01 2.579350e-01 2.971915e+01 4.983979e-02 -3.293730e-01 3.015276e-02 -1.650073e-01 -8.809797e-03 -5.964521e-02 6.518397e-02 8.755186e-02 3.520129e-02 -6.556001e-02 -2.739856e-02 -2.266335e-02 8.208641e-01 3.655876e-01 -8.482645e-02 2.446450e-01 -2.499339e-01 -1.118064e-01 -2.197939e-01 1.113242e-02 -1.246690e-01 -1.412282e-01 -1.098469e-01 -1.022974e-01 -7.007912e-02 1.170582e+00
<VARIANCE> 39
 2.239596e+00 3.355143e+00 4.276816e+00 5.255658e+00 8.516244e+00 1.097090e+01 1.089829e+01 1.245029e+01 1.265235e+01 1.120473e+01 1.154483e+01 1.008218e+01 1.380863e+01 5.594114e-01 7.340215e-01 8.268171e-01 1.104353e+00 1.168778e+00 1.272219e+00 1.390069e+00 1.556042e+00 1.677747e+00 1.432628e+00 1.310490e+00 1.099417e+00 5.673928e+00 2.000000e-01 2.015284e-01 2.638193e-01 2.264092e-01 2.708195e-01 3.209665e-01 4.345845e-01 4.353466e-01 4.641146e-01 3.426765e-01 3.556344e-01 2.915137e-01 1.224292e+00
<GCONST> 8.771618e+01
<STATE> 3
<NUMMIXES> 2
<MIXTURE> 1 4.792053e-01
<MEAN> 39
 -1.663541e+01 -6.332429e+00 -2.845757e+00 -4.453533e+00 -5.796061e+00 -4.923314e+00 1.569717e+00 3.342885e+00 -8.167315e-02 -1.354894e-01 5.821835e-01 1.630421e+00 5.088847e+01 7.441580e-01 -1.871026e+00 1.255325e+00 -1.769068e+00 -8.187206e-01 -7.352844e-01 1.542808e+00 2.269770e-01 1.057243e-01 6.373727e-01 3.883913e-01 4.470140e-01 6.684831e+00 -4.348284e-01 1.729991e-01 -1.560731e-01 -3.728384e-01 1.007290e-01 3.092206e-01 -3.851883e-01 -7.924272e-01 -2.956595e-01 -6.127396e-02 -4.442821e-01 -2.650326e-01 -1.188454e+00
<VARIANCE> 39
 1.123501e+01 1.819451e+01 2.048236e+01 1.789745e+01 2.141814e+01 2.158139e+01 2.159008e+01 2.094662e+01 2.079466e+01 1.867101e+01 2.028201e+01 1.311642e+01 6.240606e+01 1.291441e+00 1.360871e+00 2.844937e+00 2.525913e+00 2.196549e+00 2.108941e+00 2.431465e+00 2.897269e+00 2.410004e+00 1.984060e+00 2.108668e+00 1.533820e+00 7.425703e+00 3.226606e-01 3.768337e-01 4.752325e-01 5.293792e-01 5.130081e-01 6.143268e-01 5.516317e-01 7.059819e-01 6.868373e-01 4.818397e-01 6.017879e-01 3.809299e-01 1.289873e+00
<GCONST> 1.136866e+02
<MIXTURE> 2 5.207943e-01
<MEAN> 39
 -1.758523e+01 -8.682817e+00 -1.897709e+00 -6.976661e+00 -5.347305e+00 -3.302951e+00 3.548292e+00 1.116301e+00 -7.232401e-01 2.195563e+00 1.063823e+00 1.097674e+00 5.582710e+01 -7.876395e-02 -9.649777e-01 2.702339e-01 -2.589686e+00 -2.727426e-01 1.023582e-01 -4.290116e-01 -1.831959e+00 -6.606912e-01 -6.306817e-02 -1.198492e+00 -3.720006e-01 2.589920e+00 3.879153e-02 7.817703e-01 -2.771661e-01 -2.799851e-01 -3.761719e-02 -3.376704e-02 -1.171128e+00 -7.941236e-01 -5.021239e-01 -6.053618e-01 -8.485314e-01 -2.559062e-01 -1.828772e+00
<VARIANCE> 39
 1.347948e+01 1.747773e+01 3.563182e+01 2.187148e+01 3.235751e+01 2.676988e+01 3.261994e+01 2.608067e+01 3.149212e+01 2.109991e+01 2.347785e+01 1.741732e+01 2.821370e+01 3.465688e+00 2.519634e+00 3.857243e+00 4.130819e+00 3.480058e+00 3.704864e+00 4.321609e+00 3.750164e+00 4.102003e+00 2.638425e+00 2.764014e+00 2.233102e+00 1.141182e+01 5.115993e-01 3.490894e-01 4.434080e-01 6.144325e-01 5.693436e-01 6.522253e-01 7.765549e-01 7.363607e-01 8.806198e-01 4.896485e-01 6.897348e-01 4.327987e-01 1.105561e+00
<GCONST> 1.235520e+02
<STATE> 4
<NUMMIXES> 2
<MIXTURE> 1 3.861709e-01
<MEAN> 39
 -2.083887e+01 -7.358172e+00 -2.814149e+00 -1.353371e+01 -5.854438e+00 -1.784753e+00 -1.047950e+00 -2.923253e+00 7.056518e-01 7.814770e-01 -2.079785e+00 7.862439e-01 5.506004e+01 -3.730363e-01 6.417497e-01 -4.675764e-01 -1.580188e+00 5.180074e-01 1.405250e-01 -1.463966e+00 -1.143246e+00 -1.278130e-01 -1.018359e+00 -8.234473e-01 -1.076038e-01 -7.094314e-01 5.751690e-01 6.732267e-01 1.519862e-01 5.612667e-01 -1.178221e-01 -3.892285e-01 -5.308828e-01 -9.322419e-02 -5.042153e-01 -5.013005e-01 -2.081807e-01 -2.003317e-01 -8.994445e-01
<VARIANCE> 39
 1.750780e+01 2.262355e+01 3.635839e+01 3.251899e+01 2.664630e+01 2.176294e+01 3.202531e+01 1.854853e+01 2.371453e+01 1.895322e+01 1.748306e+01 1.531688e+01 2.974965e+01 1.821370e+00 2.038449e+00 1.677716e+00 3.909700e+00 2.657202e+00 3.282103e+00 3.010317e+00 2.701788e+00 2.690291e+00 2.595759e+00 3.186341e+00 2.048158e+00 2.520654e+00 3.831135e-01 4.062285e-01 4.150610e-01 5.306430e-01 5.872648e-01 5.124942e-01 7.457632e-01 4.514660e-01 6.627947e-01 6.235101e-01 5.052335e-01 3.851897e-01 1.156956e+00
<GCONST> 1.167359e+02
<MIXTURE> 2 6.138287e-01
<MEAN> 39
 -1.816670e+01 -6.344139e+00 -1.289065e+00 -1.356680e+01 -5.539522e+00 -3.036653e+00 -2.458523e+00 -5.867414e+00 -3.222029e+00 -2.437757e+00 -4.870729e+00 -3.554184e-01 5.330406e+01 2.233994e+00 1.960036e+00 9.090663e-01 -1.977231e+00 -1.525623e+00 -1.201806e+00 -3.470309e+00 -2.757144e+00 -2.675924e+00 -1.912512e+00 -2.954272e+00 -1.127761e+00 2.018974e-01 5.962517e-01 2.834901e-01 7.729284e-02 -1.257175e-01 -6.265377e-01 -3.412980e-01 -4.683606e-01 3.257006e-01 -3.071650e-01 2.727466e-01 -1.017929e-01 -1.004242e-01 2.709596e-01
<VARIANCE> 39
 2.104019e+01 3.391953e+01 5.373257e+01 4.008418e+01 3.660228e+01 2.618282e+01 5.660094e+01 3.546583e+01 3.561653e+01 3.113876e+01 2.557624e+01 2.307642e+01 1.859748e+01 1.906677e+00 2.319768e+00 3.330190e+00 4.217642e+00 3.308531e+00 3.286557e+00 3.645390e+00 3.664144e+00 3.605172e+00 3.280403e+00 3.198997e+00 2.260790e+00 3.109227e+00 3.907670e-01 4.365106e-01 4.652823e-01 5.456903e-01 5.140715e-01 6.612310e-01 8.149639e-01 8.121306e-01 8.531423e-01 7.349516e-01 7.146181e-01 5.925243e-01 8.344834e-01
<GCONST> 1.252598e+02
<TRANSP> 5
 0.000000e+00 1.000000e+00 0.000000e+00 0.000000e+00 0.000000e+00
 0.000000e+00 8.074775e-01 1.925225e-01 0.000000e+00 0.000000e+00
 0.000000e+00 0.000000e+00 6.502936e-01 3.497064e-01 0.000000e+00
 0.000000e+00 0.000000e+00 0.000000e+00 6.559728e-01 3.440272e-01
 0.000000e+00 0.000000e+00 0.000000e+00 0.000000e+00 0.000000e+00
<ENDHMM>
~h "r"
<BEGINHMM>
<NUMSTATES> 5
<STATE> 2
<NUMMIXES> 2
<MIXTURE> 1 2.800116e-01
<MEAN> 39
 7.292699e-01 -9.816185e+00 -1.626563e+01 -7.618697e+00 -4.598589e+00 -1.846003e+01 -1.510578e+01 1.546221e+00 -9.599018e+00 -2.205702e+00 -4.941109e+00 -3.208546e+00 5.484159e+01 1.036384e+00 -1.462977e+00 -1.815339e-01 -2.565447e-01 -4.223775e-01 -2.340431e+00 4.805011e-02 2.715916e+00 -5.066126e-01 4.036894e-01 -2.263424e-01 2.026616e-01 1.415030e+00 -9.439706e-01 -1.720350e-01 7.954533e-01 -2.251644e-02 -3.679474e-01 6.583584e-01 1.002233e+00 1.175626e-01 -8.367787e-03 1.820339e-01 1.819517e-01 1.072076e-01 -5.938844e-02
<VARIANCE> 39
 1.201160e+01 3.118067e+01 5.992676e+01 2.413693e+01 5.442334e+01 7.126656e+01 4.258801e+01 1.091741e+02 4.283532e+01 4.564095e+01 3.411778e+01 2.073169e+01 2.772700e+01 5.012519e+00 2.008903e+00 5.431697e+00 2.904822e+00 4.712436e+00 6.518490e+00 5.468029e+00 5.949238e+00 5.859030e+00 3.338148e+00 3.060743e+00 2.436163e+00 2.761274e+00 5.380668e-01 2.860833e-01 4.692640e-01 5.049461e-01 7.357378e-01 9.933032e-01 5.722393e-01 1.415723e+00 9.397534e-01 6.249961e-01 5.231783e-01 4.209355e-01 2.299121e-01
<GCONST> 1.296723e+02
<MIXTURE> 2 7.199875e-01
<MEAN> 39
 -2.399175e-01 -1.563549e+01 -1.921121e+01 -6.479742e+00 -5.651597e+00 -1.712195e+01 -8.327241e+00 1.170054e+01 -1.058589e+01 -3.441615e+00 -6.402282e+00 -2.019230e+00 5.746606e+01 -3.555212e-01 -1.304199e-02 6.962706e-01 2.137007e-01 -7.371061e-01 -7.505461e-01 4.904898e-01 3.401177e-01 1.343224e-01 -2.667741e-01 3.510031e-01 1.883873e-01 -4.790041e-01 -2.884842e-01 1.375853e-01 4.747044e-01 -1.748368e-01 -3.417241e-01 4.147558e-01 3.437818e-01 -4.703616e-01 -1.113929e-01 2.160470e-01 1.427959e-01 -1.368922e-01 -1.439189e-01
<VARIANCE> 39
 1.527183e+01 2.033837e+01 4.765023e+01 2.609235e+01 6.532831e+01 8.436811e+01 8.128803e+01 6.843680e+01 4.791102e+01 5.544476e+01 3.733184e+01 2.594353e+01 2.791082e+01 8.738322e-01 1.103586e+00 3.359080e+00 1.183653e+00 3.691434e+00 3.139046e+00 3.506242e+00 3.537355e+00 2.910646e+00 2.227532e+00 2.442549e+00 1.571436e+00 8.546931e-01 2.000000e-01 2.000000e-01 2.297059e-01 2.458926e-01 4.063040e-01 3.850448e-01 3.774980e-01 5.444500e-01 4.524971e-01 3.560163e-01 3.849082e-01 2.367648e-01 2.000000e-01
<GCONST> 1.138779e+02
<STATE> 3
<NUMMIXES> 2
<MIXTURE> 1 3.695352e-01
<MEAN> 39
 -2.909613e+00 -1.541742e+01 -1.396483e+01 -7.893347e+00 -1.237401e+01 -1.671893e+01 -4.588559e+00 8.280596e+00 -9.583236e+00 -4.056841e+00 -5.427509e+00 -2.898215e+00 5.401315e+01 -2.351569e+00 2.246606e+00 2.536282e+00 3.757183e-01 -6.015543e-01 1.420312e+00 1.333129e+00 -1.581549e+00 1.246224e+00 3.069722e-01 9.004223e-01 -2.648335e-01 -3.336915e+00 -8.472135e-01 6.708640e-01 2.122362e-01 2.654549e-01 9.190182e-01 1.141286e+00 3.195571e-02 -4.345052e-01 3.215175e-01 2.740852e-01 -6.900196e-03 3.159295e-02 -8.031841e-01
<VARIANCE> 39
 1.302467e+01 2.739222e+01 8.479273e+01 5.126026e+01 9.443060e+01 9.691038e+01 7.249738e+01 6.718897e+01 6.250826e+01 6.354524e+01 4.090023e+01 2.604802e+01 3.163833e+01 2.953404e+00 5.221145e+00 4.095298e+00 3.822259e+00 6.918212e+00 7.846506e+00 4.700211e+00 7.711243e+00 7.320018e+00 5.615465e+00 3.835390e+00 2.660855e+00 6.039726e+00 3.394078e-01 5.648575e-01 1.000177e+00 7.721021e-01 1.238319e+00 9.262626e-01 7.766066e-01 1.091307e+00 8.934429e-01 7.187698e-01 7.112445e-01 5.064261e-01 6.962926e-01
<GCONST> 1.394005e+02
<MIXTURE> 2 6.304640e-01
<MEAN> 39
 -3.691947e+00 -1.643890e+01 -8.856500e+00 -8.687070e+00 -1.330988e+01 -1.983118e+01 -1.489395e+00 1.076680e+01 -1.476310e+01 -7.630837e-01 -3.349669e+00 -2.761715e+00 5.807183e+01 -1.357946e+00 5.151125e-01 2.905040e+00 -1.452420e+00 -2.248656e+00 1.210643e+00 1.824222e+00 -2.317379e+00 -3.378032e-01 1.274514e+00 5.554348e-01 -1.577885e-01 -2.838786e-01 -1.426118e-01 4.714790e-01 -6.934263e-02 -3.451063e-01 3.639431e-01 6.433044e-01 -5.118545e-01 -8.118343e-01 5.432737e-01 1.180524e-01 -3.395574e-01 2.202068e-02 -2.255397e-01
<VARIANCE> 39
 1.586923e+01 2.068072e+01 5.650908e+01 3.691799e+01 7.422981e+01 8.605727e+01 5.759986e+01 6.710196e+01 4.572868e+01 7.007134e+01 3.577578e+01 2.484545e+01 4.446231e+01 5.104735e-01 1.692020e+00 2.735502e+00 2.482027e+00 3.266426e+00 3.410415e+00 3.726549e+00 5.353531e+00 3.507895e+00 2.915807e+00 2.671165e+00 2.009612e+00 1.505018e+00 2.000000e-01 2.000000e-01 3.027856e-01 3.157327e-01 4.850584e-01 5.842164e-01 5.789204e-01 8.265017e-01 5.093323e-01 5.308935e-01 4.352671e-01 3.742578e-01 2.000000e-01
<GCONST> 1.200832e+02
<STATE> 4
<NUMMIXES> 2
<MIXTURE> 1 4.728787e-01
<MEAN> 39
 -1.609685e+01 -6.858712e+00 -7.619085e+00 -2.867677e+00 -5.155495e+00 -3.917137e+00 -9.956814e-01 1.232570e+00 -4.313014e+00 -3.439826e+00 -2.849875e+00 -1.545186e+00 3.721545e+01 -2.183694e+00 1.300838e+00 9.001098e-01 5.196274e-01 1.050195e+00 1.916898e+00 2.738529e-01 -7.966775e-01 1.239434e+00 7.104132e-01 5.641527e-01 5.179222e-01 -2.213379e+00 4.136907e-01 -3.358566e-01 -3.855714e-01 -1.391844e-01 -7.318301e-04 -2.852997e-01 -1.931278e-01 1.880949e-01 -2.984477e-01 1.144002e-02 -8.569033e-02 6.079032e-02 6.114491e-01
<VARIANCE> 39
 2.881897e+01 3.991451e+01 4.158574e+01 2.882238e+01 5.623909e+01 4.844431e+01 3.562490e+01 5.981684e+01 5.079309e+01 4.791514e+01 3.477343e+01 3.057017e+01 3.929628e+01 4.367300e+00 4.166945e+00 3.939792e+00 3.077271e+00 5.488298e+00 6.178385e+00 3.827003e+00 5.028687e+00 3.957358e+00 3.236449e+00 3.258104e+00 2.361820e+00 5.344146e+00 5.262821e-01 7.654712e-01 7.459260e-01 5.802779e-01 8.104955e-01 8.642905e-01 6.980004e-01 1.061438e+00 9.392630e-01 8.025866e-01 6.715904e-01 5.628127e-01 9.311419e-01
<GCONST> 1.342403e+02
<MIXTURE> 2 5.271197e-01
<MEAN> 39
 -1.532329e+01 -8.677819e+00 -6.320444e+00 -5.757056e+00 -7.349713e+00 -5.629010e+00 -1.021863e-01 1.105747e+00 -6.683345e+00 -5.313141e-01 -2.583762e+00 -1.189027e+00 4.174239e+01 -3.022397e-01 4.651989e-01 9.420478e-01 -1.270756e+00 -4.832481e-01 6.662119e-01 -4.944905e-01 -1.278536e+00 1.179455e-01 1.658754e-01 -5.198584e-01 1.547441e-01 4.103817e-01 3.325802e-01 9.432122e-03 -1.278955e-01 -2.278246e-01 9.142119e-03 -2.481624e-01 -4.139598e-01 2.956468e-02 -7.252189e-03 -2.048946e-01 -2.649631e-01 8.868803e-03 3.991553e-01
<VARIANCE> 39
 5.093914e+01 4.722707e+01 5.133730e+01 5.947310e+01 8.244347e+01 7.552304e+01 4.299092e+01 4.897352e+01 5.714577e+01 5.377412e+01 2.670743e+01 2.509542e+01 1.409731e+02 2.257025e+00 2.674122e+00 3.027894e+00 4.198395e+00 2.923957e+00 4.103599e+00 3.155136e+00 4.678960e+00 3.420807e+00 2.441294e+00 2.396514e+00 1.948851e+00 4.980865e+00 4.459492e-01 4.258989e-01 5.809020e-01 7.718648e-01 7.803112e-01 5.787283e-01 5.567181e-01 6.885747e-01 6.093025e-01 4.492534e-01 4.091921e-01 3.930397e-01 8.517545e-01
<GCONST> 1.306481e+02
<TRANSP> 5
 0.000000e+00 1.000000e+00 0.000000e+00 0.000000e+00 0.000000e+00
 0.000000e+00 6.453663e-01 3.546337e-01 0.000000e+00 0.000000e+00
 0.000000e+00 0.000000e+00 6.415418e-01 3.584582e-01 0.000000e+00
 0.000000e+00 0.000000e+00 0.000000e+00 7.424203e-01 2.575797e-01
 0.000000e+00 0.000000e+00 0.000000e+00 0.000000e+00 0.000000e+00
<ENDHMM>
~h "s"
<BEGINHMM>
<NUMSTATES> 5
<STATE> 2
<NUMMIXES> 2
<MIXTURE> 1 4.176436e-01
<MEAN> 39
 -2.137768e+01 1.840992e+00 -7.870527e+00 -4.423575e+00 -6.731956e+00 -3.812217e+00 -9.788951e-01 -4.230937e+00 -5.029183e+00 -6.088614e+00 -3.908859e+00 -2.892690e+00 5.523213e+01 -4.851133e+00 1.116324e+00 -1.500216e+00 1.991582e+00 2.512303e+00 2.274123e+00 1.171385e+00 1.546432e+00 1.613317e+00 2.339247e+00 2.736557e+00 -7.494630e-02 -3.773895e-01 3.956180e-01 -6.909112e-01 -3.544487e-01 -5.876949e-01 -4.993377e-01 -1.156575e-01 -6.523035e-02 3.954831e-01 1.433643e-01 4.599653e-01 -2.768888e-01 5.265542e-01 1.996731e-01
<VARIANCE> 39
 2.708266e+01 2.397978e+01 2.058580e+01 1.983631e+01 2.680765e+01 3.009729e+01 2.685159e+01 2.755963e+01 2.061978e+01 2.644280e+01 2.025949e+01 1.782756e+01 1.886377e+01 1.637983e+00 2.954372e+00 2.622464e+00 3.176364e+00 3.404633e+00 3.516368e+00 4.714437e+00 4.084349e+00 2.968971e+00 3.746333e+00 3.180991e+00 2.714781e+00 1.187133e+00 5.162919e-01 5.662148e-01 5.145306e-01 4.528476e-01 5.176110e-01 6.071667e-01 6.170611e-01 7.156777e-01 5.660901e-01 5.569221e-01 6.098510e-01 4.105977e-01 2.000000e-01
<GCONST> 1.176567e+02
<MIXTURE> 2 5.823537e-01
<MEAN> 39
 -2.803277e+01 7.124364e-01 -1.224583e+01 -4.330502e+00 -4.960960e+00 -1.826894e+00 1.323201e+00 -4.075443e-01 -4.521353e-01 -2.482056e-01 1.024072e+00 -4.820224e-02 5.326248e+01 -2.194805e+00 7.716771e-01 -1.264652e+00 7.415705e-01 6.105548e-01 9.733744e-01 1.897629e-01 6.682909e-01 7.355903e-01 1.343149e+00 8.389944e-01 4.048300e-01 2.109517e-01 1.021991e+00 -1.635471e-01 3.294794e-01 -1.557844e-01 -3.978747e-01 -3.191381e-01 -3.289177e-01 -2.803656e-01 -3.905258e-01 -4.811446e-01 -6.484537e-01 7.572757e-03 -1.946766e-01
<VARIANCE> 39
 8.681674e+00 2.241554e+01 1.370598e+01 2.257925e+01 2.423054e+01 2.874222e+01 2.516960e+01 2.115725e+01 1.604845e+01 1.631834e+01 1.401046e+01 1.241828e+01 2.169780e+01 1.700499e+00 2.191675e+00 1.656831e+00 1.951129e+00 2.008515e+00 2.563915e+00 2.418438e+00 2.648120e+00 2.501945e+00 2.795503e+00 2.370836e+00 1.695141e+00 1.851800e+00 2.370858e-01 3.182288e-01 3.191876e-01 4.646106e-01 5.583844e-01 5.954571e-01 5.473728e-01 5.161458e-01 4.690475e-01 4.969151e-01 4.505183e-01 3.615711e-01 2.028197e-01
<GCONST> 1.075234e+02
<STATE> 3
<NUMMIXES> 2
<MIXTURE> 1 5.374260e-01
<MEAN> 39
 -3.035921e+01 3.220471e+00 -1.284226e+01 -2.387159e+00 -3.670673e+00 -1.110770e+00 8.248672e-01 -1.245830e-01 -9.352844e-01 8.259871e-02 -7.745665e-02 2.011067e-01 5.366704e+01 -5.658448e-02 2.003945e-01 2.171954e-01 2.041243e-01 2.045866e-01 9.912266e-02 7.202965e-02 1.227918e-01 2.260304e-02 1.260054e-02 -2.022474e-02 9.548952e-02 6.635298e-02 1.512046e-01 -9.986631e-02 9.784069e-02 -7.433029e-02 -3.826704e-02 -5.084791e-02 4.844077e-02 -1.510527e-02 5.665479e-03 -4.895895e-02 3.912006e-02 -1.180308e-02 -5.772436e-02
<VARIANCE> 39
 5.317221e+00 2.365071e+01 1.004841e+01 2.852159e+01 2.938529e+01 2.728356e+01 2.043182e+01 1.621950e+01 1.413943e+01 1.351768e+01 1.270596e+01 1.054067e+01 1.474210e+01 3.197325e-01 8.040323e-01 6.877525e-01 8.953485e-01 9.924570e-01 1.224459e+00 1.139115e+00 1.227264e+00 1.330649e+00 1.214034e+00 1.140714e+00 1.026999e+00 3.550922e-01 2.000000e-01 2.000000e-01 2.000000e-01 2.000000e-01 2.100619e-01 2.356139e-01 2.274259e-01 2.493390e-01 2.691656e-01 2.592136e-01 2.259213e-01 2.011787e-01 2.000000e-01
<GCONST> 8.611327e+01
<MIXTURE> 2 4.625655e-01
<MEAN> 39
 -2.980735e+01 1.537877e+00 -1.311272e+01 -1.338591e+00 -5.637772e+00 1.168991e+00 -2.845422e-01 8.792737e-01 -1.148570e+00 2.016931e-01 6.932960e-01 8.186657e-02 5.275649e+01 -9.354251e-03 -2.584175e-01 -5.536342e-02 -3.225020e-01 -3.051688e-01 -2.753527e-01 -5.307078e-02 -1.222321e-01 1.174156e-02 -4.791901e-02 1.555289e-02 -6.411507e-03 -1.080876e-01 4.688886e-01 -8.268305e-02 2.582555e-01 -2.650967e-01 -1.978707e-01 -4.020623e-01 -1.059482e-01 -2.473903e-01 -1.187490e-01 -2.094508e-01 -1.933421e-01 -4.309615e-02 -5.233523e-02
<VARIANCE> 39
 4.774090e+00 1.997689e+01 1.179933e+01 1.974082e+01 1.494810e+01 1.763711e+01 1.572270e+01 1.523897e+01 1.398061e+01 1.393427e+01 1.176981e+01 1.210339e+01 1.287934e+01 6.337301e-01 1.014864e+00 1.036508e+00 1.307692e+00 1.172190e+00 1.530424e+00 1.373236e+00 1.425191e+00 1.402093e+00 1.363542e+00 1.310569e+00 1.194098e+00 7.637659e-01 2.509522e-01 2.000000e-01 2.422017e-01 2.729335e-01 3.321124e-01 3.726711e-01 3.348642e-01 3.653215e-01 3.598967e-01 3.638228e-01 3.341027e-01 2.873687e-01 2.000000e-01
<GCONST> 9.158645e+01
<STATE> 4
<NUMMIXES> 2
<MIXTURE> 1 5.828773e-01
<MEAN> 39
 -2.200941e+01 -2.008857e+00 -8.122834e+00 -5.697130e+00 -4.473995e+00 -5.155444e+00 -1.097331e+00 2.612970e-01 2.798580e-01 -4.759779e-01 -1.378142e+00 1.394472e+00 4.184216e+01 9.911606e-01 -5.257326e-01 5.901758e-01 2.835663e-01 3.679922e-01 4.714457e-01 -1.258789e-01 2.476708e-01 6.404560e-02 1.390874e-01 -1.322377e-01 -1.750949e-01 -2.478150e+00 -1.518058e-01 -4.012878e-04 -4.633237e-02 1.437318e-01 1.032692e-01 3.509966e-01 1.205986e-01 -2.989645e-02 -1.339447e-01 -5.789658e-02 1.712423e-02 -1.035025e-01 9.606522e-02
<VARIANCE> 39
 3.814306e+01 2.891178e+01 2.837025e+01 4.303024e+01 5.853754e+01 4.982267e+01 3.845526e+01 3.590546e+01 4.045310e+01 3.321870e+01 2.803404e+01 2.534169e+01 9.065057e+01 3.513079e+00 2.389367e+00 2.252328e+00 3.490689e+00 4.513162e+00 4.981709e+00 4.015300e+00 3.906183e+00 3.957767e+00 3.371114e+00 2.564579e+00 3.005870e+00 5.651661e+00 7.607949e-01 5.765440e-01 4.638422e-01 7.960625e-01 1.028106e+00 1.100518e+00 8.640677e-01 9.164112e-01 8.709934e-01 7.455170e-01 5.474808e-01 6.267185e-01 1.262073e+00
<GCONST> 1.324960e+02
<MIXTURE> 2 4.171192e-01
<MEAN> 39
 -2.607542e+01 7.045534e-01 -8.851489e+00 -4.235148e+00 -6.395535e+00 -2.479889e+00 4.973842e-01 -1.523876e+00 -1.431672e+00 -1.010771e+00 -4.745193e-02 -4.662778e-01 5.003665e+01 3.364624e+00 -7.922676e-01 1.719226e+00 -2.177252e+00 -2.115687e+00 -2.455906e+00 -1.334349e+00 -1.733209e+00 -1.195707e+00 -8.904529e-01 -1.590638e+00 2.836070e-02 6.527710e-01 8.443027e-01 -3.631726e-01 2.650491e-01 -7.362116e-01 -5.406991e-01 -3.878346e-01 -5.635402e-01 -1.207823e-01 -2.346234e-01 1.768007e-01 -5.955152e-01 1.423128e-01 3.169507e-01
<VARIANCE> 39
 2.443670e+01 2.049224e+01 3.048247e+01 2.575753e+01 3.050960e+01 2.961361e+01 2.650803e+01 2.506437e+01 2.207993e+01 1.859356e+01 1.975595e+01 1.508902e+01 8.202911e+01 4.376344e+00 2.999222e+00 4.028780e+00 4.926107e+00 5.362296e+00 5.095338e+00 5.050001e+00 4.731934e+00 3.899481e+00 2.954201e+00 3.822454e+00 2.474599e+00 6.182543e+00 5.006042e-01 4.520828e-01 7.021232e-01 6.790301e-01 6.887909e-01 8.015484e-01 8.092317e-01 8.062063e-01 7.334910e-01 5.580435e-01 5.810027e-01 4.477931e-01 1.158432e+00
<GCONST> 1.272029e+02
<TRANSP> 5
 0.000000e+00 1.000000e+00 0.000000e+00 0.000000e+00 0.000000e+00
 0.000000e+00 6.926486e-01 3.073514e-01 0.000000e+00 0.000000e+00
 0.000000e+00 0.000000e+00 8.932039e-01 1.067961e-01 0.000000e+00
 0.000000e+00 0.000000e+00 0.000000e+00 7.994391e-01 2.005609e-01
 0.000000e+00 0.000000e+00 0.000000e+00 0.000000e+00 0.000000e+00
<ENDHMM>
~h "t"
<BEGINHMM>
<NUMSTATES> 5
<STATE> 2
<NUMMIXES> 2
<MIXTURE> 1 3.920342e-01
<MEAN> 39
 -2.086758e+01 -5.419935e-01 -4.751724e+00 -1.630686e+00 -2.687214e+00 -1.321661e+00 -2.156813e+00 -1.888209e+00 -1.897697e+00 -9.607584e-01 -1.294242e+00 -7.104619e-01 3.372025e+01 -1.141435e+00 -9.376079e-01 -1.180166e+00 -2.605345e-01 6.010104e-01 7.555378e-01 8.292771e-01 9.907725e-01 1.199758e+00 1.096003e+00 1.125698e+00 5.891880e-01 4.365471e-01 2.733194e-01 8.252153e-03 1.003422e-01 -7.514587e-01 -5.896990e-01 -4.395027e-01 -8.960778e-02 -3.640211e-01 -1.128976e-01 -6.316876e-02 -2.241922e-01 4.880836e-02 1.429942e+00
<VARIANCE> 39
 1.359665e+01 1.526184e+01 1.493636e+01 2.050928e+01 1.673176e+01 1.566065e+01 1.716110e+01 2.040412e+01 1.986703e+01 1.825460e+01 1.644638e+01 1.281892e+01 3.744138e+01 3.158392e+00 2.634927e+00 3.685300e+00 4.657254e+00 3.065520e+00 3.422280e+00 2.878146e+00 4.371976e+00 3.303651e+00 3.186238e+00 2.479300e+00 2.199327e+00 1.793926e+01 5.376797e-01 6.000663e-01 5.817358e-01 8.984714e-01 5.972025e-01 5.982053e-01 5.574327e-01 7.201447e-01 5.759543e-01 5.588921e-01 4.970871e-01 4.002213e-01 1.668352e+00
<GCONST> 1.198543e+02
<MIXTURE> 2 6.079611e-01
<MEAN> 39
 -2.132056e+01 -1.271966e+00 -5.946353e+00 -8.555802e-01 -3.269538e+00 -6.214151e-01 -1.977749e+00 -4.824385e-01 -9.705082e-01 1.721604e-01 -3.467509e-01 1.185835e-01 2.999098e+01 2.986557e-03 -6.103628e-01 -4.241229e-01 -8.967425e-01 3.528686e-02 -2.986409e-01 9.030652e-02 -3.038318e-01 1.292329e-01 1.459836e-01 5.896049e-02 -2.901920e-02 2.120400e+00 -1.004445e-01 1.027517e-01 -1.168740e-01 -5.279163e-01 -1.317644e-01 -2.598945e-01 1.019216e-01 -2.728373e-01 -2.560626e-02 -5.001463e-02 -5.908109e-02 -3.639008e-02 1.662048e+00
<VARIANCE> 39
 1.944462e+00 2.959903e+00 4.365566e+00 6.844604e+00 7.808733e+00 8.591059e+00 9.540894e+00 1.069353e+01 1.076951e+01 1.211999e+01 1.089699e+01 1.021511e+01 4.555650e+00 9.133769e-01 1.475551e+00 1.561851e+00 3.232894e+00 1.482175e+00 1.834939e+00 1.550279e+00 1.886018e+00 1.520730e+00 1.584987e+00 1.453900e+00 1.369523e+00 1.278389e+01 2.843155e-01 2.772186e-01 3.438607e-01 4.224850e-01 3.102665e-01 3.503148e-01 3.518024e-01 4.373903e-01 3.144877e-01 3.285698e-01 3.345655e-01 3.033608e-01 1.543533e+00
<GCONST> 9.217971e+01
<STATE> 3
<NUMMIXES> 2
<MIXTURE> 1 4.946348e-01
<MEAN> 39
 -2.452022e+01 -2.128438e+00 -1.111106e+01 -1.011662e+01 -3.776967e+00 -3.928207e+00 1.020456e+00 -3.177729e+00 8.148765e-01 1.844080e+00 4.387372e-01 1.175465e-01 5.693541e+01 -1.596596e+00 1.157386e+00 -1.081489e-01 -1.183526e+00 -6.033987e-01 -5.476791e-01 1.289012e+00 -4.644625e-01 4.151385e-01 2.960759e-01 1.619537e-01 9.728295e-02 4.900607e+00 1.677133e-01 9.175075e-02 9.280846e-01 6.360393e-01 -1.248765e-01 1.707994e-01 -8.960178e-02 3.042308e-02 -2.606345e-01 -2.630680e-01 -2.198457e-01 -4.757387e-03 -1.799728e+00
<VARIANCE> 39
 1.892263e+01 3.437259e+01 2.376173e+01 2.371655e+01 2.527790e+01 2.526406e+01 2.507127e+01 2.159482e+01 1.861998e+01 1.785190e+01 1.625689e+01 1.296881e+01 3.689550e+01 1.727905e+00 2.220566e+00 3.663146e+00 3.962455e+00 2.281736e+00 2.590603e+00 2.219031e+00 2.376487e+00 2.029902e+00 1.875053e+00 1.722481e+00 1.602875e+00 1.278739e+01 5.203891e-01 8.402473e-01 4.767612e-01 5.784774e-01 4.904638e-01 5.505374e-01 5.495912e-01 4.892354e-01 4.422424e-01 4.276062e-01 3.818397e-01 3.486843e-01 1.185232e+00
<GCONST> 1.161182e+02
<MIXTURE> 2 5.053614e-01
<MEAN> 39
 -2.724589e+01 -9.728792e-01 -5.145907e+00 -9.480016e+00 -5.365263e+00 -3.748859e+00 3.820405e+00 -4.187294e+00 6.073710e-01 1.202343e+00 -3.635053e-01 3.302477e-01 5.796893e+01 9.579846e-01 -1.064233e+00 1.720686e+00 -4.465075e-01 -6.907887e-01 -6.471720e-02 -3.613741e-01 -5.354834e-01 -4.635983e-01 -7.347016e-01 -6.536857e-01 9.275967e-02 -6.402468e-01 9.784803e-01 -1.553910e-01 1.279909e-01 -2.275760e-01 -2.697580e-01 -1.421333e-01 -8.476610e-01 -2.715451e-01 -4.317659e-01 -3.557604e-01 -3.992704e-01 -1.417003e-01 -6.965227e-01
<VARIANCE> 39
 1.742671e+01 1.835095e+01 1.748632e+01 1.648993e+01 1.897139e+01 2.300988e+01 2.116837e+01 2.408938e+01 2.183987e+01 1.930215e+01 1.678498e+01 1.585024e+01 2.181595e+01 1.952598e+00 1.621590e+00 1.986483e+00 2.078260e+00 2.082973e+00 2.355173e+00 2.698187e+00 2.023951e+00 1.939222e+00 2.075134e+00 1.769848e+00 1.648133e+00 2.818984e+00 3.745557e-01 6.670057e-01 3.919230e-01 4.547798e-01 4.470662e-01 5.645558e-01 5.308533e-01 5.087575e-01 6.035625e-01 4.034171e-01 4.262349e-01 4.111368e-01 7.275000e-01
<GCONST> 1.102203e+02
<STATE> 4
<NUMMIXES> 2
<MIXTURE> 1 3.562547e-01
<MEAN> 39
 -1.755337e+01 -5.835462e+00 -3.632130e+00 -9.461753e+00 -7.997103e+00 -5.726430e+00 1.410556e-01 -1.952548e+00 -4.575912e+00 -2.833022e+00 -1.738576e+00 1.229190e+00 5.083883e+01 1.834876e+00 -6.876810e-01 3.600235e-01 -8.415259e-02 -1.014656e+00 -4.756288e-02 -1.156234e+00 1.141415e-01 -7.839313e-01 -5.356824e-01 -6.761079e-01 -1.320389e-03 -9.671296e-01 -1.064464e-01 1.371378e-01 -2.853405e-01 3.948655e-02 2.541088e-01 1.739495e-01 -2.305609e-01 1.850652e-01 1.545498e-01 2.245503e-01 7.555272e-02 -1.107325e-01 -2.762173e-01
<VARIANCE> 39
 2.734739e+01 3.240385e+01 2.857487e+01 3.008387e+01 5.988277e+01 5.331587e+01 5.338882e+01 4.288070e+01 3.706219e+01 2.671605e+01 3.054888e+01 2.577032e+01 8.834182e+01 4.900689e+00 3.633435e+00 3.581044e+00 4.350879e+00 4.937797e+00 7.005127e+00 4.249340e+00 4.337132e+00 4.698941e+00 2.976506e+00 3.136983e+00 2.858707e+00 7.006387e+00 7.540113e-01 6.711738e-01 5.441529e-01 5.728655e-01 7.277440e-01 9.927713e-01 6.819143e-01 8.935546e-01 7.038374e-01 5.701558e-01 4.592136e-01 4.956898e-01 1.029949e+00
<GCONST> 1.329038e+02
<MIXTURE> 2 6.437446e-01
<MEAN> 39
 -2.205579e+01 -2.678708e+00 -9.478962e-02 -1.148741e+01 -7.703815e+00 -3.249083e+00 -8.305900e-01 -8.131380e+00 -1.036535e+00 -2.415421e+00 -3.807940e+00 -1.538998e-01 5.448716e+01 3.765160e+00 8.757631e-01 2.530083e+00 -2.200465e+00 -2.476852e+00 -1.297910e+00 -3.918872e+00 -2.411640e+00 -2.638107e+00 -1.896932e+00 -2.533461e+00 -1.028742e+00 -5.830004e-01 3.025387e-01 3.826096e-01 7.465687e-02 -7.608233e-01 -5.342924e-01 -3.223423e-01 -6.172363e-01 3.961478e-02 -4.051081e-01 3.702160e-01 -2.127098e-01 -1.010711e-01 6.150814e-01
<VARIANCE> 39
 1.773203e+01 1.504168e+01 2.095911e+01 1.185902e+01 2.036019e+01 1.986970e+01 3.165747e+01 2.660832e+01 2.831684e+01 2.894029e+01 2.216939e+01 1.931393e+01 1.773515e+01 1.428171e+00 2.431345e+00 1.929269e+00 3.385357e+00 2.841548e+00 2.787557e+00 2.818575e+00 2.526376e+00 3.595603e+00 2.654273e+00 2.344026e+00 2.383760e+00 1.053004e+00 4.147505e-01 4.638731e-01 4.553212e-01 3.392090e-01 4.482658e-01 5.528017e-01 6.807699e-01 6.381832e-01 6.704001e-01 6.019744e-01 5.522320e-01 4.309171e-01 2.000000e-01
<GCONST> 1.126465e+02
<TRANSP> 5
 0.000000e+00 1.000000e+00 0.000000e+00 0.000000e+00 0.000000e+00
 0.000000e+00 7.956183e-01 2.043817e-01 0.000000e+00 0.000000e+00
 0.000000e+00 0.000000e+00 8.108130e-01 1.891870e-01 0.000000e+00
 0.000000e+00 0.000000e+00 0.000000e+00 5.621300e-01 4.378700e-01
 0.000000e+00 0.000000e+00 0.000000e+00 0.000000e+00 0.000000e+00
<ENDHMM>
~h "v"
<BEGINHMM>
<NUMSTATES> 5
<STATE> 2
<NUMMIXES> 2
<MIXTURE> 1 3.741139e-01
<MEAN> 39
 -2.141778e+01 -3.017088e+00 -6.012822e+00 -2.598307e+00 -3.045570e+00 -1.914055e+00 -2.402120e+00 -1.485643e+00 -2.637665e+00 -3.766459e-01 -2.059722e+00 -2.423700e-01 3.378262e+01 -1.606013e-01 -1.112100e-01 -2.649920e-02 8.285772e-02 -4.832204e-02 -7.565982e-02 -7.741976e-02 8.578443e-02 1.857218e-01 3.444209e-01 2.448879e-01 2.404820e-02 1.895498e-02 1.962450e-01 3.486071e-02 6.999077e-02 -1.121731e-01 -1.410831e-01 -1.276996e-01 -8.115590e-02 -1.272883e-01 -1.330294e-01 -1.227164e-01 -8.496663e-02 -2.116276e-02 2.207026e-01
<VARIANCE> 39
 4.082351e+00 8.751422e+00 1.149125e+01 1.244049e+01 1.320229e+01 1.430572e+01 1.319841e+01 1.316642e+01 1.633844e+01 2.211621e+01 2.118161e+01 1.578325e+01 3.527012e+01 6.919764e-01 9.164004e-01 1.165350e+00 1.402217e+00 1.196155e+00 1.602096e+00 1.840169e+00 1.440911e+00 1.857811e+00 2.807563e+00 2.364312e+00 1.479389e+00 8.661829e-01 2.000000e-01 2.000000e-01 2.368005e-01 2.485288e-01 2.959052e-01 3.172131e-01 3.146079e-01 2.207899e-01 3.557686e-01 5.417691e-01 4.450787e-01 2.669750e-01 2.414028e-01
<GCONST> 9.401846e+01
<MIXTURE> 2 6.258852e-01
<MEAN> 39
 -1.234607e+01 4.082442e-02 -1.308359e+00 -3.216007e+00 -7.395855e+00 -8.621819e+00 -9.808188e+00 -9.060705e+00 -1.055958e+01 -7.280320e+00 -7.820016e+00 -5.871371e+00 4.617722e+01 -1.424636e+00 2.104176e-01 4.934888e-01 7.262720e-01 4.961384e-01 3.777777e-01 6.279303e-01 1.084463e-01 2.479022e-02 -7.668386e-01 -3.043701e-01 -1.957404e-01 9.679860e-04 7.417699e-02 -3.345381e-01 -1.873607e-01 -5.589724e-01 -2.421749e-01 1.512798e-01 2.289073e-01 2.230770e-01 1.455952e-01 3.971165e-01 1.071038e-01 2.178525e-01 4.548373e-01
<VARIANCE> 39
 2.096713e+01 1.453060e+01 1.804121e+01 1.958942e+01 2.818645e+01 2.572717e+01 1.491843e+01 1.698478e+01 2.069598e+01 2.459078e+01 2.184736e+01 1.919998e+01 3.006374e+01 3.545465e+00 1.953171e+00 2.093161e+00 2.905515e+00 2.326742e+00 2.983487e+00 2.534206e+00 2.857236e+00 2.386861e+00 2.943427e+00 1.946929e+00 1.988579e+00 2.923867e+00 5.352713e-01 3.984253e-01 4.137133e-01 5.240309e-01 4.297045e-01 4.964642e-01 3.983003e-01 5.120683e-01 3.647795e-01 5.647323e-01 4.155491e-01 4.284095e-01 4.853382e-01
<GCONST> 1.128565e+02
<STATE> 3
<MEAN> 39
 -1.987460e+01 -3.240359e+00 -3.128445e+00 -4.463944e+00 -5.641120e+00 -4.795008e+00 -4.003269e+00 -5.101051e+00 -7.287278e+00 -6.175337e+00 -6.462598e+00 -4.399295e+00 4.847007e+01 5.020910e-01 -6.196105e-01 1.394134e-01 -1.458635e+00 -1.289472e+00 -6.337549e-01 5.505204e-01 1.848096e-01 2.760080e-01 8.918573e-01 4.433082e-01 7.304847e-01 2.059478e+00 1.204848e+00 5.591782e-02 3.086640e-01 -8.671328e-01 -7.033316e-01 -6.136526e-01 -5.972847e-01 -3.806566e-01 -3.303444e-01 5.435820e-01 -1.183191e-01 1.413778e-01 4.477527e-01
<VARIANCE> 39
 1.921377e+01 1.963513e+01 3.114266e+01 1.655714e+01 1.900961e+01 1.692385e+01 2.106556e+01 2.915297e+01 2.866212e+01 3.291307e+01 2.487509e+01 2.161016e+01 3.323663e+01 5.195931e+00 2.131301e+00 3.734681e+00 2.333026e+00 2.896145e+00 2.755120e+00 3.159981e+00 3.800655e+00 3.083157e+00 3.001238e+00 2.596503e+00 2.036896e+00 3.356160e+00 5.273530e-01 5.879205e-01 9.111885e-01 5.042692e-01 6.749786e-01 5.053143e-01 5.895230e-01 9.531814e-01 6.770461e-01 8.586366e-01 6.502316e-01 4.797243e-01 4.586122e-01
<GCONST> 1.208352e+02
<STATE> 4
<MEAN> 39
 -1.214554e+01 -2.185407e+00 -9.705570e-01 -9.317044e+00 -1.173539e+01 -9.379433e+00 -5.664356e+00 -8.254172e+00 -9.488262e+00 -3.455356e+00 -5.997417e+00 -3.497444e+00 5.401483e+01 2.484258e+00 -8.732709e-01 8.259289e-01 -3.479002e+00 -2.522976e+00 -1.404973e+00 -8.443753e-01 -5.980222e-01 -5.362796e-01 2.167909e+00 -3.081514e-01 7.875407e-01 2.361627e+00 -1.935098e-01 -7.142373e-02 9.777800e-02 -3.588747e-01 1.732294e-01 2.359933e-01 -2.558002e-01 1.595626e-01 5.424725e-02 1.260349e-01 -2.897933e-01 -5.084061e-03 -1.925747e-01
<VARIANCE> 39
 3.333182e+01 1.400987e+01 6.439690e+01 3.639831e+01 4.292616e+01 2.953559e+01 2.003103e+01 3.358244e+01 3.363280e+01 2.419516e+01 1.918903e+01 1.818609e+01 2.415800e+01 3.770971e+00 2.617423e+00 7.058587e+00 4.257672e+00 6.603223e+00 4.483478e+00 3.931881e+00 7.212043e+00 4.344065e+00 5.403631e+00 3.682006e+00 3.746931e+00 2.976621e+00 5.554712e-01 2.856903e-01 3.213480e-01 4.948999e-01 5.247990e-01 6.482333e-01 4.517964e-01 5.412759e-01 5.119769e-01 5.847383e-01 4.742474e-01 4.967566e-01 3.987810e-01
<GCONST> 1.245400e+02
<TRANSP> 5
 0.000000e+00 1.000000e+00 0.000000e+00 0.000000e+00 0.000000e+00
 0.000000e+00 8.355988e-01 1.644013e-01 0.000000e+00 0.000000e+00
 0.000000e+00 0.000000e+00 5.362614e-01 4.637387e-01 0.000000e+00
 0.000000e+00 0.000000e+00 0.000000e+00 4.150343e-01 5.849658e-01
 0.000000e+00 0.000000e+00 0.000000e+00 0.000000e+00 0.000000e+00
<ENDHMM>
~h "w"
<BEGINHMM>
<NUMSTATES> 5
<STATE> 2
<NUMMIXES> 2
<MIXTURE> 1 3.344286e-01
<MEAN> 39
 -7.111744e+00 -5.112542e-01 -7.725875e+00 -8.836032e+00 -7.165722e+00 -4.846156e+00 -6.936678e+00 -6.508091e+00 -8.496905e+00 -5.292009e+00 -6.461527e+00 -4.621375e+00 4.177483e+01 9.839751e-02 5.195836e-01 3.010722e-01 3.339888e-01 -6.533322e-01 -7.531065e-02 3.433131e-01 2.875985e-01 1.614353e-01 -5.041940e-01 -5.477189e-02 -2.104294e-01 -3.388658e-01 4.328047e-01 1.232830e-01 -2.715811e-01 -8.861660e-01 -2.803036e-01 -1.988699e-01 -1.240037e-01 2.210340e-01 -2.573549e-02 2.723010e-01 9.206517e-03 2.594930e-01 4.775293e-01
<VARIANCE> 39
 3.432120e+01 2.872483e+01 2.184435e+01 3.262444e+01 2.630948e+01 1.495100e+01 1.794642e+01 2.239845e+01 3.001226e+01 2.190635e+01 2.172533e+01 2.029774e+01 3.924366e+01 3.404661e+00 1.880894e+00 2.611910e+00 4.987325e+00 2.365913e+00 2.193126e+00 3.209748e+00 3.357582e+00 3.915368e+00 2.811231e+00 2.434487e+00 1.936581e+00 1.739394e+00 4.277256e-01 4.512477e-01 6.869844e-01 7.662550e-01 5.572310e-01 4.991297e-01 5.530153e-01 6.180817e-01 7.375001e-01 6.836720e-01 5.310265e-01 3.108711e-01 2.000000e-01
<GCONST> 1.175731e+02
<MIXTURE> 2 6.655710e-01
<MEAN> 39
 -2.014186e+00 -1.268466e+00 -9.468715e+00 -1.420284e+01 -7.240717e+00 -8.461565e+00 -1.239528e+01 -9.684807e+00 -1.198179e+01 -1.136271e+00 -8.777041e+00 -2.747354e+00 4.908767e+01 1.777395e+00 1.719298e+00 -1.736013e+00 -1.212089e+00 4.737885e-02 1.100407e+00 -1.830150e-01 -1.097789e+00 -1.294426e+00 -6.767514e-01 1.613029e-01 -6.037899e-02 -5.997636e-01 -4.294411e-01 -1.619095e-01 4.138941e-01 -2.550364e-01 -7.924485e-01 1.962670e-01 8.697005e-01 5.854658e-01 6.308528e-02 -3.661859e-02 1.143779e-01 1.240722e-01 1.689801e-01
<VARIANCE> 39
 2.330422e+01 3.236573e+01 4.124067e+01 4.713995e+01 3.723857e+01 5.946248e+01 4.480341e+01 4.473232e+01 6.628222e+01 5.405230e+01 4.982316e+01 3.296170e+01 4.259388e+01 3.740803e+00 2.001689e+00 5.172215e+00 4.383755e+00 8.721435e+00 8.315254e+00 8.481433e+00 6.171391e+00 5.966976e+00 5.945745e+00 4.347468e+00 2.617146e+00 5.034995e+00 2.632324e-01 5.981634e-01 8.052193e-01 1.013925e+00 9.377040e-01 1.537917e+00 1.246540e+00 1.218008e+00 1.351414e+00 1.236059e+00 6.225188e-01 5.673985e-01 2.033351e-01
<GCONST> 1.381255e+02
<STATE> 3
<NUMMIXES> 2
<MIXTURE> 1 4.069838e-01
<MEAN> 39
 1.838204e+00 3.316947e+00 -1.328252e+01 -2.411660e+01 -1.626487e+01 -5.301924e+00 -6.446087e+00 -1.325523e+00 -8.971145e+00 -2.268209e+00 -6.982664e+00 -2.666093e+00 4.991830e+01 2.722560e-01 -8.880593e-01 -1.394589e+00 -2.863352e+00 2.989306e-01 2.359396e+00 6.057329e-01 1.173729e+00 -4.443126e-01 1.147582e+00 6.432908e-01 5.970857e-01 1.968890e+00 -3.817198e-01 -6.882287e-01 -8.711837e-02 4.342244e-01 8.861697e-01 6.917059e-01 -1.254242e-01 -4.106028e-01 -1.830115e-01 9.289008e-02 2.274189e-02 -7.376663e-02 2.097016e-01
<VARIANCE> 39
 3.973675e+00 1.210870e+01 1.877966e+01 2.937208e+01 2.396974e+01 3.438020e+01 2.465543e+01 3.224704e+01 3.524089e+01 3.303033e+01 3.593560e+01 2.200680e+01 1.123003e+01 6.627306e-01 1.965581e+00 1.867696e+00 2.551881e+00 2.345635e+00 2.974367e+00 2.276092e+00 3.498569e+00 2.545632e+00 3.132074e+00 2.360120e+00 2.587362e+00 8.645248e-01 2.000000e-01 2.113546e-01 2.226253e-01 5.699382e-01 3.989699e-01 5.616749e-01 4.210963e-01 4.920969e-01 4.619448e-01 6.519306e-01 4.854905e-01 3.592432e-01 2.000000e-01
<GCONST> 1.081371e+02
<MIXTURE> 2 5.930166e-01
<MEAN> 39
 2.042259e-01 4.003153e+00 -1.068876e+01 -1.625356e+01 -1.391559e+01 -6.648338e+00 -7.547756e+00 -7.253917e+00 -1.161268e+01 -5.664087e+00 -8.340508e+00 -3.777612e+00 4.549128e+01 8.840684e-01 -1.232853e-01 -9.231985e-01 -1.739836e+00 -8.966638e-01 4.249945e-02 1.022328e-01 9.327009e-01 3.872775e-01 6.268479e-01 -9.242094e-02 -7.840618e-02 1.134392e+00 -3.252038e-01 -3.938534e-01 -1.880317e-01 -1.721619e-01 3.766094e-01 3.480386e-01 2.129939e-02 2.182751e-01 2.106225e-01 4.766749e-01 1.673811e-01 8.026593e-02 2.305653e-01
<VARIANCE> 39
 5.103544e+00 1.087144e+01 2.081878e+01 2.545361e+01 1.815847e+01 2.168771e+01 1.713752e+01 2.809924e+01 3.308658e+01 2.191000e+01 2.571288e+01 2.501961e+01 1.240264e+01 1.790302e+00 1.178140e+00 1.770512e+00 3.990149e+00 2.365342e+00 2.275081e+00 2.479135e+00 2.413303e+00 2.972215e+00 3.267433e+00 2.401722e+00 1.784316e+00 2.133337e+00 3.490748e-01 2.743491e-01 2.977793e-01 6.441761e-01 3.686795e-01 5.369776e-01 5.694700e-01 5.330742e-01 6.984153e-01 5.588602e-01 4.870215e-01 4.002155e-01 2.362567e-01
<GCONST> 1.095214e+02
<STATE> 4
<NUMMIXES> 2
<MIXTURE> 1 2.903085e-01
<MEAN> 39
 -4.389553e-01 -5.193679e+00 -1.450105e+01 -2.334729e+01 -9.753419e+00 -2.580463e+00 -1.105388e+01 -1.296763e+00 -1.133831e+01 5.852724e+00 -1.063281e+01 -8.968701e-01 5.821892e+01 -9.755058e-01 -2.691428e+00 4.588237e-01 2.117713e-01 1.026127e+00 4.067928e-01 -5.095018e-01 1.314195e+00 9.142289e-01 6.791645e-01 -3.021459e-01 3.936453e-01 2.454304e+00 -4.009017e-01 9.424858e-05 6.489618e-01 6.441492e-01 -2.546226e-01 -3.123340e-01 4.749228e-01 -8.527948e-03 1.660476e-01 -7.629909e-01 1.019398e-01 -8.017485e-02 -3.383006e-01
<VARIANCE> 39
 9.859840e+00 4.999065e+01 3.117279e+01 6.202377e+01 4.014530e+01 9.411646e+01 6.740244e+01 7.724448e+01 7.846441e+01 8.898138e+01 6.700655e+01 4.938403e+01 3.210149e+01 9.341035e-01 1.775767e+00 6.656012e+00 4.385526e+00 9.486279e+00 1.239615e+01 7.311984e+00 7.687664e+00 7.390251e+00 1.216240e+01 4.566104e+00 2.634037e+00 1.014616e+00 3.024436e-01 6.404994e-01 6.053766e-01 1.248225e+00 1.810241e+00 1.408547e+00 1.958045e+00 1.724083e+00 2.088791e+00 1.316971e+00 1.069394e+00 7.717737e-01 2.000000e-01
<GCONST> 1.417817e+02
<MIXTURE> 2 7.096911e-01
<MEAN> 39
 -1.490753e-02 -6.795871e+00 -1.973129e+01 -2.700630e+01 -5.949231e+00 7.638571e+00 -6.138707e+00 -3.058145e+00 -1.035148e+01 1.249125e+00 -4.904466e+00 -3.562349e+00 5.823602e+01 -7.031013e-01 -2.273813e+00 -5.879631e-01 1.135637e+00 2.373392e+00 1.070926e+00 -6.910353e-01 -7.374285e-01 5.799584e-01 6.228650e-01 -3.005575e-01 -5.639923e-01 1.393707e+00 -6.567451e-02 1.408577e-01 3.375299e-01 5.823846e-01 -1.797347e-01 -6.883786e-01 -1.567702e-01 -6.069759e-02 2.314113e-01 -2.518985e-01 -1.996759e-01 -5.936057e-04 -2.729556e-01
<VARIANCE> 39
 6.677604e+00 2.865538e+01 1.829433e+01 3.772475e+01 3.936649e+01 5.555533e+01 4.155352e+01 5.113779e+01 3.817896e+01 5.311213e+01 2.637324e+01 3.086593e+01 2.062546e+01 2.628599e-01 8.792989e-01 8.188135e-01 1.970947e+00 1.596606e+00 3.471542e+00 1.583009e+00 2.671575e+00 2.245345e+00 2.322751e+00 2.532454e+00 1.553841e+00 4.550713e-01 2.000000e-01 2.000000e-01 2.000000e-01 3.985774e-01 3.348539e-01 3.215531e-01 3.303002e-01 4.718013e-01 2.973359e-01 5.790038e-01 3.118373e-01 2.988629e-01 2.000000e-01
<GCONST> 1.049882e+02
<TRANSP> 5
 0.000000e+00 1.000000e+00 0.000000e+00 0.000000e+00 0.000000e+00
 0.000000e+00 7.132105e-01 2.867896e-01 0.000000e+00 0.000000e+00
 0.000000e+00 0.000000e+00 8.079320e-01 1.920680e-01 0.000000e+00
 0.000000e+00 0.000000e+00 0.000000e+00 7.899550e-01 2.100450e-01
 0.000000e+00 0.000000e+00 0.000000e+00 0.000000e+00 0.000000e+00
<ENDHMM>
~h "y"
<BEGINHMM>
<NUMSTATES> 5
<STATE> 2
<NUMMIXES> 2
<MIXTURE> 1 3.959072e-01
<MEAN> 39
 -1.314751e+01 1.554609e+00 1.282222e+01 -2.335037e+01 -1.340945e+01 -6.560417e+00 -1.452687e+01 -1.010898e+01 -1.412060e+01 -1.082655e+00 -1.319035e+01 -5.003112e+00 5.248749e+01 2.978764e-01 -5.848021e-01 6.108230e-01 -1.075412e+00 -1.127947e+00 1.013035e-02 2.458527e-01 5.013858e-01 -1.170715e-01 1.299628e+00 1.474441e-01 4.887545e-01 1.145583e+00 -1.525807e-01 -2.876284e-01 -5.521897e-01 7.268656e-01 9.194247e-02 -6.257182e-02 5.063981e-01 3.006455e-01 2.707133e-01 1.454053e-01 4.269817e-01 2.293684e-01 -1.353179e-01
<VARIANCE> 39
 9.275587e+00 3.087119e+01 1.938858e+01 3.595206e+01 5.081899e+01 3.268588e+01 2.965556e+01 3.223897e+01 3.930036e+01 3.912154e+01 4.060388e+01 2.930623e+01 3.421164e+01 1.391708e+00 1.802492e+00 1.900271e+00 3.189623e+00 4.292453e+00 2.310393e+00 2.286477e+00 2.924001e+00 2.889976e+00 3.725160e+00 2.638601e+00 2.091588e+00 1.988515e+00 3.318924e-01 2.000000e-01 3.027560e-01 3.502045e-01 6.341554e-01 5.472853e-01 3.819625e-01 6.508983e-01 5.979196e-01 4.485662e-01 4.102534e-01 3.275612e-01 2.000000e-01
<GCONST> 1.154602e+02
<MIXTURE> 2 6.040933e-01
<MEAN> 39
 -1.343341e+01 2.924508e+00 9.469190e+00 -1.729033e+01 -1.164212e+01 -8.318622e+00 -1.205993e+01 -1.081782e+01 -1.240202e+01 -3.328182e+00 -1.120301e+01 -4.213180e+00 4.951585e+01 -1.960970e-02 5.902663e-01 1.349002e+00 -1.082803e+00 -3.843494e-01 5.636236e-01 -6.884336e-01 -7.189747e-01 -4.525711e-01 -2.998466e-02 -5.996779e-01 -7.047486e-01 1.087819e-01 1.071500e-01 -2.803262e-01 -3.077636e-01 -1.952307e-01 -6.484161e-02 1.555497e-02 1.013567e-02 2.319272e-01 1.955847e-01 2.135104e-01 4.099768e-02 1.376820e-01 2.029887e-01
<VARIANCE> 39
 1.869738e+01 2.956087e+01 2.438162e+01 3.826986e+01 6.444210e+01 3.618464e+01 3.968349e+01 3.841830e+01 4.264310e+01 4.918964e+01 3.907397e+01 2.595298e+01 3.852391e+01 2.705688e+00 1.843715e+00 3.301394e+00 3.505303e+00 4.675159e+00 4.424057e+00 2.712320e+00 3.497735e+00 3.835732e+00 3.504990e+00 2.592929e+00 2.399950e+00 2.165956e+00 2.000000e-01 2.049159e-01 4.340850e-01 4.549989e-01 7.528340e-01 5.335997e-01 5.755581e-01 6.619115e-01 5.695474e-01 7.462321e-01 4.967291e-01 4.817013e-01 2.000000e-01
<GCONST> 1.220818e+02
<STATE> 3
<NUMMIXES> 2
<MIXTURE> 1 3.348875e-01
<MEAN> 39
 -1.055781e+01 -4.489847e+00 1.081074e+01 -2.000783e+01 -2.136415e+01 -1.024875e+01 -7.987652e+00 -1.106634e+01 -1.492172e+01 6.772309e+00 -1.051544e+01 -2.954878e+00 5.687331e+01 6.379571e-01 -8.445786e-01 -1.040671e+00 1.417712e+00 -4.065261e-01 -1.452512e+00 1.314443e+00 1.157393e+00 -7.383115e-01 4.880041e-01 1.174429e+00 2.807895e-01 1.973453e-01 4.945994e-02 1.028547e-01 -3.135608e-01 1.974350e-01 5.085717e-01 -2.419956e-01 -2.433882e-01 4.574167e-01 2.011000e-01 -6.072395e-01 1.033044e-01 2.922580e-01 -1.649542e-01
<VARIANCE> 39
 8.893723e+00 1.782671e+01 1.937220e+01 3.717060e+01 3.158401e+01 3.756688e+01 3.630669e+01 4.819212e+01 5.113406e+01 3.995222e+01 4.580449e+01 2.899365e+01 1.565957e+01 2.093189e-01 4.616469e-01 8.186851e-01 9.176963e-01 9.538442e-01 1.529091e+00 1.313467e+00 1.677103e+00 1.577205e+00 1.947718e+00 1.186349e+00 1.114839e+00 3.217300e-01 2.000000e-01 2.000000e-01 2.000000e-01 2.000000e-01 2.576777e-01 2.371507e-01 3.151691e-01 2.890466e-01 2.939331e-01 3.058152e-01 2.490261e-01 2.000000e-01 2.000000e-01
<GCONST> 9.559856e+01
<MIXTURE> 2 6.651102e-01
<MEAN> 39
 -1.220671e+01 -7.952475e-01 1.250575e+01 -2.283665e+01 -1.681329e+01 -7.432085e+00 -1.139515e+01 -1.200830e+01 -1.189413e+01 2.182076e+00 -1.135051e+01 -2.101817e+00 5.528012e+01 3.176098e-01 -7.211493e-01 -2.693132e-01 4.053718e-01 -1.007286e+00 -2.602324e-01 5.577206e-01 -2.628992e-01 -1.489615e-01 7.695671e-01 1.060056e-01 7.613099e-02 3.924268e-01 6.232581e-02 -7.490592e-02 -1.673388e-01 2.307201e-01 -1.944470e-03 -2.547353e-01 1.593391e-01 6.932655e-02 -1.595606e-01 -1.086873e-02 7.881721e-02 -6.766292e-02 -5.629811e-02
<VARIANCE> 39
 7.960502e+00 2.211068e+01 1.851871e+01 3.757371e+01 4.058777e+01 2.543887e+01 2.874341e+01 4.333066e+01 4.894365e+01 4.445539e+01 3.588882e+01 2.992461e+01 1.781904e+01 2.000000e-01 4.371902e-01 4.009219e-01 7.882763e-01 9.418251e-01 9.306959e-01 1.079233e+00 1.125409e+00 1.049828e+00 1.349200e+00 8.354302e-01 8.498446e-01 2.817105e-01 2.000000e-01 2.000000e-01 2.000000e-01 2.000000e-01 2.000000e-01 2.000000e-01 2.000000e-01 2.030849e-01 2.000000e-01 2.383507e-01 2.000000e-01 2.000000e-01 2.000000e-01
<GCONST> 8.948513e+01
<STATE> 4
<NUMMIXES> 2
<MIXTURE> 1 5.365145e-01
<MEAN> 39
 -8.444842e+00 -7.190204e+00 6.910457e+00 -1.453957e+01 -2.219352e+01 -1.504501e+01 -6.011057e+00 -5.294873e+00 -1.734764e+01 4.642147e+00 -5.870902e+00 -2.026118e+00 5.711776e+01 8.710967e-01 -5.537533e-01 -2.137372e+00 1.460707e+00 1.278786e+00 -2.113533e+00 -4.461344e-01 2.260183e+00 4.624541e-01 -1.541763e+00 3.745059e-01 1.400377e+00 -2.420222e-01 -1.053365e-03 2.743630e-01 -2.523503e-01 -2.733356e-01 7.043754e-01 3.899854e-01 -8.339674e-01 -1.720941e-01 8.055617e-01 -2.931370e-01 -6.680244e-01 1.214706e-01 -2.169216e-01
<VARIANCE> 39
 9.757715e+00 1.844244e+01 2.516822e+01 3.082960e+01 3.272635e+01 4.064911e+01 3.871709e+01 5.709089e+01 5.315910e+01 4.751412e+01 4.075269e+01 3.166642e+01 1.854984e+01 3.201119e-01 5.928401e-01 1.178255e+00 9.818841e-01 1.233016e+00 1.707145e+00 2.114402e+00 1.512516e+00 2.158330e+00 1.494400e+00 1.579455e+00 1.310642e+00 2.972628e-01 2.000000e-01 2.000000e-01 2.000000e-01 2.000000e-01 2.954416e-01 2.282944e-01 3.059996e-01 3.524907e-01 3.402984e-01 3.671309e-01 2.620558e-01 2.571977e-01 2.000000e-01
<GCONST> 9.966424e+01
<MIXTURE> 2 4.634852e-01
<MEAN> 39
