~o
<STREAMINFO> 1 39
<VECSIZE> 39<NULLD><MFCC_D_A_0><DIAGC>
~h "b"
<BEGINHMM>
<NUMSTATES> 5
<STATE> 2
<NUMMIXES> 2
<MIXTURE> 1 3.206477e-01
<MEAN> 39
 -2.035719e+01 -1.375098e+00 -5.770699e+00 -5.155817e-01 -2.966366e+00 -1.285816e+00 -2.587283e+00 -8.542280e-01 -2.699645e+00 -2.099985e+00 -2.108851e+00 -8.143958e-01 3.072696e+01 1.508233e-01 -5.250780e-01 2.589373e-01 -4.441061e-01 -4.853775e-01 -5.470866e-01 9.872863e-02 1.669501e-01 1.748580e-01 3.219223e-01 1.132420e-01 2.163174e-01 1.938762e+00 6.301640e-01 -1.489701e-01 5.078254e-01 -5.445723e-01 -5.741907e-01 -5.232551e-01 -3.512450e-01 -3.894141e-01 -4.617090e-01 -6.485197e-02 -3.028144e-01 -1.529338e-01 1.314926e+00
<VARIANCE> 39
 3.650463e+00 9.458635e+00 1.080713e+01 6.347143e+00 9.322932e+00 9.503738e+00 1.316764e+01 1.487859e+01 1.648816e+01 1.436968e+01 1.206408e+01 1.319013e+01 3.135586e+00 2.107445e+00 2.063030e+00 2.469562e+00 1.441475e+00 2.181667e+00 2.995164e+00 2.361053e+00 2.774711e+00 2.564659e+00 2.752887e+00 2.284715e+00 1.976000e+00 1.048387e+01 2.916533e-01 2.416445e-01 5.607693e-01 5.245960e-01 5.824137e-01 5.055496e-01 4.622319e-01 5.608795e-01 6.012788e-01 4.831415e-01 3.988352e-01 3.605336e-01 1.030075e+00
<GCONST> 1.036025e+02
<MIXTURE> 2 6.793529e-01
<MEAN> 39
 -7.066928e+00 4.191159e+00 -4.723495e-01 -1.494561e+00 -5.883329e+00 -9.463073e+00 -1.201623e+01 -9.895846e+00 -9.700615e+00 -6.555006e+00 -8.395098e+00 -8.183665e+00 3.915065e+01 -9.329117e-01 1.146541e+00 9.582958e-01 1.377006e+00 6.184278e-01 3.797992e-01 1.876590e-01 -6.512206e-01 -4.472991e-01 -9.240623e-01 -2.876735e-02 -2.984120e-01 -1.351222e+00 -3.346803e-01 -1.073568e+00 -1.124208e-01 -9.243515e-01 -4.984147e-01 7.092336e-02 5.660592e-01 6.902440e-01 2.444020e-01 4.518815e-01 1.391873e-01 5.213315e-01 1.243820e+00
<VARIANCE> 39
 1.180208e+01 2.262209e+01 1.666251e+01 3.050539e+01 2.359812e+01 2.826448e+01 2.167081e+01 2.540730e+01 2.817732e+01 2.777737e+01 2.435094e+01 2.447202e+01 3.049502e+01 3.331695e+00 4.389567e+00 2.888478e+00 7.083313e+00 3.739208e+00 3.537191e+00 3.022437e+00 4.028318e+00 4.209232e+00 3.900144e+00 2.903214e+00 3.329737e+00 7.908525e+00 3.213951e-01 7.264090e-01 7.193301e-01 8.765360e-01 7.277277e-01 6.162289e-01 6.542833e-01 9.375458e-01 8.267891e-01 6.882015e-01 6.498340e-01 5.037619e-01 1.637730e+00
<GCONST> 1.263035e+02
<STATE> 3
<NUMMIXES> 2
<MIXTURE> 1 4.215501e-01
<MEAN> 39
 -1.035673e+01 4.181386e+00 7.793134e-01 2.093832e-01 -3.637051e+00 -6.472853e+00 -1.046663e+01 -1.046898e+01 -1.066641e+01 -8.308133e+00 -7.631793e+00 -7.088729e+00 3.779333e+01 -1.254474e+00 -2.732042e+00 -3.428559e-02 -1.769179e+00 -1.164257e+00 -1.590827e-02 1.810771e+00 1.846975e+00 9.990318e-01 7.270134e-01 1.087924e+00 1.341436e+00 3.807791e+00 6.741463e-01 -1.057753e+00 -2.394790e-01 -1.891326e+00 -1.032131e+00 -5.264907e-01 -4.256523e-02 4.750615e-01 2.879365e-01 1.002471e+00 3.239359e-02 3.665197e-01 2.012646e+00
<VARIANCE> 39
 1.421268e+01 1.854612e+01 1.208766e+01 1.875728e+01 1.656142e+01 2.223664e+01 2.093802e+01 1.899742e+01 1.897209e+01 2.410919e+01 2.066019e+01 1.896941e+01 2.351867e+01 2.601612e+00 2.380760e+00 4.427055e+00 4.373055e+00 3.184027e+00 2.977036e+00 3.873734e+00 4.111716e+00 5.043632e+00 4.021450e+00 2.994210e+00 2.515461e+00 5.159441e+00 5.406272e-01 6.177750e-01 1.262199e+00 1.170715e+00 6.285859e-01 1.060827e+00 7.953209e-01 9.690591e-01 9.297584e-01 7.161025e-01 7.592302e-01 5.605871e-01 7.082123e-01
<GCONST> 1.233202e+02
<MIXTURE> 2 5.784496e-01
<MEAN> 39
 -1.343105e+01 -5.546022e+00 -6.419154e-01 -5.964521e+00 -8.337854e+00 -8.616962e+00 -3.257310e+00 -2.441568e+00 -5.112788e+00 -3.161813e+00 -2.973854e+00 -1.569993e+00 5.284557e+01 1.552866e+00 -1.961921e+00 1.884308e+00 -4.248581e+00 -3.395482e+00 -1.715709e+00 -5.345611e-01 -2.380084e-01 -1.253540e+00 1.406166e+00 -4.645508e-01 4.684933e-01 5.698120e+00 5.031292e-01 5.676960e-01 3.325006e-01 -8.622591e-01 -4.003884e-01 5.151278e-02 -1.007436e+00 -6.528617e-01 -5.913349e-01 3.507179e-01 -6.318616e-01 -3.108619e-01 -6.656783e-01
<VARIANCE> 39
 2.035373e+01 1.756918e+01 3.023184e+01 3.610373e+01 3.678651e+01 3.478089e+01 3.708368e+01 3.293234e+01 4.647104e+01 2.992226e+01 2.092176e+01 1.726121e+01 4.063333e+01 3.520041e+00 3.173856e+00 9.463938e+00 5.662404e+00 4.717246e+00 4.973362e+00 5.770177e+00 8.159795e+00 6.908264e+00 4.305686e+00 4.481765e+00 3.440208e+00 5.114756e+00 7.017068e-01 6.166639e-01 8.038670e-01 1.120325e+00 8.639820e-01 1.127127e+00 9.184275e-01 1.051347e+00 1.229758e+00 1.008152e+00 7.014046e-01 6.099375e-01 1.195683e+00
<GCONST> 1.353480e+02
<STATE> 4
<NUMMIXES> 2
<MIXTURE> 1 3.054380e-01
<MEAN> 39
 -3.157341e+00 -6.611771e+00 -9.287573e+00 -1.603053e+01 -9.209797e+00 -1.086651e+01 -1.207933e+01 -3.396300e+00 -5.025746e+00 2.980701e-01 -6.856345e+00 -1.993111e+00 5.710523e+01 1.756750e+00 -1.556925e+00 -1.124535e+00 -2.709300e+00 -1.873023e+00 -1.388406e+00 -5.495204e-01 1.588121e+00 -4.421546e-01 8.815971e-01 -6.912495e-01 6.870923e-01 2.562507e+00 -4.978949e-01 5.445997e-01 5.360936e-01 8.776491e-01 4.559333e-02 4.075707e-01 3.491455e-01 -3.281247e-01 -5.090140e-01 -4.165612e-01 5.284283e-02 -2.613074e-01 -1.176030e+00
<VARIANCE> 39
 8.256191e+00 2.504364e+01 3.496682e+01 6.680815e+01 3.486585e+01 6.747111e+01 6.317062e+01 3.470364e+01 3.058872e+01 4.571309e+01 3.412424e+01 2.681780e+01 2.287765e+01 4.303315e+00 3.968789e+00 8.424816e+00 1.164826e+01 3.875728e+00 7.692275e+00 9.676887e+00 4.572920e+00 8.037242e+00 7.048668e+00 6.474466e+00 3.769835e+00 6.188687e+00 3.455991e-01 2.475693e-01 4.994479e-01 8.477261e-01 4.341480e-01 7.476082e-01 9.525337e-01 7.410051e-01 9.472942e-01 7.628255e-01 6.555761e-01 5.716843e-01 5.835894e-01
<GCONST> 1.344403e+02
<MIXTURE> 2 6.945622e-01
<MEAN> 39
 -9.208549e+00 -6.360351e+00 1.091548e+01 -1.579732e+01 -2.012495e+01 -1.228906e+01 -9.558863e+00 -8.937754e+00 -1.487762e+01 8.377383e-01 -6.311286e+00 -3.882918e+00 5.752994e+01 2.310082e-01 1.789669e-01 3.212259e+00 -4.659609e+00 -2.712948e+00 4.619897e-01 -1.625268e+00 -1.933107e+00 -1.773393e+00 1.846314e+00 -1.252011e+00 -3.001946e-01 1.901278e+00 -4.415125e-01 7.955039e-01 -8.505153e-01 4.898471e-01 1.249546e+00 8.098064e-01 -2.319990e-01 1.681159e-01 7.856622e-01 -3.293090e-01 -1.762001e-01 3.679995e-04 -1.396735e+00
<VARIANCE> 39
 7.840035e+00 1.882320e+01 2.367528e+01 5.601306e+01 2.541448e+01 3.193073e+01 3.312051e+01 5.057612e+01 4.699166e+01 3.266724e+01 2.663822e+01 2.714084e+01 1.610075e+01 1.972650e+00 2.616952e+00 2.813928e+00 5.517100e+00 4.917742e+00 5.049967e+00 6.057199e+00 5.419070e+00 6.410336e+00 4.832254e+00 4.286522e+00 3.074680e+00 4.240845e+00 2.826460e-01 2.970341e-01 3.926557e-01 9.647551e-01 3.985215e-01 6.442358e-01 6.788732e-01 8.743638e-01 6.695477e-01 6.845331e-01 5.292197e-01 4.694173e-01 4.936659e-01
<GCONST> 1.250184e+02
<TRANSP> 5
 0.000000e+00 1.000000e+00 0.000000e+00 0.000000e+00 0.000000e+00
 0.000000e+00 7.085733e-01 2.914267e-01 0.000000e+00 0.000000e+00
 0.000000e+00 0.000000e+00 5.948923e-01 4.051078e-01 0.000000e+00
 0.000000e+00 0.000000e+00 0.000000e+00 3.996245e-01 6.003755e-01
 0.000000e+00 0.000000e+00 0.000000e+00 0.000000e+00 0.000000e+00
<ENDHMM>
~h "d"
<BEGINHMM>
<NUMSTATES> 5
<STATE> 2
<NUMMIXES> 3
<MIXTURE> 1 4.081246e-01
<MEAN> 39
 -1.560095e+01 2.894107e+00 -3.316243e-01 3.088141e-02 -3.621867e+00 -3.950854e+00 -6.072971e+00 -6.815894e+00 -7.897215e+00 -5.885201e+00 -6.549234e+00 -5.135819e+00 3.554477e+01 -2.095049e+00 -2.197185e+00 -1.575673e+00 -1.775600e+00 6.200755e-01 8.954831e-01 1.459820e+00 1.100332e+00 1.620708e+00 1.619856e+00 1.586271e+00 1.021758e+00 2.658975e+00 2.681971e-01 -4.173099e-01 -9.410319e-02 -1.216567e+00 -9.308079e-01 -6.280758e-01 1.642259e-01 4.527398e-02 2.150765e-01 4.688666e-01 2.053648e-01 4.851224e-01 1.656886e+00
<VARIANCE> 39
 2.470152e+01 2.650436e+01 2.410222e+01 2.296009e+01 2.261344e+01 2.756419e+01 2.476047e+01 2.626579e+01 2.835241e+01 2.649787e+01 2.661088e+01 2.607098e+01 4.461138e+01 3.427232e+00 3.378397e+00 3.539438e+00 5.836449e+00 4.133641e+00 4.677195e+00 3.938233e+00 4.583359e+00 3.808116e+00 3.182052e+00 3.244970e+00 3.175956e+00 1.352286e+01 4.059393e-01 7.297448e-01 6.826969e-01 9.170311e-01 8.400094e-01 7.822158e-01 7.878801e-01 7.764606e-01 7.205069e-01 6.295744e-01 6.574731e-01 5.975468e-01 1.822118e+00
<GCONST> 1.293949e+02
<MIXTURE> 2 2.727377e-01
<MEAN> 39
 -9.305280e+00 7.720883e+00 3.430147e+00 -3.857139e-01 -7.373897e+00 -7.798818e+00 -8.419133e+00 -8.734540e+00 -9.892258e+00 -7.825624e+00 -9.148031e+00 -7.871150e+00 3.588296e+01 -1.012130e+00 -3.580225e-01 -3.293413e-01 7.466629e-01 1.364483e+00 7.944328e-01 4.631316e-01 2.505261e-01 1.289233e-01 -4.073616e-02 3.309816e-01 2.065598e-01 -5.909430e-01 -5.806018e-01 -7.573668e-01 -3.626934e-01 -6.801323e-01 -4.088192e-02 3.008944e-01 3.116589e-01 1.366180e-01 3.911772e-01 4.373967e-01 3.522820e-01 5.221471e-01 8.278508e-01
<VARIANCE> 39
 7.457457e+00 4.178359e+00 8.355038e+00 1.438731e+01 2.606771e+01 1.970823e+01 1.851359e+01 2.046430e+01 2.304719e+01 1.871781e+01 1.873834e+01 2.273286e+01 4.917126e+00 1.554274e+00 1.028419e+00 1.055688e+00 1.376652e+00 2.238184e+00 1.788904e+00 1.704352e+00 1.658343e+00 1.968991e+00 1.711344e+00 1.901933e+00 1.573897e+00 1.127183e+00 2.000000e-01 2.558962e-01 3.737900e-01 7.998750e-01 5.542887e-01 4.326946e-01 4.289085e-01 4.913569e-01 6.166378e-01 5.415450e-01 4.616296e-01 5.338335e-01 1.057571e+00
<GCONST> 1.018925e+02
<MIXTURE> 3 3.191364e-01
<MEAN> 39
 -8.110991e+00 5.946887e+00 2.861793e+00 -1.421855e+00 -1.022361e+01 -1.067919e+01 -9.507905e+00 -8.907236e+00 -1.034017e+01 -7.841067e+00 -9.135886e+00 -6.556163e+00 3.812029e+01 -1.128543e+00 1.752939e+00 -2.687548e-01 2.389497e+00 2.461303e+00 7.948076e-01 1.190686e-01 1.348088e-03 -3.609122e-01 -9.728223e-01 -1.007369e-01 -1.676630e+00 -2.896845e+00 -5.161369e-01 -1.196774e+00 -3.501768e-01 -1.454928e+00 -6.149272e-02 4.303868e-01 1.692797e-01 3.986269e-01 4.096372e-01 7.902991e-01 3.830988e-01 6.148328e-01 1.602990e+00
<VARIANCE> 39
 9.451348e+00 1.310379e+01 1.220907e+01 1.892344e+01 2.703998e+01 2.554824e+01 1.969322e+01 3.227684e+01 2.788559e+01 2.377957e+01 2.055989e+01 2.561963e+01 9.886609e+00 3.230743e+00 4.371709e+00 4.417614e+00 8.653043e+00 4.671349e+00 6.149069e+00 3.853915e+00 4.751545e+00 4.009007e+00 3.610279e+00 3.044232e+00 2.785424e+00 6.337325e+00 2.831319e-01 6.912887e-01 6.218920e-01 9.946612e-01 7.223999e-01 7.253863e-01 1.106001e+00 9.829994e-01 7.057638e-01 6.478293e-01 6.371873e-01 5.899444e-01 1.428215e+00
<GCONST> 1.251207e+02
<STATE> 3
<NUMMIXES> 3
<MIXTURE> 1 3.100994e-01
<MEAN> 39
 -2.121781e+01 -1.586759e+00 -5.868114e+00 -8.315914e-01 -2.957502e+00 -6.318260e-01 -1.651376e+00 -2.996265e-01 -1.301306e+00 -5.359834e-01 -8.215410e-01 4.829316e-01 2.990210e+01 -1.205802e-01 -1.133119e-02 -9.393325e-02 4.307413e-02 4.664971e-02 -6.379480e-03 -2.791735e-02 1.024106e-01 1.176034e-01 6.363527e-02 -1.010891e-02 -8.770313e-02 -1.987820e-01 1.322888e-01 -5.257211e-02 4.850924e-02 -1.956565e-01 -4.941568e-02 -5.535610e-02 -2.258845e-02 -1.378567e-01 -5.297150e-02 -3.032437e-02 -4.674601e-02 -5.533434e-02 5.351710e-01
<VARIANCE> 39
 2.314750e+00 4.567668e+00 5.873703e+00 5.423056e+00 6.588420e+00 1.087291e+01 1.060260e+01 1.182652e+01 1.337737e+01 1.359699e+01 1.112181e+01 1.063762e+01 4.580605e+00 3.644046e-01 5.302813e-01 6.678739e-01 7.200897e-01 8.841478e-01 1.252178e+00 1.321596e+00 1.604570e+00 1.531551e+00 1.476425e+00 1.193745e+00 1.183238e+00 2.896240e-01 2.000000e-01 2.000000e-01 2.000000e-01 2.753667e-01 2.000000e-01 3.283854e-01 2.958302e-01 3.638511e-01 3.650849e-01 3.701394e-01 3.246652e-01 2.856427e-01 5.651237e-01
<GCONST> 8.047778e+01
<MIXTURE> 2 4.399856e-01
<MEAN> 39
 -1.969650e+01 -6.428379e+00 -5.664137e+00 -1.178750e+01 -3.276303e+00 -4.922301e+00 -8.430578e-01 -3.447439e+00 -1.963251e+00 4.199866e-01 -9.073716e-01 -1.123182e+00 5.445308e+01 -2.616780e-01 -7.428532e-01 -2.078778e-01 -3.379595e+00 -1.850034e+00 -1.561223e+00 7.569334e-01 -2.794251e-01 3.016973e-01 8.728574e-01 4.823564e-01 8.446172e-01 6.250887e+00 1.037164e+00 7.401129e-01 9.403381e-01 2.502958e-01 -1.236657e+00 -5.573061e-01 -6.908032e-01 -3.925709e-01 -7.479129e-01 -4.729905e-01 -8.327410e-01 -3.542173e-02 -9.701227e-01
<VARIANCE> 39
 2.005501e+01 2.077669e+01 3.108278e+01 2.929171e+01 3.622303e+01 3.423460e+01 3.238440e+01 3.609418e+01 2.978750e+01 2.530953e+01 2.427412e+01 2.010632e+01 4.537269e+01 4.568209e+00 3.884389e+00 3.759761e+00 3.550004e+00 4.310884e+00 4.366646e+00 4.189726e+00 6.255039e+00 3.887153e+00 3.877744e+00 3.446231e+00 2.968337e+00 8.701056e+00 5.439445e-01 5.703096e-01 1.071826e+00 9.082502e-01 1.125497e+00 9.717062e-01 1.174035e+00 1.068999e+00 9.020718e-01 8.148770e-01 7.240376e-01 6.594953e-01 9.928733e-01
<GCONST> 1.322763e+02
<MIXTURE> 3 2.499138e-01
<MEAN> 39
 -2.130330e+01 -1.135424e+00 -5.693003e+00 -2.123801e-01 -2.889416e+00 -6.340244e-01 -2.195459e+00 -8.705305e-01 -1.731244e+00 -2.589145e-01 -6.257300e-01 -4.435486e-01 2.966823e+01 -2.758640e-01 -1.615487e+00 -8.436624e-01 -2.556169e+00 3.157120e-02 -5.439639e-01 8.210678e-01 7.334751e-02 9.192534e-01 1.177262e+00 8.706451e-01 7.027633e-01 4.887482e+00 5.295433e-01 3.189502e-01 4.111344e-01 -8.626463e-01 -6.057287e-01 -8.025489e-01 -2.067039e-01 -6.654794e-01 -4.678248e-01 -3.233811e-01 -4.685827e-01 -1.884017e-01 2.121376e+00
<VARIANCE> 39
 1.363897e+00 3.411810e+00 4.439815e+00 6.757257e+00 6.597612e+00 7.583331e+00 1.074659e+01 1.171667e+01 1.228828e+01 1.137514e+01 1.011742e+01 1.122442e+01 2.825648e+00 1.959903e+00 1.774595e+00 2.398346e+00 3.727027e+00 1.855212e+00 3.143276e+00 3.184634e+00 3.337771e+00 3.561155e+00 2.714898e+00 3.142070e+00 2.074179e+00 1.356978e+01 3.330816e-01 3.810196e-01 4.023103e-01 4.494484e-01 4.569362e-01 3.727010e-01 5.585931e-01 6.146655e-01 4.456068e-01 3.733642e-01 4.285823e-01 4.239610e-01 6.713244e-01
<GCONST> 9.987920e+01
<STATE> 4
<NUMMIXES> 2
<MIXTURE> 1 4.291269e-01
<MEAN> 39
 -1.149407e+01 -4.466279e+00 1.025972e+00 -1.350492e+01 -1.466200e+01 -1.146473e+01 -3.372979e+00 -3.804297e+00 -7.969972e+00 -9.483895e-01 -4.003945e+00 7.420843e-01 5.519376e+01 1.401342e+00 -7.571326e-01 4.759113e-01 -6.414357e-01 -2.043766e+00 -3.513151e-01 5.001137e-01 4.847316e-01 -2.606435e-01 -3.714382e-01 -8.764934e-01 5.750984e-01 1.863601e-01 -2.976075e-01 6.643113e-02 -5.217670e-01 7.152015e-01 8.225361e-01 7.225577e-01 1.850849e-01 1.204032e-01 3.115691e-01 -2.557957e-01 -1.750919e-01 -2.714219e-01 -1.101828e+00
<VARIANCE> 39
 2.311027e+01 2.793917e+01 3.128257e+01 4.919501e+01 5.415646e+01 5.253161e+01 4.996742e+01 5.798467e+01 4.111876e+01 4.013403e+01 3.624744e+01 2.644175e+01 7.125552e+01 4.032832e+00 3.216967e+00 4.297826e+00 6.019059e+00 9.319206e+00 6.801386e+00 6.130107e+00 5.814646e+00 4.471647e+00 4.946617e+00 3.961169e+00 3.063640e+00 6.173635e+00 5.008234e-01 5.579621e-01 4.873382e-01 7.879793e-01 1.082651e+00 1.140177e+00 8.117362e-01 9.676757e-01 6.947920e-01 9.241142e-01 7.300772e-01 5.828445e-01 8.664449e-01
<GCONST> 1.371994e+02
<MIXTURE> 2 5.708734e-01
<MEAN> 39
 -2.073178e+01 1.935647e+00 -4.728271e+00 -1.142944e+01 -8.412724e+00 -8.378499e+00 -1.589602e+00 -1.018743e+01 -4.188622e+00 -1.467801e+00 -2.990239e+00 -1.836730e+00 5.918624e+01 2.271208e+00 8.991308e-01 3.243541e+00 -2.819155e+00 -4.317168e+00 -2.348222e+00 -2.280890e+00 -2.070868e+00 -2.058517e+00 -6.415766e-02 -1.729658e+00 3.096818e-01 2.967398e+00 9.730802e-01 -2.768173e-01 1.032497e+00 1.765495e-01 -3.309924e-01 3.573655e-01 -9.398397e-01 5.202914e-01 -5.107185e-01 -7.715428e-04 -6.318190e-01 4.195820e-02 -2.024197e+00
<VARIANCE> 39
 1.938965e+01 2.986424e+01 4.207753e+01 1.933328e+01 3.412962e+01 3.508607e+01 2.647792e+01 4.061354e+01 3.363336e+01 2.705794e+01 2.322797e+01 1.788203e+01 1.135474e+01 2.394440e+00 3.285298e+00 4.297948e+00 4.105053e+00 3.080688e+00 3.585140e+00 4.027444e+00 6.536653e+00 3.859943e+00 4.918263e+00 2.948618e+00 3.242038e+00 8.396332e+00 4.644544e-01 6.520875e-01 8.388634e-01 4.780475e-01 9.059107e-01 7.534788e-01 7.546051e-01 9.424741e-01 9.407395e-01 7.227623e-01 5.839869e-01 4.424729e-01 3.643886e-01
<GCONST> 1.264356e+02
<TRANSP> 5
 0.000000e+00 1.000000e+00 0.000000e+00 0.000000e+00 0.000000e+00
 0.000000e+00 7.172434e-01 2.827567e-01 0.000000e+00 0.000000e+00
 0.000000e+00 0.000000e+00 6.933596e-01 3.066405e-01 0.000000e+00
 0.000000e+00 0.000000e+00 0.000000e+00 4.938637e-01 5.061363e-01
 0.000000e+00 0.000000e+00 0.000000e+00 0.000000e+00 0.000000e+00
<ENDHMM>
~h "f"
<BEGINHMM>
<NUMSTATES> 5
<STATE> 2
<NUMMIXES> 2
<MIXTURE> 1 4.096670e-01
<MEAN> 39
 -1.530426e+01 -3.837112e+00 -4.253313e+00 -4.093332e+00 -2.605752e+00 -3.049883e+00 -1.921423e+00 -3.744944e+00 -5.094546e+00 -6.336743e+00 -7.180919e+00 -1.387414e+00 5.282813e+01 -4.895099e+00 8.067883e-01 7.908974e-01 2.420602e+00 1.294052e+00 1.348564e+00 2.542856e-01 1.394031e+00 1.197262e+00 1.487855e+00 3.277030e+00 3.537708e-01 -1.845352e+00 -8.897827e-02 -9.888215e-01 -6.934509e-01 -1.000617e+00 -5.681174e-01 -1.759796e-01 1.329379e-01 4.081705e-01 1.767324e-01 4.254108e-01 -5.119536e-02 2.640705e-01 4.973353e-01
<VARIANCE> 39
 3.652529e+01 1.207571e+01 1.692850e+01 1.492828e+01 1.403395e+01 2.315697e+01 2.138367e+01 1.655050e+01 1.772667e+01 1.891761e+01 2.300467e+01 1.354767e+01 1.715857e+01 1.785638e+00 2.005527e+00 3.413565e+00 2.769892e+00 3.853068e+00 4.190062e+00 3.159544e+00 4.637483e+00 2.939750e+00 4.242410e+00 2.597865e+00 2.474994e+00 1.554766e+00 6.594896e-01 3.556907e-01 3.334016e-01 4.720911e-01 4.192074e-01 6.697427e-01 5.154086e-01 7.098835e-01 4.337044e-01 5.500357e-01 5.499209e-01 3.497381e-01 2.063553e-01
<GCONST> 1.129306e+02
<MIXTURE> 2 5.903322e-01
<MEAN> 39
 -2.336762e+01 -6.203789e+00 -5.991704e+00 -4.333956e+00 -3.292442e+00 -1.575921e+00 -3.927973e-01 4.910915e-01 -1.093982e+00 -1.060823e+00 -8.927681e-01 4.875579e-01 4.810744e+01 -2.198354e+00 -8.023746e-01 -7.267294e-01 -3.862841e-01 -2.813827e-01 1.800019e-01 1.324024e-01 4.931464e-01 9.581609e-01 1.299878e+00 1.048174e+00 2.701854e-01 -3.690252e-01 8.930718e-01 -1.259003e-01 -2.452868e-01 -5.147422e-01 -3.575406e-01 -3.545638e-01 -1.693877e-01 -4.003676e-01 -3.255619e-01 -3.380458e-01 -6.950622e-01 -1.249429e-01 2.849061e-01
<VARIANCE> 39
 1.401797e+01 1.164435e+01 1.357530e+01 1.210374e+01 1.442171e+01 1.400584e+01 1.379330e+01 1.628020e+01 1.453958e+01 1.504809e+01 1.336474e+01 1.144789e+01 3.759715e+01 2.496832e+00 1.263063e+00 1.327505e+00 1.285220e+00 1.636798e+00 1.919642e+00 2.203228e+00 2.348744e+00 1.807219e+00 2.247670e+00 2.895686e+00 1.729747e+00 3.176327e+00 5.476871e-01 3.116835e-01 3.884313e-01 3.988324e-01 3.775652e-01 4.590164e-01 4.520206e-01 5.720433e-01 4.520157e-01 4.430066e-01 4.171899e-01 3.125083e-01 2.962358e-01
<GCONST> 1.036820e+02
<STATE> 3
<NUMMIXES> 2
<MIXTURE> 1 6.000284e-01
<MEAN> 39
 -2.517033e+01 -6.032871e+00 -7.795209e+00 -6.044087e+00 -5.263457e+00 -3.290459e+00 -1.980026e+00 -1.256205e+00 -2.476394e+00 -1.286705e+00 -1.760618e+00 -2.614376e-01 4.716908e+01 -1.750864e-01 -3.447047e-02 -1.111929e-02 -4.588495e-04 7.384261e-03 3.816733e-02 -4.694165e-02 -8.720582e-02 -1.678094e-01 1.343036e-01 1.003248e-02 2.244028e-02 1.471331e-01 2.502813e-01 -1.114002e-02 3.718045e-02 1.430040e-02 1.050115e-01 1.334750e-02 9.869964e-02 6.026329e-02 4.741163e-02 -7.210989e-03 -4.239513e-02 5.559689e-02 1.832525e-01
<VARIANCE> 39
 6.027133e+00 9.907537e+00 9.243057e+00 8.693803e+00 1.201375e+01 1.150729e+01 1.343388e+01 1.234636e+01 1.641307e+01 1.153865e+01 1.390071e+01 1.030360e+01 2.926740e+01 5.352029e-01 4.759498e-01 6.559739e-01 8.908573e-01 1.096668e+00 1.242055e+00 1.208038e+00 1.349109e+00 1.777286e+00 1.400170e+00 1.519745e+00 1.256959e+00 1.086022e+00 2.000000e-01 2.000000e-01 2.000000e-01 2.000000e-01 2.390288e-01 2.882557e-01 2.630957e-01 2.716379e-01 3.788815e-01 2.746449e-01 3.010599e-01 2.486846e-01 2.000000e-01
<GCONST> 8.609670e+01
<MIXTURE> 2 3.999721e-01
<MEAN> 39
 -2.655440e+01 -8.450588e+00 -8.151984e+00 -6.559821e+00 -4.477677e+00 -2.671067e+00 -7.985806e-01 -1.075134e-01 -1.217786e+00 5.381216e-01 -1.239194e-01 1.067559e+00 5.105113e+01 5.508699e-01 -7.383987e-02 -2.534554e-01 -6.167748e-01 -3.623519e-01 -4.842275e-01 -1.259599e-01 -1.148979e-01 -2.013255e-02 -1.041776e-01 -2.089932e-01 3.911537e-03 4.568020e-01 1.032225e+00 1.920048e-01 6.593025e-02 -2.543426e-01 -2.381276e-01 -2.419091e-01 -1.966413e-01 -2.679890e-01 -3.243679e-01 -3.450595e-01 -4.786116e-01 -1.917751e-01 -6.994694e-02
<VARIANCE> 39
 1.181879e+01 9.316545e+00 1.295994e+01 1.746187e+01 1.516823e+01 1.426804e+01 1.545734e+01 1.363514e+01 1.305787e+01 1.155030e+01 1.166472e+01 1.183742e+01 1.453047e+01 2.421706e+00 1.131286e+00 1.588885e+00 1.367637e+00 1.550436e+00 1.149227e+00 1.584352e+00 1.705541e+00 1.849541e+00 1.557286e+00 1.380236e+00 1.138282e+00 2.716593e+00 4.211271e-01 2.083357e-01 3.806740e-01 3.994888e-01 3.602450e-01 2.950242e-01 3.847450e-01 4.084854e-01 4.125840e-01 4.111739e-01 3.812856e-01 2.853191e-01 2.859421e-01
<GCONST> 9.736004e+01
<STATE> 4
<NUMMIXES> 2
<MIXTURE> 1 3.137909e-01
<MEAN> 39
 -9.398842e+00 -8.147297e+00 -1.520316e+01 -1.631697e+01 -9.738929e+00 -4.090942e+00 -2.132589e+00 -2.374565e+00 -7.046733e-01 2.409193e+00 -6.389015e+00 -3.530539e+00 4.788766e+01 1.004324e+00 3.038519e-01 -5.688444e-01 -5.691197e-01 2.461792e-01 1.486106e+00 5.012604e-01 5.031302e-01 3.026583e-02 5.486795e-01 -8.088796e-01 -9.642937e-01 -2.048045e+00 -1.207556e+00 1.361243e-01 7.293906e-01 1.090499e+00 7.823137e-01 5.118927e-01 8.570518e-02 1.737789e-01 -2.311374e-01 -3.395828e-01 5.090377e-01 3.160485e-01 -1.502411e-01
<VARIANCE> 39
 4.933525e+01 2.593346e+01 4.619333e+01 4.963375e+01 5.122027e+01 4.349043e+01 4.672935e+01 7.557288e+01 9.363234e+01 7.189910e+01 5.377221e+01 4.065245e+01 8.060909e+01 9.732153e+00 3.384131e+00 5.136307e+00 9.333497e+00 5.864683e+00 3.356277e+00 3.148296e+00 5.436617e+00 6.641848e+00 6.253479e+00 5.122096e+00 3.212862e+00 9.591199e+00 1.103080e+00 5.596573e-01 7.868804e-01 1.027239e+00 8.272206e-01 9.892887e-01 8.064172e-01 1.381203e+00 1.290660e+00 1.371154e+00 8.487211e-01 8.144389e-01 1.640597e+00
<GCONST> 1.452223e+02
<MIXTURE> 2 6.862084e-01
<MEAN> 39
 -2.105783e+01 -4.869655e+00 -6.629270e+00 -5.438160e+00 -3.759456e+00 -2.165960e+00 -1.041204e+00 1.561391e-02 -2.018444e+00 -1.263272e+00 -1.914069e+00 4.340935e-01 4.482494e+01 2.900586e+00 -3.772606e-01 -1.917837e-01 -1.474917e+00 -7.660855e-01 -9.915785e-01 -5.940919e-01 -6.711812e-01 -8.617579e-01 -3.063583e-01 -1.164942e+00 -1.669468e-01 1.207192e+00 6.625241e-01 -4.298896e-01 -2.270635e-01 -8.548213e-01 -3.698412e-01 -2.216361e-01 -1.286429e-01 -2.079162e-02 -1.054131e-01 2.478755e-01 -3.862617e-01 -1.511283e-01 5.657342e-01
<VARIANCE> 39
 2.162925e+01 2.104864e+01 2.038538e+01 2.271847e+01 2.031730e+01 1.707614e+01 1.593332e+01 1.506545e+01 1.961334e+01 1.532952e+01 1.638636e+01 1.361269e+01 9.441303e+01 8.805618e+00 3.399579e+00 4.905913e+00 6.437205e+00 5.529455e+00 4.584191e+00 3.467901e+00 4.487017e+00 3.823638e+00 4.057431e+00 4.425796e+00 2.207132e+00 7.650578e+00 7.253818e-01 5.632050e-01 5.944742e-01 7.953678e-01 8.535711e-01 8.296462e-01 5.079663e-01 6.868492e-01 7.831355e-01 6.312441e-01 5.576146e-01 3.367286e-01 1.808397e+00
<GCONST> 1.259850e+02
<TRANSP> 5
 0.000000e+00 1.000000e+00 0.000000e+00 0.000000e+00 0.000000e+00
 0.000000e+00 6.848719e-01 3.151282e-01 0.000000e+00 0.000000e+00
 0.000000e+00 0.000000e+00 8.499584e-01 1.500416e-01 0.000000e+00
 0.000000e+00 0.000000e+00 0.000000e+00 7.388765e-01 2.611235e-01
 0.000000e+00 0.000000e+00 0.000000e+00 0.000000e+00 0.000000e+00
<ENDHMM>
~h "g"
<BEGINHMM>
<NUMSTATES> 5
<STATE> 2
<MEAN> 39
 -1.375191e+01 7.980193e-01 -1.425951e+00 -2.128673e+00 -6.382302e+00 -6.439178e+00 -6.759383e+00 -7.473527e+00 -5.636770e+00 -3.387813e+00 -7.537319e+00 -4.995765e+00 3.914785e+01 -6.599305e-01 -1.553471e+00 -1.285922e+00 -4.738043e-01 1.989449e+00 1.936284e-01 -8.922695e-02 6.660530e-01 9.967188e-01 -3.411673e-01 3.123765e-01 1.882609e-01 1.272212e+00 1.791195e-01 -7.636647e-01 -4.395233e-01 -1.039882e+00 -3.009115e-01 -3.457242e-01 1.503757e-01 7.070041e-02 1.082412e-01 3.673619e-01 1.635394e-01 4.555081e-01 1.347023e+00
<VARIANCE> 39
 3.985613e+01 5.270639e+01 4.765087e+01 3.533040e+01 4.754385e+01 5.434175e+01 5.110211e+01 5.482917e+01 3.732923e+01 4.489130e+01 4.167003e+01 3.787516e+01 5.759389e+01 4.497974e+00 1.080308e+01 4.466976e+00 8.983106e+00 9.399101e+00 6.225141e+00 5.042621e+00 3.909446e+00 3.842075e+00 6.062037e+00 4.071722e+00 5.512280e+00 1.859705e+01 7.060695e-01 1.563453e+00 5.962148e-01 1.151885e+00 1.381329e+00 9.386289e-01 8.390906e-01 8.910145e-01 6.206755e-01 9.680756e-01 7.776957e-01 9.855679e-01 1.957774e+00
<GCONST> 1.447890e+02
<STATE> 3
<MEAN> 39
 -1.431324e+01 -1.137717e+01 -1.238851e+01 -1.160643e+01 -2.972020e-01 -8.029869e+00 -4.447170e+00 -4.631697e+00 -1.289034e+00 3.456937e-01 -4.575140e+00 1.192428e+00 5.385723e+01 1.649853e+00 -6.163321e-02 -4.959825e-01 -2.169227e+00 -1.361540e+00 -1.734258e+00 -6.899104e-01 -4.260090e-01 -6.463055e-02 4.677993e-03 -6.719742e-02 3.142949e-01 3.377914e+00 7.224771e-01 1.197542e+00 8.994424e-01 3.508812e-01 -1.145959e+00 -2.840158e-01 -3.599515e-01 -2.148646e-01 -7.757550e-01 -7.183061e-02 -7.884125e-02 -5.981144e-01 -9.315635e-01
<VARIANCE> 39
 2.966782e+01 5.582024e+01 8.669592e+01 4.875693e+01 8.847955e+01 5.788927e+01 3.553930e+01 4.875204e+01 3.335650e+01 4.785910e+01 3.090322e+01 2.758309e+01 2.439207e+01 3.161480e+00 7.678883e+00 7.416194e+00 8.114830e+00 7.365463e+00 5.225992e+00 3.466902e+00 5.627386e+00 5.033597e+00 4.278374e+00 4.583526e+00 4.211634e+00 8.353864e+00 5.229168e-01 1.220692e+00 7.539166e-01 1.138162e+00 1.341093e+00 1.166056e+00 6.568705e-01 1.054200e+00 6.701772e-01 1.101590e+00 8.006420e-01 7.163568e-01 8.731977e-01
<GCONST> 1.412988e+02
<STATE> 4
<MEAN> 39
 -8.033868e+00 -3.602841e+00 -3.929379e+00 -1.488388e+01 -1.095482e+01 -1.393423e+01 -9.050275e+00 -8.223738e+00 -5.583298e+00 -8.203790e-01 -6.114605e+00 -1.736433e+00 5.649140e+01 2.726833e+00 4.413481e-01 4.802509e-01 -1.560336e+00 -2.233579e+00 -1.616804e+00 -5.898232e-01 2.622051e-01 -1.606472e+00 9.142173e-01 -2.090170e-01 -6.064847e-01 1.222737e+00 -3.602121e-01 -7.768500e-01 -5.948789e-01 3.602617e-01 6.454232e-01 5.992453e-01 6.447679e-01 7.401279e-01 7.770281e-02 2.165795e-01 9.856682e-02 4.488407e-02 -4.247047e-01
<VARIANCE> 39
 2.928757e+01 4.130117e+01 8.278989e+01 9.554835e+01 7.726431e+01 6.385397e+01 4.893237e+01 5.068016e+01 4.720010e+01 4.006715e+01 4.220426e+01 2.264277e+01 3.180995e+01 1.974791e+00 3.938007e+00 3.443270e+00 4.762222e+00 5.028623e+00 4.694765e+00 4.151184e+00 6.737659e+00 7.035516e+00 4.718565e+00 4.725582e+00 4.952727e+00 1.522458e+00 3.308133e-01 5.019563e-01 4.207510e-01 7.719180e-01 5.877085e-01 6.143910e-01 5.956115e-01 6.488855e-01 7.021106e-01 7.112594e-01 4.757895e-01 6.051611e-01 5.667098e-01
<GCONST> 1.329582e+02
<TRANSP> 5
 0.000000e+00 1.000000e+00 0.000000e+00 0.000000e+00 0.000000e+00
 0.000000e+00 6.285177e-01 3.714823e-01 0.000000e+00 0.000000e+00
 0.000000e+00 0.000000e+00 5.937517e-01 4.062483e-01 0.000000e+00
 0.000000e+00 0.000000e+00 0.000000e+00 4.700914e-01 5.299087e-01
 0.000000e+00 0.000000e+00 0.000000e+00 0.000000e+00 0.000000e+00
<ENDHMM>
~h "k"
<BEGINHMM>
<NUMSTATES> 5
<STATE> 2
<NUMMIXES> 2
<MIXTURE> 1 3.638753e-01
<MEAN> 39
 -1.728053e+01 -2.045448e+00 -3.446382e+00 -3.103653e+00 -4.675210e+00 -6.083052e+00 -3.360655e+00 -5.127734e+00 -4.048477e+00 -7.172238e-01 -3.856258e+00 -7.770184e-01 3.864198e+01 -2.328701e+00 -1.752539e-01 -7.654770e-01 2.451312e+00 1.904741e+00 1.977292e+00 2.008665e-01 1.672231e+00 1.625216e+00 -3.942457e-01 1.964099e+00 3.615623e-01 -3.167670e+00 2.747992e-01 -6.567669e-01 -3.293151e-01 -9.567324e-01 -4.268689e-01 5.424437e-02 1.153980e-01 2.650044e-01 -4.790989e-02 1.769189e-01 -2.177335e-01 9.618276e-02 1.375872e+00
<VARIANCE> 39
 2.930719e+01 5.365602e+01 3.932789e+01 6.253769e+01 6.923240e+01 3.965798e+01 5.235991e+01 5.205969e+01 4.788359e+01 5.156427e+01 3.398840e+01 2.780196e+01 5.415109e+01 3.606751e+00 6.819876e+00 5.945925e+00 1.120208e+01 6.654460e+00 5.701788e+00 7.347394e+00 6.340812e+00 4.657609e+00 6.138104e+00 4.294046e+00 3.571568e+00 1.745663e+01 6.083393e-01 1.308157e+00 7.508246e-01 1.649154e+00 9.685828e-01 9.480848e-01 7.893826e-01 1.114357e+00 9.937132e-01 1.091829e+00 5.778527e-01 6.947076e-01 2.198038e+00
<GCONST> 1.448782e+02
<MIXTURE> 2 6.361231e-01
<MEAN> 39
 -2.140016e+01 -1.630975e+00 -5.393149e+00 -5.267105e-01 -2.959011e+00 -8.949714e-01 -1.878835e+00 -8.938639e-01 -1.044086e+00 -1.737235e-01 -6.074393e-01 -9.684483e-02 2.965937e+01 -2.427702e-01 -1.709504e+00 -4.740352e-01 -9.536141e-01 2.769067e-02 4.514505e-02 2.939408e-01 1.718894e-01 6.553319e-01 -2.066769e-02 1.791097e-01 3.441347e-01 2.097261e+00 4.825206e-01 -5.094466e-01 -2.335824e-02 -9.900206e-01 -4.814472e-01 -6.735863e-01 1.002352e-01 -3.521738e-01 -4.096887e-02 -2.125999e-02 -4.457147e-01 1.503857e-01 2.286259e+00
<VARIANCE> 39
 1.657735e+00 2.438156e+00 4.403632e+00 6.380917e+00 8.243680e+00 9.698515e+00 1.085106e+01 1.179782e+01 1.157233e+01 1.236672e+01 1.168642e+01 1.110169e+01 5.074628e+00 2.152538e+00 4.096136e+00 3.668885e+00 5.653557e+00 3.734781e+00 4.548788e+00 3.278067e+00 4.626895e+00 3.433215e+00 2.683255e+00 2.576935e+00 1.769337e+00 1.606528e+01 3.601287e-01 5.022725e-01 6.648916e-01 6.971461e-01 5.670309e-01 7.256766e-01 6.073310e-01 7.290562e-01 5.412489e-01 5.334194e-01 4.117722e-01 3.636608e-01 9.654856e-01
<GCONST> 1.070138e+02
<STATE> 3
<NUMMIXES> 2
<MIXTURE> 1 4.807228e-01
<MEAN> 39
 -2.335579e+01 -6.521582e+00 -3.594184e+00 -1.707822e+01 -5.565120e+00 -1.574864e+00 -2.100490e+00 -3.294373e+00 3.693522e+00 -6.413466e-01 -7.791626e-01 2.532174e+00 5.709861e+01 -1.903136e-02 1.345732e+00 7.372799e-01 -1.407407e+00 -1.497738e-01 4.785990e-01 6.001070e-01 1.358207e-01 3.821476e-01 -1.802833e-02 -6.090381e-02 -1.594165e-02 2.234109e+00 3.083613e-01 3.933899e-01 2.345717e-01 9.380748e-01 6.444350e-02 1.967858e-01 2.100831e-01 -6.176443e-02 -6.949644e-01 -9.089851e-02 -3.450851e-01 -2.910715e-01 -1.658967e+00
<VARIANCE> 39
 1.026256e+01 3.279262e+01 1.216535e+01 1.489163e+01 2.384691e+01 1.793429e+01 2.560156e+01 2.053899e+01 1.880586e+01 2.539600e+01 1.815798e+01 1.406826e+01 1.461933e+01 1.047422e+00 3.820139e+00 1.666553e+00 5.595634e+00 2.229686e+00 2.114043e+00 1.962593e+00 1.984164e+00 2.487515e+00 2.077564e+00 2.063327e+00 1.592186e+00 1.323052e+01 2.043560e-01 1.179567e+00 2.852195e-01 5.381967e-01 5.622621e-01 5.353028e-01 4.261287e-01 5.853470e-01 5.204145e-01 5.873421e-01 5.489659e-01 4.051750e-01 1.019004e+00
<GCONST> 1.128008e+02
<MIXTURE> 2 5.192767e-01
<MEAN> 39
 -1.724266e+01 -1.204067e+01 -1.072314e+01 -4.973980e+00 -3.255961e+00 -7.529455e+00 -8.708534e-02 -2.516698e-03 -2.493034e-01 1.777747e-01 -2.567928e+00 1.660740e+00 5.083189e+01 2.435947e-01 -7.887355e-01 -3.163481e-01 -1.440472e+00 -8.255841e-01 -7.920650e-01 5.385448e-01 2.101657e-01 4.128553e-01 6.671281e-03 -1.029883e-01 3.238219e-01 4.136482e+00 -1.234215e-01 1.060954e+00 5.804467e-01 1.108216e-01 -7.208672e-02 3.674767e-01 -1.228237e-01 -3.186072e-01 -2.586882e-01 -1.557366e-01 2.547392e-02 -2.142542e-01 -1.005735e+00
<VARIANCE> 39
 2.151678e+01 3.643393e+01 6.830717e+01 4.735340e+01 4.571602e+01 5.382219e+01 4.066569e+01 4.294832e+01 3.626757e+01 2.918423e+01 2.138248e+01 1.766212e+01 6.540554e+01 2.724259e+00 5.887096e+00 5.712229e+00 5.841967e+00 3.638426e+00 4.969512e+00 3.261073e+00 4.174761e+00 3.399431e+00 3.213502e+00 2.389414e+00 2.596636e+00 1.291639e+01 6.122915e-01 8.505638e-01 9.602693e-01 8.996246e-01 7.525938e-01 9.931974e-01 5.854161e-01 9.595121e-01 6.325909e-01 6.036243e-01 5.845698e-01 4.631117e-01 1.726496e+00
<GCONST> 1.339494e+02
<STATE> 4
<NUMMIXES> 2
<MIXTURE> 1 3.678025e-01
<MEAN> 39
 -1.088108e+01 -5.677350e+00 -2.923815e+00 -1.664534e+01 -1.463147e+01 -5.108787e+00 -1.669400e+00 -9.977775e+00 -8.720672e+00 -5.488004e+00 -1.226098e+01 -4.756983e+00 5.865236e+01 2.448814e+00 -8.530946e-01 -1.003168e+00 -1.329330e+00 -2.224051e+00 -1.818478e+00 -9.849696e-01 7.247373e-02 -1.061144e+00 3.648121e-02 -1.173497e+00 -1.116892e+00 1.907429e+00 -5.276874e-01 -4.115243e-01 -1.801152e-01 9.043606e-02 5.311668e-01 2.328361e-01 4.802288e-01 1.029232e+00 8.394443e-01 6.817614e-01 7.815055e-01 6.083683e-01 1.813582e-02
<VARIANCE> 39
 1.442818e+01 2.171263e+01 4.160027e+01 4.823005e+01 7.124603e+01 7.684366e+01 4.766277e+01 3.687124e+01 4.333183e+01 3.550325e+01 3.465614e+01 3.132819e+01 2.832317e+01 2.087819e+00 2.379018e+00 2.238330e+00 3.471527e+00 4.592894e+00 4.292027e+00 4.433638e+00 4.784274e+00 6.662144e+00 4.735345e+00 3.423044e+00 3.586640e+00 1.000618e+00 2.666977e-01 3.191585e-01 3.868480e-01 3.905963e-01 5.684851e-01 6.753815e-01 5.957594e-01 4.745485e-01 6.182045e-01 5.217142e-01 4.260758e-01 4.428848e-01 3.141966e-01
<GCONST> 1.238979e+02
<MIXTURE> 2 6.321961e-01
<MEAN> 39
 -1.989790e+01 -6.327178e+00 -3.845109e+00 -1.151771e+01 -4.879774e+00 -1.253193e+00 2.863778e+00 -3.511741e+00 -2.734932e-01 -1.194830e+00 -3.616953e+00 1.743204e+00 5.441825e+01 1.302871e+00 8.686924e-02 4.192166e-01 -3.959785e-01 -9.123753e-01 1.094939e-01 -1.138243e-01 -1.414178e+00 -1.994040e+00 -8.996793e-01 -1.781927e+00 -7.251342e-01 -1.201420e-01 5.725014e-01 -2.302275e-01 -4.115436e-01 -2.861557e-01 -4.800233e-01 -5.127181e-01 -6.322712e-01 -1.359835e-01 -3.947584e-01 -5.689049e-02 -3.616599e-01 -3.245421e-01 2.150826e-01
<VARIANCE> 39
 2.061304e+01 2.949415e+01 5.005169e+01 6.550757e+01 3.951477e+01 5.244311e+01 4.752776e+01 3.322707e+01 3.352707e+01 2.449995e+01 2.798537e+01 1.978411e+01 2.828705e+01 2.945847e+00 2.913712e+00 2.562195e+00 2.312412e+00 4.861690e+00 4.140763e+00 4.745995e+00 2.915427e+00 3.610109e+00 2.809322e+00 3.343271e+00 2.745757e+00 1.786565e+00 3.411299e-01 7.040345e-01 4.458866e-01 5.314652e-01 7.298872e-01 7.503543e-01 6.032410e-01 5.947508e-01 6.666436e-01 5.233014e-01 5.061575e-01 4.478709e-01 5.691416e-01
<GCONST> 1.246320e+02
<TRANSP> 5
 0.000000e+00 1.000000e+00 0.000000e+00 0.000000e+00 0.000000e+00
 0.000000e+00 7.373345e-01 2.626655e-01 0.000000e+00 0.000000e+00
 0.000000e+00 0.000000e+00 7.260652e-01 2.739348e-01 0.000000e+00
 0.000000e+00 0.000000e+00 0.000000e+00 7.497041e-01 2.502959e-01
 0.000000e+00 0.000000e+00 0.000000e+00 0.000000e+00 0.000000e+00
<ENDHMM>
~h "l"
<BEGINHMM>
<NUMSTATES> 5
<STATE> 2
<NUMMIXES> 2
<MIXTURE> 1 6.256337e-01
<MEAN> 39
 -3.360633e+00 -7.574753e+00 -1.806062e+01 -2.575060e+01 -2.456652e+00 1.804565e+00 -1.231685e+01 -1.325418e+00 -5.039412e+00 -1.983725e-01 -7.668563e+00 -2.562633e+00 6.043529e+01 4.236147e-01 1.431562e+00 -3.048835e-01 -8.122098e-01 -2.966749e-02 5.582373e-01 -3.416021e-01 -5.586096e-01 -7.763198e-01 5.710391e-02 1.192765e+00 -2.784152e-01 -1.024149e+00 -8.044830e-02 -1.210549e-04 2.935717e-01 3.118486e-01 -2.677816e-01 -2.639400e-01 2.419813e-01 4.924380e-02 -1.389570e-01 -1.847401e-01 2.191390e-02 9.645542e-02 -9.742261e-02
<VARIANCE> 39
 9.863840e+00 3.807571e+01 3.129999e+01 4.072360e+01 4.202117e+01 4.086293e+01 6.450215e+01 4.755296e+01 4.025734e+01 8.400291e+01 4.071408e+01 2.119437e+01 2.811053e+01 2.875095e-01 1.036509e+00 1.164480e+00 2.513766e+00 2.923018e+00 2.877273e+00 2.016470e+00 2.676923e+00 2.416452e+00 2.360496e+00 2.055436e+00 2.341685e+00 3.680899e-01 2.000000e-01 2.000000e-01 2.000000e-01 3.693281e-01 2.945612e-01 2.675673e-01 2.824533e-01 4.859391e-01 3.824374e-01 3.446135e-01 4.924552e-01 3.091372e-01 2.000000e-01
<GCONST> 1.085784e+02
<MIXTURE> 2 3.743667e-01
<MEAN> 39
 -5.109985e+00 1.406563e+00 -1.123125e+01 -1.595087e+01 -6.835869e+00 -1.000214e+01 -1.294615e+01 -1.075748e+01 -5.782983e+00 -4.186955e+00 -7.531672e+00 -2.135567e+00 5.321331e+01 2.283197e+00 3.813496e-01 -1.388384e+00 -2.585087e+00 3.830049e-02 -2.987840e-01 -1.567780e+00 -7.443473e-01 -4.555738e-01 3.653760e-01 -3.365545e-01 1.547766e-01 1.246718e+00 -6.482552e-01 -5.976343e-01 6.161848e-02 2.003621e-01 2.740818e-01 4.363765e-01 4.979437e-01 8.996124e-01 3.106360e-01 3.856507e-01 3.355670e-01 1.152759e-01 -4.144337e-02
<VARIANCE> 39
 2.114299e+01 2.552407e+01 3.652417e+01 5.247289e+01 4.810395e+01 5.672645e+01 4.589856e+01 4.917554e+01 5.264265e+01 4.048642e+01 3.849628e+01 2.675885e+01 3.931656e+01 2.752181e+00 2.560239e+00 2.243014e+00 5.694419e+00 6.729060e+00 5.136794e+00 5.392900e+00 4.225248e+00 4.884248e+00 4.791011e+00 4.724629e+00 2.270533e+00 4.257037e+00 6.004897e-01 3.520626e-01 3.178210e-01 1.005600e+00 8.446781e-01 6.161727e-01 5.969853e-01 6.853564e-01 1.001644e+00 6.690363e-01 7.232779e-01 4.153193e-01 4.671204e-01
<GCONST> 1.309709e+02
<STATE> 3
<NUMMIXES> 2
<MIXTURE> 1 6.569460e-01
<MEAN> 39
 -2.161046e+00 2.249673e+00 -1.438181e+01 -2.379543e+01 -4.786005e+00 -5.205026e+00 -1.161744e+01 -7.779688e+00 -7.187014e+00 -3.580468e+00 -2.798581e+00 -1.930078e-01 5.382247e+01 -1.978602e-01 -4.224453e-01 -1.647012e-01 -7.185312e-02 4.316016e-01 4.051232e-02 -9.223576e-02 5.586836e-01 2.647314e-01 2.147693e-01 -2.367194e-01 -2.309090e-01 4.654734e-01 -2.539098e-01 -4.895533e-01 2.500811e-02 3.402109e-01 9.463147e-02 9.219749e-02 -4.795983e-02 2.093224e-01 2.651593e-01 1.465919e-04 -3.362679e-01 -2.252439e-01 1.869380e-01
<VARIANCE> 39
 7.312490e+00 1.880173e+01 3.563794e+01 5.550225e+01 3.218581e+01 7.489622e+01 9.574541e+01 6.033696e+01 6.535297e+01 5.641256e+01 2.920896e+01 2.699253e+01 2.158613e+01 4.086171e-01 1.547466e+00 1.334480e+00 2.439448e+00 1.833827e+00 2.253294e+00 2.130380e+00 2.956323e+00 2.678862e+00 2.442290e+00 1.310536e+00 1.410441e+00 1.214499e+00 2.000000e-01 2.492496e-01 2.155293e-01 4.146767e-01 4.915527e-01 5.471036e-01 4.766549e-01 6.188700e-01 5.972251e-01 5.834450e-01 2.829602e-01 3.087907e-01 2.000000e-01
<GCONST> 1.122134e+02
<MIXTURE> 2 3.430534e-01
<MEAN> 39
 -4.420439e+00 -2.729820e-01 -1.457426e+01 -1.911957e+01 -3.769069e+00 -3.268684e+00 -1.218417e+01 -8.383423e+00 -6.992864e+00 -5.025535e+00 -4.378181e+00 -6.160708e+00 5.297601e+01 -8.765776e-01 -7.296703e-01 6.326818e-01 1.425882e+00 1.779351e-01 -4.850413e-01 -1.761665e-01 5.134489e-01 5.515122e-01 1.431139e-01 -6.632437e-01 -4.295212e-01 -2.834976e-02 -4.344592e-01 -5.328115e-01 1.144316e-01 2.341711e-01 -4.224167e-02 -4.996217e-02 4.753316e-01 7.674236e-01 3.233877e-01 5.289676e-02 -1.303329e-01 5.085652e-01 8.402886e-02
<VARIANCE> 39
 1.054201e+01 2.694839e+01 3.837397e+01 6.300295e+01 6.262249e+01 5.542598e+01 9.476144e+01 4.901936e+01 5.161668e+01 6.306689e+01 7.116045e+01 2.549751e+01 3.944883e+01 1.615814e+00 3.429911e+00 3.026666e+00 6.124091e+00 4.807951e+00 4.765722e+00 4.180407e+00 7.353647e+00 3.502961e+00 3.818461e+00 4.031687e+00 2.998765e+00 4.674453e+00 4.279926e-01 2.946462e-01 4.360069e-01 1.091447e+00 8.393980e-01 9.519642e-01 1.022520e+00 1.013113e+00 5.770621e-01 9.118369e-01 1.037761e+00 4.499863e-01 3.131235e-01
<GCONST> 1.332298e+02
<STATE> 4
<NUMMIXES> 2
<MIXTURE> 1 5.039099e-01
<MEAN> 39
 -4.309237e+00 -7.099355e+00 -1.620363e+01 -2.148296e+01 -1.720249e+00 -5.877665e+00 -1.457836e+01 -1.212928e+00 -1.406420e+00 -8.596480e-01 -9.732422e+00 -2.418569e+00 6.135973e+01 -5.448527e-01 -2.351545e+00 4.613275e-01 7.523251e-01 -6.808547e-02 -2.371731e-01 8.620549e-01 2.435522e+00 8.094873e-01 -1.211474e+00 -1.420718e+00 5.097213e-01 1.342707e+00 -5.104589e-02 2.016095e-01 5.402305e-01 1.882183e-01 -5.095916e-01 -1.582764e-01 5.134373e-01 -1.180007e-01 -6.054087e-01 -4.228544e-01 3.645293e-01 3.834423e-01 -3.336385e-01
<VARIANCE> 39
 6.961055e+00 3.063751e+01 2.731128e+01 3.985350e+01 4.196628e+01 9.174117e+01 6.574268e+01 5.750449e+01 4.749667e+01 6.220858e+01 3.573948e+01 2.952669e+01 1.525638e+01 4.928991e-01 2.027684e+00 2.430030e+00 3.271158e+00 4.631072e+00 6.519815e+00 3.649545e+00 4.966283e+00 4.179201e+00 4.663254e+00 2.971035e+00 3.214897e+00 1.075190e+00 2.000000e-01 3.133990e-01 2.685123e-01 4.451160e-01 5.947147e-01 6.032245e-01 5.627447e-01 6.314347e-01 6.667868e-01 6.706053e-01 5.111874e-01 4.195057e-01 2.000000e-01
<GCONST> 1.209721e+02
<MIXTURE> 2 4.960900e-01
<MEAN> 39
 -7.412795e+00 -9.553380e+00 -7.651962e+00 -1.610633e+01 -1.011038e+01 -1.012305e+01 -8.581149e+00 2.450809e+00 -5.896658e+00 -7.256744e+00 -8.452817e+00 1.241469e+00 6.034751e+01 -8.976784e-01 -4.795530e-01 1.924424e+00 1.813960e-01 -2.089727e+00 1.656267e-01 1.635243e+00 7.122303e-02 -1.701961e+00 3.736507e-02 1.053505e+00 4.035134e-01 -5.579692e-02 1.057946e-02 3.859636e-01 -5.392663e-02 -2.474894e-01 2.047135e-01 3.100148e-01 -1.865888e-01 -6.694134e-01 -2.255827e-02 6.044068e-01 2.136547e-01 -3.593545e-01 -2.575023e-01
<VARIANCE> 39
 1.088371e+01 3.900552e+01 5.027139e+01 2.886593e+01 1.035753e+02 6.128875e+01 7.097254e+01 7.392943e+01 5.603983e+01 6.288897e+01 3.248105e+01 3.487804e+01 4.853581e+01 1.234254e+00 2.306509e+00 2.085678e+00 4.423465e+00 4.066330e+00 2.789656e+00 3.172837e+00 6.030832e+00 3.734763e+00 4.207174e+00 2.302032e+00 2.864575e+00 1.765066e+00 2.000000e-01 3.590801e-01 2.957461e-01 2.982663e-01 6.923316e-01 5.548093e-01 6.805538e-01 1.115460e+00 8.636054e-01 5.407766e-01 6.729414e-01 5.117909e-01 2.000000e-01
<GCONST> 1.255383e+02
<TRANSP> 5
 0.000000e+00 1.000000e+00 0.000000e+00 0.000000e+00 0.000000e+00
 0.000000e+00 7.246071e-01 2.753929e-01 0.000000e+00 0.000000e+00
 0.000000e+00 0.000000e+00 7.489671e-01 2.510329e-01 0.000000e+00
 0.000000e+00 0.000000e+00 0.000000e+00 7.369730e-01 2.630269e-01
 0.000000e+00 0.000000e+00 0.000000e+00 0.000000e+00 0.000000e+00
<ENDHMM>
~h "m"
<BEGINHMM>
<NUMSTATES> 5
<STATE> 2
<NUMMIXES> 3
<MIXTURE> 1 4.843268e-01
<MEAN> 39
 -5.549691e+00 -2.167636e+00 -3.094872e+00 -4.071326e+00 -7.720153e+00 -1.526393e+01 -1.182843e+01 -8.605587e+00 -1.115532e+01 -2.708858e+00 -9.421131e+00 -6.449029e+00 4.837339e+01 -1.378393e-01 3.625492e-01 2.132758e-01 2.655330e-01 -7.945279e-02 8.353565e-02 -2.205277e-02 -1.461385e-01 -1.421007e-01 -3.701926e-01 4.772479e-02 7.534029e-02 -4.436166e-01 -5.076700e-03 -1.739931e-01 -2.005005e-01 -3.377361e-01 6.682566e-03 3.237447e-01 1.085011e-01 3.307597e-01 2.558258e-01 -2.921247e-01 1.277241e-01 1.272651e-01 1.527736e-01
<VARIANCE> 39
 4.831813e+00 2.082520e+01 2.402411e+01 2.932627e+01 4.809419e+01 6.165341e+01 6.221249e+01 3.276839e+01 6.927230e+01 4.167052e+01 5.542941e+01 4.733821e+01 2.051209e+01 2.000000e-01 4.545314e-01 6.762372e-01 7.676731e-01 8.107103e-01 1.284372e+00 1.068149e+00 1.158569e+00 1.271761e+00 1.408088e+00 1.313581e+00 1.151644e+00 3.298667e-01 2.000000e-01 2.000000e-01 2.396287e-01 2.619809e-01 2.395568e-01 3.460059e-01 3.152947e-01 3.654680e-01 4.213646e-01 4.077850e-01 3.866075e-01 3.879092e-01 2.000000e-01
<GCONST> 9.850349e+01
<MIXTURE> 2 1.730195e-01
<MEAN> 39
 -4.487306e+00 -1.761200e-01 -1.269767e+00 -4.847512e+00 -1.272321e+01 -1.692335e+01 -8.404137e+00 -1.242082e+01 -1.627820e+01 -3.477813e+00 -1.349489e+01 -5.668199e+00 4.786161e+01 6.474827e-01 -4.554298e-01 -4.931478e-02 -7.645149e-01 -2.281344e-01 -5.387591e-01 -2.865313e-01 -1.598219e-01 -2.784777e-01 4.085176e-01 -2.250322e-01 -5.102656e-01 1.204527e+00 -7.403097e-01 -5.644929e-01 -2.725170e-01 -4.513817e-01 5.040129e-01 8.264158e-01 3.760262e-01 9.567453e-01 8.600193e-01 -1.608755e-01 7.306216e-01 2.758753e-01 4.855965e-02
<VARIANCE> 39
 5.861773e+00 2.172462e+01 1.791588e+01 2.017285e+01 7.853802e+01 3.469468e+01 5.143110e+01 4.503248e+01 3.679781e+01 7.438016e+01 5.378944e+01 4.548132e+01 1.524597e+01 2.491445e+00 2.761666e+00 1.098107e+00 1.898126e+00 2.662334e+00 3.811564e+00 2.844031e+00 3.274099e+00 3.446674e+00 2.939005e+00 3.026246e+00 1.843313e+00 5.071723e+00 3.099381e-01 4.437877e-01 5.021089e-01 7.190037e-01 7.319800e-01 7.320499e-01 5.562981e-01 8.270246e-01 5.283034e-01 9.279532e-01 9.138125e-01 6.512982e-01 5.782277e-01
<GCONST> 1.232005e+02
<MIXTURE> 3 3.426532e-01
<MEAN> 39
 -4.261244e+00 -5.516293e+00 -5.885316e+00 -7.654856e+00 -8.358514e+00 -1.427365e+01 -1.231594e+01 -5.413105e+00 -1.022918e+01 -3.403929e+00 -1.033423e+01 -6.849380e+00 5.206394e+01 -2.921840e-01 1.967511e+00 1.570036e+00 2.521126e+00 -1.918530e-01 -1.397651e+00 -6.970150e-01 -2.571256e+00 -1.091730e+00 1.886090e+00 -7.235365e-01 -1.144099e+00 -2.220768e+00 -2.839696e-01 -2.700065e-01 6.155263e-02 -4.037983e-01 -1.084082e-01 3.383595e-01 3.389705e-01 2.600484e-01 -3.666693e-02 -3.493543e-01 1.941789e-01 2.831275e-01 4.127602e-01
<VARIANCE> 39
 6.126790e+00 2.346372e+01 3.455771e+01 3.745910e+01 5.973165e+01 6.611292e+01 5.998571e+01 5.245117e+01 4.938157e+01 4.877591e+01 4.965126e+01 4.151854e+01 2.381469e+01 6.370962e-01 1.212685e+00 3.529821e+00 2.043952e+00 3.261630e+00 3.319676e+00 3.478937e+00 3.877866e+00 3.668897e+00 5.125813e+00 5.429749e+00 4.113735e+00 7.553419e-01 2.000000e-01 2.213707e-01 5.807336e-01 5.242473e-01 3.546089e-01 4.666985e-01 4.784626e-01 6.954374e-01 4.739824e-01 7.257421e-01 6.234118e-01 4.762718e-01 2.000000e-01
<GCONST> 1.201001e+02
<STATE> 3
<NUMMIXES> 2
<MIXTURE> 1 3.105561e-01
<MEAN> 39
 -1.491255e+01 -6.186616e+00 -5.451315e+00 -3.549853e+00 -7.736155e-01 -5.248405e+00 -5.698730e+00 -6.824425e-01 -6.827905e+00 -1.066547e+01 -4.620659e+00 -2.510086e+00 4.047202e+01 -9.319199e-01 -5.479211e-01 -5.237772e-01 4.195772e-02 2.470883e-01 7.182299e-01 9.801041e-01 9.129087e-01 3.621836e-01 6.165959e-01 6.153954e-01 5.829472e-01 -8.455997e-01 1.026948e-01 7.075157e-03 -1.770131e-01 -1.391913e-01 -2.411627e-01 -1.065271e-01 -1.253800e-01 -4.359626e-02 1.770673e-01 3.984646e-01 5.744381e-02 1.455254e-01 -7.507801e-04
<VARIANCE> 39
 1.895970e+01 3.425891e+01 3.814739e+01 3.811618e+01 2.439664e+01 4.494878e+01 7.681081e+01 4.555080e+01 3.942679e+01 5.805588e+01 4.655973e+01 2.411468e+01 7.495492e+01 7.874853e-01 1.221586e+00 1.705893e+00 1.420634e+00 1.681535e+00 1.904023e+00 2.994629e+00 1.805447e+00 2.887401e+00 2.650101e+00 1.727320e+00 2.361595e+00 5.776321e-01 2.000000e-01 2.000000e-01 3.813316e-01 3.566199e-01 2.342860e-01 3.325172e-01 4.794196e-01 4.014415e-01 4.261963e-01 5.808188e-01 3.619494e-01 4.209642e-01 2.000000e-01
<GCONST> 1.119605e+02
<MIXTURE> 2 6.894440e-01
<MEAN> 39
 -5.918327e+00 -3.366143e+00 -3.615074e+00 -6.590548e+00 -8.412642e+00 -1.315954e+01 -1.217015e+01 -8.391751e+00 -1.200052e+01 -4.418293e+00 -1.022380e+01 -7.350008e+00 4.938442e+01 -6.906483e-01 -1.069440e+00 -5.085297e-01 -1.655041e+00 2.054854e-01 1.471584e+00 1.008656e+00 1.412368e+00 9.708210e-01 -1.146341e+00 1.111091e+00 8.545762e-01 6.465766e-01 -3.261652e-01 -3.823175e-01 -9.805723e-02 -4.975976e-01 8.634073e-02 4.709338e-01 5.072939e-01 4.541931e-01 2.439565e-01 1.746036e-02 2.335138e-01 3.430287e-01 1.460852e-01
<VARIANCE> 39
 8.071096e+00 2.964876e+01 2.789770e+01 3.614019e+01 6.372019e+01 5.283559e+01 6.889253e+01 5.618035e+01 5.521182e+01 6.256608e+01 5.322167e+01 4.544153e+01 3.013750e+01 1.570437e+00 3.042781e+00 3.847471e+00 4.757601e+00 4.740392e+00 4.194947e+00 3.681115e+00 5.827826e+00 5.150425e+00 5.252775e+00 5.301138e+00 4.375035e+00 5.019392e+00 2.000000e-01 3.389934e-01 5.905143e-01 8.038356e-01 5.643147e-01 5.153574e-01 5.811667e-01 8.101953e-01 8.551437e-01 8.510181e-01 8.726229e-01 8.080591e-01 4.521423e-01
<GCONST> 1.314944e+02
<STATE> 4
<NUMMIXES> 2
<MIXTURE> 1 5.419821e-01
<MEAN> 39
 -1.616274e+01 -2.771531e+00 -5.316683e+00 -5.532605e+00 -6.172352e+00 -4.847894e+00 -4.427786e+00 -3.289978e+00 -4.477002e+00 -1.764830e+00 -2.703013e+00 -2.369580e+00 3.722513e+01 -1.455705e+00 2.062836e-01 3.144115e-01 1.852776e-01 8.047354e-01 1.375203e+00 7.760374e-01 5.446411e-01 1.036134e+00 7.664732e-01 4.138484e-01 5.135972e-01 -1.144218e+00 4.201585e-01 -1.665926e-01 4.837722e-02 -4.084524e-01 -2.580410e-01 -2.116503e-01 -3.109509e-01 -1.203426e-01 -1.735630e-01 -1.677922e-01 -2.803310e-01 -8.390365e-02 9.448406e-01
<VARIANCE> 39
 4.070396e+01 2.750485e+01 4.202241e+01 5.466687e+01 7.104842e+01 4.242550e+01 5.680412e+01 3.938156e+01 5.412375e+01 5.102002e+01 3.934274e+01 3.981659e+01 5.239685e+01 4.253942e+00 3.564404e+00 4.484725e+00 8.534375e+00 6.209104e+00 3.254124e+00 5.485414e+00 4.875426e+00 4.191972e+00 4.896752e+00 4.230971e+00 3.532563e+00 9.243863e+00 7.223043e-01 7.844347e-01 1.042337e+00 1.615987e+00 1.259307e+00 6.842105e-01 1.051493e+00 6.528081e-01 9.135054e-01 9.076483e-01 6.970282e-01 7.355769e-01 1.526137e+00
<GCONST> 1.410018e+02
<MIXTURE> 2 4.580185e-01
<MEAN> 39
 -7.318340e+00 -1.155014e+01 -5.503483e+00 -1.818519e+01 -1.199571e+01 -9.871984e+00 -4.568986e+00 -1.649111e+00 -8.681834e+00 -6.020317e+00 -5.730138e+00 -3.768631e+00 5.842534e+01 -8.818079e-01 -1.636606e+00 -4.359905e-01 -3.444651e+00 -1.860597e-01 2.409675e+00 1.930729e+00 1.399088e+00 1.092741e+00 2.504138e-01 9.040100e-01 9.186843e-01 1.568525e+00 -1.450930e-01 6.638264e-01 2.855800e-01 7.079565e-01 5.049062e-01 -6.140823e-02 -2.891828e-01 -7.198269e-01 -2.883484e-01 5.595533e-01 -5.602496e-01 -1.520509e-01 -7.370504e-01
<VARIANCE> 39
 1.818924e+01 2.165804e+01 7.812103e+01 4.182811e+01 7.449590e+01 5.582949e+01 6.864146e+01 4.182985e+01 4.253030e+01 5.626861e+01 3.192354e+01 2.324054e+01 3.291846e+01 1.611462e+00 3.159552e+00 6.579446e+00 5.226495e+00 5.615661e+00 4.204219e+00 4.431854e+00 6.176683e+00 5.574261e+00 6.475550e+00 5.871781e+00 5.369909e+00 5.536152e+00 2.162894e-01 4.281237e-01 6.843444e-01 8.139265e-01 5.440878e-01 6.960889e-01 6.376711e-01 6.387007e-01 7.448921e-01 8.376142e-01 4.968160e-01 6.250899e-01 5.373206e-01
<GCONST> 1.332133e+02
<TRANSP> 5
 0.000000e+00 1.000000e+00 0.000000e+00 0.000000e+00 0.000000e+00
 0.000000e+00 8.346608e-01 1.653392e-01 0.000000e+00 0.000000e+00
 0.000000e+00 0.000000e+00 6.984449e-01 3.015551e-01 0.000000e+00
 0.000000e+00 0.000000e+00 0.000000e+00 6.037627e-01 3.962373e-01
 0.000000e+00 0.000000e+00 0.000000e+00 0.000000e+00 0.000000e+00
<ENDHMM>
~h "n"
<BEGINHMM>
<NUMSTATES> 5
<STATE> 2
<NUMMIXES> 4
<MIXTURE> 1 2.603946e-01
<MEAN> 39
 -5.312590e+00 -3.903378e+00 -2.749274e+00 -1.149134e+01 -1.327632e+01 -1.279484e+01 -3.851553e+00 -3.273424e+00 -1.479804e+01 -6.446401e+00 -6.890973e+00 1.817293e+00 5.113674e+01 4.714060e-01 1.928083e+00 7.793196e-01 1.893168e+00 -6.585433e-01 2.436290e-01 2.135766e-01 -3.842677e+00 -1.859012e-01 5.693063e-01 -1.118432e-01 4.420233e-01 -2.446753e+00 -2.175951e-01 -2.091992e-01 -3.438163e-02 -2.300223e-01 -3.799017e-02 4.163032e-01 4.649248e-03 -1.756848e-01 2.666826e-01 2.235824e-02 -3.323220e-02 -1.798159e-01 2.949281e-01
<VARIANCE> 39
 6.152999e+00 1.535708e+01 1.987012e+01 2.947840e+01 3.623153e+01 2.973447e+01 4.163049e+01 7.136688e+01 3.657515e+01 5.010831e+01 3.978203e+01 4.042146e+01 1.815658e+01 4.808510e-01 8.355652e-01 2.221395e+00 2.043788e+00 3.334399e+00 4.874929e+00 2.813951e+00 4.314518e+00 4.106228e+00 5.060447e+00 3.640800e+00 2.879738e+00 5.680929e-01 2.000000e-01 2.000000e-01 2.000000e-01 2.282091e-01 2.965870e-01 3.600138e-01 2.902147e-01 8.795639e-01 3.438568e-01 4.648896e-01 3.623345e-01 2.996177e-01 2.000000e-01
<GCONST> 1.105057e+02
<MIXTURE> 2 2.578547e-01
<MEAN> 39
 -3.921984e+00 -9.960171e-01 -5.189945e+00 -7.570473e+00 -1.796160e+01 -5.968172e+00 -6.269621e+00 -1.167798e+01 -1.015441e+01 -8.460148e+00 -4.615726e+00 1.071883e+00 4.757688e+01 -6.382500e-02 5.092244e-01 1.193020e-01 1.987040e-01 2.298887e-01 1.933206e-01 -1.665552e-01 -1.189882e-01 -1.338759e-01 -3.008010e-01 -2.241050e-02 -2.106194e-01 -5.258749e-01 -1.376014e-01 -6.430844e-02 5.385057e-02 -7.324796e-02 3.037867e-01 -2.576959e-01 6.690216e-02 4.471353e-01 -1.801467e-01 8.166675e-03 -1.118121e-01 -7.701902e-02 6.382052e-02
<VARIANCE> 39
 4.474000e+00 1.117056e+01 2.272653e+01 1.339171e+01 3.058227e+01 2.536829e+01 2.857277e+01 4.167936e+01 4.370633e+01 3.525740e+01 5.368028e+01 4.278634e+01 1.106339e+01 2.122335e-01 3.763596e-01 4.810483e-01 4.582779e-01 6.908439e-01 9.331278e-01 9.089559e-01 1.205513e+00 1.090276e+00 9.159761e-01 1.001623e+00 9.989784e-01 2.000000e-01 2.000000e-01 2.000000e-01 2.000000e-01 2.000000e-01 2.000000e-01 2.476999e-01 2.052968e-01 3.943569e-01 2.448236e-01 2.270224e-01 2.541865e-01 2.000000e-01 2.000000e-01
<GCONST> 8.709427e+01
<MIXTURE> 3 2.942634e-01
<MEAN> 39
 -6.286554e+00 -4.885410e-03 -3.924864e-01 -9.599081e+00 -1.216942e+01 -1.234600e+01 -2.302552e+00 -1.032387e+01 -1.515550e+01 -3.191159e+00 -1.019557e+01 1.004044e+00 4.669866e+01 -9.763422e-02 5.668188e-01 9.773169e-02 4.838119e-01 1.190254e-01 1.628003e-01 -8.376941e-02 -5.149273e-01 -1.201758e-01 -2.512602e-01 -1.387815e-01 -3.240242e-01 -6.587277e-01 -1.175996e-01 -2.036292e-01 -9.975902e-02 -8.154530e-02 1.583549e-01 1.563871e-01 -2.121120e-01 6.121220e-01 1.129154e-01 -3.693846e-01 2.425707e-01 -2.154622e-01 1.689592e-01
<VARIANCE> 39
 5.265637e+00 1.523077e+01 1.327086e+01 3.020347e+01 3.290517e+01 2.889482e+01 4.974824e+01 7.756505e+01 4.383987e+01 5.093135e+01 3.871928e+01 4.470431e+01 1.573423e+01 2.197417e-01 5.884642e-01 5.630822e-01 7.047836e-01 7.787142e-01 9.570083e-01 1.200113e+00 1.869888e+00 1.336097e+00 1.741978e+00 1.043187e+00 1.087963e+00 2.747842e-01 2.000000e-01 2.000000e-01 2.000000e-01 2.625947e-01 2.272283e-01 2.551166e-01 3.038197e-01 5.162352e-01 3.996741e-01 4.234734e-01 2.813680e-01 2.990182e-01 2.000000e-01
<GCONST> 9.559105e+01
<MIXTURE> 4 1.874813e-01
<MEAN> 39
 -5.341732e+00 -1.818898e+00 -4.342704e+00 -9.433350e+00 -1.673677e+01 -1.038209e+01 -7.783867e+00 -1.204630e+01 -1.005859e+01 -3.414952e+00 -1.163269e+01 -1.933222e+00 5.099949e+01 4.231486e-01 1.230462e+00 -8.100198e-02 1.400097e+00 -3.959787e-01 6.336138e-02 -9.356865e-02 -2.148370e+00 5.600500e-01 -8.934171e-02 -7.790932e-01 -4.816233e-02 -1.524842e+00 -4.057259e-01 -4.170192e-01 6.527451e-02 -5.225884e-01 3.476555e-01 2.480969e-01 6.794772e-02 9.161336e-01 -1.548902e-01 -1.165310e-01 4.770478e-01 -2.648111e-02 4.736836e-01
<VARIANCE> 39
 9.055587e+00 1.979101e+01 2.853144e+01 3.830060e+01 5.401620e+01 4.809491e+01 5.165450e+01 6.143039e+01 5.563183e+01 3.958559e+01 6.228876e+01 4.922973e+01 2.229617e+01 1.130001e+00 1.931855e+00 2.619934e+00 4.066351e+00 4.116601e+00 4.577007e+00 3.379511e+00 5.005705e+00 4.832857e+00 3.441143e+00 3.404352e+00 2.645845e+00 2.333683e+00 2.548210e-01 3.369207e-01 4.284540e-01 6.851710e-01 7.854817e-01 9.503875e-01 7.113511e-01 9.689029e-01 7.965984e-01 5.762786e-01 7.109485e-01 6.244571e-01 3.646029e-01
<GCONST> 1.264401e+02
<STATE> 3
<NUMMIXES> 3
<MIXTURE> 1 2.689465e-01
<MEAN> 39
 -1.911408e+01 -4.146505e+00 -6.897767e+00 -4.464573e+00 -4.070437e+00 -8.679488e-01 -1.373543e+00 -2.199986e+00 -3.805023e+00 -1.902545e+00 -3.999673e-01 3.873079e-01 3.334232e+01 -3.007854e-01 1.273198e-01 -7.481753e-02 1.426399e-01 -1.199869e-02 2.038075e-01 1.330012e-02 1.024911e-01 3.287150e-01 2.743720e-01 2.394364e-01 1.797559e-01 -4.223103e-01 1.083381e-01 3.358808e-02 1.075514e-01 -3.831657e-02 -5.825151e-02 -6.221898e-02 -5.378082e-02 -1.087619e-01 -1.369367e-01 -1.125110e-01 -9.683848e-02 -6.741862e-02 1.299399e-01
<VARIANCE> 39
 7.183726e+00 2.017388e+01 1.582769e+01 1.957020e+01 2.211348e+01 1.814088e+01 2.667942e+01 3.075667e+01 2.986156e+01 2.310477e+01 2.446020e+01 1.592239e+01 2.287673e+01 6.177031e-01 8.263215e-01 1.180210e+00 1.535315e+00 1.291440e+00 1.644877e+00 2.282111e+00 2.184558e+00 2.370925e+00 2.212942e+00 2.295781e+00 1.803593e+00 9.511178e-01 2.000000e-01 2.000000e-01 2.000000e-01 3.725128e-01 2.641627e-01 3.602892e-01 4.765655e-01 4.248517e-01 4.800282e-01 3.840697e-01 4.100932e-01 3.678284e-01 2.000000e-01
<GCONST> 1.010784e+02
<MIXTURE> 2 4.089686e-01
<MEAN> 39
 -6.220226e+00 3.028931e+00 -8.331729e-01 -5.269877e+00 -1.258380e+01 -8.053132e+00 -7.240404e+00 -1.204273e+01 -1.363036e+01 -9.490009e+00 -8.262760e+00 -2.098178e+00 4.304402e+01 -1.173319e+00 2.758473e-01 4.663853e-01 1.046065e+00 1.694577e+00 4.111986e-01 1.134333e-01 6.491872e-01 -9.049016e-03 -4.440416e-01 2.936458e-01 -5.963211e-01 -1.210612e+00 -5.975382e-01 -6.288691e-01 -2.639845e-01 -2.393214e-01 4.214584e-01 1.701809e-01 3.840317e-01 6.840881e-01 3.828454e-01 4.413330e-01 2.463179e-01 1.373072e-01 2.638401e-01
<VARIANCE> 39
 1.231245e+01 1.274535e+01 1.812304e+01 2.357045e+01 4.083837e+01 3.969262e+01 4.167287e+01 4.542953e+01 3.421341e+01 3.738726e+01 4.394924e+01 3.939424e+01 1.285234e+01 1.113927e+00 1.495304e+00 1.366631e+00 2.153122e+00 2.682876e+00 2.835460e+00 2.722680e+00 3.476618e+00 3.249080e+00 3.104372e+00 3.050553e+00 2.740294e+00 1.675649e+00 3.422970e-01 2.731941e-01 3.173904e-01 4.013302e-01 4.288498e-01 4.875587e-01 4.326054e-01 5.883162e-01 5.494626e-01 4.861065e-01 5.246797e-01 4.074512e-01 3.567881e-01
<GCONST> 1.144509e+02
<MIXTURE> 3 3.220805e-01
<MEAN> 39
 -6.199701e+00 -2.523037e+00 -2.981549e+00 -9.807846e+00 -1.294477e+01 -1.158791e+01 -4.826064e+00 -9.224742e+00 -1.432202e+01 -4.423641e+00 -9.028670e+00 -1.492131e+00 4.984828e+01 -8.711898e-01 -1.132618e+00 3.009027e-01 -1.413784e+00 5.520710e-01 5.675965e-01 -5.107102e-01 2.097119e+00 3.958099e-01 -5.579540e-01 7.340307e-01 -3.198642e-01 1.080643e+00 -3.135179e-01 -4.732318e-01 5.378635e-02 -5.421687e-01 5.336674e-02 4.782002e-01 -1.008563e-01 7.342253e-01 3.668642e-01 -2.106595e-01 1.152652e-01 5.567518e-02 4.264802e-01
<VARIANCE> 39
 7.797405e+00 2.089822e+01 1.626283e+01 3.648508e+01 6.240802e+01 4.633935e+01 5.205124e+01 8.100688e+01 4.881724e+01 6.578619e+01 4.760498e+01 5.833078e+01 1.548293e+01 7.277339e-01 2.237292e+00 2.259505e+00 4.032166e+00 3.008825e+00 3.903525e+00 4.021470e+00 6.562758e+00 4.840155e+00 4.475400e+00 3.637580e+00 3.094568e+00 2.597041e+00 2.000000e-01 3.993730e-01 4.587235e-01 1.000899e+00 7.471519e-01 7.514594e-01 6.372772e-01 1.606200e+00 6.616456e-01 8.408461e-01 6.030861e-01 5.802573e-01 6.188217e-01
<GCONST> 1.271246e+02
<STATE> 4
<NUMMIXES> 3
<MIXTURE> 1 4.166250e-01
<MEAN> 39
 -1.028345e+01 6.042398e-01 -1.370958e-01 -2.479352e+00 -6.494689e+00 -7.085158e+00 -4.953500e+00 -7.740383e+00 -1.380458e+01 -1.079916e+01 -7.755166e+00 -3.212132e+00 4.134555e+01 -2.301733e+00 -1.445970e+00 -9.538440e-01 -1.481840e-02 1.673218e+00 1.069318e+00 1.084662e+00 1.937316e+00 1.503138e+00 8.573970e-01 1.421808e+00 2.151635e-01 -4.985024e-01 -3.388630e-01 -3.450126e-01 -5.123636e-01 -5.760052e-01 -3.137893e-01 8.087128e-02 2.579502e-01 4.103472e-01 6.880627e-01 7.301108e-01 3.973998e-01 4.269783e-01 3.261099e-01
<VARIANCE> 39
 1.348429e+01 3.135217e+01 1.989540e+01 2.682433e+01 3.942442e+01 2.981008e+01 4.021181e+01 4.591479e+01 2.622151e+01 4.172315e+01 3.363123e+01 2.909275e+01 2.495473e+01 2.715502e+00 1.825913e+00 2.197161e+00 3.513879e+00 3.158720e+00 3.082525e+00 3.171206e+00 4.258999e+00 3.959620e+00 4.409241e+00 3.130487e+00 3.372434e+00 3.379112e+00 3.609092e-01 3.967888e-01 2.968036e-01 4.464731e-01 4.497509e-01 4.989372e-01 5.509368e-01 5.583209e-01 6.199926e-01 5.075288e-01 5.313820e-01 4.713896e-01 6.192939e-01
<GCONST> 1.209953e+02
<MIXTURE> 2 2.157253e-01
<MEAN> 39
 -2.026091e+01 -2.643733e+00 -5.973007e+00 -3.567885e+00 -4.450261e+00 -2.531001e+00 -1.935880e+00 -2.582536e-01 -1.356538e+00 -9.702092e-01 -2.037157e+00 2.658462e-02 3.598619e+01 -8.020803e-01 -1.746603e-01 -4.120692e-02 -2.581833e-01 9.663615e-01 9.200807e-01 5.857489e-01 1.316516e-01 9.617573e-01 8.989827e-01 2.991352e-02 -4.751284e-02 -2.470287e-01 7.806700e-01 -1.107752e-01 1.986093e-01 -6.125593e-01 -4.897645e-01 -2.805023e-01 -3.251926e-01 -4.870570e-01 -5.918047e-01 -4.565423e-01 -3.596000e-01 -1.019607e-01 9.629440e-01
<VARIANCE> 39
 1.752646e+01 2.446242e+01 2.014865e+01 3.048993e+01 3.176581e+01 2.703624e+01 3.690559e+01 3.378085e+01 2.815007e+01 3.148518e+01 3.204119e+01 2.123117e+01 6.044574e+01 4.731108e+00 5.226847e+00 3.360152e+00 8.561639e+00 6.802333e+00 4.779831e+00 4.452070e+00 4.771452e+00 6.311656e+00 5.023528e+00 4.052650e+00 3.322256e+00 1.138332e+01 5.164620e-01 9.311228e-01 7.647945e-01 1.429536e+00 1.043063e+00 7.270372e-01 8.873737e-01 7.152475e-01 9.056262e-01 6.787806e-01 7.973198e-01 6.174076e-01 1.851048e+00
<GCONST> 1.350936e+02
<MIXTURE> 3 3.676489e-01
<MEAN> 39
 -9.289305e+00 -8.970190e+00 -2.253319e+00 -1.642747e+01 -1.398852e+01 -8.826252e+00 -6.228639e+00 5.562837e-01 -1.078093e+01 -6.281703e+00 -5.744567e+00 -8.955953e-01 5.613836e+01 -1.138210e+00 -1.503171e+00 -4.936218e-01 -1.345120e+00 6.413725e-01 1.264908e+00 2.264581e-01 2.249834e+00 1.033629e+00 -1.214084e-01 2.693609e-01 2.503294e-02 9.224852e-01 4.933520e-02 4.726223e-01 -1.918855e-01 6.842369e-01 2.867396e-01 8.302244e-02 2.243222e-01 -8.003135e-01 1.670286e-02 2.221553e-01 -3.576909e-01 3.913173e-02 -7.121290e-01
<VARIANCE> 39
 1.009506e+01 3.093930e+01 3.263305e+01 4.294831e+01 5.478350e+01 4.367131e+01 6.786509e+01 6.840306e+01 4.746353e+01 6.620000e+01 3.581346e+01 3.368930e+01 4.227425e+01 1.368324e+00 3.474504e+00 4.607358e+00 6.361403e+00 5.237380e+00 4.619871e+00 4.852429e+00 7.880356e+00 4.479226e+00 6.384276e+00 5.115411e+00 3.971818e+00 6.391009e+00 2.516049e-01 3.740194e-01 4.437989e-01 6.393027e-01 7.504632e-01 7.816296e-01 7.980011e-01 1.086798e+00 7.652388e-01 8.321746e-01 6.049582e-01 5.862951e-01 5.058987e-01
<GCONST> 1.333004e+02
<TRANSP> 5
 0.000000e+00 1.000000e+00 0.000000e+00 0.000000e+00 0.000000e+00
 0.000000e+00 8.305062e-01 1.694938e-01 0.000000e+00 0.000000e+00
 0.000000e+00 0.000000e+00 7.022906e-01 2.977094e-01 0.000000e+00
 0.000000e+00 0.000000e+00 0.000000e+00 6.344973e-01 3.655027e-01
 0.000000e+00 0.000000e+00 0.000000e+00 0.000000e+00 0.000000e+00
<ENDHMM>
~h "p"
<BEGINHMM>
<NUMSTATES> 5
<STATE> 2
<NUMMIXES> 3
<MIXTURE> 1 3.299418e-01
<MEAN> 39
 -1.628548e+01 1.907742e+00 -2.345331e+00 -2.170438e-01 -3.425843e+00 -3.281299e+00 -5.264059e+00 -5.051600e+00 -5.961409e+00 -4.159477e+00 -4.296165e+00 -2.999349e+00 3.340453e+01 -3.285211e+00 -6.654457e-01 -7.222971e-01 1.243322e+00 1.318623e+00 1.952089e+00 1.673594e+00 1.989798e+00 2.000279e+00 1.088444e+00 1.453294e+00 1.010444e+00 -2.950007e+00 4.625313e-01 -7.901022e-01 -3.038438e-01 -1.073714e+00 -6.510049e-01 -3.389638e-01 3.498659e-02 2.754413e-01 5.945316e-02 4.296987e-01 2.388423e-02 2.186323e-01 1.478369e+00
<VARIANCE> 39
 2.196354e+01 1.676091e+01 1.271278e+01 9.730142e+00 1.206554e+01 1.495742e+01 2.462916e+01 2.944788e+01 2.909957e+01 2.469999e+01 2.139936e+01 1.866768e+01 2.183815e+01 2.575459e+00 3.185407e+00 4.594536e+00 4.288334e+00 3.507519e+00 3.297004e+00 3.087241e+00 3.405377e+00 3.610756e+00 3.789368e+00 2.286963e+00 2.358743e+00 8.032627e+00 7.957625e-01 7.112023e-01 8.778166e-01 4.933109e-01 5.070142e-01 6.141259e-01 7.040511e-01 8.729339e-01 7.418939e-01 8.048228e-01 4.795817e-01 5.367207e-01 1.102093e+00
<GCONST> 1.212725e+02
<MIXTURE> 2 3.137544e-01
<MEAN> 39
 -2.130914e+01 -1.544928e+00 -6.076165e+00 -6.590590e-01 -2.954574e+00 -4.457138e-01 -1.902232e+00 -3.834229e-02 -9.009899e-01 1.429149e-02 -4.424010e-01 -1.085129e-01 2.923734e+01 9.778996e-01 -1.206725e+00 6.763239e-01 -1.201616e+00 -5.639920e-01 -6.626897e-01 1.004252e+00 7.537418e-01 4.391952e-01 3.351924e-01 5.266945e-01 4.543938e-01 5.220102e+00 4.869556e-01 -3.387408e-01 4.363687e-01 -6.014988e-01 -3.064781e-01 -3.752504e-01 2.065443e-01 -2.178464e-01 -1.777462e-01 5.379989e-03 -7.501744e-02 2.976812e-02 2.214276e+00
<VARIANCE> 39
 1.252424e+00 2.555461e+00 3.820423e+00 5.454264e+00 7.439589e+00 8.844146e+00 9.496099e+00 9.667403e+00 9.579932e+00 1.171725e+01 9.982284e+00 9.402225e+00 6.506280e+00 1.172965e+00 1.472101e+00 2.122310e+00 1.443825e+00 2.044090e+00 2.287924e+00 2.232431e+00 2.644171e+00 2.933254e+00 1.966978e+00 2.512232e+00 1.669687e+00 8.093872e+00 3.591126e-01 2.064584e-01 3.313227e-01 3.231095e-01 3.687527e-01 4.500420e-01 4.671343e-01 4.757162e-01 4.376721e-01 4.413983e-01 3.636709e-01 2.589778e-01 5.875958e-01
<GCONST> 9.330569e+01
<MIXTURE> 3 3.563017e-01
<MEAN> 39
 -2.116733e+01 -1.637755e+00 -6.016932e+00 -6.054944e-01 -3.460284e+00 -1.137638e+00 -1.627995e+00 8.348416e-02 -8.727698e-01 -4.765120e-01 -9.617572e-01 3.430190e-01 2.949664e+01 -2.872739e-01 -2.638153e-01 -2.649079e-01 5.016999e-02 3.808774e-02 1.624384e-01 8.944047e-02 3.042330e-01 2.020428e-01 1.402175e-01 1.270566e-01 4.716102e-02 -3.025317e-01 5.184629e-01 9.887472e-03 2.386387e-01 -2.647885e-01 -1.560490e-01 -3.183859e-01 -1.237343e-01 -2.351956e-01 -2.298379e-01 -1.607470e-01 -1.506155e-01 -1.295692e-01 1.123415e+00
<VARIANCE> 39
 2.260450e+00 2.697507e+00 4.118370e+00 4.402594e+00 8.764541e+00 1.232708e+01 1.029537e+01 1.314607e+01 1.366249e+01 1.110272e+01 1.199793e+01 1.128105e+01 5.978700e+00 3.092338e-01 4.051529e-01 5.429851e-01 6.283897e-01 8.351840e-01 1.010752e+00 1.350986e+00 1.625531e+00 1.577659e+00 1.425797e+00 1.400892e+00 1.233333e+00 3.890014e-01 2.341202e-01 2.000000e-01 2.642662e-01 2.000000e-01 2.689912e-01 3.436838e-01 4.437204e-01 4.740817e-01 4.979507e-01 3.488651e-01 4.209054e-01 3.533714e-01 8.528447e-01
<GCONST> 8.181243e+01
<STATE> 3
<NUMMIXES> 2
<MIXTURE> 1 5.935514e-01
<MEAN> 39
 -1.648342e+01 -6.646894e+00 -4.421675e+00 -4.455809e+00 -4.135918e+00 -4.356340e+00 5.254101e-01 2.905935e+00 3.422593e-01 2.522716e-03 3.933849e-02 1.416086e+00 5.083439e+01 9.008090e-01 -1.785367e+00 6.156742e-01 -1.517946e+00 -4.845915e-01 -9.498905e-01 9.757426e-01 3.064124e-01 1.281588e-04 3.964490e-01 1.570828e-01 3.873952e-01 5.876040e+00 -2.137993e-01 1.982114e-01 -6.577580e-02 -3.607736e-01 -7.218874e-02 9.119386e-02 -4.087367e-01 -7.572447e-01 -4.791308e-01 -1.176851e-01 -4.690312e-01 -2.713956e-01 -1.063632e+00
<VARIANCE> 39
 1.294399e+01 1.996485e+01 1.848852e+01 1.930296e+01 2.070181e+01 2.113303e+01 2.275096e+01 2.288262e+01 2.290020e+01 1.826001e+01 2.060994e+01 1.476120e+01 6.472621e+01 1.914474e+00 1.622013e+00 3.945536e+00 3.002271e+00 2.963323e+00 2.296570e+00 3.976739e+00 2.982515e+00 3.198039e+00 2.222087e+00 2.553058e+00 1.786847e+00 1.083696e+01 5.460864e-01 3.823463e-01 4.325269e-01 6.242322e-01 4.859827e-01 6.548979e-01 6.517920e-01 7.809329e-01 7.467101e-01 5.077764e-01 6.579090e-01 4.114334e-01 1.456558e+00
<GCONST> 1.186304e+02
<MIXTURE> 2 4.064482e-01
<MEAN> 39
 -1.838722e+01 -8.185135e+00 1.610230e+00 -8.052691e+00 -8.598914e+00 -3.343091e+00 5.936155e+00 -1.166394e-01 -1.910227e+00 3.165268e+00 1.658976e+00 1.103961e+00 5.675534e+01 -8.015420e-01 -6.689793e-01 1.014806e+00 -3.060730e+00 -7.606290e-01 7.763566e-01 3.602689e-05 -2.320771e+00 -1.964321e-01 2.357959e-01 -1.077835e+00 -3.597158e-01 2.587459e+00 -1.530367e-01 8.649182e-01 -4.688234e-01 -1.840009e-01 2.898190e-01 1.329409e-01 -1.409476e+00 -7.209443e-01 -1.995275e-01 -7.443854e-01 -8.374925e-01 -2.416459e-01 -2.115767e+00
<VARIANCE> 39
 9.984474e+00 1.444734e+01 1.381461e+01 2.098444e+01 2.120520e+01 2.701813e+01 1.750997e+01 2.729939e+01 2.739270e+01 1.833492e+01 2.190397e+01 1.468776e+01 1.280869e+01 1.432328e+00 2.114949e+00 2.228609e+00 2.093903e+00 2.492896e+00 2.245289e+00 3.937486e+00 3.226255e+00 3.843995e+00 2.682584e+00 3.078824e+00 2.010065e+00 1.081595e+01 3.339720e-01 3.450475e-01 3.898032e-01 4.673705e-01 5.590062e-01 6.377969e-01 4.983049e-01 7.718683e-01 8.053007e-01 4.625397e-01 6.612855e-01 4.082355e-01 7.102685e-01
<GCONST> 1.143420e+02
<STATE> 4
<NUMMIXES> 2
<MIXTURE> 1 5.200444e-01
<MEAN> 39
 -2.104076e+01 -7.265938e+00 -2.340827e+00 -1.419924e+01 -5.698808e+00 -2.057964e+00 -1.023242e+00 -3.258291e+00 6.176209e-01 1.018616e-01 -2.026382e+00 9.140238e-01 5.506500e+01 4.612909e-02 1.113085e+00 -8.594525e-03 -1.492206e+00 2.571825e-01 -1.236600e-01 -2.005078e+00 -1.758994e+00 -8.113563e-01 -1.602582e+00 -1.418337e+00 -3.419309e-01 -8.981307e-01 7.847545e-01 7.014618e-01 2.523509e-01 3.909588e-01 -3.824039e-01 -4.206951e-01 -6.248630e-01 -1.792296e-01 -6.885129e-01 -4.184308e-01 -3.841516e-01 -2.566855e-01 -5.416363e-01
<VARIANCE> 39
 1.053410e+01 2.043308e+01 3.522710e+01 2.602484e+01 2.919434e+01 2.077408e+01 3.108537e+01 2.545430e+01 2.282553e+01 1.888395e+01 1.680035e+01 1.699396e+01 1.761166e+01 1.633149e+00 2.516112e+00 2.176630e+00 3.448286e+00 2.710749e+00 2.425758e+00 3.496530e+00 3.337982e+00 3.152285e+00 2.935330e+00 3.861626e+00 2.104990e+00 9.896420e-01 2.487674e-01 3.254785e-01 3.485322e-01 5.465688e-01 6.403691e-01 5.100572e-01 7.110287e-01 5.111933e-01 5.782116e-01 5.513586e-01 5.438328e-01 4.043744e-01 1.014935e+00
<GCONST> 1.146738e+02
<MIXTURE> 2 4.799553e-01
<MEAN> 39
 -1.664813e+01 -5.573164e+00 -1.497709e+00 -1.243023e+01 -5.369986e+00 -3.605980e+00 -3.482236e+00 -6.281804e+00 -4.709796e+00 -3.566813e+00 -6.452691e+00 -1.229763e+00 5.288296e+01 2.815405e+00 1.777115e+00 7.047678e-01 -2.080592e+00 -1.900690e+00 -1.553172e+00 -3.603489e+00 -2.539444e+00 -2.934850e+00 -1.535311e+00 -2.990193e+00 -1.312117e+00 8.587152e-01 3.984730e-01 2.998848e-02 -4.680816e-02 -2.561516e-01 -5.302760e-01 -2.550816e-01 -2.658053e-01 5.396408e-01 -6.269905e-03 5.713804e-01 1.588390e-01 2.549260e-02 3.598682e-01
<VARIANCE> 39
 2.261266e+01 3.901698e+01 6.650687e+01 4.615693e+01 3.855305e+01 2.765900e+01 6.354858e+01 4.581957e+01 3.921917e+01 3.584681e+01 2.970216e+01 2.304955e+01 2.579510e+01 1.484903e+00 2.927164e+00 4.127822e+00 4.054274e+00 3.503729e+00 3.565805e+00 3.795969e+00 4.036878e+00 3.463396e+00 3.569257e+00 3.268581e+00 2.211170e+00 3.749911e+00 4.247563e-01 3.978011e-01 4.682853e-01 5.454534e-01 4.700012e-01 6.923251e-01 8.417635e-01 8.248194e-01 8.720341e-01 6.528084e-01 7.249016e-01 5.898896e-01 8.267285e-01
<GCONST> 1.275871e+02
<TRANSP> 5
 0.000000e+00 1.000000e+00 0.000000e+00 0.000000e+00 0.000000e+00
 0.000000e+00 8.102625e-01 1.897375e-01 0.000000e+00 0.000000e+00
 0.000000e+00 0.000000e+00 6.628200e-01 3.371800e-01 0.000000e+00
 0.000000e+00 0.000000e+00 0.000000e+00 6.760250e-01 3.239750e-01
 0.000000e+00 0.000000e+00 0.000000e+00 0.000000e+00 0.000000e+00
<ENDHMM>
~h "r"
<BEGINHMM>
<NUMSTATES> 5
<STATE> 2
<NUMMIXES> 3
<MIXTURE> 1 1.891061e-01
<MEAN> 39
 7.832088e-01 -9.117702e+00 -1.528233e+01 -7.548940e+00 -5.378109e+00 -1.801018e+01 -1.541387e+01 -2.297352e-01 -9.806865e+00 -2.365758e+00 -3.463132e+00 -3.235799e+00 5.467514e+01 1.403430e+00 -1.518319e+00 -5.330204e-01 -5.303628e-01 -3.025736e-01 -2.418128e+00 -3.455664e-01 2.692999e+00 -6.314130e-01 5.949860e-01 -2.822166e-01 2.584033e-02 1.672511e+00 -1.008335e+00 -1.877081e-01 7.298149e-01 -7.747689e-03 -2.651450e-01 6.314625e-01 9.449819e-01 2.127905e-01 8.373415e-02 1.875045e-01 5.018067e-03 9.419669e-02 -1.034108e-01
<VARIANCE> 39
 1.094888e+01 3.049611e+01 5.701894e+01 2.261693e+01 5.098199e+01 6.809747e+01 4.459027e+01 9.604294e+01 4.648786e+01 4.705495e+01 3.253068e+01 2.258192e+01 2.546034e+01 4.836477e+00 2.108196e+00 5.264908e+00 2.791769e+00 5.026423e+00 5.928122e+00 4.914845e+00 6.244812e+00 5.819991e+00 3.410436e+00 3.099392e+00 2.651292e+00 2.541641e+00 5.468432e-01 3.563364e-01 5.071416e-01 5.320969e-01 7.504566e-01 1.025388e+00 6.120722e-01 1.425148e+00 9.801860e-01 6.515793e-01 5.153335e-01 4.537027e-01 3.012596e-01
<GCONST> 1.301018e+02
<MIXTURE> 2 3.601079e-01
<MEAN> 39
 9.218487e-01 -1.645204e+01 -2.110711e+01 -7.606468e+00 -4.384867e+00 -2.007784e+01 -9.305429e+00 1.414965e+01 -1.005733e+01 -1.655038e+00 -8.187729e+00 -1.779039e+00 5.911251e+01 -3.805682e-01 -1.185905e-01 1.490018e+00 2.823080e-01 -1.640220e+00 -1.255856e+00 9.489563e-01 5.169671e-01 -9.373540e-02 -4.713578e-01 5.821461e-01 2.650030e-01 -2.620780e-01 -3.303243e-01 1.571722e-01 6.709074e-01 -1.203290e-01 -5.944768e-01 5.631943e-01 5.267505e-01 -6.228182e-01 -3.046969e-01 1.539787e-01 4.018412e-01 -1.509916e-01 -1.660988e-01
<VARIANCE> 39
 5.727753e+00 1.777520e+01 3.479404e+01 2.130690e+01 4.602135e+01 8.129441e+01 7.634911e+01 4.230922e+01 4.935331e+01 5.331391e+01 2.766624e+01 2.540470e+01 1.109556e+01 3.776552e-01 1.054980e+00 2.258787e+00 9.310137e-01 2.497571e+00 3.235895e+00 2.690168e+00 3.713244e+00 2.426598e+00 2.055878e+00 2.231823e+00 1.449786e+00 7.558524e-01 2.000000e-01 2.000000e-01 2.000000e-01 2.192149e-01 3.005437e-01 4.776931e-01 3.424526e-01 5.032631e-01 4.792763e-01 3.357811e-01 3.371046e-01 2.621789e-01 2.000000e-01
<GCONST> 1.068614e+02
<MIXTURE> 3 4.507825e-01
<MEAN> 39
 -2.783395e+00 -1.344171e+01 -1.547951e+01 -2.975456e+00 -5.603623e+00 -1.282419e+01 -5.687643e+00 6.512917e+00 -1.209777e+01 -8.186433e+00 -6.724900e+00 -3.020796e+00 5.235104e+01 -7.382651e-01 6.085782e-02 6.434978e-01 4.672854e-01 3.001944e-01 6.883158e-02 3.303424e-01 -4.941276e-02 -3.947942e-02 -3.661705e-01 5.213636e-01 3.665990e-02 -9.841646e-01 -1.901962e-01 -2.274767e-02 -1.074755e-02 -1.826257e-01 2.888058e-03 2.283227e-01 6.482871e-02 -8.786647e-02 1.637350e-01 2.787990e-01 5.911942e-02 1.993946e-02 -7.418356e-02
<VARIANCE> 39
 1.772167e+01 1.911769e+01 4.078253e+01 3.323951e+01 7.758544e+01 5.911183e+01 5.742504e+01 6.482574e+01 4.277170e+01 4.797337e+01 4.004964e+01 2.239211e+01 3.907666e+01 1.320775e+00 1.244777e+00 2.848255e+00 1.723809e+00 2.537240e+00 2.624238e+00 3.047818e+00 3.345788e+00 2.314328e+00 2.295631e+00 2.201119e+00 1.529414e+00 4.753445e-01 2.000000e-01 2.016733e-01 2.475976e-01 2.724534e-01 3.490224e-01 3.430632e-01 3.765052e-01 4.682561e-01 3.855663e-01 3.814802e-01 3.339272e-01 2.471420e-01 2.000000e-01
<GCONST> 1.121195e+02
<STATE> 3
<NUMMIXES> 3
<MIXTURE> 1 4.776492e-01
<MEAN> 39
 -4.905878e+00 -1.385998e+01 -1.251010e+01 -5.984529e+00 -1.135191e+01 -1.493053e+01 -3.139552e+00 6.465608e+00 -9.599903e+00 -5.113961e+00 -4.203773e+00 -2.874550e+00 5.113887e+01 -2.591934e+00 1.977627e+00 2.190231e+00 2.930661e-01 -1.476988e-01 1.912196e+00 1.116487e+00 -1.596567e+00 1.475486e+00 5.193587e-01 9.464087e-01 -1.262203e-01 -3.302367e+00 -5.799243e-01 4.281348e-01 -1.992787e-02 1.019768e-01 7.885553e-01 8.035825e-01 -1.389831e-01 -1.642053e-01 3.358279e-01 2.559642e-01 -1.607812e-01 1.086983e-01 -5.037353e-01
<VARIANCE> 39
 2.321934e+01 3.245529e+01 8.149362e+01 6.039838e+01 1.111821e+02 8.720969e+01 7.080352e+01 7.811122e+01 5.868727e+01 6.485458e+01 4.177887e+01 2.935225e+01 4.207662e+01 2.973789e+00 5.441429e+00 4.232217e+00 3.767652e+00 7.147258e+00 7.146014e+00 4.517498e+00 7.091482e+00 5.459031e+00 5.204516e+00 3.822237e+00 2.709884e+00 5.176939e+00 4.635215e-01 6.432157e-01 9.693105e-01 8.200248e-01 1.289040e+00 9.793401e-01 8.007934e-01 1.159995e+00 8.486034e-01 7.910187e-01 6.887682e-01 5.503389e-01 7.667265e-01
<GCONST> 1.410639e+02
<MIXTURE> 2 3.656361e-01
<MEAN> 39
 -2.057503e+00 -1.777777e+01 -1.169728e+01 -8.722959e+00 -1.192077e+01 -2.049414e+01 -3.196631e+00 1.405179e+01 -1.483023e+01 -1.033866e+00 -4.212581e+00 -3.017880e+00 6.024892e+01 -1.157166e+00 4.704697e-02 2.905505e+00 -1.226922e+00 -2.486581e+00 4.821144e-01 2.330845e+00 -1.640921e+00 -9.155805e-01 1.081630e+00 6.307529e-01 -1.815691e-01 6.792846e-02 -2.130082e-01 4.994356e-01 1.613445e-01 -3.897401e-01 1.085367e-01 7.760381e-01 -2.647465e-01 -1.158337e+00 4.290518e-01 3.066573e-01 -1.817406e-01 -5.503301e-02 -2.836767e-01
<VARIANCE> 39
 9.691059e+00 1.832524e+01 4.580857e+01 2.065527e+01 5.264147e+01 1.012024e+02 5.327823e+01 5.403585e+01 4.052144e+01 4.597607e+01 3.505138e+01 2.531366e+01 2.095697e+01 3.787651e-01 1.065702e+00 2.445034e+00 1.315498e+00 3.187602e+00 2.838894e+00 3.508458e+00 4.301613e+00 2.882249e+00 2.146600e+00 2.451038e+00 1.745535e+00 1.252847e+00 2.000000e-01 2.000000e-01 2.182018e-01 2.908586e-01 3.063856e-01 6.086938e-01 4.061033e-01 7.142230e-01 3.866092e-01 3.855464e-01 3.881631e-01 2.762639e-01 2.000000e-01
<GCONST> 1.116561e+02
<MIXTURE> 3 1.567127e-01
<MEAN> 39
 -5.573843e+00 -1.544528e+01 -2.273179e-01 -1.356394e+01 -1.975093e+01 -2.061780e+01 1.733111e+00 5.574679e+00 -1.797306e+01 6.388461e+00 -2.921865e+00 -3.599162e+00 6.046178e+01 -1.684442e+00 1.421440e+00 3.524830e+00 -2.996695e+00 -2.110259e+00 2.622813e+00 8.810516e-01 -4.245718e+00 6.441489e-01 1.976447e+00 -6.566441e-01 -1.453898e-01 -1.315012e-01 3.210203e-02 5.397967e-01 -6.488487e-01 -2.293701e-01 1.024941e+00 4.223226e-01 -1.184406e+00 -3.083385e-01 9.858797e-01 -4.952645e-01 -5.625449e-01 2.881984e-01 -2.432255e-01
<VARIANCE> 39
 7.487700e+00 1.921343e+01 4.161860e+01 2.280934e+01 2.661341e+01 5.978255e+01 5.639713e+01 6.540463e+01 3.413228e+01 4.643968e+01 3.643553e+01 2.666311e+01 2.336330e+01 4.515659e-01 1.514621e+00 2.271597e+00 1.837255e+00 2.385824e+00 2.306075e+00 3.730783e+00 3.555246e+00 3.922618e+00 2.860227e+00 2.313547e+00 2.103532e+00 1.016786e+00 2.000000e-01 2.000000e-01 2.206969e-01 2.776857e-01 3.125277e-01 5.244512e-01 4.312892e-01 7.007223e-01 4.704205e-01 4.496940e-01 4.571255e-01 4.311450e-01 2.000000e-01
<GCONST> 1.120380e+02
<STATE> 4
<NUMMIXES> 3
<MIXTURE> 1 3.112900e-01
<MEAN> 39
 -1.900802e+01 -3.196378e+00 -5.914159e+00 -3.458443e+00 -6.112259e+00 -3.086290e+00 -1.219236e+00 1.155723e+00 -1.691789e+00 -3.828743e-01 -1.593600e+00 -1.953574e+00 3.463979e+01 -1.810924e+00 1.232300e+00 1.293930e+00 9.536406e-02 1.255304e+00 1.848080e+00 -2.981805e-01 -1.322436e+00 2.531580e-01 3.761166e-01 2.866334e-02 4.631630e-01 -1.241533e+00 1.016946e+00 -7.776484e-01 -3.890698e-01 -6.591479e-01 -4.280313e-01 -6.427183e-01 -3.220415e-01 1.170707e-01 -6.438296e-01 -1.216446e-01 -3.432041e-01 -1.541384e-04 1.598306e+00
<VARIANCE> 39
 2.792995e+01 1.711265e+01 4.111251e+01 2.298639e+01 3.268741e+01 3.758292e+01 3.154091e+01 5.158550e+01 3.744596e+01 4.443954e+01 3.730445e+01 3.227018e+01 2.967999e+01 7.545284e+00 4.859786e+00 5.884696e+00 7.037198e+00 7.301178e+00 7.808330e+00 5.200928e+00 6.206428e+00 5.889487e+00 4.438199e+00 4.735406e+00 2.653247e+00 1.307965e+01 6.815636e-01 7.860532e-01 1.199053e+00 1.013839e+00 9.814000e-01 1.011126e+00 8.993627e-01 1.175684e+00 9.983654e-01 8.840120e-01 9.163374e-01 5.976341e-01 1.059177e+00
<GCONST> 1.392649e+02
<MIXTURE> 2 4.443760e-01
<MEAN> 39
 -1.754339e+01 -8.993923e+00 -9.312597e+00 -1.587804e+00 -2.275831e+00 -2.133581e+00 5.136950e-02 2.066850e+00 -4.398591e+00 -3.389355e+00 -2.019277e+00 1.749995e-01 3.585759e+01 -6.633229e-01 7.054727e-01 3.219858e-01 -2.620715e-01 -2.607967e-01 5.595281e-01 -2.983147e-02 -4.054947e-01 7.554718e-01 4.562760e-01 2.081271e-01 2.569624e-01 -8.572136e-01 1.736272e-01 1.263016e-01 1.039441e-02 -5.044070e-02 -4.440507e-02 -1.835107e-01 -1.743507e-01 -5.972090e-02 -1.315063e-01 -5.682905e-02 -8.735554e-02 -2.997695e-02 1.425089e-01
<VARIANCE> 39
 1.469748e+01 4.327587e+01 2.121872e+01 1.714351e+01 2.608255e+01 3.004842e+01 3.058300e+01 3.521643e+01 3.765312e+01 3.105996e+01 2.068847e+01 1.792550e+01 3.031628e+01 7.311960e-01 1.681352e+00 1.176967e+00 1.278125e+00 1.649470e+00 2.526588e+00 2.027556e+00 2.458209e+00 2.356923e+00 1.936706e+00 1.843439e+00 1.703496e+00 6.580640e-01 2.000000e-01 3.259626e-01 2.560326e-01 2.672115e-01 3.225672e-01 4.186363e-01 3.981934e-01 4.231905e-01 4.063138e-01 3.560286e-01 3.752359e-01 3.305821e-01 2.000000e-01
<GCONST> 1.051341e+02
<MIXTURE> 3 2.443320e-01
<MEAN> 39
 -8.129155e+00 -1.133571e+01 1.920101e-01 -1.861491e+01 -1.838680e+01 -1.277863e+01 -6.413771e-01 -2.264033e+00 -1.079280e+01 4.776846e+00 -5.940185e+00 -2.347373e+00 5.788319e+01 -1.107673e+00 1.642505e+00 1.508754e+00 -1.876157e+00 3.062248e-01 1.614667e+00 -9.912895e-01 -2.504480e+00 1.248534e+00 -3.818400e-02 -1.038724e+00 5.604750e-01 -2.647626e-01 1.948490e-01 4.105306e-02 -5.716439e-01 4.980027e-01 5.338416e-01 -2.805581e-01 -4.088140e-01 5.893543e-01 -2.058804e-02 -4.808607e-01 4.664602e-03 5.437720e-02 -4.075857e-02
<VARIANCE> 39
 2.139907e+01 4.207282e+01 9.036291e+01 5.772953e+01 5.387874e+01 6.803511e+01 6.413676e+01 7.149245e+01 5.966329e+01 6.510402e+01 3.180806e+01 3.770864e+01 4.499902e+01 7.905896e-01 2.168737e+00 1.701095e+00 3.575269e+00 2.744872e+00 3.183820e+00 3.337563e+00 3.144595e+00 3.251214e+00 3.175256e+00 2.607969e+00 2.576782e+00 2.039946e+00 2.000000e-01 2.504260e-01 3.640276e-01 3.827360e-01 4.614277e-01 5.794058e-01 4.966516e-01 5.878778e-01 5.957089e-01 4.972579e-01 3.791762e-01 4.693303e-01 2.726633e-01
<GCONST> 1.228960e+02
<TRANSP> 5
 0.000000e+00 1.000000e+00 0.000000e+00 0.000000e+00 0.000000e+00
 0.000000e+00 7.508485e-01 2.491515e-01 0.000000e+00 0.000000e+00
 0.000000e+00 0.000000e+00 6.755161e-01 3.244839e-01 0.000000e+00
 0.000000e+00 0.000000e+00 0.000000e+00 7.251287e-01 2.748714e-01
 0.000000e+00 0.000000e+00 0.000000e+00 0.000000e+00 0.000000e+00
<ENDHMM>
~h "s"
<BEGINHMM>
<NUMSTATES> 5
<STATE> 2
<NUMMIXES> 3
<MIXTURE> 1 3.290747e-01
<MEAN> 39
 -1.706063e+01 8.492863e-01 -6.612578e+00 -6.023977e+00 -8.767505e+00 -5.971446e+00 -2.098564e+00 -5.659119e+00 -6.373368e+00 -8.476925e+00 -6.078725e+00 -2.683470e+00 5.503084e+01 -5.081639e+00 1.513794e+00 -1.125734e+00 2.277232e+00 2.785115e+00 2.311020e+00 1.257980e+00 1.265180e+00 1.359932e+00 1.981951e+00 2.946268e+00 -5.105836e-01 -5.244123e-01 -1.981658e-01 -6.698462e-01 -5.353943e-01 -4.665719e-01 -1.858137e-01 1.705297e-01 1.311607e-01 6.548299e-01 3.450331e-01 8.038067e-01 8.462118e-02 4.845494e-01 3.157744e-01
<VARIANCE> 39
 2.938292e+01 2.394573e+01 2.047075e+01 1.937288e+01 3.769765e+01 3.415335e+01 3.460700e+01 3.238473e+01 2.203397e+01 2.755751e+01 2.134447e+01 2.202777e+01 1.747016e+01 1.363082e+00 3.338534e+00 3.462658e+00 3.677358e+00 3.629483e+00 4.025870e+00 5.111551e+00 4.880813e+00 3.668708e+00 4.572999e+00 3.450153e+00 2.915606e+00 1.169615e+00 5.248986e-01 5.348326e-01 4.278708e-01 4.086725e-01 6.014239e-01 6.415696e-01 6.229327e-01 7.659327e-01 5.568816e-01 4.643371e-01 5.981144e-01 4.459912e-01 2.000000e-01
<GCONST> 1.200745e+02
<MIXTURE> 2 3.845502e-01
<MEAN> 39
 -2.748789e+01 1.874636e+00 -1.171457e+01 -3.217100e+00 -4.626849e+00 -1.028316e+00 1.008892e+00 -8.687478e-01 -1.475755e+00 -9.416173e-01 5.238063e-02 -6.578634e-01 5.519184e+01 -2.964570e+00 3.512855e-01 -1.577223e+00 1.091794e+00 1.127062e+00 1.409344e+00 4.720925e-01 1.273188e+00 1.345252e+00 2.130331e+00 1.604103e+00 6.541883e-01 -4.412339e-01 1.187004e+00 -3.707160e-01 2.581705e-01 -5.304631e-01 -7.658986e-01 -5.488194e-01 -3.607273e-01 -2.870603e-01 -3.529427e-01 -4.622853e-01 -7.782393e-01 1.383582e-01 1.360683e-02
<VARIANCE> 39
 1.047277e+01 2.310805e+01 1.343236e+01 2.240407e+01 1.966072e+01 2.510769e+01 2.219619e+01 2.228193e+01 1.469758e+01 1.713038e+01 1.436119e+01 1.315634e+01 1.405776e+01 2.241991e+00 2.002092e+00 1.863364e+00 2.084212e+00 2.508681e+00 2.749595e+00 2.972193e+00 2.784684e+00 2.259977e+00 2.525445e+00 2.462908e+00 1.834075e+00 6.481513e-01 2.000000e-01 4.136851e-01 3.834864e-01 4.108164e-01 3.951765e-01 4.926901e-01 6.124950e-01 5.378854e-01 4.610688e-01 5.318432e-01 4.395453e-01 4.040830e-01 2.000000e-01
<GCONST> 1.065807e+02
<MIXTURE> 3 2.863728e-01
<MEAN> 39
 -2.722456e+01 -8.226922e-01 -1.139810e+01 -5.937109e+00 -5.564940e+00 -4.188047e+00 1.308843e+00 -1.035695e+00 4.642626e-02 -7.987206e-01 1.209650e+00 -3.090284e-02 5.020797e+01 -1.869005e+00 1.521544e+00 -8.351271e-01 4.483122e-01 3.498141e-01 6.361454e-01 -3.079106e-04 -9.671838e-02 1.494932e-02 2.808685e-01 2.172811e-02 -7.119092e-02 1.441002e+00 5.139226e-01 7.239278e-04 1.283073e-01 2.717295e-01 1.602222e-01 2.226459e-01 -1.136420e-01 8.499620e-02 -2.186616e-01 -1.171783e-01 -2.751950e-01 2.247685e-02 -4.560427e-01
<VARIANCE> 39
 1.184766e+01 2.360632e+01 1.398815e+01 1.974837e+01 3.064758e+01 2.441946e+01 2.908179e+01 2.096606e+01 1.719430e+01 1.630396e+01 1.506468e+01 1.341726e+01 2.477186e+01 1.374001e+00 1.580470e+00 1.156758e+00 2.101034e+00 1.735524e+00 2.362430e+00 2.125617e+00 2.133789e+00 2.290716e+00 2.030591e+00 1.746388e+00 1.300471e+00 2.302920e+00 2.084325e-01 3.688663e-01 2.811452e-01 3.084587e-01 3.811658e-01 4.005840e-01 4.426011e-01 3.991672e-01 4.755051e-01 4.608582e-01 3.780995e-01 3.048631e-01 2.000000e-01
<GCONST> 1.039845e+02
<STATE> 3
<NUMMIXES> 5
<MIXTURE> 1 2.020700e-01
<MEAN> 39
 -3.048643e+01 1.703336e+00 -1.388900e+01 -3.507702e+00 -5.026814e+00 -1.981359e+00 7.723001e-01 -1.288360e+00 -2.755989e-01 -3.297547e-01 8.943613e-01 -5.345238e-01 5.325736e+01 4.283041e-03 2.686600e-01 3.573281e-01 3.227866e-01 2.563168e-01 1.625134e-01 1.327715e-01 9.811705e-02 -7.618172e-02 -1.384227e-01 -5.774435e-02 1.398390e-02 8.000053e-02 1.881096e-01 -3.878234e-03 2.266924e-01 5.729150e-02 4.622611e-02 6.420635e-02 5.346296e-02 9.020950e-02 -6.503829e-02 -5.858678e-02 -2.995299e-02 5.205854e-02 -4.090415e-02
<VARIANCE> 39
 6.174508e+00 2.004030e+01 9.802725e+00 2.112016e+01 2.135239e+01 1.782951e+01 2.258601e+01 1.883903e+01 1.907543e+01 1.619007e+01 1.280154e+01 1.089585e+01 1.378328e+01 2.508900e-01 6.376201e-01 6.285402e-01 8.054195e-01 1.066272e+00 1.419856e+00 1.029955e+00 1.354806e+00 1.598808e+00 1.285421e+00 1.162567e+00 1.180349e+00 2.507664e-01 2.000000e-01 2.000000e-01 2.000000e-01 2.022274e-01 2.614792e-01 2.663057e-01 2.443197e-01 3.179097e-01 3.792426e-01 3.387027e-01 2.642488e-01 2.171672e-01 2.000000e-01
<GCONST> 8.683965e+01
<MIXTURE> 2 3.788543e-01
<MEAN> 39
 -2.951625e+01 2.293396e+00 -1.340078e+01 3.040180e-01 -6.649018e+00 2.864420e+00 -1.555938e+00 1.867932e+00 -1.624569e+00 5.543644e-01 1.537141e-02 5.779217e-02 5.242081e+01 -9.833097e-02 1.063332e-01 2.691106e-02 1.685827e-01 7.026371e-02 1.050805e-01 -4.648558e-02 -9.501155e-03 5.952107e-03 -2.365739e-02 8.156111e-03 7.043534e-02 -5.115128e-02 1.726465e-01 -1.039214e-01 1.081933e-01 -1.996115e-01 -6.131664e-03 -2.475364e-01 9.615020e-02 -1.702953e-01 1.031194e-03 -1.224201e-01 1.271934e-02 -2.847458e-02 -2.878924e-02
<VARIANCE> 39
 3.443470e+00 2.299276e+01 8.145733e+00 1.482437e+01 7.488342e+00 1.084495e+01 9.945611e+00 1.036109e+01 1.022439e+01 1.072917e+01 9.247751e+00 9.560836e+00 9.838984e+00 3.992991e-01 9.545141e-01 8.292771e-01 1.132657e+00 9.811505e-01 1.208044e+00 1.267126e+00 1.248194e+00 1.302962e+00 1.259004e+00 1.197329e+00 1.005078e+00 7.207346e-01 2.000000e-01 2.000000e-01 2.000000e-01 2.000000e-01 2.000000e-01 2.322483e-01 2.260824e-01 2.348838e-01 2.592536e-01 2.602155e-01 2.175541e-01 2.156201e-01 2.000000e-01
<GCONST> 8.148702e+01
<MIXTURE> 3 1.307761e-01
<MEAN> 39
 -3.123643e+01 5.462865e+00 -1.096349e+01 -5.133941e+00 2.230847e+00 -5.105116e+00 4.050586e+00 -7.246252e-01 -6.386805e-01 3.549036e-01 -1.378236e+00 1.374471e+00 5.583234e+01 -3.324098e-02 -5.182874e-02 1.970762e-01 -1.414024e-01 9.762217e-03 -1.360877e-01 4.047330e-02 2.961577e-01 8.081423e-02 1.442651e-01 3.192766e-02 1.225453e-01 7.248117e-02 1.609560e-01 -1.905999e-01 2.741317e-03 -1.356623e-01 -2.579146e-01 -7.597895e-02 -1.079991e-01 -5.798747e-02 3.314800e-02 -3.070465e-02 7.789057e-02 -8.583362e-02 -8.553022e-02
<VARIANCE> 39
 4.844701e+00 2.054320e+01 1.129261e+01 3.325234e+01 2.489055e+01 2.305873e+01 1.474196e+01 1.566821e+01 1.426529e+01 1.497225e+01 1.595992e+01 1.086675e+01 1.741442e+01 2.958196e-01 5.181921e-01 6.143220e-01 7.110040e-01 9.071103e-01 1.088594e+00 1.119966e+00 1.102354e+00 1.133698e+00 1.084004e+00 1.116048e+00 9.193017e-01 2.457070e-01 2.000000e-01 2.000000e-01 2.000000e-01 2.000000e-01 2.000000e-01 2.198464e-01 2.576081e-01 2.114609e-01 2.062395e-01 2.344353e-01 2.331424e-01 2.016958e-01 2.000000e-01
<GCONST> 8.353259e+01
<MIXTURE> 4 1.730316e-01
<MEAN> 39
 -2.978016e+01 7.399137e-01 -1.374219e+01 -1.941316e+00 -6.409093e+00 1.351647e+00 -1.614498e-01 7.524306e-01 -8.301293e-01 3.993731e-01 1.428610e+00 1.158281e-01 5.339873e+01 3.470769e-01 -2.503968e-01 2.285920e-01 -5.224227e-01 -4.836196e-01 -4.894994e-01 1.080622e-01 -2.641399e-01 7.560264e-02 -1.238972e-01 7.179088e-02 -1.109523e-01 -4.567520e-03 9.607239e-01 -6.158949e-03 5.774069e-01 -3.922255e-01 -4.941082e-01 -7.998514e-01 -3.848545e-01 -5.224997e-01 -3.716499e-01 -4.221719e-01 -5.600438e-01 -8.949553e-02 -1.537053e-02
<VARIANCE> 39
 4.718248e+00 1.643706e+01 1.156450e+01 1.677960e+01 1.342150e+01 1.530301e+01 1.472228e+01 1.702751e+01 1.559101e+01 1.420759e+01 1.282454e+01 1.193744e+01 1.193877e+01 1.106582e+00 1.213288e+00 1.452881e+00 1.686797e+00 1.328093e+00 1.988728e+00 1.615000e+00 1.814452e+00 1.460491e+00 1.635081e+00 1.399417e+00 1.430498e+00 7.079562e-01 2.448465e-01 2.172010e-01 2.904810e-01 3.715729e-01 4.278542e-01 3.989672e-01 3.790221e-01 4.602078e-01 4.388070e-01 3.963100e-01 3.786621e-01 3.121861e-01 2.000000e-01
<GCONST> 9.534488e+01
<MIXTURE> 5 1.152586e-01
<MEAN> 39
 -3.073075e+01 3.633547e+00 -1.213876e+01 -1.214438e+00 -3.128877e+00 -6.337347e-01 1.680400e+00 -7.128900e-01 -1.192637e+00 -5.857567e-01 5.497413e-01 1.563972e-01 5.307170e+01 -1.865220e-01 -6.512209e-01 -3.719463e-01 -6.479803e-01 -5.166786e-01 -4.710462e-01 -1.637044e-01 -1.522798e-02 2.250397e-02 1.436503e-01 -6.899956e-02 6.397755e-02 -5.976158e-02 2.171990e-01 -1.537447e-01 3.752050e-02 -2.485341e-01 -2.183501e-01 -1.805131e-01 -7.685332e-02 -3.141463e-02 3.436952e-02 4.289207e-03 -1.873881e-02 -1.739281e-02 -1.016447e-02
<VARIANCE> 39
 5.054927e+00 2.377505e+01 9.843019e+00 2.855678e+01 1.714283e+01 1.953126e+01 1.803228e+01 1.273137e+01 1.290772e+01 1.340472e+01 1.233212e+01 1.465322e+01 1.455409e+01 2.612711e-01 6.242203e-01 5.418730e-01 7.082812e-01 1.020173e+00 1.075986e+00 1.060959e+00 1.193019e+00 1.145256e+00 9.830561e-01 1.239589e+00 1.014732e+00 3.196893e-01 2.000000e-01 2.000000e-01 2.000000e-01 2.000000e-01 2.000000e-01 2.576374e-01 2.386125e-01 2.588280e-01 2.373503e-01 2.629321e-01 2.965650e-01 3.061362e-01 2.000000e-01
<GCONST> 8.417757e+01
<STATE> 4
<NUMMIXES> 4
<MIXTURE> 1 2.025779e-01
<MEAN> 39
 -1.590253e+01 -3.773551e+00 -9.053744e+00 -1.066137e+01 -1.121163e+01 -1.204774e+01 -3.379933e+00 -3.848089e-01 1.727373e+00 -6.416373e-01 -2.778976e+00 3.462181e+00 4.689970e+01 2.004425e+00 -1.259726e+00 4.768704e-01 -7.127733e-01 -3.845981e-01 4.078664e-01 -2.531329e-01 7.419126e-01 1.806078e-01 4.457100e-01 -8.912100e-01 -1.615403e-01 -2.284691e+00 -9.747767e-01 2.143403e-01 -2.534862e-02 6.495039e-01 8.650948e-01 1.269897e+00 5.335519e-01 9.695941e-02 -3.661473e-01 -3.080304e-02 8.153899e-02 -4.359291e-01 2.792100e-02
<VARIANCE> 39
 3.832878e+01 2.562856e+01 3.885431e+01 4.056460e+01 8.766058e+01 5.759509e+01 6.488724e+01 6.559400e+01 7.719718e+01 5.865580e+01 5.939301e+01 4.025644e+01 8.339172e+01 7.518579e+00 4.001898e+00 3.288125e+00 8.031845e+00 9.108943e+00 1.073517e+01 8.962698e+00 6.662326e+00 7.595111e+00 5.226946e+00 5.747674e+00 5.458710e+00 8.753732e+00 7.963415e-01 6.566882e-01 6.014999e-01 8.726935e-01 1.201029e+00 1.354949e+00 1.387230e+00 1.436091e+00 1.513544e+00 1.316811e+00 9.353800e-01 9.786429e-01 1.165859e+00
<GCONST> 1.487191e+02
<MIXTURE> 2 2.463188e-01
<MEAN> 39
 -2.688706e+01 8.786981e-01 -9.509912e+00 -4.720426e+00 -7.456827e+00 -2.734663e+00 7.620445e-01 -1.982365e+00 -1.624051e+00 -1.104129e+00 3.166188e-01 -9.111445e-01 5.396673e+01 4.316295e+00 -6.364869e-01 2.128514e+00 -2.309503e+00 -2.952772e+00 -3.345681e+00 -1.904962e+00 -2.218597e+00 -1.520930e+00 -1.089747e+00 -1.980634e+00 -5.254573e-03 4.524136e-01 9.177787e-01 -3.706630e-01 3.714374e-01 -7.210625e-01 -5.627609e-01 -3.691258e-01 -6.634265e-01 -8.803988e-02 -3.128265e-01 2.401701e-01 -7.087000e-01 2.180250e-01 1.148328e-01
<VARIANCE> 39
 1.616115e+01 2.010264e+01 2.688484e+01 2.283606e+01 2.839410e+01 2.733638e+01 2.575405e+01 2.327724e+01 2.255322e+01 1.831063e+01 1.935221e+01 1.561987e+01 1.637896e+01 2.374173e+00 2.540782e+00 3.292731e+00 3.697131e+00 3.639075e+00 3.747790e+00 4.227497e+00 4.363235e+00 3.682255e+00 2.687673e+00 3.597113e+00 2.483254e+00 1.911825e+00 4.156448e-01 4.685054e-01 6.041401e-01 5.341656e-01 6.184900e-01 7.096516e-01 8.024696e-01 7.734272e-01 7.457409e-01 5.666808e-01 6.019236e-01 4.736803e-01 4.322038e-01
<GCONST> 1.193932e+02
<MIXTURE> 3 3.025329e-01
<MEAN> 39
 -2.657680e+01 1.447927e+00 -9.015981e+00 -3.406724e+00 -2.921998e+00 -3.159181e+00 4.468435e-01 -4.024757e-01 -4.252807e-01 -5.061097e-01 -6.474887e-01 2.337394e-01 4.601423e+01 1.188673e+00 -5.425183e-01 9.831441e-01 -1.178423e-01 5.081453e-01 -3.451703e-01 -1.280835e-01 1.329418e-01 2.002874e-01 1.879079e-01 -1.306032e-02 8.069137e-02 -2.428125e+00 2.692865e-01 -3.285995e-01 2.255346e-02 -1.563338e-02 -2.252452e-02 1.763145e-01 -6.796527e-02 1.116842e-01 -4.697741e-02 3.096974e-02 3.847923e-02 4.741405e-02 -3.612503e-01
<VARIANCE> 39
 2.581882e+01 2.525684e+01 2.155341e+01 2.868405e+01 3.172230e+01 2.218885e+01 2.257285e+01 1.696813e+01 2.014547e+01 1.601769e+01 1.585105e+01 1.182834e+01 9.659764e+01 2.392955e+00 2.248796e+00 1.835775e+00 2.055543e+00 2.727529e+00 2.719845e+00 2.023162e+00 2.057800e+00 1.878362e+00 2.175923e+00 1.570253e+00 1.516171e+00 5.584072e+00 3.456516e-01 4.057108e-01 3.095032e-01 3.486865e-01 4.870663e-01 3.466942e-01 4.135176e-01 3.992935e-01 4.319531e-01 3.655769e-01 3.208331e-01 2.695383e-01 1.077894e+00
<GCONST> 1.111172e+02
<MIXTURE> 4 2.485652e-01
<MEAN> 39
 -2.308035e+01 -1.781562e+00 -6.009655e+00 -3.254403e+00 -2.443000e+00 -1.971287e+00 -8.294378e-01 4.777634e-01 -9.947782e-01 -5.392832e-01 -9.878009e-01 9.074993e-01 3.629705e+01 5.979028e-01 -5.193264e-01 5.692809e-01 -2.040849e-04 1.118137e-01 3.057283e-01 -2.728114e-01 -4.074543e-01 -3.869984e-01 -3.070074e-01 -3.577404e-01 -3.581944e-01 -1.061119e+00 1.893083e-01 -5.749568e-02 -1.397762e-01 -4.307176e-01 -3.810281e-01 -2.771332e-01 -7.038193e-02 -2.169005e-01 3.296308e-03 -6.975074e-03 -9.271485e-02 1.529993e-02 8.340965e-01
<VARIANCE> 39
 1.775602e+01 1.295008e+01 1.905484e+01 3.209892e+01 2.155037e+01 1.904977e+01 1.932774e+01 1.903141e+01 1.959519e+01 1.977240e+01 1.586701e+01 1.527728e+01 7.534083e+01 2.167477e+00 2.509800e+00 2.187247e+00 3.946827e+00 3.437967e+00 2.547800e+00 2.488824e+00 2.659528e+00 2.622157e+00 2.465672e+00 1.894068e+00 2.070583e+00 6.990705e+00 4.631343e-01 3.659606e-01 5.451682e-01 9.732115e-01 6.537250e-01 6.391706e-01 5.043560e-01 6.794355e-01 5.361467e-01 5.564760e-01 4.278550e-01 4.207632e-01 1.561652e+00
<GCONST> 1.174847e+02
<TRANSP> 5
 0.000000e+00 1.000000e+00 0.000000e+00 0.000000e+00 0.000000e+00
 0.000000e+00 7.451791e-01 2.548209e-01 0.000000e+00 0.000000e+00
 0.000000e+00 0.000000e+00 8.927108e-01 1.072892e-01 0.000000e+00
 0.000000e+00 0.000000e+00 0.000000e+00 7.998039e-01 2.001961e-01
 0.000000e+00 0.000000e+00 0.000000e+00 0.000000e+00 0.000000e+00
<ENDHMM>
~h "t"
<BEGINHMM>
<NUMSTATES> 5
<STATE> 2
<NUMMIXES> 3
<MIXTURE> 1 3.329051e-01
<MEAN> 39
 -1.885373e+01 1.647506e+00 -2.779720e+00 -1.737653e+00 -3.496040e+00 -3.438425e+00 -3.582340e+00 -4.349449e+00 -4.514425e+00 -2.781872e+00 -3.606405e+00 -2.355724e+00 3.512937e+01 -1.821479e+00 -8.093228e-01 -1.653898e+00 1.081868e+00 1.396477e+00 1.419744e+00 8.762823e-01 1.614439e+00 1.182703e+00 8.878355e-01 1.301946e+00 3.663069e-01 -1.540572e+00 2.008529e-01 -3.969083e-01 1.646316e-02 -9.918088e-01 -6.642624e-01 -1.469138e-01 -1.054140e-01 -7.723935e-02 1.996451e-01 2.119870e-01 -3.253442e-02 2.652707e-01 1.232180e+00
<VARIANCE> 39
 2.536481e+01 2.273376e+01 2.372666e+01 2.489091e+01 2.152111e+01 2.124101e+01 2.475874e+01 2.923182e+01 3.081886e+01 2.933998e+01 2.677031e+01 1.810467e+01 3.874517e+01 3.270582e+00 3.194802e+00 4.331443e+00 6.479411e+00 4.918912e+00 3.873538e+00 3.437301e+00 5.737519e+00 4.363980e+00 4.102384e+00 3.265167e+00 2.703182e+00 1.528288e+01 5.956898e-01 6.925194e-01 6.861365e-01 1.049221e+00 6.673420e-01 8.517911e-01 6.585260e-01 8.448378e-01 7.200035e-01 7.216551e-01 6.494523e-01 4.822151e-01 1.371261e+00
<GCONST> 1.293066e+02
<MIXTURE> 2 3.341094e-01
<MEAN> 39
 -2.133905e+01 -1.232409e+00 -5.834306e+00 -8.100433e-01 -3.371397e+00 -6.090995e-01 -1.867795e+00 -3.258546e-01 -8.842423e-01 2.256824e-01 -3.858588e-01 6.942070e-02 3.001005e+01 -2.114491e-01 -1.444619e-01 -1.885732e-01 8.496941e-02 7.401040e-02 9.066768e-02 3.304768e-02 1.429370e-01 1.290464e-01 1.782272e-01 2.241097e-01 1.773400e-01 -1.992845e-01 2.092180e-01 -2.325709e-02 7.646060e-02 -3.808264e-01 -8.375820e-02 -2.548935e-01 -5.430739e-02 -3.452157e-01 -1.343769e-01 -1.494165e-01 -1.460844e-01 -6.303283e-02 9.843224e-01
<VARIANCE> 39
 1.178212e+00 2.458756e+00 4.420186e+00 5.959713e+00 7.572414e+00 8.909209e+00 1.012688e+01 1.093285e+01 1.158747e+01 1.132808e+01 1.073941e+01 9.794940e+00 2.329122e+00 3.432917e-01 4.218788e-01 6.739783e-01 8.083984e-01 9.071013e-01 1.108562e+00 1.215616e+00 1.511898e+00 1.556944e+00 1.450545e+00 1.412925e+00 1.240277e+00 2.827733e-01 2.000000e-01 2.000000e-01 2.766587e-01 3.940411e-01 2.886677e-01 3.835935e-01 3.206336e-01 4.863002e-01 3.998566e-01 3.705147e-01 3.269593e-01 2.863193e-01 9.723784e-01
<GCONST> 7.969612e+01
<MIXTURE> 3 3.329833e-01
<MEAN> 39
 -2.151361e+01 -1.279002e+00 -5.769832e+00 -4.081862e-01 -2.773991e+00 -4.824064e-01 -2.156722e+00 -4.250673e-01 -8.982192e-01 8.971445e-02 -3.231494e-01 3.979290e-02 2.953230e+01 -4.168509e-02 -1.293413e+00 -8.676019e-01 -2.058302e+00 1.102172e-01 -5.174560e-01 4.599651e-01 -3.503305e-01 5.096022e-01 4.974526e-01 2.459244e-01 1.338249e-01 4.572528e+00 -2.940907e-01 3.037075e-01 -2.397171e-01 -7.784177e-01 -2.513944e-01 -4.039762e-01 2.594490e-01 -3.761111e-01 -5.435216e-03 2.588195e-02 -6.814903e-02 -2.859745e-02 2.499215e+00
<VARIANCE> 39
 1.177612e+00 2.467532e+00 3.242965e+00 5.786479e+00 6.707726e+00 7.974427e+00 8.826840e+00 1.043823e+01 1.080613e+01 1.303227e+01 1.036920e+01 1.051904e+01 5.188896e+00 1.498199e+00 1.740178e+00 2.132678e+00 3.159853e+00 1.859323e+00 2.531062e+00 2.182197e+00 2.653877e+00 2.081911e+00 2.260634e+00 1.867488e+00 1.674251e+00 1.343286e+01 3.319090e-01 3.297129e-01 3.411202e-01 3.899271e-01 3.421289e-01 3.675104e-01 3.477906e-01 4.801779e-01 3.035398e-01 3.567860e-01 3.457081e-01 3.292372e-01 8.131810e-01
<GCONST> 9.422686e+01
<STATE> 3
<NUMMIXES> 3
<MIXTURE> 1 3.901678e-01
<MEAN> 39
 -2.264023e+01 -4.557578e+00 -1.073541e+01 -1.035997e+01 -3.347867e+00 -3.646945e+00 -4.402763e-02 -3.011519e+00 6.638892e-01 1.645258e+00 3.135605e-01 2.420283e-01 5.483779e+01 -1.565539e+00 9.702148e-01 -8.848281e-01 -1.802520e+00 -6.726692e-01 -7.607240e-01 1.237426e+00 -5.741498e-01 5.270852e-01 4.008788e-01 2.717804e-01 1.385167e-01 6.645635e+00 -8.826981e-02 4.946082e-01 8.450933e-01 6.796870e-01 -1.996641e-01 1.121216e-01 3.856988e-02 3.433882e-02 -2.470215e-01 -2.526796e-01 -2.215857e-01 -4.385764e-02 -1.491017e+00
<VARIANCE> 39
 1.300646e+01 2.294363e+01 2.609324e+01 2.376451e+01 2.713056e+01 2.598924e+01 2.478586e+01 2.241076e+01 1.951391e+01 1.894301e+01 1.691662e+01 1.277157e+01 6.255980e+01 1.977974e+00 2.389893e+00 2.635142e+00 3.541121e+00 2.454898e+00 2.725474e+00 2.538208e+00 2.408979e+00 2.036812e+00 2.105817e+00 1.791468e+00 1.685139e+00 7.468850e+00 4.152727e-01 5.338249e-01 5.694461e-01 6.126797e-01 5.294214e-01 6.077262e-01 5.391787e-01 5.103431e-01 4.800641e-01 4.615244e-01 4.089808e-01 3.612585e-01 1.653833e+00
<GCONST> 1.162776e+02
<MIXTURE> 2 3.442620e-01
<MEAN> 39
 -2.919445e+01 2.778864e+00 -8.567225e+00 -8.592092e+00 -4.372706e+00 -4.047295e+00 4.186200e+00 -3.911911e+00 9.982092e-01 1.831645e+00 1.996154e-01 -1.681660e-01 5.921405e+01 -5.637609e-01 1.553858e-02 2.017866e+00 -3.483167e-02 -4.443269e-01 -3.963058e-03 7.152752e-01 -3.286878e-01 -1.238922e-01 -2.391487e-01 -3.277957e-01 7.821468e-02 1.346016e-01 9.958345e-01 -8.360130e-01 5.641215e-01 7.216618e-02 -1.138398e-01 7.049368e-02 -6.417161e-01 -5.201302e-02 -3.254456e-01 -2.987328e-01 -2.703018e-01 3.808126e-02 -1.572874e+00
<VARIANCE> 39
 1.133845e+01 1.209862e+01 2.305734e+01 1.929325e+01 1.941545e+01 2.176970e+01 1.802627e+01 2.218093e+01 1.817554e+01 1.549401e+01 1.502186e+01 1.375676e+01 1.006459e+01 1.916232e+00 3.033649e+00 1.817670e+00 2.023303e+00 2.016071e+00 2.186207e+00 2.206823e+00 1.930878e+00 2.040276e+00 1.795395e+00 1.622358e+00 1.527067e+00 1.436130e+00 3.043790e-01 2.856972e-01 4.921428e-01 4.815409e-01 4.075838e-01 4.587818e-01 4.516903e-01 4.402645e-01 4.674359e-01 3.801380e-01 3.566365e-01 3.349680e-01 8.509264e-01
<GCONST> 1.053895e+02
<MIXTURE> 3 2.655658e-01
<MEAN> 39
 -2.692643e+01 -2.451313e+00 -3.767571e+00 -1.021539e+01 -6.134825e+00 -3.444769e+00 3.211543e+00 -5.308807e+00 1.073719e+00 1.155819e+00 -8.233992e-01 6.463569e-01 5.825871e+01 1.825959e+00 -1.080274e+00 1.618548e+00 -6.699516e-01 -8.029915e-01 -4.956300e-02 -1.251134e+00 -8.585119e-01 -5.517676e-01 -1.063900e+00 -8.258401e-01 3.111894e-02 -1.248989e+00 9.834638e-01 4.006280e-01 1.126647e-01 -4.839937e-01 -4.140256e-01 -3.193601e-01 -9.875866e-01 -4.514450e-01 -5.998091e-01 -4.342047e-01 -5.235062e-01 -2.974846e-01 -2.351567e-01
<VARIANCE> 39
