~o
<STREAMINFO> 1 39
<VECSIZE> 39<NULLD><MFCC_D_A_0><DIAGC>
~h "b"
<BEGINHMM>
<NUMSTATES> 5
<STATE> 2
<NUMMIXES> 2
<MIXTURE> 1 5.639495e-01
<MEAN> 39
 -1.445686e+01 2.651089e+00 -1.951156e+00 1.623974e+00 -1.149780e+00 -1.027514e+00 -3.817894e+00 -3.638763e+00 -4.333655e+00 -1.976993e+00 -1.655656e+00 -2.733715e+00 3.313965e+01 -2.040451e-01 6.305876e-02 1.406704e-01 2.173284e-01 2.121726e-01 1.901481e-01 1.102721e-01 6.465949e-02 1.581870e-01 9.227896e-02 1.418231e-02 5.624891e-02 -7.929932e-02 5.931803e-02 -3.906852e-01 -3.347031e-02 -2.527163e-01 -3.264316e-01 -2.757104e-01 -5.301184e-02 9.558789e-02 2.511423e-02 -2.919343e-02 -5.828139e-03 2.602474e-02 6.349085e-01
<VARIANCE> 39
 4.583529e+01 2.456705e+01 2.531335e+01 1.691470e+01 1.304787e+01 1.422799e+01 2.237224e+01 2.782299e+01 2.307922e+01 1.755627e+01 1.787858e+01 1.936314e+01 1.576323e+01 1.766970e+00 1.525155e+00 1.388386e+00 1.355532e+00 1.322770e+00 1.782982e+00 1.739868e+00 2.127466e+00 1.889385e+00 1.823398e+00 1.678124e+00 1.509443e+00 1.819245e+00 3.029951e-01 3.865221e-01 3.663501e-01 3.141912e-01 3.703577e-01 4.126148e-01 3.874771e-01 4.116471e-01 4.017938e-01 3.666874e-01 3.509326e-01 3.172385e-01 6.972234e-01
<GCONST> 1.050932e+02
<MIXTURE> 2 4.360479e-01
<MEAN> 39
 -6.263941e+00 3.440711e+00 -7.613882e-01 -8.093132e-01 -3.677409e+00 -4.982174e+00 -9.223636e+00 -9.055859e+00 -8.910335e+00 -4.985132e+00 -4.141342e+00 -6.271315e+00 4.048363e+01 -7.405407e-01 3.986640e-01 7.873428e-01 7.903281e-01 3.420946e-01 -1.162634e-01 2.743308e-01 6.670919e-02 4.409859e-02 -4.809621e-01 -3.791378e-01 1.318955e-02 -1.288238e-01 -1.520031e-01 -1.198833e+00 -8.845127e-02 -9.506405e-01 -8.172007e-01 -2.695688e-01 1.916341e-03 6.882335e-01 4.373000e-01 4.295630e-01 2.598458e-01 3.041150e-01 1.525421e+00
<VARIANCE> 39
 2.546103e+01 3.044559e+01 2.181399e+01 3.514317e+01 2.659393e+01 3.945000e+01 3.596466e+01 3.050918e+01 3.354286e+01 3.646754e+01 3.942104e+01 2.992106e+01 4.017872e+01 3.671752e+00 4.177534e+00 2.629747e+00 4.874194e+00 3.511773e+00 3.459679e+00 3.627780e+00 3.899744e+00 3.618476e+00 3.486468e+00 2.644543e+00 2.526847e+00 7.270819e+00 4.482333e-01 8.132848e-01 9.290471e-01 9.999020e-01 9.926271e-01 8.674134e-01 9.752602e-01 8.526570e-01 1.019176e+00 8.171268e-01 6.776575e-01 6.276840e-01 1.616367e+00
<GCONST> 1.316758e+02
<STATE> 3
<NUMMIXES> 2
<MIXTURE> 1 5.414854e-01
<MEAN> 39
 -1.323808e+01 1.296447e+00 -1.939089e+00 6.564502e-01 -7.922143e-01 -1.141360e+00 -3.962820e+00 -3.929874e+00 -4.368818e+00 -2.617836e+00 -2.224041e+00 -2.555245e+00 3.769155e+01 1.341456e-01 -2.752796e+00 -1.738599e-01 -1.568066e+00 -1.694110e+00 -1.838581e+00 -2.701554e-01 1.154848e+00 1.116852e+00 3.761845e-01 3.822563e-01 5.622518e-01 5.309450e+00 8.673774e-01 -5.518407e-01 3.884136e-01 -8.735064e-01 -1.219439e+00 -6.509250e-01 -6.452817e-01 -1.382275e-01 -3.503189e-01 -2.615071e-02 1.784572e-01 -7.644533e-02 1.585647e+00
<VARIANCE> 39
 4.062136e+01 2.694844e+01 1.925453e+01 1.952580e+01 1.434620e+01 1.694027e+01 2.064801e+01 2.739718e+01 2.238689e+01 1.872503e+01 1.667427e+01 1.466562e+01 5.622467e+01 4.224041e+00 2.492599e+00 5.096844e+00 3.371502e+00 2.912253e+00 3.850455e+00 4.875548e+00 3.678486e+00 4.169308e+00 3.811575e+00 3.080539e+00 2.664128e+00 4.399890e+00 4.764540e-01 6.388970e-01 1.290566e+00 8.210275e-01 6.931930e-01 8.082132e-01 7.262959e-01 8.815109e-01 9.262432e-01 7.934031e-01 6.941947e-01 5.017934e-01 8.772970e-01
<GCONST> 1.252072e+02
<MIXTURE> 2 4.585142e-01
<MEAN> 39
 -9.648365e+00 -4.174801e+00 -5.083472e-01 -3.146707e+00 -6.105533e+00 -7.216763e+00 -7.689471e+00 -4.413176e+00 -4.213906e+00 -3.422286e+00 -3.214900e+00 -3.446531e+00 4.993426e+01 3.214121e-01 -2.474309e+00 2.141033e+00 -1.919700e+00 -3.429607e+00 -1.633070e+00 -2.658806e-01 1.102577e+00 -6.291833e-01 -4.130782e-01 4.176020e-01 6.260052e-01 4.793866e+00 3.480189e-01 -5.795262e-03 6.554818e-01 -8.387188e-01 -9.046528e-01 2.136362e-01 -3.309475e-01 -1.782241e-01 -6.165646e-01 2.090271e-01 1.904228e-01 -1.147455e-01 2.908683e-01
<VARIANCE> 39
 3.602345e+01 2.841739e+01 3.152360e+01 5.128027e+01 3.069611e+01 3.721434e+01 4.437334e+01 4.003716e+01 4.214247e+01 3.721836e+01 2.800503e+01 2.222413e+01 4.765027e+01 3.425527e+00 3.421736e+00 6.192556e+00 6.847009e+00 4.893551e+00 5.520487e+00 5.081725e+00 5.624840e+00 4.794456e+00 5.147002e+00 2.963823e+00 2.830145e+00 7.039049e+00 5.467179e-01 8.223780e-01 7.900794e-01 1.068011e+00 8.466465e-01 8.339847e-01 9.656959e-01 9.717711e-01 1.068899e+00 1.022666e+00 8.281736e-01 5.493402e-01 1.202676e+00
<GCONST> 1.364222e+02
<STATE> 4
<NUMMIXES> 2
<MIXTURE> 1 4.519267e-01
<MEAN> 39
 -5.789131e+00 -6.544432e+00 -4.443182e+00 -9.082178e+00 -8.680361e+00 -7.927941e+00 -1.025751e+01 -2.683099e+00 -2.282955e+00 -1.307441e+00 -8.072888e-01 -1.760298e+00 5.717683e+01 1.714432e+00 -1.817507e+00 3.448665e-01 -2.212580e+00 -2.837080e+00 -1.357707e+00 -1.540618e+00 9.577494e-01 -1.081979e-01 -1.865571e-01 6.022570e-01 2.644054e-01 3.932251e+00 -7.291187e-02 5.587630e-01 3.823254e-01 2.801918e-01 1.493019e-02 5.034968e-01 1.819868e-01 -2.923114e-01 -5.632656e-01 -2.872757e-01 -5.657234e-02 -1.974618e-01 -1.050969e+00
<VARIANCE> 39
 3.253760e+01 2.477364e+01 6.883942e+01 8.882667e+01 4.039784e+01 6.697724e+01 7.699650e+01 4.900590e+01 3.589396e+01 3.958659e+01 3.652514e+01 2.709006e+01 2.528572e+01 4.563776e+00 3.933316e+00 1.224308e+01 9.120241e+00 6.458010e+00 6.947680e+00 7.990139e+00 6.953471e+00 7.858974e+00 6.612817e+00 4.924016e+00 3.725941e+00 8.086317e+00 4.733795e-01 4.532353e-01 6.154854e-01 1.073540e+00 6.694462e-01 9.136081e-01 1.156516e+00 8.291036e-01 9.625790e-01 8.071454e-01 6.559585e-01 5.631050e-01 5.985779e-01
<GCONST> 1.407389e+02
<MIXTURE> 2 5.480719e-01
<MEAN> 39
 -8.505506e+00 -7.517251e+00 1.079208e+01 -5.107196e+00 -1.768317e+01 -1.119626e+01 -8.381356e+00 -3.032260e+00 -1.134269e+01 -5.527632e+00 -3.760250e-01 -2.714687e+00 5.754657e+01 3.639147e-01 -5.958918e-01 4.035877e+00 -2.904054e+00 -4.023128e+00 1.260849e-01 -8.410307e-01 -1.001420e+00 -2.686174e+00 9.160382e-02 3.394136e-01 -3.094765e-01 2.863887e+00 -2.264589e-01 9.283493e-01 -5.215887e-01 -2.118952e-01 9.504067e-01 9.327319e-01 -2.176662e-01 -5.575480e-01 2.939363e-01 3.787985e-01 -3.173398e-01 -2.353869e-01 -1.282710e+00
<VARIANCE> 39
 1.330472e+01 2.171812e+01 3.533211e+01 5.577209e+01 3.532970e+01 3.313946e+01 3.829986e+01 4.195689e+01 4.637144e+01 4.113616e+01 3.752794e+01 2.196542e+01 2.405972e+01 2.688069e+00 3.153617e+00 2.481956e+00 5.425783e+00 4.813808e+00 4.854558e+00 5.056550e+00 5.579079e+00 4.719125e+00 6.224880e+00 4.636243e+00 2.678435e+00 5.536786e+00 2.996297e-01 3.299304e-01 5.456961e-01 6.573118e-01 6.484781e-01 5.419935e-01 6.891897e-01 7.145303e-01 7.049683e-01 6.194043e-01 4.663565e-01 3.736371e-01 5.574124e-01
<GCONST> 1.274114e+02
<TRANSP> 5
 0.000000e+00 1.000000e+00 0.000000e+00 0.000000e+00 0.000000e+00
 0.000000e+00 7.201276e-01 2.798724e-01 0.000000e+00 0.000000e+00
 0.000000e+00 0.000000e+00 4.725907e-01 5.274093e-01 0.000000e+00
 0.000000e+00 0.000000e+00 0.000000e+00 5.118557e-01 4.881443e-01
 0.000000e+00 0.000000e+00 0.000000e+00 0.000000e+00 0.000000e+00
<ENDHMM>
~h "d"
<BEGINHMM>
<NUMSTATES> 5
<STATE> 2
<NUMMIXES> 2
<MIXTURE> 1 5.624967e-01
<MEAN> 39
 -1.071028e+01 6.933458e+00 4.033249e+00 3.841140e+00 -2.870193e+00 -3.828762e+00 -5.451232e+00 -4.512070e+00 -5.524387e+00 -4.553743e+00 -5.109189e+00 -4.175224e+00 3.508298e+01 -1.169065e+00 -9.523767e-01 -8.241346e-01 -7.329865e-01 8.860329e-01 6.657997e-01 4.504875e-01 4.540367e-01 4.440584e-01 3.647477e-01 4.474406e-01 4.234514e-01 5.764157e-01 -2.297757e-01 -8.416839e-01 -1.500456e-01 -9.738741e-01 -5.962366e-01 -2.002564e-01 7.815330e-02 4.608777e-02 -1.857068e-02 1.960260e-01 2.943195e-01 1.724515e-01 1.416326e+00
<VARIANCE> 39
 1.566503e+01 8.433500e+00 1.543705e+01 1.254543e+01 1.918668e+01 1.893770e+01 1.732562e+01 1.658575e+01 1.828519e+01 1.559011e+01 1.601862e+01 1.307507e+01 6.635485e+00 2.193539e+00 4.874288e+00 2.504553e+00 6.231875e+00 3.389320e+00 2.454971e+00 2.564321e+00 2.518004e+00 2.663717e+00 2.260486e+00 2.333826e+00 1.681163e+00 9.283840e+00 2.782970e-01 4.589345e-01 3.917771e-01 6.147828e-01 7.328173e-01 5.519227e-01 4.781588e-01 4.434155e-01 5.019363e-01 3.788803e-01 3.854921e-01 3.442062e-01 1.131450e+00
<GCONST> 1.112707e+02
<MIXTURE> 2 4.374966e-01
<MEAN> 39
 -9.632534e+00 3.986779e+00 2.921901e+00 4.877930e-01 -6.699805e+00 -7.414465e+00 -7.811660e+00 -6.743388e+00 -7.317328e+00 -6.175744e+00 -7.735980e+00 -5.975467e+00 3.918630e+01 -1.206522e+00 4.658621e-01 -1.179823e-01 4.709066e-01 1.372636e+00 6.082781e-01 4.605746e-01 2.787113e-01 6.285535e-02 -1.367956e-01 2.027462e-01 -8.505682e-02 -7.319236e-01 -2.167109e-01 -9.843025e-01 -2.953884e-01 -1.151847e+00 -4.602946e-01 1.265212e-01 3.843706e-02 2.900289e-01 2.612126e-01 4.753902e-01 5.457312e-01 5.033407e-01 1.456341e+00
<VARIANCE> 39
 2.949541e+01 2.663473e+01 3.247911e+01 3.186911e+01 3.553910e+01 3.304599e+01 3.355371e+01 3.928125e+01 4.248618e+01 3.212050e+01 2.931800e+01 2.930497e+01 3.327502e+01 3.528197e+00 7.098133e+00 4.360896e+00 8.317950e+00 5.708495e+00 4.976553e+00 4.521392e+00 4.998005e+00 4.714667e+00 3.945204e+00 4.100521e+00 3.777248e+00 1.304068e+01 4.744952e-01 7.849982e-01 6.732947e-01 1.148927e+00 9.698536e-01 8.681502e-01 9.962370e-01 9.537487e-01 9.075885e-01 7.741767e-01 6.843723e-01 6.088082e-01 1.615601e+00
<GCONST> 1.363092e+02
<STATE> 3
<NUMMIXES> 2
<MIXTURE> 1 5.935082e-01
<MEAN> 39
 -2.055173e+01 -1.752115e+00 -5.929944e+00 -1.223398e+00 -3.473477e+00 -9.057592e-01 -1.551132e+00 -2.370263e-01 -1.607862e+00 -8.053578e-01 -7.528387e-01 -4.163609e-01 3.069169e+01 -1.124354e-01 -4.259876e-01 -1.836450e-01 -5.336108e-01 2.663437e-02 -1.185819e-01 -7.448631e-03 1.019084e-01 1.412809e-01 2.387012e-01 2.350817e-01 1.298802e-01 9.364740e-01 2.072393e-01 -3.327169e-02 1.637652e-01 -2.825977e-01 -1.642240e-01 -1.972440e-01 -7.860439e-02 -1.447889e-01 -1.035056e-01 -8.854035e-02 -9.235691e-02 -5.698377e-02 8.489488e-01
<VARIANCE> 39
 6.834144e+00 9.986533e+00 1.068979e+01 1.220506e+01 1.281915e+01 1.352550e+01 1.338387e+01 1.373842e+01 1.401418e+01 1.431597e+01 1.408204e+01 1.246676e+01 1.051377e+01 1.113951e+00 1.907113e+00 1.440318e+00 2.844650e+00 1.476849e+00 1.788764e+00 1.962702e+00 2.073415e+00 1.932666e+00 1.909799e+00 1.856589e+00 1.552168e+00 8.175038e+00 2.185898e-01 2.691545e-01 2.712462e-01 4.302481e-01 3.188231e-01 4.091560e-01 3.783242e-01 3.957162e-01 3.824973e-01 3.599769e-01 3.587012e-01 2.983673e-01 1.224486e+00
<GCONST> 1.000356e+02
<MIXTURE> 2 4.064832e-01
<MEAN> 39
 -1.728427e+01 -4.758726e+00 -1.554245e+00 -6.335433e+00 -2.392599e+00 -1.743906e+00 -2.694801e+00 -2.025722e+00 -3.461359e+00 -1.959614e+00 -2.023998e+00 -1.816428e+00 4.541140e+01 -8.825296e-01 -2.203442e+00 -5.199921e-01 -3.374811e+00 -1.371415e+00 -1.067522e+00 3.491247e-01 4.156774e-01 3.712502e-01 7.113977e-01 1.138363e+00 1.006143e+00 6.027120e+00 8.511775e-01 4.772217e-01 6.611272e-01 1.670038e-01 -1.160138e+00 -7.718328e-01 -5.356987e-01 -2.450765e-01 -2.603402e-01 -1.789324e-01 -1.934977e-01 -9.291011e-02 3.712262e-01
<VARIANCE> 39
 2.547851e+01 3.777670e+01 3.590950e+01 4.972397e+01 3.554721e+01 3.095389e+01 3.057572e+01 3.067777e+01 2.845979e+01 2.440049e+01 2.011123e+01 1.797100e+01 1.049715e+02 3.566203e+00 3.955320e+00 4.150822e+00 4.399343e+00 4.046124e+00 4.121843e+00 4.938230e+00 4.606248e+00 4.729363e+00 3.488157e+00 3.324952e+00 2.494863e+00 9.063527e+00 4.630503e-01 7.796168e-01 9.836524e-01 1.115027e+00 1.087785e+00 8.899937e-01 8.610121e-01 9.501648e-01 9.547844e-01 7.273754e-01 6.704106e-01 5.374478e-01 1.512290e+00
<GCONST> 1.334497e+02
<STATE> 4
<NUMMIXES> 2
<MIXTURE> 1 5.079608e-01
<MEAN> 39
 -1.384827e+01 -6.882193e+00 -2.517447e-01 -1.048268e+01 -9.546748e+00 -8.187096e+00 -4.937702e+00 -2.801887e-01 -3.095836e+00 -1.908978e+00 -6.574903e-01 1.234537e+00 5.556234e+01 1.240932e+00 -1.004831e+00 3.962224e-01 -6.748220e-01 -2.389897e+00 -1.466705e+00 -5.181301e-01 6.961220e-01 4.992863e-01 -6.869861e-02 3.129641e-01 3.543112e-01 2.631342e+00 3.688880e-01 5.225941e-01 3.063761e-02 8.748891e-01 1.768036e-02 2.738072e-01 -1.086584e-01 -2.340977e-01 1.243026e-02 -1.507746e-01 -3.686147e-01 -4.853310e-01 -1.238198e+00
<VARIANCE> 39
 3.066171e+01 2.628434e+01 4.396587e+01 3.589999e+01 4.754278e+01 4.558129e+01 5.609280e+01 3.689288e+01 4.851902e+01 3.540731e+01 2.960328e+01 2.249932e+01 5.955757e+01 4.067294e+00 4.038269e+00 4.398653e+00 6.362969e+00 7.081861e+00 6.205715e+00 6.885738e+00 5.421643e+00 5.141736e+00 4.222037e+00 4.118289e+00 3.183607e+00 1.439943e+01 6.815075e-01 6.065989e-01 8.306708e-01 8.758970e-01 1.097933e+00 1.052779e+00 9.228131e-01 7.773025e-01 9.327559e-01 9.112693e-01 7.220997e-01 5.467526e-01 7.348273e-01
<GCONST> 1.381498e+02
<MIXTURE> 2 4.920373e-01
<MEAN> 39
 -1.932481e+01 -1.470811e+00 -2.141684e+00 -1.069047e+01 -6.762316e+00 -7.683030e+00 -1.457141e+00 -5.960043e+00 -4.961610e+00 -1.126939e+00 -1.529435e+00 -9.912491e-01 5.935216e+01 1.904742e+00 4.305929e-01 3.133455e+00 -1.333141e+00 -4.000918e+00 -2.206713e+00 -1.657727e+00 -1.356194e+00 -1.613086e+00 -6.759877e-01 -3.924644e-01 -3.421064e-02 4.069257e+00 9.802731e-01 1.622335e-01 1.006350e+00 6.868933e-01 -6.711832e-01 3.175648e-01 -8.721290e-01 1.692361e-01 -3.126322e-01 -3.074140e-01 -3.058411e-01 -2.328371e-01 -1.851497e+00
<VARIANCE> 39
 1.894524e+01 3.284779e+01 4.991745e+01 2.441015e+01 2.983544e+01 3.391867e+01 2.327620e+01 3.954278e+01 3.311520e+01 2.352715e+01 2.191224e+01 1.632237e+01 1.281100e+01 3.085357e+00 3.634717e+00 4.525805e+00 6.436801e+00 3.628553e+00 3.757331e+00 4.021508e+00 5.177221e+00 3.879965e+00 4.251774e+00 3.783154e+00 2.838193e+00 9.303921e+00 4.437467e-01 7.883659e-01 9.152932e-01 8.080760e-01 8.273343e-01 8.568890e-01 6.777042e-01 9.367827e-01 9.295239e-01 7.381330e-01 7.285528e-01 4.871778e-01 3.908279e-01
<GCONST> 1.283910e+02
<TRANSP> 5
 0.000000e+00 1.000000e+00 0.000000e+00 0.000000e+00 0.000000e+00
 0.000000e+00 7.009204e-01 2.990796e-01 0.000000e+00 0.000000e+00
 0.000000e+00 0.000000e+00 6.681045e-01 3.318955e-01 0.000000e+00
 0.000000e+00 0.000000e+00 0.000000e+00 5.459235e-01 4.540765e-01
 0.000000e+00 0.000000e+00 0.000000e+00 0.000000e+00 0.000000e+00
<ENDHMM>
~h "f"
<BEGINHMM>
<NUMSTATES> 5
<STATE> 2
<NUMMIXES> 2
<MIXTURE> 1 4.575293e-01
<MEAN> 39
 -1.443146e+01 -3.184820e+00 -5.609039e+00 -3.885972e+00 -2.059922e+00 -1.970634e+00 -1.079897e+00 -5.703297e-01 -9.933790e-01 -1.451234e+00 -4.046959e+00 -2.279898e+00 5.338190e+01 -5.203661e+00 8.362175e-01 6.532811e-01 1.850368e+00 1.174235e+00 1.197462e+00 5.966340e-01 2.093701e-01 1.431190e-01 -1.509890e-01 1.183135e+00 1.459202e+00 -2.098907e+00 -2.430274e-02 -1.113103e+00 -3.820428e-01 -8.705577e-01 -7.305893e-01 -3.374301e-01 -3.022534e-01 2.543150e-01 7.719429e-02 1.146042e-01 3.160838e-03 -1.245939e-01 5.528404e-01
<VARIANCE> 39
 3.558441e+01 1.205881e+01 1.887931e+01 1.612792e+01 1.410695e+01 2.102600e+01 2.078845e+01 2.297119e+01 2.241661e+01 2.460277e+01 2.098711e+01 1.595919e+01 2.629788e+01 3.022666e+00 3.249268e+00 3.080498e+00 3.238413e+00 3.163783e+00 4.201032e+00 3.985002e+00 5.203209e+00 3.528965e+00 4.571498e+00 5.069876e+00 3.292691e+00 2.028342e+00 6.869847e-01 3.766418e-01 4.274601e-01 4.451198e-01 4.555639e-01 5.658729e-01 6.084424e-01 6.617047e-01 4.368375e-01 5.242674e-01 5.020831e-01 4.743036e-01 2.077395e-01
<GCONST> 1.174645e+02
<MIXTURE> 2 5.424700e-01
<MEAN> 39
 -2.332914e+01 -7.313338e+00 -7.304728e+00 -4.345625e+00 -2.902912e+00 -1.864112e+00 -9.900981e-01 4.948473e-01 -1.818099e-01 -8.436291e-01 -1.624613e+00 -9.389303e-02 5.038651e+01 -2.975823e+00 -1.026132e+00 -7.438585e-01 -3.571162e-01 -3.596122e-01 -2.666549e-02 -7.990973e-02 4.717478e-02 1.447950e-01 1.173421e-01 5.748116e-01 7.643826e-01 -3.215514e-01 1.128668e+00 -1.690951e-01 -1.681453e-01 -5.313730e-01 -4.545837e-01 -3.455279e-01 -2.391160e-01 -6.011338e-02 -9.805429e-02 1.302423e-01 -2.160349e-01 -3.496276e-01 3.687701e-01
<VARIANCE> 39
 1.377938e+01 1.239717e+01 1.276696e+01 1.368977e+01 1.485190e+01 1.306553e+01 1.477249e+01 1.392836e+01 1.450085e+01 1.274643e+01 1.388514e+01 1.229612e+01 3.019623e+01 3.419573e+00 1.443252e+00 1.656304e+00 1.696626e+00 1.823059e+00 1.897301e+00 1.956838e+00 2.479012e+00 2.206691e+00 2.393038e+00 2.152164e+00 1.991819e+00 3.202778e+00 5.492575e-01 4.961935e-01 4.277811e-01 5.178631e-01 4.543150e-01 4.917731e-01 4.730420e-01 6.006548e-01 4.798338e-01 4.646665e-01 5.162739e-01 4.229808e-01 4.343542e-01
<GCONST> 1.066565e+02
<STATE> 3
<NUMMIXES> 2
<MIXTURE> 1 4.997826e-01
<MEAN> 39
 -2.426656e+01 -6.638157e+00 -8.639335e+00 -5.042462e+00 -4.309988e+00 -2.590335e+00 -2.430178e+00 -3.793564e-01 -8.899357e-01 -3.615490e-01 -1.609351e+00 -3.433699e-01 4.680007e+01 -2.088053e-02 1.223771e-01 1.867803e-01 2.429014e-01 2.322926e-01 2.549789e-01 2.008548e-01 1.742990e-01 1.862054e-01 2.472315e-01 1.571159e-01 8.293965e-02 -2.439137e-04 3.318034e-01 8.965706e-03 6.312927e-02 -2.201870e-02 3.254893e-02 -1.202190e-02 3.681592e-02 1.449681e-02 1.402858e-02 -1.457615e-02 -2.588754e-02 -2.506523e-02 7.121208e-02
<VARIANCE> 39
 1.295093e+01 1.667846e+01 1.341182e+01 1.445611e+01 1.403998e+01 1.415298e+01 1.446036e+01 1.350381e+01 1.584093e+01 1.377026e+01 1.292680e+01 1.243750e+01 7.915688e+01 8.406903e-01 7.232022e-01 8.538909e-01 1.004468e+00 1.084856e+00 1.147105e+00 1.306105e+00 1.457223e+00 1.598351e+00 1.398674e+00 1.322834e+00 1.199798e+00 1.237592e+00 2.799522e-01 2.000000e-01 2.022529e-01 2.505555e-01 2.600542e-01 2.913629e-01 3.149872e-01 3.022393e-01 3.384610e-01 2.912742e-01 2.973827e-01 2.554182e-01 2.383018e-01
<GCONST> 9.228796e+01
<MIXTURE> 2 5.002152e-01
<MEAN> 39
 -2.530430e+01 -8.935958e+00 -9.483494e+00 -6.227420e+00 -4.509762e+00 -2.998469e+00 -1.782463e+00 -5.357422e-02 -8.004689e-01 -2.964729e-01 -1.272198e+00 1.759122e-01 5.092646e+01 2.015099e-01 -1.741940e-01 -3.082002e-01 -4.779219e-01 -4.112853e-01 -4.400727e-01 -3.314255e-01 -2.692514e-01 -2.574440e-01 -1.511468e-01 -1.774515e-01 -1.490469e-01 1.838981e-01 7.530285e-01 1.817210e-01 1.031727e-01 -5.435381e-02 -3.693208e-02 -5.274411e-02 -9.668111e-02 -6.214282e-02 -4.527644e-02 -2.348527e-02 -1.012432e-01 -1.679028e-01 1.375658e-02
<VARIANCE> 39
 1.192862e+01 1.174918e+01 1.197086e+01 1.269574e+01 1.373961e+01 1.290879e+01 1.535572e+01 1.500356e+01 1.481302e+01 1.386111e+01 1.210893e+01 1.172760e+01 2.474738e+01 1.849555e+00 8.555156e-01 9.771824e-01 1.123515e+00 1.229230e+00 1.189833e+00 1.520119e+00 1.467506e+00 1.506260e+00 1.454840e+00 1.403473e+00 1.279209e+00 1.582042e+00 5.001493e-01 2.000000e-01 2.491528e-01 3.285145e-01 3.039607e-01 3.055492e-01 3.812232e-01 4.120847e-01 3.727921e-01 3.803868e-01 3.406984e-01 3.107448e-01 2.382828e-01
<GCONST> 9.464842e+01
<STATE> 4
<NUMMIXES> 2
<MIXTURE> 1 4.685642e-01
<MEAN> 39
 -1.773320e+01 -6.219930e+00 -9.252976e+00 -7.842175e+00 -5.521872e+00 -2.035710e+00 -1.658624e+00 -7.221937e-01 4.259853e-02 1.006415e+00 -1.322735e+00 -1.465835e+00 4.235318e+01 5.805072e-01 4.682689e-01 3.353586e-01 2.980262e-01 1.702519e-01 2.965785e-01 1.958200e-01 2.006007e-01 9.949857e-02 1.326590e-01 9.649143e-02 -1.253452e-01 -1.320213e+00 6.172001e-02 -8.549289e-02 7.949429e-02 2.648554e-02 6.661289e-02 2.392650e-02 -7.406908e-02 -1.099099e-02 -1.638388e-01 -1.692830e-01 -7.068157e-02 -2.938697e-03 3.885765e-01
<VARIANCE> 39
 4.562150e+01 2.572356e+01 4.212365e+01 4.321714e+01 4.184650e+01 4.143358e+01 3.461902e+01 3.655019e+01 4.178170e+01 3.740285e+01 4.027532e+01 3.356157e+01 9.213515e+01 5.402419e+00 2.234912e+00 3.468530e+00 4.134776e+00 3.570178e+00 3.372285e+00 3.202307e+00 3.811310e+00 3.639344e+00 3.714093e+00 3.277815e+00 3.059871e+00 7.161573e+00 1.441833e+00 5.471686e-01 8.647782e-01 1.174086e+00 9.554932e-01 7.987501e-01 7.703019e-01 9.213154e-01 9.061829e-01 8.488208e-01 7.520902e-01 6.763149e-01 1.707546e+00
<GCONST> 1.357237e+02
<MIXTURE> 2 5.314312e-01
<MEAN> 39
 -1.700226e+01 -6.118535e+00 -8.008254e+00 -6.956596e+00 -5.063869e+00 -3.468196e+00 -2.380639e+00 -7.016361e-01 -1.590705e+00 -4.691859e-01 -1.925651e+00 -1.064928e+00 5.079852e+01 4.968449e+00 -4.767182e-01 -2.228390e-01 -2.294699e+00 -1.512833e+00 -7.070441e-01 -1.238212e+00 -5.163810e-01 -7.113308e-01 -9.956226e-02 -3.042787e-01 -7.256081e-01 1.931091e+00 3.718205e-01 -4.751350e-01 -1.140340e-01 -6.141464e-01 -4.173990e-01 2.837951e-02 -2.661894e-01 1.081753e-01 1.533175e-02 8.943687e-02 9.162456e-02 -8.544133e-02 3.540411e-01
<VARIANCE> 39
 6.967268e+01 1.985262e+01 2.650707e+01 3.050368e+01 2.586418e+01 2.883084e+01 2.706532e+01 2.063331e+01 1.960718e+01 1.702573e+01 1.682520e+01 1.549122e+01 7.411736e+01 4.788608e+00 3.709122e+00 5.762876e+00 5.521833e+00 5.091472e+00 6.215546e+00 5.771859e+00 4.746747e+00 4.074899e+00 3.473150e+00 4.440045e+00 2.640929e+00 5.943540e+00 1.387726e+00 4.659756e-01 5.387602e-01 7.339950e-01 6.938807e-01 7.020700e-01 7.706136e-01 6.252736e-01 5.825213e-01 4.686168e-01 5.592496e-01 4.067380e-01 9.791607e-01
<GCONST> 1.286066e+02
<TRANSP> 5
 0.000000e+00 1.000000e+00 0.000000e+00 0.000000e+00 0.000000e+00
 0.000000e+00 6.360369e-01 3.639632e-01 0.000000e+00 0.000000e+00
 0.000000e+00 0.000000e+00 8.722701e-01 1.277299e-01 0.000000e+00
 0.000000e+00 0.000000e+00 0.000000e+00 7.567543e-01 2.432457e-01
 0.000000e+00 0.000000e+00 0.000000e+00 0.000000e+00 0.000000e+00
<ENDHMM>
~h "g"
<BEGINHMM>
<NUMSTATES> 5
<STATE> 2
<NUMMIXES> 2
<MIXTURE> 1 5.107840e-01
<MEAN> 39
 -8.891721e+00 5.046821e+00 3.774293e+00 3.769737e+00 -5.411871e+00 -6.585169e+00 -4.482124e+00 -4.668707e+00 -1.040023e+01 -6.017700e+00 -1.938221e+00 -4.398330e+00 3.782310e+01 -8.291806e-01 -9.210749e-01 -1.414050e+00 -3.364747e-01 1.414824e+00 1.215846e+00 -2.474384e-01 4.427767e-03 9.676932e-01 7.708229e-01 -5.335453e-01 5.110517e-01 3.892553e-01 3.813073e-02 -1.474914e+00 -6.708386e-01 -1.225792e+00 -4.184752e-01 3.405348e-02 -4.443228e-01 4.460041e-01 2.973166e-01 5.624095e-01 3.238817e-01 2.217905e-01 1.796717e+00
<VARIANCE> 39
 1.477757e+01 1.361336e+01 2.856717e+01 2.656314e+01 3.094375e+01 3.114515e+01 2.920205e+01 3.459114e+01 3.138677e+01 1.752260e+01 2.703618e+01 2.022766e+01 1.283311e+01 2.277062e+00 9.959601e+00 5.554362e+00 6.111026e+00 4.889832e+00 3.726677e+00 4.496261e+00 5.476803e+00 3.919806e+00 3.603431e+00 2.806234e+00 2.331496e+00 9.914688e+00 3.942341e-01 8.297405e-01 8.299593e-01 7.976877e-01 9.364410e-01 8.624690e-01 8.376794e-01 7.527084e-01 5.302926e-01 6.157084e-01 5.570179e-01 4.745180e-01 8.215173e-01
<GCONST> 1.272896e+02
<MIXTURE> 2 4.892159e-01
<MEAN> 39
 -1.282509e+01 -2.476959e+00 -3.541219e+00 -1.953386e+00 -4.878114e+00 -4.238234e+00 -5.648939e+00 -3.207783e+00 -5.778032e+00 -1.452381e+00 -2.825048e+00 -3.473198e+00 4.107358e+01 9.842146e-02 -1.564336e+00 -1.529952e+00 -8.084430e-01 1.214860e+00 -3.091631e-01 -5.432428e-01 5.891453e-03 3.097782e-01 2.748290e-01 -2.892000e-01 3.473381e-01 2.355313e+00 3.142024e-01 -5.136152e-01 -2.445196e-01 -7.062230e-01 -3.481587e-01 -2.991370e-01 -1.739487e-01 -1.682781e-02 -4.658143e-03 2.693003e-01 1.376524e-01 1.160505e-01 1.103752e+00
<VARIANCE> 39
 5.824509e+01 5.277349e+01 4.950514e+01 4.926903e+01 4.515334e+01 5.875199e+01 4.961808e+01 5.867823e+01 4.812124e+01 5.002089e+01 4.729941e+01 3.558582e+01 9.284280e+01 4.237199e+00 1.111884e+01 5.505685e+00 8.528951e+00 8.835064e+00 6.985288e+00 6.669830e+00 5.119545e+00 4.655365e+00 7.068905e+00 4.323601e+00 4.699663e+00 1.869213e+01 4.851622e-01 1.249998e+00 6.485314e-01 9.844781e-01 9.925669e-01 1.018236e+00 8.856310e-01 9.132154e-01 6.729353e-01 1.003448e+00 5.865444e-01 8.331826e-01 1.645601e+00
<GCONST> 1.461400e+02
<STATE> 3
<NUMMIXES> 2
<MIXTURE> 1 5.276577e-01
<MEAN> 39
 -9.091409e+00 -1.073954e+01 -1.399170e+01 -7.502064e+00 -2.402617e-01 -2.569146e+00 -1.024061e+01 -9.509500e-01 -6.875819e+00 4.046287e+00 -1.738325e+00 -1.527984e+00 5.236120e+01 1.200612e+00 -8.354912e-01 -5.160891e-01 -8.693098e-01 -7.654608e-01 -3.825012e-01 -1.529432e+00 -7.961036e-02 4.928953e-01 5.824488e-01 1.005341e+00 4.714550e-01 2.949982e+00 4.308224e-01 9.945881e-01 1.202904e+00 5.434454e-01 -8.598552e-01 -4.886003e-01 9.820450e-03 -3.437923e-01 7.206270e-02 -8.747392e-01 3.663905e-01 -9.725057e-02 -5.585985e-01
<VARIANCE> 39
 2.154637e+01 3.872686e+01 6.360389e+01 5.468187e+01 6.768290e+01 9.261480e+01 4.991528e+01 6.062487e+01 4.887369e+01 4.092970e+01 3.751679e+01 3.194457e+01 3.260495e+01 2.408156e+00 8.025217e+00 1.013958e+01 7.962738e+00 5.530745e+00 6.140549e+00 6.376625e+00 4.780302e+00 4.317948e+00 6.291989e+00 3.042013e+00 3.645649e+00 6.752236e+00 4.349451e-01 1.006418e+00 1.010220e+00 1.282815e+00 1.169772e+00 1.594318e+00 1.610914e+00 1.081790e+00 1.079368e+00 9.885657e-01 7.518005e-01 8.447678e-01 1.136429e+00
<GCONST> 1.437544e+02
<MIXTURE> 2 4.723423e-01
<MEAN> 39
 -1.511785e+01 -1.189500e+01 -8.986751e+00 -8.987546e+00 -1.775263e+00 -7.415159e+00 -5.340382e+00 -2.456347e+00 -2.807276e+00 1.341091e+00 -4.427318e+00 1.683116e-02 5.438182e+01 1.455112e+00 -9.463810e-01 -3.862481e-01 -2.119295e+00 -1.203682e+00 -2.083458e+00 -1.368645e+00 -3.319295e-01 -1.357932e-01 6.554043e-01 -3.418602e-01 2.069537e-01 4.545439e+00 7.886164e-01 1.186430e+00 8.771272e-01 5.807666e-01 -9.700831e-01 -2.539169e-01 -2.498509e-01 2.265893e-03 -4.816034e-01 -3.306147e-01 2.948882e-01 -3.540030e-01 -1.026898e+00
<VARIANCE> 39
 2.816909e+01 4.229828e+01 9.460098e+01 4.983855e+01 8.123619e+01 4.295423e+01 4.647683e+01 4.245660e+01 3.157570e+01 3.926410e+01 2.826473e+01 2.338717e+01 3.088992e+01 3.165499e+00 8.054498e+00 6.203641e+00 5.445574e+00 7.785989e+00 3.780739e+00 3.316689e+00 4.465590e+00 3.686977e+00 4.120580e+00 3.424562e+00 2.684168e+00 6.901932e+00 5.943541e-01 1.023271e+00 8.317470e-01 7.927772e-01 1.172797e+00 1.017635e+00 8.586977e-01 1.100694e+00 7.472614e-01 9.461921e-01 8.128954e-01 5.507311e-01 8.348849e-01
<GCONST> 1.375936e+02
<STATE> 4
<NUMMIXES> 2
<MIXTURE> 1 4.735623e-01
<MEAN> 39
 -4.289388e+00 -6.148898e+00 -7.235760e+00 -4.613585e+00 -5.002849e+00 -7.613791e+00 -1.395813e+01 -4.947649e+00 -6.371455e+00 3.804137e-01 7.658270e-01 -1.006211e+00 5.619033e+01 2.276648e+00 3.021477e-01 5.600606e-01 -2.915911e-02 -1.884144e+00 -1.111247e+00 -1.385201e+00 2.796095e-01 3.930867e-01 -1.351085e+00 1.097946e+00 5.316975e-01 1.226114e+00 -5.485902e-02 -2.465112e-01 -3.340577e-01 -1.084276e-01 -4.577262e-03 2.758038e-01 1.779336e-01 4.483712e-01 2.709257e-01 -1.824074e-01 -7.759738e-02 -1.712685e-02 -4.308751e-01
<VARIANCE> 39
 2.920728e+01 2.218731e+01 5.100076e+01 4.086185e+01 6.956571e+01 6.475074e+01 6.065083e+01 3.958344e+01 3.708908e+01 4.154792e+01 4.435633e+01 3.019596e+01 2.171369e+01 2.238459e+00 2.863812e+00 4.299907e+00 4.878655e+00 5.385264e+00 5.755287e+00 7.683089e+00 6.331210e+00 4.149740e+00 4.736955e+00 4.016712e+00 3.326850e+00 1.650951e+00 3.299346e-01 4.246262e-01 5.734766e-01 5.267290e-01 7.411579e-01 8.099887e-01 1.162792e+00 7.206324e-01 6.787298e-01 7.116899e-01 5.708107e-01 5.622854e-01 4.557434e-01
<GCONST> 1.314001e+02
<MIXTURE> 2 5.264376e-01
<MEAN> 39
 -4.676435e+00 -6.801516e+00 -3.009873e+00 -8.195615e+00 -1.178109e+01 -1.176413e+01 -1.281676e+01 -2.511328e+00 -6.789082e+00 -1.750179e+00 6.796702e-01 -1.496892e+00 5.805717e+01 2.308291e+00 -6.137905e-01 -1.284755e-01 -9.208683e-01 -2.238994e+00 -9.528338e-01 -1.249242e+00 9.619182e-01 -8.463798e-02 -1.235804e-01 8.143948e-01 -2.819983e-01 1.664026e+00 -4.256325e-01 -6.010618e-01 -7.236974e-01 -6.807169e-02 5.928463e-01 5.525537e-01 6.099530e-01 4.119153e-01 2.888358e-01 3.711979e-01 -2.761736e-01 -7.248303e-02 -3.363152e-01
<VARIANCE> 39
 3.540222e+01 3.873071e+01 8.868544e+01 8.096142e+01 8.834193e+01 7.924286e+01 6.116754e+01 7.137676e+01 5.021437e+01 3.709901e+01 6.221690e+01 2.562841e+01 3.343704e+01 2.331604e+00 3.420956e+00 3.952463e+00 2.874700e+00 4.665975e+00 5.198688e+00 6.314019e+00 6.646287e+00 8.166406e+00 6.124065e+00 4.958913e+00 3.940459e+00 1.732057e+00 3.234790e-01 4.904889e-01 4.009518e-01 5.970604e-01 6.888942e-01 6.081030e-01 6.526765e-01 8.204154e-01 5.796083e-01 6.020061e-01 6.501048e-01 4.800996e-01 4.620299e-01
<GCONST> 1.345405e+02
<TRANSP> 5
 0.000000e+00 1.000000e+00 0.000000e+00 0.000000e+00 0.000000e+00
 0.000000e+00 6.233570e-01 3.766430e-01 0.000000e+00 0.000000e+00
 0.000000e+00 0.000000e+00 5.679935e-01 4.320066e-01 0.000000e+00
 0.000000e+00 0.000000e+00 0.000000e+00 6.079808e-01 3.920192e-01
 0.000000e+00 0.000000e+00 0.000000e+00 0.000000e+00 0.000000e+00
<ENDHMM>
~h "k"
<BEGINHMM>
<NUMSTATES> 5
<STATE> 2
<NUMMIXES> 2
<MIXTURE> 1 4.138963e-01
<MEAN> 39
 -1.905236e+01 -3.331878e+00 -3.779619e+00 -4.853926e-01 -3.114009e+00 -3.593938e+00 -2.365878e+00 -8.058413e-01 -3.745871e+00 -2.408391e-02 -1.291570e+00 -6.616048e-01 3.661617e+01 -1.965026e+00 -2.948086e-01 -1.209676e+00 6.776553e-01 1.301884e+00 1.663185e+00 2.251087e-01 3.413427e-01 1.409927e+00 3.903000e-01 1.149696e-01 4.917812e-01 -2.215792e+00 6.024034e-01 -5.276643e-01 -8.710450e-02 -8.921803e-01 -6.457780e-01 -3.254763e-01 -6.588548e-02 9.210474e-02 -6.163844e-02 -4.737757e-02 1.193863e-03 -1.288630e-01 1.618453e+00
<VARIANCE> 39
 2.376448e+01 3.208030e+01 3.578159e+01 3.396768e+01 3.813986e+01 3.929168e+01 3.620628e+01 4.618257e+01 3.943753e+01 3.447835e+01 2.880767e+01 2.037591e+01 5.297012e+01 4.283346e+00 5.568623e+00 7.781034e+00 6.507638e+00 5.765380e+00 7.191805e+00 5.555671e+00 7.746235e+00 4.995631e+00 4.901307e+00 5.357368e+00 3.136287e+00 1.689943e+01 6.542131e-01 1.074329e+00 8.339579e-01 1.053839e+00 7.745250e-01 1.104158e+00 1.040932e+00 1.109647e+00 9.615213e-01 8.240027e-01 7.686310e-01 5.610595e-01 2.231401e+00
<GCONST> 1.403753e+02
<MIXTURE> 2 5.860959e-01
<MEAN> 39
 -2.141167e+01 -1.751516e+00 -5.746260e+00 -4.791084e-01 -2.904370e+00 -6.287128e-01 -1.792181e+00 -4.504405e-01 -1.324067e+00 -1.940672e-01 -5.719308e-01 -1.330893e-01 2.954838e+01 1.927488e-01 -1.529184e+00 -4.686151e-01 -1.140302e+00 -3.744901e-01 -3.228454e-01 -1.083057e-01 -4.120652e-03 3.872030e-02 2.893870e-01 -1.635705e-01 5.932408e-02 2.427983e+00 3.987858e-01 -4.986120e-01 1.267550e-01 -6.775624e-01 -3.507285e-01 -5.278050e-01 -7.808207e-02 -5.075064e-02 -2.217591e-01 1.293545e-01 -1.436294e-01 -3.015848e-02 2.015635e+00
<VARIANCE> 39
 1.790290e+00 3.515732e+00 5.203766e+00 6.741652e+00 8.476927e+00 9.446766e+00 1.081997e+01 1.150840e+01 1.216441e+01 1.150928e+01 1.102134e+01 1.014702e+01 5.686668e+00 1.761544e+00 4.372116e+00 3.358595e+00 3.795765e+00 3.241500e+00 3.206931e+00 2.957334e+00 3.200398e+00 2.936303e+00 2.660885e+00 2.039907e+00 1.901028e+00 1.409888e+01 3.377380e-01 4.633967e-01 6.717629e-01 5.122393e-01 5.742323e-01 6.929164e-01 5.383326e-01 6.891390e-01 5.628338e-01 4.816509e-01 4.132912e-01 3.497456e-01 1.318602e+00
<GCONST> 1.051143e+02
<STATE> 3
<NUMMIXES> 2
<MIXTURE> 1 5.294579e-01
<MEAN> 39
 -2.041573e+01 -9.589559e+00 -5.887866e+00 -1.216396e+01 -6.778832e+00 -5.026165e+00 -2.468802e+00 -1.334408e+00 -8.388368e-01 3.007806e+00 -1.718074e+00 1.045558e+00 5.749121e+01 -3.460408e-01 1.416013e+00 1.088935e+00 -7.089155e-01 -2.896118e-01 -2.432747e-02 6.273901e-01 -9.849313e-02 4.767527e-01 -7.463474e-02 8.225389e-02 2.075312e-01 1.929544e+00 2.150457e-01 6.680946e-01 3.325613e-01 9.351571e-01 2.131094e-01 3.238658e-01 2.179398e-01 2.229910e-02 -2.380343e-01 -4.764768e-01 -1.855946e-02 -1.915316e-01 -1.905565e+00
<VARIANCE> 39
 1.954951e+01 2.766572e+01 4.292752e+01 3.736825e+01 3.823023e+01 3.798526e+01 3.512469e+01 4.143613e+01 4.070074e+01 3.147022e+01 2.424948e+01 2.120758e+01 1.932202e+01 2.301370e+00 3.455244e+00 2.119741e+00 4.161078e+00 2.653168e+00 2.663078e+00 2.463986e+00 2.353211e+00 2.417187e+00 2.641948e+00 2.109408e+00 1.879926e+00 1.041757e+01 4.221337e-01 8.412686e-01 4.837268e-01 5.641591e-01 5.999225e-01 6.289901e-01 6.071556e-01 7.419379e-01 7.342538e-01 6.490893e-01 5.623766e-01 4.728902e-01 8.386185e-01
<GCONST> 1.234648e+02
<MIXTURE> 2 4.705392e-01
<MEAN> 39
 -1.733815e+01 -1.268167e+01 -9.606209e+00 -6.422054e+00 -3.215919e+00 -4.901385e+00 -3.610229e+00 9.539474e-01 -2.727134e+00 1.775069e+00 -1.815796e+00 -1.965362e-01 4.990211e+01 4.439491e-01 -1.388527e+00 -6.632406e-01 -2.048934e+00 -7.264841e-01 -1.121537e+00 -2.369228e-01 2.995576e-02 3.029559e-02 5.301489e-01 -2.388023e-01 1.313570e-02 5.210449e+00 -1.152691e-01 1.058720e+00 6.250634e-01 2.348311e-01 -1.630766e-01 6.006222e-03 1.319075e-01 -2.166599e-01 -5.632569e-03 -2.000005e-01 1.220276e-01 -4.804672e-02 -6.398693e-01
<VARIANCE> 39
 2.731174e+01 4.231652e+01 7.067888e+01 5.500375e+01 4.950483e+01 5.320020e+01 5.496069e+01 4.053710e+01 4.329618e+01 3.262965e+01 2.626867e+01 2.235395e+01 6.953316e+01 3.100003e+00 4.725650e+00 4.437255e+00 5.424241e+00 4.237332e+00 4.907082e+00 4.193860e+00 3.977629e+00 4.021164e+00 3.294604e+00 2.605693e+00 2.281220e+00 1.330343e+01 8.679491e-01 1.026130e+00 9.146217e-01 9.689124e-01 7.639717e-01 1.033612e+00 8.701388e-01 7.373393e-01 9.003934e-01 7.083153e-01 5.934488e-01 4.888651e-01 1.740563e+00
<GCONST> 1.370696e+02
<STATE> 4
<NUMMIXES> 2
<MIXTURE> 1 5.980888e-01
<MEAN> 39
 -1.874708e+01 -6.669823e+00 -2.164834e+00 -8.728151e+00 -8.056119e+00 -4.930505e+00 5.787359e-01 -8.436576e-01 -2.923210e+00 9.137893e-01 -1.753285e+00 -2.171587e-01 5.390071e+01 1.320689e+00 4.150226e-01 7.750493e-01 7.631156e-01 -5.751927e-01 -2.437610e-01 4.446618e-01 3.268280e-01 -2.604506e-01 -1.032016e+00 2.002541e-01 -2.365071e-01 -1.627081e-01 4.459933e-01 -3.189283e-01 -1.884421e-01 -4.289230e-02 -1.927082e-01 -4.570529e-02 -3.938008e-01 4.258259e-02 -7.538572e-02 -1.332947e-01 5.449721e-02 -4.571701e-02 -3.586374e-03
<VARIANCE> 39
 3.478225e+01 1.973829e+01 5.107914e+01 3.632042e+01 4.873761e+01 3.901608e+01 4.764643e+01 3.073343e+01 3.072026e+01 2.573464e+01 2.098920e+01 1.943152e+01 5.210217e+01 4.886061e+00 2.963306e+00 2.665074e+00 2.224852e+00 3.649980e+00 3.789182e+00 4.282008e+00 3.648730e+00 2.862111e+00 3.048817e+00 2.625850e+00 1.920615e+00 2.930629e+00 4.904879e-01 5.441029e-01 5.237452e-01 4.955044e-01 6.269193e-01 6.129334e-01 7.193754e-01 5.109618e-01 6.065178e-01 5.610763e-01 4.622256e-01 3.859798e-01 7.673554e-01
<GCONST> 1.242054e+02
<MIXTURE> 2 4.019085e-01
<MEAN> 39
 -1.634645e+01 -5.942187e+00 -2.238571e+00 -1.187285e+01 -7.458869e+00 -1.724564e+00 1.026082e+00 -4.334336e+00 -2.921445e+00 -1.950529e+00 -5.111060e+00 -8.950222e-01 5.602973e+01 2.649503e+00 -2.044120e-01 1.292130e-01 -5.590342e-01 -1.986675e+00 -7.105032e-01 -5.817863e-01 -8.713915e-01 -1.695994e+00 -9.882835e-01 -9.641918e-01 -1.141471e+00 8.304090e-01 3.539574e-01 -4.805154e-01 -4.208182e-01 -3.339289e-01 -4.633026e-01 -3.858003e-01 -5.082656e-01 2.269715e-01 3.507927e-02 2.239851e-01 1.970797e-01 -5.065561e-02 4.801573e-01
<VARIANCE> 39
 3.054605e+01 2.536049e+01 5.025943e+01 5.318630e+01 5.670545e+01 5.850778e+01 5.884261e+01 4.198729e+01 4.121890e+01 2.977732e+01 3.961000e+01 3.133848e+01 1.892243e+01 2.573340e+00 2.727404e+00 3.113908e+00 3.260959e+00 4.763821e+00 5.414938e+00 5.604080e+00 4.547049e+00 5.548082e+00 3.720814e+00 5.441986e+00 3.224559e+00 1.941938e+00 4.743554e-01 5.708086e-01 3.700135e-01 4.812746e-01 7.382694e-01 7.280067e-01 8.117020e-01 7.704076e-01 8.832715e-01 6.127524e-01 7.235025e-01 6.258180e-01 3.046601e-01
<GCONST> 1.299103e+02
<TRANSP> 5
 0.000000e+00 1.000000e+00 0.000000e+00 0.000000e+00 0.000000e+00
 0.000000e+00 7.480928e-01 2.519073e-01 0.000000e+00 0.000000e+00
 0.000000e+00 0.000000e+00 7.038415e-01 2.961585e-01 0.000000e+00
 0.000000e+00 0.000000e+00 0.000000e+00 6.797343e-01 3.202657e-01
 0.000000e+00 0.000000e+00 0.000000e+00 0.000000e+00 0.000000e+00
<ENDHMM>
~h "l"
<BEGINHMM>
<NUMSTATES> 5
<STATE> 2
<NUMMIXES> 2
<MIXTURE> 1 6.612265e-01
<MEAN> 39
 -1.300440e+00 -5.029788e+00 -1.267119e+01 -2.552351e+01 -9.228634e+00 4.278563e+00 -5.269346e+00 -6.965249e+00 -6.032035e-01 -1.582634e+00 -1.108591e-01 -2.353709e+00 5.926349e+01 1.631157e-01 1.085459e+00 5.370698e-02 -3.412941e-01 -4.958900e-04 2.249716e-01 2.483306e-01 -1.852983e-01 -6.600832e-01 -3.471049e-01 3.178478e-01 5.105600e-01 -9.315141e-01 -1.172564e-01 -1.227061e-01 7.498859e-02 3.944218e-01 2.586545e-02 -2.339342e-01 -1.118050e-03 1.518111e-01 2.557013e-02 -4.651731e-02 -1.229240e-01 -1.847542e-02 -2.177481e-02
<VARIANCE> 39
 9.575107e+00 5.694258e+01 4.092999e+01 5.008284e+01 8.099278e+01 5.633479e+01 1.007829e+02 8.066209e+01 5.510854e+01 7.248358e+01 5.248405e+01 4.991508e+01 4.525211e+01 4.536072e-01 1.401600e+00 1.110286e+00 3.501893e+00 2.319665e+00 2.784534e+00 2.427219e+00 2.902165e+00 2.230748e+00 2.622772e+00 2.652092e+00 2.725417e+00 5.452881e-01 2.000000e-01 2.153042e-01 2.000000e-01 3.077906e-01 4.058659e-01 3.670295e-01 3.737764e-01 4.551293e-01 4.025144e-01 4.376739e-01 3.600748e-01 4.765217e-01 2.000000e-01
<GCONST> 1.161528e+02
<MIXTURE> 2 3.387732e-01
<MEAN> 39
 -4.896680e+00 4.132439e-01 -9.393319e+00 -1.632664e+01 -6.448792e+00 -1.616825e+00 -6.388754e+00 -6.180429e+00 -4.863188e+00 -2.470480e+00 -3.247499e+00 -2.283953e+00 5.255595e+01 1.685827e+00 7.120429e-01 -3.151305e-01 -1.655312e+00 -3.456622e-01 5.530536e-01 -1.260519e+00 -1.073218e+00 -9.323173e-01 -1.285356e-01 3.306525e-01 -2.885303e-01 5.774890e-01 -3.675579e-01 -4.713092e-01 -4.540069e-02 -4.085777e-02 -4.213042e-02 6.825352e-02 -1.346902e-02 2.240054e-01 8.277228e-02 1.216991e-01 2.518292e-01 1.403716e-02 2.421708e-02
<VARIANCE> 39
 2.007251e+01 4.654359e+01 4.584643e+01 5.803648e+01 5.644200e+01 5.318362e+01 9.940238e+01 5.957634e+01 4.379023e+01 5.312288e+01 4.705877e+01 2.767021e+01 6.201985e+01 6.102794e+00 2.902763e+00 3.196545e+00 8.918200e+00 6.867728e+00 5.636080e+00 5.161555e+00 4.089583e+00 4.315066e+00 4.215121e+00 4.053692e+00 3.095890e+00 5.343143e+00 4.496813e-01 4.830316e-01 4.849002e-01 7.809098e-01 6.907578e-01 6.268734e-01 7.773551e-01 6.624853e-01 7.232220e-01 6.904347e-01 6.026612e-01 4.856090e-01 3.571388e-01
<GCONST> 1.352331e+02
<STATE> 3
<NUMMIXES> 2
<MIXTURE> 1 5.629776e-01
<MEAN> 39
 -1.502149e+00 -2.118335e-01 -9.219088e+00 -2.544803e+01 -1.033757e+01 2.717222e+00 -8.648273e+00 -6.759498e+00 -5.845286e+00 -3.286363e+00 1.695340e+00 -6.884914e-01 5.784093e+01 -9.300119e-02 -1.465305e+00 -4.404832e-01 -2.660939e-01 6.554374e-01 5.206010e-01 -7.085002e-01 1.826075e-01 7.342284e-01 9.124954e-01 3.164441e-01 -5.536852e-01 1.166559e+00 -3.720455e-01 -5.404953e-01 9.646763e-03 6.695146e-01 3.298315e-01 -2.100612e-01 -5.732939e-02 2.462418e-01 5.176709e-01 3.696665e-01 -3.583258e-01 -3.768576e-01 6.491306e-02
<VARIANCE> 39
 9.655770e+00 3.895830e+01 3.594918e+01 6.422640e+01 6.148346e+01 5.532058e+01 7.194055e+01 7.799738e+01 6.304095e+01 6.207016e+01 6.052294e+01 3.896803e+01 3.134131e+01 1.043026e+00 2.547551e+00 1.555260e+00 4.250199e+00 2.885908e+00 3.629502e+00 3.681504e+00 3.107920e+00 3.778403e+00 4.683683e+00 2.886996e+00 2.996626e+00 1.639276e+00 3.617612e-01 3.599503e-01 3.449780e-01 6.644036e-01 6.992027e-01 7.325275e-01 6.766362e-01 7.838261e-01 8.292751e-01 8.429956e-01 7.087793e-01 5.117834e-01 2.451722e-01
<GCONST> 1.271836e+02
<MIXTURE> 2 4.370219e-01
<MEAN> 39
 -2.857959e+00 1.611546e+00 -1.107011e+01 -1.853162e+01 -5.328006e+00 -4.187181e+00 -1.072422e+01 -9.028059e+00 -7.263865e+00 -1.597936e+00 -1.599870e+00 -3.210661e+00 5.411758e+01 1.803523e-01 -1.065881e+00 -3.371513e-01 -4.107811e-01 5.483668e-02 -2.756987e-01 -8.219451e-01 3.096188e-01 5.070617e-01 5.732450e-01 -1.810934e-01 -5.737008e-01 1.182255e+00 -6.041237e-01 -6.344397e-01 1.347394e-01 3.654190e-01 -1.669143e-02 1.383969e-01 3.160457e-01 7.475464e-01 5.827439e-01 -2.419845e-02 -1.995238e-01 5.222447e-02 3.668632e-02
<VARIANCE> 39
 1.253858e+01 2.814177e+01 3.992182e+01 5.587369e+01 4.765361e+01 8.510335e+01 8.796485e+01 6.309797e+01 5.172360e+01 5.536561e+01 5.653922e+01 2.826414e+01 3.592792e+01 3.335701e+00 3.029529e+00 2.805526e+00 8.928521e+00 4.347672e+00 4.348681e+00 3.879320e+00 4.876367e+00 5.161108e+00 3.448202e+00 3.181147e+00 2.435940e+00 4.057259e+00 5.187157e-01 3.662579e-01 3.487829e-01 7.103097e-01 7.959502e-01 8.394531e-01 7.830908e-01 7.906515e-01 6.595834e-01 6.534214e-01 6.553786e-01 4.806195e-01 3.384057e-01
<GCONST> 1.318220e+02
<STATE> 4
<NUMMIXES> 2
<MIXTURE> 1 6.021988e-01
<MEAN> 39
 -3.117380e+00 -1.141179e+01 -8.388816e+00 -1.861061e+01 -8.425879e+00 -1.767739e+00 -1.408989e+01 -2.493729e+00 3.367923e+00 3.209807e+00 -2.909256e+00 -7.955459e+00 6.442986e+01 -3.441317e-01 -1.463457e+00 8.572149e-01 1.337185e+00 -7.887570e-01 -1.400944e+00 6.549136e-02 2.086961e+00 1.036976e+00 -7.300341e-01 -1.313861e+00 1.116162e-02 5.828735e-01 -4.565514e-02 4.500751e-01 2.785577e-01 9.828024e-02 -2.793716e-01 -1.214985e-01 4.705043e-01 -6.784210e-02 -6.831557e-01 -5.599940e-01 3.065662e-01 5.298950e-01 -3.714591e-01
<VARIANCE> 39
 8.378766e+00 3.999973e+01 5.112494e+01 5.875088e+01 5.181890e+01 8.757322e+01 7.538386e+01 9.251712e+01 4.823972e+01 5.899453e+01 7.562359e+01 4.954400e+01 2.449236e+01 4.226614e-01 2.207672e+00 2.276598e+00 2.362171e+00 3.250935e+00 3.917262e+00 4.164524e+00 3.735425e+00 4.957512e+00 4.835271e+00 4.628042e+00 4.453053e+00 1.023567e+00 2.000000e-01 2.566371e-01 2.565389e-01 3.791125e-01 4.618565e-01 6.665776e-01 5.723867e-01 7.628440e-01 6.998875e-01 7.557563e-01 8.492870e-01 4.879076e-01 2.000000e-01
<GCONST> 1.248439e+02
<MIXTURE> 2 3.978002e-01
<MEAN> 39
 -5.773943e+00 -6.655787e+00 -1.104000e+01 -1.629164e+01 -4.529269e+00 -4.558024e+00 -9.585910e+00 -9.387072e-01 -1.471149e+00 -2.771318e+00 -5.424282e+00 -3.646091e+00 5.708882e+01 -1.022026e+00 -1.331150e+00 8.172741e-01 1.200316e+00 -6.050274e-01 -6.133102e-01 8.254086e-01 1.453167e+00 6.289849e-02 -4.527950e-01 -2.204186e-01 3.004841e-01 2.040528e-01 -6.192210e-02 1.907745e-01 2.179466e-01 -8.034941e-02 -2.875896e-01 1.402679e-01 2.852998e-01 -1.636416e-01 -3.203346e-01 1.826906e-02 2.634608e-01 9.272242e-02 -1.825493e-01
<VARIANCE> 39
 1.451389e+01 4.036903e+01 6.024007e+01 5.908588e+01 7.497822e+01 8.738798e+01 8.532844e+01 7.413700e+01 5.243531e+01 6.370741e+01 6.058197e+01 5.097425e+01 8.339349e+01 2.033688e+00 3.079888e+00 3.404584e+00 5.505168e+00 6.857280e+00 4.722837e+00 4.482111e+00 5.208114e+00 6.151161e+00 4.858870e+00 4.650800e+00 3.657109e+00 3.052114e+00 2.005979e-01 4.010973e-01 3.955353e-01 5.858422e-01 6.740015e-01 6.761898e-01 6.498383e-01 1.130307e+00 7.811152e-01 8.233988e-01 6.802885e-01 6.387324e-01 2.000000e-01
<GCONST> 1.351202e+02
<TRANSP> 5
 0.000000e+00 1.000000e+00 0.000000e+00 0.000000e+00 0.000000e+00
 0.000000e+00 7.351114e-01 2.648886e-01 0.000000e+00 0.000000e+00
 0.000000e+00 0.000000e+00 7.055085e-01 2.944915e-01 0.000000e+00
 0.000000e+00 0.000000e+00 0.000000e+00 7.023724e-01 2.976276e-01
 0.000000e+00 0.000000e+00 0.000000e+00 0.000000e+00 0.000000e+00
<ENDHMM>
~h "m"
<BEGINHMM>
<NUMSTATES> 5
<STATE> 2
<NUMMIXES> 2
<MIXTURE> 1 6.095414e-01
<MEAN> 39
 -4.550519e+00 -3.961479e+00 -8.131731e-01 -6.706681e-01 -5.852083e+00 -7.182624e+00 -8.760632e+00 -9.860402e+00 -1.125176e+01 -1.988578e+00 6.927922e-01 -7.346855e+00 5.113788e+01 -2.883434e-01 6.019843e-01 3.680594e-01 5.273185e-01 2.725893e-01 -1.430015e-01 1.905626e-01 -3.479109e-01 -5.632681e-01 -1.409491e-01 -3.748315e-02 1.714000e-01 -6.675779e-01 2.766037e-02 -2.014777e-01 -2.984064e-01 -4.535113e-01 -2.039429e-01 1.805850e-01 7.444825e-03 4.792304e-01 6.467423e-01 -1.292285e-01 -3.010425e-01 1.966969e-01 2.081974e-01
<VARIANCE> 39
 5.948442e+00 2.699303e+01 2.673252e+01 4.510501e+01 4.410931e+01 7.708227e+01 5.735157e+01 6.626390e+01 5.877020e+01 4.838146e+01 5.163644e+01 4.098623e+01 2.291709e+01 3.576263e-01 9.184666e-01 1.495155e+00 1.588145e+00 1.178705e+00 1.365318e+00 1.328732e+00 2.401613e+00 3.405754e+00 1.445224e+00 1.653023e+00 1.449978e+00 7.513546e-01 2.000000e-01 2.000000e-01 3.359377e-01 3.673993e-01 3.558514e-01 3.090137e-01 3.020238e-01 4.859758e-01 6.178713e-01 3.536688e-01 4.087626e-01 3.376132e-01 2.000000e-01
<GCONST> 1.079887e+02
<MIXTURE> 2 3.904530e-01
<MEAN> 39
 -5.014096e+00 -2.461524e+00 -1.503039e+00 -2.362435e+00 -8.295930e+00 -1.250616e+01 -9.765075e+00 -8.873445e+00 -1.232930e+01 -1.216652e+00 -6.964572e+00 -8.506814e+00 4.979160e+01 6.014054e-03 4.215090e-01 4.582665e-01 5.916250e-01 -8.504708e-02 -3.920509e-01 -1.255334e-01 -7.543117e-01 -7.707269e-01 1.407935e-01 7.477656e-02 -3.986928e-01 -2.594870e-01 -2.744275e-01 -4.465465e-01 -2.988389e-01 -6.064269e-01 -2.157047e-02 4.941484e-01 1.494355e-01 6.265377e-01 6.209369e-01 -3.394774e-01 2.030117e-01 4.544892e-01 2.846422e-01
<VARIANCE> 39
 7.810337e+00 2.623077e+01 2.785775e+01 4.533942e+01 6.374103e+01 7.704582e+01 7.530540e+01 5.366597e+01 5.614828e+01 5.906732e+01 9.080201e+01 5.214659e+01 2.443501e+01 1.709741e+00 2.485451e+00 2.273774e+00 3.770392e+00 2.624694e+00 3.158983e+00 2.874897e+00 3.552758e+00 4.042470e+00 3.923042e+00 3.291856e+00 3.022663e+00 4.428160e+00 2.573686e-01 2.949273e-01 4.302926e-01 5.451283e-01 6.260470e-01 5.327284e-01 6.012210e-01 6.390936e-01 7.205498e-01 7.290322e-01 7.910011e-01 6.200330e-01 3.884485e-01
<GCONST> 1.269089e+02
<STATE> 3
<NUMMIXES> 2
<MIXTURE> 1 4.668834e-01
<MEAN> 39
 -1.222908e+01 -9.790372e-01 -4.149839e+00 -1.436377e+00 -4.595824e+00 -5.148933e+00 -3.806571e+00 -5.105178e+00 -5.566513e+00 -2.730390e+00 -2.639594e+00 -2.974564e+00 3.985178e+01 -1.079530e+00 -1.323511e-02 -1.156990e-01 -1.719090e-01 4.879040e-01 7.888826e-01 4.303954e-01 1.011827e+00 8.056962e-01 5.935212e-02 1.262267e-01 5.305334e-01 -1.065906e+00 -4.689461e-02 -3.357851e-01 -1.124875e-01 -2.597732e-01 -9.106233e-02 1.669421e-01 1.789678e-03 1.774913e-01 2.029668e-01 8.673429e-02 1.496078e-02 2.359074e-03 2.886735e-01
<VARIANCE> 39
 4.853111e+01 2.518266e+01 3.782149e+01 3.922103e+01 4.023272e+01 5.065003e+01 4.640385e+01 5.606415e+01 5.876286e+01 4.314567e+01 3.509243e+01 2.971061e+01 6.014067e+01 2.203846e+00 1.721354e+00 3.015634e+00 3.766995e+00 3.644519e+00 3.071126e+00 3.266145e+00 3.416523e+00 3.562181e+00 3.382863e+00 3.092994e+00 2.714318e+00 3.353002e+00 3.995121e-01 3.782896e-01 5.512124e-01 7.379774e-01 5.842349e-01 5.265381e-01 5.672807e-01 6.908793e-01 6.455302e-01 6.063209e-01 5.236824e-01 4.744379e-01 5.137725e-01
<GCONST> 1.269718e+02
<MIXTURE> 2 5.331181e-01
<MEAN> 39
 -7.195809e+00 -5.766862e+00 -4.749061e+00 -3.923679e+00 -3.694140e+00 -4.529048e+00 -7.249146e+00 -4.637651e+00 -8.049772e+00 -5.933069e+00 -3.233756e+00 -4.984252e+00 4.899433e+01 -3.090316e-01 -1.027431e+00 -9.110704e-01 -1.418048e+00 -6.711049e-01 4.164963e-01 2.244800e-01 1.057360e+00 1.291888e+00 -4.414624e-01 -2.104504e-01 6.736276e-01 5.909092e-01 -1.509733e-01 -1.866295e-01 -5.276250e-02 -3.745804e-01 -3.409612e-01 7.032420e-02 1.008857e-01 3.604711e-01 3.846850e-01 1.592702e-01 1.091391e-02 1.882470e-01 1.153295e-01
<VARIANCE> 39
 2.486849e+01 2.864191e+01 4.654991e+01 4.468974e+01 5.452438e+01 8.693439e+01 7.289071e+01 7.891739e+01 9.958855e+01 6.951140e+01 6.604169e+01 4.836534e+01 4.246578e+01 1.278058e+00 1.980960e+00 2.845993e+00 3.726344e+00 3.660751e+00 3.860765e+00 3.605357e+00 3.922042e+00 5.816153e+00 3.923721e+00 4.211744e+00 3.356451e+00 3.844608e+00 2.508970e-01 3.813256e-01 6.135394e-01 8.022724e-01 6.225879e-01 7.025079e-01 6.325567e-01 8.545931e-01 1.120968e+00 6.559909e-01 7.893498e-01 6.145071e-01 3.679573e-01
<GCONST> 1.328499e+02
<STATE> 4
<NUMMIXES> 2
<MIXTURE> 1 6.025836e-01
<MEAN> 39
 -6.500539e+00 -6.571870e+00 -3.394601e+00 -6.882637e+00 -9.912640e+00 -8.001438e+00 -8.007095e+00 -4.050143e+00 -6.025054e+00 -4.285203e+00 -3.117287e+00 -3.839846e+00 5.261049e+01 -8.177879e-01 -1.469227e+00 -4.413242e-01 -2.479451e+00 -1.672977e+00 1.305422e+00 9.087951e-01 2.351958e+00 2.125374e+00 -1.034280e-01 1.527114e-03 1.512341e+00 1.217892e+00 -1.478023e-01 4.767473e-02 2.163735e-01 1.465860e-02 6.246064e-02 2.864249e-01 1.824860e-01 -9.020654e-03 -3.119594e-01 2.937368e-01 7.539266e-02 -1.565933e-01 -3.501756e-02
<VARIANCE> 39
 2.381448e+01 4.374390e+01 4.380974e+01 5.946382e+01 6.802474e+01 6.689859e+01 5.352848e+01 6.396091e+01 6.752443e+01 4.114839e+01 4.554519e+01 4.198699e+01 8.015241e+01 2.709099e+00 3.145606e+00 7.166045e+00 7.519146e+00 7.957100e+00 5.402953e+00 4.737558e+00 5.369631e+00 6.436520e+00 5.471372e+00 6.339584e+00 4.782468e+00 6.786322e+00 2.000000e-01 4.819456e-01 4.721300e-01 6.715828e-01 8.052369e-01 5.860742e-01 6.110962e-01 8.839388e-01 9.340701e-01 5.838743e-01 6.411075e-01 6.368472e-01 4.455363e-01
<GCONST> 1.377719e+02
<MIXTURE> 2 3.974163e-01
<MEAN> 39
 -1.229921e+01 -5.903475e+00 -4.822279e+00 -8.119176e+00 -8.416596e+00 -4.588024e+00 -4.371081e+00 -2.849704e+00 -3.931365e+00 -1.324605e+00 -2.362490e+00 -3.321558e+00 4.668988e+01 -4.428256e-01 -7.731597e-01 -2.178173e-01 -1.684120e+00 -5.363920e-01 1.125422e+00 4.961298e-01 1.179369e+00 1.358584e+00 -5.141803e-02 -2.617389e-01 3.793963e-01 8.515071e-01 2.787786e-01 2.116482e-02 1.911472e-01 -1.203829e-01 -9.848691e-02 -1.009163e-01 -2.049205e-01 -1.931683e-01 -2.838732e-01 -2.635032e-02 -1.752327e-01 -1.533899e-01 4.698483e-01
<VARIANCE> 39
 6.447401e+01 4.869538e+01 6.062452e+01 7.713436e+01 6.565094e+01 6.042825e+01 7.529549e+01 6.184824e+01 7.261919e+01 5.954974e+01 4.999480e+01 4.045606e+01 1.381247e+02 4.372975e+00 5.856923e+00 6.409239e+00 9.095229e+00 6.787889e+00 5.862390e+00 5.691803e+00 7.561596e+00 7.801908e+00 5.355396e+00 5.580289e+00 4.196901e+00 1.246840e+01 8.608115e-01 9.652016e-01 1.126455e+00 1.758035e+00 1.207770e+00 8.542731e-01 1.056569e+00 1.073550e+00 1.094826e+00 1.006515e+00 9.853737e-01 6.892661e-01 2.222837e+00
<GCONST> 1.511514e+02
<TRANSP> 5
 0.000000e+00 1.000000e+00 0.000000e+00 0.000000e+00 0.000000e+00
 0.000000e+00 8.034069e-01 1.965931e-01 0.000000e+00 0.000000e+00
 0.000000e+00 0.000000e+00 6.273856e-01 3.726144e-01 0.000000e+00
 0.000000e+00 0.000000e+00 0.000000e+00 4.872825e-01 5.127175e-01
 0.000000e+00 0.000000e+00 0.000000e+00 0.000000e+00 0.000000e+00
<ENDHMM>
~h "n"
<BEGINHMM>
<NUMSTATES> 5
<STATE> 2
<NUMMIXES> 2
<MIXTURE> 1 5.310630e-01
<MEAN> 39
 -4.050311e+00 -2.716604e+00 -1.341536e-03 -1.238379e+00 -1.039122e+01 -7.846295e+00 -3.328911e+00 -8.401525e+00 -8.578540e+00 7.891222e-01 -5.725231e+00 -6.708880e+00 5.004327e+01 -1.809056e-01 1.201743e+00 2.913587e-01 8.845094e-01 2.485673e-01 -3.157843e-02 9.620759e-01 -1.446710e+00 -7.260669e-01 4.952293e-01 -4.390912e-01 1.750398e-01 -1.313553e+00 -1.693530e-01 -2.379959e-01 -1.032686e-01 -4.067410e-01 5.883290e-03 1.856608e-01 -2.799907e-01 7.324284e-01 4.480586e-01 -4.562342e-01 8.706482e-02 2.524467e-01 2.883506e-01
<VARIANCE> 39
 7.111163e+00 2.415716e+01 2.352173e+01 3.469962e+01 3.865343e+01 4.321378e+01 5.552706e+01 6.410363e+01 5.049340e+01 4.230018e+01 3.795607e+01 4.808654e+01 1.890058e+01 3.980357e-01 1.249079e+00 1.935808e+00 2.331255e+00 2.098656e+00 2.118273e+00 3.057395e+00 6.022494e+00 3.361326e+00 3.000269e+00 2.083285e+00 2.023609e+00 9.421268e-01 2.000000e-01 2.224271e-01 3.063115e-01 3.996719e-01 4.097908e-01 4.034195e-01 4.741763e-01 6.750109e-01 5.173304e-01 4.353262e-01 3.758810e-01 3.583522e-01 2.024614e-01
<GCONST> 1.129002e+02
<MIXTURE> 2 4.689230e-01
<MEAN> 39
 -4.851935e+00 -8.097075e-01 -1.646025e+00 -5.949936e+00 -1.356247e+01 -8.565181e+00 -3.679980e+00 -1.105490e+01 -1.093175e+01 -3.844849e+00 -7.666733e+00 -8.598659e-01 4.857638e+01 -1.045111e-01 7.097160e-01 1.677480e-01 5.149336e-01 2.037167e-01 3.017151e-01 -3.890510e-02 -5.894668e-01 -1.081340e-01 -2.479526e-01 -8.178673e-02 -1.288295e-01 -8.772128e-01 -2.270797e-01 -2.605144e-01 -2.155952e-02 -2.255100e-01 2.453931e-01 5.483540e-02 -1.224886e-01 6.779095e-01 1.586131e-01 -1.200860e-01 1.618136e-01 -1.061411e-01 1.884808e-01
<VARIANCE> 39
 8.297443e+00 2.006336e+01 2.593460e+01 4.458540e+01 4.942816e+01 4.847358e+01 4.965902e+01 6.081883e+01 5.479932e+01 5.772611e+01 5.170845e+01 4.816888e+01 2.063404e+01 5.377045e-01 1.094850e+00 1.017647e+00 1.526757e+00 1.881223e+00 1.894641e+00 1.588503e+00 3.858921e+00 2.034724e+00 1.954879e+00 1.671273e+00 1.531822e+00 1.088760e+00 2.000000e-01 2.274744e-01 2.691027e-01 4.039948e-01 3.986835e-01 4.717169e-01 4.113474e-01 6.936467e-01 5.162314e-01 4.498946e-01 4.193772e-01 3.580248e-01 2.214111e-01
<GCONST> 1.108490e+02
<STATE> 3
<NUMMIXES> 2
<MIXTURE> 1 5.456151e-01
<MEAN> 39
 -1.137124e+01 6.756179e-01 -1.473881e+00 3.836948e-02 -5.000427e+00 -4.764124e+00 -1.784764e+00 -4.318802e+00 -5.061090e+00 -2.307482e+00 -5.146889e+00 -2.050488e+00 3.924158e+01 -1.008528e+00 -4.504846e-02 -2.145779e-02 1.030107e-01 7.908933e-01 6.919932e-01 2.030776e-01 8.759264e-01 5.639309e-01 -2.120963e-01 3.771882e-01 3.275000e-01 -9.101810e-01 -1.368269e-01 -3.645874e-01 -1.759772e-01 -3.002515e-01 -1.039805e-01 5.055255e-02 -2.600774e-02 1.836288e-01 1.329906e-01 5.508633e-02 9.512096e-02 2.616086e-02 2.028288e-01
<VARIANCE> 39
 3.956183e+01 1.891504e+01 2.737710e+01 2.638437e+01 2.709342e+01 3.157347e+01 3.658038e+01 4.683131e+01 4.372482e+01 3.796754e+01 3.440683e+01 2.735625e+01 4.039165e+01 1.118754e+00 1.523476e+00 1.456143e+00 2.205885e+00 2.274346e+00 2.258499e+00 2.649323e+00 2.865948e+00 2.588885e+00 2.705558e+00 2.182330e+00 2.180605e+00 1.430482e+00 2.218401e-01 3.127774e-01 3.047607e-01 3.747571e-01 3.725281e-01 3.623924e-01 4.398410e-01 4.532933e-01 4.497539e-01 4.235156e-01 3.930959e-01 3.378289e-01 2.000000e-01
<GCONST> 1.125246e+02
<MIXTURE> 2 4.543758e-01
<MEAN> 39
 -9.899741e+00 -4.287323e+00 -4.073141e+00 -4.175841e+00 -7.201973e+00 -5.435064e+00 -3.283125e+00 -2.484139e+00 -5.480028e+00 -4.945205e+00 -6.001554e+00 -1.630798e+00 4.517107e+01 -6.829379e-01 -4.299058e-01 -4.098564e-01 -4.708437e-01 2.655129e-01 1.008846e-01 -2.937254e-01 8.248012e-01 3.842386e-01 -3.854605e-01 1.712885e-01 1.181138e-01 -3.375220e-01 -1.587467e-01 -1.224389e-01 4.101317e-02 -1.890868e-01 -7.948440e-02 6.805691e-02 -1.061562e-01 1.618208e-01 1.898488e-01 5.300767e-02 1.202144e-01 4.071588e-02 1.327512e-01
<VARIANCE> 39
 3.615968e+01 3.246506e+01 3.714634e+01 4.014987e+01 5.483270e+01 5.120401e+01 5.098653e+01 9.151148e+01 7.645541e+01 6.590865e+01 5.150679e+01 4.490682e+01 5.860311e+01 1.100986e+00 2.085581e+00 2.155955e+00 3.022360e+00 3.013428e+00 2.846615e+00 3.099511e+00 5.381458e+00 3.579714e+00 3.252727e+00 2.834075e+00 2.524157e+00 2.356650e+00 2.990151e-01 4.959767e-01 4.734218e-01 7.921186e-01 6.663130e-01 7.111001e-01 6.837454e-01 1.300647e+00 8.784098e-01 7.644749e-01 6.235605e-01 5.363830e-01 4.953033e-01
<GCONST> 1.297820e+02
<STATE> 4
<NUMMIXES> 2
<MIXTURE> 1 5.167647e-01
<MEAN> 39
 -1.218948e+01 9.258820e-02 -1.990021e+00 -2.671755e+00 -6.208548e+00 -5.195790e+00 -3.757884e+00 -4.566212e+00 -6.727190e+00 -4.026214e+00 -4.544377e+00 -2.631842e+00 4.072424e+01 -2.074086e+00 -8.333763e-01 -3.538079e-01 -5.207069e-01 9.853942e-01 1.061114e+00 2.105779e-01 1.300390e+00 1.268036e+00 2.751660e-01 8.716285e-01 4.252762e-01 -5.305201e-01 -1.019320e-01 -4.351095e-01 -9.345739e-02 -4.331541e-01 -3.081878e-01 2.471602e-02 7.382382e-02 9.083557e-02 2.597427e-01 2.586770e-01 7.506588e-02 8.581597e-02 7.788973e-01
<VARIANCE> 39
 4.664196e+01 3.149824e+01 2.861269e+01 3.463909e+01 4.301267e+01 3.656063e+01 4.124284e+01 5.711880e+01 5.660713e+01 4.855266e+01 3.682165e+01 3.077436e+01 5.324116e+01 4.003227e+00 3.756253e+00 3.872777e+00 5.350865e+00 5.686515e+00 4.191202e+00 4.736242e+00 5.476062e+00 4.791506e+00 5.080789e+00 3.731171e+00 3.412141e+00 6.406726e+00 8.262416e-01 6.692938e-01 6.008386e-01 7.790187e-01 7.989137e-01 7.034826e-01 7.705466e-01 8.704117e-01 8.826840e-01 7.849680e-01 6.082019e-01 5.266140e-01 9.821928e-01
<GCONST> 1.358315e+02
<MIXTURE> 2 4.832309e-01
<MEAN> 39
 -1.154421e+01 -6.917675e+00 -2.521186e+00 -8.422523e+00 -1.019125e+01 -5.905703e+00 -5.612710e+00 -3.038084e-01 -3.680538e+00 -3.147838e+00 -3.718560e+00 -1.452007e+00 4.928479e+01 -6.023135e-01 -1.026243e+00 -3.622386e-01 -1.343997e+00 -4.000368e-01 3.963734e-01 -3.681046e-01 1.496731e+00 1.208594e+00 -2.459894e-01 1.295677e-01 3.118887e-01 8.458817e-01 1.754922e-01 2.486763e-01 -1.709757e-02 2.092580e-01 1.586530e-02 8.099611e-02 1.368580e-01 -3.527634e-01 -1.494461e-01 4.964073e-02 -1.775315e-01 -1.307635e-01 -1.158144e-01
<VARIANCE> 39
 4.671167e+01 3.546161e+01 4.758594e+01 5.608326e+01 7.247446e+01 5.314982e+01 6.586073e+01 7.323149e+01 7.522786e+01 5.214104e+01 4.304462e+01 4.129252e+01 9.872144e+01 2.790771e+00 3.750884e+00 5.225716e+00 5.485288e+00 5.831748e+00 4.918439e+00 5.044958e+00 8.271049e+00 5.999558e+00 4.691427e+00 4.021202e+00 3.798376e+00 7.864067e+00 4.556524e-01 6.157654e-01 7.244968e-01 1.097950e+00 1.136555e+00 9.055502e-01 8.870338e-01 1.304793e+00 9.638920e-01 7.575160e-01 6.699529e-01 6.531348e-01 1.166498e+00
<GCONST> 1.426718e+02
<TRANSP> 5
 0.000000e+00 1.000000e+00 0.000000e+00 0.000000e+00 0.000000e+00
 0.000000e+00 7.961327e-01 2.038673e-01 0.000000e+00 0.000000e+00
 0.000000e+00 0.000000e+00 7.064500e-01 2.935500e-01 0.000000e+00
 0.000000e+00 0.000000e+00 0.000000e+00 5.914551e-01 4.085449e-01
 0.000000e+00 0.000000e+00 0.000000e+00 0.000000e+00 0.000000e+00
<ENDHMM>
~h "p"
<BEGINHMM>
<NUMSTATES> 5
<STATE> 2
<NUMMIXES> 2
<MIXTURE> 1 4.183642e-01
<MEAN> 39
 -1.953108e+01 -4.166582e-01 -4.407494e+00 -1.716082e-02 -2.333667e+00 -5.723941e-01 -2.249500e+00 -1.167993e+00 -2.083558e+00 -8.995651e-01 -1.287596e+00 -7.552645e-01 3.110474e+01 -1.150612e+00 -1.275105e+00 -3.805674e-01 -2.956251e-01 5.496643e-02 8.796269e-02 9.024249e-01 1.240558e+00 1.273616e+00 8.464977e-01 6.228577e-01 7.420740e-01 1.254413e+00 7.587315e-01 -5.225571e-01 1.830789e-01 -7.004296e-01 -5.805571e-01 -4.605720e-01 -1.477650e-01 -5.351525e-02 -2.258202e-01 8.497182e-03 6.236455e-02 -9.469015e-02 1.869232e+00
<VARIANCE> 39
 9.621420e+00 9.846416e+00 1.059609e+01 9.511780e+00 1.082229e+01 1.184495e+01 1.283180e+01 1.465594e+01 1.547824e+01 1.453703e+01 1.377217e+01 1.278933e+01 2.318933e+01 6.357594e+00 2.316773e+00 3.574759e+00 3.336210e+00 2.927929e+00 4.176584e+00 2.661520e+00 2.838397e+00 2.979893e+00 2.358084e+00 2.495312e+00 1.914235e+00 2.375081e+01 5.611402e-01 5.175124e-01 6.201887e-01 5.407581e-01 5.223622e-01 5.673326e-01 5.284466e-01 6.106704e-01 5.514467e-01 5.015699e-01 4.585465e-01 3.670199e-01 1.087922e+00
<GCONST> 1.133790e+02
<MIXTURE> 2 5.816283e-01
<MEAN> 39
 -2.128195e+01 -1.792029e+00 -6.304442e+00 -1.035142e+00 -3.328384e+00 -7.420377e-01 -1.694091e+00 -2.372076e-01 -9.871100e-01 -1.816813e-01 -6.035168e-01 9.087478e-03 2.927427e+01 4.306697e-02 -2.986622e-01 -5.497831e-02 -1.864313e-01 -1.053409e-01 -2.034705e-01 -4.930922e-02 8.379136e-02 6.905648e-02 -3.125716e-02 -2.861399e-02 3.098773e-02 6.639668e-01 3.499078e-01 -8.468134e-02 2.395596e-01 -1.274272e-01 -5.513321e-02 -1.796077e-01 -1.904377e-02 -3.089155e-02 -4.908194e-02 -3.984454e-02 -5.066188e-02 -5.417794e-02 1.045651e+00
<VARIANCE> 39
 1.882843e+00 3.495287e+00 4.733776e+00 6.149934e+00 8.729382e+00 1.012614e+01 1.136401e+01 1.231487e+01 1.191196e+01 1.262906e+01 1.151306e+01 1.027704e+01 9.819779e+00 5.948398e-01 7.417011e-01 8.392524e-01 1.054544e+00 1.074850e+00 1.381934e+00 1.331718e+00 1.528158e+00 1.478604e+00 1.496471e+00 1.352409e+00 1.250227e+00 5.008723e+00 2.168373e-01 2.000000e-01 2.328601e-01 2.401252e-01 2.588049e-01 3.280711e-01 3.308204e-01 3.747623e-01 3.744115e-01 3.606315e-01 3.212131e-01 2.812739e-01 1.225588e+00
<GCONST> 8.674464e+01
<STATE> 3
<NUMMIXES> 2
<MIXTURE> 1 5.123151e-01
<MEAN> 39
 -1.652891e+01 -6.770776e+00 -4.180609e+00 -3.325911e+00 -3.695520e+00 -5.328711e+00 -1.611608e+00 2.427099e+00 1.498188e+00 4.294394e-01 -7.719374e-01 5.808755e-01 5.042883e+01 1.285415e+00 -1.960384e+00 8.737845e-01 -1.065450e+00 -8.469267e-01 -1.159747e+00 5.780120e-01 6.068146e-01 -5.568854e-02 1.157075e-01 2.445012e-01 2.328039e-01 6.446381e+00 -6.490742e-02 2.131054e-01 7.331770e-02 -2.930436e-01 -3.603585e-01 2.806541e-01 -8.969963e-02 -5.321688e-01 -7.012107e-01 -1.690449e-01 -8.976101e-02 -2.373153e-01 -9.575365e-01
<VARIANCE> 39
 1.168839e+01 1.832756e+01 1.876989e+01 1.936363e+01 2.162829e+01 2.634338e+01 2.543130e+01 2.471534e+01 2.173366e+01 2.072366e+01 1.988462e+01 1.816565e+01 6.759054e+01 1.807546e+00 1.682603e+00 3.106543e+00 2.796135e+00 2.806645e+00 2.776657e+00 3.088763e+00 2.790106e+00 2.822033e+00 2.644132e+00 2.025974e+00 1.787672e+00 8.721631e+00 5.389172e-01 4.228097e-01 4.633518e-01 6.224068e-01 6.095703e-01 6.810260e-01 7.388569e-01 7.105716e-01 6.753784e-01 5.805087e-01 5.636331e-01 4.337797e-01 1.433346e+00
<GCONST> 1.186544e+02
<MIXTURE> 2 4.876812e-01
<MEAN> 39
 -1.731084e+01 -9.759373e+00 -1.478525e+00 -5.771983e+00 -7.019343e+00 -5.068862e+00 2.027675e+00 1.964230e+00 -1.763765e+00 1.055306e+00 1.253283e+00 1.161309e+00 5.667636e+01 -2.335713e-02 -9.983922e-01 6.194605e-01 -2.279681e+00 -1.284608e+00 2.637128e-01 2.351876e-01 -1.438458e+00 -1.200117e+00 1.110502e-01 -5.014064e-01 -4.983034e-01 2.723213e+00 -5.171114e-02 9.079508e-01 -1.086900e-01 -1.526039e-01 2.561277e-02 4.017177e-01 -6.973807e-01 -7.104141e-01 -2.402125e-01 -2.891066e-01 -4.973228e-01 -2.911236e-01 -1.982845e+00
<VARIANCE> 39
 1.327296e+01 1.641536e+01 3.161004e+01 2.214551e+01 2.659638e+01 2.816140e+01 2.720277e+01 2.607145e+01 2.829700e+01 2.429702e+01 1.923699e+01 1.659745e+01 1.899852e+01 2.703451e+00 2.404338e+00 3.058390e+00 3.787195e+00 3.448371e+00 2.915249e+00 3.702016e+00 3.110127e+00 3.978766e+00 2.911615e+00 2.899233e+00 2.208117e+00 1.114641e+01 3.804774e-01 3.782837e-01 5.013004e-01 5.193056e-01 5.616994e-01 6.279011e-01 7.389178e-01 6.748615e-01 6.925880e-01 6.274236e-01 6.076836e-01 4.183187e-01 8.294148e-01
<GCONST> 1.204165e+02
<STATE> 4
<NUMMIXES> 2
<MIXTURE> 1 5.848655e-01
<MEAN> 39
 -1.828477e+01 -7.676955e+00 -1.886607e+00 -1.052131e+01 -8.584458e+00 -3.701137e+00 -5.608665e-01 -2.525140e+00 -3.261332e+00 7.417326e-01 -1.999880e+00 -9.261629e-01 5.432601e+01 1.184133e+00 1.500328e+00 1.327853e+00 -3.159119e-01 -7.505947e-01 4.133107e-01 -7.526795e-01 -1.089887e+00 -7.173577e-01 -5.380656e-01 -2.522445e-01 -3.511800e-01 -3.358518e-01 6.183606e-01 3.370751e-01 4.605512e-01 4.682654e-01 -2.461912e-01 -1.493344e-01 -5.277219e-01 2.700630e-02 -7.508055e-02 -3.605195e-01 2.246203e-01 -4.842971e-02 -6.082736e-02
<VARIANCE> 39
 2.072316e+01 2.503597e+01 4.993523e+01 3.271555e+01 3.553808e+01 2.475613e+01 2.984827e+01 2.390490e+01 2.873830e+01 2.045207e+01 1.928717e+01 2.086473e+01 2.890870e+01 2.968786e+00 1.984627e+00 4.509772e+00 3.500313e+00 3.342865e+00 2.842757e+00 3.521818e+00 2.804284e+00 3.346313e+00 3.029141e+00 2.642786e+00 2.343744e+00 2.138545e+00 3.480578e-01 5.709529e-01 5.012446e-01 6.969712e-01 6.137359e-01 5.664602e-01 6.768184e-01 5.345795e-01 6.853718e-01 5.457161e-01 5.135905e-01 4.558605e-01 9.866959e-01
<GCONST> 1.212001e+02
<MIXTURE> 2 4.151320e-01
<MEAN> 39
 -1.571975e+01 -6.105096e+00 -1.071967e+00 -1.082493e+01 -6.208162e+00 -2.822236e+00 -1.876991e+00 -4.473392e+00 -2.992215e+00 -1.375055e+00 -3.170345e+00 -6.535109e-01 5.431474e+01 2.258345e+00 1.235611e+00 9.976681e-01 -1.941029e+00 -1.705157e+00 -6.777518e-01 -2.691670e+00 -2.073378e+00 -1.995559e+00 -1.607411e+00 -1.485318e+00 -9.338475e-01 9.598910e-01 2.897738e-01 1.800584e-01 2.111884e-02 -6.567736e-02 -4.591358e-01 -2.318703e-01 -5.181227e-01 2.258329e-01 -1.700375e-01 5.071423e-04 3.277991e-02 -7.400443e-02 -2.017585e-01
<VARIANCE> 39
 3.924243e+01 3.124869e+01 6.038803e+01 5.417429e+01 3.805059e+01 3.158232e+01 5.189100e+01 3.644897e+01 3.723423e+01 3.282878e+01 3.072548e+01 2.183007e+01 2.788725e+01 3.759661e+00 3.587194e+00 5.555560e+00 5.668553e+00 4.967449e+00 4.453166e+00 5.313436e+00 4.556529e+00 5.234563e+00 3.768990e+00 5.878350e+00 2.775490e+00 5.371840e+00 5.213907e-01 5.754643e-01 4.284824e-01 6.731089e-01 5.847000e-01 6.398657e-01 8.732280e-01 7.444420e-01 7.927359e-01 7.750806e-01 7.184333e-01 5.065632e-01 1.419511e+00
<GCONST> 1.332451e+02
<TRANSP> 5
 0.000000e+00 1.000000e+00 0.000000e+00 0.000000e+00 0.000000e+00
 0.000000e+00 8.278854e-01 1.721147e-01 0.000000e+00 0.000000e+00
 0.000000e+00 0.000000e+00 6.463539e-01 3.536461e-01 0.000000e+00
 0.000000e+00 0.000000e+00 0.000000e+00 6.318265e-01 3.681735e-01
 0.000000e+00 0.000000e+00 0.000000e+00 0.000000e+00 0.000000e+00
<ENDHMM>
~h "r"
<BEGINHMM>
<NUMSTATES> 5
<STATE> 2
<NUMMIXES> 2
<MIXTURE> 1 5.611376e-01
<MEAN> 39
 4.046144e+00 -1.163932e+01 -1.983304e+01 -7.115081e+00 -3.090724e+00 -8.744778e+00 -2.179384e+01 2.470744e+00 4.434696e+00 -3.062837e+00 9.559710e-02 -7.370049e-01 5.920900e+01 -1.030471e-01 -6.528786e-01 8.080388e-01 7.579525e-01 -6.671826e-01 -1.303399e+00 -6.877401e-01 1.077190e+00 4.366490e-01 -2.246818e-01 -6.910715e-02 1.260211e-01 2.065693e-01 -5.113518e-01 -7.976945e-02 7.227056e-01 6.908839e-02 -5.043545e-01 -5.372521e-02 8.784556e-01 2.724330e-01 -4.639924e-01 -1.756141e-01 1.079415e-01 -3.549315e-03 -8.308516e-02
<VARIANCE> 39
 7.193121e+00 3.728189e+01 4.876750e+01 4.322469e+01 5.536675e+01 7.373512e+01 8.530109e+01 1.229494e+02 7.753480e+01 4.788178e+01 3.885710e+01 3.668818e+01 2.401730e+01 1.615870e+00 1.976332e+00 3.847685e+00 2.265846e+00 3.215757e+00 3.829518e+00 5.930465e+00 4.757504e+00 3.566962e+00 3.192284e+00 2.300022e+00 2.079983e+00 1.705136e+00 3.060971e-01 2.049441e-01 3.176111e-01 3.496515e-01 4.032463e-01 4.787265e-01 7.148362e-01 6.913476e-01 6.054112e-01 5.088943e-01 3.877848e-01 3.680409e-01 2.000000e-01
<GCONST> 1.228139e+02
<MIXTURE> 2 4.388589e-01
<MEAN> 39
 -7.006005e-01 -1.369916e+01 -1.661168e+01 -4.951728e+00 -4.216900e+00 -1.348535e+01 -1.202096e+01 7.256985e+00 -5.640855e-01 -4.095527e+00 -4.273603e+00 -1.513045e+00 5.598177e+01 -3.006567e-01 -3.606994e-01 9.884891e-01 1.137329e-01 -1.081471e+00 -9.173644e-01 4.108054e-01 7.770762e-01 -4.875199e-01 -4.213619e-01 2.537153e-01 2.510372e-01 -2.507336e-01 -4.187944e-01 1.488074e-01 4.552778e-01 -1.604148e-01 -2.895207e-01 4.405369e-01 5.724328e-01 -2.769557e-01 -2.549885e-01 1.877652e-01 2.531950e-01 -5.736619e-02 -1.762113e-01
<VARIANCE> 39
 2.411969e+01 3.428439e+01 5.048217e+01 3.644425e+01 6.235789e+01 8.583739e+01 1.066591e+02 9.366984e+01 1.130562e+02 5.143294e+01 4.908051e+01 3.029044e+01 5.668346e+01 3.131056e+00 1.975337e+00 4.048936e+00 2.309089e+00 3.718013e+00 4.173431e+00 5.226033e+00 4.662822e+00 3.612108e+00 3.181657e+00 2.488152e+00 2.248609e+00 2.621227e+00 3.691333e-01 2.982044e-01 2.904234e-01 3.038080e-01 4.352443e-01 4.720636e-01 6.676078e-01 6.103228e-01 6.385795e-01 4.601496e-01 3.951387e-01 3.234461e-01 2.034114e-01
<GCONST> 1.268477e+02
<STATE> 3
<NUMMIXES> 2
<MIXTURE> 1 4.699272e-01
<MEAN> 39
 -6.839442e-01 -1.435993e+01 -1.086153e+01 -3.213473e+00 -1.059211e+01 -1.625928e+01 -1.511667e+01 9.591636e+00 5.778416e-01 -6.630996e+00 -9.486002e-01 4.127993e-01 5.730492e+01 -1.903247e+00 8.499435e-01 3.285578e+00 3.697006e-01 -1.858985e+00 -8.389503e-02 2.662276e+00 -1.716184e-01 -1.857861e+00 -1.680240e-01 7.768574e-01 2.976821e-01 -1.585753e+00 -4.781980e-01 5.073079e-01 1.794178e-01 -3.947101e-01 2.892167e-01 9.846078e-01 4.788732e-01 -8.437862e-01 -2.348336e-01 4.516000e-01 8.894637e-02 -3.200967e-01 -4.186244e-01
<VARIANCE> 39
 1.268178e+01 3.318158e+01 7.698196e+01 4.532806e+01 7.684787e+01 7.913371e+01 1.052954e+02 7.974697e+01 8.559177e+01 5.234602e+01 5.323392e+01 3.636528e+01 4.237831e+01 2.232179e+00 4.206250e+00 3.548637e+00 3.617633e+00 6.230036e+00 5.320872e+00 6.084421e+00 6.303308e+00 6.994449e+00 4.528467e+00 3.958679e+00 3.264548e+00 6.242717e+00 3.526320e-01 4.360892e-01 5.058999e-01 5.971121e-01 7.492490e-01 8.064918e-01 9.303463e-01 8.036582e-01 8.012427e-01 6.284608e-01 6.053199e-01 4.809237e-01 4.627746e-01
<GCONST> 1.365791e+02
<MIXTURE> 2 5.300688e-01
<MEAN> 39
 -3.861140e+00 -1.516897e+01 -7.785328e+00 -6.501172e+00 -1.291052e+01 -1.584313e+01 -5.736908e+00 9.032320e+00 -6.851065e+00 -3.862350e+00 -6.509856e-01 -1.449891e+00 5.646168e+01 -1.459165e+00 8.194715e-01 2.581428e+00 -1.043465e+00 -1.868233e+00 1.089509e+00 1.853109e+00 -1.777019e+00 -1.112695e+00 8.133695e-01 6.867117e-01 -4.655014e-01 -7.670600e-01 -9.292952e-02 4.130301e-01 -1.520324e-01 -2.194549e-01 5.015817e-01 6.189555e-01 -3.685994e-01 -5.941925e-01 4.206449e-01 2.227237e-01 -2.698168e-01 -9.994420e-02 -1.659919e-01
<VARIANCE> 39
 2.165928e+01 2.992228e+01 9.679013e+01 4.496770e+01 9.430779e+01 9.970872e+01 8.290207e+01 6.935801e+01 1.080349e+02 6.652975e+01 6.197669e+01 3.152575e+01 6.618417e+01 8.896090e-01 2.229556e+00 2.944339e+00 2.494879e+00 3.247014e+00 3.734464e+00 3.402825e+00 5.322029e+00 4.674930e+00 3.052181e+00 2.808111e+00 2.213044e+00 2.251705e+00 2.000000e-01 2.513534e-01 3.848513e-01 4.036721e-01 5.780302e-01 5.854939e-01 5.794173e-01 6.492642e-01 6.526353e-01 5.461122e-01 5.393658e-01 4.003057e-01 2.446831e-01
<GCONST> 1.274673e+02
<STATE> 4
<NUMMIXES> 2
<MIXTURE> 1 5.728912e-01
<MEAN> 39
 -1.623857e+01 -5.631755e+00 -7.740901e+00 -2.403726e+00 -4.625749e+00 -3.592673e+00 -1.911855e+00 1.296311e+00 -1.275176e+00 -2.466129e+00 -2.343447e+00 -6.542774e-01 3.640078e+01 -1.518278e+00 9.414095e-01 7.441434e-01 2.343777e-01 4.590686e-01 1.059863e+00 4.536614e-01 -6.089634e-01 8.242884e-02 5.209708e-01 3.329528e-01 8.220024e-02 -1.568185e+00 2.694243e-01 -1.871658e-01 -1.759752e-01 -9.809748e-02 1.260390e-02 -5.522113e-02 -1.491103e-01 7.955624e-02 -2.959647e-02 -2.733000e-02 -3.553669e-02 -2.341221e-02 4.151165e-01
<VARIANCE> 39
 3.458239e+01 3.105525e+01 3.548737e+01 2.795515e+01 4.270647e+01 4.353851e+01 3.105059e+01 4.026518e+01 4.622713e+01 3.789576e+01 3.283159e+01 2.710518e+01 4.307552e+01 3.742815e+00 3.124295e+00 2.906209e+00 2.296133e+00 3.640319e+00 4.612286e+00 3.705960e+00 3.609002e+00 3.819891e+00 2.878972e+00 2.612265e+00 2.399244e+00 4.324720e+00 3.909266e-01 4.709450e-01 5.312660e-01 5.416193e-01 6.266654e-01 6.605270e-01 6.082150e-01 7.149348e-01 6.850898e-01 5.932313e-01 5.366310e-01 5.150371e-01 5.450520e-01
<GCONST> 1.262603e+02
<MIXTURE> 2 4.270987e-01
<MEAN> 39
 -1.120641e+01 -9.561568e+00 -5.096944e+00 -5.869132e+00 -1.008167e+01 -6.803396e+00 -3.019259e+00 2.421940e+00 -3.653661e+00 -2.143002e+00 -5.809594e-01 -1.742500e+00 4.731456e+01 -5.605003e-01 5.015756e-01 1.505638e+00 -1.345096e+00 -6.987779e-01 1.004940e+00 3.443577e-01 -1.477812e+00 -7.119447e-01 1.928642e-01 -3.123467e-01 -4.516802e-01 3.850531e-01 3.865705e-01 1.184269e-02 -2.579058e-01 -1.741100e-01 1.468356e-01 -1.699730e-01 -4.966630e-01 2.608079e-03 1.359400e-01 -1.020934e-01 -1.855396e-01 1.109727e-02 4.346895e-01
<VARIANCE> 39
 6.702835e+01 4.903408e+01 1.014625e+02 5.526849e+01 9.799088e+01 8.475871e+01 7.642550e+01 6.375497e+01 8.116076e+01 5.465883e+01 4.635753e+01 3.144334e+01 1.454867e+02 3.052308e+00 2.589152e+00 3.656709e+00 3.427344e+00 3.100943e+00 4.590624e+00 4.078595e+00 4.228506e+00 3.823953e+00 2.880905e+00 2.795170e+00 2.511839e+00 5.056640e+00 5.156521e-01 4.889782e-01 6.229364e-01 6.560328e-01 8.792442e-01 6.530236e-01 6.705042e-01 7.270567e-01 7.262765e-01 5.359522e-01 5.062102e-01 4.074108e-01 9.913626e-01
<GCONST> 1.365760e+02
<TRANSP> 5
 0.000000e+00 1.000000e+00 0.000000e+00 0.000000e+00 0.000000e+00
 0.000000e+00 6.425025e-01 3.574975e-01 0.000000e+00 0.000000e+00
 0.000000e+00 0.000000e+00 6.043278e-01 3.956722e-01 0.000000e+00
 0.000000e+00 0.000000e+00 0.000000e+00 6.964531e-01 3.035469e-01
 0.000000e+00 0.000000e+00 0.000000e+00 0.000000e+00 0.000000e+00
<ENDHMM>
~h "s"
<BEGINHMM>
<NUMSTATES> 5
<STATE> 2
<NUMMIXES> 2
<MIXTURE> 1 4.618376e-01
<MEAN> 39
 -2.042566e+01 8.794046e-01 -4.973770e+00 -6.660387e+00 -3.507193e+00 -7.278153e+00 -2.084166e-01 -2.716427e-01 -1.899441e+00 -2.197351e+00 -3.334308e+00 -8.335401e-01 5.608257e+01 -5.044724e+00 1.605124e+00 -8.776638e-01 5.242004e-01 2.482042e+00 1.616310e+00 1.223627e+00 7.446222e-01 2.170271e-01 3.591018e-01 1.384283e+00 6.298767e-01 -1.128973e-01 1.737023e-01 -6.276093e-01 -3.122191e-01 -3.289730e-01 -4.076994e-01 5.577768e-02 -3.196681e-01 1.972112e-01 2.208221e-02 1.982638e-01 1.344584e-02 -2.240359e-02 2.267561e-01
<VARIANCE> 39
 5.378640e+01 2.321877e+01 3.796840e+01 3.008684e+01 4.359204e+01 3.912732e+01 3.288116e+01 3.694188e+01 3.613182e+01 3.102168e+01 2.422118e+01 2.022894e+01 2.535820e+01 3.607869e+00 3.078664e+00 4.336097e+00 4.593455e+00 3.610482e+00 4.275172e+00 4.521392e+00 4.654737e+00 4.883863e+00 4.769141e+00 4.205242e+00 3.051134e+00 2.459019e+00 8.427433e-01 5.623913e-01 5.465456e-01 5.978953e-01 5.734712e-01 6.645491e-01 7.249791e-01 6.421180e-01 5.493258e-01 5.389908e-01 5.342573e-01 5.055866e-01 2.988999e-01
<GCONST> 1.272955e+02
<MIXTURE> 2 5.381547e-01
<MEAN> 39
 -2.792652e+01 -4.802848e-01 -8.429720e+00 -8.045508e+00 -9.214961e-01 -5.555477e+00 1.136089e+00 1.654243e+00 -8.551647e-01 -5.742736e-01 -1.066301e+00 7.957959e-01 5.560025e+01 -2.971285e+00 6.990373e-01 -9.841968e-01 -2.717152e-01 8.681465e-01 6.741490e-01 1.319382e-01 1.358660e-01 -2.600259e-01 3.283390e-01 6.484054e-01 3.652948e-01 4.856830e-01 1.083899e+00 -1.689411e-01 1.342757e-01 8.138318e-02 -4.573503e-01 -2.461154e-01 -3.294302e-01 -1.558193e-01 -2.087183e-02 -2.103090e-02 -2.911784e-01 -2.237681e-01 -9.601419e-02
<VARIANCE> 39
 1.608445e+01 1.589838e+01 2.679286e+01 2.846671e+01 3.053752e+01 3.177150e+01 2.849777e+01 2.524567e+01 2.139598e+01 1.741818e+01 1.878677e+01 1.464797e+01 2.656331e+01 2.737433e+00 1.663647e+00 2.070530e+00 1.988162e+00 2.078946e+00 2.354467e+00 2.253667e+00 2.556690e+00 2.842344e+00 2.497463e+00 2.175205e+00 1.754657e+00 1.571219e+00 3.519910e-01 3.190032e-01 4.269212e-01 4.408746e-01 4.509179e-01 5.540728e-01 5.484960e-01 5.335603e-01 5.524955e-01 5.078476e-01 5.171547e-01 3.988523e-01 2.283274e-01
<GCONST> 1.113545e+02
<STATE> 3
<NUMMIXES> 2
<MIXTURE> 1 5.370392e-01
<MEAN> 39
 -3.127521e+01 2.492313e+00 -9.684566e+00 -6.767966e+00 2.360236e-01 -4.833407e+00 5.551374e-01 1.125947e+00 -1.249997e+00 -2.343029e-01 -8.169808e-01 7.370098e-01 5.627704e+01 -1.143310e-01 2.612997e-01 1.792279e-01 2.482116e-01 2.906025e-01 1.651316e-01 7.246146e-02 1.418364e-01 6.711689e-02 6.508832e-02 1.812440e-02 3.830598e-02 1.003729e-01 2.399440e-01 -1.296673e-01 1.328975e-01 -1.980230e-02 -7.209188e-02 -3.815769e-02 1.825805e-02 1.370263e-02 7.824095e-03 -2.650574e-02 -2.127662e-02 -2.321346e-02 -1.014870e-01
<VARIANCE> 39
 6.801557e+00 1.982846e+01 2.536148e+01 3.520941e+01 3.605079e+01 2.883926e+01 2.435203e+01 2.251949e+01 1.694584e+01 1.572140e+01 1.403020e+01 1.203145e+01 1.724578e+01 3.754637e-01 7.256189e-01 7.617037e-01 8.659533e-01 9.800924e-01 1.087646e+00 1.170018e+00 1.236212e+00 1.246768e+00 1.231173e+00 1.125462e+00 1.063795e+00 4.121706e-01 2.000000e-01 2.000000e-01 2.000000e-01 2.000000e-01 2.124103e-01 2.317613e-01 2.371427e-01 2.589577e-01 2.591346e-01 2.644172e-01 2.309055e-01 2.095590e-01 2.000000e-01
<GCONST> 8.907204e+01
<MIXTURE> 2 4.629440e-01
<MEAN> 39
 -3.094594e+01 1.335175e+00 -8.848337e+00 -7.196304e+00 1.440542e-01 -4.014842e+00 1.820617e-01 2.133128e+00 -1.500464e+00 -8.685312e-02 -6.538685e-01 4.462597e-01 5.601025e+01 1.163314e-01 -4.651775e-01 -3.861370e-02 -3.658329e-01 -4.563289e-01 -3.168896e-01 -2.793865e-01 -6.878885e-02 -7.781685e-02 -9.013239e-02 -7.308485e-02 -5.688227e-02 -1.627959e-01 5.214444e-01 -1.443553e-01 1.855122e-01 -4.852323e-02 -2.558666e-01 -2.494034e-01 -1.810827e-01 -1.629795e-01 -3.605649e-02 -8.291904e-02 -1.053445e-01 -6.110933e-02 -1.375238e-01
<VARIANCE> 39
 7.888665e+00 1.869581e+01 3.318668e+01 3.782872e+01 3.828806e+01 3.218997e+01 2.487993e+01 2.205910e+01 1.762411e+01 1.565156e+01 1.503867e+01 1.430058e+01 1.804078e+01 7.970621e-01 8.987346e-01 1.021001e+00 1.029138e+00 1.184973e+00 1.326420e+00 1.351023e+00 1.406442e+00 1.324456e+00 1.338108e+00 1.275729e+00 1.147518e+00 6.138471e-01 3.026143e-01 2.000000e-01 2.450473e-01 2.530442e-01 2.955329e-01 3.111468e-01 3.179441e-01 3.277205e-01 3.172376e-01 3.136176e-01 2.875673e-01 2.685625e-01 2.000000e-01
<GCONST> 9.567832e+01
<STATE> 4
<NUMMIXES> 2
<MIXTURE> 1 5.815155e-01
<MEAN> 39
 -2.252672e+01 -2.686291e+00 -6.722778e+00 -7.231553e+00 -2.804963e+00 -5.399100e+00 -3.138370e+00 1.048405e+00 -3.982545e-01 -5.253760e-01 -1.285542e+00 7.879993e-03 4.425859e+01 1.215043e+00 -4.050449e-01 2.004839e-01 7.310882e-01 -2.271256e-01 6.392632e-01 1.428029e-02 -9.028492e-02 1.451542e-01 6.311105e-02 3.229041e-02 -8.628238e-02 -2.584708e+00 -1.488807e-02 4.736140e-02 -2.979933e-02 1.002008e-01 -2.069227e-03 1.667491e-01 1.681255e-01 -5.239809e-02 -1.008220e-01 -3.471431e-02 -3.699172e-02 -3.273488e-02 6.789166e-02
<VARIANCE> 39
 4.989845e+01 3.021433e+01 3.749667e+01 4.124386e+01 5.359623e+01 4.923785e+01 3.705821e+01 3.423598e+01 3.154507e+01 3.091806e+01 2.711146e+01 2.536063e+01 9.953910e+01 3.420925e+00 2.314735e+00 2.666505e+00 2.803097e+00 3.639501e+00 3.887146e+00 3.325001e+00 3.164868e+00 2.869454e+00 2.942617e+00 2.524795e+00 2.281159e+00 6.331128e+00 7.767362e-01 5.123588e-01 5.337359e-01 6.302715e-01 8.059511e-01 8.983348e-01 6.895334e-01 6.815153e-01 6.175970e-01 6.222762e-01 5.304813e-01 4.799869e-01 1.342263e+00
<GCONST> 1.290743e+02
<MIXTURE> 2 4.184711e-01
<MEAN> 39
 -2.485371e+01 -2.741238e-01 -5.647763e+00 -6.979258e+00 -3.784089e+00 -7.413256e+00 -8.852444e-01 4.153381e-02 -2.120115e+00 -8.432843e-01 -1.967795e+00 -1.031070e-01 5.432824e+01 4.465301e+00 -9.523445e-01 2.085051e+00 -5.794188e-01 -2.581495e+00 -1.823315e+00 -2.005049e+00 -1.395773e+00 -9.229181e-01 -5.246716e-01 -6.031745e-01 -7.522199e-01 3.560430e-01 7.247798e-01 -3.212586e-01 3.043090e-01 -2.720116e-01 -6.248032e-01 -2.318557e-02 -5.464504e-01 -8.541378e-02 -1.656871e-01 1.348328e-02 9.622613e-02 -1.370259e-01 2.782593e-01
<VARIANCE> 39
 4.553410e+01 1.845002e+01 4.272966e+01 2.962047e+01 3.654156e+01 4.469396e+01 3.530531e+01 3.292662e+01 2.569851e+01 2.117053e+01 2.091160e+01 1.774830e+01 5.807833e+01 4.344044e+00 2.882213e+00 4.880552e+00 4.845252e+00 4.472493e+00 4.175731e+00 4.581937e+00 4.139733e+00 4.124182e+00 3.526661e+00 3.646958e+00 2.706438e+00 4.405064e+00 8.984654e-01 4.230402e-01 6.330643e-01 5.907261e-01 5.909894e-01 8.050093e-01 7.650109e-01 7.759963e-01 6.450832e-01 5.957195e-01 6.889583e-01 4.738158e-01 6.499152e-01
<GCONST> 1.285762e+02
<TRANSP> 5
 0.000000e+00 1.000000e+00 0.000000e+00 0.000000e+00 0.000000e+00
 0.000000e+00 7.030663e-01 2.969337e-01 0.000000e+00 0.000000e+00
 0.000000e+00 0.000000e+00 8.908377e-01 1.091624e-01 0.000000e+00
 0.000000e+00 0.000000e+00 0.000000e+00 7.843896e-01 2.156104e-01
 0.000000e+00 0.000000e+00 0.000000e+00 0.000000e+00 0.000000e+00
<ENDHMM>
~h "t"
<BEGINHMM>
<NUMSTATES> 5
<STATE> 2
<NUMMIXES> 2
<MIXTURE> 1 4.116253e-01
<MEAN> 39
 -2.059969e+01 -6.074225e-01 -4.399449e+00 -1.099737e+00 -2.256909e+00 -1.121826e+00 -2.124666e+00 -9.948947e-01 -2.014829e+00 -9.633659e-01 -1.424001e+00 -9.379226e-01 3.283278e+01 -1.062224e+00 -9.666988e-01 -1.152671e+00 -4.965329e-01 4.619200e-01 6.520177e-01 6.660721e-01 7.293187e-01 9.280745e-01 7.507101e-01 7.614664e-01 6.365401e-01 3.252744e-01 2.871965e-01 -1.766206e-01 2.383084e-01 -6.617715e-01 -5.975099e-01 -4.506983e-01 -9.167118e-02 -1.811495e-01 -1.918632e-01 -3.268695e-03 -2.397878e-03 -2.656172e-03 1.615237e+00
<VARIANCE> 39
 1.445456e+01 1.376052e+01 1.433646e+01 1.848111e+01 1.377980e+01 1.494059e+01 1.649770e+01 1.765471e+01 1.811211e+01 1.706616e+01 1.571147e+01 1.331967e+01 3.894765e+01 3.009142e+00 2.729442e+00 4.205450e+00 4.689300e+00 3.474226e+00 3.296172e+00 2.571947e+00 3.365681e+00 3.292007e+00 2.698502e+00 2.474971e+00 1.957327e+00 1.780385e+01 4.730569e-01 5.953678e-01 6.285371e-01 7.357609e-01 6.358011e-01 5.339751e-01 5.388725e-01 6.392763e-01 5.624566e-01 4.932810e-01 4.741940e-01 3.704677e-01 1.867849e+00
<GCONST> 1.180351e+02
<MIXTURE> 2 5.883589e-01
<MEAN> 39
 -2.136271e+01 -1.732078e+00 -6.151908e+00 -1.235778e+00 -3.278493e+00 -9.699736e-01 -1.948066e+00 -2.617333e-01 -1.188535e+00 -2.947465e-01 -3.641858e-01 -3.056289e-02 2.986194e+01 5.264619e-02 -6.648943e-01 -1.813131e-01 -8.718222e-01 -1.409135e-01 -2.896430e-01 -6.743015e-02 -1.725397e-01 -1.135352e-01 3.971529e-02 4.994294e-02 1.720063e-02 1.813731e+00 -8.470544e-02 1.012378e-02 7.623839e-02 -4.705759e-01 -5.283644e-02 -2.483621e-01 7.954718e-02 -5.694321e-02 -7.314014e-02 5.547964e-03 -1.550777e-02 -8.773533e-03 1.495038e+00
<VARIANCE> 39
 2.784035e+00 5.581046e+00 5.395846e+00 8.730597e+00 9.943398e+00 1.157423e+01 1.076747e+01 1.194031e+01 1.169950e+01 1.309199e+01 1.160487e+01 1.032262e+01 8.869164e+00 7.985592e-01 1.676241e+00 1.381142e+00 3.427603e+00 1.467938e+00 1.736811e+00 1.670615e+00 1.684425e+00 1.507906e+00 1.610055e+00 1.437281e+00 1.286893e+00 1.345576e+01 2.280399e-01 2.443091e-01 3.108225e-01 4.391118e-01 3.109641e-01 3.834109e-01 3.399940e-01 3.612668e-01 3.320071e-01 3.411621e-01 3.052027e-01 2.670991e-01 1.808800e+00
<GCONST> 9.459824e+01
<STATE> 3
<NUMMIXES> 2
<MIXTURE> 1 5.088191e-01
<MEAN> 39
 -2.403612e+01 -4.016430e+00 -8.011196e+00 -1.129313e+01 -4.060912e+00 -4.880390e+00 1.251135e-01 -1.327950e+00 -1.557809e+00 1.279196e+00 4.914145e-01 6.702679e-01 5.764308e+01 -1.162391e+00 6.562148e-01 2.589934e-01 -1.001935e+00 -6.238555e-01 -9.422292e-01 9.868832e-01 5.880770e-04 7.590765e-02 2.065172e-01 9.336243e-02 2.993365e-01 4.352167e+00 2.676514e-01 1.875163e-01 6.247936e-01 8.027565e-01 -1.362646e-01 1.662484e-01 -8.214056e-02 -3.407782e-02 -8.873715e-02 -2.277364e-01 -2.307961e-01 -9.607928e-02 -1.752695e+00
<VARIANCE> 39
 1.954952e+01 3.104919e+01 2.834653e+01 2.235119e+01 2.356201e+01 2.436399e+01 2.625354e+01 2.468243e+01 2.350045e+01 1.855630e+01 1.841507e+01 1.544223e+01 3.508121e+01 2.052619e+00 2.265146e+00 2.850147e+00 4.070073e+00 1.991346e+00 2.492005e+00 2.125123e+00 2.320509e+00 2.147254e+00 1.864999e+00 1.825895e+00 1.592268e+00 1.596723e+01 5.228985e-01 7.243711e-01 5.382875e-01 5.941494e-01 4.583318e-01 5.157833e-01 5.324324e-01 4.695791e-01 4.594091e-01 4.108479e-01 4.081974e-01 3.584857e-01 1.292012e+00
<GCONST> 1.167878e+02
<MIXTURE> 2 4.911682e-01
<MEAN> 39
 -2.525500e+01 -4.106309e+00 -3.872010e+00 -1.010072e+01 -5.655870e+00 -5.221734e+00 1.148043e+00 -7.545528e-01 -1.492926e+00 3.074749e-01 -1.864496e-01 1.065007e+00 5.747090e+01 8.808696e-01 -7.264522e-01 1.207222e+00 -1.283723e-01 -9.273608e-01 -4.599806e-01 -2.805574e-01 -4.250493e-01 -3.181516e-01 -5.164113e-01 -6.290662e-01 -1.099656e-01 5.212797e-01 8.776988e-01 2.091649e-02 2.208550e-01 2.323174e-01 -2.059791e-01 5.627727e-02 -5.022762e-01 -2.757425e-01 -2.233134e-01 -1.998972e-01 -1.838870e-01 -2.459345e-01 -8.717782e-01
<VARIANCE> 39
 2.274186e+01 2.329851e+01 1.956362e+01 1.944012e+01 2.065574e+01 2.838498e+01 2.799014e+01 3.023629e+01 2.376336e+01 2.094583e+01 1.843369e+01 1.620128e+01 4.264480e+01 2.316566e+00 1.804124e+00 2.455145e+00 3.404419e+00 2.152566e+00 2.872765e+00 2.272252e+00 2.184395e+00 2.046038e+00 1.935601e+00 1.921882e+00 1.734146e+00 1.122633e+01 5.292016e-01 5.950140e-01 4.849994e-01 6.042492e-01 5.077720e-01 6.442776e-01 6.184719e-01 5.339083e-01 5.427837e-01 4.760235e-01 4.611168e-01 3.821353e-01 1.255235e+00
<GCONST> 1.171733e+02
<STATE> 4
<NUMMIXES> 2
<MIXTURE> 1 6.241946e-01
<MEAN> 39
 -1.826533e+01 -4.955458e+00 -2.840717e-02 -7.281378e+00 -8.481361e+00 -6.759550e+00 -2.851529e-01 -1.506690e+00 -3.865500e+00 -1.080066e+00 -1.960883e+00 -3.908610e-01 5.384472e+01 3.119170e+00 -1.211432e-02 1.973543e+00 9.619154e-01 -1.912789e+00 9.505387e-02 -1.247713e+00 -8.090760e-01 -6.425610e-01 -8.323731e-01 8.868393e-02 -7.725505e-01 -4.146450e-01 1.700357e-01 -1.054042e-02 1.137077e-01 -2.318351e-01 -3.939263e-01 1.511484e-01 -5.322913e-01 -6.932206e-02 -1.251336e-01 -1.784140e-01 3.780406e-01 -1.071184e-01 2.907363e-01
<VARIANCE> 39
 3.111096e+01 1.884564e+01 3.348480e+01 2.010137e+01 2.724808e+01 2.909179e+01 3.002327e+01 3.246276e+01 2.849494e+01 2.153225e+01 1.817076e+01 1.763767e+01 5.686282e+01 4.062010e+00 2.774620e+00 4.996883e+00 2.408592e+00 5.038369e+00 4.016524e+00 4.241949e+00 3.668529e+00 3.101723e+00 3.032313e+00 2.719416e+00 2.483108e+00 4.433887e+00 6.942403e-01 4.467010e-01 5.211440e-01 4.224885e-01 7.443479e-01 6.347800e-01 6.132433e-01 5.588621e-01 5.213318e-01 4.515875e-01 4.272262e-01 4.077451e-01 7.628505e-01
<GCONST> 1.226838e+02
<MIXTURE> 2 3.758033e-01
<MEAN> 39
 -2.052057e+01 -2.398138e+00 1.596971e+00 -1.011340e+01 -8.215085e+00 -4.073591e+00 -5.102763e-01 -7.070003e+00 -2.518994e+00 -2.189625e+00 -3.630931e+00 -1.552405e-01 5.591874e+01 3.869339e+00 4.901380e-01 3.088068e+00 -1.268423e+00 -2.563498e+00 -9.923720e-01 -3.212368e+00 -1.823595e+00 -2.460392e+00 -1.547805e+00 -1.552764e+00 -1.051026e+00 -8.227545e-02 2.293058e-01 3.803958e-02 9.335769e-02 -6.025688e-01 -5.082794e-01 -2.021025e-01 -6.412422e-01 1.671890e-01 -4.045841e-01 2.128305e-01 7.988226e-02 -1.359504e-01 5.059994e-01
<VARIANCE> 39
 2.859266e+01 1.977896e+01 2.912696e+01 1.780668e+01 2.295275e+01 2.615785e+01 3.534826e+01 3.121427e+01 3.194233e+01 2.718751e+01 2.232014e+01 1.744864e+01 1.955868e+01 1.375301e+00 2.870287e+00 3.355089e+00 4.398149e+00 3.218562e+00 3.487770e+00 4.368975e+00 3.589989e+00 3.604504e+00 2.980716e+00 3.904856e+00 2.572197e+00 1.681801e+00 5.802707e-01 5.489577e-01 4.983524e-01 3.836293e-01 4.792607e-01 5.851400e-01 7.726434e-01 6.649367e-01 7.063735e-01 5.718389e-01 6.033507e-01 4.242706e-01 3.086936e-01
<GCONST> 1.196311e+02
<TRANSP> 5
 0.000000e+00 1.000000e+00 0.000000e+00 0.000000e+00 0.000000e+00
 0.000000e+00 8.038025e-01 1.961975e-01 0.000000e+00 0.000000e+00
 0.000000e+00 0.000000e+00 7.895412e-01 2.104588e-01 0.000000e+00
 0.000000e+00 0.000000e+00 0.000000e+00 5.575570e-01 4.424430e-01
 0.000000e+00 0.000000e+00 0.000000e+00 0.000000e+00 0.000000e+00
<ENDHMM>
~h "v"
<BEGINHMM>
<NUMSTATES> 5
<STATE> 2
<NUMMIXES> 2
<MIXTURE> 1 5.640075e-01
<MEAN> 39
 -1.540036e+01 -8.937205e-01 -4.020980e+00 -1.133326e+00 -3.697018e+00 -3.580374e+00 -3.659973e+00 -2.110240e+00 -3.067179e+00 -1.593859e+00 -1.790297e+00 -1.112445e+00 4.078615e+01 -1.151353e+00 5.181572e-02 2.671559e-01 6.228542e-01 5.432888e-01 3.995661e-01 3.231076e-01 3.578236e-01 2.358733e-01 6.208178e-02 -1.214882e-01 6.222973e-02 -2.435002e-01 1.143486e-01 -1.474683e-01 1.602982e-02 -2.014568e-01 -2.599849e-01 -3.924803e-02 5.853105e-02 -5.231206e-02 -5.808656e-02 -2.750307e-02 1.190371e-02 -1.966143e-02 2.885483e-01
<VARIANCE> 39
 3.875529e+01 1.120769e+01 2.234594e+01 1.961913e+01 1.474894e+01 2.643611e+01 1.855213e+01 1.792562e+01 1.595804e+01 1.628164e+01 1.368847e+01 1.072066e+01 9.402984e+01 1.926027e+00 1.295276e+00 1.252216e+00 1.872595e+00 1.867531e+00 1.991980e+00 1.954054e+00 1.458305e+00 1.778359e+00 1.890370e+00 1.690817e+00 1.186868e+00 1.073202e+00 2.262240e-01 2.410236e-01 2.297248e-01 2.996876e-01 3.642060e-01 3.925137e-01 3.260884e-01 2.323457e-01 3.537989e-01 3.263570e-01 2.836805e-01 2.150526e-01 2.210361e-01
<GCONST> 1.002310e+02
<MIXTURE> 2 4.359897e-01
<MEAN> 39
 -1.143522e+01 -1.097278e-01 -2.638844e+00 -2.589911e+00 -5.973308e+00 -6.778915e+00 -7.586935e+00 -6.838471e+00 -7.311168e+00 -4.542873e+00 -5.299176e+00 -4.738980e+00 4.548296e+01 -9.989677e-01 1.269918e-01 4.798768e-01 6.868643e-01 2.278956e-01 -2.698198e-02 2.381890e-01 1.292375e-01 -8.880305e-02 -5.561566e-01 -2.899975e-01 -1.713956e-01 1.595746e-01 3.183105e-02 -3.405841e-01 -1.435625e-01 -4.372989e-01 -2.207111e-01 7.221790e-02 1.821397e-01 2.198889e-01 1.611650e-01 2.487691e-01 1.089229e-01 2.204012e-01 3.811114e-01
<VARIANCE> 39
 3.683854e+01 1.919370e+01 2.474399e+01 2.610391e+01 2.761911e+01 3.175653e+01 2.923524e+01 2.779334e+01 2.981832e+01 3.088612e+01 3.002210e+01 2.177524e+01 5.112531e+01 4.041856e+00 1.901820e+00 1.839717e+00 2.941319e+00 2.411427e+00 2.857316e+00 2.687815e+00 2.622098e+00 2.422625e+00 2.532715e+00 1.892475e+00 1.921993e+00 2.881157e+00 6.190250e-01 4.057533e-01 3.745756e-01 5.439488e-01 4.941079e-01 5.050478e-01 4.590888e-01 4.768349e-01 5.064912e-01 5.623689e-01 4.236296e-01 3.954246e-01 5.634894e-01
<GCONST> 1.177067e+02
<STATE> 3
<NUMMIXES> 2
<MIXTURE> 1 5.844343e-01
<MEAN> 39
 -2.011237e+01 -2.959445e+00 -4.193482e+00 -1.402448e+00 -2.914161e+00 -2.091248e+00 -1.066594e+00 -8.889635e-02 -1.924308e+00 -1.542421e+00 -3.024348e+00 -9.144289e-01 4.797372e+01 -3.126763e-01 -8.413813e-01 6.517842e-02 -5.777113e-01 -9.353228e-01 -7.639786e-01 1.136904e-01 4.099223e-01 2.126774e-01 1.649659e-01 2.399359e-01 5.010810e-01 1.626063e+00 1.202372e+00 2.954859e-02 3.751128e-01 -4.890612e-01 -7.850748e-01 -5.690745e-01 -5.195839e-01 -4.850460e-01 -4.074319e-01 -1.581288e-01 2.443809e-01 -1.074180e-01 5.487472e-01
<VARIANCE> 39
 2.070421e+01 1.892966e+01 2.156962e+01 2.036186e+01 1.434521e+01 1.661546e+01 1.638494e+01 1.546765e+01 1.778981e+01 1.644375e+01 1.160575e+01 1.237817e+01 5.446037e+01 4.378344e+00 2.051582e+00 2.694242e+00 2.346800e+00 2.275171e+00 2.604451e+00 2.486430e+00 2.117390e+00 2.838158e+00 1.710090e+00 1.907531e+00 1.616404e+00 3.044701e+00 4.188728e-01 5.604906e-01 6.809402e-01 6.162696e-01 6.146535e-01 5.075623e-01 4.486470e-01 5.112172e-01 6.672958e-01 4.143284e-01 4.261673e-01 3.600345e-01 5.888712e-01
<GCONST> 1.120400e+02
<MIXTURE> 2 4.155656e-01
<MEAN> 39
 -1.689863e+01 -1.993353e+00 -2.160938e+00 -3.195778e+00 -5.702362e+00 -5.669958e+00 -4.754725e+00 -4.849239e+00 -6.692182e+00 -5.416711e+00 -5.399917e+00 -3.581227e+00 5.081235e+01 1.094935e+00 -6.916093e-01 5.309612e-01 -1.430668e+00 -1.796176e+00 -1.045449e+00 -1.075167e-01 -1.452685e-01 -1.307260e-01 4.050476e-01 3.035717e-01 4.771747e-01 2.222548e+00 1.027291e+00 -2.288401e-01 2.636588e-01 -7.519178e-01 -7.268272e-01 -3.751063e-01 -4.178432e-01 -1.750374e-01 -1.042997e-01 4.586285e-01 1.617101e-01 1.088752e-01 3.809308e-01
<VARIANCE> 39
 3.141205e+01 1.951955e+01 3.349994e+01 2.686530e+01 2.421747e+01 2.044915e+01 2.435644e+01 2.902277e+01 3.094526e+01 3.189704e+01 2.644786e+01 2.250641e+01 3.151756e+01 4.798630e+00 2.141176e+00 3.856987e+00 2.511418e+00 3.205845e+00 3.377931e+00 3.959792e+00 3.336767e+00 3.074646e+00 2.436291e+00 1.981910e+00 1.721915e+00 2.684828e+00 6.169432e-01 5.527318e-01 9.167209e-01 6.162449e-01 7.228197e-01 6.652411e-01 7.090286e-01 8.031862e-01 7.137730e-01 7.913234e-01 5.763804e-01 4.937112e-01 4.277836e-01
<GCONST> 1.225717e+02
<STATE> 4
<NUMMIXES> 2
<MIXTURE> 1 4.984113e-01
<MEAN> 39
 -9.334606e+00 -4.468534e+00 -6.375920e+00 -8.010978e+00 -7.614433e+00 -7.317814e+00 -6.395110e+00 -3.474081e+00 -2.447834e+00 -1.681962e+00 -1.369568e+00 -1.028648e+00 5.513997e+01 2.790123e+00 -1.412691e+00 -3.071651e-01 -1.887359e+00 -1.702079e+00 -1.136683e+00 -6.916061e-01 1.343152e-01 5.380495e-01 6.682814e-02 7.578319e-01 5.702425e-01 1.952817e+00 -9.525306e-02 -3.040048e-02 6.892326e-02 4.457423e-02 -2.309784e-02 1.799112e-01 1.282538e-01 4.532012e-02 -3.043195e-02 -1.001293e-01 -5.455735e-02 -5.837713e-02 -2.303598e-01
<VARIANCE> 39
 5.347866e+01 2.094507e+01 5.623069e+01 5.928936e+01 2.942851e+01 5.861013e+01 4.417120e+01 2.878128e+01 3.009242e+01 2.281672e+01 2.688940e+01 1.463989e+01 4.353091e+01 5.986402e+00 3.314510e+00 6.028044e+00 6.164889e+00 6.284544e+00 6.270134e+00 6.143869e+00 6.180216e+00 4.322502e+00 3.776763e+00 3.402213e+00 2.402767e+00 4.634736e+00 7.576061e-01 3.426616e-01 4.079475e-01 5.906337e-01 5.134668e-01 6.160769e-01 5.909851e-01 5.889702e-01 5.574465e-01 3.702196e-01 4.302716e-01 2.956537e-01 4.444552e-01
<GCONST> 1.286039e+02
<MIXTURE> 2 5.015885e-01
<MEAN> 39
 -1.265096e+01 -1.628770e+00 4.167395e+00 -3.423667e+00 -1.254805e+01 -1.104497e+01 -3.981860e+00 -5.439408e+00 -8.910100e+00 -4.608023e+00 -3.803072e+00 -1.407581e+00 5.494307e+01 2.223482e+00 -8.674671e-01 2.779654e+00 -2.128497e+00 -3.495430e+00 -1.456746e+00 -8.605150e-01 -1.475998e+00 -1.742362e+00 6.126626e-01 3.508658e-01 1.235025e-01 2.450071e+00 -1.317433e-01 -5.654172e-02 1.796995e-01 -3.573304e-01 2.970939e-02 6.006569e-01 -3.401043e-01 -1.452836e-01 3.830050e-02 1.557890e-01 -8.478913e-02 -1.997624e-01 -2.663930e-01
<VARIANCE> 39
 1.906210e+01 1.268536e+01 1.586171e+01 3.173577e+01 2.506127e+01 2.140725e+01 2.236525e+01 3.504939e+01 2.419995e+01 1.804755e+01 2.044959e+01 1.607755e+01 2.703667e+01 2.656065e+00 2.547624e+00 3.449419e+00 4.567195e+00 3.443370e+00 3.640699e+00 4.417573e+00 3.944350e+00 4.899764e+00 6.625231e+00 3.679808e+00 3.071289e+00 2.023794e+00 3.757167e-01 3.058107e-01 3.337561e-01 3.560795e-01 4.991020e-01 5.359312e-01 5.607045e-01 4.865376e-01 5.177706e-01 4.593534e-01 4.062436e-01 3.727962e-01 2.776450e-01
<GCONST> 1.166571e+02
<TRANSP> 5
 0.000000e+00 1.000000e+00 0.000000e+00 0.000000e+00 0.000000e+00
 0.000000e+00 8.044186e-01 1.955814e-01 0.000000e+00 0.000000e+00
 0.000000e+00 0.000000e+00 5.945826e-01 4.054174e-01 0.000000e+00
 0.000000e+00 0.000000e+00 0.000000e+00 4.590187e-01 5.409813e-01
 0.000000e+00 0.000000e+00 0.000000e+00 0.000000e+00 0.000000e+00
<ENDHMM>
~h "w"
<BEGINHMM>
<NUMSTATES> 5
<STATE> 2
<NUMMIXES> 2
<MIXTURE> 1 5.048270e-01
<MEAN> 39
 -1.334620e+01 -2.413052e+00 -9.207624e+00 -6.204679e+00 -5.515535e+00 -3.534670e-01 -1.324286e+00 -7.149873e-01 -2.704666e+00 -1.414225e+00 -1.368510e+00 -2.324474e+00 3.724369e+01 1.077030e+00 1.024518e+00 5.459574e-01 -2.262819e-01 -6.394381e-01 -3.882973e-01 -1.130740e-01 -1.826064e-01 -2.095587e-01 -2.138081e-01 -1.080447e-01 -1.310454e-01 1.963620e-01 3.921855e-01 1.010962e-01 3.001466e-02 -4.296961e-01 -3.713405e-01 -1.050545e-01 -1.200104e-01 -5.252022e-02 -1.396993e-01 -1.183675e-01 1.682593e-02 -6.635868e-02 4.147571e-01
<VARIANCE> 39
 3.661228e+01 4.104800e+01 3.308117e+01 3.438375e+01 2.913199e+01 2.728263e+01 2.871030e+01 2.252255e+01 2.307811e+01 2.135202e+01 1.942908e+01 1.987069e+01 3.555724e+01 4.719964e+00 2.831332e+00 2.688474e+00 3.558380e+00 3.686958e+00 2.744936e+00 2.875698e+00 2.382730e+00 2.575881e+00 2.377628e+00 2.137726e+00 1.845388e+00 2.689611e+00 4.061744e-01 5.201050e-01 4.513683e-01 7.543709e-01 6.854302e-01 5.240833e-01 5.832159e-01 4.513589e-01 4.962168e-01 4.702796e-01 4.141338e-01 3.592423e-01 2.760892e-01
<GCONST> 1.185319e+02
<MIXTURE> 2 4.951703e-01
<MEAN> 39
 -9.854938e-01 -1.245130e+00 -7.398041e+00 -1.199229e+01 -8.777250e+00 -3.951063e+00 -1.118681e+01 -7.134104e+00 -1.098553e+01 -1.829273e+00 -1.352950e+00 -2.889616e+00 5.053077e+01 1.608581e+00 1.803233e+00 -1.390989e+00 -2.003019e+00 -4.770804e-01 1.405608e+00 8.630981e-01 -6.404151e-01 -1.161900e+00 -8.096927e-01 -3.568354e-03 3.134332e-01 -5.951526e-01 -3.749848e-01 -2.069608e-01 4.854334e-01 -1.966432e-01 -8.295556e-01 -2.003774e-01 5.690978e-01 6.393275e-01 2.423575e-01 -1.680044e-01 -1.316606e-01 3.450673e-02 1.757567e-01
<VARIANCE> 39
 2.026498e+01 4.221356e+01 3.706861e+01 5.411620e+01 4.567545e+01 5.502225e+01 6.211755e+01 4.981098e+01 6.427905e+01 4.163197e+01 6.830423e+01 3.280064e+01 4.429129e+01 3.561762e+00 2.368155e+00 5.240963e+00 3.844133e+00 8.013103e+00 7.239317e+00 7.395256e+00 6.635938e+00 5.495784e+00 4.878418e+00 4.388176e+00 2.873218e+00 4.712820e+00 2.344853e-01 5.673300e-01 6.815383e-01 8.915051e-01 8.234177e-01 1.359259e+00 1.459175e+00 8.485599e-01 1.287038e+00 9.847274e-01 6.303501e-01 5.763901e-01 2.131449e-01
<GCONST> 1.372490e+02
<STATE> 3
<NUMMIXES> 2
<MIXTURE> 1 5.990748e-01
<MEAN> 39
 2.568755e+00 4.093006e+00 -7.741618e+00 -2.038132e+01 -1.889877e+01 -3.304210e+00 -3.919307e+00 -1.251742e+00 -5.471944e+00 -4.680174e+00 -1.541926e+00 -3.203569e+00 4.965857e+01 2.080139e-01 -8.512540e-01 -6.881068e-01 -1.552417e+00 -6.338114e-01 1.059284e+00 7.921057e-01 4.544893e-01 4.634246e-01 3.386328e-02 3.886881e-01 1.251386e-01 1.142329e+00 -1.463462e-01 -4.679875e-01 -2.209114e-01 8.800054e-02 4.430415e-01 4.163544e-01 4.011597e-02 -1.973217e-01 -1.658198e-01 1.666324e-01 2.074321e-01 8.070315e-02 2.593897e-01
<VARIANCE> 39
 4.968219e+00 1.922933e+01 2.408242e+01 3.664365e+01 3.400741e+01 3.360150e+01 3.404927e+01 3.437300e+01 3.894886e+01 2.560268e+01 3.289281e+01 2.698207e+01 1.627712e+01 2.786977e-01 1.531080e+00 1.452844e+00 1.961046e+00 2.440978e+00 2.935694e+00 1.882239e+00 2.199530e+00 2.385062e+00 2.132806e+00 2.031581e+00 1.638039e+00 1.099291e+00 2.000000e-01 2.000000e-01 2.000000e-01 4.070052e-01 4.681959e-01 3.473177e-01 3.630927e-01 3.909109e-01 3.786244e-01 4.006783e-01 3.734870e-01 3.126752e-01 2.000000e-01
<GCONST> 1.049791e+02
<MIXTURE> 2 4.009212e-01
<MEAN> 39
 8.265989e-01 4.446078e+00 -7.730285e+00 -1.654214e+01 -1.593925e+01 -5.679304e+00 -5.858157e+00 -3.496948e+00 -8.854334e+00 -3.841487e+00 -4.321686e+00 -4.215025e+00 4.744268e+01 1.437447e+00 -4.711237e-01 -6.602132e-01 -2.501067e+00 -1.515887e+00 4.403278e-01 -3.462622e-01 4.806144e-01 -3.352828e-01 1.569981e-01 4.547801e-01 -6.023569e-02 2.092970e+00 -7.310591e-01 -7.356399e-01 -2.229172e-01 2.384446e-01 6.390033e-01 4.317768e-01 -4.159153e-02 8.050694e-02 2.891785e-01 4.165601e-01 2.219574e-01 8.731727e-02 2.933896e-02
<VARIANCE> 39
 6.595184e+00 1.913902e+01 3.004854e+01 3.922348e+01 2.788856e+01 4.006747e+01 3.311376e+01 4.013172e+01 4.216096e+01 3.458390e+01 5.366303e+01 2.768009e+01 2.560950e+01 2.697457e+00 2.647510e+00 2.676634e+00 3.915845e+00 4.461037e+00 4.852600e+00 4.243212e+00 4.194521e+00 4.296477e+00 4.772071e+00 3.678839e+00 2.464918e+00 3.260352e+00 4.187847e-01 4.072061e-01 3.935533e-01 7.461376e-01 6.287225e-01 8.258687e-01 6.763647e-01 7.085168e-01 7.493464e-01 8.287830e-01 6.079459e-01 4.635901e-01 3.071211e-01
<GCONST> 1.249977e+02
<STATE> 4
<NUMMIXES> 2
<MIXTURE> 1 6.744613e-01
<MEAN> 39
 2.239996e+00 -6.423297e+00 -1.373229e+01 -2.663448e+01 -1.583901e+01 7.539602e+00 2.258282e-01 -8.035673e-01 -5.748959e+00 -3.671524e+00 2.169639e+00 -2.133901e+00 5.852931e+01 -3.601279e-01 -2.028976e+00 -1.034574e+00 2.081953e-01 1.993065e+00 1.562502e+00 1.000286e-01 -7.496072e-01 -1.294759e-01 6.852125e-01 4.565254e-01 -1.599527e-01 1.322857e+00 -1.116430e-01 1.001568e-01 1.791074e-01 5.382239e-01 2.753788e-01 -4.604417e-01 -3.638905e-01 -1.772908e-01 1.443289e-01 1.862222e-01 -1.726323e-01 -2.464932e-01 -2.106556e-01
<VARIANCE> 39
 7.288208e+00 3.430718e+01 3.392253e+01 3.939020e+01 5.739657e+01 5.401738e+01 6.576246e+01 6.131226e+01 4.329682e+01 4.174357e+01 4.620921e+01 3.369702e+01 1.800911e+01 2.429038e-01 1.263303e+00 9.926012e-01 1.844246e+00 2.060291e+00 2.886995e+00 2.552457e+00 2.309839e+00 2.189573e+00 2.518648e+00 2.120864e+00 2.324791e+00 7.490823e-01 2.000000e-01 2.000000e-01 2.000000e-01 3.132161e-01 4.159065e-01 3.697163e-01 3.265657e-01 3.935473e-01 3.811232e-01 4.335490e-01 2.967327e-01 3.198914e-01 2.000000e-01
<GCONST> 1.087957e+02
<MIXTURE> 2 3.255369e-01
<MEAN> 39
 2.206991e-01 -9.038875e+00 -1.317444e+01 -2.030902e+01 -9.457956e+00 3.041499e+00 -1.001406e+01 -5.244044e+00 -8.798868e+00 3.722280e+00 1.162408e+00 -4.575890e+00 6.077496e+01 -9.257693e-01 -2.574091e+00 2.809251e-01 1.737140e+00 1.323275e+00 -1.454120e+00 -1.652916e+00 5.413927e-01 1.962026e+00 1.335828e+00 -7.031885e-01 -1.173525e+00 1.837013e+00 -2.819772e-01 3.370925e-01 5.452752e-01 4.663694e-01 -4.767550e-01 -8.314405e-01 5.106708e-01 6.634861e-01 4.721503e-01 -7.890313e-01 -6.415768e-01 5.508231e-02 -4.324298e-01
<VARIANCE> 39
 7.729266e+00 3.836635e+01 4.982069e+01 6.624197e+01 6.331329e+01 7.452354e+01 1.002976e+02 7.010734e+01 7.300851e+01 7.360578e+01 1.142886e+02 4.868754e+01 2.809668e+01 5.114132e-01 1.744908e+00 3.148900e+00 2.920720e+00 5.295998e+00 7.667734e+00 5.509514e+00 6.746547e+00 5.487072e+00 6.966580e+00 5.155118e+00 3.126161e+00 1.128930e+00 2.424654e-01 4.032263e-01 3.647112e-01 8.005449e-01 8.845236e-01 1.009535e+00 1.403872e+00 1.138249e+00 1.380313e+00 1.221609e+00 9.214911e-01 7.586204e-01 2.000000e-01
<GCONST> 1.346609e+02
<TRANSP> 5
 0.000000e+00 1.000000e+00 0.000000e+00 0.000000e+00 0.000000e+00
 0.000000e+00 7.621566e-01 2.378434e-01 0.000000e+00 0.000000e+00
 0.000000e+00 0.000000e+00 8.074628e-01 1.925372e-01 0.000000e+00
 0.000000e+00 0.000000e+00 0.000000e+00 7.921891e-01 2.078109e-01
 0.000000e+00 0.000000e+00 0.000000e+00 0.000000e+00 0.000000e+00
<ENDHMM>
~h "y"
<BEGINHMM>
<NUMSTATES> 5
<STATE> 2
<NUMMIXES> 2
<MIXTURE> 1 5.438033e-01
<MEAN> 39
