~o
<STREAMINFO> 1 39
<VECSIZE> 39<NULLD><MFCC_D_A_0><DIAGC>
~h "b"
<BEGINHMM>
<NUMSTATES> 5
<STATE> 2
<NUMMIXES> 5
<MIXTURE> 1 2.868035e-01
<MEAN> 39
 -8.454880e+00 7.066427e+00 2.487925e+00 4.085416e+00 -1.903999e-01 -2.556573e+00 -6.814845e+00 -7.081085e+00 -6.952888e+00 -3.346092e+00 -3.348006e+00 -5.491949e+00 3.602389e+01 9.688113e-02 1.705562e-01 2.520579e-01 2.788982e-01 3.439053e-01 1.385821e-01 -2.450783e-02 -9.778296e-03 1.339986e-01 2.432965e-02 -7.378814e-02 3.497284e-03 4.191760e-02 -3.073868e-01 -7.136739e-01 -3.517578e-01 -4.217136e-01 -3.661142e-01 -1.264476e-01 1.727529e-01 3.013982e-01 1.557707e-01 5.172269e-02 1.209142e-01 2.048032e-01 5.328699e-01
<VARIANCE> 39
 1.299842e+01 5.255988e+00 6.904409e+00 1.387020e+01 1.265133e+01 2.331794e+01 2.698672e+01 2.034464e+01 2.021671e+01 2.390307e+01 2.634169e+01 1.935848e+01 6.807689e+00 2.429240e+00 1.266577e+00 1.179624e+00 1.187199e+00 9.623140e-01 1.680319e+00 1.994803e+00 2.154197e+00 1.664263e+00 1.647582e+00 1.495718e+00 1.494658e+00 1.072888e+00 2.325363e-01 3.282698e-01 2.809053e-01 3.115513e-01 3.449565e-01 3.941965e-01 4.257094e-01 4.014517e-01 4.191211e-01 4.371265e-01 3.606148e-01 3.017751e-01 5.986899e-01
<GCONST> 9.887544e+01
<MIXTURE> 2 2.366949e-01
<MEAN> 39
 -2.872522e+00 2.879962e+00 -2.670311e+00 -1.954735e+00 -1.878358e+00 -5.902881e-01 -7.175920e+00 -9.287623e+00 -9.468024e+00 -4.011916e+00 -6.000524e-01 -3.974337e+00 4.220204e+01 -1.417635e+00 2.001629e+00 8.967028e-01 2.157128e+00 1.758176e+00 2.686478e-01 8.821592e-01 -8.167371e-02 3.122869e-02 -6.606944e-01 -1.068542e+00 5.949242e-02 -2.643412e+00 -2.599527e-01 -1.319352e+00 1.534887e-01 -7.794719e-01 -1.110117e+00 -6.864384e-01 -5.112799e-01 6.972230e-01 7.205431e-01 3.781402e-01 1.546256e-01 -1.095662e-01 1.868237e+00
<VARIANCE> 39
 9.966832e+00 2.147237e+01 1.506837e+01 3.242436e+01 1.845151e+01 2.533728e+01 2.702064e+01 2.491785e+01 2.822627e+01 2.393266e+01 2.225737e+01 2.578136e+01 1.870375e+01 1.487765e+00 4.501084e+00 3.659178e+00 4.354252e+00 4.432098e+00 5.023362e+00 3.734411e+00 3.805171e+00 4.881147e+00 4.198827e+00 2.951731e+00 2.285585e+00 5.745373e+00 2.678336e-01 6.126059e-01 8.304554e-01 6.617785e-01 7.453131e-01 6.474158e-01 8.067980e-01 8.260706e-01 1.156633e+00 6.849488e-01 6.275796e-01 5.520759e-01 6.247813e-01
<GCONST> 1.234917e+02
<MIXTURE> 3 1.457068e-01
<MEAN> 39
 -2.112007e+01 -1.725798e+00 -5.886735e+00 -9.530548e-01 -3.137087e+00 -1.079227e+00 -1.470218e+00 -5.504759e-01 -1.468304e+00 -3.037047e-02 -4.417735e-02 -2.535400e-01 2.938692e+01 6.110620e-02 1.978234e-01 3.284208e-01 4.762601e-01 2.611422e-01 4.356481e-01 3.349520e-01 2.841846e-01 3.826312e-01 2.300742e-01 2.988825e-01 1.346837e-01 -6.396700e-02 3.627135e-01 -3.433302e-02 2.194415e-01 -1.783571e-02 -1.034046e-01 -1.463074e-01 -1.313253e-01 -2.572366e-02 5.761101e-03 -9.636011e-02 -1.961314e-01 -1.117493e-01 6.898722e-01
<VARIANCE> 39
 1.980919e+00 3.965568e+00 4.243052e+00 7.707399e+00 8.499398e+00 9.098452e+00 1.199069e+01 1.240862e+01 1.097380e+01 1.211460e+01 1.323426e+01 1.265239e+01 6.867968e+00 1.284952e+00 1.481567e+00 1.571985e+00 1.357057e+00 1.316502e+00 1.342233e+00 1.546521e+00 1.739094e+00 1.893918e+00 1.609414e+00 1.405611e+00 1.531982e+00 1.238361e+00 2.168209e-01 2.222859e-01 2.108844e-01 2.100644e-01 2.502747e-01 3.348399e-01 3.582459e-01 3.430023e-01 3.573070e-01 3.532280e-01 3.204075e-01 3.198567e-01 7.075867e-01
<GCONST> 8.815060e+01
<MIXTURE> 4 1.862397e-01
<MEAN> 39
 -6.153889e+00 1.318610e+00 -9.018074e-01 -2.903659e+00 -6.582912e+00 -8.234336e+00 -1.193507e+01 -9.073139e+00 -8.715859e+00 -5.273516e+00 -5.804813e+00 -7.730752e+00 4.288217e+01 -8.386403e-01 8.517597e-01 1.194592e+00 1.347434e+00 1.553178e-01 2.137639e-01 6.480188e-02 -4.808790e-01 -7.139433e-01 -1.082069e+00 2.141720e-02 -3.285891e-01 -7.400568e-01 -2.277436e-01 -1.081131e+00 -2.390218e-02 -1.111130e+00 -6.612057e-01 -3.850293e-02 4.730864e-01 7.719221e-01 2.670826e-01 4.464956e-01 1.358438e-01 5.758272e-01 1.434515e+00
<VARIANCE> 39
 1.954136e+01 4.293132e+01 2.268957e+01 3.352625e+01 2.448565e+01 3.966966e+01 3.306502e+01 3.693081e+01 4.070883e+01 4.309625e+01 4.681188e+01 2.842433e+01 5.778357e+01 4.050039e+00 5.399854e+00 3.564322e+00 8.243744e+00 4.414199e+00 4.326144e+00 3.638262e+00 5.015299e+00 4.269364e+00 4.058753e+00 2.860849e+00 3.667400e+00 1.188037e+01 4.441040e-01 9.875036e-01 1.015352e+00 1.074573e+00 8.285429e-01 8.384043e-01 8.494913e-01 1.072054e+00 1.069454e+00 8.243790e-01 7.752162e-01 5.780481e-01 1.933703e+00
<GCONST> 1.362824e+02
<MIXTURE> 5 1.445523e-01
<MEAN> 39
 -2.098299e+01 -1.659919e+00 -5.753842e+00 -7.285016e-01 -3.263308e+00 -9.644554e-01 -2.081370e+00 -4.606987e-01 -1.374175e+00 -5.772440e-01 -1.221988e+00 -6.395701e-01 3.036472e+01 -1.374441e-01 1.011629e-03 -9.717022e-02 -1.086612e-01 -2.258686e-01 -2.829770e-01 -3.153364e-01 -3.360631e-01 -4.291606e-01 -2.902246e-01 -3.522123e-01 -1.958960e-01 -1.968591e-01 1.549117e-01 -7.458501e-02 7.455755e-02 -8.190869e-02 -2.062627e-02 -1.045515e-01 6.037434e-03 -1.597767e-02 -4.789522e-02 -3.958775e-02 2.175773e-02 -4.790260e-03 2.835800e-01
<VARIANCE> 39
 3.922208e+00 3.954319e+00 5.942309e+00 9.804700e+00 9.063129e+00 1.273631e+01 1.190470e+01 1.218391e+01 1.574939e+01 1.274752e+01 1.245541e+01 1.336816e+01 4.683775e+00 3.908946e-01 4.631429e-01 6.529555e-01 8.275309e-01 8.974920e-01 1.001059e+00 1.141691e+00 1.335701e+00 1.663408e+00 1.461471e+00 1.447580e+00 1.479894e+00 4.465366e-01 2.000000e-01 2.000000e-01 2.214660e-01 2.367304e-01 2.285585e-01 3.325985e-01 2.742885e-01 2.947839e-01 4.409383e-01 3.054827e-01 3.265487e-01 3.028513e-01 3.685381e-01
<GCONST> 8.242916e+01
<STATE> 3
<NUMMIXES> 5
<MIXTURE> 1 1.819072e-01
<MEAN> 39
 -2.008947e+01 -7.478957e-01 -4.935915e+00 3.327343e-02 -2.079846e+00 -1.497632e-01 -1.734184e+00 -4.768238e-01 -1.896404e+00 -7.448755e-01 -1.099740e+00 -9.247610e-01 3.046339e+01 1.064592e+00 -1.496913e+00 6.190624e-01 -9.048088e-01 -1.131148e+00 -1.576374e+00 -2.673706e-01 4.470090e-01 3.833861e-01 1.433379e-01 4.932392e-02 2.265342e-01 4.944788e+00 1.035659e+00 -2.491273e-01 8.609487e-01 -7.115283e-01 -1.018908e+00 -7.213603e-01 -5.773174e-01 -4.736737e-01 -5.764795e-01 -1.758378e-01 -1.400325e-01 -2.063658e-01 2.068652e+00
<VARIANCE> 39
 5.055260e+00 5.796087e+00 9.368305e+00 9.022711e+00 1.174556e+01 1.245044e+01 1.124868e+01 1.179115e+01 1.201089e+01 1.199665e+01 9.256072e+00 9.539509e+00 9.141747e+00 2.919961e+00 2.121367e+00 4.281689e+00 1.987631e+00 2.548158e+00 3.878612e+00 3.010914e+00 2.878851e+00 2.507521e+00 2.798700e+00 2.292101e+00 2.155733e+00 7.735508e+00 2.011116e-01 3.008707e-01 8.822120e-01 5.183231e-01 5.770395e-01 6.656974e-01 5.441850e-01 6.417533e-01 6.978517e-01 5.948659e-01 4.841231e-01 3.745533e-01 4.026134e-01
<GCONST> 1.059434e+02
<MIXTURE> 2 2.509050e-01
<MEAN> 39
 -1.062394e+01 -5.923528e+00 -2.307106e+00 -2.957141e+00 -5.243489e+00 -6.520724e+00 -6.454641e+00 -2.676677e+00 -1.184053e+00 -1.702240e+00 -2.065516e+00 -2.077131e+00 5.125644e+01 8.148253e-01 -2.554003e+00 1.904768e+00 -1.098981e+00 -3.440402e+00 -2.248337e+00 -7.451136e-01 1.245217e+00 -2.879739e-01 -1.055179e+00 6.921300e-01 5.656510e-01 5.021550e+00 5.512272e-01 2.777096e-01 7.134289e-01 -4.390064e-01 -9.382629e-01 2.005768e-01 -3.084963e-01 -3.924698e-01 -8.843157e-01 -2.102997e-01 3.743490e-01 -1.512572e-01 -5.081209e-03
<VARIANCE> 39
 4.122121e+01 1.910235e+01 2.584726e+01 4.119366e+01 2.389154e+01 3.904919e+01 4.471364e+01 3.725980e+01 3.155128e+01 2.965172e+01 2.250980e+01 1.613053e+01 3.872860e+01 3.604849e+00 3.393043e+00 6.607961e+00 4.865338e+00 5.231700e+00 4.807459e+00 4.807456e+00 5.020979e+00 4.930806e+00 4.265817e+00 2.732163e+00 2.263572e+00 7.285704e+00 6.437138e-01 6.419379e-01 8.910570e-01 7.179153e-01 5.807439e-01 9.720953e-01 9.929091e-01 8.478809e-01 1.070872e+00 9.657993e-01 6.521378e-01 5.045701e-01 8.913767e-01
<GCONST> 1.319353e+02
<MIXTURE> 3 1.820285e-01
<MEAN> 39
 -8.036419e+00 6.548499e+00 1.492777e+00 3.537882e+00 1.155456e+00 -7.471849e-01 -5.493823e+00 -6.734236e+00 -6.427797e+00 -3.499921e+00 -2.849551e+00 -3.823398e+00 3.699422e+01 -1.392411e+00 -2.988224e+00 -5.936632e-01 -1.186316e+00 -1.329166e+00 -1.309759e+00 1.932256e-01 1.321238e+00 1.447305e+00 1.556950e-01 2.780870e-02 5.574300e-01 3.797291e+00 3.354550e-01 -1.187199e+00 8.439441e-02 -9.160320e-01 -1.397747e+00 -7.456747e-01 -3.602090e-01 2.706414e-01 -1.515705e-02 4.149696e-03 5.195549e-01 9.498009e-02 1.897585e+00
<VARIANCE> 39
 1.415683e+01 8.144998e+00 8.676592e+00 1.295800e+01 9.767315e+00 1.654703e+01 2.008738e+01 1.737871e+01 1.802540e+01 1.679239e+01 1.878509e+01 1.433303e+01 9.930616e+00 1.725430e+00 1.671448e+00 2.493609e+00 2.331887e+00 2.378567e+00 3.437046e+00 4.056985e+00 2.427198e+00 3.445800e+00 3.868619e+00 2.778895e+00 2.382853e+00 4.389542e+00 4.226667e-01 3.934196e-01 9.912547e-01 5.837152e-01 5.970644e-01 6.139426e-01 6.076131e-01 6.769198e-01 6.831247e-01 6.758530e-01 4.666142e-01 4.185857e-01 3.424175e-01
<GCONST> 1.111483e+02
<MIXTURE> 4 2.143467e-01
<MEAN> 39
 -1.200815e+01 -5.465056e+00 2.903427e+00 -2.824459e+00 -9.737659e+00 -1.063772e+01 -4.976422e+00 -1.422323e+00 -5.275236e+00 -4.528177e+00 -2.762624e+00 -1.703226e+00 5.417606e+01 1.212081e+00 -1.827575e+00 3.916649e+00 -3.215249e+00 -4.698777e+00 -1.521254e+00 -8.195354e-01 -5.978813e-01 -2.382299e+00 1.518426e-02 8.081104e-02 6.586403e-02 5.532645e+00 1.457364e-01 6.363719e-01 4.696493e-01 -7.797636e-01 -2.400934e-01 7.107970e-01 -5.975484e-01 -7.232340e-01 -5.072673e-01 3.524345e-01 -1.681252e-01 -3.215976e-01 -8.820916e-01
<VARIANCE> 39
 2.240986e+01 1.478279e+01 2.542084e+01 3.829428e+01 2.900508e+01 3.446777e+01 4.666301e+01 3.336520e+01 3.910594e+01 2.933360e+01 2.369053e+01 1.927216e+01 2.994729e+01 3.501538e+00 3.379055e+00 3.268574e+00 6.342804e+00 3.844833e+00 5.100752e+00 5.273426e+00 7.285714e+00 4.678608e+00 5.977974e+00 4.143436e+00 3.350138e+00 5.686705e+00 4.382375e-01 5.440900e-01 5.957841e-01 8.207924e-01 7.513824e-01 9.363218e-01 1.030315e+00 8.372406e-01 8.679110e-01 8.140826e-01 7.651799e-01 4.530554e-01 1.000481e+00
<GCONST> 1.309595e+02
<MIXTURE> 5 1.708101e-01
<MEAN> 39
 -8.157434e+00 2.780403e+00 6.170102e-01 6.968434e-01 -2.427520e+00 -5.169844e+00 -9.627484e+00 -9.099685e+00 -8.900173e+00 -6.037447e+00 -5.470747e+00 -6.757412e+00 4.074502e+01 -9.587897e-01 -2.929583e+00 3.987668e-01 -1.897485e+00 -1.985055e+00 -1.028256e+00 7.174224e-01 1.879604e+00 9.336339e-01 3.483679e-01 7.609651e-01 1.227095e+00 4.344265e+00 4.953768e-01 -1.010520e+00 9.458868e-02 -1.589310e+00 -1.241794e+00 -3.198341e-01 -3.153148e-01 4.655450e-01 -6.642450e-04 6.157964e-01 2.373777e-01 3.077527e-01 1.706356e+00
<VARIANCE> 39
 1.850449e+01 2.095184e+01 1.326961e+01 2.162607e+01 2.011606e+01 2.240601e+01 2.130154e+01 2.213060e+01 2.308625e+01 2.824797e+01 2.657140e+01 2.021142e+01 2.563791e+01 2.114601e+00 2.271364e+00 5.536799e+00 4.505969e+00 4.316077e+00 4.082405e+00 5.881610e+00 3.815539e+00 4.828944e+00 4.639498e+00 3.138171e+00 2.266406e+00 3.645883e+00 5.462555e-01 5.607870e-01 1.160992e+00 1.051116e+00 9.331107e-01 9.854928e-01 9.258857e-01 7.768274e-01 8.901563e-01 9.391293e-01 8.130021e-01 6.044623e-01 5.760784e-01
<GCONST> 1.258661e+02
<STATE> 4
<NUMMIXES> 4
<MIXTURE> 1 2.091781e-01
<MEAN> 39
 -6.275647e+00 -4.119477e+00 -8.664384e+00 -1.018231e+01 -5.406614e+00 -3.420602e+00 -6.963708e+00 -5.936393e+00 -3.299000e+00 -4.833319e-01 -4.482971e-03 -1.164312e+00 5.536502e+01 2.480788e+00 -2.204031e+00 -2.610965e+00 -3.668928e+00 -1.500292e+00 -4.060584e-01 -2.158732e+00 2.444947e-01 1.430528e+00 1.534463e+00 1.101743e+00 2.351818e-01 4.687302e+00 3.745114e-01 2.073115e-01 2.126999e-02 1.180244e-01 1.013047e-02 9.200946e-02 -4.229988e-01 9.765987e-02 -1.452158e-01 -2.519028e-01 -2.032185e-01 -2.087206e-01 -7.164913e-01
<VARIANCE> 39
 3.366423e+01 1.893280e+01 2.864360e+01 5.536694e+01 2.567533e+01 4.270350e+01 3.784603e+01 2.801447e+01 3.397271e+01 3.178171e+01 2.361152e+01 1.558075e+01 2.690440e+01 3.799564e+00 4.354731e+00 5.593702e+00 8.885986e+00 5.270274e+00 8.743206e+00 8.178497e+00 6.731705e+00 5.621882e+00 4.998190e+00 4.996590e+00 3.961285e+00 6.728958e+00 7.890190e-01 5.028594e-01 7.107040e-01 9.589022e-01 5.801331e-01 7.682533e-01 1.015368e+00 6.434140e-01 9.336788e-01 7.017663e-01 5.887599e-01 5.577933e-01 8.551624e-01
<GCONST> 1.341980e+02
<MIXTURE> 2 3.722999e-01
<MEAN> 39
 -6.306632e+00 -9.477322e+00 1.075886e+01 -1.994159e+00 -1.800460e+01 -1.141834e+01 -1.105295e+01 -7.128186e-01 -9.309373e+00 -8.898025e+00 2.606680e+00 -1.985383e+00 5.852573e+01 1.411078e-02 -8.632661e-01 4.008287e+00 -1.419436e+00 -4.306400e+00 -2.148941e-02 -3.678029e-01 -1.715115e-02 -2.751261e+00 -1.240924e+00 1.358190e+00 -1.232623e-01 2.341867e+00 -2.552529e-01 9.727405e-01 -4.556657e-01 -3.012704e-01 9.093777e-01 1.067317e+00 1.441199e-01 -8.046826e-01 5.131623e-02 6.866856e-01 -2.508554e-01 -3.759344e-01 -1.144353e+00
<VARIANCE> 39
 8.821930e+00 2.007737e+01 2.617055e+01 3.156556e+01 3.168639e+01 3.187190e+01 4.241882e+01 3.230969e+01 3.812613e+01 2.421205e+01 2.917987e+01 1.964406e+01 2.631468e+01 2.399775e+00 2.790820e+00 2.329240e+00 2.744717e+00 4.021200e+00 3.619946e+00 4.698720e+00 5.122291e+00 4.076544e+00 4.292164e+00 3.008513e+00 2.422415e+00 3.507025e+00 2.306651e-01 2.702935e-01 3.431760e-01 4.814926e-01 5.385152e-01 3.782819e-01 5.967041e-01 4.375792e-01 5.526415e-01 3.618258e-01 4.243651e-01 3.040499e-01 5.726172e-01
<GCONST> 1.181551e+02
<MIXTURE> 3 2.824593e-01
<MEAN> 39
 -9.628900e+00 -5.594853e+00 1.333925e+01 -1.403210e+01 -2.059355e+01 -9.760684e+00 -9.008838e+00 -8.679581e+00 -1.503420e+01 2.818636e-01 -5.252963e+00 -4.499727e+00 5.816910e+01 2.893566e-01 4.680623e-01 3.172563e+00 -4.402839e+00 -2.716901e+00 9.002251e-01 -1.620525e+00 -1.853864e+00 -1.743846e+00 1.284515e+00 -1.068188e+00 -3.257724e-01 1.866796e+00 -4.813924e-01 7.626203e-01 -1.069867e+00 5.772298e-01 1.379344e+00 6.509975e-01 -3.949824e-02 2.755726e-01 9.050928e-01 -3.072125e-01 -7.856593e-02 1.478069e-01 -1.472581e+00
<VARIANCE> 39
 7.267477e+00 1.768431e+01 2.528847e+01 6.732352e+01 2.569679e+01 4.082928e+01 3.210863e+01 4.325583e+01 4.437155e+01 3.451289e+01 3.717499e+01 2.485802e+01 1.811262e+01 1.736968e+00 2.523934e+00 3.417595e+00 4.077272e+00 5.002491e+00 5.630571e+00 5.185457e+00 5.076778e+00 6.094056e+00 5.312981e+00 3.845747e+00 2.846278e+00 3.776230e+00 2.737236e-01 3.165089e-01 3.838019e-01 7.942076e-01 4.564251e-01 6.396815e-01 6.157998e-01 8.030089e-01 6.082319e-01 6.073137e-01 5.271366e-01 3.363318e-01 4.460233e-01
<GCONST> 1.240420e+02
<MIXTURE> 4 1.360626e-01
<MEAN> 39
 -4.414528e+00 -7.452236e+00 -5.132502e+00 -1.343895e+01 -9.873422e+00 -6.999899e+00 -1.100464e+01 -2.436550e+00 -1.896829e+00 2.321717e-01 -4.163380e-01 -3.532400e+00 5.877195e+01 1.620563e+00 -1.996602e+00 -3.225288e-01 -2.699074e+00 -2.457511e+00 -1.428310e+00 -1.304379e+00 1.761531e+00 3.622609e-01 2.373236e-01 -2.380449e-01 -3.111750e-02 3.419999e+00 -2.185504e-01 5.735962e-01 2.901957e-01 7.415226e-01 2.395173e-01 2.730463e-01 4.206782e-01 -1.023483e-01 -6.219096e-01 -4.197739e-01 -3.239216e-01 -9.641888e-02 -1.285023e+00
<VARIANCE> 39
 2.264757e+01 3.053119e+01 4.650442e+01 7.699467e+01 4.558822e+01 9.340331e+01 9.613159e+01 5.140128e+01 4.081087e+01 3.208581e+01 6.492368e+01 4.203719e+01 3.102166e+01 4.481237e+00 4.391242e+00 7.527198e+00 1.122883e+01 4.574680e+00 8.068363e+00 8.634700e+00 6.691093e+00 5.810302e+00 6.360353e+00 5.930794e+00 5.523564e+00 8.090475e+00 4.942631e-01 3.954897e-01 5.075710e-01 8.334420e-01 6.794891e-01 9.493484e-01 1.169486e+00 8.069540e-01 1.112250e+00 7.408824e-01 9.090314e-01 8.176214e-01 6.217486e-01
<GCONST> 1.421018e+02
<TRANSP> 5
 0.000000e+00 1.000000e+00 0.000000e+00 0.000000e+00 0.000000e+00
 0.000000e+00 7.257053e-01 2.742947e-01 0.000000e+00 0.000000e+00
 0.000000e+00 0.000000e+00 6.131775e-01 3.868225e-01 0.000000e+00
 0.000000e+00 0.000000e+00 0.000000e+00 4.274188e-01 5.725812e-01
 0.000000e+00 0.000000e+00 0.000000e+00 0.000000e+00 0.000000e+00
<ENDHMM>
~h "d"
<BEGINHMM>
<NUMSTATES> 5
<STATE> 2
<NUMMIXES> 5
<MIXTURE> 1 1.558457e-01
<MEAN> 39
 -8.835760e+00 7.938011e+00 5.834372e+00 4.726703e+00 -3.778387e+00 -4.609601e+00 -5.458450e+00 -4.447114e+00 -4.990734e+00 -3.888642e+00 -4.207376e+00 -3.692881e+00 3.598719e+01 -1.710051e-01 3.408119e-01 -7.108821e-02 4.080765e-01 5.706928e-01 2.304918e-01 -7.296339e-02 1.890604e-01 3.632129e-01 6.181016e-02 -1.776036e-02 2.282619e-01 -5.324570e-01 -3.870607e-01 -5.648098e-01 -2.255126e-01 -5.133961e-01 -1.985108e-02 1.471456e-01 1.559391e-01 6.199556e-02 -7.873603e-02 5.400307e-02 4.045654e-02 -4.591564e-02 4.878265e-01
<VARIANCE> 39
 5.189040e+00 4.580717e+00 9.917410e+00 1.043937e+01 1.779085e+01 1.655020e+01 1.581648e+01 1.726767e+01 1.713122e+01 1.673827e+01 1.416401e+01 1.133021e+01 3.342828e+00 9.774109e-01 8.680647e-01 1.481845e+00 1.435425e+00 2.167876e+00 1.903674e+00 1.831400e+00 1.482553e+00 1.578772e+00 1.276479e+00 1.463242e+00 1.223730e+00 1.369518e+00 2.000000e-01 3.014253e-01 2.715952e-01 4.371269e-01 4.022438e-01 2.936008e-01 3.703414e-01 3.242906e-01 3.454458e-01 2.679549e-01 2.695382e-01 2.264902e-01 5.544506e-01
<GCONST> 9.236757e+01
<MIXTURE> 2 2.209063e-01
<MEAN> 39
 -1.260552e+01 6.923848e-01 1.652013e+00 6.059563e-01 -5.585523e+00 -4.884251e+00 -5.121445e+00 -3.418041e+00 -3.768049e+00 -3.175540e+00 -4.398892e+00 -3.363668e+00 3.945852e+01 -7.613211e-01 9.371895e-01 -5.153688e-02 6.607414e-01 1.204972e+00 2.176234e-01 4.087691e-01 2.085362e-01 2.093426e-01 8.586854e-02 -2.749054e-01 1.039827e-01 -1.136267e+00 3.957516e-02 -5.166744e-01 -1.391064e-01 -8.010460e-01 -4.359801e-01 6.051349e-02 -2.145442e-01 -2.513869e-03 -1.161764e-01 6.035449e-02 3.876871e-01 2.111619e-01 1.085614e+00
<VARIANCE> 39
 5.073034e+01 2.881955e+01 5.420652e+01 4.228826e+01 3.861788e+01 3.677293e+01 3.619410e+01 3.250956e+01 3.128509e+01 2.622512e+01 2.990732e+01 2.400861e+01 5.637395e+01 3.563902e+00 6.176421e+00 4.725265e+00 6.039988e+00 6.506977e+00 4.386045e+00 4.727269e+00 4.761885e+00 4.480112e+00 2.982232e+00 3.671994e+00 2.612852e+00 1.289420e+01 4.353469e-01 7.044224e-01 6.811678e-01 9.827327e-01 9.048703e-01 8.515444e-01 7.948928e-01 7.591818e-01 7.260133e-01 5.964988e-01 6.565997e-01 5.053452e-01 1.498483e+00
<GCONST> 1.347832e+02
<MIXTURE> 3 2.683695e-01
<MEAN> 39
 -1.186607e+01 6.565619e+00 3.372627e+00 3.909758e+00 -1.514037e+00 -3.273825e+00 -5.886850e+00 -5.207308e+00 -6.434385e+00 -5.467864e+00 -5.964952e+00 -4.667800e+00 3.445456e+01 -2.225861e+00 -3.150365e+00 -1.685102e+00 -3.083399e+00 2.898882e-01 7.814444e-01 1.103599e+00 1.012261e+00 8.012521e-01 1.028566e+00 1.415893e+00 1.009770e+00 3.389622e+00 8.569649e-02 -8.715992e-01 -4.314569e-02 -1.261161e+00 -1.190718e+00 -6.723603e-01 1.506401e-02 7.127207e-02 7.627204e-02 3.238358e-01 4.014368e-01 3.072194e-01 2.129543e+00
<VARIANCE> 39
 1.332904e+01 6.739691e+00 1.099061e+01 1.099783e+01 1.689637e+01 2.106630e+01 1.891380e+01 1.834421e+01 2.242223e+01 1.730510e+01 1.669813e+01 1.506040e+01 6.942200e+00 1.384735e+00 2.321168e+00 2.124283e+00 4.582804e+00 3.946778e+00 3.577420e+00 3.135069e+00 3.148880e+00 3.712993e+00 3.051562e+00 2.775928e+00 2.240224e+00 9.090263e+00 3.396315e-01 6.031114e-01 5.449123e-01 6.445349e-01 5.650510e-01 5.555057e-01 6.533965e-01 6.170219e-01 6.773154e-01 5.350115e-01 4.714439e-01 4.368413e-01 6.395817e-01
<GCONST> 1.132216e+02
<MIXTURE> 4 1.843963e-01
<MEAN> 39
 -8.085893e+00 4.953476e+00 3.667875e+00 1.729501e-02 -8.138099e+00 -8.892642e+00 -8.954388e+00 -8.184706e+00 -8.853004e+00 -6.992691e+00 -8.581120e+00 -6.460026e+00 3.958298e+01 -1.101464e+00 1.516861e+00 -9.035016e-02 1.770735e+00 2.048083e+00 7.617865e-01 2.455450e-01 5.007190e-02 -2.425979e-01 -6.489872e-01 -1.092841e-01 -8.170422e-01 -2.390325e+00 -4.148253e-01 -1.169918e+00 -3.335306e-01 -1.331007e+00 -2.965096e-01 3.170508e-01 1.047513e-01 4.643649e-01 4.154160e-01 6.273363e-01 5.460061e-01 5.880411e-01 1.529033e+00
<VARIANCE> 39
 1.589855e+01 1.716515e+01 2.205251e+01 2.621998e+01 3.430645e+01 3.237546e+01 2.690316e+01 3.842329e+01 3.807826e+01 3.107973e+01 2.582582e+01 2.629946e+01 1.977414e+01 3.258415e+00 5.803507e+00 4.553633e+00 8.667757e+00 5.130877e+00 5.829699e+00 4.258638e+00 5.447310e+00 4.775851e+00 4.211944e+00 3.701263e+00 4.069674e+00 8.695969e+00 3.279102e-01 7.617522e-01 5.949193e-01 1.036127e+00 8.738014e-01 8.422928e-01 1.060865e+00 9.729820e-01 8.740589e-01 7.856784e-01 6.853917e-01 6.085140e-01 1.406535e+00
<GCONST> 1.321605e+02
<MIXTURE> 5 1.704712e-01
<MEAN> 39
 -9.121226e+00 7.998400e+00 4.018887e+00 2.281666e+00 -4.555735e+00 -5.166708e+00 -6.393056e+00 -5.836925e+00 -6.905197e+00 -6.241463e+00 -7.476961e+00 -6.120914e+00 3.574117e+01 -6.548399e-01 1.459575e-01 -2.143950e-01 5.773784e-01 1.246409e+00 6.861682e-01 4.994190e-02 3.096955e-02 -3.184765e-02 -1.490687e-01 3.212636e-02 3.421709e-02 -7.181190e-01 -5.487040e-01 -1.041938e+00 -2.829995e-01 -8.855094e-01 -2.860435e-01 1.177362e-01 1.889338e-01 1.324453e-01 1.665663e-01 3.582491e-01 4.439146e-01 3.832259e-01 1.066866e+00
<VARIANCE> 39
 6.932565e+00 3.668202e+00 7.710140e+00 1.653258e+01 2.664016e+01 2.277617e+01 2.044612e+01 2.317502e+01 2.044337e+01 1.817702e+01 1.799856e+01 1.817936e+01 3.786068e+00 1.932983e+00 1.349923e+00 1.471950e+00 1.430753e+00 2.714170e+00 1.965066e+00 1.890076e+00 1.937961e+00 2.084010e+00 1.716506e+00 1.677649e+00 1.440225e+00 1.402873e+00 2.066820e-01 4.221752e-01 3.578844e-01 7.691967e-01 6.133407e-01 4.751649e-01 4.688783e-01 5.300735e-01 5.620762e-01 4.081530e-01 3.631004e-01 4.100671e-01 1.103644e+00
<GCONST> 1.029092e+02
<STATE> 3
<NUMMIXES> 5
<MIXTURE> 1 1.231623e-01
<MEAN> 39
 -2.078984e+01 -9.441099e-01 -5.284914e+00 -6.858130e-01 -2.912220e+00 -7.183362e-01 -1.865076e+00 -4.729603e-01 -1.596578e+00 -4.026111e-01 -5.980842e-01 -2.576163e-01 3.014432e+01 -2.519803e-01 -3.289595e-02 -8.272868e-02 1.645988e-01 1.822728e-01 2.482577e-01 3.537034e-01 5.124279e-01 4.794317e-01 3.748166e-01 4.335468e-01 3.114756e-01 -3.174362e-01 1.088484e-01 -1.125472e-01 6.970636e-02 -2.122112e-01 -3.537167e-02 -5.447403e-03 -2.691462e-02 -1.182119e-01 -4.028315e-02 -4.858872e-02 -1.091962e-01 -1.013606e-01 4.762455e-01
<VARIANCE> 39
 2.906048e+00 4.340897e+00 6.593879e+00 8.605813e+00 1.053175e+01 9.772151e+00 1.166203e+01 1.316116e+01 1.377280e+01 1.422485e+01 1.416024e+01 1.240253e+01 4.407309e+00 6.620268e-01 6.914333e-01 9.367253e-01 1.182977e+00 1.307593e+00 1.129211e+00 1.701699e+00 1.501466e+00 1.550118e+00 1.578497e+00 1.697644e+00 1.546294e+00 6.084509e-01 2.000000e-01 2.000000e-01 2.000000e-01 3.405493e-01 2.157597e-01 2.900711e-01 3.770918e-01 3.672872e-01 3.585440e-01 3.539162e-01 4.016543e-01 3.164923e-01 5.876508e-01
<GCONST> 8.654729e+01
<MIXTURE> 2 1.860076e-01
<MEAN> 39
 -1.714312e+01 -6.162283e+00 -1.445092e+00 -7.717883e+00 -2.186500e+00 -1.727790e+00 -3.288018e+00 -1.448658e+00 -2.799158e+00 -1.308599e+00 -1.522341e+00 -1.283336e+00 4.679743e+01 -1.130600e+00 -2.069762e+00 -9.427422e-01 -3.131188e+00 -8.916224e-01 -7.863770e-01 6.863845e-01 7.923012e-01 7.311360e-01 8.818765e-01 1.131908e+00 1.132693e+00 5.358944e+00 8.273912e-01 6.169568e-01 4.117947e-01 3.921794e-01 -1.034953e+00 -8.455403e-01 -3.174702e-01 -2.587278e-01 -2.081972e-01 -2.003362e-01 -3.516180e-01 -8.598123e-02 9.108707e-02
<VARIANCE> 39
 3.174746e+01 3.372023e+01 3.413693e+01 4.274085e+01 3.767088e+01 3.564548e+01 3.054182e+01 2.547392e+01 2.791426e+01 2.397667e+01 2.033030e+01 1.939226e+01 6.588545e+01 3.816008e+00 4.039024e+00 3.057624e+00 4.407085e+00 3.735912e+00 4.607119e+00 5.306194e+00 4.250722e+00 4.020429e+00 3.251631e+00 3.005107e+00 2.622559e+00 1.083962e+01 5.170974e-01 7.621868e-01 8.756738e-01 1.090796e+00 1.125711e+00 9.140640e-01 8.204641e-01 8.960842e-01 8.228572e-01 7.439007e-01 6.682338e-01 5.683364e-01 1.020230e+00
<GCONST> 1.320899e+02
<MIXTURE> 3 2.488945e-01
<MEAN> 39
 -2.123583e+01 -9.831239e-01 -5.525722e+00 -3.018882e-01 -2.703353e+00 -5.071611e-01 -1.956230e+00 -5.903074e-01 -1.550984e+00 -4.436540e-01 -7.919232e-01 -3.477649e-01 2.948644e+01 -8.959990e-03 -1.770859e+00 -4.861255e-01 -2.513858e+00 -2.391893e-01 -4.989841e-01 2.557744e-01 9.314382e-02 2.297721e-01 6.603842e-01 6.351861e-01 4.834522e-01 4.600618e+00 5.578784e-01 2.872015e-02 4.946177e-01 -6.652400e-01 -5.185894e-01 -6.769931e-01 -2.641205e-01 -3.612328e-01 -3.084469e-01 -2.175329e-01 -2.078733e-01 -1.353587e-01 2.188306e+00
<VARIANCE> 39
 1.656138e+00 3.583445e+00 5.250806e+00 6.662627e+00 7.614143e+00 8.488723e+00 1.043995e+01 1.167275e+01 1.173938e+01 1.148068e+01 1.016688e+01 1.071021e+01 3.932795e+00 1.884456e+00 2.166868e+00 2.810073e+00 3.763399e+00 2.129928e+00 2.769707e+00 3.101997e+00 2.833057e+00 3.046194e+00 2.619185e+00 2.435527e+00 1.911202e+00 1.420471e+01 3.060581e-01 4.263833e-01 4.402966e-01 4.424540e-01 4.158031e-01 3.997206e-01 5.228702e-01 5.015222e-01 4.628691e-01 3.754036e-01 3.892005e-01 3.765422e-01 6.466337e-01
<GCONST> 1.000182e+02
<MIXTURE> 4 2.498634e-01
<MEAN> 39
 -1.706225e+01 -7.596486e+00 -2.016317e+00 -1.108553e+01 -3.596323e+00 -3.390470e+00 -3.106088e+00 -2.313080e+00 -3.699611e+00 -1.674186e+00 -1.185649e+00 -1.278780e+00 5.419531e+01 -2.061829e-01 -1.986012e+00 3.345845e-01 -3.414893e+00 -2.414441e+00 -1.794304e+00 -3.785191e-01 1.200228e-01 -6.818886e-02 4.302009e-01 9.473603e-01 7.916591e-01 6.899189e+00 1.002853e+00 6.893249e-01 9.154570e-01 6.950450e-01 -1.266006e+00 -5.390048e-01 -6.716861e-01 -1.773990e-01 -2.760684e-01 -2.183745e-01 -2.768828e-01 -2.328793e-01 -5.416217e-01
<VARIANCE> 39
 1.965508e+01 2.270194e+01 3.607107e+01 2.995333e+01 3.827761e+01 3.594622e+01 3.889582e+01 3.623952e+01 3.453884e+01 3.083712e+01 2.279576e+01 1.968759e+01 3.391922e+01 3.959361e+00 3.536649e+00 3.748415e+00 3.107787e+00 3.785869e+00 3.475859e+00 5.039432e+00 4.741316e+00 4.742622e+00 3.214140e+00 3.271889e+00 2.351216e+00 4.725931e+00 3.938028e-01 6.541567e-01 1.072346e+00 9.990017e-01 1.059027e+00 9.755909e-01 1.058168e+00 1.007226e+00 1.234700e+00 9.478631e-01 8.117175e-01 6.165904e-01 7.512630e-01
<GCONST> 1.309932e+02
<MIXTURE> 5 1.920645e-01
<MEAN> 39
 -2.146812e+01 -1.605895e+00 -6.162901e+00 -8.913936e-01 -3.115434e+00 -7.146446e-01 -1.985744e+00 -7.122241e-01 -1.366001e+00 -3.352458e-01 -7.668618e-01 -4.169683e-01 2.901492e+01 -9.382823e-02 -7.665313e-02 -1.281215e-01 -7.373220e-03 -8.109745e-02 -1.530582e-01 -2.041940e-01 -7.072745e-02 -7.746568e-02 -1.167469e-01 -7.975404e-02 -9.935129e-02 -1.250748e-01 1.147972e-01 -2.576051e-02 9.027965e-02 -1.448852e-01 2.038729e-02 -1.661701e-02 -1.901629e-02 -1.008186e-02 -2.352793e-02 -9.677135e-03 1.753204e-02 1.055932e-02 4.370607e-01
<VARIANCE> 39
 1.258628e+00 2.337014e+00 4.581475e+00 5.772209e+00 6.943115e+00 9.463451e+00 1.038869e+01 1.091778e+01 1.288478e+01 1.225305e+01 1.167861e+01 1.029775e+01 4.660348e+00 2.324288e-01 3.717252e-01 5.722589e-01 8.040558e-01 8.452304e-01 1.101564e+00 1.253640e+00 1.281628e+00 1.417514e+00 1.363752e+00 1.445651e+00 1.128630e+00 2.926001e-01 2.000000e-01 2.000000e-01 2.000000e-01 2.694623e-01 2.038890e-01 2.510006e-01 3.039592e-01 2.949487e-01 3.441094e-01 3.352674e-01 3.333517e-01 2.326622e-01 4.381202e-01
<GCONST> 7.637004e+01
<STATE> 4
<NUMMIXES> 5
<MIXTURE> 1 1.847496e-01
<MEAN> 39
 -1.394549e+01 -5.007130e+00 -1.390217e+00 -8.652934e+00 -9.060628e+00 -8.568130e+00 -1.604644e+00 4.801199e-01 -2.488623e+00 -2.686734e-01 -2.187778e+00 1.278185e+00 5.021777e+01 4.904371e-01 -8.741787e-02 -3.217946e-01 8.754914e-01 -5.837805e-01 -9.611969e-02 1.223902e+00 4.857595e-01 6.427137e-01 -1.893124e-01 -5.794267e-01 2.487282e-01 -9.317659e-01 1.582948e-03 1.713687e-01 -1.982512e-01 4.745505e-01 4.070182e-01 5.202810e-01 -1.938605e-01 -2.228528e-01 -1.131712e-01 -3.500733e-01 -2.177018e-01 -2.672749e-01 -8.625461e-01
<VARIANCE> 39
 4.144676e+01 2.364899e+01 3.357324e+01 3.904657e+01 5.621563e+01 4.915733e+01 4.647708e+01 5.258436e+01 5.380027e+01 4.199800e+01 3.482729e+01 2.989419e+01 5.324122e+01 3.770107e+00 3.052739e+00 3.040758e+00 3.866341e+00 5.140614e+00 5.376836e+00 3.869087e+00 5.044420e+00 3.674719e+00 4.307625e+00 3.298014e+00 3.044816e+00 4.263165e+00 7.406371e-01 5.780084e-01 5.609936e-01 9.684377e-01 1.011771e+00 9.363864e-01 8.190414e-01 8.751289e-01 6.767535e-01 8.924401e-01 6.681753e-01 5.197492e-01 8.381335e-01
<GCONST> 1.342476e+02
<MIXTURE> 2 2.869939e-01
<MEAN> 39
 -1.890505e+01 -4.643299e+00 -2.650051e+00 -1.191604e+01 -5.503106e+00 -6.724939e+00 -1.732924e+00 -1.792401e+00 -5.356516e+00 -3.240539e-02 8.480009e-02 5.199174e-01 5.928700e+01 1.603680e+00 7.515606e-02 2.388524e+00 -5.946186e-01 -3.693866e+00 -2.376135e+00 -9.091828e-01 -7.890673e-01 -9.414005e-01 -8.422686e-01 3.623242e-01 3.972713e-02 4.927843e+00 1.060978e+00 6.357381e-01 1.026082e+00 1.334627e+00 -8.707032e-01 1.690803e-01 -7.226418e-01 -3.004098e-01 -4.033200e-02 -6.396083e-01 -2.434495e-01 -5.043856e-01 -1.865373e+00
<VARIANCE> 39
 1.372317e+01 2.373168e+01 3.810167e+01 2.398926e+01 1.903268e+01 2.202745e+01 2.105072e+01 2.280323e+01 2.873857e+01 1.968439e+01 1.839282e+01 1.567762e+01 1.096784e+01 3.227946e+00 3.264097e+00 4.226865e+00 4.529836e+00 4.075093e+00 3.448739e+00 3.660702e+00 3.315897e+00 3.928519e+00 2.909162e+00 2.457063e+00 2.296442e+00 7.065372e+00 3.893047e-01 5.678036e-01 7.864739e-01 6.457903e-01 5.691652e-01 6.952803e-01 6.423472e-01 7.095343e-01 8.495392e-01 6.008593e-01 6.764191e-01 4.854969e-01 2.989689e-01
<GCONST> 1.205654e+02
<MIXTURE> 3 1.597684e-01
<MEAN> 39
 -8.438108e+00 -8.495490e+00 4.487642e+00 -8.759894e+00 -1.543155e+01 -1.010682e+01 -1.284977e+01 -6.654292e-01 -8.045649e-01 -5.334731e+00 7.900400e-01 2.031252e-01 6.221837e+01 2.334583e+00 -1.731655e+00 6.307882e-01 -6.042950e-01 -4.089116e+00 -1.867530e+00 -2.400444e+00 1.382738e+00 1.364189e+00 1.226585e-01 8.943945e-01 -2.896824e-01 3.159188e+00 1.005229e-01 5.964252e-01 -4.397067e-01 7.228986e-01 6.130350e-01 5.535648e-01 5.594041e-01 -1.244006e-01 -1.130868e-01 3.702099e-01 -5.644643e-01 -6.283568e-01 -1.628758e+00
<VARIANCE> 39
 1.360003e+01 2.573403e+01 3.646085e+01 2.320993e+01 4.086597e+01 3.277808e+01 4.066996e+01 2.776180e+01 4.868711e+01 2.366446e+01 1.960900e+01 1.991606e+01 1.770553e+01 2.247086e+00 3.562575e+00 5.292139e+00 4.933615e+00 4.540236e+00 5.068937e+00 6.098921e+00 5.811283e+00 7.475292e+00 5.283201e+00 4.574525e+00 3.615284e+00 5.139896e+00 3.968656e-01 4.419889e-01 4.336730e-01 4.433626e-01 8.550463e-01 8.094890e-01 6.614283e-01 5.501123e-01 9.297612e-01 5.140220e-01 5.037298e-01 4.235007e-01 2.948926e-01
<GCONST> 1.262884e+02
<MIXTURE> 4 2.056078e-01
<MEAN> 39
 -2.121958e+01 8.126534e-01 -4.089710e+00 -1.006637e+01 -6.461422e+00 -7.518138e+00 -4.016199e-01 -8.140374e+00 -3.626963e+00 -1.243855e+00 -2.382449e+00 -1.433879e+00 5.950789e+01 2.003870e+00 1.082703e+00 3.294207e+00 -1.901462e+00 -3.928577e+00 -2.372363e+00 -1.893832e+00 -2.123007e+00 -1.827697e+00 -6.096399e-01 -1.181853e+00 -3.800580e-02 3.629323e+00 1.105528e+00 -1.149568e-01 1.170900e+00 2.471817e-01 -6.123018e-01 2.754919e-01 -1.065772e+00 3.157381e-01 -5.768411e-01 -1.471507e-01 -4.639962e-01 -9.089669e-02 -2.014484e+00
<VARIANCE> 39
 1.659936e+01 2.973623e+01 5.051946e+01 2.108326e+01 2.846087e+01 3.482950e+01 2.461354e+01 3.432949e+01 3.454572e+01 2.397630e+01 2.209855e+01 1.622591e+01 1.197679e+01 2.790636e+00 3.152153e+00 4.588183e+00 6.406888e+00 3.626304e+00 3.757782e+00 3.536271e+00 5.639026e+00 3.672067e+00 4.527307e+00 3.192151e+00 3.148406e+00 9.082135e+00 3.986754e-01 7.274909e-01 8.648067e-01 5.251315e-01 8.014219e-01 8.504556e-01 7.091488e-01 9.249067e-01 9.771422e-01 7.036518e-01 7.967772e-01 4.585569e-01 3.633527e-01
<GCONST> 1.268313e+02
<MIXTURE> 5 1.628770e-01
<MEAN> 39
 -1.088820e+01 -4.373059e+00 5.954144e+00 -9.285337e+00 -1.507840e+01 -1.259369e+01 -7.831184e+00 -3.827400e+00 -7.121631e+00 -4.088807e+00 -3.496875e-01 -5.797991e-01 6.134185e+01 2.525985e+00 -1.263463e+00 2.375457e+00 -6.757369e-01 -4.409513e+00 -1.432582e+00 -2.342662e+00 8.652543e-01 -6.756484e-01 -4.077069e-01 5.013907e-01 -3.146872e-01 2.427937e+00 2.529286e-02 9.498584e-02 -3.394758e-01 5.394222e-01 5.001089e-01 9.175469e-01 6.193698e-02 2.660860e-01 2.782433e-01 1.019653e-01 -3.388741e-01 -4.061956e-01 -1.560393e+00
<VARIANCE> 39
 1.197956e+01 2.426001e+01 4.798865e+01 3.770223e+01 3.173091e+01 3.213779e+01 3.190815e+01 3.388206e+01 5.820561e+01 3.203973e+01 2.679193e+01 2.262638e+01 1.649261e+01 2.758554e+00 3.014985e+00 6.293952e+00 6.716889e+00 4.572664e+00 5.395961e+00 6.624071e+00 6.241504e+00 8.288055e+00 6.192762e+00 5.862208e+00 4.465867e+00 5.819699e+00 3.348269e-01 5.050316e-01 4.644370e-01 5.375142e-01 7.209446e-01 6.357464e-01 7.206743e-01 5.756814e-01 7.110962e-01 5.900508e-01 5.141065e-01 4.616577e-01 4.746611e-01
<GCONST> 1.293819e+02
<TRANSP> 5
 0.000000e+00 1.000000e+00 0.000000e+00 0.000000e+00 0.000000e+00
 0.000000e+00 7.315376e-01 2.684624e-01 0.000000e+00 0.000000e+00
 0.000000e+00 0.000000e+00 6.351637e-01 3.648363e-01 0.000000e+00
 0.000000e+00 0.000000e+00 0.000000e+00 5.271224e-01 4.728775e-01
 0.000000e+00 0.000000e+00 0.000000e+00 0.000000e+00 0.000000e+00
<ENDHMM>
~h "f"
<BEGINHMM>
<NUMSTATES> 5
<STATE> 2
<NUMMIXES> 4
<MIXTURE> 1 2.048370e-01
<MEAN> 39
 -9.759514e+00 -4.427835e+00 -7.687001e+00 -6.425722e+00 -3.215389e+00 -3.341846e+00 -1.398646e+00 -1.944953e+00 -1.707142e+00 -2.102399e+00 -5.952186e+00 -2.998227e+00 5.482965e+01 -4.982946e+00 1.610821e+00 1.204583e+00 2.668412e+00 1.684567e+00 1.425080e+00 5.378016e-01 5.908855e-01 3.486979e-01 6.340483e-02 1.709027e+00 1.223297e+00 -2.314580e+00 -6.892588e-01 -9.552637e-01 -1.778618e-01 -5.739191e-01 -5.422207e-01 -9.100795e-02 -1.014725e-01 3.698927e-01 1.549806e-01 1.485827e-01 1.542416e-01 1.076707e-01 3.938612e-01
<VARIANCE> 39
 3.370073e+01 1.477825e+01 2.602870e+01 2.098878e+01 1.802431e+01 2.978736e+01 3.048704e+01 3.167574e+01 2.993189e+01 4.115984e+01 3.069599e+01 2.007878e+01 1.931091e+01 2.501349e+00 3.265277e+00 3.434496e+00 3.350822e+00 4.260942e+00 5.054464e+00 4.929039e+00 5.960513e+00 4.248331e+00 5.382751e+00 6.046523e+00 3.917714e+00 2.008103e+00 6.157950e-01 3.732294e-01 5.039319e-01 4.610092e-01 4.658312e-01 6.398809e-01 5.300419e-01 7.132312e-01 4.000472e-01 6.118870e-01 4.471188e-01 3.841573e-01 2.000000e-01
<GCONST> 1.219441e+02
<MIXTURE> 2 2.759557e-01
<MEAN> 39
 -2.303581e+01 -5.494595e+00 -5.227799e+00 -2.880075e+00 -1.891690e+00 -6.960878e-01 -1.706280e-01 9.124705e-01 2.260552e-01 -1.052605e-01 -6.010327e-01 4.432904e-01 5.090184e+01 -3.120588e+00 -8.353122e-01 -4.932272e-01 2.532093e-02 1.192222e-02 3.360379e-01 1.080820e-01 5.097335e-01 5.162165e-01 5.306577e-01 8.811676e-01 5.456569e-01 -8.493855e-01 1.103808e+00 -4.246894e-01 -4.399098e-01 -8.049741e-01 -5.859739e-01 -5.123551e-01 -2.281519e-01 -3.088545e-01 -1.977853e-01 -1.124677e-01 -5.170568e-01 -3.607910e-01 4.837297e-01
<VARIANCE> 39
 1.634254e+01 1.483566e+01 1.295251e+01 1.114002e+01 1.360809e+01 1.274445e+01 1.397219e+01 1.563561e+01 1.612018e+01 1.541085e+01 1.343572e+01 1.237727e+01 2.630922e+01 4.284466e+00 1.559564e+00 1.886276e+00 1.724701e+00 1.735912e+00 2.092209e+00 2.075287e+00 2.639049e+00 2.213431e+00 2.937217e+00 2.690274e+00 1.971856e+00 1.851239e+00 4.809863e-01 4.241671e-01 4.162700e-01 3.735712e-01 4.078855e-01 4.690372e-01 4.757772e-01 6.698799e-01 4.940837e-01 5.171856e-01 5.048206e-01 4.449043e-01 3.193644e-01
<GCONST> 1.065597e+02
<MIXTURE> 3 3.140930e-01
<MEAN> 39
 -2.362569e+01 -8.257708e+00 -8.653872e+00 -5.854349e+00 -4.078299e+00 -2.873152e+00 -1.751774e+00 -2.824935e-01 -1.072824e+00 -1.688855e+00 -2.497540e+00 -4.206785e-01 4.979648e+01 -2.239051e+00 -1.126814e+00 -8.813206e-01 -7.483165e-01 -7.267627e-01 -3.459177e-01 -3.089337e-01 -2.624580e-01 -1.285765e-01 -3.560034e-02 2.551682e-01 5.675870e-01 3.453352e-01 1.076179e+00 5.804172e-02 6.876909e-04 -1.709640e-01 -2.013884e-01 -1.713544e-01 -1.394792e-01 1.737110e-01 5.146259e-02 3.025163e-01 1.463476e-02 -3.004832e-01 2.479995e-01
<VARIANCE> 39
 1.059982e+01 1.079942e+01 9.337067e+00 1.203216e+01 1.401215e+01 1.200047e+01 1.191184e+01 1.184466e+01 1.216218e+01 1.072104e+01 1.248647e+01 1.022565e+01 3.634317e+01 2.351794e+00 1.219980e+00 1.321443e+00 1.627168e+00 1.704154e+00 1.623231e+00 1.789382e+00 1.944656e+00 1.925653e+00 1.727057e+00 1.707665e+00 1.935496e+00 3.445716e+00 6.153269e-01 3.607388e-01 3.218889e-01 4.425009e-01 3.760907e-01 4.366558e-01 4.241163e-01 4.271035e-01 3.398099e-01 3.445535e-01 3.745101e-01 3.692786e-01 4.870821e-01
<GCONST> 1.004332e+02
<MIXTURE> 4 2.051120e-01
<MEAN> 39
 -1.554735e+01 -3.130053e+00 -5.501143e+00 -3.030390e+00 -1.749476e+00 -1.981663e+00 -1.112747e+00 6.493200e-01 -2.601295e-01 -6.619847e-01 -3.502440e+00 -2.787949e+00 5.377275e+01 -5.897967e+00 7.116500e-01 3.212891e-01 1.389728e+00 8.743598e-01 1.135060e+00 8.532542e-01 -6.783044e-01 -2.704338e-01 -9.413848e-01 5.456041e-01 2.003556e+00 -2.323981e+00 1.885115e-01 -1.298532e+00 -3.258308e-01 -1.014033e+00 -8.577394e-01 -4.322080e-01 -5.524251e-01 3.320794e-01 3.287512e-02 1.654997e-01 6.854679e-02 -2.468421e-01 6.926126e-01
<VARIANCE> 39
 2.692409e+01 9.100051e+00 1.227584e+01 1.182137e+01 1.198928e+01 1.787152e+01 1.699421e+01 1.620313e+01 1.543801e+01 1.438007e+01 1.293296e+01 1.448818e+01 2.108370e+01 1.285246e+00 2.853524e+00 2.668957e+00 2.732026e+00 2.442059e+00 3.816114e+00 3.687989e+00 4.102678e+00 2.759484e+00 2.777855e+00 4.165523e+00 2.819404e+00 1.856713e+00 5.533264e-01 2.914095e-01 3.203686e-01 3.798905e-01 3.801917e-01 4.444042e-01 5.429710e-01 4.829085e-01 4.687488e-01 3.969800e-01 4.195304e-01 5.486109e-01 2.192674e-01
<GCONST> 1.084638e+02
<STATE> 3
<NUMMIXES> 5
<MIXTURE> 1 2.282473e-01
<MEAN> 39
 -2.458940e+01 -6.453812e+00 -8.360868e+00 -5.106867e+00 -4.603878e+00 -2.878315e+00 -2.839630e+00 -7.930917e-01 -1.511470e+00 -8.260310e-01 -1.685773e+00 -3.332154e-01 4.785006e+01 -1.830937e-01 1.280158e-01 2.337018e-01 4.204022e-01 3.346510e-01 3.769839e-01 2.627834e-01 1.934716e-01 2.970916e-01 4.063456e-01 2.623543e-01 1.683888e-01 1.068619e-01 2.323449e-01 -4.738149e-02 3.540822e-02 -9.006195e-04 8.497845e-02 3.433522e-02 1.342941e-01 1.093708e-01 9.365810e-02 4.802096e-02 8.487911e-03 1.736027e-02 8.405498e-02
<VARIANCE> 39
 1.112935e+01 1.333335e+01 1.233875e+01 1.224508e+01 1.350129e+01 1.289501e+01 1.237785e+01 1.165780e+01 1.604553e+01 1.171285e+01 1.163030e+01 1.161429e+01 6.134851e+01 6.692353e-01 6.735491e-01 7.606648e-01 9.663966e-01 1.053405e+00 1.238322e+00 1.217688e+00 1.486613e+00 1.620210e+00 1.441450e+00 1.187700e+00 1.088363e+00 1.201879e+00 2.000000e-01 2.000000e-01 2.000000e-01 2.163704e-01 2.333578e-01 2.685980e-01 2.719247e-01 2.718460e-01 3.323740e-01 2.726105e-01 2.492700e-01 2.183084e-01 2.000000e-01
<GCONST> 8.847319e+01
<MIXTURE> 2 1.259575e-01
<MEAN> 39
 -2.498333e+01 -9.260809e+00 -9.768102e+00 -6.762981e+00 -4.922442e+00 -3.440674e+00 -1.778224e+00 1.030013e+00 6.881343e-01 8.414203e-01 -1.080946e+00 1.382779e-01 5.285765e+01 6.954123e-01 2.379300e-01 5.515321e-01 2.283277e-01 4.335230e-01 2.623776e-01 5.494765e-01 4.273001e-01 3.573159e-01 5.881267e-01 4.609164e-01 8.361161e-02 7.126822e-02 1.006307e+00 2.614469e-01 2.241824e-01 -1.514929e-02 -5.345024e-02 -6.288251e-02 -1.532765e-01 -2.305307e-01 -2.699406e-01 -1.620216e-01 -8.275852e-02 -2.170198e-01 -1.255406e-01
<VARIANCE> 39
 1.174334e+01 1.143627e+01 1.325644e+01 1.390658e+01 1.610094e+01 1.596284e+01 2.053213e+01 1.496294e+01 1.725569e+01 1.562646e+01 1.454301e+01 1.153843e+01 1.604375e+01 3.011486e+00 1.219326e+00 1.560732e+00 1.343773e+00 1.427828e+00 1.287900e+00 1.724833e+00 1.719899e+00 1.619863e+00 1.510731e+00 1.555632e+00 1.432443e+00 1.773532e+00 4.920645e-01 2.360226e-01 3.555584e-01 4.165010e-01 3.905545e-01 4.069583e-01 6.084906e-01 4.201269e-01 3.780522e-01 4.347023e-01 4.502756e-01 3.201515e-01 3.699355e-01
<GCONST> 1.005699e+02
<MIXTURE> 3 2.261430e-01
<MEAN> 39
 -2.529471e+01 -9.601213e+00 -1.024810e+01 -7.235415e+00 -5.266604e+00 -3.791702e+00 -1.846336e+00 6.721812e-02 -6.538023e-01 -4.795173e-02 -6.036547e-01 6.237245e-01 5.125670e+01 1.399821e-02 -1.569080e-01 -4.211741e-01 -5.891648e-01 -5.754886e-01 -5.373367e-01 -5.412984e-01 -3.380087e-01 -3.107940e-01 -5.263622e-02 -4.665728e-02 -3.795001e-02 1.592037e-01 6.290045e-01 2.451562e-01 2.189254e-01 1.712956e-01 1.782553e-01 1.186209e-01 -2.236838e-02 -4.863298e-02 -1.573540e-02 -5.410695e-02 -1.930694e-01 -2.138318e-01 -7.935174e-02
<VARIANCE> 39
 9.553237e+00 1.011932e+01 9.805861e+00 1.087866e+01 1.175284e+01 1.045427e+01 1.366330e+01 1.252132e+01 1.351787e+01 1.148081e+01 1.003242e+01 1.209590e+01 1.915917e+01 1.240922e+00 7.410072e-01 8.005921e-01 1.013713e+00 1.084686e+00 1.193963e+00 1.532056e+00 1.470025e+00 1.522283e+00 1.313058e+00 1.300410e+00 1.139051e+00 1.538917e+00 2.849224e-01 2.000000e-01 2.000000e-01 2.238550e-01 2.326487e-01 2.348117e-01 3.111369e-01 3.237513e-01 3.289958e-01 3.146395e-01 2.701843e-01 3.022479e-01 2.000000e-01
<GCONST> 8.840574e+01
<MIXTURE> 4 2.820168e-01
<MEAN> 39
 -2.527582e+01 -7.557948e+00 -9.104008e+00 -5.249107e+00 -4.340416e+00 -2.732021e+00 -2.550332e+00 -8.746312e-01 -1.798307e+00 -1.103480e+00 -2.078958e+00 -4.363832e-01 4.926650e+01 -3.371739e-02 -5.039388e-02 -6.111760e-02 -8.898876e-02 -5.780637e-02 -1.158706e-01 -1.664527e-01 -1.736468e-01 -1.977417e-01 -2.198823e-01 -2.573583e-01 -1.377896e-01 1.697774e-01 2.658563e-01 -1.169679e-03 3.313198e-02 -5.168106e-02 1.563973e-03 -4.334414e-02 3.882801e-02 9.623903e-02 1.207268e-01 8.024692e-02 5.305851e-02 3.556459e-02 6.984864e-02
<VARIANCE> 39
 9.082150e+00 1.262293e+01 1.305015e+01 1.135688e+01 1.293372e+01 1.315602e+01 1.393094e+01 1.440905e+01 1.255093e+01 1.131261e+01 1.114106e+01 1.131662e+01 4.130055e+01 3.951439e-01 4.515117e-01 5.563816e-01 8.025235e-01 8.864169e-01 9.641170e-01 1.098732e+00 1.276500e+00 1.359427e+00 1.279077e+00 1.241506e+00 1.138965e+00 6.108454e-01 2.000000e-01 2.000000e-01 2.000000e-01 2.000000e-01 2.042048e-01 2.377687e-01 2.461314e-01 3.067469e-01 2.709339e-01 2.756712e-01 2.626927e-01 2.434246e-01 2.000000e-01
<GCONST> 8.442776e+01
<MIXTURE> 5 1.376325e-01
<MEAN> 39
 -2.668432e+01 -9.372564e+00 -8.975375e+00 -5.696427e+00 -3.766586e+00 -1.916125e+00 -7.295124e-01 9.701391e-01 3.942426e-01 1.136943e+00 -2.658591e-01 5.147806e-01 5.189257e+01 7.443168e-01 -4.574819e-02 -4.634216e-02 -3.316121e-01 -2.051399e-01 -3.825230e-01 -1.126964e-01 -6.071516e-03 -3.544909e-02 -1.484847e-01 -2.614655e-01 -2.288853e-01 4.485486e-01 1.298570e+00 3.162408e-01 1.030071e-01 -3.167112e-01 -3.414696e-01 -2.889510e-01 -3.684333e-01 -3.319369e-01 -3.700096e-01 -2.775138e-01 -2.643917e-01 -2.595712e-01 4.603355e-02
<VARIANCE> 39
 8.634597e+00 1.002192e+01 1.193664e+01 1.469639e+01 1.751270e+01 1.407102e+01 1.515475e+01 1.501263e+01 1.540098e+01 1.575524e+01 1.214276e+01 1.072933e+01 1.808166e+01 2.277411e+00 8.963374e-01 1.315228e+00 1.216015e+00 1.418274e+00 1.256426e+00 1.588679e+00 1.575791e+00 1.556587e+00 1.509401e+00 1.531452e+00 1.402340e+00 2.154285e+00 4.498371e-01 2.076742e-01 4.319440e-01 5.023218e-01 4.019496e-01 3.588349e-01 4.379099e-01 4.593198e-01 4.114108e-01 4.552185e-01 4.372029e-01 2.920098e-01 3.599004e-01
<GCONST> 9.836593e+01
<STATE> 4
<NUMMIXES> 5
<MIXTURE> 1 1.564576e-01
<MEAN> 39
 -1.722317e+01 -6.293468e+00 -9.031780e+00 -8.058430e+00 -6.337274e+00 -2.331188e+00 -2.383344e+00 -1.198501e+00 4.721078e-01 1.262941e+00 -1.386076e+00 -1.534614e+00 4.192115e+01 -3.337085e-01 1.060903e+00 8.826105e-01 1.290220e+00 6.719440e-01 8.592625e-01 4.276866e-01 5.751999e-01 3.793622e-01 4.659534e-01 5.014700e-01 1.988974e-01 -3.295977e+00 -4.214057e-01 5.397858e-02 2.090207e-01 3.253352e-01 3.257973e-01 1.057563e-01 1.046192e-01 8.927856e-02 -2.113384e-01 -2.280943e-01 -4.196529e-02 5.639667e-02 2.003064e-01
<VARIANCE> 39
 3.709568e+01 1.910566e+01 5.009904e+01 3.442096e+01 4.435006e+01 4.825914e+01 3.576012e+01 3.997691e+01 4.852456e+01 4.022399e+01 4.158303e+01 3.013954e+01 7.060674e+01 4.423762e+00 2.094785e+00 3.414444e+00 2.912722e+00 3.561132e+00 3.639536e+00 2.673374e+00 3.366032e+00 3.460319e+00 3.299280e+00 3.073235e+00 2.714179e+00 5.307901e+00 1.031163e+00 4.599483e-01 9.224700e-01 9.145182e-01 9.334670e-01 8.698734e-01 6.162384e-01 9.299356e-01 9.846817e-01 8.149857e-01 7.985186e-01 5.929029e-01 1.746227e+00
<GCONST> 1.330111e+02
<MIXTURE> 2 1.597674e-01
<MEAN> 39
 -2.014112e+01 -6.820182e+00 -6.898268e+00 -4.823383e+00 -4.033568e+00 -3.481357e+00 -1.177251e+00 7.739779e-01 2.151315e-01 5.083508e-01 -2.054370e+00 -1.572288e+00 5.251478e+01 5.121963e+00 -2.255906e-01 2.921520e-01 -9.592887e-01 -9.196855e-01 -1.028274e+00 -1.578380e+00 3.284752e-02 -2.886090e-02 2.047829e-01 3.684339e-01 -7.965081e-01 1.408169e+00 8.763127e-01 -5.728120e-01 -1.772037e-01 -6.684419e-01 -6.364828e-01 -2.792754e-01 -7.376927e-01 7.401650e-02 -9.354623e-02 -1.203638e-01 2.355680e-01 2.942812e-02 4.906106e-01
<VARIANCE> 39
 2.742596e+01 1.529306e+01 1.539747e+01 1.193925e+01 1.873277e+01 2.181157e+01 2.058783e+01 1.859808e+01 1.313620e+01 1.414919e+01 1.277015e+01 1.405504e+01 3.760373e+01 4.997349e+00 2.179945e+00 4.634351e+00 3.802886e+00 3.587332e+00 4.812081e+00 6.196280e+00 3.825571e+00 2.728305e+00 3.019823e+00 2.923226e+00 2.574541e+00 3.040295e+00 6.902751e-01 3.318585e-01 5.349418e-01 3.749551e-01 5.896214e-01 6.749997e-01 7.514905e-01 7.003124e-01 4.944982e-01 4.351075e-01 5.274925e-01 4.174975e-01 4.469456e-01
<GCONST> 1.169454e+02
<MIXTURE> 3 2.164841e-01
<MEAN> 39
 -5.958601e+00 -6.193678e+00 -1.111656e+01 -1.337354e+01 -8.917043e+00 -4.071765e+00 -4.906428e+00 -3.918982e+00 -3.821776e+00 -1.954387e-01 -1.986832e+00 -3.036537e+00 5.467410e+01 5.244121e+00 -1.124167e+00 -1.057672e+00 -3.594363e+00 -2.146411e+00 -2.870624e-02 -1.115104e+00 -1.952606e-01 -4.322735e-01 5.014357e-01 1.954825e-01 -6.849004e-01 1.598645e+00 -1.266292e+00 -5.281524e-01 1.257533e-01 2.581204e-01 2.423878e-01 2.805135e-01 2.205586e-01 5.579344e-01 3.883426e-01 8.091813e-02 1.148110e-01 1.376572e-01 -9.584821e-02
<VARIANCE> 39
 4.586728e+01 2.264335e+01 3.788596e+01 5.225036e+01 3.972022e+01 5.380676e+01 4.007531e+01 2.968080e+01 3.128936e+01 2.647467e+01 3.497992e+01 2.369345e+01 3.741843e+01 4.166137e+00 4.024046e+00 5.286418e+00 5.003861e+00 6.501402e+00 8.815554e+00 7.358083e+00 6.162948e+00 5.470269e+00 4.493295e+00 6.679534e+00 3.909246e+00 6.203919e+00 6.517457e-01 3.938318e-01 4.029650e-01 7.557929e-01 6.058922e-01 5.550468e-01 6.129476e-01 4.896994e-01 4.793550e-01 4.743977e-01 4.999250e-01 3.965583e-01 5.491863e-01
<GCONST> 1.317300e+02
<MIXTURE> 4 2.761286e-01
<MEAN> 39
 -1.931498e+01 -5.748649e+00 -8.405731e+00 -4.998588e+00 -2.847300e+00 -5.617589e-01 -1.636945e+00 -5.217173e-01 -2.446403e-01 -7.753771e-01 -1.996035e+00 -1.363910e+00 3.917414e+01 2.002201e-01 7.681822e-04 -7.039007e-02 -6.419160e-02 -1.144316e-01 5.819786e-02 -1.672317e-02 -2.402675e-01 -1.452192e-01 -2.187094e-01 -1.331153e-01 -2.018007e-01 -4.107915e-01 1.910006e-01 -1.672283e-01 -1.581869e-01 -2.473884e-01 -1.211366e-01 -2.229591e-02 -3.736000e-02 -1.027512e-01 3.329366e-04 6.447448e-02 -2.671282e-02 -4.949386e-02 3.362412e-01
<VARIANCE> 39
 2.049418e+01 3.488079e+01 3.108631e+01 2.628923e+01 2.022170e+01 2.297962e+01 2.216969e+01 2.089192e+01 2.421522e+01 2.203935e+01 2.743251e+01 2.624923e+01 8.665427e+01 1.437033e+00 1.640206e+00 1.959942e+00 1.793327e+00 2.035909e+00 1.913144e+00 1.843527e+00 2.398310e+00 2.371369e+00 2.078476e+00 2.271035e+00 1.929826e+00 2.288322e+00 4.123634e-01 4.398829e-01 4.733845e-01 5.280812e-01 4.712017e-01 4.135889e-01 4.004733e-01 4.441268e-01 5.053387e-01 4.170195e-01 4.712841e-01 4.166662e-01 8.155459e-01
<GCONST> 1.135725e+02
<MIXTURE> 5 1.911591e-01
<MEAN> 39
 -2.290479e+01 -7.580685e+00 -8.150957e+00 -6.215003e+00 -4.177953e+00 -3.209460e+00 -1.536287e+00 -5.224208e-01 -1.541136e+00 -9.073724e-01 -1.420868e+00 3.318662e-01 5.184884e+01 4.679772e+00 6.372513e-01 2.002308e-01 -1.911136e+00 -1.453783e+00 -8.577033e-01 -7.702653e-01 -1.145975e+00 -1.159570e+00 -6.327710e-01 -7.990795e-01 -7.712428e-01 1.085197e+00 1.151516e+00 -1.456691e-01 -7.680530e-02 -8.962860e-01 -6.589703e-01 -6.667855e-03 -3.181032e-01 -1.239558e-01 -1.856075e-01 1.639027e-01 -1.526142e-02 -2.135493e-01 1.997572e-01
<VARIANCE> 39
 1.783293e+01 1.529091e+01 1.889474e+01 1.844331e+01 1.595618e+01 1.413107e+01 1.785015e+01 1.470463e+01 1.454016e+01 1.489267e+01 1.332804e+01 1.212393e+01 3.585791e+01 3.398860e+00 2.380916e+00 5.273621e+00 4.432323e+00 3.205704e+00 3.604064e+00 3.250328e+00 3.303788e+00 2.782830e+00 2.659754e+00 2.765019e+00 1.641423e+00 3.639908e+00 5.619445e-01 4.414550e-01 6.621379e-01 6.949891e-01 7.271272e-01 8.081663e-01 7.749765e-01 6.365105e-01 6.588453e-01 5.202814e-01 6.767695e-01 4.013022e-01 7.558038e-01
<GCONST> 1.169770e+02
<TRANSP> 5
 0.000000e+00 1.000000e+00 0.000000e+00 0.000000e+00 0.000000e+00
 0.000000e+00 6.878002e-01 3.121998e-01 0.000000e+00 0.000000e+00
 0.000000e+00 0.000000e+00 8.543481e-01 1.456519e-01 0.000000e+00
 0.000000e+00 0.000000e+00 0.000000e+00 7.617953e-01 2.382047e-01
 0.000000e+00 0.000000e+00 0.000000e+00 0.000000e+00 0.000000e+00
<ENDHMM>
~h "g"
<BEGINHMM>
<NUMSTATES> 5
<STATE> 2
<NUMMIXES> 4
<MIXTURE> 1 3.003132e-01
<MEAN> 39
 -8.266384e+00 6.001286e+00 5.731737e+00 5.280260e+00 -6.324762e+00 -7.251028e+00 -3.498903e+00 -3.399259e+00 -1.026866e+01 -5.647031e+00 -5.908397e-01 -5.117158e+00 3.732394e+01 -5.679031e-01 -1.123511e+00 -1.479653e+00 -4.801936e-01 1.365109e+00 1.114809e+00 -5.091990e-01 -7.352432e-02 8.185760e-01 9.329978e-01 -6.042451e-01 6.184018e-01 7.146864e-01 -1.543834e-01 -1.298221e+00 -6.023039e-01 -9.835820e-01 -1.999941e-01 4.502061e-02 -4.300516e-01 3.283441e-01 1.893433e-01 3.587877e-01 1.106973e-01 2.158634e-01 1.563074e+00
<VARIANCE> 39
 5.540871e+00 7.440416e+00 1.725905e+01 1.730005e+01 2.950296e+01 2.007445e+01 2.189042e+01 1.829974e+01 2.404787e+01 1.486865e+01 1.434609e+01 1.709253e+01 6.034980e+00 1.824737e+00 9.607103e+00 5.591792e+00 4.643882e+00 3.657452e+00 2.287427e+00 3.609305e+00 5.134000e+00 3.445547e+00 2.502644e+00 2.181087e+00 1.639216e+00 8.777915e+00 2.432719e-01 6.957265e-01 7.958465e-01 5.077324e-01 6.247720e-01 5.653684e-01 6.435552e-01 5.898004e-01 4.535725e-01 4.409132e-01 4.588312e-01 2.813438e-01 9.088429e-01
<GCONST> 1.149721e+02
<MIXTURE> 2 2.279408e-01
<MEAN> 39
 -8.793733e+00 -6.150237e+00 -7.671909e+00 -4.938958e+00 -1.856515e+00 -2.050947e+00 -7.473279e+00 -2.681848e+00 -9.256614e+00 5.001585e-01 7.305686e-01 -3.583530e+00 4.829423e+01 3.542826e-01 -1.217952e+00 -1.561205e+00 -8.584726e-01 2.887614e-01 4.519593e-01 -4.983769e-01 2.584437e-01 1.067015e-01 5.484650e-01 3.093911e-01 8.862184e-01 1.668489e+00 2.976103e-01 -7.717186e-02 4.953545e-01 -3.608314e-01 -1.011436e+00 -3.639871e-01 -2.445296e-01 -4.577776e-02 3.081317e-01 -1.203502e-01 2.002841e-01 -9.340555e-03 6.302980e-01
<VARIANCE> 39
 3.828856e+01 5.907748e+01 9.046177e+01 5.478299e+01 6.305502e+01 7.835512e+01 3.150054e+01 5.476752e+01 4.914127e+01 4.091455e+01 4.710118e+01 2.408569e+01 5.341743e+01 2.557065e+00 1.190763e+01 8.487350e+00 9.593167e+00 5.672822e+00 6.954709e+00 7.936999e+00 5.248007e+00 4.754304e+00 6.343655e+00 3.589727e+00 4.267346e+00 1.832687e+01 3.834871e-01 1.303881e+00 7.566997e-01 1.213027e+00 7.531358e-01 1.069313e+00 1.050632e+00 8.049707e-01 7.726924e-01 7.398506e-01 6.962810e-01 6.250540e-01 1.503094e+00
<GCONST> 1.446038e+02
<MIXTURE> 3 2.431782e-01
<MEAN> 39
 -8.154304e+00 4.600723e+00 7.893399e-01 1.313281e+00 -6.396819e+00 -7.365560e+00 -7.492956e+00 -9.150452e+00 -1.008317e+01 -7.307614e+00 -7.306235e+00 -5.478146e+00 3.863451e+01 -1.491895e+00 -5.795571e-01 -1.039144e+00 4.913635e-01 2.099332e+00 8.242609e-01 5.560999e-02 3.358696e-01 1.104775e+00 1.482603e-01 -1.424939e-01 -1.188775e-01 -4.216500e-01 -1.502832e-02 -1.705130e+00 -8.817654e-01 -1.426517e+00 -3.284822e-01 1.640899e-01 -1.282485e-01 6.864244e-01 3.697758e-01 9.358327e-01 6.811819e-01 5.307475e-01 1.927963e+00
<VARIANCE> 39
 1.732649e+01 1.668615e+01 1.784792e+01 3.611790e+01 3.742387e+01 4.901929e+01 4.615949e+01 5.446247e+01 3.796660e+01 2.846102e+01 4.351942e+01 3.528992e+01 1.304291e+01 2.277270e+00 1.008064e+01 5.435644e+00 8.147768e+00 8.075953e+00 6.324834e+00 5.179589e+00 5.734439e+00 5.325092e+00 7.302354e+00 4.337125e+00 5.380897e+00 1.072230e+01 5.559534e-01 1.098911e+00 5.614103e-01 1.218394e+00 1.428411e+00 1.219148e+00 1.213186e+00 1.063118e+00 6.160312e-01 7.585002e-01 5.967190e-01 1.102515e+00 1.354656e+00
<GCONST> 1.385397e+02
<MIXTURE> 4 2.285682e-01
<MEAN> 39
 -1.602576e+01 -6.050213e+00 -4.005687e+00 -2.006276e+00 -2.304240e+00 -3.843391e+00 -4.251328e+00 -1.707069e+00 -3.654162e+00 -1.752568e+00 -3.413163e+00 -1.210615e+00 4.283668e+01 3.784197e-01 -2.645375e+00 -1.925402e+00 -2.262938e+00 6.061226e-01 -9.376984e-01 -1.011609e+00 5.348991e-02 7.991943e-01 1.109585e+00 -8.364643e-01 5.326567e-01 4.494478e+00 7.027532e-01 1.201287e-01 4.505864e-02 -5.569692e-01 -6.410655e-01 -5.573521e-01 -3.146671e-01 -2.281830e-01 -2.403730e-01 2.867678e-01 8.869404e-02 -1.310962e-01 7.194715e-01
<VARIANCE> 39
 3.594460e+01 6.283998e+01 5.896936e+01 4.759904e+01 4.215095e+01 4.809460e+01 5.009941e+01 3.204929e+01 3.464363e+01 4.281466e+01 2.599417e+01 2.483430e+01 8.672045e+01 4.664014e+00 6.488610e+00 4.789103e+00 5.271055e+00 9.398911e+00 5.752336e+00 4.982149e+00 4.721519e+00 3.957723e+00 4.618821e+00 3.895569e+00 3.094157e+00 1.101345e+01 3.924870e-01 1.346263e+00 5.741583e-01 8.915402e-01 1.099318e+00 1.129894e+00 7.860959e-01 6.082342e-01 6.139528e-01 9.524687e-01 6.125746e-01 5.110493e-01 1.830224e+00
<GCONST> 1.392290e+02
<STATE> 3
<NUMMIXES> 4
<MIXTURE> 1 3.283152e-01
<MEAN> 39
 -8.826744e+00 -7.930672e+00 -1.178347e+01 -7.143529e+00 -1.187375e+00 -4.281972e+00 -1.162833e+01 -5.139596e-01 -5.347099e+00 4.036325e+00 -3.649651e-01 -1.898735e+00 5.292044e+01 1.910429e+00 1.317798e+00 1.741707e+00 5.109832e-01 -1.930797e+00 -8.673872e-01 -1.015880e+00 -5.192690e-01 4.410464e-01 -1.164505e+00 1.267510e+00 4.661389e-02 1.199247e+00 4.378998e-01 4.044012e-01 5.114674e-01 2.073702e-01 -6.703114e-01 -1.245362e-01 2.398559e-01 -2.830193e-01 7.371671e-03 -7.577761e-01 2.837666e-01 -5.850329e-02 -5.073949e-01
<VARIANCE> 39
 2.217023e+01 2.849346e+01 4.338511e+01 4.860655e+01 5.581498e+01 8.747772e+01 5.592852e+01 6.962238e+01 5.859618e+01 4.301025e+01 4.594540e+01 2.507593e+01 3.212927e+01 2.447145e+00 3.498642e+00 4.209424e+00 8.400740e+00 5.896660e+00 5.746182e+00 6.605424e+00 5.469866e+00 4.400838e+00 3.819344e+00 4.011491e+00 3.756469e+00 3.545166e+00 3.521577e-01 7.225772e-01 8.075848e-01 9.239900e-01 8.252863e-01 1.436343e+00 1.705879e+00 9.360306e-01 1.181918e+00 9.465940e-01 8.041551e-01 5.689281e-01 1.265662e+00
<GCONST> 1.390570e+02
<MIXTURE> 2 2.019852e-01
<MEAN> 39
 -1.517394e+01 -1.030472e+01 -1.184815e+00 -6.567124e+00 -8.636660e+00 -8.288832e+00 -3.849972e+00 -1.502052e+00 -6.886082e+00 5.113594e-01 -3.579947e+00 -1.732041e+00 5.818456e+01 1.210120e+00 -1.151019e+00 4.420866e-01 -1.752636e+00 -2.547800e+00 -1.744954e+00 -1.505010e+00 1.821681e-01 4.166925e-01 4.789190e-01 1.050706e+00 6.815743e-01 4.325673e+00 1.066738e+00 8.286648e-01 4.541393e-01 4.407701e-01 -6.224559e-01 -2.098339e-01 -3.984443e-01 2.744202e-01 -5.583118e-02 -4.483015e-01 5.331472e-01 -2.794746e-01 -1.133512e+00
<VARIANCE> 39
 1.997589e+01 3.127374e+01 7.581834e+01 2.377527e+01 4.669143e+01 4.988893e+01 4.748628e+01 2.361841e+01 2.890359e+01 2.598892e+01 2.675821e+01 1.821402e+01 1.880294e+01 3.075176e+00 6.216775e+00 3.673471e+00 3.276940e+00 5.374861e+00 4.011503e+00 5.596357e+00 3.771115e+00 2.805577e+00 4.172436e+00 3.808791e+00 2.402318e+00 4.978312e+00 3.616171e-01 9.911947e-01 6.354560e-01 5.576195e-01 1.021275e+00 9.372065e-01 1.132604e+00 1.135780e+00 6.153121e-01 7.024452e-01 7.025896e-01 4.231468e-01 7.636018e-01
<GCONST> 1.297930e+02
<MIXTURE> 3 3.378639e-01
<MEAN> 39
 -9.695119e+00 -1.381244e+01 -1.863903e+01 -9.314376e+00 3.353985e+00 -3.830794e+00 -9.659114e+00 -2.235378e+00 -5.069026e+00 6.365284e+00 -3.828340e+00 -3.959063e-03 5.233070e+01 1.144331e+00 -1.576980e+00 -1.543202e+00 -1.343529e+00 2.201582e-02 -1.253329e+00 -1.622753e+00 -2.889430e-01 6.757765e-03 1.444572e+00 1.664094e-01 4.253943e-01 3.925977e+00 3.010224e-01 1.647401e+00 1.875630e+00 1.136878e+00 -1.132889e+00 -5.345733e-01 -6.178033e-02 -2.384136e-01 -2.283896e-01 -1.208173e+00 4.248006e-01 -2.599017e-01 -9.659231e-01
<VARIANCE> 39
 1.566017e+01 3.619800e+01 2.967142e+01 5.594924e+01 5.953931e+01 7.410700e+01 4.665299e+01 6.436180e+01 4.244976e+01 2.685465e+01 2.720001e+01 3.747729e+01 1.812293e+01 1.985812e+00 6.146823e+00 8.362574e+00 5.813255e+00 4.008278e+00 5.415926e+00 4.771197e+00 4.183564e+00 3.580027e+00 4.459642e+00 2.798196e+00 3.223390e+00 5.634410e+00 4.364098e-01 6.388806e-01 6.203409e-01 1.028067e+00 1.382642e+00 1.437199e+00 1.360363e+00 1.247142e+00 1.053890e+00 6.251585e-01 6.650286e-01 9.876776e-01 6.723334e-01
<GCONST> 1.361040e+02
<MIXTURE> 4 1.318364e-01
<MEAN> 39
 -1.748268e+01 -9.452209e+00 -5.036797e+00 -1.340773e+01 -7.674140e+00 -8.695335e+00 -4.694494e+00 -2.869110e+00 -2.858468e-02 -2.877180e+00 -4.169997e+00 2.054022e+00 5.687742e+01 2.157239e+00 1.040902e+00 6.615488e-01 -2.987391e+00 -2.282039e+00 -2.307798e+00 -1.180374e+00 -8.311487e-01 -6.075757e-01 5.995845e-01 -1.045137e+00 -4.295318e-02 3.429497e+00 8.894002e-01 9.992449e-01 4.614702e-01 4.673583e-01 -3.220079e-01 3.025501e-02 -1.208466e-01 -2.775620e-01 -8.617993e-01 2.671535e-01 -2.739831e-01 -6.956925e-01 -1.355512e+00
<VARIANCE> 39
 3.367261e+01 5.391832e+01 5.788733e+01 4.684689e+01 6.958111e+01 4.582446e+01 3.095704e+01 4.985953e+01 2.149431e+01 2.377696e+01 3.796978e+01 2.104614e+01 1.546501e+01 3.839337e+00 5.613136e+00 3.734452e+00 5.717310e+00 5.089536e+00 2.816051e+00 2.544805e+00 4.575562e+00 4.514621e+00 2.059997e+00 3.672257e+00 2.269755e+00 6.439327e+00 7.482811e-01 1.413651e+00 4.584112e-01 5.864181e-01 1.350056e+00 1.045621e+00 6.440971e-01 1.182645e+00 7.065565e-01 6.028478e-01 8.569248e-01 6.713136e-01 3.583041e-01
<GCONST> 1.319986e+02
<STATE> 4
<NUMMIXES> 4
<MIXTURE> 1 2.315546e-01
<MEAN> 39
 -1.769805e+00 -5.437664e+00 -8.201086e+00 -1.819534e+00 -3.318847e+00 -8.614032e+00 -1.525838e+01 -5.672571e+00 -6.288146e+00 -1.787084e+00 1.036614e+00 7.813288e-01 5.670664e+01 2.504529e+00 1.914278e-01 -7.916771e-02 1.478830e-01 -1.308494e+00 -9.765508e-01 -1.878226e+00 5.393175e-01 5.991567e-01 -2.054815e+00 9.742364e-01 1.014109e+00 9.735003e-01 -1.977469e-01 -5.243815e-01 -5.818026e-01 -3.395067e-01 1.406716e-02 4.881819e-01 -1.310001e-01 5.842683e-01 4.291196e-01 6.062509e-02 -8.210529e-02 -1.005749e-01 -2.217555e-01
<VARIANCE> 39
 1.403172e+01 1.723735e+01 1.702073e+01 3.384617e+01 4.173064e+01 3.666974e+01 4.446630e+01 2.499232e+01 3.878881e+01 3.592992e+01 3.504876e+01 2.095439e+01 8.457416e+00 1.817081e+00 1.937683e+00 3.512636e+00 3.144289e+00 4.404458e+00 4.271872e+00 7.694268e+00 6.161441e+00 3.115130e+00 4.108674e+00 3.325073e+00 2.507612e+00 1.090258e+00 2.125224e-01 2.790138e-01 4.525179e-01 5.563153e-01 4.844036e-01 5.867648e-01 7.148012e-01 5.078512e-01 5.670220e-01 5.566642e-01 4.118462e-01 3.941938e-01 2.000000e-01
<GCONST> 1.179965e+02
<MIXTURE> 2 3.773037e-01
<MEAN> 39
 -2.113465e+00 -1.189676e+01 -3.702801e+00 -6.263740e+00 -1.641198e+01 -1.170843e+01 -1.538813e+01 1.492126e+00 -5.917230e+00 -2.336004e+00 5.990288e+00 -1.864789e+00 6.215612e+01 1.332343e+00 -1.721741e+00 -1.050623e+00 -8.754381e-01 -1.709858e+00 -2.741404e-01 -5.980092e-01 1.519183e+00 1.470067e+00 -1.867493e-02 9.376075e-01 -2.310215e-01 1.838961e+00 -6.115850e-01 -1.440569e-01 -5.880327e-01 -1.217124e-01 9.278933e-01 5.855907e-01 8.239359e-01 7.023505e-02 3.000113e-01 4.185850e-01 -7.919574e-01 -1.587182e-01 -4.896309e-01
<VARIANCE> 39
 2.445836e+01 2.320357e+01 8.641840e+01 3.714080e+01 6.941267e+01 1.026492e+02 8.995638e+01 5.240385e+01 5.948827e+01 3.901804e+01 4.898755e+01 4.196289e+01 1.858332e+01 1.844879e+00 1.413586e+00 2.924027e+00 1.658168e+00 4.937418e+00 5.303473e+00 6.763137e+00 5.151932e+00 4.853079e+00 4.688482e+00 4.242598e+00 3.711939e+00 1.169739e+00 2.300201e-01 3.299691e-01 4.316956e-01 2.730583e-01 6.263463e-01 5.892944e-01 5.841551e-01 5.780699e-01 5.580437e-01 5.900792e-01 4.210921e-01 5.192094e-01 2.779536e-01
<GCONST> 1.264038e+02
<MIXTURE> 3 1.898643e-01
<MEAN> 39
 -9.098934e+00 -2.408655e+00 2.226589e+00 -1.601222e+01 -1.493758e+01 -8.959811e+00 -8.599708e+00 -5.881637e+00 -6.171006e+00 -4.084776e-01 -3.224458e+00 -1.460288e+00 5.806143e+01 2.278365e+00 -1.438760e-01 7.671202e-01 -1.846998e+00 -2.640900e+00 -5.158198e-01 -4.869062e-01 1.917458e-01 -7.735967e-01 4.768993e-01 2.448568e-01 -3.616270e-01 1.136526e+00 -3.239052e-01 -6.713397e-01 -7.818294e-01 4.823227e-01 6.334063e-01 5.142350e-01 7.716419e-01 5.088097e-01 1.105459e-01 -4.437059e-02 7.834269e-02 -5.232220e-02 -6.223349e-01
<VARIANCE> 39
 2.491727e+01 3.953271e+01 7.651500e+01 1.094206e+02 5.564429e+01 6.712141e+01 5.193838e+01 6.899966e+01 4.909367e+01 4.234771e+01 6.345688e+01 1.862931e+01 3.575889e+01 2.844447e+00 4.308918e+00 3.154198e+00 5.630959e+00 5.950621e+00 6.391260e+00 6.991478e+00 6.577900e+00 6.703823e+00 5.710463e+00 7.142679e+00 4.594378e+00 2.851928e+00 3.628210e-01 6.542568e-01 3.335899e-01 7.777064e-01 5.930260e-01 7.813368e-01 7.004037e-01 9.312430e-01 6.585289e-01 6.476443e-01 5.842182e-01 3.636955e-01 6.551071e-01
<GCONST> 1.365296e+02
<MIXTURE> 4 2.012769e-01
<MEAN> 39
 -4.062981e+00 -5.564674e+00 -8.644369e+00 -5.092303e+00 -2.005263e+00 -1.335741e+01 -1.250389e+01 -6.771591e+00 -6.661798e+00 5.242209e-01 -2.738587e+00 -2.960975e+00 5.348383e+01 2.446185e+00 5.207826e-01 5.757565e-01 -3.715335e-02 -1.926058e+00 -2.053185e+00 -1.460689e+00 8.109056e-01 -1.128189e+00 -9.564896e-01 1.040299e+00 -3.403088e-01 1.444412e+00 -1.457075e-01 -6.269551e-01 -4.174035e-01 -2.568680e-01 4.533207e-02 2.368151e-01 7.128995e-02 7.826726e-01 1.729503e-01 1.156310e-01 9.453125e-02 1.955943e-01 -2.815544e-02
<VARIANCE> 39
 1.526536e+01 1.808272e+01 3.466194e+01 2.911085e+01 2.779572e+01 8.135983e+01 4.147348e+01 5.965054e+01 3.291509e+01 3.671207e+01 2.994007e+01 2.013608e+01 1.343278e+01 2.238147e+00 2.074584e+00 3.599595e+00 1.925866e+00 3.099720e+00 3.866343e+00 4.807183e+00 5.230682e+00 6.380353e+00 4.901949e+00 2.048866e+00 3.413731e+00 8.805139e-01 3.058122e-01 4.222768e-01 5.744109e-01 4.981948e-01 5.759181e-01 5.313188e-01 6.508473e-01 8.344275e-01 5.122832e-01 6.183282e-01 4.021239e-01 4.436273e-01 2.895637e-01
<GCONST> 1.210834e+02
<TRANSP> 5
 0.000000e+00 1.000000e+00 0.000000e+00 0.000000e+00 0.000000e+00
 0.000000e+00 6.420428e-01 3.579573e-01 0.000000e+00 0.000000e+00
 0.000000e+00 0.000000e+00 5.506659e-01 4.493341e-01 0.000000e+00
 0.000000e+00 0.000000e+00 0.000000e+00 6.177182e-01 3.822818e-01
 0.000000e+00 0.000000e+00 0.000000e+00 0.000000e+00 0.000000e+00
<ENDHMM>
~h "k"
<BEGINHMM>
<NUMSTATES> 5
<STATE> 2
<NUMMIXES> 5
<MIXTURE> 1 2.031843e-01
<MEAN> 39
 -1.359314e+01 -3.271338e+00 -2.137048e+00 -3.666182e+00 -6.936308e+00 -7.743466e+00 -2.965569e+00 -1.111771e+00 -7.834993e+00 -6.766469e-01 -1.111822e+00 -1.315211e+00 4.382098e+01 -3.028213e+00 1.126375e+00 -9.633164e-01 2.238990e+00 2.710415e+00 2.216328e+00 2.807945e-01 -2.965491e-01 1.444291e+00 4.056027e-01 -2.684584e-01 8.749235e-01 -4.898504e+00 -7.292630e-02 -6.515411e-01 -2.908959e-01 -4.440427e-01 -2.182613e-01 3.714663e-01 1.968515e-03 2.568308e-01 5.851846e-01 -3.669503e-02 4.298653e-02 -1.346760e-01 5.606411e-01
<VARIANCE> 39
 2.882758e+01 5.026694e+01 8.889497e+01 5.070970e+01 6.558399e+01 6.952087e+01 5.415577e+01 8.530142e+01 5.013946e+01 5.341742e+01 5.712348e+01 3.139792e+01 6.720378e+01 3.355680e+00 5.220964e+00 7.850444e+00 7.059081e+00 5.808768e+00 6.785351e+00 7.094929e+00 8.609753e+00 6.278900e+00 5.693271e+00 6.846426e+00 3.455557e+00 1.357305e+01 4.448935e-01 1.074153e+00 8.300173e-01 9.182221e-01 8.771400e-01 1.192699e+00 1.084654e+00 1.222827e+00 9.977353e-01 1.050584e+00 9.382598e-01 6.713887e-01 1.930430e+00
<GCONST> 1.473983e+02
<MIXTURE> 2 1.588579e-01
<MEAN> 39
 -2.074074e+01 -1.084650e+00 -4.631245e+00 5.585176e-01 -2.277302e+00 -4.094365e-01 -9.569441e-01 2.198606e-01 -1.112593e+00 3.879490e-01 -1.847162e-01 4.166505e-01 3.076306e+01 -1.149083e+00 -1.634257e-01 -6.266703e-01 1.238275e-01 5.469542e-01 1.089804e+00 2.077151e-01 1.724185e-01 9.592231e-01 9.340340e-02 3.786411e-01 2.930686e-01 -1.531068e+00 7.192035e-01 -6.881670e-01 9.473912e-03 -8.207926e-01 -6.501730e-01 -7.358612e-01 -2.092087e-01 -8.167877e-02 -3.869510e-01 -5.034379e-02 -1.672393e-01 -2.322858e-01 1.973241e+00
<VARIANCE> 39
 1.974514e+00 3.050383e+00 4.788146e+00 6.303298e+00 8.178886e+00 1.048088e+01 9.612786e+00 1.220862e+01 1.439481e+01 1.250068e+01 1.319958e+01 1.101340e+01 1.648182e+00 2.538694e+00 2.690011e+00 4.752981e+00 2.316767e+00 3.878266e+00 4.641909e+00 3.779002e+00 4.018387e+00 3.756498e+00 2.773591e+00 2.807970e+00 2.338522e+00 4.426521e+00 4.323254e-01 5.731838e-01 7.941374e-01 5.406609e-01 6.214678e-01 8.076628e-01 5.943648e-01 7.398322e-01 5.839220e-01 5.288439e-01 5.433567e-01 3.736212e-01 1.426196e+00
<GCONST> 1.062462e+02
<MIXTURE> 3 2.542356e-01
<MEAN> 39
 -2.150359e+01 -1.907433e+00 -5.761530e+00 -6.318007e-01 -2.906886e+00 -8.056890e-01 -1.870723e+00 -6.585531e-01 -1.517498e+00 -4.879885e-01 -6.940467e-01 -1.419734e-02 2.911051e+01 6.748616e-01 -2.944745e+00 -4.297258e-01 -2.227118e+00 -7.894368e-01 -9.379672e-01 -2.120162e-01 -6.249060e-02 -2.331187e-01 5.051884e-01 -3.981807e-01 1.480114e-01 5.564140e+00 2.724865e-01 -4.437028e-01 1.198962e-01 -7.762051e-01 -3.327590e-01 -5.058233e-01 -8.576018e-02 -1.420480e-02 -1.138522e-01 2.210243e-01 -1.401904e-01 2.950237e-03 2.374321e+00
<VARIANCE> 39
 1.588506e+00 3.110409e+00 5.237968e+00 6.959821e+00 8.935151e+00 9.529511e+00 1.077489e+01 1.206559e+01 1.228494e+01 1.142928e+01 1.138715e+01 1.097607e+01 6.907023e+00 1.908883e+00 3.263818e+00 4.477740e+00 3.680459e+00 3.908263e+00 3.352356e+00 3.608932e+00 3.734092e+00 3.337306e+00 3.085202e+00 2.241245e+00 2.029687e+00 7.942867e+00 2.666583e-01 4.055864e-01 5.346625e-01 4.464029e-01 4.757995e-01 5.712804e-01 5.017324e-01 5.566535e-01 5.086254e-01 4.431190e-01 3.593930e-01 3.508032e-01 7.320004e-01
<GCONST> 1.035045e+02
<MIXTURE> 4 1.999945e-01
<MEAN> 39
 -2.003473e+01 -3.351473e+00 -2.666945e+00 2.226219e-01 -2.428090e+00 -2.966325e+00 -2.638162e+00 -1.986696e+00 -3.893039e+00 -5.865439e-01 -2.439052e+00 -9.354576e-01 3.654210e+01 -1.744093e+00 -1.068797e+00 -1.744585e+00 5.455672e-01 1.140329e+00 1.342307e+00 5.396978e-01 7.439193e-01 1.342558e+00 5.082266e-01 1.097319e-01 3.507042e-01 -1.667861e+00 7.626743e-01 -5.028210e-01 -1.930356e-01 -1.117753e+00 -7.830685e-01 -4.258142e-01 -1.799868e-01 1.798329e-01 -1.551301e-01 8.606142e-02 1.746991e-01 -5.214374e-02 1.874590e+00
<VARIANCE> 39
 2.499422e+01 4.507618e+01 4.361749e+01 4.109122e+01 3.656000e+01 3.381261e+01 4.522673e+01 5.687622e+01 4.249973e+01 4.378640e+01 2.864966e+01 2.211286e+01 3.224847e+01 5.017998e+00 5.263669e+00 7.670237e+00 7.656950e+00 5.893145e+00 6.898508e+00 5.324264e+00 7.970914e+00 5.378315e+00 5.690186e+00 5.074199e+00 3.293592e+00 1.676945e+01 6.887039e-01 1.193751e+00 8.755691e-01 1.183813e+00 7.835937e-01 9.719464e-01 1.134960e+00 1.172179e+00 9.233475e-01 9.163174e-01 8.122065e-01 5.963875e-01 1.808446e+00
<GCONST> 1.420319e+02
<MIXTURE> 5 1.837223e-01
<MEAN> 39
 -2.151521e+01 -1.635088e+00 -6.000171e+00 -6.345163e-01 -3.167220e+00 -1.106278e+00 -2.222121e+00 -8.116288e-01 -1.513862e+00 -9.968033e-02 -5.738705e-01 -4.971177e-01 2.951426e+01 -3.221781e-01 -3.427181e-01 -5.714435e-01 -6.964951e-02 1.054699e-01 2.852067e-01 -4.101115e-02 1.421504e-01 3.905502e-01 4.133617e-02 4.672560e-02 -5.785848e-02 -3.901082e-01 6.166157e-01 -7.123330e-01 2.496357e-01 -6.932530e-01 -4.447552e-01 -5.787075e-01 -1.633112e-02 -3.518099e-02 -3.789994e-01 1.133206e-01 -1.474874e-01 1.987823e-02 2.103783e+00
<VARIANCE> 39
 1.363752e+00 2.755494e+00 4.283597e+00 5.640740e+00 7.877745e+00 9.100163e+00 1.064939e+01 1.027549e+01 1.298636e+01 1.138721e+01 1.147523e+01 1.030733e+01 3.719109e+00 1.285437e+00 2.110317e+00 2.226400e+00 1.671186e+00 2.333295e+00 2.681741e+00 2.342897e+00 2.999674e+00 2.536011e+00 2.202539e+00 2.019394e+00 1.771604e+00 2.765286e+00 3.587157e-01 5.227288e-01 8.626054e-01 5.737930e-01 7.218416e-01 8.881308e-01 7.251701e-01 9.478249e-01 6.832401e-01 5.377637e-01 5.351644e-01 3.983685e-01 1.438787e+00
<GCONST> 1.009642e+02
<STATE> 3
<NUMMIXES> 5
<MIXTURE> 1 2.329529e-01
<MEAN> 39
 -2.129841e+01 -6.961339e+00 -3.439537e+00 -1.359089e+01 -8.169458e+00 -3.984405e+00 -6.646720e-01 -1.846275e+00 -4.334770e-01 3.736204e+00 -1.503398e+00 1.507914e+00 5.775214e+01 2.489759e-02 2.474854e+00 1.323856e+00 1.164618e-01 5.543043e-02 3.170692e-01 6.619080e-01 8.278714e-02 2.604525e-01 -4.924858e-01 1.816171e-01 6.562911e-02 9.825910e-02 4.180532e-01 2.858357e-01 2.238428e-01 1.132522e+00 2.006742e-01 2.010084e-01 1.371912e-01 8.012921e-02 -3.360403e-01 -5.957437e-01 -6.598737e-02 -2.705468e-01 -2.093603e+00
<VARIANCE> 39
 1.090724e+01 1.935983e+01 2.357169e+01 2.671690e+01 2.746748e+01 2.787170e+01 2.953888e+01 3.506450e+01 3.729266e+01 2.647388e+01 2.286616e+01 1.934767e+01 1.433654e+01 1.630528e+00 2.184584e+00 1.677908e+00 2.074106e+00 2.346117e+00 2.475946e+00 2.625177e+00 2.475680e+00 2.279512e+00 2.409074e+00 2.107744e+00 1.960669e+00 3.014766e+00 2.478909e-01 4.772263e-01 3.678665e-01 3.783273e-01 5.024192e-01 5.556620e-01 5.998535e-01 7.215450e-01 7.278010e-01 5.758019e-01 5.484796e-01 4.691316e-01 4.407550e-01
<GCONST> 1.138164e+02
<MIXTURE> 2 2.675143e-01
<MEAN> 39
 -1.488549e+01 -1.370234e+01 -1.554483e+01 -7.916621e+00 -1.261993e+00 -6.939361e+00 -6.457929e+00 2.876866e+00 -3.158079e+00 2.350578e+00 -1.730464e+00 -4.566344e-01 5.479983e+01 -9.243023e-02 -4.659493e-01 -5.321746e-01 -1.211460e+00 -2.057128e-01 -1.230814e+00 7.248965e-02 3.776518e-01 4.550799e-01 5.258313e-01 8.688214e-02 2.175900e-01 4.338547e+00 -5.818495e-01 1.276429e+00 1.263303e+00 6.580222e-01 -2.387099e-01 3.075878e-01 5.213569e-01 -3.915586e-01 1.102243e-01 -4.062715e-01 1.160019e-01 -1.557119e-02 -1.544087e+00
<VARIANCE> 39
 1.639140e+01 2.879055e+01 4.348473e+01 4.596340e+01 3.732577e+01 6.111886e+01 5.344168e+01 3.995376e+01 4.321909e+01 3.463351e+01 3.259148e+01 2.519992e+01 3.330043e+01 4.680760e+00 4.420538e+00 4.711079e+00 4.263882e+00 3.538219e+00 4.614238e+00 3.677541e+00 3.418871e+00 3.697102e+00 3.063999e+00 2.633199e+00 2.226388e+00 9.432092e+00 6.662146e-01 7.989094e-01 6.221882e-01 8.519586e-01 6.419271e-01 1.046805e+00 9.012644e-01 8.408949e-01 8.689454e-01 7.175007e-01 6.578310e-01 5.457081e-01 1.240618e+00
<GCONST> 1.329333e+02
<MIXTURE> 3 1.224688e-01
<MEAN> 39
 -2.127097e+01 -1.347446e+01 -4.346167e+00 -1.454669e+01 -1.066781e+01 -4.049311e+00 -1.449540e+00 -4.849658e+00 -1.331170e+00 3.140581e+00 -3.072226e+00 1.096310e+00 5.943047e+01 -2.087142e-01 6.951088e-01 7.872947e-01 -2.743546e+00 -9.095002e-01 -1.690271e-01 5.296335e-01 -1.718110e-01 6.478782e-01 6.550972e-01 -1.050916e-02 5.021660e-01 5.330760e+00 1.808520e-01 1.573901e+00 3.192129e-01 1.310685e+00 6.430058e-01 3.476245e-01 2.011949e-01 4.405410e-01 -1.545209e-01 -5.154320e-01 1.487797e-01 -1.839539e-01 -2.544102e+00
<VARIANCE> 39
 7.761895e+00 1.332247e+01 1.154455e+01 1.780683e+01 1.890820e+01 1.863195e+01 2.377544e+01 2.851349e+01 5.227289e+01 3.371897e+01 1.612194e+01 1.891733e+01 1.395840e+01 9.732175e-01 2.760308e+00 2.185734e+00 2.009752e+00 2.196811e+00 2.169380e+00 1.586421e+00 1.771842e+00 1.848971e+00 2.065972e+00 1.376081e+00 1.581440e+00 5.827896e+00 2.090462e-01 3.393404e-01 2.948606e-01 4.111826e-01 4.698175e-01 5.119328e-01 5.483063e-01 5.932235e-01 8.713164e-01 6.848285e-01 4.346109e-01 4.107375e-01 5.785436e-01
<GCONST> 1.087090e+02
<MIXTURE> 4 2.376994e-01
<MEAN> 39
 -1.764119e+01 -1.055474e+01 -6.632842e+00 -3.361983e+00 -3.355531e+00 -3.688128e+00 -2.225939e+00 1.753935e+00 -3.163557e+00 9.790024e-01 -8.612447e-01 -9.458831e-02 4.457277e+01 8.751155e-01 -2.231092e+00 -1.009477e+00 -2.393229e+00 -9.720823e-01 -1.341518e+00 -3.557871e-01 4.687072e-01 -3.907454e-01 5.987228e-01 -2.032496e-01 -7.410004e-02 5.932711e+00 5.767390e-02 8.345121e-01 3.838342e-01 -1.638835e-01 -2.555213e-01 -2.513617e-01 -5.928255e-02 -2.493162e-01 -3.123212e-02 -7.258648e-02 2.953559e-02 -5.049746e-02 1.290066e-01
<VARIANCE> 39
 2.713623e+01 5.298157e+01 5.037221e+01 4.073304e+01 4.457670e+01 4.440921e+01 4.554646e+01 3.309487e+01 3.919291e+01 2.468093e+01 1.826299e+01 1.654587e+01 7.032861e+01 2.928819e+00 4.436706e+00 4.604552e+00 4.981497e+00 4.289377e+00 4.872323e+00 4.683191e+00 3.838052e+00 4.059596e+00 3.225205e+00 2.733427e+00 2.290531e+00 1.142199e+01 8.274935e-01 9.309908e-01 7.162541e-01 8.132136e-01 7.246637e-01 1.001364e+00 6.668847e-01 6.995963e-01 8.139693e-01 6.431239e-01 5.086255e-01 4.300304e-01 1.444465e+00
<GCONST> 1.331060e+02
<MIXTURE> 5 1.393618e-01
<MEAN> 39
 -2.186505e+01 -1.349408e+01 -1.732135e+00 -1.271728e+01 -8.909350e+00 -2.681666e+00 -1.376310e+00 -4.005553e+00 -2.187648e+00 2.664771e+00 -3.452067e+00 1.694704e-01 5.391501e+01 -2.786264e-01 -1.289392e+00 5.635593e-01 -3.711139e+00 -1.681894e+00 -6.195416e-01 -7.371245e-02 -1.054429e+00 3.740792e-01 7.702670e-01 -5.451264e-01 2.684984e-01 7.349178e+00 6.503207e-02 1.368409e+00 -2.112797e-03 7.405688e-01 3.725471e-01 5.293294e-02 9.272428e-02 2.254062e-01 4.040892e-02 -2.538265e-01 2.549637e-01 -2.222178e-04 -1.371434e+00
<VARIANCE> 39
 1.138983e+01 2.510508e+01 1.433769e+01 2.222948e+01 2.557460e+01 1.990264e+01 2.962705e+01 2.265874e+01 3.416499e+01 3.154602e+01 2.307597e+01 2.532280e+01 3.790567e+01 7.625245e-01 2.597341e+00 1.513489e+00 2.492988e+00 2.232925e+00 1.666811e+00 2.075534e+00 1.877149e+00 2.676425e+00 2.861645e+00 1.889237e+00 2.027337e+00 4.081367e+00 2.678501e-01 5.597529e-01 4.274334e-01 4.482103e-01 5.131609e-01 4.647974e-01 5.066186e-01 4.430488e-01 5.470782e-01 6.449130e-01 4.642573e-01 5.076520e-01 1.086713e+00
<GCONST> 1.134166e+02
<STATE> 4
<NUMMIXES> 5
<MIXTURE> 1 2.773700e-01
<MEAN> 39
 -1.771444e+01 -9.362111e+00 -8.858014e+00 -5.778445e+00 -3.566864e+00 -7.749846e+00 -3.075944e+00 1.400856e+00 -1.830053e+00 1.655394e+00 -9.222675e-01 -3.898020e-01 5.286068e+01 1.033148e-01 1.195646e+00 1.136701e+00 5.119245e-01 3.732840e-02 1.130579e-01 5.062962e-01 -4.265084e-01 2.905907e-01 -7.658059e-01 -9.685528e-02 -1.409835e-01 -1.756057e-01 4.037506e-01 1.938725e-01 2.253551e-02 7.916512e-03 -2.231040e-03 3.943298e-01 -1.320197e-01 -1.911792e-01 -1.966189e-01 -2.375281e-01 -3.230163e-02 -7.797926e-02 -5.322729e-01
<VARIANCE> 39
 3.053220e+01 2.310649e+01 5.010879e+01 3.755637e+01 4.705044e+01 4.949683e+01 5.118893e+01 3.322447e+01 4.060535e+01 3.275404e+01 2.545184e+01 2.312586e+01 6.358364e+01 5.757308e+00 3.478288e+00 3.124563e+00 2.744917e+00 3.384199e+00 3.942327e+00 3.877809e+00 3.415143e+00 3.430475e+00 2.965893e+00 2.797457e+00 2.171149e+00 4.641147e+00 6.048791e-01 5.157250e-01 6.449059e-01 6.121922e-01 6.995978e-01 7.683890e-01 7.080950e-01 5.565838e-01 8.025562e-01 6.580833e-01 5.706949e-01 4.799875e-01 1.083306e+00
<GCONST> 1.291710e+02
<MIXTURE> 2 2.264378e-01
<MEAN> 39
 -1.384474e+01 -6.295557e+00 1.085698e+00 -7.247237e+00 -1.188559e+01 -5.320813e+00 2.066936e+00 -4.654813e-01 -4.157648e+00 -1.574731e-01 -1.069353e+00 -2.206474e+00 5.623888e+01 3.734847e+00 -5.809056e-01 5.306767e-01 5.882800e-01 -2.317203e+00 -1.313263e+00 -9.322135e-01 8.536684e-01 -3.571199e-01 -1.388413e+00 1.102770e+00 -5.786604e-01 1.467291e+00 1.721936e-01 -7.043881e-01 -3.894289e-01 -5.083305e-01 -3.681055e-01 -1.672492e-01 -8.863785e-01 1.032732e-01 2.298219e-01 6.559332e-02 1.947087e-01 1.490260e-01 6.934263e-01
<VARIANCE> 39
 2.915970e+01 1.873830e+01 4.431375e+01 2.516813e+01 5.092041e+01 3.550465e+01 5.324804e+01 3.123433e+01 2.666217e+01 2.667443e+01 2.139829e+01 2.082604e+01 1.876935e+01 1.187139e+00 2.550588e+00 3.402540e+00 2.821444e+00 3.962484e+00 4.553166e+00 6.048008e+00 5.331477e+00 4.526127e+00 3.870684e+00 3.176980e+00 2.485370e+00 1.952836e+00 4.427948e-01 4.244064e-01 3.912622e-01 3.744576e-01 5.885091e-01 4.877002e-01 5.735425e-01 5.476766e-01 4.650468e-01 5.330770e-01 4.234643e-01 4.025873e-01 2.702725e-01
<GCONST> 1.203764e+02
<MIXTURE> 3 2.183996e-01
<MEAN> 39
 -2.341639e+01 -4.458974e+00 -1.001288e+00 -1.218710e+01 -7.524734e+00 -2.336551e+00 -1.226393e+00 -3.774836e+00 -7.763913e-01 4.097661e-01 -2.680397e+00 9.404568e-01 5.724301e+01 7.971839e-01 2.932464e-01 9.103431e-01 7.609991e-01 -4.458738e-01 -8.474973e-02 9.520257e-01 2.613991e-01 -4.533648e-01 -5.244867e-01 1.484514e-02 -3.227343e-01 -4.596776e-01 6.005883e-01 -4.780831e-01 -5.739123e-02 2.830142e-01 -3.186664e-01 -2.266796e-01 4.653386e-02 1.576477e-01 -2.709497e-01 -8.465238e-02 3.225745e-02 -1.658431e-01 -2.990768e-01
<VARIANCE> 39
 1.875736e+01 1.590042e+01 3.356408e+01 3.294118e+01 2.772537e+01 2.304313e+01 3.012525e+01 1.997313e+01 2.451516e+01 2.385707e+01 1.749099e+01 1.556458e+01 1.572239e+01 1.126803e+00 1.531585e+00 1.190595e+00 1.538032e+00 2.008477e+00 2.017166e+00 2.312372e+00 2.001878e+00 1.961117e+00 2.335394e+00 1.563518e+00 1.556002e+00 8.998303e-01 3.362291e-01 3.704693e-01 3.308722e-01 3.235506e-01 4.878479e-01 4.047875e-01 4.750716e-01 4.329003e-01 4.373195e-01 4.375367e-01 3.978840e-01 3.135519e-01 4.160312e-01
<GCONST> 1.062301e+02
<MIXTURE> 4 1.358223e-01
<MEAN> 39
 -1.450014e+01 -6.183675e+00 -2.521862e+00 -1.359678e+01 -8.441535e+00 -1.942034e+00 2.899168e-01 -7.170419e+00 -6.044951e+00 -3.607090e+00 -8.950889e+00 -2.041440e+00 5.631906e+01 3.141703e+00 -9.218555e-02 -3.654373e-01 -1.300015e+00 -2.499614e+00 -1.497952e+00 -1.457453e+00 -1.128865e+00 -2.346073e+00 -8.445845e-01 -1.683158e+00 -1.709337e+00 1.391516e+00 1.260987e-01 -4.069473e-01 -4.782574e-01 -2.810942e-01 -2.440837e-01 -3.299100e-01 -2.330177e-01 6.980568e-01 4.689248e-01 5.336554e-01 5.338972e-01 1.317203e-01 4.968460e-01
<VARIANCE> 39
 2.462601e+01 2.521581e+01 4.954273e+01 5.369574e+01 7.655184e+01 7.196759e+01 5.858515e+01 4.411367e+01 4.211073e+01 3.254071e+01 4.326907e+01 3.594212e+01 2.015418e+01 1.547413e+00 3.300927e+00 3.289152e+00 3.500087e+00 4.646172e+00 5.236269e+00 4.205789e+00 3.946090e+00 5.702563e+00 4.335652e+00 4.980645e+00 2.979039e+00 1.182768e+00 4.564121e-01 4.581698e-01 3.690086e-01 4.915619e-01 8.412890e-01 8.058479e-01 9.375554e-01 6.537274e-01 8.266793e-01 5.738646e-01 6.739576e-01 6.508452e-01 2.947877e-01
<GCONST> 1.292480e+02
<MIXTURE> 5 1.419667e-01
<MEAN> 39
 -2.049624e+01 -5.840041e+00 -3.695338e+00 -1.361873e+01 -5.397473e+00 4.874908e-01 2.595483e+00 -2.921205e+00 6.585643e-01 -1.195573e-01 -2.578529e+00 1.560007e+00 5.559642e+01 1.049360e+00 -1.637637e-01 5.502898e-01 -2.556320e-01 -8.758327e-01 3.727595e-01 7.346656e-01 -1.051128e+00 -1.656239e+00 -8.248193e-01 -1.420848e+00 -5.776671e-01 -4.230388e-01 7.362397e-01 -3.168277e-01 -2.616027e-01 -1.790805e-01 -5.755752e-01 -5.707030e-01 -6.286243e-01 -2.930822e-01 -5.938523e-01 -1.936629e-01 -3.702819e-01 -3.604325e-01 2.268919e-01
<VARIANCE> 39
 1.609892e+01 2.713925e+01 5.754655e+01 4.592179e+01 3.587362e+01 3.606995e+01 4.297979e+01 2.964751e+01 3.110346e+01 2.360597e+01 2.167835e+01 1.747743e+01 1.408283e+01 1.648134e+00 2.392530e+00 1.990443e+00 1.981252e+00 3.667595e+00 3.073533e+00 4.127148e+00 3.160496e+00 3.526676e+00 2.789491e+00 3.051385e+00 2.844383e+00 6.574910e-01 3.806356e-01 7.173553e-01 4.267769e-01 4.541024e-01 6.658161e-01 5.807217e-01 6.285750e-01 5.282776e-01 6.466650e-01 5.156003e-01 5.491399e-01 4.450638e-01 2.947493e-01
<GCONST> 1.181750e+02
<TRANSP> 5
 0.000000e+00 1.000000e+00 0.000000e+00 0.000000e+00 0.000000e+00
 0.000000e+00 7.622743e-01 2.377257e-01 0.000000e+00 0.000000e+00
 0.000000e+00 0.000000e+00 6.483733e-01 3.516267e-01 0.000000e+00
 0.000000e+00 0.000000e+00 0.000000e+00 7.299666e-01 2.700334e-01
 0.000000e+00 0.000000e+00 0.000000e+00 0.000000e+00 0.000000e+00
<ENDHMM>
~h "l"
<BEGINHMM>
<NUMSTATES> 5
<STATE> 2
<NUMMIXES> 5
<MIXTURE> 1 1.521598e-01
<MEAN> 39
 -1.570749e+00 -1.336859e+01 -1.234318e+01 -1.969289e+01 -9.489017e+00 2.392807e+00 -7.356745e+00 -7.086387e+00 5.125364e+00 2.910117e+00 3.352579e-01 -9.414557e+00 6.595773e+01 4.052876e-01 1.065148e+00 -2.091706e-01 -2.145160e+00 4.791450e-01 1.779276e+00 4.456156e-01 -1.483218e+00 -9.395705e-01 2.810611e-01 9.976730e-01 8.205639e-01 -6.551078e-01 1.886398e-02 1.890300e-01 1.853258e-01 1.338298e-01 -3.580454e-01 -3.074580e-01 1.382952e-01 3.438208e-01 -2.816714e-01 -3.555014e-01 -1.822439e-02 5.555290e-01 -1.688272e-01
<VARIANCE> 39
 8.842510e+00 3.371883e+01 3.426745e+01 4.514159e+01 6.910215e+01 6.354623e+01 1.066482e+02 8.010800e+01 4.426142e+01 3.820600e+01 5.919225e+01 4.505531e+01 1.785751e+01 3.727556e-01 9.879115e-01 1.662893e+00 2.068615e+00 2.169906e+00 2.272512e+00 3.157043e+00 2.711351e+00 1.918895e+00 2.518596e+00 2.437009e+00 3.468964e+00 3.210446e-01 2.000000e-01 2.000000e-01 2.000000e-01 2.644973e-01 3.821884e-01 3.309832e-01 4.208085e-01 4.027701e-01 4.253023e-01 3.505925e-01 4.254237e-01 5.429867e-01 2.000000e-01
<GCONST> 1.119377e+02
<MIXTURE> 2 2.664102e-01
<MEAN> 39
 -3.002105e+00 2.691223e+00 -8.864985e+00 -1.805029e+01 -9.250710e+00 -2.900939e+00 -6.941610e+00 -8.799660e+00 -6.660989e+00 -3.166525e+00 -1.930171e+00 -2.282903e+00 5.308771e+01 2.498191e+00 2.516415e-02 -8.937819e-01 -3.115314e+00 -8.918822e-01 3.833047e-01 -1.328813e+00 -8.983075e-01 -7.687691e-01 -4.209134e-02 4.883194e-01 -1.450653e-01 1.870034e+00 -8.605886e-01 -8.301542e-01 -4.955453e-02 3.014404e-01 4.229996e-01 2.616295e-01 2.433057e-02 5.739231e-01 4.823865e-01 3.452181e-01 1.838196e-01 7.191183e-03 -7.870304e-03
<VARIANCE> 39
 1.631599e+01 3.478711e+01 3.383067e+01 4.418667e+01 4.642714e+01 5.662347e+01 7.103820e+01 5.792822e+01 3.864463e+01 4.496942e+01 5.185100e+01 2.634592e+01 4.379969e+01 3.416161e+00 2.962238e+00 2.869762e+00 5.038410e+00 6.484896e+00 4.930658e+00 4.839660e+00 3.817501e+00 4.852506e+00 4.567337e+00 3.692743e+00 2.842349e+00 3.800163e+00 5.134232e-01 4.091201e-01 3.654373e-01 6.927638e-01 7.477720e-01 6.230101e-01 8.958886e-01 7.296105e-01 7.691705e-01 7.055812e-01 6.084915e-01 4.832334e-01 4.247256e-01
<GCONST> 1.313218e+02
<MIXTURE> 3 2.543310e-01
<MEAN> 39
 2.337626e-01 -1.405288e+00 -1.180330e+01 -2.845886e+01 -1.364989e+01 5.073870e+00 3.852776e-01 -6.859970e+00 6.310676e-01 -4.695053e+00 -2.943371e-01 8.169652e-01 5.674123e+01 1.253030e-02 8.431448e-01 2.186888e-01 5.134663e-01 -1.524825e-01 -4.360620e-01 -1.904974e-01 4.599956e-01 -1.634540e-01 -3.496919e-01 -1.484264e-01 2.808668e-01 -8.971678e-01 -1.935008e-01 -2.397303e-01 -1.478556e-02 3.847789e-01 3.596616e-01 -1.756243e-02 -1.339685e-01 1.254807e-02 -6.302881e-03 2.206613e-01 9.085180e-02 -2.271671e-01 4.616762e-02
<VARIANCE> 39
 7.432793e+00 4.306432e+01 3.044793e+01 4.154939e+01 6.491708e+01 5.524096e+01 9.183968e+01 6.200177e+01 3.191007e+01 5.685282e+01 4.647332e+01 4.192222e+01 3.038905e+01 3.033793e-01 1.388985e+00 8.205442e-01 1.805675e+00 2.129503e+00 1.800576e+00 1.921633e+00 1.942464e+00 1.835276e+00 1.805416e+00 1.669356e+00 1.269742e+00 5.727302e-01 2.000000e-01 2.463159e-01 2.000000e-01 3.474146e-01 3.191754e-01 3.673037e-01 3.386135e-01 3.220903e-01 3.615669e-01 3.498715e-01 2.710024e-01 3.287830e-01 2.000000e-01
<GCONST> 1.073633e+02
<MIXTURE> 4 1.735108e-01
<MEAN> 39
 -1.559070e+00 -1.800258e+00 -1.767361e+01 -2.782713e+01 -2.753814e+00 2.590330e+00 -6.681816e+00 -3.736845e+00 -6.868464e+00 -2.746384e+00 -1.482042e+00 -2.145920e+00 5.599172e+01 5.270822e-02 9.804627e-01 2.662388e-01 2.712626e-01 -5.821651e-01 -5.143383e-01 4.078426e-01 -1.850850e-01 -5.600644e-01 -4.221140e-01 2.854401e-01 -1.178563e-01 -8.762009e-01 -1.581602e-01 -2.166337e-01 1.793568e-01 4.723785e-01 2.631834e-02 -1.715552e-01 -5.113700e-02 -1.577864e-01 2.159872e-01 9.429881e-03 -2.883808e-01 -1.199190e-01 -1.885498e-03
<VARIANCE> 39
 7.037027e+00 2.775476e+01 3.317446e+01 3.272168e+01 3.949572e+01 3.782469e+01 9.529340e+01 4.006871e+01 3.811423e+01 7.538788e+01 2.777186e+01 2.175330e+01 2.722668e+01 2.752509e-01 8.837740e-01 9.500986e-01 2.258925e+00 1.805995e+00 1.655827e+00 1.839802e+00 1.768438e+00 1.298592e+00 1.720708e+00 1.295202e+00 1.466397e+00 3.771661e-01 2.000000e-01 2.000000e-01 2.000000e-01 2.838369e-01 2.808239e-01 2.523615e-01 3.052944e-01 3.081442e-01 2.407812e-01 2.111651e-01 2.126200e-01 2.000000e-01 2.000000e-01
<GCONST> 1.004209e+02
<MIXTURE> 5 1.535857e-01
<MEAN> 39
 -3.188394e+00 -8.441566e+00 -1.223199e+01 -2.451514e+01 -6.234146e+00 2.467911e+00 -1.073272e+01 -8.089851e+00 -7.009932e-01 1.935052e+00 -3.145498e+00 -1.858615e+00 6.330600e+01 5.570650e-01 1.764291e+00 -3.446568e-01 -1.644136e+00 5.434654e-02 1.013488e+00 1.682169e-01 -5.034579e-01 -1.380016e+00 -2.718552e-01 9.717867e-01 9.940538e-01 -1.100373e+00 -3.693198e-02 -9.424277e-03 1.575487e-01 4.171636e-01 -3.617658e-01 -4.849538e-01 2.416327e-01 5.376492e-01 -4.767780e-02 -4.631082e-01 -6.932256e-02 -3.054964e-02 -8.483460e-02
<VARIANCE> 39
 9.272179e+00 4.045671e+01 4.822174e+01 5.986461e+01 5.562394e+01 4.853698e+01 9.853020e+01 8.998418e+01 5.789737e+01 7.526436e+01 6.468005e+01 4.571688e+01 2.117630e+01 4.885284e-01 1.211371e+00 1.544264e+00 2.161436e+00 2.675154e+00 3.526644e+00 3.603464e+00 3.600589e+00 3.314149e+00 4.240069e+00 4.362878e+00 4.708590e+00 6.661332e-01 2.000000e-01 2.000000e-01 2.172259e-01 3.602088e-01 3.571759e-01 4.010996e-01 5.152466e-01 6.027350e-01 6.435501e-01 5.092683e-01 6.556108e-01 5.995181e-01 2.000000e-01
<GCONST> 1.201969e+02
<STATE> 3
<NUMMIXES> 4
<MIXTURE> 1 2.469197e-01
<MEAN> 39
 -6.525041e-01 -2.847083e+00 -8.235201e+00 -2.768426e+01 -1.543600e+01 6.987664e+00 -7.735596e+00 -6.332750e+00 -3.642420e+00 -3.462840e+00 9.532567e-01 5.813426e-01 5.982092e+01 7.842256e-02 -1.760352e+00 -6.411647e-01 -7.328214e-01 5.478118e-01 1.345503e+00 -1.172411e+00 3.498989e-01 5.519227e-01 8.123814e-01 1.016358e+00 -6.450375e-01 1.395401e+00 -5.908330e-01 -3.752175e-01 -8.319415e-04 9.388211e-01 7.043101e-01 -3.724137e-01 6.834319e-02 3.011926e-01 3.390107e-01 3.827267e-01 -2.212975e-01 -5.315421e-01 -1.306515e-01
<VARIANCE> 39
 7.917053e+00 3.134215e+01 3.947228e+01 4.875072e+01 4.658126e+01 3.240662e+01 6.608163e+01 7.357377e+01 5.008741e+01 4.937455e+01 6.012310e+01 3.704929e+01 2.165245e+01 1.401737e+00 3.748060e+00 1.982853e+00 5.342924e+00 3.840033e+00 4.278793e+00 5.711286e+00 3.350913e+00 3.711666e+00 5.884404e+00 3.075190e+00 3.127922e+00 2.425839e+00 5.240700e-01 3.262135e-01 4.814902e-01 6.707783e-01 6.846284e-01 7.049358e-01 8.646504e-01 8.635229e-01 8.637735e-01 7.218029e-01 7.384424e-01 4.762177e-01 2.529958e-01
<GCONST> 1.283539e+02
<MIXTURE> 2 2.032956e-01
<MEAN> 39
 -2.902297e+00 1.622800e+00 -1.110183e+01 -1.959420e+01 -5.122981e+00 -7.660737e+00 -8.605097e+00 -5.046364e+00 -6.341798e+00 -1.096516e-01 -4.729985e+00 -1.342360e+00 5.470139e+01 -4.620749e-01 -8.305361e-01 -1.307616e-01 3.744710e-01 9.177994e-01 7.774622e-02 -8.941514e-02 9.540451e-01 4.669638e-01 4.703372e-01 -1.057937e-01 -1.877291e-01 5.378065e-01 -3.590573e-01 -6.074393e-01 1.712542e-01 2.805021e-01 -1.759185e-01 5.029357e-01 1.967396e-01 2.968066e-01 4.073263e-01 -2.856877e-01 5.094526e-02 -1.950692e-03 8.866385e-02
<VARIANCE> 39
 1.643111e+01 2.835744e+01 3.652647e+01 6.862807e+01 6.005642e+01 1.050038e+02 1.274102e+02 6.951450e+01 4.741343e+01 5.713069e+01 4.812542e+01 2.870551e+01 3.185051e+01 1.613345e+00 3.145852e+00 2.366434e+00 6.638677e+00 4.793839e+00 4.603642e+00 3.225696e+00 3.898682e+00 4.258918e+00 2.977345e+00 2.301131e+00 2.183576e+00 3.286391e+00 3.931644e-01 3.185590e-01 3.652175e-01 8.659194e-01 7.249497e-01 9.014297e-01 8.359265e-01 9.551226e-01 6.769468e-01 6.078874e-01 4.541918e-01 4.553397e-01 2.063079e-01
<GCONST> 1.295098e+02
<MIXTURE> 3 3.435767e-01
<MEAN> 39
 -2.275651e+00 8.206644e-01 -9.518604e+00 -2.315318e+01 -5.922337e+00 4.810048e-01 -1.072441e+01 -8.482859e+00 -7.237254e+00 -3.957496e+00 4.000183e+00 -2.808727e+00 5.722313e+01 -3.108375e-01 -1.084845e+00 -2.991351e-01 2.892569e-01 5.227732e-01 -2.130269e-01 -4.959278e-01 4.770965e-02 9.185103e-01 9.720482e-01 -2.542212e-01 -5.239763e-01 9.485859e-01 -1.369175e-01 -5.688189e-01 -3.794282e-02 4.018827e-01 -1.088346e-01 -1.693774e-01 -7.954203e-02 2.316630e-01 6.766778e-01 4.129403e-01 -5.755256e-01 -2.462716e-01 2.228613e-01
<VARIANCE> 39
 8.193022e+00 2.968424e+01 3.929744e+01 7.178548e+01 4.503170e+01 4.633575e+01 8.039545e+01 8.758794e+01 7.720220e+01 7.484412e+01 5.114615e+01 4.345826e+01 2.540061e+01 3.590959e-01 1.536072e+00 1.067123e+00 2.333976e+00 1.630649e+00 2.332940e+00 2.012511e+00 3.026920e+00 3.817395e+00 3.554841e+00 2.365265e+00 2.199830e+00 9.716324e-01 2.000000e-01 2.904468e-01 2.146648e-01 5.110147e-01 3.702155e-01 5.094294e-01 4.846269e-01 7.010987e-01 7.133661e-01 7.689834e-01 5.682402e-01 4.874427e-01 2.000000e-01
<GCONST> 1.176138e+02
<MIXTURE> 4 2.062073e-01
<MEAN> 39
 -3.760029e+00 5.773050e-01 -1.316927e+01 -1.654963e+01 -2.422700e+00 -3.584394e+00 -1.060346e+01 -8.534024e+00 -5.149596e+00 -2.205116e+00 -2.888993e+00 -4.805926e+00 5.298824e+01 -7.211441e-01 -1.331595e+00 2.391383e-01 1.124518e+00 2.957928e-01 -5.563816e-01 -5.449893e-01 1.022997e+00 1.028689e+00 2.308832e-01 -9.944910e-01 -6.142436e-01 4.669773e-01 -3.117051e-01 -4.754190e-01 2.368514e-01 8.904045e-02 -3.680932e-01 -6.881537e-02 3.582802e-01 7.731830e-01 1.628235e-01 -2.019657e-01 -1.839682e-01 2.751364e-01 5.671176e-02
<VARIANCE> 39
 8.188937e+00 2.216119e+01 4.058936e+01 4.971876e+01 3.704636e+01 6.372057e+01 9.877346e+01 4.857760e+01 5.376063e+01 6.150036e+01 4.082052e+01 3.183649e+01 4.299545e+01 1.356614e+00 2.971753e+00 2.348693e+00 5.760884e+00 4.016610e+00 4.761655e+00 4.577589e+00 7.150071e+00 4.708854e+00 3.089173e+00 3.579673e+00 2.327572e+00 3.621152e+00 2.524486e-01 2.595188e-01 3.598611e-01 6.180656e-01 6.601008e-01 6.543453e-01 8.249213e-01 7.845771e-01 6.206142e-01 6.489004e-01 6.092737e-01 4.470471e-01 2.266286e-01
<GCONST> 1.270902e+02
<STATE> 4
<NUMMIXES> 4
<MIXTURE> 1 3.188357e-01
<MEAN> 39
 -2.037300e+00 -1.046340e+01 -1.104500e+01 -2.372099e+01 -8.842521e+00 4.695380e+00 -1.192698e+01 -5.482254e+00 2.394620e-01 4.560248e+00 1.839223e+00 -7.611506e+00 6.480032e+01 -2.195298e-01 -2.407602e+00 -6.145274e-02 1.168396e+00 3.162643e-01 -4.389104e-01 -7.502298e-01 1.671195e+00 2.250857e+00 7.263652e-01 -1.564013e+00 -1.762688e+00 1.130689e+00 -1.038017e-01 4.425767e-01 3.626449e-01 5.000054e-01 -1.836853e-01 -5.997121e-01 3.441108e-01 2.724459e-01 -2.269371e-01 -8.131459e-01 -3.767082e-01 4.824997e-01 -4.258549e-01
<VARIANCE> 39
 8.468428e+00 3.139500e+01 3.870307e+01 5.513155e+01 5.551263e+01 7.122502e+01 7.582085e+01 6.355804e+01 4.625896e+01 5.015079e+01 6.461691e+01 4.614125e+01 1.878108e+01 6.575885e-01 2.453747e+00 2.141109e+00 3.383906e+00 2.967879e+00 5.772122e+00 4.547615e+00 4.494701e+00 4.481128e+00 4.240559e+00 5.178771e+00 3.062729e+00 1.285985e+00 2.000000e-01 2.237269e-01 3.056867e-01 3.618097e-01 5.222656e-01 5.713788e-01 5.658981e-01 7.369579e-01 6.821787e-01 6.120095e-01 6.330338e-01 5.158755e-01 2.000000e-01
<GCONST> 1.236536e+02
<MIXTURE> 2 2.420481e-01
<MEAN> 39
 -5.698040e+00 -1.279902e+01 -3.705192e+00 -1.428670e+01 -1.271679e+01 -1.035857e+01 -1.177691e+01 6.389944e+00 -8.441591e-01 -4.461941e+00 -6.638682e+00 -2.842060e-01 6.387721e+01 -5.840264e-01 -3.757654e-01 2.230121e+00 5.512958e-01 -2.559642e+00 -7.040377e-01 1.938943e+00 7.993900e-01 -2.175795e+00 -1.391376e+00 1.431492e+00 1.307912e+00 -1.850464e-02 4.292000e-02 5.012577e-01 2.032180e-03 -3.828864e-01 1.249304e-01 5.906018e-01 4.549244e-02 -1.046749e+00 -5.196760e-01 5.696431e-01 6.147160e-01 -4.742686e-01 -3.116906e-01
<VARIANCE> 39
 8.513844e+00 3.273430e+01 6.779997e+01 3.128597e+01 7.556930e+01 6.673655e+01 5.431406e+01 5.952191e+01 5.406539e+01 6.770142e+01 5.510627e+01 3.956651e+01 3.041531e+01 3.697039e-01 1.700345e+00 1.917740e+00 1.831329e+00 3.034607e+00 3.100892e+00 2.347005e+00 3.453601e+00 2.786872e+00 3.417426e+00 2.321080e+00 2.240382e+00 8.101382e-01 2.000000e-01 2.097847e-01 2.215099e-01 2.875637e-01 4.287296e-01 6.009846e-01 5.308679e-01 5.656782e-01 6.907981e-01 4.683873e-01 6.225157e-01 3.837880e-01 2.000000e-01
<GCONST> 1.170464e+02
<MIXTURE> 3 3.013432e-01
<MEAN> 39
 -3.983240e+00 -1.145087e+01 -1.030088e+01 -1.726546e+01 -6.086135e+00 -5.503542e+00 -1.314072e+01 -1.343032e+00 5.594922e+00 2.577526e+00 -7.193841e+00 -7.921531e+00 6.386864e+01 -5.143519e-01 -1.281999e+00 1.365059e+00 1.610213e+00 -1.181520e+00 -1.935976e+00 4.406904e-01 2.635979e+00 7.163771e-01 -1.776444e+00 -1.683802e+00 1.033313e+00 4.266466e-01 5.866570e-03 4.665678e-01 4.047141e-01 -9.483586e-02 -4.879213e-01 1.076800e-01 5.436883e-01 -1.989525e-01 -1.027353e+00 -4.908240e-01 7.778664e-01 6.721401e-01 -3.752070e-01
<VARIANCE> 39
 7.091086e+00 3.953497e+01 5.078494e+01 3.229736e+01 4.553828e+01 5.648876e+01 9.380908e+01 8.226705e+01 5.019762e+01 6.102501e+01 4.918613e+01 4.218868e+01 3.013459e+01 3.805182e-01 1.553150e+00 1.474743e+00 1.731983e+00 2.516174e+00 2.552112e+00 2.892903e+00 2.954849e+00 3.116091e+00 3.307947e+00 2.962059e+00 2.180815e+00 8.552703e-01 2.000000e-01 2.207757e-01 2.221669e-01 2.866926e-01 4.503421e-01 4.252307e-01 6.305901e-01 5.054055e-01 5.497068e-01 6.835889e-01 5.614709e-01 4.242750e-01 2.000000e-01
<GCONST> 1.163568e+02
<MIXTURE> 4 1.377703e-01
<MEAN> 39
 -5.707994e+00 -4.061176e+00 -8.781285e+00 -1.597707e+01 -7.326870e+00 -2.434872e+00 -6.674034e+00 -2.106262e+00 -4.792933e+00 -5.863129e+00 -5.308377e+00 -4.994763e-01 5.378786e+01 -1.791376e+00 -7.182772e-01 1.072419e+00 1.832418e+00 1.982986e-01 -3.055706e-02 6.677819e-01 3.944192e-01 -5.116964e-01 2.149018e-01 3.779899e-01 -1.017972e-01 -7.860278e-01 -2.131159e-01 -1.334162e-01 -7.704874e-02 -1.597616e-01 1.931131e-02 1.286129e-01 6.334008e-02 2.865284e-02 1.008674e-01 3.179999e-01 9.823937e-02 -1.326662e-01 -2.313705e-02
<VARIANCE> 39
 1.506047e+01 3.703401e+01 5.106654e+01 5.253981e+01 8.955352e+01 8.191994e+01 9.015015e+01 7.521095e+01 5.080604e+01 5.882364e+01 3.505336e+01 3.831843e+01 6.358224e+01 3.093516e+00 3.302421e+00 3.375209e+00 9.950185e+00 7.243929e+00 4.745733e+00 4.708224e+00 6.569055e+00 4.818965e+00 4.733855e+00 3.212013e+00 3.077005e+00 3.720661e+00 3.445162e-01 4.075943e-01 3.934433e-01 6.657271e-01 8.952801e-01 6.083760e-01 8.363683e-01 9.924646e-01 6.739135e-01 6.322790e-01 5.463955e-01 5.645317e-01 2.160498e-01
<GCONST> 1.348569e+02
<TRANSP> 5
 0.000000e+00 1.000000e+00 0.000000e+00 0.000000e+00 0.000000e+00
 0.000000e+00 7.507342e-01 2.492659e-01 0.000000e+00 0.000000e+00
 0.000000e+00 0.000000e+00 6.977542e-01 3.022458e-01 0.000000e+00
 0.000000e+00 0.000000e+00 0.000000e+00 7.031360e-01 2.968641e-01
 0.000000e+00 0.000000e+00 0.000000e+00 0.000000e+00 0.000000e+00
<ENDHMM>
~h "m"
<BEGINHMM>
<NUMSTATES> 5
<STATE> 2
<NUMMIXES> 5
<MIXTURE> 1 2.917878e-01
<MEAN> 39
 -4.166176e+00 -3.220305e+00 -4.837702e-01 7.335266e-01 -6.252005e+00 -6.563468e+00 -8.476856e+00 -9.403817e+00 -1.203006e+01 -3.004595e+00 1.744984e+00 -7.247424e+00 5.039346e+01 -1.482544e-01 5.395436e-01 2.099682e-02 2.744803e-01 2.229301e-01 2.569015e-02 1.348732e-01 1.911154e-02 -2.936515e-02 -3.282870e-01 -2.869812e-01 2.930005e-01 -5.357984e-01 -6.379819e-02 -1.084119e-01 -1.900671e-01 -3.834377e-01 -1.004776e-01 1.686893e-01 7.469777e-02 3.454336e-01 5.863473e-01 -4.554247e-03 -3.072126e-01 1.750553e-01 6.319007e-02
<VARIANCE> 39
 4.996423e+00 2.558773e+01 2.171789e+01 4.181477e+01 4.634909e+01 6.928633e+01 4.581635e+01 6.208585e+01 5.148348e+01 4.523548e+01 4.151677e+01 3.590224e+01 1.719881e+01 3.179061e-01 1.123750e+00 7.722210e-01 1.031297e+00 1.061512e+00 1.290101e+00 1.299013e+00 1.500900e+00 1.486901e+00 1.397488e+00 1.465487e+00 1.303712e+00 1.029010e+00 2.000000e-01 2.000000e-01 3.113187e-01 3.106351e-01 3.479891e-01 3.001613e-01 2.793500e-01 4.068781e-01 4.999594e-01 3.247647e-01 2.992511e-01 2.942566e-01 2.000000e-01
<GCONST> 1.025588e+02
<MIXTURE> 2 2.684067e-01
<MEAN> 39
 -3.155907e+00 -6.227096e+00 -3.313453e+00 -2.944967e+00 -6.236104e+00 -6.377384e+00 -9.400754e+00 -8.882513e+00 -1.012234e+01 -1.311239e+00 2.024718e+00 -8.283481e+00 5.396547e+01 -7.982084e-01 1.538868e+00 1.818214e+00 2.312412e+00 9.767648e-01 -9.412095e-01 3.870045e-01 -2.262485e+00 -3.292315e+00 6.828066e-01 9.330865e-01 -6.761106e-01 -1.770363e+00 -8.836918e-02 -4.293645e-01 -9.357525e-02 -5.224636e-01 -3.878638e-01 1.412626e-01 -1.045737e-01 7.551474e-01 7.609053e-01 -3.135075e-01 -5.660223e-01 3.621886e-01 5.368681e-01
<VARIANCE> 39
 7.356259e+00 2.478571e+01 3.396164e+01 5.277915e+01 4.360094e+01 6.921041e+01 6.085527e+01 6.542043e+01 6.343662e+01 5.013912e+01 4.222302e+01 3.972129e+01 2.261683e+01 4.894255e-01 1.352771e+00 2.631779e+00 2.655641e+00 2.789363e+00 3.122561e+00 3.087621e+00 4.699070e+00 3.968842e+00 4.087137e+00 3.702592e+00 3.299214e+00 8.670580e-01 2.000000e-01 2.000000e-01 4.635175e-01 5.680731e-01 4.901937e-01 4.501731e-01 4.466329e-01 5.729942e-01 7.876841e-01 5.494273e-01 5.070938e-01 4.580752e-01 2.000000e-01
<GCONST> 1.194679e+02
<MIXTURE> 3 1.509692e-01
<MEAN> 39
 -5.601212e+00 -2.246570e+00 -3.495505e-01 -1.223401e+00 -6.002899e+00 -1.074285e+01 -7.731955e+00 -1.015813e+01 -9.084658e+00 -4.121084e-01 -3.468544e+00 -7.766313e+00 4.951720e+01 -9.183162e-02 2.855743e-01 1.282117e-01 1.971878e-01 -8.115659e-03 -1.258957e-01 8.115397e-02 1.610644e-02 5.734962e-02 -5.164165e-02 -5.259409e-02 8.542902e-02 -3.749952e-01 5.882592e-02 -1.015335e-01 -3.323246e-01 -2.859473e-01 -3.040844e-02 2.282020e-01 8.519733e-03 3.137018e-01 2.509156e-01 -2.373637e-01 6.806664e-02 1.395705e-01 7.487676e-02
<VARIANCE> 39
 5.574255e+00 2.671853e+01 2.412195e+01 4.384370e+01 4.705465e+01 7.397413e+01 6.595742e+01 7.277464e+01 5.836510e+01 5.267350e+01 5.953503e+01 5.519199e+01 2.608054e+01 2.000000e-01 3.792307e-01 5.091377e-01 4.874299e-01 5.650794e-01 7.327311e-01 7.501634e-01 9.969186e-01 8.786075e-01 9.121233e-01 7.911627e-01 8.623714e-01 2.545361e-01 2.000000e-01 2.000000e-01 2.081528e-01 2.902834e-01 2.000000e-01 2.545409e-01 2.505646e-01 2.926022e-01 3.776460e-01 2.952450e-01 2.306539e-01 3.256500e-01 2.000000e-01
<GCONST> 9.454033e+01
<MIXTURE> 4 1.733922e-01
<MEAN> 39
 -5.002783e+00 -2.040733e+00 -1.242406e+00 -2.832111e+00 -9.515489e+00 -1.381025e+01 -9.264945e+00 -8.667708e+00 -1.282462e+01 -1.433819e+00 -8.931478e+00 -7.707548e+00 4.908426e+01 4.887465e-01 4.291826e-01 5.339392e-01 6.090856e-01 -4.702929e-01 -7.903962e-01 -5.323380e-01 -1.123333e+00 -8.351572e-01 5.118660e-01 -2.364020e-01 -7.322842e-01 6.248125e-02 -4.915077e-01 -4.957163e-01 -3.707122e-01 -6.425018e-01 7.237478e-02 6.111448e-01 2.988223e-01 6.080857e-01 5.869452e-01 -3.100329e-01 4.498022e-01 4.501686e-01 2.439775e-01
<VARIANCE> 39
 7.189742e+00 2.421589e+01 2.882042e+01 4.086321e+01 7.424562e+01 7.024348e+01 5.880711e+01 5.382938e+01 5.625090e+01 6.489867e+01 8.967074e+01 4.778614e+01 2.232323e+01 2.681028e+00 3.844880e+00 2.561202e+00 4.336088e+00 3.628655e+00 3.492149e+00 3.644928e+00 3.670731e+00 3.933130e+00 4.433767e+00 4.547839e+00 3.385853e+00 7.622204e+00 3.327680e-01 3.587917e-01 5.078622e-01 5.578326e-01 7.563184e-01 5.702196e-01 6.214092e-01 7.403784e-01 8.241783e-01 9.193848e-01 9.184814e-01 6.342736e-01 4.905545e-01
<GCONST> 1.311624e+02
<MIXTURE> 5 1.154380e-01
<MEAN> 39
