
\data\
ngram 1=10
ngram 2=19

\1-grams:
-0.8653014	</s>
-99	<s>	-0.30103
-1.342423	a	-0.30103
-1.041393	bag	-0.30103
-0.8653014	box	-0.3010299
-0.8653014	in	-0.30103
-0.8653014	is	-0.4771212
-1.041393	it	-0.30103
-1.342423	on	-0.30103
-0.7403627	the	-0.60206

\2-grams:
-0.6292123	<s> is
-0.6734159	<s> it
-0.589095	<s> the
-0.2632414	a bag
-0.4973246	bag </s>
-0.5642715	bag on
-0.6292123	box </s>
-0.6292123	box in
-0.6292123	box is
-0.7226339	in a
-0.6734159	in it
-0.589095	in the
-0.2632414	is in
-0.6434527	is the
-0.4973246	it </s>
-0.4973246	it is
-0.2284793	on the
-0.8305393	the bag
-0.1810547	the box

\end\
