~o
<STREAMINFO> 1 39
<VECSIZE> 39<NULLD><MFCC_D_A_0><DIAGC>
~h "aa"
<BEGINHMM>
<NUMSTATES> 5
<STATE> 2
<MEAN> 39
 -6.111929e+00 -1.161839e+01 -1.364066e+01 -1.507256e+01 -6.830571e+00 7.616977e-01 -3.480376e+00 -4.351298e-01 -1.845494e+00 7.184673e-01 -1.947272e+00 -5.811256e+00 5.396333e+01 1.385613e+00 -9.999295e-01 -1.126446e+00 -1.297927e+00 5.460099e-01 1.603097e+00 1.922413e-01 -4.359407e-01 -4.153989e-01 -1.802600e-01 1.171121e-01 -6.217699e-01 1.667841e+00 -1.895809e-01 1.637683e-01 3.060442e-01 1.975725e-01 -1.728954e-01 -8.335325e-02 6.809996e-03 -4.893344e-02 -1.700088e-01 -6.506402e-02 2.004261e-01 2.173526e-01 -1.573977e-01
<VARIANCE> 39
 5.852394e+01 4.736513e+01 3.563872e+01 8.253026e+01 6.399911e+01 9.895944e+01 6.760574e+01 6.627510e+01 6.278514e+01 5.222237e+01 6.204990e+01 4.304399e+01 1.308667e+02 3.273409e+00 2.791315e+00 3.250325e+00 4.261118e+00 4.559310e+00 4.818231e+00 3.732711e+00 4.042017e+00 4.449690e+00 3.582196e+00 3.541865e+00 3.540771e+00 6.075401e+00 6.201368e-01 4.907217e-01 4.644269e-01 7.269146e-01 6.218970e-01 7.510674e-01 6.327849e-01 7.813480e-01 9.305061e-01 6.296710e-01 6.320866e-01 5.821573e-01 9.280958e-01
<GCONST> 1.380078e+02
<STATE> 3
<MEAN> 39
 9.713851e-01 -1.515667e+01 -1.955113e+01 -1.605305e+01 -5.541108e+00 2.530269e+00 -4.442291e+00 8.315286e-01 -3.397300e+00 -2.661602e+00 2.789286e-01 -5.323882e+00 6.197063e+01 1.329841e-01 -1.438519e-02 -3.399139e-01 5.814708e-01 2.476802e-01 -6.541255e-01 -4.238208e-01 4.309081e-01 2.987547e-01 -1.659945e-01 -1.524284e-01 1.659441e-01 -1.155444e-01 -4.701488e-02 4.989922e-02 6.192177e-02 7.258234e-02 -1.880033e-02 -1.369687e-01 -4.493457e-02 2.990808e-02 4.762314e-02 2.935918e-02 -5.789634e-02 1.220186e-02 -8.890057e-02
<VARIANCE> 39
 1.114990e+01 2.937569e+01 3.862899e+01 7.334203e+01 6.650147e+01 1.062965e+02 9.371873e+01 9.932575e+01 9.345011e+01 5.563094e+01 6.320587e+01 4.352305e+01 2.184722e+01 2.058375e-01 5.426438e-01 7.753664e-01 1.080704e+00 1.232660e+00 1.888369e+00 1.982055e+00 1.626775e+00 1.640746e+00 1.413499e+00 1.477267e+00 1.177556e+00 2.623362e-01 2.000000e-01 2.000000e-01 2.000000e-01 2.000000e-01 2.000000e-01 2.018394e-01 2.293093e-01 2.136028e-01 2.136002e-01 2.062166e-01 2.026891e-01 2.000000e-01 2.000000e-01
<GCONST> 1.020824e+02
<STATE> 4
<MEAN> 39
 -4.113768e+00 -1.158485e+01 -1.676201e+01 -5.609280e+00 -2.593113e+00 -6.528339e+00 -7.334046e+00 4.315972e+00 1.311203e+00 -3.488433e+00 -4.508892e+00 -2.233701e+00 5.125217e+01 -8.151310e-01 5.276234e-01 1.016334e+00 5.880647e-01 -3.337901e-01 -4.330802e-01 2.172080e-01 -7.837219e-02 -1.365786e-01 1.083428e-04 -6.422913e-02 2.346755e-01 -1.159945e+00 -1.493779e-01 3.935840e-02 1.830247e-01 -4.080306e-02 -8.867317e-02 1.498737e-01 1.958458e-01 -7.906121e-02 -1.441591e-01 -1.048290e-02 1.167919e-01 6.478100e-03 -9.397063e-02
<VARIANCE> 39
 5.940254e+01 3.767873e+01 6.079397e+01 5.242020e+01 6.176620e+01 7.551898e+01 9.145061e+01 7.460714e+01 9.453046e+01 4.546843e+01 4.478814e+01 3.455972e+01 1.028051e+02 1.152204e+00 2.042947e+00 2.367738e+00 2.714187e+00 2.942501e+00 3.663418e+00 3.560897e+00 3.420852e+00 3.147796e+00 2.808068e+00 2.605847e+00 2.214716e+00 1.748258e+00 2.128277e-01 3.291719e-01 3.652197e-01 3.908988e-01 4.422610e-01 4.976745e-01 5.898635e-01 5.365546e-01 5.320961e-01 4.741178e-01 4.094681e-01 3.641886e-01 2.865361e-01
<GCONST> 1.253621e+02
<TRANSP> 5
 0.000000e+00 1.000000e+00 0.000000e+00 0.000000e+00 0.000000e+00
 0.000000e+00 8.249564e-01 1.750436e-01 0.000000e+00 0.000000e+00
 0.000000e+00 0.000000e+00 9.422966e-01 5.770337e-02 0.000000e+00
 0.000000e+00 0.000000e+00 0.000000e+00 8.658912e-01 1.341088e-01
 0.000000e+00 0.000000e+00 0.000000e+00 0.000000e+00 0.000000e+00
<ENDHMM>
