~o
<STREAMINFO> 1 39
<VECSIZE> 39<NULLD><MFCC_D_A_0><DIAGC>
~h "ae"
<BEGINHMM>
<NUMSTATES> 5
<STATE> 2
<MEAN> 39
 -9.289909e+00 -1.258455e+01 -5.216219e+00 -1.092080e+01 -1.224512e+01 -6.705670e+00 -2.429281e+00 3.269312e+00 -2.711169e+00 -2.490195e+00 -5.177722e+00 -2.494890e+00 5.781964e+01 5.666451e-01 -1.585988e+00 -7.215989e-02 -8.293148e-01 -6.670058e-01 1.586821e-01 5.287165e-01 8.272789e-01 -9.560061e-02 -3.662629e-01 -3.557058e-01 -3.027360e-01 1.817956e+00 -3.736218e-01 3.034298e-01 -1.924834e-02 1.745432e-01 3.661243e-01 2.496786e-01 1.492000e-01 -2.420971e-01 -4.451178e-02 -2.897931e-02 1.074350e-01 6.798720e-02 -3.740566e-01
<VARIANCE> 39
 5.239941e+01 5.737444e+01 4.850226e+01 6.306421e+01 6.912054e+01 6.187419e+01 8.556568e+01 6.900641e+01 6.704005e+01 4.043721e+01 4.367992e+01 3.424089e+01 2.022342e+02 2.363725e+00 3.219574e+00 2.607331e+00 3.282274e+00 3.653915e+00 3.201560e+00 4.035561e+00 4.360835e+00 3.308224e+00 2.965166e+00 2.781030e+00 2.357649e+00 4.796606e+00 5.486262e-01 5.666156e-01 3.899480e-01 6.013358e-01 6.048673e-01 5.751524e-01 7.640975e-01 7.205387e-01 5.987971e-01 5.459811e-01 5.457777e-01 4.267266e-01 8.447519e-01
<GCONST> 1.335007e+02
<STATE> 3
<MEAN> 39
 -6.469852e+00 -1.783666e+01 -5.028388e+00 -1.380092e+01 -1.438754e+01 -4.525575e+00 -2.186872e-01 4.087432e+00 -3.704143e+00 -4.473468e+00 -6.618228e+00 -2.735497e+00 6.668136e+01 3.111470e-02 4.900377e-02 -2.576780e-01 1.163000e-01 3.355928e-01 4.358393e-02 -1.575306e-02 -8.004293e-02 5.273879e-02 -3.949247e-02 -2.262878e-01 5.339672e-02 -2.199933e-01 1.852561e-02 2.019990e-01 -1.449789e-02 6.788476e-02 5.057817e-02 -9.729635e-02 -1.179558e-01 -7.936271e-02 2.047989e-02 9.149490e-02 3.985130e-02 -3.964183e-03 -1.929309e-01
<VARIANCE> 39
 1.197344e+01 3.696647e+01 5.356746e+01 4.423397e+01 7.277431e+01 5.966501e+01 6.842854e+01 8.877041e+01 7.699764e+01 5.527911e+01 4.439688e+01 3.985005e+01 2.341886e+01 2.847836e-01 7.922479e-01 1.000051e+00 1.027122e+00 1.402200e+00 1.313804e+00 1.592006e+00 1.398991e+00 1.283900e+00 1.198730e+00 1.231760e+00 9.913378e-01 3.444908e-01 2.000000e-01 2.000000e-01 2.000000e-01 2.000000e-01 2.046106e-01 2.000000e-01 2.347454e-01 2.471518e-01 2.103431e-01 2.030853e-01 2.037139e-01 2.000000e-01 2.000000e-01
<GCONST> 1.006872e+02
<STATE> 4
<MEAN> 39
 -6.734898e+00 -1.062912e+01 -7.339755e+00 -9.689765e+00 -9.767853e+00 -6.497159e+00 -3.042698e+00 1.157151e+00 -2.334329e+00 -3.029432e+00 -6.026734e+00 -3.435994e+00 5.662052e+01 -9.410131e-01 2.168455e+00 4.574722e-01 1.208216e+00 7.524475e-01 9.202770e-03 -3.095883e-01 -1.181562e+00 -4.700750e-01 4.514667e-01 7.626383e-01 2.590434e-02 -2.585548e+00 -3.472065e-01 5.789486e-02 1.243138e-01 1.385555e-01 1.178121e-01 1.935483e-01 9.071997e-02 -1.197225e-01 -1.471217e-01 -4.664367e-02 8.952545e-02 7.528225e-02 -1.524288e-01
<VARIANCE> 39
 3.020279e+01 6.402634e+01 5.421788e+01 5.923965e+01 6.292731e+01 6.682359e+01 7.664123e+01 8.306120e+01 7.035221e+01 5.613723e+01 4.921015e+01 4.589492e+01 9.566165e+01 3.961537e+00 3.973141e+00 3.286874e+00 4.286501e+00 3.902455e+00 4.893260e+00 4.825420e+00 6.529721e+00 5.499010e+00 4.101430e+00 3.784608e+00 3.551401e+00 4.953454e+00 4.082059e-01 7.928903e-01 5.066513e-01 7.414811e-01 5.871840e-01 7.626976e-01 7.820410e-01 1.010772e+00 8.852919e-01 6.934944e-01 6.615875e-01 5.516203e-01 9.188290e-01
<GCONST> 1.393759e+02
<TRANSP> 5
 0.000000e+00 1.000000e+00 0.000000e+00 0.000000e+00 0.000000e+00
 0.000000e+00 7.547170e-01 2.452830e-01 0.000000e+00 0.000000e+00
 0.000000e+00 0.000000e+00 9.092813e-01 9.071877e-02 0.000000e+00
 0.000000e+00 0.000000e+00 0.000000e+00 8.282695e-01 1.717305e-01
 0.000000e+00 0.000000e+00 0.000000e+00 0.000000e+00 0.000000e+00
<ENDHMM>
