~o
<STREAMINFO> 1 39
<VECSIZE> 39<NULLD><MFCC_D_A_0><DIAGC>
~h "ah"
<BEGINHMM>
<NUMSTATES> 5
<STATE> 2
<MEAN> 39
 -3.605093e+00 -1.165302e+01 -1.077101e+01 -1.902272e+01 -8.295384e+00 1.080765e+00 -8.002192e+00 -3.247727e+00 -1.331339e-02 2.517719e-01 -3.016253e+00 -6.367116e+00 6.382190e+01 6.538495e-01 -1.652361e+00 -7.374808e-01 -1.179984e+00 6.634994e-02 9.574799e-01 -1.545213e-01 1.885523e-01 8.561670e-01 2.633060e-01 -4.479153e-01 -6.905696e-01 1.836170e+00 -4.347390e-01 4.238822e-01 2.131569e-01 5.619718e-01 2.532747e-01 -2.222589e-01 2.142568e-01 2.039045e-03 -2.058821e-01 -2.149190e-01 -2.112853e-02 2.112899e-01 -7.029810e-01
<VARIANCE> 39
 1.800248e+01 4.611889e+01 4.086593e+01 6.909093e+01 7.341809e+01 9.123665e+01 6.196951e+01 6.664226e+01 6.710439e+01 8.106417e+01 9.160861e+01 4.874435e+01 5.898068e+01 2.565558e+00 2.805787e+00 2.495250e+00 5.258039e+00 3.350620e+00 4.570341e+00 3.854866e+00 5.080361e+00 3.301161e+00 3.784353e+00 4.527638e+00 3.301953e+00 5.346200e+00 4.169958e-01 4.252028e-01 4.574438e-01 6.721614e-01 5.537103e-01 7.300689e-01 6.332084e-01 8.455402e-01 7.835428e-01 6.412631e-01 6.927629e-01 5.376806e-01 7.696029e-01
<GCONST> 1.353434e+02
<STATE> 3
<MEAN> 39
 -3.694100e+00 -1.373676e+01 -1.321589e+01 -2.009309e+01 -5.431153e+00 4.393948e-01 -7.323993e+00 -2.048699e+00 4.325008e-01 -1.128586e+00 -5.395417e+00 -5.102835e+00 6.558519e+01 8.650111e-03 2.021719e-01 1.518750e-01 1.998300e-01 -7.913695e-02 -5.355040e-01 4.997324e-02 1.352270e-01 -5.145315e-02 -1.041084e-01 -9.693765e-02 1.243533e-01 -3.645433e-01 -1.719702e-02 2.349398e-01 1.248122e-01 1.395787e-01 -1.016680e-01 -1.744327e-01 2.711754e-03 -5.607471e-02 -1.210015e-01 5.034762e-03 8.108894e-02 4.964923e-02 -2.385940e-01
<VARIANCE> 39
 1.373977e+01 4.453641e+01 3.114146e+01 5.745165e+01 7.058186e+01 1.001969e+02 8.720669e+01 6.760561e+01 6.261010e+01 7.483162e+01 8.207269e+01 6.498366e+01 2.551671e+01 3.000678e-01 9.849972e-01 8.326409e-01 1.291799e+00 1.763028e+00 1.704995e+00 1.868990e+00 1.614451e+00 1.443603e+00 1.553431e+00 1.541117e+00 1.600293e+00 4.878276e-01 2.000000e-01 2.000000e-01 2.000000e-01 2.000000e-01 2.095041e-01 2.311014e-01 2.451753e-01 2.713261e-01 2.494255e-01 2.464673e-01 2.438117e-01 2.518182e-01 2.000000e-01
<GCONST> 1.060891e+02
<STATE> 4
<MEAN> 39
 -6.078364e+00 -8.185733e+00 -7.967946e+00 -1.239055e+01 -7.358348e+00 -4.397469e+00 -6.666466e+00 -2.132053e+00 -1.931419e+00 -2.984784e-01 -4.482144e+00 -4.006780e+00 5.481237e+01 -1.243563e+00 1.865638e+00 1.153956e+00 2.027862e+00 4.571399e-01 -4.994550e-01 4.645432e-01 -6.821010e-01 -8.043313e-01 -3.922230e-01 2.130494e-01 4.812221e-01 -2.656977e+00 -3.791010e-01 -1.331738e-02 4.071410e-02 2.146122e-01 2.139912e-01 2.312640e-01 1.442810e-01 -8.149163e-02 -3.711547e-02 8.683067e-03 -3.851140e-02 3.257793e-02 -1.110506e-01
<VARIANCE> 39
 4.095441e+01 5.227736e+01 4.620787e+01 7.036954e+01 6.100261e+01 8.003487e+01 8.222780e+01 5.833301e+01 6.831434e+01 6.009061e+01 6.008014e+01 4.923822e+01 8.861938e+01 3.846394e+00 3.944292e+00 2.974956e+00 5.196310e+00 4.602275e+00 5.312066e+00 4.809167e+00 5.373137e+00 5.266482e+00 4.220826e+00 4.206259e+00 3.269158e+00 5.563996e+00 4.074361e-01 7.802261e-01 4.525973e-01 9.817772e-01 6.073890e-01 7.242513e-01 7.532011e-01 8.844234e-01 7.037966e-01 6.310933e-01 6.570323e-01 5.259041e-01 9.357585e-01
<GCONST> 1.394185e+02
<TRANSP> 5
 0.000000e+00 1.000000e+00 0.000000e+00 0.000000e+00 0.000000e+00
 0.000000e+00 7.041420e-01 2.958580e-01 0.000000e+00 0.000000e+00
 0.000000e+00 0.000000e+00 8.867497e-01 1.132503e-01 0.000000e+00
 0.000000e+00 0.000000e+00 0.000000e+00 8.154982e-01 1.845019e-01
 0.000000e+00 0.000000e+00 0.000000e+00 0.000000e+00 0.000000e+00
<ENDHMM>
