~o
<STREAMINFO> 1 39
<VECSIZE> 39<NULLD><MFCC_D_A_0><DIAGC>
~h "ao"
<BEGINHMM>
<NUMSTATES> 5
<STATE> 2
<MEAN> 39
 -2.038742e+00 -8.255529e+00 -1.155464e+01 -1.672203e+01 -1.051610e+01 1.146244e-01 -6.955582e+00 -4.203760e+00 -3.646392e+00 -1.424423e+00 1.357864e+00 -3.293794e+00 5.872165e+01 1.142224e+00 -4.821863e-01 -8.646525e-01 -1.835646e+00 -5.712497e-01 8.492657e-01 3.589154e-01 1.262016e-01 -1.449090e-01 -2.435955e-01 5.119003e-01 -3.451508e-02 1.141402e+00 -5.060748e-01 1.355866e-01 1.613292e-01 3.520333e-01 2.744814e-01 -1.077361e-01 1.648002e-01 1.433808e-01 8.665113e-03 -6.731130e-02 -1.589421e-01 1.081461e-01 -3.526834e-01
<VARIANCE> 39
 2.692600e+01 4.637435e+01 6.685427e+01 9.250804e+01 8.969532e+01 9.896478e+01 9.603157e+01 8.539147e+01 9.285308e+01 6.883137e+01 6.066786e+01 5.126415e+01 7.200947e+01 2.760263e+00 2.726714e+00 3.084996e+00 6.061601e+00 5.460946e+00 4.395088e+00 4.464458e+00 4.142179e+00 4.262006e+00 4.393137e+00 3.349722e+00 3.186285e+00 5.458127e+00 5.220218e-01 4.709243e-01 4.153488e-01 8.778375e-01 8.119870e-01 7.037979e-01 7.399884e-01 7.561455e-01 7.694268e-01 7.279750e-01 6.404721e-01 4.661516e-01 6.108257e-01
<GCONST> 1.389254e+02
<STATE> 3
<MEAN> 39
 1.370224e-02 -9.773870e+00 -1.614643e+01 -2.359333e+01 -8.455140e+00 4.682144e+00 -3.263993e+00 -1.816844e+00 -3.560953e+00 -2.851895e+00 1.055471e+00 -3.863877e+00 6.152959e+01 5.762633e-02 5.038642e-02 -2.214224e-01 1.203561e-01 1.729905e-01 -1.405755e-01 8.168440e-02 1.525055e-01 -6.073910e-03 -2.856374e-02 -9.218474e-02 5.522873e-02 -2.299348e-01 -3.600385e-02 3.886115e-02 2.755233e-02 1.586361e-01 3.999094e-02 -9.897973e-02 -5.600154e-02 -4.389880e-03 1.283435e-02 1.174046e-02 -5.680826e-03 2.718335e-03 -7.348936e-02
<VARIANCE> 39
 1.339747e+01 4.327196e+01 5.122633e+01 7.350728e+01 1.294597e+02 8.321162e+01 1.027475e+02 8.659380e+01 6.792187e+01 6.733706e+01 6.194752e+01 5.958982e+01 2.427092e+01 2.158379e-01 6.659769e-01 7.900650e-01 1.028758e+00 1.333704e+00 1.454628e+00 1.715338e+00 1.184594e+00 1.309461e+00 1.284591e+00 1.335308e+00 1.085227e+00 2.948135e-01 2.000000e-01 2.000000e-01 2.000000e-01 2.000000e-01 2.155908e-01 2.000000e-01 2.336388e-01 2.000000e-01 2.043284e-01 2.000000e-01 2.000000e-01 2.000000e-01 2.000000e-01
<GCONST> 1.027064e+02
<STATE> 4
<MEAN> 39
 -3.088137e+00 -7.215907e+00 -1.578979e+01 -1.235970e+01 -4.574027e+00 -1.084375e+00 -4.433614e+00 -4.550132e-01 -2.783234e+00 -2.537292e+00 -1.424943e+00 -1.662019e+00 5.129414e+01 -6.091223e-01 7.386476e-02 3.600007e-01 1.242338e+00 4.770485e-01 -6.177530e-01 -5.085024e-01 1.940097e-01 3.538642e-01 1.303057e-01 -3.661440e-01 4.735568e-02 -9.442624e-01 -1.032455e-01 -5.131258e-02 1.722972e-01 4.495706e-04 -1.146191e-01 -6.222640e-03 3.962175e-02 3.417860e-02 1.243509e-02 -2.246025e-03 -1.084079e-02 1.607278e-02 -1.445906e-02
<VARIANCE> 39
 5.194962e+01 3.632833e+01 5.844173e+01 8.243777e+01 8.654220e+01 6.829144e+01 1.126685e+02 7.097426e+01 6.760930e+01 6.275663e+01 6.570136e+01 4.752609e+01 8.484476e+01 9.093797e-01 2.125765e+00 2.640584e+00 3.019289e+00 4.130195e+00 3.695730e+00 4.483143e+00 3.613899e+00 3.733778e+00 3.580559e+00 2.872413e+00 2.970656e+00 1.791928e+00 2.000000e-01 2.586628e-01 3.565591e-01 4.582657e-01 5.683551e-01 5.493374e-01 6.882535e-01 5.956391e-01 6.053528e-01 6.072853e-01 5.110857e-01 4.961015e-01 2.219302e-01
<GCONST> 1.290702e+02
<TRANSP> 5
 0.000000e+00 1.000000e+00 0.000000e+00 0.000000e+00 0.000000e+00
 0.000000e+00 7.947020e-01 2.052980e-01 0.000000e+00 0.000000e+00
 0.000000e+00 0.000000e+00 9.290618e-01 7.093821e-02 0.000000e+00
 0.000000e+00 0.000000e+00 0.000000e+00 9.028213e-01 9.717868e-02
 0.000000e+00 0.000000e+00 0.000000e+00 0.000000e+00 0.000000e+00
<ENDHMM>
