~o
<STREAMINFO> 1 39
<VECSIZE> 39<NULLD><MFCC_D_A_0><DIAGC>
~h "aw"
<BEGINHMM>
<NUMSTATES> 5
<STATE> 2
<MEAN> 39
 -5.704576e+00 -1.372771e+01 -1.190006e+01 -9.308923e+00 -7.446381e+00 -3.543192e+00 -6.023230e+00 2.816344e-01 -2.002036e+00 -1.995147e+00 -4.339761e+00 -2.980768e+00 5.833476e+01 6.649187e-01 -1.247849e+00 -3.596456e-01 -4.686951e-01 1.235961e-01 2.853715e-01 -5.544204e-02 2.870614e-01 1.423147e-01 -3.572275e-01 -5.236864e-01 -9.752826e-02 1.345277e+00 -2.885634e-01 1.782270e-01 1.056169e-01 6.626660e-02 1.959701e-01 1.530932e-01 2.622732e-02 -1.289614e-01 -2.101679e-02 -8.207939e-04 9.835783e-02 7.770398e-02 -2.502559e-01
<VARIANCE> 39
 6.665646e+01 6.378757e+01 7.670765e+01 4.103275e+01 7.202299e+01 7.237825e+01 9.565212e+01 9.782631e+01 9.393354e+01 4.033681e+01 5.966487e+01 3.839042e+01 1.547296e+02 2.698923e+00 3.280650e+00 3.289670e+00 2.724665e+00 3.648979e+00 3.064474e+00 4.649954e+00 5.357377e+00 3.642996e+00 2.777671e+00 3.281338e+00 2.456270e+00 3.440001e+00 5.181596e-01 4.710795e-01 4.635289e-01 5.064387e-01 6.364220e-01 5.738015e-01 6.890878e-01 8.804191e-01 6.105455e-01 5.088382e-01 6.510196e-01 5.112222e-01 5.179229e-01
<GCONST> 1.351544e+02
<STATE> 3
<MEAN> 39
 -3.573139e+00 -1.720587e+01 -1.392736e+01 -1.479450e+01 -3.059203e+00 2.769442e-01 -5.364463e+00 -3.238859e+00 -9.907649e-01 -4.817773e+00 -5.084909e+00 -3.692785e+00 6.462418e+01 2.536626e-01 4.739115e-01 -3.666169e-01 -4.796914e-01 2.586279e-01 5.054463e-01 -2.602414e-01 -2.004851e-01 -8.342868e-02 1.007672e-01 4.528672e-01 1.039638e-02 -4.415556e-01 4.285536e-04 1.305054e-01 3.779470e-02 1.349299e-02 -1.011784e-01 -4.318578e-02 4.075564e-02 3.785182e-02 -4.908438e-02 1.414113e-02 2.989647e-02 2.792480e-02 -1.037578e-01
<VARIANCE> 39
 2.378344e+01 3.858793e+01 4.026523e+01 5.694727e+01 6.483862e+01 9.566305e+01 7.176031e+01 5.645399e+01 4.540465e+01 5.963294e+01 4.446225e+01 2.897577e+01 3.237634e+01 2.337925e-01 6.969479e-01 8.166661e-01 1.275618e+00 1.571175e+00 1.420242e+00 1.580967e+00 1.533946e+00 1.490078e+00 1.253411e+00 1.556059e+00 1.222105e+00 2.684288e-01 2.000000e-01 2.000000e-01 2.000000e-01 2.000000e-01 2.000000e-01 2.048639e-01 2.256846e-01 2.266453e-01 2.093810e-01 2.044350e-01 2.141065e-01 2.000000e-01 2.000000e-01
<GCONST> 1.011691e+02
<STATE> 4
<MEAN> 39
 -4.073836e+00 -6.040509e+00 -1.333415e+01 -1.718264e+01 -4.636457e+00 5.738125e-01 -3.797358e+00 -2.079385e+00 -6.639768e+00 -2.271815e+00 -6.435388e-01 -2.365022e+00 5.217935e+01 -7.344022e-01 7.260213e-01 7.125323e-01 1.298314e+00 -1.356978e-01 -9.736396e-01 1.452786e-01 7.625600e-04 -1.663274e-01 4.830023e-01 -5.472423e-02 2.305420e-01 -1.227020e+00 -1.761419e-01 -5.260276e-02 9.247421e-02 2.305685e-01 1.448905e-01 -8.435953e-02 -4.734434e-02 -1.418850e-02 1.287624e-01 1.759392e-02 -1.457654e-01 -2.731958e-02 -3.489948e-02
<VARIANCE> 39
 4.136831e+01 3.893885e+01 3.892467e+01 8.776485e+01 6.245250e+01 7.355803e+01 6.346939e+01 5.972913e+01 6.222904e+01 6.086438e+01 5.637865e+01 3.959890e+01 7.950031e+01 2.104866e+00 2.080694e+00 2.978266e+00 3.223035e+00 4.013597e+00 3.029079e+00 3.435704e+00 3.124951e+00 3.422650e+00 3.329384e+00 2.925421e+00 2.854939e+00 9.767885e-01 2.000000e-01 2.588854e-01 3.520787e-01 4.837929e-01 5.330077e-01 4.471836e-01 5.109087e-01 4.482668e-01 5.633715e-01 5.525287e-01 4.311458e-01 4.918954e-01 2.000000e-01
<GCONST> 1.253734e+02
<TRANSP> 5
 0.000000e+00 1.000000e+00 0.000000e+00 0.000000e+00 0.000000e+00
 0.000000e+00 8.410596e-01 1.589404e-01 0.000000e+00 0.000000e+00
 0.000000e+00 0.000000e+00 9.381443e-01 6.185567e-02 0.000000e+00
 0.000000e+00 0.000000e+00 0.000000e+00 8.967742e-01 1.032258e-01
 0.000000e+00 0.000000e+00 0.000000e+00 0.000000e+00 0.000000e+00
<ENDHMM>
