~o
<STREAMINFO> 1 39
<VECSIZE> 39<NULLD><MFCC_D_A_0><DIAGC>
~h "ax"
<BEGINHMM>
<NUMSTATES> 5
<STATE> 2
<MEAN> 39
 -1.070814e+01 -7.339656e+00 -2.610170e+00 -8.347806e+00 -1.155914e+01 -7.174812e+00 -7.437174e+00 3.658595e-01 -2.497202e+00 -1.743941e+00 -1.991983e+00 -1.624052e+00 5.045586e+01 1.160014e+00 -8.027185e-01 1.545765e-01 -6.448817e-01 -8.104464e-01 -1.674662e-01 -4.272849e-01 3.820970e-01 7.762459e-02 3.559962e-02 -2.007391e-01 -3.180544e-01 1.118673e+00 -4.902520e-01 2.586342e-01 -1.839762e-01 1.939242e-01 5.395611e-01 3.528075e-01 3.915623e-01 -1.156158e-01 -1.240882e-02 3.672023e-02 -2.227275e-02 -2.841385e-02 -4.197010e-01
<VARIANCE> 39
 6.447832e+01 4.459711e+01 5.847650e+01 6.421532e+01 7.798663e+01 6.759970e+01 7.322481e+01 4.958777e+01 5.341037e+01 4.443164e+01 4.640355e+01 3.395008e+01 2.083828e+02 3.565814e+00 3.585356e+00 3.613557e+00 4.131800e+00 4.651681e+00 3.775403e+00 4.366627e+00 4.473030e+00 4.427380e+00 3.560170e+00 3.438826e+00 2.836475e+00 6.838196e+00 8.304111e-01 6.972646e-01 6.157862e-01 8.079233e-01 1.088819e+00 8.539756e-01 9.383751e-01 7.844200e-01 7.110161e-01 6.894667e-01 6.872310e-01 5.045707e-01 1.350586e+00
<GCONST> 1.400651e+02
<STATE> 3
<MEAN> 39
 -6.193677e+00 -1.139468e+01 -4.743697e+00 -1.223778e+01 -1.194285e+01 -7.511273e+00 -7.026341e+00 1.674626e+00 -1.174810e+00 -1.635428e+00 -4.344401e+00 -3.385517e+00 5.893912e+01 -7.450637e-02 6.006359e-01 -3.174456e-01 5.032077e-01 7.408753e-01 3.391447e-01 2.131721e-01 -5.769318e-01 -2.731248e-01 4.351912e-02 5.074046e-03 -9.692020e-02 -1.131018e+00 -2.270256e-01 3.819213e-01 9.784441e-02 3.111064e-01 1.932134e-01 7.677305e-02 9.648978e-02 -2.830185e-01 -1.963126e-01 -3.695818e-02 8.006462e-02 6.656817e-02 -4.286819e-01
<VARIANCE> 39
 2.090120e+01 4.046782e+01 7.210835e+01 6.500913e+01 8.009467e+01 7.008736e+01 7.824272e+01 7.443352e+01 8.674252e+01 6.922084e+01 6.485072e+01 4.968394e+01 7.395069e+01 1.068774e+00 2.366848e+00 1.937983e+00 2.663853e+00 2.590647e+00 2.742394e+00 2.984665e+00 3.923049e+00 3.373928e+00 2.716142e+00 2.605298e+00 2.339015e+00 2.787422e+00 2.642338e-01 3.720709e-01 3.327046e-01 4.918003e-01 5.106216e-01 5.257441e-01 5.643120e-01 6.669558e-01 5.979196e-01 5.340059e-01 4.863976e-01 4.420182e-01 4.092423e-01
<GCONST> 1.272983e+02
<STATE> 4
<MEAN> 39
 -1.062721e+01 -2.327480e+00 -3.848782e+00 -4.084726e+00 -5.798940e+00 -5.313950e+00 -5.534968e+00 -3.674743e+00 -4.415122e+00 -2.344283e+00 -2.941470e+00 -2.654751e+00 4.412312e+01 -1.621277e+00 1.408655e+00 1.316566e-01 1.481651e+00 1.304338e+00 9.292295e-01 8.766605e-01 -6.144060e-01 -4.605654e-01 -1.663709e-01 1.916631e-02 1.472461e-01 -2.331090e+00 -1.629310e-01 -5.547950e-01 -9.290037e-02 -4.117413e-01 -2.624513e-01 -5.995714e-02 2.408855e-02 3.608920e-01 2.255956e-01 7.937174e-02 -9.114282e-03 8.840525e-02 6.738542e-01
<VARIANCE> 39
 5.626737e+01 3.479776e+01 4.189719e+01 4.512397e+01 4.634240e+01 5.285586e+01 4.879665e+01 5.706782e+01 4.930939e+01 4.069263e+01 4.284065e+01 3.170219e+01 9.836434e+01 4.537436e+00 5.607594e+00 4.139862e+00 6.359277e+00 5.442487e+00 5.318059e+00 4.773675e+00 6.131545e+00 5.880499e+00 5.150234e+00 4.276810e+00 3.275630e+00 9.450223e+00 5.224393e-01 7.147490e-01 4.889801e-01 8.888556e-01 7.634538e-01 7.218351e-01 6.774340e-01 7.925040e-01 8.158152e-01 7.397249e-01 6.379100e-01 5.213520e-01 1.208310e+00
<GCONST> 1.390362e+02
<TRANSP> 5
 0.000000e+00 1.000000e+00 0.000000e+00 0.000000e+00 0.000000e+00
 0.000000e+00 6.125574e-01 3.874426e-01 0.000000e+00 0.000000e+00
 0.000000e+00 0.000000e+00 8.075314e-01 1.924686e-01 0.000000e+00
 0.000000e+00 0.000000e+00 0.000000e+00 6.413891e-01 3.586109e-01
 0.000000e+00 0.000000e+00 0.000000e+00 0.000000e+00 0.000000e+00
<ENDHMM>
