~o
<STREAMINFO> 1 39
<VECSIZE> 39<NULLD><MFCC_D_A_0><DIAGC>
~h "axr"
<BEGINHMM>
<NUMSTATES> 5
<STATE> 2
<MEAN> 39
 1.339083e+00 -1.125954e+01 -1.473587e+01 -8.123332e+00 -7.113855e+00 -1.309179e+01 -1.506375e+01 3.259779e+00 1.173126e+00 -2.524330e+00 -6.517037e-01 6.609846e-02 5.763913e+01 5.136334e-01 -1.257844e-01 -9.301910e-01 3.460255e-01 7.034857e-01 -5.777271e-01 -6.302295e-01 5.085738e-01 6.399898e-01 -2.336564e-02 -3.768000e-01 1.211139e-01 -2.815996e-01 -3.613365e-01 2.065884e-01 2.531267e-01 9.002044e-02 9.559830e-03 2.239489e-01 3.341388e-01 -1.309062e-01 -8.683245e-02 -1.147747e-02 -1.003586e-01 -5.502939e-02 -1.894369e-01
<VARIANCE> 39
 1.688852e+01 3.533456e+01 8.329202e+01 7.225891e+01 8.837437e+01 1.055523e+02 1.055838e+02 9.183395e+01 8.830808e+01 5.143971e+01 3.595855e+01 3.226420e+01 2.249545e+01 2.034916e+00 1.682228e+00 2.791364e+00 2.035860e+00 2.604987e+00 3.079549e+00 3.997198e+00 3.567124e+00 3.113026e+00 2.018821e+00 2.056108e+00 1.831396e+00 1.124276e+00 3.398597e-01 2.537516e-01 3.546810e-01 3.463531e-01 4.233323e-01 4.837316e-01 6.328378e-01 5.766807e-01 4.922873e-01 3.411264e-01 3.385990e-01 3.260107e-01 2.000000e-01
<GCONST> 1.219325e+02
<STATE> 3
<MEAN> 39
 -2.512638e+00 -8.699139e+00 -1.441669e+01 -9.722859e-01 -1.640551e+00 -1.358237e+01 -1.089039e+01 5.966692e+00 3.088485e+00 -4.128087e+00 -6.248915e+00 1.530334e-02 4.986777e+01 -1.334800e+00 3.377251e-01 1.211205e+00 7.561074e-01 2.696349e-02 1.111531e+00 1.824370e+00 -1.119293e-01 -6.534334e-01 -3.776320e-01 -2.286860e-01 -2.296501e-01 -1.291854e+00 -2.781819e-01 -6.523198e-02 1.484791e-01 -1.617992e-01 -6.230490e-02 2.437797e-01 1.431457e-01 -1.516671e-01 -1.815340e-01 9.076334e-02 1.952273e-01 -8.306219e-02 -6.220317e-02
<VARIANCE> 39
 2.153637e+01 2.001237e+01 4.575190e+01 3.528412e+01 5.918757e+01 6.722368e+01 8.347495e+01 5.658241e+01 9.022847e+01 5.031134e+01 3.070494e+01 3.105678e+01 3.268199e+01 1.434270e+00 2.582572e+00 2.766781e+00 2.574691e+00 2.989360e+00 3.628088e+00 4.512124e+00 4.274697e+00 2.826048e+00 3.326031e+00 2.203718e+00 2.181722e+00 1.626295e+00 2.243525e-01 3.779242e-01 3.894983e-01 4.693068e-01 4.517932e-01 5.922597e-01 6.198784e-01 5.507891e-01 4.819894e-01 5.633685e-01 3.524047e-01 3.820737e-01 2.000000e-01
<GCONST> 1.220817e+02
<STATE> 4
<MEAN> 39
 -1.339740e+01 -7.700964e+00 -9.262591e+00 -2.380321e+00 -3.611218e+00 -4.231666e+00 -2.482713e+00 1.530126e+00 -1.769636e+00 -3.318823e+00 -3.165766e+00 -1.088520e+00 4.045995e+01 -7.951142e-01 2.867329e-01 2.934650e-01 -4.277743e-01 -2.975340e-01 5.821916e-01 2.461461e-01 -4.693186e-01 -2.294049e-01 3.048286e-01 3.021207e-01 -1.102991e-01 -5.231414e-01 1.491232e-01 -6.266148e-03 -9.906922e-02 -5.854466e-02 2.661710e-02 -6.810781e-02 -1.566623e-01 5.759307e-02 9.204804e-02 9.975660e-03 -1.303496e-02 3.289402e-02 1.552188e-01
<VARIANCE> 39
 4.831200e+01 3.692992e+01 3.757443e+01 3.108769e+01 3.144925e+01 3.686505e+01 4.027461e+01 4.628695e+01 4.261409e+01 3.635025e+01 3.765455e+01 3.017980e+01 7.522278e+01 3.306161e+00 2.922763e+00 2.437252e+00 2.629918e+00 2.526458e+00 3.492280e+00 2.897159e+00 3.454775e+00 3.270432e+00 2.712174e+00 2.501156e+00 2.294012e+00 3.070220e+00 2.669322e-01 4.792664e-01 4.151700e-01 4.830840e-01 4.192894e-01 5.284324e-01 5.625233e-01 5.749845e-01 5.015801e-01 4.673346e-01 4.411424e-01 4.038494e-01 3.959641e-01
<GCONST> 1.227723e+02
<TRANSP> 5
 0.000000e+00 1.000000e+00 0.000000e+00 0.000000e+00 0.000000e+00
 0.000000e+00 8.851905e-01 1.148095e-01 0.000000e+00 0.000000e+00
 0.000000e+00 0.000000e+00 8.144973e-01 1.855027e-01 0.000000e+00
 0.000000e+00 0.000000e+00 0.000000e+00 8.750000e-01 1.250000e-01
 0.000000e+00 0.000000e+00 0.000000e+00 0.000000e+00 0.000000e+00
<ENDHMM>
