~o
<STREAMINFO> 1 39
<VECSIZE> 39<NULLD><MFCC_D_A_0><DIAGC>
~h "ay"
<BEGINHMM>
<NUMSTATES> 5
<STATE> 2
<MEAN> 39
 -6.252779e+00 -1.379972e+01 -1.403818e+01 -1.509762e+01 -4.346730e+00 1.167588e+00 -2.972448e+00 -1.214023e+00 -9.879383e-01 -1.407556e+00 -4.653931e+00 -5.827129e+00 5.633481e+01 9.450868e-01 -1.257861e+00 -6.136528e-01 -6.808424e-01 6.884817e-01 1.009766e+00 -1.989690e-01 -5.315065e-01 8.273832e-02 -2.146022e-01 -3.183350e-01 -5.680516e-01 1.830522e+00 -2.663512e-01 2.567245e-01 2.799862e-01 2.434473e-01 -1.010148e-01 -1.231645e-01 -4.404199e-02 -2.953083e-02 -1.395774e-02 2.871128e-02 1.292713e-01 1.246711e-01 -2.954243e-01
<VARIANCE> 39
 4.657478e+01 4.583543e+01 3.650603e+01 7.098235e+01 6.983974e+01 8.161769e+01 6.574708e+01 6.391135e+01 5.814470e+01 4.641605e+01 5.653786e+01 5.016700e+01 1.106454e+02 2.849855e+00 2.881613e+00 2.630648e+00 3.470343e+00 3.680294e+00 3.658616e+00 3.453596e+00 3.494980e+00 2.903014e+00 2.773556e+00 2.966861e+00 2.689187e+00 5.356526e+00 5.284759e-01 4.911879e-01 4.039646e-01 5.745946e-01 5.196611e-01 6.104779e-01 6.020823e-01 6.821572e-01 5.440382e-01 5.015265e-01 5.504880e-01 4.543890e-01 8.353184e-01
<GCONST> 1.322892e+02
<STATE> 3
<MEAN> 39
 -3.551929e+00 -1.766578e+01 -1.366896e+01 -1.519056e+01 -4.057964e+00 1.055818e+00 -3.464068e+00 -1.836949e+00 -6.841623e-01 -3.173752e+00 -6.212296e+00 -6.279468e+00 6.415611e+01 -1.351623e-01 2.577267e-02 4.302570e-01 3.227243e-01 -4.789414e-01 -6.272379e-01 1.602568e-01 4.829273e-01 1.193224e-02 -1.825972e-01 -1.369693e-01 1.632631e-01 1.216702e-02 -4.304273e-02 1.221225e-01 1.147853e-01 -3.029649e-04 -1.642039e-01 -1.162996e-01 4.351086e-02 6.674039e-02 -5.507658e-02 2.181859e-02 6.651115e-02 5.608656e-02 -9.682518e-02
<VARIANCE> 39
 1.230836e+01 3.154266e+01 3.582919e+01 4.784420e+01 6.935372e+01 8.960265e+01 7.673090e+01 7.529433e+01 6.620615e+01 5.065702e+01 4.942237e+01 5.299153e+01 2.230203e+01 2.259393e-01 6.423162e-01 9.613405e-01 1.021335e+00 1.850210e+00 1.671187e+00 1.524115e+00 1.818095e+00 1.223035e+00 1.171260e+00 1.255881e+00 1.189067e+00 2.703961e-01 2.000000e-01 2.000000e-01 2.000000e-01 2.000000e-01 2.000000e-01 2.000000e-01 2.070262e-01 2.406356e-01 2.000000e-01 2.000000e-01 2.070084e-01 2.000000e-01 2.000000e-01
<GCONST> 1.005583e+02
<STATE> 4
<MEAN> 39
 -1.025034e+01 -8.213496e+00 -2.076646e+00 -1.038662e+01 -1.409295e+01 -6.494926e+00 -7.764909e-01 9.862475e-01 -3.652117e+00 -1.722636e+00 -2.994143e+00 -2.153151e+00 5.213305e+01 -6.400458e-01 1.082910e+00 5.525728e-01 3.537673e-01 -5.963643e-03 2.251274e-02 -1.020287e-01 -5.392031e-01 -2.671462e-01 3.277393e-01 4.404640e-01 1.745954e-01 -1.351482e+00 -2.474701e-02 -4.837793e-02 -1.567219e-01 8.583425e-03 2.244980e-01 1.664358e-01 -4.237704e-02 -9.451923e-02 4.687895e-02 -2.609065e-02 -6.113903e-02 -5.478664e-02 9.158532e-03
<VARIANCE> 39
 3.647335e+01 5.009113e+01 5.536011e+01 6.849702e+01 8.006631e+01 5.846710e+01 5.839746e+01 7.808714e+01 5.985402e+01 4.404282e+01 5.005381e+01 3.227044e+01 1.447013e+02 1.674924e+00 2.652742e+00 3.657432e+00 3.526024e+00 5.463652e+00 3.444310e+00 3.385651e+00 3.893049e+00 3.900610e+00 3.116702e+00 3.238511e+00 2.488395e+00 3.961917e+00 2.551109e-01 3.673620e-01 4.106992e-01 5.462968e-01 6.485193e-01 5.286528e-01 5.642653e-01 7.058482e-01 6.135139e-01 5.239725e-01 5.188608e-01 3.982280e-01 6.179469e-01
<GCONST> 1.310209e+02
<TRANSP> 5
 0.000000e+00 1.000000e+00 0.000000e+00 0.000000e+00 0.000000e+00
 0.000000e+00 7.875130e-01 2.124870e-01 0.000000e+00 0.000000e+00
 0.000000e+00 0.000000e+00 9.358668e-01 6.413317e-02 0.000000e+00
 0.000000e+00 0.000000e+00 0.000000e+00 9.083318e-01 9.166817e-02
 0.000000e+00 0.000000e+00 0.000000e+00 0.000000e+00 0.000000e+00
<ENDHMM>
