~o
<STREAMINFO> 1 39
<VECSIZE> 39<NULLD><MFCC_D_A_0><DIAGC>
~h "b"
<BEGINHMM>
<NUMSTATES> 5
<STATE> 2
<MEAN> 39
 -1.539179e+01 1.123993e+00 -3.164815e+00 2.756920e-01 -2.190304e+00 -1.750518e+00 -4.039399e+00 -3.605770e+00 -4.170936e+00 -1.991632e+00 -2.043409e+00 -2.426273e+00 3.344872e+01 -1.002301e-01 1.263071e-01 2.882762e-01 1.816321e-01 1.750715e-01 3.633431e-02 1.110805e-01 -1.870245e-02 -3.357762e-03 -1.286675e-01 -5.325632e-02 -2.034534e-02 2.390036e-01 9.801710e-02 -3.570158e-01 1.167246e-02 -3.010914e-01 -3.363526e-01 -2.283441e-01 -5.079575e-02 1.396639e-01 6.207255e-02 5.162261e-02 3.555945e-02 6.162933e-02 6.865460e-01
<VARIANCE> 39
 5.105329e+01 2.439446e+01 2.168605e+01 1.796725e+01 1.551834e+01 2.013248e+01 2.685605e+01 3.093209e+01 2.834413e+01 2.298642e+01 2.217230e+01 2.364206e+01 3.749387e+01 2.364737e+00 2.972173e+00 2.077456e+00 2.711866e+00 2.282970e+00 2.310394e+00 2.437408e+00 2.757742e+00 2.704211e+00 2.454268e+00 2.256196e+00 1.886602e+00 5.219665e+00 3.503698e-01 5.727274e-01 4.460977e-01 5.283957e-01 5.804327e-01 5.033073e-01 4.878050e-01 5.867664e-01 6.007169e-01 4.782218e-01 4.505022e-01 3.877539e-01 9.801492e-01
<GCONST> 1.172973e+02
<STATE> 3
<MEAN> 39
 -1.243791e+01 -1.152098e+00 -1.759968e+00 -1.296027e+00 -2.822983e+00 -3.640690e+00 -5.043123e+00 -4.115924e+00 -4.286711e+00 -3.029359e+00 -2.637415e+00 -2.931262e+00 4.331826e+01 4.780603e-01 -2.413329e+00 5.233764e-01 -1.807084e+00 -2.309072e+00 -1.849763e+00 -3.139377e-01 9.717104e-01 3.230325e-01 6.856366e-02 3.905428e-01 5.277812e-01 5.206376e+00 7.048603e-01 -3.503437e-01 3.902729e-01 -8.404756e-01 -1.097212e+00 -3.558636e-01 -5.696197e-01 -6.087486e-02 -3.503995e-01 1.235442e-01 1.076842e-01 -9.024983e-02 9.805198e-01
<VARIANCE> 39
 4.003198e+01 3.908577e+01 2.479987e+01 3.173721e+01 2.604419e+01 3.262787e+01 3.392255e+01 3.794430e+01 3.348770e+01 2.789002e+01 2.391559e+01 2.028222e+01 9.856332e+01 4.659088e+00 3.725443e+00 6.514700e+00 5.571187e+00 4.813670e+00 4.539482e+00 5.018360e+00 4.711274e+00 5.349053e+00 4.174287e+00 3.271618e+00 2.859392e+00 7.824776e+00 5.585158e-01 1.063458e+00 1.235425e+00 1.037375e+00 8.387286e-01 1.037660e+00 9.347945e-01 1.158708e+00 1.221505e+00 9.962196e-01 8.535353e-01 5.984288e-01 1.826542e+00
<GCONST> 1.371077e+02
<STATE> 4
<MEAN> 39
 -7.834214e+00 -6.679623e+00 1.343035e+00 -7.522398e+00 -1.223875e+01 -9.645319e+00 -8.233238e+00 -2.666559e+00 -5.543518e+00 -2.551248e+00 -1.347333e+00 -1.964518e+00 5.713339e+01 1.733328e+00 -1.298538e+00 1.864200e+00 -2.851960e+00 -3.488800e+00 -8.110054e-01 -1.424883e+00 -1.285287e-01 -1.265787e+00 7.834387e-02 8.365769e-02 -1.712401e-01 3.754792e+00 -2.238496e-01 6.539667e-01 1.250019e-02 1.035450e-01 4.487606e-01 7.610875e-01 -1.629112e-02 -2.980279e-01 -1.133709e-01 -1.450054e-02 -1.849885e-01 -2.233463e-01 -1.307958e+00
<VARIANCE> 39
 2.877787e+01 2.723671e+01 9.617358e+01 7.703480e+01 5.276553e+01 5.292353e+01 5.352913e+01 4.857830e+01 6.020228e+01 4.162549e+01 3.751804e+01 2.584694e+01 4.025412e+01 3.549014e+00 4.434907e+00 1.120674e+01 7.518960e+00 6.865580e+00 6.769522e+00 6.445911e+00 7.725473e+00 8.063292e+00 6.691097e+00 5.471799e+00 3.591508e+00 7.681444e+00 4.516360e-01 5.949184e-01 7.808867e-01 8.860654e-01 9.644513e-01 8.075756e-01 8.874190e-01 8.767038e-01 9.563556e-01 7.379601e-01 6.346292e-01 4.770005e-01 8.516434e-01
<GCONST> 1.415032e+02
<TRANSP> 5
 0.000000e+00 1.000000e+00 0.000000e+00 0.000000e+00 0.000000e+00
 0.000000e+00 7.788225e-01 2.211774e-01 0.000000e+00 0.000000e+00
 0.000000e+00 0.000000e+00 4.405378e-01 5.594622e-01 0.000000e+00
 0.000000e+00 0.000000e+00 0.000000e+00 4.793070e-01 5.206929e-01
 0.000000e+00 0.000000e+00 0.000000e+00 0.000000e+00 0.000000e+00
<ENDHMM>
