~o
<STREAMINFO> 1 39
<VECSIZE> 39<NULLD><MFCC_D_A_0><DIAGC>
~h "ch"
<BEGINHMM>
<NUMSTATES> 5
<STATE> 2
<MEAN> 39
 -2.259968e+01 -3.791925e+00 -2.551482e+00 -6.189270e+00 -3.047062e+00 -7.403358e-01 -3.527701e+00 -1.218636e+00 -1.700577e+00 -1.090914e+00 -8.836229e-01 -8.359714e-01 4.014263e+01 -1.840391e+00 -9.038179e-01 -2.418185e-01 -1.156291e+00 4.062461e-01 6.928838e-01 4.863466e-01 5.808319e-01 9.211708e-01 3.677209e-01 5.250581e-01 3.720170e-01 2.099653e+00 9.886716e-02 7.311817e-02 5.764998e-01 -1.505842e-01 -5.845776e-01 -2.377493e-01 -6.270825e-03 -1.961727e-01 -2.314476e-01 -4.232607e-02 -1.053393e-02 -4.033316e-02 8.041155e-01
<VARIANCE> 39
 2.279855e+01 4.305969e+01 2.806211e+01 5.108238e+01 2.488452e+01 2.414720e+01 1.967957e+01 2.104518e+01 2.129138e+01 1.971948e+01 1.479693e+01 1.330282e+01 1.080538e+02 3.413584e+00 4.612833e+00 5.064258e+00 5.513619e+00 4.891111e+00 2.964750e+00 2.756555e+00 3.262985e+00 2.961382e+00 2.435903e+00 2.053929e+00 1.713500e+00 1.298400e+01 5.521786e-01 1.111005e+00 6.801602e-01 1.550541e+00 8.971854e-01 5.735086e-01 5.536171e-01 5.622991e-01 5.287179e-01 5.137115e-01 4.251381e-01 3.479832e-01 2.594426e+00
<GCONST> 1.264909e+02
<STATE> 3
<MEAN> 39
 -3.008034e+01 -6.906119e+00 3.709772e+00 -9.933391e+00 -7.643360e+00 -1.357616e+00 1.397516e-01 -3.717402e-01 -5.164340e-01 -1.293035e+00 8.432731e-01 -2.500840e-01 5.703411e+01 6.681846e-01 -2.704867e-01 1.097583e-01 3.534304e-01 -7.051796e-01 -6.579297e-01 1.932193e-01 -1.775882e-02 -1.934934e-01 -1.596330e-01 -1.182965e-01 1.241193e-02 5.892484e-03 6.443889e-01 -5.373750e-02 -2.284634e-01 1.003682e-01 -4.379257e-02 -1.780238e-01 -2.509706e-01 -3.237252e-02 -9.591082e-02 -3.958663e-02 -8.049565e-02 -2.565661e-02 -5.964342e-01
<VARIANCE> 39
 2.159336e+01 2.482584e+01 2.372030e+01 2.863347e+01 3.469082e+01 2.613360e+01 2.423133e+01 2.159365e+01 2.001208e+01 1.897680e+01 1.504047e+01 1.350950e+01 2.365943e+01 3.137459e+00 1.158025e+00 1.917103e+00 1.528082e+00 1.837758e+00 1.907712e+00 2.024093e+00 1.611742e+00 1.477189e+00 1.460169e+00 1.300739e+00 1.221838e+00 2.876349e+00 4.948670e-01 2.588603e-01 3.418347e-01 3.371320e-01 3.324012e-01 3.690144e-01 4.125062e-01 3.246240e-01 3.157436e-01 2.964172e-01 2.746461e-01 2.565239e-01 3.491498e-01
<GCONST> 1.046615e+02
<STATE> 4
<MEAN> 39
 -1.763793e+01 -6.404228e+00 -3.042761e+00 -5.701979e+00 -8.740693e+00 -4.916620e+00 -2.899582e+00 -1.877167e-01 -1.462965e+00 -1.415744e+00 -1.142120e+00 -2.506847e-01 4.213264e+01 1.500264e+00 -1.095264e-01 -5.289180e-01 -1.739000e-01 -1.313243e-01 -2.404052e-01 -6.475343e-01 9.807537e-03 -1.036425e-01 5.821630e-02 -2.369066e-01 -2.381674e-01 -3.351933e-01 -1.823401e-01 -5.188988e-02 3.317531e-02 -2.130978e-01 6.620764e-02 1.824541e-01 4.427245e-02 1.652346e-02 4.543510e-02 6.138512e-02 4.054913e-02 -6.332269e-02 3.601458e-01
<VARIANCE> 39
 3.910291e+01 3.326471e+01 4.436652e+01 4.667587e+01 5.514821e+01 4.501871e+01 3.846237e+01 3.541233e+01 3.336309e+01 3.634274e+01 2.853594e+01 2.383504e+01 1.382530e+02 6.254871e+00 3.425115e+00 4.299713e+00 5.380779e+00 6.121710e+00 5.111907e+00 4.734684e+00 3.752869e+00 3.588885e+00 3.496564e+00 2.983474e+00 2.651143e+00 1.127564e+01 8.054019e-01 4.843478e-01 5.740041e-01 7.771205e-01 1.014938e+00 9.183063e-01 7.457787e-01 6.481719e-01 6.252516e-01 6.056595e-01 4.988222e-01 4.569986e-01 1.139003e+00
<GCONST> 1.347510e+02
<TRANSP> 5
 0.000000e+00 1.000000e+00 0.000000e+00 0.000000e+00 0.000000e+00
 0.000000e+00 8.464762e-01 1.535238e-01 0.000000e+00 0.000000e+00
 0.000000e+00 0.000000e+00 8.744549e-01 1.255452e-01 0.000000e+00
 0.000000e+00 0.000000e+00 0.000000e+00 8.864469e-01 1.135531e-01
 0.000000e+00 0.000000e+00 0.000000e+00 0.000000e+00 0.000000e+00
<ENDHMM>
