~o
<STREAMINFO> 1 39
<VECSIZE> 39<NULLD><MFCC_D_A_0><DIAGC>
~h "d"
<BEGINHMM>
<NUMSTATES> 5
<STATE> 2
<MEAN> 39
 -1.227160e+01 4.168901e+00 1.860921e+00 1.741809e+00 -3.477317e+00 -4.080640e+00 -5.392358e+00 -4.771234e+00 -5.698637e+00 -4.692558e+00 -5.681109e+00 -4.245147e+00 3.615468e+01 -1.094154e+00 -4.465240e-01 -4.599751e-01 -4.760314e-01 7.605333e-01 6.194417e-01 5.048807e-01 3.082064e-01 2.701558e-01 1.861468e-01 3.717958e-01 2.334465e-01 4.149819e-01 -4.076446e-02 -6.546136e-01 -1.555178e-01 -8.214085e-01 -5.598471e-01 -1.832209e-01 1.898858e-02 1.244750e-01 8.858386e-02 2.539324e-01 3.128027e-01 2.528008e-01 1.158095e+00
<VARIANCE> 39
 2.937638e+01 2.877122e+01 2.874598e+01 2.776808e+01 2.728664e+01 2.832417e+01 2.744890e+01 2.804776e+01 2.887466e+01 2.545294e+01 2.421001e+01 2.126694e+01 3.303997e+01 3.287447e+00 6.552696e+00 3.518090e+00 7.572063e+00 4.281205e+00 3.560468e+00 3.722878e+00 3.717410e+00 3.821797e+00 3.334338e+00 3.266297e+00 2.820788e+00 1.128613e+01 4.376876e-01 8.120726e-01 5.250197e-01 1.018581e+00 8.922260e-01 7.210351e-01 6.707299e-01 6.581377e-01 6.641575e-01 5.958675e-01 5.663239e-01 5.167022e-01 1.434907e+00
<GCONST> 1.289163e+02
<STATE> 3
<MEAN> 39
 -1.890114e+01 -3.120179e+00 -5.067854e+00 -3.387285e+00 -4.003898e+00 -1.961163e+00 -1.725536e+00 -2.771363e-01 -1.855760e+00 -1.371762e+00 -1.531536e+00 -8.141010e-02 3.584301e+01 -1.722231e-01 -4.174204e-01 -1.292687e-01 -6.596289e-01 -2.471931e-01 -2.220847e-01 3.394344e-02 7.645462e-02 1.070711e-01 1.361062e-01 2.177411e-01 1.804542e-01 1.255749e+00 2.397088e-01 9.333974e-02 2.038851e-01 -3.270253e-02 -2.312590e-01 -1.896275e-01 -1.463953e-01 -1.270975e-01 -1.150696e-01 -7.337552e-02 -8.424045e-02 -6.985226e-02 3.514921e-01
<VARIANCE> 39
 1.887691e+01 2.312544e+01 2.197782e+01 3.040536e+01 2.552870e+01 2.411165e+01 2.316805e+01 2.299191e+01 2.247478e+01 2.216836e+01 1.941369e+01 1.804506e+01 8.751921e+01 1.590024e+00 2.794741e+00 2.059014e+00 4.360910e+00 2.614364e+00 2.433872e+00 2.577754e+00 2.552124e+00 2.522727e+00 2.452523e+00 2.378107e+00 1.960366e+00 1.109098e+01 3.707452e-01 4.588197e-01 4.945057e-01 6.171662e-01 6.421462e-01 5.614255e-01 5.395545e-01 5.160117e-01 5.267826e-01 4.972566e-01 4.676313e-01 3.764664e-01 1.132915e+00
<GCONST> 1.184829e+02
<STATE> 4
<MEAN> 39
 -1.475999e+01 -3.600496e+00 7.210397e-01 -9.938160e+00 -1.036628e+01 -8.381681e+00 -5.209184e+00 -4.214669e+00 -4.707491e+00 -2.238058e+00 -1.856971e+00 -7.777717e-01 5.722279e+01 1.946216e+00 -4.174588e-01 2.120405e+00 -9.686456e-01 -3.261952e+00 -1.497584e+00 -1.562176e+00 -4.535168e-01 -6.293927e-01 -4.154795e-01 -1.232644e-01 -1.833023e-01 2.908855e+00 3.222013e-01 1.251106e-01 2.040136e-01 5.049000e-01 -6.489316e-03 4.234053e-01 -2.140475e-01 1.123802e-01 -5.541841e-03 -7.454518e-02 -1.663153e-01 -2.529806e-01 -1.288159e+00
<VARIANCE> 39
 4.044278e+01 4.330599e+01 6.518005e+01 4.306484e+01 5.793980e+01 4.456868e+01 4.998692e+01 5.422508e+01 4.595086e+01 3.235029e+01 3.016797e+01 2.376937e+01 6.647507e+01 3.270639e+00 4.118556e+00 6.278430e+00 5.890463e+00 5.575178e+00 5.091083e+00 5.077981e+00 5.872415e+00 5.866687e+00 4.528660e+00 4.237736e+00 3.268268e+00 1.024010e+01 8.144265e-01 7.373283e-01 1.216270e+00 8.598182e-01 1.243831e+00 8.889115e-01 1.018116e+00 7.909681e-01 8.405304e-01 7.067359e-01 6.203043e-01 5.062183e-01 9.540063e-01
<GCONST> 1.398015e+02
<TRANSP> 5
 0.000000e+00 1.000000e+00 0.000000e+00 0.000000e+00 0.000000e+00
 0.000000e+00 6.615178e-01 3.384822e-01 0.000000e+00 0.000000e+00
 0.000000e+00 0.000000e+00 8.157221e-01 1.842779e-01 0.000000e+00
 0.000000e+00 0.000000e+00 0.000000e+00 6.584209e-01 3.415792e-01
 0.000000e+00 0.000000e+00 0.000000e+00 0.000000e+00 0.000000e+00
<ENDHMM>
