~o
<STREAMINFO> 1 39
<VECSIZE> 39<NULLD><MFCC_D_A_0><DIAGC>
~h "dh"
<BEGINHMM>
<NUMSTATES> 5
<STATE> 2
<MEAN> 39
 -2.092783e+01 -1.475766e+00 -6.439616e+00 -1.432257e+00 -2.835170e+00 -1.911911e+00 -1.699009e+00 -9.041348e-01 -1.459556e+00 -1.410952e+00 -1.046377e+00 -5.751975e-01 3.224496e+01 3.589179e-01 3.064920e-01 3.503993e-01 3.380608e-03 -5.208098e-02 -2.367303e-01 -1.127437e-01 -1.021339e-01 -6.666255e-02 -5.568781e-02 -2.171070e-01 -2.293605e-01 7.578678e-01 1.901217e-01 1.072069e-02 8.835823e-02 4.835929e-02 -7.292311e-02 -6.051214e-02 -1.489665e-01 -1.490017e-01 -1.641892e-01 -9.349275e-02 -1.459614e-01 -1.720112e-01 2.251482e-01
<VARIANCE> 39
 8.819651e+00 1.163489e+01 9.290094e+00 1.091046e+01 8.911083e+00 1.980090e+01 1.346419e+01 2.353338e+01 1.710224e+01 1.828860e+01 1.628412e+01 1.190474e+01 3.046682e+01 1.199929e+00 1.221699e+00 1.225932e+00 1.172824e+00 1.360257e+00 1.879357e+00 2.081333e+00 2.189959e+00 2.273737e+00 2.567892e+00 1.497574e+00 1.293802e+00 1.771969e+00 2.000000e-01 2.051166e-01 2.003456e-01 2.000000e-01 2.843381e-01 2.634135e-01 4.173055e-01 4.639783e-01 3.672942e-01 4.917005e-01 2.653051e-01 2.651767e-01 2.345901e-01
<GCONST> 9.602689e+01
<STATE> 3
<MEAN> 39
 -1.159459e+01 1.805536e+00 -1.964090e+00 6.458352e-01 -4.353418e+00 -6.430367e+00 -6.898730e+00 -5.393826e+00 -6.472056e+00 -4.738883e+00 -7.207057e+00 -6.586950e+00 4.161658e+01 5.103478e-01 -5.250304e-01 -3.000929e-01 -4.565094e-01 -6.244558e-01 -4.990415e-01 -2.480058e-01 -2.199236e-01 8.643457e-02 -2.320713e-01 -9.349714e-02 -1.445096e-01 2.622359e+00 -2.141568e-01 -4.259790e-01 -2.517686e-01 -4.061637e-01 -2.999844e-01 4.073981e-02 1.615467e-01 2.152930e-01 2.596238e-01 1.946933e-01 2.987713e-01 3.506253e-01 4.089303e-01
<VARIANCE> 39
 2.944380e+01 2.345610e+01 1.999198e+01 1.648683e+01 2.325689e+01 3.046943e+01 2.622991e+01 2.699378e+01 3.303546e+01 4.555567e+01 2.839544e+01 2.137357e+01 5.611255e+01 5.161829e+00 3.186325e+00 2.820151e+00 2.460552e+00 3.093714e+00 3.675389e+00 4.880580e+00 2.440814e+00 2.629990e+00 2.449303e+00 3.006640e+00 3.471864e+00 5.049147e+00 8.909017e-01 5.621845e-01 4.762003e-01 5.548309e-01 7.407308e-01 6.810123e-01 8.207710e-01 4.989951e-01 4.186128e-01 4.601513e-01 4.004835e-01 5.518793e-01 8.492278e-01
<GCONST> 1.234449e+02
<STATE> 4
<MEAN> 39
 -1.031956e+01 -5.851447e+00 -4.942491e+00 -7.734692e+00 -1.238964e+01 -9.366251e+00 -6.631763e+00 -3.003122e+00 -3.011476e+00 -1.783359e+00 -3.532497e+00 -2.050545e+00 5.954059e+01 1.751416e+00 -1.924693e+00 7.878348e-01 -2.389252e+00 -2.531411e+00 -1.284128e+00 -1.072243e+00 1.027166e+00 3.154532e-03 1.228708e+00 1.935577e-02 5.061553e-01 3.491799e+00 -1.029989e-01 5.539704e-02 2.794804e-01 8.373580e-02 4.003246e-01 2.704801e-01 1.187156e-01 2.269757e-01 -1.962734e-01 4.492644e-02 -2.828842e-01 -2.570411e-01 -7.964110e-01
<VARIANCE> 39
 2.361813e+01 2.747768e+01 4.086463e+01 3.837132e+01 3.185532e+01 3.900941e+01 5.401156e+01 6.011639e+01 5.025965e+01 3.057313e+01 2.126342e+01 1.643266e+01 3.476488e+01 2.481080e+00 2.630775e+00 4.353631e+00 3.480437e+00 3.428369e+00 3.907683e+00 5.672729e+00 5.869969e+00 3.388803e+00 2.667056e+00 3.312723e+00 2.720380e+00 3.978202e+00 8.347431e-01 4.731882e-01 6.611998e-01 4.544360e-01 7.329141e-01 8.427866e-01 1.060883e+00 8.121234e-01 5.252126e-01 5.158725e-01 4.835428e-01 4.119879e-01 4.243684e-01
<GCONST> 1.273999e+02
<TRANSP> 5
 0.000000e+00 1.000000e+00 0.000000e+00 0.000000e+00 0.000000e+00
 0.000000e+00 8.409091e-01 1.590909e-01 0.000000e+00 0.000000e+00
 0.000000e+00 0.000000e+00 8.120806e-01 1.879195e-01 0.000000e+00
 0.000000e+00 0.000000e+00 0.000000e+00 7.227723e-01 2.772277e-01
 0.000000e+00 0.000000e+00 0.000000e+00 0.000000e+00 0.000000e+00
<ENDHMM>
