~o
<STREAMINFO> 1 39
<VECSIZE> 39<NULLD><MFCC_D_A_0><DIAGC>
~h "dx"
<BEGINHMM>
<NUMSTATES> 5
<STATE> 2
<MEAN> 39
 -1.239699e+01 -1.505695e+00 -4.900071e-01 -1.147366e+00 -6.600184e+00 -5.689494e+00 -5.453274e+00 -3.151153e+00 -3.207916e+00 -3.288074e+00 -4.024054e+00 -3.161926e+00 4.175521e+01 -1.262499e+00 1.970866e-01 -2.062175e-01 1.811038e-01 1.253287e+00 8.704730e-01 5.614397e-01 -1.796671e-01 -1.013572e-01 4.425165e-02 2.903286e-01 2.002233e-01 -8.026832e-01 3.024800e-01 -9.304205e-01 8.334028e-04 -9.775696e-01 -7.331737e-01 -3.427560e-01 -1.928014e-01 4.981100e-01 3.009159e-02 1.973752e-01 2.970785e-01 2.219816e-01 1.555808e+00
<VARIANCE> 39
 4.651326e+01 4.469622e+01 3.653881e+01 3.356316e+01 4.425544e+01 4.043380e+01 3.803372e+01 3.485845e+01 3.555827e+01 3.167197e+01 2.794934e+01 3.249439e+01 1.046662e+02 2.851425e+00 5.732130e+00 3.126695e+00 5.554229e+00 5.703104e+00 4.513673e+00 4.475538e+00 4.013767e+00 4.087414e+00 3.119934e+00 3.638146e+00 3.269439e+00 1.070604e+01 4.951558e-01 7.391039e-01 5.977932e-01 7.998043e-01 1.040160e+00 8.317125e-01 1.101920e+00 9.480022e-01 8.607072e-01 8.893199e-01 8.157368e-01 7.192940e-01 1.263689e+00
<GCONST> 1.363637e+02
<STATE> 3
<MEAN> 39
 -1.350864e+01 -8.293342e+00 -2.506288e-01 -9.044731e+00 -9.642406e+00 -7.351346e+00 -5.635117e+00 -5.329403e-01 -2.877332e+00 -1.390843e+00 -2.116874e-01 -3.305177e-01 5.471272e+01 6.498496e-01 -8.540144e-01 3.852978e-01 -6.490130e-01 -1.370854e+00 -7.872025e-01 -2.718227e-01 7.667433e-01 -3.238303e-01 1.676103e-01 3.605937e-01 3.590324e-01 1.505718e+00 3.947679e-01 1.200137e-01 1.642033e-02 2.345761e-01 -2.178560e-01 -5.355390e-02 -1.111389e-01 1.093257e-01 -7.310171e-02 -7.568216e-02 -1.996226e-01 -1.298222e-01 -4.413370e-01
<VARIANCE> 39
 6.683264e+01 4.324130e+01 5.249215e+01 4.652721e+01 6.201334e+01 4.669104e+01 5.425059e+01 3.666433e+01 3.742525e+01 3.291288e+01 2.181531e+01 2.359073e+01 9.154200e+01 4.336779e+00 4.030759e+00 3.176139e+00 6.549019e+00 5.013165e+00 4.095617e+00 5.377059e+00 4.676534e+00 3.434129e+00 3.507083e+00 3.446329e+00 2.448440e+00 1.169777e+01 8.194883e-01 7.277861e-01 6.097766e-01 1.037148e+00 9.681627e-01 9.295593e-01 7.768883e-01 7.442094e-01 6.031865e-01 5.252251e-01 6.064449e-01 4.382409e-01 1.761501e+00
<GCONST> 1.365764e+02
<STATE> 4
<MEAN> 39
 -1.238472e+01 -7.891409e+00 -3.207188e+00 -5.853806e+00 -9.913557e+00 -6.060506e+00 -3.410809e+00 1.989533e+00 -3.161911e+00 -3.170536e+00 -8.399817e-01 3.745992e-01 4.557291e+01 3.631980e-01 -1.243912e-01 -2.534571e-01 2.146505e-02 -2.383516e-01 -7.840759e-02 -1.214693e-01 4.196102e-01 4.299489e-02 -8.592262e-02 -9.288694e-02 1.284431e-01 -4.777356e-01 -1.398789e-01 1.662097e-01 -1.088461e-01 7.641761e-04 2.371786e-01 8.226632e-02 5.622280e-02 -8.120241e-02 6.058789e-02 -5.321175e-03 -1.040577e-01 -2.575150e-02 -1.066544e-01
<VARIANCE> 39
 5.342579e+01 3.554744e+01 6.313721e+01 3.908941e+01 5.853148e+01 4.037933e+01 7.659431e+01 4.190647e+01 3.411645e+01 4.418844e+01 2.848572e+01 2.413836e+01 1.501596e+02 1.897064e+00 1.672468e+00 2.621951e+00 2.038684e+00 2.679296e+00 2.379915e+00 2.835181e+00 2.983663e+00 2.304077e+00 2.610241e+00 2.090168e+00 1.716379e+00 1.783444e+00 2.573932e-01 3.073661e-01 2.819061e-01 3.832075e-01 4.536057e-01 3.565717e-01 4.722814e-01 4.812858e-01 3.646571e-01 4.701514e-01 4.273511e-01 2.754514e-01 3.776183e-01
<GCONST> 1.192691e+02
<TRANSP> 5
 0.000000e+00 1.000000e+00 0.000000e+00 0.000000e+00 0.000000e+00
 0.000000e+00 6.162362e-01 3.837638e-01 0.000000e+00 0.000000e+00
 0.000000e+00 0.000000e+00 6.176471e-01 3.823529e-01 0.000000e+00
 0.000000e+00 0.000000e+00 0.000000e+00 7.078652e-01 2.921348e-01
 0.000000e+00 0.000000e+00 0.000000e+00 0.000000e+00 0.000000e+00
<ENDHMM>
