~o
<STREAMINFO> 1 39
<VECSIZE> 39<NULLD><MFCC_D_A_0><DIAGC>
~h "eh"
<BEGINHMM>
<NUMSTATES> 5
<STATE> 2
<MEAN> 39
 -1.441847e+01 -6.518610e+00 -3.005409e+00 -8.667073e+00 -1.187481e+01 -5.408280e+00 -1.973371e+00 1.061723e+00 -2.263278e+00 -6.087481e-01 -2.018445e+00 -1.749328e+00 4.562959e+01 6.517213e-01 -6.974691e-01 3.951252e-01 -7.319590e-01 -7.957225e-01 -1.479338e-01 1.437342e-01 4.543175e-01 -1.418923e-01 -2.774463e-01 -1.780112e-01 -2.254871e-01 1.813524e+00 -1.095883e-02 2.940071e-02 -6.954808e-02 2.367993e-02 1.026755e-01 1.155070e-01 -4.266413e-02 -6.044288e-02 -3.045761e-02 -3.304193e-02 3.518474e-02 -3.543891e-03 -1.745666e-02
<VARIANCE> 39
 5.141053e+01 4.175319e+01 4.517876e+01 8.270659e+01 8.686201e+01 5.931865e+01 5.335707e+01 5.183488e+01 4.561034e+01 3.685818e+01 3.970969e+01 2.898690e+01 2.000674e+02 2.580394e+00 2.654632e+00 2.560916e+00 4.044270e+00 4.283711e+00 3.328225e+00 3.413448e+00 3.800604e+00 3.252645e+00 2.887673e+00 2.750421e+00 2.206181e+00 8.330119e+00 4.211740e-01 3.981031e-01 3.906250e-01 6.849446e-01 7.380435e-01 5.941573e-01 5.799072e-01 5.926921e-01 5.786963e-01 4.858175e-01 4.842719e-01 4.006324e-01 1.097551e+00
<GCONST> 1.316541e+02
<STATE> 3
<MEAN> 39
 -6.863672e+00 -1.293816e+01 -1.755620e+00 -1.389008e+01 -1.732515e+01 -7.683860e+00 -2.777089e+00 4.031766e+00 -3.114915e+00 -3.663278e+00 -3.354553e+00 -3.547640e+00 6.379015e+01 2.055786e-01 -6.903821e-02 -5.523580e-01 2.434143e-01 5.467456e-01 -3.963514e-02 -2.182819e-01 1.606063e-01 2.660700e-01 -2.475199e-01 -3.017705e-01 -2.185648e-02 7.156360e-02 -1.776714e-02 1.723844e-01 -1.696563e-02 9.971714e-02 1.036491e-01 -4.194903e-02 -5.820655e-02 -1.433545e-01 -1.625087e-02 7.225965e-02 -2.552586e-03 1.051508e-02 -2.332865e-01
<VARIANCE> 39
 1.424311e+01 3.516828e+01 5.451352e+01 5.531356e+01 5.883710e+01 6.358127e+01 7.480410e+01 8.039066e+01 7.498009e+01 5.540317e+01 5.714367e+01 3.921840e+01 2.523536e+01 2.835544e-01 8.216997e-01 9.711561e-01 9.097582e-01 1.263616e+00 1.257670e+00 1.536923e+00 1.647697e+00 1.381242e+00 1.392202e+00 1.268070e+00 1.036719e+00 6.198630e-01 2.000000e-01 2.000000e-01 2.000000e-01 2.000000e-01 2.009748e-01 2.007283e-01 2.453595e-01 2.839650e-01 2.249502e-01 2.068650e-01 2.092970e-01 2.000000e-01 2.000000e-01
<GCONST> 1.022073e+02
<STATE> 4
<MEAN> 39
 -6.862612e+00 -7.306363e+00 -5.043324e+00 -7.929855e+00 -9.754084e+00 -7.910657e+00 -5.381126e+00 3.700650e-01 -3.132092e+00 -3.317956e+00 -5.239440e+00 -3.591511e+00 5.502352e+01 -1.045453e+00 1.515996e+00 1.425785e-01 1.071059e+00 1.035421e+00 2.980124e-01 3.293898e-01 -1.171988e+00 -5.500093e-01 3.401057e-01 2.392908e-01 1.140456e-01 -1.652940e+00 -3.993012e-01 8.730797e-04 6.211158e-02 1.880049e-02 1.084137e-02 1.426300e-01 1.802851e-01 -2.151023e-02 -9.714305e-02 2.797494e-02 1.211527e-01 5.724440e-02 -1.120757e-02
<VARIANCE> 39
 3.042906e+01 4.476591e+01 4.524465e+01 5.172467e+01 5.821307e+01 5.829332e+01 7.212343e+01 7.369733e+01 7.873290e+01 5.805239e+01 5.126965e+01 4.753337e+01 8.191707e+01 4.706694e+00 2.867679e+00 2.565570e+00 3.388872e+00 3.702277e+00 3.819424e+00 4.215073e+00 5.856501e+00 4.316296e+00 3.804612e+00 3.824071e+00 3.395853e+00 2.322449e+00 4.402500e-01 4.900137e-01 4.065473e-01 5.402271e-01 5.288934e-01 5.507354e-01 6.365055e-01 8.787652e-01 6.842743e-01 6.113628e-01 5.732323e-01 4.912511e-01 4.197271e-01
<GCONST> 1.329463e+02
<TRANSP> 5
 0.000000e+00 1.000000e+00 0.000000e+00 0.000000e+00 0.000000e+00
 0.000000e+00 8.508291e-01 1.491709e-01 0.000000e+00 0.000000e+00
 0.000000e+00 0.000000e+00 9.074727e-01 9.252729e-02 0.000000e+00
 0.000000e+00 0.000000e+00 0.000000e+00 8.412904e-01 1.587096e-01
 0.000000e+00 0.000000e+00 0.000000e+00 0.000000e+00 0.000000e+00
<ENDHMM>
