~o
<STREAMINFO> 1 39
<VECSIZE> 39<NULLD><MFCC_D_A_0><DIAGC>
~h "el"
<BEGINHMM>
<NUMSTATES> 5
<STATE> 2
<MEAN> 39
 -7.350998e+00 -1.218703e+01 -6.420754e+00 -1.397183e+01 -1.265019e+01 -6.631347e+00 -3.201216e+00 3.150949e+00 -4.204755e-01 -2.035962e+00 -6.219193e+00 -3.691379e+00 5.968882e+01 6.086722e-01 -2.701840e-01 -6.365932e-01 -6.687554e-01 4.377590e-01 5.651193e-01 -3.878095e-01 -2.936690e-01 2.143731e-01 9.208491e-02 -2.956061e-01 -4.170299e-01 8.873069e-01 -1.020950e-01 1.942267e-01 -5.563839e-02 3.932849e-03 1.588455e-01 1.639946e-01 -2.123828e-02 -1.752361e-01 -5.079607e-02 1.079153e-01 1.700009e-01 3.146461e-02 -3.062554e-01
<VARIANCE> 39
 2.953540e+01 4.048660e+01 5.180365e+01 6.077455e+01 6.783291e+01 5.879906e+01 7.282402e+01 6.251798e+01 7.333020e+01 5.392675e+01 6.182653e+01 4.621909e+01 1.172759e+02 1.301756e+00 1.714160e+00 2.317145e+00 2.923980e+00 3.804221e+00 2.952846e+00 2.888462e+00 3.241942e+00 2.381868e+00 2.763132e+00 2.356905e+00 2.082274e+00 4.265965e+00 2.155364e-01 2.650360e-01 2.678624e-01 4.421437e-01 4.716650e-01 3.948218e-01 4.358933e-01 4.221291e-01 4.265166e-01 3.869938e-01 4.381872e-01 3.692603e-01 5.337936e-01
<GCONST> 1.242153e+02
<STATE> 3
<MEAN> 39
 -1.658513e+00 -4.728441e+00 -1.419150e+01 -2.431650e+01 -8.095851e+00 3.066128e+00 -4.455694e+00 -4.208998e+00 -2.250225e+00 -6.754137e-01 -1.529813e+00 -3.568434e+00 5.731860e+01 5.106047e-02 7.267620e-01 -1.164214e-02 -2.522403e-01 -8.926629e-02 1.219757e-01 1.538630e-01 -2.266937e-01 -4.893893e-01 -1.560077e-01 3.855098e-01 3.950801e-01 -7.515518e-01 -1.344629e-01 -9.085103e-02 1.061019e-01 3.060294e-01 2.025664e-02 -1.750413e-01 -2.858982e-02 1.100489e-01 8.460388e-02 -2.430286e-02 -1.136342e-01 -1.703135e-02 -6.076492e-02
<VARIANCE> 39
 1.356227e+01 4.685054e+01 5.406441e+01 6.847565e+01 7.219012e+01 6.568494e+01 7.977063e+01 5.748515e+01 5.827221e+01 5.724033e+01 6.140464e+01 4.939124e+01 4.542471e+01 5.494249e-01 1.426443e+00 1.217693e+00 3.156355e+00 2.006662e+00 2.562923e+00 2.159673e+00 2.461262e+00 2.490873e+00 2.305372e+00 2.504194e+00 2.303471e+00 7.929132e-01 2.000000e-01 2.000000e-01 2.026093e-01 3.460391e-01 3.760147e-01 3.575232e-01 3.458592e-01 4.045954e-01 4.010904e-01 4.229872e-01 3.559735e-01 3.993256e-01 2.000000e-01
<GCONST> 1.156837e+02
<STATE> 4
<MEAN> 39
 -1.218814e+01 -3.623223e+00 -8.796362e+00 -1.020355e+01 -5.419325e+00 -1.290237e+00 -3.639700e+00 -2.338510e+00 -2.603715e+00 -9.671863e-01 -2.264139e+00 -1.979735e+00 4.249078e+01 -7.022052e-01 -4.235178e-01 8.348381e-01 8.772683e-01 -1.481612e-01 -4.711893e-01 -8.669676e-02 3.380636e-01 1.369784e-01 -1.011596e-01 -2.159823e-01 -4.361128e-02 -1.406429e-01 1.127967e-01 -2.418168e-02 6.484570e-02 -2.038971e-01 -1.787045e-01 2.743167e-02 4.306994e-02 3.806639e-02 -1.008163e-01 -8.890604e-02 1.491904e-02 2.215819e-02 2.292740e-01
<VARIANCE> 39
 5.555922e+01 2.928312e+01 6.176729e+01 8.387144e+01 4.895489e+01 5.878511e+01 7.250678e+01 5.378639e+01 5.237133e+01 5.068653e+01 4.225488e+01 3.475875e+01 1.157084e+02 3.071851e+00 2.517137e+00 3.528108e+00 6.257169e+00 4.321099e+00 4.314065e+00 3.932243e+00 4.490360e+00 4.875185e+00 4.434064e+00 3.715777e+00 3.329841e+00 6.777957e+00 3.888855e-01 3.826471e-01 4.965265e-01 8.362429e-01 6.170300e-01 7.206214e-01 7.163651e-01 8.098531e-01 8.740583e-01 8.103062e-01 6.703348e-01 6.138756e-01 7.360198e-01
<GCONST> 1.365458e+02
<TRANSP> 5
 0.000000e+00 1.000000e+00 0.000000e+00 0.000000e+00 0.000000e+00
 0.000000e+00 8.388676e-01 1.611324e-01 0.000000e+00 0.000000e+00
 0.000000e+00 0.000000e+00 8.859252e-01 1.140748e-01 0.000000e+00
 0.000000e+00 0.000000e+00 0.000000e+00 8.781783e-01 1.218217e-01
 0.000000e+00 0.000000e+00 0.000000e+00 0.000000e+00 0.000000e+00
<ENDHMM>
