~o
<STREAMINFO> 1 39
<VECSIZE> 39<NULLD><MFCC_D_A_0><DIAGC>
~h "er"
<BEGINHMM>
<NUMSTATES> 5
<STATE> 2
<MEAN> 39
 -2.928404e+00 -1.330848e+01 -1.479143e+01 -8.202085e+00 -6.494392e+00 -1.028106e+01 -1.111805e+01 3.302783e+00 1.638728e+00 -2.152364e+00 -2.694366e+00 -1.280045e+00 5.690242e+01 1.758191e+00 -7.212865e-01 -1.332783e+00 -1.295000e-01 4.992362e-02 -6.145647e-01 -1.863680e+00 6.189793e-01 6.580003e-01 -1.475002e-01 -7.948902e-03 1.315544e-01 1.454321e+00 -5.080377e-01 1.996779e-01 1.667027e-01 1.237712e-01 1.135324e-01 2.639663e-01 1.843820e-01 -1.323580e-01 9.077561e-02 1.256952e-02 7.167704e-02 4.200696e-02 -2.369931e-01
<VARIANCE> 39
 5.522486e+01 3.100674e+01 5.653577e+01 4.646785e+01 6.554511e+01 7.560045e+01 1.008503e+02 7.446809e+01 9.087343e+01 5.309286e+01 4.448708e+01 3.204140e+01 1.081438e+02 4.057723e+00 2.501349e+00 3.084930e+00 3.294355e+00 3.549638e+00 4.250923e+00 5.029241e+00 4.409267e+00 5.285382e+00 3.277253e+00 2.813872e+00 2.885056e+00 4.683017e+00 8.173718e-01 5.034499e-01 5.460234e-01 5.987493e-01 4.830881e-01 6.609057e-01 9.121639e-01 6.305185e-01 7.907041e-01 5.298363e-01 4.905778e-01 5.341747e-01 6.732883e-01
<GCONST> 1.354895e+02
<STATE> 3
<MEAN> 39
 1.202222e+00 -1.522681e+01 -1.663155e+01 -7.429346e+00 -5.746943e+00 -1.362195e+01 -1.729828e+01 4.335510e+00 4.387173e+00 -6.687129e+00 -1.756524e+00 -5.692717e-01 6.304728e+01 -1.103888e-01 -1.051684e-03 1.907116e-01 1.822367e-01 -1.006965e-01 -1.304959e-01 -2.088463e-03 8.939096e-02 -1.582466e-01 -1.712013e-01 7.641293e-02 1.229250e-02 -9.978116e-02 -9.192968e-02 8.155046e-02 2.638897e-01 -2.377090e-02 -1.400239e-01 9.304885e-02 2.568141e-01 -1.051205e-01 -2.178928e-01 2.411649e-02 1.449457e-02 -4.408384e-03 -1.150420e-01
<VARIANCE> 39
 1.049856e+01 2.133872e+01 5.105582e+01 3.934073e+01 6.273528e+01 1.061774e+02 1.061867e+02 8.598789e+01 1.273692e+02 5.961584e+01 6.532746e+01 4.710943e+01 2.013765e+01 2.199004e-01 4.222394e-01 1.359913e+00 7.894244e-01 1.544268e+00 1.409318e+00 1.918088e+00 1.331507e+00 1.670052e+00 1.355504e+00 1.120220e+00 9.759532e-01 2.438603e-01 2.000000e-01 2.000000e-01 2.000000e-01 2.000000e-01 2.071552e-01 2.208399e-01 2.476555e-01 2.382979e-01 2.373342e-01 2.420774e-01 2.158139e-01 2.000000e-01 2.000000e-01
<GCONST> 1.015303e+02
<STATE> 4
<MEAN> 39
 -2.301661e+00 -1.160484e+01 -8.330187e+00 -8.053325e+00 -9.504840e+00 -1.093587e+01 -1.212447e+01 7.556294e-01 -3.156710e+00 -5.201800e+00 -2.849641e+00 -1.221929e+00 5.804034e+01 -1.658898e+00 1.467194e+00 1.961629e+00 -3.894281e-01 -4.112399e-01 1.164757e+00 1.785613e+00 -1.616265e+00 -9.929494e-01 5.367174e-01 -6.711233e-02 -2.703576e-01 -1.195620e+00 -2.879573e-01 2.352969e-01 -1.241988e-01 -2.331395e-02 2.882780e-01 1.842045e-01 -3.053746e-02 -5.882271e-02 1.048571e-01 1.308864e-01 6.742982e-02 -1.030891e-01 -1.092769e-01
<VARIANCE> 39
 3.083757e+01 4.306277e+01 7.121212e+01 5.872730e+01 7.146761e+01 9.517176e+01 9.580585e+01 9.340967e+01 7.980885e+01 4.594027e+01 5.806057e+01 3.352563e+01 5.439248e+01 4.022157e+00 3.045494e+00 2.810229e+00 4.245676e+00 5.538544e+00 4.523644e+00 5.770081e+00 5.153890e+00 3.971347e+00 3.579636e+00 3.972183e+00 3.231955e+00 3.571482e+00 4.033926e-01 6.165072e-01 5.670697e-01 6.604387e-01 9.311619e-01 7.012229e-01 1.105786e+00 9.164355e-01 6.496644e-01 5.376557e-01 6.798823e-01 4.778127e-01 6.308454e-01
<GCONST> 1.375627e+02
<TRANSP> 5
 0.000000e+00 1.000000e+00 0.000000e+00 0.000000e+00 0.000000e+00
 0.000000e+00 7.758621e-01 2.241379e-01 0.000000e+00 0.000000e+00
 0.000000e+00 0.000000e+00 9.007633e-01 9.923664e-02 0.000000e+00
 0.000000e+00 0.000000e+00 0.000000e+00 8.066915e-01 1.933085e-01
 0.000000e+00 0.000000e+00 0.000000e+00 0.000000e+00 0.000000e+00
<ENDHMM>
