~o
<STREAMINFO> 1 39
<VECSIZE> 39<NULLD><MFCC_D_A_0><DIAGC>
~h "ey"
<BEGINHMM>
<NUMSTATES> 5
<STATE> 2
<MEAN> 39
 -1.118275e+01 -9.674464e+00 -1.161306e+00 -1.207521e+01 -1.649067e+01 -8.528465e+00 -2.549058e+00 2.514200e+00 -2.201805e+00 -2.550321e-01 -1.794492e+00 -1.988540e+00 5.404335e+01 6.534584e-01 -8.507786e-01 6.080981e-01 -8.197753e-01 -1.180367e+00 -1.664133e-01 1.317375e-01 5.404894e-01 -1.377718e-01 -9.465035e-02 1.968402e-01 -1.566801e-01 1.933641e+00 -2.154824e-01 2.338034e-01 3.213338e-03 1.618705e-01 2.226099e-01 1.943244e-01 -4.348261e-02 -1.991318e-01 -4.529813e-02 2.988320e-02 8.022722e-02 1.807001e-02 -3.036816e-01
<VARIANCE> 39
 4.183491e+01 4.254282e+01 4.806798e+01 8.130278e+01 8.156705e+01 6.373064e+01 6.743907e+01 5.869280e+01 5.928870e+01 4.260008e+01 5.294731e+01 3.000002e+01 1.843675e+02 2.108997e+00 2.490791e+00 2.483777e+00 3.299137e+00 3.668350e+00 2.950382e+00 3.545407e+00 3.573807e+00 3.079302e+00 2.610622e+00 2.686328e+00 2.239177e+00 6.063184e+00 4.309028e-01 4.098485e-01 3.300612e-01 5.622795e-01 6.281658e-01 5.187640e-01 5.988601e-01 5.418469e-01 5.544738e-01 4.661854e-01 4.703248e-01 4.192797e-01 1.003248e+00
<GCONST> 1.304196e+02
<STATE> 3
<MEAN> 39
 -8.661090e+00 -9.148587e+00 5.522604e+00 -1.597523e+01 -2.323522e+01 -8.739448e+00 -4.627561e+00 -1.711997e+00 -5.316934e+00 9.968363e-02 6.642176e-02 -2.369142e+00 6.298570e+01 -8.622193e-02 3.919074e-01 3.842105e-01 5.393235e-02 -4.286923e-02 9.057781e-02 -2.214718e-01 -4.794221e-01 -2.957851e-01 5.476430e-02 -2.045664e-03 8.828279e-03 -2.842467e-01 -1.523807e-02 5.391000e-02 -3.717035e-02 6.813101e-02 8.701320e-02 -5.910007e-03 6.122906e-03 -1.654773e-02 -1.003325e-04 -1.338418e-02 -4.148660e-02 -4.215944e-03 -1.365373e-01
<VARIANCE> 39
 1.103399e+01 3.954992e+01 4.961953e+01 7.468028e+01 4.374697e+01 5.197480e+01 6.833548e+01 8.081694e+01 6.079938e+01 4.778997e+01 7.451172e+01 3.190209e+01 2.520943e+01 2.455313e-01 7.007029e-01 8.974035e-01 6.553496e-01 8.727937e-01 9.387980e-01 1.269503e+00 1.388706e+00 1.281853e+00 9.777672e-01 1.017559e+00 7.888058e-01 5.117514e-01 2.000000e-01 2.000000e-01 2.000000e-01 2.000000e-01 2.000000e-01 2.000000e-01 2.000000e-01 2.054517e-01 2.000000e-01 2.000000e-01 2.000000e-01 2.000000e-01 2.000000e-01
<GCONST> 9.781165e+01
<STATE> 4
<MEAN> 39
 -1.269963e+01 -3.296502e+00 3.113017e+00 -8.963608e+00 -1.444890e+01 -5.332145e+00 -3.673657e+00 -4.123593e+00 -6.261094e+00 -9.705143e-01 -1.977431e+00 -2.204050e+00 4.733870e+01 -5.611645e-01 2.004760e-01 -1.369640e+00 9.802197e-01 1.692228e+00 4.384305e-01 4.714580e-01 4.948272e-01 6.077369e-01 -2.623916e-01 -2.352802e-01 -7.267649e-02 -1.653322e+00 -8.416014e-02 -1.381247e-01 -1.809941e-01 -1.166973e-01 8.979530e-02 1.186196e-01 4.233462e-02 9.235092e-02 1.315629e-01 3.489927e-02 3.767839e-02 1.734817e-02 1.449802e-01
<VARIANCE> 39
 3.254376e+01 4.149179e+01 7.871082e+01 7.632044e+01 8.435748e+01 6.144720e+01 6.650359e+01 7.199855e+01 5.932911e+01 4.598136e+01 5.460712e+01 3.368380e+01 1.147656e+02 2.703934e+00 3.239548e+00 3.776517e+00 4.919853e+00 5.231184e+00 4.142220e+00 4.062720e+00 4.588921e+00 4.381150e+00 3.574332e+00 3.476469e+00 2.794304e+00 6.449698e+00 3.664732e-01 5.136984e-01 5.939077e-01 8.371823e-01 8.898312e-01 6.733283e-01 6.625482e-01 7.589555e-01 7.259502e-01 6.127421e-01 5.679616e-01 4.802437e-01 1.031446e+00
<GCONST> 1.371201e+02
<TRANSP> 5
 0.000000e+00 1.000000e+00 0.000000e+00 0.000000e+00 0.000000e+00
 0.000000e+00 7.708583e-01 2.291417e-01 0.000000e+00 0.000000e+00
 0.000000e+00 0.000000e+00 9.400000e-01 6.000000e-02 0.000000e+00
 0.000000e+00 0.000000e+00 0.000000e+00 8.673037e-01 1.326963e-01
 0.000000e+00 0.000000e+00 0.000000e+00 0.000000e+00 0.000000e+00
<ENDHMM>
