~o
<STREAMINFO> 1 39
<VECSIZE> 39<NULLD><MFCC_D_A_0><DIAGC>
~h "f"
<BEGINHMM>
<NUMSTATES> 5
<STATE> 2
<MEAN> 39
 -2.038241e+01 -4.444358e+00 -5.858029e+00 -3.199492e+00 -2.497064e+00 -1.427509e+00 -9.638163e-01 5.205747e-01 -5.590376e-01 -7.415139e-01 -1.865761e+00 -6.429953e-01 4.765298e+01 -3.105904e+00 -3.498622e-01 -1.824409e-01 2.957694e-01 2.370663e-01 3.081476e-01 1.678031e-01 6.979104e-02 1.367724e-01 4.643678e-02 6.381292e-01 8.780537e-01 -7.904708e-01 6.042677e-01 -5.757940e-01 -2.860937e-01 -6.392499e-01 -5.049534e-01 -3.137417e-01 -2.466402e-01 -1.219557e-03 -2.152987e-02 7.408009e-02 -1.396248e-01 -2.453801e-01 4.904628e-01
<VARIANCE> 39
 2.598351e+01 1.787843e+01 1.442734e+01 1.428086e+01 1.444027e+01 1.622440e+01 1.526981e+01 1.630916e+01 1.800084e+01 1.850381e+01 1.637359e+01 1.341690e+01 9.385943e+01 7.590192e+00 2.745571e+00 2.553422e+00 3.209845e+00 2.513231e+00 2.886751e+00 2.584839e+00 3.383687e+00 2.676299e+00 3.110104e+00 3.206656e+00 2.631865e+00 3.840359e+00 8.043423e-01 5.813608e-01 4.173823e-01 5.449815e-01 4.787683e-01 5.210815e-01 5.071173e-01 6.257519e-01 4.665624e-01 5.140070e-01 5.046599e-01 4.454366e-01 3.770769e-01
<GCONST> 1.160784e+02
<STATE> 3
<MEAN> 39
 -2.401715e+01 -7.489665e+00 -8.999219e+00 -5.486164e+00 -4.232803e+00 -2.712007e+00 -2.094712e+00 -2.508409e-01 -8.628541e-01 -3.785977e-01 -1.317841e+00 -7.369760e-02 4.705647e+01 2.577066e-02 -9.321111e-02 -8.475455e-02 -1.368491e-01 -7.700081e-02 -9.295213e-02 -7.087106e-02 -4.202611e-02 -1.428590e-02 2.578080e-02 -6.674955e-03 -2.276030e-02 2.176482e-01 4.508481e-01 8.342216e-02 6.705887e-02 -2.802490e-02 -1.093445e-02 -2.413022e-02 -2.940174e-02 -1.347779e-02 -2.301404e-02 -1.620432e-02 -5.464996e-02 -8.556335e-02 5.756770e-02
<VARIANCE> 39
 1.625122e+01 1.574547e+01 1.301996e+01 1.448165e+01 1.465654e+01 1.479422e+01 1.522995e+01 1.457623e+01 1.541907e+01 1.542165e+01 1.328068e+01 1.290561e+01 7.345195e+01 1.571916e+00 9.764611e-01 1.075547e+00 1.258537e+00 1.322976e+00 1.404636e+00 1.594835e+00 1.580936e+00 1.616544e+00 1.591565e+00 1.441698e+00 1.310894e+00 1.926692e+00 5.002695e-01 2.000000e-01 2.354030e-01 3.075912e-01 2.970183e-01 3.202429e-01 3.679121e-01 3.597782e-01 3.596442e-01 3.588418e-01 3.334494e-01 2.950318e-01 2.672525e-01
<GCONST> 9.767979e+01
<STATE> 4
<MEAN> 39
 -1.396733e+01 -7.126584e+00 -8.721038e+00 -9.238160e+00 -6.297386e+00 -3.244653e+00 -3.409416e+00 -1.378593e+00 -1.742778e+00 -1.221400e-01 -1.871057e+00 -1.914457e+00 5.036927e+01 3.519586e+00 -5.165083e-01 -3.733147e-02 -1.765468e+00 -1.141652e+00 -2.554488e-01 -8.951815e-01 -2.615527e-01 -4.594270e-01 -3.825985e-02 -8.691062e-02 -6.154115e-01 1.285750e+00 -1.956786e-01 -2.691195e-01 1.036513e-02 -1.580679e-01 -8.945134e-02 1.094904e-01 -4.027959e-02 1.374008e-01 4.012948e-02 1.053652e-02 7.476339e-02 1.267306e-02 1.671474e-01
<VARIANCE> 39
 8.510140e+01 2.976938e+01 5.056545e+01 5.573154e+01 5.357830e+01 4.808179e+01 4.554443e+01 3.931945e+01 3.608036e+01 3.171220e+01 3.168975e+01 2.512580e+01 1.054321e+02 8.066785e+00 4.203867e+00 5.672958e+00 7.096560e+00 5.955498e+00 5.697356e+00 5.907446e+00 5.245723e+00 4.414197e+00 4.033655e+00 4.374145e+00 3.036732e+00 9.693469e+00 1.779948e+00 5.586907e-01 6.809136e-01 1.114354e+00 9.308386e-01 7.345348e-01 8.523245e-01 7.615947e-01 7.011622e-01 6.508842e-01 6.289209e-01 5.049869e-01 1.228152e+00
<GCONST> 1.402778e+02
<TRANSP> 5
 0.000000e+00 1.000000e+00 0.000000e+00 0.000000e+00 0.000000e+00
 0.000000e+00 6.298450e-01 3.701550e-01 0.000000e+00 0.000000e+00
 0.000000e+00 0.000000e+00 8.979428e-01 1.020572e-01 0.000000e+00
 0.000000e+00 0.000000e+00 0.000000e+00 7.674985e-01 2.325015e-01
 0.000000e+00 0.000000e+00 0.000000e+00 0.000000e+00 0.000000e+00
<ENDHMM>
