~o
<STREAMINFO> 1 39
<VECSIZE> 39<NULLD><MFCC_D_A_0><DIAGC>
~h "g"
<BEGINHMM>
<NUMSTATES> 5
<STATE> 2
<MEAN> 39
 -1.864242e+01 -5.664550e-01 -4.373278e+00 -2.134811e-01 -3.652320e+00 -2.554176e+00 -2.919704e+00 -1.282951e+00 -3.449593e+00 -1.105543e+00 -1.232735e+00 -1.593719e+00 3.187741e+01 2.796620e-01 -2.392829e-01 -1.041694e-01 -7.742190e-02 2.816634e-01 3.673104e-02 -1.790853e-01 -1.105345e-01 5.072056e-04 1.345807e-01 -1.340952e-01 -6.219429e-02 7.567712e-01 1.790837e-01 -3.129791e-01 -1.435583e-01 -2.841325e-01 -1.098983e-01 -1.047490e-01 -9.936918e-02 5.286791e-02 -3.011924e-03 1.051661e-01 9.682073e-03 3.619289e-02 5.931175e-01
<VARIANCE> 39
 2.835180e+01 1.829279e+01 2.455343e+01 1.789485e+01 1.750923e+01 2.247294e+01 1.989771e+01 2.443780e+01 2.954824e+01 2.176527e+01 1.834640e+01 1.578454e+01 3.017665e+01 1.864675e+00 3.413816e+00 2.669082e+00 2.601700e+00 3.195904e+00 2.591926e+00 2.768564e+00 2.891216e+00 2.879054e+00 2.958862e+00 2.032478e+00 1.769584e+00 5.061932e+00 2.480383e-01 6.148110e-01 4.628386e-01 5.862941e-01 5.417900e-01 5.270665e-01 5.174597e-01 4.744341e-01 5.307753e-01 5.373320e-01 4.099247e-01 3.455863e-01 9.717212e-01
<GCONST> 1.156643e+02
<STATE> 3
<MEAN> 39
 -1.305591e+01 -7.605099e+00 -7.553003e+00 -4.928125e+00 -1.777084e+00 -4.421161e+00 -6.038900e+00 -2.481463e+00 -5.176585e+00 1.787094e-01 -3.587212e+00 -1.853841e+00 4.744690e+01 8.669439e-01 -2.194812e+00 -1.561993e+00 -2.247934e+00 -2.222120e-01 -8.146453e-01 -1.132849e+00 1.440464e-01 4.555516e-01 1.109205e+00 -6.062785e-02 4.566790e-01 4.473680e+00 4.896339e-01 6.048831e-01 5.796159e-01 7.592601e-02 -8.056759e-01 -4.339574e-01 -2.472869e-01 -1.241158e-01 -1.672065e-01 -2.434073e-01 2.919224e-01 -1.083931e-01 -7.869494e-02
<VARIANCE> 39
 3.575499e+01 9.160119e+01 9.685764e+01 8.366895e+01 6.910586e+01 5.586089e+01 5.207037e+01 5.159690e+01 4.329947e+01 5.080972e+01 3.056777e+01 3.477883e+01 8.864314e+01 3.622561e+00 7.528964e+00 7.381743e+00 6.829008e+00 7.447349e+00 5.863437e+00 5.002144e+00 4.829230e+00 4.715187e+00 4.568251e+00 3.592867e+00 3.698948e+00 8.904552e+00 6.630139e-01 2.023929e+00 1.464437e+00 1.664622e+00 1.281744e+00 1.011612e+00 1.122744e+00 1.073558e+00 8.772698e-01 1.186895e+00 6.428552e-01 7.879237e-01 2.024090e+00
<GCONST> 1.478036e+02
<STATE> 4
<MEAN> 39
 -6.834580e+00 -7.287035e+00 -6.214506e+00 -7.990743e+00 -7.507508e+00 -9.177563e+00 -1.128630e+01 -2.767654e+00 -5.496728e+00 6.791859e-01 -1.447218e+00 -1.757774e+00 5.648244e+01 2.531475e+00 2.657315e-01 7.078252e-01 -4.253174e-01 -2.163768e+00 -1.041863e+00 -1.293620e+00 1.310004e-01 -3.603607e-01 -7.953923e-01 9.226748e-01 -3.545626e-01 1.707075e+00 -1.545577e-01 -2.230730e-01 -2.759801e-01 1.415097e-01 1.994799e-01 4.006628e-01 3.625513e-01 3.000970e-01 1.583297e-01 -1.447168e-01 5.151317e-02 -2.097421e-02 -5.952694e-01
<VARIANCE> 39
 3.792756e+01 3.869496e+01 9.014360e+01 7.088886e+01 9.534162e+01 7.495129e+01 6.765612e+01 6.252797e+01 4.983575e+01 4.890822e+01 5.686842e+01 2.722909e+01 3.676795e+01 2.154778e+00 4.681283e+00 4.578712e+00 5.146706e+00 4.839415e+00 5.811608e+00 6.739409e+00 6.858604e+00 5.717718e+00 5.410640e+00 4.700998e+00 3.941198e+00 2.384016e+00 5.362396e-01 8.534095e-01 1.040145e+00 7.921979e-01 1.036940e+00 8.003951e-01 1.012803e+00 9.434143e-01 8.798766e-01 8.991591e-01 7.842591e-01 5.356013e-01 7.174215e-01
<GCONST> 1.409241e+02
<TRANSP> 5
 0.000000e+00 1.000000e+00 0.000000e+00 0.000000e+00 0.000000e+00
 0.000000e+00 7.987520e-01 2.012481e-01 0.000000e+00 0.000000e+00
 0.000000e+00 0.000000e+00 6.149254e-01 3.850746e-01 0.000000e+00
 0.000000e+00 0.000000e+00 0.000000e+00 6.666667e-01 3.333333e-01
 0.000000e+00 0.000000e+00 0.000000e+00 0.000000e+00 0.000000e+00
<ENDHMM>
