~o
<STREAMINFO> 1 39
<VECSIZE> 39<NULLD><MFCC_D_A_0><DIAGC>
~h "hh"
<BEGINHMM>
<NUMSTATES> 5
<STATE> 2
<MEAN> 39
 -2.005647e+01 -2.194486e+00 -7.005382e+00 -2.478440e+00 -3.463826e+00 -6.675082e-01 -1.931224e+00 -1.929789e-01 -6.993852e-01 -6.616928e-01 -6.254329e-01 -9.614190e-02 3.169422e+01 5.217638e-01 -6.221860e-01 -2.797584e-01 -4.511943e-01 1.314623e-02 2.512602e-01 9.916307e-02 4.748975e-03 1.186155e-01 -2.793174e-02 -2.209753e-01 -1.789307e-01 8.206872e-01 1.319141e-01 -3.151294e-01 -1.064826e-01 -1.794216e-01 -7.725061e-03 -2.407024e-02 5.201634e-03 -5.537425e-02 -7.167939e-03 -3.734364e-02 -5.816691e-02 -2.915204e-02 3.515297e-01
<VARIANCE> 39
 1.579527e+01 1.041666e+01 1.566165e+01 1.437486e+01 1.557477e+01 1.642746e+01 1.585262e+01 1.859310e+01 1.755537e+01 1.928185e+01 1.676536e+01 1.266730e+01 2.349117e+01 1.725554e+00 2.827817e+00 2.213313e+00 2.827765e+00 2.180261e+00 2.103193e+00 2.281833e+00 2.075027e+00 2.181511e+00 2.294337e+00 2.105743e+00 1.500455e+00 2.388880e+00 2.181116e-01 3.749290e-01 3.944290e-01 3.897212e-01 4.725688e-01 3.270599e-01 4.240398e-01 4.316467e-01 4.391527e-01 4.763163e-01 4.003240e-01 3.054751e-01 2.574077e-01
<GCONST> 1.049311e+02
<STATE> 3
<MEAN> 39
 -1.500258e+01 -1.357215e+01 -1.078202e+01 -1.038137e+01 -2.089868e+00 4.897935e-01 -8.663459e-01 -1.999516e+00 -1.098720e+00 -1.457306e+00 -2.251337e+00 -1.943693e+00 4.753708e+01 1.687474e-01 -7.015210e-01 -1.430514e-01 -5.132577e-01 1.564241e-01 4.067864e-02 1.906875e-01 -4.010087e-01 -3.411080e-01 -2.559676e-01 -1.849063e-01 -1.901326e-01 1.962762e+00 1.231435e-01 5.126522e-01 1.043987e-01 2.484630e-01 -8.935222e-02 -5.660044e-02 -8.838323e-02 -9.702226e-03 -6.612731e-02 -4.188947e-02 3.004421e-02 -2.527936e-02 -1.346732e-01
<VARIANCE> 39
 2.052385e+01 3.257775e+01 3.791916e+01 4.136156e+01 5.070130e+01 5.305750e+01 5.685999e+01 3.878280e+01 3.406119e+01 2.796882e+01 3.031790e+01 3.338741e+01 4.848973e+01 1.730742e+00 3.349340e+00 2.063134e+00 2.916742e+00 2.420935e+00 2.530551e+00 2.491191e+00 2.356606e+00 1.962494e+00 2.078920e+00 2.349266e+00 1.984560e+00 2.821367e+00 5.659743e-01 2.785102e-01 4.180547e-01 4.103384e-01 4.720320e-01 5.410740e-01 5.892200e-01 4.129309e-01 3.864595e-01 4.341970e-01 4.652937e-01 3.527332e-01 3.480206e-01
<GCONST> 1.188776e+02
<STATE> 4
<MEAN> 39
 -8.072940e+00 -1.116657e+01 -9.958695e+00 -1.131484e+01 -5.505788e+00 -8.127083e-01 -1.940385e+00 -3.553610e+00 -4.626565e+00 -4.075721e+00 -4.057682e+00 -3.490808e+00 5.893286e+01 2.492822e+00 -3.481698e-01 -8.806486e-02 -1.266080e+00 -1.530173e+00 -7.091424e-01 -1.254438e+00 -2.959717e-02 -8.900104e-02 -2.157555e-01 2.208685e-02 -5.429684e-01 2.816711e+00 -2.816070e-01 -5.090215e-01 -5.253597e-02 -2.210986e-01 -3.024925e-02 -3.694138e-02 -8.603957e-02 2.667066e-01 2.707308e-01 1.961463e-01 1.551310e-01 9.972739e-02 -1.002477e-01
<VARIANCE> 39
 4.207295e+01 4.273451e+01 5.421599e+01 6.659895e+01 8.044467e+01 7.486971e+01 9.119392e+01 8.251571e+01 6.811842e+01 4.352345e+01 6.366615e+01 3.753857e+01 4.352251e+01 2.566786e+00 3.787395e+00 2.736450e+00 2.878341e+00 3.826052e+00 4.350764e+00 4.957473e+00 4.383399e+00 4.322319e+00 3.007375e+00 3.507816e+00 2.861241e+00 2.122949e+00 7.219810e-01 3.951842e-01 3.113900e-01 5.154097e-01 6.366132e-01 5.600374e-01 7.611294e-01 5.257487e-01 6.060953e-01 3.918021e-01 4.531786e-01 3.503804e-01 5.661453e-01
<GCONST> 1.315147e+02
<TRANSP> 5
 0.000000e+00 1.000000e+00 0.000000e+00 0.000000e+00 0.000000e+00
 0.000000e+00 8.260869e-01 1.739130e-01 0.000000e+00 0.000000e+00
 0.000000e+00 0.000000e+00 8.557114e-01 1.442886e-01 0.000000e+00
 0.000000e+00 0.000000e+00 0.000000e+00 7.446808e-01 2.553191e-01
 0.000000e+00 0.000000e+00 0.000000e+00 0.000000e+00 0.000000e+00
<ENDHMM>
