~h "sil"
<BEGINHMM>
<NUMSTATES> 5
<STATE> 2
<MEAN> 39
 -2.128882e+01 -2.072772e+00 -6.860131e+00 -1.478601e+00 -3.306469e+00 -5.812969e-01 -1.933797e+00 -1.993387e-01 -9.698024e-01 -4.993867e-01 -6.254422e-01 -1.687068e-01 3.015085e+01 1.281669e-01 2.205613e-02 9.755228e-02 -1.225133e-01 2.123431e-02 2.892551e-02 3.107597e-02 -1.184116e-01 -4.911901e-02 8.591335e-02 -8.454148e-03 7.789376e-03 2.196661e-01 1.794311e-01 -5.160996e-02 3.280485e-03 -1.140835e-01 -8.835151e-02 -3.813331e-02 -2.315468e-02 -1.499416e-02 -5.631877e-02 -3.344540e-02 -4.926952e-02 -5.558953e-02 2.465199e-01
<VARIANCE> 39
 3.978282e+00 6.220746e+00 9.193674e+00 9.762557e+00 1.151990e+01 1.347537e+01 1.397254e+01 1.426017e+01 1.558813e+01 1.491066e+01 1.473100e+01 1.287784e+01 5.829141e+00 8.130630e-01 9.339134e-01 1.311571e+00 1.491714e+00 1.593522e+00 1.559920e+00 1.690514e+00 1.845622e+00 2.052342e+00 1.940224e+00 1.911765e+00 1.558593e+00 1.277093e+00 2.000000e-01 2.000000e-01 2.000000e-01 2.019593e-01 2.114218e-01 2.150001e-01 2.286599e-01 2.332300e-01 2.553965e-01 2.554336e-01 2.520828e-01 2.050923e-01 2.514230e-01
<GCONST> 8.781898e+01
<STATE> 3
<MEAN> 39
 -2.122226e+01 -1.842011e+00 -6.525460e+00 -1.761026e+00 -3.039038e+00 -3.914817e-01 -1.515219e+00 -2.996545e-01 -1.175821e+00 -1.418904e-01 -7.477289e-01 -8.065552e-02 3.045484e+01 1.093482e+00 -3.246051e-01 8.872434e-02 -8.513641e-01 -4.583223e-01 -1.563199e-01 -1.078013e-02 -1.962021e-01 -2.895629e-01 -7.721311e-02 -1.853613e-01 -2.654301e-01 1.539722e+00 4.467329e-01 -2.148599e-01 -6.447020e-03 -3.756717e-01 -2.293920e-01 -1.174687e-01 -1.279951e-01 -6.064919e-02 -1.198787e-01 -1.111889e-01 -6.023696e-02 -1.582130e-01 7.297603e-01
<VARIANCE> 39
 6.725829e+00 6.154447e+00 1.164797e+01 1.303324e+01 1.345530e+01 1.346070e+01 1.482818e+01 1.522855e+01 1.638693e+01 1.535999e+01 1.447054e+01 1.392619e+01 9.957367e+00 3.310942e+00 3.063388e+00 4.102746e+00 4.623148e+00 3.751655e+00 3.290884e+00 3.035949e+00 3.000311e+00 3.341662e+00 2.710611e+00 2.941900e+00 2.220490e+00 6.414609e+00 3.912592e-01 3.528840e-01 5.091021e-01 6.236892e-01 5.082046e-01 4.631531e-01 4.377688e-01 4.707022e-01 5.492363e-01 4.291762e-01 4.293548e-01 3.655694e-01 9.086474e-01
<GCONST> 1.105493e+02
<STATE> 4
<MEAN> 39
 -1.827732e+01 -3.536013e+00 -6.339050e+00 -4.324666e+00 -4.130770e+00 -1.180976e+00 -1.980035e+00 -8.582178e-01 -1.598375e+00 -3.930629e-01 -1.340552e+00 -1.014548e+00 3.536162e+01 1.787064e+00 -6.615139e-01 6.151093e-02 -1.530071e+00 -8.248802e-01 -2.446975e-01 -3.074422e-01 -3.438248e-01 -5.069002e-01 -2.151387e-01 -3.118620e-01 -4.910517e-01 2.620471e+00 1.016228e-01 -6.063100e-02 3.739735e-02 -7.795813e-02 -9.337314e-02 2.097548e-03 -1.049227e-01 -2.184264e-03 -5.948435e-02 -7.417692e-02 2.340987e-02 -6.469075e-02 2.537548e-01
<VARIANCE> 39
 3.940432e+01 3.646953e+01 4.438273e+01 4.918768e+01 4.049871e+01 3.244503e+01 3.053769e+01 2.939027e+01 2.930674e+01 2.439043e+01 2.482935e+01 2.082926e+01 6.850466e+01 5.182849e+00 4.698948e+00 5.255406e+00 7.729194e+00 4.907389e+00 4.309760e+00 4.109827e+00 4.046134e+00 3.961985e+00 3.560758e+00 3.271662e+00 2.850389e+00 1.388692e+01 4.831735e-01 5.383581e-01 5.097808e-01 7.218677e-01 5.921714e-01 5.123984e-01 5.790832e-01 5.467004e-01 5.723391e-01 5.636327e-01 4.825706e-01 4.487144e-01 8.976838e-01
<GCONST> 1.304756e+02
<TRANSP> 5
 0.000000e+00 1.000000e+00 0.000000e+00 0.000000e+00 0.000000e+00
 0.000000e+00 4.513557e-01 5.486444e-01 0.000000e+00 0.000000e+00
 0.000000e+00 0.000000e+00 2.208380e-01 7.791619e-01 0.000000e+00
 0.000000e+00 0.000000e+00 0.000000e+00 2.073733e-01 7.926267e-01
 0.000000e+00 0.000000e+00 0.000000e+00 0.000000e+00 0.000000e+00
<ENDHMM>
~h "sp"
<BEGINHMM>
<NUMSTATES> 3
<STATE> 2
<MEAN> 39
 -1.653222e+01 -3.410306e+00 -7.545013e-01 -9.201806e+00 -1.006978e+01 -2.709582e+00 -3.318274e+00 -3.280982e+00 -3.032495e+00 1.801418e-03 -1.360497e+00 -1.473587e+00 4.222143e+01 2.023873e+00 -1.323584e+00 1.719169e+00 -3.441529e+00 -2.261066e+00 -1.602837e-01 -4.369109e-01 -8.687700e-01 -1.246701e+00 -6.718377e-01 -8.456109e-01 -1.137771e+00 5.911758e+00 5.868865e-01 -1.282865e-01 1.659983e-01 -7.623064e-01 -6.314840e-01 -4.036598e-01 -4.147015e-01 -1.312740e-01 -2.528307e-01 -3.542605e-02 -7.189544e-02 -1.958326e-01 1.011865e+00
<VARIANCE> 39
 3.136680e+01 4.418600e+01 1.076805e+02 8.402299e+01 7.721525e+01 5.098195e+01 5.437561e+01 4.983368e+01 3.832176e+01 3.584451e+01 3.676221e+01 2.480781e+01 1.104607e+02 3.480933e+00 5.268664e+00 1.010049e+01 8.103984e+00 6.997187e+00 6.151503e+00 6.425458e+00 6.272045e+00 5.730775e+00 5.070772e+00 5.349524e+00 4.046531e+00 6.775097e+00 6.597384e-01 5.952911e-01 1.197371e+00 1.492225e+00 1.343279e+00 8.497375e-01 7.926658e-01 9.569631e-01 1.086597e+00 6.424446e-01 8.312309e-01 6.090145e-01 2.231045e+00
<GCONST> 1.453439e+02
<TRANSP> 3
 0.000000e+00 1.000000e+00 0.000000e+00
 0.000000e+00 5.348226e-01 4.651774e-01
 0.000000e+00 0.000000e+00 0.000000e+00
<ENDHMM>
~h "aa"
<BEGINHMM>
<NUMSTATES> 5
<STATE> 2
<MEAN> 39
 -6.111929e+00 -1.161839e+01 -1.364066e+01 -1.507256e+01 -6.830571e+00 7.616977e-01 -3.480376e+00 -4.351298e-01 -1.845494e+00 7.184673e-01 -1.947272e+00 -5.811256e+00 5.396333e+01 1.385613e+00 -9.999295e-01 -1.126446e+00 -1.297927e+00 5.460099e-01 1.603097e+00 1.922413e-01 -4.359407e-01 -4.153989e-01 -1.802600e-01 1.171121e-01 -6.217699e-01 1.667841e+00 -1.895809e-01 1.637683e-01 3.060442e-01 1.975725e-01 -1.728954e-01 -8.335325e-02 6.809996e-03 -4.893344e-02 -1.700088e-01 -6.506402e-02 2.004261e-01 2.173526e-01 -1.573977e-01
<VARIANCE> 39
 5.852394e+01 4.736513e+01 3.563872e+01 8.253026e+01 6.399911e+01 9.895944e+01 6.760574e+01 6.627510e+01 6.278514e+01 5.222237e+01 6.204990e+01 4.304399e+01 1.308667e+02 3.273409e+00 2.791315e+00 3.250325e+00 4.261118e+00 4.559310e+00 4.818231e+00 3.732711e+00 4.042017e+00 4.449690e+00 3.582196e+00 3.541865e+00 3.540771e+00 6.075401e+00 6.201368e-01 4.907217e-01 4.644269e-01 7.269146e-01 6.218970e-01 7.510674e-01 6.327849e-01 7.813480e-01 9.305061e-01 6.296710e-01 6.320866e-01 5.821573e-01 9.280958e-01
<GCONST> 1.380078e+02
<STATE> 3
<MEAN> 39
 9.713851e-01 -1.515667e+01 -1.955113e+01 -1.605305e+01 -5.541108e+00 2.530269e+00 -4.442291e+00 8.315286e-01 -3.397300e+00 -2.661602e+00 2.789286e-01 -5.323882e+00 6.197063e+01 1.329841e-01 -1.438519e-02 -3.399139e-01 5.814708e-01 2.476802e-01 -6.541255e-01 -4.238208e-01 4.309081e-01 2.987547e-01 -1.659945e-01 -1.524284e-01 1.659441e-01 -1.155444e-01 -4.701488e-02 4.989922e-02 6.192177e-02 7.258234e-02 -1.880033e-02 -1.369687e-01 -4.493457e-02 2.990808e-02 4.762314e-02 2.935918e-02 -5.789634e-02 1.220186e-02 -8.890057e-02
<VARIANCE> 39
 1.114990e+01 2.937569e+01 3.862899e+01 7.334203e+01 6.650147e+01 1.062965e+02 9.371873e+01 9.932575e+01 9.345011e+01 5.563094e+01 6.320587e+01 4.352305e+01 2.184722e+01 2.058375e-01 5.426438e-01 7.753664e-01 1.080704e+00 1.232660e+00 1.888369e+00 1.982055e+00 1.626775e+00 1.640746e+00 1.413499e+00 1.477267e+00 1.177556e+00 2.623362e-01 2.000000e-01 2.000000e-01 2.000000e-01 2.000000e-01 2.000000e-01 2.018394e-01 2.293093e-01 2.136028e-01 2.136002e-01 2.062166e-01 2.026891e-01 2.000000e-01 2.000000e-01
<GCONST> 1.020824e+02
<STATE> 4
<MEAN> 39
 -4.113768e+00 -1.158485e+01 -1.676201e+01 -5.609280e+00 -2.593113e+00 -6.528339e+00 -7.334046e+00 4.315972e+00 1.311203e+00 -3.488433e+00 -4.508892e+00 -2.233701e+00 5.125217e+01 -8.151310e-01 5.276234e-01 1.016334e+00 5.880647e-01 -3.337901e-01 -4.330802e-01 2.172080e-01 -7.837219e-02 -1.365786e-01 1.083428e-04 -6.422913e-02 2.346755e-01 -1.159945e+00 -1.493779e-01 3.935840e-02 1.830247e-01 -4.080306e-02 -8.867317e-02 1.498737e-01 1.958458e-01 -7.906121e-02 -1.441591e-01 -1.048290e-02 1.167919e-01 6.478100e-03 -9.397063e-02
<VARIANCE> 39
 5.940254e+01 3.767873e+01 6.079397e+01 5.242020e+01 6.176620e+01 7.551898e+01 9.145061e+01 7.460714e+01 9.453046e+01 4.546843e+01 4.478814e+01 3.455972e+01 1.028051e+02 1.152204e+00 2.042947e+00 2.367738e+00 2.714187e+00 2.942501e+00 3.663418e+00 3.560897e+00 3.420852e+00 3.147796e+00 2.808068e+00 2.605847e+00 2.214716e+00 1.748258e+00 2.128277e-01 3.291719e-01 3.652197e-01 3.908988e-01 4.422610e-01 4.976745e-01 5.898635e-01 5.365546e-01 5.320961e-01 4.741178e-01 4.094681e-01 3.641886e-01 2.865361e-01
<GCONST> 1.253621e+02
<TRANSP> 5
 0.000000e+00 1.000000e+00 0.000000e+00 0.000000e+00 0.000000e+00
 0.000000e+00 8.249564e-01 1.750436e-01 0.000000e+00 0.000000e+00
 0.000000e+00 0.000000e+00 9.422966e-01 5.770337e-02 0.000000e+00
 0.000000e+00 0.000000e+00 0.000000e+00 8.658912e-01 1.341088e-01
 0.000000e+00 0.000000e+00 0.000000e+00 0.000000e+00 0.000000e+00
<ENDHMM>
~h "ae"
<BEGINHMM>
<NUMSTATES> 5
<STATE> 2
<MEAN> 39
 -9.289909e+00 -1.258455e+01 -5.216219e+00 -1.092080e+01 -1.224512e+01 -6.705670e+00 -2.429281e+00 3.269312e+00 -2.711169e+00 -2.490195e+00 -5.177722e+00 -2.494890e+00 5.781964e+01 5.666451e-01 -1.585988e+00 -7.215989e-02 -8.293148e-01 -6.670058e-01 1.586821e-01 5.287165e-01 8.272789e-01 -9.560061e-02 -3.662629e-01 -3.557058e-01 -3.027360e-01 1.817956e+00 -3.736218e-01 3.034298e-01 -1.924834e-02 1.745432e-01 3.661243e-01 2.496786e-01 1.492000e-01 -2.420971e-01 -4.451178e-02 -2.897931e-02 1.074350e-01 6.798720e-02 -3.740566e-01
<VARIANCE> 39
 5.239941e+01 5.737444e+01 4.850226e+01 6.306421e+01 6.912054e+01 6.187419e+01 8.556568e+01 6.900641e+01 6.704005e+01 4.043721e+01 4.367992e+01 3.424089e+01 2.022342e+02 2.363725e+00 3.219574e+00 2.607331e+00 3.282274e+00 3.653915e+00 3.201560e+00 4.035561e+00 4.360835e+00 3.308224e+00 2.965166e+00 2.781030e+00 2.357649e+00 4.796606e+00 5.486262e-01 5.666156e-01 3.899480e-01 6.013358e-01 6.048673e-01 5.751524e-01 7.640975e-01 7.205387e-01 5.987971e-01 5.459811e-01 5.457777e-01 4.267266e-01 8.447519e-01
<GCONST> 1.335007e+02
<STATE> 3
<MEAN> 39
 -6.469852e+00 -1.783666e+01 -5.028388e+00 -1.380092e+01 -1.438754e+01 -4.525575e+00 -2.186872e-01 4.087432e+00 -3.704143e+00 -4.473468e+00 -6.618228e+00 -2.735497e+00 6.668136e+01 3.111470e-02 4.900377e-02 -2.576780e-01 1.163000e-01 3.355928e-01 4.358393e-02 -1.575306e-02 -8.004293e-02 5.273879e-02 -3.949247e-02 -2.262878e-01 5.339672e-02 -2.199933e-01 1.852561e-02 2.019990e-01 -1.449789e-02 6.788476e-02 5.057817e-02 -9.729635e-02 -1.179558e-01 -7.936271e-02 2.047989e-02 9.149490e-02 3.985130e-02 -3.964183e-03 -1.929309e-01
<VARIANCE> 39
 1.197344e+01 3.696647e+01 5.356746e+01 4.423397e+01 7.277431e+01 5.966501e+01 6.842854e+01 8.877041e+01 7.699764e+01 5.527911e+01 4.439688e+01 3.985005e+01 2.341886e+01 2.847836e-01 7.922479e-01 1.000051e+00 1.027122e+00 1.402200e+00 1.313804e+00 1.592006e+00 1.398991e+00 1.283900e+00 1.198730e+00 1.231760e+00 9.913378e-01 3.444908e-01 2.000000e-01 2.000000e-01 2.000000e-01 2.000000e-01 2.046106e-01 2.000000e-01 2.347454e-01 2.471518e-01 2.103431e-01 2.030853e-01 2.037139e-01 2.000000e-01 2.000000e-01
<GCONST> 1.006872e+02
<STATE> 4
<MEAN> 39
 -6.734898e+00 -1.062912e+01 -7.339755e+00 -9.689765e+00 -9.767853e+00 -6.497159e+00 -3.042698e+00 1.157151e+00 -2.334329e+00 -3.029432e+00 -6.026734e+00 -3.435994e+00 5.662052e+01 -9.410131e-01 2.168455e+00 4.574722e-01 1.208216e+00 7.524475e-01 9.202770e-03 -3.095883e-01 -1.181562e+00 -4.700750e-01 4.514667e-01 7.626383e-01 2.590434e-02 -2.585548e+00 -3.472065e-01 5.789486e-02 1.243138e-01 1.385555e-01 1.178121e-01 1.935483e-01 9.071997e-02 -1.197225e-01 -1.471217e-01 -4.664367e-02 8.952545e-02 7.528225e-02 -1.524288e-01
<VARIANCE> 39
 3.020279e+01 6.402634e+01 5.421788e+01 5.923965e+01 6.292731e+01 6.682359e+01 7.664123e+01 8.306120e+01 7.035221e+01 5.613723e+01 4.921015e+01 4.589492e+01 9.566165e+01 3.961537e+00 3.973141e+00 3.286874e+00 4.286501e+00 3.902455e+00 4.893260e+00 4.825420e+00 6.529721e+00 5.499010e+00 4.101430e+00 3.784608e+00 3.551401e+00 4.953454e+00 4.082059e-01 7.928903e-01 5.066513e-01 7.414811e-01 5.871840e-01 7.626976e-01 7.820410e-01 1.010772e+00 8.852919e-01 6.934944e-01 6.615875e-01 5.516203e-01 9.188290e-01
<GCONST> 1.393759e+02
<TRANSP> 5
 0.000000e+00 1.000000e+00 0.000000e+00 0.000000e+00 0.000000e+00
 0.000000e+00 7.547170e-01 2.452830e-01 0.000000e+00 0.000000e+00
 0.000000e+00 0.000000e+00 9.092813e-01 9.071877e-02 0.000000e+00
 0.000000e+00 0.000000e+00 0.000000e+00 8.282695e-01 1.717305e-01
 0.000000e+00 0.000000e+00 0.000000e+00 0.000000e+00 0.000000e+00
<ENDHMM>
~h "ah"
<BEGINHMM>
<NUMSTATES> 5
<STATE> 2
<MEAN> 39
 -3.605093e+00 -1.165302e+01 -1.077101e+01 -1.902272e+01 -8.295384e+00 1.080765e+00 -8.002192e+00 -3.247727e+00 -1.331339e-02 2.517719e-01 -3.016253e+00 -6.367116e+00 6.382190e+01 6.538495e-01 -1.652361e+00 -7.374808e-01 -1.179984e+00 6.634994e-02 9.574799e-01 -1.545213e-01 1.885523e-01 8.561670e-01 2.633060e-01 -4.479153e-01 -6.905696e-01 1.836170e+00 -4.347390e-01 4.238822e-01 2.131569e-01 5.619718e-01 2.532747e-01 -2.222589e-01 2.142568e-01 2.039045e-03 -2.058821e-01 -2.149190e-01 -2.112853e-02 2.112899e-01 -7.029810e-01
<VARIANCE> 39
 1.800248e+01 4.611889e+01 4.086593e+01 6.909093e+01 7.341809e+01 9.123665e+01 6.196951e+01 6.664226e+01 6.710439e+01 8.106417e+01 9.160861e+01 4.874435e+01 5.898068e+01 2.565558e+00 2.805787e+00 2.495250e+00 5.258039e+00 3.350620e+00 4.570341e+00 3.854866e+00 5.080361e+00 3.301161e+00 3.784353e+00 4.527638e+00 3.301953e+00 5.346200e+00 4.169958e-01 4.252028e-01 4.574438e-01 6.721614e-01 5.537103e-01 7.300689e-01 6.332084e-01 8.455402e-01 7.835428e-01 6.412631e-01 6.927629e-01 5.376806e-01 7.696029e-01
<GCONST> 1.353434e+02
<STATE> 3
<MEAN> 39
 -3.694100e+00 -1.373676e+01 -1.321589e+01 -2.009309e+01 -5.431153e+00 4.393948e-01 -7.323993e+00 -2.048699e+00 4.325008e-01 -1.128586e+00 -5.395417e+00 -5.102835e+00 6.558519e+01 8.650111e-03 2.021719e-01 1.518750e-01 1.998300e-01 -7.913695e-02 -5.355040e-01 4.997324e-02 1.352270e-01 -5.145315e-02 -1.041084e-01 -9.693765e-02 1.243533e-01 -3.645433e-01 -1.719702e-02 2.349398e-01 1.248122e-01 1.395787e-01 -1.016680e-01 -1.744327e-01 2.711754e-03 -5.607471e-02 -1.210015e-01 5.034762e-03 8.108894e-02 4.964923e-02 -2.385940e-01
<VARIANCE> 39
 1.373977e+01 4.453641e+01 3.114146e+01 5.745165e+01 7.058186e+01 1.001969e+02 8.720669e+01 6.760561e+01 6.261010e+01 7.483162e+01 8.207269e+01 6.498366e+01 2.551671e+01 3.000678e-01 9.849972e-01 8.326409e-01 1.291799e+00 1.763028e+00 1.704995e+00 1.868990e+00 1.614451e+00 1.443603e+00 1.553431e+00 1.541117e+00 1.600293e+00 4.878276e-01 2.000000e-01 2.000000e-01 2.000000e-01 2.000000e-01 2.095041e-01 2.311014e-01 2.451753e-01 2.713261e-01 2.494255e-01 2.464673e-01 2.438117e-01 2.518182e-01 2.000000e-01
<GCONST> 1.060891e+02
<STATE> 4
<MEAN> 39
 -6.078364e+00 -8.185733e+00 -7.967946e+00 -1.239055e+01 -7.358348e+00 -4.397469e+00 -6.666466e+00 -2.132053e+00 -1.931419e+00 -2.984784e-01 -4.482144e+00 -4.006780e+00 5.481237e+01 -1.243563e+00 1.865638e+00 1.153956e+00 2.027862e+00 4.571399e-01 -4.994550e-01 4.645432e-01 -6.821010e-01 -8.043313e-01 -3.922230e-01 2.130494e-01 4.812221e-01 -2.656977e+00 -3.791010e-01 -1.331738e-02 4.071410e-02 2.146122e-01 2.139912e-01 2.312640e-01 1.442810e-01 -8.149163e-02 -3.711547e-02 8.683067e-03 -3.851140e-02 3.257793e-02 -1.110506e-01
<VARIANCE> 39
 4.095441e+01 5.227736e+01 4.620787e+01 7.036954e+01 6.100261e+01 8.003487e+01 8.222780e+01 5.833301e+01 6.831434e+01 6.009061e+01 6.008014e+01 4.923822e+01 8.861938e+01 3.846394e+00 3.944292e+00 2.974956e+00 5.196310e+00 4.602275e+00 5.312066e+00 4.809167e+00 5.373137e+00 5.266482e+00 4.220826e+00 4.206259e+00 3.269158e+00 5.563996e+00 4.074361e-01 7.802261e-01 4.525973e-01 9.817772e-01 6.073890e-01 7.242513e-01 7.532011e-01 8.844234e-01 7.037966e-01 6.310933e-01 6.570323e-01 5.259041e-01 9.357585e-01
<GCONST> 1.394185e+02
<TRANSP> 5
 0.000000e+00 1.000000e+00 0.000000e+00 0.000000e+00 0.000000e+00
 0.000000e+00 7.041420e-01 2.958580e-01 0.000000e+00 0.000000e+00
 0.000000e+00 0.000000e+00 8.867497e-01 1.132503e-01 0.000000e+00
 0.000000e+00 0.000000e+00 0.000000e+00 8.154982e-01 1.845019e-01
 0.000000e+00 0.000000e+00 0.000000e+00 0.000000e+00 0.000000e+00
<ENDHMM>
~h "ao"
<BEGINHMM>
<NUMSTATES> 5
<STATE> 2
<MEAN> 39
 -2.038742e+00 -8.255529e+00 -1.155464e+01 -1.672203e+01 -1.051610e+01 1.146244e-01 -6.955582e+00 -4.203760e+00 -3.646392e+00 -1.424423e+00 1.357864e+00 -3.293794e+00 5.872165e+01 1.142224e+00 -4.821863e-01 -8.646525e-01 -1.835646e+00 -5.712497e-01 8.492657e-01 3.589154e-01 1.262016e-01 -1.449090e-01 -2.435955e-01 5.119003e-01 -3.451508e-02 1.141402e+00 -5.060748e-01 1.355866e-01 1.613292e-01 3.520333e-01 2.744814e-01 -1.077361e-01 1.648002e-01 1.433808e-01 8.665113e-03 -6.731130e-02 -1.589421e-01 1.081461e-01 -3.526834e-01
<VARIANCE> 39
 2.692600e+01 4.637435e+01 6.685427e+01 9.250804e+01 8.969532e+01 9.896478e+01 9.603157e+01 8.539147e+01 9.285308e+01 6.883137e+01 6.066786e+01 5.126415e+01 7.200947e+01 2.760263e+00 2.726714e+00 3.084996e+00 6.061601e+00 5.460946e+00 4.395088e+00 4.464458e+00 4.142179e+00 4.262006e+00 4.393137e+00 3.349722e+00 3.186285e+00 5.458127e+00 5.220218e-01 4.709243e-01 4.153488e-01 8.778375e-01 8.119870e-01 7.037979e-01 7.399884e-01 7.561455e-01 7.694268e-01 7.279750e-01 6.404721e-01 4.661516e-01 6.108257e-01
<GCONST> 1.389254e+02
<STATE> 3
<MEAN> 39
 1.370224e-02 -9.773870e+00 -1.614643e+01 -2.359333e+01 -8.455140e+00 4.682144e+00 -3.263993e+00 -1.816844e+00 -3.560953e+00 -2.851895e+00 1.055471e+00 -3.863877e+00 6.152959e+01 5.762633e-02 5.038642e-02 -2.214224e-01 1.203561e-01 1.729905e-01 -1.405755e-01 8.168440e-02 1.525055e-01 -6.073910e-03 -2.856374e-02 -9.218474e-02 5.522873e-02 -2.299348e-01 -3.600385e-02 3.886115e-02 2.755233e-02 1.586361e-01 3.999094e-02 -9.897973e-02 -5.600154e-02 -4.389880e-03 1.283435e-02 1.174046e-02 -5.680826e-03 2.718335e-03 -7.348936e-02
<VARIANCE> 39
 1.339747e+01 4.327196e+01 5.122633e+01 7.350728e+01 1.294597e+02 8.321162e+01 1.027475e+02 8.659380e+01 6.792187e+01 6.733706e+01 6.194752e+01 5.958982e+01 2.427092e+01 2.158379e-01 6.659769e-01 7.900650e-01 1.028758e+00 1.333704e+00 1.454628e+00 1.715338e+00 1.184594e+00 1.309461e+00 1.284591e+00 1.335308e+00 1.085227e+00 2.948135e-01 2.000000e-01 2.000000e-01 2.000000e-01 2.000000e-01 2.155908e-01 2.000000e-01 2.336388e-01 2.000000e-01 2.043284e-01 2.000000e-01 2.000000e-01 2.000000e-01 2.000000e-01
<GCONST> 1.027064e+02
<STATE> 4
<MEAN> 39
 -3.088137e+00 -7.215907e+00 -1.578979e+01 -1.235970e+01 -4.574027e+00 -1.084375e+00 -4.433614e+00 -4.550132e-01 -2.783234e+00 -2.537292e+00 -1.424943e+00 -1.662019e+00 5.129414e+01 -6.091223e-01 7.386476e-02 3.600007e-01 1.242338e+00 4.770485e-01 -6.177530e-01 -5.085024e-01 1.940097e-01 3.538642e-01 1.303057e-01 -3.661440e-01 4.735568e-02 -9.442624e-01 -1.032455e-01 -5.131258e-02 1.722972e-01 4.495706e-04 -1.146191e-01 -6.222640e-03 3.962175e-02 3.417860e-02 1.243509e-02 -2.246025e-03 -1.084079e-02 1.607278e-02 -1.445906e-02
<VARIANCE> 39
 5.194962e+01 3.632833e+01 5.844173e+01 8.243777e+01 8.654220e+01 6.829144e+01 1.126685e+02 7.097426e+01 6.760930e+01 6.275663e+01 6.570136e+01 4.752609e+01 8.484476e+01 9.093797e-01 2.125765e+00 2.640584e+00 3.019289e+00 4.130195e+00 3.695730e+00 4.483143e+00 3.613899e+00 3.733778e+00 3.580559e+00 2.872413e+00 2.970656e+00 1.791928e+00 2.000000e-01 2.586628e-01 3.565591e-01 4.582657e-01 5.683551e-01 5.493374e-01 6.882535e-01 5.956391e-01 6.053528e-01 6.072853e-01 5.110857e-01 4.961015e-01 2.219302e-01
<GCONST> 1.290702e+02
<TRANSP> 5
 0.000000e+00 1.000000e+00 0.000000e+00 0.000000e+00 0.000000e+00
 0.000000e+00 7.947020e-01 2.052980e-01 0.000000e+00 0.000000e+00
 0.000000e+00 0.000000e+00 9.290618e-01 7.093821e-02 0.000000e+00
 0.000000e+00 0.000000e+00 0.000000e+00 9.028213e-01 9.717868e-02
 0.000000e+00 0.000000e+00 0.000000e+00 0.000000e+00 0.000000e+00
<ENDHMM>
~h "aw"
<BEGINHMM>
<NUMSTATES> 5
<STATE> 2
<MEAN> 39
 -5.704576e+00 -1.372771e+01 -1.190006e+01 -9.308923e+00 -7.446381e+00 -3.543192e+00 -6.023230e+00 2.816344e-01 -2.002036e+00 -1.995147e+00 -4.339761e+00 -2.980768e+00 5.833476e+01 6.649187e-01 -1.247849e+00 -3.596456e-01 -4.686951e-01 1.235961e-01 2.853715e-01 -5.544204e-02 2.870614e-01 1.423147e-01 -3.572275e-01 -5.236864e-01 -9.752826e-02 1.345277e+00 -2.885634e-01 1.782270e-01 1.056169e-01 6.626660e-02 1.959701e-01 1.530932e-01 2.622732e-02 -1.289614e-01 -2.101679e-02 -8.207939e-04 9.835783e-02 7.770398e-02 -2.502559e-01
<VARIANCE> 39
 6.665646e+01 6.378757e+01 7.670765e+01 4.103275e+01 7.202299e+01 7.237825e+01 9.565212e+01 9.782631e+01 9.393354e+01 4.033681e+01 5.966487e+01 3.839042e+01 1.547296e+02 2.698923e+00 3.280650e+00 3.289670e+00 2.724665e+00 3.648979e+00 3.064474e+00 4.649954e+00 5.357377e+00 3.642996e+00 2.777671e+00 3.281338e+00 2.456270e+00 3.440001e+00 5.181596e-01 4.710795e-01 4.635289e-01 5.064387e-01 6.364220e-01 5.738015e-01 6.890878e-01 8.804191e-01 6.105455e-01 5.088382e-01 6.510196e-01 5.112222e-01 5.179229e-01
<GCONST> 1.351544e+02
<STATE> 3
<MEAN> 39
 -3.573139e+00 -1.720587e+01 -1.392736e+01 -1.479450e+01 -3.059203e+00 2.769442e-01 -5.364463e+00 -3.238859e+00 -9.907649e-01 -4.817773e+00 -5.084909e+00 -3.692785e+00 6.462418e+01 2.536626e-01 4.739115e-01 -3.666169e-01 -4.796914e-01 2.586279e-01 5.054463e-01 -2.602414e-01 -2.004851e-01 -8.342868e-02 1.007672e-01 4.528672e-01 1.039638e-02 -4.415556e-01 4.285536e-04 1.305054e-01 3.779470e-02 1.349299e-02 -1.011784e-01 -4.318578e-02 4.075564e-02 3.785182e-02 -4.908438e-02 1.414113e-02 2.989647e-02 2.792480e-02 -1.037578e-01
<VARIANCE> 39
 2.378344e+01 3.858793e+01 4.026523e+01 5.694727e+01 6.483862e+01 9.566305e+01 7.176031e+01 5.645399e+01 4.540465e+01 5.963294e+01 4.446225e+01 2.897577e+01 3.237634e+01 2.337925e-01 6.969479e-01 8.166661e-01 1.275618e+00 1.571175e+00 1.420242e+00 1.580967e+00 1.533946e+00 1.490078e+00 1.253411e+00 1.556059e+00 1.222105e+00 2.684288e-01 2.000000e-01 2.000000e-01 2.000000e-01 2.000000e-01 2.000000e-01 2.048639e-01 2.256846e-01 2.266453e-01 2.093810e-01 2.044350e-01 2.141065e-01 2.000000e-01 2.000000e-01
<GCONST> 1.011691e+02
<STATE> 4
<MEAN> 39
 -4.073836e+00 -6.040509e+00 -1.333415e+01 -1.718264e+01 -4.636457e+00 5.738125e-01 -3.797358e+00 -2.079385e+00 -6.639768e+00 -2.271815e+00 -6.435388e-01 -2.365022e+00 5.217935e+01 -7.344022e-01 7.260213e-01 7.125323e-01 1.298314e+00 -1.356978e-01 -9.736396e-01 1.452786e-01 7.625600e-04 -1.663274e-01 4.830023e-01 -5.472423e-02 2.305420e-01 -1.227020e+00 -1.761419e-01 -5.260276e-02 9.247421e-02 2.305685e-01 1.448905e-01 -8.435953e-02 -4.734434e-02 -1.418850e-02 1.287624e-01 1.759392e-02 -1.457654e-01 -2.731958e-02 -3.489948e-02
<VARIANCE> 39
 4.136831e+01 3.893885e+01 3.892467e+01 8.776485e+01 6.245250e+01 7.355803e+01 6.346939e+01 5.972913e+01 6.222904e+01 6.086438e+01 5.637865e+01 3.959890e+01 7.950031e+01 2.104866e+00 2.080694e+00 2.978266e+00 3.223035e+00 4.013597e+00 3.029079e+00 3.435704e+00 3.124951e+00 3.422650e+00 3.329384e+00 2.925421e+00 2.854939e+00 9.767885e-01 2.000000e-01 2.588854e-01 3.520787e-01 4.837929e-01 5.330077e-01 4.471836e-01 5.109087e-01 4.482668e-01 5.633715e-01 5.525287e-01 4.311458e-01 4.918954e-01 2.000000e-01
<GCONST> 1.253734e+02
<TRANSP> 5
 0.000000e+00 1.000000e+00 0.000000e+00 0.000000e+00 0.000000e+00
 0.000000e+00 8.410596e-01 1.589404e-01 0.000000e+00 0.000000e+00
 0.000000e+00 0.000000e+00 9.381443e-01 6.185567e-02 0.000000e+00
 0.000000e+00 0.000000e+00 0.000000e+00 8.967742e-01 1.032258e-01
 0.000000e+00 0.000000e+00 0.000000e+00 0.000000e+00 0.000000e+00
<ENDHMM>
~h "ax"
<BEGINHMM>
<NUMSTATES> 5
<STATE> 2
<MEAN> 39
 -1.070814e+01 -7.339656e+00 -2.610170e+00 -8.347806e+00 -1.155914e+01 -7.174812e+00 -7.437174e+00 3.658595e-01 -2.497202e+00 -1.743941e+00 -1.991983e+00 -1.624052e+00 5.045586e+01 1.160014e+00 -8.027185e-01 1.545765e-01 -6.448817e-01 -8.104464e-01 -1.674662e-01 -4.272849e-01 3.820970e-01 7.762459e-02 3.559962e-02 -2.007391e-01 -3.180544e-01 1.118673e+00 -4.902520e-01 2.586342e-01 -1.839762e-01 1.939242e-01 5.395611e-01 3.528075e-01 3.915623e-01 -1.156158e-01 -1.240882e-02 3.672023e-02 -2.227275e-02 -2.841385e-02 -4.197010e-01
<VARIANCE> 39
 6.447832e+01 4.459711e+01 5.847650e+01 6.421532e+01 7.798663e+01 6.759970e+01 7.322481e+01 4.958777e+01 5.341037e+01 4.443164e+01 4.640355e+01 3.395008e+01 2.083828e+02 3.565814e+00 3.585356e+00 3.613557e+00 4.131800e+00 4.651681e+00 3.775403e+00 4.366627e+00 4.473030e+00 4.427380e+00 3.560170e+00 3.438826e+00 2.836475e+00 6.838196e+00 8.304111e-01 6.972646e-01 6.157862e-01 8.079233e-01 1.088819e+00 8.539756e-01 9.383751e-01 7.844200e-01 7.110161e-01 6.894667e-01 6.872310e-01 5.045707e-01 1.350586e+00
<GCONST> 1.400651e+02
<STATE> 3
<MEAN> 39
 -6.193677e+00 -1.139468e+01 -4.743697e+00 -1.223778e+01 -1.194285e+01 -7.511273e+00 -7.026341e+00 1.674626e+00 -1.174810e+00 -1.635428e+00 -4.344401e+00 -3.385517e+00 5.893912e+01 -7.450637e-02 6.006359e-01 -3.174456e-01 5.032077e-01 7.408753e-01 3.391447e-01 2.131721e-01 -5.769318e-01 -2.731248e-01 4.351912e-02 5.074046e-03 -9.692020e-02 -1.131018e+00 -2.270256e-01 3.819213e-01 9.784441e-02 3.111064e-01 1.932134e-01 7.677305e-02 9.648978e-02 -2.830185e-01 -1.963126e-01 -3.695818e-02 8.006462e-02 6.656817e-02 -4.286819e-01
<VARIANCE> 39
 2.090120e+01 4.046782e+01 7.210835e+01 6.500913e+01 8.009467e+01 7.008736e+01 7.824272e+01 7.443352e+01 8.674252e+01 6.922084e+01 6.485072e+01 4.968394e+01 7.395069e+01 1.068774e+00 2.366848e+00 1.937983e+00 2.663853e+00 2.590647e+00 2.742394e+00 2.984665e+00 3.923049e+00 3.373928e+00 2.716142e+00 2.605298e+00 2.339015e+00 2.787422e+00 2.642338e-01 3.720709e-01 3.327046e-01 4.918003e-01 5.106216e-01 5.257441e-01 5.643120e-01 6.669558e-01 5.979196e-01 5.340059e-01 4.863976e-01 4.420182e-01 4.092423e-01
<GCONST> 1.272983e+02
<STATE> 4
<MEAN> 39
 -1.062721e+01 -2.327480e+00 -3.848782e+00 -4.084726e+00 -5.798940e+00 -5.313950e+00 -5.534968e+00 -3.674743e+00 -4.415122e+00 -2.344283e+00 -2.941470e+00 -2.654751e+00 4.412312e+01 -1.621277e+00 1.408655e+00 1.316566e-01 1.481651e+00 1.304338e+00 9.292295e-01 8.766605e-01 -6.144060e-01 -4.605654e-01 -1.663709e-01 1.916631e-02 1.472461e-01 -2.331090e+00 -1.629310e-01 -5.547950e-01 -9.290037e-02 -4.117413e-01 -2.624513e-01 -5.995714e-02 2.408855e-02 3.608920e-01 2.255956e-01 7.937174e-02 -9.114282e-03 8.840525e-02 6.738542e-01
<VARIANCE> 39
 5.626737e+01 3.479776e+01 4.189719e+01 4.512397e+01 4.634240e+01 5.285586e+01 4.879665e+01 5.706782e+01 4.930939e+01 4.069263e+01 4.284065e+01 3.170219e+01 9.836434e+01 4.537436e+00 5.607594e+00 4.139862e+00 6.359277e+00 5.442487e+00 5.318059e+00 4.773675e+00 6.131545e+00 5.880499e+00 5.150234e+00 4.276810e+00 3.275630e+00 9.450223e+00 5.224393e-01 7.147490e-01 4.889801e-01 8.888556e-01 7.634538e-01 7.218351e-01 6.774340e-01 7.925040e-01 8.158152e-01 7.397249e-01 6.379100e-01 5.213520e-01 1.208310e+00
<GCONST> 1.390362e+02
<TRANSP> 5
 0.000000e+00 1.000000e+00 0.000000e+00 0.000000e+00 0.000000e+00
 0.000000e+00 6.125574e-01 3.874426e-01 0.000000e+00 0.000000e+00
 0.000000e+00 0.000000e+00 8.075314e-01 1.924686e-01 0.000000e+00
 0.000000e+00 0.000000e+00 0.000000e+00 6.413891e-01 3.586109e-01
 0.000000e+00 0.000000e+00 0.000000e+00 0.000000e+00 0.000000e+00
<ENDHMM>
~h "axr"
<BEGINHMM>
<NUMSTATES> 5
<STATE> 2
<MEAN> 39
 1.339083e+00 -1.125954e+01 -1.473587e+01 -8.123332e+00 -7.113855e+00 -1.309179e+01 -1.506375e+01 3.259779e+00 1.173126e+00 -2.524330e+00 -6.517037e-01 6.609846e-02 5.763913e+01 5.136334e-01 -1.257844e-01 -9.301910e-01 3.460255e-01 7.034857e-01 -5.777271e-01 -6.302295e-01 5.085738e-01 6.399898e-01 -2.336564e-02 -3.768000e-01 1.211139e-01 -2.815996e-01 -3.613365e-01 2.065884e-01 2.531267e-01 9.002044e-02 9.559830e-03 2.239489e-01 3.341388e-01 -1.309062e-01 -8.683245e-02 -1.147747e-02 -1.003586e-01 -5.502939e-02 -1.894369e-01
<VARIANCE> 39
 1.688852e+01 3.533456e+01 8.329202e+01 7.225891e+01 8.837437e+01 1.055523e+02 1.055838e+02 9.183395e+01 8.830808e+01 5.143971e+01 3.595855e+01 3.226420e+01 2.249545e+01 2.034916e+00 1.682228e+00 2.791364e+00 2.035860e+00 2.604987e+00 3.079549e+00 3.997198e+00 3.567124e+00 3.113026e+00 2.018821e+00 2.056108e+00 1.831396e+00 1.124276e+00 3.398597e-01 2.537516e-01 3.546810e-01 3.463531e-01 4.233323e-01 4.837316e-01 6.328378e-01 5.766807e-01 4.922873e-01 3.411264e-01 3.385990e-01 3.260107e-01 2.000000e-01
<GCONST> 1.219325e+02
<STATE> 3
<MEAN> 39
 -2.512638e+00 -8.699139e+00 -1.441669e+01 -9.722859e-01 -1.640551e+00 -1.358237e+01 -1.089039e+01 5.966692e+00 3.088485e+00 -4.128087e+00 -6.248915e+00 1.530334e-02 4.986777e+01 -1.334800e+00 3.377251e-01 1.211205e+00 7.561074e-01 2.696349e-02 1.111531e+00 1.824370e+00 -1.119293e-01 -6.534334e-01 -3.776320e-01 -2.286860e-01 -2.296501e-01 -1.291854e+00 -2.781819e-01 -6.523198e-02 1.484791e-01 -1.617992e-01 -6.230490e-02 2.437797e-01 1.431457e-01 -1.516671e-01 -1.815340e-01 9.076334e-02 1.952273e-01 -8.306219e-02 -6.220317e-02
<VARIANCE> 39
 2.153637e+01 2.001237e+01 4.575190e+01 3.528412e+01 5.918757e+01 6.722368e+01 8.347495e+01 5.658241e+01 9.022847e+01 5.031134e+01 3.070494e+01 3.105678e+01 3.268199e+01 1.434270e+00 2.582572e+00 2.766781e+00 2.574691e+00 2.989360e+00 3.628088e+00 4.512124e+00 4.274697e+00 2.826048e+00 3.326031e+00 2.203718e+00 2.181722e+00 1.626295e+00 2.243525e-01 3.779242e-01 3.894983e-01 4.693068e-01 4.517932e-01 5.922597e-01 6.198784e-01 5.507891e-01 4.819894e-01 5.633685e-01 3.524047e-01 3.820737e-01 2.000000e-01
<GCONST> 1.220817e+02
<STATE> 4
<MEAN> 39
 -1.339740e+01 -7.700964e+00 -9.262591e+00 -2.380321e+00 -3.611218e+00 -4.231666e+00 -2.482713e+00 1.530126e+00 -1.769636e+00 -3.318823e+00 -3.165766e+00 -1.088520e+00 4.045995e+01 -7.951142e-01 2.867329e-01 2.934650e-01 -4.277743e-01 -2.975340e-01 5.821916e-01 2.461461e-01 -4.693186e-01 -2.294049e-01 3.048286e-01 3.021207e-01 -1.102991e-01 -5.231414e-01 1.491232e-01 -6.266148e-03 -9.906922e-02 -5.854466e-02 2.661710e-02 -6.810781e-02 -1.566623e-01 5.759307e-02 9.204804e-02 9.975660e-03 -1.303496e-02 3.289402e-02 1.552188e-01
<VARIANCE> 39
 4.831200e+01 3.692992e+01 3.757443e+01 3.108769e+01 3.144925e+01 3.686505e+01 4.027461e+01 4.628695e+01 4.261409e+01 3.635025e+01 3.765455e+01 3.017980e+01 7.522278e+01 3.306161e+00 2.922763e+00 2.437252e+00 2.629918e+00 2.526458e+00 3.492280e+00 2.897159e+00 3.454775e+00 3.270432e+00 2.712174e+00 2.501156e+00 2.294012e+00 3.070220e+00 2.669322e-01 4.792664e-01 4.151700e-01 4.830840e-01 4.192894e-01 5.284324e-01 5.625233e-01 5.749845e-01 5.015801e-01 4.673346e-01 4.411424e-01 4.038494e-01 3.959641e-01
<GCONST> 1.227723e+02
<TRANSP> 5
 0.000000e+00 1.000000e+00 0.000000e+00 0.000000e+00 0.000000e+00
 0.000000e+00 8.851905e-01 1.148095e-01 0.000000e+00 0.000000e+00
 0.000000e+00 0.000000e+00 8.144973e-01 1.855027e-01 0.000000e+00
 0.000000e+00 0.000000e+00 0.000000e+00 8.750000e-01 1.250000e-01
 0.000000e+00 0.000000e+00 0.000000e+00 0.000000e+00 0.000000e+00
<ENDHMM>
~h "ay"
<BEGINHMM>
<NUMSTATES> 5
<STATE> 2
<MEAN> 39
 -6.252779e+00 -1.379972e+01 -1.403818e+01 -1.509762e+01 -4.346730e+00 1.167588e+00 -2.972448e+00 -1.214023e+00 -9.879383e-01 -1.407556e+00 -4.653931e+00 -5.827129e+00 5.633481e+01 9.450868e-01 -1.257861e+00 -6.136528e-01 -6.808424e-01 6.884817e-01 1.009766e+00 -1.989690e-01 -5.315065e-01 8.273832e-02 -2.146022e-01 -3.183350e-01 -5.680516e-01 1.830522e+00 -2.663512e-01 2.567245e-01 2.799862e-01 2.434473e-01 -1.010148e-01 -1.231645e-01 -4.404199e-02 -2.953083e-02 -1.395774e-02 2.871128e-02 1.292713e-01 1.246711e-01 -2.954243e-01
<VARIANCE> 39
 4.657478e+01 4.583543e+01 3.650603e+01 7.098235e+01 6.983974e+01 8.161769e+01 6.574708e+01 6.391135e+01 5.814470e+01 4.641605e+01 5.653786e+01 5.016700e+01 1.106454e+02 2.849855e+00 2.881613e+00 2.630648e+00 3.470343e+00 3.680294e+00 3.658616e+00 3.453596e+00 3.494980e+00 2.903014e+00 2.773556e+00 2.966861e+00 2.689187e+00 5.356526e+00 5.284759e-01 4.911879e-01 4.039646e-01 5.745946e-01 5.196611e-01 6.104779e-01 6.020823e-01 6.821572e-01 5.440382e-01 5.015265e-01 5.504880e-01 4.543890e-01 8.353184e-01
<GCONST> 1.322892e+02
<STATE> 3
<MEAN> 39
 -3.551929e+00 -1.766578e+01 -1.366896e+01 -1.519056e+01 -4.057964e+00 1.055818e+00 -3.464068e+00 -1.836949e+00 -6.841623e-01 -3.173752e+00 -6.212296e+00 -6.279468e+00 6.415611e+01 -1.351623e-01 2.577267e-02 4.302570e-01 3.227243e-01 -4.789414e-01 -6.272379e-01 1.602568e-01 4.829273e-01 1.193224e-02 -1.825972e-01 -1.369693e-01 1.632631e-01 1.216702e-02 -4.304273e-02 1.221225e-01 1.147853e-01 -3.029649e-04 -1.642039e-01 -1.162996e-01 4.351086e-02 6.674039e-02 -5.507658e-02 2.181859e-02 6.651115e-02 5.608656e-02 -9.682518e-02
<VARIANCE> 39
 1.230836e+01 3.154266e+01 3.582919e+01 4.784420e+01 6.935372e+01 8.960265e+01 7.673090e+01 7.529433e+01 6.620615e+01 5.065702e+01 4.942237e+01 5.299153e+01 2.230203e+01 2.259393e-01 6.423162e-01 9.613405e-01 1.021335e+00 1.850210e+00 1.671187e+00 1.524115e+00 1.818095e+00 1.223035e+00 1.171260e+00 1.255881e+00 1.189067e+00 2.703961e-01 2.000000e-01 2.000000e-01 2.000000e-01 2.000000e-01 2.000000e-01 2.000000e-01 2.070262e-01 2.406356e-01 2.000000e-01 2.000000e-01 2.070084e-01 2.000000e-01 2.000000e-01
<GCONST> 1.005583e+02
<STATE> 4
<MEAN> 39
 -1.025034e+01 -8.213496e+00 -2.076646e+00 -1.038662e+01 -1.409295e+01 -6.494926e+00 -7.764909e-01 9.862475e-01 -3.652117e+00 -1.722636e+00 -2.994143e+00 -2.153151e+00 5.213305e+01 -6.400458e-01 1.082910e+00 5.525728e-01 3.537673e-01 -5.963643e-03 2.251274e-02 -1.020287e-01 -5.392031e-01 -2.671462e-01 3.277393e-01 4.404640e-01 1.745954e-01 -1.351482e+00 -2.474701e-02 -4.837793e-02 -1.567219e-01 8.583425e-03 2.244980e-01 1.664358e-01 -4.237704e-02 -9.451923e-02 4.687895e-02 -2.609065e-02 -6.113903e-02 -5.478664e-02 9.158532e-03
<VARIANCE> 39
 3.647335e+01 5.009113e+01 5.536011e+01 6.849702e+01 8.006631e+01 5.846710e+01 5.839746e+01 7.808714e+01 5.985402e+01 4.404282e+01 5.005381e+01 3.227044e+01 1.447013e+02 1.674924e+00 2.652742e+00 3.657432e+00 3.526024e+00 5.463652e+00 3.444310e+00 3.385651e+00 3.893049e+00 3.900610e+00 3.116702e+00 3.238511e+00 2.488395e+00 3.961917e+00 2.551109e-01 3.673620e-01 4.106992e-01 5.462968e-01 6.485193e-01 5.286528e-01 5.642653e-01 7.058482e-01 6.135139e-01 5.239725e-01 5.188608e-01 3.982280e-01 6.179469e-01
<GCONST> 1.310209e+02
<TRANSP> 5
 0.000000e+00 1.000000e+00 0.000000e+00 0.000000e+00 0.000000e+00
 0.000000e+00 7.875130e-01 2.124870e-01 0.000000e+00 0.000000e+00
 0.000000e+00 0.000000e+00 9.358668e-01 6.413317e-02 0.000000e+00
 0.000000e+00 0.000000e+00 0.000000e+00 9.083318e-01 9.166817e-02
 0.000000e+00 0.000000e+00 0.000000e+00 0.000000e+00 0.000000e+00
<ENDHMM>
~h "b"
<BEGINHMM>
<NUMSTATES> 5
<STATE> 2
<MEAN> 39
 -1.539179e+01 1.123993e+00 -3.164815e+00 2.756920e-01 -2.190304e+00 -1.750518e+00 -4.039399e+00 -3.605770e+00 -4.170936e+00 -1.991632e+00 -2.043409e+00 -2.426273e+00 3.344872e+01 -1.002301e-01 1.263071e-01 2.882762e-01 1.816321e-01 1.750715e-01 3.633431e-02 1.110805e-01 -1.870245e-02 -3.357762e-03 -1.286675e-01 -5.325632e-02 -2.034534e-02 2.390036e-01 9.801710e-02 -3.570158e-01 1.167246e-02 -3.010914e-01 -3.363526e-01 -2.283441e-01 -5.079575e-02 1.396639e-01 6.207255e-02 5.162261e-02 3.555945e-02 6.162933e-02 6.865460e-01
<VARIANCE> 39
 5.105329e+01 2.439446e+01 2.168605e+01 1.796725e+01 1.551834e+01 2.013248e+01 2.685605e+01 3.093209e+01 2.834413e+01 2.298642e+01 2.217230e+01 2.364206e+01 3.749387e+01 2.364737e+00 2.972173e+00 2.077456e+00 2.711866e+00 2.282970e+00 2.310394e+00 2.437408e+00 2.757742e+00 2.704211e+00 2.454268e+00 2.256196e+00 1.886602e+00 5.219665e+00 3.503698e-01 5.727274e-01 4.460977e-01 5.283957e-01 5.804327e-01 5.033073e-01 4.878050e-01 5.867664e-01 6.007169e-01 4.782218e-01 4.505022e-01 3.877539e-01 9.801492e-01
<GCONST> 1.172973e+02
<STATE> 3
<MEAN> 39
 -1.243791e+01 -1.152098e+00 -1.759968e+00 -1.296027e+00 -2.822983e+00 -3.640690e+00 -5.043123e+00 -4.115924e+00 -4.286711e+00 -3.029359e+00 -2.637415e+00 -2.931262e+00 4.331826e+01 4.780603e-01 -2.413329e+00 5.233764e-01 -1.807084e+00 -2.309072e+00 -1.849763e+00 -3.139377e-01 9.717104e-01 3.230325e-01 6.856366e-02 3.905428e-01 5.277812e-01 5.206376e+00 7.048603e-01 -3.503437e-01 3.902729e-01 -8.404756e-01 -1.097212e+00 -3.558636e-01 -5.696197e-01 -6.087486e-02 -3.503995e-01 1.235442e-01 1.076842e-01 -9.024983e-02 9.805198e-01
<VARIANCE> 39
 4.003198e+01 3.908577e+01 2.479987e+01 3.173721e+01 2.604419e+01 3.262787e+01 3.392255e+01 3.794430e+01 3.348770e+01 2.789002e+01 2.391559e+01 2.028222e+01 9.856332e+01 4.659088e+00 3.725443e+00 6.514700e+00 5.571187e+00 4.813670e+00 4.539482e+00 5.018360e+00 4.711274e+00 5.349053e+00 4.174287e+00 3.271618e+00 2.859392e+00 7.824776e+00 5.585158e-01 1.063458e+00 1.235425e+00 1.037375e+00 8.387286e-01 1.037660e+00 9.347945e-01 1.158708e+00 1.221505e+00 9.962196e-01 8.535353e-01 5.984288e-01 1.826542e+00
<GCONST> 1.371077e+02
<STATE> 4
<MEAN> 39
 -7.834214e+00 -6.679623e+00 1.343035e+00 -7.522398e+00 -1.223875e+01 -9.645319e+00 -8.233238e+00 -2.666559e+00 -5.543518e+00 -2.551248e+00 -1.347333e+00 -1.964518e+00 5.713339e+01 1.733328e+00 -1.298538e+00 1.864200e+00 -2.851960e+00 -3.488800e+00 -8.110054e-01 -1.424883e+00 -1.285287e-01 -1.265787e+00 7.834387e-02 8.365769e-02 -1.712401e-01 3.754792e+00 -2.238496e-01 6.539667e-01 1.250019e-02 1.035450e-01 4.487606e-01 7.610875e-01 -1.629112e-02 -2.980279e-01 -1.133709e-01 -1.450054e-02 -1.849885e-01 -2.233463e-01 -1.307958e+00
<VARIANCE> 39
 2.877787e+01 2.723671e+01 9.617358e+01 7.703480e+01 5.276553e+01 5.292353e+01 5.352913e+01 4.857830e+01 6.020228e+01 4.162549e+01 3.751804e+01 2.584694e+01 4.025412e+01 3.549014e+00 4.434907e+00 1.120674e+01 7.518960e+00 6.865580e+00 6.769522e+00 6.445911e+00 7.725473e+00 8.063292e+00 6.691097e+00 5.471799e+00 3.591508e+00 7.681444e+00 4.516360e-01 5.949184e-01 7.808867e-01 8.860654e-01 9.644513e-01 8.075756e-01 8.874190e-01 8.767038e-01 9.563556e-01 7.379601e-01 6.346292e-01 4.770005e-01 8.516434e-01
<GCONST> 1.415032e+02
<TRANSP> 5
 0.000000e+00 1.000000e+00 0.000000e+00 0.000000e+00 0.000000e+00
 0.000000e+00 7.788225e-01 2.211774e-01 0.000000e+00 0.000000e+00
 0.000000e+00 0.000000e+00 4.405378e-01 5.594622e-01 0.000000e+00
 0.000000e+00 0.000000e+00 0.000000e+00 4.793070e-01 5.206929e-01
 0.000000e+00 0.000000e+00 0.000000e+00 0.000000e+00 0.000000e+00
<ENDHMM>
~h "ch"
<BEGINHMM>
<NUMSTATES> 5
<STATE> 2
<MEAN> 39
 -2.259968e+01 -3.791925e+00 -2.551482e+00 -6.189270e+00 -3.047062e+00 -7.403358e-01 -3.527701e+00 -1.218636e+00 -1.700577e+00 -1.090914e+00 -8.836229e-01 -8.359714e-01 4.014263e+01 -1.840391e+00 -9.038179e-01 -2.418185e-01 -1.156291e+00 4.062461e-01 6.928838e-01 4.863466e-01 5.808319e-01 9.211708e-01 3.677209e-01 5.250581e-01 3.720170e-01 2.099653e+00 9.886716e-02 7.311817e-02 5.764998e-01 -1.505842e-01 -5.845776e-01 -2.377493e-01 -6.270825e-03 -1.961727e-01 -2.314476e-01 -4.232607e-02 -1.053393e-02 -4.033316e-02 8.041155e-01
<VARIANCE> 39
 2.279855e+01 4.305969e+01 2.806211e+01 5.108238e+01 2.488452e+01 2.414720e+01 1.967957e+01 2.104518e+01 2.129138e+01 1.971948e+01 1.479693e+01 1.330282e+01 1.080538e+02 3.413584e+00 4.612833e+00 5.064258e+00 5.513619e+00 4.891111e+00 2.964750e+00 2.756555e+00 3.262985e+00 2.961382e+00 2.435903e+00 2.053929e+00 1.713500e+00 1.298400e+01 5.521786e-01 1.111005e+00 6.801602e-01 1.550541e+00 8.971854e-01 5.735086e-01 5.536171e-01 5.622991e-01 5.287179e-01 5.137115e-01 4.251381e-01 3.479832e-01 2.594426e+00
<GCONST> 1.264909e+02
<STATE> 3
<MEAN> 39
 -3.008034e+01 -6.906119e+00 3.709772e+00 -9.933391e+00 -7.643360e+00 -1.357616e+00 1.397516e-01 -3.717402e-01 -5.164340e-01 -1.293035e+00 8.432731e-01 -2.500840e-01 5.703411e+01 6.681846e-01 -2.704867e-01 1.097583e-01 3.534304e-01 -7.051796e-01 -6.579297e-01 1.932193e-01 -1.775882e-02 -1.934934e-01 -1.596330e-01 -1.182965e-01 1.241193e-02 5.892484e-03 6.443889e-01 -5.373750e-02 -2.284634e-01 1.003682e-01 -4.379257e-02 -1.780238e-01 -2.509706e-01 -3.237252e-02 -9.591082e-02 -3.958663e-02 -8.049565e-02 -2.565661e-02 -5.964342e-01
<VARIANCE> 39
 2.159336e+01 2.482584e+01 2.372030e+01 2.863347e+01 3.469082e+01 2.613360e+01 2.423133e+01 2.159365e+01 2.001208e+01 1.897680e+01 1.504047e+01 1.350950e+01 2.365943e+01 3.137459e+00 1.158025e+00 1.917103e+00 1.528082e+00 1.837758e+00 1.907712e+00 2.024093e+00 1.611742e+00 1.477189e+00 1.460169e+00 1.300739e+00 1.221838e+00 2.876349e+00 4.948670e-01 2.588603e-01 3.418347e-01 3.371320e-01 3.324012e-01 3.690144e-01 4.125062e-01 3.246240e-01 3.157436e-01 2.964172e-01 2.746461e-01 2.565239e-01 3.491498e-01
<GCONST> 1.046615e+02
<STATE> 4
<MEAN> 39
 -1.763793e+01 -6.404228e+00 -3.042761e+00 -5.701979e+00 -8.740693e+00 -4.916620e+00 -2.899582e+00 -1.877167e-01 -1.462965e+00 -1.415744e+00 -1.142120e+00 -2.506847e-01 4.213264e+01 1.500264e+00 -1.095264e-01 -5.289180e-01 -1.739000e-01 -1.313243e-01 -2.404052e-01 -6.475343e-01 9.807537e-03 -1.036425e-01 5.821630e-02 -2.369066e-01 -2.381674e-01 -3.351933e-01 -1.823401e-01 -5.188988e-02 3.317531e-02 -2.130978e-01 6.620764e-02 1.824541e-01 4.427245e-02 1.652346e-02 4.543510e-02 6.138512e-02 4.054913e-02 -6.332269e-02 3.601458e-01
<VARIANCE> 39
 3.910291e+01 3.326471e+01 4.436652e+01 4.667587e+01 5.514821e+01 4.501871e+01 3.846237e+01 3.541233e+01 3.336309e+01 3.634274e+01 2.853594e+01 2.383504e+01 1.382530e+02 6.254871e+00 3.425115e+00 4.299713e+00 5.380779e+00 6.121710e+00 5.111907e+00 4.734684e+00 3.752869e+00 3.588885e+00 3.496564e+00 2.983474e+00 2.651143e+00 1.127564e+01 8.054019e-01 4.843478e-01 5.740041e-01 7.771205e-01 1.014938e+00 9.183063e-01 7.457787e-01 6.481719e-01 6.252516e-01 6.056595e-01 4.988222e-01 4.569986e-01 1.139003e+00
<GCONST> 1.347510e+02
<TRANSP> 5
 0.000000e+00 1.000000e+00 0.000000e+00 0.000000e+00 0.000000e+00
 0.000000e+00 8.464762e-01 1.535238e-01 0.000000e+00 0.000000e+00
 0.000000e+00 0.000000e+00 8.744549e-01 1.255452e-01 0.000000e+00
 0.000000e+00 0.000000e+00 0.000000e+00 8.864469e-01 1.135531e-01
 0.000000e+00 0.000000e+00 0.000000e+00 0.000000e+00 0.000000e+00
<ENDHMM>
~h "d"
<BEGINHMM>
<NUMSTATES> 5
<STATE> 2
<MEAN> 39
 -1.227160e+01 4.168901e+00 1.860921e+00 1.741809e+00 -3.477317e+00 -4.080640e+00 -5.392358e+00 -4.771234e+00 -5.698637e+00 -4.692558e+00 -5.681109e+00 -4.245147e+00 3.615468e+01 -1.094154e+00 -4.465240e-01 -4.599751e-01 -4.760314e-01 7.605333e-01 6.194417e-01 5.048807e-01 3.082064e-01 2.701558e-01 1.861468e-01 3.717958e-01 2.334465e-01 4.149819e-01 -4.076446e-02 -6.546136e-01 -1.555178e-01 -8.214085e-01 -5.598471e-01 -1.832209e-01 1.898858e-02 1.244750e-01 8.858386e-02 2.539324e-01 3.128027e-01 2.528008e-01 1.158095e+00
<VARIANCE> 39
 2.937638e+01 2.877122e+01 2.874598e+01 2.776808e+01 2.728664e+01 2.832417e+01 2.744890e+01 2.804776e+01 2.887466e+01 2.545294e+01 2.421001e+01 2.126694e+01 3.303997e+01 3.287447e+00 6.552696e+00 3.518090e+00 7.572063e+00 4.281205e+00 3.560468e+00 3.722878e+00 3.717410e+00 3.821797e+00 3.334338e+00 3.266297e+00 2.820788e+00 1.128613e+01 4.376876e-01 8.120726e-01 5.250197e-01 1.018581e+00 8.922260e-01 7.210351e-01 6.707299e-01 6.581377e-01 6.641575e-01 5.958675e-01 5.663239e-01 5.167022e-01 1.434907e+00
<GCONST> 1.289163e+02
<STATE> 3
<MEAN> 39
 -1.890114e+01 -3.120179e+00 -5.067854e+00 -3.387285e+00 -4.003898e+00 -1.961163e+00 -1.725536e+00 -2.771363e-01 -1.855760e+00 -1.371762e+00 -1.531536e+00 -8.141010e-02 3.584301e+01 -1.722231e-01 -4.174204e-01 -1.292687e-01 -6.596289e-01 -2.471931e-01 -2.220847e-01 3.394344e-02 7.645462e-02 1.070711e-01 1.361062e-01 2.177411e-01 1.804542e-01 1.255749e+00 2.397088e-01 9.333974e-02 2.038851e-01 -3.270253e-02 -2.312590e-01 -1.896275e-01 -1.463953e-01 -1.270975e-01 -1.150696e-01 -7.337552e-02 -8.424045e-02 -6.985226e-02 3.514921e-01
<VARIANCE> 39
 1.887691e+01 2.312544e+01 2.197782e+01 3.040536e+01 2.552870e+01 2.411165e+01 2.316805e+01 2.299191e+01 2.247478e+01 2.216836e+01 1.941369e+01 1.804506e+01 8.751921e+01 1.590024e+00 2.794741e+00 2.059014e+00 4.360910e+00 2.614364e+00 2.433872e+00 2.577754e+00 2.552124e+00 2.522727e+00 2.452523e+00 2.378107e+00 1.960366e+00 1.109098e+01 3.707452e-01 4.588197e-01 4.945057e-01 6.171662e-01 6.421462e-01 5.614255e-01 5.395545e-01 5.160117e-01 5.267826e-01 4.972566e-01 4.676313e-01 3.764664e-01 1.132915e+00
<GCONST> 1.184829e+02
<STATE> 4
<MEAN> 39
 -1.475999e+01 -3.600496e+00 7.210397e-01 -9.938160e+00 -1.036628e+01 -8.381681e+00 -5.209184e+00 -4.214669e+00 -4.707491e+00 -2.238058e+00 -1.856971e+00 -7.777717e-01 5.722279e+01 1.946216e+00 -4.174588e-01 2.120405e+00 -9.686456e-01 -3.261952e+00 -1.497584e+00 -1.562176e+00 -4.535168e-01 -6.293927e-01 -4.154795e-01 -1.232644e-01 -1.833023e-01 2.908855e+00 3.222013e-01 1.251106e-01 2.040136e-01 5.049000e-01 -6.489316e-03 4.234053e-01 -2.140475e-01 1.123802e-01 -5.541841e-03 -7.454518e-02 -1.663153e-01 -2.529806e-01 -1.288159e+00
<VARIANCE> 39
 4.044278e+01 4.330599e+01 6.518005e+01 4.306484e+01 5.793980e+01 4.456868e+01 4.998692e+01 5.422508e+01 4.595086e+01 3.235029e+01 3.016797e+01 2.376937e+01 6.647507e+01 3.270639e+00 4.118556e+00 6.278430e+00 5.890463e+00 5.575178e+00 5.091083e+00 5.077981e+00 5.872415e+00 5.866687e+00 4.528660e+00 4.237736e+00 3.268268e+00 1.024010e+01 8.144265e-01 7.373283e-01 1.216270e+00 8.598182e-01 1.243831e+00 8.889115e-01 1.018116e+00 7.909681e-01 8.405304e-01 7.067359e-01 6.203043e-01 5.062183e-01 9.540063e-01
<GCONST> 1.398015e+02
<TRANSP> 5
 0.000000e+00 1.000000e+00 0.000000e+00 0.000000e+00 0.000000e+00
 0.000000e+00 6.615178e-01 3.384822e-01 0.000000e+00 0.000000e+00
 0.000000e+00 0.000000e+00 8.157221e-01 1.842779e-01 0.000000e+00
 0.000000e+00 0.000000e+00 0.000000e+00 6.584209e-01 3.415792e-01
 0.000000e+00 0.000000e+00 0.000000e+00 0.000000e+00 0.000000e+00
<ENDHMM>
~h "dh"
<BEGINHMM>
<NUMSTATES> 5
<STATE> 2
<MEAN> 39
 -2.092783e+01 -1.475766e+00 -6.439616e+00 -1.432257e+00 -2.835170e+00 -1.911911e+00 -1.699009e+00 -9.041348e-01 -1.459556e+00 -1.410952e+00 -1.046377e+00 -5.751975e-01 3.224496e+01 3.589179e-01 3.064920e-01 3.503993e-01 3.380608e-03 -5.208098e-02 -2.367303e-01 -1.127437e-01 -1.021339e-01 -6.666255e-02 -5.568781e-02 -2.171070e-01 -2.293605e-01 7.578678e-01 1.901217e-01 1.072069e-02 8.835823e-02 4.835929e-02 -7.292311e-02 -6.051214e-02 -1.489665e-01 -1.490017e-01 -1.641892e-01 -9.349275e-02 -1.459614e-01 -1.720112e-01 2.251482e-01
<VARIANCE> 39
 8.819651e+00 1.163489e+01 9.290094e+00 1.091046e+01 8.911083e+00 1.980090e+01 1.346419e+01 2.353338e+01 1.710224e+01 1.828860e+01 1.628412e+01 1.190474e+01 3.046682e+01 1.199929e+00 1.221699e+00 1.225932e+00 1.172824e+00 1.360257e+00 1.879357e+00 2.081333e+00 2.189959e+00 2.273737e+00 2.567892e+00 1.497574e+00 1.293802e+00 1.771969e+00 2.000000e-01 2.051166e-01 2.003456e-01 2.000000e-01 2.843381e-01 2.634135e-01 4.173055e-01 4.639783e-01 3.672942e-01 4.917005e-01 2.653051e-01 2.651767e-01 2.345901e-01
<GCONST> 9.602689e+01
<STATE> 3
<MEAN> 39
 -1.159459e+01 1.805536e+00 -1.964090e+00 6.458352e-01 -4.353418e+00 -6.430367e+00 -6.898730e+00 -5.393826e+00 -6.472056e+00 -4.738883e+00 -7.207057e+00 -6.586950e+00 4.161658e+01 5.103478e-01 -5.250304e-01 -3.000929e-01 -4.565094e-01 -6.244558e-01 -4.990415e-01 -2.480058e-01 -2.199236e-01 8.643457e-02 -2.320713e-01 -9.349714e-02 -1.445096e-01 2.622359e+00 -2.141568e-01 -4.259790e-01 -2.517686e-01 -4.061637e-01 -2.999844e-01 4.073981e-02 1.615467e-01 2.152930e-01 2.596238e-01 1.946933e-01 2.987713e-01 3.506253e-01 4.089303e-01
<VARIANCE> 39
 2.944380e+01 2.345610e+01 1.999198e+01 1.648683e+01 2.325689e+01 3.046943e+01 2.622991e+01 2.699378e+01 3.303546e+01 4.555567e+01 2.839544e+01 2.137357e+01 5.611255e+01 5.161829e+00 3.186325e+00 2.820151e+00 2.460552e+00 3.093714e+00 3.675389e+00 4.880580e+00 2.440814e+00 2.629990e+00 2.449303e+00 3.006640e+00 3.471864e+00 5.049147e+00 8.909017e-01 5.621845e-01 4.762003e-01 5.548309e-01 7.407308e-01 6.810123e-01 8.207710e-01 4.989951e-01 4.186128e-01 4.601513e-01 4.004835e-01 5.518793e-01 8.492278e-01
<GCONST> 1.234449e+02
<STATE> 4
<MEAN> 39
 -1.031956e+01 -5.851447e+00 -4.942491e+00 -7.734692e+00 -1.238964e+01 -9.366251e+00 -6.631763e+00 -3.003122e+00 -3.011476e+00 -1.783359e+00 -3.532497e+00 -2.050545e+00 5.954059e+01 1.751416e+00 -1.924693e+00 7.878348e-01 -2.389252e+00 -2.531411e+00 -1.284128e+00 -1.072243e+00 1.027166e+00 3.154532e-03 1.228708e+00 1.935577e-02 5.061553e-01 3.491799e+00 -1.029989e-01 5.539704e-02 2.794804e-01 8.373580e-02 4.003246e-01 2.704801e-01 1.187156e-01 2.269757e-01 -1.962734e-01 4.492644e-02 -2.828842e-01 -2.570411e-01 -7.964110e-01
<VARIANCE> 39
 2.361813e+01 2.747768e+01 4.086463e+01 3.837132e+01 3.185532e+01 3.900941e+01 5.401156e+01 6.011639e+01 5.025965e+01 3.057313e+01 2.126342e+01 1.643266e+01 3.476488e+01 2.481080e+00 2.630775e+00 4.353631e+00 3.480437e+00 3.428369e+00 3.907683e+00 5.672729e+00 5.869969e+00 3.388803e+00 2.667056e+00 3.312723e+00 2.720380e+00 3.978202e+00 8.347431e-01 4.731882e-01 6.611998e-01 4.544360e-01 7.329141e-01 8.427866e-01 1.060883e+00 8.121234e-01 5.252126e-01 5.158725e-01 4.835428e-01 4.119879e-01 4.243684e-01
<GCONST> 1.273999e+02
<TRANSP> 5
 0.000000e+00 1.000000e+00 0.000000e+00 0.000000e+00 0.000000e+00
 0.000000e+00 8.409091e-01 1.590909e-01 0.000000e+00 0.000000e+00
 0.000000e+00 0.000000e+00 8.120806e-01 1.879195e-01 0.000000e+00
 0.000000e+00 0.000000e+00 0.000000e+00 7.227723e-01 2.772277e-01
 0.000000e+00 0.000000e+00 0.000000e+00 0.000000e+00 0.000000e+00
<ENDHMM>
~h "dx"
<BEGINHMM>
<NUMSTATES> 5
<STATE> 2
<MEAN> 39
 -1.239699e+01 -1.505695e+00 -4.900071e-01 -1.147366e+00 -6.600184e+00 -5.689494e+00 -5.453274e+00 -3.151153e+00 -3.207916e+00 -3.288074e+00 -4.024054e+00 -3.161926e+00 4.175521e+01 -1.262499e+00 1.970866e-01 -2.062175e-01 1.811038e-01 1.253287e+00 8.704730e-01 5.614397e-01 -1.796671e-01 -1.013572e-01 4.425165e-02 2.903286e-01 2.002233e-01 -8.026832e-01 3.024800e-01 -9.304205e-01 8.334028e-04 -9.775696e-01 -7.331737e-01 -3.427560e-01 -1.928014e-01 4.981100e-01 3.009159e-02 1.973752e-01 2.970785e-01 2.219816e-01 1.555808e+00
<VARIANCE> 39
 4.651326e+01 4.469622e+01 3.653881e+01 3.356316e+01 4.425544e+01 4.043380e+01 3.803372e+01 3.485845e+01 3.555827e+01 3.167197e+01 2.794934e+01 3.249439e+01 1.046662e+02 2.851425e+00 5.732130e+00 3.126695e+00 5.554229e+00 5.703104e+00 4.513673e+00 4.475538e+00 4.013767e+00 4.087414e+00 3.119934e+00 3.638146e+00 3.269439e+00 1.070604e+01 4.951558e-01 7.391039e-01 5.977932e-01 7.998043e-01 1.040160e+00 8.317125e-01 1.101920e+00 9.480022e-01 8.607072e-01 8.893199e-01 8.157368e-01 7.192940e-01 1.263689e+00
<GCONST> 1.363637e+02
<STATE> 3
<MEAN> 39
 -1.350864e+01 -8.293342e+00 -2.506288e-01 -9.044731e+00 -9.642406e+00 -7.351346e+00 -5.635117e+00 -5.329403e-01 -2.877332e+00 -1.390843e+00 -2.116874e-01 -3.305177e-01 5.471272e+01 6.498496e-01 -8.540144e-01 3.852978e-01 -6.490130e-01 -1.370854e+00 -7.872025e-01 -2.718227e-01 7.667433e-01 -3.238303e-01 1.676103e-01 3.605937e-01 3.590324e-01 1.505718e+00 3.947679e-01 1.200137e-01 1.642033e-02 2.345761e-01 -2.178560e-01 -5.355390e-02 -1.111389e-01 1.093257e-01 -7.310171e-02 -7.568216e-02 -1.996226e-01 -1.298222e-01 -4.413370e-01
<VARIANCE> 39
 6.683264e+01 4.324130e+01 5.249215e+01 4.652721e+01 6.201334e+01 4.669104e+01 5.425059e+01 3.666433e+01 3.742525e+01 3.291288e+01 2.181531e+01 2.359073e+01 9.154200e+01 4.336779e+00 4.030759e+00 3.176139e+00 6.549019e+00 5.013165e+00 4.095617e+00 5.377059e+00 4.676534e+00 3.434129e+00 3.507083e+00 3.446329e+00 2.448440e+00 1.169777e+01 8.194883e-01 7.277861e-01 6.097766e-01 1.037148e+00 9.681627e-01 9.295593e-01 7.768883e-01 7.442094e-01 6.031865e-01 5.252251e-01 6.064449e-01 4.382409e-01 1.761501e+00
<GCONST> 1.365764e+02
<STATE> 4
<MEAN> 39
 -1.238472e+01 -7.891409e+00 -3.207188e+00 -5.853806e+00 -9.913557e+00 -6.060506e+00 -3.410809e+00 1.989533e+00 -3.161911e+00 -3.170536e+00 -8.399817e-01 3.745992e-01 4.557291e+01 3.631980e-01 -1.243912e-01 -2.534571e-01 2.146505e-02 -2.383516e-01 -7.840759e-02 -1.214693e-01 4.196102e-01 4.299489e-02 -8.592262e-02 -9.288694e-02 1.284431e-01 -4.777356e-01 -1.398789e-01 1.662097e-01 -1.088461e-01 7.641761e-04 2.371786e-01 8.226632e-02 5.622280e-02 -8.120241e-02 6.058789e-02 -5.321175e-03 -1.040577e-01 -2.575150e-02 -1.066544e-01
<VARIANCE> 39
 5.342579e+01 3.554744e+01 6.313721e+01 3.908941e+01 5.853148e+01 4.037933e+01 7.659431e+01 4.190647e+01 3.411645e+01 4.418844e+01 2.848572e+01 2.413836e+01 1.501596e+02 1.897064e+00 1.672468e+00 2.621951e+00 2.038684e+00 2.679296e+00 2.379915e+00 2.835181e+00 2.983663e+00 2.304077e+00 2.610241e+00 2.090168e+00 1.716379e+00 1.783444e+00 2.573932e-01 3.073661e-01 2.819061e-01 3.832075e-01 4.536057e-01 3.565717e-01 4.722814e-01 4.812858e-01 3.646571e-01 4.701514e-01 4.273511e-01 2.754514e-01 3.776183e-01
<GCONST> 1.192691e+02
<TRANSP> 5
 0.000000e+00 1.000000e+00 0.000000e+00 0.000000e+00 0.000000e+00
 0.000000e+00 6.162362e-01 3.837638e-01 0.000000e+00 0.000000e+00
 0.000000e+00 0.000000e+00 6.176471e-01 3.823529e-01 0.000000e+00
 0.000000e+00 0.000000e+00 0.000000e+00 7.078652e-01 2.921348e-01
 0.000000e+00 0.000000e+00 0.000000e+00 0.000000e+00 0.000000e+00
<ENDHMM>
~h "eh"
<BEGINHMM>
<NUMSTATES> 5
<STATE> 2
<MEAN> 39
 -1.441847e+01 -6.518610e+00 -3.005409e+00 -8.667073e+00 -1.187481e+01 -5.408280e+00 -1.973371e+00 1.061723e+00 -2.263278e+00 -6.087481e-01 -2.018445e+00 -1.749328e+00 4.562959e+01 6.517213e-01 -6.974691e-01 3.951252e-01 -7.319590e-01 -7.957225e-01 -1.479338e-01 1.437342e-01 4.543175e-01 -1.418923e-01 -2.774463e-01 -1.780112e-01 -2.254871e-01 1.813524e+00 -1.095883e-02 2.940071e-02 -6.954808e-02 2.367993e-02 1.026755e-01 1.155070e-01 -4.266413e-02 -6.044288e-02 -3.045761e-02 -3.304193e-02 3.518474e-02 -3.543891e-03 -1.745666e-02
<VARIANCE> 39
 5.141053e+01 4.175319e+01 4.517876e+01 8.270659e+01 8.686201e+01 5.931865e+01 5.335707e+01 5.183488e+01 4.561034e+01 3.685818e+01 3.970969e+01 2.898690e+01 2.000674e+02 2.580394e+00 2.654632e+00 2.560916e+00 4.044270e+00 4.283711e+00 3.328225e+00 3.413448e+00 3.800604e+00 3.252645e+00 2.887673e+00 2.750421e+00 2.206181e+00 8.330119e+00 4.211740e-01 3.981031e-01 3.906250e-01 6.849446e-01 7.380435e-01 5.941573e-01 5.799072e-01 5.926921e-01 5.786963e-01 4.858175e-01 4.842719e-01 4.006324e-01 1.097551e+00
<GCONST> 1.316541e+02
<STATE> 3
<MEAN> 39
 -6.863672e+00 -1.293816e+01 -1.755620e+00 -1.389008e+01 -1.732515e+01 -7.683860e+00 -2.777089e+00 4.031766e+00 -3.114915e+00 -3.663278e+00 -3.354553e+00 -3.547640e+00 6.379015e+01 2.055786e-01 -6.903821e-02 -5.523580e-01 2.434143e-01 5.467456e-01 -3.963514e-02 -2.182819e-01 1.606063e-01 2.660700e-01 -2.475199e-01 -3.017705e-01 -2.185648e-02 7.156360e-02 -1.776714e-02 1.723844e-01 -1.696563e-02 9.971714e-02 1.036491e-01 -4.194903e-02 -5.820655e-02 -1.433545e-01 -1.625087e-02 7.225965e-02 -2.552586e-03 1.051508e-02 -2.332865e-01
<VARIANCE> 39
 1.424311e+01 3.516828e+01 5.451352e+01 5.531356e+01 5.883710e+01 6.358127e+01 7.480410e+01 8.039066e+01 7.498009e+01 5.540317e+01 5.714367e+01 3.921840e+01 2.523536e+01 2.835544e-01 8.216997e-01 9.711561e-01 9.097582e-01 1.263616e+00 1.257670e+00 1.536923e+00 1.647697e+00 1.381242e+00 1.392202e+00 1.268070e+00 1.036719e+00 6.198630e-01 2.000000e-01 2.000000e-01 2.000000e-01 2.000000e-01 2.009748e-01 2.007283e-01 2.453595e-01 2.839650e-01 2.249502e-01 2.068650e-01 2.092970e-01 2.000000e-01 2.000000e-01
<GCONST> 1.022073e+02
<STATE> 4
<MEAN> 39
 -6.862612e+00 -7.306363e+00 -5.043324e+00 -7.929855e+00 -9.754084e+00 -7.910657e+00 -5.381126e+00 3.700650e-01 -3.132092e+00 -3.317956e+00 -5.239440e+00 -3.591511e+00 5.502352e+01 -1.045453e+00 1.515996e+00 1.425785e-01 1.071059e+00 1.035421e+00 2.980124e-01 3.293898e-01 -1.171988e+00 -5.500093e-01 3.401057e-01 2.392908e-01 1.140456e-01 -1.652940e+00 -3.993012e-01 8.730797e-04 6.211158e-02 1.880049e-02 1.084137e-02 1.426300e-01 1.802851e-01 -2.151023e-02 -9.714305e-02 2.797494e-02 1.211527e-01 5.724440e-02 -1.120757e-02
<VARIANCE> 39
 3.042906e+01 4.476591e+01 4.524465e+01 5.172467e+01 5.821307e+01 5.829332e+01 7.212343e+01 7.369733e+01 7.873290e+01 5.805239e+01 5.126965e+01 4.753337e+01 8.191707e+01 4.706694e+00 2.867679e+00 2.565570e+00 3.388872e+00 3.702277e+00 3.819424e+00 4.215073e+00 5.856501e+00 4.316296e+00 3.804612e+00 3.824071e+00 3.395853e+00 2.322449e+00 4.402500e-01 4.900137e-01 4.065473e-01 5.402271e-01 5.288934e-01 5.507354e-01 6.365055e-01 8.787652e-01 6.842743e-01 6.113628e-01 5.732323e-01 4.912511e-01 4.197271e-01
<GCONST> 1.329463e+02
<TRANSP> 5
 0.000000e+00 1.000000e+00 0.000000e+00 0.000000e+00 0.000000e+00
 0.000000e+00 8.508291e-01 1.491709e-01 0.000000e+00 0.000000e+00
 0.000000e+00 0.000000e+00 9.074727e-01 9.252729e-02 0.000000e+00
 0.000000e+00 0.000000e+00 0.000000e+00 8.412904e-01 1.587096e-01
 0.000000e+00 0.000000e+00 0.000000e+00 0.000000e+00 0.000000e+00
<ENDHMM>
~h "el"
<BEGINHMM>
<NUMSTATES> 5
<STATE> 2
<MEAN> 39
 -7.350998e+00 -1.218703e+01 -6.420754e+00 -1.397183e+01 -1.265019e+01 -6.631347e+00 -3.201216e+00 3.150949e+00 -4.204755e-01 -2.035962e+00 -6.219193e+00 -3.691379e+00 5.968882e+01 6.086722e-01 -2.701840e-01 -6.365932e-01 -6.687554e-01 4.377590e-01 5.651193e-01 -3.878095e-01 -2.936690e-01 2.143731e-01 9.208491e-02 -2.956061e-01 -4.170299e-01 8.873069e-01 -1.020950e-01 1.942267e-01 -5.563839e-02 3.932849e-03 1.588455e-01 1.639946e-01 -2.123828e-02 -1.752361e-01 -5.079607e-02 1.079153e-01 1.700009e-01 3.146461e-02 -3.062554e-01
<VARIANCE> 39
 2.953540e+01 4.048660e+01 5.180365e+01 6.077455e+01 6.783291e+01 5.879906e+01 7.282402e+01 6.251798e+01 7.333020e+01 5.392675e+01 6.182653e+01 4.621909e+01 1.172759e+02 1.301756e+00 1.714160e+00 2.317145e+00 2.923980e+00 3.804221e+00 2.952846e+00 2.888462e+00 3.241942e+00 2.381868e+00 2.763132e+00 2.356905e+00 2.082274e+00 4.265965e+00 2.155364e-01 2.650360e-01 2.678624e-01 4.421437e-01 4.716650e-01 3.948218e-01 4.358933e-01 4.221291e-01 4.265166e-01 3.869938e-01 4.381872e-01 3.692603e-01 5.337936e-01
<GCONST> 1.242153e+02
<STATE> 3
<MEAN> 39
 -1.658513e+00 -4.728441e+00 -1.419150e+01 -2.431650e+01 -8.095851e+00 3.066128e+00 -4.455694e+00 -4.208998e+00 -2.250225e+00 -6.754137e-01 -1.529813e+00 -3.568434e+00 5.731860e+01 5.106047e-02 7.267620e-01 -1.164214e-02 -2.522403e-01 -8.926629e-02 1.219757e-01 1.538630e-01 -2.266937e-01 -4.893893e-01 -1.560077e-01 3.855098e-01 3.950801e-01 -7.515518e-01 -1.344629e-01 -9.085103e-02 1.061019e-01 3.060294e-01 2.025664e-02 -1.750413e-01 -2.858982e-02 1.100489e-01 8.460388e-02 -2.430286e-02 -1.136342e-01 -1.703135e-02 -6.076492e-02
<VARIANCE> 39
 1.356227e+01 4.685054e+01 5.406441e+01 6.847565e+01 7.219012e+01 6.568494e+01 7.977063e+01 5.748515e+01 5.827221e+01 5.724033e+01 6.140464e+01 4.939124e+01 4.542471e+01 5.494249e-01 1.426443e+00 1.217693e+00 3.156355e+00 2.006662e+00 2.562923e+00 2.159673e+00 2.461262e+00 2.490873e+00 2.305372e+00 2.504194e+00 2.303471e+00 7.929132e-01 2.000000e-01 2.000000e-01 2.026093e-01 3.460391e-01 3.760147e-01 3.575232e-01 3.458592e-01 4.045954e-01 4.010904e-01 4.229872e-01 3.559735e-01 3.993256e-01 2.000000e-01
<GCONST> 1.156837e+02
<STATE> 4
<MEAN> 39
 -1.218814e+01 -3.623223e+00 -8.796362e+00 -1.020355e+01 -5.419325e+00 -1.290237e+00 -3.639700e+00 -2.338510e+00 -2.603715e+00 -9.671863e-01 -2.264139e+00 -1.979735e+00 4.249078e+01 -7.022052e-01 -4.235178e-01 8.348381e-01 8.772683e-01 -1.481612e-01 -4.711893e-01 -8.669676e-02 3.380636e-01 1.369784e-01 -1.011596e-01 -2.159823e-01 -4.361128e-02 -1.406429e-01 1.127967e-01 -2.418168e-02 6.484570e-02 -2.038971e-01 -1.787045e-01 2.743167e-02 4.306994e-02 3.806639e-02 -1.008163e-01 -8.890604e-02 1.491904e-02 2.215819e-02 2.292740e-01
<VARIANCE> 39
 5.555922e+01 2.928312e+01 6.176729e+01 8.387144e+01 4.895489e+01 5.878511e+01 7.250678e+01 5.378639e+01 5.237133e+01 5.068653e+01 4.225488e+01 3.475875e+01 1.157084e+02 3.071851e+00 2.517137e+00 3.528108e+00 6.257169e+00 4.321099e+00 4.314065e+00 3.932243e+00 4.490360e+00 4.875185e+00 4.434064e+00 3.715777e+00 3.329841e+00 6.777957e+00 3.888855e-01 3.826471e-01 4.965265e-01 8.362429e-01 6.170300e-01 7.206214e-01 7.163651e-01 8.098531e-01 8.740583e-01 8.103062e-01 6.703348e-01 6.138756e-01 7.360198e-01
<GCONST> 1.365458e+02
<TRANSP> 5
 0.000000e+00 1.000000e+00 0.000000e+00 0.000000e+00 0.000000e+00
 0.000000e+00 8.388676e-01 1.611324e-01 0.000000e+00 0.000000e+00
 0.000000e+00 0.000000e+00 8.859252e-01 1.140748e-01 0.000000e+00
 0.000000e+00 0.000000e+00 0.000000e+00 8.781783e-01 1.218217e-01
 0.000000e+00 0.000000e+00 0.000000e+00 0.000000e+00 0.000000e+00
<ENDHMM>
~h "er"
<BEGINHMM>
<NUMSTATES> 5
<STATE> 2
<MEAN> 39
 -2.928404e+00 -1.330848e+01 -1.479143e+01 -8.202085e+00 -6.494392e+00 -1.028106e+01 -1.111805e+01 3.302783e+00 1.638728e+00 -2.152364e+00 -2.694366e+00 -1.280045e+00 5.690242e+01 1.758191e+00 -7.212865e-01 -1.332783e+00 -1.295000e-01 4.992362e-02 -6.145647e-01 -1.863680e+00 6.189793e-01 6.580003e-01 -1.475002e-01 -7.948902e-03 1.315544e-01 1.454321e+00 -5.080377e-01 1.996779e-01 1.667027e-01 1.237712e-01 1.135324e-01 2.639663e-01 1.843820e-01 -1.323580e-01 9.077561e-02 1.256952e-02 7.167704e-02 4.200696e-02 -2.369931e-01
<VARIANCE> 39
 5.522486e+01 3.100674e+01 5.653577e+01 4.646785e+01 6.554511e+01 7.560045e+01 1.008503e+02 7.446809e+01 9.087343e+01 5.309286e+01 4.448708e+01 3.204140e+01 1.081438e+02 4.057723e+00 2.501349e+00 3.084930e+00 3.294355e+00 3.549638e+00 4.250923e+00 5.029241e+00 4.409267e+00 5.285382e+00 3.277253e+00 2.813872e+00 2.885056e+00 4.683017e+00 8.173718e-01 5.034499e-01 5.460234e-01 5.987493e-01 4.830881e-01 6.609057e-01 9.121639e-01 6.305185e-01 7.907041e-01 5.298363e-01 4.905778e-01 5.341747e-01 6.732883e-01
<GCONST> 1.354895e+02
<STATE> 3
<MEAN> 39
 1.202222e+00 -1.522681e+01 -1.663155e+01 -7.429346e+00 -5.746943e+00 -1.362195e+01 -1.729828e+01 4.335510e+00 4.387173e+00 -6.687129e+00 -1.756524e+00 -5.692717e-01 6.304728e+01 -1.103888e-01 -1.051684e-03 1.907116e-01 1.822367e-01 -1.006965e-01 -1.304959e-01 -2.088463e-03 8.939096e-02 -1.582466e-01 -1.712013e-01 7.641293e-02 1.229250e-02 -9.978116e-02 -9.192968e-02 8.155046e-02 2.638897e-01 -2.377090e-02 -1.400239e-01 9.304885e-02 2.568141e-01 -1.051205e-01 -2.178928e-01 2.411649e-02 1.449457e-02 -4.408384e-03 -1.150420e-01
<VARIANCE> 39
 1.049856e+01 2.133872e+01 5.105582e+01 3.934073e+01 6.273528e+01 1.061774e+02 1.061867e+02 8.598789e+01 1.273692e+02 5.961584e+01 6.532746e+01 4.710943e+01 2.013765e+01 2.199004e-01 4.222394e-01 1.359913e+00 7.894244e-01 1.544268e+00 1.409318e+00 1.918088e+00 1.331507e+00 1.670052e+00 1.355504e+00 1.120220e+00 9.759532e-01 2.438603e-01 2.000000e-01 2.000000e-01 2.000000e-01 2.000000e-01 2.071552e-01 2.208399e-01 2.476555e-01 2.382979e-01 2.373342e-01 2.420774e-01 2.158139e-01 2.000000e-01 2.000000e-01
<GCONST> 1.015303e+02
<STATE> 4
<MEAN> 39
 -2.301661e+00 -1.160484e+01 -8.330187e+00 -8.053325e+00 -9.504840e+00 -1.093587e+01 -1.212447e+01 7.556294e-01 -3.156710e+00 -5.201800e+00 -2.849641e+00 -1.221929e+00 5.804034e+01 -1.658898e+00 1.467194e+00 1.961629e+00 -3.894281e-01 -4.112399e-01 1.164757e+00 1.785613e+00 -1.616265e+00 -9.929494e-01 5.367174e-01 -6.711233e-02 -2.703576e-01 -1.195620e+00 -2.879573e-01 2.352969e-01 -1.241988e-01 -2.331395e-02 2.882780e-01 1.842045e-01 -3.053746e-02 -5.882271e-02 1.048571e-01 1.308864e-01 6.742982e-02 -1.030891e-01 -1.092769e-01
<VARIANCE> 39
 3.083757e+01 4.306277e+01 7.121212e+01 5.872730e+01 7.146761e+01 9.517176e+01 9.580585e+01 9.340967e+01 7.980885e+01 4.594027e+01 5.806057e+01 3.352563e+01 5.439248e+01 4.022157e+00 3.045494e+00 2.810229e+00 4.245676e+00 5.538544e+00 4.523644e+00 5.770081e+00 5.153890e+00 3.971347e+00 3.579636e+00 3.972183e+00 3.231955e+00 3.571482e+00 4.033926e-01 6.165072e-01 5.670697e-01 6.604387e-01 9.311619e-01 7.012229e-01 1.105786e+00 9.164355e-01 6.496644e-01 5.376557e-01 6.798823e-01 4.778127e-01 6.308454e-01
<GCONST> 1.375627e+02
<TRANSP> 5
 0.000000e+00 1.000000e+00 0.000000e+00 0.000000e+00 0.000000e+00
 0.000000e+00 7.758621e-01 2.241379e-01 0.000000e+00 0.000000e+00
 0.000000e+00 0.000000e+00 9.007633e-01 9.923664e-02 0.000000e+00
 0.000000e+00 0.000000e+00 0.000000e+00 8.066915e-01 1.933085e-01
 0.000000e+00 0.000000e+00 0.000000e+00 0.000000e+00 0.000000e+00
<ENDHMM>
~h "ey"
<BEGINHMM>
<NUMSTATES> 5
<STATE> 2
<MEAN> 39
 -1.118275e+01 -9.674464e+00 -1.161306e+00 -1.207521e+01 -1.649067e+01 -8.528465e+00 -2.549058e+00 2.514200e+00 -2.201805e+00 -2.550321e-01 -1.794492e+00 -1.988540e+00 5.404335e+01 6.534584e-01 -8.507786e-01 6.080981e-01 -8.197753e-01 -1.180367e+00 -1.664133e-01 1.317375e-01 5.404894e-01 -1.377718e-01 -9.465035e-02 1.968402e-01 -1.566801e-01 1.933641e+00 -2.154824e-01 2.338034e-01 3.213338e-03 1.618705e-01 2.226099e-01 1.943244e-01 -4.348261e-02 -1.991318e-01 -4.529813e-02 2.988320e-02 8.022722e-02 1.807001e-02 -3.036816e-01
<VARIANCE> 39
 4.183491e+01 4.254282e+01 4.806798e+01 8.130278e+01 8.156705e+01 6.373064e+01 6.743907e+01 5.869280e+01 5.928870e+01 4.260008e+01 5.294731e+01 3.000002e+01 1.843675e+02 2.108997e+00 2.490791e+00 2.483777e+00 3.299137e+00 3.668350e+00 2.950382e+00 3.545407e+00 3.573807e+00 3.079302e+00 2.610622e+00 2.686328e+00 2.239177e+00 6.063184e+00 4.309028e-01 4.098485e-01 3.300612e-01 5.622795e-01 6.281658e-01 5.187640e-01 5.988601e-01 5.418469e-01 5.544738e-01 4.661854e-01 4.703248e-01 4.192797e-01 1.003248e+00
<GCONST> 1.304196e+02
<STATE> 3
<MEAN> 39
 -8.661090e+00 -9.148587e+00 5.522604e+00 -1.597523e+01 -2.323522e+01 -8.739448e+00 -4.627561e+00 -1.711997e+00 -5.316934e+00 9.968363e-02 6.642176e-02 -2.369142e+00 6.298570e+01 -8.622193e-02 3.919074e-01 3.842105e-01 5.393235e-02 -4.286923e-02 9.057781e-02 -2.214718e-01 -4.794221e-01 -2.957851e-01 5.476430e-02 -2.045664e-03 8.828279e-03 -2.842467e-01 -1.523807e-02 5.391000e-02 -3.717035e-02 6.813101e-02 8.701320e-02 -5.910007e-03 6.122906e-03 -1.654773e-02 -1.003325e-04 -1.338418e-02 -4.148660e-02 -4.215944e-03 -1.365373e-01
<VARIANCE> 39
 1.103399e+01 3.954992e+01 4.961953e+01 7.468028e+01 4.374697e+01 5.197480e+01 6.833548e+01 8.081694e+01 6.079938e+01 4.778997e+01 7.451172e+01 3.190209e+01 2.520943e+01 2.455313e-01 7.007029e-01 8.974035e-01 6.553496e-01 8.727937e-01 9.387980e-01 1.269503e+00 1.388706e+00 1.281853e+00 9.777672e-01 1.017559e+00 7.888058e-01 5.117514e-01 2.000000e-01 2.000000e-01 2.000000e-01 2.000000e-01 2.000000e-01 2.000000e-01 2.000000e-01 2.054517e-01 2.000000e-01 2.000000e-01 2.000000e-01 2.000000e-01 2.000000e-01
<GCONST> 9.781165e+01
<STATE> 4
<MEAN> 39
 -1.269963e+01 -3.296502e+00 3.113017e+00 -8.963608e+00 -1.444890e+01 -5.332145e+00 -3.673657e+00 -4.123593e+00 -6.261094e+00 -9.705143e-01 -1.977431e+00 -2.204050e+00 4.733870e+01 -5.611645e-01 2.004760e-01 -1.369640e+00 9.802197e-01 1.692228e+00 4.384305e-01 4.714580e-01 4.948272e-01 6.077369e-01 -2.623916e-01 -2.352802e-01 -7.267649e-02 -1.653322e+00 -8.416014e-02 -1.381247e-01 -1.809941e-01 -1.166973e-01 8.979530e-02 1.186196e-01 4.233462e-02 9.235092e-02 1.315629e-01 3.489927e-02 3.767839e-02 1.734817e-02 1.449802e-01
<VARIANCE> 39
 3.254376e+01 4.149179e+01 7.871082e+01 7.632044e+01 8.435748e+01 6.144720e+01 6.650359e+01 7.199855e+01 5.932911e+01 4.598136e+01 5.460712e+01 3.368380e+01 1.147656e+02 2.703934e+00 3.239548e+00 3.776517e+00 4.919853e+00 5.231184e+00 4.142220e+00 4.062720e+00 4.588921e+00 4.381150e+00 3.574332e+00 3.476469e+00 2.794304e+00 6.449698e+00 3.664732e-01 5.136984e-01 5.939077e-01 8.371823e-01 8.898312e-01 6.733283e-01 6.625482e-01 7.589555e-01 7.259502e-01 6.127421e-01 5.679616e-01 4.802437e-01 1.031446e+00
<GCONST> 1.371201e+02
<TRANSP> 5
 0.000000e+00 1.000000e+00 0.000000e+00 0.000000e+00 0.000000e+00
 0.000000e+00 7.708583e-01 2.291417e-01 0.000000e+00 0.000000e+00
 0.000000e+00 0.000000e+00 9.400000e-01 6.000000e-02 0.000000e+00
 0.000000e+00 0.000000e+00 0.000000e+00 8.673037e-01 1.326963e-01
 0.000000e+00 0.000000e+00 0.000000e+00 0.000000e+00 0.000000e+00
<ENDHMM>
~h "f"
<BEGINHMM>
<NUMSTATES> 5
<STATE> 2
<MEAN> 39
 -2.038241e+01 -4.444358e+00 -5.858029e+00 -3.199492e+00 -2.497064e+00 -1.427509e+00 -9.638163e-01 5.205747e-01 -5.590376e-01 -7.415139e-01 -1.865761e+00 -6.429953e-01 4.765298e+01 -3.105904e+00 -3.498622e-01 -1.824409e-01 2.957694e-01 2.370663e-01 3.081476e-01 1.678031e-01 6.979104e-02 1.367724e-01 4.643678e-02 6.381292e-01 8.780537e-01 -7.904708e-01 6.042677e-01 -5.757940e-01 -2.860937e-01 -6.392499e-01 -5.049534e-01 -3.137417e-01 -2.466402e-01 -1.219557e-03 -2.152987e-02 7.408009e-02 -1.396248e-01 -2.453801e-01 4.904628e-01
<VARIANCE> 39
 2.598351e+01 1.787843e+01 1.442734e+01 1.428086e+01 1.444027e+01 1.622440e+01 1.526981e+01 1.630916e+01 1.800084e+01 1.850381e+01 1.637359e+01 1.341690e+01 9.385943e+01 7.590192e+00 2.745571e+00 2.553422e+00 3.209845e+00 2.513231e+00 2.886751e+00 2.584839e+00 3.383687e+00 2.676299e+00 3.110104e+00 3.206656e+00 2.631865e+00 3.840359e+00 8.043423e-01 5.813608e-01 4.173823e-01 5.449815e-01 4.787683e-01 5.210815e-01 5.071173e-01 6.257519e-01 4.665624e-01 5.140070e-01 5.046599e-01 4.454366e-01 3.770769e-01
<GCONST> 1.160784e+02
<STATE> 3
<MEAN> 39
 -2.401715e+01 -7.489665e+00 -8.999219e+00 -5.486164e+00 -4.232803e+00 -2.712007e+00 -2.094712e+00 -2.508409e-01 -8.628541e-01 -3.785977e-01 -1.317841e+00 -7.369760e-02 4.705647e+01 2.577066e-02 -9.321111e-02 -8.475455e-02 -1.368491e-01 -7.700081e-02 -9.295213e-02 -7.087106e-02 -4.202611e-02 -1.428590e-02 2.578080e-02 -6.674955e-03 -2.276030e-02 2.176482e-01 4.508481e-01 8.342216e-02 6.705887e-02 -2.802490e-02 -1.093445e-02 -2.413022e-02 -2.940174e-02 -1.347779e-02 -2.301404e-02 -1.620432e-02 -5.464996e-02 -8.556335e-02 5.756770e-02
<VARIANCE> 39
 1.625122e+01 1.574547e+01 1.301996e+01 1.448165e+01 1.465654e+01 1.479422e+01 1.522995e+01 1.457623e+01 1.541907e+01 1.542165e+01 1.328068e+01 1.290561e+01 7.345195e+01 1.571916e+00 9.764611e-01 1.075547e+00 1.258537e+00 1.322976e+00 1.404636e+00 1.594835e+00 1.580936e+00 1.616544e+00 1.591565e+00 1.441698e+00 1.310894e+00 1.926692e+00 5.002695e-01 2.000000e-01 2.354030e-01 3.075912e-01 2.970183e-01 3.202429e-01 3.679121e-01 3.597782e-01 3.596442e-01 3.588418e-01 3.334494e-01 2.950318e-01 2.672525e-01
<GCONST> 9.767979e+01
<STATE> 4
<MEAN> 39
 -1.396733e+01 -7.126584e+00 -8.721038e+00 -9.238160e+00 -6.297386e+00 -3.244653e+00 -3.409416e+00 -1.378593e+00 -1.742778e+00 -1.221400e-01 -1.871057e+00 -1.914457e+00 5.036927e+01 3.519586e+00 -5.165083e-01 -3.733147e-02 -1.765468e+00 -1.141652e+00 -2.554488e-01 -8.951815e-01 -2.615527e-01 -4.594270e-01 -3.825985e-02 -8.691062e-02 -6.154115e-01 1.285750e+00 -1.956786e-01 -2.691195e-01 1.036513e-02 -1.580679e-01 -8.945134e-02 1.094904e-01 -4.027959e-02 1.374008e-01 4.012948e-02 1.053652e-02 7.476339e-02 1.267306e-02 1.671474e-01
<VARIANCE> 39
 8.510140e+01 2.976938e+01 5.056545e+01 5.573154e+01 5.357830e+01 4.808179e+01 4.554443e+01 3.931945e+01 3.608036e+01 3.171220e+01 3.168975e+01 2.512580e+01 1.054321e+02 8.066785e+00 4.203867e+00 5.672958e+00 7.096560e+00 5.955498e+00 5.697356e+00 5.907446e+00 5.245723e+00 4.414197e+00 4.033655e+00 4.374145e+00 3.036732e+00 9.693469e+00 1.779948e+00 5.586907e-01 6.809136e-01 1.114354e+00 9.308386e-01 7.345348e-01 8.523245e-01 7.615947e-01 7.011622e-01 6.508842e-01 6.289209e-01 5.049869e-01 1.228152e+00
<GCONST> 1.402778e+02
<TRANSP> 5
 0.000000e+00 1.000000e+00 0.000000e+00 0.000000e+00 0.000000e+00
 0.000000e+00 6.298450e-01 3.701550e-01 0.000000e+00 0.000000e+00
 0.000000e+00 0.000000e+00 8.979428e-01 1.020572e-01 0.000000e+00
 0.000000e+00 0.000000e+00 0.000000e+00 7.674985e-01 2.325015e-01
 0.000000e+00 0.000000e+00 0.000000e+00 0.000000e+00 0.000000e+00
<ENDHMM>
~h "g"
<BEGINHMM>
<NUMSTATES> 5
<STATE> 2
<MEAN> 39
 -1.864242e+01 -5.664550e-01 -4.373278e+00 -2.134811e-01 -3.652320e+00 -2.554176e+00 -2.919704e+00 -1.282951e+00 -3.449593e+00 -1.105543e+00 -1.232735e+00 -1.593719e+00 3.187741e+01 2.796620e-01 -2.392829e-01 -1.041694e-01 -7.742190e-02 2.816634e-01 3.673104e-02 -1.790853e-01 -1.105345e-01 5.072056e-04 1.345807e-01 -1.340952e-01 -6.219429e-02 7.567712e-01 1.790837e-01 -3.129791e-01 -1.435583e-01 -2.841325e-01 -1.098983e-01 -1.047490e-01 -9.936918e-02 5.286791e-02 -3.011924e-03 1.051661e-01 9.682073e-03 3.619289e-02 5.931175e-01
<VARIANCE> 39
 2.835180e+01 1.829279e+01 2.455343e+01 1.789485e+01 1.750923e+01 2.247294e+01 1.989771e+01 2.443780e+01 2.954824e+01 2.176527e+01 1.834640e+01 1.578454e+01 3.017665e+01 1.864675e+00 3.413816e+00 2.669082e+00 2.601700e+00 3.195904e+00 2.591926e+00 2.768564e+00 2.891216e+00 2.879054e+00 2.958862e+00 2.032478e+00 1.769584e+00 5.061932e+00 2.480383e-01 6.148110e-01 4.628386e-01 5.862941e-01 5.417900e-01 5.270665e-01 5.174597e-01 4.744341e-01 5.307753e-01 5.373320e-01 4.099247e-01 3.455863e-01 9.717212e-01
<GCONST> 1.156643e+02
<STATE> 3
<MEAN> 39
 -1.305591e+01 -7.605099e+00 -7.553003e+00 -4.928125e+00 -1.777084e+00 -4.421161e+00 -6.038900e+00 -2.481463e+00 -5.176585e+00 1.787094e-01 -3.587212e+00 -1.853841e+00 4.744690e+01 8.669439e-01 -2.194812e+00 -1.561993e+00 -2.247934e+00 -2.222120e-01 -8.146453e-01 -1.132849e+00 1.440464e-01 4.555516e-01 1.109205e+00 -6.062785e-02 4.566790e-01 4.473680e+00 4.896339e-01 6.048831e-01 5.796159e-01 7.592601e-02 -8.056759e-01 -4.339574e-01 -2.472869e-01 -1.241158e-01 -1.672065e-01 -2.434073e-01 2.919224e-01 -1.083931e-01 -7.869494e-02
<VARIANCE> 39
 3.575499e+01 9.160119e+01 9.685764e+01 8.366895e+01 6.910586e+01 5.586089e+01 5.207037e+01 5.159690e+01 4.329947e+01 5.080972e+01 3.056777e+01 3.477883e+01 8.864314e+01 3.622561e+00 7.528964e+00 7.381743e+00 6.829008e+00 7.447349e+00 5.863437e+00 5.002144e+00 4.829230e+00 4.715187e+00 4.568251e+00 3.592867e+00 3.698948e+00 8.904552e+00 6.630139e-01 2.023929e+00 1.464437e+00 1.664622e+00 1.281744e+00 1.011612e+00 1.122744e+00 1.073558e+00 8.772698e-01 1.186895e+00 6.428552e-01 7.879237e-01 2.024090e+00
<GCONST> 1.478036e+02
<STATE> 4
<MEAN> 39
 -6.834580e+00 -7.287035e+00 -6.214506e+00 -7.990743e+00 -7.507508e+00 -9.177563e+00 -1.128630e+01 -2.767654e+00 -5.496728e+00 6.791859e-01 -1.447218e+00 -1.757774e+00 5.648244e+01 2.531475e+00 2.657315e-01 7.078252e-01 -4.253174e-01 -2.163768e+00 -1.041863e+00 -1.293620e+00 1.310004e-01 -3.603607e-01 -7.953923e-01 9.226748e-01 -3.545626e-01 1.707075e+00 -1.545577e-01 -2.230730e-01 -2.759801e-01 1.415097e-01 1.994799e-01 4.006628e-01 3.625513e-01 3.000970e-01 1.583297e-01 -1.447168e-01 5.151317e-02 -2.097421e-02 -5.952694e-01
<VARIANCE> 39
 3.792756e+01 3.869496e+01 9.014360e+01 7.088886e+01 9.534162e+01 7.495129e+01 6.765612e+01 6.252797e+01 4.983575e+01 4.890822e+01 5.686842e+01 2.722909e+01 3.676795e+01 2.154778e+00 4.681283e+00 4.578712e+00 5.146706e+00 4.839415e+00 5.811608e+00 6.739409e+00 6.858604e+00 5.717718e+00 5.410640e+00 4.700998e+00 3.941198e+00 2.384016e+00 5.362396e-01 8.534095e-01 1.040145e+00 7.921979e-01 1.036940e+00 8.003951e-01 1.012803e+00 9.434143e-01 8.798766e-01 8.991591e-01 7.842591e-01 5.356013e-01 7.174215e-01
<GCONST> 1.409241e+02
<TRANSP> 5
 0.000000e+00 1.000000e+00 0.000000e+00 0.000000e+00 0.000000e+00
 0.000000e+00 7.987520e-01 2.012481e-01 0.000000e+00 0.000000e+00
 0.000000e+00 0.000000e+00 6.149254e-01 3.850746e-01 0.000000e+00
 0.000000e+00 0.000000e+00 0.000000e+00 6.666667e-01 3.333333e-01
 0.000000e+00 0.000000e+00 0.000000e+00 0.000000e+00 0.000000e+00
<ENDHMM>
~h "hh"
<BEGINHMM>
<NUMSTATES> 5
<STATE> 2
<MEAN> 39
 -2.005647e+01 -2.194486e+00 -7.005382e+00 -2.478440e+00 -3.463826e+00 -6.675082e-01 -1.931224e+00 -1.929789e-01 -6.993852e-01 -6.616928e-01 -6.254329e-01 -9.614190e-02 3.169422e+01 5.217638e-01 -6.221860e-01 -2.797584e-01 -4.511943e-01 1.314623e-02 2.512602e-01 9.916307e-02 4.748975e-03 1.186155e-01 -2.793174e-02 -2.209753e-01 -1.789307e-01 8.206872e-01 1.319141e-01 -3.151294e-01 -1.064826e-01 -1.794216e-01 -7.725061e-03 -2.407024e-02 5.201634e-03 -5.537425e-02 -7.167939e-03 -3.734364e-02 -5.816691e-02 -2.915204e-02 3.515297e-01
<VARIANCE> 39
 1.579527e+01 1.041666e+01 1.566165e+01 1.437486e+01 1.557477e+01 1.642746e+01 1.585262e+01 1.859310e+01 1.755537e+01 1.928185e+01 1.676536e+01 1.266730e+01 2.349117e+01 1.725554e+00 2.827817e+00 2.213313e+00 2.827765e+00 2.180261e+00 2.103193e+00 2.281833e+00 2.075027e+00 2.181511e+00 2.294337e+00 2.105743e+00 1.500455e+00 2.388880e+00 2.181116e-01 3.749290e-01 3.944290e-01 3.897212e-01 4.725688e-01 3.270599e-01 4.240398e-01 4.316467e-01 4.391527e-01 4.763163e-01 4.003240e-01 3.054751e-01 2.574077e-01
<GCONST> 1.049311e+02
<STATE> 3
<MEAN> 39
 -1.500258e+01 -1.357215e+01 -1.078202e+01 -1.038137e+01 -2.089868e+00 4.897935e-01 -8.663459e-01 -1.999516e+00 -1.098720e+00 -1.457306e+00 -2.251337e+00 -1.943693e+00 4.753708e+01 1.687474e-01 -7.015210e-01 -1.430514e-01 -5.132577e-01 1.564241e-01 4.067864e-02 1.906875e-01 -4.010087e-01 -3.411080e-01 -2.559676e-01 -1.849063e-01 -1.901326e-01 1.962762e+00 1.231435e-01 5.126522e-01 1.043987e-01 2.484630e-01 -8.935222e-02 -5.660044e-02 -8.838323e-02 -9.702226e-03 -6.612731e-02 -4.188947e-02 3.004421e-02 -2.527936e-02 -1.346732e-01
<VARIANCE> 39
 2.052385e+01 3.257775e+01 3.791916e+01 4.136156e+01 5.070130e+01 5.305750e+01 5.685999e+01 3.878280e+01 3.406119e+01 2.796882e+01 3.031790e+01 3.338741e+01 4.848973e+01 1.730742e+00 3.349340e+00 2.063134e+00 2.916742e+00 2.420935e+00 2.530551e+00 2.491191e+00 2.356606e+00 1.962494e+00 2.078920e+00 2.349266e+00 1.984560e+00 2.821367e+00 5.659743e-01 2.785102e-01 4.180547e-01 4.103384e-01 4.720320e-01 5.410740e-01 5.892200e-01 4.129309e-01 3.864595e-01 4.341970e-01 4.652937e-01 3.527332e-01 3.480206e-01
<GCONST> 1.188776e+02
<STATE> 4
<MEAN> 39
 -8.072940e+00 -1.116657e+01 -9.958695e+00 -1.131484e+01 -5.505788e+00 -8.127083e-01 -1.940385e+00 -3.553610e+00 -4.626565e+00 -4.075721e+00 -4.057682e+00 -3.490808e+00 5.893286e+01 2.492822e+00 -3.481698e-01 -8.806486e-02 -1.266080e+00 -1.530173e+00 -7.091424e-01 -1.254438e+00 -2.959717e-02 -8.900104e-02 -2.157555e-01 2.208685e-02 -5.429684e-01 2.816711e+00 -2.816070e-01 -5.090215e-01 -5.253597e-02 -2.210986e-01 -3.024925e-02 -3.694138e-02 -8.603957e-02 2.667066e-01 2.707308e-01 1.961463e-01 1.551310e-01 9.972739e-02 -1.002477e-01
<VARIANCE> 39
 4.207295e+01 4.273451e+01 5.421599e+01 6.659895e+01 8.044467e+01 7.486971e+01 9.119392e+01 8.251571e+01 6.811842e+01 4.352345e+01 6.366615e+01 3.753857e+01 4.352251e+01 2.566786e+00 3.787395e+00 2.736450e+00 2.878341e+00 3.826052e+00 4.350764e+00 4.957473e+00 4.383399e+00 4.322319e+00 3.007375e+00 3.507816e+00 2.861241e+00 2.122949e+00 7.219810e-01 3.951842e-01 3.113900e-01 5.154097e-01 6.366132e-01 5.600374e-01 7.611294e-01 5.257487e-01 6.060953e-01 3.918021e-01 4.531786e-01 3.503804e-01 5.661453e-01
<GCONST> 1.315147e+02
<TRANSP> 5
 0.000000e+00 1.000000e+00 0.000000e+00 0.000000e+00 0.000000e+00
 0.000000e+00 8.260869e-01 1.739130e-01 0.000000e+00 0.000000e+00
 0.000000e+00 0.000000e+00 8.557114e-01 1.442886e-01 0.000000e+00
 0.000000e+00 0.000000e+00 0.000000e+00 7.446808e-01 2.553191e-01
 0.000000e+00 0.000000e+00 0.000000e+00 0.000000e+00 0.000000e+00
<ENDHMM>
~h "ih"
<BEGINHMM>
<NUMSTATES> 5
<STATE> 2
<MEAN> 39
 -8.969624e+00 -7.824445e+00 1.044961e+00 -8.906721e+00 -1.401016e+01 -8.862051e+00 -8.961785e+00 -6.623449e-01 -4.497100e+00 -1.779061e+00 -9.271080e-01 -2.767637e+00 5.533311e+01 7.471461e-01 -9.561886e-01 1.044445e+00 -1.093506e+00 -1.719236e+00 -3.929015e-01 -5.427359e-01 5.305330e-01 -2.702509e-01 -7.788596e-02 3.746585e-01 -1.207438e-02 1.934792e+00 -4.072335e-01 1.999125e-01 -2.735786e-01 9.972885e-02 3.281243e-01 3.932268e-01 2.950904e-01 -4.396353e-02 5.949839e-03 4.237444e-02 3.157035e-02 4.339587e-02 -3.654485e-01
<VARIANCE> 39
 4.863461e+01 4.333420e+01 5.828114e+01 7.886504e+01 6.823937e+01 6.760927e+01 8.547269e+01 6.567501e+01 5.795185e+01 4.922414e+01 5.447165e+01 4.014887e+01 1.813385e+02 3.135464e+00 2.555432e+00 3.144557e+00 4.265122e+00 4.904359e+00 3.994027e+00 5.501591e+00 4.340062e+00 3.988035e+00 3.996983e+00 3.802929e+00 3.093768e+00 6.014873e+00 6.288963e-01 4.831985e-01 5.227630e-01 7.047960e-01 8.324689e-01 6.643080e-01 8.571597e-01 8.070676e-01 8.118061e-01 6.179230e-01 5.647152e-01 5.030348e-01 9.673340e-01
<GCONST> 1.384010e+02
<STATE> 3
<MEAN> 39
 -7.206909e+00 -1.006828e+01 2.520112e+00 -1.433401e+01 -1.922078e+01 -1.027362e+01 -8.327690e+00 1.005423e+00 -4.596645e+00 -1.541120e+00 -1.011741e+00 -2.171994e+00 6.368979e+01 -1.264982e-02 2.316075e-01 -2.460461e-01 4.592366e-02 2.901387e-01 1.517508e-01 1.818305e-01 -1.898917e-01 1.400603e-01 6.844880e-02 -2.755131e-01 -6.620528e-02 -3.504483e-01 -3.999534e-02 2.529589e-01 -1.261698e-01 2.444690e-01 3.286998e-01 3.236096e-02 3.565206e-02 -2.053928e-01 -1.881598e-02 -1.786678e-02 -9.158894e-02 -2.299551e-02 -3.641020e-01
<VARIANCE> 39
 1.471610e+01 2.984398e+01 5.549640e+01 6.922581e+01 4.858773e+01 6.928637e+01 9.435738e+01 7.498731e+01 8.027355e+01 5.394568e+01 6.865616e+01 3.910276e+01 3.187173e+01 4.407114e-01 9.196286e-01 1.231891e+00 1.347095e+00 1.586500e+00 1.785354e+00 1.853771e+00 2.422641e+00 1.935745e+00 1.669552e+00 1.534779e+00 1.349193e+00 8.657163e-01 2.000000e-01 2.242773e-01 2.000000e-01 2.844806e-01 3.330260e-01 3.308013e-01 4.104517e-01 4.062326e-01 3.358352e-01 3.230632e-01 3.231786e-01 2.669540e-01 2.325330e-01
<GCONST> 1.105377e+02
<STATE> 4
<MEAN> 39
 -9.114635e+00 -4.668698e+00 1.973189e-01 -7.024152e+00 -1.159287e+01 -8.357645e+00 -7.295541e+00 -1.341170e+00 -3.595493e+00 -2.697196e+00 -3.005771e+00 -3.133500e+00 5.310215e+01 -1.435943e+00 1.534369e+00 -5.712499e-01 1.165916e+00 1.823471e+00 1.178423e+00 9.405442e-01 -8.823812e-01 -7.695895e-02 -4.024665e-02 -2.810559e-01 -6.004372e-02 -2.316615e+00 -3.019019e-01 -1.862371e-01 -8.617511e-02 -1.093423e-01 -5.819155e-03 1.636046e-01 9.726518e-02 1.385916e-01 4.837636e-03 8.704652e-02 1.086526e-01 8.119667e-02 1.586488e-01
<VARIANCE> 39
 3.205951e+01 5.019957e+01 6.124783e+01 7.158103e+01 6.532475e+01 6.302335e+01 6.740921e+01 5.985767e+01 6.468520e+01 4.864505e+01 5.927376e+01 3.988572e+01 1.064232e+02 4.829882e+00 4.671487e+00 2.943452e+00 5.427615e+00 4.268743e+00 5.940845e+00 5.146933e+00 5.159018e+00 4.709399e+00 3.954924e+00 4.241630e+00 3.351738e+00 8.099448e+00 5.529781e-01 9.433540e-01 4.382546e-01 8.492818e-01 8.019725e-01 9.358615e-01 7.652230e-01 8.342879e-01 7.319118e-01 6.813542e-01 6.509015e-01 5.218180e-01 1.506293e+00
<GCONST> 1.408916e+02
<TRANSP> 5
 0.000000e+00 1.000000e+00 0.000000e+00 0.000000e+00 0.000000e+00
 0.000000e+00 7.068965e-01 2.931035e-01 0.000000e+00 0.000000e+00
 0.000000e+00 0.000000e+00 8.586475e-01 1.413525e-01 0.000000e+00
 0.000000e+00 0.000000e+00 0.000000e+00 7.849916e-01 2.150084e-01
 0.000000e+00 0.000000e+00 0.000000e+00 0.000000e+00 0.000000e+00
<ENDHMM>
~h "iy"
<BEGINHMM>
<NUMSTATES> 5
<STATE> 2
<MEAN> 39
 -1.168790e+01 -3.437675e+00 1.059091e+01 -1.114713e+01 -1.862546e+01 -7.189214e+00 -9.232656e+00 -6.360345e+00 -1.000360e+01 -3.691545e+00 -1.201876e+00 -2.756181e+00 5.587029e+01 6.247426e-01 -7.228988e-02 1.913645e+00 -1.276836e+00 -1.626668e+00 5.594408e-01 -1.113391e+00 -6.079354e-01 -9.239365e-01 -1.856676e-01 1.228674e-01 -5.068579e-01 1.100515e+00 -4.538878e-01 7.369100e-02 -5.886468e-01 1.576407e-01 6.600925e-01 2.515084e-01 2.791582e-01 1.911883e-01 3.640077e-01 1.558987e-01 -3.971523e-02 3.823056e-02 -3.363572e-01
<VARIANCE> 39
 2.281258e+01 4.006493e+01 5.638500e+01 8.093026e+01 5.279137e+01 5.669703e+01 5.912740e+01 6.205651e+01 5.009820e+01 5.292115e+01 5.628773e+01 3.220909e+01 7.916582e+01 2.396136e+00 2.468633e+00 3.410148e+00 3.675633e+00 4.677037e+00 3.540875e+00 4.290764e+00 3.823147e+00 3.616049e+00 3.227454e+00 3.177938e+00 2.378904e+00 3.667935e+00 4.748981e-01 3.994019e-01 5.006019e-01 6.034806e-01 6.339217e-01 6.017083e-01 7.211301e-01 6.671431e-01 5.581187e-01 5.045214e-01 4.988743e-01 3.608969e-01 5.625769e-01
<GCONST> 1.304678e+02
<STATE> 3
<MEAN> 39
 -1.213020e+01 -5.044628e-01 1.443805e+01 -1.472867e+01 -1.906810e+01 -3.985110e+00 -1.120247e+01 -9.572952e+00 -1.083878e+01 -3.911413e+00 -3.161678e+00 -4.345635e+00 5.718889e+01 -2.088422e-02 1.487557e-01 -3.566623e-02 5.048959e-03 4.650720e-02 6.174052e-02 7.970855e-02 -1.078267e-01 -7.372944e-03 1.065592e-01 -7.748846e-02 -3.623074e-03 -2.755253e-01 -4.673705e-04 -1.514400e-02 -1.222353e-01 8.819768e-02 4.098445e-02 -8.138286e-02 8.139368e-02 3.765713e-02 4.267693e-02 3.590898e-02 2.147046e-02 5.397945e-02 -8.162929e-02
<VARIANCE> 39
 1.179207e+01 3.543777e+01 3.843102e+01 8.398571e+01 4.644911e+01 4.818194e+01 5.626080e+01 4.703803e+01 4.717520e+01 4.872452e+01 6.043851e+01 4.109644e+01 2.540049e+01 2.710333e-01 6.096478e-01 6.922565e-01 7.341834e-01 8.875909e-01 1.059695e+00 9.346503e-01 9.628919e-01 9.445269e-01 9.290960e-01 8.469178e-01 7.765421e-01 5.067920e-01 2.000000e-01 2.000000e-01 2.000000e-01 2.000000e-01 2.000000e-01 2.000000e-01 2.000000e-01 2.000000e-01 2.000000e-01 2.000000e-01 2.000000e-01 2.000000e-01 2.000000e-01
<GCONST> 9.538277e+01
<STATE> 4
<MEAN> 39
 -1.440091e+01 -2.271155e+00 2.469061e+00 -8.214272e+00 -1.294503e+01 -4.327649e+00 -3.884640e+00 -4.529789e+00 -5.508053e+00 -1.103121e+00 -1.850423e+00 -1.664972e+00 4.484356e+01 -1.006420e-01 -4.752202e-01 -1.404726e+00 3.983852e-01 7.175633e-01 -8.556593e-02 5.434238e-01 8.079306e-01 7.308189e-01 1.591287e-01 5.988939e-02 1.489785e-01 -5.285594e-01 3.342567e-02 -6.772446e-02 -3.443942e-04 -1.240465e-01 3.243297e-02 1.095679e-01 -5.583935e-02 2.699739e-02 1.136808e-02 -4.584835e-02 -4.951422e-02 -8.124726e-02 1.897567e-01
<VARIANCE> 39
 3.064094e+01 3.888966e+01 8.187467e+01 6.988950e+01 8.180598e+01 6.863971e+01 6.381715e+01 6.886165e+01 5.907620e+01 4.867041e+01 4.564954e+01 3.503242e+01 1.105053e+02 2.242469e+00 2.511576e+00 3.901525e+00 4.482640e+00 4.666017e+00 4.465040e+00 4.077815e+00 4.361342e+00 4.325895e+00 3.654716e+00 3.567911e+00 3.131251e+00 5.888923e+00 3.208271e-01 3.883002e-01 5.406281e-01 6.902189e-01 7.561239e-01 7.495172e-01 6.491327e-01 7.532556e-01 7.333609e-01 6.131535e-01 6.168013e-01 5.457568e-01 7.370967e-01
<GCONST> 1.353870e+02
<TRANSP> 5
 0.000000e+00 1.000000e+00 0.000000e+00 0.000000e+00 0.000000e+00
 0.000000e+00 7.050812e-01 2.949188e-01 0.000000e+00 0.000000e+00
 0.000000e+00 0.000000e+00 9.300995e-01 6.990047e-02 0.000000e+00
 0.000000e+00 0.000000e+00 0.000000e+00 8.953943e-01 1.046058e-01
 0.000000e+00 0.000000e+00 0.000000e+00 0.000000e+00 0.000000e+00
<ENDHMM>
~h "jh"
<BEGINHMM>
<NUMSTATES> 5
<STATE> 2
<MEAN> 39
 -1.938635e+01 -3.351564e+00 -2.138746e+00 -4.005640e+00 -4.322536e+00 -1.150441e+00 -3.061571e+00 -1.590435e+00 -2.149673e+00 -2.359353e+00 -2.098208e+00 -1.151116e+00 3.906625e+01 -1.132082e+00 -5.887989e-01 1.990670e-01 -9.051899e-01 1.073184e-01 3.668275e-01 5.512200e-02 1.231235e-01 4.614046e-01 1.325922e-01 3.152134e-01 1.294696e-01 1.478792e+00 -1.378767e-01 1.086189e-01 1.393691e-01 -3.621111e-02 -1.254455e-01 -6.511668e-02 5.988987e-02 -1.498073e-02 -2.588317e-02 1.544919e-03 2.435135e-02 1.304434e-02 2.759212e-01
<VARIANCE> 39
 3.052659e+01 4.924688e+01 3.845655e+01 4.837649e+01 2.742586e+01 2.612885e+01 2.265548e+01 2.377522e+01 2.417078e+01 2.095692e+01 2.093228e+01 1.757578e+01 1.049776e+02 5.239645e+00 4.575506e+00 2.698107e+00 4.921942e+00 2.618501e+00 2.668191e+00 2.466397e+00 2.628680e+00 2.696340e+00 2.216105e+00 2.215702e+00 1.816090e+00 8.674611e+00 5.043221e-01 1.023723e+00 4.742148e-01 9.024502e-01 5.050104e-01 5.051734e-01 4.653681e-01 4.903530e-01 4.679711e-01 4.113692e-01 3.823168e-01 3.326454e-01 1.085013e+00
<GCONST> 1.231091e+02
<STATE> 3
<MEAN> 39
 -3.115849e+01 -3.496658e+00 5.694593e+00 -1.039741e+01 -4.833893e+00 1.050214e+00 -9.538165e-01 -1.637315e+00 -3.184709e-02 -2.208433e+00 2.124143e-01 -5.652401e-01 5.663419e+01 2.866674e-02 6.369999e-01 1.353786e+00 5.796273e-01 -1.073045e+00 -8.777438e-01 2.467515e-01 -4.361349e-01 -5.524735e-01 -2.487490e-01 -1.769621e-02 -5.783249e-03 1.017089e+00 1.458897e+00 2.902567e-02 4.504434e-02 3.007781e-01 -4.433511e-01 -5.502011e-01 -4.993310e-01 -3.192852e-01 -5.310088e-01 -2.534406e-01 -1.979516e-01 -1.461135e-01 -4.931020e-01
<VARIANCE> 39
 1.855906e+01 2.619938e+01 3.764689e+01 3.175555e+01 3.289799e+01 2.354609e+01 2.539002e+01 2.457348e+01 2.304237e+01 1.792845e+01 1.586757e+01 1.281505e+01 2.414469e+01 8.880147e+00 2.271804e+00 2.548976e+00 2.338251e+00 2.216366e+00 3.079235e+00 2.828395e+00 2.460021e+00 2.459537e+00 1.751271e+00 1.709300e+00 1.328684e+00 1.785139e+00 6.027757e-01 5.396451e-01 5.543311e-01 6.628320e-01 4.370753e-01 4.642558e-01 5.372347e-01 4.358489e-01 4.156122e-01 3.477203e-01 3.614844e-01 2.989265e-01 4.026291e-01
<GCONST> 1.138311e+02
<STATE> 4
<MEAN> 39
 -1.646057e+01 -2.580859e+00 1.069754e+01 -7.955855e+00 -1.441919e+01 -8.661872e+00 -6.814096e+00 -6.735816e+00 -7.023850e+00 -6.115725e+00 -1.163785e+00 -1.768002e+00 5.925362e+01 3.958379e+00 -9.812042e-01 6.629428e-01 -4.607632e-01 -2.412342e+00 -1.502735e+00 -1.898621e+00 -2.992238e-01 -1.437265e+00 -4.992125e-01 1.632502e-01 -3.154469e-01 3.840980e-01 -4.826245e-01 -4.141766e-01 -2.766185e-01 -3.530235e-01 3.185455e-01 6.815220e-01 1.707198e-01 4.796447e-01 3.201710e-01 3.195668e-01 1.398455e-01 -3.325093e-02 -1.092791e-01
<VARIANCE> 39
 4.944019e+01 2.877404e+01 4.135546e+01 5.138449e+01 3.737819e+01 3.186510e+01 3.330135e+01 3.161477e+01 3.012201e+01 2.286722e+01 2.248190e+01 1.600931e+01 2.907444e+01 3.256738e+00 2.997630e+00 3.591750e+00 3.046596e+00 3.895419e+00 4.496659e+00 3.608977e+00 4.287097e+00 3.964483e+00 3.204215e+00 2.540729e+00 2.295973e+00 8.988620e-01 8.708504e-01 3.553899e-01 3.487672e-01 3.443603e-01 5.810195e-01 4.546412e-01 5.846178e-01 4.323455e-01 4.200943e-01 3.987737e-01 3.076522e-01 2.959114e-01 2.000000e-01
<GCONST> 1.191124e+02
<TRANSP> 5
 0.000000e+00 1.000000e+00 0.000000e+00 0.000000e+00 0.000000e+00
 0.000000e+00 8.707722e-01 1.292278e-01 0.000000e+00 0.000000e+00
 0.000000e+00 0.000000e+00 7.916667e-01 2.083333e-01 0.000000e+00
 0.000000e+00 0.000000e+00 0.000000e+00 7.050255e-01 2.949745e-01
 0.000000e+00 0.000000e+00 0.000000e+00 0.000000e+00 0.000000e+00
<ENDHMM>
~h "k"
<BEGINHMM>
<NUMSTATES> 5
<STATE> 2
<MEAN> 39
 -2.102366e+01 -2.592973e+00 -5.480406e+00 -8.310011e-01 -3.165884e+00 -1.214935e+00 -1.766006e+00 -2.861997e-01 -1.793850e+00 7.403329e-03 -5.424811e-01 -1.797398e-01 3.108894e+01 -3.170363e-01 -8.283588e-01 -4.142695e-01 -4.372288e-01 7.902235e-02 1.774810e-01 1.520876e-02 4.945578e-02 2.842728e-01 2.585473e-01 -5.543079e-02 1.334051e-01 8.863009e-01 3.470823e-01 -3.185106e-01 4.946594e-02 -4.984781e-01 -2.966515e-01 -3.328252e-01 -7.246260e-02 -3.128783e-02 -1.365010e-01 3.721397e-02 -7.311768e-02 -5.384199e-02 1.272236e+00
<VARIANCE> 39
 6.716340e+00 1.177812e+01 1.280446e+01 1.459741e+01 1.718861e+01 1.744865e+01 1.867862e+01 2.061844e+01 1.874938e+01 1.725365e+01 1.596456e+01 1.276612e+01 2.183702e+01 2.496365e+00 3.847694e+00 3.486646e+00 4.015971e+00 3.523726e+00 4.083715e+00 3.219503e+00 3.645925e+00 3.334030e+00 2.808458e+00 2.594735e+00 2.021944e+00 1.324232e+01 3.733140e-01 5.350537e-01 5.627367e-01 6.533727e-01 5.827675e-01 6.565885e-01 6.096538e-01 6.515095e-01 5.748384e-01 5.177159e-01 4.666888e-01 3.825565e-01 1.741133e+00
<GCONST> 1.167486e+02
<STATE> 3
<MEAN> 39
 -1.920551e+01 -9.339050e+00 -6.286916e+00 -8.474692e+00 -5.424019e+00 -4.431124e+00 -1.694320e+00 -3.739173e-01 -2.051618e+00 1.384175e+00 -1.857465e+00 5.050407e-01 5.141466e+01 8.466692e-02 1.816967e-01 2.699921e-01 -7.014746e-01 -2.730130e-01 -1.978774e-01 1.918864e-01 -6.479143e-02 1.101533e-01 -1.627207e-02 -8.098006e-02 3.218465e-02 1.918511e+00 1.302405e-01 5.026467e-01 2.389516e-01 3.771088e-01 -3.596751e-03 8.243483e-02 6.878623e-02 -6.412543e-02 -1.061736e-01 -2.355227e-01 2.427132e-02 -9.802525e-02 -8.450308e-01
<VARIANCE> 39
 2.579445e+01 3.758039e+01 5.680233e+01 5.236067e+01 4.186090e+01 4.325037e+01 4.506103e+01 3.823418e+01 4.037857e+01 3.309450e+01 2.444751e+01 2.187895e+01 8.936115e+01 2.361310e+00 4.586035e+00 3.492309e+00 4.868252e+00 3.113376e+00 3.653036e+00 3.259995e+00 2.888194e+00 3.069070e+00 2.932467e+00 2.313606e+00 2.009779e+00 1.473575e+01 5.628874e-01 9.836721e-01 6.694809e-01 8.094328e-01 6.167701e-01 7.214610e-01 6.642829e-01 6.470078e-01 7.215028e-01 6.385928e-01 5.292602e-01 4.486328e-01 1.669660e+00
<GCONST> 1.312325e+02
<STATE> 4
<MEAN> 39
 -1.316543e+01 -6.734083e+00 -2.324281e+00 -9.944071e+00 -1.040283e+01 -5.020713e+00 -1.142243e+00 -2.323533e+00 -4.229061e+00 -1.429985e+00 -2.990247e+00 -1.631135e+00 5.630375e+01 2.368474e+00 -4.458418e-01 1.720508e-01 -4.160015e-01 -1.760687e+00 -8.218307e-01 -7.483397e-01 8.214159e-02 -6.694307e-01 -7.929212e-01 6.838915e-02 -6.362357e-01 1.199490e+00 -3.426595e-02 -4.046380e-01 -2.748165e-01 -2.013441e-01 -1.125860e-01 -1.087709e-02 -2.679812e-01 2.077035e-01 1.695260e-01 1.740725e-01 1.493784e-01 6.124640e-02 1.638880e-01
<VARIANCE> 39
 6.007472e+01 3.053033e+01 6.255585e+01 5.536264e+01 7.869904e+01 6.156306e+01 6.605682e+01 5.244646e+01 4.218824e+01 3.557575e+01 4.477760e+01 2.842179e+01 6.584638e+01 4.358771e+00 3.858015e+00 3.630025e+00 4.026359e+00 5.125785e+00 5.004969e+00 5.963104e+00 5.268554e+00 5.356371e+00 4.187654e+00 4.821694e+00 3.147607e+00 3.092527e+00 8.033188e-01 5.375080e-01 4.753716e-01 5.427559e-01 8.961149e-01 8.248158e-01 9.023150e-01 7.188076e-01 7.232782e-01 6.320935e-01 5.610646e-01 5.177687e-01 6.701428e-01
<GCONST> 1.364342e+02
<TRANSP> 5
 0.000000e+00 1.000000e+00 0.000000e+00 0.000000e+00 0.000000e+00
 0.000000e+00 8.107520e-01 1.892480e-01 0.000000e+00 0.000000e+00
 0.000000e+00 0.000000e+00 8.217735e-01 1.782265e-01 0.000000e+00
 0.000000e+00 0.000000e+00 0.000000e+00 7.117842e-01 2.882158e-01
 0.000000e+00 0.000000e+00 0.000000e+00 0.000000e+00 0.000000e+00
<ENDHMM>
~h "l"
<BEGINHMM>
<NUMSTATES> 5
<STATE> 2
<MEAN> 39
 -1.053904e+01 -3.280865e+00 -1.019444e+01 -1.365493e+01 -5.968526e+00 1.202008e+00 -3.190220e+00 -3.852470e+00 -1.998766e+00 -1.685699e+00 -1.432703e+00 -1.216805e+00 4.531820e+01 1.155556e-01 4.097815e-01 1.063465e-01 -1.277700e-01 2.556408e-02 1.091996e-01 -4.727452e-02 -1.482842e-01 -2.548966e-01 -6.591845e-02 6.656098e-02 1.050424e-01 -2.450023e-01 2.003646e-02 -1.668614e-02 4.779834e-02 7.299251e-02 2.271903e-03 -8.062162e-02 -6.623104e-02 4.896043e-02 1.286168e-02 3.697506e-03 1.694045e-02 -2.569557e-02 6.984409e-02
<VARIANCE> 39
 8.196545e+01 2.921683e+01 3.500273e+01 1.183640e+02 5.525092e+01 4.629888e+01 5.910888e+01 6.258599e+01 4.113749e+01 4.604665e+01 3.716134e+01 3.009352e+01 1.607931e+02 2.442635e+00 2.090681e+00 2.286214e+00 4.353240e+00 3.036867e+00 3.121773e+00 3.080450e+00 3.129812e+00 2.803356e+00 2.854861e+00 2.771182e+00 2.556856e+00 2.318648e+00 3.905888e-01 3.339217e-01 3.861910e-01 5.669819e-01 4.944057e-01 4.920973e-01 5.288457e-01 5.602736e-01 5.140646e-01 5.190936e-01 5.114997e-01 4.629549e-01 3.042417e-01
<GCONST> 1.266820e+02
<STATE> 3
<MEAN> 39
 -4.242385e+00 1.477324e+00 -9.244621e+00 -1.930499e+01 -7.087536e+00 -4.160108e-01 -9.109175e+00 -7.322439e+00 -6.321758e+00 -2.664496e+00 4.335967e-01 -2.099299e+00 5.319543e+01 5.309456e-01 -6.812772e-01 -2.713494e-01 -6.211395e-01 1.835488e-01 6.993872e-02 -8.652115e-01 -1.171988e-01 2.658727e-01 4.593462e-01 2.192272e-01 -4.079605e-01 1.299423e+00 -3.600245e-01 -5.596421e-01 5.039910e-03 3.049258e-01 6.584413e-02 -8.140358e-02 6.116828e-02 3.771722e-01 4.502821e-01 1.767702e-01 -2.208040e-01 -1.421048e-01 1.190447e-01
<VARIANCE> 39
 3.039585e+01 3.826532e+01 3.635055e+01 9.390961e+01 6.025919e+01 6.757191e+01 7.470232e+01 6.658921e+01 5.528539e+01 5.707786e+01 5.679585e+01 3.355864e+01 7.881426e+01 4.898366e+00 3.987897e+00 2.468643e+00 7.437477e+00 3.990588e+00 4.506442e+00 4.680159e+00 4.325119e+00 5.345551e+00 4.723018e+00 3.412832e+00 2.895857e+00 4.740307e+00 5.298062e-01 4.248262e-01 4.313107e-01 9.039986e-01 7.610530e-01 7.983935e-01 7.611690e-01 8.745113e-01 8.584065e-01 7.903519e-01 7.423533e-01 5.597135e-01 4.396995e-01
<GCONST> 1.371013e+02
<STATE> 4
<MEAN> 39
 -4.837816e+00 -9.160243e+00 -9.168252e+00 -1.723685e+01 -7.235703e+00 -3.221824e+00 -1.158482e+01 -2.191052e+00 1.408482e+00 1.024929e+00 -4.373516e+00 -5.181153e+00 6.033818e+01 -4.627759e-01 -1.280307e+00 9.481623e-01 1.216449e+00 -7.842880e-01 -9.643683e-01 2.984277e-01 1.628299e+00 5.829816e-01 -6.372079e-01 -8.600849e-01 5.987854e-02 4.226650e-01 -4.288026e-02 3.790202e-01 2.339354e-01 3.201504e-02 -2.324008e-01 3.373577e-02 3.649473e-01 -1.587307e-01 -5.638427e-01 -3.495952e-01 2.833166e-01 3.003104e-01 -3.223639e-01
<VARIANCE> 39
 2.458356e+01 4.745282e+01 5.103667e+01 8.035239e+01 6.927445e+01 9.314487e+01 8.147631e+01 7.609885e+01 5.695446e+01 6.720544e+01 6.979935e+01 4.894693e+01 8.413082e+01 1.523522e+00 3.303247e+00 2.969427e+00 4.156067e+00 4.706812e+00 4.834953e+00 4.576078e+00 5.219255e+00 6.565676e+00 4.970080e+00 5.161439e+00 4.273903e+00 2.605193e+00 2.000000e-01 4.007008e-01 3.484013e-01 7.042356e-01 6.279417e-01 7.949302e-01 6.947630e-01 1.004069e+00 8.754674e-01 9.088654e-01 7.973341e-01 6.420857e-01 3.241813e-01
<GCONST> 1.363363e+02
<TRANSP> 5
 0.000000e+00 1.000000e+00 0.000000e+00 0.000000e+00 0.000000e+00
 0.000000e+00 8.342723e-01 1.657277e-01 0.000000e+00 0.000000e+00
 0.000000e+00 0.000000e+00 7.288787e-01 2.711214e-01 0.000000e+00
 0.000000e+00 0.000000e+00 0.000000e+00 6.856634e-01 3.143366e-01
 0.000000e+00 0.000000e+00 0.000000e+00 0.000000e+00 0.000000e+00
<ENDHMM>
~h "m"
<BEGINHMM>
<NUMSTATES> 5
<STATE> 2
<MEAN> 39
 -5.509678e+00 -3.063574e+00 -1.911238e+00 -7.846525e-01 -5.683414e+00 -8.515753e+00 -8.310189e+00 -1.019081e+01 -1.126095e+01 -1.240915e+00 -7.335072e-01 -7.401722e+00 4.942100e+01 -3.103110e-01 7.735047e-01 5.484951e-01 7.713108e-01 3.641666e-01 -2.312581e-01 1.843247e-01 -6.430342e-01 -8.517759e-01 -1.013068e-02 6.916250e-02 -4.392291e-02 -8.511637e-01 -5.917541e-02 -3.502856e-01 -2.419862e-01 -5.590755e-01 -2.065027e-01 2.858799e-01 2.512635e-02 5.931300e-01 6.117930e-01 -2.018102e-01 -2.129549e-01 2.814438e-01 3.297861e-01
<VARIANCE> 39
 2.035761e+01 2.841748e+01 2.582860e+01 4.390852e+01 4.565017e+01 6.974310e+01 6.646280e+01 6.462639e+01 5.533426e+01 5.391936e+01 6.539065e+01 4.732995e+01 5.030117e+01 1.067738e+00 1.707658e+00 2.167369e+00 3.212406e+00 2.210350e+00 2.606320e+00 2.407809e+00 4.178110e+00 4.866139e+00 2.900826e+00 2.931546e+00 2.684361e+00 2.088192e+00 2.000000e-01 2.601207e-01 4.423251e-01 5.075375e-01 5.048313e-01 4.541827e-01 4.753069e-01 5.813624e-01 7.059080e-01 5.293233e-01 6.046265e-01 4.917018e-01 3.114880e-01
<GCONST> 1.229335e+02
<STATE> 3
<MEAN> 39
 -1.311088e+01 -1.811302e+00 -3.833826e+00 -1.044634e+00 -3.141595e+00 -4.209969e+00 -3.992586e+00 -4.252749e+00 -6.026444e+00 -2.671011e+00 -2.853970e+00 -3.054472e+00 3.934700e+01 5.472275e-03 -2.690808e-01 -1.977235e-02 -4.361634e-01 -1.600918e-01 1.477795e-01 1.011000e-02 2.836889e-01 1.586843e-01 -1.593193e-02 -1.333695e-02 1.060194e-01 3.922957e-01 5.497471e-02 -1.994399e-01 -4.076548e-02 -2.315418e-01 -2.089166e-01 1.818123e-02 -1.867218e-02 1.031111e-01 1.387062e-01 4.026035e-02 2.082696e-02 1.432607e-02 2.958230e-01
<VARIANCE> 39
 5.021026e+01 3.057305e+01 3.144784e+01 3.514948e+01 3.402988e+01 5.451849e+01 4.058229e+01 5.313922e+01 6.312450e+01 4.932993e+01 3.939209e+01 3.550738e+01 7.204830e+01 3.688019e+00 1.972078e+00 2.674637e+00 3.298590e+00 2.811116e+00 3.554258e+00 3.053893e+00 3.805791e+00 4.662237e+00 3.233643e+00 3.006388e+00 2.672113e+00 4.711935e+00 4.099397e-01 4.455357e-01 4.948768e-01 6.322055e-01 5.279636e-01 5.236086e-01 5.580860e-01 6.710800e-01 7.660861e-01 5.663811e-01 5.238163e-01 4.614197e-01 4.663218e-01
<GCONST> 1.279028e+02
<STATE> 4
<MEAN> 39
 -8.109999e+00 -6.582617e+00 -3.899328e+00 -8.394781e+00 -9.496243e+00 -5.097178e+00 -6.514906e+00 -4.010020e+00 -5.636582e+00 -3.028505e+00 -2.480907e+00 -3.853762e+00 5.137927e+01 -1.368069e-01 -1.519929e+00 -4.278992e-01 -2.483711e+00 -1.307254e+00 1.061063e+00 3.667243e-01 1.766558e+00 1.657524e+00 -1.343991e-01 -2.120790e-01 7.402170e-01 2.049076e+00 -7.226431e-02 5.668057e-02 1.318388e-01 7.204363e-02 6.496233e-02 4.233085e-02 9.701879e-02 -4.130173e-02 -1.895974e-01 1.231334e-01 -6.652244e-05 -5.698106e-02 3.189394e-02
<VARIANCE> 39
