~o
<STREAMINFO> 1 39
<VECSIZE> 39<NULLD><MFCC_D_A_0><DIAGC>
~h "ih"
<BEGINHMM>
<NUMSTATES> 5
<STATE> 2
<MEAN> 39
 -8.969624e+00 -7.824445e+00 1.044961e+00 -8.906721e+00 -1.401016e+01 -8.862051e+00 -8.961785e+00 -6.623449e-01 -4.497100e+00 -1.779061e+00 -9.271080e-01 -2.767637e+00 5.533311e+01 7.471461e-01 -9.561886e-01 1.044445e+00 -1.093506e+00 -1.719236e+00 -3.929015e-01 -5.427359e-01 5.305330e-01 -2.702509e-01 -7.788596e-02 3.746585e-01 -1.207438e-02 1.934792e+00 -4.072335e-01 1.999125e-01 -2.735786e-01 9.972885e-02 3.281243e-01 3.932268e-01 2.950904e-01 -4.396353e-02 5.949839e-03 4.237444e-02 3.157035e-02 4.339587e-02 -3.654485e-01
<VARIANCE> 39
 4.863461e+01 4.333420e+01 5.828114e+01 7.886504e+01 6.823937e+01 6.760927e+01 8.547269e+01 6.567501e+01 5.795185e+01 4.922414e+01 5.447165e+01 4.014887e+01 1.813385e+02 3.135464e+00 2.555432e+00 3.144557e+00 4.265122e+00 4.904359e+00 3.994027e+00 5.501591e+00 4.340062e+00 3.988035e+00 3.996983e+00 3.802929e+00 3.093768e+00 6.014873e+00 6.288963e-01 4.831985e-01 5.227630e-01 7.047960e-01 8.324689e-01 6.643080e-01 8.571597e-01 8.070676e-01 8.118061e-01 6.179230e-01 5.647152e-01 5.030348e-01 9.673340e-01
<GCONST> 1.384010e+02
<STATE> 3
<MEAN> 39
 -7.206909e+00 -1.006828e+01 2.520112e+00 -1.433401e+01 -1.922078e+01 -1.027362e+01 -8.327690e+00 1.005423e+00 -4.596645e+00 -1.541120e+00 -1.011741e+00 -2.171994e+00 6.368979e+01 -1.264982e-02 2.316075e-01 -2.460461e-01 4.592366e-02 2.901387e-01 1.517508e-01 1.818305e-01 -1.898917e-01 1.400603e-01 6.844880e-02 -2.755131e-01 -6.620528e-02 -3.504483e-01 -3.999534e-02 2.529589e-01 -1.261698e-01 2.444690e-01 3.286998e-01 3.236096e-02 3.565206e-02 -2.053928e-01 -1.881598e-02 -1.786678e-02 -9.158894e-02 -2.299551e-02 -3.641020e-01
<VARIANCE> 39
 1.471610e+01 2.984398e+01 5.549640e+01 6.922581e+01 4.858773e+01 6.928637e+01 9.435738e+01 7.498731e+01 8.027355e+01 5.394568e+01 6.865616e+01 3.910276e+01 3.187173e+01 4.407114e-01 9.196286e-01 1.231891e+00 1.347095e+00 1.586500e+00 1.785354e+00 1.853771e+00 2.422641e+00 1.935745e+00 1.669552e+00 1.534779e+00 1.349193e+00 8.657163e-01 2.000000e-01 2.242773e-01 2.000000e-01 2.844806e-01 3.330260e-01 3.308013e-01 4.104517e-01 4.062326e-01 3.358352e-01 3.230632e-01 3.231786e-01 2.669540e-01 2.325330e-01
<GCONST> 1.105377e+02
<STATE> 4
<MEAN> 39
 -9.114635e+00 -4.668698e+00 1.973189e-01 -7.024152e+00 -1.159287e+01 -8.357645e+00 -7.295541e+00 -1.341170e+00 -3.595493e+00 -2.697196e+00 -3.005771e+00 -3.133500e+00 5.310215e+01 -1.435943e+00 1.534369e+00 -5.712499e-01 1.165916e+00 1.823471e+00 1.178423e+00 9.405442e-01 -8.823812e-01 -7.695895e-02 -4.024665e-02 -2.810559e-01 -6.004372e-02 -2.316615e+00 -3.019019e-01 -1.862371e-01 -8.617511e-02 -1.093423e-01 -5.819155e-03 1.636046e-01 9.726518e-02 1.385916e-01 4.837636e-03 8.704652e-02 1.086526e-01 8.119667e-02 1.586488e-01
<VARIANCE> 39
 3.205951e+01 5.019957e+01 6.124783e+01 7.158103e+01 6.532475e+01 6.302335e+01 6.740921e+01 5.985767e+01 6.468520e+01 4.864505e+01 5.927376e+01 3.988572e+01 1.064232e+02 4.829882e+00 4.671487e+00 2.943452e+00 5.427615e+00 4.268743e+00 5.940845e+00 5.146933e+00 5.159018e+00 4.709399e+00 3.954924e+00 4.241630e+00 3.351738e+00 8.099448e+00 5.529781e-01 9.433540e-01 4.382546e-01 8.492818e-01 8.019725e-01 9.358615e-01 7.652230e-01 8.342879e-01 7.319118e-01 6.813542e-01 6.509015e-01 5.218180e-01 1.506293e+00
<GCONST> 1.408916e+02
<TRANSP> 5
 0.000000e+00 1.000000e+00 0.000000e+00 0.000000e+00 0.000000e+00
 0.000000e+00 7.068965e-01 2.931035e-01 0.000000e+00 0.000000e+00
 0.000000e+00 0.000000e+00 8.586475e-01 1.413525e-01 0.000000e+00
 0.000000e+00 0.000000e+00 0.000000e+00 7.849916e-01 2.150084e-01
 0.000000e+00 0.000000e+00 0.000000e+00 0.000000e+00 0.000000e+00
<ENDHMM>
