~o
<STREAMINFO> 1 39
<VECSIZE> 39<NULLD><MFCC_D_A_0><DIAGC>
~h "iy"
<BEGINHMM>
<NUMSTATES> 5
<STATE> 2
<MEAN> 39
 -1.168790e+01 -3.437675e+00 1.059091e+01 -1.114713e+01 -1.862546e+01 -7.189214e+00 -9.232656e+00 -6.360345e+00 -1.000360e+01 -3.691545e+00 -1.201876e+00 -2.756181e+00 5.587029e+01 6.247426e-01 -7.228988e-02 1.913645e+00 -1.276836e+00 -1.626668e+00 5.594408e-01 -1.113391e+00 -6.079354e-01 -9.239365e-01 -1.856676e-01 1.228674e-01 -5.068579e-01 1.100515e+00 -4.538878e-01 7.369100e-02 -5.886468e-01 1.576407e-01 6.600925e-01 2.515084e-01 2.791582e-01 1.911883e-01 3.640077e-01 1.558987e-01 -3.971523e-02 3.823056e-02 -3.363572e-01
<VARIANCE> 39
 2.281258e+01 4.006493e+01 5.638500e+01 8.093026e+01 5.279137e+01 5.669703e+01 5.912740e+01 6.205651e+01 5.009820e+01 5.292115e+01 5.628773e+01 3.220909e+01 7.916582e+01 2.396136e+00 2.468633e+00 3.410148e+00 3.675633e+00 4.677037e+00 3.540875e+00 4.290764e+00 3.823147e+00 3.616049e+00 3.227454e+00 3.177938e+00 2.378904e+00 3.667935e+00 4.748981e-01 3.994019e-01 5.006019e-01 6.034806e-01 6.339217e-01 6.017083e-01 7.211301e-01 6.671431e-01 5.581187e-01 5.045214e-01 4.988743e-01 3.608969e-01 5.625769e-01
<GCONST> 1.304678e+02
<STATE> 3
<MEAN> 39
 -1.213020e+01 -5.044628e-01 1.443805e+01 -1.472867e+01 -1.906810e+01 -3.985110e+00 -1.120247e+01 -9.572952e+00 -1.083878e+01 -3.911413e+00 -3.161678e+00 -4.345635e+00 5.718889e+01 -2.088422e-02 1.487557e-01 -3.566623e-02 5.048959e-03 4.650720e-02 6.174052e-02 7.970855e-02 -1.078267e-01 -7.372944e-03 1.065592e-01 -7.748846e-02 -3.623074e-03 -2.755253e-01 -4.673705e-04 -1.514400e-02 -1.222353e-01 8.819768e-02 4.098445e-02 -8.138286e-02 8.139368e-02 3.765713e-02 4.267693e-02 3.590898e-02 2.147046e-02 5.397945e-02 -8.162929e-02
<VARIANCE> 39
 1.179207e+01 3.543777e+01 3.843102e+01 8.398571e+01 4.644911e+01 4.818194e+01 5.626080e+01 4.703803e+01 4.717520e+01 4.872452e+01 6.043851e+01 4.109644e+01 2.540049e+01 2.710333e-01 6.096478e-01 6.922565e-01 7.341834e-01 8.875909e-01 1.059695e+00 9.346503e-01 9.628919e-01 9.445269e-01 9.290960e-01 8.469178e-01 7.765421e-01 5.067920e-01 2.000000e-01 2.000000e-01 2.000000e-01 2.000000e-01 2.000000e-01 2.000000e-01 2.000000e-01 2.000000e-01 2.000000e-01 2.000000e-01 2.000000e-01 2.000000e-01 2.000000e-01
<GCONST> 9.538277e+01
<STATE> 4
<MEAN> 39
 -1.440091e+01 -2.271155e+00 2.469061e+00 -8.214272e+00 -1.294503e+01 -4.327649e+00 -3.884640e+00 -4.529789e+00 -5.508053e+00 -1.103121e+00 -1.850423e+00 -1.664972e+00 4.484356e+01 -1.006420e-01 -4.752202e-01 -1.404726e+00 3.983852e-01 7.175633e-01 -8.556593e-02 5.434238e-01 8.079306e-01 7.308189e-01 1.591287e-01 5.988939e-02 1.489785e-01 -5.285594e-01 3.342567e-02 -6.772446e-02 -3.443942e-04 -1.240465e-01 3.243297e-02 1.095679e-01 -5.583935e-02 2.699739e-02 1.136808e-02 -4.584835e-02 -4.951422e-02 -8.124726e-02 1.897567e-01
<VARIANCE> 39
 3.064094e+01 3.888966e+01 8.187467e+01 6.988950e+01 8.180598e+01 6.863971e+01 6.381715e+01 6.886165e+01 5.907620e+01 4.867041e+01 4.564954e+01 3.503242e+01 1.105053e+02 2.242469e+00 2.511576e+00 3.901525e+00 4.482640e+00 4.666017e+00 4.465040e+00 4.077815e+00 4.361342e+00 4.325895e+00 3.654716e+00 3.567911e+00 3.131251e+00 5.888923e+00 3.208271e-01 3.883002e-01 5.406281e-01 6.902189e-01 7.561239e-01 7.495172e-01 6.491327e-01 7.532556e-01 7.333609e-01 6.131535e-01 6.168013e-01 5.457568e-01 7.370967e-01
<GCONST> 1.353870e+02
<TRANSP> 5
 0.000000e+00 1.000000e+00 0.000000e+00 0.000000e+00 0.000000e+00
 0.000000e+00 7.050812e-01 2.949188e-01 0.000000e+00 0.000000e+00
 0.000000e+00 0.000000e+00 9.300995e-01 6.990047e-02 0.000000e+00
 0.000000e+00 0.000000e+00 0.000000e+00 8.953943e-01 1.046058e-01
 0.000000e+00 0.000000e+00 0.000000e+00 0.000000e+00 0.000000e+00
<ENDHMM>
