~o
<STREAMINFO> 1 39
<VECSIZE> 39<NULLD><MFCC_D_A_0><DIAGC>
~h "jh"
<BEGINHMM>
<NUMSTATES> 5
<STATE> 2
<MEAN> 39
 -1.938635e+01 -3.351564e+00 -2.138746e+00 -4.005640e+00 -4.322536e+00 -1.150441e+00 -3.061571e+00 -1.590435e+00 -2.149673e+00 -2.359353e+00 -2.098208e+00 -1.151116e+00 3.906625e+01 -1.132082e+00 -5.887989e-01 1.990670e-01 -9.051899e-01 1.073184e-01 3.668275e-01 5.512200e-02 1.231235e-01 4.614046e-01 1.325922e-01 3.152134e-01 1.294696e-01 1.478792e+00 -1.378767e-01 1.086189e-01 1.393691e-01 -3.621111e-02 -1.254455e-01 -6.511668e-02 5.988987e-02 -1.498073e-02 -2.588317e-02 1.544919e-03 2.435135e-02 1.304434e-02 2.759212e-01
<VARIANCE> 39
 3.052659e+01 4.924688e+01 3.845655e+01 4.837649e+01 2.742586e+01 2.612885e+01 2.265548e+01 2.377522e+01 2.417078e+01 2.095692e+01 2.093228e+01 1.757578e+01 1.049776e+02 5.239645e+00 4.575506e+00 2.698107e+00 4.921942e+00 2.618501e+00 2.668191e+00 2.466397e+00 2.628680e+00 2.696340e+00 2.216105e+00 2.215702e+00 1.816090e+00 8.674611e+00 5.043221e-01 1.023723e+00 4.742148e-01 9.024502e-01 5.050104e-01 5.051734e-01 4.653681e-01 4.903530e-01 4.679711e-01 4.113692e-01 3.823168e-01 3.326454e-01 1.085013e+00
<GCONST> 1.231091e+02
<STATE> 3
<MEAN> 39
 -3.115849e+01 -3.496658e+00 5.694593e+00 -1.039741e+01 -4.833893e+00 1.050214e+00 -9.538165e-01 -1.637315e+00 -3.184709e-02 -2.208433e+00 2.124143e-01 -5.652401e-01 5.663419e+01 2.866674e-02 6.369999e-01 1.353786e+00 5.796273e-01 -1.073045e+00 -8.777438e-01 2.467515e-01 -4.361349e-01 -5.524735e-01 -2.487490e-01 -1.769621e-02 -5.783249e-03 1.017089e+00 1.458897e+00 2.902567e-02 4.504434e-02 3.007781e-01 -4.433511e-01 -5.502011e-01 -4.993310e-01 -3.192852e-01 -5.310088e-01 -2.534406e-01 -1.979516e-01 -1.461135e-01 -4.931020e-01
<VARIANCE> 39
 1.855906e+01 2.619938e+01 3.764689e+01 3.175555e+01 3.289799e+01 2.354609e+01 2.539002e+01 2.457348e+01 2.304237e+01 1.792845e+01 1.586757e+01 1.281505e+01 2.414469e+01 8.880147e+00 2.271804e+00 2.548976e+00 2.338251e+00 2.216366e+00 3.079235e+00 2.828395e+00 2.460021e+00 2.459537e+00 1.751271e+00 1.709300e+00 1.328684e+00 1.785139e+00 6.027757e-01 5.396451e-01 5.543311e-01 6.628320e-01 4.370753e-01 4.642558e-01 5.372347e-01 4.358489e-01 4.156122e-01 3.477203e-01 3.614844e-01 2.989265e-01 4.026291e-01
<GCONST> 1.138311e+02
<STATE> 4
<MEAN> 39
 -1.646057e+01 -2.580859e+00 1.069754e+01 -7.955855e+00 -1.441919e+01 -8.661872e+00 -6.814096e+00 -6.735816e+00 -7.023850e+00 -6.115725e+00 -1.163785e+00 -1.768002e+00 5.925362e+01 3.958379e+00 -9.812042e-01 6.629428e-01 -4.607632e-01 -2.412342e+00 -1.502735e+00 -1.898621e+00 -2.992238e-01 -1.437265e+00 -4.992125e-01 1.632502e-01 -3.154469e-01 3.840980e-01 -4.826245e-01 -4.141766e-01 -2.766185e-01 -3.530235e-01 3.185455e-01 6.815220e-01 1.707198e-01 4.796447e-01 3.201710e-01 3.195668e-01 1.398455e-01 -3.325093e-02 -1.092791e-01
<VARIANCE> 39
 4.944019e+01 2.877404e+01 4.135546e+01 5.138449e+01 3.737819e+01 3.186510e+01 3.330135e+01 3.161477e+01 3.012201e+01 2.286722e+01 2.248190e+01 1.600931e+01 2.907444e+01 3.256738e+00 2.997630e+00 3.591750e+00 3.046596e+00 3.895419e+00 4.496659e+00 3.608977e+00 4.287097e+00 3.964483e+00 3.204215e+00 2.540729e+00 2.295973e+00 8.988620e-01 8.708504e-01 3.553899e-01 3.487672e-01 3.443603e-01 5.810195e-01 4.546412e-01 5.846178e-01 4.323455e-01 4.200943e-01 3.987737e-01 3.076522e-01 2.959114e-01 2.000000e-01
<GCONST> 1.191124e+02
<TRANSP> 5
 0.000000e+00 1.000000e+00 0.000000e+00 0.000000e+00 0.000000e+00
 0.000000e+00 8.707722e-01 1.292278e-01 0.000000e+00 0.000000e+00
 0.000000e+00 0.000000e+00 7.916667e-01 2.083333e-01 0.000000e+00
 0.000000e+00 0.000000e+00 0.000000e+00 7.050255e-01 2.949745e-01
 0.000000e+00 0.000000e+00 0.000000e+00 0.000000e+00 0.000000e+00
<ENDHMM>
