~o
<STREAMINFO> 1 39
<VECSIZE> 39<NULLD><MFCC_D_A_0><DIAGC>
~h "k"
<BEGINHMM>
<NUMSTATES> 5
<STATE> 2
<MEAN> 39
 -2.102366e+01 -2.592973e+00 -5.480406e+00 -8.310011e-01 -3.165884e+00 -1.214935e+00 -1.766006e+00 -2.861997e-01 -1.793850e+00 7.403329e-03 -5.424811e-01 -1.797398e-01 3.108894e+01 -3.170363e-01 -8.283588e-01 -4.142695e-01 -4.372288e-01 7.902235e-02 1.774810e-01 1.520876e-02 4.945578e-02 2.842728e-01 2.585473e-01 -5.543079e-02 1.334051e-01 8.863009e-01 3.470823e-01 -3.185106e-01 4.946594e-02 -4.984781e-01 -2.966515e-01 -3.328252e-01 -7.246260e-02 -3.128783e-02 -1.365010e-01 3.721397e-02 -7.311768e-02 -5.384199e-02 1.272236e+00
<VARIANCE> 39
 6.716340e+00 1.177812e+01 1.280446e+01 1.459741e+01 1.718861e+01 1.744865e+01 1.867862e+01 2.061844e+01 1.874938e+01 1.725365e+01 1.596456e+01 1.276612e+01 2.183702e+01 2.496365e+00 3.847694e+00 3.486646e+00 4.015971e+00 3.523726e+00 4.083715e+00 3.219503e+00 3.645925e+00 3.334030e+00 2.808458e+00 2.594735e+00 2.021944e+00 1.324232e+01 3.733140e-01 5.350537e-01 5.627367e-01 6.533727e-01 5.827675e-01 6.565885e-01 6.096538e-01 6.515095e-01 5.748384e-01 5.177159e-01 4.666888e-01 3.825565e-01 1.741133e+00
<GCONST> 1.167486e+02
<STATE> 3
<MEAN> 39
 -1.920551e+01 -9.339050e+00 -6.286916e+00 -8.474692e+00 -5.424019e+00 -4.431124e+00 -1.694320e+00 -3.739173e-01 -2.051618e+00 1.384175e+00 -1.857465e+00 5.050407e-01 5.141466e+01 8.466692e-02 1.816967e-01 2.699921e-01 -7.014746e-01 -2.730130e-01 -1.978774e-01 1.918864e-01 -6.479143e-02 1.101533e-01 -1.627207e-02 -8.098006e-02 3.218465e-02 1.918511e+00 1.302405e-01 5.026467e-01 2.389516e-01 3.771088e-01 -3.596751e-03 8.243483e-02 6.878623e-02 -6.412543e-02 -1.061736e-01 -2.355227e-01 2.427132e-02 -9.802525e-02 -8.450308e-01
<VARIANCE> 39
 2.579445e+01 3.758039e+01 5.680233e+01 5.236067e+01 4.186090e+01 4.325037e+01 4.506103e+01 3.823418e+01 4.037857e+01 3.309450e+01 2.444751e+01 2.187895e+01 8.936115e+01 2.361310e+00 4.586035e+00 3.492309e+00 4.868252e+00 3.113376e+00 3.653036e+00 3.259995e+00 2.888194e+00 3.069070e+00 2.932467e+00 2.313606e+00 2.009779e+00 1.473575e+01 5.628874e-01 9.836721e-01 6.694809e-01 8.094328e-01 6.167701e-01 7.214610e-01 6.642829e-01 6.470078e-01 7.215028e-01 6.385928e-01 5.292602e-01 4.486328e-01 1.669660e+00
<GCONST> 1.312325e+02
<STATE> 4
<MEAN> 39
 -1.316543e+01 -6.734083e+00 -2.324281e+00 -9.944071e+00 -1.040283e+01 -5.020713e+00 -1.142243e+00 -2.323533e+00 -4.229061e+00 -1.429985e+00 -2.990247e+00 -1.631135e+00 5.630375e+01 2.368474e+00 -4.458418e-01 1.720508e-01 -4.160015e-01 -1.760687e+00 -8.218307e-01 -7.483397e-01 8.214159e-02 -6.694307e-01 -7.929212e-01 6.838915e-02 -6.362357e-01 1.199490e+00 -3.426595e-02 -4.046380e-01 -2.748165e-01 -2.013441e-01 -1.125860e-01 -1.087709e-02 -2.679812e-01 2.077035e-01 1.695260e-01 1.740725e-01 1.493784e-01 6.124640e-02 1.638880e-01
<VARIANCE> 39
 6.007472e+01 3.053033e+01 6.255585e+01 5.536264e+01 7.869904e+01 6.156306e+01 6.605682e+01 5.244646e+01 4.218824e+01 3.557575e+01 4.477760e+01 2.842179e+01 6.584638e+01 4.358771e+00 3.858015e+00 3.630025e+00 4.026359e+00 5.125785e+00 5.004969e+00 5.963104e+00 5.268554e+00 5.356371e+00 4.187654e+00 4.821694e+00 3.147607e+00 3.092527e+00 8.033188e-01 5.375080e-01 4.753716e-01 5.427559e-01 8.961149e-01 8.248158e-01 9.023150e-01 7.188076e-01 7.232782e-01 6.320935e-01 5.610646e-01 5.177687e-01 6.701428e-01
<GCONST> 1.364342e+02
<TRANSP> 5
 0.000000e+00 1.000000e+00 0.000000e+00 0.000000e+00 0.000000e+00
 0.000000e+00 8.107520e-01 1.892480e-01 0.000000e+00 0.000000e+00
 0.000000e+00 0.000000e+00 8.217735e-01 1.782265e-01 0.000000e+00
 0.000000e+00 0.000000e+00 0.000000e+00 7.117842e-01 2.882158e-01
 0.000000e+00 0.000000e+00 0.000000e+00 0.000000e+00 0.000000e+00
<ENDHMM>
