~o
<STREAMINFO> 1 39
<VECSIZE> 39<NULLD><MFCC_D_A_0><DIAGC>
~h "l"
<BEGINHMM>
<NUMSTATES> 5
<STATE> 2
<MEAN> 39
 -1.053904e+01 -3.280865e+00 -1.019444e+01 -1.365493e+01 -5.968526e+00 1.202008e+00 -3.190220e+00 -3.852470e+00 -1.998766e+00 -1.685699e+00 -1.432703e+00 -1.216805e+00 4.531820e+01 1.155556e-01 4.097815e-01 1.063465e-01 -1.277700e-01 2.556408e-02 1.091996e-01 -4.727452e-02 -1.482842e-01 -2.548966e-01 -6.591845e-02 6.656098e-02 1.050424e-01 -2.450023e-01 2.003646e-02 -1.668614e-02 4.779834e-02 7.299251e-02 2.271903e-03 -8.062162e-02 -6.623104e-02 4.896043e-02 1.286168e-02 3.697506e-03 1.694045e-02 -2.569557e-02 6.984409e-02
<VARIANCE> 39
 8.196545e+01 2.921683e+01 3.500273e+01 1.183640e+02 5.525092e+01 4.629888e+01 5.910888e+01 6.258599e+01 4.113749e+01 4.604665e+01 3.716134e+01 3.009352e+01 1.607931e+02 2.442635e+00 2.090681e+00 2.286214e+00 4.353240e+00 3.036867e+00 3.121773e+00 3.080450e+00 3.129812e+00 2.803356e+00 2.854861e+00 2.771182e+00 2.556856e+00 2.318648e+00 3.905888e-01 3.339217e-01 3.861910e-01 5.669819e-01 4.944057e-01 4.920973e-01 5.288457e-01 5.602736e-01 5.140646e-01 5.190936e-01 5.114997e-01 4.629549e-01 3.042417e-01
<GCONST> 1.266820e+02
<STATE> 3
<MEAN> 39
 -4.242385e+00 1.477324e+00 -9.244621e+00 -1.930499e+01 -7.087536e+00 -4.160108e-01 -9.109175e+00 -7.322439e+00 -6.321758e+00 -2.664496e+00 4.335967e-01 -2.099299e+00 5.319543e+01 5.309456e-01 -6.812772e-01 -2.713494e-01 -6.211395e-01 1.835488e-01 6.993872e-02 -8.652115e-01 -1.171988e-01 2.658727e-01 4.593462e-01 2.192272e-01 -4.079605e-01 1.299423e+00 -3.600245e-01 -5.596421e-01 5.039910e-03 3.049258e-01 6.584413e-02 -8.140358e-02 6.116828e-02 3.771722e-01 4.502821e-01 1.767702e-01 -2.208040e-01 -1.421048e-01 1.190447e-01
<VARIANCE> 39
 3.039585e+01 3.826532e+01 3.635055e+01 9.390961e+01 6.025919e+01 6.757191e+01 7.470232e+01 6.658921e+01 5.528539e+01 5.707786e+01 5.679585e+01 3.355864e+01 7.881426e+01 4.898366e+00 3.987897e+00 2.468643e+00 7.437477e+00 3.990588e+00 4.506442e+00 4.680159e+00 4.325119e+00 5.345551e+00 4.723018e+00 3.412832e+00 2.895857e+00 4.740307e+00 5.298062e-01 4.248262e-01 4.313107e-01 9.039986e-01 7.610530e-01 7.983935e-01 7.611690e-01 8.745113e-01 8.584065e-01 7.903519e-01 7.423533e-01 5.597135e-01 4.396995e-01
<GCONST> 1.371013e+02
<STATE> 4
<MEAN> 39
 -4.837816e+00 -9.160243e+00 -9.168252e+00 -1.723685e+01 -7.235703e+00 -3.221824e+00 -1.158482e+01 -2.191052e+00 1.408482e+00 1.024929e+00 -4.373516e+00 -5.181153e+00 6.033818e+01 -4.627759e-01 -1.280307e+00 9.481623e-01 1.216449e+00 -7.842880e-01 -9.643683e-01 2.984277e-01 1.628299e+00 5.829816e-01 -6.372079e-01 -8.600849e-01 5.987854e-02 4.226650e-01 -4.288026e-02 3.790202e-01 2.339354e-01 3.201504e-02 -2.324008e-01 3.373577e-02 3.649473e-01 -1.587307e-01 -5.638427e-01 -3.495952e-01 2.833166e-01 3.003104e-01 -3.223639e-01
<VARIANCE> 39
 2.458356e+01 4.745282e+01 5.103667e+01 8.035239e+01 6.927445e+01 9.314487e+01 8.147631e+01 7.609885e+01 5.695446e+01 6.720544e+01 6.979935e+01 4.894693e+01 8.413082e+01 1.523522e+00 3.303247e+00 2.969427e+00 4.156067e+00 4.706812e+00 4.834953e+00 4.576078e+00 5.219255e+00 6.565676e+00 4.970080e+00 5.161439e+00 4.273903e+00 2.605193e+00 2.000000e-01 4.007008e-01 3.484013e-01 7.042356e-01 6.279417e-01 7.949302e-01 6.947630e-01 1.004069e+00 8.754674e-01 9.088654e-01 7.973341e-01 6.420857e-01 3.241813e-01
<GCONST> 1.363363e+02
<TRANSP> 5
 0.000000e+00 1.000000e+00 0.000000e+00 0.000000e+00 0.000000e+00
 0.000000e+00 8.342723e-01 1.657277e-01 0.000000e+00 0.000000e+00
 0.000000e+00 0.000000e+00 7.288787e-01 2.711214e-01 0.000000e+00
 0.000000e+00 0.000000e+00 0.000000e+00 6.856634e-01 3.143366e-01
 0.000000e+00 0.000000e+00 0.000000e+00 0.000000e+00 0.000000e+00
<ENDHMM>
