~o
<STREAMINFO> 1 39
<VECSIZE> 39<NULLD><MFCC_D_A_0><DIAGC>
~h "m"
<BEGINHMM>
<NUMSTATES> 5
<STATE> 2
<MEAN> 39
 -5.509678e+00 -3.063574e+00 -1.911238e+00 -7.846525e-01 -5.683414e+00 -8.515753e+00 -8.310189e+00 -1.019081e+01 -1.126095e+01 -1.240915e+00 -7.335072e-01 -7.401722e+00 4.942100e+01 -3.103110e-01 7.735047e-01 5.484951e-01 7.713108e-01 3.641666e-01 -2.312581e-01 1.843247e-01 -6.430342e-01 -8.517759e-01 -1.013068e-02 6.916250e-02 -4.392291e-02 -8.511637e-01 -5.917541e-02 -3.502856e-01 -2.419862e-01 -5.590755e-01 -2.065027e-01 2.858799e-01 2.512635e-02 5.931300e-01 6.117930e-01 -2.018102e-01 -2.129549e-01 2.814438e-01 3.297861e-01
<VARIANCE> 39
 2.035761e+01 2.841748e+01 2.582860e+01 4.390852e+01 4.565017e+01 6.974310e+01 6.646280e+01 6.462639e+01 5.533426e+01 5.391936e+01 6.539065e+01 4.732995e+01 5.030117e+01 1.067738e+00 1.707658e+00 2.167369e+00 3.212406e+00 2.210350e+00 2.606320e+00 2.407809e+00 4.178110e+00 4.866139e+00 2.900826e+00 2.931546e+00 2.684361e+00 2.088192e+00 2.000000e-01 2.601207e-01 4.423251e-01 5.075375e-01 5.048313e-01 4.541827e-01 4.753069e-01 5.813624e-01 7.059080e-01 5.293233e-01 6.046265e-01 4.917018e-01 3.114880e-01
<GCONST> 1.229335e+02
<STATE> 3
<MEAN> 39
 -1.311088e+01 -1.811302e+00 -3.833826e+00 -1.044634e+00 -3.141595e+00 -4.209969e+00 -3.992586e+00 -4.252749e+00 -6.026444e+00 -2.671011e+00 -2.853970e+00 -3.054472e+00 3.934700e+01 5.472275e-03 -2.690808e-01 -1.977235e-02 -4.361634e-01 -1.600918e-01 1.477795e-01 1.011000e-02 2.836889e-01 1.586843e-01 -1.593193e-02 -1.333695e-02 1.060194e-01 3.922957e-01 5.497471e-02 -1.994399e-01 -4.076548e-02 -2.315418e-01 -2.089166e-01 1.818123e-02 -1.867218e-02 1.031111e-01 1.387062e-01 4.026035e-02 2.082696e-02 1.432607e-02 2.958230e-01
<VARIANCE> 39
 5.021026e+01 3.057305e+01 3.144784e+01 3.514948e+01 3.402988e+01 5.451849e+01 4.058229e+01 5.313922e+01 6.312450e+01 4.932993e+01 3.939209e+01 3.550738e+01 7.204830e+01 3.688019e+00 1.972078e+00 2.674637e+00 3.298590e+00 2.811116e+00 3.554258e+00 3.053893e+00 3.805791e+00 4.662237e+00 3.233643e+00 3.006388e+00 2.672113e+00 4.711935e+00 4.099397e-01 4.455357e-01 4.948768e-01 6.322055e-01 5.279636e-01 5.236086e-01 5.580860e-01 6.710800e-01 7.660861e-01 5.663811e-01 5.238163e-01 4.614197e-01 4.663218e-01
<GCONST> 1.279028e+02
<STATE> 4
<MEAN> 39
 -8.109999e+00 -6.582617e+00 -3.899328e+00 -8.394781e+00 -9.496243e+00 -5.097178e+00 -6.514906e+00 -4.010020e+00 -5.636582e+00 -3.028505e+00 -2.480907e+00 -3.853762e+00 5.137927e+01 -1.368069e-01 -1.519929e+00 -4.278992e-01 -2.483711e+00 -1.307254e+00 1.061063e+00 3.667243e-01 1.766558e+00 1.657524e+00 -1.343991e-01 -2.120790e-01 7.402170e-01 2.049076e+00 -7.226431e-02 5.668057e-02 1.318388e-01 7.204363e-02 6.496233e-02 4.233085e-02 9.701879e-02 -4.130173e-02 -1.895974e-01 1.231334e-01 -6.652244e-05 -5.698106e-02 3.189394e-02
<VARIANCE> 39
 4.669231e+01 4.541714e+01 6.233607e+01 8.977813e+01 7.003508e+01 8.365643e+01 6.796923e+01 6.491631e+01 7.064629e+01 4.636522e+01 5.474949e+01 4.309909e+01 1.152046e+02 3.748354e+00 3.624874e+00 7.056994e+00 7.602170e+00 7.306517e+00 5.894597e+00 5.247467e+00 6.496646e+00 6.781779e+00 4.822312e+00 5.565228e+00 4.514061e+00 8.125541e+00 5.147451e-01 6.077688e-01 7.522207e-01 1.229506e+00 9.726042e-01 7.891343e-01 7.492160e-01 1.044416e+00 1.117142e+00 6.955929e-01 7.740171e-01 6.768329e-01 1.156133e+00
<GCONST> 1.458277e+02
<TRANSP> 5
 0.000000e+00 1.000000e+00 0.000000e+00 0.000000e+00 0.000000e+00
 0.000000e+00 7.526215e-01 2.473785e-01 0.000000e+00 0.000000e+00
 0.000000e+00 0.000000e+00 7.648392e-01 2.351609e-01 0.000000e+00
 0.000000e+00 0.000000e+00 0.000000e+00 6.214442e-01 3.785558e-01
 0.000000e+00 0.000000e+00 0.000000e+00 0.000000e+00 0.000000e+00
<ENDHMM>
