~o
<STREAMINFO> 1 39
<VECSIZE> 39<NULLD><MFCC_D_A_0><DIAGC>
~h "n"
<BEGINHMM>
<NUMSTATES> 5
<STATE> 2
<MEAN> 39
 -4.907891e+00 -1.109833e+00 -1.115128e+00 -2.624753e+00 -1.083691e+01 -8.280794e+00 -3.164321e+00 -1.023867e+01 -9.433781e+00 -9.059500e-01 -6.633659e+00 -4.284008e+00 4.865503e+01 -3.075334e-01 1.073991e+00 2.235003e-01 7.856254e-01 4.671129e-01 1.327140e-01 4.932135e-01 -9.727063e-01 -4.842626e-01 1.173523e-01 -2.187741e-01 5.276702e-02 -1.307456e+00 -2.604423e-01 -3.473088e-01 -4.344414e-02 -3.884508e-01 7.102396e-02 1.895152e-01 -2.149831e-01 7.834053e-01 3.860841e-01 -2.913912e-01 1.480649e-01 1.214859e-01 2.895872e-01
<VARIANCE> 39
 1.279071e+01 2.483395e+01 2.510744e+01 4.143628e+01 4.689611e+01 4.584043e+01 5.231141e+01 6.512177e+01 5.457291e+01 5.655685e+01 4.452059e+01 5.205990e+01 2.984950e+01 8.462470e-01 1.728515e+00 1.940770e+00 2.772697e+00 2.718562e+00 2.769009e+00 3.371041e+00 6.954899e+00 3.696673e+00 3.577932e+00 2.334866e+00 2.285611e+00 1.576135e+00 2.000000e-01 2.932180e-01 3.653454e-01 4.961721e-01 5.216162e-01 5.295551e-01 5.425473e-01 8.096424e-01 6.027367e-01 5.856234e-01 4.537433e-01 4.364050e-01 2.793391e-01
<GCONST> 1.207303e+02
<STATE> 3
<MEAN> 39
 -1.337941e+01 -1.391703e+00 -3.147562e+00 -1.616573e+00 -4.590512e+00 -4.065514e+00 -2.214642e+00 -2.245488e+00 -4.053283e+00 -2.988703e+00 -4.650184e+00 -1.395381e+00 3.888158e+01 -9.164746e-01 -3.028846e-01 -2.549173e-01 -2.478717e-01 3.594606e-01 4.071680e-01 -2.634638e-02 6.757388e-01 4.712150e-01 -4.021816e-02 3.594070e-01 2.196645e-01 -5.869010e-01 -2.332832e-02 -1.701856e-01 -5.716327e-02 -1.686822e-01 -1.337680e-01 -1.273149e-02 -1.634117e-02 1.272837e-02 6.596812e-02 6.839272e-02 3.766971e-02 2.163330e-03 2.123011e-01
<VARIANCE> 39
 3.907507e+01 2.820940e+01 3.042552e+01 3.197331e+01 3.147181e+01 3.227495e+01 3.478945e+01 4.807447e+01 4.702543e+01 4.097690e+01 3.547998e+01 2.884846e+01 5.243560e+01 1.667577e+00 1.814787e+00 1.990666e+00 2.677772e+00 2.672599e+00 2.595995e+00 2.717163e+00 3.803918e+00 3.093263e+00 3.031356e+00 2.437436e+00 2.207529e+00 1.967571e+00 2.735547e-01 4.239321e-01 3.678725e-01 5.164351e-01 4.512030e-01 4.713973e-01 4.959155e-01 6.284347e-01 5.821938e-01 5.458776e-01 4.444797e-01 3.890322e-01 3.658191e-01
<GCONST> 1.195777e+02
<STATE> 4
<MEAN> 39
 -1.349162e+01 -3.660796e+00 -2.685040e+00 -6.204607e+00 -7.600965e+00 -4.276312e+00 -4.077261e+00 -2.622159e+00 -4.127070e+00 -3.018679e+00 -3.855994e+00 -1.794268e+00 4.434264e+01 -7.783856e-01 -1.035799e+00 -1.223492e-01 -1.158602e+00 -2.373532e-01 4.594294e-01 -9.341762e-02 7.678106e-01 8.490010e-01 5.048290e-02 2.933982e-01 1.754506e-01 1.343236e+00 1.124514e-01 -1.614537e-02 -1.785764e-02 -4.246225e-02 -1.809869e-01 -4.722420e-02 7.555464e-02 -1.338990e-01 -4.477262e-02 1.150719e-01 -2.535932e-02 -2.245512e-02 3.085442e-01
<VARIANCE> 39
 4.781480e+01 4.908184e+01 4.652279e+01 5.756303e+01 6.531429e+01 4.401474e+01 5.008088e+01 6.334300e+01 5.944748e+01 4.058321e+01 3.761065e+01 3.201416e+01 1.124818e+02 7.178306e+00 4.431517e+00 4.626870e+00 5.571902e+00 6.168682e+00 4.780122e+00 4.463789e+00 6.656742e+00 5.654911e+00 4.130936e+00 3.924631e+00 3.231940e+00 9.182286e+00 6.741303e-01 7.070777e-01 5.799586e-01 9.463923e-01 9.565301e-01 7.238536e-01 7.211492e-01 9.500755e-01 8.283076e-01 6.586582e-01 5.647959e-01 5.136399e-01 1.329816e+00
<GCONST> 1.407102e+02
<TRANSP> 5
 0.000000e+00 1.000000e+00 0.000000e+00 0.000000e+00 0.000000e+00
 0.000000e+00 7.657968e-01 2.342032e-01 0.000000e+00 0.000000e+00
 0.000000e+00 0.000000e+00 7.796820e-01 2.203180e-01 0.000000e+00
 0.000000e+00 0.000000e+00 0.000000e+00 6.818283e-01 3.181717e-01
 0.000000e+00 0.000000e+00 0.000000e+00 0.000000e+00 0.000000e+00
<ENDHMM>
