~o
<STREAMINFO> 1 39
<VECSIZE> 39<NULLD><MFCC_D_A_0><DIAGC>
~h "ng"
<BEGINHMM>
<NUMSTATES> 5
<STATE> 2
<MEAN> 39
 -6.609627e+00 -2.679110e+00 1.580665e-01 -8.916668e+00 -1.450088e+01 -4.453006e+00 -3.014772e+00 -7.561227e+00 -1.155924e+01 1.978171e-01 -8.833175e-01 -7.245558e+00 5.252303e+01 3.575383e-01 1.098230e+00 -1.196420e+00 2.173378e+00 1.257589e+00 -8.328271e-01 2.043088e-01 -9.288590e-01 -5.003905e-02 7.535174e-03 -2.170174e-01 2.758146e-01 -1.937575e+00 -1.975952e-01 -2.367069e-01 -8.706008e-02 -6.159065e-02 1.766310e-01 5.795163e-02 -1.438207e-01 3.946768e-01 4.232160e-01 -2.681422e-01 -5.867229e-02 3.288566e-01 8.703406e-02
<VARIANCE> 39
 1.881548e+01 2.018021e+01 4.216113e+01 6.997820e+01 6.201654e+01 8.868769e+01 4.886335e+01 8.865573e+01 6.457948e+01 5.950023e+01 8.260158e+01 6.255552e+01 4.156140e+01 1.795459e+00 1.981071e+00 3.983817e+00 4.746012e+00 4.948859e+00 6.353941e+00 4.437289e+00 5.064399e+00 5.206318e+00 4.325526e+00 4.504937e+00 3.736569e+00 1.663307e+00 3.533271e-01 3.292180e-01 6.166674e-01 8.684592e-01 7.862107e-01 1.271280e+00 7.595153e-01 7.481229e-01 7.825728e-01 8.487368e-01 7.177088e-01 6.117114e-01 2.378596e-01
<GCONST> 1.343292e+02
<STATE> 3
<MEAN> 39
 -7.317996e+00 2.124472e-01 -1.707194e+00 -6.277676e-01 -7.032898e+00 -4.060722e+00 -1.120663e+00 -8.322192e+00 -8.343175e+00 -2.394510e+00 -4.388552e+00 -3.375965e+00 4.380743e+01 -1.136454e+00 -1.347095e-01 -2.239343e-01 2.068353e-01 9.937927e-01 4.712287e-01 1.576384e-01 6.464199e-01 4.512811e-01 -3.193287e-01 -1.969726e-01 5.200856e-01 -1.070566e+00 -2.938850e-01 -3.041884e-01 -7.791934e-02 -3.803413e-01 -6.034688e-02 1.311456e-01 6.180178e-03 2.657368e-01 9.559000e-02 9.164797e-02 1.188296e-01 -6.062539e-02 1.322921e-01
<VARIANCE> 39
 1.491283e+01 1.932707e+01 2.206264e+01 3.925253e+01 4.615641e+01 3.879041e+01 4.478777e+01 6.468079e+01 3.731050e+01 4.549123e+01 4.642182e+01 2.982179e+01 2.093507e+01 1.604812e+00 1.510690e+00 1.695675e+00 2.289359e+00 2.685446e+00 2.687186e+00 2.591410e+00 2.632345e+00 3.180726e+00 3.000359e+00 2.370229e+00 2.384928e+00 1.801023e+00 2.000000e-01 3.203392e-01 3.249733e-01 4.130535e-01 4.550081e-01 5.258447e-01 4.920436e-01 5.809600e-01 5.364581e-01 4.019938e-01 4.388317e-01 3.832159e-01 2.121572e-01
<GCONST> 1.156866e+02
<STATE> 4
<MEAN> 39
 -1.666546e+01 -4.611219e+00 -6.421082e+00 -3.068227e+00 -3.881189e+00 -2.751009e+00 3.356679e-02 -1.822980e+00 -5.184025e+00 -3.301131e+00 -3.291464e+00 -7.051687e-01 3.849875e+01 -1.136467e+00 -7.227832e-01 -9.385024e-01 -4.530200e-01 3.093085e-02 1.267509e-01 -2.191399e-03 7.534420e-01 6.311294e-01 6.724542e-02 1.653446e-01 4.390567e-01 -4.293030e-01 3.187737e-01 5.316147e-02 6.819911e-02 -5.504998e-02 -2.206816e-01 7.184313e-03 -9.464797e-02 -1.515059e-01 -9.388389e-02 -1.682532e-02 -2.780735e-02 -4.561359e-02 3.430656e-01
<VARIANCE> 39
 1.914073e+01 2.801641e+01 2.638809e+01 2.153374e+01 4.182461e+01 4.184803e+01 4.667187e+01 4.950634e+01 3.592169e+01 3.727501e+01 2.782693e+01 2.087337e+01 4.349627e+01 2.830496e+00 2.821506e+00 2.486782e+00 2.616426e+00 3.766430e+00 3.517037e+00 4.035835e+00 4.861255e+00 3.703913e+00 2.853106e+00 2.205193e+00 2.306117e+00 3.391407e+00 3.297558e-01 4.629732e-01 3.948069e-01 5.010065e-01 6.078460e-01 7.314437e-01 6.507323e-01 7.201916e-01 6.498369e-01 5.511039e-01 3.110237e-01 3.951531e-01 8.452013e-01
<GCONST> 1.232103e+02
<TRANSP> 5
 0.000000e+00 1.000000e+00 0.000000e+00 0.000000e+00 0.000000e+00
 0.000000e+00 7.216495e-01 2.783505e-01 0.000000e+00 0.000000e+00
 0.000000e+00 0.000000e+00 7.658960e-01 2.341040e-01 0.000000e+00
 0.000000e+00 0.000000e+00 0.000000e+00 7.420382e-01 2.579618e-01
 0.000000e+00 0.000000e+00 0.000000e+00 0.000000e+00 0.000000e+00
<ENDHMM>
