~o
<STREAMINFO> 1 39
<VECSIZE> 39<NULLD><MFCC_D_A_0><DIAGC>
~h "ow"
<BEGINHMM>
<NUMSTATES> 5
<STATE> 2
<MEAN> 39
 -6.122051e+00 -1.015836e+01 -1.041510e+01 -1.580809e+01 -9.769156e+00 -2.323262e+00 -6.728466e+00 -1.098663e+00 1.687712e-01 2.362881e+00 -2.357477e+00 -4.919593e+00 5.584061e+01 1.035088e+00 -3.766541e-01 -7.280833e-01 -1.446390e+00 8.595869e-02 1.138581e+00 -1.262312e-01 -3.971765e-01 -5.836173e-02 3.985295e-01 2.153519e-01 -4.560412e-01 1.327441e+00 -2.050225e-01 2.253845e-01 2.246084e-01 1.444696e-01 -4.670295e-02 7.376946e-02 1.026379e-01 -8.758639e-02 -2.156558e-01 -9.677535e-02 1.448148e-01 1.725637e-01 -2.718302e-01
<VARIANCE> 39
 4.766311e+01 4.007088e+01 4.407065e+01 8.691898e+01 6.800381e+01 9.242987e+01 7.535611e+01 6.698576e+01 6.286084e+01 6.055811e+01 7.901517e+01 4.701321e+01 1.365969e+02 2.536712e+00 2.278718e+00 2.671922e+00 4.475816e+00 3.773896e+00 3.957255e+00 3.485868e+00 3.895697e+00 4.163897e+00 3.784800e+00 3.887487e+00 3.223812e+00 5.835009e+00 4.748516e-01 3.637632e-01 3.771310e-01 7.435811e-01 5.818512e-01 6.459429e-01 6.250625e-01 7.196130e-01 7.315286e-01 6.521651e-01 6.175199e-01 5.589142e-01 8.355954e-01
<GCONST> 1.359466e+02
<STATE> 3
<MEAN> 39
 -1.426859e-01 -6.238767e+00 -1.137381e+01 -2.462510e+01 -1.384025e+01 4.020843e+00 -6.747128e+00 -4.583751e+00 -4.001795e+00 9.572491e-01 3.091504e-01 -2.843313e+00 5.956898e+01 1.269661e-01 5.380925e-01 1.333512e-01 -1.035735e-01 -3.066125e-01 1.661456e-02 2.775453e-02 -1.540799e-01 -3.739376e-01 -2.481225e-01 3.617729e-02 2.990670e-01 -4.189667e-01 -6.061364e-02 -1.057476e-02 8.896380e-03 1.472864e-01 7.257529e-02 -1.039481e-01 -1.686953e-02 1.414339e-02 2.583570e-02 1.095478e-02 -3.400204e-02 -2.015296e-02 -8.906522e-02
<VARIANCE> 39
 1.100050e+01 4.696302e+01 3.541930e+01 5.744860e+01 7.922538e+01 7.093665e+01 7.036099e+01 6.204826e+01 5.982049e+01 6.155137e+01 9.511367e+01 4.319132e+01 3.054958e+01 2.488388e-01 8.124030e-01 6.884471e-01 1.121697e+00 1.212108e+00 1.350252e+00 1.406250e+00 1.378233e+00 1.480229e+00 1.659868e+00 1.498631e+00 1.397467e+00 4.872217e-01 2.000000e-01 2.000000e-01 2.000000e-01 2.000000e-01 2.000000e-01 2.000000e-01 2.145770e-01 2.151821e-01 2.258972e-01 2.500353e-01 2.285511e-01 2.135842e-01 2.000000e-01
<GCONST> 1.024909e+02
<STATE> 4
<MEAN> 39
 -6.354791e+00 -3.419099e+00 -9.248514e+00 -1.306300e+01 -9.104367e+00 -7.910842e-01 -5.942253e+00 -3.962689e+00 -4.591265e+00 2.277202e-02 -1.139508e+00 -1.832345e+00 4.718571e+01 -1.264722e+00 -2.912411e-01 5.703171e-01 1.771275e+00 8.169336e-01 -7.139325e-01 1.781264e-01 5.307626e-01 5.168765e-01 -7.563555e-02 -3.796631e-01 -2.394936e-01 -9.517068e-01 -7.298370e-02 -5.658338e-02 1.015897e-01 -1.167416e-01 -1.114354e-01 5.138472e-02 1.370492e-01 1.310662e-01 2.088811e-02 -8.646931e-02 -6.037610e-02 2.595878e-03 1.504156e-01
<VARIANCE> 39
 5.552000e+01 3.845111e+01 4.290019e+01 1.071812e+02 6.643894e+01 6.799250e+01 8.323718e+01 6.407435e+01 6.969530e+01 6.646056e+01 6.167865e+01 4.465570e+01 9.386056e+01 2.781316e+00 2.866736e+00 3.429582e+00 5.482862e+00 4.960956e+00 4.947851e+00 5.156742e+00 5.246495e+00 6.115661e+00 6.029150e+00 4.959871e+00 3.932993e+00 4.756727e+00 4.500282e-01 4.442379e-01 4.633417e-01 1.013287e+00 8.168948e-01 8.328062e-01 8.917547e-01 9.116060e-01 1.132769e+00 1.054878e+00 8.849695e-01 7.378113e-01 7.122698e-01
<GCONST> 1.417783e+02
<TRANSP> 5
 0.000000e+00 1.000000e+00 0.000000e+00 0.000000e+00 0.000000e+00
 0.000000e+00 8.391570e-01 1.608429e-01 0.000000e+00 0.000000e+00
 0.000000e+00 0.000000e+00 9.348603e-01 6.513970e-02 0.000000e+00
 0.000000e+00 0.000000e+00 0.000000e+00 8.717323e-01 1.282677e-01
 0.000000e+00 0.000000e+00 0.000000e+00 0.000000e+00 0.000000e+00
<ENDHMM>
