~o
<STREAMINFO> 1 39
<VECSIZE> 39<NULLD><MFCC_D_A_0><DIAGC>
~h "oy"
<BEGINHMM>
<NUMSTATES> 5
<STATE> 2
<MEAN> 39
 5.759989e-02 -5.048692e+00 -1.267608e+01 -3.111828e+01 -1.388384e+01 6.360498e+00 -5.324261e+00 -2.917265e+00 -3.505656e+00 -3.616807e+00 2.528773e+00 1.231148e-01 6.333050e+01 1.303194e-01 -7.521535e-01 -3.570288e-01 4.978004e-01 2.046977e-01 3.565458e-01 -7.294586e-02 -2.634916e-01 6.659651e-02 5.369906e-01 4.982471e-01 -3.607359e-01 1.685836e-01 -1.095166e-01 -8.227091e-02 7.690266e-02 4.135241e-01 2.134128e-01 -3.704180e-01 -9.531842e-02 -5.429749e-02 5.698318e-02 2.919498e-01 -1.309841e-01 -2.605820e-01 -3.498105e-02
<VARIANCE> 39
 7.201289e+00 2.520852e+01 2.852401e+01 4.642332e+01 7.840980e+01 1.170346e+02 9.673878e+01 7.377905e+01 6.629870e+01 3.206746e+01 4.767063e+01 2.851483e+01 9.051982e+00 2.672467e-01 1.258138e+00 1.181094e+00 2.029460e+00 2.287906e+00 2.525505e+00 2.222848e+00 2.519417e+00 1.705269e+00 2.217555e+00 3.005611e+00 1.980096e+00 4.597242e-01 2.000000e-01 2.000000e-01 2.000000e-01 2.553595e-01 4.063179e-01 4.583333e-01 4.123104e-01 4.512795e-01 4.385968e-01 3.533683e-01 5.172468e-01 3.062118e-01 2.000000e-01
<GCONST> 1.098698e+02
<STATE> 3
<MEAN> 39
 -2.072428e+00 -1.376765e+01 -1.210829e+01 -1.724532e+01 -8.902374e+00 -4.593222e+00 -8.788019e+00 5.296885e-03 1.545122e+00 5.274921e+00 -2.717857e+00 -7.606249e+00 6.517851e+01 -7.943469e-01 -5.468112e-01 1.144741e+00 2.008439e+00 -1.766260e-01 -3.523390e+00 3.171467e-01 2.201965e+00 6.684950e-01 -4.727723e-01 -1.803977e+00 2.935902e-01 1.502255e-01 -1.189757e-02 4.058683e-01 4.254930e-01 -3.600843e-01 -6.953590e-01 1.544471e-01 3.984375e-01 2.834959e-02 -4.814726e-01 -6.211135e-01 3.239319e-01 6.734717e-01 -2.182753e-01
<VARIANCE> 39
 1.004082e+01 1.996455e+01 2.619720e+01 8.120065e+01 2.688296e+01 1.769864e+02 4.652839e+01 8.295084e+01 5.563657e+01 5.662030e+01 1.082897e+02 4.602839e+01 1.024701e+01 2.131899e-01 1.834056e+00 1.508811e+00 2.429279e+00 4.554750e+00 4.244893e+00 4.471739e+00 3.278162e+00 4.630992e+00 6.971075e+00 5.663105e+00 7.012541e+00 4.081776e-01 2.000000e-01 2.000000e-01 2.000000e-01 3.047018e-01 3.054686e-01 1.414982e+00 4.214350e-01 1.498488e+00 5.151030e-01 8.368250e-01 1.795238e+00 7.958823e-01 2.000000e-01
<GCONST> 1.231202e+02
<STATE> 4
<MEAN> 39
 -5.728503e+00 -8.346411e+00 1.169588e+00 -1.177934e+01 -1.730740e+01 -1.423812e+01 -4.066921e+00 4.686124e-01 -6.507411e+00 -5.348600e-01 -2.785077e+00 1.097336e-01 5.881471e+01 -3.114630e-01 1.424337e+00 9.511054e-01 1.428823e+00 3.028708e-01 3.911997e-01 -4.294829e-02 -1.549318e+00 -1.060740e+00 -3.793004e-01 1.430483e-01 -3.947428e-01 -2.143821e+00 -6.669604e-02 6.506602e-02 -3.372147e-01 1.746774e-01 5.712633e-01 2.638079e-01 -1.108533e-01 -2.014031e-01 1.741492e-01 2.320682e-01 -1.936830e-01 -3.411278e-01 -2.456123e-01
<VARIANCE> 39
 9.932877e+00 3.866885e+01 4.746280e+01 1.028036e+02 4.518164e+01 7.374990e+01 4.496903e+01 5.793155e+01 8.099757e+01 6.177244e+01 6.011794e+01 3.233862e+01 4.517299e+01 7.364553e-01 1.711270e+00 2.731344e+00 5.367504e+00 7.127689e+00 4.684190e+00 4.008959e+00 3.733338e+00 3.512149e+00 3.827669e+00 3.685980e+00 3.478371e+00 4.228652e+00 2.000000e-01 3.843034e-01 3.279766e-01 8.672592e-01 6.369074e-01 5.817400e-01 6.697667e-01 7.663090e-01 5.135111e-01 7.266425e-01 4.053917e-01 5.231547e-01 6.769754e-01
<GCONST> 1.293108e+02
<TRANSP> 5
 0.000000e+00 1.000000e+00 0.000000e+00 0.000000e+00 0.000000e+00
 0.000000e+00 9.055118e-01 9.448820e-02 0.000000e+00 0.000000e+00
 0.000000e+00 0.000000e+00 8.356164e-01 1.643836e-01 0.000000e+00
 0.000000e+00 0.000000e+00 0.000000e+00 8.878505e-01 1.121495e-01
 0.000000e+00 0.000000e+00 0.000000e+00 0.000000e+00 0.000000e+00
<ENDHMM>
