~o
<STREAMINFO> 1 39
<VECSIZE> 39<NULLD><MFCC_D_A_0><DIAGC>
~h "p"
<BEGINHMM>
<NUMSTATES> 5
<STATE> 2
<MEAN> 39
 -2.000349e+01 -1.120883e+00 -5.517311e+00 -8.592134e-01 -3.019772e+00 -1.022300e+00 -2.222709e+00 -8.863589e-01 -1.718936e+00 -6.369755e-01 -1.075661e+00 -6.593897e-01 3.051679e+01 -5.557347e-01 -4.415474e-01 -1.148595e-01 -8.692914e-02 1.235132e-01 3.030187e-02 3.574838e-01 4.632355e-01 5.364870e-01 2.710140e-01 1.530300e-01 2.755010e-01 5.288734e-01 3.843563e-01 -2.903113e-01 1.489065e-01 -3.146769e-01 -2.606074e-01 -2.318968e-01 -4.254972e-02 9.366730e-03 -7.412791e-02 1.901425e-02 3.817211e-02 -2.825607e-02 1.112803e+00
<VARIANCE> 39
 1.224337e+01 9.221317e+00 1.013998e+01 1.047382e+01 1.109201e+01 1.330127e+01 1.412961e+01 1.663994e+01 1.666901e+01 1.581879e+01 1.485889e+01 1.271135e+01 1.420320e+01 3.595820e+00 1.912871e+00 2.135848e+00 2.234520e+00 2.230886e+00 2.748857e+00 2.242115e+00 2.455891e+00 2.468659e+00 2.144061e+00 2.063862e+00 1.675391e+00 1.216452e+01 4.264321e-01 4.115312e-01 3.933383e-01 4.684733e-01 4.562481e-01 4.611773e-01 4.187630e-01 5.143587e-01 4.666498e-01 4.366825e-01 3.998111e-01 3.297887e-01 1.316767e+00
<GCONST> 1.075417e+02
<STATE> 3
<MEAN> 39
 -1.664538e+01 -8.010797e+00 -3.641023e+00 -4.196171e+00 -4.553539e+00 -5.179168e+00 -3.758858e-01 2.270359e+00 4.852222e-01 5.010014e-01 -6.525398e-02 7.907934e-01 5.229156e+01 7.190422e-01 -1.541102e+00 6.270149e-01 -1.409778e+00 -9.467827e-01 -6.227397e-01 4.292835e-01 -1.254627e-01 -4.414930e-01 1.315568e-01 1.174577e-02 -6.801838e-03 4.670539e+00 -6.182819e-02 4.264117e-01 -3.052082e-02 -2.412936e-01 -2.078912e-01 2.850854e-01 -3.093044e-01 -5.607502e-01 -4.907106e-01 -1.957071e-01 -2.521926e-01 -2.534744e-01 -1.275485e+00
<VARIANCE> 39
 1.238563e+01 1.967399e+01 2.838365e+01 2.128072e+01 2.464800e+01 2.624142e+01 2.889460e+01 2.443167e+01 2.393538e+01 2.288079e+01 2.133095e+01 1.862362e+01 5.961139e+01 2.582650e+00 2.119595e+00 2.979402e+00 3.284258e+00 3.049006e+00 3.015943e+00 3.245343e+00 3.563387e+00 3.361976e+00 2.568258e+00 2.219008e+00 2.059854e+00 1.396759e+01 4.435652e-01 4.973321e-01 4.605641e-01 5.763384e-01 6.116046e-01 6.348867e-01 7.623140e-01 6.854121e-01 6.967245e-01 5.548811e-01 5.941541e-01 4.231862e-01 1.539669e+00
<GCONST> 1.216138e+02
<STATE> 4
<MEAN> 39
 -1.539304e+01 -5.944146e+00 -8.782151e-01 -1.099854e+01 -8.404189e+00 -3.930741e+00 -2.834484e+00 -4.078139e+00 -4.103944e+00 -8.320324e-01 -2.621407e+00 -1.047942e+00 5.504049e+01 1.680990e+00 9.512154e-01 1.104680e+00 -1.389472e+00 -1.527173e+00 -1.843716e-01 -1.761344e+00 -1.356235e+00 -1.334757e+00 -9.631904e-01 -6.482589e-01 -6.060918e-01 6.247913e-01 1.564523e-01 1.373384e-01 1.184568e-01 1.569557e-01 -1.775149e-01 -1.524938e-02 -3.058600e-01 1.724624e-01 1.490436e-02 -8.376485e-02 1.408159e-01 -2.876573e-02 -2.773494e-01
<VARIANCE> 39
 4.755544e+01 3.382051e+01 7.603745e+01 4.953067e+01 4.665502e+01 3.540391e+01 5.046897e+01 3.850407e+01 3.837951e+01 3.472003e+01 3.121104e+01 2.321874e+01 3.828854e+01 3.868560e+00 3.177783e+00 5.514905e+00 5.475893e+00 4.852475e+00 4.182568e+00 5.547093e+00 4.443788e+00 4.702615e+00 3.964049e+00 4.673128e+00 2.707632e+00 4.092463e+00 7.142342e-01 7.243827e-01 5.880489e-01 7.147023e-01 6.569763e-01 6.377128e-01 9.287221e-01 7.289024e-01 7.825545e-01 7.420270e-01 6.355487e-01 4.575660e-01 1.287228e+00
<GCONST> 1.343938e+02
<TRANSP> 5
 0.000000e+00 1.000000e+00 0.000000e+00 0.000000e+00 0.000000e+00
 0.000000e+00 8.658088e-01 1.341912e-01 0.000000e+00 0.000000e+00
 0.000000e+00 0.000000e+00 6.460606e-01 3.539394e-01 0.000000e+00
 0.000000e+00 0.000000e+00 0.000000e+00 7.137255e-01 2.862745e-01
 0.000000e+00 0.000000e+00 0.000000e+00 0.000000e+00 0.000000e+00
<ENDHMM>
