~o
<STREAMINFO> 1 39
<VECSIZE> 39<NULLD><MFCC_D_A_0><DIAGC>
~h "r"
<BEGINHMM>
<NUMSTATES> 5
<STATE> 2
<MEAN> 39
 -1.770986e-01 -1.038547e+01 -1.578038e+01 -5.275010e+00 -3.912449e+00 -9.305581e+00 -1.570952e+01 1.848746e+00 8.783204e-01 -3.484103e+00 -1.889875e+00 -5.483772e-01 5.416390e+01 1.067671e-01 -4.545497e-01 7.968056e-01 2.891798e-01 -7.990299e-01 -9.513963e-01 -2.284371e-01 7.783038e-01 -7.307882e-02 -4.409929e-01 7.422890e-02 2.187413e-01 2.882861e-01 -4.618530e-01 -3.987757e-03 4.597330e-01 -4.146850e-02 -2.856970e-01 1.730552e-01 6.055309e-01 6.438140e-02 -2.556856e-01 1.554210e-02 1.314562e-01 -4.506854e-02 -1.053475e-01
<VARIANCE> 39
 4.404672e+01 5.047183e+01 5.139248e+01 4.249373e+01 5.976339e+01 9.190723e+01 1.201397e+02 1.055227e+02 9.096133e+01 4.722195e+01 4.270828e+01 3.006796e+01 8.642486e+01 4.126712e+00 2.764968e+00 4.735153e+00 2.809895e+00 3.832964e+00 4.391352e+00 6.443044e+00 5.628085e+00 4.161542e+00 3.452007e+00 2.674618e+00 2.355612e+00 3.747192e+00 5.238605e-01 3.957580e-01 5.020806e-01 4.606126e-01 5.420231e-01 6.597190e-01 9.781030e-01 7.998982e-01 7.264305e-01 5.343115e-01 4.454294e-01 3.757266e-01 3.249237e-01
<GCONST> 1.342075e+02
<STATE> 3
<MEAN> 39
 -3.205466e+00 -1.372068e+01 -9.484850e+00 -3.792484e+00 -1.038979e+01 -1.564144e+01 -1.048177e+01 9.082698e+00 -1.252723e+00 -5.607114e+00 -1.076435e+00 -2.755724e-02 5.469497e+01 -1.724122e+00 7.349798e-01 2.778821e+00 -2.498027e-01 -1.748456e+00 4.447706e-01 2.261642e+00 -6.986887e-01 -1.630156e+00 2.453556e-01 7.895301e-01 3.776816e-03 -1.219801e+00 -2.488241e-01 4.108387e-01 1.837848e-03 -3.649778e-01 3.191827e-01 8.023314e-01 7.637799e-02 -7.468074e-01 -1.214225e-02 3.619495e-01 -2.307155e-02 -2.532502e-01 -2.091798e-01
<VARIANCE> 39
 3.053770e+01 3.519605e+01 6.705116e+01 4.879996e+01 8.727332e+01 9.529137e+01 1.080552e+02 7.511585e+01 9.493974e+01 5.878137e+01 5.531881e+01 3.560411e+01 7.925049e+01 1.947836e+00 3.624326e+00 4.038393e+00 3.328566e+00 5.027061e+00 4.215096e+00 5.017331e+00 5.960415e+00 5.742822e+00 3.793416e+00 3.331351e+00 2.884033e+00 4.976648e+00 3.271992e-01 3.947147e-01 4.306735e-01 5.611697e-01 6.787156e-01 7.884660e-01 8.300555e-01 7.349507e-01 8.085523e-01 6.515218e-01 6.049216e-01 4.871161e-01 4.456308e-01
<GCONST> 1.360586e+02
<STATE> 4
<MEAN> 39
 -1.306079e+01 -7.522921e+00 -6.034644e+00 -4.197268e+00 -7.581918e+00 -6.633093e+00 -3.000553e+00 2.254085e+00 -2.913292e+00 -2.413170e+00 -1.243048e+00 -1.041198e+00 4.264392e+01 -1.245670e+00 7.938353e-01 1.272577e+00 -6.107265e-01 -8.470947e-02 1.372884e+00 6.002215e-01 -1.335649e+00 -5.244573e-01 4.687896e-01 1.434264e-01 -2.435654e-01 -5.909504e-01 3.599214e-01 -1.792506e-01 -3.357022e-01 -1.781987e-01 1.254307e-01 -3.479315e-02 -3.412697e-01 3.036546e-02 9.977549e-02 -5.685753e-02 -1.503880e-01 -4.116980e-02 5.278695e-01
<VARIANCE> 39
 5.747815e+01 4.876319e+01 6.419376e+01 4.938492e+01 7.769357e+01 7.331052e+01 5.901206e+01 5.948825e+01 6.441627e+01 5.082917e+01 4.265932e+01 3.243204e+01 1.328246e+02 5.161879e+00 4.040228e+00 4.614989e+00 4.568058e+00 4.938323e+00 5.216400e+00 4.544198e+00 4.823875e+00 4.937932e+00 3.582632e+00 3.310185e+00 2.920400e+00 8.915345e+00 5.821422e-01 6.483485e-01 6.435700e-01 6.799195e-01 9.056158e-01 8.006716e-01 6.976685e-01 8.707644e-01 8.215864e-01 6.457230e-01 6.273533e-01 5.275429e-01 1.098200e+00
<GCONST> 1.401885e+02
<TRANSP> 5
 0.000000e+00 1.000000e+00 0.000000e+00 0.000000e+00 0.000000e+00
 0.000000e+00 6.457192e-01 3.542808e-01 0.000000e+00 0.000000e+00
 0.000000e+00 0.000000e+00 5.201094e-01 4.798907e-01 0.000000e+00
 0.000000e+00 0.000000e+00 0.000000e+00 6.192689e-01 3.807311e-01
 0.000000e+00 0.000000e+00 0.000000e+00 0.000000e+00 0.000000e+00
<ENDHMM>
