~o
<STREAMINFO> 1 39
<VECSIZE> 39<NULLD><MFCC_D_A_0><DIAGC>
~h "s"
<BEGINHMM>
<NUMSTATES> 5
<STATE> 2
<MEAN> 39
 -2.298533e+01 -1.549499e+00 -7.348167e+00 -5.747187e+00 -2.913778e+00 -4.497231e+00 -6.801956e-01 5.588230e-01 -1.259062e+00 -1.056760e+00 -1.474005e+00 -3.672074e-02 4.585104e+01 -2.257530e+00 5.617667e-01 -4.877623e-01 -1.951385e-01 8.631961e-01 4.077432e-01 3.831791e-01 2.738664e-01 -5.193491e-03 2.209150e-01 5.177865e-01 2.780257e-01 6.604930e-01 3.431689e-01 -1.423170e-01 -2.651553e-02 -6.039542e-02 -2.065363e-01 -6.885381e-02 -1.616353e-01 -5.051994e-03 -1.296460e-02 3.913270e-02 -1.055267e-01 -7.941131e-02 1.012681e-01
<VARIANCE> 39
 3.230143e+01 2.034128e+01 2.416073e+01 3.271712e+01 2.965063e+01 3.248656e+01 2.750187e+01 2.547882e+01 2.199562e+01 2.012893e+01 1.942419e+01 1.641027e+01 1.478739e+02 6.128670e+00 2.261304e+00 2.513944e+00 2.945382e+00 3.049248e+00 3.435760e+00 2.825273e+00 2.777364e+00 2.867987e+00 2.702739e+00 2.613595e+00 1.989580e+00 3.296161e+00 6.908249e-01 4.576621e-01 3.909803e-01 4.920055e-01 5.026050e-01 5.588945e-01 5.622398e-01 5.034007e-01 4.733652e-01 4.471467e-01 4.554109e-01 4.016840e-01 3.671042e-01
<GCONST> 1.194580e+02
<STATE> 3
<MEAN> 39
 -3.107895e+01 1.915705e+00 -9.324852e+00 -6.963355e+00 1.865909e-01 -4.482901e+00 3.755495e-01 1.610143e+00 -1.351811e+00 -1.765180e-01 -7.579353e-01 6.203530e-01 5.613208e+01 -3.417100e-02 -4.826554e-02 7.056329e-02 -3.083790e-02 -2.936146e-02 -3.455086e-02 -8.273942e-02 4.193233e-02 -1.197971e-03 -7.390209e-04 -1.580581e-02 -5.590902e-03 -2.867943e-02 3.852459e-01 -1.365836e-01 1.606893e-01 -2.537499e-02 -1.611786e-01 -1.343910e-01 -7.940492e-02 -7.065976e-02 -1.155287e-02 -4.936165e-02 -6.307589e-02 -4.460307e-02 -1.265298e-01
<VARIANCE> 39
 7.369471e+00 1.967465e+01 2.878938e+01 3.634266e+01 3.668422e+01 3.049367e+01 2.460708e+01 2.232547e+01 1.722427e+01 1.562373e+01 1.452972e+01 1.309524e+01 1.801727e+01 6.448256e-01 9.566541e-01 9.150666e-01 1.034804e+00 1.229310e+00 1.275876e+00 1.296908e+00 1.333632e+00 1.304165e+00 1.289042e+00 1.196666e+00 1.106448e+00 5.967762e-01 2.426133e-01 2.000000e-01 2.105764e-01 2.222567e-01 2.621340e-01 2.817345e-01 2.882076e-01 3.017404e-01 2.893126e-01 2.884864e-01 2.620199e-01 2.374693e-01 2.000000e-01
<GCONST> 9.340936e+01
<STATE> 4
<MEAN> 39
 -2.037748e+01 -2.547270e+00 -5.640030e+00 -6.585477e+00 -4.541298e+00 -5.854614e+00 -2.864827e+00 -2.141617e-01 -1.704807e+00 -1.030331e+00 -1.957068e+00 -6.866921e-01 4.636129e+01 2.154551e+00 -6.796817e-01 8.751768e-01 -8.329412e-02 -1.236299e+00 -2.948388e-01 -7.633052e-01 -5.075492e-01 -3.611611e-01 -1.572932e-01 -1.683396e-01 -3.339323e-01 -6.321442e-01 -1.883683e-02 -7.032811e-02 1.427155e-02 -9.011953e-02 -9.048540e-02 1.078767e-01 -2.401418e-02 3.733586e-02 -5.278906e-02 1.483160e-02 5.423294e-02 -1.769075e-02 2.303987e-01
<VARIANCE> 39
 6.024922e+01 2.879377e+01 4.890395e+01 3.919312e+01 5.570655e+01 5.192186e+01 4.112715e+01 3.827966e+01 3.485002e+01 2.907045e+01 2.746141e+01 2.341456e+01 1.393311e+02 6.256549e+00 3.050785e+00 4.466753e+00 4.383663e+00 5.324285e+00 4.785711e+00 4.773567e+00 3.873005e+00 3.649510e+00 3.171217e+00 3.195292e+00 2.523241e+00 8.775034e+00 1.034536e+00 4.533106e-01 5.284128e-01 5.917338e-01 7.632437e-01 8.152514e-01 7.636626e-01 6.683722e-01 5.734943e-01 5.491149e-01 5.328198e-01 4.366074e-01 1.159445e+00
<GCONST> 1.336033e+02
<TRANSP> 5
 0.000000e+00 1.000000e+00 0.000000e+00 0.000000e+00 0.000000e+00
 0.000000e+00 8.165047e-01 1.834953e-01 0.000000e+00 0.000000e+00
 0.000000e+00 0.000000e+00 8.969827e-01 1.030173e-01 0.000000e+00
 0.000000e+00 0.000000e+00 0.000000e+00 8.675897e-01 1.324104e-01
 0.000000e+00 0.000000e+00 0.000000e+00 0.000000e+00 0.000000e+00
<ENDHMM>
