~o
<STREAMINFO> 1 39
<VECSIZE> 39<NULLD><MFCC_D_A_0><DIAGC>
~h "sh"
<BEGINHMM>
<NUMSTATES> 5
<STATE> 2
<MEAN> 39
 -2.392519e+01 -5.159823e+00 6.122029e-01 -6.465027e+00 -6.489654e+00 -2.737158e+00 -1.422533e+00 1.449342e-01 -9.042868e-01 -1.619937e+00 -2.797815e-01 -2.822043e-01 4.829636e+01 -2.861091e+00 -3.657108e-01 3.612759e-01 -4.734737e-01 7.565668e-01 1.150271e+00 6.709532e-01 2.455679e-01 7.875401e-01 2.681315e-01 1.764254e-01 7.061663e-02 1.146143e+00 4.474684e-01 -8.821652e-02 2.461162e-03 -1.692894e-01 -3.469821e-01 -2.029533e-01 -1.726504e-01 -1.149365e-01 -1.126542e-01 7.080347e-03 -4.514828e-03 -3.414220e-02 1.696422e-01
<VARIANCE> 39
 3.373941e+01 2.381350e+01 5.059016e+01 3.793197e+01 3.056441e+01 2.829931e+01 2.331830e+01 2.294451e+01 2.678172e+01 2.070555e+01 1.600736e+01 1.589357e+01 1.630058e+02 6.644083e+00 1.963984e+00 2.751887e+00 2.667440e+00 4.057295e+00 4.166604e+00 3.205576e+00 3.216765e+00 3.382598e+00 2.247903e+00 2.030171e+00 1.882809e+00 2.760564e+00 7.814826e-01 4.206824e-01 3.914174e-01 5.505005e-01 5.957062e-01 6.306538e-01 5.372763e-01 4.957633e-01 5.817526e-01 4.228407e-01 3.922374e-01 3.594363e-01 2.968233e-01
<GCONST> 1.205041e+02
<STATE> 3
<MEAN> 39
 -3.152876e+01 -6.794177e+00 4.875725e+00 -9.457544e+00 -6.976000e+00 -4.630901e-01 3.514568e-01 -1.389542e+00 4.828205e-01 -1.560835e+00 5.770934e-02 -6.414435e-01 5.944844e+01 1.647629e-01 -1.436046e-01 -5.680262e-02 3.365300e-02 -1.548503e-01 -1.619886e-01 1.342990e-01 -7.817142e-02 -2.245940e-02 -3.811176e-02 -8.519913e-02 -4.217098e-02 -8.293347e-03 5.431319e-01 -4.122230e-03 -6.028930e-02 5.472674e-02 -1.501938e-01 -2.457222e-01 -1.343427e-01 2.393996e-02 -1.237121e-01 -8.133622e-02 -6.288787e-02 -6.708858e-03 -1.877985e-01
<VARIANCE> 39
 7.701619e+00 2.391537e+01 2.171858e+01 3.008474e+01 3.529773e+01 2.181688e+01 2.661758e+01 1.990092e+01 1.729509e+01 1.948046e+01 1.417640e+01 1.367448e+01 1.734385e+01 9.625930e-01 6.229345e-01 8.031343e-01 8.746315e-01 1.078340e+00 1.335748e+00 1.274910e+00 1.259150e+00 1.349521e+00 1.310909e+00 1.222658e+00 1.009688e+00 6.214056e-01 3.212566e-01 2.000000e-01 2.000000e-01 2.000000e-01 2.373814e-01 3.190385e-01 2.874481e-01 2.857957e-01 2.913236e-01 2.918547e-01 2.568286e-01 2.170789e-01 2.000000e-01
<GCONST> 9.250873e+01
<STATE> 4
<MEAN> 39
 -1.789253e+01 -7.418416e+00 1.533804e-01 -7.448483e+00 -1.035199e+01 -5.845443e+00 -2.981923e+00 -1.071065e-01 -1.388497e+00 -3.895006e+00 -1.923946e+00 -2.262408e-01 5.017647e+01 3.322536e+00 -2.617052e-01 -7.728825e-01 -2.451448e-02 -9.176061e-01 -1.294933e+00 -1.351182e+00 3.631455e-01 -4.141509e-01 -4.164201e-01 -3.132461e-01 -1.896247e-02 -7.069723e-01 -1.221358e-01 -1.209249e-01 -9.559739e-02 -9.198484e-02 1.119401e-01 1.721669e-01 -3.399553e-02 8.188468e-02 6.872842e-02 8.767243e-02 1.587593e-02 -1.166117e-02 1.623408e-01
<VARIANCE> 39
 7.208750e+01 2.958860e+01 3.985849e+01 4.015736e+01 4.383429e+01 4.472068e+01 3.774062e+01 3.029140e+01 3.361871e+01 3.118057e+01 2.356008e+01 1.773680e+01 1.497414e+02 7.960951e+00 3.253892e+00 2.682230e+00 2.381445e+00 4.229471e+00 4.543910e+00 5.056754e+00 3.445290e+00 3.567505e+00 3.428274e+00 2.656278e+00 2.002668e+00 2.477513e+00 1.289711e+00 4.119639e-01 3.386672e-01 3.168558e-01 5.718058e-01 7.306427e-01 8.064451e-01 5.437960e-01 5.353634e-01 5.698214e-01 4.303118e-01 3.195413e-01 2.249030e-01
<GCONST> 1.261220e+02
<TRANSP> 5
 0.000000e+00 1.000000e+00 0.000000e+00 0.000000e+00 0.000000e+00
 0.000000e+00 7.773196e-01 2.226804e-01 0.000000e+00 0.000000e+00
 0.000000e+00 0.000000e+00 8.947368e-01 1.052632e-01 0.000000e+00
 0.000000e+00 0.000000e+00 0.000000e+00 8.366112e-01 1.633888e-01
 0.000000e+00 0.000000e+00 0.000000e+00 0.000000e+00 0.000000e+00
<ENDHMM>
