~o
<STREAMINFO> 1 39
<VECSIZE> 39<NULLD><MFCC_D_A_0><DIAGC>
~h "sil"
<BEGINHMM>
<NUMSTATES> 5
<STATE> 2
<MEAN> 39
 -2.128882e+01 -2.072772e+00 -6.860131e+00 -1.478601e+00 -3.306469e+00 -5.812969e-01 -1.933797e+00 -1.993387e-01 -9.698024e-01 -4.993867e-01 -6.254422e-01 -1.687068e-01 3.015085e+01 1.281669e-01 2.205613e-02 9.755228e-02 -1.225133e-01 2.123431e-02 2.892551e-02 3.107597e-02 -1.184116e-01 -4.911901e-02 8.591335e-02 -8.454148e-03 7.789376e-03 2.196661e-01 1.794311e-01 -5.160996e-02 3.280485e-03 -1.140835e-01 -8.835151e-02 -3.813331e-02 -2.315468e-02 -1.499416e-02 -5.631877e-02 -3.344540e-02 -4.926952e-02 -5.558953e-02 2.465199e-01
<VARIANCE> 39
 3.978282e+00 6.220746e+00 9.193674e+00 9.762557e+00 1.151990e+01 1.347537e+01 1.397254e+01 1.426017e+01 1.558813e+01 1.491066e+01 1.473100e+01 1.287784e+01 5.829141e+00 8.130630e-01 9.339134e-01 1.311571e+00 1.491714e+00 1.593522e+00 1.559920e+00 1.690514e+00 1.845622e+00 2.052342e+00 1.940224e+00 1.911765e+00 1.558593e+00 1.277093e+00 2.000000e-01 2.000000e-01 2.000000e-01 2.019593e-01 2.114218e-01 2.150001e-01 2.286599e-01 2.332300e-01 2.553965e-01 2.554336e-01 2.520828e-01 2.050923e-01 2.514230e-01
<GCONST> 8.781898e+01
<STATE> 3
<MEAN> 39
 -2.122226e+01 -1.842011e+00 -6.525460e+00 -1.761026e+00 -3.039038e+00 -3.914817e-01 -1.515219e+00 -2.996545e-01 -1.175821e+00 -1.418904e-01 -7.477289e-01 -8.065552e-02 3.045484e+01 1.093482e+00 -3.246051e-01 8.872434e-02 -8.513641e-01 -4.583223e-01 -1.563199e-01 -1.078013e-02 -1.962021e-01 -2.895629e-01 -7.721311e-02 -1.853613e-01 -2.654301e-01 1.539722e+00 4.467329e-01 -2.148599e-01 -6.447020e-03 -3.756717e-01 -2.293920e-01 -1.174687e-01 -1.279951e-01 -6.064919e-02 -1.198787e-01 -1.111889e-01 -6.023696e-02 -1.582130e-01 7.297603e-01
<VARIANCE> 39
 6.725829e+00 6.154447e+00 1.164797e+01 1.303324e+01 1.345530e+01 1.346070e+01 1.482818e+01 1.522855e+01 1.638693e+01 1.535999e+01 1.447054e+01 1.392619e+01 9.957367e+00 3.310942e+00 3.063388e+00 4.102746e+00 4.623148e+00 3.751655e+00 3.290884e+00 3.035949e+00 3.000311e+00 3.341662e+00 2.710611e+00 2.941900e+00 2.220490e+00 6.414609e+00 3.912592e-01 3.528840e-01 5.091021e-01 6.236892e-01 5.082046e-01 4.631531e-01 4.377688e-01 4.707022e-01 5.492363e-01 4.291762e-01 4.293548e-01 3.655694e-01 9.086474e-01
<GCONST> 1.105493e+02
<STATE> 4
<MEAN> 39
 -1.827732e+01 -3.536013e+00 -6.339050e+00 -4.324666e+00 -4.130770e+00 -1.180976e+00 -1.980035e+00 -8.582178e-01 -1.598375e+00 -3.930629e-01 -1.340552e+00 -1.014548e+00 3.536162e+01 1.787064e+00 -6.615139e-01 6.151093e-02 -1.530071e+00 -8.248802e-01 -2.446975e-01 -3.074422e-01 -3.438248e-01 -5.069002e-01 -2.151387e-01 -3.118620e-01 -4.910517e-01 2.620471e+00 1.016228e-01 -6.063100e-02 3.739735e-02 -7.795813e-02 -9.337314e-02 2.097548e-03 -1.049227e-01 -2.184264e-03 -5.948435e-02 -7.417692e-02 2.340987e-02 -6.469075e-02 2.537548e-01
<VARIANCE> 39
 3.940432e+01 3.646953e+01 4.438273e+01 4.918768e+01 4.049871e+01 3.244503e+01 3.053769e+01 2.939027e+01 2.930674e+01 2.439043e+01 2.482935e+01 2.082926e+01 6.850466e+01 5.182849e+00 4.698948e+00 5.255406e+00 7.729194e+00 4.907389e+00 4.309760e+00 4.109827e+00 4.046134e+00 3.961985e+00 3.560758e+00 3.271662e+00 2.850389e+00 1.388692e+01 4.831735e-01 5.383581e-01 5.097808e-01 7.218677e-01 5.921714e-01 5.123984e-01 5.790832e-01 5.467004e-01 5.723391e-01 5.636327e-01 4.825706e-01 4.487144e-01 8.976838e-01
<GCONST> 1.304756e+02
<TRANSP> 5
 0.000000e+00 1.000000e+00 0.000000e+00 0.000000e+00 0.000000e+00
 0.000000e+00 4.513557e-01 5.486444e-01 0.000000e+00 0.000000e+00
 0.000000e+00 0.000000e+00 2.208380e-01 7.791619e-01 0.000000e+00
 0.000000e+00 0.000000e+00 0.000000e+00 2.073733e-01 7.926267e-01
 0.000000e+00 0.000000e+00 0.000000e+00 0.000000e+00 0.000000e+00
<ENDHMM>
