~o
<STREAMINFO> 1 39
<VECSIZE> 39<NULLD><MFCC_D_A_0><DIAGC>
~h "sp"
<BEGINHMM>
<NUMSTATES> 3
<STATE> 2
<MEAN> 39
 -1.653222e+01 -3.410306e+00 -7.545013e-01 -9.201806e+00 -1.006978e+01 -2.709582e+00 -3.318274e+00 -3.280982e+00 -3.032495e+00 1.801418e-03 -1.360497e+00 -1.473587e+00 4.222143e+01 2.023873e+00 -1.323584e+00 1.719169e+00 -3.441529e+00 -2.261066e+00 -1.602837e-01 -4.369109e-01 -8.687700e-01 -1.246701e+00 -6.718377e-01 -8.456109e-01 -1.137771e+00 5.911758e+00 5.868865e-01 -1.282865e-01 1.659983e-01 -7.623064e-01 -6.314840e-01 -4.036598e-01 -4.147015e-01 -1.312740e-01 -2.528307e-01 -3.542605e-02 -7.189544e-02 -1.958326e-01 1.011865e+00
<VARIANCE> 39
 3.136680e+01 4.418600e+01 1.076805e+02 8.402299e+01 7.721525e+01 5.098195e+01 5.437561e+01 4.983368e+01 3.832176e+01 3.584451e+01 3.676221e+01 2.480781e+01 1.104607e+02 3.480933e+00 5.268664e+00 1.010049e+01 8.103984e+00 6.997187e+00 6.151503e+00 6.425458e+00 6.272045e+00 5.730775e+00 5.070772e+00 5.349524e+00 4.046531e+00 6.775097e+00 6.597384e-01 5.952911e-01 1.197371e+00 1.492225e+00 1.343279e+00 8.497375e-01 7.926658e-01 9.569631e-01 1.086597e+00 6.424446e-01 8.312309e-01 6.090145e-01 2.231045e+00
<GCONST> 1.453439e+02
<TRANSP> 3
 0.000000e+00 1.000000e+00 0.000000e+00
 0.000000e+00 5.348226e-01 4.651774e-01
 0.000000e+00 0.000000e+00 0.000000e+00
<ENDHMM>
