~o
<STREAMINFO> 1 39
<VECSIZE> 39<NULLD><MFCC_D_A_0><DIAGC>
~h "t"
<BEGINHMM>
<NUMSTATES> 5
<STATE> 2
<MEAN> 39
 -2.064201e+01 -1.446883e+00 -5.336724e+00 -1.428549e+00 -3.291487e+00 -1.322042e+00 -2.012617e+00 -7.086903e-01 -1.684615e+00 -6.941498e-01 -9.130986e-01 -4.105106e-01 3.127897e+01 -4.489457e-01 -5.106918e-01 -5.065930e-01 -3.771507e-01 2.519930e-01 2.128758e-01 2.068715e-01 2.081604e-01 2.824202e-01 2.704916e-01 2.686774e-01 1.796246e-01 4.943184e-01 6.725629e-02 -9.913326e-02 9.231071e-02 -4.242009e-01 -2.155071e-01 -2.289946e-01 1.458764e-03 -5.194340e-02 -8.049854e-02 2.138473e-02 1.553933e-04 -2.714902e-05 1.148124e+00
<VARIANCE> 39
 9.146672e+00 1.181235e+01 1.370900e+01 1.407306e+01 1.401786e+01 1.560010e+01 1.521604e+01 1.767530e+01 1.707549e+01 1.684739e+01 1.526434e+01 1.283583e+01 2.238782e+01 2.015440e+00 2.176941e+00 2.758869e+00 3.870536e+00 2.798011e+00 2.678767e+00 2.241263e+00 2.621935e+00 2.606999e+00 2.175878e+00 2.042458e+00 1.685507e+00 1.330259e+01 3.189583e-01 3.949016e-01 4.325344e-01 5.816543e-01 5.224885e-01 4.806082e-01 4.234324e-01 4.918410e-01 4.432993e-01 4.187138e-01 3.811178e-01 3.147810e-01 1.733288e+00
<GCONST> 1.101871e+02
<STATE> 3
<MEAN> 39
 -2.283643e+01 -4.758451e+00 -5.937644e+00 -9.784277e+00 -4.862250e+00 -4.853732e+00 1.716260e-01 -5.306027e-01 -1.606320e+00 1.549265e-01 -4.994070e-01 7.383909e-01 5.409614e+01 -3.098448e-02 5.070405e-03 5.621306e-01 -3.549703e-01 -5.860670e-01 -4.444324e-01 2.379907e-01 -2.084357e-01 -9.081353e-02 -1.391513e-01 -2.147679e-01 3.569517e-02 1.726364e+00 4.268243e-01 1.219801e-01 3.339508e-01 3.799767e-01 -1.475684e-01 7.453490e-02 -2.320135e-01 -1.349501e-01 -1.354555e-01 -1.704485e-01 -1.440925e-01 -1.370383e-01 -9.558647e-01
<VARIANCE> 39
 3.128825e+01 2.792443e+01 2.653397e+01 2.463597e+01 2.361409e+01 2.722822e+01 2.759752e+01 2.913874e+01 2.483347e+01 2.435488e+01 2.130212e+01 1.695900e+01 8.987940e+01 3.118999e+00 2.396652e+00 2.801632e+00 3.670437e+00 2.165705e+00 2.820363e+00 2.566864e+00 2.345983e+00 2.156226e+00 2.120467e+00 2.004023e+00 1.742147e+00 1.651085e+01 6.191037e-01 5.875998e-01 5.298932e-01 6.636667e-01 4.702533e-01 5.546203e-01 5.823491e-01 5.000723e-01 4.973601e-01 4.470094e-01 4.418386e-01 3.753236e-01 1.634966e+00
<GCONST> 1.209602e+02
<STATE> 4
<MEAN> 39
 -1.557304e+01 -3.698850e+00 2.755348e+00 -9.257160e+00 -1.114877e+01 -6.159463e+00 -3.466679e+00 -5.148378e+00 -4.977976e+00 -2.746253e+00 -3.042693e+00 -1.445835e+00 5.576695e+01 3.192215e+00 -8.158692e-02 2.390173e+00 -5.516980e-01 -2.602042e+00 -4.826070e-01 -2.420638e+00 -1.083409e+00 -1.460410e+00 -9.590044e-01 -2.460980e-01 -9.132660e-01 5.969413e-01 -2.746832e-01 -1.310293e-01 -1.537931e-01 -3.084485e-01 -1.178752e-01 1.235417e-01 -1.891675e-01 2.002193e-01 -1.500413e-03 1.341823e-01 2.853450e-01 2.397391e-02 2.450778e-01
<VARIANCE> 39
 4.639278e+01 3.024299e+01 5.896716e+01 4.119068e+01 5.095060e+01 3.758636e+01 5.788687e+01 5.266277e+01 3.830843e+01 3.161411e+01 3.128114e+01 2.155409e+01 6.275476e+01 3.159160e+00 3.259962e+00 5.086110e+00 4.797898e+00 4.765078e+00 4.214429e+00 5.297066e+00 4.347079e+00 4.195592e+00 3.787449e+00 4.486178e+00 2.616482e+00 2.528108e+00 8.388028e-01 4.087702e-01 5.317194e-01 4.630744e-01 7.880375e-01 5.953844e-01 9.388098e-01 5.996647e-01 5.911874e-01 5.429767e-01 4.848871e-01 3.852907e-01 5.277893e-01
<GCONST> 1.306139e+02
<TRANSP> 5
 0.000000e+00 1.000000e+00 0.000000e+00 0.000000e+00 0.000000e+00
 0.000000e+00 8.655602e-01 1.344398e-01 0.000000e+00 0.000000e+00
 0.000000e+00 0.000000e+00 8.432619e-01 1.567381e-01 0.000000e+00
 0.000000e+00 0.000000e+00 0.000000e+00 6.741379e-01 3.258621e-01
 0.000000e+00 0.000000e+00 0.000000e+00 0.000000e+00 0.000000e+00
<ENDHMM>
