~o
<STREAMINFO> 1 39
<VECSIZE> 39<NULLD><MFCC_D_A_0><DIAGC>
~h "th"
<BEGINHMM>
<NUMSTATES> 5
<STATE> 2
<MEAN> 39
 -2.056810e+01 -2.099417e+00 -6.558763e+00 -3.032282e+00 -3.183518e+00 -2.560364e+00 -1.276736e+00 -3.728538e-01 -6.436723e-01 9.657364e-02 -1.277447e+00 -2.996870e-01 4.266006e+01 -1.528171e+00 -1.224038e-01 -4.447736e-01 2.101089e-03 1.144556e-02 6.896892e-01 2.077111e-01 2.937367e-01 2.048897e-01 1.026089e-01 3.354093e-01 1.920285e-01 -1.088395e-01 4.813791e-01 -1.969852e-01 -8.371582e-02 -2.955381e-01 -2.856916e-01 -3.071249e-01 -2.338175e-01 -8.400800e-02 -1.382804e-01 -4.915666e-02 -5.116613e-02 -5.251108e-02 3.058634e-01
<VARIANCE> 39
 1.848772e+01 2.082817e+01 2.094825e+01 1.884895e+01 1.537926e+01 1.909660e+01 1.738622e+01 1.900260e+01 1.918583e+01 2.249194e+01 1.355089e+01 1.322458e+01 8.445788e+01 4.356454e+00 3.269500e+00 3.769928e+00 3.347921e+00 2.856736e+00 3.682850e+00 2.095128e+00 2.743774e+00 3.069640e+00 3.307776e+00 2.102618e+00 2.268981e+00 6.477087e+00 5.825236e-01 6.645128e-01 7.392325e-01 7.124327e-01 5.161884e-01 7.351766e-01 5.172342e-01 4.678972e-01 5.821198e-01 5.415791e-01 3.919919e-01 4.006626e-01 1.040064e+00
<GCONST> 1.188824e+02
<STATE> 3
<MEAN> 39
 -2.148156e+01 -4.193213e+00 -8.601147e+00 -4.838511e+00 -4.564146e+00 -3.145154e+00 -1.885613e+00 -1.474629e-01 -1.070062e+00 -1.122950e+00 -7.398539e-01 3.348812e-01 4.388966e+01 2.869690e-01 -1.923114e-01 -1.187728e-01 -1.568509e-01 -1.534532e-01 -1.116144e-01 -4.489451e-03 4.884079e-02 1.082254e-01 -7.379884e-02 -6.380533e-02 2.664672e-02 2.417319e-02 1.883658e-01 2.441619e-02 6.043179e-02 -1.031535e-02 -2.142324e-02 -4.671525e-02 2.683564e-02 -1.199203e-02 2.619403e-02 1.361612e-02 -7.067745e-02 -2.401479e-02 6.466158e-02
<VARIANCE> 39
 2.068026e+01 1.566819e+01 1.185872e+01 1.622512e+01 1.769198e+01 1.689362e+01 1.627865e+01 1.519258e+01 1.608019e+01 1.712243e+01 1.405189e+01 1.669699e+01 6.910389e+01 1.330445e+00 1.115279e+00 1.000749e+00 1.328145e+00 1.536008e+00 1.415502e+00 1.617344e+00 1.554130e+00 1.845457e+00 1.806192e+00 1.399330e+00 1.443467e+00 4.298505e+00 3.181396e-01 2.152991e-01 2.180666e-01 2.342438e-01 3.255191e-01 2.592455e-01 3.470286e-01 3.034893e-01 3.383976e-01 3.387416e-01 2.592797e-01 2.961684e-01 5.918789e-01
<GCONST> 9.934710e+01
<STATE> 4
<MEAN> 39
 -1.430067e+01 -4.287474e+00 -8.322837e+00 -7.296718e+00 -7.100436e+00 -6.375119e+00 -1.829821e+00 -6.898941e-01 -4.990641e-01 -7.538122e-01 -1.770220e+00 -7.869926e-01 4.824214e+01 1.743982e+00 -4.590868e-01 -2.143325e-02 -6.656394e-01 -7.056621e-01 -1.291419e+00 -5.056865e-01 1.183395e-01 -1.807442e-01 -1.873349e-01 -2.497355e-01 -2.617985e-01 1.010690e+00 2.131429e-02 -1.357314e-01 -3.402959e-02 -4.543905e-02 2.956357e-02 -5.800706e-02 -1.387318e-01 1.088550e-01 -8.854273e-02 -4.760474e-02 1.270644e-01 -1.033099e-02 -1.249674e-01
<VARIANCE> 39
 6.589041e+01 2.864743e+01 2.136329e+01 2.902740e+01 3.449017e+01 5.064834e+01 3.756393e+01 2.273308e+01 5.022842e+01 2.548557e+01 2.838243e+01 2.322459e+01 1.212274e+02 7.549227e+00 3.329342e+00 3.090947e+00 3.723286e+00 4.274123e+00 5.937526e+00 5.520156e+00 2.838677e+00 4.257002e+00 3.024071e+00 2.996864e+00 2.900506e+00 6.888572e+00 9.727832e-01 4.991685e-01 5.006755e-01 5.072882e-01 6.240627e-01 9.751523e-01 8.722277e-01 5.746051e-01 7.278684e-01 4.771509e-01 4.874490e-01 4.675100e-01 7.529188e-01
<GCONST> 1.305088e+02
<TRANSP> 5
 0.000000e+00 1.000000e+00 0.000000e+00 0.000000e+00 0.000000e+00
 0.000000e+00 7.623762e-01 2.376238e-01 0.000000e+00 0.000000e+00
 0.000000e+00 0.000000e+00 8.846154e-01 1.153846e-01 0.000000e+00
 0.000000e+00 0.000000e+00 0.000000e+00 7.538462e-01 2.461538e-01
 0.000000e+00 0.000000e+00 0.000000e+00 0.000000e+00 0.000000e+00
<ENDHMM>
