~o
<STREAMINFO> 1 39
<VECSIZE> 39<NULLD><MFCC_D_A_0><DIAGC>
~h "uh"
<BEGINHMM>
<NUMSTATES> 5
<STATE> 2
<MEAN> 39
 -4.366318e-01 -2.772948e+00 -9.788901e+00 -2.020525e+01 -1.549174e+01 6.596113e-01 -9.746214e+00 -6.240892e+00 -7.274886e+00 -3.059172e+00 2.499876e+00 -4.183260e+00 5.825479e+01 -6.093006e-02 -7.642515e-01 -1.035063e-01 -8.336933e-01 -4.165364e-01 3.220515e-01 -3.690053e-01 -2.097020e-01 5.087993e-01 7.489455e-01 8.055006e-01 -2.357250e-01 1.036373e+00 -2.410892e-01 -7.382511e-02 8.949138e-02 3.563465e-01 2.680944e-01 -2.111467e-01 1.165037e-01 1.421792e-01 1.653337e-01 6.974509e-02 -2.716852e-01 4.076038e-02 -2.059775e-01
<VARIANCE> 39
 7.676873e+00 3.657936e+01 3.073118e+01 5.877662e+01 7.553484e+01 7.946172e+01 6.497227e+01 7.239826e+01 7.551258e+01 7.127206e+01 1.318797e+02 4.975204e+01 4.538614e+01 7.471846e-01 1.198952e+00 1.176533e+00 3.139087e+00 4.154287e+00 3.397785e+00 2.492523e+00 3.040595e+00 3.283208e+00 2.824476e+00 3.244372e+00 2.574933e+00 9.346789e-01 2.606005e-01 2.000000e-01 2.264109e-01 4.833912e-01 6.799759e-01 4.585601e-01 3.105065e-01 4.505718e-01 5.170222e-01 4.972735e-01 7.148477e-01 4.374341e-01 2.000000e-01
<GCONST> 1.208874e+02
<STATE> 3
<MEAN> 39
 -3.351114e+00 -1.047916e+01 -8.156161e+00 -1.728325e+01 -1.353397e+01 -5.319767e+00 -1.204516e+01 -4.220155e+00 4.582870e-01 5.355370e+00 1.879258e+00 -5.573387e+00 6.303312e+01 -2.530798e-01 -2.456000e-01 4.042383e-01 4.228934e-01 1.473210e-01 -9.750659e-01 2.180567e-01 7.095489e-01 5.321629e-01 3.113314e-02 -6.389044e-01 2.063696e-01 -2.954279e-01 -3.219198e-02 1.739493e-01 9.740871e-02 1.649773e-01 2.907099e-02 4.928232e-02 4.149509e-02 -7.071345e-02 -1.620585e-01 -2.485482e-01 -1.904012e-02 1.725602e-01 -2.905328e-01
<VARIANCE> 39
 1.406407e+01 2.685657e+01 3.932236e+01 5.402245e+01 7.176901e+01 1.103997e+02 1.141555e+02 1.032338e+02 6.984924e+01 5.756152e+01 1.411236e+02 4.904385e+01 2.345497e+01 3.047881e-01 1.049172e+00 1.097583e+00 1.296075e+00 1.380639e+00 1.813460e+00 1.402475e+00 2.272366e+00 2.013113e+00 3.330218e+00 2.589111e+00 2.133565e+00 6.324002e-01 2.000000e-01 2.000000e-01 2.000000e-01 2.097907e-01 2.315513e-01 3.130589e-01 3.084453e-01 3.126209e-01 2.946473e-01 3.047175e-01 3.513995e-01 3.306352e-01 2.000000e-01
<GCONST> 1.108384e+02
<STATE> 4
<MEAN> 39
 -6.670711e+00 -7.513505e+00 -3.901227e+00 -8.716455e+00 -1.017125e+01 -8.644965e+00 -9.926865e+00 -2.849850e+00 -4.543783e-01 7.179758e-01 -1.607091e+00 -1.513932e+00 5.133887e+01 -1.624038e+00 1.709852e+00 9.058480e-01 2.867034e+00 1.296243e+00 1.005819e+00 8.797825e-01 -4.441741e-01 -7.120160e-01 -1.196114e+00 -1.030210e+00 6.061569e-01 -3.835087e+00 -4.036083e-01 1.421549e-01 -1.512714e-01 2.160481e-02 2.569925e-01 3.806639e-01 2.437241e-01 9.683725e-02 -2.069288e-02 8.419561e-02 6.583724e-02 -2.481652e-01 -6.658617e-02
<VARIANCE> 39
 3.045022e+01 3.679316e+01 9.526990e+01 8.411516e+01 6.686173e+01 8.201735e+01 6.500869e+01 5.344094e+01 4.639577e+01 9.355050e+01 1.139032e+02 3.978833e+01 9.730081e+01 3.852632e+00 5.246307e+00 2.608331e+00 4.730541e+00 5.235536e+00 6.639167e+00 5.355865e+00 5.288424e+00 3.486438e+00 6.312335e+00 7.495229e+00 3.933009e+00 5.330801e+00 4.664691e-01 8.673714e-01 4.320521e-01 1.242026e+00 8.442367e-01 8.814701e-01 7.415466e-01 9.133109e-01 5.978584e-01 1.320714e+00 1.116706e+00 7.182381e-01 1.410094e+00
<GCONST> 1.440568e+02
<TRANSP> 5
 0.000000e+00 1.000000e+00 0.000000e+00 0.000000e+00 0.000000e+00
 0.000000e+00 7.894737e-01 2.105263e-01 0.000000e+00 0.000000e+00
 0.000000e+00 0.000000e+00 8.787879e-01 1.212121e-01 0.000000e+00
 0.000000e+00 0.000000e+00 0.000000e+00 7.752809e-01 2.247191e-01
 0.000000e+00 0.000000e+00 0.000000e+00 0.000000e+00 0.000000e+00
<ENDHMM>
