~o
<STREAMINFO> 1 39
<VECSIZE> 39<NULLD><MFCC_D_A_0><DIAGC>
~h "uw"
<BEGINHMM>
<NUMSTATES> 5
<STATE> 2
<MEAN> 39
 -4.754555e+00 -7.991466e+00 2.015357e+00 -7.134957e+00 -1.486812e+01 -1.084169e+01 -1.552293e+01 -3.228983e+00 -7.541942e+00 -2.993663e+00 -1.556236e+00 -3.888093e+00 5.793597e+01 3.187704e-01 2.635890e-01 -7.659914e-01 -3.720284e-01 6.621829e-01 5.725640e-01 -4.151122e-01 -6.025693e-01 1.560359e-01 6.094155e-01 4.787076e-02 -3.978298e-01 -3.864551e-01 -1.097341e-01 1.468521e-01 3.965240e-02 -7.853151e-02 -1.097658e-02 2.148878e-01 2.927325e-01 -1.552927e-01 -1.716399e-01 2.780897e-02 1.471665e-01 4.314439e-02 -1.430879e-01
<VARIANCE> 39
 1.519499e+01 3.244271e+01 6.101556e+01 7.330254e+01 5.743354e+01 7.644995e+01 7.475828e+01 7.410654e+01 7.937186e+01 7.552096e+01 7.602440e+01 4.862458e+01 3.326018e+01 6.792859e-01 1.115507e+00 2.472911e+00 1.815041e+00 2.635901e+00 2.981592e+00 2.556354e+00 3.261763e+00 2.813352e+00 3.001812e+00 2.129100e+00 1.911523e+00 9.365182e-01 2.000000e-01 2.000000e-01 2.338436e-01 2.645097e-01 4.013658e-01 4.037117e-01 4.767162e-01 4.273381e-01 4.910211e-01 3.937043e-01 3.954986e-01 3.451564e-01 2.000000e-01
<GCONST> 1.179297e+02
<STATE> 3
<MEAN> 39
 -2.189148e+00 -1.473116e+00 -6.047923e+00 -1.178822e+01 -9.867456e+00 -3.097214e+00 -1.282536e+01 -1.059008e+01 -1.124347e+01 7.700785e-01 1.578612e+00 -4.056524e+00 5.156516e+01 -4.396220e-01 4.480209e-01 -5.027041e-01 -1.464360e-01 1.609631e-01 4.385883e-01 1.164774e+00 7.944129e-02 2.859005e-01 1.100715e-01 1.691007e-01 5.915737e-01 -1.107277e+00 -3.283040e-01 -1.885979e-01 2.191685e-01 3.111340e-01 -7.295115e-02 -2.446553e-01 1.879981e-01 4.574102e-01 3.267376e-01 -1.657189e-01 -1.939152e-01 9.139349e-02 -5.616894e-02
<VARIANCE> 39
 1.230194e+01 2.939662e+01 4.108495e+01 5.318789e+01 4.408829e+01 7.365685e+01 7.715102e+01 5.755164e+01 6.213071e+01 6.643082e+01 7.283236e+01 4.474105e+01 3.482646e+01 1.257869e+00 2.273640e+00 1.895045e+00 3.716394e+00 3.004437e+00 4.830108e+00 3.792618e+00 4.171055e+00 5.482844e+00 3.979597e+00 3.964624e+00 2.939709e+00 1.952668e+00 2.000000e-01 2.552519e-01 2.909840e-01 3.618788e-01 5.112633e-01 6.216239e-01 6.951947e-01 6.299380e-01 6.436538e-01 6.986301e-01 6.425611e-01 5.871413e-01 2.144526e-01
<GCONST> 1.258414e+02
<STATE> 4
<MEAN> 39
 -1.424821e+01 -2.889735e+00 -5.304789e+00 -4.726345e+00 -6.047062e+00 -3.036538e+00 -3.900488e+00 -2.694144e+00 -2.997163e+00 -8.683564e-01 -1.754648e+00 -1.167282e+00 3.953325e+01 -8.106885e-01 -3.024296e-01 1.107627e-01 1.428930e-02 1.242924e-01 3.344613e-01 7.364755e-01 4.994924e-01 3.562714e-01 -1.940750e-01 -1.764534e-01 -1.073097e-02 -1.519944e-01 1.900329e-01 -1.216097e-01 5.482651e-02 -2.495949e-01 -1.626799e-01 -1.876293e-02 -1.302725e-01 -4.627103e-02 -1.784913e-01 -2.700866e-02 1.493940e-02 -8.030976e-02 4.306966e-01
<VARIANCE> 39
 4.202135e+01 3.202099e+01 5.500097e+01 4.989059e+01 5.209990e+01 6.141476e+01 5.141618e+01 4.541161e+01 5.198100e+01 4.696679e+01 4.363005e+01 3.160899e+01 8.552966e+01 3.626802e+00 2.943782e+00 3.203280e+00 4.328737e+00 4.713163e+00 4.354243e+00 4.330574e+00 4.475542e+00 4.370886e+00 3.487635e+00 3.648628e+00 3.141046e+00 7.677807e+00 3.897464e-01 4.998197e-01 4.388184e-01 6.552461e-01 7.439014e-01 7.524195e-01 6.586437e-01 6.999518e-01 7.658674e-01 6.640407e-01 6.477272e-01 5.592580e-01 9.216716e-01
<GCONST> 1.342787e+02
<TRANSP> 5
 0.000000e+00 1.000000e+00 0.000000e+00 0.000000e+00 0.000000e+00
 0.000000e+00 8.629808e-01 1.370192e-01 0.000000e+00 0.000000e+00
 0.000000e+00 0.000000e+00 8.029386e-01 1.970614e-01 0.000000e+00
 0.000000e+00 0.000000e+00 0.000000e+00 8.389831e-01 1.610170e-01
 0.000000e+00 0.000000e+00 0.000000e+00 0.000000e+00 0.000000e+00
<ENDHMM>
