~o
<STREAMINFO> 1 39
<VECSIZE> 39<NULLD><MFCC_D_A_0><DIAGC>
~h "v"
<BEGINHMM>
<NUMSTATES> 5
<STATE> 2
<MEAN> 39
 -1.625410e+01 -1.136241e+00 -4.648518e+00 -1.934252e+00 -3.544228e+00 -3.217705e+00 -4.079744e+00 -3.007150e+00 -3.677496e+00 -2.354751e+00 -3.016864e+00 -2.075627e+00 4.021675e+01 -8.977875e-01 -1.979610e-03 2.916357e-01 4.854272e-01 3.984969e-01 1.423491e-01 2.939566e-01 2.476183e-01 1.341062e-01 -6.006252e-02 -2.142750e-01 2.271463e-02 5.102566e-02 2.288843e-01 -2.368699e-01 -6.876932e-02 -3.236869e-01 -3.025576e-01 -1.271854e-01 -6.757139e-03 6.170249e-02 7.455898e-02 9.115852e-02 5.313775e-02 2.879293e-02 3.966116e-01
<VARIANCE> 39
 3.130810e+01 1.484654e+01 2.131828e+01 1.929152e+01 1.674701e+01 2.366073e+01 2.428000e+01 2.658532e+01 2.670855e+01 2.392527e+01 2.270358e+01 1.811771e+01 9.344586e+01 3.433327e+00 1.711749e+00 1.735136e+00 2.452048e+00 2.220744e+00 2.425048e+00 2.538957e+00 2.229053e+00 2.306355e+00 2.205368e+00 2.025036e+00 1.523911e+00 2.068954e+00 4.316795e-01 3.755454e-01 3.432365e-01 4.659292e-01 4.723161e-01 4.744421e-01 4.397883e-01 4.127725e-01 4.700516e-01 4.159786e-01 4.195969e-01 3.242126e-01 4.113686e-01
<GCONST> 1.120537e+02
<STATE> 3
<MEAN> 39
 -1.813039e+01 -4.232091e+00 -5.124127e+00 -3.265136e+00 -4.329283e+00 -4.217969e+00 -2.911315e+00 -1.133177e+00 -2.058518e+00 -1.994848e+00 -3.407061e+00 -1.568089e+00 4.612432e+01 4.365698e-01 -3.955798e-01 1.766335e-01 -5.109034e-01 -9.223852e-01 -6.412200e-01 -1.328805e-01 -5.225437e-02 -1.112494e-01 6.614693e-03 1.745929e-01 2.352265e-01 1.258231e+00 6.396674e-01 2.810647e-02 2.511738e-01 -3.026616e-01 -4.292160e-01 -2.514821e-01 -2.685989e-01 -2.581779e-01 -2.454928e-01 -3.123807e-02 1.010877e-01 -2.499132e-02 2.883406e-01
<VARIANCE> 39
 3.761795e+01 2.491615e+01 3.308567e+01 3.071587e+01 2.185550e+01 2.441475e+01 3.141264e+01 3.228030e+01 2.790450e+01 2.730154e+01 2.375679e+01 1.930401e+01 7.158360e+01 3.899254e+00 2.318419e+00 2.919262e+00 2.604821e+00 2.926350e+00 3.181355e+00 3.444066e+00 2.820098e+00 2.812057e+00 2.246493e+00 2.149059e+00 2.045600e+00 4.448446e+00 9.004348e-01 4.541957e-01 7.313286e-01 6.820142e-01 7.509246e-01 6.290123e-01 7.273435e-01 7.082906e-01 6.227742e-01 6.383158e-01 4.598839e-01 4.397689e-01 6.433647e-01
<GCONST> 1.232668e+02
<STATE> 4
<MEAN> 39
 -1.050847e+01 -3.700076e+00 -1.099871e+00 -6.619003e+00 -1.060637e+01 -8.704689e+00 -6.527802e+00 -4.566253e+00 -6.002350e+00 -2.782354e+00 -2.941072e+00 -2.012197e+00 5.432053e+01 2.469876e+00 -1.036290e+00 1.347413e+00 -2.138813e+00 -2.645158e+00 -1.204487e+00 -9.299939e-01 -5.414929e-01 -6.445807e-01 2.745792e-01 5.338820e-01 1.449531e-01 2.391000e+00 -2.688308e-01 -5.943341e-03 5.415386e-02 -1.013104e-01 1.071050e-01 4.096970e-01 2.439179e-02 4.239025e-02 5.399584e-02 -5.988171e-03 -5.317917e-02 -6.931411e-02 -3.007471e-01
<VARIANCE> 39
 4.055257e+01 2.887136e+01 6.941209e+01 5.592835e+01 4.109933e+01 4.462963e+01 4.183494e+01 3.977501e+01 4.522771e+01 3.354314e+01 3.530587e+01 2.020016e+01 5.749401e+01 4.770976e+00 3.691131e+00 7.106520e+00 5.702160e+00 5.941482e+00 4.919113e+00 5.589755e+00 6.483281e+00 6.011788e+00 6.004257e+00 3.808318e+00 3.129963e+00 4.888302e+00 7.178751e-01 4.467229e-01 4.431198e-01 5.885823e-01 6.759928e-01 6.829490e-01 7.125568e-01 6.623740e-01 5.870342e-01 6.202063e-01 4.889653e-01 3.722688e-01 4.572326e-01
<GCONST> 1.335694e+02
<TRANSP> 5
 0.000000e+00 1.000000e+00 0.000000e+00 0.000000e+00 0.000000e+00
 0.000000e+00 7.860781e-01 2.139219e-01 0.000000e+00 0.000000e+00
 0.000000e+00 0.000000e+00 7.299035e-01 2.700965e-01 0.000000e+00
 0.000000e+00 0.000000e+00 0.000000e+00 5.539823e-01 4.460177e-01
 0.000000e+00 0.000000e+00 0.000000e+00 0.000000e+00 0.000000e+00
<ENDHMM>
