~o
<STREAMINFO> 1 39
<VECSIZE> 39<NULLD><MFCC_D_A_0><DIAGC>
~h "w"
<BEGINHMM>
<NUMSTATES> 5
<STATE> 2
<MEAN> 39
 -1.079964e+01 -3.566218e-01 -8.574696e+00 -8.065082e+00 -7.020521e+00 -1.413600e+00 -3.972403e+00 -2.893957e+00 -5.497654e+00 -1.769678e+00 -1.589553e+00 -1.694269e+00 3.880762e+01 1.550922e+00 1.101657e+00 -2.727358e-02 -1.049648e+00 -9.754699e-01 7.963102e-02 2.897844e-01 -2.392670e-01 -6.424777e-01 -5.296304e-01 -2.453302e-01 -1.711019e-01 5.795392e-01 1.136549e-01 -1.235900e-01 1.912645e-01 -1.949573e-01 -4.164968e-01 -2.117566e-01 2.912588e-02 1.906359e-01 1.001603e-01 -5.911627e-02 -6.391194e-02 -6.455523e-02 3.422265e-01
<VARIANCE> 39
 8.196249e+01 2.569819e+01 2.694816e+01 4.950647e+01 3.139916e+01 2.902351e+01 4.627311e+01 4.269545e+01 5.389809e+01 2.581273e+01 3.545150e+01 2.037508e+01 8.574027e+01 4.181479e+00 2.614508e+00 3.531899e+00 4.043827e+00 4.190474e+00 4.841347e+00 4.527267e+00 3.691603e+00 3.530101e+00 3.512888e+00 3.261853e+00 2.307189e+00 3.997402e+00 5.218645e-01 4.697630e-01 6.517866e-01 7.327045e-01 8.125185e-01 7.367323e-01 8.243847e-01 7.688750e-01 7.681737e-01 6.380322e-01 5.362520e-01 4.242241e-01 2.913078e-01
<GCONST> 1.294588e+02
<STATE> 3
<MEAN> 39
 1.757179e+00 3.982260e+00 -7.609199e+00 -1.863824e+01 -1.735854e+01 -3.861309e+00 -4.386713e+00 -2.700257e+00 -6.981720e+00 -4.404135e+00 -2.478242e+00 -3.697095e+00 4.860429e+01 7.606853e-01 -7.435331e-01 -6.993617e-01 -2.052804e+00 -1.002667e+00 8.190603e-01 3.016307e-01 4.185957e-01 1.699251e-01 7.654287e-02 4.120145e-01 4.409477e-02 1.621359e+00 -4.439796e-01 -5.724221e-01 -1.880976e-01 2.155637e-01 5.480628e-01 3.803401e-01 -1.423471e-02 -7.962536e-02 4.688619e-02 2.957187e-01 2.051565e-01 8.653466e-02 1.177714e-01
<VARIANCE> 39
 7.730689e+00 2.242131e+01 2.650278e+01 4.503992e+01 3.491915e+01 4.056112e+01 3.513393e+01 3.835639e+01 4.017529e+01 3.110730e+01 4.323494e+01 2.849550e+01 2.242056e+01 1.726863e+00 2.143855e+00 2.046906e+00 2.938171e+00 3.659085e+00 3.917731e+00 3.011545e+00 3.204874e+00 3.440184e+00 3.481060e+00 2.799085e+00 2.155476e+00 2.347430e+00 3.158016e-01 2.746648e-01 3.072398e-01 5.464757e-01 5.465935e-01 5.687379e-01 5.230460e-01 5.668496e-01 6.258519e-01 6.313760e-01 5.106647e-01 4.006912e-01 2.199096e-01
<GCONST> 1.182595e+02
<STATE> 4
<MEAN> 39
 1.033990e+00 -6.811538e+00 -1.168815e+01 -2.254592e+01 -1.436647e+01 3.063315e+00 -6.020083e+00 -2.709776e+00 -7.088986e+00 -3.124266e-01 1.574223e+00 -2.937002e+00 5.899286e+01 -6.873007e-01 -2.381305e+00 -3.458392e-01 7.077636e-01 1.409432e+00 1.458580e-01 -4.581932e-01 1.920564e-01 7.757705e-01 8.662131e-01 -5.562495e-04 -3.614255e-01 1.731945e+00 -2.134393e-01 2.495386e-01 3.489119e-01 4.993950e-01 6.385784e-02 -5.230986e-01 1.224230e-01 1.471895e-01 1.975081e-01 -2.580063e-01 -3.709038e-01 -9.709515e-02 -3.749963e-01
<VARIANCE> 39
 1.180363e+01 4.205952e+01 4.763680e+01 8.066600e+01 6.501451e+01 7.883228e+01 1.090711e+02 7.000962e+01 6.188172e+01 7.616705e+01 8.662730e+01 4.281883e+01 2.809238e+01 5.873573e-01 1.872468e+00 3.469041e+00 3.187256e+00 5.252753e+00 8.578797e+00 5.871272e+00 5.897864e+00 5.277044e+00 5.746865e+00 4.504544e+00 3.415664e+00 1.132430e+00 2.000000e-01 3.937562e-01 3.384902e-01 7.182279e-01 8.466923e-01 9.893824e-01 1.206916e+00 9.975182e-01 1.084812e+00 1.229994e+00 7.050102e-01 6.350226e-01 2.000000e-01
<GCONST> 1.336823e+02
<TRANSP> 5
 0.000000e+00 1.000000e+00 0.000000e+00 0.000000e+00 0.000000e+00
 0.000000e+00 7.663629e-01 2.336371e-01 0.000000e+00 0.000000e+00
 0.000000e+00 0.000000e+00 7.803738e-01 2.196262e-01 0.000000e+00
 0.000000e+00 0.000000e+00 0.000000e+00 7.104723e-01 2.895277e-01
 0.000000e+00 0.000000e+00 0.000000e+00 0.000000e+00 0.000000e+00
<ENDHMM>
