~o
<STREAMINFO> 1 39
<VECSIZE> 39<NULLD><MFCC_D_A_0><DIAGC>
~h "y"
<BEGINHMM>
<NUMSTATES> 5
<STATE> 2
<MEAN> 39
 -1.281990e+01 -1.601286e+00 1.092548e+01 -8.018818e+00 -1.321575e+01 -4.609451e+00 -9.219935e+00 -4.257362e+00 -9.954296e+00 -5.049271e+00 -2.811454e+00 -3.632743e+00 4.870953e+01 1.722602e-01 8.211083e-02 1.689001e+00 -7.703860e-01 -1.079874e+00 2.756736e-01 -3.548741e-01 -1.378909e-01 -6.863293e-01 -2.812493e-01 7.313057e-03 -2.347071e-01 8.962325e-01 2.276540e-02 -1.091870e-01 -5.010775e-01 6.774137e-03 1.951173e-01 2.494538e-02 -1.541565e-02 1.658216e-02 2.000924e-01 2.110276e-01 5.598019e-02 3.431529e-02 -6.938451e-03
<VARIANCE> 39
 3.159937e+01 3.900206e+01 7.953438e+01 7.536879e+01 6.985017e+01 5.266224e+01 4.701252e+01 4.647756e+01 5.120783e+01 4.883010e+01 5.388468e+01 3.042136e+01 9.961440e+01 3.129861e+00 2.633962e+00 4.677302e+00 3.557980e+00 5.132284e+00 4.014712e+00 4.382215e+00 3.358154e+00 4.024314e+00 3.726092e+00 2.835427e+00 2.423070e+00 3.821716e+00 3.602826e-01 3.732283e-01 6.830274e-01 7.182589e-01 8.309054e-01 7.660415e-01 6.866589e-01 6.992692e-01 6.482559e-01 6.290049e-01 4.948241e-01 4.132589e-01 3.929060e-01
<GCONST> 1.325087e+02
<STATE> 3
<MEAN> 39
 -1.076021e+01 -3.725484e+00 1.515189e+01 -1.082478e+01 -1.967385e+01 -6.394902e+00 -9.665181e+00 -6.859344e+00 -1.303673e+01 -4.142427e+00 -2.849533e+00 -3.953215e+00 5.654832e+01 4.172936e-01 -6.352593e-01 -6.729890e-01 6.033388e-01 -5.334037e-01 -9.659876e-01 2.328317e-01 3.413198e-01 -3.279971e-01 1.307833e-01 4.920835e-01 1.596369e-01 4.392221e-01 8.610018e-02 -3.783215e-02 -3.443456e-01 1.789635e-01 2.290324e-01 -2.285176e-01 -7.205678e-02 1.760583e-01 1.382446e-01 -8.890983e-02 -3.493929e-03 9.598122e-02 -8.547208e-02
<VARIANCE> 39
 1.099108e+01 3.117088e+01 3.370718e+01 1.013574e+02 4.233946e+01 4.747501e+01 3.920862e+01 5.356506e+01 4.865691e+01 8.125983e+01 7.331515e+01 4.149781e+01 2.383244e+01 3.731378e-01 8.062750e-01 1.124555e+00 1.147108e+00 1.473681e+00 1.945973e+00 1.525758e+00 1.877912e+00 1.537202e+00 1.663509e+00 1.287294e+00 1.082139e+00 5.723697e-01 2.000000e-01 2.000000e-01 2.000000e-01 2.000000e-01 3.488525e-01 2.606430e-01 3.378625e-01 2.901810e-01 3.459602e-01 3.179056e-01 2.744952e-01 2.104273e-01 2.000000e-01
<GCONST> 1.044257e+02
<STATE> 4
<MEAN> 39
 -6.098614e+00 -8.244605e+00 6.534970e+00 -3.972839e+00 -1.829157e+01 -1.469492e+01 -1.235001e+01 -6.126142e-01 -1.155076e+01 -5.866063e+00 -1.978554e-01 -2.214228e+00 5.779030e+01 9.420617e-01 3.449753e-03 -2.626665e+00 1.469941e-01 2.017166e+00 -3.683069e-01 -1.847040e+00 1.913917e-01 1.729593e+00 4.484942e-01 -7.967069e-01 1.135855e-02 -3.748138e-01 -6.816027e-02 3.575909e-01 -4.717262e-02 -5.076501e-01 2.919386e-01 8.993628e-01 -3.871801e-02 -7.285469e-01 9.522170e-02 4.916730e-01 -1.020902e-01 -3.579855e-01 -2.503878e-01
<VARIANCE> 39
 1.225880e+01 2.578608e+01 4.218879e+01 6.393120e+01 4.658246e+01 5.091566e+01 6.941148e+01 5.038011e+01 6.562997e+01 7.109940e+01 6.448990e+01 3.865734e+01 2.840377e+01 4.056203e-01 1.005825e+00 1.756244e+00 2.096325e+00 2.001354e+00 4.218663e+00 2.691552e+00 4.327997e+00 2.488503e+00 4.111679e+00 1.952507e+00 2.543869e+00 7.806478e-01 2.000000e-01 2.000000e-01 2.350658e-01 2.825048e-01 4.943886e-01 4.503572e-01 7.662873e-01 4.295845e-01 8.031282e-01 4.555064e-01 6.361961e-01 3.442952e-01 2.000000e-01
<GCONST> 1.168786e+02
<TRANSP> 5
 0.000000e+00 1.000000e+00 0.000000e+00 0.000000e+00 0.000000e+00
 0.000000e+00 7.304426e-01 2.695574e-01 0.000000e+00 0.000000e+00
 0.000000e+00 0.000000e+00 8.312343e-01 1.687657e-01 0.000000e+00
 0.000000e+00 0.000000e+00 0.000000e+00 6.598985e-01 3.401015e-01
 0.000000e+00 0.000000e+00 0.000000e+00 0.000000e+00 0.000000e+00
<ENDHMM>
