~o
<STREAMINFO> 1 39
<VECSIZE> 39<NULLD><MFCC_D_A_0><DIAGC>
~h "z"
<BEGINHMM>
<NUMSTATES> 5
<STATE> 2
<MEAN> 39
 -2.332630e+01 4.889629e+00 -4.045834e+00 -5.951461e+00 -1.522533e+00 -8.460664e+00 -4.705282e+00 -1.718002e+00 -4.088871e+00 -3.239026e+00 -3.443045e+00 -6.819454e-01 5.378574e+01 -3.444189e+00 4.185201e-01 -1.008029e+00 1.512243e-01 1.757161e+00 1.308715e+00 1.498897e+00 1.321682e+00 6.534295e-01 5.280274e-01 6.201829e-01 4.534653e-01 1.169899e-01 7.501002e-01 -6.258963e-01 -6.971978e-03 -1.652807e-01 -5.599578e-01 -2.623823e-03 -1.190059e-01 -7.794825e-02 7.125337e-02 1.663183e-01 2.408358e-02 -2.402683e-03 9.819119e-02
<VARIANCE> 39
 3.425700e+01 3.244901e+01 3.909089e+01 3.777949e+01 4.576707e+01 4.964856e+01 4.406160e+01 4.073757e+01 3.331017e+01 3.002264e+01 2.427287e+01 2.018673e+01 4.460226e+01 3.737221e+00 3.881788e+00 3.195920e+00 3.867885e+00 3.406671e+00 3.268854e+00 3.622463e+00 3.618232e+00 3.199261e+00 2.960698e+00 2.776037e+00 2.453593e+00 1.877055e+00 6.488799e-01 6.457105e-01 5.558832e-01 6.237181e-01 5.981542e-01 6.771084e-01 7.383465e-01 7.673665e-01 5.624983e-01 5.346541e-01 5.015740e-01 5.157232e-01 2.693687e-01
<GCONST> 1.258123e+02
<STATE> 3
<MEAN> 39
 -2.974214e+01 1.703331e+00 -8.309707e+00 -7.770710e+00 3.309084e-01 -5.735314e+00 -3.914487e-01 1.804772e+00 -1.556892e+00 -4.600261e-01 -1.277857e+00 1.148552e+00 5.421747e+01 3.344479e-01 -4.353424e-01 -7.990457e-02 -2.139250e-01 -2.737259e-01 -2.042948e-01 -1.351306e-01 -3.283994e-02 1.202429e-01 -1.908221e-02 -3.049817e-02 -1.322024e-02 -2.643553e-02 6.135538e-01 -7.645818e-02 2.290384e-01 3.109107e-04 -2.506309e-01 -2.450949e-01 -2.197170e-01 -1.997060e-01 -1.089982e-01 -1.142851e-01 -1.230073e-01 -6.909153e-02 -1.890683e-01
<VARIANCE> 39
 1.034710e+01 2.597628e+01 3.122923e+01 3.916049e+01 3.519385e+01 3.561718e+01 3.606430e+01 2.704996e+01 2.301098e+01 1.959724e+01 1.645173e+01 1.425392e+01 2.372133e+01 1.533151e+00 1.070040e+00 1.277930e+00 1.172534e+00 1.587228e+00 1.735472e+00 1.651492e+00 1.559006e+00 1.699657e+00 1.660571e+00 1.530202e+00 1.357662e+00 1.025839e+00 3.611479e-01 2.282861e-01 2.222154e-01 3.085261e-01 3.599551e-01 4.103132e-01 4.138458e-01 3.898650e-01 3.564774e-01 3.575503e-01 3.279251e-01 2.888987e-01 2.000000e-01
<GCONST> 1.028461e+02
<STATE> 4
<MEAN> 39
 -1.908967e+01 -2.419135e+00 -6.503419e+00 -5.590839e+00 -4.195841e+00 -6.383204e+00 -3.592741e+00 -2.471708e-01 -1.548474e+00 -2.046535e+00 -2.917263e+00 -6.593886e-02 4.343423e+01 1.284370e+00 -5.237141e-01 2.696164e-01 1.337984e-02 -6.840656e-01 -1.230071e-01 -3.191446e-01 -3.078401e-01 -1.860468e-01 8.326105e-02 -1.025662e-01 -1.482255e-01 -6.329523e-01 -1.196270e-01 -9.912769e-03 -1.245974e-03 -7.074796e-02 3.554368e-02 9.551674e-02 3.991681e-02 7.397327e-02 -3.589050e-02 3.176273e-02 3.619356e-02 -1.615807e-02 1.206966e-01
<VARIANCE> 39
 3.552316e+01 4.453192e+01 2.763883e+01 3.181185e+01 3.774450e+01 4.835983e+01 4.324593e+01 3.877345e+01 3.446445e+01 3.126411e+01 2.913037e+01 2.442461e+01 1.396176e+02 4.890330e+00 3.373825e+00 2.468033e+00 3.480045e+00 3.624270e+00 4.358387e+00 3.463791e+00 3.488128e+00 2.997806e+00 2.722570e+00 2.514528e+00 2.259534e+00 5.004370e+00 5.443178e-01 4.581780e-01 3.271138e-01 4.978911e-01 5.693352e-01 7.296502e-01 5.441170e-01 5.813141e-01 4.657826e-01 4.830487e-01 4.206210e-01 3.929194e-01 6.489539e-01
<GCONST> 1.259404e+02
<TRANSP> 5
 0.000000e+00 1.000000e+00 0.000000e+00 0.000000e+00 0.000000e+00
 0.000000e+00 6.938436e-01 3.061564e-01 0.000000e+00 0.000000e+00
 0.000000e+00 0.000000e+00 8.380282e-01 1.619718e-01 0.000000e+00
 0.000000e+00 0.000000e+00 0.000000e+00 8.878732e-01 1.121267e-01
 0.000000e+00 0.000000e+00 0.000000e+00 0.000000e+00 0.000000e+00
<ENDHMM>
