~o
<STREAMINFO> 1 39
<VECSIZE> 39<NULLD><MFCC_D_A_0><DIAGC>
~h "zh"
<BEGINHMM>
<NUMSTATES> 5
<STATE> 2
<MEAN> 39
 -2.337686e+01 -1.765476e+00 8.625984e+00 -7.229887e+00 -1.061093e+01 -5.420263e+00 -4.948937e+00 -6.144433e+00 -6.776875e+00 -5.507462e+00 -3.249736e+00 -3.400750e+00 5.914389e+01 -2.885156e+00 -4.061956e-01 2.770396e-02 -4.775853e-01 1.693146e+00 2.436437e+00 1.152046e+00 3.949222e-01 8.707688e-01 1.298019e+00 3.212869e-01 -7.447370e-02 6.862495e-03 7.470739e-01 -4.098546e-01 -4.632302e-01 -2.011529e-01 -3.326938e-01 -1.300498e-01 -3.565360e-01 3.118734e-01 8.772695e-03 -1.302577e-01 1.305622e-01 2.361819e-01 9.269670e-02
<VARIANCE> 39
 2.514357e+01 1.955850e+01 3.533676e+01 4.080548e+01 4.714249e+01 4.793103e+01 2.070198e+01 3.631226e+01 2.583191e+01 3.830650e+01 1.871746e+01 3.083523e+01 5.552389e+00 1.667853e+00 1.873566e+00 3.482750e+00 1.512704e+00 2.013892e+00 3.214785e+00 2.376566e+00 3.791761e+00 2.208195e+00 2.665999e+00 2.063268e+00 1.932258e+00 4.306927e-01 2.781305e-01 2.980965e-01 2.956202e-01 3.213688e-01 6.441771e-01 9.627103e-01 3.911957e-01 6.462259e-01 4.044706e-01 4.430423e-01 2.863828e-01 4.411266e-01 2.000000e-01
<GCONST> 1.115503e+02
<STATE> 3
<MEAN> 39
 -2.779016e+01 -4.058314e+00 5.095581e+00 -9.047589e+00 -8.452549e+00 -8.747424e-01 -2.170183e+00 -2.677765e+00 -3.252008e+00 -1.380461e+00 4.556280e-01 -3.459965e-01 6.020044e+01 8.640566e-01 -2.663321e-01 -5.039400e-02 1.729603e-01 -8.452622e-01 -9.380547e-01 -1.809430e-01 -2.830844e-01 9.324173e-02 1.687711e-02 -7.695612e-02 -4.875429e-02 7.404893e-02 1.242836e+00 8.436176e-02 1.061019e-01 1.666960e-01 -5.504836e-01 -8.732173e-01 -4.859481e-01 -1.915851e-01 -2.926376e-01 -3.505451e-01 -1.772227e-01 -1.142701e-01 -3.411964e-02
<VARIANCE> 39
 2.570731e+01 1.596276e+01 3.751426e+01 3.347663e+01 3.593673e+01 1.895384e+01 2.995240e+01 3.381649e+01 1.628655e+01 3.104514e+01 2.042471e+01 1.202697e+01 5.824667e+00 3.276788e+00 9.396107e-01 2.097126e+00 1.705542e+00 2.012905e+00 2.968897e+00 1.831554e+00 1.994448e+00 1.473036e+00 1.214635e+00 1.578881e+00 2.096514e+00 2.000000e-01 3.513259e-01 3.246574e-01 5.015125e-01 2.331525e-01 4.474037e-01 3.654773e-01 4.452577e-01 4.049645e-01 3.563309e-01 2.764307e-01 4.247212e-01 4.220294e-01 2.000000e-01
<GCONST> 1.039303e+02
<STATE> 4
<MEAN> 39
 -1.466859e+01 -4.990483e+00 6.117224e+00 -8.138436e+00 -1.502667e+01 -1.062773e+01 -7.925879e+00 -6.125587e+00 -5.115320e+00 -4.489593e+00 -1.800656e+00 -2.149877e+00 5.989227e+01 5.164577e+00 -1.713392e+00 -1.470100e+00 -9.442580e-02 -1.821292e+00 -3.047529e+00 -1.675496e+00 1.204666e+00 -1.641161e-01 -5.367379e-01 4.075510e-01 3.463947e-01 -1.283482e-01 -1.608652e-01 -4.980579e-01 -4.565626e-01 -5.389512e-02 3.186258e-01 4.060660e-01 1.795691e-01 7.696700e-01 3.992602e-01 1.218360e-01 2.134912e-01 2.233261e-01 -3.912971e-02
<VARIANCE> 39
 4.888584e+01 2.085639e+01 1.653925e+01 4.755902e+01 3.246717e+01 3.634669e+01 3.029062e+01 3.224270e+01 2.510834e+01 2.494781e+01 1.863827e+01 1.025940e+01 7.742518e+00 2.056225e+00 3.925873e+00 2.785858e+00 2.155795e+00 4.859689e+00 2.533412e+00 4.546037e+00 6.107148e+00 3.617706e+00 2.311469e+00 2.124671e+00 2.394065e+00 8.751172e-01 9.472736e-01 3.078784e-01 2.698384e-01 2.915036e-01 7.580643e-01 6.950522e-01 6.738690e-01 8.179709e-01 3.251038e-01 3.211603e-01 3.034331e-01 2.000000e-01 2.000000e-01
<GCONST> 1.146199e+02
<TRANSP> 5
 0.000000e+00 1.000000e+00 0.000000e+00 0.000000e+00 0.000000e+00
 0.000000e+00 6.444445e-01 3.555556e-01 0.000000e+00 0.000000e+00
 0.000000e+00 0.000000e+00 7.575758e-01 2.424242e-01 0.000000e+00
 0.000000e+00 0.000000e+00 0.000000e+00 6.595744e-01 3.404255e-01
 0.000000e+00 0.000000e+00 0.000000e+00 0.000000e+00 0.000000e+00
<ENDHMM>
