~o
<STREAMINFO> 1 39
<VECSIZE> 39<NULLD><MFCC_D_A_0><DIAGC>
~h "b"
<BEGINHMM>
<NUMSTATES> 5
<STATE> 2
<MEAN> 39
 -1.285905e+01 2.119662e+00 -2.112230e+00 4.957444e-01 -2.307350e+00 -2.424359e+00 -5.054394e+00 -4.514062e+00 -5.007265e+00 -2.631434e+00 -2.458095e+00 -3.499154e+00 3.540062e+01 -2.271756e-01 6.039887e-02 3.356330e-01 2.483518e-01 1.295556e-01 1.457197e-02 6.589407e-02 4.526614e-02 1.049491e-01 -6.842841e-02 -7.438371e-02 2.656808e-02 1.928403e-01 2.062379e-02 -5.602090e-01 -3.152746e-02 -4.196451e-01 -4.354008e-01 -2.322230e-01 -4.286674e-02 2.352968e-01 1.169496e-01 8.814815e-02 7.519741e-02 9.650599e-02 8.093613e-01
<VARIANCE> 39
 5.338715e+01 2.992279e+01 2.685508e+01 2.452397e+01 1.992519e+01 2.528680e+01 3.202734e+01 3.717234e+01 3.331084e+01 2.492974e+01 2.331329e+01 2.508779e+01 3.547613e+01 2.585843e+00 2.179703e+00 1.921203e+00 2.394716e+00 2.025721e+00 2.318690e+00 2.297053e+00 2.669949e+00 2.412904e+00 2.299328e+00 1.955896e+00 1.846137e+00 4.037354e+00 3.880860e-01 6.622197e-01 5.483688e-01 6.529602e-01 6.754777e-01 5.649168e-01 5.550908e-01 6.339248e-01 6.177331e-01 5.245433e-01 4.600102e-01 4.068005e-01 1.197282e+00
<GCONST> 1.195028e+02
<STATE> 3
<MEAN> 39
 -1.092685e+01 -7.098259e-01 -1.092492e+00 -1.125857e+00 -2.969462e+00 -3.936050e+00 -6.036237e+00 -4.795974e+00 -4.755133e+00 -3.248632e+00 -2.977568e+00 -3.370441e+00 4.377018e+01 1.390236e-01 -2.679731e+00 6.855324e-01 -1.808820e+00 -2.431232e+00 -1.709395e+00 -2.870474e-01 1.135311e+00 4.138272e-01 6.056356e-02 4.595425e-01 6.117849e-01 5.046663e+00 6.075843e-01 -3.913704e-01 4.318095e-01 -8.896312e-01 -1.104654e+00 -2.858266e-01 -5.182296e-01 -3.914036e-02 -3.901767e-01 1.189641e-01 2.053250e-01 -5.654802e-02 1.003402e+00
<VARIANCE> 39
 3.822327e+01 3.811459e+01 2.494501e+01 3.872451e+01 2.865656e+01 3.404970e+01 3.422632e+01 3.593842e+01 3.438041e+01 2.862916e+01 2.463490e+01 2.021961e+01 8.198323e+01 4.159646e+00 2.894518e+00 6.854530e+00 5.096852e+00 4.410264e+00 4.711604e+00 5.298891e+00 4.604692e+00 5.058468e+00 4.514150e+00 3.082238e+00 2.716769e+00 5.825635e+00 5.979415e-01 9.406181e-01 1.185911e+00 1.034999e+00 8.253825e-01 9.738116e-01 9.300926e-01 1.041642e+00 1.098834e+00 9.663906e-01 7.849481e-01 5.829751e-01 1.538901e+00
<GCONST> 1.357163e+02
<STATE> 4
<MEAN> 39
 -7.517940e+00 -6.997873e+00 3.251858e+00 -7.267115e+00 -1.299627e+01 -9.946161e+00 -9.053136e+00 -2.687924e+00 -6.485903e+00 -3.223242e+00 -1.057500e+00 -2.150678e+00 5.732927e+01 1.198629e+00 -1.426777e+00 2.325403e+00 -2.833611e+00 -3.680131e+00 -7.399364e-01 -1.378890e+00 3.098910e-03 -1.413072e+00 2.019682e-02 3.818407e-01 -6.444620e-02 3.797037e+00 -1.642128e-01 7.415336e-01 -6.311210e-02 2.278599e-02 4.541622e-01 7.731255e-01 -2.683517e-02 -4.124529e-01 -1.539614e-01 5.543392e-02 -1.610124e-01 -2.243950e-01 -1.217946e+00
<VARIANCE> 39
 2.449939e+01 2.500212e+01 9.318517e+01 7.880045e+01 5.290764e+01 4.962955e+01 5.694565e+01 4.742550e+01 6.071253e+01 4.289975e+01 3.692569e+01 2.292549e+01 2.838949e+01 3.844907e+00 4.070328e+00 1.044625e+01 7.386745e+00 6.170469e+00 6.490019e+00 6.671417e+00 7.713356e+00 8.114037e+00 6.793043e+00 5.256487e+00 3.444471e+00 6.873904e+00 4.033634e-01 4.653592e-01 7.638465e-01 9.048672e-01 8.708057e-01 7.726700e-01 9.435965e-01 7.893282e-01 9.890381e-01 7.978488e-01 6.087648e-01 4.585682e-01 6.879219e-01
<GCONST> 1.396636e+02
<TRANSP> 5
 0.000000e+00 1.000000e+00 0.000000e+00 0.000000e+00 0.000000e+00
 0.000000e+00 7.290663e-01 2.709337e-01 0.000000e+00 0.000000e+00
 0.000000e+00 0.000000e+00 4.510888e-01 5.489112e-01 0.000000e+00
 0.000000e+00 0.000000e+00 0.000000e+00 4.653846e-01 5.346154e-01
 0.000000e+00 0.000000e+00 0.000000e+00 0.000000e+00 0.000000e+00
<ENDHMM>
~h "d"
<BEGINHMM>
<NUMSTATES> 5
<STATE> 2
<MEAN> 39
 -1.072606e+01 5.290203e+00 3.291435e+00 2.241385e+00 -4.240209e+00 -4.929141e+00 -6.116538e+00 -5.259510e+00 -6.228993e+00 -5.203667e+00 -6.096018e+00 -4.764621e+00 3.682204e+01 -1.129761e+00 -4.983826e-01 -5.618592e-01 -4.163861e-01 9.497536e-01 6.077651e-01 4.648986e-01 3.560020e-01 3.093587e-01 2.107258e-01 3.716032e-01 2.799531e-01 3.548068e-01 -1.719262e-01 -8.110938e-01 -1.813227e-01 -9.731768e-01 -5.611362e-01 -1.268157e-01 4.195416e-02 1.236157e-01 9.931400e-02 2.925794e-01 3.747955e-01 2.929246e-01 1.360560e+00
<VARIANCE> 39
 2.365616e+01 2.199315e+01 2.536702e+01 2.443133e+01 2.940259e+01 2.837276e+01 2.665905e+01 2.749487e+01 2.904587e+01 2.356083e+01 2.325317e+01 2.077868e+01 2.566224e+01 2.866442e+00 6.163373e+00 3.454583e+00 7.397624e+00 4.326663e+00 3.498509e+00 3.413481e+00 3.469901e+00 3.569217e+00 3.093786e+00 3.104908e+00 2.636098e+00 1.217183e+01 4.052269e-01 6.959791e-01 5.314108e-01 9.079992e-01 8.430085e-01 7.427318e-01 6.951668e-01 6.713209e-01 6.845312e-01 5.656885e-01 5.371921e-01 4.884948e-01 1.439505e+00
<GCONST> 1.267960e+02
<STATE> 3
<MEAN> 39
 -1.805216e+01 -4.027376e+00 -4.595961e+00 -4.258567e+00 -4.134977e+00 -2.283354e+00 -1.508370e+00 -6.540789e-02 -1.988692e+00 -1.586363e+00 -1.591430e+00 -2.303717e-01 3.860074e+01 -3.036692e-01 -7.926317e-01 -3.017810e-01 -1.132319e+00 -4.595222e-01 -4.018789e-01 9.495237e-02 1.370374e-01 1.779791e-01 2.187010e-01 3.723269e-01 3.492632e-01 1.975195e+00 3.366632e-01 1.851600e-01 2.991047e-01 4.625786e-03 -3.846237e-01 -2.848115e-01 -2.198570e-01 -1.774153e-01 -1.579061e-01 -1.091845e-01 -1.155308e-01 -9.416963e-02 3.766547e-01
<VARIANCE> 39
 2.144421e+01 2.564844e+01 2.540803e+01 3.416667e+01 2.685261e+01 2.628038e+01 2.526463e+01 2.639238e+01 2.424654e+01 2.302592e+01 1.941602e+01 2.015189e+01 1.005769e+02 1.917448e+00 3.300371e+00 2.252470e+00 5.325474e+00 2.756205e+00 2.808225e+00 3.014718e+00 2.978676e+00 2.877218e+00 2.620484e+00 2.594171e+00 2.161297e+00 1.438441e+01 4.161666e-01 4.878939e-01 5.508820e-01 7.123907e-01 8.101786e-01 6.738377e-01 6.054664e-01 5.709208e-01 5.839186e-01 5.272074e-01 4.849756e-01 4.064353e-01 1.256072e+00
<GCONST> 1.229302e+02
<STATE> 4
<MEAN> 39
 -1.574752e+01 -3.767634e+00 -4.203436e-01 -1.023466e+01 -9.265691e+00 -7.739353e+00 -3.989641e+00 -4.115786e+00 -4.502366e+00 -2.125075e+00 -1.367722e+00 -6.317362e-01 5.716167e+01 1.631372e+00 -3.031866e-01 1.891935e+00 -1.007946e+00 -3.230060e+00 -1.725442e+00 -1.306864e+00 -4.035581e-01 -6.087564e-01 -3.672058e-01 1.931863e-03 3.694923e-02 3.128245e+00 5.600403e-01 2.497328e-01 4.312324e-01 6.419070e-01 -2.450119e-01 3.112772e-01 -4.044199e-01 5.732542e-02 -7.755903e-02 -1.550609e-01 -2.590259e-01 -3.123420e-01 -1.386032e+00
<VARIANCE> 39
 3.524223e+01 3.836583e+01 5.825705e+01 3.355742e+01 5.103633e+01 4.587903e+01 4.527037e+01 4.861811e+01 4.157016e+01 3.183395e+01 2.774318e+01 2.277547e+01 5.956195e+01 3.980864e+00 4.290351e+00 6.363005e+00 6.282490e+00 6.345993e+00 4.945143e+00 5.410458e+00 6.150204e+00 5.753933e+00 4.513054e+00 4.238375e+00 3.063762e+00 1.199340e+01 6.942328e-01 7.388229e-01 1.166292e+00 8.340710e-01 1.165068e+00 9.457389e-01 9.397339e-01 8.743510e-01 9.192833e-01 7.912952e-01 6.830765e-01 5.156264e-01 8.588210e-01
<GCONST> 1.391171e+02
<TRANSP> 5
 0.000000e+00 1.000000e+00 0.000000e+00 0.000000e+00 0.000000e+00
 0.000000e+00 7.104256e-01 2.895744e-01 0.000000e+00 0.000000e+00
 0.000000e+00 0.000000e+00 7.041898e-01 2.958101e-01 0.000000e+00
 0.000000e+00 0.000000e+00 0.000000e+00 5.980581e-01 4.019419e-01
 0.000000e+00 0.000000e+00 0.000000e+00 0.000000e+00 0.000000e+00
<ENDHMM>
~h "f"
<BEGINHMM>
<NUMSTATES> 5
<STATE> 2
<MEAN> 39
 -2.020890e+01 -5.115076e+00 -6.034204e+00 -3.636754e+00 -2.306636e+00 -1.548335e+00 -9.071846e-01 2.601968e-01 -4.846625e-01 -8.975672e-01 -2.174047e+00 -8.086661e-01 5.063789e+01 -3.750961e+00 -3.430799e-01 -1.442101e-01 4.435439e-01 2.465758e-01 4.334894e-01 2.146014e-01 9.531724e-02 1.418529e-01 -1.371553e-02 7.476333e-01 9.960071e-01 -9.293473e-01 6.842875e-01 -5.837569e-01 -3.083580e-01 -6.885883e-01 -5.692720e-01 -3.652094e-01 -2.875990e-01 2.800699e-02 -1.979075e-02 1.223194e-01 -1.609544e-01 -2.744350e-01 4.630658e-01
<VARIANCE> 39
 2.926045e+01 1.652766e+01 1.480362e+01 1.313208e+01 1.527322e+01 1.471296e+01 1.549407e+01 1.605409e+01 1.737228e+01 1.676436e+01 1.608805e+01 1.368834e+01 4.171430e+01 5.409603e+00 2.729500e+00 2.453988e+00 3.153241e+00 2.671484e+00 2.930636e+00 2.736255e+00 3.473413e+00 2.606277e+00 3.234852e+00 3.315071e+00 2.649688e+00 3.688161e+00 7.775478e-01 6.556051e-01 4.480012e-01 5.442187e-01 4.916627e-01 5.107123e-01 5.101409e-01 6.347864e-01 4.722085e-01 5.080346e-01 5.170950e-01 4.591125e-01 3.710475e-01
<GCONST> 1.150657e+02
<STATE> 3
<MEAN> 39
 -2.428221e+01 -7.888445e+00 -9.121445e+00 -5.731098e+00 -4.279444e+00 -2.708111e+00 -2.114839e+00 -1.390294e-01 -7.578596e-01 -4.414613e-01 -1.427342e+00 -5.832958e-02 4.835703e+01 5.017464e-02 -4.640238e-02 -7.085601e-02 -1.151523e-01 -9.060518e-02 -8.692989e-02 -6.099628e-02 -3.180715e-02 -1.633901e-02 4.654778e-02 3.846371e-03 -9.363477e-03 9.103574e-02 5.170912e-01 9.038400e-02 7.108864e-02 -4.315125e-02 -1.481273e-02 -3.331228e-02 -3.310611e-02 -2.481843e-02 -2.672235e-02 -1.407153e-02 -5.951311e-02 -9.695996e-02 4.878607e-02
<VARIANCE> 39
 1.633068e+01 1.592156e+01 1.328563e+01 1.445193e+01 1.447478e+01 1.469823e+01 1.578374e+01 1.581885e+01 1.567166e+01 1.533353e+01 1.371358e+01 1.263873e+01 6.053862e+01 1.590403e+00 9.411785e-01 1.068460e+00 1.252936e+00 1.315714e+00 1.342176e+00 1.559005e+00 1.598744e+00 1.614963e+00 1.552516e+00 1.476299e+00 1.285978e+00 1.673779e+00 4.803563e-01 2.000000e-01 2.383061e-01 3.072604e-01 2.941976e-01 3.124599e-01 3.659525e-01 3.705080e-01 3.650033e-01 3.495440e-01 3.382153e-01 2.948071e-01 2.607009e-01
<GCONST> 9.731771e+01
<STATE> 4
<MEAN> 39
 -1.575535e+01 -6.570999e+00 -8.842272e+00 -8.279786e+00 -5.870894e+00 -3.060820e+00 -2.397793e+00 -9.439105e-01 -1.172104e+00 3.097023e-01 -1.897797e+00 -1.693853e+00 4.839285e+01 3.400634e+00 -2.891936e-01 -7.331948e-02 -1.492751e+00 -9.202398e-01 -2.416287e-01 -7.236774e-01 -2.461523e-01 -3.992121e-01 5.301653e-02 -1.198277e-01 -5.457022e-01 8.789586e-01 7.214220e-02 -3.191090e-01 -2.742653e-04 -2.752205e-01 -1.656940e-01 6.901640e-02 -1.403711e-01 9.339005e-02 -2.834900e-02 -3.236575e-02 4.970129e-02 -1.872121e-02 3.453926e-01
<VARIANCE> 39
 7.429710e+01 2.244757e+01 3.643217e+01 4.593932e+01 4.037671e+01 4.031004e+01 3.516743e+01 3.137070e+01 3.297508e+01 2.808625e+01 2.862852e+01 2.475106e+01 1.006527e+02 9.558194e+00 3.771489e+00 5.213081e+00 7.503625e+00 5.834567e+00 5.899515e+00 5.661387e+00 4.916633e+00 4.374418e+00 3.860075e+00 4.227600e+00 3.113394e+00 1.072686e+01 1.660913e+00 5.434259e-01 6.920143e-01 1.136477e+00 9.332932e-01 7.879906e-01 8.194507e-01 7.928144e-01 7.479478e-01 6.665930e-01 6.474314e-01 5.497875e-01 1.366498e+00
<GCONST> 1.383210e+02
<TRANSP> 5
 0.000000e+00 1.000000e+00 0.000000e+00 0.000000e+00 0.000000e+00
 0.000000e+00 5.829270e-01 4.170730e-01 0.000000e+00 0.000000e+00
 0.000000e+00 0.000000e+00 8.864735e-01 1.135265e-01 0.000000e+00
 0.000000e+00 0.000000e+00 0.000000e+00 7.372003e-01 2.627998e-01
 0.000000e+00 0.000000e+00 0.000000e+00 0.000000e+00 0.000000e+00
<ENDHMM>
~h "g"
<BEGINHMM>
<NUMSTATES> 5
<STATE> 2
<MEAN> 39
 -1.315149e+01 9.925632e-01 -1.917513e+00 2.778039e-01 -4.305965e+00 -4.402295e+00 -3.725643e+00 -2.676563e+00 -6.508485e+00 -2.573042e+00 -1.632156e+00 -2.805639e+00 3.681823e+01 2.059757e-01 -6.660857e-01 -7.236822e-01 -4.478131e-01 7.873106e-01 1.891295e-01 -4.570204e-01 -1.596255e-01 2.608861e-01 2.375971e-01 -3.014911e-01 1.381299e-01 1.321529e+00 1.164064e-01 -7.528545e-01 -3.120705e-01 -6.206171e-01 -2.579501e-01 -1.571030e-01 -2.583020e-01 9.111903e-02 1.019405e-01 3.195246e-01 7.240370e-02 3.058583e-02 1.073397e+00
<VARIANCE> 39
 4.885441e+01 3.347515e+01 4.651280e+01 3.453696e+01 2.751098e+01 3.520370e+01 3.024738e+01 3.399470e+01 4.743055e+01 3.374778e+01 2.780850e+01 2.269797e+01 6.570644e+01 3.194898e+00 6.130890e+00 4.645783e+00 4.611302e+00 4.648957e+00 4.388008e+00 4.670375e+00 3.686134e+00 4.240393e+00 4.378115e+00 2.949327e+00 2.648160e+00 1.038631e+01 3.914610e-01 1.001730e+00 7.120153e-01 9.072910e-01 7.557090e-01 8.247344e-01 6.904088e-01 7.120729e-01 7.021967e-01 7.012105e-01 5.574396e-01 4.875537e-01 1.565858e+00
<GCONST> 1.333801e+02
<STATE> 3
<MEAN> 39
 -1.169574e+01 -7.371149e+00 -7.899432e+00 -4.885905e+00 -1.764742e+00 -4.554746e+00 -6.934555e+00 -3.033660e+00 -5.977505e+00 1.973951e-01 -3.356684e+00 -2.006667e+00 4.871120e+01 6.169654e-01 -2.133515e+00 -1.464776e+00 -1.925848e+00 -2.304719e-01 -6.086779e-01 -1.219669e+00 1.687384e-01 4.769939e-01 1.034458e+00 1.038177e-01 5.233240e-01 3.993628e+00 5.100651e-01 5.532593e-01 6.272234e-01 8.690635e-02 -8.064526e-01 -4.269687e-01 -1.974869e-01 -6.842338e-02 -1.324074e-01 -2.634061e-01 3.195998e-01 -7.560496e-02 -9.096683e-02
<VARIANCE> 39
 3.574692e+01 8.717880e+01 1.026014e+02 7.450948e+01 6.850401e+01 6.234266e+01 5.284347e+01 5.096915e+01 4.403878e+01 4.982808e+01 3.430537e+01 3.608649e+01 7.145026e+01 3.441607e+00 7.992836e+00 7.284794e+00 6.379019e+00 7.475156e+00 6.502397e+00 5.356981e+00 4.704942e+00 4.430084e+00 5.000564e+00 3.658298e+00 3.516122e+00 7.541500e+00 6.283947e-01 2.057975e+00 1.457514e+00 1.588038e+00 1.237133e+00 1.215936e+00 1.211883e+00 1.097396e+00 8.790427e-01 1.181915e+00 6.582146e-01 8.073068e-01 1.966572e+00
<GCONST> 1.478142e+02
<STATE> 4
<MEAN> 39
 -6.456989e+00 -7.243749e+00 -5.497952e+00 -7.040652e+00 -8.131898e+00 -9.090270e+00 -1.219214e+01 -3.082074e+00 -6.083752e+00 3.128272e-01 -2.939967e-01 -1.716799e+00 5.656884e+01 2.336835e+00 1.906672e-01 6.330999e-01 -4.077317e-01 -2.153390e+00 -1.114208e+00 -1.303957e+00 2.853029e-01 -1.196682e-01 -7.240067e-01 9.657523e-01 -1.064987e-01 1.539314e+00 -8.520920e-02 -2.205822e-01 -3.377698e-01 6.455220e-02 1.881747e-01 3.712531e-01 3.748756e-01 3.438409e-01 2.087099e-01 -9.062407e-02 -4.404067e-02 -1.975381e-02 -5.257971e-01
<VARIANCE> 39
 3.559061e+01 3.300972e+01 8.149985e+01 6.482480e+01 9.828529e+01 7.655042e+01 5.931670e+01 6.250941e+01 4.458267e+01 4.549492e+01 5.480113e+01 2.465901e+01 3.209642e+01 2.276145e+00 4.104366e+00 4.544431e+00 5.011925e+00 5.320169e+00 5.772111e+00 6.683743e+00 6.613896e+00 5.789876e+00 5.630881e+00 4.659494e+00 3.757699e+00 2.135185e+00 4.357245e-01 7.622645e-01 8.538344e-01 6.601159e-01 9.953721e-01 8.274736e-01 9.657084e-01 8.888484e-01 7.400625e-01 9.022233e-01 7.745538e-01 5.147396e-01 6.022744e-01
<GCONST> 1.385814e+02
<TRANSP> 5
 0.000000e+00 1.000000e+00 0.000000e+00 0.000000e+00 0.000000e+00
 0.000000e+00 4.644605e-01 5.355394e-01 0.000000e+00 0.000000e+00
 0.000000e+00 0.000000e+00 6.246053e-01 3.753948e-01 0.000000e+00
 0.000000e+00 0.000000e+00 0.000000e+00 6.353220e-01 3.646780e-01
 0.000000e+00 0.000000e+00 0.000000e+00 0.000000e+00 0.000000e+00
<ENDHMM>
~h "k"
<BEGINHMM>
<NUMSTATES> 5
<STATE> 2
<MEAN> 39
 -2.089206e+01 -2.453385e+00 -5.392157e+00 -6.118543e-01 -2.978068e+00 -1.351988e+00 -1.908184e+00 -2.675499e-01 -1.815424e+00 1.744774e-02 -7.463785e-01 -1.350863e-01 3.161784e+01 -3.890473e-01 -1.091847e+00 -6.574381e-01 -6.620811e-01 6.873889e-02 2.855261e-01 1.622475e-02 9.634336e-02 4.477270e-01 2.932890e-01 -6.946249e-02 1.765111e-01 1.091397e+00 4.673275e-01 -4.292241e-01 8.357843e-02 -6.735780e-01 -4.168907e-01 -4.798289e-01 -7.147634e-02 -3.005643e-02 -2.094228e-01 4.194594e-02 -8.813462e-02 -7.255293e-02 1.768376e+00
<VARIANCE> 39
 6.967035e+00 1.175599e+01 1.236090e+01 1.496266e+01 1.537440e+01 1.640729e+01 1.692911e+01 2.003514e+01 2.002009e+01 1.709185e+01 1.475411e+01 1.252207e+01 2.938169e+01 3.033785e+00 4.774746e+00 4.442116e+00 4.616988e+00 4.195250e+00 4.886430e+00 3.486400e+00 4.175457e+00 3.926702e+00 3.227849e+00 2.848293e+00 2.244439e+00 1.724980e+01 4.511270e-01 6.395078e-01 6.789660e-01 6.941573e-01 6.256825e-01 7.805937e-01 6.439828e-01 7.822223e-01 6.429192e-01 5.539569e-01 5.047367e-01 3.997271e-01 1.913478e+00
<GCONST> 1.203479e+02
<STATE> 3
<MEAN> 39
 -1.901129e+01 -9.797362e+00 -6.676082e+00 -9.294048e+00 -5.314901e+00 -4.410522e+00 -1.862344e+00 -5.900438e-01 -1.721838e+00 1.706585e+00 -1.823673e+00 5.567427e-01 5.320848e+01 1.680281e-01 1.223344e-01 2.572995e-01 -8.000298e-01 -3.413539e-01 -2.640062e-01 2.704879e-01 -5.154293e-02 1.108828e-01 -3.438174e-02 -1.057120e-01 3.803689e-02 2.155778e+00 1.466584e-01 5.497910e-01 2.868375e-01 4.153039e-01 -2.201323e-02 8.926565e-02 7.342687e-02 -7.190426e-02 -1.408050e-01 -2.646489e-01 1.724390e-02 -1.239092e-01 -9.379817e-01
<VARIANCE> 39
 3.117648e+01 3.655991e+01 5.896920e+01 5.235731e+01 4.290800e+01 4.538189e+01 4.788420e+01 4.047496e+01 4.105598e+01 3.157291e+01 2.492698e+01 2.239999e+01 6.168376e+01 2.328912e+00 4.647194e+00 3.477162e+00 4.909830e+00 3.060255e+00 3.682846e+00 3.303021e+00 2.936060e+00 2.960961e+00 2.916122e+00 2.295916e+00 1.990359e+00 1.441435e+01 5.902744e-01 9.966683e-01 6.817836e-01 8.200844e-01 6.302553e-01 7.393348e-01 6.967713e-01 6.723180e-01 7.386777e-01 6.394300e-01 5.381196e-01 4.443492e-01 1.605563e+00
<GCONST> 1.314242e+02
<STATE> 4
<MEAN> 39
 -1.466507e+01 -6.308896e+00 -2.340380e+00 -9.633161e+00 -9.743825e+00 -4.027466e+00 -4.184138e-01 -2.343812e+00 -3.634800e+00 -1.326222e+00 -2.736344e+00 -1.808827e+00 5.444856e+01 2.161934e+00 -1.137174e-01 2.893583e-01 -6.768175e-02 -1.556853e+00 -7.699443e-01 -4.661282e-01 -1.244398e-02 -7.418027e-01 -9.044603e-01 -1.085330e-01 -6.783424e-01 7.910614e-01 1.572031e-01 -4.003924e-01 -2.591578e-01 -2.239203e-01 -2.181594e-01 -1.054284e-01 -3.797562e-01 1.924465e-01 1.249449e-01 1.354848e-01 1.730844e-01 3.770605e-02 2.605463e-01
<VARIANCE> 39
 4.961427e+01 2.640519e+01 5.243520e+01 5.434717e+01 6.726038e+01 5.987133e+01 5.922091e+01 4.812655e+01 3.687649e+01 3.246806e+01 4.329277e+01 3.057834e+01 6.354103e+01 4.777618e+00 3.548311e+00 3.230829e+00 3.418425e+00 5.075700e+00 4.927927e+00 5.551524e+00 5.032698e+00 5.209475e+00 3.801669e+00 4.594980e+00 2.962620e+00 3.060255e+00 6.275190e-01 5.388293e-01 4.714180e-01 5.151727e-01 7.921781e-01 7.829709e-01 8.528407e-01 6.665446e-01 7.145298e-01 6.275457e-01 5.601469e-01 5.216404e-01 5.945032e-01
<GCONST> 1.338964e+02
<TRANSP> 5
 0.000000e+00 1.000000e+00 0.000000e+00 0.000000e+00 0.000000e+00
 0.000000e+00 7.185650e-01 2.814349e-01 0.000000e+00 0.000000e+00
 0.000000e+00 0.000000e+00 7.914729e-01 2.085271e-01 0.000000e+00
 0.000000e+00 0.000000e+00 0.000000e+00 6.530529e-01 3.469470e-01
 0.000000e+00 0.000000e+00 0.000000e+00 0.000000e+00 0.000000e+00
<ENDHMM>
~h "l"
<BEGINHMM>
<NUMSTATES> 5
<STATE> 2
<MEAN> 39
 -6.311545e+00 -3.423933e+00 -1.162961e+01 -1.801973e+01 -5.596781e+00 1.527540e+00 -3.672049e+00 -4.830934e+00 -2.199814e+00 -1.706198e+00 -1.633504e+00 -1.505614e+00 5.161356e+01 4.453495e-01 7.629672e-01 7.089479e-02 -3.197842e-01 -2.826675e-02 1.498821e-01 -2.162071e-01 -3.224410e-01 -5.436593e-01 -1.927106e-01 1.481147e-01 1.939439e-01 -4.448664e-01 -3.261023e-02 -1.088873e-01 5.245034e-02 1.301589e-01 -4.390620e-02 -1.067708e-01 -7.245971e-02 1.087774e-01 2.735717e-02 1.065254e-02 2.382824e-04 -5.288499e-02 5.319091e-02
<VARIANCE> 39
 5.219961e+01 3.918116e+01 4.105033e+01 9.889444e+01 6.368706e+01 5.295199e+01 7.300202e+01 6.427679e+01 4.446442e+01 4.920144e+01 4.170191e+01 3.263123e+01 1.076016e+02 3.265789e+00 2.211313e+00 1.932372e+00 4.977463e+00 3.370981e+00 3.214251e+00 3.468916e+00 3.327945e+00 2.989431e+00 2.982338e+00 2.865831e+00 2.706068e+00 2.417980e+00 3.582050e-01 3.115233e-01 3.491852e-01 6.222732e-01 5.149606e-01 5.070887e-01 5.110740e-01 5.470368e-01 5.111651e-01 5.211233e-01 4.761502e-01 4.327789e-01 2.500527e-01
<GCONST> 1.273350e+02
<STATE> 3
<MEAN> 39
 -2.998169e+00 1.154295e+00 -9.572800e+00 -2.130500e+01 -7.576480e+00 -5.350505e-01 -9.315396e+00 -7.653309e+00 -6.174255e+00 -2.476018e+00 1.337172e-02 -1.879941e+00 5.505404e+01 4.635341e-01 -8.136896e-01 -3.702092e-01 -6.893389e-01 1.508216e-01 1.057544e-01 -8.390843e-01 4.826082e-03 2.940241e-01 5.131236e-01 2.192600e-01 -4.488043e-01 1.181789e+00 -4.463213e-01 -6.193449e-01 1.313327e-02 4.226483e-01 1.372279e-01 -6.786507e-02 7.898168e-02 4.326985e-01 4.955192e-01 1.991123e-01 -2.312964e-01 -1.646715e-01 1.106463e-01
<VARIANCE> 39
 1.879159e+01 3.675470e+01 3.884498e+01 8.097726e+01 6.159484e+01 7.101363e+01 8.211469e+01 7.071672e+01 5.746384e+01 6.229416e+01 6.038599e+01 3.556370e+01 4.980770e+01 3.604036e+00 3.491668e+00 2.129433e+00 6.938498e+00 3.985003e+00 4.396731e+00 3.995974e+00 3.939292e+00 4.885698e+00 4.600744e+00 3.294086e+00 2.731782e+00 3.418913e+00 4.760242e-01 3.724172e-01 3.702946e-01 8.014524e-01 7.651988e-01 7.957398e-01 7.090483e-01 8.478047e-01 7.491162e-01 7.842052e-01 7.009627e-01 5.407138e-01 3.136326e-01
<GCONST> 1.338547e+02
<STATE> 4
<MEAN> 39
 -4.230877e+00 -9.498472e+00 -9.485627e+00 -1.801920e+01 -7.085867e+00 -2.920145e+00 -1.267098e+01 -2.144809e+00 1.450650e+00 8.822356e-01 -3.762714e+00 -6.158918e+00 6.170002e+01 -5.314626e-01 -1.384673e+00 8.588118e-01 1.212050e+00 -7.594962e-01 -1.050172e+00 3.463939e-01 1.815430e+00 6.975208e-01 -6.401299e-01 -9.182606e-01 1.040656e-01 5.089700e-01 -6.368969e-02 3.377228e-01 2.856593e-01 8.573247e-02 -2.789645e-01 -1.568533e-02 3.987483e-01 -9.549544e-02 -5.519184e-01 -3.618743e-01 2.726915e-01 3.443036e-01 -3.101230e-01
<VARIANCE> 39
 1.641195e+01 4.655359e+01 5.342987e+01 6.506524e+01 6.138882e+01 9.318578e+01 8.336795e+01 8.762877e+01 5.293895e+01 6.806097e+01 7.181589e+01 5.165922e+01 5.955267e+01 1.183232e+00 2.797424e+00 2.711871e+00 3.632666e+00 4.617869e+00 4.605828e+00 4.530299e+00 4.649786e+00 5.843001e+00 4.912148e+00 5.018077e+00 4.245736e+00 1.869909e+00 2.000000e-01 3.476188e-01 3.027029e-01 5.088798e-01 5.603396e-01 7.124900e-01 6.283039e-01 9.367214e-01 7.956908e-01 8.746417e-01 8.336420e-01 6.060219e-01 2.000000e-01
<GCONST> 1.325045e+02
<TRANSP> 5
 0.000000e+00 1.000000e+00 0.000000e+00 0.000000e+00 0.000000e+00
 0.000000e+00 7.127857e-01 2.872142e-01 0.000000e+00 0.000000e+00
 0.000000e+00 0.000000e+00 7.345413e-01 2.654587e-01 0.000000e+00
 0.000000e+00 0.000000e+00 0.000000e+00 6.994284e-01 3.005716e-01
 0.000000e+00 0.000000e+00 0.000000e+00 0.000000e+00 0.000000e+00
<ENDHMM>
~h "m"
<BEGINHMM>
<NUMSTATES> 5
<STATE> 2
<MEAN> 39
 -4.852532e+00 -3.392077e+00 -1.216991e+00 -1.104388e+00 -6.523642e+00 -9.182501e+00 -9.220812e+00 -9.574453e+00 -1.161709e+01 -1.667601e+00 -1.809229e+00 -7.760839e+00 5.040041e+01 -2.189213e-01 5.930346e-01 4.556689e-01 6.131198e-01 2.341334e-01 -2.231532e-01 1.140719e-01 -5.044174e-01 -6.942902e-01 -6.199998e-02 3.014193e-02 -2.928977e-02 -6.051171e-01 -8.179282e-02 -3.023058e-01 -2.892137e-01 -5.068571e-01 -1.475134e-01 2.936113e-01 5.816717e-02 5.496806e-01 6.427857e-01 -1.979962e-01 -1.457909e-01 2.870619e-01 2.428238e-01
<VARIANCE> 39
 8.669064e+00 2.786576e+01 2.609428e+01 4.563258e+01 4.985676e+01 8.065778e+01 6.611623e+01 6.179628e+01 5.732941e+01 5.278271e+01 7.553907e+01 4.660364e+01 2.829655e+01 9.834294e-01 1.467706e+00 1.926602e+00 2.531623e+00 1.871423e+00 2.249895e+00 2.056106e+00 3.285476e+00 4.105301e+00 2.526598e+00 2.378416e+00 2.323414e+00 2.119501e+00 2.000000e-01 2.494961e-01 3.787062e-01 4.523419e-01 4.669111e-01 4.176883e-01 4.299381e-01 5.498039e-01 6.516519e-01 5.176884e-01 5.856978e-01 4.644983e-01 2.667761e-01
<GCONST> 1.189360e+02
<STATE> 3
<MEAN> 39
 -1.089298e+01 -3.295055e+00 -4.315439e+00 -2.420909e+00 -3.509672e+00 -4.201494e+00 -4.563803e+00 -3.725716e+00 -6.380726e+00 -3.865189e+00 -2.900043e+00 -3.418255e+00 4.295097e+01 -4.365781e-01 -4.187352e-01 -3.099580e-01 -6.807620e-01 -2.029484e-01 3.949666e-01 1.966981e-01 7.192896e-01 6.543891e-01 -8.656922e-02 -7.216851e-02 3.711092e-01 -1.672759e-02 -3.975313e-02 -2.201066e-01 -6.720553e-02 -2.915148e-01 -2.263997e-01 7.647003e-02 2.282949e-03 1.705986e-01 2.197586e-01 9.319289e-02 1.193133e-02 5.278948e-02 2.296048e-01
<VARIANCE> 39
 4.672845e+01 3.344762e+01 3.774037e+01 3.709175e+01 4.062309e+01 6.204570e+01 4.956900e+01 6.208055e+01 7.420533e+01 5.753654e+01 4.446783e+01 3.795807e+01 7.187582e+01 2.455671e+00 1.892029e+00 2.771984e+00 3.495369e+00 3.313180e+00 3.337450e+00 3.168397e+00 3.532337e+00 4.728176e+00 3.313656e+00 3.125933e+00 2.846936e+00 4.343093e+00 3.560456e-01 3.983637e-01 5.324321e-01 7.246222e-01 5.509800e-01 5.425674e-01 5.650384e-01 7.272214e-01 8.385421e-01 5.783180e-01 5.633779e-01 5.266895e-01 4.812131e-01
<GCONST> 1.295641e+02
<STATE> 4
<MEAN> 39
 -7.847341e+00 -6.537220e+00 -3.828010e+00 -7.658401e+00 -9.171834e+00 -6.107770e+00 -6.963301e+00 -4.092972e+00 -6.136834e+00 -3.223286e+00 -2.944263e+00 -4.101847e+00 5.101307e+01 -5.059234e-01 -1.419265e+00 -5.562950e-01 -2.415998e+00 -1.222413e+00 1.225673e+00 6.073302e-01 1.915312e+00 1.899172e+00 -1.265915e-01 -1.890624e-01 9.770987e-01 1.434452e+00 -7.372904e-02 2.301084e-02 1.472373e-01 -5.425532e-03 2.263854e-02 1.352189e-01 1.058203e-01 -2.123093e-02 -1.851980e-01 1.559193e-01 -4.275881e-03 -5.945931e-02 7.669009e-02
<VARIANCE> 39
 4.099183e+01 4.521012e+01 5.537831e+01 7.556357e+01 6.860626e+01 8.270932e+01 6.663624e+01 6.684351e+01 7.625345e+01 5.305329e+01 5.512336e+01 4.304305e+01 1.033344e+02 3.532626e+00 3.865557e+00 6.876939e+00 8.048778e+00 7.571144e+00 5.809355e+00 5.304349e+00 6.248303e+00 6.916328e+00 5.346550e+00 6.073825e+00 4.861702e+00 8.864387e+00 4.357373e-01 6.585898e-01 7.896693e-01 1.130852e+00 9.766045e-01 7.758410e-01 7.722961e-01 1.019684e+00 1.162204e+00 7.650955e-01 8.303335e-01 6.989185e-01 1.036053e+00
<GCONST> 1.458876e+02
<TRANSP> 5
 0.000000e+00 1.000000e+00 0.000000e+00 0.000000e+00 0.000000e+00
 0.000000e+00 8.034850e-01 1.965150e-01 0.000000e+00 0.000000e+00
 0.000000e+00 0.000000e+00 6.587008e-01 3.412993e-01 0.000000e+00
 0.000000e+00 0.000000e+00 0.000000e+00 5.547226e-01 4.452774e-01
 0.000000e+00 0.000000e+00 0.000000e+00 0.000000e+00 0.000000e+00
<ENDHMM>
~h "n"
<BEGINHMM>
<NUMSTATES> 5
<STATE> 2
<MEAN> 39
 -4.549091e+00 -1.428910e+00 -7.565130e-01 -3.099983e+00 -1.168317e+01 -8.365294e+00 -3.354955e+00 -9.979240e+00 -9.847706e+00 -1.365683e+00 -6.770068e+00 -4.048666e+00 4.899770e+01 -2.324715e-01 9.147319e-01 2.233947e-01 6.657550e-01 3.398858e-01 1.374828e-01 4.341429e-01 -8.386169e-01 -3.763205e-01 7.341869e-02 -2.226822e-01 6.273039e-02 -1.106504e+00 -2.335940e-01 -2.979129e-01 -7.112706e-02 -3.486518e-01 1.160909e-01 1.605702e-01 -2.096682e-01 7.428701e-01 3.518861e-01 -2.858297e-01 1.433073e-01 9.821019e-02 2.489503e-01
<VARIANCE> 39
 8.661683e+00 2.337090e+01 2.471711e+01 4.432744e+01 4.624409e+01 4.550616e+01 5.255292e+01 6.374929e+01 5.325241e+01 5.687568e+01 4.471228e+01 5.589849e+01 2.127363e+01 6.530744e-01 1.418104e+00 1.568883e+00 2.255114e+00 2.252647e+00 2.271081e+00 2.823487e+00 5.775727e+00 3.040101e+00 2.921584e+00 2.006606e+00 1.961308e+00 1.321194e+00 2.000000e-01 2.597531e-01 3.222102e-01 4.512800e-01 4.491633e-01 4.715245e-01 4.853468e-01 7.268223e-01 5.655808e-01 5.189990e-01 4.173220e-01 4.103330e-01 2.464226e-01
<GCONST> 1.162249e+02
<STATE> 3
<MEAN> 39
 -1.175257e+01 -2.061460e+00 -3.022062e+00 -2.040976e+00 -5.231186e+00 -4.526425e+00 -2.362458e+00 -2.268322e+00 -4.475529e+00 -3.645687e+00 -4.993694e+00 -1.517721e+00 4.107331e+01 -8.746563e-01 -3.148314e-01 -2.901259e-01 -2.655054e-01 4.438777e-01 4.474790e-01 -2.486679e-02 8.180859e-01 5.269735e-01 -1.540112e-01 3.331524e-01 2.483094e-01 -5.936058e-01 -8.220527e-02 -1.871824e-01 -5.985207e-02 -1.948030e-01 -1.334387e-01 1.653942e-02 -3.898037e-02 5.801520e-02 9.961204e-02 7.022834e-02 5.602545e-02 -4.615455e-04 1.819666e-01
<VARIANCE> 39
 3.771614e+01 3.256661e+01 3.348648e+01 3.439936e+01 3.704975e+01 3.512698e+01 4.026236e+01 5.960201e+01 5.336337e+01 4.772478e+01 4.007414e+01 3.253925e+01 5.437621e+01 1.352432e+00 1.755187e+00 1.851325e+00 2.676064e+00 2.656454e+00 2.556240e+00 2.874036e+00 4.007147e+00 3.104323e+00 3.009229e+00 2.531115e+00 2.319138e+00 1.857666e+00 2.607776e-01 4.133039e-01 3.726090e-01 5.394891e-01 4.699611e-01 4.812426e-01 5.183749e-01 7.065233e-01 6.187236e-01 5.406002e-01 4.804012e-01 4.120795e-01 3.348164e-01
<GCONST> 1.211215e+02
<STATE> 4
<MEAN> 39
 -1.248666e+01 -3.747951e+00 -2.539795e+00 -5.906345e+00 -7.813039e+00 -4.941430e+00 -4.438080e+00 -2.011295e+00 -4.582511e+00 -3.653154e+00 -4.155217e+00 -1.673798e+00 4.475268e+01 -1.267084e+00 -9.738198e-01 -3.146923e-01 -9.642705e-01 1.064474e-01 6.670644e-01 -2.808277e-02 1.155594e+00 1.156009e+00 4.593726e-02 4.137115e-01 2.818951e-01 4.367299e-01 5.819453e-02 -3.415483e-02 -2.554543e-02 -7.846960e-02 -1.543214e-01 1.247343e-03 1.006856e-01 -1.631499e-01 -1.037640e-03 1.548726e-01 -4.210529e-02 -3.328878e-02 3.307888e-01
<VARIANCE> 39
 4.571340e+01 4.602493e+01 4.216883e+01 5.159695e+01 6.058770e+01 4.542337e+01 5.212106e+01 6.558543e+01 6.540893e+01 4.765712e+01 3.963372e+01 3.401092e+01 9.097623e+01 5.175974e+00 4.239022e+00 4.624333e+00 5.741944e+00 6.230985e+00 4.720993e+00 4.812976e+00 6.924308e+00 5.581183e+00 4.671131e+00 4.098171e+00 3.480131e+00 8.507358e+00 6.823214e-01 7.304336e-01 6.361839e-01 1.013890e+00 9.828676e-01 7.975325e-01 8.007858e-01 1.018226e+00 8.965257e-01 7.385184e-01 6.499822e-01 5.589046e-01 1.322378e+00
<GCONST> 1.414194e+02
<TRANSP> 5
 0.000000e+00 1.000000e+00 0.000000e+00 0.000000e+00 0.000000e+00
 0.000000e+00 8.104042e-01 1.895958e-01 0.000000e+00 0.000000e+00
 0.000000e+00 0.000000e+00 7.304268e-01 2.695732e-01 0.000000e+00
 0.000000e+00 0.000000e+00 0.000000e+00 5.626973e-01 4.373027e-01
 0.000000e+00 0.000000e+00 0.000000e+00 0.000000e+00 0.000000e+00
<ENDHMM>
~h "p"
<BEGINHMM>
<NUMSTATES> 5
<STATE> 2
<MEAN> 39
 -2.047235e+01 -1.306537e+00 -5.500940e+00 -6.788729e-01 -2.939676e+00 -7.337927e-01 -1.964894e+00 -5.725287e-01 -1.373738e+00 -4.723414e-01 -8.926882e-01 -3.073473e-01 3.014554e+01 -4.777380e-01 -7.184097e-01 -1.794033e-01 -2.233410e-01 -5.506606e-02 -7.990181e-02 3.485996e-01 5.636891e-01 5.869743e-01 3.528846e-01 2.484174e-01 3.437892e-01 9.070788e-01 5.220776e-01 -2.496819e-01 2.217826e-01 -3.484716e-01 -2.757367e-01 -2.879128e-01 -7.808032e-02 -5.234507e-02 -1.472972e-01 -3.717954e-02 -8.300305e-03 -7.891676e-02 1.354108e+00
<VARIANCE> 39
 6.270740e+00 7.128536e+00 8.406880e+00 8.306129e+00 1.020754e+01 1.176107e+01 1.240863e+01 1.371630e+01 1.397804e+01 1.416795e+01 1.301748e+01 1.157427e+01 1.747186e+01 3.355886e+00 1.703680e+00 2.076792e+00 2.034725e+00 1.859291e+00 2.632185e+00 2.140758e+00 2.437038e+00 2.501430e+00 2.125837e+00 1.983734e+00 1.675778e+00 1.354450e+01 4.331813e-01 3.752496e-01 4.019246e-01 4.531615e-01 4.326017e-01 4.648292e-01 4.247324e-01 4.749808e-01 4.600637e-01 4.326428e-01 3.922645e-01 3.173803e-01 1.375715e+00
<GCONST> 1.046119e+02
<STATE> 3
<MEAN> 39
 -1.674770e+01 -8.266829e+00 -3.169021e+00 -4.306188e+00 -4.995478e+00 -5.302208e+00 -8.518535e-02 2.444951e+00 3.011469e-01 6.092240e-01 9.075572e-03 8.834598e-01 5.324394e+01 7.064584e-01 -1.516847e+00 7.212636e-01 -1.481177e+00 -1.026006e+00 -5.466611e-01 3.915726e-01 -2.465065e-01 -5.761631e-01 8.513015e-02 -6.323370e-02 -8.641975e-02 4.606166e+00 -4.180837e-02 5.147585e-01 -1.156416e-02 -2.336801e-01 -2.048144e-01 3.225887e-01 -3.568818e-01 -6.166119e-01 -5.141410e-01 -2.146773e-01 -2.618968e-01 -2.699378e-01 -1.391737e+00
<VARIANCE> 39
 1.237673e+01 1.932253e+01 2.750320e+01 2.089616e+01 2.573127e+01 2.720773e+01 2.969408e+01 2.551947e+01 2.575991e+01 2.286115e+01 2.140272e+01 1.808646e+01 5.386143e+01 2.629671e+00 2.187366e+00 3.059604e+00 3.492959e+00 3.132611e+00 3.179124e+00 3.460596e+00 3.718958e+00 3.609420e+00 2.706143e+00 2.388200e+00 2.091556e+00 1.372560e+01 4.722870e-01 4.853679e-01 4.781418e-01 5.755541e-01 6.084342e-01 6.692050e-01 8.138640e-01 6.944875e-01 7.004555e-01 5.913824e-01 6.138186e-01 4.314890e-01 1.435534e+00
<GCONST> 1.224111e+02
<STATE> 4
<MEAN> 39
 -1.693006e+01 -6.729658e+00 -7.828670e-01 -1.074807e+01 -8.024734e+00 -3.545381e+00 -1.349633e+00 -3.616863e+00 -3.636144e+00 -3.844542e-01 -2.594247e+00 -6.548753e-01 5.444109e+01 1.549986e+00 1.299704e+00 1.224503e+00 -1.171616e+00 -1.295726e+00 -3.492141e-02 -1.662552e+00 -1.556651e+00 -1.332737e+00 -9.905354e-01 -8.251451e-01 -6.435429e-01 2.741404e-01 3.837275e-01 2.615593e-01 2.249100e-01 2.408077e-01 -2.810748e-01 -1.401172e-01 -4.921727e-01 1.272506e-01 -6.328460e-02 -1.896582e-01 1.300708e-01 -6.309851e-02 -2.115006e-01
<VARIANCE> 39
 3.330704e+01 3.026895e+01 5.519643e+01 4.197287e+01 3.700203e+01 2.930267e+01 3.991864e+01 3.237831e+01 3.352898e+01 2.910548e+01 2.670152e+01 2.026400e+01 3.107677e+01 3.661813e+00 2.824336e+00 5.116212e+00 5.419250e+00 4.377315e+00 4.024885e+00 5.360255e+00 3.980557e+00 4.598315e+00 3.706182e+00 4.571635e+00 2.601868e+00 3.793959e+00 4.858272e-01 6.388515e-01 5.300817e-01 7.100834e-01 6.016487e-01 6.020814e-01 8.024829e-01 6.634120e-01 7.396253e-01 7.093166e-01 6.570974e-01 4.580102e-01 1.286753e+00
<GCONST> 1.299538e+02
<TRANSP> 5
 0.000000e+00 1.000000e+00 0.000000e+00 0.000000e+00 0.000000e+00
 0.000000e+00 8.151994e-01 1.848006e-01 0.000000e+00 0.000000e+00
 0.000000e+00 0.000000e+00 6.395120e-01 3.604880e-01 0.000000e+00
 0.000000e+00 0.000000e+00 0.000000e+00 6.588664e-01 3.411336e-01
 0.000000e+00 0.000000e+00 0.000000e+00 0.000000e+00 0.000000e+00
<ENDHMM>
~h "r"
<BEGINHMM>
<NUMSTATES> 5
<STATE> 2
<MEAN> 39
 1.378372e+00 -1.145548e+01 -1.741821e+01 -5.952893e+00 -3.551722e+00 -1.049291e+01 -1.704482e+01 3.207083e+00 1.406629e+00 -3.547248e+00 -1.910779e+00 -6.776492e-01 5.650640e+01 -6.693334e-02 -5.468205e-01 8.156441e-01 3.928482e-01 -8.434135e-01 -1.089965e+00 -2.861632e-01 9.373074e-01 5.255895e-02 -3.879480e-01 7.405143e-02 2.213765e-01 1.251195e-01 -5.278881e-01 3.501605e-03 5.806587e-01 -1.256641e-02 -3.676575e-01 1.772104e-01 7.374926e-01 6.032536e-02 -3.197514e-01 6.606040e-03 1.557098e-01 -4.208336e-02 -1.465424e-01
<VARIANCE> 39
 2.696208e+01 4.321386e+01 5.261769e+01 4.073547e+01 5.668691e+01 8.111395e+01 1.188348e+02 1.127429e+02 9.746838e+01 4.801778e+01 4.528050e+01 3.209434e+01 5.247673e+01 3.070974e+00 2.288683e+00 4.368575e+00 2.557044e+00 3.609547e+00 4.292714e+00 6.429235e+00 5.186230e+00 4.035721e+00 3.329902e+00 2.485330e+00 2.260487e+00 2.784205e+00 3.922161e-01 3.155920e-01 3.851113e-01 3.938750e-01 4.905614e-01 5.835611e-01 8.495756e-01 7.754537e-01 7.036506e-01 5.401567e-01 4.297900e-01 3.621517e-01 2.144624e-01
<GCONST> 1.299855e+02
<STATE> 3
<MEAN> 39
 -2.533024e+00 -1.464999e+01 -9.663184e+00 -4.498906e+00 -1.127939e+01 -1.610192e+01 -1.053036e+01 9.663229e+00 -2.655723e+00 -5.494574e+00 -9.082802e-01 -3.768218e-01 5.627359e+01 -1.658750e+00 7.799313e-01 2.894482e+00 -3.017329e-01 -1.927892e+00 3.964916e-01 2.292746e+00 -8.468509e-01 -1.563779e+00 3.140904e-01 7.903536e-01 -4.953012e-02 -1.167965e+00 -2.706304e-01 4.593553e-01 4.073014e-02 -3.300459e-01 3.512971e-01 8.092520e-01 7.800180e-02 -7.706128e-01 4.514889e-02 3.744964e-01 -5.788638e-02 -2.253200e-01 -2.678512e-01
<VARIANCE> 39
 2.378694e+01 3.215890e+01 8.031015e+01 4.569946e+01 8.354008e+01 9.199329e+01 1.108372e+02 7.342193e+01 1.057934e+02 5.946097e+01 5.742165e+01 3.462785e+01 6.540969e+01 1.636959e+00 3.196630e+00 3.478908e+00 3.195785e+00 4.647563e+00 4.512637e+00 4.724125e+00 6.033206e+00 5.776346e+00 3.944267e+00 3.310369e+00 2.828697e+00 4.377442e+00 2.815071e-01 3.422152e-01 4.247072e-01 4.961890e-01 6.545676e-01 7.269077e-01 8.395535e-01 6.994771e-01 8.170047e-01 5.917120e-01 5.969507e-01 4.570412e-01 3.660290e-01
<GCONST> 1.340921e+02
<STATE> 4
<MEAN> 39
 -1.404349e+01 -7.003651e+00 -5.923055e+00 -3.967199e+00 -7.677373e+00 -5.723214e+00 -2.573314e+00 1.660100e+00 -2.993625e+00 -2.072712e+00 -1.145330e+00 -1.079022e+00 4.139438e+01 -1.255183e+00 8.767945e-01 1.179874e+00 -4.643889e-01 6.699440e-02 1.313321e+00 4.955208e-01 -1.220633e+00 -2.880668e-01 4.399244e-01 6.403118e-02 -1.873924e-01 -8.012315e-01 3.826262e-01 -1.616433e-01 -2.794462e-01 -1.809708e-01 1.022643e-01 -9.124384e-02 -3.398613e-01 6.243950e-02 6.981846e-02 -7.443663e-02 -1.435776e-01 -2.371006e-02 5.433525e-01
<VARIANCE> 39
 5.947633e+01 4.634774e+01 6.454744e+01 4.351022e+01 7.321844e+01 7.098835e+01 5.292820e+01 5.247016e+01 6.178323e+01 4.693725e+01 4.132582e+01 2.959306e+01 1.254359e+02 4.469731e+00 3.447946e+00 4.009754e+00 4.062143e+00 4.446672e+00 5.183841e+00 4.314657e+00 4.633955e+00 4.409554e+00 3.224287e+00 3.062718e+00 2.687654e+00 6.877013e+00 5.539820e-01 5.925919e-01 6.642798e-01 6.560173e-01 8.521628e-01 7.697747e-01 7.372782e-01 8.144006e-01 8.027567e-01 6.210219e-01 5.981117e-01 5.081522e-01 9.549026e-01
<GCONST> 1.374777e+02
<TRANSP> 5
 0.000000e+00 1.000000e+00 0.000000e+00 0.000000e+00 0.000000e+00
 0.000000e+00 6.101065e-01 3.898935e-01 0.000000e+00 0.000000e+00
 0.000000e+00 0.000000e+00 5.738974e-01 4.261027e-01 0.000000e+00
 0.000000e+00 0.000000e+00 0.000000e+00 6.583970e-01 3.416030e-01
 0.000000e+00 0.000000e+00 0.000000e+00 0.000000e+00 0.000000e+00
<ENDHMM>
~h "s"
<BEGINHMM>
<NUMSTATES> 5
<STATE> 2
<MEAN> 39
 -2.441003e+01 -1.052945e+00 -7.424844e+00 -6.867278e+00 -2.348518e+00 -5.554841e+00 1.055957e-02 1.070340e+00 -1.105577e+00 -1.078398e+00 -1.590811e+00 2.416530e-01 5.127090e+01 -3.156869e+00 8.293694e-01 -7.043686e-01 -1.307738e-01 1.153000e+00 7.098958e-01 4.363551e-01 3.061944e-01 -7.627811e-02 2.915683e-01 7.112004e-01 3.832752e-01 5.925421e-01 5.750774e-01 -2.074703e-01 -2.093776e-02 -2.939867e-02 -3.277654e-01 -8.099698e-02 -2.415919e-01 -3.338194e-02 -1.726889e-02 4.483368e-02 -1.664306e-01 -1.261672e-01 2.033194e-02
<VARIANCE> 39
 3.307032e+01 2.224947e+01 2.823517e+01 3.058191e+01 3.254508e+01 3.457168e+01 2.910865e+01 2.620079e+01 2.265924e+01 1.997593e+01 2.011623e+01 1.615013e+01 9.258302e+01 5.157331e+00 2.176763e+00 2.645866e+00 2.801439e+00 3.069384e+00 3.358004e+00 2.894923e+00 2.983861e+00 3.147673e+00 2.997368e+00 2.798523e+00 2.013802e+00 2.876051e+00 6.947539e-01 4.998776e-01 4.357246e-01 5.155336e-01 5.285017e-01 6.174294e-01 5.906458e-01 5.319842e-01 5.011796e-01 4.758979e-01 4.967468e-01 4.167843e-01 3.198086e-01
<GCONST> 1.200919e+02
<STATE> 3
<MEAN> 39
 -3.111880e+01 1.944467e+00 -9.279606e+00 -7.035273e+00 2.507076e-01 -4.525525e+00 4.147921e-01 1.617431e+00 -1.361752e+00 -1.664266e-01 -7.496777e-01 6.296563e-01 5.617407e+01 -4.008652e-02 -5.035392e-02 7.075019e-02 -2.896531e-02 -2.825652e-02 -3.882652e-02 -8.413374e-02 4.291506e-02 -2.260960e-03 -2.151646e-03 -1.591360e-02 -2.679954e-03 -2.652508e-02 3.905327e-01 -1.382954e-01 1.632625e-01 -2.557709e-02 -1.645592e-01 -1.355831e-01 -8.092853e-02 -7.119071e-02 -1.243076e-02 -5.108959e-02 -6.371353e-02 -4.600989e-02 -1.249706e-01
<VARIANCE> 39
 7.264102e+00 1.944555e+01 2.893688e+01 3.607629e+01 3.678236e+01 3.055526e+01 2.473877e+01 2.253720e+01 1.733689e+01 1.575434e+01 1.455615e+01 1.314366e+01 1.773634e+01 6.384659e-01 9.546404e-01 9.211946e-01 1.037243e+00 1.232928e+00 1.270816e+00 1.293816e+00 1.333582e+00 1.305782e+00 1.295215e+00 1.202710e+00 1.114153e+00 5.514009e-01 2.467188e-01 2.000000e-01 2.103950e-01 2.221809e-01 2.629231e-01 2.823236e-01 2.880359e-01 3.017397e-01 2.901181e-01 2.911298e-01 2.625902e-01 2.390255e-01 2.000000e-01
<GCONST> 9.337826e+01
<STATE> 4
<MEAN> 39
 -2.247119e+01 -2.118801e+00 -6.393670e+00 -7.166429e+00 -3.312796e+00 -6.339751e+00 -2.359932e+00 5.235434e-01 -1.110649e+00 -7.506452e-01 -1.800049e+00 -3.382738e-01 4.825048e+01 2.562412e+00 -6.605126e-01 9.326433e-01 1.297717e-01 -1.240994e+00 -3.866396e-01 -8.308966e-01 -6.126550e-01 -3.097982e-01 -1.816393e-01 -2.287034e-01 -3.706673e-01 -1.197827e+00 2.120330e-01 -9.513592e-02 9.875382e-02 -6.652400e-02 -2.367674e-01 9.407047e-02 -1.087494e-01 -4.091633e-02 -1.183359e-01 -1.040951e-02 3.593042e-02 -5.649420e-02 1.703829e-01
<VARIANCE> 39
 5.597507e+01 2.791233e+01 4.123957e+01 3.513937e+01 4.622711e+01 5.037245e+01 3.893901e+01 3.500412e+01 3.077143e+01 2.816633e+01 2.629914e+01 2.315697e+01 1.063015e+02 6.526497e+00 2.793120e+00 4.449372e+00 4.206233e+00 5.370298e+00 5.487746e+00 4.934094e+00 4.054265e+00 3.704605e+00 3.289311e+00 3.171153e+00 2.602480e+00 7.922921e+00 1.012537e+00 4.903237e-01 5.759053e-01 6.342244e-01 7.930388e-01 8.669882e-01 8.371006e-01 7.253281e-01 6.225209e-01 5.995088e-01 5.963553e-01 4.760659e-01 1.009847e+00
<GCONST> 1.331995e+02
<TRANSP> 5
 0.000000e+00 1.000000e+00 0.000000e+00 0.000000e+00 0.000000e+00
 0.000000e+00 7.200202e-01 2.799798e-01 0.000000e+00 0.000000e+00
 0.000000e+00 0.000000e+00 8.938028e-01 1.061972e-01 0.000000e+00
 0.000000e+00 0.000000e+00 0.000000e+00 8.003111e-01 1.996889e-01
 0.000000e+00 0.000000e+00 0.000000e+00 0.000000e+00 0.000000e+00
<ENDHMM>
~h "t"
<BEGINHMM>
<NUMSTATES> 5
<STATE> 2
<MEAN> 39
 -2.099851e+01 -1.396533e+00 -5.523942e+00 -1.289596e+00 -2.977958e+00 -1.057855e+00 -1.947736e+00 -5.011485e-01 -1.542037e+00 -5.856563e-01 -7.898914e-01 -4.255743e-01 3.117653e+01 -3.829953e-01 -7.310347e-01 -5.395280e-01 -6.623893e-01 7.800324e-02 8.366802e-02 2.045814e-01 1.838196e-01 2.987493e-01 3.293427e-01 3.353344e-01 2.513701e-01 1.066913e+00 6.479824e-02 -4.932338e-02 1.412797e-01 -5.023703e-01 -2.493667e-01 -3.162523e-01 9.996964e-03 -1.049365e-01 -1.236343e-01 -5.852268e-03 -1.729477e-02 -1.240634e-02 1.445032e+00
<VARIANCE> 39
 7.725630e+00 9.678276e+00 9.996895e+00 1.268194e+01 1.240069e+01 1.343748e+01 1.327320e+01 1.480502e+01 1.467161e+01 1.501522e+01 1.381367e+01 1.190472e+01 2.284169e+01 1.892785e+00 2.149981e+00 2.643414e+00 3.894809e+00 2.289294e+00 2.503613e+00 2.121392e+00 2.450505e+00 2.420511e+00 2.112606e+00 1.951200e+00 1.629025e+00 1.524077e+01 3.474992e-01 3.741821e-01 4.406878e-01 5.588953e-01 5.104177e-01 4.561741e-01 4.233267e-01 4.770945e-01 4.267432e-01 3.917182e-01 3.642930e-01 3.055120e-01 1.888851e+00
<GCONST> 1.076520e+02
<STATE> 3
<MEAN> 39
 -2.348396e+01 -4.546980e+00 -5.793052e+00 -1.030165e+01 -4.914081e+00 -5.139473e+00 4.062303e-01 -7.395788e-01 -1.603369e+00 3.243079e-01 -2.578306e-01 8.347002e-01 5.606365e+01 5.895850e-02 8.132527e-03 6.555589e-01 -3.913878e-01 -6.907506e-01 -5.150231e-01 2.603749e-01 -2.264436e-01 -1.035883e-01 -1.887547e-01 -2.593211e-01 4.417318e-02 1.849271e+00 4.847105e-01 1.324735e-01 3.822545e-01 4.219593e-01 -1.699537e-01 9.411818e-02 -2.708919e-01 -1.508249e-01 -1.517424e-01 -1.825157e-01 -1.580377e-01 -1.570732e-01 -1.075623e+00
<VARIANCE> 39
 2.944606e+01 2.678490e+01 2.733472e+01 2.150265e+01 2.312118e+01 2.641837e+01 2.773825e+01 2.833392e+01 2.439760e+01 2.283706e+01 2.011262e+01 1.672936e+01 5.388293e+01 3.360979e+00 2.373788e+00 2.914999e+00 3.795621e+00 2.125069e+00 2.850446e+00 2.589819e+00 2.329059e+00 2.152132e+00 2.071608e+00 1.986061e+00 1.739016e+00 1.722142e+01 6.428391e-01 6.077532e-01 5.355241e-01 6.727220e-01 4.807637e-01 5.672755e-01 6.000277e-01 5.019416e-01 5.106983e-01 4.453296e-01 4.410364e-01 3.792600e-01 1.582496e+00
<GCONST> 1.203228e+02
<STATE> 4
<MEAN> 39
 -1.708426e+01 -3.250128e+00 2.071327e+00 -8.334877e+00 -9.878301e+00 -5.944963e+00 -1.954619e+00 -4.652528e+00 -4.257886e+00 -2.377644e+00 -2.933831e+00 -8.406745e-01 5.467246e+01 3.427890e+00 1.150598e-01 2.613142e+00 -2.116907e-01 -2.627922e+00 -4.859917e-01 -2.468908e+00 -1.202167e+00 -1.559558e+00 -1.123930e+00 -3.796594e-01 -9.819329e-01 2.219461e-01 -7.935753e-02 -1.402183e-01 -3.741026e-02 -3.975343e-01 -3.110635e-01 6.130241e-02 -4.207862e-01 1.499315e-01 -1.195274e-01 8.145154e-02 3.085415e-01 -4.695702e-02 3.878032e-01
<VARIANCE> 39
 3.977198e+01 2.329535e+01 4.344144e+01 2.778933e+01 3.687116e+01 3.333772e+01 4.412491e+01 4.594087e+01 3.336586e+01 2.837178e+01 2.530149e+01 1.888034e+01 5.811916e+01 3.631320e+00 3.212708e+00 4.653749e+00 4.714734e+00 4.684311e+00 4.295512e+00 5.360364e+00 4.238012e+00 4.273215e+00 3.589974e+00 4.529910e+00 2.625582e+00 2.928281e+00 7.525046e-01 4.338057e-01 5.099860e-01 4.245703e-01 6.941862e-01 6.269089e-01 7.958745e-01 6.096857e-01 5.922198e-01 5.592318e-01 4.904007e-01 3.895660e-01 5.488480e-01
<GCONST> 1.278036e+02
<TRANSP> 5
 0.000000e+00 1.000000e+00 0.000000e+00 0.000000e+00 0.000000e+00
 0.000000e+00 8.015957e-01 1.984043e-01 0.000000e+00 0.000000e+00
 0.000000e+00 0.000000e+00 8.234165e-01 1.765835e-01 0.000000e+00
 0.000000e+00 0.000000e+00 0.000000e+00 5.674391e-01 4.325609e-01
 0.000000e+00 0.000000e+00 0.000000e+00 0.000000e+00 0.000000e+00
<ENDHMM>
~h "v"
<BEGINHMM>
<NUMSTATES> 5
<STATE> 2
<MEAN> 39
 -1.460737e+01 -5.337460e-01 -3.567497e+00 -1.745040e+00 -4.032744e+00 -4.391314e+00 -4.892919e+00 -3.790138e+00 -4.604498e+00 -2.900310e+00 -3.280458e+00 -2.432444e+00 4.279811e+01 -1.079978e+00 -5.618415e-02 3.186091e-01 5.385765e-01 3.272665e-01 2.049849e-01 3.167267e-01 3.176385e-01 1.618824e-01 -9.223913e-02 -1.957889e-01 1.514335e-02 5.262218e-02 1.934433e-01 -2.364454e-01 -6.866479e-02 -3.364238e-01 -3.125161e-01 -9.066251e-02 3.985734e-02 2.791234e-02 3.835482e-02 1.032749e-01 7.296416e-02 8.205192e-02 3.642392e-01
<VARIANCE> 39
 3.880168e+01 1.509292e+01 2.472042e+01 2.253977e+01 2.004972e+01 2.512900e+01 2.515799e+01 2.642645e+01 2.560123e+01 2.507078e+01 2.212757e+01 1.946007e+01 8.119334e+01 2.863926e+00 1.547281e+00 1.437996e+00 2.243035e+00 2.015063e+00 2.335258e+00 2.269777e+00 1.896226e+00 2.035035e+00 2.128364e+00 1.736808e+00 1.511082e+00 1.821189e+00 4.443980e-01 3.427084e-01 3.052339e-01 4.456510e-01 4.634979e-01 4.658350e-01 4.075525e-01 3.460516e-01 4.234935e-01 4.353350e-01 3.475513e-01 3.134987e-01 3.995797e-01
<GCONST> 1.105258e+02
<STATE> 3
<MEAN> 39
 -1.844649e+01 -3.763230e+00 -4.481750e+00 -3.178941e+00 -4.696124e+00 -4.256772e+00 -2.951460e+00 -1.465933e+00 -2.978297e+00 -2.494169e+00 -3.731030e+00 -1.830031e+00 4.888333e+01 5.560201e-01 -6.353130e-01 2.113806e-01 -8.521110e-01 -1.246854e+00 -9.113221e-01 -1.499757e-01 2.916314e-02 -1.942477e-02 9.923261e-02 2.768827e-01 3.911003e-01 1.654056e+00 9.186476e-01 -1.359184e-02 3.371529e-01 -4.382813e-01 -5.725929e-01 -3.366304e-01 -3.459675e-01 -3.401326e-01 -3.009729e-01 2.670437e-02 1.698936e-01 -3.230360e-02 3.388720e-01
<VARIANCE> 39
 3.415246e+01 2.324897e+01 3.315892e+01 2.876733e+01 2.098453e+01 2.104731e+01 2.551412e+01 2.635462e+01 2.931096e+01 2.575008e+01 1.899619e+01 1.920365e+01 4.979554e+01 4.245123e+00 2.064378e+00 3.143917e+00 2.421897e+00 2.829244e+00 2.889225e+00 3.146192e+00 2.593198e+00 2.842960e+00 1.959630e+00 2.006372e+00 1.820988e+00 3.690919e+00 7.536138e-01 4.889528e-01 7.515309e-01 6.665810e-01 7.469968e-01 6.274754e-01 6.316032e-01 6.743175e-01 6.940650e-01 6.529577e-01 4.842671e-01 4.243654e-01 5.575636e-01
<GCONST> 1.207111e+02
<STATE> 4
<MEAN> 39
 -1.103245e+01 -3.342301e+00 -8.649031e-01 -5.743938e+00 -1.030248e+01 -9.584381e+00 -5.651255e+00 -4.757571e+00 -5.980391e+00 -3.085310e+00 -3.025851e+00 -1.500205e+00 5.458724e+01 2.464840e+00 -1.134832e+00 1.362269e+00 -2.121362e+00 -2.680215e+00 -1.354244e+00 -7.725770e-01 -6.219193e-01 -6.511696e-01 4.329819e-01 5.582861e-01 2.923742e-01 2.263301e+00 -1.588923e-01 -3.897901e-02 1.139888e-01 -1.904293e-01 2.284848e-02 4.089934e-01 -6.823736e-02 -7.375603e-03 -6.562053e-03 6.009878e-02 -5.886665e-02 -1.041087e-01 -2.589977e-01
<VARIANCE> 39
 3.738646e+01 2.344415e+01 5.914840e+01 4.947805e+01 3.485664e+01 3.943932e+01 3.619642e+01 3.566186e+01 4.272611e+01 2.673704e+01 3.118782e+01 1.709725e+01 4.161220e+01 4.760252e+00 3.218414e+00 6.788054e+00 5.504190e+00 5.678377e+00 4.899561e+00 5.403396e+00 6.125778e+00 5.948063e+00 5.864475e+00 3.826966e+00 2.874177e+00 4.101836e+00 6.496983e-01 4.042529e-01 4.058832e-01 5.128583e-01 5.754899e-01 6.568567e-01 7.357044e-01 6.146067e-01 5.703605e-01 5.477952e-01 4.615072e-01 3.718003e-01 3.798032e-01
<GCONST> 1.298414e+02
<TRANSP> 5
 0.000000e+00 1.000000e+00 0.000000e+00 0.000000e+00 0.000000e+00
 0.000000e+00 7.893440e-01 2.106560e-01 0.000000e+00 0.000000e+00
 0.000000e+00 0.000000e+00 6.120123e-01 3.879877e-01 0.000000e+00
 0.000000e+00 0.000000e+00 0.000000e+00 4.642324e-01 5.357676e-01
 0.000000e+00 0.000000e+00 0.000000e+00 0.000000e+00 0.000000e+00
<ENDHMM>
~h "w"
<BEGINHMM>
<NUMSTATES> 5
<STATE> 2
<MEAN> 39
 -8.414147e+00 -8.561645e-01 -8.855525e+00 -9.019975e+00 -7.084210e+00 -1.726182e+00 -4.869822e+00 -3.736110e+00 -6.263436e+00 -1.810850e+00 -1.313554e+00 -2.281448e+00 4.169743e+01 1.416141e+00 1.334219e+00 -7.365309e-02 -1.114113e+00 -1.005117e+00 1.569177e-01 4.217888e-01 -2.450819e-01 -7.684508e-01 -6.377215e-01 -1.382907e-01 -1.246940e-02 1.071737e-01 3.329056e-02 -1.306999e-01 2.277272e-01 -2.182288e-01 -4.965321e-01 -2.247345e-01 8.607778e-02 3.205395e-01 1.321127e-01 -1.029676e-01 -6.546437e-02 -4.185199e-02 3.265092e-01
<VARIANCE> 39
 7.145235e+01 3.553699e+01 3.143283e+01 4.787134e+01 3.631393e+01 3.101008e+01 5.197502e+01 4.343719e+01 5.555478e+01 2.726543e+01 3.546471e+01 2.337360e+01 7.313405e+01 4.448170e+00 2.714604e+00 3.652231e+00 4.393701e+00 4.421052e+00 5.272167e+00 5.132344e+00 3.913809e+00 3.905495e+00 3.496933e+00 3.266412e+00 2.345713e+00 4.026232e+00 4.846146e-01 5.293254e-01 6.780576e-01 7.932340e-01 8.419926e-01 8.053672e-01 9.286063e-01 7.493336e-01 8.045725e-01 6.662598e-01 5.249695e-01 4.325364e-01 2.746181e-01
<GCONST> 1.312459e+02
<STATE> 3
<MEAN> 39
 1.906961e+00 4.023125e+00 -7.904815e+00 -1.901343e+01 -1.766410e+01 -3.997064e+00 -4.532083e+00 -2.324413e+00 -6.917536e+00 -4.349963e+00 -2.479201e+00 -3.613526e+00 4.896128e+01 6.647965e-01 -7.294495e-01 -7.017151e-01 -1.903794e+00 -9.053922e-01 8.360628e-01 3.697233e-01 4.635585e-01 1.777073e-01 7.595875e-02 4.016629e-01 4.487164e-02 1.485758e+00 -3.790726e-01 -5.604939e-01 -1.995390e-01 1.776125e-01 5.223734e-01 3.882622e-01 -7.499545e-03 -7.284111e-02 3.337714e-02 2.714942e-01 1.910820e-01 7.585837e-02 1.579162e-01
<VARIANCE> 39
 6.503102e+00 2.010814e+01 2.692130e+01 4.172448e+01 3.407547e+01 3.828963e+01 3.506409e+01 3.862367e+01 4.312973e+01 2.849112e+01 4.240174e+01 2.843992e+01 2.106267e+01 1.484291e+00 2.067242e+00 1.937060e+00 2.897555e+00 3.524600e+00 3.838179e+00 3.090680e+00 2.960003e+00 3.289025e+00 3.212494e+00 2.730756e+00 2.028413e+00 2.159058e+00 2.952190e-01 2.757042e-01 2.812994e-01 5.449137e-01 5.347633e-01 5.493022e-01 4.999218e-01 5.355909e-01 5.813174e-01 5.856563e-01 4.681208e-01 3.870659e-01 2.031381e-01
<GCONST> 1.164132e+02
<STATE> 4
<MEAN> 39
 1.451915e+00 -7.075354e+00 -1.313967e+01 -2.392782e+01 -1.391148e+01 4.880495e+00 -4.410702e+00 -2.227620e+00 -7.115574e+00 -7.688752e-01 1.516010e+00 -3.159958e+00 5.938916e+01 -6.157938e-01 -2.377482e+00 -5.301410e-01 7.513679e-01 1.704742e+00 4.402829e-01 -4.946329e-01 -8.021075e-02 6.472073e-01 8.964339e-01 4.054913e-02 -4.551236e-01 1.670178e+00 -2.020146e-01 1.985241e-01 3.397074e-01 5.453131e-01 3.863779e-02 -5.991040e-01 -9.198370e-03 1.074298e-01 2.474242e-01 -1.893276e-01 -3.445730e-01 -1.236725e-01 -3.235771e-01
<VARIANCE> 39
 8.848112e+00 3.795508e+01 4.258007e+01 6.540282e+01 6.697520e+01 6.967760e+01 1.081758e+02 6.910875e+01 5.814882e+01 7.268057e+01 8.028516e+01 4.099730e+01 2.330457e+01 4.714999e-01 1.526168e+00 2.675937e+00 3.076430e+00 4.202942e+00 7.886755e+00 5.067750e+00 5.198542e+00 4.964126e+00 5.038817e+00 4.012522e+00 3.155904e+00 9.503677e-01 2.000000e-01 2.956015e-01 2.834454e-01 5.734753e-01 7.942078e-01 7.708930e-01 1.061078e+00 9.334312e-01 9.378569e-01 1.091308e+00 6.715558e-01 5.631638e-01 2.000000e-01
<GCONST> 1.289449e+02
<TRANSP> 5
 0.000000e+00 1.000000e+00 0.000000e+00 0.000000e+00 0.000000e+00
 0.000000e+00 7.387775e-01 2.612225e-01 0.000000e+00 0.000000e+00
 0.000000e+00 0.000000e+00 8.120491e-01 1.879509e-01 0.000000e+00
 0.000000e+00 0.000000e+00 0.000000e+00 7.475337e-01 2.524663e-01
 0.000000e+00 0.000000e+00 0.000000e+00 0.000000e+00 0.000000e+00
<ENDHMM>
~h "y"
<BEGINHMM>
<NUMSTATES> 5
<STATE> 2
<MEAN> 39
 -1.149108e+01 -8.044841e-01 1.271793e+01 -9.899924e+00 -1.465000e+01 -5.203400e+00 -1.057189e+01 -5.960373e+00 -1.141923e+01 -5.535008e+00 -3.855541e+00 -4.336097e+00 5.127967e+01 7.124190e-02 1.176546e-01 1.764320e+00 -6.529744e-01 -1.154091e+00 3.560652e-01 -1.435622e-01 -2.175612e-01 -7.381927e-01 -2.834792e-01 2.787820e-02 -2.367959e-01 5.837504e-01 -8.959686e-03 -2.081457e-01 -5.276413e-01 -9.390022e-03 1.450943e-01 2.465037e-02 4.753565e-02 6.720494e-02 2.234100e-01 2.695495e-01 1.119324e-01 4.943877e-02 2.964956e-02
<VARIANCE> 39
 2.169254e+01 4.099158e+01 5.543458e+01 7.780681e+01 6.509567e+01 5.513641e+01 4.577120e+01 5.041903e+01 4.216769e+01 4.701796e+01 6.419482e+01 3.175838e+01 5.691468e+01 3.132665e+00 2.409302e+00 4.522938e+00 3.199919e+00 5.120467e+00 4.118681e+00 4.585397e+00 3.379664e+00 3.953399e+00 3.980874e+00 2.813879e+00 2.651782e+00 3.171458e+00 3.441330e-01 3.203487e-01 5.789971e-01 6.983296e-01 8.135590e-01 8.901976e-01 6.940676e-01 7.588537e-01 6.076280e-01 6.015144e-01 4.773879e-01 4.436906e-01 2.520703e-01
<GCONST> 1.304125e+02
<STATE> 3
<MEAN> 39
 -1.057115e+01 -3.673802e+00 1.496002e+01 -1.131812e+01 -2.004903e+01 -6.390213e+00 -9.404028e+00 -7.221981e+00 -1.318665e+01 -3.470186e+00 -2.931007e+00 -4.100512e+00 5.653632e+01 4.008198e-01 -6.361819e-01 -6.497656e-01 6.183534e-01 -5.128806e-01 -9.507634e-01 2.927840e-01 3.701214e-01 -3.358394e-01 1.299925e-01 4.956629e-01 1.646280e-01 3.916972e-01 7.675178e-02 -2.495429e-02 -2.909447e-01 1.445637e-01 2.112203e-01 -2.109361e-01 -1.026282e-01 1.792995e-01 1.227873e-01 -1.022436e-01 -6.941399e-03 9.225968e-02 -6.763293e-02
<VARIANCE> 39
 1.132684e+01 2.985916e+01 3.328177e+01 1.008909e+02 4.210193e+01 4.966130e+01 4.051059e+01 5.400126e+01 4.762080e+01 7.971107e+01 7.614857e+01 4.032642e+01 2.238940e+01 2.970053e-01 6.473244e-01 9.765643e-01 1.061254e+00 1.350065e+00 1.739250e+00 1.404992e+00 1.703362e+00 1.404831e+00 1.598051e+00 1.188610e+00 1.020280e+00 4.747162e-01 2.000000e-01 2.000000e-01 2.000000e-01 2.000000e-01 3.057687e-01 2.178663e-01 2.948041e-01 2.411325e-01 3.106530e-01 2.814203e-01 2.416379e-01 2.000000e-01 2.000000e-01
<GCONST> 1.018388e+02
<STATE> 4
<MEAN> 39
 -6.092374e+00 -8.287319e+00 7.030484e+00 -3.960948e+00 -1.892309e+01 -1.522835e+01 -1.189997e+01 -2.176203e-01 -1.212172e+01 -6.157170e+00 1.918394e-01 -1.850607e+00 5.791385e+01 8.999454e-01 -5.601305e-02 -2.524040e+00 2.528807e-01 2.007957e+00 -5.460224e-01 -1.980633e+00 3.983927e-01 1.840442e+00 2.730575e-01 -9.442772e-01 7.876782e-02 -3.128327e-01 -2.984231e-02 3.194221e-01 -8.532270e-02 -4.892939e-01 3.335401e-01 8.628789e-01 -1.436640e-01 -7.396193e-01 1.719267e-01 5.450719e-01 -1.734906e-01 -4.155825e-01 -2.174929e-01
<VARIANCE> 39
 1.020206e+01 2.348368e+01 3.795787e+01 6.143133e+01 4.299645e+01 4.802144e+01 6.322640e+01 5.061770e+01 6.250746e+01 6.699782e+01 6.258474e+01 3.846695e+01 2.253127e+01 2.969477e-01 6.741528e-01 1.416799e+00 1.469288e+00 1.539751e+00 3.103182e+00 2.106543e+00 3.409976e+00 1.909342e+00 3.521005e+00 1.656541e+00 2.314365e+00 3.730464e-01 2.000000e-01 2.000000e-01 2.000000e-01 2.291535e-01 3.582747e-01 3.894352e-01 5.683212e-01 3.778050e-01 6.268342e-01 3.805802e-01 5.356657e-01 2.753479e-01 2.000000e-01
<GCONST> 1.100131e+02
<TRANSP> 5
 0.000000e+00 1.000000e+00 0.000000e+00 0.000000e+00 0.000000e+00
 0.000000e+00 6.886609e-01 3.113390e-01 0.000000e+00 0.000000e+00
 0.000000e+00 0.000000e+00 8.618672e-01 1.381328e-01 0.000000e+00
 0.000000e+00 0.000000e+00 0.000000e+00 6.899511e-01 3.100489e-01
 0.000000e+00 0.000000e+00 0.000000e+00 0.000000e+00 0.000000e+00
<ENDHMM>
~h "z"
<BEGINHMM>
<NUMSTATES> 5
<STATE> 2
<MEAN> 39
 -2.229945e+01 5.335082e+00 -3.727766e+00 -5.544574e+00 -2.350151e+00 -9.583839e+00 -4.970268e+00 -2.391701e+00 -4.359550e+00 -3.520386e+00 -3.744636e+00 -6.959088e-01 5.427287e+01 -3.649753e+00 6.131966e-01 -1.134618e+00 2.503939e-01 1.947510e+00 1.325000e+00 1.526468e+00 1.250392e+00 6.958705e-01 4.772564e-01 6.011552e-01 4.460581e-01 8.934952e-02 6.033221e-01 -6.585296e-01 -4.216839e-02 -1.893955e-01 -4.848297e-01 1.192833e-01 -6.131183e-02 -1.068746e-02 6.956012e-02 1.934706e-01 6.173925e-02 -7.595637e-03 6.645948e-02
<VARIANCE> 39
 4.170343e+01 3.211692e+01 3.925406e+01 4.035893e+01 5.049696e+01 5.410344e+01 4.731396e+01 4.063649e+01 3.353443e+01 2.979719e+01 2.490421e+01 2.067994e+01 3.262806e+01 3.410125e+00 4.013907e+00 3.080389e+00 3.736515e+00 3.553793e+00 3.253150e+00 3.654529e+00 3.548238e+00 3.275001e+00 3.011514e+00 2.695162e+00 2.502523e+00 1.539317e+00 7.526836e-01 5.856140e-01 5.174267e-01 6.177097e-01 6.435781e-01 7.665601e-01 7.582077e-01 7.556784e-01 5.634052e-01 5.342550e-01 4.896259e-01 5.309883e-01 2.583180e-01
<GCONST> 1.259297e+02
<STATE> 3
<MEAN> 39
 -2.978939e+01 2.134149e+00 -8.186115e+00 -7.557192e+00 4.284372e-01 -5.900157e+00 -2.746249e-01 1.689509e+00 -1.629908e+00 -5.793601e-01 -1.315459e+00 1.174600e+00 5.457611e+01 2.773743e-01 -4.484462e-01 -1.112099e-01 -2.266538e-01 -2.848888e-01 -1.801946e-01 -1.320157e-01 -2.140267e-02 1.311091e-01 -9.509981e-03 -4.515148e-03 -1.806949e-02 4.158465e-02 6.158700e-01 -8.986828e-02 2.337676e-01 -1.817740e-02 -2.614265e-01 -2.651538e-01 -2.313270e-01 -2.053069e-01 -1.191761e-01 -1.069117e-01 -1.318515e-01 -7.207476e-02 -1.710374e-01
<VARIANCE> 39
 1.017382e+01 2.825335e+01 3.082707e+01 4.066852e+01 3.501141e+01 3.663821e+01 3.637218e+01 2.762194e+01 2.328761e+01 1.974633e+01 1.613796e+01 1.442203e+01 1.993891e+01 1.454531e+00 1.035802e+00 1.226119e+00 1.181962e+00 1.560667e+00 1.738544e+00 1.602118e+00 1.603478e+00 1.707561e+00 1.625421e+00 1.496291e+00 1.361152e+00 9.154058e-01 3.706030e-01 2.298987e-01 2.199679e-01 2.992387e-01 3.642733e-01 4.162463e-01 4.086576e-01 3.860332e-01 3.520555e-01 3.524448e-01 3.185349e-01 2.856854e-01 2.000000e-01
<GCONST> 1.024714e+02
<STATE> 4
<MEAN> 39
 -1.987307e+01 -2.911294e+00 -6.831619e+00 -7.063785e+00 -3.680368e+00 -7.227624e+00 -4.053505e+00 5.758198e-01 -1.121042e+00 -2.733266e+00 -3.313459e+00 2.431234e-01 4.723137e+01 1.885717e+00 -7.171363e-01 2.712982e-01 2.293992e-01 -8.436369e-01 -1.369927e-01 -4.608201e-01 -3.808047e-01 -1.015110e-01 7.411502e-02 -1.878185e-01 -1.137765e-01 -1.356623e+00 -7.619051e-02 8.351675e-04 5.206048e-02 -3.584411e-03 2.158090e-02 1.629046e-01 4.355698e-02 1.858234e-02 -6.469374e-02 7.840743e-02 6.748868e-02 -5.149050e-02 2.993469e-04
<VARIANCE> 39
 3.697585e+01 4.542393e+01 3.066661e+01 2.907895e+01 3.630967e+01 4.663021e+01 5.022813e+01 4.206213e+01 3.609195e+01 3.698013e+01 3.059038e+01 2.299594e+01 9.845712e+01 4.759914e+00 3.357813e+00 2.633230e+00 3.338313e+00 3.980487e+00 4.909674e+00 3.758925e+00 3.754220e+00 2.916181e+00 2.686168e+00 2.484812e+00 2.136627e+00 5.155907e+00 6.652712e-01 5.354518e-01 3.914989e-01 5.471392e-01 6.086707e-01 7.580940e-01 5.841449e-01 6.560290e-01 5.127774e-01 5.086783e-01 4.317381e-01 4.022900e-01 6.262454e-01
<GCONST> 1.273936e+02
<TRANSP> 5
 0.000000e+00 1.000000e+00 0.000000e+00 0.000000e+00 0.000000e+00
 0.000000e+00 7.250320e-01 2.749679e-01 0.000000e+00 0.000000e+00
 0.000000e+00 0.000000e+00 8.363568e-01 1.636432e-01 0.000000e+00
 0.000000e+00 0.000000e+00 0.000000e+00 7.887646e-01 2.112354e-01
 0.000000e+00 0.000000e+00 0.000000e+00 0.000000e+00 0.000000e+00
<ENDHMM>
~h "aa"
<BEGINHMM>
<NUMSTATES> 5
<STATE> 2
<MEAN> 39
 -5.363441e+00 -1.281994e+01 -1.398820e+01 -1.591976e+01 -7.060827e+00 3.861670e-01 -3.512232e+00 1.696352e-01 -1.255615e+00 1.510345e+00 -2.282396e+00 -6.639482e+00 5.613820e+01 1.612325e+00 -1.187307e+00 -1.293163e+00 -1.454291e+00 7.635303e-01 1.977570e+00 2.043858e-01 -6.116207e-01 -5.312582e-01 -2.418902e-01 4.673702e-02 -7.749881e-01 1.876772e+00 -1.562213e-01 2.012858e-01 3.636417e-01 1.642791e-01 -2.624913e-01 -1.043231e-01 1.285827e-02 -1.174403e-01 -2.526829e-01 -9.742519e-02 2.750086e-01 2.863545e-01 -1.345893e-01
<VARIANCE> 39
 4.988376e+01 4.023643e+01 3.491856e+01 7.323506e+01 6.129272e+01 1.075590e+02 7.052363e+01 7.036988e+01 6.938185e+01 5.494051e+01 6.614805e+01 4.277550e+01 9.190585e+01 3.348990e+00 2.785481e+00 3.178507e+00 4.308777e+00 4.916364e+00 5.020402e+00 4.052692e+00 4.235696e+00 4.865217e+00 3.977968e+00 4.338683e+00 4.148540e+00 6.332470e+00 7.665207e-01 5.075970e-01 4.353880e-01 8.513228e-01 6.415532e-01 8.136351e-01 6.709309e-01 9.114615e-01 1.127883e+00 6.982242e-01 6.976166e-01 6.342244e-01 1.090520e+00
<GCONST> 1.396983e+02
<STATE> 3
<MEAN> 39
 9.940190e-01 -1.533555e+01 -1.968071e+01 -1.588237e+01 -5.390979e+00 2.633367e+00 -4.526404e+00 8.848080e-01 -3.429549e+00 -2.675585e+00 3.047685e-01 -5.443206e+00 6.199696e+01 1.408277e-01 -1.196799e-02 -3.545973e-01 5.945521e-01 2.575058e-01 -6.659632e-01 -4.407824e-01 4.465902e-01 3.034550e-01 -1.741168e-01 -1.638142e-01 1.744317e-01 -1.222555e-01 -4.777063e-02 5.234819e-02 6.192369e-02 7.193699e-02 -1.965539e-02 -1.405849e-01 -4.405021e-02 3.146590e-02 5.004999e-02 2.706899e-02 -6.158492e-02 1.410392e-02 -9.141443e-02
<VARIANCE> 39
 1.119288e+01 2.775631e+01 3.684341e+01 7.280048e+01 6.552389e+01 1.057623e+02 9.110945e+01 9.764820e+01 9.475275e+01 5.591023e+01 6.374778e+01 4.332988e+01 2.152175e+01 2.000000e-01 5.273368e-01 7.383639e-01 1.058370e+00 1.202654e+00 1.872540e+00 1.928834e+00 1.577359e+00 1.622385e+00 1.392516e+00 1.461461e+00 1.154730e+00 2.481654e-01 2.000000e-01 2.000000e-01 2.000000e-01 2.000000e-01 2.000000e-01 2.007529e-01 2.269269e-01 2.082111e-01 2.096192e-01 2.030546e-01 2.000000e-01 2.000000e-01 2.000000e-01
<GCONST> 1.014982e+02
<STATE> 4
<MEAN> 39
 -2.754662e+00 -1.225306e+01 -1.823639e+01 -4.986081e+00 -7.559508e-01 -6.546363e+00 -7.603612e+00 5.215214e+00 2.223930e+00 -3.982473e+00 -5.331460e+00 -2.212322e+00 5.225689e+01 -8.199778e-01 4.217169e-01 8.734538e-01 6.821852e-01 -1.627719e-01 -4.235898e-01 1.837098e-01 1.004742e-02 -2.939596e-02 -8.616056e-02 -2.002531e-01 2.662743e-01 -1.203778e+00 -1.523486e-01 2.495510e-02 1.726187e-01 -4.316980e-02 -1.354690e-01 1.110337e-01 1.739409e-01 -8.348253e-02 -1.715823e-01 -2.362355e-02 1.591221e-01 6.649570e-03 -1.172673e-01
<VARIANCE> 39
 4.346464e+01 2.899889e+01 5.328712e+01 5.467765e+01 5.302508e+01 6.726238e+01 7.826159e+01 6.783218e+01 9.473990e+01 4.605061e+01 4.155919e+01 3.682458e+01 6.981421e+01 9.517395e-01 1.932850e+00 1.962902e+00 2.684203e+00 2.584713e+00 3.374746e+00 3.337933e+00 3.088952e+00 2.701111e+00 2.561347e+00 2.389579e+00 1.987415e+00 1.311143e+00 2.000000e-01 2.793991e-01 3.206758e-01 3.881318e-01 3.940583e-01 4.383902e-01 4.850934e-01 4.678514e-01 4.455014e-01 4.439977e-01 3.660965e-01 3.294791e-01 2.000000e-01
<GCONST> 1.204913e+02
<TRANSP> 5
 0.000000e+00 1.000000e+00 0.000000e+00 0.000000e+00 0.000000e+00
 0.000000e+00 7.949826e-01 2.050174e-01 0.000000e+00 0.000000e+00
 0.000000e+00 0.000000e+00 9.398391e-01 6.016086e-02 0.000000e+00
 0.000000e+00 0.000000e+00 0.000000e+00 7.963209e-01 2.036791e-01
 0.000000e+00 0.000000e+00 0.000000e+00 0.000000e+00 0.000000e+00
<ENDHMM>
~h "ae"
<BEGINHMM>
<NUMSTATES> 5
<STATE> 2
<MEAN> 39
 -6.621913e+00 -1.534801e+01 -4.644709e+00 -1.318953e+01 -1.455761e+01 -8.001824e+00 -2.001296e+00 3.696870e+00 -2.070426e+00 -3.111067e+00 -5.528252e+00 -3.531272e+00 6.517474e+01 7.766105e-01 -1.997271e+00 -1.713225e-01 -1.058473e+00 -7.672898e-01 3.464570e-01 4.837930e-01 9.666648e-01 2.796524e-02 -4.516391e-01 -4.498964e-01 -4.160482e-01 2.004599e+00 -6.273313e-01 4.685137e-01 -2.997791e-02 3.433580e-01 5.614282e-01 4.034457e-01 1.785550e-01 -3.053520e-01 -3.111206e-02 9.108452e-03 1.455612e-01 1.309422e-01 -6.518354e-01
<VARIANCE> 39
 2.116613e+01 3.901197e+01 5.541668e+01 4.593020e+01 6.503209e+01 6.070260e+01 1.015309e+02 8.175342e+01 7.235467e+01 4.847330e+01 4.552493e+01 3.362648e+01 3.829857e+01 2.741762e+00 3.160223e+00 2.686342e+00 2.818259e+00 3.968506e+00 3.411593e+00 4.591741e+00 4.253480e+00 3.341165e+00 3.103930e+00 2.759788e+00 2.323440e+00 3.429726e+00 5.131992e-01 4.676435e-01 3.758174e-01 4.976507e-01 5.438714e-01 5.945535e-01 8.715630e-01 7.029638e-01 6.325750e-01 5.800307e-01 5.436474e-01 4.139861e-01 4.606999e-01
<GCONST> 1.298812e+02
<STATE> 3
<MEAN> 39
 -6.574038e+00 -1.789540e+01 -4.900151e+00 -1.381790e+01 -1.447342e+01 -4.417759e+00 -1.020001e-01 4.123918e+00 -3.799545e+00 -4.467065e+00 -6.590082e+00 -2.761425e+00 6.681370e+01 3.937304e-02 4.039598e-02 -2.817613e-01 1.194882e-01 3.525839e-01 4.866568e-02 -3.538941e-02 -7.165469e-02 4.579486e-02 -2.645463e-02 -2.261615e-01 6.520388e-02 -2.158777e-01 2.028224e-02 2.016210e-01 -1.471721e-02 6.666012e-02 5.006278e-02 -9.957308e-02 -1.186003e-01 -7.966696e-02 2.279270e-02 9.164019e-02 3.720498e-02 -5.879170e-03 -1.948856e-01
<VARIANCE> 39
 1.197481e+01 3.690955e+01 5.341021e+01 4.357338e+01 7.374250e+01 5.925897e+01 6.834637e+01 8.691185e+01 7.663316e+01 5.492210e+01 4.420255e+01 3.980786e+01 2.207070e+01 2.831078e-01 7.913340e-01 9.926164e-01 9.941050e-01 1.391254e+00 1.291280e+00 1.540368e+00 1.394256e+00 1.278258e+00 1.166746e+00 1.240409e+00 9.513282e-01 3.391888e-01 2.000000e-01 2.000000e-01 2.000000e-01 2.000000e-01 2.027555e-01 2.000000e-01 2.339819e-01 2.448164e-01 2.086332e-01 2.000000e-01 2.023036e-01 2.000000e-01 2.000000e-01
<GCONST> 1.003338e+02
<STATE> 4
<MEAN> 39
 -5.943754e+00 -1.265335e+01 -7.661376e+00 -1.052262e+01 -1.033032e+01 -6.888393e+00 -3.004107e+00 2.240794e+00 -1.732373e+00 -2.922742e+00 -6.798439e+00 -3.676701e+00 5.932797e+01 -7.947370e-01 2.569323e+00 5.106668e-01 1.381374e+00 8.133600e-01 -1.242851e-01 -4.365389e-01 -1.363343e+00 -4.482601e-01 5.832099e-01 7.761727e-01 4.833346e-03 -3.007714e+00 -4.633538e-01 2.254515e-01 2.215821e-01 2.472278e-01 1.896936e-01 2.446157e-01 1.093960e-01 -2.428614e-01 -2.336714e-01 -2.604124e-02 1.729921e-01 8.736306e-02 -3.539758e-01
<VARIANCE> 39
 2.141324e+01 5.818628e+01 5.231066e+01 5.128192e+01 5.697005e+01 6.591827e+01 8.812907e+01 8.673167e+01 7.633072e+01 5.978305e+01 5.100565e+01 4.960544e+01 7.192245e+01 3.521838e+00 3.359197e+00 3.492278e+00 4.303172e+00 4.071729e+00 5.210505e+00 5.118773e+00 6.671064e+00 5.825701e+00 4.183759e+00 3.840307e+00 3.916747e+00 4.572175e+00 4.124240e-01 7.356274e-01 5.140323e-01 6.948400e-01 6.138051e-01 8.152803e-01 8.431874e-01 1.069746e+00 9.668224e-01 7.296718e-01 6.885130e-01 6.233066e-01 7.804530e-01
<GCONST> 1.391393e+02
<TRANSP> 5
 0.000000e+00 1.000000e+00 0.000000e+00 0.000000e+00 0.000000e+00
 0.000000e+00 6.271908e-01 3.728092e-01 0.000000e+00 0.000000e+00
 0.000000e+00 0.000000e+00 9.069959e-01 9.300413e-02 0.000000e+00
 0.000000e+00 0.000000e+00 0.000000e+00 7.621161e-01 2.378839e-01
 0.000000e+00 0.000000e+00 0.000000e+00 0.000000e+00 0.000000e+00
<ENDHMM>
~h "ah"
<BEGINHMM>
<NUMSTATES> 5
<STATE> 2
<MEAN> 39
 -3.223690e+00 -1.311622e+01 -1.133253e+01 -1.928956e+01 -8.667704e+00 1.563843e+00 -8.175645e+00 -3.704447e+00 7.979475e-01 8.269265e-01 -2.967690e+00 -6.567285e+00 6.601740e+01 7.927025e-01 -1.951789e+00 -7.627144e-01 -1.387911e+00 -1.198330e-01 1.275038e+00 -3.977229e-01 2.463771e-01 1.112157e+00 1.536715e-01 -4.128460e-01 -6.418723e-01 1.911716e+00 -5.597759e-01 5.025739e-01 2.709354e-01 6.375978e-01 3.707984e-01 -2.333541e-01 2.605854e-01 3.061659e-02 -2.565891e-01 -2.231946e-01 1.803570e-02 2.702022e-01 -8.130202e-01
<VARIANCE> 39
 1.509334e+01 3.386540e+01 3.768250e+01 5.392780e+01 7.763972e+01 9.306698e+01 7.130522e+01 6.553040e+01 6.950129e+01 7.439279e+01 8.410835e+01 5.187498e+01 2.285886e+01 2.869382e+00 2.389547e+00 2.349314e+00 5.088389e+00 3.594264e+00 4.068442e+00 4.517974e+00 4.785398e+00 3.547043e+00 3.398346e+00 4.494687e+00 3.467977e+00 3.442230e+00 4.320188e-01 3.594327e-01 4.503658e-01 5.972220e-01 6.152457e-01 7.104331e-01 7.388491e-01 8.213682e-01 8.043059e-01 5.971975e-01 7.173141e-01 5.443510e-01 4.716680e-01
<GCONST> 1.326332e+02
<STATE> 3
<MEAN> 39
 -3.694040e+00 -1.404681e+01 -1.312922e+01 -2.007349e+01 -5.376504e+00 5.631523e-01 -7.250511e+00 -1.978212e+00 5.541767e-01 -1.093077e+00 -5.304822e+00 -4.939515e+00 6.585396e+01 -7.573771e-04 1.836620e-01 1.472285e-01 2.003841e-01 -6.860121e-02 -5.121697e-01 3.655959e-02 1.810806e-01 -5.988596e-02 -1.158293e-01 -5.574655e-02 1.250181e-01 -3.571009e-01 -1.553272e-02 2.526925e-01 1.242221e-01 1.355642e-01 -1.053023e-01 -1.770956e-01 1.318967e-03 -7.198308e-02 -1.289628e-01 1.321302e-02 8.253895e-02 4.781000e-02 -2.532505e-01
<VARIANCE> 39
 1.324392e+01 4.190195e+01 3.096770e+01 5.538105e+01 7.125660e+01 9.969038e+01 8.792016e+01 6.827522e+01 6.271313e+01 7.598229e+01 8.127934e+01 6.643759e+01 2.243887e+01 2.714607e-01 9.498260e-01 8.063843e-01 1.266065e+00 1.678563e+00 1.704789e+00 1.856160e+00 1.509155e+00 1.434876e+00 1.502019e+00 1.396546e+00 1.595909e+00 4.146623e-01 2.000000e-01 2.000000e-01 2.000000e-01 2.000000e-01 2.000000e-01 2.313704e-01 2.504985e-01 2.659074e-01 2.456039e-01 2.366024e-01 2.308502e-01 2.498228e-01 2.000000e-01
<GCONST> 1.050937e+02
<STATE> 4
<MEAN> 39
 -4.363140e+00 -9.704263e+00 -8.342572e+00 -1.417225e+01 -7.856677e+00 -4.115479e+00 -8.093666e+00 -1.725653e+00 -1.339917e+00 -1.038940e-01 -3.852155e+00 -4.780605e+00 5.754200e+01 -1.144982e+00 2.367659e+00 1.367738e+00 2.360149e+00 4.563117e-01 -8.841852e-01 5.145619e-01 -8.216428e-01 -1.104743e+00 -4.424279e-01 2.777240e-01 6.257115e-01 -3.194064e+00 -4.776391e-01 1.593874e-01 1.156127e-01 3.805756e-01 2.516755e-01 2.925039e-01 2.457370e-01 -2.228981e-01 -1.092528e-01 -2.807968e-02 -9.421644e-02 3.463577e-02 -3.270479e-01
<VARIANCE> 39
 2.382584e+01 4.891022e+01 4.514420e+01 6.865004e+01 5.765911e+01 9.293276e+01 9.050990e+01 5.977985e+01 7.218555e+01 7.293076e+01 6.565795e+01 5.020700e+01 7.626637e+01 3.307772e+00 3.482893e+00 2.901332e+00 5.223467e+00 4.935364e+00 5.544568e+00 4.971996e+00 5.399855e+00 5.393011e+00 4.922811e+00 4.725059e+00 3.410671e+00 5.119565e+00 3.785413e-01 7.964086e-01 4.970571e-01 9.582684e-01 6.270232e-01 7.621129e-01 8.028172e-01 9.120010e-01 8.177047e-01 7.685918e-01 7.645340e-01 5.490541e-01 9.142086e-01
<GCONST> 1.400036e+02
<TRANSP> 5
 0.000000e+00 1.000000e+00 0.000000e+00 0.000000e+00 0.000000e+00
 0.000000e+00 6.297258e-01 3.702743e-01 0.000000e+00 0.000000e+00
 0.000000e+00 0.000000e+00 8.824040e-01 1.175960e-01 0.000000e+00
 0.000000e+00 0.000000e+00 0.000000e+00 7.386460e-01 2.613539e-01
 0.000000e+00 0.000000e+00 0.000000e+00 0.000000e+00 0.000000e+00
<ENDHMM>
~h "ao"
<BEGINHMM>
<NUMSTATES> 5
<STATE> 2
<MEAN> 39
 -1.206304e+00 -9.325830e+00 -1.158936e+01 -1.804682e+01 -1.186579e+01 -3.413619e-01 -7.570032e+00 -3.414417e+00 -4.333901e+00 -3.490461e-02 1.363418e+00 -4.251653e+00 6.104861e+01 1.295361e+00 -5.977404e-01 -1.067970e+00 -1.942067e+00 -5.478164e-01 1.113024e+00 2.246836e-01 5.913188e-02 -2.294779e-01 -1.069920e-01 5.679262e-01 -1.317375e-02 1.088408e+00 -6.355088e-01 1.872774e-01 1.557474e-01 4.385170e-01 4.093761e-01 -1.108687e-01 2.514432e-01 1.560824e-01 -1.253672e-02 -1.122165e-01 -1.515525e-01 1.675941e-01 -4.694502e-01
<VARIANCE> 39
 1.574609e+01 3.770440e+01 6.725337e+01 9.159980e+01 8.969159e+01 8.640419e+01 1.026840e+02 8.547748e+01 9.072378e+01 7.351025e+01 6.627216e+01 4.794630e+01 3.176023e+01 3.053610e+00 2.545368e+00 3.093322e+00 5.601771e+00 5.601017e+00 4.413602e+00 4.951921e+00 4.344012e+00 4.402277e+00 5.159197e+00 3.823256e+00 3.300080e+00 4.419353e+00 4.765182e-01 4.340725e-01 4.305831e-01 8.736982e-01 7.943207e-01 6.907372e-01 8.153535e-01 8.450633e-01 8.166299e-01 8.465324e-01 7.361844e-01 4.757888e-01 4.932786e-01
<GCONST> 1.378240e+02
<STATE> 3
<MEAN> 39
 -2.393849e-01 -9.669992e+00 -1.606172e+01 -2.427505e+01 -8.547366e+00 5.256958e+00 -2.974544e+00 -2.129619e+00 -3.348530e+00 -3.208789e+00 9.461000e-01 -3.994844e+00 6.190707e+01 7.446250e-02 2.937992e-02 -2.358242e-01 1.418541e-01 1.915958e-01 -1.769700e-01 3.836139e-02 1.611933e-01 5.569075e-03 -3.536659e-02 -8.886659e-02 7.018067e-02 -2.302026e-01 -3.133994e-02 3.740418e-02 1.648626e-02 1.673873e-01 4.626708e-02 -1.119256e-01 -6.211985e-02 -8.476814e-04 1.409929e-02 1.694140e-02 -5.095498e-03 7.667281e-03 -7.598995e-02
<VARIANCE> 39
 1.276127e+01 4.361251e+01 5.080274e+01 6.790394e+01 1.345760e+02 8.096722e+01 1.055060e+02 8.609721e+01 6.836430e+01 6.670972e+01 6.385484e+01 6.051458e+01 2.277421e+01 2.076633e-01 6.264420e-01 7.512006e-01 1.005497e+00 1.312038e+00 1.333706e+00 1.651581e+00 1.149514e+00 1.251989e+00 1.279698e+00 1.268054e+00 1.042315e+00 2.799465e-01 2.000000e-01 2.000000e-01 2.000000e-01 2.000000e-01 2.104377e-01 2.000000e-01 2.302336e-01 2.000000e-01 2.000000e-01 2.000000e-01 2.000000e-01 2.000000e-01 2.000000e-01
<GCONST> 1.019923e+02
<STATE> 4
<MEAN> 39
 -1.536192e+00 -8.051897e+00 -1.783395e+01 -1.422468e+01 -3.707024e+00 -8.447570e-01 -5.178909e+00 8.584732e-02 -1.683514e+00 -3.194280e+00 -3.093045e-02 -1.802508e+00 5.374588e+01 -5.344438e-01 4.294682e-02 1.231133e-01 1.437681e+00 8.293715e-01 -6.933117e-01 -7.743246e-01 2.862143e-01 3.876598e-01 1.457119e-01 -3.999516e-01 3.060110e-02 -1.044349e+00 -1.012101e-01 -1.428586e-02 2.190769e-01 5.666841e-02 -1.653397e-01 -2.989133e-02 7.620830e-04 1.998970e-03 1.940301e-02 3.141109e-02 -7.245909e-02 1.037829e-02 -7.813063e-02
<VARIANCE> 39
 4.170676e+01 3.330591e+01 4.894710e+01 7.672038e+01 9.393676e+01 7.289105e+01 1.063090e+02 7.287892e+01 6.754678e+01 6.676536e+01 6.578897e+01 5.692336e+01 6.629163e+01 9.756422e-01 2.071648e+00 2.724614e+00 2.634782e+00 4.317238e+00 3.561975e+00 4.364506e+00 3.433422e+00 4.038408e+00 3.861145e+00 3.137936e+00 3.585911e+00 1.861826e+00 2.000000e-01 2.687373e-01 3.149529e-01 3.770024e-01 5.458754e-01 5.791152e-01 6.218352e-01 6.085303e-01 6.191434e-01 6.477704e-01 5.409821e-01 5.542617e-01 2.000000e-01
<GCONST> 1.287660e+02
<TRANSP> 5
 0.000000e+00 1.000000e+00 0.000000e+00 0.000000e+00 0.000000e+00
 0.000000e+00 7.306319e-01 2.693680e-01 0.000000e+00 0.000000e+00
 0.000000e+00 0.000000e+00 9.230356e-01 7.696447e-02 0.000000e+00
 0.000000e+00 0.000000e+00 0.000000e+00 8.509158e-01 1.490841e-01
 0.000000e+00 0.000000e+00 0.000000e+00 0.000000e+00 0.000000e+00
<ENDHMM>
~h "aw"
<BEGINHMM>
<NUMSTATES> 5
<STATE> 2
<MEAN> 39
 -4.940933e+00 -1.614269e+01 -1.137965e+01 -1.076279e+01 -7.700799e+00 -5.860479e+00 -3.656982e+00 8.635049e-01 -2.853172e+00 -2.381117e+00 -6.930800e+00 -3.867673e+00 6.397504e+01 7.545136e-01 -1.702765e+00 -6.084114e-01 -5.386280e-01 2.681973e-01 3.429739e-01 4.801979e-02 3.376931e-01 3.952182e-01 -2.950349e-01 -6.496964e-01 -1.249614e-01 1.492762e+00 -4.286370e-01 2.530094e-01 1.500099e-01 9.323254e-02 2.563823e-01 2.483463e-01 -2.255821e-02 -1.768130e-01 -3.430963e-02 1.964323e-02 2.313275e-01 1.187917e-01 -3.470144e-01
<VARIANCE> 39
 3.023266e+01 4.357219e+01 7.556947e+01 3.830797e+01 8.442078e+01 5.834887e+01 6.712493e+01 8.874610e+01 6.392865e+01 4.602839e+01 5.818582e+01 3.608144e+01 4.435442e+01 3.029428e+00 2.280991e+00 3.721744e+00 3.207055e+00 3.820941e+00 3.865135e+00 4.418747e+00 5.366710e+00 3.041921e+00 2.955581e+00 3.070101e+00 2.469556e+00 1.829933e+00 5.247654e-01 3.607497e-01 4.631823e-01 5.580446e-01 6.920165e-01 6.925846e-01 6.924476e-01 8.842311e-01 5.753534e-01 5.217575e-01 6.988466e-01 4.872574e-01 3.072184e-01
<GCONST> 1.308476e+02
<STATE> 3
<MEAN> 39
 -3.610304e+00 -1.724927e+01 -1.387695e+01 -1.477973e+01 -3.094219e+00 2.897752e-01 -5.360252e+00 -3.238596e+00 -1.027463e+00 -4.853425e+00 -5.065017e+00 -3.730684e+00 6.469261e+01 2.568344e-01 4.710318e-01 -3.698877e-01 -4.814695e-01 2.653648e-01 5.117805e-01 -2.536609e-01 -2.081525e-01 -7.996775e-02 9.953703e-02 4.580607e-01 1.318732e-02 -4.407737e-01 1.043064e-03 1.309657e-01 3.692098e-02 8.206783e-03 -9.978876e-02 -4.298195e-02 3.909249e-02 3.685010e-02 -5.072331e-02 1.557370e-02 3.040572e-02 2.770403e-02 -1.036082e-01
<VARIANCE> 39
 2.358165e+01 3.824831e+01 4.045227e+01 5.671723e+01 6.525215e+01 9.583662e+01 7.112881e+01 5.679033e+01 4.505513e+01 5.978980e+01 4.436017e+01 2.862626e+01 3.173584e+01 2.307206e-01 6.986548e-01 8.146933e-01 1.274018e+00 1.557951e+00 1.426563e+00 1.587621e+00 1.513672e+00 1.505703e+00 1.261089e+00 1.563261e+00 1.216631e+00 2.680740e-01 2.000000e-01 2.000000e-01 2.000000e-01 2.000000e-01 2.000000e-01 2.037200e-01 2.259555e-01 2.262712e-01 2.112920e-01 2.053636e-01 2.123634e-01 2.000000e-01 2.000000e-01
<GCONST> 1.011052e+02
<STATE> 4
<MEAN> 39
 -2.943028e+00 -6.236394e+00 -1.410188e+01 -1.904342e+01 -4.541827e+00 1.309835e+00 -3.753667e+00 -2.070335e+00 -6.763105e+00 -2.760110e+00 -8.481369e-01 -2.632994e+00 5.344461e+01 -5.858371e-01 7.181163e-01 6.680344e-01 1.166354e+00 -2.841327e-01 -9.694694e-01 1.838185e-01 3.600345e-02 -3.023123e-01 4.680261e-01 4.073576e-02 2.193014e-01 -1.222504e+00 -2.146381e-01 -3.682810e-02 1.348338e-01 3.335542e-01 1.518177e-01 -1.645868e-01 -7.586540e-02 -1.813526e-02 1.256847e-01 4.334196e-02 -1.447363e-01 -1.756108e-02 -5.505947e-02
<VARIANCE> 39
 2.656145e+01 3.789270e+01 3.340625e+01 7.393303e+01 6.534526e+01 7.650050e+01 6.875487e+01 5.471318e+01 6.575851e+01 6.253862e+01 5.984093e+01 4.123227e+01 6.465234e+01 1.435527e+00 2.099043e+00 2.742027e+00 3.180781e+00 3.629037e+00 2.783279e+00 3.093830e+00 2.973425e+00 3.391806e+00 3.128423e+00 2.902021e+00 2.931694e+00 7.217873e-01 2.000000e-01 2.569586e-01 3.178914e-01 4.276660e-01 5.443782e-01 4.068436e-01 4.957161e-01 4.301367e-01 5.644348e-01 5.280067e-01 4.528945e-01 4.885105e-01 2.000000e-01
<GCONST> 1.230870e+02
<TRANSP> 5
 0.000000e+00 1.000000e+00 0.000000e+00 0.000000e+00 0.000000e+00
 0.000000e+00 7.684173e-01 2.315827e-01 0.000000e+00 0.000000e+00
 0.000000e+00 0.000000e+00 9.375561e-01 6.244396e-02 0.000000e+00
 0.000000e+00 0.000000e+00 0.000000e+00 8.770922e-01 1.229078e-01
 0.000000e+00 0.000000e+00 0.000000e+00 0.000000e+00 0.000000e+00
<ENDHMM>
~h "ax"
<BEGINHMM>
<NUMSTATES> 5
<STATE> 2
<MEAN> 39
 -6.271728e+00 -9.960920e+00 -1.090420e+00 -1.181203e+01 -1.527474e+01 -9.770371e+00 -9.961761e+00 8.040094e-01 -2.722227e+00 -1.812999e+00 -2.412724e+00 -2.389229e+00 5.997020e+01 1.634263e+00 -1.281245e+00 -4.516309e-02 -8.647134e-01 -1.044737e+00 -1.620427e-01 -5.491935e-01 6.964285e-01 2.659552e-01 1.522238e-01 -2.775916e-01 -4.536185e-01 1.232378e+00 -8.313324e-01 4.850778e-01 -3.376050e-01 4.397173e-01 9.179727e-01 5.698736e-01 6.268604e-01 -1.966845e-01 -1.880041e-03 6.512865e-02 -5.518019e-03 -2.614876e-02 -9.280890e-01
<VARIANCE> 39
 2.681746e+01 4.205044e+01 6.966818e+01 6.061865e+01 6.948450e+01 6.907672e+01 7.423915e+01 6.557091e+01 6.769381e+01 5.409241e+01 5.870395e+01 4.159961e+01 5.266032e+01 3.793978e+00 3.536499e+00 3.740234e+00 3.898266e+00 4.551670e+00 4.326905e+00 4.993335e+00 5.077282e+00 4.879674e+00 3.957329e+00 3.917185e+00 3.386650e+00 6.045386e+00 6.901935e-01 6.707657e-01 6.011531e-01 7.817094e-01 9.145648e-01 9.180955e-01 9.683199e-01 9.083027e-01 7.826684e-01 7.352827e-01 7.995299e-01 5.888483e-01 8.170206e-01
<GCONST> 1.394886e+02
<STATE> 3
<MEAN> 39
 -5.543932e+00 -1.200972e+01 -4.790793e+00 -1.301670e+01 -1.251403e+01 -7.377608e+00 -7.199195e+00 1.744875e+00 -1.110542e+00 -1.753307e+00 -4.133037e+00 -3.440675e+00 6.024329e+01 2.158261e-03 6.007143e-01 -3.292295e-01 4.677909e-01 7.382141e-01 3.152269e-01 1.506878e-01 -5.612708e-01 -2.360042e-01 -2.530783e-03 8.273119e-03 -8.780075e-02 -1.108938e+00 -2.221029e-01 4.176224e-01 1.067583e-01 3.485514e-01 2.169826e-01 6.265221e-02 7.943273e-02 -3.055254e-01 -2.076184e-01 -5.358202e-02 7.858728e-02 5.846750e-02 -4.875741e-01
<VARIANCE> 39
 1.788287e+01 3.680607e+01 7.431104e+01 6.166059e+01 7.995197e+01 7.535987e+01 8.064851e+01 7.640536e+01 8.427509e+01 7.138525e+01 6.758541e+01 4.808443e+01 5.259384e+01 8.230155e-01 2.235298e+00 1.942957e+00 2.493022e+00 2.425282e+00 2.581753e+00 2.805312e+00 3.583444e+00 3.338595e+00 2.666514e+00 2.614000e+00 2.224423e+00 2.481763e+00 2.500355e-01 3.315526e-01 3.192751e-01 4.507650e-01 4.986267e-01 5.106963e-01 5.560156e-01 6.348819e-01 5.651693e-01 5.300580e-01 4.872437e-01 4.235442e-01 3.215267e-01
<GCONST> 1.252068e+02
<STATE> 4
<MEAN> 39
 -7.880028e+00 -3.126272e+00 -3.517615e+00 -5.659472e+00 -6.977138e+00 -6.266245e+00 -6.881001e+00 -4.030004e+00 -4.743504e+00 -2.621612e+00 -2.801991e+00 -3.061976e+00 4.745292e+01 -1.745759e+00 2.148769e+00 2.351057e-01 2.239738e+00 1.743444e+00 1.074589e+00 9.628625e-01 -9.192574e-01 -7.762880e-01 -4.298576e-01 -8.163599e-02 8.919380e-03 -3.526310e+00 -3.551747e-01 -4.969524e-01 -9.279851e-02 -3.123948e-01 -1.858202e-01 7.173150e-03 1.180732e-01 3.810723e-01 2.888336e-01 1.154691e-01 -6.482331e-02 8.278839e-02 5.545627e-01
<VARIANCE> 39
 4.744711e+01 3.927843e+01 4.896036e+01 5.582634e+01 5.661066e+01 6.187240e+01 5.025321e+01 6.473756e+01 5.685905e+01 4.849211e+01 5.092903e+01 3.320026e+01 7.626049e+01 3.819158e+00 4.707141e+00 4.696512e+00 5.909507e+00 5.728740e+00 5.566784e+00 5.106458e+00 6.719043e+00 6.524704e+00 5.687782e+00 4.498995e+00 3.612565e+00 6.156376e+00 5.026368e-01 7.845375e-01 5.358591e-01 9.175215e-01 8.014591e-01 7.756869e-01 6.655858e-01 9.036331e-01 8.983718e-01 8.015568e-01 6.893462e-01 5.800445e-01 1.144663e+00
<GCONST> 1.407543e+02
<TRANSP> 5
 0.000000e+00 1.000000e+00 0.000000e+00 0.000000e+00 0.000000e+00
 0.000000e+00 4.353620e-01 5.646380e-01 0.000000e+00 0.000000e+00
 0.000000e+00 0.000000e+00 8.292158e-01 1.707842e-01 0.000000e+00
 0.000000e+00 0.000000e+00 0.000000e+00 5.354828e-01 4.645172e-01
 0.000000e+00 0.000000e+00 0.000000e+00 0.000000e+00 0.000000e+00
<ENDHMM>
~h "ay"
<BEGINHMM>
<NUMSTATES> 5
<STATE> 2
<MEAN> 39
 -6.184219e+00 -1.516831e+01 -1.414327e+01 -1.501944e+01 -3.412724e+00 9.882212e-01 -2.851987e+00 -1.260249e+00 -6.112495e-01 -1.329858e+00 -5.578824e+00 -6.217303e+00 5.790015e+01 1.269006e+00 -1.506108e+00 -7.105858e-01 -8.694285e-01 7.817355e-01 1.051213e+00 -3.364557e-01 -6.650738e-01 1.343997e-02 -3.265421e-01 -4.639678e-01 -6.494722e-01 2.264348e+00 -2.977439e-01 3.165789e-01 3.346019e-01 2.397677e-01 -1.778339e-01 -1.410592e-01 -3.912856e-02 -1.707313e-02 -1.642418e-02 6.264970e-02 2.098793e-01 1.543379e-01 -3.473148e-01
<VARIANCE> 39
 3.508746e+01 3.759757e+01 3.482359e+01 6.066567e+01 6.520908e+01 8.617064e+01 6.750609e+01 6.776329e+01 5.754119e+01 4.680592e+01 5.278009e+01 5.254240e+01 7.428204e+01 3.150316e+00 2.908326e+00 2.832680e+00 3.735665e+00 3.795664e+00 3.939426e+00 3.801977e+00 3.637630e+00 2.984601e+00 2.885035e+00 3.123365e+00 2.768393e+00 5.745767e+00 5.922918e-01 4.946615e-01 3.947335e-01 6.104959e-01 5.123677e-01 6.307589e-01 6.443723e-01 7.571735e-01 5.703634e-01 5.154198e-01 5.518757e-01 4.670096e-01 8.433204e-01
<GCONST> 1.324302e+02
<STATE> 3
<MEAN> 39
 -3.471678e+00 -1.787848e+01 -1.399775e+01 -1.499740e+01 -3.595023e+00 1.474505e+00 -3.624466e+00 -1.900869e+00 -6.350399e-01 -3.034648e+00 -6.276692e+00 -6.466122e+00 6.427543e+01 -1.448248e-01 6.747307e-03 4.560884e-01 3.514616e-01 -5.049728e-01 -6.636769e-01 1.759392e-01 5.220392e-01 1.431850e-02 -2.068920e-01 -1.648627e-01 1.752467e-01 3.135662e-02 -4.745054e-02 1.281684e-01 1.260817e-01 -2.248115e-03 -1.805061e-01 -1.287020e-01 4.995343e-02 7.967684e-02 -5.856049e-02 2.060307e-02 7.151544e-02 6.498542e-02 -1.004699e-01
<VARIANCE> 39
 1.203532e+01 3.107442e+01 3.189824e+01 4.536284e+01 6.464052e+01 8.816789e+01 7.700880e+01 7.361733e+01 6.610022e+01 4.960406e+01 4.936700e+01 5.391669e+01 2.154806e+01 2.180872e-01 6.045725e-01 9.071733e-01 9.790710e-01 1.800924e+00 1.673763e+00 1.500048e+00 1.790838e+00 1.206532e+00 1.124318e+00 1.202849e+00 1.153710e+00 2.516857e-01 2.000000e-01 2.000000e-01 2.000000e-01 2.000000e-01 2.000000e-01 2.000000e-01 2.044172e-01 2.355104e-01 2.000000e-01 2.000000e-01 2.030841e-01 2.000000e-01 2.000000e-01
<GCONST> 9.969966e+01
<STATE> 4
<MEAN> 39
 -9.435871e+00 -8.788503e+00 -9.109713e-01 -1.139071e+01 -1.598127e+01 -7.226636e+00 -5.540629e-01 1.000183e+00 -4.283131e+00 -1.851729e+00 -2.997652e+00 -2.291976e+00 5.454148e+01 -7.181368e-01 1.230075e+00 7.203084e-01 3.856644e-01 -1.517731e-01 -1.055463e-01 -9.985439e-02 -5.653341e-01 -2.698622e-01 4.247281e-01 5.332190e-01 2.563621e-01 -1.613699e+00 -5.881951e-02 -1.429909e-02 -2.025341e-01 8.816264e-02 3.333124e-01 2.158974e-01 -5.245028e-02 -1.027111e-01 7.887653e-02 -1.938900e-02 -7.249459e-02 -6.013628e-02 -9.901337e-02
<VARIANCE> 39
 2.829758e+01 5.221867e+01 5.697633e+01 6.595699e+01 7.212867e+01 5.866409e+01 6.225607e+01 8.526085e+01 5.937403e+01 4.666154e+01 5.432080e+01 3.266594e+01 1.114756e+02 1.203347e+00 2.462662e+00 3.660362e+00 3.417218e+00 5.657079e+00 3.391582e+00 3.447099e+00 3.974174e+00 3.879885e+00 3.006590e+00 3.233420e+00 2.491048e+00 3.054884e+00 2.179401e-01 3.514822e-01 3.921731e-01 4.871217e-01 5.862815e-01 5.149785e-01 5.821581e-01 7.311293e-01 6.026988e-01 5.263371e-01 5.277932e-01 3.910456e-01 4.366323e-01
<GCONST> 1.292690e+02
<TRANSP> 5
 0.000000e+00 1.000000e+00 0.000000e+00 0.000000e+00 0.000000e+00
 0.000000e+00 7.488207e-01 2.511793e-01 0.000000e+00 0.000000e+00
 0.000000e+00 0.000000e+00 9.307530e-01 6.924701e-02 0.000000e+00
 0.000000e+00 0.000000e+00 0.000000e+00 8.959394e-01 1.040607e-01
 0.000000e+00 0.000000e+00 0.000000e+00 0.000000e+00 0.000000e+00
<ENDHMM>
~h "ch"
<BEGINHMM>
<NUMSTATES> 5
<STATE> 2
<MEAN> 39
 -2.286082e+01 -4.173407e+00 -2.032497e+00 -6.936893e+00 -2.981563e+00 -4.604358e-01 -3.764667e+00 -1.153845e+00 -1.609303e+00 -1.204375e+00 -8.456013e-01 -9.168912e-01 4.162791e+01 -2.178356e+00 -1.045662e+00 -2.807428e-01 -1.409604e+00 4.178211e-01 8.193457e-01 5.217536e-01 6.878414e-01 1.100623e+00 4.447600e-01 6.109886e-01 4.652894e-01 2.494101e+00 1.116371e-01 1.275155e-01 6.999070e-01 -1.471129e-01 -7.043297e-01 -3.112399e-01 3.129571e-03 -2.516706e-01 -2.982151e-01 -5.616872e-02 -1.019988e-02 -5.134697e-02 9.384084e-01
<VARIANCE> 39
 2.540234e+01 4.861298e+01 2.740656e+01 5.445986e+01 2.603837e+01 2.317319e+01 1.970729e+01 2.140103e+01 2.101852e+01 1.814196e+01 1.456463e+01 1.271729e+01 1.091637e+02 3.175084e+00 5.065752e+00 5.498454e+00 5.475045e+00 5.008922e+00 3.036702e+00 2.778152e+00 3.327537e+00 2.897874e+00 2.337926e+00 2.010279e+00 1.629530e+00 1.321128e+01 6.074349e-01 1.294770e+00 6.919205e-01 1.808245e+00 9.285433e-01 5.716520e-01 5.836535e-01 5.781072e-01 5.225708e-01 4.939649e-01 4.405251e-01 3.378485e-01 3.050761e+00
<GCONST> 1.273389e+02
<STATE> 3
<MEAN> 39
 -3.033331e+01 -6.699759e+00 3.731647e+00 -9.909557e+00 -7.579095e+00 -1.296047e+00 1.635886e-01 -4.854959e-01 -4.595271e-01 -1.202872e+00 8.235323e-01 -2.474698e-01 5.726584e+01 6.298383e-01 -2.645527e-01 1.452552e-01 3.469354e-01 -7.286222e-01 -6.774457e-01 2.152524e-01 -3.225485e-02 -2.049927e-01 -1.413111e-01 -1.103940e-01 2.728091e-03 7.616399e-02 6.736072e-01 -6.664175e-02 -2.239987e-01 1.024361e-01 -5.250539e-02 -1.901138e-01 -2.525266e-01 -3.429263e-02 -1.037223e-01 -4.226236e-02 -8.497620e-02 -2.830623e-02 -6.124209e-01
<VARIANCE> 39
 1.902521e+01 2.615541e+01 2.443242e+01 2.890544e+01 3.573943e+01 2.604820e+01 2.396281e+01 2.146232e+01 1.983572e+01 1.889850e+01 1.515708e+01 1.350913e+01 2.130326e+01 3.332328e+00 1.224986e+00 1.964503e+00 1.563961e+00 1.835835e+00 1.931385e+00 2.060127e+00 1.606842e+00 1.497732e+00 1.454641e+00 1.322358e+00 1.228741e+00 2.863162e+00 4.936587e-01 2.649021e-01 3.565957e-01 3.489245e-01 3.401200e-01 3.744691e-01 4.166168e-01 3.267238e-01 3.244732e-01 2.986367e-01 2.758529e-01 2.577260e-01 3.599700e-01
<GCONST> 1.049683e+02
<STATE> 4
<MEAN> 39
 -1.876699e+01 -6.532231e+00 -2.445438e+00 -5.403399e+00 -9.294787e+00 -5.414976e+00 -2.420583e+00 1.087370e-01 -1.130501e+00 -1.190769e+00 -4.837470e-01 1.834179e-01 4.215198e+01 1.646309e+00 5.767910e-03 -7.861964e-01 1.973590e-01 5.139112e-02 -2.572435e-01 -6.074326e-01 1.260849e-01 -1.190244e-02 4.711607e-02 -2.972067e-01 -2.022466e-01 -1.079488e+00 -1.058186e-01 -6.882199e-02 3.297527e-02 -3.154542e-01 7.446238e-02 1.699179e-01 -1.290190e-02 -1.097443e-02 1.956424e-02 5.118303e-02 -4.449124e-04 -1.056763e-01 5.481313e-01
<VARIANCE> 39
 2.990917e+01 2.722589e+01 3.449607e+01 3.884000e+01 5.041942e+01 4.559447e+01 3.310648e+01 3.337163e+01 3.220897e+01 3.857201e+01 2.754680e+01 2.391607e+01 1.148894e+02 6.831347e+00 3.425335e+00 4.125545e+00 5.169869e+00 6.992823e+00 6.108775e+00 4.941597e+00 3.850911e+00 3.821474e+00 3.819107e+00 3.125490e+00 2.909412e+00 1.083492e+01 8.673503e-01 5.271447e-01 6.420815e-01 8.591922e-01 1.249373e+00 1.076409e+00 7.963153e-01 7.210023e-01 6.983204e-01 7.143694e-01 5.728140e-01 5.312863e-01 1.264294e+00
<GCONST> 1.355844e+02
<TRANSP> 5
 0.000000e+00 1.000000e+00 0.000000e+00 0.000000e+00 0.000000e+00
 0.000000e+00 8.079358e-01 1.920643e-01 0.000000e+00 0.000000e+00
 0.000000e+00 0.000000e+00 8.718343e-01 1.281657e-01 0.000000e+00
 0.000000e+00 0.000000e+00 0.000000e+00 8.382995e-01 1.617005e-01
 0.000000e+00 0.000000e+00 0.000000e+00 0.000000e+00 0.000000e+00
<ENDHMM>
~h "dh"
<BEGINHMM>
<NUMSTATES> 5
<STATE> 2
<MEAN> 39
 -1.953232e+01 -1.076654e+00 -6.152825e+00 -2.123169e+00 -3.912116e+00 -3.946536e+00 -1.916314e+00 -2.448631e+00 -1.734366e+00 -2.220328e+00 -1.695403e+00 -1.665950e+00 3.829891e+01 7.549001e-01 3.773741e-01 5.586768e-01 1.813677e-01 -1.664706e-01 -1.154308e-01 -3.419361e-01 -2.831647e-01 -3.972472e-01 -2.290822e-01 -5.354350e-01 -6.318610e-01 1.400160e+00 1.741930e-01 -3.849589e-02 7.061508e-02 -1.414735e-02 -2.483683e-02 1.938275e-02 -1.650001e-01 -4.004309e-02 -1.205846e-01 -4.683546e-02 -1.197450e-01 -3.194081e-02 1.754389e-01
<VARIANCE> 39
 3.807248e+01 2.431484e+01 1.851253e+01 1.572136e+01 1.235061e+01 2.496202e+01 2.388515e+01 4.124744e+01 2.994150e+01 2.296402e+01 1.334454e+01 1.509392e+01 5.998971e+01 1.650760e+00 1.872596e+00 1.611815e+00 1.473299e+00 2.222511e+00 2.099780e+00 2.203743e+00 2.563657e+00 2.043775e+00 2.957269e+00 2.095052e+00 1.940834e+00 2.096256e+00 5.412844e-01 3.695271e-01 3.117215e-01 2.052854e-01 3.303311e-01 4.412866e-01 6.555952e-01 5.972129e-01 4.147894e-01 6.195266e-01 2.597115e-01 3.284018e-01 4.821615e-01
<GCONST> 1.101736e+02
<STATE> 3
<MEAN> 39
 -1.183472e+01 1.326355e+00 -2.466735e+00 3.899875e-01 -4.382418e+00 -6.586769e+00 -7.180118e+00 -5.159612e+00 -6.165809e+00 -5.020735e+00 -7.523286e+00 -6.584646e+00 4.359435e+01 2.247291e-01 -6.225210e-01 -4.148933e-01 -5.318946e-01 -5.830604e-01 -3.979888e-01 -7.036904e-02 -1.242712e-01 3.029581e-01 -2.291533e-01 -4.080861e-02 6.564737e-02 2.527547e+00 -1.037005e-01 -3.783437e-01 -1.994419e-01 -4.801537e-01 -3.922911e-01 -4.585831e-02 1.082105e-01 2.018941e-01 2.143586e-01 2.186331e-01 3.210832e-01 3.285959e-01 3.768233e-01
<VARIANCE> 39
 2.632325e+01 2.155254e+01 2.177701e+01 1.807212e+01 2.068744e+01 3.033027e+01 2.917138e+01 2.486967e+01 3.358624e+01 3.995314e+01 2.729885e+01 1.896437e+01 6.152667e+01 4.833522e+00 2.779365e+00 3.095484e+00 2.521258e+00 2.746607e+00 3.315306e+00 5.079239e+00 2.317801e+00 2.663229e+00 2.023169e+00 2.837105e+00 2.981289e+00 4.843743e+00 8.576856e-01 5.185453e-01 5.400687e-01 5.408536e-01 6.507118e-01 6.329498e-01 9.384986e-01 4.736816e-01 4.256749e-01 3.899553e-01 4.106076e-01 4.951299e-01 8.411359e-01
<GCONST> 1.220163e+02
<STATE> 4
<MEAN> 39
 -1.035022e+01 -5.146241e+00 -5.754778e+00 -6.574992e+00 -1.196288e+01 -9.243099e+00 -5.850527e+00 -3.297503e+00 -2.475475e+00 -2.717614e+00 -3.014392e+00 -1.742369e+00 5.937019e+01 1.905087e+00 -1.969437e+00 7.077979e-01 -2.469715e+00 -2.712648e+00 -1.425172e+00 -9.497572e-01 1.341966e+00 -1.165022e-01 1.415718e+00 1.802885e-01 5.446321e-01 3.443041e+00 8.015850e-03 -3.556629e-02 3.737655e-01 -9.439914e-02 2.728287e-01 1.502668e-01 -8.050757e-02 2.841752e-01 -2.814422e-01 1.607156e-01 -3.582823e-01 -3.406907e-01 -6.086529e-01
<VARIANCE> 39
 2.313651e+01 2.190601e+01 2.820239e+01 2.585531e+01 3.293879e+01 3.610248e+01 4.800535e+01 4.907302e+01 4.458976e+01 2.592952e+01 1.647438e+01 1.290805e+01 2.493003e+01 2.592684e+00 2.711311e+00 4.212094e+00 3.217080e+00 3.129485e+00 3.888566e+00 5.890669e+00 5.702053e+00 3.617555e+00 2.489394e+00 3.451640e+00 2.859778e+00 4.006588e+00 8.325108e-01 4.594357e-01 6.452068e-01 3.534305e-01 7.162824e-01 8.934703e-01 9.457580e-01 7.510948e-01 5.097845e-01 4.297358e-01 4.883175e-01 3.772246e-01 4.253880e-01
<GCONST> 1.241242e+02
<TRANSP> 5
 0.000000e+00 1.000000e+00 0.000000e+00 0.000000e+00 0.000000e+00
 0.000000e+00 5.583484e-01 4.416516e-01 0.000000e+00 0.000000e+00
 0.000000e+00 0.000000e+00 7.906851e-01 2.093149e-01 0.000000e+00
 0.000000e+00 0.000000e+00 0.000000e+00 6.634928e-01 3.365072e-01
 0.000000e+00 0.000000e+00 0.000000e+00 0.000000e+00 0.000000e+00
<ENDHMM>
~h "dx"
<BEGINHMM>
<NUMSTATES> 5
<STATE> 2
<MEAN> 39
 -1.250611e+01 -1.752606e+00 -2.786556e-01 -1.420643e+00 -6.708962e+00 -5.658042e+00 -5.792530e+00 -3.335115e+00 -3.493286e+00 -3.570675e+00 -4.029876e+00 -2.869071e+00 4.224802e+01 -1.196334e+00 1.739529e-01 -2.705618e-01 1.209431e-01 1.166128e+00 7.422916e-01 4.492209e-01 -1.874107e-01 -1.191963e-01 1.708687e-01 4.148902e-01 2.939031e-01 -6.837040e-01 3.514478e-01 -1.019330e+00 2.062965e-02 -1.067156e+00 -7.884800e-01 -3.259907e-01 -2.106054e-01 5.492858e-01 2.415182e-02 2.607351e-01 3.369600e-01 2.175334e-01 1.732814e+00
<VARIANCE> 39
 4.459927e+01 5.010306e+01 3.811664e+01 3.323246e+01 4.602975e+01 3.918443e+01 4.466516e+01 3.341307e+01 3.704383e+01 3.380188e+01 3.020933e+01 2.707875e+01 1.186509e+02 2.725332e+00 5.630380e+00 3.035997e+00 5.507030e+00 5.188999e+00 4.612799e+00 4.315045e+00 3.979970e+00 3.850928e+00 2.655589e+00 3.309000e+00 3.382124e+00 1.081775e+01 4.876462e-01 7.684186e-01 6.473356e-01 8.309048e-01 1.004600e+00 8.983443e-01 1.292642e+00 9.872752e-01 9.280189e-01 9.144611e-01 8.710250e-01 7.519863e-01 1.208727e+00
<GCONST> 1.367839e+02
<STATE> 3
<MEAN> 39
 -1.430624e+01 -8.555969e+00 -6.804286e-01 -9.354729e+00 -9.563828e+00 -6.877680e+00 -5.295019e+00 -1.069080e+00 -2.904856e+00 -1.388107e+00 1.682777e-02 -3.465849e-01 5.546071e+01 6.372877e-01 -1.164145e+00 4.258834e-01 -8.990285e-01 -1.359152e+00 -8.566577e-01 -3.057292e-01 7.958826e-01 -3.776391e-01 3.140783e-01 4.600199e-01 4.119624e-01 2.030893e+00 5.532479e-01 8.628526e-02 1.134758e-01 2.262366e-01 -3.858407e-01 -8.679238e-02 -2.152182e-01 2.149233e-01 -1.009975e-01 -1.106676e-01 -2.188619e-01 -1.401502e-01 -4.318563e-01
<VARIANCE> 39
 7.143446e+01 3.960290e+01 4.973118e+01 4.145081e+01 5.818488e+01 4.339238e+01 5.489177e+01 3.107346e+01 3.729299e+01 3.798872e+01 2.321044e+01 2.358570e+01 7.025200e+01 4.107136e+00 3.392557e+00 3.369476e+00 5.857870e+00 4.367433e+00 4.047324e+00 5.161484e+00 4.302839e+00 3.220978e+00 3.433526e+00 3.531013e+00 2.266713e+00 1.059142e+01 7.031568e-01 7.449272e-01 6.959715e-01 9.734325e-01 9.880231e-01 9.111769e-01 8.160701e-01 7.999351e-01 6.649932e-01 6.156422e-01 6.152635e-01 4.588327e-01 1.808727e+00
<GCONST> 1.356451e+02
<STATE> 4
<MEAN> 39
 -1.063163e+01 -1.015923e+01 -2.489051e+00 -7.302114e+00 -1.161067e+01 -7.485502e+00 -3.330162e+00 1.543216e+00 -3.531945e+00 -3.325672e+00 -1.432926e+00 4.910530e-01 5.130881e+01 7.518234e-01 -3.995322e-01 1.246742e-02 -9.886685e-03 -6.697432e-01 -5.436756e-02 -3.792361e-01 6.767319e-01 -1.417852e-01 -1.686902e-01 -4.967976e-02 1.770588e-01 -5.194222e-01 -1.421217e-01 2.418441e-01 -1.221840e-01 -6.635854e-03 1.952353e-01 8.343960e-02 6.716378e-03 -3.226566e-02 7.032910e-02 -2.641251e-02 -8.496384e-02 -3.779745e-02 -1.952675e-01
<VARIANCE> 39
 4.530791e+01 3.334822e+01 6.325907e+01 4.008944e+01 5.924781e+01 3.366258e+01 9.602973e+01 4.884967e+01 3.871552e+01 4.888797e+01 2.868971e+01 2.607855e+01 1.063884e+02 2.692568e+00 1.997684e+00 3.237860e+00 2.634218e+00 3.804139e+00 2.918650e+00 3.695858e+00 4.184925e+00 2.693512e+00 2.993754e+00 2.465079e+00 2.090523e+00 2.741955e+00 2.924608e-01 3.101519e-01 3.591492e-01 3.713608e-01 5.125682e-01 4.205298e-01 4.996206e-01 4.731545e-01 3.131111e-01 4.325609e-01 4.204999e-01 3.011368e-01 3.916619e-01
<GCONST> 1.230311e+02
<TRANSP> 5
 0.000000e+00 1.000000e+00 0.000000e+00 0.000000e+00 0.000000e+00
 0.000000e+00 5.526206e-01 4.473793e-01 0.000000e+00 0.000000e+00
 0.000000e+00 0.000000e+00 5.099609e-01 4.900391e-01 0.000000e+00
 0.000000e+00 0.000000e+00 0.000000e+00 4.933476e-01 5.066525e-01
 0.000000e+00 0.000000e+00 0.000000e+00 0.000000e+00 0.000000e+00
<ENDHMM>
~h "eh"
<BEGINHMM>
<NUMSTATES> 5
<STATE> 2
<MEAN> 39
 -1.272830e+01 -8.134544e+00 -1.215695e+00 -1.113874e+01 -1.529341e+01 -6.529613e+00 -1.468699e+00 1.629595e+00 -2.967122e+00 -6.133683e-01 -2.353985e+00 -2.018301e+00 5.073242e+01 9.599725e-01 -9.927267e-01 3.952926e-01 -9.991531e-01 -9.277132e-01 -6.616671e-03 1.226513e-01 5.183201e-01 -2.384497e-01 -4.354181e-01 -2.236539e-01 -3.798789e-01 2.612454e+00 -6.496648e-02 9.278679e-02 -1.373846e-01 1.207899e-01 2.083220e-01 1.401838e-01 -1.267157e-01 -1.173885e-01 2.492575e-02 -7.308064e-03 7.133384e-02 3.120583e-03 -1.725248e-01
<VARIANCE> 39
 4.355127e+01 4.553411e+01 4.800403e+01 8.743068e+01 7.700621e+01 5.901894e+01 5.844967e+01 6.109789e+01 5.328905e+01 4.079487e+01 4.519239e+01 2.989414e+01 1.707346e+02 2.682575e+00 2.731917e+00 2.504172e+00 3.944374e+00 4.305717e+00 3.327868e+00 3.566239e+00 3.749628e+00 3.312835e+00 2.757485e+00 2.686308e+00 2.186170e+00 8.106414e+00 5.363209e-01 4.642486e-01 4.332058e-01 8.315166e-01 8.738862e-01 6.090552e-01 5.975913e-01 6.108478e-01 5.652328e-01 4.799668e-01 4.678765e-01 3.805687e-01 1.412906e+00
<GCONST> 1.331253e+02
<STATE> 3
<MEAN> 39
 -7.042400e+00 -1.289046e+01 -1.576544e+00 -1.411288e+01 -1.745160e+01 -7.442793e+00 -2.646240e+00 3.957896e+00 -3.367096e+00 -3.718874e+00 -3.518899e+00 -3.519021e+00 6.392852e+01 2.170642e-01 -8.817475e-02 -5.736153e-01 2.633637e-01 5.615087e-01 -5.332164e-02 -2.364026e-01 1.964644e-01 2.708454e-01 -2.723649e-01 -2.976877e-01 -1.742864e-02 8.436209e-02 -1.540416e-02 1.791832e-01 -1.540865e-02 1.048274e-01 1.072100e-01 -4.806861e-02 -6.362777e-02 -1.460746e-01 -1.602817e-02 7.330549e-02 -2.824344e-03 1.196107e-02 -2.429263e-01
<VARIANCE> 39
 1.382876e+01 3.526360e+01 5.138023e+01 5.604467e+01 5.671201e+01 6.088369e+01 7.196872e+01 7.749759e+01 7.368061e+01 5.488724e+01 5.554027e+01 3.815945e+01 2.365685e+01 2.652930e-01 7.902137e-01 9.033141e-01 8.693917e-01 1.183846e+00 1.217558e+00 1.462964e+00 1.548296e+00 1.346086e+00 1.341446e+00 1.222751e+00 1.012766e+00 5.956449e-01 2.000000e-01 2.000000e-01 2.000000e-01 2.000000e-01 2.000000e-01 2.000000e-01 2.334239e-01 2.710165e-01 2.177507e-01 2.000000e-01 2.000000e-01 2.000000e-01 2.000000e-01
<GCONST> 1.010198e+02
<STATE> 4
<MEAN> 39
 -5.546398e+00 -9.641110e+00 -6.016496e+00 -1.045480e+01 -1.093645e+01 -8.781116e+00 -6.311851e+00 2.450719e+00 -1.086120e+00 -3.347860e+00 -5.786788e+00 -3.986928e+00 5.985802e+01 -8.929790e-01 2.095399e+00 1.524941e-01 1.519892e+00 1.419159e+00 1.864510e-01 2.589178e-01 -1.625943e+00 -7.253368e-01 4.768155e-01 2.760122e-01 6.624505e-02 -2.156161e+00 -6.321947e-01 1.877589e-01 1.807007e-01 2.153290e-01 7.471249e-02 2.348344e-01 3.714941e-01 -2.295015e-01 -2.682938e-01 9.349347e-02 1.883955e-01 8.583949e-02 -2.076970e-01
<VARIANCE> 39
 1.655208e+01 4.072409e+01 4.490548e+01 4.445179e+01 5.408644e+01 6.063280e+01 8.070135e+01 6.702786e+01 7.708726e+01 6.411923e+01 5.350276e+01 4.726125e+01 4.220927e+01 4.640187e+00 2.635108e+00 2.765563e+00 3.214299e+00 3.821072e+00 4.367141e+00 4.934110e+00 5.654649e+00 4.516857e+00 4.136606e+00 4.236678e+00 3.904884e+00 1.999483e+00 4.791145e-01 4.974212e-01 4.281235e-01 5.230797e-01 5.637425e-01 6.282654e-01 6.731965e-01 9.884736e-01 7.315583e-01 7.067916e-01 6.498296e-01 5.489034e-01 3.616352e-01
<GCONST> 1.327396e+02
<TRANSP> 5
 0.000000e+00 1.000000e+00 0.000000e+00 0.000000e+00 0.000000e+00
 0.000000e+00 7.389458e-01 2.610542e-01 0.000000e+00 0.000000e+00
 0.000000e+00 0.000000e+00 9.058267e-01 9.417321e-02 0.000000e+00
 0.000000e+00 0.000000e+00 0.000000e+00 7.260630e-01 2.739370e-01
 0.000000e+00 0.000000e+00 0.000000e+00 0.000000e+00 0.000000e+00
<ENDHMM>
~h "el"
<BEGINHMM>
<NUMSTATES> 5
<STATE> 2
<MEAN> 39
 -6.396124e+00 -1.400179e+01 -5.721202e+00 -1.445700e+01 -1.418644e+01 -7.700434e+00 -3.565487e+00 4.338220e+00 2.971397e-01 -1.633770e+00 -6.561980e+00 -3.905101e+00 6.279539e+01 4.866065e-01 -2.616452e-01 -8.719662e-01 -5.078698e-01 7.997084e-01 7.741503e-01 -3.747089e-01 -3.166229e-01 3.725643e-01 9.142040e-02 -4.358572e-01 -5.387321e-01 8.011012e-01 -7.053296e-02 2.288656e-01 -9.790559e-02 -5.065548e-02 1.824020e-01 2.320775e-01 -3.691793e-02 -2.742834e-01 -7.179275e-02 1.497651e-01 1.891644e-01 6.232197e-03 -3.185732e-01
<VARIANCE> 39
