~o
<STREAMINFO> 1 39
<VECSIZE> 39<NULLD><MFCC_D_A_0><DIAGC>
~h "b"
<BEGINHMM>
<NUMSTATES> 5
<STATE> 2
<NUMMIXES> 2
<MIXTURE> 1 3.120769e-01
<MEAN> 39
 -2.055160e+01 -1.672047e+00 -5.454906e+00 -4.223090e-01 -2.976803e+00 -1.692005e+00 -2.946422e+00 -1.481945e+00 -2.682108e+00 -1.539501e+00 -1.941839e+00 -6.446788e-01 3.097204e+01 -2.114124e-01 -2.393075e-01 7.464632e-02 -1.134475e-01 -1.204243e-01 -5.753399e-02 1.271711e-01 2.359809e-01 1.972372e-01 2.131784e-01 3.914031e-02 1.831594e-02 6.334376e-01 4.088544e-01 -1.304844e-01 3.135486e-01 -2.763451e-01 -3.599728e-01 -3.597403e-01 -1.639591e-01 -1.455445e-01 -2.682693e-01 -1.515432e-01 -1.788450e-01 -8.168472e-02 9.560506e-01
<VARIANCE> 39
 6.451931e+00 1.236892e+01 1.136357e+01 6.407012e+00 1.025936e+01 9.661375e+00 1.367651e+01 1.557015e+01 1.913886e+01 1.684181e+01 1.525739e+01 1.517157e+01 5.571142e+00 1.186941e+00 1.806340e+00 1.814630e+00 7.781203e-01 1.295163e+00 1.742297e+00 1.905632e+00 2.539169e+00 2.543223e+00 2.477071e+00 1.929383e+00 1.792931e+00 4.469507e+00 2.473223e-01 2.884947e-01 3.664667e-01 3.100299e-01 4.515461e-01 3.622667e-01 3.344478e-01 4.099154e-01 6.590139e-01 3.472486e-01 3.320172e-01 3.134380e-01 1.062119e+00
<GCONST> 9.902684e+01
<MIXTURE> 2 6.879231e-01
<MEAN> 39
 -7.333089e+00 4.673332e+00 -8.344243e-02 -1.098754e+00 -5.635890e+00 -9.250475e+00 -1.208879e+01 -1.019944e+01 -1.001057e+01 -7.034235e+00 -8.525285e+00 -8.276358e+00 3.874688e+01 -1.045276e+00 7.308956e-01 9.165916e-01 1.077753e+00 4.345961e-01 3.850000e-01 4.016888e-01 -4.127150e-01 -3.835856e-01 -8.084168e-01 9.789702e-02 -1.006752e-01 -8.593779e-01 -2.285664e-01 -1.168144e+00 -1.863774e-01 -1.074610e+00 -5.789883e-01 1.137012e-02 5.528229e-01 7.298805e-01 3.062503e-01 5.623975e-01 1.638571e-01 5.299070e-01 1.408654e+00
<VARIANCE> 39
 1.076880e+01 1.981877e+01 1.539090e+01 2.783660e+01 2.100789e+01 2.661857e+01 2.088308e+01 2.418648e+01 2.792669e+01 2.757151e+01 2.444501e+01 2.358013e+01 2.795647e+01 3.539689e+00 4.798919e+00 2.894114e+00 6.788459e+00 3.512731e+00 3.341449e+00 3.276928e+00 3.993878e+00 4.021216e+00 3.882306e+00 2.882195e+00 3.312050e+00 8.280369e+00 3.794964e-01 7.118452e-01 8.076730e-01 9.517837e-01 7.002528e-01 6.490399e-01 6.471244e-01 9.320838e-01 8.641130e-01 7.373604e-01 6.779932e-01 4.950343e-01 1.691281e+00
<GCONST> 1.260656e+02
<STATE> 3
<NUMMIXES> 2
<MIXTURE> 1 3.746368e-01
<MEAN> 39
 -1.285402e+01 2.778733e+00 -5.801700e-01 3.069039e-01 -2.644828e+00 -4.508553e+00 -8.073608e+00 -8.243885e+00 -9.253425e+00 -7.234993e+00 -6.504078e+00 -5.845847e+00 3.669515e+01 -7.090550e-01 -2.954629e+00 -2.949859e-01 -2.189338e+00 -1.336575e+00 -5.164621e-01 1.697057e+00 2.063798e+00 1.360851e+00 1.112891e+00 1.135447e+00 1.478095e+00 4.813890e+00 9.218889e-01 -7.370374e-01 1.685693e-02 -1.782062e+00 -1.094469e+00 -7.491665e-01 -3.872122e-01 1.024836e-01 3.517170e-02 8.997436e-01 -1.436279e-01 2.050412e-01 1.919256e+00
<VARIANCE> 39
 2.686057e+01 1.890452e+01 1.432322e+01 1.511618e+01 1.223190e+01 1.892705e+01 2.644384e+01 3.103561e+01 2.471267e+01 2.502723e+01 2.171414e+01 2.040914e+01 3.132836e+01 3.214336e+00 2.173704e+00 4.287168e+00 4.075821e+00 3.054064e+00 3.499395e+00 4.091764e+00 3.931974e+00 4.725606e+00 3.447508e+00 3.166645e+00 2.640995e+00 4.746232e+00 5.114107e-01 4.994613e-01 1.359975e+00 1.125993e+00 5.629094e-01 1.056382e+00 7.992849e-01 9.608902e-01 9.518837e-01 6.947429e-01 7.590878e-01 6.211657e-01 6.459704e-01
<GCONST> 1.245045e+02
<MIXTURE> 2 6.253629e-01
<MEAN> 39
 -1.385623e+01 -5.227589e+00 -1.159174e+00 -5.772995e+00 -7.965914e+00 -8.124417e+00 -3.519113e+00 -2.230023e+00 -4.626223e+00 -2.844335e+00 -3.017924e+00 -1.435630e+00 5.107866e+01 1.553914e+00 -1.911120e+00 1.862199e+00 -3.966135e+00 -3.233228e+00 -1.742366e+00 -4.803494e-01 -2.332294e-01 -1.158106e+00 1.218738e+00 -4.410414e-01 3.944536e-01 5.729368e+00 5.453975e-01 4.847115e-01 3.835033e-01 -9.240170e-01 -4.804352e-01 1.959512e-03 -9.287447e-01 -6.592736e-01 -6.312912e-01 3.192236e-01 -6.169832e-01 -3.146409e-01 -4.177010e-01
<VARIANCE> 39
 2.424053e+01 1.837004e+01 3.062037e+01 3.752154e+01 3.499803e+01 3.424945e+01 3.918397e+01 3.667728e+01 4.242613e+01 3.028523e+01 2.084172e+01 1.638439e+01 6.823039e+01 3.530248e+00 2.868890e+00 9.019928e+00 6.102523e+00 4.618493e+00 5.014868e+00 5.417819e+00 7.651715e+00 6.267812e+00 4.370314e+00 3.909777e+00 3.425282e+00 5.052994e+00 6.474916e-01 6.552718e-01 8.328328e-01 1.151443e+00 8.441283e-01 9.982118e-01 9.479047e-01 1.089837e+00 1.231255e+00 1.021897e+00 6.744552e-01 5.733240e-01 1.524224e+00
<GCONST> 1.357751e+02
<STATE> 4
<NUMMIXES> 2
<MIXTURE> 1 3.213974e-01
<MEAN> 39
 -3.662009e+00 -5.530193e+00 -8.170579e+00 -1.802267e+01 -9.820511e+00 -9.650043e+00 -1.164462e+01 -4.821085e+00 -4.721506e+00 -3.966583e-01 -5.745063e+00 -2.060080e+00 5.697923e+01 1.575333e+00 -1.226554e+00 -1.004162e+00 -2.990628e+00 -1.792336e+00 -1.060858e+00 -6.605729e-01 1.135655e+00 2.968870e-02 7.705673e-01 -4.895266e-01 6.545258e-01 2.504759e+00 -5.283803e-01 4.719891e-01 4.725181e-01 1.063431e+00 1.445317e-01 3.160340e-01 3.106997e-01 -1.841297e-01 -4.540078e-01 -4.078051e-01 -5.026884e-02 -2.254525e-01 -1.157262e+00
<VARIANCE> 39
 1.373767e+01 2.613305e+01 6.312705e+01 8.377232e+01 3.696161e+01 6.987340e+01 7.044164e+01 4.917681e+01 3.220078e+01 4.251278e+01 3.620121e+01 2.471041e+01 1.800470e+01 4.049861e+00 3.836456e+00 7.456246e+00 1.196495e+01 3.527080e+00 7.580835e+00 8.602611e+00 5.022523e+00 7.923522e+00 6.551752e+00 6.415365e+00 3.560636e+00 6.333028e+00 3.702551e-01 2.685147e-01 6.698612e-01 9.869915e-01 5.019550e-01 6.870838e-01 1.008754e+00 7.747988e-01 9.307464e-01 7.208790e-01 6.828533e-01 5.316023e-01 4.421749e-01
<GCONST> 1.359980e+02
<MIXTURE> 2 6.786025e-01
<MEAN> 39
 -9.229591e+00 -6.356262e+00 1.071216e+01 -1.510258e+01 -1.992069e+01 -1.224977e+01 -9.316187e+00 -8.844463e+00 -1.514793e+01 6.693324e-01 -6.411694e+00 -3.869960e+00 5.707689e+01 1.780155e-01 2.535991e-01 3.276619e+00 -4.538850e+00 -2.624581e+00 5.528287e-01 -1.571342e+00 -1.878193e+00 -1.858366e+00 1.871982e+00 -1.441440e+00 -3.130057e-01 1.807026e+00 -4.104893e-01 7.722208e-01 -8.095349e-01 3.615413e-01 1.208383e+00 7.654527e-01 -3.205721e-01 1.308832e-01 7.621228e-01 -2.713961e-01 -2.050677e-01 3.858122e-02 -1.293322e+00
<VARIANCE> 39
 7.440462e+00 1.757215e+01 2.707663e+01 5.634188e+01 2.566585e+01 3.269159e+01 3.216073e+01 4.623053e+01 4.291140e+01 3.391842e+01 2.769023e+01 2.619007e+01 1.590044e+01 2.160078e+00 2.694828e+00 2.301152e+00 5.032712e+00 5.156853e+00 4.692956e+00 6.309980e+00 5.175898e+00 6.206717e+00 4.574375e+00 3.848392e+00 2.860512e+00 4.324973e+00 2.828056e-01 2.988621e-01 4.250635e-01 9.452309e-01 3.891090e-01 6.451233e-01 6.990414e-01 8.866590e-01 6.390700e-01 6.433582e-01 5.399690e-01 4.651916e-01 5.543233e-01
<GCONST> 1.245422e+02
<TRANSP> 5
 0.000000e+00 1.000000e+00 0.000000e+00 0.000000e+00 0.000000e+00
 0.000000e+00 7.215235e-01 2.784765e-01 0.000000e+00 0.000000e+00
 0.000000e+00 0.000000e+00 5.736309e-01 4.263691e-01 0.000000e+00
 0.000000e+00 0.000000e+00 0.000000e+00 4.838706e-01 5.161294e-01
 0.000000e+00 0.000000e+00 0.000000e+00 0.000000e+00 0.000000e+00
<ENDHMM>
~h "d"
<BEGINHMM>
<NUMSTATES> 5
<STATE> 2
<NUMMIXES> 3
<MIXTURE> 1 4.237170e-01
<MEAN> 39
 -1.568554e+01 2.840225e+00 -4.647183e-01 3.868437e-01 -3.367335e+00 -3.717611e+00 -6.039865e+00 -6.702325e+00 -7.920465e+00 -5.971562e+00 -6.481834e+00 -4.994111e+00 3.491661e+01 -2.109774e+00 -2.195824e+00 -1.627895e+00 -1.728007e+00 6.371607e-01 9.394824e-01 1.527911e+00 1.184365e+00 1.714961e+00 1.701591e+00 1.635516e+00 1.141899e+00 2.457417e+00 2.659465e-01 -3.967525e-01 -8.704193e-02 -1.246150e+00 -9.269407e-01 -6.431615e-01 1.860404e-01 4.989954e-02 2.387923e-01 4.807793e-01 1.920268e-01 4.437661e-01 1.724565e+00
<VARIANCE> 39
 2.277570e+01 2.418549e+01 2.216869e+01 2.098975e+01 2.139053e+01 2.573571e+01 2.397398e+01 2.831878e+01 2.875645e+01 2.570621e+01 2.654994e+01 2.549693e+01 4.092037e+01 3.131124e+00 3.178395e+00 3.372545e+00 5.830843e+00 3.742953e+00 4.158829e+00 3.727794e+00 4.172621e+00 3.771764e+00 3.223143e+00 3.047484e+00 3.019177e+00 1.325941e+01 3.871000e-01 7.242877e-01 6.601153e-01 9.051176e-01 8.030790e-01 7.202902e-01 7.268044e-01 8.430941e-01 7.110521e-01 5.976554e-01 6.610259e-01 6.162598e-01 1.658465e+00
<GCONST> 1.277938e+02
<MIXTURE> 2 3.193237e-01
<MEAN> 39
 -8.806870e+00 7.770950e+00 3.487996e+00 -7.269316e-01 -8.647820e+00 -8.792183e+00 -8.422487e+00 -8.259848e+00 -9.292681e+00 -6.962106e+00 -8.579444e+00 -7.083771e+00 3.645309e+01 -1.150958e+00 -2.082041e-01 -3.605509e-01 6.891606e-01 1.617739e+00 9.492840e-01 5.201580e-01 2.923631e-01 2.539800e-01 1.876543e-02 4.343887e-01 -6.625026e-02 -6.468555e-01 -5.752186e-01 -8.868685e-01 -4.024923e-01 -8.235667e-01 1.491930e-02 3.752927e-01 2.615567e-01 9.185753e-02 3.026109e-01 3.754397e-01 3.161528e-01 5.043057e-01 1.060356e+00
<VARIANCE> 39
 6.473655e+00 4.902889e+00 8.369492e+00 1.398114e+01 2.291406e+01 2.264157e+01 1.797991e+01 2.278226e+01 2.276654e+01 1.772189e+01 1.739769e+01 2.292924e+01 4.950480e+00 1.910004e+00 1.966546e+00 1.636088e+00 3.081145e+00 2.883046e+00 2.834544e+00 2.071783e+00 2.217202e+00 2.359447e+00 2.001046e+00 2.001766e+00 2.054234e+00 3.009777e+00 2.668036e-01 4.413095e-01 4.649437e-01 8.910740e-01 5.534755e-01 5.878652e-01 6.228412e-01 6.960557e-01 6.071193e-01 5.506353e-01 4.640741e-01 5.338770e-01 1.429372e+00
<GCONST> 1.092737e+02
<MIXTURE> 3 2.569578e-01
<MEAN> 39
 -8.322015e+00 6.311411e+00 2.831502e+00 -1.356750e+00 -9.361582e+00 -1.023673e+01 -1.000264e+01 -9.661850e+00 -1.151068e+01 -9.124960e+00 -1.014114e+01 -7.776552e+00 3.750175e+01 -8.380261e-01 1.731411e+00 -2.099407e-01 2.533142e+00 2.218774e+00 5.304392e-01 -6.714792e-02 -1.735904e-01 -6.011915e-01 -1.210745e+00 -3.024380e-01 -1.623521e+00 -2.777968e+00 -5.373022e-01 -1.161370e+00 -2.814523e-01 -1.383796e+00 -1.529640e-01 4.042035e-01 2.574621e-01 4.608059e-01 5.483667e-01 9.544843e-01 4.534300e-01 7.075431e-01 1.496123e+00
<VARIANCE> 39
 9.375001e+00 8.306729e+00 1.052758e+01 1.775453e+01 3.032442e+01 2.308147e+01 1.872191e+01 2.530994e+01 2.780567e+01 2.191161e+01 2.075541e+01 2.489421e+01 9.018405e+00 3.530737e+00 3.864729e+00 4.236158e+00 7.447828e+00 4.754703e+00 5.672254e+00 3.416368e+00 4.234564e+00 3.691513e+00 3.371494e+00 2.815746e+00 2.908378e+00 6.262346e+00 2.000000e-01 6.166569e-01 5.710529e-01 1.016220e+00 6.974901e-01 5.267339e-01 9.641800e-01 7.133442e-01 7.185535e-01 5.641665e-01 6.616080e-01 5.569055e-01 1.353895e+00
<GCONST> 1.217131e+02
<STATE> 3
<NUMMIXES> 3
<MIXTURE> 1 3.318706e-01
<MEAN> 39
 -2.106510e+01 -1.718805e+00 -5.909926e+00 -9.480205e-01 -3.155128e+00 -8.003033e-01 -1.553957e+00 -2.451494e-01 -1.268773e+00 -3.960199e-01 -7.272268e-01 6.605137e-01 3.001368e+01 -2.102167e-01 2.592205e-02 -8.137514e-02 6.741630e-02 8.669876e-02 8.135354e-02 -3.095800e-02 2.314447e-01 2.743135e-01 1.835823e-01 1.466618e-01 -4.400704e-02 -2.291400e-01 1.166365e-01 -4.310567e-02 4.099456e-02 -1.871584e-01 -9.349003e-03 -2.151795e-02 8.996624e-03 -1.355890e-01 -8.713469e-02 -8.547923e-02 -6.380872e-02 -7.447398e-02 5.283363e-01
<VARIANCE> 39
 2.385899e+00 5.409375e+00 5.876702e+00 6.116273e+00 7.192243e+00 1.022258e+01 1.267505e+01 1.230139e+01 1.277404e+01 1.408182e+01 1.141766e+01 1.125913e+01 5.455813e+00 5.522996e-01 9.051586e-01 7.308226e-01 7.355194e-01 1.002761e+00 1.247833e+00 1.388446e+00 1.669253e+00 1.605049e+00 1.649483e+00 1.317101e+00 1.189877e+00 7.435024e-01 2.000000e-01 2.000000e-01 2.000000e-01 2.706942e-01 2.000000e-01 2.948007e-01 3.182629e-01 3.541064e-01 3.390625e-01 3.630790e-01 3.334331e-01 2.682272e-01 5.693617e-01
<GCONST> 8.356512e+01
<MIXTURE> 2 4.344296e-01
<MEAN> 39
 -1.960228e+01 -5.881578e+00 -5.093951e+00 -1.001936e+01 -2.942140e+00 -4.165110e+00 -1.123069e+00 -3.253203e+00 -2.290935e+00 -3.990567e-02 -1.317273e+00 -1.262485e+00 5.062522e+01 -7.841099e-01 -1.101884e+00 -6.942291e-01 -3.383823e+00 -1.350036e+00 -1.186654e+00 1.083193e+00 4.853586e-02 8.484909e-01 1.236101e+00 8.821940e-01 9.892297e-01 6.185771e+00 1.026563e+00 7.344482e-01 8.893790e-01 6.671054e-02 -1.256802e+00 -6.974839e-01 -6.634959e-01 -4.775600e-01 -7.365570e-01 -4.278012e-01 -7.706634e-01 -4.725669e-02 -4.575458e-01
<VARIANCE> 39
 2.064678e+01 2.429562e+01 3.034446e+01 3.893867e+01 3.435247e+01 3.336332e+01 3.106424e+01 3.536362e+01 2.955513e+01 2.423617e+01 2.220062e+01 2.046289e+01 9.118387e+01 3.916771e+00 3.604609e+00 3.852009e+00 3.745258e+00 4.224222e+00 4.380339e+00 4.372302e+00 5.616825e+00 3.781264e+00 3.523568e+00 3.363279e+00 2.794558e+00 9.139401e+00 5.372244e-01 6.197737e-01 9.996433e-01 8.842637e-01 1.064960e+00 8.909174e-01 1.129928e+00 1.095728e+00 8.635673e-01 7.639596e-01 6.782276e-01 6.895919e-01 1.428283e+00
<GCONST> 1.328181e+02
<MIXTURE> 3 2.336994e-01
<MEAN> 39
 -2.141083e+01 -1.392599e+00 -5.996328e+00 -4.354087e-01 -2.827739e+00 -3.268625e-01 -1.889941e+00 -7.054334e-01 -1.708940e+00 -2.789408e-01 -3.346888e-01 -1.319116e-01 2.954640e+01 8.565719e-02 -1.177722e+00 -5.028337e-01 -2.095476e+00 6.695517e-02 -6.547807e-01 4.634893e-01 -3.541146e-01 2.294631e-01 5.441025e-01 2.323447e-01 2.208135e-01 4.415291e+00 3.727046e-01 1.884924e-01 2.654720e-01 -8.212268e-01 -5.622382e-01 -7.447213e-01 -1.770123e-01 -5.471066e-01 -2.904654e-01 -2.090938e-01 -3.658661e-01 -1.077377e-01 2.057381e+00
<VARIANCE> 39
 1.617617e+00 3.116161e+00 4.046840e+00 5.401090e+00 6.116224e+00 9.064419e+00 9.860432e+00 1.075496e+01 1.167543e+01 1.030524e+01 8.373852e+00 9.637663e+00 3.177328e+00 1.110575e+00 1.520480e+00 1.639850e+00 3.768581e+00 1.408597e+00 2.595691e+00 2.274730e+00 2.556963e+00 2.500585e+00 2.157266e+00 2.562443e+00 1.804062e+00 1.396401e+01 2.675472e-01 3.132031e-01 3.247944e-01 3.872359e-01 3.849498e-01 3.876492e-01 4.186380e-01 5.114594e-01 4.119175e-01 3.185688e-01 3.586513e-01 3.571980e-01 7.747378e-01
<GCONST> 9.431353e+01
<STATE> 4
<NUMMIXES> 2
<MIXTURE> 1 3.817590e-01
<MEAN> 39
 -1.314494e+01 -4.869528e+00 3.328723e-03 -1.208004e+01 -1.231521e+01 -9.166609e+00 -8.260740e-01 -3.137331e+00 -6.961347e+00 -1.566148e+00 -3.677081e+00 8.763227e-01 5.228086e+01 7.548280e-01 -6.693117e-01 1.701058e-01 -2.944088e-01 -1.100355e+00 1.494406e-01 1.045867e+00 5.488736e-01 -1.214779e-01 -4.227644e-01 -5.225462e-01 6.995167e-01 -4.019269e-01 -1.500185e-01 1.379505e-01 -3.914000e-01 5.520447e-01 5.991185e-01 4.345492e-01 -6.602586e-02 2.280965e-02 1.147804e-01 -1.713107e-01 -1.271101e-01 -1.852478e-01 -8.778896e-01
<VARIANCE> 39
 2.949002e+01 2.610511e+01 3.646890e+01 4.391705e+01 5.163831e+01 6.013509e+01 5.705813e+01 6.880509e+01 3.932256e+01 4.360740e+01 4.115746e+01 2.869793e+01 6.909400e+01 3.229049e+00 2.958785e+00 4.548492e+00 5.525734e+00 7.520851e+00 6.684127e+00 4.867898e+00 6.299753e+00 3.622974e+00 4.776632e+00 3.735400e+00 2.841432e+00 6.190897e+00 5.036962e-01 5.692845e-01 6.420040e-01 8.667628e-01 9.874494e-01 1.229796e+00 9.520315e-01 1.071227e+00 6.428759e-01 9.533033e-01 7.713816e-01 5.831890e-01 9.177575e-01
<GCONST> 1.376374e+02
<MIXTURE> 2 6.182408e-01
<MEAN> 39
 -2.089111e+01 -3.800701e-02 -5.749081e+00 -1.182037e+01 -7.048452e+00 -7.637358e+00 -1.092101e+00 -8.285447e+00 -3.311755e+00 -7.575557e-01 -2.017522e+00 -1.438891e+00 5.930565e+01 2.054974e+00 7.459190e-01 2.636500e+00 -2.939697e+00 -4.135543e+00 -2.601980e+00 -1.843937e+00 -1.988094e+00 -1.750181e+00 -1.665394e-01 -1.534014e+00 2.529285e-01 3.982541e+00 1.032812e+00 -3.970539e-02 1.096662e+00 2.523105e-01 -5.664603e-01 1.964243e-01 -9.587694e-01 2.930360e-01 -6.014709e-01 -1.509328e-01 -7.521834e-01 -2.923132e-02 -1.997973e+00
<VARIANCE> 39
 1.849375e+01 3.672094e+01 3.579805e+01 2.119209e+01 3.324176e+01 3.457764e+01 2.596935e+01 4.168063e+01 3.473577e+01 2.753087e+01 2.354737e+01 1.756440e+01 1.124108e+01 2.744615e+00 3.580948e+00 4.561229e+00 3.907647e+00 3.387297e+00 3.289204e+00 3.979618e+00 6.550537e+00 3.683313e+00 4.418365e+00 2.788428e+00 3.185010e+00 9.540848e+00 4.466040e-01 7.202624e-01 9.021637e-01 6.059660e-01 9.456298e-01 7.965570e-01 8.460897e-01 1.021364e+00 1.005310e+00 7.994048e-01 6.345018e-01 4.862615e-01 3.702658e-01
<GCONST> 1.276818e+02
<TRANSP> 5
 0.000000e+00 1.000000e+00 0.000000e+00 0.000000e+00 0.000000e+00
 0.000000e+00 7.126224e-01 2.873776e-01 0.000000e+00 0.000000e+00
 0.000000e+00 0.000000e+00 6.686708e-01 3.313292e-01 0.000000e+00
 0.000000e+00 0.000000e+00 0.000000e+00 5.248511e-01 4.751489e-01
 0.000000e+00 0.000000e+00 0.000000e+00 0.000000e+00 0.000000e+00
<ENDHMM>
~h "f"
<BEGINHMM>
<NUMSTATES> 5
<STATE> 2
<NUMMIXES> 2
<MIXTURE> 1 4.019158e-01
<MEAN> 39
 -1.594291e+01 -3.524860e+00 -4.143187e+00 -3.674551e+00 -2.443358e+00 -2.889096e+00 -2.012226e+00 -3.587332e+00 -4.996050e+00 -6.105921e+00 -6.418239e+00 -1.432300e+00 5.288138e+01 -4.956468e+00 6.465464e-01 7.998683e-01 2.246363e+00 1.247468e+00 1.360694e+00 2.074401e-01 1.470383e+00 1.173212e+00 1.660577e+00 3.230092e+00 3.131441e-01 -1.757386e+00 1.222706e-02 -1.014207e+00 -7.457693e-01 -1.027059e+00 -6.077595e-01 -2.121814e-01 1.685036e-01 3.806540e-01 1.786032e-01 3.659650e-01 -1.550210e-01 2.659545e-01 4.959091e-01
<VARIANCE> 39
 3.364400e+01 1.034680e+01 1.567017e+01 1.327349e+01 1.274639e+01 2.031751e+01 1.926197e+01 1.480816e+01 1.776802e+01 1.878905e+01 2.299200e+01 1.235026e+01 1.790816e+01 1.636744e+00 1.897386e+00 3.297702e+00 2.644297e+00 3.578720e+00 3.962549e+00 3.121743e+00 4.412449e+00 2.711812e+00 3.929625e+00 2.446342e+00 2.378151e+00 1.416409e+00 6.119466e-01 3.398283e-01 3.548450e-01 4.557788e-01 4.136451e-01 6.315622e-01 5.110322e-01 6.733147e-01 4.364111e-01 5.972283e-01 5.729621e-01 3.125588e-01 2.083460e-01
<GCONST> 1.110363e+02
<MIXTURE> 2 5.980840e-01
<MEAN> 39
 -2.341170e+01 -6.277840e+00 -6.051412e+00 -4.360335e+00 -3.354401e+00 -1.532958e+00 -3.156579e-01 4.668223e-01 -1.094963e+00 -1.114801e+00 -9.723768e-01 3.297837e-01 4.785036e+01 -2.178929e+00 -7.961037e-01 -7.457515e-01 -3.959594e-01 -2.880402e-01 1.791782e-01 2.284240e-01 5.513579e-01 1.018519e+00 1.268540e+00 1.006363e+00 3.004264e-01 -3.488001e-01 8.853076e-01 -1.091383e-01 -2.188731e-01 -5.131044e-01 -3.352580e-01 -3.601100e-01 -1.941665e-01 -4.087455e-01 -3.376020e-01 -3.212835e-01 -6.759146e-01 -1.036747e-01 2.879000e-01
<VARIANCE> 39
 1.431608e+01 1.166088e+01 1.368773e+01 1.276678e+01 1.481941e+01 1.382370e+01 1.365097e+01 1.678017e+01 1.435125e+01 1.550028e+01 1.425029e+01 1.197986e+01 3.869072e+01 2.404338e+00 1.327561e+00 1.355988e+00 1.277959e+00 1.657656e+00 1.930066e+00 2.145395e+00 2.286271e+00 1.761486e+00 2.234928e+00 2.910216e+00 1.706524e+00 3.143291e+00 5.932067e-01 2.994404e-01 3.486225e-01 4.239027e-01 3.820527e-01 4.453720e-01 4.394850e-01 5.752968e-01 4.564390e-01 4.417130e-01 4.284890e-01 3.329588e-01 2.895535e-01
<GCONST> 1.039226e+02
<STATE> 3
<NUMMIXES> 2
<MIXTURE> 1 5.606647e-01
<MEAN> 39
 -2.515082e+01 -5.965090e+00 -7.733144e+00 -6.029229e+00 -5.295386e+00 -3.274733e+00 -1.914656e+00 -1.268162e+00 -2.495654e+00 -1.344609e+00 -1.771966e+00 -2.732940e-01 4.700826e+01 -1.660409e-01 -1.991580e-02 6.254770e-03 4.662018e-02 6.033889e-02 6.903142e-02 -3.027876e-02 -8.612870e-02 -1.710423e-01 1.388049e-01 6.202667e-03 2.045374e-02 1.557468e-01 2.261422e-01 -2.101012e-02 3.033994e-02 1.535722e-02 1.059983e-01 1.448163e-02 9.488077e-02 6.822620e-02 5.779060e-02 9.881008e-03 -3.613795e-02 5.883890e-02 1.927571e-01
<VARIANCE> 39
 5.917514e+00 1.008161e+01 9.570601e+00 8.637193e+00 1.222475e+01 1.132865e+01 1.347215e+01 1.263666e+01 1.634806e+01 1.145061e+01 1.377950e+01 1.030787e+01 3.025126e+01 4.642833e-01 4.674637e-01 6.470300e-01 8.647627e-01 1.048819e+00 1.229016e+00 1.174474e+00 1.334523e+00 1.723926e+00 1.406663e+00 1.496741e+00 1.274665e+00 1.049232e+00 2.000000e-01 2.000000e-01 2.000000e-01 2.000000e-01 2.366085e-01 2.921098e-01 2.658834e-01 2.765117e-01 3.708979e-01 2.702870e-01 3.030889e-01 2.468704e-01 2.000000e-01
<GCONST> 8.579910e+01
<MIXTURE> 2 4.393341e-01
<MEAN> 39
 -2.636384e+01 -8.316952e+00 -8.114292e+00 -6.376794e+00 -4.300699e+00 -2.721333e+00 -8.919610e-01 -3.335301e-02 -1.128613e+00 4.334589e-01 -3.084294e-01 1.006490e+00 5.079935e+01 4.384189e-01 -1.304724e-01 -2.777576e-01 -5.919048e-01 -3.795230e-01 -4.550159e-01 -1.718161e-01 -1.296487e-01 -6.655160e-02 -8.143966e-02 -1.686360e-01 3.645999e-02 3.975282e-01 9.792101e-01 1.774808e-01 5.579109e-02 -2.238360e-01 -2.199184e-01 -2.119562e-01 -1.649138e-01 -2.505180e-01 -3.117696e-01 -3.376563e-01 -4.358075e-01 -1.683528e-01 -6.311014e-02
<VARIANCE> 39
 1.220030e+01 9.301778e+00 1.157748e+01 1.586100e+01 1.403406e+01 1.417781e+01 1.530248e+01 1.329479e+01 1.371653e+01 1.161593e+01 1.151414e+01 1.161707e+01 1.532761e+01 2.320872e+00 1.040927e+00 1.380846e+00 1.288908e+00 1.523952e+00 1.130116e+00 1.540419e+00 1.606249e+00 1.867755e+00 1.549302e+00 1.431407e+00 1.165363e+00 2.574606e+00 4.241109e-01 2.000000e-01 3.491001e-01 3.727401e-01 3.417403e-01 2.981983e-01 3.825785e-01 3.933359e-01 4.214391e-01 4.094241e-01 3.838136e-01 2.881124e-01 2.819938e-01
<GCONST> 9.644602e+01
<STATE> 4
<NUMMIXES> 2
<MIXTURE> 1 3.178233e-01
<MEAN> 39
 -1.182948e+01 -7.798090e+00 -1.298227e+01 -1.411690e+01 -9.297685e+00 -4.024044e+00 -5.003960e-01 -7.232338e-01 -9.893439e-02 1.995829e+00 -5.902738e+00 -2.785837e+00 4.583762e+01 4.979690e-01 5.365136e-01 -6.986932e-02 1.889692e-02 4.496585e-01 1.350338e+00 4.339712e-01 5.427037e-01 -4.020954e-02 1.992642e-01 -6.333562e-01 -7.391379e-01 -2.100851e+00 -9.247034e-01 1.572924e-01 5.960082e-01 8.548576e-01 6.509171e-01 3.766018e-01 -8.609224e-02 -9.107763e-03 -3.245914e-01 -3.689711e-01 4.678179e-01 2.840277e-01 3.416999e-02
<VARIANCE> 39
 5.631455e+01 2.935500e+01 4.855414e+01 5.994751e+01 5.353072e+01 4.452476e+01 4.737783e+01 7.116224e+01 8.518380e+01 7.209304e+01 5.462787e+01 4.026293e+01 9.434861e+01 8.155398e+00 3.449367e+00 5.305316e+00 9.086168e+00 5.330573e+00 3.768253e+00 3.336949e+00 5.852973e+00 6.307940e+00 6.902704e+00 5.246105e+00 3.589334e+00 1.032009e+01 1.515594e+00 6.092197e-01 9.027526e-01 1.344907e+00 1.096350e+00 1.122544e+00 9.361448e-01 1.399059e+00 1.241268e+00 1.366674e+00 9.162695e-01 7.969916e-01 2.303206e+00
<GCONST> 1.477967e+02
<MIXTURE> 2 6.821759e-01
<MEAN> 39
 -2.090538e+01 -4.854034e+00 -6.820940e+00 -5.676049e+00 -3.598358e+00 -2.065123e+00 -1.097050e+00 -4.125748e-01 -2.337263e+00 -1.286825e+00 -1.905006e+00 4.058558e-01 4.511644e+01 3.209153e+00 -5.520248e-01 -3.454339e-01 -1.748100e+00 -8.077682e-01 -1.105881e+00 -6.941996e-01 -6.826386e-01 -9.059135e-01 -2.869144e-01 -1.266937e+00 -1.714319e-01 1.650847e+00 7.166618e-01 -4.830635e-01 -2.677752e-01 -8.990436e-01 -3.598187e-01 -2.147562e-01 -1.592091e-01 1.602818e-03 -1.054984e-01 2.587394e-01 -4.291715e-01 -2.048864e-01 5.982063e-01
<VARIANCE> 39
 2.567863e+01 2.026950e+01 2.092645e+01 2.309379e+01 1.945872e+01 1.755085e+01 1.683408e+01 1.340096e+01 1.797159e+01 1.457086e+01 1.695795e+01 1.338792e+01 9.462669e+01 8.038935e+00 3.647204e+00 5.053689e+00 5.904366e+00 5.413651e+00 4.111492e+00 3.857313e+00 4.106982e+00 4.053482e+00 3.928621e+00 4.187870e+00 2.131597e+00 8.236402e+00 7.334321e-01 6.062326e-01 6.853688e-01 8.102495e-01 7.840128e-01 8.328764e-01 5.242838e-01 6.444548e-01 8.067001e-01 5.979849e-01 5.146105e-01 3.353794e-01 1.833925e+00
<GCONST> 1.258231e+02
<TRANSP> 5
 0.000000e+00 1.000000e+00 0.000000e+00 0.000000e+00 0.000000e+00
 0.000000e+00 6.725551e-01 3.274449e-01 0.000000e+00 0.000000e+00
 0.000000e+00 0.000000e+00 8.498524e-01 1.501475e-01 0.000000e+00
 0.000000e+00 0.000000e+00 0.000000e+00 7.458336e-01 2.541663e-01
 0.000000e+00 0.000000e+00 0.000000e+00 0.000000e+00 0.000000e+00
<ENDHMM>
~h "g"
<BEGINHMM>
<NUMSTATES> 5
<STATE> 2
<MEAN> 39
 -1.405191e+01 8.111969e-01 -1.589518e+00 -1.883802e+00 -6.204365e+00 -6.348049e+00 -6.744208e+00 -7.240180e+00 -5.474318e+00 -3.479852e+00 -7.383561e+00 -4.997521e+00 3.876852e+01 -5.946854e-01 -1.664883e+00 -1.396301e+00 -5.945540e-01 1.940801e+00 1.515732e-01 -6.883125e-02 6.303645e-01 1.045138e+00 -3.232549e-01 3.171732e-01 2.755181e-01 1.456366e+00 2.210415e-01 -8.059702e-01 -4.456834e-01 -1.068699e+00 -3.070661e-01 -3.756394e-01 1.465547e-01 7.362021e-02 8.444266e-02 4.152495e-01 1.595354e-01 4.631845e-01 1.390653e+00
<VARIANCE> 39
 4.022970e+01 4.857723e+01 4.434843e+01 3.496894e+01 4.484334e+01 5.541589e+01 5.160749e+01 5.403118e+01 3.713526e+01 4.341415e+01 4.189837e+01 3.773724e+01 5.858773e+01 4.499130e+00 1.090287e+01 4.013371e+00 8.707877e+00 9.518358e+00 6.417299e+00 5.211065e+00 3.862229e+00 3.766821e+00 6.200237e+00 4.104900e+00 5.331812e+00 1.810571e+01 7.063836e-01 1.524839e+00 5.910785e-01 1.153312e+00 1.372792e+00 9.427299e-01 8.562437e-01 8.768304e-01 6.047205e-01 9.420443e-01 7.783401e-01 1.010803e+00 1.963905e+00
<GCONST> 1.444032e+02
<STATE> 3
<MEAN> 39
 -1.444337e+01 -1.177573e+01 -1.240520e+01 -1.154627e+01 -3.522217e-02 -8.076944e+00 -4.564210e+00 -4.394035e+00 -1.316957e+00 3.933263e-01 -4.657371e+00 1.101574e+00 5.372171e+01 1.575157e+00 -1.772745e-01 -5.521582e-01 -2.199601e+00 -1.275390e+00 -1.728563e+00 -6.813487e-01 -3.691346e-01 -4.022788e-02 -1.066494e-03 -8.948044e-02 3.262687e-01 3.483809e+00 7.211379e-01 1.240719e+00 9.000121e-01 3.592560e-01 -1.173509e+00 -2.993368e-01 -3.491158e-01 -2.277676e-01 -7.625185e-01 -7.706911e-02 -5.780679e-02 -5.799062e-01 -9.239947e-01
<VARIANCE> 39
 2.863692e+01 5.108734e+01 8.395570e+01 4.954091e+01 8.675858e+01 5.851171e+01 3.499621e+01 4.839042e+01 3.431064e+01 4.799702e+01 3.024324e+01 2.803938e+01 2.514234e+01 3.134753e+00 8.060947e+00 7.563432e+00 8.123345e+00 7.579806e+00 5.339005e+00 3.443233e+00 5.550070e+00 5.040261e+00 4.329458e+00 4.612660e+00 4.243166e+00 8.324752e+00 5.314636e-01 1.192585e+00 7.584694e-01 1.144137e+00 1.310625e+00 1.185798e+00 6.547180e-01 1.060881e+00 6.898555e-01 1.108968e+00 7.818078e-01 7.213475e-01 8.826500e-01
<GCONST> 1.413273e+02
<STATE> 4
<MEAN> 39
 -8.073498e+00 -3.812148e+00 -3.964982e+00 -1.466349e+01 -1.084688e+01 -1.376622e+01 -9.438150e+00 -7.942583e+00 -5.744835e+00 -7.763590e-01 -5.811525e+00 -1.671107e+00 5.661431e+01 2.708351e+00 4.122578e-01 4.679379e-01 -1.508281e+00 -2.188232e+00 -1.628076e+00 -5.968413e-01 2.968352e-01 -1.577776e+00 9.600809e-01 -1.728214e-01 -5.333195e-01 1.239560e+00 -3.320308e-01 -7.493713e-01 -5.806990e-01 3.252073e-01 6.360842e-01 5.716044e-01 6.475908e-01 6.952803e-01 9.972094e-02 2.177935e-01 6.342062e-02 3.003851e-02 -4.298995e-01
<VARIANCE> 39
 2.792105e+01 4.306843e+01 8.351385e+01 9.481599e+01 7.800693e+01 6.411703e+01 4.423195e+01 4.912267e+01 4.672959e+01 4.176148e+01 4.423621e+01 2.402416e+01 3.232957e+01 2.009357e+00 4.045897e+00 3.296527e+00 4.683595e+00 4.979894e+00 4.700306e+00 4.026633e+00 6.940721e+00 6.904118e+00 4.670981e+00 4.771927e+00 4.984766e+00 1.481735e+00 3.481503e-01 5.053627e-01 4.506511e-01 7.264279e-01 6.335694e-01 6.216218e-01 5.791245e-01 6.686183e-01 7.169787e-01 7.003391e-01 5.225419e-01 6.572073e-01 5.581912e-01
<GCONST> 1.332446e+02
<TRANSP> 5
 0.000000e+00 1.000000e+00 0.000000e+00 0.000000e+00 0.000000e+00
 0.000000e+00 6.137682e-01 3.862318e-01 0.000000e+00 0.000000e+00
 0.000000e+00 0.000000e+00 5.881957e-01 4.118043e-01 0.000000e+00
 0.000000e+00 0.000000e+00 0.000000e+00 4.921505e-01 5.078496e-01
 0.000000e+00 0.000000e+00 0.000000e+00 0.000000e+00 0.000000e+00
<ENDHMM>
~h "k"
<BEGINHMM>
<NUMSTATES> 5
<STATE> 2
<NUMMIXES> 2
<MIXTURE> 1 3.620654e-01
<MEAN> 39
 -1.848685e+01 -2.828780e+00 -4.046084e+00 -2.033224e+00 -3.660420e+00 -5.049530e+00 -2.927459e+00 -4.478803e+00 -3.685755e+00 -2.683916e-01 -2.917652e+00 -5.948870e-01 3.715865e+01 -2.284028e+00 -4.746851e-01 -8.524547e-01 1.919926e+00 1.673130e+00 1.889803e+00 2.548658e-01 1.843815e+00 1.728530e+00 -2.427798e-01 1.869976e+00 4.415505e-01 -2.511416e+00 4.357599e-01 -5.562285e-01 -2.351874e-01 -1.111552e+00 -5.712975e-01 -1.250914e-01 6.725018e-02 1.098574e-01 -6.234794e-02 1.173089e-01 -3.428457e-01 1.049359e-01 1.611059e+00
<VARIANCE> 39
 2.371484e+01 4.689671e+01 3.104875e+01 5.000128e+01 6.067299e+01 3.843033e+01 4.678003e+01 4.478930e+01 4.841584e+01 4.470847e+01 2.729748e+01 2.713694e+01 4.902015e+01 3.425266e+00 6.504403e+00 5.960949e+00 1.088334e+01 6.666483e+00 6.109765e+00 7.235161e+00 6.327046e+00 4.475814e+00 6.133448e+00 4.164898e+00 3.361693e+00 1.764901e+01 5.524595e-01 1.383390e+00 7.239493e-01 1.515651e+00 8.689076e-01 1.055868e+00 8.873141e-01 1.060624e+00 9.895746e-01 1.120217e+00 5.774846e-01 7.099645e-01 2.255939e+00
<GCONST> 1.429519e+02
<MIXTURE> 2 6.379346e-01
<MEAN> 39
 -2.139637e+01 -1.631060e+00 -5.447400e+00 -5.894721e-01 -3.034676e+00 -7.901606e-01 -1.858005e+00 -6.847321e-01 -1.093020e+00 -2.021357e-01 -5.991670e-01 -6.506309e-02 2.962810e+01 -1.596960e-01 -1.619313e+00 -4.090505e-01 -9.574613e-01 -1.221079e-02 -5.995895e-03 2.501159e-01 9.940949e-02 5.659893e-01 -7.923756e-02 1.166083e-01 3.145362e-01 2.130813e+00 4.533995e-01 -4.808464e-01 -2.240285e-02 -9.375442e-01 -4.428731e-01 -6.414632e-01 8.941378e-02 -3.573992e-01 -2.209697e-02 -3.126557e-03 -4.277367e-01 1.405622e-01 2.179916e+00
<VARIANCE> 39
 1.451436e+00 2.238599e+00 4.116286e+00 6.155424e+00 7.955596e+00 9.308572e+00 1.045702e+01 1.155884e+01 1.112135e+01 1.189921e+01 1.141796e+01 1.073410e+01 5.028007e+00 1.847379e+00 4.151952e+00 3.272583e+00 5.286534e+00 3.455111e+00 4.076546e+00 3.052188e+00 4.058256e+00 3.319973e+00 2.611028e+00 2.383535e+00 1.800128e+00 1.515089e+01 3.465366e-01 4.699642e-01 6.285465e-01 6.753102e-01 5.698411e-01 6.982223e-01 5.567353e-01 7.104527e-01 5.237534e-01 5.075645e-01 4.032686e-01 3.461186e-01 1.068623e+00
<GCONST> 1.051319e+02
<STATE> 3
<NUMMIXES> 2
<MIXTURE> 1 5.158762e-01
<MEAN> 39
 -2.249369e+01 -7.718319e+00 -4.246515e+00 -1.542718e+01 -6.258882e+00 -3.011715e+00 -9.821151e-01 -2.590019e+00 3.272236e+00 1.160296e-03 -9.360799e-01 2.399003e+00 5.710529e+01 -3.930480e-02 1.376948e+00 8.330313e-01 -1.330921e+00 -1.943001e-01 4.831692e-01 7.019876e-01 4.603651e-02 3.217595e-01 2.159251e-02 2.796347e-02 4.000766e-02 2.143494e+00 2.779693e-01 5.279226e-01 2.596323e-01 9.288930e-01 1.861656e-01 2.731884e-01 1.000290e-01 -1.186024e-01 -6.987752e-01 -1.832606e-01 -3.388854e-01 -2.627470e-01 -1.781980e+00
<VARIANCE> 39
 1.311441e+01 3.444517e+01 1.641163e+01 2.837056e+01 2.441763e+01 2.903101e+01 3.198219e+01 2.804684e+01 2.196478e+01 2.564575e+01 1.864173e+01 1.507260e+01 1.398927e+01 1.119608e+00 3.777744e+00 1.923185e+00 5.488641e+00 2.456818e+00 2.341350e+00 2.165329e+00 2.185929e+00 2.396839e+00 2.286942e+00 1.981330e+00 1.804441e+00 1.309683e+01 2.217048e-01 1.141528e+00 3.395951e-01 5.029180e-01 6.053389e-01 6.014491e-01 5.075296e-01 6.881137e-01 5.079208e-01 6.088877e-01 5.598032e-01 4.566034e-01 9.434311e-01
<GCONST> 1.167578e+02
<MIXTURE> 2 4.841235e-01
<MEAN> 39
 -1.727297e+01 -1.138371e+01 -1.132099e+01 -4.829036e+00 -1.667772e+00 -6.403316e+00 -8.457876e-01 -3.301948e-01 -2.011313e-02 -3.391233e-01 -2.240173e+00 1.659273e+00 5.060193e+01 3.465733e-01 -9.457005e-01 -4.578941e-01 -1.264574e+00 -7.217021e-01 -7.842637e-01 3.562459e-01 1.740452e-02 3.559639e-01 -1.163489e-01 -3.198682e-01 2.711061e-01 3.704338e+00 1.749795e-02 8.502129e-01 4.392903e-01 -5.588646e-02 -2.286056e-01 1.751876e-01 -1.426038e-01 -3.285945e-01 -2.874202e-01 -9.416830e-02 -5.275538e-02 -2.213590e-01 -6.670130e-01
<VARIANCE> 39
 2.693445e+01 4.196355e+01 7.124445e+01 5.316810e+01 3.989189e+01 5.679359e+01 3.924418e+01 3.895716e+01 3.653379e+01 2.878783e+01 2.148673e+01 1.707015e+01 6.144815e+01 2.546494e+00 4.873165e+00 5.238786e+00 5.493062e+00 3.439155e+00 4.741478e+00 3.107332e+00 4.436069e+00 3.409054e+00 2.920753e+00 2.526647e+00 2.373422e+00 1.386794e+01 7.531433e-01 9.849917e-01 1.069167e+00 8.406622e-01 6.151235e-01 1.000162e+00 6.154078e-01 8.486629e-01 6.862884e-01 5.559698e-01 6.085683e-01 4.086821e-01 1.355715e+00
<GCONST> 1.334069e+02
<STATE> 4
<NUMMIXES> 2
<MIXTURE> 1 3.596078e-01
<MEAN> 39
 -1.518960e+01 -5.312717e+00 -4.862053e+00 -1.142062e+01 -1.176995e+01 -6.595230e+00 6.382084e-01 -6.977079e+00 -3.432594e+00 -4.051840e+00 -6.295569e+00 -2.758592e+00 5.523360e+01 1.014294e+00 5.574065e-02 -3.939154e-01 -4.658625e-01 -8.345034e-01 -4.655578e-01 -6.172683e-02 -2.807054e-02 -3.740668e-01 -3.656497e-01 -3.440161e-01 -4.098104e-01 4.361309e-01 -3.131819e-01 -2.804570e-01 -1.059839e-01 1.004821e-01 4.921581e-01 3.542928e-01 2.568468e-01 5.104465e-01 2.614993e-01 3.092367e-01 3.150177e-01 3.695554e-01 -2.744316e-01
<VARIANCE> 39
 4.409995e+01 2.067113e+01 3.590859e+01 6.750667e+01 7.780804e+01 6.679187e+01 4.880988e+01 5.432984e+01 4.442867e+01 3.532528e+01 4.578304e+01 4.049861e+01 7.385568e+01 3.717148e+00 3.006322e+00 2.853706e+00 3.635957e+00 5.046600e+00 6.150012e+00 4.039072e+00 3.250339e+00 3.506525e+00 2.990005e+00 2.518291e+00 2.728000e+00 4.765243e+00 3.089464e-01 4.938121e-01 4.611668e-01 4.756755e-01 5.926770e-01 6.142260e-01 7.114683e-01 8.029588e-01 6.935394e-01 5.306959e-01 5.644832e-01 6.834608e-01 5.034630e-01
<GCONST> 1.309060e+02
<MIXTURE> 2 6.403918e-01
<MEAN> 39
 -1.877034e+01 -5.836258e+00 -1.692150e+00 -1.434163e+01 -6.155381e+00 2.141975e-01 2.802060e+00 -5.252582e+00 -2.132329e+00 -2.093065e+00 -6.180850e+00 9.410353e-01 5.525914e+01 2.107126e+00 -2.377299e-01 1.190083e-01 -7.910060e-01 -1.683144e+00 -5.842272e-01 -6.339520e-01 -1.575989e+00 -2.605430e+00 -9.975126e-01 -2.400579e+00 -1.233379e+00 4.533468e-01 4.974777e-01 -3.387184e-01 -4.786619e-01 -3.169891e-01 -5.777901e-01 -6.479228e-01 -6.028321e-01 1.349385e-01 -1.419329e-01 1.289331e-01 -1.165639e-01 -2.812707e-01 4.748344e-01
<VARIANCE> 39
 2.009724e+01 2.653295e+01 3.855558e+01 4.622469e+01 4.359478e+01 5.123997e+01 5.048314e+01 3.359334e+01 4.380658e+01 2.710953e+01 3.749847e+01 2.556865e+01 1.434164e+01 2.326053e+00 2.676428e+00 2.618680e+00 2.435109e+00 5.046979e+00 4.706952e+00 5.231400e+00 2.875273e+00 3.769517e+00 3.245741e+00 2.670512e+00 3.118498e+00 1.375405e+00 3.380575e-01 6.453191e-01 3.768491e-01 4.616774e-01 6.388990e-01 6.409150e-01 6.383964e-01 7.262336e-01 9.062814e-01 6.698375e-01 7.116117e-01 5.038908e-01 2.652164e-01
<GCONST> 1.239155e+02
<TRANSP> 5
 0.000000e+00 1.000000e+00 0.000000e+00 0.000000e+00 0.000000e+00
 0.000000e+00 7.359640e-01 2.640360e-01 0.000000e+00 0.000000e+00
 0.000000e+00 0.000000e+00 7.473608e-01 2.526393e-01 0.000000e+00
 0.000000e+00 0.000000e+00 0.000000e+00 7.049883e-01 2.950117e-01
 0.000000e+00 0.000000e+00 0.000000e+00 0.000000e+00 0.000000e+00
<ENDHMM>
~h "l"
<BEGINHMM>
<NUMSTATES> 5
<STATE> 2
<NUMMIXES> 2
<MIXTURE> 1 6.211817e-01
<MEAN> 39
 -3.057940e+00 -6.579434e+00 -1.751693e+01 -2.604195e+01 -2.911223e+00 1.504845e+00 -1.206034e+01 -2.140627e+00 -4.866621e+00 -3.007402e-01 -6.873940e+00 -2.056701e+00 5.957832e+01 3.837526e-01 1.292472e+00 -3.119517e-01 -8.210784e-01 2.103671e-02 6.203426e-01 -2.584650e-01 -4.953457e-01 -7.455332e-01 4.466613e-02 1.132081e+00 -2.379304e-01 -9.345647e-01 -8.158204e-02 -5.063144e-02 2.417711e-01 2.954732e-01 -2.273005e-01 -2.929082e-01 2.193530e-01 8.492924e-02 -1.232212e-01 -1.794295e-01 -9.697815e-03 6.602190e-02 -5.061564e-02
<VARIANCE> 39
 1.004539e+01 4.597301e+01 3.086377e+01 4.089814e+01 3.947744e+01 4.030270e+01 7.037513e+01 6.446321e+01 4.829097e+01 7.860035e+01 4.485016e+01 2.403407e+01 3.237483e+01 2.954003e-01 1.127102e+00 1.096750e+00 2.238691e+00 2.656468e+00 2.762493e+00 2.080586e+00 2.741072e+00 2.403014e+00 2.371493e+00 1.988274e+00 2.336480e+00 3.673603e-01 2.000000e-01 2.000000e-01 2.000000e-01 3.424660e-01 3.054532e-01 2.946848e-01 2.992789e-01 5.308966e-01 4.438390e-01 3.372742e-01 5.145240e-01 3.191672e-01 2.000000e-01
<GCONST> 1.097919e+02
<MIXTURE> 2 3.788184e-01
<MEAN> 39
 -4.777915e+00 1.951701e+00 -1.376935e+01 -1.785892e+01 -5.696039e+00 -7.144891e+00 -7.979036e+00 -9.611987e+00 -6.468756e+00 -6.192138e+00 -4.858613e+00 -3.008304e+00 5.196819e+01 1.346099e+00 6.755754e-01 -3.844349e-01 -8.237349e-01 -2.929141e-03 -5.521084e-01 -1.019662e+00 -1.024887e+00 -5.102762e-01 -2.063381e-03 -6.268134e-01 -2.841621e-01 2.466919e-01 -3.982873e-01 -5.185235e-01 7.300507e-02 1.388358e-01 2.642149e-01 3.656429e-01 1.053731e-01 5.103782e-01 2.715196e-01 4.060491e-01 1.262104e-01 7.524386e-02 -2.826928e-02
<VARIANCE> 39
 1.802265e+01 2.881870e+01 4.777303e+01 5.663696e+01 3.866522e+01 5.183818e+01 8.127954e+01 4.946508e+01 5.049353e+01 3.879848e+01 4.569231e+01 2.308952e+01 3.930249e+01 4.515403e+00 1.673666e+00 3.099327e+00 9.086955e+00 5.587039e+00 3.830465e+00 5.420810e+00 3.302497e+00 3.508108e+00 3.102484e+00 3.127275e+00 2.151473e+00 4.366991e+00 3.780333e-01 3.741149e-01 3.068177e-01 7.931008e-01 5.708772e-01 3.907272e-01 7.167827e-01 8.671321e-01 6.705435e-01 4.884190e-01 6.088233e-01 4.109373e-01 3.532512e-01
<GCONST> 1.281371e+02
<STATE> 3
<NUMMIXES> 2
<MIXTURE> 1 6.132210e-01
<MEAN> 39
 -2.891955e+00 1.624853e+00 -1.250026e+01 -2.274135e+01 -4.437609e+00 -7.072752e+00 -1.502730e+01 -7.136497e+00 -7.650244e+00 -2.552260e+00 -4.509125e+00 2.064451e-01 5.515384e+01 -9.585076e-02 -8.812420e-01 -5.037876e-01 -5.463355e-01 7.378398e-01 2.282969e-01 -1.482818e-01 9.234638e-01 6.061919e-01 5.155366e-01 -2.749475e-01 -2.167051e-01 9.623115e-01 -2.316537e-01 -5.484272e-01 3.621581e-03 3.164703e-01 -5.926090e-02 2.011059e-01 5.870698e-02 3.495986e-01 2.752300e-01 -3.955924e-02 -3.105251e-01 -1.762279e-01 2.574658e-01
<VARIANCE> 39
 8.004036e+00 2.170127e+01 3.277880e+01 6.340155e+01 3.340620e+01 9.238995e+01 6.363293e+01 5.781094e+01 6.228474e+01 6.028416e+01 2.909959e+01 2.715799e+01 1.898700e+01 5.448972e-01 1.779955e+00 1.377133e+00 2.337106e+00 2.180361e+00 2.787997e+00 2.080252e+00 3.216538e+00 3.013978e+00 3.016262e+00 1.435732e+00 1.595658e+00 9.702129e-01 2.000000e-01 2.795687e-01 2.447120e-01 5.514643e-01 5.387480e-01 6.174296e-01 6.045087e-01 7.368771e-01 6.941935e-01 7.613329e-01 3.482069e-01 3.574669e-01 2.000000e-01
<GCONST> 1.152888e+02
<MIXTURE> 2 3.867789e-01
<MEAN> 39
 -3.366338e+00 3.275005e-01 -1.446369e+01 -1.842227e+01 -5.411575e+00 -3.922736e+00 -1.255328e+01 -9.934096e+00 -6.875808e+00 -5.268625e+00 -4.482634e+00 -5.906162e+00 5.192625e+01 -2.888944e-01 -8.424297e-01 1.234809e-01 4.282898e-01 2.511225e-02 -2.834044e-01 -5.531294e-01 6.397884e-01 5.779486e-01 3.348290e-01 -4.230371e-01 -1.323069e-01 5.084727e-01 -7.190845e-01 -5.345501e-01 1.222911e-01 3.412972e-01 1.851692e-01 -4.008370e-02 5.864800e-01 8.804583e-01 4.124375e-01 1.472696e-01 -2.621667e-02 4.606843e-01 3.357269e-02
<VARIANCE> 39
 1.353973e+01 2.375586e+01 3.257421e+01 5.729708e+01 7.054499e+01 6.232360e+01 7.341484e+01 4.504061e+01 5.056395e+01 5.088390e+01 7.105905e+01 2.679442e+01 3.739411e+01 3.553059e+00 2.584738e+00 3.995684e+00 8.933123e+00 4.774547e+00 4.846210e+00 4.452909e+00 5.170812e+00 3.499284e+00 4.221792e+00 4.554037e+00 2.715109e+00 4.910024e+00 5.216828e-01 2.699112e-01 4.079044e-01 1.011755e+00 1.025582e+00 1.044836e+00 7.190237e-01 7.373664e-01 6.414450e-01 7.960741e-01 1.101256e+00 5.022008e-01 3.562282e-01
<GCONST> 1.336628e+02
<STATE> 4
<NUMMIXES> 2
<MIXTURE> 1 4.669708e-01
<MEAN> 39
 -4.280894e+00 -7.066523e+00 -1.638573e+01 -2.156223e+01 -1.666504e+00 -5.810582e+00 -1.468857e+01 -1.341002e+00 -1.413288e+00 -3.517799e-01 -9.688443e+00 -2.712010e+00 6.139928e+01 -5.471071e-01 -2.411024e+00 5.208999e-01 8.289565e-01 -8.911384e-02 -3.701760e-01 8.224304e-01 2.608198e+00 8.739802e-01 -1.209082e+00 -1.529169e+00 5.516270e-01 1.370036e+00 -6.339820e-02 1.984437e-01 5.548848e-01 2.155056e-01 -5.242921e-01 -1.804972e-01 5.634425e-01 -8.157182e-02 -5.907850e-01 -4.882059e-01 3.772728e-01 4.300563e-01 -3.393974e-01
<VARIANCE> 39
 6.884187e+00 3.083343e+01 2.814081e+01 4.002895e+01 4.172120e+01 8.325023e+01 6.533764e+01 5.588808e+01 4.717209e+01 6.231987e+01 3.548638e+01 2.995408e+01 1.501614e+01 4.969196e-01 1.920902e+00 2.357729e+00 3.163429e+00 4.621984e+00 6.450926e+00 3.830238e+00 4.745503e+00 4.112745e+00 4.609359e+00 3.030702e+00 3.263154e+00 1.018609e+00 2.000000e-01 3.269078e-01 2.695177e-01 5.118055e-01 5.845715e-01 5.803711e-01 5.732662e-01 6.728920e-01 6.955153e-01 6.735264e-01 4.999815e-01 4.202033e-01 2.000000e-01
<GCONST> 1.209218e+02
<MIXTURE> 2 5.330285e-01
<MEAN> 39
 -7.351313e+00 -9.537264e+00 -8.447652e+00 -1.602061e+01 -9.005038e+00 -1.008979e+01 -8.907110e+00 2.535012e+00 -5.321056e+00 -7.813412e+00 -8.509670e+00 8.483588e-01 6.020002e+01 -8.829660e-01 -4.461695e-01 1.811206e+00 2.761964e-01 -1.980834e+00 -1.602424e-02 1.620162e+00 1.942603e-01 -1.584062e+00 -1.373767e-01 1.030768e+00 4.763998e-01 -5.092637e-02 2.205406e-02 3.989685e-01 -1.346723e-02 -2.497516e-01 1.493627e-01 3.114366e-01 -1.704977e-01 -6.622322e-01 -6.494672e-02 6.326407e-01 2.401486e-01 -3.392973e-01 -2.731744e-01
<VARIANCE> 39
 1.137833e+01 3.616017e+01 5.333171e+01 2.957941e+01 1.050160e+02 6.404646e+01 7.534554e+01 7.449689e+01 5.543729e+01 6.370810e+01 3.350100e+01 3.602362e+01 4.708022e+01 1.160835e+00 2.266307e+00 2.246171e+00 4.310930e+00 4.290806e+00 2.940822e+00 3.084027e+00 5.970030e+00 3.769415e+00 4.559799e+00 2.262144e+00 2.839335e+00 1.717987e+00 2.000000e-01 3.408651e-01 3.067903e-01 2.873292e-01 6.962191e-01 5.436470e-01 6.726367e-01 1.054870e+00 8.425591e-01 5.648453e-01 6.847131e-01 4.965281e-01 2.000000e-01
<GCONST> 1.256954e+02
<TRANSP> 5
 0.000000e+00 1.000000e+00 0.000000e+00 0.000000e+00 0.000000e+00
 0.000000e+00 7.504088e-01 2.495912e-01 0.000000e+00 0.000000e+00
 0.000000e+00 0.000000e+00 7.132665e-01 2.867335e-01 0.000000e+00
 0.000000e+00 0.000000e+00 0.000000e+00 7.424918e-01 2.575082e-01
 0.000000e+00 0.000000e+00 0.000000e+00 0.000000e+00 0.000000e+00
<ENDHMM>
~h "m"
<BEGINHMM>
<NUMSTATES> 5
<STATE> 2
<NUMMIXES> 3
<MIXTURE> 1 5.156856e-01
<MEAN> 39
 -5.433021e+00 -1.875525e+00 -2.914251e+00 -4.162382e+00 -7.703136e+00 -1.527046e+01 -1.145201e+01 -8.730635e+00 -1.122565e+01 -2.906564e+00 -9.410786e+00 -6.094718e+00 4.814704e+01 -1.224463e-01 3.179398e-01 1.788477e-01 2.283435e-01 -5.856660e-02 1.057598e-01 -1.335652e-02 -6.746173e-02 -8.676916e-02 -4.129182e-01 4.828573e-02 1.252118e-01 -3.817143e-01 -3.786738e-02 -1.626485e-01 -1.722142e-01 -2.992655e-01 1.300547e-02 3.118990e-01 9.277827e-02 3.257861e-01 2.467827e-01 -2.717375e-01 1.222950e-01 7.731284e-02 1.226512e-01
<VARIANCE> 39
 4.871113e+00 2.093246e+01 2.321295e+01 2.793612e+01 4.794726e+01 6.005957e+01 6.258144e+01 3.285733e+01 6.905376e+01 4.249914e+01 5.235698e+01 4.644735e+01 1.947241e+01 2.000000e-01 4.937347e-01 6.617830e-01 7.642525e-01 7.632377e-01 1.245568e+00 1.079670e+00 1.191257e+00 1.199584e+00 1.343313e+00 1.246271e+00 1.015051e+00 3.927240e-01 2.000000e-01 2.000000e-01 2.338326e-01 2.551477e-01 2.417881e-01 3.268838e-01 3.077291e-01 3.612304e-01 4.088749e-01 3.941489e-01 3.489470e-01 3.561247e-01 2.000000e-01
<GCONST> 9.780939e+01
<MIXTURE> 2 2.111991e-01
<MEAN> 39
 -4.685428e+00 -1.800059e+00 -2.971234e+00 -4.687044e+00 -1.135561e+01 -1.566363e+01 -1.092787e+01 -1.056785e+01 -1.410208e+01 -2.032566e+00 -1.143564e+01 -6.837706e+00 4.841476e+01 3.303033e-01 5.163004e-01 3.060019e-01 6.134506e-01 1.600358e-01 -8.289185e-01 -4.975689e-01 -1.118229e+00 -6.851438e-01 7.013797e-01 1.749873e-01 -5.157521e-01 -2.217983e-01 -4.965580e-01 -4.468338e-01 -2.172907e-01 -6.243635e-01 3.512792e-01 7.854288e-01 3.989936e-01 7.303911e-01 6.056092e-01 -3.212294e-01 4.556685e-01 4.117799e-01 2.396116e-01
<VARIANCE> 39
 5.979363e+00 2.163283e+01 2.128624e+01 2.722361e+01 7.637551e+01 5.332471e+01 5.139316e+01 4.734977e+01 5.433567e+01 6.032090e+01 6.386415e+01 5.142746e+01 1.655328e+01 2.168138e+00 2.729972e+00 2.936022e+00 4.528812e+00 3.204259e+00 3.356655e+00 2.790507e+00 4.213890e+00 3.528216e+00 4.189816e+00 3.227273e+00 2.412310e+00 5.442663e+00 3.316642e-01 3.521867e-01 5.737210e-01 5.573670e-01 6.961283e-01 6.318880e-01 5.376941e-01 8.648126e-01 6.477793e-01 1.049038e+00 9.577090e-01 6.498621e-01 4.262625e-01
<GCONST> 1.270674e+02
<MIXTURE> 3 2.731147e-01
<MEAN> 39
 -4.782049e+00 -5.102793e+00 -4.744854e+00 -6.617835e+00 -9.430594e+00 -1.525020e+01 -1.298836e+01 -6.053641e+00 -1.082766e+01 -2.589785e+00 -1.171539e+01 -8.178109e+00 5.198998e+01 -3.936174e-01 1.790583e+00 1.557410e+00 2.156210e+00 -4.040633e-01 -1.246614e+00 -5.134978e-01 -2.300158e+00 -1.101638e+00 1.639360e+00 -1.019354e+00 -1.195692e+00 -1.974598e+00 -1.877324e-01 -3.973735e-01 -1.567493e-01 -5.150664e-01 -6.868042e-02 3.709909e-01 3.872291e-01 4.163695e-01 2.275276e-02 -4.899086e-01 3.405272e-01 3.934304e-01 4.928968e-01
<VARIANCE> 39
 6.203171e+00 1.859811e+01 2.949529e+01 3.424730e+01 6.289943e+01 6.601687e+01 6.722253e+01 4.553745e+01 4.470447e+01 4.947358e+01 5.437845e+01 4.494073e+01 1.917598e+01 5.030311e-01 1.363996e+00 2.755202e+00 2.188734e+00 3.049675e+00 3.515604e+00 3.481790e+00 3.556015e+00 3.144339e+00 4.765673e+00 5.134758e+00 3.922444e+00 9.165678e-01 2.000000e-01 2.000000e-01 4.469481e-01 3.588599e-01 3.581956e-01 4.186315e-01 4.506903e-01 4.952848e-01 3.932022e-01 6.162979e-01 7.074803e-01 5.107965e-01 2.000000e-01
<GCONST> 1.175981e+02
<STATE> 3
<NUMMIXES> 2
<MIXTURE> 1 3.605055e-01
<MEAN> 39
 -1.587156e+01 -5.384861e+00 -5.570604e+00 -3.205721e+00 -1.557507e+00 -4.686327e+00 -4.893920e+00 -7.310054e-01 -6.274701e+00 -8.890639e+00 -3.375897e+00 -1.972598e+00 3.871886e+01 -9.419999e-01 -3.824957e-01 -3.347629e-01 1.756180e-01 3.280317e-01 7.893149e-01 9.909748e-01 7.027189e-01 1.700876e-01 5.640851e-01 5.337434e-01 4.260343e-01 -1.023096e+00 1.769775e-01 3.801566e-02 -1.395202e-01 -1.790010e-01 -2.388872e-01 -1.255228e-01 -1.745584e-01 -7.735931e-02 1.362088e-01 2.918483e-01 -2.586669e-02 7.508194e-02 1.256994e-01
<VARIANCE> 39
 2.472520e+01 3.066722e+01 3.394294e+01 3.598512e+01 3.023532e+01 4.258335e+01 6.636543e+01 4.145206e+01 4.155587e+01 7.297461e+01 4.017246e+01 2.226843e+01 6.897204e+01 1.477668e+00 1.469827e+00 2.115641e+00 1.949909e+00 2.353187e+00 2.102628e+00 3.429503e+00 1.771725e+00 2.725220e+00 2.864070e+00 1.941941e+00 2.436643e+00 1.661435e+00 2.000000e-01 2.362030e-01 4.203875e-01 5.114998e-01 4.209033e-01 3.727103e-01 5.755838e-01 3.270143e-01 4.328302e-01 6.905808e-01 4.330346e-01 4.388506e-01 3.338278e-01
<GCONST> 1.171791e+02
<MIXTURE> 2 6.394939e-01
<MEAN> 39
 -5.699836e+00 -3.546383e+00 -3.613405e+00 -6.942681e+00 -8.525515e+00 -1.335623e+01 -1.136733e+01 -8.645711e+00 -1.229048e+01 -4.653016e+00 -1.051746e+01 -6.731297e+00 4.973210e+01 -5.691165e-01 -1.253274e+00 -6.194784e-01 -1.752909e+00 1.802514e-01 1.440203e+00 1.009910e+00 1.439027e+00 9.799103e-01 -1.118801e+00 1.128317e+00 6.887331e-01 8.866416e-01 -3.706336e-01 -3.839090e-01 -8.700112e-02 -5.020185e-01 1.024148e-01 5.217083e-01 4.645518e-01 4.873634e-01 3.045249e-01 4.365525e-02 2.740802e-01 2.833360e-01 1.378642e-01
<VARIANCE> 39
 8.059908e+00 2.868104e+01 2.866991e+01 3.298648e+01 6.658649e+01 5.335030e+01 7.013496e+01 6.113808e+01 6.002554e+01 6.497571e+01 5.497471e+01 4.239909e+01 2.641516e+01 1.367409e+00 2.563281e+00 3.533957e+00 4.387582e+00 4.408885e+00 4.091861e+00 3.720987e+00 5.614027e+00 5.298649e+00 5.291802e+00 5.486460e+00 4.396324e+00 4.485127e+00 2.286968e-01 3.769478e-01 6.208394e-01 8.550652e-01 5.720094e-01 5.803407e-01 6.009389e-01 9.837694e-01 9.314523e-01 8.240052e-01 9.013768e-01 7.776366e-01 5.157393e-01
<GCONST> 1.317580e+02
<STATE> 4
<NUMMIXES> 2
<MIXTURE> 1 4.353211e-01
<MEAN> 39
 -1.230431e+01 -2.816220e+00 -5.918984e+00 -8.701916e+00 -7.773927e+00 -7.028440e+00 -6.342947e+00 -6.192918e+00 -8.045294e+00 -4.048531e+00 -4.074805e+00 -4.141382e+00 4.132259e+01 -2.286124e+00 3.608324e-01 -3.640000e-02 9.353973e-01 1.699357e+00 1.930650e+00 1.237496e+00 1.249593e+00 1.872552e+00 1.109278e+00 1.084490e+00 7.823484e-01 -2.361135e+00 2.333701e-02 -1.927363e-01 1.451063e-01 1.653737e-01 3.118768e-02 -8.074823e-02 -5.310658e-02 1.865787e-01 4.366465e-02 1.271410e-01 -2.569198e-01 7.665395e-02 5.797858e-01
<VARIANCE> 39
 3.532875e+01 5.777543e+01 7.377971e+01 7.301875e+01 9.389359e+01 5.196311e+01 6.292224e+01 4.834216e+01 6.325821e+01 8.127754e+01 4.900089e+01 4.331157e+01 5.926279e+01 3.173111e+00 4.289885e+00 4.543533e+00 5.778685e+00 5.545978e+00 3.035383e+00 4.645080e+00 4.986704e+00 4.425292e+00 5.518571e+00 4.104826e+00 4.657751e+00 5.273970e+00 7.333310e-01 1.140521e+00 1.400124e+00 1.610156e+00 1.469932e+00 7.237290e-01 1.002846e+00 8.026324e-01 1.105874e+00 1.305968e+00 9.448444e-01 8.834901e-01 1.755899e+00
<GCONST> 1.455733e+02
<MIXTURE> 2 5.646790e-01
<MEAN> 39
 -1.074993e+01 -8.821486e+00 -4.596995e+00 -1.354989e+01 -1.024021e+01 -8.512249e+00 -3.374564e+00 -1.172608e+00 -6.211353e+00 -4.954489e+00 -4.827408e+00 -3.137495e+00 5.170755e+01 -5.520152e-01 -1.399120e+00 2.228272e-03 -3.501876e+00 -7.601929e-01 1.965075e+00 1.290880e+00 9.246694e-01 8.795848e-01 1.465808e-01 4.529476e-01 7.660156e-01 2.050873e+00 1.743802e-01 3.677261e-01 2.092141e-01 -3.756190e-02 1.429588e-01 -8.422170e-02 -3.906828e-01 -6.661383e-01 -4.094728e-01 3.224422e-01 -5.093204e-01 -1.727039e-01 -2.042777e-02
<VARIANCE> 39
 4.655302e+01 3.510325e+01 5.569102e+01 8.277253e+01 7.267632e+01 6.245529e+01 6.484489e+01 4.211641e+01 4.467944e+01 3.974379e+01 2.687202e+01 2.829179e+01 1.448663e+02 2.328712e+00 3.789296e+00 7.235235e+00 5.779532e+00 5.118884e+00 5.053586e+00 6.640621e+00 7.016629e+00 4.463591e+00 5.452417e+00 6.026901e+00 4.657285e+00 5.735782e+00 4.447475e-01 6.028697e-01 6.504784e-01 1.487263e+00 8.560323e-01 6.612062e-01 7.628817e-01 6.862784e-01 6.713017e-01 7.742562e-01 3.791682e-01 6.086411e-01 1.702537e+00
<GCONST> 1.400609e+02
<TRANSP> 5
 0.000000e+00 1.000000e+00 0.000000e+00 0.000000e+00 0.000000e+00
 0.000000e+00 8.193926e-01 1.806074e-01 0.000000e+00 0.000000e+00
 0.000000e+00 0.000000e+00 7.260270e-01 2.739730e-01 0.000000e+00
 0.000000e+00 0.000000e+00 0.000000e+00 5.437496e-01 4.562504e-01
 0.000000e+00 0.000000e+00 0.000000e+00 0.000000e+00 0.000000e+00
<ENDHMM>
~h "n"
<BEGINHMM>
<NUMSTATES> 5
<STATE> 2
<NUMMIXES> 3
<MIXTURE> 1 4.053186e-01
<MEAN> 39
 -5.275990e+00 -2.249347e+00 -2.645025e+00 -1.015955e+01 -1.445145e+01 -1.216425e+01 -4.519587e+00 -8.298995e+00 -1.333718e+01 -4.762199e+00 -8.451900e+00 9.494044e-01 5.004047e+01 4.184253e-01 1.631522e+00 3.834557e-01 1.710191e+00 -5.622773e-01 3.128325e-01 5.537816e-02 -3.211894e+00 1.290008e-01 2.439940e-01 -3.426243e-01 1.732498e-01 -2.036977e+00 -3.010530e-01 -3.765616e-01 -6.054277e-02 -4.222586e-01 1.549232e-01 3.459924e-01 -3.493837e-02 4.773197e-01 1.375232e-01 -1.209415e-01 1.365499e-01 -1.858498e-01 4.571040e-01
<VARIANCE> 39
 7.096532e+00 1.630852e+01 2.075072e+01 3.162019e+01 3.894768e+01 3.576704e+01 4.741995e+01 7.125655e+01 4.593894e+01 4.880741e+01 4.946714e+01 4.644172e+01 1.998584e+01 7.333542e-01 1.202455e+00 2.494957e+00 2.621770e+00 3.486392e+00 4.606136e+00 3.035827e+00 4.973044e+00 4.299304e+00 4.501712e+00 3.540083e+00 2.833047e+00 1.204919e+00 2.000000e-01 2.000000e-01 2.805165e-01 3.658782e-01 4.479604e-01 5.451130e-01 4.172084e-01 9.935452e-01 5.354173e-01 5.264577e-01 5.013193e-01 4.163696e-01 2.000000e-01
<GCONST> 1.171988e+02
<MIXTURE> 2 3.230143e-01
<MEAN> 39
 -4.572265e+00 6.775020e-02 -3.372072e+00 -8.083302e+00 -1.509109e+01 -7.517759e+00 -4.758423e+00 -1.181419e+01 -1.190328e+01 -6.933245e+00 -6.141753e+00 1.336801e+00 4.655305e+01 -1.208220e-01 5.199378e-01 1.866476e-01 3.165120e-01 3.160947e-01 2.616033e-01 -9.725680e-02 -5.208914e-02 -1.308130e-01 -2.925483e-01 8.844935e-02 -2.565580e-01 -5.521125e-01 -1.657681e-01 -1.126975e-01 3.462484e-02 -2.497586e-02 2.643741e-01 -1.504231e-01 2.203855e-02 4.874617e-01 -5.845094e-02 -9.016833e-02 -9.735135e-03 -1.016568e-01 6.540449e-02
<VARIANCE> 39
 5.051686e+00 1.392012e+01 1.996908e+01 1.478979e+01 4.504559e+01 3.010217e+01 3.661246e+01 5.669733e+01 4.126989e+01 4.589125e+01 5.434512e+01 4.503004e+01 1.099324e+01 2.596039e-01 4.394127e-01 5.340880e-01 5.744557e-01 8.140115e-01 9.101288e-01 1.048822e+00 1.274457e+00 1.063930e+00 1.035048e+00 9.808817e-01 9.972895e-01 2.377135e-01 2.000000e-01 2.000000e-01 2.000000e-01 2.000000e-01 2.000000e-01 2.807047e-01 2.468983e-01 4.123982e-01 2.671834e-01 3.212117e-01 2.923228e-01 2.319677e-01 2.000000e-01
<GCONST> 9.113250e+01
<MIXTURE> 3 2.716628e-01
<MEAN> 39
 -5.907708e+00 -4.714320e-01 -2.111848e+00 -8.287934e+00 -1.506229e+01 -1.063338e+01 -4.453434e+00 -1.049901e+01 -1.288812e+01 -5.211773e+00 -9.539266e+00 -1.332044e-01 4.719160e+01 -1.416550e-01 5.202358e-01 8.414999e-02 4.094181e-01 1.676729e-01 8.169189e-02 -1.616331e-01 -3.814489e-01 -1.401231e-01 -4.533839e-01 -3.186333e-01 -3.933985e-01 -6.326810e-01 -1.164239e-01 -1.645705e-01 -6.945784e-02 -1.062438e-01 2.214842e-01 5.857376e-02 -1.059708e-01 5.337805e-01 -5.997283e-02 -1.841637e-01 1.967288e-01 -1.398408e-01 1.319330e-01
<VARIANCE> 39
 7.120829e+00 1.387938e+01 2.950312e+01 3.711792e+01 3.951049e+01 3.779237e+01 4.918865e+01 5.381799e+01 5.881936e+01 5.241124e+01 4.756483e+01 4.271516e+01 1.871687e+01 2.504507e-01 5.462260e-01 5.618379e-01 7.949466e-01 8.087261e-01 1.039660e+00 1.123147e+00 1.570248e+00 1.577602e+00 1.508575e+00 9.968956e-01 1.106011e+00 2.424067e-01 2.000000e-01 2.000000e-01 2.000000e-01 2.814896e-01 2.604505e-01 2.895330e-01 3.092600e-01 4.420241e-01 4.515940e-01 3.982475e-01 3.332740e-01 3.044530e-01 2.000000e-01
<GCONST> 9.790125e+01
<STATE> 3
<NUMMIXES> 3
<MIXTURE> 1 3.492248e-01
<MEAN> 39
 -1.801676e+01 -3.706952e+00 -5.738873e+00 -4.280159e+00 -4.268038e+00 -1.251149e+00 -1.390669e+00 -2.062003e+00 -4.724346e+00 -3.984683e+00 -1.495716e+00 -2.158148e-01 3.477059e+01 -4.031958e-01 -3.812306e-02 -1.617817e-01 2.139030e-01 1.975835e-01 1.842615e-01 7.310332e-02 1.858157e-01 3.737160e-01 3.876916e-01 1.971942e-01 2.015122e-01 -5.171555e-01 1.118330e-01 3.054309e-02 4.904002e-02 -1.128127e-01 -9.654331e-02 -1.059492e-01 -6.603561e-02 -1.036065e-01 -1.020445e-01 -4.073482e-02 -4.153504e-02 -1.392448e-02 1.240794e-01
<VARIANCE> 39
 1.585366e+01 1.968897e+01 2.264357e+01 2.032774e+01 2.490942e+01 2.079812e+01 2.740658e+01 3.405192e+01 3.656113e+01 4.834989e+01 2.813818e+01 1.835106e+01 3.717829e+01 7.298710e-01 8.451673e-01 1.219663e+00 1.595490e+00 1.545814e+00 1.818262e+00 2.634609e+00 2.088191e+00 2.387194e+00 2.453679e+00 2.203363e+00 1.804429e+00 1.008576e+00 2.000000e-01 2.000000e-01 2.204514e-01 3.695683e-01 2.940061e-01 3.579856e-01 5.061916e-01 4.094046e-01 4.981514e-01 4.750027e-01 4.286717e-01 3.702886e-01 2.000000e-01
<GCONST> 1.056159e+02
<MIXTURE> 2 3.492478e-01
<MEAN> 39
 -6.164279e+00 2.194658e+00 -1.659162e+00 -5.787967e+00 -1.369292e+01 -8.425164e+00 -7.680013e+00 -1.251650e+01 -1.364535e+01 -8.536768e+00 -8.810730e+00 -2.728864e+00 4.441251e+01 -1.323370e+00 -9.452038e-02 3.597902e-01 5.987770e-01 1.728623e+00 4.308818e-01 2.862450e-01 1.056286e+00 2.090455e-01 -1.097405e-01 7.315677e-01 -3.400024e-01 -9.096660e-01 -7.246327e-01 -6.747203e-01 -2.206246e-01 -4.091011e-01 4.676485e-01 2.187166e-01 4.218788e-01 8.900035e-01 5.431813e-01 4.743977e-01 3.571053e-01 2.216251e-01 3.477576e-01
<VARIANCE> 39
 1.308856e+01 1.849985e+01 2.032114e+01 2.782010e+01 5.617423e+01 4.151170e+01 4.911584e+01 5.096307e+01 3.869663e+01 4.500080e+01 5.305790e+01 4.821562e+01 2.087975e+01 1.497788e+00 2.405009e+00 1.873789e+00 4.024103e+00 3.844413e+00 3.626545e+00 3.288611e+00 4.448164e+00 4.141881e+00 3.766886e+00 4.274454e+00 3.452799e+00 3.485473e+00 3.787196e-01 3.487836e-01 4.521548e-01 7.020857e-01 6.711671e-01 6.678901e-01 6.156654e-01 7.955826e-01 6.795942e-01 6.543468e-01 7.300482e-01 5.767980e-01 5.805596e-01
<GCONST> 1.258328e+02
<MIXTURE> 3 3.015281e-01
<MEAN> 39
 -6.814241e+00 -2.649785e+00 -2.557916e+00 -8.999283e+00 -1.153349e+01 -1.141990e+01 -4.941534e+00 -7.700675e+00 -1.429877e+01 -6.290720e+00 -9.403169e+00 -1.578926e+00 4.900729e+01 -8.036069e-01 -1.089563e+00 8.149049e-02 -6.859441e-01 6.558598e-01 6.891232e-01 -4.149628e-01 1.788799e+00 2.306416e-01 -1.100468e+00 5.037230e-01 -5.986133e-01 6.408036e-01 -2.462767e-01 -3.899290e-01 -3.282553e-02 -3.467282e-01 5.391876e-02 4.146092e-01 -1.260311e-02 5.157852e-01 3.601542e-01 -8.203506e-02 1.975716e-01 9.420379e-02 2.459213e-01
<VARIANCE> 39
 6.833616e+00 2.299761e+01 1.834917e+01 3.455715e+01 5.163678e+01 4.370527e+01 4.868839e+01 8.091679e+01 4.463747e+01 7.923460e+01 4.530397e+01 4.881099e+01 1.925359e+01 5.421725e-01 1.921564e+00 1.652780e+00 3.909037e+00 2.718218e+00 3.151182e+00 3.751675e+00 6.161818e+00 4.511939e+00 3.924535e+00 3.407208e+00 2.666077e+00 2.220508e+00 2.000000e-01 4.008003e-01 4.035968e-01 9.286921e-01 5.879583e-01 6.775247e-01 6.700379e-01 1.523923e+00 6.846061e-01 9.082152e-01 5.730358e-01 5.110352e-01 6.106349e-01
<GCONST> 1.244893e+02
<STATE> 4
<NUMMIXES> 3
<MIXTURE> 1 4.161672e-01
<MEAN> 39
 -1.157519e+01 7.994500e-01 -7.966401e-01 -2.321846e+00 -5.809473e+00 -6.845032e+00 -5.165335e+00 -7.438294e+00 -1.260634e+01 -9.594222e+00 -6.885268e+00 -2.785928e+00 4.011824e+01 -2.649273e+00 -1.482966e+00 -1.167220e+00 -1.461382e-01 1.720220e+00 1.264004e+00 1.214657e+00 2.251097e+00 2.089137e+00 1.385106e+00 1.626500e+00 3.721424e-01 -5.354445e-01 -2.346334e-01 -3.170654e-01 -4.391052e-01 -5.778064e-01 -4.188864e-01 8.431070e-02 2.276860e-01 2.996106e-01 5.732145e-01 6.404195e-01 2.493843e-01 3.430344e-01 4.735422e-01
<VARIANCE> 39
 2.146548e+01 3.436597e+01 2.236785e+01 3.004193e+01 3.736145e+01 2.815915e+01 3.648753e+01 4.596358e+01 3.036814e+01 3.592284e+01 3.231732e+01 2.951182e+01 2.904221e+01 2.765459e+00 2.270205e+00 2.392941e+00 3.756051e+00 3.196298e+00 3.495763e+00 3.462936e+00 4.167752e+00 3.475370e+00 4.046855e+00 3.073690e+00 3.351730e+00 4.288302e+00 5.093233e-01 4.668937e-01 3.719197e-01 5.536438e-01 5.025749e-01 5.179648e-01 5.637375e-01 5.861742e-01 6.707854e-01 5.526856e-01 5.666437e-01 5.679813e-01 7.031161e-01
<GCONST> 1.239981e+02
<MIXTURE> 2 2.754322e-01
<MEAN> 39
 -1.732881e+01 -5.631345e+00 -6.464236e+00 -8.056767e+00 -7.620197e+00 -3.790671e+00 -1.877230e+00 4.202189e-01 -1.996915e+00 -2.217743e+00 -2.329990e+00 7.515916e-01 4.165984e+01 -7.630519e-01 -1.121248e-01 -8.573059e-02 -3.066629e-01 6.707517e-01 7.831090e-01 6.657051e-01 3.305232e-01 8.433746e-01 5.503111e-01 1.100135e-01 -5.099164e-03 -4.512491e-01 5.145453e-01 2.341262e-01 3.270090e-01 -1.714557e-01 -2.547823e-01 -2.583919e-01 -1.881168e-01 -6.067258e-01 -5.872960e-01 -2.400098e-01 -3.630500e-01 -1.055784e-01 4.494711e-01
<VARIANCE> 39
 3.129579e+01 3.741512e+01 2.810617e+01 6.712739e+01 6.666817e+01 3.588475e+01 5.312834e+01 5.094334e+01 3.658941e+01 5.268442e+01 3.542356e+01 2.250383e+01 1.035088e+02 3.521137e+00 4.953913e+00 3.961753e+00 9.128010e+00 6.548747e+00 4.201388e+00 4.401403e+00 5.054164e+00 5.707955e+00 4.838623e+00 4.080672e+00 3.220509e+00 1.205758e+01 4.950243e-01 9.353647e-01 6.702495e-01 1.850818e+00 1.306100e+00 8.921096e-01 8.692242e-01 8.997111e-01 8.179539e-01 9.234821e-01 7.931000e-01 5.778921e-01 2.292035e+00
<GCONST> 1.412227e+02
<MIXTURE> 3 3.083996e-01
<MEAN> 39
 -9.147861e+00 -9.007513e+00 -1.291085e+00 -1.697984e+01 -1.429471e+01 -9.642767e+00 -6.419574e+00 6.221982e-01 -1.150343e+01 -5.126120e+00 -5.503013e+00 -8.090172e-01 5.710025e+01 -1.034094e+00 -1.814614e+00 -3.644025e-01 -2.160609e+00 3.606212e-01 1.245950e+00 -1.114379e-02 2.692518e+00 9.571618e-01 6.461625e-03 1.958104e-01 1.038265e-01 1.697644e+00 1.174956e-01 4.040627e-01 -3.052599e-01 5.424109e-01 1.733397e-01 1.569843e-01 2.061962e-01 -7.869345e-01 2.630169e-02 1.772463e-01 -4.323262e-01 -5.925402e-03 -6.269485e-01
<VARIANCE> 39
 1.134570e+01 3.069460e+01 2.894361e+01 3.702116e+01 5.177248e+01 4.187469e+01 6.957829e+01 7.462782e+01 4.767142e+01 5.450313e+01 3.163403e+01 3.480552e+01 4.204729e+01 1.128992e+00 2.696775e+00 5.168877e+00 4.954175e+00 5.291902e+00 4.678735e+00 5.026073e+00 8.362612e+00 4.021904e+00 6.378199e+00 4.365427e+00 3.841300e+00 3.968427e+00 2.070039e-01 3.871870e-01 4.250909e-01 7.396478e-01 7.741700e-01 7.349516e-01 7.981073e-01 1.091681e+00 6.557379e-01 7.748715e-01 5.126519e-01 5.642431e-01 5.016268e-01
<GCONST> 1.311053e+02
<TRANSP> 5
 0.000000e+00 1.000000e+00 0.000000e+00 0.000000e+00 0.000000e+00
 0.000000e+00 8.236110e-01 1.763891e-01 0.000000e+00 0.000000e+00
 0.000000e+00 0.000000e+00 7.329593e-01 2.670407e-01 0.000000e+00
 0.000000e+00 0.000000e+00 0.000000e+00 5.935178e-01 4.064822e-01
 0.000000e+00 0.000000e+00 0.000000e+00 0.000000e+00 0.000000e+00
<ENDHMM>
~h "p"
<BEGINHMM>
<NUMSTATES> 5
<STATE> 2
<NUMMIXES> 3
<MIXTURE> 1 4.168137e-01
<MEAN> 39
 -1.976978e+01 -6.136844e-01 -4.583996e+00 -4.708967e-01 -2.880159e+00 -1.205836e+00 -2.546085e+00 -1.307983e+00 -2.730799e+00 -1.427338e+00 -1.834242e+00 -8.616718e-01 3.144443e+01 -1.317157e+00 -1.295727e+00 -3.409545e-01 -1.967514e-01 2.425936e-01 8.014298e-01 1.619623e+00 1.885023e+00 1.684809e+00 1.281248e+00 1.369264e+00 1.094596e+00 7.505098e-01 8.197599e-01 -3.719462e-01 7.807615e-02 -8.448666e-01 -5.443297e-01 -5.764080e-01 -1.808515e-01 -2.696739e-01 -3.090293e-01 3.711819e-03 -1.984406e-01 -5.741663e-02 1.772282e+00
<VARIANCE> 39
 6.385340e+00 7.789417e+00 8.485220e+00 8.552091e+00 9.732271e+00 1.206831e+01 1.599716e+01 1.720295e+01 1.833374e+01 1.880851e+01 1.712486e+01 1.440337e+01 2.131322e+01 5.298069e+00 1.834986e+00 3.275428e+00 3.009277e+00 2.772169e+00 3.970270e+00 2.519110e+00 3.043199e+00 3.500166e+00 2.518079e+00 2.546104e+00 1.965081e+00 2.097649e+01 4.857588e-01 4.985192e-01 7.278721e-01 4.902132e-01 4.824809e-01 5.052966e-01 5.822401e-01 6.167252e-01 5.775086e-01 6.447330e-01 4.771221e-01 4.013027e-01 1.152443e+00
<GCONST> 1.131066e+02
<MIXTURE> 2 2.768478e-01
<MEAN> 39
 -2.145794e+01 -1.806494e+00 -6.225136e+00 -6.367272e-01 -3.123957e+00 -1.048306e+00 -2.284635e+00 -2.182469e-01 -5.455040e-01 1.529857e-01 -5.918720e-01 -3.045223e-01 2.880064e+01 6.207373e-01 -6.988490e-01 5.655929e-01 -6.541660e-01 -1.708441e-01 -3.184310e-01 5.306991e-01 3.811129e-01 1.783388e-01 1.086494e-01 2.874512e-01 2.649864e-01 3.216547e+00 3.872579e-01 -2.287989e-01 4.480819e-01 -4.613023e-01 -2.429856e-01 -2.167158e-01 3.478950e-01 -7.832891e-02 -9.987894e-02 -2.132566e-02 3.336050e-03 8.075915e-02 1.985710e+00
<VARIANCE> 39
 9.841583e-01 2.561471e+00 3.605862e+00 4.989723e+00 6.563574e+00 7.750175e+00 8.533021e+00 1.009676e+01 1.088695e+01 1.053682e+01 1.050656e+01 8.912302e+00 6.979334e+00 7.600040e-01 1.099560e+00 1.395560e+00 1.490818e+00 1.536731e+00 1.638809e+00 1.647655e+00 1.820742e+00 1.980769e+00 1.484767e+00 1.633467e+00 1.192905e+00 1.020996e+01 2.000000e-01 2.105850e-01 2.845305e-01 2.419446e-01 3.086683e-01 2.920597e-01 3.534416e-01 4.159428e-01 4.480453e-01 3.697947e-01 3.337796e-01 2.311143e-01 7.830012e-01
<GCONST> 8.697533e+01
<MIXTURE> 3 3.063362e-01
<MEAN> 39
 -2.117245e+01 -1.464903e+00 -6.045470e+00 -6.858038e-01 -3.738245e+00 -9.168127e-01 -1.499684e+00 -3.834834e-01 -1.222634e+00 -5.814949e-01 -7.443601e-01 5.374507e-01 2.962687e+01 -2.249234e-01 -1.709217e-01 -2.321951e-01 5.964126e-02 2.830293e-03 3.039086e-02 -9.231400e-02 -1.763691e-02 -6.739011e-02 -1.394654e-01 -1.634363e-01 -2.007051e-01 -2.242107e-01 3.696089e-01 -2.440065e-02 1.521129e-01 -2.020489e-01 -7.624511e-02 -2.860580e-01 -1.418185e-01 -1.583281e-01 -1.340465e-01 -1.153609e-01 -1.482663e-01 -1.269395e-01 8.746196e-01
<VARIANCE> 39
 2.185697e+00 2.544644e+00 3.641468e+00 4.093818e+00 8.599902e+00 1.223258e+01 9.798581e+00 1.338908e+01 1.192853e+01 1.125452e+01 1.128585e+01 1.123578e+01 4.538308e+00 2.318322e-01 4.002461e-01 4.671076e-01 6.326255e-01 9.585356e-01 1.128491e+00 1.178482e+00 1.415349e+00 1.441609e+00 1.348805e+00 1.156451e+00 1.074116e+00 5.303195e-01 2.086952e-01 2.000000e-01 2.088565e-01 2.000000e-01 2.381048e-01 3.468699e-01 3.485112e-01 4.320353e-01 3.854387e-01 3.530852e-01 3.495777e-01 3.197271e-01 8.428317e-01
<GCONST> 7.902785e+01
<STATE> 3
<NUMMIXES> 2
<MIXTURE> 1 5.218492e-01
<MEAN> 39
 -1.674680e+01 -6.292252e+00 -3.656719e+00 -4.428656e+00 -5.211202e+00 -4.668029e+00 1.079546e+00 3.097867e+00 8.757191e-03 -2.070469e-01 3.450375e-01 1.611720e+00 5.003257e+01 8.706318e-01 -1.842099e+00 1.069707e+00 -1.708822e+00 -7.762181e-01 -9.160537e-01 1.244908e+00 2.382947e-01 1.063889e-01 5.463929e-01 2.930680e-01 4.064044e-01 6.481436e+00 -3.300847e-01 1.484318e-01 -9.023887e-02 -3.653075e-01 1.815972e-02 2.042882e-01 -4.003124e-01 -7.602655e-01 -3.499054e-01 -6.311434e-02 -4.464573e-01 -2.964713e-01 -1.023962e+00
<VARIANCE> 39
 1.255559e+01 1.894346e+01 1.924017e+01 1.835008e+01 2.050636e+01 2.185943e+01 2.151532e+01 2.097279e+01 2.070473e+01 1.785441e+01 2.024823e+01 1.265496e+01 6.952502e+01 1.381852e+00 1.374147e+00 3.242500e+00 2.962778e+00 2.362551e+00 2.083272e+00 3.181305e+00 2.820771e+00 2.515827e+00 2.048249e+00 2.280660e+00 1.557432e+00 8.376163e+00 4.389187e-01 3.972715e-01 4.597216e-01 5.784758e-01 5.165912e-01 6.327282e-01 5.602109e-01 7.012727e-01 6.765412e-01 4.700489e-01 6.087911e-01 3.867342e-01 1.412904e+00
<GCONST> 1.152875e+02
<MIXTURE> 2 4.781511e-01
<MEAN> 39
 -1.762885e+01 -8.422849e+00 -5.824018e-01 -7.593753e+00 -6.318403e+00 -3.222768e+00 4.771410e+00 6.327676e-01 -1.096442e+00 2.731460e+00 1.229964e+00 9.639051e-01 5.664567e+01 -3.596399e-01 -7.895452e-01 5.008247e-01 -2.829675e+00 -3.764765e-01 3.613851e-01 -2.736150e-01 -2.147084e+00 -5.630494e-01 -9.927845e-02 -1.272117e+00 -3.881842e-01 2.656910e+00 -6.795206e-02 8.392534e-01 -3.711790e-01 -2.360239e-01 7.980724e-02 3.493434e-02 -1.318056e+00 -8.003557e-01 -3.938176e-01 -6.878229e-01 -8.496436e-01 -2.280620e-01 -2.024062e+00
<VARIANCE> 39
 1.215483e+01 1.515742e+01 3.158607e+01 2.244351e+01 3.623112e+01 2.575590e+01 2.631911e+01 2.858583e+01 3.233738e+01 1.940631e+01 2.335118e+01 1.785519e+01 1.565882e+01 2.846596e+00 2.282222e+00 3.482800e+00 3.208892e+00 3.811578e+00 3.414584e+00 4.581457e+00 3.780552e+00 4.270262e+00 2.958646e+00 3.120728e+00 2.215220e+00 1.063673e+01 4.461756e-01 3.073750e-01 4.299369e-01 6.117172e-01 6.074806e-01 6.678744e-01 6.399809e-01 7.750152e-01 9.260479e-01 4.666188e-01 6.982797e-01 4.519721e-01 8.476594e-01
<GCONST> 1.215987e+02
<STATE> 4
<NUMMIXES> 2
<MIXTURE> 1 4.741474e-01
<MEAN> 39
 -2.111188e+01 -7.341250e+00 -2.333608e+00 -1.340816e+01 -6.131619e+00 -2.071316e+00 -1.025742e+00 -2.986588e+00 7.280932e-01 6.423880e-01 -1.948354e+00 6.665298e-01 5.511325e+01 -2.374994e-01 8.393292e-01 -2.209585e-01 -1.476916e+00 3.523537e-01 3.017014e-02 -1.741004e+00 -1.456089e+00 -3.959010e-01 -1.311083e+00 -1.093279e+00 -2.259563e-01 -8.948750e-01 7.028069e-01 6.935752e-01 1.921944e-01 4.195910e-01 -2.287378e-01 -4.098078e-01 -5.806490e-01 -1.696519e-01 -6.331031e-01 -5.035914e-01 -3.319097e-01 -2.153268e-01 -7.331099e-01
<VARIANCE> 39
 1.157623e+01 2.065985e+01 3.337073e+01 2.891301e+01 2.419052e+01 2.034393e+01 2.919868e+01 2.282610e+01 2.192101e+01 1.734326e+01 1.692893e+01 1.457195e+01 2.380082e+01 1.496044e+00 2.238280e+00 1.813160e+00 3.422451e+00 2.316040e+00 2.390445e+00 3.057983e+00 2.983654e+00 2.783679e+00 3.009675e+00 3.519578e+00 2.077588e+00 1.222026e+00 2.892359e-01 3.691396e-01 3.737068e-01 5.283561e-01 5.886164e-01 4.814590e-01 7.115226e-01 4.767615e-01 6.106072e-01 5.390186e-01 5.465032e-01 3.655829e-01 1.099763e+00
<GCONST> 1.137894e+02
<MIXTURE> 2 5.258521e-01
<MEAN> 39
 -1.742961e+01 -5.961975e+00 -1.702919e+00 -1.339526e+01 -5.069994e+00 -3.405450e+00 -3.303006e+00 -6.072162e+00 -3.768924e+00 -3.288712e+00 -5.652002e+00 -6.186323e-01 5.325331e+01 2.594441e+00 1.932546e+00 8.300974e-01 -2.033951e+00 -1.739599e+00 -1.466921e+00 -3.594102e+00 -2.587011e+00 -2.868989e+00 -1.716119e+00 -2.975383e+00 -1.177066e+00 5.172512e-01 5.222433e-01 1.494617e-01 5.083725e-02 -1.692587e-01 -6.134741e-01 -2.807924e-01 -3.357212e-01 4.663757e-01 -1.821794e-01 4.875457e-01 3.913483e-02 -5.555441e-02 3.442208e-01
<VARIANCE> 39
 2.395242e+01 3.537512e+01 6.279965e+01 4.788628e+01 3.747381e+01 2.837322e+01 5.838523e+01 3.773126e+01 3.718285e+01 3.413877e+01 2.620716e+01 2.423284e+01 2.010394e+01 1.524147e+00 2.438777e+00 3.835688e+00 4.431912e+00 3.348165e+00 3.542797e+00 3.706034e+00 3.723051e+00 3.369065e+00 3.351075e+00 3.171542e+00 2.155487e+00 3.499095e+00 4.355631e-01 3.997153e-01 4.660418e-01 5.913828e-01 4.962105e-01 6.752752e-01 8.439916e-01 7.916003e-01 8.480534e-01 6.442366e-01 6.833006e-01 6.184340e-01 7.885327e-01
<GCONST> 1.263011e+02
<TRANSP> 5
 0.000000e+00 1.000000e+00 0.000000e+00 0.000000e+00 0.000000e+00
 0.000000e+00 7.980776e-01 2.019223e-01 0.000000e+00 0.000000e+00
 0.000000e+00 0.000000e+00 6.526747e-01 3.473253e-01 0.000000e+00
 0.000000e+00 0.000000e+00 0.000000e+00 6.662371e-01 3.337629e-01
 0.000000e+00 0.000000e+00 0.000000e+00 0.000000e+00 0.000000e+00
<ENDHMM>
~h "r"
<BEGINHMM>
<NUMSTATES> 5
<STATE> 2
<NUMMIXES> 3
<MIXTURE> 1 2.370207e-01
<MEAN> 39
 6.808431e-01 -9.558631e+00 -1.513210e+01 -7.348479e+00 -5.361814e+00 -1.872380e+01 -1.537589e+01 5.661657e-01 -9.783582e+00 -2.365351e+00 -3.959394e+00 -3.171404e+00 5.495429e+01 1.123623e+00 -1.522937e+00 -2.318807e-01 -4.166824e-01 -4.825630e-01 -2.322314e+00 -5.516667e-02 2.804864e+00 -7.219043e-01 4.674240e-01 -2.512536e-01 9.339935e-02 1.594165e+00 -9.521983e-01 -1.518907e-01 7.355496e-01 -6.519784e-02 -3.076842e-01 6.829053e-01 9.542301e-01 8.681667e-02 4.758340e-02 1.957123e-01 6.509924e-02 8.825984e-02 -7.863617e-02
<VARIANCE> 39
 1.092952e+01 3.016862e+01 5.856656e+01 2.358536e+01 5.259846e+01 7.159261e+01 4.345203e+01 1.015018e+02 4.538369e+01 4.719836e+01 3.425714e+01 2.224770e+01 2.562979e+01 4.905274e+00 1.980704e+00 5.599218e+00 2.867167e+00 5.118997e+00 5.988134e+00 5.732649e+00 5.641202e+00 5.769757e+00 3.610069e+00 3.128267e+00 2.586310e+00 2.393240e+00 5.349426e-01 3.353244e-01 4.898074e-01 5.261226e-01 7.333381e-01 1.066968e+00 5.739492e-01 1.586145e+00 9.821598e-01 6.364078e-01 5.422306e-01 4.652826e-01 2.492320e-01
<GCONST> 1.301796e+02
<MIXTURE> 2 3.620723e-01
<MEAN> 39
 7.563586e-01 -1.599115e+01 -2.004253e+01 -7.652057e+00 -5.215858e+00 -2.016192e+01 -1.034830e+01 1.461067e+01 -1.040530e+01 -1.676340e+00 -7.096567e+00 -2.256612e+00 5.908060e+01 -3.744583e-01 -7.414369e-02 1.395508e+00 2.831614e-01 -1.312218e+00 -1.068998e+00 1.027758e+00 4.670235e-01 -7.923689e-02 -1.910030e-01 5.537784e-01 4.378664e-01 -2.152340e-01 -3.002968e-01 1.233290e-01 6.350751e-01 -1.664681e-01 -5.064219e-01 5.126471e-01 5.459473e-01 -6.538837e-01 -2.986127e-01 2.146940e-01 3.412379e-01 -9.836093e-02 -1.117454e-01
<VARIANCE> 39
 7.242735e+00 1.793954e+01 4.169011e+01 1.937078e+01 5.114672e+01 7.334522e+01 7.393350e+01 4.577460e+01 4.947916e+01 5.090080e+01 3.231479e+01 2.504540e+01 1.330204e+01 5.219800e-01 8.975132e-01 3.452520e+00 9.515007e-01 3.712989e+00 3.062198e+00 3.312590e+00 3.104077e+00 2.787547e+00 1.877297e+00 2.230634e+00 1.278370e+00 6.528578e-01 2.000000e-01 2.000000e-01 2.050225e-01 2.202217e-01 3.344271e-01 4.212100e-01 3.160666e-01 5.417109e-01 4.066278e-01 3.552183e-01 3.638690e-01 2.344934e-01 2.000000e-01
<GCONST> 1.081326e+02
<MIXTURE> 3 4.009056e-01
<MEAN> 39
 -1.654776e+00 -1.624424e+01 -1.759943e+01 -5.230911e+00 -6.679467e+00 -1.372990e+01 -4.276160e+00 9.793365e+00 -1.137184e+01 -5.378499e+00 -6.128878e+00 -2.270944e+00 5.616620e+01 -4.538163e-01 1.608368e-01 5.208530e-01 1.334727e-01 -6.190392e-01 -3.712045e-01 2.996973e-01 -1.511688e-01 4.811703e-02 -4.358186e-01 6.022609e-01 -1.832885e-01 -8.923458e-01 -2.279449e-01 1.924036e-01 2.294092e-01 -1.655294e-01 -1.062407e-01 3.127599e-01 1.757335e-03 -3.917075e-01 6.996890e-02 2.021492e-01 -3.554006e-02 -1.498512e-01 -2.054613e-01
<VARIANCE> 39
 1.918727e+01 1.967242e+01 4.058416e+01 2.997654e+01 7.698873e+01 9.053569e+01 5.659949e+01 6.230483e+01 4.605017e+01 5.657980e+01 3.875643e+01 2.664814e+01 3.867982e+01 1.021252e+00 1.240724e+00 2.577285e+00 1.412330e+00 3.389767e+00 2.997319e+00 3.110696e+00 3.759652e+00 2.161458e+00 2.804298e+00 2.327208e+00 1.560614e+00 5.997785e-01 2.000000e-01 2.281228e-01 2.000000e-01 2.559722e-01 3.736683e-01 3.928944e-01 3.591774e-01 4.993041e-01 3.698182e-01 3.725591e-01 2.944177e-01 2.388811e-01 2.000000e-01
<GCONST> 1.131369e+02
<STATE> 3
<NUMMIXES> 3
<MIXTURE> 1 4.536129e-01
<MEAN> 39
 -3.620423e+00 -1.417379e+01 -1.259004e+01 -7.166445e+00 -1.273519e+01 -1.616457e+01 -4.044051e+00 6.487540e+00 -9.962990e+00 -4.776002e+00 -4.457271e+00 -2.855510e+00 5.270250e+01 -2.445418e+00 2.238730e+00 2.365316e+00 5.627591e-01 -2.039301e-01 1.722242e+00 1.006677e+00 -1.798526e+00 1.287206e+00 3.073145e-01 8.266415e-01 -1.934658e-01 -3.457920e+00 -7.426834e-01 4.828959e-01 2.911848e-02 2.184852e-01 9.391174e-01 9.656608e-01 8.308635e-03 -1.766460e-01 3.625936e-01 2.567754e-01 -1.244956e-01 6.771867e-02 -6.606327e-01
<VARIANCE> 39
 1.561117e+01 2.977542e+01 9.129108e+01 5.926056e+01 9.463661e+01 8.786942e+01 6.679069e+01 7.517054e+01 6.104409e+01 6.692886e+01 4.189883e+01 2.583596e+01 3.396403e+01 2.901267e+00 4.673477e+00 4.121974e+00 3.993357e+00 7.170310e+00 7.377692e+00 4.754090e+00 7.162286e+00 6.212380e+00 5.222343e+00 3.807891e+00 2.720603e+00 4.834394e+00 3.427512e-01 6.505463e-01 1.045816e+00 8.044889e-01 1.128895e+00 8.843489e-01 7.814282e-01 1.191848e+00 8.491830e-01 7.854125e-01 6.944835e-01 5.274541e-01 7.225721e-01
<GCONST> 1.396066e+02
<MIXTURE> 2 3.070093e-01
<MEAN> 39
 -3.485227e+00 -1.739696e+01 -1.030319e+01 -8.903372e+00 -1.152287e+01 -2.064135e+01 -1.638216e+00 1.292262e+01 -1.474002e+01 -1.265909e+00 -4.667974e+00 -2.270321e+00 5.863734e+01 -1.174483e+00 1.950013e-01 2.716254e+00 -1.248646e+00 -2.316539e+00 8.359780e-01 2.099527e+00 -1.792409e+00 -5.479993e-01 1.083083e+00 8.649952e-01 -1.896283e-02 -9.012406e-02 -1.164634e-01 4.830210e-01 8.022811e-02 -2.834695e-01 1.239294e-01 7.043449e-01 -4.002651e-01 -9.632403e-01 4.686930e-01 2.407985e-01 -1.451667e-01 -4.971658e-02 -2.321242e-01
<VARIANCE> 39
 1.647529e+01 1.952185e+01 3.445222e+01 3.135003e+01 6.256570e+01 8.905309e+01 4.675272e+01 5.738833e+01 3.750636e+01 4.347511e+01 3.560263e+01 2.130637e+01 4.307456e+01 3.718942e-01 1.084771e+00 2.470710e+00 1.237019e+00 2.944210e+00 2.550377e+00 3.345933e+00 3.368979e+00 2.585166e+00 1.900828e+00 2.405690e+00 1.918178e+00 1.052823e+00 2.000000e-01 2.000000e-01 2.000000e-01 3.068950e-01 2.625922e-01 5.463594e-01 3.208882e-01 7.300034e-01 3.516084e-01 3.882937e-01 3.579381e-01 2.443787e-01 2.000000e-01
<GCONST> 1.111276e+02
<MIXTURE> 3 2.393771e-01
<MEAN> 39
 -4.870796e+00 -1.621605e+01 -4.370118e+00 -1.170023e+01 -1.715550e+01 -1.884887e+01 2.890843e-01 7.651272e+00 -1.672670e+01 3.717802e+00 -2.374465e+00 -4.391574e+00 5.994159e+01 -1.611222e+00 9.431249e-01 3.251125e+00 -2.625249e+00 -2.085165e+00 2.108327e+00 1.404575e+00 -3.606121e+00 2.176774e-01 1.920336e+00 -4.166134e-01 -2.523765e-01 -4.194830e-02 -2.107085e-02 5.373948e-01 -4.331848e-01 -3.056978e-01 8.149372e-01 4.721757e-01 -9.873269e-01 -5.348975e-01 8.430698e-01 -3.019024e-01 -5.954479e-01 2.659909e-01 -2.245225e-01
<VARIANCE> 39
 1.317940e+01 1.797592e+01 7.639615e+01 3.299471e+01 6.140764e+01 7.763576e+01 6.482724e+01 7.019511e+01 4.527593e+01 7.278681e+01 3.107370e+01 3.139072e+01 3.506347e+01 4.960724e-01 1.914591e+00 3.003299e+00 1.929468e+00 3.117271e+00 2.801605e+00 4.106284e+00 4.849013e+00 4.386112e+00 2.779011e+00 2.366965e+00 2.013135e+00 1.380129e+00 2.000000e-01 2.000000e-01 2.923292e-01 3.196288e-01 4.111721e-01 6.535341e-01 5.524914e-01 8.658791e-01 5.255432e-01 5.229312e-01 4.201745e-01 4.507920e-01 2.000000e-01
<GCONST> 1.194523e+02
<STATE> 4
<NUMMIXES> 3
<MIXTURE> 1 2.933407e-01
<MEAN> 39
 -1.697294e+01 -4.622236e+00 -6.774977e+00 -2.975037e+00 -6.206539e+00 -4.596197e+00 -1.179555e+00 1.348131e+00 -3.187613e+00 -1.995939e+00 -2.574049e+00 -2.513349e+00 3.666733e+01 -2.493105e+00 1.330472e+00 1.216249e+00 6.392341e-01 1.583122e+00 2.392398e+00 2.157876e-01 -1.209859e+00 8.202497e-01 4.999489e-01 3.869686e-01 4.507517e-01 -2.198598e+00 8.242610e-01 -7.500964e-01 -5.362217e-01 -4.886435e-01 -2.669717e-01 -4.493262e-01 -2.886207e-01 2.399946e-01 -4.627971e-01 -3.110633e-02 -1.946272e-01 8.000088e-02 1.290678e+00
<VARIANCE> 39
 3.551216e+01 3.203313e+01 4.828572e+01 2.683977e+01 5.066486e+01 4.788811e+01 3.700669e+01 6.664597e+01 5.225988e+01 5.277224e+01 4.094960e+01 3.515636e+01 3.971349e+01 6.093126e+00 5.508229e+00 5.112267e+00 4.229415e+00 6.274551e+00 6.793280e+00 4.798733e+00 6.266209e+00 5.596460e+00 4.586904e+00 4.380284e+00 2.901951e+00 9.175159e+00 8.069660e-01 8.220806e-01 1.007293e+00 8.746009e-01 1.090786e+00 1.113397e+00 9.280972e-01 1.320217e+00 1.155194e+00 9.335099e-01 9.136887e-01 6.556752e-01 1.275084e+00
<GCONST> 1.417755e+02
<MIXTURE> 2 4.890905e-01
<MEAN> 39
 -1.743887e+01 -8.259260e+00 -8.786594e+00 -2.104596e+00 -3.093971e+00 -2.603129e+00 -5.487636e-01 1.881148e+00 -4.529506e+00 -3.308596e+00 -1.871425e+00 -9.298518e-03 3.706644e+01 -5.352750e-01 4.770315e-01 2.973667e-01 -1.968561e-01 -2.111134e-01 4.052479e-01 -1.322798e-02 -2.799491e-01 5.208426e-01 3.171631e-01 1.396034e-01 2.127254e-01 -6.193507e-01 1.484441e-01 7.659580e-02 -4.672390e-03 -6.488407e-02 -5.407872e-02 -1.577035e-01 -1.397835e-01 -3.111609e-02 -8.281196e-02 -6.093159e-02 -9.116837e-02 -2.469404e-02 1.299250e-01
<VARIANCE> 39
 2.975707e+01 4.287678e+01 2.016378e+01 2.167660e+01 3.482588e+01 3.276433e+01 3.298975e+01 3.630654e+01 3.924358e+01 3.112206e+01 2.054557e+01 1.781887e+01 5.926027e+01 6.523170e-01 1.312325e+00 1.048720e+00 1.174658e+00 1.434701e+00 2.222317e+00 1.843412e+00 2.187220e+00 2.281880e+00 1.597444e+00 1.647568e+00 1.530002e+00 6.486518e-01 2.000000e-01 2.602149e-01 2.513623e-01 2.870959e-01 3.279403e-01 3.966701e-01 3.915473e-01 3.900663e-01 4.113370e-01 3.138253e-01 3.440640e-01 3.018903e-01 2.000000e-01
<GCONST> 1.050967e+02
<MIXTURE> 3 2.175647e-01
<MEAN> 39
 -1.090579e+01 -1.009455e+01 -2.778641e+00 -1.374559e+01 -1.503670e+01 -9.241216e+00 -1.237124e+00 -4.538493e-01 -9.543184e+00 2.652536e+00 -4.729970e+00 -2.284924e+00 5.227043e+01 -3.506345e-01 1.006603e+00 1.560745e+00 -2.361779e+00 -4.811154e-01 8.745887e-01 -1.011533e+00 -2.181388e+00 5.042422e-01 2.871549e-02 -1.057528e+00 4.516994e-01 8.875664e-01 2.354099e-01 1.149597e-01 -2.678981e-01 9.063178e-02 3.142406e-01 -2.916711e-01 -4.887421e-01 2.309801e-01 3.331494e-02 -3.803963e-01 -1.798188e-01 7.341135e-02 1.832567e-01
<VARIANCE> 39
 5.295531e+01 4.543914e+01 8.746274e+01 7.590327e+01 9.214619e+01 9.109306e+01 7.150299e+01 6.293549e+01 5.708938e+01 6.721287e+01 3.623812e+01 3.200003e+01 1.286565e+02 3.147166e+00 2.992977e+00 3.724882e+00 5.001399e+00 4.001420e+00 5.766347e+00 4.141357e+00 4.852254e+00 4.461412e+00 3.197720e+00 2.714429e+00 2.214801e+00 6.425764e+00 3.647527e-01 3.066443e-01 6.246960e-01 7.517413e-01 7.244369e-01 5.462192e-01 5.221510e-01 7.828387e-01 6.344770e-01 5.989598e-01 3.810724e-01 4.215305e-01 6.857009e-01
<GCONST> 1.355533e+02
<TRANSP> 5
 0.000000e+00 1.000000e+00 0.000000e+00 0.000000e+00 0.000000e+00
 0.000000e+00 7.149417e-01 2.850583e-01 0.000000e+00 0.000000e+00
 0.000000e+00 0.000000e+00 6.478577e-01 3.521423e-01 0.000000e+00
 0.000000e+00 0.000000e+00 0.000000e+00 7.656181e-01 2.343819e-01
 0.000000e+00 0.000000e+00 0.000000e+00 0.000000e+00 0.000000e+00
<ENDHMM>
~h "s"
<BEGINHMM>
<NUMSTATES> 5
<STATE> 2
<NUMMIXES> 3
<MIXTURE> 1 3.716158e-01
<MEAN> 39
 -1.914720e+01 1.334177e+00 -7.262520e+00 -5.143254e+00 -7.733737e+00 -4.677108e+00 -1.424979e+00 -4.951641e+00 -5.667356e+00 -7.450559e+00 -5.051659e+00 -2.891874e+00 5.525502e+01 -5.106781e+00 1.335092e+00 -1.375414e+00 2.191534e+00 2.665012e+00 2.347599e+00 1.200772e+00 1.484472e+00 1.536375e+00 2.249624e+00 3.002733e+00 -2.963959e-01 -4.762722e-01 9.539149e-02 -7.019228e-01 -4.563645e-01 -5.569830e-01 -3.435371e-01 4.626838e-03 3.177857e-02 5.240291e-01 2.338184e-01 6.518930e-01 -1.073256e-01 5.215785e-01 2.733530e-01
<VARIANCE> 39
 2.936044e+01 2.387882e+01 2.012613e+01 1.930004e+01 3.198617e+01 3.234360e+01 3.003780e+01 3.056738e+01 2.129990e+01 2.689956e+01 2.067048e+01 1.958259e+01 1.745065e+01 1.162620e+00 3.109055e+00 2.925343e+00 3.484597e+00 3.482344e+00 3.709421e+00 5.080762e+00 4.389701e+00 3.287317e+00 4.114185e+00 3.067374e+00 2.895916e+00 1.091363e+00 5.567306e-01 5.539719e-01 4.588622e-01 4.108461e-01 5.457920e-01 6.551391e-01 6.177267e-01 7.718807e-01 5.665067e-01 5.474939e-01 6.301860e-01 4.228530e-01 2.000000e-01
<GCONST> 1.185992e+02
<MIXTURE> 2 3.210851e-01
<MEAN> 39
 -2.857782e+01 2.236044e+00 -1.180899e+01 -3.260679e+00 -4.620887e+00 -1.877528e+00 1.714769e+00 -9.863574e-01 -1.200401e+00 -5.466743e-01 7.616213e-01 -4.973970e-01 5.361348e+01 -2.396382e+00 7.444509e-01 -1.339427e+00 1.060044e+00 1.006195e+00 1.439750e+00 4.932582e-01 1.040105e+00 1.042322e+00 1.468500e+00 9.977721e-01 5.333391e-01 1.632584e-01 1.090969e+00 -3.182053e-01 2.710882e-01 -3.353452e-01 -5.803103e-01 -3.358863e-01 -3.653305e-01 -1.703945e-01 -2.693036e-01 -3.440951e-01 -5.896475e-01 1.127906e-01 -1.528276e-01
<VARIANCE> 39
 8.784468e+00 2.526237e+01 1.424786e+01 2.487472e+01 2.583945e+01 2.881136e+01 2.320550e+01 1.988457e+01 1.398409e+01 1.422342e+01 1.488858e+01 1.119719e+01 2.000642e+01 2.023153e+00 2.890175e+00 2.002324e+00 2.327691e+00 2.154544e+00 2.521938e+00 2.414182e+00 2.674139e+00 2.708326e+00 2.741407e+00 2.250671e+00 1.652295e+00 2.156972e+00 2.762304e-01 3.968224e-01 3.552976e-01 5.361995e-01 5.828948e-01 6.272971e-01 5.564865e-01 4.919761e-01 4.541342e-01 4.970747e-01 4.872691e-01 3.534159e-01 2.324702e-01
<GCONST> 1.091750e+02
<MIXTURE> 3 3.072965e-01
<MEAN> 39
 -2.724333e+01 -4.349184e-01 -1.209036e+01 -5.440959e+00 -5.223842e+00 -2.479356e+00 6.984410e-01 -4.121971e-01 -4.424922e-02 -4.510353e-01 1.021063e+00 1.135678e-01 5.267778e+01 -2.086899e+00 8.551006e-01 -1.089139e+00 4.929196e-01 3.589051e-01 5.793225e-01 -9.099775e-02 3.260096e-01 3.795702e-01 1.138366e+00 5.989412e-01 1.898368e-01 3.612585e-01 8.600135e-01 -7.365495e-02 2.950190e-01 9.747023e-03 -1.939821e-01 -1.877402e-01 -2.075947e-01 -2.257003e-01 -4.043393e-01 -4.567257e-01 -6.241604e-01 -3.669812e-02 -2.248996e-01
<VARIANCE> 39
 9.412036e+00 1.978954e+01 1.328557e+01 1.994213e+01 2.381451e+01 2.641934e+01 2.709916e+01 2.228300e+01 1.825460e+01 1.896905e+01 1.412495e+01 1.393078e+01 2.898739e+01 1.631062e+00 1.406966e+00 1.433271e+00 1.636271e+00 1.884050e+00 2.394610e+00 2.411942e+00 2.421857e+00 2.308171e+00 2.964949e+00 2.542241e+00 1.644659e+00 1.615284e+00 2.273677e-01 2.812527e-01 2.944417e-01 3.905000e-01 4.830207e-01 5.332969e-01 5.542111e-01 5.422968e-01 4.780630e-01 5.207892e-01 4.385862e-01 3.551793e-01 2.000000e-01
<GCONST> 1.062854e+02
<STATE> 3
<NUMMIXES> 3
<MIXTURE> 1 2.335869e-01
<MEAN> 39
 -3.043566e+01 3.396618e+00 -1.279990e+01 -2.531838e+00 -3.513761e+00 -1.574411e+00 1.067870e+00 -4.685376e-01 -8.927554e-01 2.322820e-01 -1.104055e-01 1.286948e-01 5.386583e+01 6.092795e-02 4.026424e-01 4.384635e-01 3.833015e-01 3.791298e-01 2.424302e-01 1.413545e-01 2.030459e-01 3.437306e-02 -5.720014e-03 -3.247175e-02 1.227696e-01 1.621701e-01 1.309198e-01 -9.695380e-02 8.552989e-02 -5.377511e-02 -4.479587e-02 1.455445e-02 3.896831e-02 2.848903e-02 4.762864e-03 -6.185221e-02 5.909031e-02 -1.617481e-03 -4.824832e-02
<VARIANCE> 39
 5.594165e+00 2.323374e+01 8.968898e+00 2.944621e+01 2.962185e+01 2.801122e+01 2.055422e+01 1.704467e+01 1.499884e+01 1.312482e+01 1.340951e+01 9.620282e+00 1.493079e+01 2.892267e-01 6.548606e-01 6.324491e-01 8.502414e-01 1.004947e+00 1.263944e+00 1.126582e+00 1.247040e+00 1.356857e+00 1.253794e+00 1.165857e+00 1.062527e+00 2.560065e-01 2.000000e-01 2.000000e-01 2.000000e-01 2.000000e-01 2.077626e-01 2.339709e-01 2.184451e-01 2.524298e-01 2.744229e-01 2.458465e-01 2.327645e-01 2.000000e-01 2.000000e-01
<GCONST> 8.549216e+01
<MIXTURE> 2 4.672344e-01
<MEAN> 39
 -2.962600e+01 1.284971e+00 -1.370156e+01 -8.029973e-01 -6.504911e+00 1.965955e+00 -9.546839e-01 1.376535e+00 -1.133822e+00 3.308000e-01 6.814066e-01 -6.460263e-02 5.260395e+01 7.866948e-03 -6.370461e-02 4.647656e-02 -1.502776e-01 -1.432584e-01 -1.706679e-01 3.773413e-02 -1.053379e-01 5.404236e-02 -3.679098e-02 5.865213e-02 9.231538e-04 -1.197916e-01 4.650018e-01 -6.025667e-02 3.021451e-01 -2.563110e-01 -1.270975e-01 -4.231147e-01 -5.707605e-02 -2.776702e-01 -1.201618e-01 -2.273180e-01 -1.814387e-01 -3.625767e-02 -7.120384e-02
<VARIANCE> 39
 4.233572e+00 1.840397e+01 1.006522e+01 1.490215e+01 1.025807e+01 1.384430e+01 1.337171e+01 1.420801e+01 1.354890e+01 1.374934e+01 1.158305e+01 1.120908e+01 1.227660e+01 6.657411e-01 1.186338e+00 1.097710e+00 1.447485e+00 1.225496e+00 1.580155e+00 1.437644e+00 1.437294e+00 1.424257e+00 1.405971e+00 1.303560e+00 1.197684e+00 9.849330e-01 2.410663e-01 2.050459e-01 2.295653e-01 2.724827e-01 3.395451e-01 3.650146e-01 3.382046e-01 3.573665e-01 3.621028e-01 3.620501e-01 3.285937e-01 2.740118e-01 2.054221e-01
<GCONST> 9.058395e+01
<MIXTURE> 3 2.991709e-01
<MEAN> 39
 -3.057657e+01 3.497208e+00 -1.213613e+01 -2.675672e+00 -2.699496e+00 -1.449624e+00 1.382904e+00 -3.087555e-01 -1.065534e+00 -1.255850e-01 -8.809444e-02 4.352076e-01 5.366405e+01 -1.468068e-01 -2.648833e-01 -7.573149e-02 -2.063528e-01 -1.489165e-01 -1.724674e-01 -8.454249e-02 4.558183e-02 -3.766794e-02 -1.077351e-02 -6.364546e-02 5.924376e-02 -3.527735e-02 1.393204e-01 -1.268816e-01 3.593892e-02 -1.112426e-01 -1.238671e-01 -8.614504e-02 -2.145051e-03 -2.068217e-02 1.534713e-02 -5.144636e-03 2.985894e-02 -3.711841e-02 -3.164713e-02
<VARIANCE> 39
 5.359609e+00 2.441450e+01 1.154506e+01 3.205937e+01 2.879964e+01 2.499653e+01 2.023339e+01 1.442623e+01 1.378801e+01 1.353473e+01 1.224877e+01 1.214401e+01 1.591360e+01 2.304782e-01 6.013572e-01 5.567003e-01 7.216515e-01 9.223589e-01 1.075801e+00 1.007339e+00 1.140708e+00 1.242035e+00 1.088424e+00 1.110305e+00 9.581328e-01 2.647433e-01 2.000000e-01 2.000000e-01 2.000000e-01 2.000000e-01 2.044259e-01 2.216722e-01 2.216801e-01 2.329261e-01 2.490380e-01 2.525246e-01 2.223985e-01 2.331278e-01 2.000000e-01
<GCONST> 8.416586e+01
<STATE> 4
<NUMMIXES> 3
<MIXTURE> 1 2.074112e-01
<MEAN> 39
 -1.871603e+01 -2.513629e+00 -9.176567e+00 -8.814345e+00 -8.908521e+00 -9.588938e+00 -2.871441e+00 2.031872e-01 2.826113e+00 7.906750e-01 -1.678327e+00 2.609425e+00 4.436023e+01 1.154067e+00 -6.101602e-01 8.024407e-01 1.934621e-01 3.503237e-01 9.709980e-01 4.190015e-02 7.495226e-01 2.951523e-01 6.471543e-01 -2.400575e-01 -3.312149e-01 -3.370923e+00 -7.041293e-01 1.204223e-01 5.294298e-02 5.578998e-01 6.450540e-01 9.707866e-01 4.346900e-01 -1.486667e-02 -4.580644e-01 -2.216420e-01 3.985207e-03 -3.255197e-01 6.179877e-02
<VARIANCE> 39
 4.711986e+01 2.666940e+01 3.740062e+01 4.787616e+01 8.835499e+01 6.600401e+01 6.175558e+01 6.254751e+01 6.871970e+01 5.215255e+01 4.652011e+01 4.166366e+01 7.359647e+01 6.121094e+00 2.581851e+00 3.157125e+00 6.043561e+00 7.704936e+00 9.120734e+00 7.545830e+00 6.245253e+00 7.200366e+00 4.673305e+00 3.889113e+00 5.190290e+00 5.937891e+00 1.074728e+00 6.491590e-01 6.435372e-01 1.009979e+00 1.533705e+00 1.569474e+00 1.520905e+00 1.471910e+00 1.483374e+00 1.210108e+00 8.589475e-01 1.055422e+00 1.615442e+00
<GCONST> 1.472626e+02
<MIXTURE> 2 3.868824e-01
<MEAN> 39
 -2.720553e+01 1.185406e+00 -9.475686e+00 -4.141420e+00 -6.402656e+00 -2.253918e+00 9.762910e-01 -1.585044e+00 -1.175077e+00 -8.514814e-01 4.553119e-01 -5.349427e-01 5.173415e+01 3.424206e+00 -6.818314e-01 1.878034e+00 -2.250493e+00 -2.196736e+00 -2.699370e+00 -1.302103e+00 -1.730956e+00 -1.176864e+00 -8.955255e-01 -1.572152e+00 4.011686e-02 4.841529e-01 9.455379e-01 -3.677433e-01 3.640159e-01 -7.241080e-01 -5.973879e-01 -4.392533e-01 -6.317929e-01 -1.281452e-01 -3.091308e-01 1.493896e-01 -6.529039e-01 1.617493e-01 1.696796e-01
<VARIANCE> 39
 1.961818e+01 2.220287e+01 2.948903e+01 2.438144e+01 2.958146e+01 2.579107e+01 2.518239e+01 2.147151e+01 2.089202e+01 1.722566e+01 1.826108e+01 1.437763e+01 5.627191e+01 3.961573e+00 2.773228e+00 3.350052e+00 4.292850e+00 5.025537e+00 4.488874e+00 5.001351e+00 4.585594e+00 3.646397e+00 2.926351e+00 3.625974e+00 2.385945e+00 5.923609e+00 3.980015e-01 4.563884e-01 6.162157e-01 6.323540e-01 6.206298e-01 7.111299e-01 7.455695e-01 7.667105e-01 6.978623e-01 5.351161e-01 5.769282e-01 4.150919e-01 9.038983e-01
<GCONST> 1.238230e+02
<MIXTURE> 3 4.057022e-01
<MEAN> 39
 -2.371382e+01 -1.470866e+00 -7.228795e+00 -4.333090e+00 -2.441357e+00 -3.343412e+00 -8.305191e-02 3.038993e-01 -1.075723e+00 -1.045829e+00 -1.119379e+00 7.625809e-01 4.105999e+01 1.103388e+00 -6.426340e-01 5.518264e-01 1.644077e-01 1.878226e-01 9.679972e-02 -4.109254e-01 -1.767058e-01 -1.531635e-01 -1.066347e-01 -1.601443e-01 -1.700207e-01 -1.856138e+00 1.608767e-01 -8.666754e-02 -1.288310e-01 -1.333086e-01 -2.010022e-01 4.211938e-02 -3.687310e-02 -4.916189e-02 4.155634e-02 1.933196e-02 -2.131551e-02 1.129057e-02 2.087953e-01
<VARIANCE> 39
 2.363151e+01 2.233162e+01 2.141776e+01 3.593921e+01 3.144129e+01 2.759605e+01 2.569843e+01 2.195031e+01 1.970582e+01 2.076807e+01 1.762662e+01 1.504178e+01 1.023174e+02 2.656039e+00 2.394171e+00 1.793813e+00 2.543955e+00 3.405905e+00 2.827331e+00 2.497405e+00 2.968203e+00 2.695421e+00 2.671144e+00 2.090899e+00 2.005857e+00 5.529283e+00 4.136834e-01 4.633484e-01 3.830641e-01 6.748324e-01 6.464242e-01 6.580241e-01 5.223636e-01 6.872886e-01 4.948072e-01 5.210679e-01 3.940505e-01 3.877591e-01 1.341145e+00
<GCONST> 1.188447e+02
<TRANSP> 5
 0.000000e+00 1.000000e+00 0.000000e+00 0.000000e+00 0.000000e+00
 0.000000e+00 7.268533e-01 2.731467e-01 0.000000e+00 0.000000e+00
 0.000000e+00 0.000000e+00 8.914925e-01 1.085075e-01 0.000000e+00
 0.000000e+00 0.000000e+00 0.000000e+00 7.856472e-01 2.143528e-01
 0.000000e+00 0.000000e+00 0.000000e+00 0.000000e+00 0.000000e+00
<ENDHMM>
~h "t"
<BEGINHMM>
<NUMSTATES> 5
<STATE> 2
<NUMMIXES> 3
<MIXTURE> 1 3.681406e-01
<MEAN> 39
 -2.022937e+01 2.141428e-01 -3.952820e+00 -2.005428e+00 -2.949464e+00 -1.992127e+00 -2.600798e+00 -2.875693e+00 -3.059717e+00 -1.642030e+00 -2.118683e+00 -1.373928e+00 3.504866e+01 -1.418316e+00 -8.999521e-01 -1.416380e+00 1.703427e-01 9.199837e-01 9.852447e-01 8.068342e-01 1.243092e+00 1.163656e+00 9.848403e-01 1.146519e+00 4.847027e-01 -3.669682e-01 2.494493e-01 -1.541431e-01 4.170970e-02 -8.379164e-01 -6.444377e-01 -3.455785e-01 -1.024836e-01 -2.257055e-01 3.025169e-02 4.371033e-02 -1.521722e-01 1.536759e-01 1.307140e+00
<VARIANCE> 39
 2.112197e+01 2.287069e+01 2.186928e+01 2.651396e+01 2.214174e+01 1.870323e+01 2.237987e+01 2.514865e+01 2.509976e+01 2.266652e+01 2.227972e+01 1.613195e+01 4.081726e+01 3.479322e+00 3.071972e+00 4.191852e+00 5.720580e+00 4.128457e+00 3.878838e+00 3.287342e+00 5.250576e+00 3.927694e+00 3.431827e+00 2.950193e+00 2.522084e+00 1.850044e+01 5.846188e-01 7.143683e-01 6.721277e-01 1.062443e+00 6.724623e-01 6.703375e-01 6.172721e-01 7.573939e-01 6.572499e-01 6.469629e-01 5.779123e-01 4.498551e-01 1.642818e+00
<GCONST> 1.267378e+02
<MIXTURE> 2 3.360549e-01
<MEAN> 39
 -2.120915e+01 -9.957424e-01 -5.589319e+00 -6.416918e-01 -3.144119e+00 -6.209688e-01 -1.869833e+00 -3.460752e-01 -7.536908e-01 5.105514e-01 -6.697456e-02 1.534403e-01 3.022112e+01 -9.393466e-02 -3.750474e-01 -1.524683e-01 -2.525120e-01 2.079513e-01 5.286874e-02 1.976942e-01 1.427195e-01 2.696488e-01 2.987625e-01 3.982073e-01 2.349519e-01 7.230800e-01 9.449851e-03 8.913108e-03 -7.499960e-02 -4.301718e-01 -1.032455e-01 -2.258172e-01 5.550360e-02 -3.186201e-01 -8.217590e-02 -1.530623e-01 -1.405564e-01 -6.996054e-02 1.318649e+00
<VARIANCE> 39
 1.339905e+00 2.382897e+00 3.792263e+00 6.421389e+00 7.394129e+00 8.175273e+00 9.592581e+00 9.856597e+00 1.138027e+01 1.130024e+01 1.001172e+01 9.042295e+00 1.881803e+00 8.549303e-01 1.008676e+00 1.131168e+00 2.048725e+00 1.319023e+00 1.477757e+00 1.367707e+00 1.640914e+00 1.698793e+00 1.603610e+00 1.373248e+00 1.423262e+00 7.477938e+00 2.393934e-01 2.097691e-01 2.830927e-01 4.133837e-01 2.715750e-01 3.531244e-01 3.067970e-01 4.094197e-01 3.524399e-01 3.371615e-01 3.095162e-01 2.702649e-01 1.308372e+00
<GCONST> 8.663052e+01
<MIXTURE> 3 2.957986e-01
<MEAN> 39
 -2.163703e+01 -1.588755e+00 -6.108535e+00 -6.924120e-01 -3.113142e+00 -6.106893e-01 -2.200339e+00 -4.582426e-01 -1.073257e+00 -1.452962e-01 -6.895019e-01 -1.433407e-01 2.928977e+01 -3.850455e-02 -1.057558e+00 -8.561265e-01 -1.725560e+00 -7.544967e-02 -5.629809e-01 1.928913e-01 -5.482848e-01 2.687308e-01 2.620791e-01 -1.732069e-02 -3.683534e-02 3.838802e+00 -1.552027e-01 2.592422e-01 -1.336793e-01 -7.156840e-01 -2.085346e-01 -3.989359e-01 1.750868e-01 -3.668637e-01 -4.548791e-02 2.868039e-02 -3.559473e-02 -8.719053e-03 2.279556e+00
<VARIANCE> 39
 9.228088e-01 2.245881e+00 3.377366e+00 5.254768e+00 6.365760e+00 8.191417e+00 8.610971e+00 1.065516e+01 1.027450e+01 1.300513e+01 1.097945e+01 1.106934e+01 5.601367e+00 1.118015e+00 1.717859e+00 1.854385e+00 3.488559e+00 1.598300e+00 2.240018e+00 1.932015e+00 2.351792e+00 1.650498e+00 2.067821e+00 1.663603e+00 1.371307e+00 1.433606e+01 3.669818e-01 3.447368e-01 3.832580e-01 3.943938e-01 3.478734e-01 3.506720e-01 3.913839e-01 5.185148e-01 3.167735e-01 3.787239e-01 3.482322e-01 3.511536e-01 1.089454e+00
<GCONST> 9.340569e+01
<STATE> 3
<NUMMIXES> 3
<MIXTURE> 1 4.396161e-01
<MEAN> 39
 -2.353590e+01 -3.254367e+00 -1.127295e+01 -1.049211e+01 -3.663895e+00 -3.855774e+00 4.776375e-01 -3.044118e+00 8.888735e-01 1.872707e+00 4.549168e-01 3.271624e-01 5.617603e+01 -1.572018e+00 1.145801e+00 -5.151050e-01 -1.488985e+00 -7.248536e-01 -6.943471e-01 1.247245e+00 -5.324190e-01 4.404332e-01 3.169396e-01 1.599807e-01 1.313856e-01 5.755608e+00 5.722890e-02 2.871129e-01 9.341465e-01 7.009698e-01 -1.544953e-01 1.424715e-01 -3.573119e-02 2.876587e-02 -2.830863e-01 -2.873212e-01 -2.434788e-01 -3.853950e-02 -1.732243e+00
<VARIANCE> 39
 1.520917e+01 3.080109e+01 2.360688e+01 2.361616e+01 2.605069e+01 2.652091e+01 2.558146e+01 2.235502e+01 1.916532e+01 1.820023e+01 1.667059e+01 1.333220e+01 4.890838e+01 2.031940e+00 2.343191e+00 2.952008e+00 3.899132e+00 2.526521e+00 2.767593e+00 2.447928e+00 2.433191e+00 2.012216e+00 2.048879e+00 1.824439e+00 1.653883e+00 1.020866e+01 4.702700e-01 6.770992e-01 5.261011e-01 5.952561e-01 5.312927e-01 6.253008e-01 5.672823e-01 5.247088e-01 4.851517e-01 4.491496e-01 4.007453e-01 3.647724e-01 1.413084e+00
<GCONST> 1.170425e+02
<MIXTURE> 2 3.208303e-01
<MEAN> 39
 -2.889121e+01 1.848441e+00 -7.060287e+00 -8.386055e+00 -4.544429e+00 -4.092703e+00 4.467678e+00 -4.116478e+00 2.454688e-01 1.460094e+00 -2.265173e-01 -5.135047e-01 5.906846e+01 -8.318692e-02 -5.255993e-01 2.053083e+00 -6.849929e-03 -3.565990e-01 1.095312e-01 4.443965e-01 -2.961368e-01 -1.752875e-01 -2.874200e-01 -3.153191e-01 8.830497e-02 -2.794816e-01 9.576035e-01 -7.436162e-01 2.962248e-01 -5.985798e-02 -1.072480e-01 5.394888e-02 -6.486903e-01 -3.367680e-02 -1.859604e-01 -2.294217e-01 -1.948144e-01 9.467103e-02 -1.261294e+00
<VARIANCE> 39
 1.425534e+01 1.374859e+01 1.963675e+01 1.557107e+01 1.826577e+01 2.210140e+01 1.692697e+01 2.253372e+01 1.935744e+01 1.653919e+01 1.599312e+01 1.409485e+01 1.000092e+01 1.925809e+00 2.398813e+00 1.655855e+00 1.657652e+00 1.766118e+00 1.985998e+00 2.208323e+00 1.790348e+00 2.014271e+00 1.779507e+00 1.571956e+00 1.543135e+00 8.233688e-01 3.302594e-01 3.651452e-01 4.136725e-01 3.557451e-01 3.742870e-01 4.279421e-01 4.202122e-01 4.017176e-01 4.331571e-01 3.569630e-01 3.559577e-01 3.297746e-01 7.510329e-01
<GCONST> 1.033127e+02
<MIXTURE> 3 2.395493e-01
<MEAN> 39
 -2.687899e+01 -2.509640e+00 -3.806521e+00 -1.043364e+01 -6.302221e+00 -3.267830e+00 3.011097e+00 -5.107957e+00 1.434568e+00 1.135701e+00 -6.284819e-01 1.022011e+00 5.814648e+01 1.747971e+00 -1.090201e+00 1.705405e+00 -7.266145e-01 -8.607626e-01 -4.502142e-02 -1.176862e+00 -8.837357e-01 -6.231352e-01 -1.179807e+00 -9.062355e-01 -3.116999e-02 -1.324301e+00 1.062740e+00 3.994880e-01 1.744606e-01 -4.694085e-01 -4.412528e-01 -3.424746e-01 -1.059811e+00 -5.210059e-01 -7.355514e-01 -4.858661e-01 -6.092122e-01 -3.829361e-01 -2.675053e-01
<VARIANCE> 39
 1.117418e+01 9.595559e+00 1.368521e+01 1.372436e+01 1.487936e+01 1.727853e+01 1.815917e+01 2.099989e+01 2.175381e+01 1.977389e+01 1.563444e+01 1.393206e+01 1.103255e+01 1.403282e+00 1.286044e+00 1.723136e+00 1.406612e+00 1.786995e+00 1.762774e+00 2.539828e+00 2.067275e+00 1.911334e+00 1.989199e+00 1.801831e+00 1.732758e+00 5.705522e-01 3.114915e-01 4.632212e-01 3.599475e-01 4.414636e-01 3.790424e-01 4.847013e-01 5.345991e-01 4.117447e-01 5.637417e-01 3.899568e-01 3.717246e-01 3.459110e-01 2.866977e-01
<GCONST> 1.013251e+02
<STATE> 4
<NUMMIXES> 2
<MIXTURE> 1 4.403484e-01
<MEAN> 39
 -1.903538e+01 -5.785426e+00 -3.685368e+00 -1.007187e+01 -7.137240e+00 -5.862728e+00 2.842203e-01 -1.935000e+00 -3.994817e+00 -2.789283e+00 -1.281943e+00 1.515781e+00 5.247109e+01 1.808732e+00 -8.378469e-01 4.758776e-01 -4.164467e-02 -1.016456e+00 -3.287404e-01 -9.275805e-01 -1.935923e-01 -9.298765e-01 -8.670743e-01 -8.359151e-01 1.086119e-03 -7.895138e-01 1.269332e-01 9.923831e-02 -2.880034e-01 8.537623e-02 1.250490e-01 1.772828e-01 -3.357566e-01 1.166080e-01 3.726945e-02 1.251139e-01 -3.925596e-02 -1.307672e-01 -3.822374e-01
<VARIANCE> 39
 2.668447e+01 3.246651e+01 2.673862e+01 2.511184e+01 5.494410e+01 5.537490e+01 6.858393e+01 4.110129e+01 3.524878e+01 3.626478e+01 2.876846e+01 2.622306e+01 6.620334e+01 4.294889e+00 3.287404e+00 2.364138e+00 3.444313e+00 4.864615e+00 6.187792e+00 4.404634e+00 4.084448e+00 4.100530e+00 2.829979e+00 3.096719e+00 2.796293e+00 6.583827e+00 7.462063e-01 6.786143e-01 5.862192e-01 5.742067e-01 7.745856e-01 1.053849e+00 8.867458e-01 8.638842e-01 7.144799e-01 6.497512e-01 5.117873e-01 4.805442e-01 1.087527e+00
<GCONST> 1.320962e+02
<MIXTURE> 2 5.596499e-01
<MEAN> 39
 -2.222616e+01 -2.885370e+00 -2.353538e-01 -1.144592e+01 -7.585818e+00 -2.868673e+00 -7.836629e-01 -7.602747e+00 -4.493179e-01 -2.097090e+00 -3.371579e+00 7.988438e-03 5.415591e+01 3.808213e+00 1.042980e+00 2.544515e+00 -2.238609e+00 -2.507254e+00 -1.362117e+00 -3.988923e+00 -2.488334e+00 -2.684076e+00 -1.907372e+00 -2.568933e+00 -1.059443e+00 -6.345490e-01 3.099440e-01 4.056244e-01 1.192921e-01 -7.851747e-01 -5.769526e-01 -3.695593e-01 -6.329841e-01 -1.412454e-02 -4.497786e-01 3.662493e-01 -2.588138e-01 -1.187628e-01 6.624642e-01
<VARIANCE> 39
 1.504578e+01 1.147708e+01 1.924732e+01 1.142702e+01 1.893022e+01 1.867712e+01 2.637937e+01 2.435742e+01 2.316473e+01 2.684123e+01 2.011173e+01 1.852707e+01 1.717976e+01 1.488013e+00 2.188883e+00 1.751715e+00 3.237163e+00 2.651369e+00 2.781469e+00 2.606573e+00 2.466616e+00 3.405259e+00 2.625027e+00 2.264729e+00 2.355786e+00 9.161322e-01 3.424083e-01 4.274197e-01 4.475978e-01 3.315499e-01 4.326901e-01 5.516174e-01 5.717233e-01 5.920013e-01 6.136571e-01 5.166044e-01 5.149660e-01 4.116867e-01 2.000000e-01
<GCONST> 1.096496e+02
<TRANSP> 5
 0.000000e+00 1.000000e+00 0.000000e+00 0.000000e+00 0.000000e+00
 0.000000e+00 8.015817e-01 1.984183e-01 0.000000e+00 0.000000e+00
 0.000000e+00 0.000000e+00 8.082679e-01 1.917321e-01 0.000000e+00
 0.000000e+00 0.000000e+00 0.000000e+00 5.353208e-01 4.646792e-01
 0.000000e+00 0.000000e+00 0.000000e+00 0.000000e+00 0.000000e+00
<ENDHMM>
~h "v"
<BEGINHMM>
<NUMSTATES> 5
<STATE> 2
<NUMMIXES> 2
<MIXTURE> 1 3.558699e-01
<MEAN> 39
 -2.135598e+01 -2.989473e+00 -6.106387e+00 -2.496383e+00 -3.365714e+00 -1.937146e+00 -2.317187e+00 -1.226888e+00 -2.363784e+00 3.101402e-01 -1.521178e+00 1.897504e-02 3.262717e+01 8.306901e-03 6.419583e-02 1.393681e-01 1.274522e-01 1.454060e-02 -1.079623e-01 -2.420904e-01 -1.401868e-01 -3.793295e-03 1.453522e-01 4.026072e-02 -1.641807e-01 1.242698e-01 1.973755e-01 4.349366e-02 1.003084e-01 -8.108208e-02 -9.580448e-02 -1.125102e-01 -6.284672e-02 -1.385281e-01 -1.495654e-01 -1.424749e-01 -1.245963e-01 -4.707702e-02 2.326539e-01
<VARIANCE> 39
 3.294956e+00 8.277787e+00 1.059776e+01 1.320473e+01 1.355678e+01 1.424806e+01 1.345324e+01 1.231102e+01 1.530228e+01 1.823332e+01 1.781894e+01 1.381790e+01 1.781206e+01 5.852637e-01 8.503349e-01 1.137426e+00 1.396689e+00 1.299871e+00 1.811219e+00 1.596784e+00 1.312172e+00 1.706675e+00 2.578713e+00 2.255159e+00 1.406273e+00 1.013481e+00 2.000000e-01 2.000000e-01 2.443205e-01 2.404116e-01 2.962568e-01 3.376480e-01 3.271446e-01 2.386543e-01 3.782168e-01 5.195444e-01 4.224358e-01 2.623033e-01 2.516322e-01
<GCONST> 9.221260e+01
<MIXTURE> 2 6.441309e-01
<MEAN> 39
